{"format":"ratass-rl-policy-v3","source":"ray-rllib-ppo","objective":"race-route-progress-v1","observationSize":33,"actionSize":2,"output":"first actionSize outputs are deterministic direct throttle and turn controls","layers":[{"inputSize":33,"outputSize":88,"activation":"tanh","weights":[0.013561,-0.101065,-0.022239,-0.151461,0.10001,-0.083744,0.117037,0.091324,0.006782,0.152077,-0.671426,-0.839793,0.174555,-0.047162,0.04203,0.19972,0.136591,-0.17691,-0.22218,0.078723,-0.216185,-0.001064,0.174725,-0.138428,-2e-05,0.076333,0.173004,0.11041,0.012159,0.114487,-0.059935,-0.101012,-0.112328,-0.167648,0.025355,0.028193,-0.169773,0.016075,0.198622,0.012052,-0.112515,-0.127668,-0.033858,-0.004785,0.115343,0.003584,0.028985,-0.141896,0.455283,-0.066695,-0.144317,0.118519,0.229496,0.073359,0.026565,-0.137489,-0.133486,0.148174,-0.103793,0.068172,-0.002496,-0.017963,0.032601,0.13922,-0.110842,0.080413,-0.035982,0.003629,-0.261591,0.108874,0.101852,0.202206,-0.173308,0.060477,0.023265,0.178929,-0.589074,-0.442235,-0.180305,-0.004868,0.05153,-0.150054,0.173095,-0.131438,-0.194406,0.074634,-0.050018,-0.014581,-0.035791,0.118086,0.138822,0.009545,-0.052852,0.143934,0.179054,0.003058,0.161394,0.206815,0.140371,0.086435,-0.186704,0.029232,-0.129598,-0.150438,-0.051615,0.080263,-0.014774,0.183218,0.034418,-0.483196,-0.509568,0.098059,-0.001021,0.086102,0.183545,0.040045,0.07754,-0.022623,0.013975,-0.182715,-0.083953,0.055419,0.029834,0.008776,-0.056358,-0.128943,0.050066,-0.031678,0.088024,-0.029561,0.061377,-0.014208,-0.133286,0.255222,0.009069,0.115092,-0.147596,0.116615,0.026417,-0.072538,0.103514,-0.026279,0.320301,0.043056,-0.002276,-0.006514,-0.165679,-0.484054,0.026295,0.008846,-0.012998,0.106065,0.045129,0.061462,-0.134547,0.181279,0.128295,0.123137,-0.008836,0.038697,0.054547,0.063284,0.158118,0.175981,0.09484,-0.14004,0.039225,-0.059394,-0.052647,-0.007085,-0.143671,0.04808,-0.014283,0.106308,0.117739,-0.088494,-0.091282,-0.015424,-0.136241,0.186968,-0.475898,0.206505,0.026515,-0.06319,0.07051,0.004527,-0.131067,-0.031217,0.009413,0.04255,-0.137952,0.147526,0.015961,0.212842,-0.011742,0.10791,0.012366,0.075962,0.200629,0.107583,0.258134,0.006496,-0.057591,0.025154,0.15308,0.135048,-0.024455,0.091029,-0.411547,-0.149579,0.066519,-0.038801,0.16774,0.408896,0.22823,0.288611,0.049284,-0.039802,0.092632,0.056904,-0.007995,0.023702,0.192232,0.192199,-0.035336,0.197884,-0.071879,-0.002963,0.157015,0.157249,-0.058664,0.180937,-0.148196,0.107775,0.146697,-0.107683,0.106272,-0.065274,-0.1307,0.118415,-0.031928,-0.435129,-0.439531,0.014839,-0.149455,-0.030752,0.323804,0.042371,-0.100768,0.067836,-0.053647,-0.146642,-0.171145,-0.185969,-0.185733,-0.079604,-0.181755,0.02187,-0.013326,0.089227,0.167623,-0.139987,0.034399,-0.125354,0.060525,0.050397,-0.060326,0.15393,-0.017668,0.178386,0.052736,-0.07994,0.030995,-0.020742,0.230637,0.235784,-0.155986,0.022021,0.102725,-0.444449,0.214525,-0.001522,-0.116059,-0.140449,-0.025923,0.164227,-0.038739,-0.009266,0.122997,-0.066608,0.080116,-0.130681,-0.117385,0.097703,0.076059,-0.203673,-0.131506,-0.068238,0.093443,0.003148,0.033745,0.001461,-0.178782,-0.075452,0.016354,-0.006772,-0.012985,0.056541,0.139175,0.233197,0.063372,-0.070504,0.53103,-0.178012,0.065101,0.150786,0.078449,0.091153,0.124532,-0.21749,-0.025914,-0.019048,0.099906,-0.000578,0.057909,-0.020599,-0.091925,0.023622,0.060013,-0.046643,-0.050411,0.201687,0.246516,0.131369,0.023174,-0.060168,0.030474,0.031772,-0.103874,-0.192563,0.31831,0.50785,-0.077382,-0.089634,0.024954,0.141878,-0.14971,-0.069662,0.042339,0.059936,0.114076,0.134602,-0.003533,0.062042,-0.102166,-0.07649,0.092043,-0.096438,0.112035,-0.078016,0.000968,0.022352,-0.168843,0.089081,-0.004218,0.233753,-0.069824,-0.042702,0.136679,-0.06472,-0.064265,0.046439,-0.203094,0.489987,0.655284,0.13677,0.125041,-0.012255,-0.087006,-0.098411,0.201849,-0.157072,-0.114662,-0.04589,-0.101375,0.056146,-0.049414,0.137438,0.138417,0.032299,0.055301,-0.177398,0.021264,-0.060555,-0.211337,-0.198925,-0.003825,-0.196095,-0.024756,0.126829,0.120383,0.025918,0.163354,-0.057365,0.028278,-0.099881,-0.254531,-0.233085,0.301293,0.085742,-0.038063,0.191384,-0.255793,-0.0418,-0.058386,-0.063796,-0.019656,-0.104032,0.056552,0.08898,-0.069571,-0.128214,0.185005,-0.054417,0.09117,0.018201,-0.080958,-0.119166,-0.015475,-0.043818,0.108355,-0.201715,-0.021667,0.021884,0.085836,0.180467,-0.0642,0.162756,-0.002303,-0.013224,0.010038,0.111596,0.140462,-0.216548,-0.377678,0.113151,-0.200037,-0.11617,-0.064118,-0.146291,-0.111975,0.09738,0.10469,0.173403,-0.078093,0.078926,0.19325,-0.096276,0.11582,-0.138796,0.089015,0.119183,0.245532,0.069319,0.041773,0.153999,0.190678,0.126295,0.171289,-0.117918,0.141203,0.132841,0.150131,0.254262,-0.059432,-0.012418,0.157082,-0.023526,0.132345,-0.414673,0.022481,-0.171684,-0.074588,-0.102211,-0.022237,0.159806,0.046191,0.165707,0.188539,-0.035477,0.065435,-0.025969,0.090307,0.035566,-0.157694,-0.041836,0.039981,-0.003193,-0.027714,-0.282192,-0.162822,-0.266462,-0.037416,-0.010055,0.144558,-0.342024,-0.48866,0.119276,0.018687,0.097215,0.102527,-0.381572,0.095194,-0.044077,-0.153912,-0.199086,0.061876,-0.041925,0.038144,0.131386,-0.006857,-0.054555,0.118245,0.091058,-0.127959,-0.082496,0.130955,0.015133,-0.102633,-0.077839,-0.161615,0.043399,-0.000162,0.067378,-0.130335,0.030604,0.091792,0.098358,-0.156021,-0.038599,0.058929,0.055453,0.057302,0.168655,-0.231775,0.063362,0.123117,-0.031659,-0.043869,-0.077489,-0.084977,-0.036751,-0.14547,0.019182,0.223744,0.074358,0.063323,-0.13207,0.035449,-0.112319,-0.018808,-0.080426,-0.047424,0.008977,0.131477,0.138719,0.20002,0.024882,0.053542,-0.100365,-0.089083,-0.011622,-0.109475,-0.099145,-0.126619,0.08478,0.423882,-0.177653,-0.058063,0.23665,-0.139233,-0.133852,0.15521,-0.017005,-0.09493,-0.0067,-0.112096,-0.04845,-0.119879,0.005565,-0.11332,0.180197,0.078819,-0.142581,-0.053129,0.040135,-0.244917,-0.17298,0.007228,-0.029641,0.161322,0.077353,-0.05466,0.187383,-0.058268,-0.061047,0.129212,0.052189,-0.143395,0.272147,-0.182291,0.122965,0.07854,-0.13074,0.156948,0.037701,-0.317367,-0.129956,0.010317,-0.014263,-0.080937,-0.133863,0.177972,0.027444,-0.111715,0.135824,0.189276,0.217637,-0.053251,0.274112,0.214041,0.25653,0.233579,0.299288,-0.083687,-0.191138,0.0969,-0.304036,-0.004643,0.110283,-0.065328,0.11456,0.401521,0.114073,-0.101658,-0.101094,0.066238,0.281422,-0.235457,0.183281,0.059304,-0.055183,0.076285,0.283807,0.11421,0.060186,-0.044053,0.161784,-0.078636,-0.028428,-0.067572,-0.084272,0.117925,-0.092091,0.118611,0.216825,0.004408,-0.061914,-0.022775,0.06158,0.089643,0.024369,0.063545,-0.106904,-0.103702,0.185226,-0.247655,0.056995,0.00853,-0.201821,-0.184175,-0.029248,-0.038097,0.114142,0.137495,0.031679,-0.110194,0.042958,-0.194464,-0.130897,0.091289,0.032372,-0.186894,0.009608,-0.098346,-0.102355,0.070993,-0.060923,0.014264,0.008357,0.052229,-0.111803,-0.097869,0.073799,-0.147876,0.064439,-0.15268,-0.106354,0.377721,-0.205638,0.009384,0.225447,-0.058239,0.085612,0.112163,-0.20029,-0.160351,-0.114685,0.065423,-0.062964,-0.183115,-0.095625,-0.10189,0.090835,0.076594,0.047449,0.081986,0.275451,0.189122,0.091482,-0.035889,0.182184,0.096555,0.226816,-0.152437,0.047759,0.204236,0.108831,-0.087691,0.055994,-0.044136,-0.259327,0.085594,-0.097809,0.083272,0.062448,-0.081526,0.103478,0.028179,-0.069634,0.147973,0.17448,-0.100116,-0.088564,-0.05966,0.049843,0.03343,-0.045979,-0.102314,0.184799,0.105129,0.23422,0.091726,0.098497,-0.020879,0.053963,-0.209205,-0.216052,-0.093145,-0.036023,-0.002693,0.216099,0.075755,0.133454,0.232344,-0.242874,0.141267,0.162917,-0.021221,-0.073499,0.115278,-0.213364,-0.057283,-0.047928,0.099708,-0.166996,0.036791,-0.037975,-0.111955,0.094434,-0.08619,0.059931,-0.081731,0.07171,-0.174801,-0.101281,0.168288,0.074606,0.196927,0.008301,-0.024225,-0.053712,-0.001829,-0.037604,-0.178589,-0.044552,-0.162553,-0.361567,0.248951,0.055841,-0.024003,-0.030295,0.117711,0.209835,0.207353,0.197188,0.169554,-0.147686,0.079954,-0.029061,-0.05721,-0.029169,-0.014148,-0.041805,0.025127,0.040168,0.204797,-0.008725,0.125897,-0.110131,0.104491,0.072662,0.168533,-0.121294,0.012153,0.232221,0.211625,-0.072625,-0.085023,-0.053611,-0.372614,0.145854,0.136799,0.012805,-0.059475,-0.008779,0.008886,0.253362,-0.061664,-0.092934,0.140064,-0.048809,-0.044515,0.143253,0.17829,0.00024,-0.105998,0.048617,0.367903,-0.020984,0.08585,0.137626,0.046776,0.048009,-0.045952,0.224904,0.218223,0.036378,-0.010907,0.058747,-0.010084,-0.144239,-0.123852,0.205036,0.174665,-0.085153,0.028123,0.029735,0.297716,-0.038957,0.241667,0.093163,0.203354,0.279649,-0.04056,0.200958,0.282006,0.268556,-0.158299,0.238321,0.05988,-0.176177,0.150982,0.085985,0.127391,-0.038949,0.175188,0.081745,0.185953,0.074622,0.184773,0.060133,0.010712,-0.231854,-0.112388,-0.134975,-0.464248,0.113103,-0.126993,-0.282502,-0.094383,-0.105679,-0.110586,-0.008785,-0.028906,0.006405,0.135581,-0.002928,0.173667,-0.035577,0.050197,0.143169,0.129573,0.105268,-0.026459,0.05892,-0.140352,-0.039337,-0.206827,-0.036309,0.07399,-0.113877,0.123871,0.234248,-0.302554,-0.307581,0.110654,0.002803,-0.080128,0.251639,-0.235317,0.28661,0.161407,-0.219839,-0.121956,-0.125683,0.065185,0.053584,-0.165884,-0.091692,0.060597,0.161786,0.162644,0.055392,0.115555,0.16499,0.213074,-0.057021,0.101655,-0.179408,0.066683,-0.132844,0.130529,-0.116873,0.069481,-0.045609,0.084879,0.079407,0.116843,-0.086364,-0.164661,-0.004156,-0.228279,0.230429,0.026461,0.069779,0.079825,0.132123,0.093693,0.113625,-0.090041,0.019082,-0.04717,0.163582,0.080106,-0.024686,0.159866,-0.062694,0.19718,-0.079597,-0.0817,0.273817,0.12903,0.051105,0.193806,0.089465,-0.060833,0.023736,-0.02974,-0.046415,0.037175,0.323864,0.044483,-0.135105,0.163407,0.274406,-0.191425,0.054712,-0.03051,0.040247,-0.111431,-0.142868,-0.062366,0.104068,-0.20098,0.205937,-0.074923,-0.199429,0.089501,-0.063703,0.032451,0.096666,-0.178647,0.091709,0.269096,0.124392,-0.458202,-0.088361,-0.18507,-0.035115,0.415236,0.077861,-0.12527,-0.113156,-0.089993,-0.365452,-0.147843,-0.236927,0.443155,-0.009915,-0.133483,0.188039,0.150425,-0.143557,0.391403,-0.090236,-0.065667,0.368269,0.066851,-0.552504,-0.030752,-0.0347,0.119363,-0.290226,-0.05298,0.03349,-0.122962,-0.159959,0.001143,-0.042647,-0.00252,-0.061392,0.079471,0.153075,0.221859,0.1179,0.362896,0.234723,-0.052454,-0.013745,-0.216907,-0.346951,0.095693,-0.071456,0.042474,0.04986,0.169244,0.180661,-0.109236,0.043031,0.176147,0.015045,0.028178,-0.103505,0.036973,-0.115857,0.064278,0.006147,0.011796,-0.004371,0.074535,0.054456,0.146503,-0.175557,0.136166,-0.051887,-0.010012,0.241318,0.170292,0.257753,-0.014967,-0.087662,0.088478,0.158763,-0.357388,0.115745,0.067239,0.077389,0.072703,0.061287,-0.066167,0.070008,-0.092422,0.151148,0.019095,-0.023733,0.076387,0.031627,-0.059782,0.115055,0.058478,0.03173,-0.126042,0.078026,0.138842,-0.125922,-0.003716,0.01606,0.107116,0.046083,0.090403,0.081994,0.516803,0.515103,0.074634,0.125749,-0.188312,-0.012656,-0.068126,0.115525,-0.118039,0.045155,0.040638,-0.153614,-0.152037,0.082139,0.169274,-0.106535,0.137658,-0.193551,-0.19227,0.088299,-0.119238,-0.026893,0.100928,-0.073182,-0.252988,-0.036318,0.033636,-0.305411,-0.145062,0.127967,0.069918,-0.066674,-0.094705,0.009305,0.056435,0.335033,0.067633,0.154439,-0.303429,-0.102684,-0.189364,0.085434,-0.187877,0.249253,0.092492,-0.009078,-0.015395,0.129176,0.100795,0.14014,0.164799,0.022872,-0.068155,-0.249097,0.211004,0.159768,0.131352,-0.182156,0.173596,0.140585,-0.151186,-0.007019,-0.127112,-0.17471,-0.229588,-0.021416,0.265218,0.162569,0.013171,0.038135,0.049494,0.338303,-0.205627,0.190534,0.134838,-0.184013,0.15992,0.123701,0.112455,0.057171,0.062496,-0.112999,-0.129914,0.008905,-0.24432,-0.020562,-0.094391,0.055201,-0.15383,-0.136228,0.066137,-0.083495,-0.144727,0.056061,0.097191,-0.008719,0.107432,0.092928,0.137786,-0.6409,-0.629532,0.029936,-0.123305,-0.136418,0.119617,0.074862,0.122427,-0.110452,-0.164012,-0.13529,0.13619,-0.0802,-0.137691,0.089451,0.028502,-0.119756,-0.091562,0.145361,-0.059139,0.007757,-0.152094,-0.108231,0.044091,0.180524,-0.108597,0.134002,-0.14512,-0.134834,-0.017696,-0.108032,-0.086113,0.218358,0.169798,0.212405,0.018043,0.117111,-0.033263,-0.433662,0.195058,0.092028,0.021732,-0.026085,0.085489,-0.122735,0.187789,-0.005419,0.009311,-0.075958,0.046892,0.140834,-0.093718,0.209574,-0.154308,0.117515,-0.015564,0.032923,0.11003,-0.214592,0.106037,-0.127371,0.009855,0.102102,0.174831,-0.039859,-0.077407,0.102492,0.30515,0.232249,-0.070136,0.127266,-0.566403,-0.030008,0.061351,-0.174785,0.114607,0.066413,0.113376,0.184942,0.06074,0.035283,-0.039893,0.012177,0.196734,0.03201,-0.053714,-0.155036,0.145898,-0.074197,0.080671,-0.2134,0.047793,0.083793,0.123375,0.04562,0.005773,0.096639,0.059082,0.151801,-0.320868,-0.357556,0.326956,-0.057772,-0.19363,0.451059,-0.078716,0.168169,0.12495,-0.012219,-0.023328,0.107619,-0.223717,0.044167,0.169166,0.085981,0.072398,-0.053823,0.217932,-0.16465,-0.058052,0.052851,0.226354,-0.134033,0.208934,0.04038,0.113206,0.076591,-0.156757,0.18301,0.085713,0.006376,-0.039054,0.142755,0.049531,-0.160159,-0.103291,-0.158604,-0.546548,0.207434,-0.140492,-0.068909,-0.110881,-0.102664,-0.104843,0.16001,0.002313,0.191645,0.109522,-0.008996,-0.001829,0.244923,-0.099227,0.169263,-0.067844,0.187435,-0.069651,0.012869,-0.149637,-0.077124,0.031096,0.084679,-0.00043,-0.027971,0.037473,-0.122253,-0.220174,-0.358039,0.092858,-0.139082,0.02652,0.265838,-0.071449,-0.051683,0.081899,0.019805,-0.030847,-0.071252,0.008084,-0.218631,-0.075657,-0.011541,-0.086786,0.062099,-0.039796,0.092485,-0.017647,-0.021125,-0.141985,0.134631,-0.155687,0.092651,0.031137,-0.11944,-0.061699,-0.099084,-0.226844,0.064676,0.028226,0.19027,0.09361,-0.013461,0.060582,0.05434,0.412179,0.059523,0.117937,0.04301,0.120322,-0.175806,-0.094219,-0.094631,-0.099201,0.093096,0.112173,-0.041945,-0.204243,0.058519,-0.029268,-0.108571,-0.210344,-0.234889,-0.085046,-0.077244,-0.105637,-0.114887,-0.021604,-0.010581,-0.044889,-0.161271,0.008853,0.029014,0.192243,0.190106,-0.049755,-0.119703,0.092643,0.287184,-0.252331,0.159644,0.099944,0.023413,0.145592,0.06388,-0.230839,0.114104,-0.08777,-0.073555,-0.059622,0.073055,0.090245,-0.179602,0.010694,0.07047,-0.01498,0.266353,-0.016784,0.119668,0.103494,0.101277,0.222576,-0.113245,-0.029137,-0.089942,-0.108262,-0.018288,0.182033,0.088312,-0.084505,-0.1086,0.109411,-0.045819,0.233909,-0.07138,0.083259,0.014672,0.042823,-0.145695,-0.055492,0.116486,-0.090651,-0.052725,-0.170856,-0.181307,-0.033443,0.089162,-0.120524,-0.090077,0.133927,0.17683,0.112383,-0.115518,0.135318,0.200584,-0.105561,-0.059585,-0.158401,-0.165801,-0.16362,-0.110029,-0.048818,0.122861,0.052693,-0.222168,0.274056,0.041916,-0.0763,0.013651,-0.108234,0.052947,-0.059528,-0.028814,0.007552,-0.058406,-0.10439,-0.196337,0.103941,0.03609,0.182841,-0.122669,-0.00084,-0.104908,0.014761,0.010596,-0.164127,-0.109576,0.028161,0.159451,-0.039391,-0.159328,-0.041258,0.302823,0.233438,-0.19039,0.044617,0.13539,-0.136642,0.336678,-0.154756,0.027127,0.082743,-0.047393,0.037747,0.130332,-0.006504,-0.005764,-0.069728,0.021153,-0.05078,-0.135222,-0.061825,0.057771,0.000701,-0.011155,-0.03223,0.103508,-0.179829,0.012947,-0.21328,0.06576,0.047364,0.175386,0.088115,0.070089,-0.09696,-0.091556,0.184351,-0.085242,0.2146,-0.484322,-0.077215,-0.126614,-0.224928,-0.130128,0.069766,0.16121,0.180371,-0.127269,0.012445,0.130697,0.199556,0.062516,0.111527,0.041178,-0.044688,-0.043692,0.124647,-0.179059,-0.185712,-0.206658,-0.097345,0.042053,-0.105494,-0.012648,0.049515,0.166508,-0.062608,0.131392,-0.041232,0.119297,-0.089191,-0.11668,-0.247303,0.164645,-0.062455,0.024231,-0.123743,0.004354,0.150712,0.135519,-0.112781,-0.049025,-0.107829,0.087823,0.0574,0.176141,0.169925,-0.122608,0.202308,0.035722,-0.081548,-0.089261,0.188693,-0.364136,-0.229576,-0.10142,0.037303,0.150076,-0.141823,0.154516,-0.246167,-0.397198,0.244142,-0.253065,0.116992,0.218944,0.156694,0.058217,0.162278,-0.055472,0.046278,0.242486,0.201471,-0.104623,0.2701,0.168835,-0.228841,0.044157,-0.032258,0.065857,-0.278691,0.064124,-0.031341,0.153063,-0.039207,0.084124,-0.139698,0.085527,0.054905,-0.077905,-0.167351,0.018824,0.055715,0.447567,0.393785,0.170512,-0.116748,-0.033549,-0.175992,-0.041115,-0.045136,-0.057941,0.220169,0.075008,-0.125092,0.239367,-0.143244,0.01094,0.08006,0.108304,-0.183232,-0.034644,-0.117864,-0.139781,0.083009,-0.210508,0.000734,-0.037409,-0.161069,-0.232258,-0.11729,-0.03682,0.197317,0.002646,0.109968,-0.007786,-0.28603,-0.508342,0.401851,0.111565,-0.107032,-0.264204,-0.122383,-0.064063,0.092301,-0.267931,0.235499,-0.013351,-0.079739,-0.070035,0.08005,-0.019786,-0.010419,0.240365,0.156363,0.119324,-0.034252,-0.057786,0.166514,0.203544,0.030933,0.244538,0.049831,0.174546,0.223417,0.030723,-0.064052,-0.042022,-0.141622,0.737155,0.486322,-0.154995,-0.002323,-0.118718,0.084873,-0.059983,0.104868,-0.166579,-0.054663,-0.157436,0.038335,-0.076998,0.006943,0.020376,0.028446,-0.140321,-0.162831,-0.215346,-0.078709,-0.109145,-0.08302,-0.104112,0.116304,-0.037007,0.086477,0.118507,0.270556,-0.035501,0.211626,-0.058524,-0.097796,0.018272,0.574636,0.415534,0.021621,-0.022233,-0.144019,-0.088427,0.062751,0.030258,-0.117577,0.075948,0.19946,-0.147761,0.041496,-0.04516,-0.047419,-0.007007,0.059098,0.108343,0.115669,0.124038,0.048881,-0.114396,-0.015501,-0.114167,0.112616,-0.151122,-0.057575,-0.020713,0.091227,0.10702,0.098766,-0.125869,0.088663,-0.595395,-0.744347,-0.159874,-0.078269,0.148474,-0.151646,0.091395,-0.366447,-0.02676,0.033125,0.110444,-0.155777,0.014523,0.112226,-0.052606,0.075098,0.053989,-0.060778,0.133125,0.037979,-0.149525,0.198953,-0.057835,0.125313,0.12042,-0.068916,-0.032819,0.272107,0.212728,-0.166079,0.165198,-0.069303,-0.10775,0.08924,0.187582,-0.129687,-0.076493,0.092761,-0.196963,0.231509,-0.351371,0.099384,0.035839,-0.090725,-0.006374,-0.066394,-0.003491,0.150591,-0.052143,0.064325,-0.043884,0.002628,-0.1431,0.115929,0.026703,-0.143281,0.049502,-0.198235,-0.110579,0.113446,0.015726,0.03466,-0.07239,0.047693,0.125504,0.078428,-0.504699,-0.419627,0.169211,-0.020802,0.001035,0.349502,0.020112,0.150448,-0.054056,-0.149609,0.135434,0.099144,-0.26361,0.047417,-0.150665,0.049174,0.068748,0.054307,-0.082176,0.046517,-0.133982,0.203178,0.03219,-0.045964,0.166466,0.044113,-0.024,0.015861,-0.044103,-0.069656,-0.07966,0.125811,-0.006241,0.019253,-0.250138,-0.178971,0.193403,-0.098822,-0.464258,0.191132,-0.013167,0.019903,0.157205,-0.193932,-0.046083,0.205108,-0.114962,-0.162319,-0.009574,-0.075353,0.15863,-0.152675,-0.000372,0.116521,-0.033184,0.085586,0.109968,-0.188653,-0.14535,-0.09095,0.114428,-0.039625,-0.007866,-0.071015,-0.176383,-0.06584,-0.260612,-0.496224,0.200059,-0.156358,0.090666,0.445283,0.067173,0.031499,0.131295,-0.017531,0.052097,-0.067665,-0.220664,-0.163635,-0.158081,-0.134381,-0.080406,0.133085,0.015353,0.10425,0.163189,-0.090767,0.032206,-0.128217,-0.173473,-0.058219,0.047263,0.156567,0.036439,0.275209,-0.371083,-0.148232,0.055226,-0.041894,0.019791,0.561932,-0.050007,-0.07812,0.249528,-0.201662,-0.05392,0.115397,0.036539,0.254867,-0.29289,-0.035412,0.020741,-0.146962,-0.068035,0.432869,-0.154288,0.13448,-0.136512,0.180302,0.063117,0.052373,-0.045971,0.01157,0.179946,0.05217,0.05507,0.005802,-0.078588,-0.057566,-0.034394,0.032985,-0.246923,-0.07051,-0.035438,0.156174,-0.058891,0.416827,-0.169964,0.01251,0.042198,-0.102113,-0.078989,0.053612,-0.06486,-0.078504,-0.118879,0.087474,0.123629,-0.138295,0.003071,-0.153028,-0.025349,0.033287,-0.044871,-0.123381,0.289849,-0.075671,-0.074647,0.027315,0.126413,-0.057361,-0.035162,0.054409,0.09064,0.521303,0.296553,-0.187628,0.047358,-0.056206,0.175652,0.013179,-0.038969,0.096094,-0.12365,0.030585,-0.131703,-0.147692,-0.092387,-0.094488,-0.069619,0.112036,0.088807,0.001625,0.176735,0.13297,0.00303,-0.017919,-0.096438,-0.25336,-0.145564,0.104203,-0.015604,-0.059447,0.062601,0.077684,0.076831,0.07161,-0.358812,-0.440406,0.276893,0.117012,0.143484,-0.090197,0.039176,-0.194616,0.036625,-0.088265,0.230732,0.064716,-0.027283,-0.039203,0.17797,-0.025701,-0.099938,0.144864,0.243656,-0.214235,-0.152982,-0.057349,0.010216,0.218481,0.103469,0.253971,-0.151258,0.071784,-0.141139,-0.071955,0.010547,-0.23411,-0.148927,0.4035,0.228885,-0.127222,-0.095081,-0.162641,0.174797,-0.227623,0.286979,-0.080012,0.062914,-0.093835,0.147697,-0.141621,0.104058,-0.150523,0.09492,0.11551,0.06758,-0.155469,0.124653,0.075286,-0.096929,-0.199877,-0.25801,0.269798,-0.198106,0.134809,-0.042766,0.09794,-0.155015,0.029689,-0.173212,-0.122506,0.08099,-0.112484,-0.195076,-0.119105,0.144115,-0.318768,-0.130871,-0.188376,0.056524,-0.121127,-0.087717,-0.14176,-0.070536,-0.203442,0.112496,0.073717,-0.004562,-0.080691,-0.108274,0.091071,0.180417,-0.03861,0.025167,-0.162102,0.072029,-0.122855,-0.154577,0.043663,-0.038591,0.010439,0.037028,0.057713,-0.238792,-0.148707,-0.183968,0.160711,0.128692,0.200524,0.303417,0.010809,-0.20057,-0.113132,-0.188524,0.059524,-0.122216,-0.10312,0.045289,0.057253,-0.102102,0.048384,0.039882,-0.044752,-0.21168,-0.136725,-0.164774,0.091314,0.082147,0.154871,-0.023302,0.052972,0.129637,-0.044555,-0.063202,-0.134196,0.045676,0.094418,-0.518677,-0.403359,-0.204734,0.206593,-0.110282,0.250474,-0.077864,-0.183234,-0.052774,-0.104973,-0.149087,0.141103,0.011843,-0.10312,0.135304,0.04527,0.162605,0.111872,0.20337,-0.182589,0.071826,0.07359,0.034265,-0.138254,-0.058404,-0.151432,-0.137383,-0.104142,0.107454,0.090131,0.156467,-0.017759,0.186036,0.004674,0.051047,0.074259,0.087696,0.162965,-0.424358,0.004803,0.021402,0.056926,-0.069159,0.08257,0.008028,0.169289,-0.114603,0.067512,-0.097927,0.076559,-0.0721,0.198845,0.078047,0.034566,-0.030222,0.033332,-0.191883,0.15841,-0.142972,0.028699,0.056697,0.020956,-0.118666,-0.013229,-0.082001,0.122911,0.060554,0.314681,-0.173522,-0.085105,0.000684,-0.251445,0.102319,0.148529,-0.103065,-0.089568,0.214288,0.083201,0.196482,0.180308,0.188078,0.163487,0.093668,-0.044633,0.193412,-0.005261,-0.023209,-0.010448,0.030753,-0.00761,0.142809,0.072892,-0.060014,-0.01521,0.137696,0.072874,0.103834,0.083778,0.04834,-0.278679,-0.258976,-0.011924,0.109075,0.265259,0.47983,-0.179048,0.13231,0.005631,-0.141035,-0.086809,-0.208502,0.102716,-0.113083,-0.202565,-0.091615,-0.055758,-0.161309,0.076214,0.099112,-0.152916,-0.167254,-0.156991,0.086451,-0.200533,0.063526,0.054158,0.004003,-0.103323,-0.049785,0.13739,0.041896,-0.095997,-0.270143,-0.339294,0.16183,0.146186,-0.066291,0.559182,-0.223645,-0.137124,0.158349,-0.015453,-0.142176,0.121797,-0.171148,0.096523,-0.14049,-0.003903,0.073231,-0.142476,0.099968,-0.042892,-0.058304,-0.125486,-0.215609,0.035476,-0.232531,-0.164805,-0.001779,-0.116729,0.12168,0.070738,0.015613,0.089668,0.069273,-0.28663,-0.049794,0.257896,-0.063007,0.090394,0.306458,-0.132523,-0.082329,0.051102,0.164055,0.007911,-0.133596,-0.225088,-0.179181,0.089623,-0.002388,-0.153341,-0.148168,-0.011937,-0.135994,-0.111071,0.000219,0.155006,0.014046,0.237156,-0.137221,0.106596,0.096248,-0.035961,0.026409,0.035303,0.019836,0.239178,0.185425,-0.059929,-0.202556,-0.129709,0.006124,-0.508785,0.008937,-0.140473,0.023881,-0.056516,0.09136,0.080081,-0.015984,0.02755,0.191564,0.013003,0.093736,0.248379,0.017986,0.118999,0.103671,-0.034335,-0.026697,0.08704,-0.10253,0.113346,-0.159898,-0.098883,-0.164605,-0.166623,-0.16909,0.009076,0.101613,-0.227145,-0.196009,0.006746,-0.160149,0.111887,0.238383,-0.220076,-0.035232,0.12696,-0.081087,-0.121492,-0.09735,-0.02474,-0.118367,-0.106913,0.033325,0.023968,-0.074119,-0.002605,0.023405,0.101972,0.013253,-0.167188,0.049908,0.146505,-0.165939,0.061524,-0.04673,-0.003341,-0.221845,-0.032541,0.135211,0.209289,-0.753026,-0.682669,-0.009068,0.18336,-0.164048,0.122185,-0.210987,0.026141,0.048951,-0.09443,-0.016617,0.131039,-0.004697,0.027099,0.019291,0.065592,0.104427,0.200149,0.208821,-0.027676,0.152877,0.169955,0.177119,-0.075114,-0.133694,0.059769,-0.066077,0.056349,0.20594,-0.121393,0.045663,-0.151467,0.006777,-0.052092,-0.082855,0.117143,0.068438,0.123635,0.414289,-0.084503,0.193242,0.04678,-0.086854,-0.112975,0.105476,0.113225,0.107682,0.030869,-0.171168,0.115126,-0.122652,-0.131532,-0.174687,-0.117928,-0.080911,-0.024659,-0.019534,-0.230178,-0.0245,0.032644,-0.098086,-0.042157,0.099974,0.095915,-0.017625,0.193669,-0.341729,-0.19673,0.098674,0.023483,-0.045528,-0.238375,0.105472,-0.204546,-0.239208,-0.008028,0.15168,0.119885,0.013147,-0.118378,-0.102066,-0.055633,-0.159479,0.088382,0.086485,-0.09767,0.136191,-0.02234,0.171544,-0.138777,0.061846,0.104451,0.072391,-0.105475,-0.020699,-0.133398,0.107651,-0.031983,-0.000457,-0.199225,-0.357489,-0.065769,0.059623,-0.187145,-0.288593,0.184621,-0.141735,-0.077146,-0.045622,0.106975,-0.128601,0.009431,0.145829,0.162271,-0.034941,0.160064,-0.009614,0.046313,-0.068424,-0.111014,0.092243,0.23635,0.192318,0.145759,0.094097,-0.167578,0.042074,0.069848,-0.146141,0.144312,-0.018449,-0.149398,0.377504,0.485824,0.043864,-0.023545,-0.074702,-0.183688,0.095065,-0.232733,0.052392,0.097954,-0.161044,-0.096185,0.046047,-0.082071,0.113983,0.009961,-0.078044,-0.107519,-0.209296,0.172559,0.112483,0.049926,-0.091987,0.067831,0.217102,-0.26951,0.03258,0.098313,0.113911,0.047396,0.194939,0.045225,0.030411,-0.618427,-0.715332,-0.361625,0.087994,0.142207,0.397666,0.045765,0.080275,-0.004778,-0.09713,-0.156833,-0.073685,-0.031065,0.156973,-0.164111,0.046336,0.016479,0.139163,0.118971,-0.04032,0.098618,0.127086,0.112133,-0.238315,0.012962,-0.251886,-0.162303,-0.188477,0.079967,0.041261,-0.043339,0.133095,-0.117315,-0.073557,0.01236,0.067415,0.017758,-0.038698,-0.198992,0.177725,0.085764,-0.038912,0.128489,-0.034981,0.185741,-0.005457,0.112627,0.103739,-0.069226,-0.171281,-0.022301,0.090498,-0.153158,-0.203363,-0.047112,0.12238,0.202749,-0.104594,-0.047579,0.097616,0.147413,-0.102733,-0.134575,-0.103483,-0.158762,0.105108,0.082508,0.044398,0.071692,0.036839,-0.008364,0.418709,0.036026,0.009119,-0.08442,-0.074484,0.154799,0.116045,-0.171773,-0.14457,0.083709,0.045118,0.157445,-0.157299,-0.180584,0.112662,0.125979,0.075978,-0.214883,0.049463,0.202359,0.157136,0.0975,-0.071719,-0.00258,-0.0298,-0.027947,-0.083065,-0.247059,0.559148,0.318141,-0.021237,-0.115429,-0.191263,-0.177635,0.145735,0.131908,0.018007,0.039731,-0.109904,0.085527,0.049553,0.099678,-0.144832,-0.04945,0.073598,-0.217436,-0.195091,0.086684,-0.047328,-0.120123,-0.044725,0.139241,0.048385,-0.152946,-0.060867,-0.103842,-0.106922,-0.055878,-0.051992,-0.031525,-0.015148,-0.128069,-0.032934,-0.100927,0.129405,0.175652,-0.434868,0.211115,-0.14975,-0.052001,0.02412,-0.084987,0.103334,0.194671,-0.02129,-0.029544,0.039473,0.115702,0.187037,0.057474,0.094415,0.072326,-0.032969,0.048802,0.166986,0.226486,0.112645,0.080798,0.10467,-0.173194,-0.11248,0.130316,-0.062619,-0.18029,0.146624,0.405436,0.012464,0.121313,-0.048833,-0.393659,0.024896,-0.005648,0.024422,-0.105546,0.080237,-0.037383,0.254976,-0.198809,0.030779,0.014488,-0.292663,-0.19363,-0.186813,0.113906,-0.133253,0.034394,-0.170163,-0.193214,0.0515,-0.119378,0.10355,-0.142158,-0.059159,-0.029484,0.088119,-0.016455,0.087311,0.012643,0.251741,-0.035764,-0.175231,0.098855,-0.473193,0.132541,0.113675,-0.153229,-0.08315,0.078734,-0.043139,0.172682,0.184458,-0.133694,-0.012634,-0.009802,0.145547,0.072406,0.190412,-0.151225,-0.063186,-0.023726,0.111685,0.113453,-0.154278,-0.127902,0.125878,-0.011999,-0.074788,-0.03167,0.114307,-0.045209,-0.186005,-0.285481,0.157515,0.151397,0.207829,0.236321,-0.280232,-0.035409,0.239764,0.140572,0.083412,-0.024488,-0.151793,-0.039,0.109873,-0.125855,0.097916,0.103238,0.051949,-0.120278,-0.080882,0.09944,-0.190187],"bias":[-0.120607,-0.057427,-0.194249,-0.138256,0.011999,-0.035159,0.319504,-0.050604,-0.016646,0.062097,0.077316,0.057691,0.105097,-0.058967,0.170138,0.018576,-0.018479,0.218971,-0.03396,0.253071,0.07144,0.17362,0.19756,0.143011,0.075861,-0.066093,0.410086,-0.136372,0.06231,-0.198746,0.149085,0.036877,-0.244419,-0.16654,-0.124193,-0.164183,0.004174,-0.046106,-0.121621,-0.0914,-0.171083,-0.211371,0.195126,0.04888,0.213019,0.14583,-0.072861,-0.02943,-0.239861,-0.244376,0.051125,-0.0392,-0.18427,0.088684,-0.039412,-0.031558,-0.049206,0.089414,0.038334,0.159224,-0.041148,0.226194,0.095068,-0.019147,0.086663,-0.18676,0.011109,0.093993,0.010228,-0.142091,-0.071047,0.150453,0.047085,-0.195956,-0.042406,-0.142005,0.225122,-0.197201,-0.115759,-0.022642,0.118922,-0.146683,0.268318,0.140671,-0.191236,0.14527,0.012371,0.037092]},{"inputSize":88,"outputSize":88,"activation":"tanh","weights":[-0.090424,0.00505,-0.38665,0.023804,-0.122985,-0.137853,0.005643,0.094051,-0.036516,-0.083769,0.168331,0.169718,0.022303,-0.168421,0.044766,0.009663,0.024568,0.062514,-0.135096,0.035805,0.101001,0.055321,0.028863,0.246917,-0.184553,-0.038602,0.067016,-0.049125,-0.227154,-0.090048,0.075923,0.141066,-0.047641,-0.135323,-0.060913,-0.10343,0.184219,-0.01515,-0.094207,-0.089916,-0.092121,-0.20277,0.07542,0.016543,0.01006,0.178513,0.148601,0.015507,-0.138978,-0.204469,-0.046321,0.141593,-0.079936,0.42419,0.109788,-0.135902,-0.044766,-0.007029,0.026864,0.086523,-0.098766,0.216733,0.01685,-0.183645,0.344465,-0.097378,-0.061481,-0.03579,-0.018804,-0.087434,0.140501,0.136963,-0.086552,-0.070402,0.016823,-0.187106,0.078766,-0.254451,-0.094776,0.242483,-0.082551,-0.156722,0.03727,0.259655,-0.054188,0.131411,-0.038732,-0.087772,-0.023225,0.0197,-0.100036,0.106805,-0.138618,-0.157822,-0.084593,0.119407,-0.111191,0.10484,-0.036171,0.040258,0.024748,-0.144754,0.117427,0.039022,0.051288,0.124219,-0.101558,0.063892,-0.059562,0.190832,-0.07451,0.144424,-0.048239,-0.11959,0.103333,-0.15374,-0.089596,-0.167774,-0.042651,0.180755,-0.01272,-0.129256,-0.015925,-0.118108,-0.018849,-0.111392,-0.175381,-0.117283,-0.018118,-0.171958,-0.02919,0.074697,0.116499,0.127203,0.149485,0.082556,-0.164067,-0.236635,0.091021,0.142909,-0.005642,0.343627,0.05524,-0.100607,0.019508,0.013875,0.065105,-0.058752,0.073356,0.12052,-0.133191,-0.086174,0.134266,-0.00217,0.102562,0.05708,-0.000892,-0.273244,0.169872,0.256754,0.129894,-0.199452,-0.024434,-0.182244,0.014758,-0.097168,-0.042309,0.202931,-0.090401,-0.142823,0.10502,0.097999,-0.140948,-0.028542,-0.219505,0.117169,-0.039786,-0.085592,0.092192,0.01801,-0.023397,0.015647,-0.067378,-0.14168,-0.003988,-0.131264,-0.126351,-0.048092,-0.113759,0.121266,-0.123219,-0.084327,-0.161068,-0.185635,-0.042543,-0.075602,-0.054808,-0.170381,0.08171,-0.225544,0.064082,0.116311,-0.033467,-0.033323,0.084238,0.037415,-0.171313,0.039549,0.059581,0.156395,-0.005854,0.202023,-0.069249,0.044912,0.002703,0.11644,-0.012699,0.067689,-0.150871,0.0805,-0.023442,-0.07533,-0.028634,-0.054011,0.020766,0.227083,0.024428,0.000259,0.111096,-0.130225,0.085567,0.042348,-0.106798,-0.023964,-0.006947,-0.08303,0.04356,-0.089831,-0.015261,0.229255,-0.114866,-0.114757,-0.0935,-0.149942,0.189956,0.127096,-0.100528,-0.222112,-0.078905,0.110452,-0.07802,0.105051,-0.086374,0.123357,0.151795,-0.142414,-0.082308,0.133938,0.098168,-0.159215,0.057518,0.058856,0.169976,-0.107115,-0.01694,-0.049933,0.172479,-0.029551,0.081846,0.110699,-0.049452,-0.16044,0.019706,-0.028302,-0.134703,-0.218971,0.092452,0.068885,-0.098683,0.152999,-0.010552,0.035151,0.077191,-0.068004,-0.030608,-0.157825,0.07971,-0.374125,0.181925,0.084554,-0.06785,0.061287,0.17429,0.111544,-0.063339,-0.080561,0.159179,0.235773,-0.088036,0.180403,-0.016682,0.091633,0.130574,0.002683,0.031444,0.244449,-0.12685,-0.145856,0.08145,-0.163262,-0.146619,-0.092342,0.193305,0.223808,-0.072452,-0.202685,0.255608,-0.45772,-0.072204,0.012626,-0.093512,0.072901,0.027531,-0.007315,0.116862,-0.062887,-0.061298,0.178406,-0.268061,0.057,-0.045718,-0.032425,0.017791,0.135126,0.030023,-0.069356,0.043837,0.058099,-0.060346,0.145409,-0.137859,0.042094,0.039095,-0.154111,0.165539,0.022428,-0.159107,-0.230457,0.063754,-0.05693,0.079398,0.055994,-0.001805,0.022671,0.108783,0.004413,0.086313,0.121189,0.022634,-0.171527,0.04501,0.114765,0.065271,0.048137,-0.096368,0.195482,0.02419,0.140034,-0.031536,-0.088244,0.049557,-0.115692,-0.097962,-0.067792,-0.041934,-0.178249,0.161864,-0.011325,0.073375,0.058876,0.0686,0.211488,-0.101272,-0.101465,0.170371,0.107908,0.131126,0.102459,-0.00931,-0.089516,0.248439,0.235835,0.052858,0.153881,0.002692,-0.036458,0.066908,-0.221483,-0.195603,0.100323,0.18223,0.237263,-0.046269,-0.004174,0.014047,-0.206617,0.057391,-0.064349,-0.039537,-0.096356,0.035225,-0.133118,0.012104,-0.097204,0.019079,-0.003336,-0.121262,-0.103468,0.003103,-0.082334,0.110009,0.228551,-0.011187,-0.229206,0.026818,0.036086,-0.132594,-0.051444,-0.061642,0.004134,0.011621,0.037622,-0.074559,0.088465,-0.047995,0.00907,-0.00999,-0.056556,0.128188,-0.003102,0.012296,0.112942,-0.151879,0.024504,-0.085129,-0.23668,0.080343,0.015677,-0.006628,0.02735,0.090234,0.11807,-0.048125,-0.061675,0.121382,-0.12672,-0.093803,0.029711,-0.057573,-0.034044,-0.045304,0.117359,0.060428,0.259576,-0.143227,0.022468,0.149926,-0.058345,-0.231397,-0.25379,0.166411,0.100365,-0.043002,-0.154401,-0.106368,-0.122754,0.106851,-0.175221,0.01049,-0.137014,-0.144207,-0.079144,-0.059887,0.104422,0.072039,0.204009,0.180491,0.066174,-0.289335,-0.214721,-0.083231,0.034861,-0.274625,0.276706,0.046691,-0.156533,0.029391,-0.02842,0.086392,-0.035398,0.00751,0.138468,-0.025213,-0.173244,0.3962,-0.094539,-0.072281,0.041161,-0.130235,-0.162353,-0.047893,0.155109,0.021786,-0.19451,0.114478,-0.205669,0.099664,-0.134518,-0.13618,0.052192,-0.094033,-0.161884,0.003851,0.118301,-0.117403,0.130357,-0.011204,0.149249,0.06648,-0.099417,-0.32097,0.062018,0.057826,-0.067461,0.055914,0.073448,0.011163,-0.056058,0.154633,0.175368,-0.07697,-0.015137,0.078595,-0.040668,-0.025278,0.116623,-0.095038,0.029817,0.121376,0.11624,0.029507,0.20582,-0.115365,-0.063101,0.099638,-0.098987,-0.180787,-0.160104,0.061266,0.164815,-0.182008,-0.052292,0.051396,-0.15299,0.180078,-0.045855,-0.082912,-0.092998,-0.199277,-0.020023,0.043013,0.208586,-0.105597,0.198955,0.147086,0.13578,-0.191683,-0.271854,-0.054628,0.198959,-0.320479,0.354514,0.077922,-0.03099,-0.046876,-0.111336,0.073625,-0.073512,-0.149284,0.224508,0.086471,-0.344998,0.318052,-0.064018,-0.059403,0.099432,-0.196062,-0.160711,0.063998,0.179099,0.050581,-0.060562,0.095963,-0.281171,0.118514,-0.138989,-0.192535,0.102458,-0.128824,-0.143816,0.075986,0.335708,-0.121823,0.161033,0.034945,-0.062527,0.024556,0.003469,-0.099848,0.077393,-0.031372,-0.085307,-0.079995,0.135625,-0.034196,0.076988,0.070918,0.035457,0.126383,-0.136335,-0.073633,0.095062,0.036238,0.145142,-0.043387,-0.016077,0.133809,0.091282,0.041069,0.349399,-0.247213,-0.198121,-0.095586,-0.126121,-0.167483,-0.06362,0.132469,0.092893,-0.038896,-0.128439,-0.049778,0.017237,0.086908,-0.04282,-0.057378,-0.197539,-0.092547,-0.098787,0.142269,0.046737,-0.043711,0.105543,-0.033496,-0.079972,-0.170793,-0.254113,-0.002255,0.110771,-0.043362,0.08978,-0.02481,0.05501,-0.002182,-0.042733,-0.11857,0.088823,0.082746,0.055663,0.070446,0.005246,0.01322,-0.01525,0.103489,0.109704,-0.064315,-0.189885,0.053436,0.113056,0.049738,-0.183766,0.172515,0.014301,0.109621,-0.090484,-0.077972,0.094948,-0.040723,-0.092786,-0.0087,-0.066726,-0.175989,0.014408,-0.273658,0.192879,0.15917,-0.103113,0.392449,-0.007771,0.124411,0.195367,0.058219,0.00162,-0.025187,-0.079569,-0.101695,-0.335989,0.067112,0.046317,-0.099384,0.181661,-0.012173,0.056363,-0.008541,-0.162724,0.038034,-0.089289,-0.126636,-0.249337,0.114213,-0.070485,-0.15483,0.122883,0.189227,0.230236,-0.083573,-0.103973,-0.021474,0.178598,-0.185752,-0.004745,-0.08915,0.184684,-0.055706,0.015164,0.09563,0.095672,0.074466,-0.166633,-0.016644,-0.188859,-0.195772,0.014842,0.253308,0.231778,-0.000176,-0.21546,0.307661,-0.519459,-0.109608,0.159168,-0.127256,0.055866,-0.057672,-0.099481,0.144265,-0.065403,0.102493,0.300065,-0.403842,0.05117,0.003404,0.091912,0.041397,0.224788,0.013633,-0.22652,0.116328,0.117675,-0.133542,0.398183,-0.071077,0.157416,0.063246,-0.200637,0.174233,0.092369,-0.208264,-0.31271,0.114054,-0.155886,-0.022536,0.08877,-0.034451,0.014828,0.212442,0.030558,0.132154,0.198478,0.076812,-0.09392,0.097236,0.121337,0.125686,-0.011462,-0.091063,0.177425,0.040364,0.103704,-0.022472,-0.048403,-0.034421,-0.087801,-0.029646,0.013596,0.029037,-0.203182,0.058734,-0.023804,-0.082793,0.130489,0.258742,0.257757,-0.023698,-0.097579,0.196449,0.106588,-0.015372,0.096757,-0.117553,-0.088714,0.098121,0.118611,0.136165,0.180147,0.011244,-0.141715,0.084569,-0.176371,-0.119615,-0.064504,0.220118,0.084603,0.020127,-0.095806,0.043934,-0.210647,0.048417,-0.143168,-0.115576,-0.073455,-0.001347,0.007028,-0.034057,-0.064614,0.112421,-0.025799,-0.085662,0.006923,-0.101407,-0.089787,0.123028,0.241573,-0.100582,-0.25735,0.025446,0.195065,-0.153955,0.112567,0.028595,0.040464,0.089283,-0.113787,0.081872,0.083796,0.024186,0.04163,0.004092,0.055956,0.077986,-0.039925,0.086764,0.091034,0.352284,-0.009222,0.08726,0.191916,-0.115984,-0.087023,-0.117708,0.022692,-0.18758,-0.227822,0.002051,0.075763,-0.080911,0.177706,-0.004898,-0.044407,0.020041,-0.014369,-0.02683,-0.023797,-0.016075,-0.339417,0.172272,0.075282,0.001803,0.039751,0.189687,0.239035,-0.105617,-0.128261,0.085941,0.053333,0.037293,0.042362,-0.02077,0.090362,0.017629,0.111754,0.166884,0.173812,0.004199,-0.05559,-0.021616,-0.160231,-0.110746,-0.012305,0.226306,0.235022,0.046707,-0.233633,0.157389,-0.530442,-0.068288,0.245559,0.04996,0.027055,0.010617,0.079258,0.173256,-0.061973,-0.014503,0.33615,-0.466076,0.155923,-0.023015,0.062622,0.116716,0.088367,0.049252,-0.212108,-0.042049,0.046143,0.037274,0.344944,-0.005214,0.286034,0.224865,-0.267547,0.031703,0.244301,-0.066705,-0.329692,0.081642,-0.138379,0.127273,-0.111538,-0.098987,-0.097923,0.131939,0.033743,0.14767,0.025633,0.023089,-0.240454,0.028571,-0.014808,-0.027167,0.126141,-0.080914,0.076168,0.075449,-0.062384,-0.089858,-0.012171,-0.031907,0.045967,0.047283,-0.062455,-0.036648,-0.33644,0.140686,0.156779,0.08184,0.145015,-0.071351,0.048738,-0.047948,0.079115,0.145065,0.12353,0.133677,0.199034,-0.034735,0.005619,0.182077,0.073081,-0.092639,0.162516,-0.041956,-0.087388,0.009028,-0.153693,-0.022502,0.130977,0.14179,0.104884,0.088496,0.018351,0.021948,-0.056424,-0.018605,-0.01607,-0.005032,-0.040658,0.128897,-0.161237,-0.113833,-0.147988,0.007559,0.063929,-0.052821,-0.047576,0.006042,0.00763,0.212543,0.164032,-0.157957,-0.211476,-0.06605,0.217844,0.004713,-0.047184,0.0012,0.027873,0.050716,0.051769,0.022625,0.075049,-0.111962,0.10305,0.116276,0.10303,0.165429,-0.23353,-0.178106,0.047006,0.129847,0.021177,0.165572,0.034272,-0.021728,-0.025572,0.024844,0.087017,0.008156,-0.050753,0.026858,0.135595,0.020668,-0.049336,-0.078958,-0.022606,0.125483,-0.004497,0.049406,-0.043587,0.059068,-0.283869,0.078523,0.037358,-0.010913,0.034394,0.216735,0.195834,-0.09795,-0.142973,0.071072,0.241956,0.132523,0.251687,-0.032076,0.012914,0.153618,0.174924,-0.021508,0.170831,-0.050607,-0.163677,0.104401,-0.046184,-0.245153,-0.02677,0.127409,0.340054,-0.013815,-0.118731,0.151542,-0.221499,0.064742,-0.020511,-0.183526,0.078848,-0.07546,-0.142961,-0.075746,-0.269157,0.102247,0.046018,-0.041454,0.063295,0.05571,-0.022123,0.177503,0.103863,-0.020223,-0.180627,-0.027629,0.225137,-0.105953,0.110145,-0.10022,-0.019567,0.02385,-0.168561,-0.101913,0.074188,-0.093725,-0.134042,0.02277,0.018882,0.094081,-0.075262,-0.014013,0.095629,0.349112,0.030151,-0.057096,0.252505,-0.053686,-0.064072,0.006537,0.002752,0.024829,-0.298012,-0.082969,0.183597,-0.002198,0.141941,0.120241,0.101985,0.05516,-0.046727,-0.030335,0.031574,0.033828,-0.18756,0.060818,0.031802,0.036786,0.09203,0.144577,0.106139,-0.026388,-0.056564,-0.018522,0.139325,-0.017733,-0.012035,-0.145454,0.054078,-0.012618,0.08049,0.061948,0.197026,-0.073795,-0.058481,-0.086836,-0.016057,-0.188687,-0.135373,0.270035,0.35831,-0.073692,-0.183578,0.259246,-0.372801,-0.177436,0.170967,0.037063,0.068766,0.06864,0.017478,-0.008793,-0.194783,0.100076,0.198837,-0.43207,0.040076,-0.078983,-0.03652,0.14429,0.051566,0.04226,-0.217988,0.010129,0.13365,0.017549,0.282061,0.072944,0.234379,0.035327,-0.178514,0.048549,0.00612,-0.058861,-0.142946,0.185797,-0.109371,0.08659,-0.042595,0.139938,0.118598,0.334053,-0.030774,-0.006152,0.170903,-0.046837,-0.00877,-0.19848,-0.000705,-0.211702,-0.205289,-0.016717,0.201814,-0.064179,0.150661,0.008892,-0.038002,0.172816,-0.052646,-0.082839,0.076842,-0.106718,-0.29389,0.137354,0.042504,-0.012046,0.147913,0.304907,0.139307,-0.162243,-0.028154,-0.006453,0.121032,-0.038163,0.04585,-0.148568,0.048664,0.05615,0.140056,0.053878,0.044359,0.039913,-0.150971,0.084745,-0.219262,-0.200707,-0.119121,0.166874,0.305606,-0.050564,-0.255468,0.213063,-0.46132,-0.104825,0.301904,-0.031267,0.03007,-0.099014,0.005212,0.101071,-0.006601,0.016853,0.248302,-0.445086,-0.037622,0.100775,0.090327,0.107726,0.089927,0.03747,-0.040439,0.108435,0.096483,-0.108666,0.319502,-0.070254,0.235994,0.248871,-0.133226,0.151913,0.145691,-0.133612,-0.265791,0.00158,-0.196614,0.139357,0.134357,0.13258,0.039605,-0.037563,-0.088172,-0.164757,-0.013768,0.090197,0.172319,-0.097596,0.130707,-0.059822,-0.13447,-0.014103,-0.0531,-0.038396,0.025777,0.110538,0.109868,-0.015379,0.100189,-0.05345,0.093776,-0.130417,0.340543,-0.105959,-0.067508,-0.106244,-0.166009,-0.059248,-0.070733,0.013253,0.007137,-0.066533,-0.197945,0.060365,-0.084953,-0.057367,0.034848,-0.236423,-0.269934,0.095571,-0.191123,0.104573,0.015119,0.119407,0.144683,0.11261,-0.104694,-0.095104,-0.22861,-0.096596,0.013371,-0.115913,0.017645,0.052943,-0.081073,0.063228,-0.07912,-0.125127,0.18337,0.026841,0.244214,0.03784,0.018949,0.063017,0.043089,0.034427,0.115502,-0.119407,-0.172688,0.021398,0.319936,0.021503,-0.076913,0.160279,-2e-06,-0.003242,-0.039854,-0.189172,0.014678,0.08456,0.018933,-0.009232,-0.067694,-0.048824,-0.12229,-0.139766,0.099571,0.080311,-0.188521,-0.022491,-0.022067,-0.033692,-0.010923,0.018861,-0.093889,-0.039164,-0.032352,0.054979,0.015025,-0.072103,0.187694,0.05881,-0.002078,-0.109668,-0.092395,0.036753,0.014156,-0.125733,-0.036895,0.036778,-0.215058,-0.008158,0.179315,-0.013855,0.012524,0.178089,0.19117,-0.004148,-0.018444,0.129019,0.105401,-0.059089,0.06621,-0.020463,0.003998,0.138582,0.153468,-0.04352,0.175454,-0.023399,-0.132423,0.028172,-0.031271,-0.026795,0.098567,0.138326,0.228539,0.007598,-0.134714,0.069313,-0.230024,-0.033621,-0.108643,-0.102011,0.089317,-0.079118,-0.16269,-0.020551,-0.267556,0.048617,0.156809,-0.153856,0.031967,-0.094,-0.074756,0.136397,0.073507,-0.141412,-0.290898,-0.086593,0.13189,-0.042025,-0.000802,-0.014782,0.04484,0.07732,-0.065589,0.109831,-0.038169,-0.022787,0.032989,0.198047,0.121367,0.243435,-0.139249,-0.034731,-0.055701,0.111573,-0.118304,0.057851,0.006356,-0.030426,-0.247812,0.027184,-0.078626,0.080091,0.039062,-0.152521,0.083063,-0.033763,-0.035485,-0.020155,-0.12018,0.015634,-0.071586,-0.038627,-0.143248,0.112949,-0.128119,0.175837,0.023374,0.126252,0.045062,0.160522,0.264036,-0.079974,0.074532,0.063875,0.052091,-0.032349,0.010358,-0.068877,0.062814,0.173086,0.224459,-0.031821,0.245753,-0.194284,-0.057005,0.023228,-0.005928,0.034285,0.06354,0.091863,0.213236,-0.008779,-0.023521,-0.026684,-0.20696,0.076804,0.0623,0.087522,0.012092,0.084717,-0.15453,-0.024401,-0.216103,-0.023417,0.073432,-0.077476,0.007562,-0.090727,-0.017956,0.103799,0.157442,-0.172245,-0.224238,-0.0249,0.244861,-0.208316,0.042094,-0.071459,0.152717,0.129793,0.057293,0.161626,0.083291,-0.021902,0.06749,0.121359,0.030956,0.185007,-0.067472,-0.105419,-0.166607,0.112441,-0.017981,0.166378,0.09505,-0.001346,-0.197604,0.045348,-0.003338,0.048911,0.067273,-0.045576,0.074016,-0.070132,-0.005706,0.023847,0.027157,-0.057706,0.025569,0.007999,0.002211,-0.075713,-0.169888,0.183183,0.045071,0.015853,0.045288,0.064078,0.16701,0.002928,-0.06746,0.155342,0.126793,0.04078,0.197426,-0.108483,-0.05859,0.108777,0.157356,0.0646,0.243634,-0.082269,-0.040294,0.075096,-0.194225,-0.191292,0.048308,0.206026,0.196914,-0.03236,0.055138,0.083771,-0.087565,-0.004267,-0.013901,0.046057,-0.109954,0.051139,-0.236432,-0.048808,-0.265021,-0.056739,0.047662,-0.054891,0.035142,-0.106159,-0.14475,0.121768,0.1233,-0.017276,-0.28402,-0.003997,0.202982,-0.024061,0.065977,0.01966,-0.05768,0.051606,0.053796,-0.032574,-0.014582,-0.156256,0.061031,0.035831,-0.036253,0.278803,-0.109249,-0.059554,-0.052992,0.262702,0.005588,-0.006131,0.176491,-0.048516,-0.067977,-0.074207,-0.027239,0.019989,-0.039428,0.107482,0.11675,-0.02512,0.100986,-0.064616,-0.066273,0.174925,-0.128254,-0.080971,-0.088591,-0.010839,-0.356659,0.003142,0.003079,-0.06766,0.000127,0.136962,0.173645,-0.202936,0.001715,0.173354,0.146372,0.088949,0.236477,-0.042537,0.106113,0.188945,0.185247,0.138846,0.149997,0.003888,-0.170739,0.00888,-0.115065,-0.248522,-0.015204,0.137262,0.287217,-0.049269,-0.00614,0.326151,-0.347369,-0.048723,-0.01258,-0.118516,0.027779,-0.040846,-0.107857,0.065325,-0.062594,-0.008243,0.298305,-0.327387,0.079743,-0.032551,-0.049762,0.160275,0.124936,0.000862,-0.143147,0.002879,0.18599,-0.045453,0.231387,-0.034522,0.233643,0.052148,-0.254656,0.055024,0.06229,-0.147094,-0.17265,-0.004454,-0.024651,0.023879,-0.039774,0.154262,0.135747,0.539598,0.038182,0.095342,0.210909,0.018515,-0.045532,-0.094546,0.14237,-0.065827,-0.411973,0.089935,0.143368,0.098048,0.093021,-0.047659,0.091262,0.122294,-0.017824,-0.131265,-0.082243,-0.004464,-0.341986,0.11149,0.025683,-0.046857,0.052276,0.273215,0.154869,-0.054408,-0.028766,0.176771,0.108709,-0.044467,0.11199,-0.236937,0.079827,-0.038283,-0.004077,0.117813,0.031852,-0.068162,-0.073248,0.086977,-0.027687,-0.221662,-0.019006,0.129949,0.307375,0.004954,-0.170826,0.190915,-0.515631,-0.141221,0.29991,-0.065253,0.054559,0.009556,-0.045562,0.140734,-0.014241,0.141441,0.200604,-0.500911,0.101481,0.106987,0.070791,0.088285,-0.00142,0.039231,-0.096187,0.052562,0.202852,0.025534,0.423263,-0.094661,0.27965,0.081215,-0.098073,0.209582,0.194031,-0.118737,-0.278773,0.12731,-0.071177,0.093158,0.158997,-0.003465,-0.079649,0.237099,-0.026283,-0.019627,0.102564,-0.002163,-0.067637,-0.002379,0.111488,-0.139291,-0.254065,0.038549,0.037369,0.006099,0.178447,0.057874,-0.098322,-0.012317,-0.034432,0.032201,-0.015407,0.067941,-0.329098,0.154687,0.022885,-0.033037,0.163502,0.215993,0.225015,0.022448,-0.17627,0.164797,0.208875,0.071184,0.170986,-0.104885,0.104117,-0.02868,0.157156,0.138763,0.175234,-0.069821,-0.166037,0.028781,-0.072912,-0.194964,-0.153388,0.270198,0.253118,-0.120741,-0.071662,0.268816,-0.460024,-0.101503,0.148454,0.040825,0.025323,-0.013978,-0.104225,0.026583,-0.148163,0.042756,0.244473,-0.224921,0.140001,0.078875,0.009446,0.046498,0.064853,-0.109263,-0.201289,-0.02422,0.127398,-0.084108,0.294152,0.045252,0.22032,0.201112,-0.130273,0.079469,0.023613,-0.109611,-0.299261,0.047386,-0.14693,0.151003,0.070509,0.003954,-0.082809,0.383909,0.04947,0.076081,0.254159,-0.074718,-0.009851,-0.030645,-0.076086,-0.185611,-0.171639,-0.002895,0.081534,0.030158,0.180277,0.044527,-0.017544,0.162508,-0.139093,-0.097404,0.020609,-0.044481,-0.246388,0.003519,0.005934,-0.144675,-0.034029,0.164896,0.202993,-0.196377,-0.009587,0.118451,0.050747,-0.038363,0.062257,-0.195596,0.111969,-0.016517,0.041994,0.10741,0.171707,-0.0304,-0.104162,0.000398,-0.03108,-0.165247,0.00861,0.256169,0.340527,-0.126372,-0.224908,0.153106,-0.337414,-0.172636,0.201035,0.039172,0.142027,-0.127275,0.028002,0.000817,-0.071858,0.118644,0.25087,-0.417895,0.055401,-0.031814,0.108624,0.09185,0.076727,0.022216,-0.161573,-0.076013,0.208629,0.065316,0.308023,0.010081,0.20752,0.188666,-0.23825,0.144209,0.10799,-0.014458,-0.292156,0.205082,-0.007351,-0.036168,-0.09858,0.121363,0.060436,0.027396,0.033096,0.002979,-0.002742,-0.097756,0.234481,-0.069312,0.097144,0.09794,-0.142788,-0.047326,-0.186826,0.015658,-0.032512,0.036565,0.099784,-0.100851,-0.027301,0.081821,0.056649,0.046057,0.177798,-0.197895,-0.015671,0.038801,-0.075417,-0.141889,-0.038647,0.1678,-0.091699,-0.187437,-0.142438,-0.004735,-0.197221,-0.033347,-2.2e-05,-0.05001,-0.15312,-0.000336,-0.070804,0.18173,0.006359,0.079567,0.016412,0.034025,-0.027134,-0.270401,-0.269228,-0.087532,-0.042775,-0.035269,0.189588,-0.004073,0.048214,0.13533,0.062948,0.08315,0.205539,0.101975,0.281759,-0.087067,-0.051457,0.188877,-0.061412,-0.049054,0.019727,-0.185663,-0.083155,0.142539,0.21811,0.033814,-0.082811,-0.025333,-0.022771,0.028136,0.037979,-0.106287,-0.048255,0.125019,0.052513,0.021559,-0.00462,-0.058408,-0.119236,-0.233734,0.184719,-0.100235,-0.096401,0.023027,-0.024551,0.089702,0.192973,0.022637,-0.093804,0.034569,-0.08631,0.103666,0.037606,-0.073463,0.14422,0.072053,-0.050717,-0.075502,-0.007909,-0.050459,0.050211,0.012198,0.018212,0.030613,-0.327353,0.07657,0.026439,-0.056879,0.144462,0.071997,0.074477,-0.013123,-0.031339,0.11597,0.055417,0.11518,0.061813,-0.134501,-0.044167,0.217757,0.258165,0.069874,0.157042,-0.192816,-0.045209,0.075497,-0.055207,-0.072357,0.041069,0.064705,0.14515,0.020831,-0.189582,0.089951,-0.061569,-0.039524,-0.027061,-0.010785,0.047462,-0.025307,-0.083449,-0.076104,-0.132818,0.077002,0.120575,-0.133508,-0.024979,-0.07384,-0.075378,0.089069,0.230072,-0.074689,-0.243354,-0.198856,0.063125,-0.148774,0.042004,-0.127555,0.074215,0.038615,-0.015138,0.084185,-0.037465,-0.115076,0.006799,0.087177,-0.029093,0.153348,-0.085959,0.046779,-0.125758,0.124948,0.017696,0.103796,0.200576,0.114731,0.007263,-0.113724,-0.021669,0.094973,-0.01936,-0.028993,0.080143,-0.043105,0.070827,0.013416,-0.146175,-0.09308,0.067203,-0.102227,-0.151761,0.068338,-0.111928,0.092566,0.092527,0.112484,0.125222,0.231167,0.228848,0.030377,-0.133295,0.086299,0.222521,0.043251,0.049338,-0.10073,0.052599,0.121775,0.039128,0.142934,0.1363,-0.150897,-0.220484,-0.154064,-0.046671,-0.019433,0.032404,0.083171,0.214179,0.033332,-0.077692,0.078032,-0.274522,-0.064535,0.014641,0.014143,0.09764,0.099705,-0.067886,0.061115,-0.169527,0.025057,0.047348,-0.113293,0.09889,-0.07831,-0.006486,-0.026208,0.127932,-0.016005,-0.165101,0.030041,0.238964,-0.128481,0.141615,0.007122,-0.047711,0.038429,-0.043372,0.198661,0.08858,0.018358,0.032655,0.168421,-0.081506,0.160222,0.019038,0.033161,-0.112144,0.388386,0.03679,0.009991,0.050509,-0.011194,-0.052723,-0.04367,0.0123,-0.099318,-0.229866,0.064013,0.190488,-0.142268,0.237673,0.031049,-0.126452,0.048362,-0.146839,-0.047096,-0.000703,-0.027892,-0.288487,0.05437,-0.066014,-0.022844,0.109229,0.321974,0.035404,-0.033241,-0.031165,-0.013947,0.198281,0.013484,0.198211,-0.087435,0.093553,0.03533,0.096967,0.20947,0.097415,0.090883,-0.19366,-0.106121,-0.052503,-0.188167,-0.067586,0.212704,0.209221,-0.05231,-0.10691,0.132735,-0.522076,-0.235436,0.085995,-0.109649,-0.005293,-0.050139,0.072038,0.136188,-0.088264,0.089975,0.160183,-0.373854,0.010859,-0.010317,-0.104772,0.033011,0.093471,-0.104628,-0.182908,0.011374,0.075428,-0.106155,0.360822,-0.118161,0.154958,0.16122,-0.092359,0.205162,0.103831,-0.111954,-0.253255,0.14143,-0.158437,0.058001,-0.070087,-0.165336,-0.107134,-0.050073,-0.053589,0.09359,0.072176,-0.024171,-0.213253,-0.069302,-0.013059,0.064219,-0.013546,-0.123563,0.170304,0.020796,-0.066137,-0.000523,-0.00256,-0.08778,-0.075175,0.078898,-0.144846,0.078821,-0.202535,0.03835,0.118615,-0.012967,0.057075,0.018461,0.125787,-0.066929,-0.072249,0.171745,0.199554,-0.007371,0.144931,0.079266,0.005837,0.220724,0.106464,0.018147,0.047206,-0.164373,0.009532,-0.055335,-0.112569,0.057359,0.123727,0.140011,0.287775,0.141702,0.034802,0.155158,-0.107049,0.017059,-0.04443,-0.008082,-0.079431,-0.054649,-0.026076,-0.101604,-0.312373,0.048743,0.165259,-0.104026,-0.051286,-0.095093,0.039054,0.087421,0.097048,-0.02504,-0.272395,-0.032423,0.13324,-0.149622,-0.058622,-0.08011,0.13649,0.184073,0.071177,-0.104463,0.009607,-0.131997,0.061128,0.079943,0.053545,0.150116,-0.171313,0.035619,0.136659,-0.240485,0.014778,-0.122322,-0.19392,-0.043323,0.041912,-0.062004,0.05315,-0.050872,0.071867,-0.005172,-0.203456,-0.0803,-0.04768,0.114349,0.09502,-0.042076,0.013395,-0.024695,0.153257,-0.028195,0.179762,-0.147696,-0.01827,0.057004,-0.134647,-0.173192,-0.08791,-0.004414,0.1055,-0.201107,-0.187842,-0.029262,0.011163,0.023445,-0.092373,-0.021574,-0.098556,-0.111479,-0.058544,0.116566,0.056849,0.08895,-0.016851,0.167204,0.047882,-0.044616,-0.199075,0.07512,0.032851,-0.019117,0.125845,-0.068457,-0.058085,0.033065,-0.103933,0.085276,0.144211,0.06828,0.170598,-0.119872,-0.131576,0.081493,0.073364,0.093033,0.087455,-0.148153,-0.084126,0.001494,0.094306,0.122739,-0.149972,0.104348,-0.11969,0.088382,-0.084166,-0.107087,0.002019,-0.160169,-0.055891,0.066236,0.112864,-0.17959,0.087432,-0.127055,-0.012469,-0.215881,0.016684,-0.032402,-0.070564,0.171216,0.132842,-0.008661,-0.22418,0.015887,-0.026527,0.093101,0.060874,-0.061487,0.057761,0.014842,0.075343,-0.100817,-0.126261,0.062187,-0.139464,-0.060871,-0.126218,0.107748,-0.249167,0.04629,0.13179,-0.072957,0.09946,-0.045332,0.152926,-0.108523,-0.049709,0.18288,0.199048,0.196036,0.081067,0.072606,0.086913,0.075305,0.180638,0.05955,0.150414,-0.163993,-0.162961,0.058642,-0.081792,0.025852,0.147486,0.127969,0.165245,-0.093906,0.034054,-0.029554,-0.138697,-0.013028,-0.13497,-0.072383,0.070211,-0.053163,-0.088126,-0.095069,-0.16963,0.001306,0.098469,-0.188991,-0.035073,-0.028595,-0.03762,0.115324,0.197769,-0.078821,-0.26722,-0.109647,0.159322,-0.07172,-0.02516,-0.082979,0.102189,0.185709,0.039193,0.075882,-0.011164,-0.070355,0.05748,-0.009628,-0.026558,0.093024,-0.143838,-0.070902,0.053432,-0.442333,0.006717,0.066468,-0.148051,0.070297,-0.065038,0.083835,-0.038091,0.095566,0.383896,-0.143064,-0.154379,-0.008127,-0.027036,-0.001064,-0.081587,-0.05058,0.046972,0.068103,0.134151,0.170638,0.368303,-0.058976,-0.103466,0.099641,0.017677,-0.235416,-0.08624,-0.011024,-0.003222,-0.117301,0.02128,0.131192,-0.052395,0.190339,-0.142412,-0.018522,-0.010278,-0.238271,-0.209223,0.082179,0.111956,0.084946,0.165398,0.179008,0.170445,-0.098553,-0.171307,0.079961,0.107263,-0.136225,0.567318,0.21878,-0.291218,0.087203,-0.041491,-0.028291,0.055611,-0.034915,0.194612,-0.002095,-0.269329,0.315638,-0.105561,0.015293,-0.077628,-0.169863,-0.044069,0.040203,0.053561,-0.005034,0.00586,0.12077,-0.243219,0.017443,-0.256966,-0.086772,0.109169,-0.165357,-0.173462,0.214728,0.295872,-0.155934,0.085594,-0.088705,-0.109033,-0.07392,0.087463,-0.235413,-0.072623,-0.061259,-0.156793,0.129806,-0.055964,0.204975,0.064054,0.248948,0.300459,-0.072199,-0.1082,-0.007794,-0.095867,0.015811,0.08736,-0.174147,0.040831,-0.0494,0.12659,0.105456,0.348536,-0.049015,0.030173,0.125714,-0.007474,-0.225156,-0.17218,0.118605,0.17152,-0.03428,-0.144518,0.012819,-0.224429,0.137635,-0.07403,-0.060038,-0.010495,-0.177332,-0.086037,-0.031382,0.11825,0.143818,0.21263,0.096269,0.014432,-0.279308,-0.357319,0.02417,0.070302,-0.375695,0.458693,0.196508,-0.207368,0.144301,-0.077237,0.045093,0.111978,-0.127757,0.109199,0.093267,-0.218318,0.525886,-0.077116,0.068783,0.022242,-0.231306,-0.017462,-0.057507,0.066118,0.015148,-0.040998,-0.005918,-0.358618,0.085104,-0.223803,-0.120287,0.156114,-0.03482,-0.175764,0.130764,0.277751,-0.124155,0.096515,-0.097035,-0.057476,0.015896,-0.077757,0.157428,0.027741,0.164716,0.055751,-0.067212,-0.092588,0.106843,-0.127909,-0.098226,-0.002305,-0.134772,0.200682,0.00879,0.025124,-0.141267,-0.036265,-0.061941,-0.05341,-0.022757,-0.152978,-0.035677,-0.356926,0.250458,0.215852,0.107031,0.012306,-0.054517,0.252357,-0.067943,0.110839,0.052049,0.225934,0.040518,-0.06199,-0.01353,0.133907,0.128699,0.136056,-0.070916,0.173599,-0.171182,0.006325,-0.218444,0.010383,0.104945,-0.070404,0.113677,0.100366,-0.009997,-0.072586,-0.015155,-0.219214,-0.063918,0.067645,0.003798,-0.079038,0.198506,-0.225916,-0.124165,-0.205041,0.018493,-0.029495,-0.091659,-0.075135,-0.085244,-0.023358,0.088584,0.203974,-0.013009,-0.274363,-0.228457,0.089341,-0.17108,0.004021,-0.090722,0.104022,0.231005,0.115426,0.062044,-0.075564,0.001203,-0.029231,0.178001,0.157169,0.2906,-0.091836,-0.098554,0.08866,-0.143725,-0.063879,0.046263,-0.198112,-0.033641,0.075478,0.079349,-0.045493,0.095138,0.182631,0.021968,-0.165271,0.05615,-0.122404,-0.010629,-0.041,-0.147225,0.024211,0.024286,0.066848,0.148521,0.373384,-0.055194,-0.098232,0.057222,-0.05081,-0.138684,-0.15362,0.178099,0.043838,-0.113966,-0.037032,-0.060917,-0.17765,0.101979,-0.182178,-0.008889,-0.081203,-0.181966,-0.020545,0.072157,0.065106,-0.026741,0.113232,0.304695,0.09944,-0.269101,-0.294448,0.029735,0.034002,-0.299337,0.279834,0.001796,-0.113977,0.203667,-0.096803,0.176876,-0.108946,-0.117947,0.034933,0.060361,-0.167656,0.417221,0.008648,-0.042704,0.072919,-0.204718,-0.060975,0.008669,0.191775,-0.103856,-0.11689,-0.005944,-0.247303,0.107232,-0.265326,-0.211704,0.139876,0.036324,-0.133049,-0.010077,0.143334,-0.034665,-0.00732,-0.064272,0.038111,-0.132214,-0.029292,-0.390412,-0.063565,-0.062208,-0.265492,0.023963,-0.128246,0.058617,0.146436,0.244385,0.260924,0.028869,-0.166736,0.156398,-0.129784,-0.030271,0.085243,-0.121128,0.158189,0.113615,-0.029543,0.061483,0.370888,-0.091913,0.057399,0.075501,-0.017845,-0.266402,-0.199345,0.0712,0.137167,-0.053031,0.005467,0.156409,-0.030082,0.22274,-0.193154,0.070003,-0.086404,-0.229427,-0.149302,-0.029318,0.049177,0.097105,0.218147,0.138471,0.023575,-0.164828,-0.196713,0.080368,0.172941,-0.321232,0.490934,0.10719,-0.149106,0.023622,-0.110384,0.101338,-0.148497,0.011922,0.117842,0.009986,-0.276371,0.5381,-0.006865,-0.037304,0.003695,-0.005744,0.011335,0.069278,0.069516,-0.204439,-0.164744,-0.02858,-0.344434,0.083122,-0.34183,-0.228475,0.256414,-0.207274,-0.149694,0.147242,0.274595,-0.129882,0.135366,-0.102333,-0.014435,0.129736,0.003988,-0.010644,0.14186,-0.04764,-0.13358,0.007119,0.196298,-0.013736,-0.016443,0.040052,0.093764,-0.025015,-0.098244,0.044328,-0.070758,0.053219,0.137421,0.026575,0.111641,0.086116,0.004649,-0.075281,0.291747,-0.178095,-0.175539,-0.05941,-0.104011,0.032547,-0.174888,0.103656,-0.065942,-0.236027,-0.038171,-0.049087,-0.137957,0.033541,-0.050028,-0.143686,-0.231953,-0.011311,-0.262651,0.120904,-0.011457,0.1003,-0.00251,0.091898,-0.032825,-0.052788,-0.275302,-0.092872,0.011518,-0.189053,0.179123,-0.034933,0.048143,-0.042129,0.05164,0.073113,0.071471,-0.058831,0.18438,-0.052849,-0.073325,0.184354,0.071792,-0.066762,0.004474,-0.058195,-0.278375,0.026869,0.199439,0.164001,-0.075556,0.155257,0.018514,-0.032134,-0.04564,-0.200421,0.04516,0.032324,0.057026,-0.018241,0.093441,-0.067678,-0.068385,-0.048042,0.137686,-0.034073,-0.171583,0.040024,0.035537,0.078968,0.228473,0.111372,-0.174857,-0.08188,0.02715,0.105315,-0.045458,-0.015427,0.054446,-0.040638,0.026651,-0.074996,0.028511,0.072858,0.023153,-0.159109,-0.072574,-0.011018,-0.244966,0.062821,0.149589,-0.071214,0.13199,0.184533,0.25196,-0.148781,-0.015623,0.016862,0.145992,0.044797,0.053109,0.017227,0.041579,0.124574,0.260787,-0.066868,0.22469,-0.07458,-0.065428,0.098178,-0.172283,-0.15234,0.046738,0.123236,0.243055,-0.081068,-0.132757,0.008372,-0.190914,0.018892,-0.047075,-0.032874,-0.049983,0.041097,-0.146061,-0.015374,-0.177858,0.143238,0.132838,-0.083906,0.075399,-0.058362,-0.088341,9e-06,0.197134,-0.047902,-0.258217,-0.153555,0.034096,-0.131381,-0.016892,-0.011159,-0.002008,0.066502,-0.157221,-0.011822,0.096052,-0.016021,0.098861,0.036957,0.09395,0.17409,-0.140046,0.185543,-0.068771,0.131627,0.143497,-0.066883,-0.049337,0.093443,0.018895,-0.185212,0.044889,-0.110165,0.046022,0.177067,-0.016094,-0.178159,0.228561,-0.103222,-0.020697,0.022702,-0.067003,-0.009887,-0.052114,-0.0366,-0.194589,-0.068112,-0.043975,0.050303,0.092889,0.253733,0.020829,-0.157337,0.00969,0.050656,0.029929,0.029743,0.336022,-0.089192,0.027431,0.077208,0.047594,0.104332,-0.048008,0.008296,0.001287,-0.095816,-0.147679,-0.338591,-0.091832,0.143602,0.337852,0.110183,-0.093379,0.429564,-0.274291,-0.210749,0.105646,-0.314011,0.120372,-0.114237,0.020679,0.055325,-0.18257,-0.002972,0.271901,-0.321966,-0.19022,-0.079739,-0.106493,0.276777,-0.015311,0.087,0.069361,0.195765,-0.042155,0.02196,0.216361,-0.065664,0.29456,-0.044189,-0.168231,0.069305,0.023434,0.031728,-0.163779,0.124925,-0.090671,-0.055667,0.031251,-0.270541,0.019839,-0.224926,-0.043586,0.065102,-0.217226,-0.05337,-0.066279,0.095789,0.11789,0.119508,0.234178,0.0125,-0.095914,0.051843,-0.113681,0.054206,0.082701,-0.184638,0.141618,0.075897,0.097948,0.074675,0.192304,-0.00055,-0.029433,-0.009844,-0.105985,-0.281563,-0.037654,0.10144,0.000561,-0.048889,-0.076361,-0.00769,-0.040933,0.201446,-0.235962,0.012202,-0.089317,-0.171256,-0.038159,6.9e-05,0.138621,-0.099752,0.228469,0.181213,0.150441,-0.124423,-0.317819,-0.011018,0.259432,-0.218959,0.565325,0.210094,-0.28019,0.02015,-0.007739,0.046354,-0.017707,-0.009474,0.09425,0.089243,-0.325428,0.53945,-0.055185,-0.13915,0.002355,-0.012371,-0.138822,-0.111544,0.128811,-0.093782,0.043655,-0.035932,-0.190787,0.119162,-0.211447,-0.096734,0.207967,-0.093335,-0.025968,0.131893,0.241264,-0.140778,0.157361,-0.072864,-0.016215,-0.105565,0.065618,-0.33498,-0.120611,0.011565,-0.222031,-0.052852,0.080783,0.076968,-0.00128,0.259777,0.308007,0.011391,-0.234151,0.159832,-0.110858,-0.110468,-0.047003,-0.115845,0.005859,0.008479,0.126102,0.091466,0.347865,-0.080709,-0.015693,0.090014,-0.076268,-0.245223,-0.087577,0.060326,0.161517,-0.014233,-0.090916,0.00576,-0.12674,0.149113,-0.072135,-0.093787,-0.062334,-0.045323,-0.001288,0.090237,0.011263,0.013745,0.13033,0.107363,0.156581,-0.246697,-0.390054,-0.069363,0.209093,-0.172135,0.440895,0.182965,-0.283044,0.178266,-0.106945,-0.077764,-0.09044,-0.081767,0.100231,-0.019632,-0.347018,0.471347,-0.085296,-0.059885,0.083078,-0.210156,-0.041751,0.001822,0.092132,-0.089537,-0.01414,-0.056888,-0.270509,-0.046008,-0.310452,-0.144507,0.276513,-0.188345,-0.094818,0.138099,0.185042,-0.100046,-0.008494,-0.041461,0.063651,-0.015579,-0.173532,0.117072,0.005299,0.040189,0.217586,-0.019202,-0.049717,-0.113698,0.024837,-0.019226,0.020635,0.064233,0.132552,0.065083,-0.001406,0.049474,-0.020346,0.047618,-0.098878,-0.161498,-0.144403,0.00437,-0.179574,-0.005462,0.099784,-0.022785,0.019009,0.178025,0.085609,-0.090694,-0.024034,0.090928,0.051969,0.124129,0.193954,-0.11314,0.00459,0.082198,0.195656,0.029198,0.143259,-0.002285,-0.066566,-0.011535,-0.210971,-0.085418,0.081414,0.080427,0.300704,0.113639,0.096216,0.258817,-0.160473,-0.072863,-0.107519,-0.065804,0.046474,-0.135967,-0.067066,0.029886,-0.275338,0.028458,0.005535,-0.092035,0.017254,-0.17008,-0.099297,0.151714,0.261403,-0.009076,-0.154463,-0.046091,0.094229,0.045087,0.028128,-0.015817,0.104482,0.056853,-0.133095,-0.080405,0.087247,-0.099622,-0.103771,0.120296,0.023596,0.059035,-0.110284,-0.09072,0.015674,0.189741,-0.12263,0.066291,0.069348,-0.028525,-0.090561,-0.066244,0.02992,0.028933,-0.106867,-0.126416,0.170481,0.040108,-0.002528,-0.087634,-0.080591,0.088773,0.059188,-0.120437,-0.184554,0.07164,-0.277486,0.2392,0.157608,0.049291,-0.030773,-0.050087,0.115292,0.011516,0.043661,0.071169,0.108261,0.001478,0.053861,-0.047594,-0.021218,0.119103,0.187483,0.017888,0.291809,-0.027609,-0.084353,-0.070813,-0.17154,-0.012639,-0.072898,0.079374,0.229268,-0.081758,0.003205,0.134688,-0.158681,0.007148,-0.117316,-0.082291,-0.019133,-0.036715,-0.11163,-0.011927,-0.291502,-0.026572,-0.052037,-0.05458,-0.102318,-0.125007,-0.050986,0.05458,0.149545,-0.090488,-0.272532,-0.053325,0.081501,-0.170576,0.043984,-0.063371,0.073299,0.076181,-0.091427,0.048589,0.068384,0.012602,0.080639,0.044656,-0.060806,0.073556,-0.187183,-0.075355,0.109323,-0.46601,-0.008471,0.041037,-0.044937,0.118883,-0.083114,0.204767,-0.073615,0.082402,0.314125,-0.101702,-0.248685,-0.037096,-0.217618,-0.108389,0.060019,-0.027162,0.020801,-0.036592,0.085162,0.071507,0.164635,-0.148456,0.039578,0.111947,-0.068496,-0.189771,-0.234319,0.082949,0.016244,0.03318,-0.005176,0.129193,-0.052798,0.26175,-0.110053,-0.077234,-0.07791,-0.057469,-0.089169,-0.079757,0.198809,0.118676,0.227474,0.164017,0.007423,-0.203404,-0.332813,0.064301,0.100201,-0.148754,0.407051,0.094692,-0.180342,-0.014823,-0.17499,-0.107922,-0.034076,-0.035648,0.194357,-0.039198,-0.268544,0.364784,-0.084968,-0.0918,0.01484,-0.05919,-0.14179,-0.036464,0.05542,-0.068914,-0.14983,-0.014213,-0.351349,0.06603,-0.289072,-0.253599,0.142462,-0.294421,-0.00481,0.078973,0.212242,-0.032851,0.115447,-0.13554,-0.02975,0.00884,-0.036742,-0.183776,-0.096922,-0.127955,-0.144703,0.00329,0.088043,0.054409,-0.123314,0.053433,0.179304,0.018365,-0.207748,-0.012256,0.019684,0.08137,0.011,-0.127892,0.122821,0.074281,0.130727,0.026676,0.279245,-0.08863,0.053011,0.043437,-0.059811,-0.114268,-0.124407,0.172947,0.099046,-0.178316,-0.091602,-0.16726,-0.2136,0.024206,0.036433,-0.124814,-0.153329,-0.071353,-0.0413,0.008615,-0.039045,-0.113517,0.219571,0.195048,-0.066677,-0.204616,-0.361989,-0.044802,0.013954,-0.273531,0.284303,0.061169,0.014817,0.257099,0.063464,0.154349,0.079358,-0.09171,0.238497,0.059301,-0.148626,0.227498,0.07403,0.09723,0.074861,-0.114762,-0.19822,-0.031723,0.048361,-0.089955,-0.052451,-0.052425,-0.119871,0.035391,-0.190107,0.037756,0.197286,0.120699,-0.001023,0.128936,0.148446,-0.024388,0.089924,-0.176561,0.020527,0.014861,-0.026642,0.145282,0.055548,0.128151,0.153067,-0.018856,-3.4e-05,0.066925,-0.069187,0.065678,-0.073673,-0.016421,0.166758,-0.036914,0.049229,0.021269,-0.119739,0.008945,0.004954,-0.107379,0.015836,0.060082,-0.237189,0.122871,0.133348,-0.01452,0.129959,0.163369,0.160166,-0.188153,-0.175105,0.179447,0.177091,-0.029491,0.157384,-0.040128,0.003288,0.153382,0.19874,0.03467,0.043311,0.065208,-0.086531,-0.130729,-0.133214,-0.157403,-0.011433,0.079991,0.193318,-0.045705,-0.123999,0.226463,-0.225706,-0.109869,-0.042729,-0.127771,-0.040297,-0.051094,-0.033651,0.09926,-0.186314,0.107564,0.049244,-0.282242,-0.056677,-0.02142,-0.073357,0.028818,0.089464,-0.062022,-0.172963,0.044504,0.070969,0.046797,0.100988,-0.130726,0.119881,0.122688,-0.133785,0.092167,0.136677,0.001541,-0.095494,0.210172,-0.118047,0.107574,-0.1335,-0.064683,0.091562,-0.019506,-0.036227,-0.02046,-0.183998,0.05783,0.068678,-0.030818,0.042008,-0.008781,-0.013385,-0.006949,-0.078235,0.005591,-0.06684,0.122423,0.06434,-0.026038,-0.089352,0.129476,0.174058,-0.118805,0.213378,-0.048218,-0.112462,-0.067531,-0.001392,-0.19502,-0.144534,0.127238,-0.06091,-0.063662,-0.169365,0.035033,-0.09344,0.087899,0.020627,-0.196833,-0.164595,0.0606,-0.198796,0.081824,0.065434,0.095311,0.161242,0.172794,-0.129059,-0.24196,-0.127029,0.018599,-0.055913,0.005876,0.152388,0.112223,-0.025411,-0.00028,-0.020226,-0.152396,0.126241,-0.032232,0.212825,0.078946,-0.141894,0.144773,0.094598,-0.046006,0.053166,-0.106669,-0.097968,0.193279,0.21147,0.06801,-0.110486,0.106829,0.016507,0.15711,0.034694,-0.130021,-0.034327,0.084725,-0.012306,0.03487,-0.072106,-0.238901,0.05352,-0.157343,0.02776,-0.142864,-0.069391,-0.332768,0.0287,-0.063577,-0.178278,0.048683,0.076488,0.130983,0.067974,0.213108,0.21179,-0.064776,-0.194389,0.160182,-0.190983,0.075218,0.105977,-0.187683,0.097788,-0.035566,0.037524,0.039358,0.330719,-0.081154,0.021506,0.129597,-0.070278,-0.122497,-0.105165,0.065897,0.153979,-0.047305,-0.042029,0.03151,-0.068362,-0.000979,-0.101884,-0.083341,-0.047129,-0.023648,-0.08429,0.068891,0.119045,0.137814,0.162699,0.193375,0.035145,-0.168606,-0.251293,0.097765,0.194248,-0.221468,0.376592,0.181648,-0.129066,0.145349,-0.053724,-0.002282,-0.028585,-0.14945,0.046563,0.025188,-0.197423,0.385104,0.077262,-0.033173,0.080584,-0.206506,-0.210796,0.127139,0.158947,0.084114,-0.052897,-0.028813,-0.318253,0.036715,-0.272448,-0.167083,0.134312,0.004676,-0.087097,0.116088,0.20807,-0.096237,0.048288,-0.070479,-0.039267,0.014264,0.117055,-0.320955,0.016561,-0.097708,-0.187601,-0.098235,0.029883,-0.026053,0.066423,0.02828,0.110526,0.031201,-0.139244,-0.060885,-0.104167,-0.078427,0.098035,-0.044021,0.043665,-0.012097,0.093999,-0.010598,0.220416,-0.105854,0.026323,0.065553,-0.050168,-0.278006,-0.132568,-0.026809,0.111284,-0.006688,-0.216138,0.018739,0.03142,0.143985,-0.093076,-0.002642,0.05047,-0.083294,-0.076623,0.118216,0.147809,0.069591,0.114424,0.077356,0.244038,-0.067021,0.006518,0.022499,0.194529,-0.094731,0.309787,0.057721,-0.064017,0.079492,-0.14088,0.04916,0.095376,-0.057237,-0.057367,-0.055203,0.037644,0.306702,-0.15452,0.11267,-0.129188,0.025651,-0.146353,0.087792,0.113933,0.102149,-0.307918,0.185273,-0.390697,0.084925,-0.133948,-0.075867,-0.015696,-0.230616,0.099545,0.158849,0.105373,-0.021625,0.161213,-0.119079,0.13022,0.179868,-0.00576,-0.131701,0.042703,-0.111333,-0.224145,-0.042838,0.206514,0.020404,-0.088816,0.040705,0.092964,0.05391,-0.069007,-0.091849,-0.108836,0.116559,0.058876,0.054458,0.054404,0.11207,0.034243,-0.068145,0.313472,-0.113793,0.030628,0.02961,-0.125439,-0.064694,-0.140788,0.014675,0.100471,-0.236908,-0.064026,-0.125805,-0.071329,-0.03987,-0.006041,-0.22752,-0.099613,0.070202,-0.176005,0.080266,0.247165,0.030927,0.147798,-0.015634,0.05376,-0.084516,-0.075449,0.036761,0.065145,-0.075656,0.06947,-0.029249,-0.018661,-0.046214,-0.017326,0.120332,0.087483,0.100701,0.215993,-0.096474,-0.066759,0.032267,-0.03591,0.037884,0.125501,-0.073199,-0.248251,0.161179,0.116711,0.153504,-0.15168,0.2097,-0.058596,0.052427,-0.054471,-0.105293,-0.015198,0.050594,-0.028906,0.108538,-0.018333,-0.092468,-0.064976,-0.135517,0.069411,0.179741,-0.046691,-0.12424,0.178562,-0.005576,-0.213585,0.047664,0.195834,0.04034,-0.148381,-0.138209,0.172364,0.066281,-0.069298,-0.141577,-0.030559,0.118812,0.081716,-0.045323,0.059564,0.005866,0.021928,-0.026293,0.130382,-0.179747,0.039621,0.084177,-0.113541,-0.099339,-0.07006,0.076457,0.02751,-0.213813,-0.22358,-0.042256,-0.206648,0.118863,0.013199,-0.004825,-0.125932,-0.087589,-0.123835,0.168791,0.134611,-0.002616,0.049362,0.200252,-0.036473,-0.212378,-0.126295,-0.05626,0.141902,-0.146287,0.186394,0.058033,0.016406,-0.045069,-0.085856,0.198777,0.115224,-0.103332,0.060528,0.00951,-0.216862,0.071995,0.134255,0.037069,0.152135,-0.032973,-0.240064,0.165274,0.062118,0.146163,-0.110072,0.075353,-0.146399,0.018922,-0.074043,-0.133261,0.153541,-0.171708,-0.148887,0.00244,0.021534,0.035809,0.080659,-0.124926,0.011317,-0.161589,-0.069762,-0.207836,-0.02504,0.137027,-0.083785,-0.068979,-0.051395,0.14788,-0.051929,0.241565,0.12702,-0.052052,-0.073296,0.139119,-0.185106,-0.045479,-0.045468,-0.098248,-0.03767,-0.07319,-0.014866,-0.009315,0.207708,0.03587,-0.041027,-0.041666,-0.051631,-0.317325,0.038152,0.242176,-0.014165,-0.064207,-0.026955,0.007851,-0.336257,-0.05735,-0.033006,0.061959,-0.109906,-0.210288,-0.050175,0.020557,0.108232,0.02585,0.158327,0.27696,0.091523,-0.118394,-0.436977,-0.04942,-0.047826,-0.412662,0.378251,0.113882,-0.210518,0.175163,-0.134732,0.227964,-0.083449,0.014838,0.028149,-0.081357,-0.47867,0.340607,0.186507,0.038594,0.006362,-0.165787,0.01112,0.018615,0.074226,-0.074448,-0.068005,0.076995,-0.167944,0.027757,-0.12853,-0.063827,0.229059,-0.035027,-0.072443,0.114607,0.265023,0.046263,0.005861,-0.099972,0.009194,-0.191227,-0.092156,-0.060171,-0.116079,0.158598,0.045382,-0.052317,-0.070956,-0.054442,-0.106201,0.028853,0.033771,0.027674,0.002537,-0.090837,0.115999,0.017619,0.019696,-0.011784,-0.033955,-0.045253,-0.140453,-0.094289,-0.402363,0.113692,0.146697,-0.072696,-0.035567,0.010606,0.113625,-0.145675,0.011284,0.206913,0.055242,0.131018,0.265789,-0.078895,0.025766,0.103912,0.275584,-0.090866,0.122933,-0.153884,0.015815,0.116378,-0.167394,-0.138761,0.127177,0.157423,0.185912,0.067153,-0.067654,0.138443,-0.041328,0.034035,-0.131276,0.008925,-0.12569,-0.08837,-0.147443,-0.070061,-0.325082,0.046811,-0.007698,-0.027859,-0.005219,-0.062925,-0.097678,0.039628,0.177052,-0.096508,-0.286068,0.049073,0.210661,-0.001538,-0.045144,-0.151654,0.054769,0.080875,-0.034518,-0.15691,0.016291,-0.050434,0.030417,0.028804,0.146713,0.232567,-0.010829,-0.120976,0.063688,-0.468375,-0.014948,0.002125,-0.253599,0.144938,0.045813,-0.024181,0.010278,0.104779,0.35836,0.056695,-0.187593,-0.004397,-0.069313,-0.086498,-0.09939,-0.218052,-0.026682,0.067554,0.026121,0.000295,0.352212,-0.040289,-0.036144,0.094553,-0.163282,-0.320134,-0.211337,0.060094,0.057791,-0.15688,-0.13551,0.148155,0.01439,0.204349,-0.227701,-0.111127,0.006864,-0.16048,-0.227239,-0.031949,0.065914,-0.009865,0.024219,0.080894,0.166606,-0.135032,-0.127769,0.124725,0.306429,-0.137109,0.55778,0.0596,-0.26188,-0.023813,-0.149404,-0.03665,0.054983,-0.110673,0.096993,0.007233,-0.204981,0.422623,-0.083875,-0.042392,-0.004418,0.000704,-0.060895,0.054956,0.047004,0.023783,-0.226411,0.024461,-0.398251,0.054215,-0.176668,-0.088397,0.142156,-0.273388,-0.190511,0.15304,0.165565,-0.126805,0.085464,0.047215,-0.056124,0.156341,-0.019679,0.23514,0.112311,0.006506,0.279142,0.035625,0.037495,-0.067085,-0.089888,-0.207711,-0.34018,-0.001351,0.18538,-0.133849,0.119711,0.116377,-0.108317,0.118991,-0.172251,0.074627,-0.041376,-0.082167,-0.300729,0.006796,0.02043,-0.006473,-0.031597,0.214756,0.144249,-0.053274,-0.204717,0.024976,0.073818,0.018086,0.065082,-0.211507,0.196123,0.169647,0.132575,0.179393,0.094428,0.086089,-0.094246,-0.020996,-0.172612,-0.158463,-0.026138,0.073752,0.250073,-0.131856,-0.182109,0.313193,-0.505555,-0.237584,0.285304,0.059814,-0.015688,-0.013173,-0.057764,0.013813,-0.101685,0.003259,0.348792,-0.519408,0.07363,-0.086933,0.095081,0.075558,0.226147,-0.02949,-0.198128,-0.012701,0.159752,-0.099613,0.220021,0.045489,0.171021,0.188255,-0.212186,0.191472,0.18427,-0.156034,-0.299579,0.231074,-0.101894,0.160597,0.024235,0.004998,-0.108035,0.101483,0.031379,0.003679,0.166594,0.077892,-0.126655,0.051957,0.049789,-0.083869,0.049095,-0.004592,0.014167,-0.004713,-0.037129,-0.014396,-0.066195,0.145463,-0.091297,-0.118493,-0.055922,-0.118416,-0.271447,0.129428,0.06997,0.031488,0.011805,0.163513,0.101841,-0.20848,0.027646,0.205341,0.065389,0.098551,0.151808,0.059159,-0.042174,0.120011,0.186452,0.161466,0.027987,0.006116,0.082449,0.09948,-0.117824,-0.149461,0.081534,0.152145,0.349376,-0.044737,0.054686,0.307357,-0.116735,-0.014961,-0.118353,-0.009031,0.082197,-0.0777,-0.114248,0.066017,-0.144929,0.089544,0.290386,-0.080482,-0.138081,-0.023338,-0.198065,0.216572,0.119662,-0.133972,-0.194626,0.073728,-0.043077,-0.016575,-0.075148,-0.01303,0.152542,0.065842,-0.132906,-0.181882,0.140046,-0.012235,-0.173847,0.047028,-0.15021,0.1753,0.047612,-0.058488,0.001307,0.190515,-0.153752,0.01031,0.116206,0.058556,-0.072094,-0.028534,-0.028315,-0.080093,-0.130222,-0.021508,0.221096,0.008674,0.150429,0.055087,0.063782,0.028532,0.02389,-0.101242,0.012043,-0.000684,-0.143243,0.077563,0.06894,-0.02457,0.056455,0.296169,0.159864,-0.12715,-0.13664,-0.024056,0.065623,0.026087,0.018261,-0.103002,0.070776,0.058556,0.100929,0.042097,0.235002,0.014524,-0.119448,-0.028335,-0.126729,-0.232765,-0.026802,0.250319,0.200435,-0.082374,-0.203952,0.045448,-0.347588,-0.183925,0.026679,-0.04046,0.02942,0.058853,-0.02235,-0.032818,-0.143186,0.05416,0.156913,-0.309966,0.107928,0.013641,0.011851,0.04368,0.20497,-0.113701,-0.197433,0.040711,0.220918,-0.102611,0.194423,0.003018,0.011435,0.141751,-0.050826,0.199386,0.067808,-0.121618,-0.258514,0.168167,-0.184577,-0.015219,-0.115586,0.118092,0.07103,-0.137955,0.158527,-0.08474,-0.076073,0.018346,0.118226,0.06418,-0.062639,-0.172933,0.124348,0.007749,-0.181789,-0.069498,-0.079897,-0.061072,-0.020793,-0.002702,-0.024364,0.030926,-0.030083,-0.012031,0.330429,-0.115677,-0.091225,-0.008131,-0.063593,-0.186564,-0.086067,0.031183,0.097928,-0.235738,-0.082608,-0.067354,-0.100983,-0.052293,0.129138,-0.10556,-0.173875,-0.042181,-0.257364,0.152384,0.070668,-0.074431,0.089594,0.057062,-0.073358,-0.057819,-0.248814,-0.01584,0.052683,-0.114433,0.184894,0.09332,0.041114,0.17025,0.108309,-0.046559,0.077132,0.089265,0.150228,-0.039324,-0.009465,0.129198,0.097469,0.105344,0.068585,-0.009831,-0.303659,0.188278,0.283924,0.003515,-0.14311,0.002394,-0.180995,0.036188,0.075149,-0.017087,0.189726,-0.066144,-0.121825,0.113811,0.040662,0.000712,-0.020443,-0.172087,-0.035993,0.150162,-0.000452,-0.011749,0.081044,-0.067061,0.001873,0.043546,0.10124,-0.068196,-0.061,-0.028362,-0.031852,0.13572,-0.089496,0.053188,-0.100271,0.081095,0.069641,-0.002132,-0.035901,0.130227,0.033103,-0.078909,0.19919,-0.058586,-0.163458,-0.004833,0.040445,-0.033318,-0.224785,0.032861,0.080891,-0.067341,-0.183924,-0.090191,-0.041698,0.070266,0.082093,-0.182224,-0.146469,0.037036,-0.147506,-0.00587,0.125595,0.027416,0.151071,0.036707,-0.088709,-0.196481,-0.199374,-0.002688,0.049588,-0.135403,0.214634,0.141345,0.078532,0.077345,-0.017184,0.02048,0.175212,0.091631,0.215954,-0.002223,-0.022865,0.043819,-0.069253,0.125206,0.01428,-0.19463,-0.224086,0.160301,0.299695,0.160897,-0.167951,0.148193,0.031702,0.005527,0.028949,0.01065,0.016062,0.013522,-0.010938,0.079547,0.021432,-0.069883,-0.137262,-0.052301,-0.001049,0.270858,-0.019302,0.296173,-0.004749,0.034026,0.166391,-0.145226,0.069544,-0.184881,-0.060441,-0.111195,-0.38291,0.055077,0.055611,-0.057764,0.12697,-0.025858,-0.13215,0.117001,0.008618,-0.02375,-0.050437,-0.034223,-0.336863,-0.007259,0.031002,-0.151724,0.028048,0.277482,0.047203,-0.126815,-0.164697,0.008573,-0.010578,-0.07393,0.191304,-0.129317,0.218979,-0.073875,0.094467,0.042055,0.110676,0.046891,-0.119957,-0.014406,-0.229043,-0.20663,-0.054917,0.13411,0.320294,0.054996,-0.25158,0.293732,-0.577411,-0.122915,0.319153,-0.178249,0.112707,0.034924,0.071296,0.136522,-0.17013,-0.102125,0.221905,-0.544504,-0.009866,-0.060019,0.035055,0.084844,0.053237,-0.05037,0.040268,-0.002785,0.013668,-0.04008,0.266578,-0.111752,0.24527,0.224521,-0.238897,0.182826,0.17446,-0.218525,-0.272623,0.09064,-0.066477,-0.076135,0.127803,-0.07112,0.048381,0.098871,-0.070974,0.122897,0.132361,0.027881,-0.175041,0.032871,0.026883,-0.021436,-0.019703,0.031527,0.217637,-0.065204,0.136156,0.03146,-0.067771,0.136304,-0.080926,-0.081848,-0.058645,-0.011576,-0.301843,0.172316,0.148641,-0.012873,0.15902,0.299274,0.036077,-0.113286,-0.071906,0.096065,0.226391,0.151505,0.095335,-0.0532,-0.052656,0.055358,0.149668,0.025313,0.091331,0.003646,-0.074665,0.103736,-0.203382,-0.259464,0.057318,0.138486,0.204047,0.061497,-0.031783,0.138997,-0.191443,-0.120503,-0.096067,-0.084418,-0.051222,-0.034994,-0.164507,0.100634,-0.158775,0.0015,0.209164,-0.26929,0.011149,0.016684,-0.148986,0.06301,0.140899,-0.086356,-0.290558,-0.005765,0.178748,-0.031217,0.152358,-0.00369,0.022689,0.108491,-0.10016,-0.046233,0.101504,-0.143267,-0.117624,0.010887,-0.132863,0.079122,-0.121648,0.106231,-0.028869,-0.363728,-0.016791,-0.076064,-0.218853,-0.042701,0.09283,0.122859,-0.028571,0.025797,0.0875,-0.100927,-0.077547,0.051133,-0.072354,-0.075366,0.043398,-0.073064,-0.041958,-0.024755,-0.025069,0.106039,0.326024,-0.121148,0.051913,0.051609,-0.088485,-0.238025,-0.18422,0.193459,0.007763,-0.023156,-0.186216,0.007907,-0.236253,-0.047912,-0.109413,0.032351,-0.063034,-0.141383,0.004512,0.07859,0.189536,-0.124174,0.132913,0.272367,0.159541,-0.23433,-0.204233,-0.087715,0.200893,-0.266857,0.36017,0.007728,0.030975,0.15745,-0.157514,0.082543,-0.043488,-0.097848,0.254188,0.098601,-0.203396,0.372636,-0.015536,0.018942,0.10899,-0.067853,-0.157467,0.120471,0.134954,-0.098955,-0.194665,0.130087,-0.279476,0.02945,-0.142715,-0.078353,0.176516,0.00776,-0.051712,0.143537,0.334381,0.050431,0.052263,-0.04876,0.046068,0.221946,-0.102675,0.278327,0.115956,-0.060198,0.240891,-0.090691,-0.014667,-0.144679,0.045014,-0.047598,-0.340819,0.056913,0.127783,-0.1148,0.171406,0.132915,0.01656,0.156104,-0.130555,-0.040778,-0.164341,-0.148511,-0.191123,0.131973,0.099109,-0.054563,0.05639,0.212068,0.243581,-0.050779,-0.041982,0.005051,0.029034,-0.110977,-0.067181,-0.249983,0.040886,0.054865,0.127539,0.026114,0.097128,0.037672,-0.182383,-0.065634,-0.058684,-0.217357,-0.093713,0.191406,0.231011,-0.060814,-0.117888,0.165902,-0.447168,-0.208632,0.290545,-0.0695,0.169183,0.114286,0.115568,-0.029299,-0.188348,0.022708,0.097157,-0.497481,0.006065,0.00111,-0.06298,0.085385,0.080049,-0.03191,-0.079364,0.13365,0.193626,0.043165,0.337538,-0.108317,0.1896,0.20428,-0.116464,0.217587,0.047565,-0.227369,-0.200338,0.089493,-0.230923,-0.042843,-0.099515,-0.110145,0.088941,-0.223053,0.026372,0.007087,-0.142645,-0.070642,0.043461,0.078707,-0.035885,0.097234,0.158717,0.068242,-0.044824,-0.022838,-0.180682,-0.106329,0.021332,-0.07522,-0.020198,0.046637,0.011097,0.060264,0.269412,-0.043352,0.038921,0.07902,-0.170721,-0.312594,-0.056754,0.125181,0.007919,0.041921,-0.12796,0.023237,-0.127351,0.096481,-0.086933,-0.139411,-0.104721,-0.166413,-0.20971,-0.016642,0.183008,0.136466,0.15749,0.094465,0.116173,-0.163423,-0.318626,0.078098,0.027853,-0.211829,0.444001,0.039562,-0.014471,0.038878,-0.059773,-0.032593,0.004207,-0.081563,0.196309,-0.125667,-0.145612,0.202804,-0.132214,-0.078394,-0.009666,-0.147418,-0.16953,0.023407,0.142409,0.010707,-0.007114,-0.04006,-0.338803,0.036881,-0.090887,-0.098918,0.03903,-0.14656,-0.104482,-0.001709,0.109808,-0.158466,0.149583,-0.135709,-0.010267,-0.048651,0.00447,-0.015272,-0.023779,0.058539,0.114058,-0.02767,-0.099794,-0.128807,-0.027933,0.060274,-0.042312,-0.048707,0.143113,0.0572,0.032364,0.007617,-0.026533,-0.046544,-0.022453,-0.014656,-0.142941,0.113996,-0.291506,0.128209,0.188209,-0.021,0.104241,0.023782,0.135936,-0.060339,-0.046945,0.00471,0.213969,-0.01943,0.15284,0.009273,0.076235,0.205927,0.187751,-0.039292,0.247524,-0.140573,-0.016114,-0.076712,-0.164456,-0.007508,0.123411,0.164474,0.124066,0.122577,-0.073104,-0.014892,-0.178802,0.013176,-0.065902,-0.022952,0.049393,0.14719,-0.14289,-0.156964,-0.221569,-0.103133,0.131383,0.015411,0.058717,0.020371,-0.029971,0.002122,0.273045,-0.109776,-0.272618,-0.101012,0.119933,-0.045765,0.049342,-0.00187,-0.026155,0.060929,0.011946,-0.015208,-0.053655,-0.042755,0.009777,0.064896,0.169783,0.255352,-0.184242,0.130268,0.136037,-0.205289,0.010528,0.039062,-0.035918,0.046819,0.078576,0.034493,0.010394,0.071816,0.150658,-0.052135,-0.151344,0.056297,-0.006728,-0.031228,0.006119,-0.131917,-0.007521,0.009742,0.13892,-0.063804,0.272129,-0.18715,-0.051005,0.019996,-0.078004,-0.245395,-0.118601,-0.007448,0.087185,-0.113987,-0.207062,-0.070942,-0.006536,0.019929,-0.020357,0.007764,-0.08163,-0.142334,-0.144113,0.083718,0.205282,-0.03801,0.136945,0.163617,0.023173,-0.207803,-0.168772,0.100965,0.172296,-0.235169,0.393817,0.080648,0.014884,0.117321,0.002946,0.029371,0.061564,-0.084099,0.2238,-0.125327,-0.092275,0.198332,-0.050402,-0.022392,0.061604,-0.105053,-0.173724,0.053857,0.118969,0.109319,-0.179308,0.076841,-0.276421,0.078807,-0.104164,-0.207221,0.12017,-0.085598,-0.161923,0.081724,0.233069,-0.174768,0.023038,-0.039844,0.101237,-0.171706,-0.118691,-0.369857,-0.14604,-0.016826,-0.195027,0.068854,0.021365,0.045374,-0.024454,0.206581,0.22355,0.021483,-0.13838,0.07376,-0.087943,0.083795,0.108526,-0.078883,-0.006751,-0.028811,0.14985,0.149792,0.188692,-0.064433,-0.08601,0.160228,0.040415,-0.335013,-0.119526,0.137532,0.03114,-0.116497,-0.035681,0.152329,-0.148222,0.100012,-0.082796,0.034723,0.048176,-0.239199,0.026662,0.051913,0.034172,0.077493,0.034012,0.087987,0.060216,-0.036193,-0.329545,0.013066,0.114628,-0.215187,0.41637,0.149313,-0.181349,0.193516,-0.129677,0.048121,0.063825,-0.164545,0.223512,0.076094,-0.20609,0.51124,0.111983,-0.038917,0.016238,-0.210543,0.034016,0.01434,0.16835,0.039781,-0.045714,-0.001085,-0.342177,0.087873,-0.261135,-0.044516,0.091832,-0.159851,-0.088887,0.036034,0.306045,-0.095773,0.216217,0.047293,-0.009825,-0.071538,-0.053396,0.197911,-0.088167,0.012678,0.079165,-0.002218,-0.138905,0.018697,-0.055562,0.051691,-0.114895,0.10372,0.116192,0.068363,0.083779,-0.045096,-0.041737,0.112469,-0.049433,-0.000234,-0.020823,-0.001582,-0.142616,0.080028,8.1e-05,0.003404,0.181135,0.311064,0.056208,-0.026814,-0.142778,0.073028,0.075863,0.019146,0.079053,-0.184046,0.157837,0.10899,0.006644,0.061733,0.211551,-0.050127,-0.006207,-3.4e-05,-0.215581,-0.12629,-0.136887,0.096322,0.152771,-0.017507,-0.039629,0.086166,-0.347233,-0.106735,-0.050873,-0.184368,0.034309,0.065813,0.045523,0.054883,-0.211836,-0.041187,0.188534,-0.164084,-0.113165,-0.121477,-0.006543,0.016078,0.093906,-0.141588,-0.16102,0.104467,0.029944,-0.084698,0.262135,-0.159133,0.145802,0.00894,-0.208626,0.124014,0.047905,-0.139538,-0.276184,0.004255,-0.08728,0.122955,0.034154,0.08932,0.053039,0.246459,0.065255,-0.065679,0.247933,-0.057486,0.017815,-0.158131,-0.056196,-0.124041,-0.237261,0.006973,0.200035,0.016437,0.06055,0.009038,0.012734,0.153753,-0.13882,-0.024506,-0.133516,-0.013173,-0.286442,0.060133,0.05748,0.024889,-0.015909,0.207121,0.122194,-0.085759,0.003754,0.025187,0.011036,-0.094022,0.238497,-0.212963,0.015062,-0.015243,-0.017519,0.231455,0.09619,-0.077605,-0.120816,0.038282,-0.146179,-0.216654,-0.078125,0.24479,0.303326,-0.019844,-0.08823,0.198669,-0.371702,-0.13723,0.10873,-0.060752,0.118277,-0.107872,0.014958,0.109761,-0.228332,-0.0651,0.366049,-0.462529,0.073829,0.094398,-0.025546,0.091301,0.043576,0.004642,-0.181371,0.028506,0.117181,0.084596,0.286068,-0.042059,0.151824,0.126031,-0.1399,0.002904,0.139358,-0.119773,-0.297244,0.047809,-0.114097,0.16434,0.079398,-0.19511,-0.065057,-0.448293,0.010672,-0.003551,-0.083809,0.068858,0.002799,0.00578,0.094033,0.145343,0.234901,-0.093366,-0.255606,0.041427,-0.024897,-0.084791,-0.090377,0.006844,0.170258,0.119488,0.112534,0.105373,0.215469,-0.128466,-0.060314,0.08607,-0.01027,-0.224557,-0.125189,0.177947,0.154256,-0.142174,-0.141092,0.038263,-0.027695,0.212692,-0.244112,0.024254,-0.011242,-0.069128,-0.134089,-0.008095,0.044717,0.130263,0.115694,0.130014,0.065427,-0.131312,-0.346987,0.016774,0.216011,-0.217399,0.546138,0.046873,-0.11483,0.043838,-0.098626,0.021979,-0.047536,-0.168684,0.149036,0.03498,-0.309612,0.357684,-0.024504,0.011646,-0.077454,-0.0842,-0.080883,-0.022254,0.056461,-0.093465,-0.191895,0.126574,-0.333952,0.017881,-0.296098,-0.083384,0.242917,-0.050795,-0.166221,0.233534,0.204524,-0.204391,0.181193,-0.075131,-0.054722,-0.043329,-0.097146,0.350029,0.030344,-0.022727,0.094725,0.060706,-0.078509,0.033536,-0.051166,-0.026009,-0.256062,-0.021584,0.108881,0.075481,-0.004116,0.072846,-0.045113,0.035449,-0.071421,0.040863,-0.073824,-0.061612,-0.328894,0.091506,-0.058214,-0.058252,0.012886,0.125216,0.08335,-0.022914,-0.13741,0.120011,0.134212,0.007192,0.223155,-0.197679,0.103584,0.104561,0.011158,0.150173,0.115919,-0.079449,-0.158271,0.148662,-0.225657,-0.103643,-0.130353,0.133344,0.317621,-0.008387,-0.120726,0.295357,-0.261583,-0.02285,0.061342,0.00375,0.041461,-0.077496,-0.008514,-0.054796,-0.032442,0.047002,0.363942,-0.316722,-0.035783,0.087754,0.091919,0.156705,0.057804,0.002829,-0.137971,0.10089,0.128772,-0.161159,0.227425,-0.083021,0.120242,0.153379,-0.126419,0.027702,0.099014,-0.049015,-0.202106,-0.040854,-0.065215,-0.003561,0.086915,0.127423,-0.043015,0.033011,0.093827,-0.141582,-0.170419,0.036076,0.079728,-0.017173,0.06831,-0.118647,0.027142,-0.048027,-0.092159,-0.010701,-0.13887,0.040575,0.032245,-0.100776,0.131151,-0.010841,0.019101,-0.080716,0.343832,-0.125068,-0.058523,-0.010679,-0.127839,-0.088684,-0.115768,0.108185,0.132841,-0.162996,-0.045465,-0.1748,-0.187107,0.005809,-0.069091,-0.076836,-0.255093,0.064887,-0.175236,0.155776,0.114381,-0.102386,0.054829,0.242143,0.07527,-0.151361,-0.213438,-0.018336,0.025594,-0.034558,0.108804,-0.025236,0.183359,0.021004,-0.047811,0.01213,0.17658,-0.014315,0.234041,0.042423,-0.143221,0.025958,0.078869,0.141228,0.089665,-0.182129,-0.295811,0.022553,0.29855,0.008276,-0.061684,0.083299,-0.104774,0.045617,0.043301,0.026303,0.066668,0.068509,-0.149006,0.039698,0.047212,-0.098147,-0.05257,-0.128438,0.13274,-0.119294,-0.05368,-0.343755,-0.043848,-0.06805,-0.157229,-0.015044,0.024175,0.060578,0.051119,0.009648,0.27122,-0.060021,-0.065312,-0.07578,-0.05531,-0.089066,-0.08442,-0.126176,0.051321,-0.020898,0.067407,0.026064,0.284275,0.008889,0.025423,0.103936,-0.163564,-0.270301,-0.09132,-0.002135,0.031295,-0.167689,-0.04033,0.172812,-0.023263,0.090813,-0.224337,-0.083754,-0.010816,-0.264898,-0.071191,0.005914,0.093392,0.022262,0.204969,0.058379,0.192816,-0.208322,-0.144263,0.135274,0.243009,-0.169569,0.326349,0.104352,-0.204106,0.127259,-0.06954,0.076035,0.10834,-0.131204,0.198205,-0.135088,-0.124965,0.474268,0.081001,0.055728,0.02587,-0.174073,-0.104161,-0.039093,0.163022,-0.058168,-0.193571,0.125627,-0.402001,-0.025813,-0.158324,-0.251569,0.136078,-0.254645,-0.030604,0.031766,0.268618,-0.039322,0.096732,-0.15087,-0.033112,-0.098869,-0.103288,0.074653,-0.129521,0.045557,0.048599,0.093447,-0.228794,0.024093,-0.068119,-0.08771,0.09905,-0.060238,0.178756,0.072895,0.00325,-0.089804,-0.117131,0.069417,-0.061343,-0.062955,-0.016011,0.134304,-0.17385,0.172611,0.081344,-0.099063,0.03684,0.057945,0.278328,-0.166218,0.02213,0.196913,0.183951,0.026076,-0.030783,0.004164,-0.035353,0.188887,0.079807,-0.024767,0.276531,-0.143575,-0.121765,-0.040202,-0.015781,-0.009884,0.011771,0.12434,0.132636,0.015998,0.057619,0.055185,-0.04811,-0.119309,-0.076444,0.045249,-0.08364,-0.045856,-0.113333,-0.125711,-0.165314,0.058723,0.028377,-0.102772,0.087013,0.024533,0.017003,0.133028,0.22986,-0.130235,-0.153581,-0.205957,0.095008,-0.141353,0.09339,-0.170135,-0.019917,0.027108,0.086882,-0.045799,0.027698,-0.095707,0.071286,0.195399,0.165423,0.149359,-0.116779,0.191698,0.000907,0.268544,-0.013802,0.068503,0.097806,-0.06913,0.046727,-0.015149,-0.087792,-0.147454,-0.204213,0.09408,0.166407,-0.053746,0.203341,0.067297,-0.011978,0.115132,-0.139796,-0.070037,-0.016613,-0.077056,-0.37512,-0.016608,-0.019414,-0.042303,0.062521,0.214582,0.136631,-0.191911,-0.030413,0.126202,0.193041,-0.076681,0.030888,-0.171424,0.175399,0.08941,-0.00772,0.166936,0.034457,0.040997,-0.026729,-0.084538,-0.164684,-0.131787,-0.150639,0.294124,0.251335,-0.054175,-0.090555,0.199684,-0.477053,-0.104252,0.210742,-0.01084,0.08263,0.066833,0.047694,0.166053,-0.076203,0.017688,0.331405,-0.498931,0.107029,-0.024395,0.041052,0.226084,0.130006,-0.103468,-0.2039,0.074776,0.015249,0.085102,0.345873,-0.003801,0.243125,0.145116,-0.231427,0.058302,0.182876,-0.076869,-0.249289,0.080452,-0.078741,-0.00066,-0.011518,-0.162809,-0.072682,-0.039044,0.000254,0.096708,0.197228,0.007669,-0.214639,0.109257,-0.045047,0.086603,0.117923,-0.080628,0.055764,0.022445,0.046,-0.051764,-0.12313,-0.023976,-0.004857,-0.117439,-0.011374,0.033323,-0.228572,0.095593,0.020196,0.078117,0.033697,-0.073824,0.212269,-0.070319,-0.09006,0.068371,0.089244,-0.021503,0.072805,-0.007836,0.103728,0.082897,0.09288,-0.072557,0.122548,-0.15183,-0.185455,0.036541,-0.133042,-0.103659,0.135162,0.233127,0.140041,0.047097,-0.061833,0.162993,-0.053815,-0.008522,-0.075984,-0.006372,-0.104122,0.035016,-0.164468,-0.131148,-0.284027,0.12431,0.076979,-0.007314,-0.068073,-0.018058,-0.125024,0.004584,0.114448,-0.076644,-0.308953,-0.139761,0.070179,-0.093431,-0.066938,-0.15707,0.034831,0.031084,0.050114,-0.070275,0.139727,-0.124244,0.020867,0.084252,-0.013475,0.246137,-0.180667,0.004713,0.012628,0.187248,-0.11208,0.080304,0.160154,0.019836,-0.077584,0.121945,-0.087487,-0.020713,-0.126613,0.031098,0.157197,-0.110301,0.084731,-0.087248,-0.130882,0.135091,0.075519,0.014952,-0.184658,-0.058656,-0.327334,0.089642,0.081107,0.025114,0.024793,0.163756,0.081786,-0.050654,0.026978,0.205962,0.05307,0.025602,0.242671,-0.031378,0.106497,0.165621,0.175283,0.042377,0.061367,-0.110626,-0.141666,0.050325,-0.017004,-0.109108,0.103686,0.066514,0.313957,-0.013315,-0.073472,0.039119,-0.17449,0.007661,-0.138058,-0.140799,0.043439,-0.129076,-0.110834,-0.066683,-0.193895,0.112071,0.08222,-0.036937,-0.030574,-0.100439,-0.140641,0.174194,0.204592,-0.194618,-0.127462,0.003496,0.155429,-0.082364,-0.034076,0.032703,0.013035,0.025969,-0.071018,0.070279,0.080313,-0.037816,-0.073136,-0.004608,-0.011817,0.027333,-0.061695,0.049885,-0.02342,-0.250581,0.073167,-0.086171,-0.04333,0.019381,0.171179,0.016711,0.01374,0.009014,0.011263,0.099144,-0.066176,0.087293,0.066299,0.039994,0.143087,-0.025127,-0.093234,0.100961,0.110898,-0.081266,0.109714,-0.198792,0.016517,0.056264,-0.152825,-0.120657,-0.108069,-0.019937,0.013627,-0.172049,-0.150291,-0.001989,-0.141156,-0.015417,-0.043088,-0.149792,-0.16439,-0.095666,-0.239671,0.168953,0.202009,-0.108997,0.001837,0.128434,0.098432,-0.147184,-0.144887,0.103889,0.187519,-0.008447,0.315473,-0.004668,-0.023156,0.024553,-0.025023,-0.047122,0.076027,-0.121304,0.124899,-0.053572,-0.09428,0.186764,0.008163,0.097692,0.036467,-0.151618,-0.127048,0.131422,0.137415,0.015301,-0.051513,0.047928,-0.245987,0.170454,-0.05524,-0.137693,0.169657,-0.020853,-0.034974,-0.012524,0.100619,-0.038232,0.008101,-0.039115,-0.025482,-0.210243,-0.107689,-0.434088,-0.048395,-0.106623,-0.212015,-0.002009,-0.099216,0.177672,-0.090861,0.006413,0.341089,0.036189,-0.239276,0.096692,-0.084932,-0.142786,-0.103654,-0.098095,-0.015199,0.045066,-0.065601,0.022521,0.282136,-0.16442,0.033501,0.068348,-0.067896,-0.25885,-0.241242,0.148132,0.02587,-0.097128,-0.173177,0.176343,0.00055,0.246552,-0.189451,-0.119785,-0.074323,-0.180207,-0.12464,-0.104934,0.222213,-0.034495,0.11113,0.099582,0.082882,-0.097179,-0.136639,0.059536,0.125385,-0.081955,0.532201,0.155432,-0.16297,-0.02911,-0.040623,0.040185,-0.061171,0.013382,0.030941,-0.06148,-0.237372,0.511885,-0.02713,0.062166,-0.080265,-0.097988,-0.109558,0.07858,1e-06,-0.005718,-0.086838,-0.084353,-0.366732,-0.012598,-0.18066,-0.11284,0.207076,-0.283854,-0.027765,0.130421,0.304242,-0.09677,0.120593,-0.060051,-0.121324,0.206202,0.154025,-0.015564,-0.020124,-0.139983,-0.100378,0.007697,0.261575,0.040643,-0.018388,-0.042172,-0.089885,0.086274,-0.160147,0.009249,0.070251,-0.033191,0.140434,-0.040739,0.105264,0.090564,-0.007548,0.061207,0.327464,-0.057323,-0.144399,0.075856,0.038213,-0.097909,-0.232925,0.172133,0.071115,-0.194568,-0.116233,-0.013361,-0.146397,-0.008078,-0.09163,-0.117495,-0.19483,0.06562,-0.082982,0.202458,-0.006155,-0.070296,0.031528,0.040078,-0.014033,-0.182246,-0.234144,0.056751,0.002055,-0.167241,0.03521,-0.045327,-0.047429,0.044593,0.06965,0.127578,0.204161,0.112497,0.280643,-0.1192,-0.024861,0.086512,0.075511,-0.072282,0.157287,-0.011823,-0.255723,0.101252,0.135284,0.031424,-0.144329,0.090894,0.05647,0.134571,-0.062597,-0.161375,0.027856,0.12902,-0.032136,0.020612,0.047052,-0.040154,-0.024272,-0.080603,-0.006212,0.183767,-0.064232,0.460026,-0.030852,0.128463,0.265869,-0.013753,0.04709,-0.07376,-0.089301,-0.179753,-0.203502,0.068018,0.145494,0.032143,0.251035,-0.060716,-0.025535,0.063136,-0.082612,0.056785,-0.005968,-0.132046,-0.207656,0.151066,-0.048705,-0.020061,0.121008,0.349776,0.047474,-0.00182,-0.120388,0.086456,0.049347,-0.170596,0.083501,-0.176611,0.105037,-0.023167,-0.022646,0.139647,0.100993,0.117584,-0.258529,-0.09455,-0.205453,-0.100646,-0.131302,0.269098,0.290062,-0.08984,-0.315384,0.256678,-0.462254,-0.249588,0.249948,0.017869,0.017709,0.009969,-0.00419,0.064416,-0.152491,0.063239,0.292288,-0.465597,0.130051,0.092447,0.050934,0.086189,0.136468,0.041078,-0.058474,-0.04568,0.207948,0.031878,0.321475,0.015905,0.26789,0.199485,-0.235175,0.338916,0.15656,-0.234367,-0.226123,0.228767,-0.237254,-0.034681,0.077434,0.031961,0.156586,-0.019438,-0.036567,-0.142835,0.031519,0.032353,0.018855,0.100555,0.155699,0.125901,-0.064736,0.122446,-0.155591,-0.077965,0.087271,-0.010349,0.046216,0.000916,0.090638,-0.034321,0.035802,0.033374,0.247079,-0.126781,-0.158073,0.096445,-0.078521,0.024794,-0.12839,0.154416,0.063671,-0.142157,-0.093833,-0.119515,-0.141746,0.079798,-0.05946,-0.098191,-0.146572,-0.026675,-0.141023,0.085323,0.057503,0.020786,0.127482,0.085183,-0.091601,-0.06193,-0.157722,-0.118772,-0.027682,-0.031963,0.156518,-0.051963,0.083678,0.081514,-0.084545,-0.039768,0.11495,0.121364,0.193256,-0.054737,-0.056501,0.046521,0.09315,0.123975,0.08361,-0.181787,-0.173249,0.035124,0.25951,-0.009744,-0.0692,0.147257,-0.025833,0.025753,-0.08133,-0.041023,-0.045114,-0.087766,-0.071139,0.011255,0.00466,-0.17612,-0.001476,-0.235054,0.22079,0.11247,0.015848,-0.165984,0.137803,-0.090304,-0.068963,0.010753,0.099157,-0.083434,0.064464,0.002133,0.010516,-0.064636,-0.201268,0.005196,-0.13274,-0.050602,-0.002224,0.000793,0.06404,0.035844,0.023173,-0.020813,0.219685,-0.098845,0.000607,-0.023926,-0.036795,-0.074435,-0.188249,0.14979,0.002718,-0.215926,-0.190112,-0.159718,-0.181896,-0.054151,-0.033303,-0.205639,-0.218541,-0.101277,-0.240407,0.086725,0.102091,0.01119,0.02772,0.076232,-0.067455,-0.12288,-0.160674,-0.006966,0.059503,-0.157305,0.233977,0.103022,-0.049584,0.163564,0.004101,-0.019253,0.136366,-0.011462,0.270756,-0.130344,0.01347,0.075039,0.048706,0.106895,0.054757,-0.121522,-0.148917,0.071223,0.196339,0.014701,-0.054075,0.101999,0.033042,0.095758,0.024045,-0.065155,0.01292,0.067623,-0.082506,0.085993,0.146672,-0.132541,0.07706,-0.23149,0.074575,0.210161,0.06747,0.452484,-0.070666,-0.01273,0.111411,-0.085058,-0.032751,-0.05473,0.094186,-0.22324,-0.292595,0.045477,0.173547,-0.079528,0.059693,-0.001101,0.029524,0.220965,0.04612,0.032473,0.001658,-0.072207,-0.236914,0.11124,0.086332,-0.012832,-0.035982,0.164933,0.127706,-0.041782,-0.16462,0.122561,0.089942,-0.131543,0.122911,-0.205477,0.101465,-0.046899,0.185357,0.233341,0.204352,-0.025097,-0.139169,-0.065927,-0.056727,-0.162041,-0.03156,0.050472,0.325962,-0.060011,-0.176986,0.183796,-0.518861,-0.113797,0.208063,0.005525,0.089733,-0.04145,-0.033649,0.149549,-0.061938,-0.079256,0.401497,-0.506911,0.098071,0.006841,0.072264,0.16248,0.19263,-0.151289,-0.018934,0.086776,0.072365,-0.006218,0.27916,-0.107103,0.187963,0.204826,-0.230568,0.116674,0.083107,-0.143034,-0.348066,-0.017409,-0.133158,0.073974,-0.065404,0.025802,0.007814,0.337209,-0.09808,0.109789,0.147842,-0.041956,0.041421,-0.14327,-0.006929,-0.156401,-0.255513,0.023308,0.159141,0.021659,0.018597,-0.037277,0.004329,0.110315,0.054687,-0.008572,0.005784,0.020885,-0.241066,0.017797,-0.065673,-0.115938,0.144675,0.150036,0.114101,-0.077938,0.016546,0.117988,0.045064,0.093176,0.116921,-0.040343,0.014257,-0.047213,0.141456,0.084519,0.038792,0.016021,-0.128453,0.135375,-0.08087,-0.187212,-0.076609,0.200042,0.166166,0.054409,-0.028321,0.260703,-0.452219,-0.077958,0.07061,0.002624,0.033182,-0.007625,0.087194,0.065414,-0.244952,-0.024759,0.303164,-0.335508,-0.089347,0.111634,-0.122681,0.156941,0.042926,-0.011448,-0.07798,-0.047318,0.147725,-0.073084,0.241235,-0.059003,0.261106,0.062542,-0.203953,0.053779,0.064572,-0.125365,-0.289059,0.117845,-0.069874,0.085714,-0.082118,0.009593,0.129315,-0.048951,-0.057462,-0.102894,-0.161364,0.084905,0.093668,-0.070672,-0.056681,0.00202,0.128569,-0.040929,-0.062327,-0.018894,0.069446,-0.024892,0.094267,-0.093536,-0.101472,0.05985,0.111175,-0.121678,0.209518,-0.120239,-0.121499,0.014379,-0.176686,-0.22406,-0.140542,0.009276,0.005541,-0.158419,-0.242953,0.097306,0.009643,0.113976,-0.079122,-0.171778,-0.041391,-0.031048,-0.109335,-0.020364,-0.008959,0.174516,0.155679,0.024462,0.055362,-0.154155,-0.236764,-0.105537,-0.041602,-0.004053,0.143284,0.003749,-0.094867,0.091047,0.042431,-0.002292,0.008937,0.054282,0.251426,-0.05624,-0.018015,0.107111,0.133984,-0.035653,-0.057664,-0.008978,-0.174773,0.03898,0.133574,0.059309,-0.152819,0.150133,-0.168629,0.11499,-0.009005,-0.099704,0.044724,-0.046595,0.003433,0.044439,0.148716,-0.188482,0.040935,-0.224758,0.114467,-0.066483,-0.146569,0.074607,-0.03603,0.114907,0.171628,0.061322,-0.073203,-0.038193,-0.086609,0.071222,-0.054117,0.030934,0.067619,-0.074218,-0.011255,-0.044769,-0.154098,-0.047239,0.074176,-0.097623,-0.053345,-0.019833,-0.178788,0.002832,0.172346,-0.059022,0.01277,0.179652,0.237838,-0.093574,-0.020544,0.018976,0.089822,0.000556,0.150734,0.048931,-0.033639,0.13226,0.102979,-0.02934,0.149667,-0.02308,-0.115916,-0.175089,-0.146329,-0.017659,0.032372,0.10766,0.256023,0.065621,-0.076323,0.103768,-0.252932,0.033666,0.022376,-0.198841,-0.034022,0.049574,-0.149422,0.0579,-0.193185,-0.094542,0.139622,-0.056543,-0.05062,-0.177554,-0.008679,0.074565,0.07075,-0.017893,-0.30379,0.046571,0.025549,-0.002454,0.036091,-0.160967,0.002621,0.142592,0.049186,0.032334,0.108183,-0.096947,0.026457,0.070638,-0.042952,0.214641,-0.102222,-0.067181,0.015861,-0.21773,0.069828,-0.14685,-0.102276,-0.096487,0.121417,-0.057465,0.119413,0.088021,0.03515,0.075845,-0.211274,0.089862,0.086517,0.172563,0.104185,0.129296,0.029754,0.047925,0.190626,-0.107238,0.216913,-0.231762,-0.110686,-0.036979,-0.167204,0.032143,-0.252751,0.001112,-0.003558,-0.192465,-0.116733,0.069958,-0.008484,0.052874,0.021735,-0.169083,-0.211881,0.021117,-0.148633,0.09016,0.039001,0.155607,0.10318,-0.017092,-0.012401,-0.030481,-0.273782,-0.072231,0.143146,0.000705,0.120656,0.096707,0.043271,-0.054842,-0.0452,-0.069507,0.044876,0.110351,