{"format":"ratass-rl-policy-v3","source":"ray-rllib-ppo","objective":"race-route-progress-v1","observationSize":25,"actionSize":2,"output":"first actionSize outputs are deterministic direct throttle and turn controls","layers":[{"inputSize":25,"outputSize":64,"activation":"tanh","weights":[-0.229213,-0.09451,-0.050308,-0.097273,0.134427,-0.532292,0.005554,-0.140498,0.170175,0.159073,-0.118573,-0.114481,-0.036228,0.00636,-0.237662,0.44887,-0.329204,0.147585,-0.12994,0.072284,0.027077,-0.149569,-0.009997,-0.066852,-0.189022,0.089165,-0.239219,0.068479,-0.174502,-0.020751,-0.185485,0.075029,-0.388912,-0.097492,-0.123262,-0.452022,-0.673203,1.5919,0.029661,0.929556,0.243025,-0.008836,-0.353233,-0.319577,-0.232344,-0.053447,-0.224878,0.115582,-0.224408,-0.001074,0.155023,-0.061633,-0.067744,-0.199261,0.196914,0.482512,-0.287248,-0.185813,-0.30538,-0.27735,0.34679,0.376895,-0.62006,0.228501,-0.681598,-0.082873,-0.074153,-0.052209,-0.478482,0.230551,0.072817,-0.206745,0.144988,-0.33202,0.016747,0.101499,-0.28142,0.078767,0.11716,-0.57162,-0.038396,-0.041505,-0.103719,-0.006075,0.014807,-0.190046,-0.008021,0.498869,-0.178426,-0.170472,0.353355,-0.083039,0.646697,0.087513,0.171688,0.241482,-0.250364,-0.061197,0.242356,0.000356,0.000933,0.110362,-0.01124,0.200392,0.132332,-0.605604,-0.061924,-0.251088,-0.145017,-0.258419,-0.769001,-0.882601,0.291583,-0.159044,0.742535,0.262788,-0.078847,0.311719,0.397452,0.182144,-0.257377,-0.266454,-0.228434,-0.104595,-0.353497,-0.104421,0.079654,0.118471,-0.067029,0.228415,-0.172061,-0.062245,0.018847,0.162782,-0.133371,0.511876,0.642261,0.556199,-0.000409,0.105191,-0.656419,0.163855,0.292748,-0.172697,-0.094241,-0.082396,0.246338,0.0045,0.165708,0.203502,0.124424,-0.062347,0.159952,-0.074699,0.564851,0.226868,0.151471,-0.102347,-0.06894,-0.185979,0.519742,0.820834,0.521262,-0.101348,0.107307,-0.207289,-0.083686,0.285323,0.277617,0.047136,-0.005573,0.118519,0.002301,-0.194823,-0.137051,0.188556,-0.254579,0.105763,0.123025,0.972226,0.358219,-0.069476,-0.349679,0.01319,-0.036451,-0.443348,-0.650495,-0.058666,0.041732,-0.42382,-0.059268,0.167377,0.046355,0.07128,0.201539,-0.211113,-0.078115,-0.214422,-0.20479,0.122227,0.032568,-0.400118,0.059494,-0.212179,-0.356735,-0.289373,0.402197,0.229669,0.039962,0.185564,0.531192,0.92961,0.680228,0.153521,0.472986,-0.532366,0.153837,0.73035,-0.032607,0.02789,0.201729,-0.140922,0.118716,0.131822,-0.117858,0.130342,-0.804884,-0.013124,-0.695832,-0.341896,0.069526,0.23109,-0.029992,0.10739,0.135088,0.285636,0.192413,0.439449,-0.104217,0.020857,-0.268001,0.32669,-0.034971,0.043772,-0.22078,0.151093,-0.152097,0.168675,-0.138006,0.292254,0.32909,0.372598,0.096149,0.322213,0.088352,-0.570119,-0.137615,-0.042213,-0.207317,-0.250989,-0.329126,-0.140405,1.261685,0.150871,1.652566,0.154392,0.04739,-0.201797,0.016902,-0.031804,0.043099,-0.093001,0.095675,-0.107629,0.046682,-0.15084,-0.231237,-0.239794,0.275704,-0.070281,-0.043994,-0.239567,-0.321914,-0.114359,0.106527,-0.665373,-0.547559,-0.014727,-0.162268,0.088855,0.114084,-0.069943,-1.558497,-0.142318,-0.098527,-0.008689,-0.136759,0.037575,0.053751,-0.196104,0.00742,0.232886,0.059145,0.04529,0.147068,0.285992,0.072428,0.286203,0.331628,0.20312,-0.246042,-0.003387,-1.127086,0.189427,-0.394583,0.90758,-0.202812,0.217804,0.543712,0.220607,-0.020172,-0.030406,0.125124,-0.195136,-0.005679,-0.067937,0.111315,0.00119,-0.107873,-0.730453,-0.288701,0.117617,0.308024,0.020078,0.255967,0.774364,0.494657,0.155574,0.12546,-0.079823,-0.097072,0.153375,-0.152284,0.402724,-0.007539,-0.125927,0.092594,0.215548,-0.221534,-0.076454,-0.030289,-0.480185,-0.088038,-0.239891,0.192902,0.033406,-0.121307,-0.284478,-0.317591,0.030489,-0.439215,-0.335402,-0.683122,-0.128835,-0.343848,0.646997,-0.201899,0.088956,-0.196868,0.087747,0.159241,0.021019,-0.078669,-0.162957,-0.117136,-0.216833,0.03591,-0.337408,0.114158,-0.250644,-0.178398,-0.240753,0.129383,-0.040344,0.137276,-0.613007,-0.353941,-0.014008,0.04631,-0.174193,-0.275998,0.131918,-0.357187,-0.065324,0.099393,0.062526,0.035957,-0.128474,-0.27072,0.033677,0.085802,0.022679,0.24542,-0.074763,0.480049,0.188563,-0.214914,-0.038506,-0.124625,-0.397527,0.606972,0.418934,-0.881353,-0.063695,-0.670139,-0.239502,-0.062553,0.05497,0.27185,0.158683,-0.093921,-0.049787,-0.11325,-0.013551,-0.109882,-0.033925,-0.029223,0.031632,-0.102401,0.032274,0.091284,-0.405125,-0.354784,-0.406491,-0.023529,-0.793386,-0.972357,-0.603219,0.008047,-0.612568,0.015531,0.04223,0.352131,0.076939,0.011241,-0.160411,-0.072763,-0.04522,0.076528,0.051269,0.016127,0.220581,-0.118968,-0.088159,-0.027201,-0.155346,0.220235,0.301246,0.012558,0.238243,0.625536,0.783781,-0.555785,-0.306489,-0.283607,-0.529208,0.021922,0.547129,0.048194,-0.094836,-0.02766,0.079636,0.038678,0.23722,-0.085331,-0.114256,-0.020152,-0.009687,0.321184,0.485241,-0.334783,-0.074,-0.029607,-0.253975,-0.300055,-0.231666,-0.352999,-0.796303,0.118642,-0.562301,0.496795,-0.067481,-0.041002,0.045585,-0.114656,-0.132484,0.078918,-0.235848,-0.12729,-0.135522,-0.216961,-0.390828,-0.306841,0.364466,-0.135306,0.0852,-0.079755,-0.430901,-0.000971,-0.023828,-0.588408,-0.481222,0.898293,0.075326,0.300761,0.49279,-0.207021,-0.167097,0.314405,-0.004093,0.017856,-0.68753,-0.273943,-0.112762,-0.648781,-0.152812,0.003839,-0.31678,-0.229717,0.520639,0.16791,-0.06583,-0.123427,-0.073727,-0.004332,-0.906714,-0.92244,0.198856,0.15667,0.730848,0.275339,-0.082776,-0.393895,0.330504,0.165854,-0.26661,-0.139461,-0.275152,-0.385682,-0.291893,-0.135511,0.141114,-0.009187,0.303044,-0.134066,-0.076657,0.213401,0.157553,0.415509,0.369242,-0.443977,-0.460191,-0.796164,0.010875,-0.192907,0.812303,-0.191889,0.159816,0.159447,0.151672,-0.016013,0.037675,0.205261,-0.049496,0.117145,-0.187566,-0.051934,-0.322155,-0.144644,-0.297354,-0.290574,-0.099545,0.191694,-0.171099,-0.135168,-0.114452,-0.050486,-0.477259,-0.056911,-0.241606,0.019051,-0.084922,-2.064734,0.16396,0.145998,-0.278281,0.008718,-0.205094,-0.121926,-0.159486,-0.156284,0.536493,-0.022552,0.212392,-0.172084,-0.223703,0.003484,0.197425,0.224178,0.080402,0.300397,-0.017233,0.448143,-0.072447,0.391428,-0.459167,0.104295,-0.019068,0.238173,0.163537,0.207968,0.198077,0.184298,0.315694,-0.162811,-0.041138,-0.378891,0.217268,-0.328223,-0.458474,0.137105,-0.006457,0.015085,0.14849,0.008278,0.335701,0.467143,0.225726,-0.173955,-0.175872,-0.674642,0.261566,-1.04888,-0.008978,0.178675,0.236955,-0.055394,0.048772,-0.018202,0.009239,0.173352,0.467248,0.111177,0.541043,-0.307595,-0.315554,-0.326847,-0.035574,-0.285672,-0.392026,0.175998,0.023832,-0.16561,-0.062403,0.365828,0.077752,-0.225654,0.1012,-0.333343,0.02079,-0.26796,-0.015729,-0.014797,-0.165907,-0.254782,0.174896,0.119119,0.258865,-0.216488,-0.589452,-0.034031,0.273188,0.293659,0.117057,-0.068912,0.476174,0.359469,-0.651332,-0.140841,-0.552958,-0.091539,0.064874,0.237127,0.127143,0.266685,0.236711,0.189411,0.00657,0.333944,0.279027,-0.300875,-0.167829,0.016157,-0.123157,-0.188271,-0.245961,0.17298,0.100197,0.259654,0.360788,-0.156532,-0.102064,-0.056593,-0.254038,0.151743,0.692244,-0.21913,1.813217,0.351651,0.044016,-0.090928,0.061711,-0.17102,-0.055474,0.032015,0.007824,-0.237096,0.074674,-0.191099,-0.060146,0.38518,-0.029676,-0.280391,-0.312962,-0.326012,0.150567,0.353334,0.570234,0.175818,-0.089311,-0.663388,0.178564,-0.099899,0.008242,0.1659,-0.289694,0.0407,-0.007536,-0.285128,-0.092432,0.039006,-0.220029,0.170561,-0.337856,0.096647,0.266498,-0.359531,-0.147212,-0.231714,-0.208945,-0.361513,-0.221288,-0.339847,0.212681,-0.233294,-0.186033,0.164563,-0.497722,0.21151,-0.083814,-0.099117,-0.155599,-0.084532,-0.120917,0.168512,-0.001313,-0.26961,0.197136,0.20341,-0.038162,-0.271614,0.044558,-0.061788,0.099051,-0.103874,-0.377706,-0.244899,-0.328702,0.311588,-0.259781,0.476425,-0.282922,-0.024513,0.241062,0.229894,-0.250607,-0.012952,-0.050484,-0.15564,-0.167668,0.111482,-0.147411,0.188509,-0.073877,-0.280781,-0.376125,-0.232227,-0.018991,-0.366562,-0.307699,-0.106615,-0.119684,-0.370966,0.128113,-0.554302,0.364996,-0.113036,0.197969,0.053189,-0.224336,-0.276972,-0.04512,0.037217,0.08093,-0.239349,0.014841,0.021645,0.059798,-0.040247,-0.137075,-0.356034,-0.133351,-0.257165,-0.328933,-0.198295,-0.383513,-0.131613,-0.250656,-0.116739,0.290647,0.427554,-0.065443,0.106089,0.022423,-0.10051,-0.012668,-0.033876,-0.091925,-0.102016,0.057909,-0.187332,-0.114247,-0.161315,-0.342901,-0.265729,-0.158924,-0.370632,0.027901,0.034201,0.165088,-0.616269,-0.576428,-0.684267,0.267404,-0.607546,0.183095,-0.080147,-0.122146,-0.228754,-0.277521,-0.098887,0.074568,-0.141568,-0.097205,0.05146,-0.286371,-0.029537,-0.14249,0.05254,0.013056,-0.14915,-0.046207,0.236858,0.264652,0.38655,0.249032,0.119662,-1.086894,-0.155546,-0.370315,-0.094751,-0.357436,0.534962,-0.368649,-0.049606,0.314022,-0.017552,0.198593,0.128822,0.077507,-0.163227,-0.186596,0.161996,-0.058896,-0.36007,0.149515,0.281686,0.025055,0.219424,-0.005482,0.447355,0.475305,0.527465,-0.166751,0.31173,-0.370594,-0.017531,-0.298459,-0.107547,0.437048,0.159328,0.148014,-0.091902,0.095434,0.012518,0.066586,0.019986,0.00442,-0.116504,0.275832,-0.682712,0.143176,0.088331,0.300103,0.260969,-0.278928,-0.283522,0.679974,-0.036371,0.397056,-0.209896,0.1522,0.110091,0.172862,0.229573,-0.071564,-0.048962,-0.132905,-0.070413,0.164049,-0.029913,0.57515,0.062882,0.502225,-0.064305,-0.065243,0.032904,0.14338,0.211534,0.324216,-0.370663,-0.401581,-1.501679,-0.029166,-0.748388,0.459587,0.117058,0.116869,0.402328,0.110638,-0.082282,0.208843,0.082781,0.463304,-0.170724,-0.038591,0.097685,-0.049218,-0.053069,0.151595,-0.177953,0.306522,-0.205275,-0.02302,0.214845,0.017918,-0.130573,0.831462,0.17238,0.560535,0.150322,-0.153895,0.411828,-0.065277,0.264222,0.114396,0.020455,0.290441,0.265909,-0.149359,0.242652,0.307737,0.242508,0.483102,-0.313992,0.542358,-0.387844,-0.03356,-0.16128,-0.34446,-0.185928,-0.457107,-0.634204,-0.23021,0.114539,0.800223,-0.107169,-0.066366,0.28394,-0.05732,-0.102448,-0.297388,0.029896,0.209463,-0.208012,0.222775,-0.247285,-0.003957,0.017352,0.613427,0.341038,-0.016076,-0.057842,0.11545,0.116753,-0.154867,-0.136354,0.17211,0.128325,0.335788,0.338879,-0.182454,0.83887,-0.219482,-0.161424,0.059202,-0.157331,-0.115914,-0.230016,-0.14161,0.152419,0.121313,-0.253133,0.013961,0.270761,-0.29274,-0.228045,-0.089829,-0.099613,-0.066508,0.0801,-0.2295,1.116916,-0.106708,0.57363,0.120708,-0.061475,-0.04734,-0.280604,-0.011246,-0.110076,-0.237648,0.111101,0.026478,-0.084692,-0.052101,-0.333576,-0.281738,0.184218,-0.205352,-0.105657,-0.040899,-0.333486,0.076699,0.010545,-0.245578,-0.433615,0.951904,0.093574,0.256356,0.454886,-0.042951,0.019253,0.295005,0.244955,-0.045014,-0.294191,-0.229069,-0.063578,-0.150464,0.22128,-0.120698,0.195998,-0.163601,-0.238317,-0.618166,-0.14847,-0.261638,-0.339927,-0.435098,-0.417714,-0.592256,1.009545,0.0776,0.911917,-0.018157,0.157449,-0.078254,-0.098389,0.04091,-0.120614,-0.071872,-0.006567,-0.040223,0.179334,-0.111955,-0.326945,0.095498,-0.475271,0.114443,0.036586,-0.197661,0.012958,-0.30604,-0.031102,-0.700618,-0.502454,-0.520379,-0.157067,-0.104154,0.673803,0.162325,0.52263,0.247785,-0.101957,-0.265228,-0.155497,0.026519,-0.143337,-0.21408,-0.067136,-0.085535,0.048802,0.131886,-0.569276,-0.455769,0.016649,0.033286,-0.233175,0.001633,-0.383941,-0.14832,-0.284075,-0.093708,-0.099581,0.571149,-0.046444,0.982949,0.697945,0.226805,-0.22715,-0.010022,-0.068595,-0.281077,0.048198,0.076713,-0.010571,0.229047,0.028134,0.235684,-0.046066,-0.300847,-0.005561,-0.158985,-0.041472,-0.354347,-0.261991,-0.538715,-0.052413,-0.155698,0.416681,-0.188327,0.43357,0.287505,0.011952,-0.250074,-0.130193,-0.022745,-0.121296,-0.21951,-0.239972,-0.092079,-0.228825,-0.203294,-0.044373,0.138554,-0.071659,0.133568,0.093446,-0.097786,-0.259524,-0.479137,-0.138944,0.051553,0.39166,0.439421,-0.060305,0.75178,0.14951,-0.110778,-0.382481,-0.196939,-0.039576,-0.236353,-0.207302,0.174687,-0.192537,-0.025657,-0.068482,0.337623,0.323905,-0.034371,-0.02621,-0.3068,-0.338069,-0.043888,-0.009222,-0.29885,-0.143597,-0.275556,-0.668931,0.087968,-0.481706,0.313941,-0.274331,-0.099263,0.116061,0.037755,-0.028919,0.049874,0.12097,0.636292,-0.059458,-0.403759,-0.065201,0.060968,-0.177974,0.203283,0.03482,-0.145362,-0.461877,-0.395678,-0.91548,0.059438,-0.489277,0.209517,-0.309657,0.366664,-0.435626,0.116265,-0.463967,0.137252,-0.246921,-0.461508,0.125692,-0.088934,0.668334,0.0687,0.309853,0.25963,-0.591358,0.220709,0.224595,0.164093,0.264354,0.424812,0.37538,-0.227459,0.021858,0.056837,-0.242574,0.15125,-0.078704,0.035092,0.185032,0.091254,-0.043276,-0.068944,0.297719,0.103886,0.08419,0.109671,0.250087,0.228476,-0.380159,-0.000424,-0.07957,-0.205585,-0.281256,-0.422931,0.284645,0.522549,-0.543879,-0.046867,-0.664939,-0.472698,0.099465,-0.060531,0.134322,-0.28953,-0.039642,-0.141487,-0.11239,0.030957,-0.223105,-0.15223,0.107488,-0.183478,0.283912,0.065378,0.463693,-0.036855,0.309056,0.36055,0.226867,0.447057,0.696389,-0.38605,0.057235,-0.132843,0.014122,-0.129227,-0.592401,-0.054555,-0.258892,0.19306,0.054866,0.051613,0.081829,0.163261,0.032761,-0.498071,0.261302,0.251033,0.011897,-0.068548,0.445351,-0.302235,-0.075412,0.100487,0.063337,0.084716,1.497217,0.179641,0.399068,0.334429,-0.042939,0.829237,-0.081937,-0.041141,0.409853,-0.078262,0.088028,0.398075,-0.062509,0.313459,0.088367,0.199684,0.466651,0.022349,0.366443,0.27268,0.085514,0.055259,-0.05183,0.522767,0.32798,-1.29535,0.036273,-0.912572,-0.211629,0.339366,-0.059487,0.222086,0.159578,-0.037486,0.14608,0.190829,0.213691,-0.115356,-0.069238,0.304365,0.066827,0.237733,0.081414,-0.319798,0.122146,0.195172,0.324133,0.153776,-0.141212,-0.491617,0.215343,-0.004307,0.464243,0.015555,0.037926,0.204929,0.420042,0.04377,0.201295,0.154308,-0.239856,0.327014,0.012116,0.28033,-0.169852,0.181554,-0.168959,0.270888,0.045187,0.29294,0.034249,0.056299,-0.017699,0.766111,0.40519,0.557129,-0.287382,0.006634,-0.238753,0.180967,-0.521466,-0.019241,-0.11516,0.297431,0.046415,0.089238,0.021843,0.05118,0.10297,-0.141471,-0.234845,0.23655,-0.275838,-0.146357,0.208912,-0.322464,0.091034,0.160244,-0.437132,-0.474761,0.556776,0.075016,0.401375,0.422294,0.06576,0.248531,0.224368,0.361485,0.084661,-0.253984,-0.294934,-0.088684,-0.262192,0.113943,-0.562339,-0.164346,-0.245058,-0.090622,-0.411616,0.185434,0.021402,0.303497,0.245856,0.387164,0.298158,1.598642,0.232822,0.381791,-0.477816,0.031407,-0.027991,-0.18629,-0.321152,-0.074447,-0.120543,-0.25352,0.190965,0.19295,-0.223109,-0.353901,-0.177463,-0.231792,0.270587,-0.101604,0.302267,0.20602,0.318345,0.20797,-0.387022,-0.550468,0.935426,0.039298,0.731244,0.506335,-0.087201,0.299709,0.415932,0.038361,0.172445,-0.044681,0.184473,0.147095,0.077761,-0.008638,-0.251996,-0.118757,-0.523,-0.014506,-0.348035,0.166526,-0.008309,0.324834,0.117059,-0.544731,-0.474214,-0.255101,-0.143719,-0.100285,0.175142,-0.085885,-1.138596,-0.327903,0.020219,0.046916,0.299417,0.037155,-0.087711,0.215173,0.150488,0.200081,0.318712,0.350604,0.187283,-0.07789,0.087529,0.13514,0.034375,0.326152,0.246841,0.186393,-0.989121,0.146711,-0.64621,-0.190991,0.127548,0.024702,0.172962,0.37444,0.055586,0.207045,0.438626,0.353456,-0.115246,0.171069,0.030601,0.182256,0.229835,-0.2615,0.1698,-0.070222,0.263829,0.07188,-0.079617,0.474356,0.292007,-0.701845,0.030931,-0.852758,-0.547444,0.089785,-0.244771,-0.293139,-0.359215,0.221896,0.011841,0.068092,0.284299,0.060719],"bias":[0.183365,0.019078,0.206354,0.404643,0.030217,-0.141396,0.246031,0.151438,-0.094091,0.081434,0.153983,0.083716,-0.301035,-0.191013,0.027719,-0.278106,0.317363,0.140952,-0.298387,0.192428,-0.198547,-0.139278,-0.314214,-0.146474,0.029258,-0.189134,0.320458,0.030546,0.021085,0.241722,-0.03842,0.293008,0.168077,0.238254,-0.238655,-0.134621,-0.192215,-0.229371,0.131908,0.242339,0.155913,0.133675,-0.051801,-0.037381,0.31085,-0.208706,0.209976,-0.020708,0.038185,0.099897,0.067864,-0.186558,-0.002345,-0.248061,0.252993,0.121951,0.043625,0.148033,-0.12227,-0.181221,-0.144357,-0.147819,0.077584,0.223365]},{"inputSize":64,"outputSize":64,"activation":"tanh","weights":[0.181931,0.01452,0.024769,0.348195,0.159138,-0.034122,0.28075,0.061353,0.129742,-0.069655,-0.421426,-0.090279,0.097728,-0.291676,0.031526,0.071921,0.01078,-0.128486,-0.140007,0.028221,0.400796,0.248897,0.092488,0.103176,-0.069259,-0.167779,-0.256019,-0.199118,0.323803,-0.272876,-0.09989,-0.334902,-0.743222,-0.213092,-0.369684,0.200309,0.148469,0.25493,0.069403,0.315408,0.105715,0.65587,-0.050451,0.273186,-0.765092,0.127473,-0.209506,-0.052805,-0.048961,-0.102062,-0.051026,0.04741,-0.178817,0.269463,-0.110063,0.134677,0.171759,0.148938,0.150592,0.145205,0.385274,-0.133419,-0.100825,-0.139795,-0.046662,0.548356,0.033164,0.620696,0.242699,-0.314829,0.597641,0.122185,0.390436,-0.080103,0.629155,-0.522637,-0.900361,-0.296737,0.042104,-0.259802,0.180689,-0.240686,-0.165652,0.068111,-0.097365,-0.143852,-0.561478,-0.125413,-0.00682,-0.170367,0.158814,0.277563,0.064593,0.22305,0.055135,0.552434,0.359587,0.250554,-0.46358,-0.913719,0.105158,-0.277822,-0.175619,0.392422,0.579913,-0.007095,-0.093979,-0.125024,0.814739,-0.341705,0.227256,0.102594,-0.133473,0.168689,-0.509483,0.05968,0.395941,-0.822754,0.46879,0.093234,-0.055854,0.268235,-0.041564,0.350557,-0.214558,-0.413455,-0.031587,0.100162,0.036707,0.35514,0.183633,0.256497,0.268727,-0.070159,0.030719,0.176746,-0.02457,0.080218,0.10807,-0.013027,-0.277069,-0.19613,0.168309,-0.131484,0.128219,0.25792,0.038909,0.149711,-0.082565,0.07149,-0.553832,0.037079,-0.288113,0.044908,0.200957,0.144987,0.13472,0.227132,0.201597,0.176555,0.223818,0.293521,0.239757,-0.103588,-0.086014,-0.255504,-0.276595,-0.049052,0.052685,0.002906,-0.017346,-0.019835,0.3063,-0.058599,-0.042184,-0.036216,-0.118043,0.017407,-0.007748,-0.240123,0.171534,-0.170813,0.144963,-0.18503,-0.193751,-0.031806,-0.175098,0.172042,-0.117037,0.029227,-0.256582,0.021735,-0.076151,0.702115,-0.180092,-0.234752,0.410725,-0.243067,-0.349394,0.021878,0.041885,0.164317,0.176545,0.433347,-0.100139,-0.042162,-0.032733,0.112461,-0.828942,-0.283981,-0.14724,-0.22822,0.18242,0.312852,0.28442,0.022467,0.203734,0.130164,-0.312734,-0.691506,0.223084,-0.404738,-0.322046,-0.234357,-0.490399,-0.140885,-0.028004,0.294522,-0.055916,0.255585,0.076873,0.213375,-0.022101,0.065195,-0.093058,0.245854,0.177724,-0.130629,-0.011679,-0.234413,-0.109196,-0.079463,0.042848,0.176631,-0.29553,0.044877,-0.127588,-0.317061,0.076673,0.01244,0.04654,0.483688,0.580787,0.108289,-0.000917,-0.598013,0.174804,-0.106948,-0.161116,0.050032,-0.100582,-0.269928,-0.583013,0.145232,-0.06392,-0.138624,-0.093645,0.276528,-0.160903,0.344686,0.153474,0.19332,-0.095314,0.124483,-0.098208,0.050941,0.06993,-0.253951,0.295186,0.436295,-0.056211,0.153614,0.156039,0.37343,-0.095586,0.048587,0.193541,0.449259,0.666005,0.274975,0.629776,0.110725,-0.224982,0.000152,0.118269,-0.464447,0.130416,-0.395664,0.03402,-0.014403,0.371268,0.201555,0.301325,0.136341,0.00219,-0.074754,-0.096708,0.035621,0.764528,-0.05753,-0.331993,-0.12703,-0.173884,-0.518861,0.134979,0.094845,-0.247087,0.176538,-0.188393,0.231351,0.44121,0.342425,-0.193333,0.504933,0.275914,-0.552052,-0.322748,0.14268,-0.009044,-0.072856,0.658627,0.199122,0.046712,0.167937,0.182089,-0.071086,-0.133203,-0.113691,-0.361717,0.250414,-0.07402,-0.198985,0.356389,0.239695,-0.171668,0.047,0.143674,0.29803,-0.118172,-0.253764,-0.101519,1.049274,0.181304,0.187225,0.076314,-0.571422,-0.022008,0.225615,-0.021834,-0.036427,0.622796,-0.378426,-0.116283,-0.00588,0.744441,-0.116559,0.418104,0.059073,-0.349735,-0.132336,0.032904,0.073403,0.011494,-0.460781,0.088257,-0.061331,0.092137,0.170761,0.219206,0.146532,-0.127454,0.084971,0.053444,0.108275,0.207164,0.023362,0.072393,0.125608,0.096461,-0.090781,0.169694,-0.090291,0.024746,-0.017872,0.085532,-0.130287,-0.070865,-0.037098,0.149502,-0.321175,-0.172816,0.116712,0.197698,0.176507,-0.252184,-0.09108,-0.088693,0.054856,-0.151677,0.081458,0.194848,-0.10904,0.088024,-0.197538,-0.189874,0.164458,-0.086525,0.079233,0.106366,0.402759,0.096935,-0.129298,-0.090231,0.030855,-0.148957,0.115059,0.041323,-0.173277,0.020708,-0.045863,-0.034821,-0.066487,-0.151622,0.033553,0.118348,-0.153281,-0.240355,-0.081414,0.263681,-0.070377,-0.059658,0.148541,-0.065553,0.067311,0.131708,0.237411,-0.022367,-0.027404,0.00123,-0.214599,-0.180282,-0.145295,-0.488085,0.235897,-0.061566,-0.086245,-0.15449,0.189411,-0.158474,0.336047,0.230982,0.300754,-0.071013,0.345176,-0.124907,-0.298177,0.144912,-0.231507,0.047004,-0.033639,0.528156,0.240748,0.110111,0.285389,-0.288509,0.053872,-0.121654,-0.42468,-0.256759,-0.140126,-0.25605,-0.195491,0.138801,0.2531,-0.168575,0.239984,0.409801,-0.220526,-0.424623,-0.244974,-0.079584,-0.006231,-0.3683,-0.310868,-0.206914,-0.281155,-0.28237,-0.008295,-0.278462,0.352347,-0.300403,0.250509,-0.300787,0.184724,0.164352,0.111485,-0.025857,0.059596,0.048082,0.167228,0.173925,0.298153,0.310296,0.049685,0.379579,0.009253,-0.110841,-0.070964,0.247292,0.297309,0.150984,-0.071838,-0.248463,-0.306968,-0.237046,-0.118727,0.224072,-0.044004,0.384356,-0.028545,-0.087501,0.197241,-0.219622,-0.205996,-0.475168,-0.103581,-0.186576,-0.153274,0.403875,0.312663,0.068774,0.543443,0.345839,0.088999,0.572327,0.397158,-0.156149,-0.340313,-0.159849,-0.363659,-0.270846,-0.069014,0.180283,0.173717,0.140128,-0.037477,0.009592,0.320231,-0.004759,0.189643,0.185952,0.087494,-0.073047,-0.355869,0.549494,-0.395945,0.092311,0.171225,-0.157075,-0.06492,-0.191783,0.025413,-0.291576,-0.503367,-0.199854,0.084166,0.07896,-0.325491,-0.342394,-0.031227,-0.05604,0.308092,-0.356775,-0.545946,0.13953,0.082819,-0.036919,-0.135553,-0.120846,0.80951,-0.017231,0.214066,-0.323602,-0.143288,0.16379,-0.137925,0.202565,-0.335112,0.235387,0.272725,0.01804,0.036779,0.155797,0.048736,0.305493,-0.012859,-0.238078,0.048212,0.293878,0.095303,0.090178,0.094657,-0.074033,0.020279,0.061253,-0.279154,-0.262375,-0.332819,0.109438,0.135828,0.017144,-0.084129,0.529207,0.107942,0.180005,-0.379801,0.008818,0.041981,0.433884,-0.124945,-0.365941,0.095841,-0.119079,-0.152623,0.07673,0.09637,-0.188015,-0.062884,0.143839,0.127819,0.274119,-0.037701,0.085621,0.135442,0.247721,-0.259991,-0.327929,-0.135082,-0.11036,-0.11333,-0.107901,0.11077,0.262862,0.020127,0.107897,-0.157703,-0.523742,0.033484,-0.061591,0.048615,0.116421,0.18782,0.533715,-0.119789,0.113852,-0.061648,0.013443,0.001481,0.099982,-0.391894,-0.119386,-0.021094,-0.320469,-0.056256,0.037767,0.398051,0.102348,0.018806,0.158137,0.176235,-0.033865,-0.023329,0.141938,0.04224,-0.25624,0.126529,0.089914,0.021921,0.113953,-0.145996,0.070241,-0.048787,-0.35076,0.26177,0.064712,-0.067528,-0.077761,-0.270758,0.04784,-0.127011,0.215397,0.064249,-0.092698,-0.244102,0.422976,0.138241,0.083208,0.299954,-0.156085,-0.453109,-0.181506,-0.209028,-0.099565,-0.00723,-0.402669,0.304268,-0.092272,-0.126623,0.249324,0.090866,-0.188814,0.136079,-0.123241,-0.05141,-0.012427,-0.186052,0.043766,-0.098192,-0.14421,0.028623,-0.07567,-0.09003,0.323594,-0.109055,-0.067256,0.119282,0.155152,0.055795,0.127395,0.42552,0.020641,-0.063262,-0.196894,0.149401,0.07704,0.168388,0.031328,0.230108,0.015373,-0.010201,0.015893,0.200278,0.141905,-0.309515,-0.036962,-0.198867,-0.064719,-0.150293,0.011446,-0.387384,-0.107331,0.004796,0.13928,0.215133,0.039024,0.23609,-0.275687,-0.080164,-0.019398,-0.154383,0.039364,-0.257713,0.016217,0.199048,0.005091,-0.036273,-0.038427,-0.016204,-0.35212,-0.05049,0.234279,-0.238607,0.119432,0.286341,-0.085103,0.238193,0.212253,-0.045497,0.142895,0.268517,-0.009362,-0.070507,-0.01123,0.022796,-0.182748,-0.451251,0.492051,-0.168409,-0.176033,-0.862562,-0.497502,-0.247128,-0.002118,0.483019,-0.162568,-0.092859,0.001327,0.089524,-0.277821,0.449579,0.126685,0.115046,-0.90575,0.071676,-0.055318,-0.055593,0.127585,-0.092647,0.061426,0.073644,-0.2797,0.485392,-0.075443,-0.103482,-0.021317,-0.071978,0.076076,-0.067046,0.352437,-0.31832,-0.101155,-0.258345,-0.237964,0.479184,-0.136228,-0.129809,0.233612,-0.026041,0.109948,0.027361,-0.081394,0.038721,0.473848,0.191958,-0.145649,-0.063733,-0.108429,0.057913,-0.101639,-0.43181,-0.188977,-0.155911,0.037306,0.082744,-0.160779,0.140203,0.017456,0.147601,-0.154655,-0.23868,-0.526871,0.122688,0.039619,-0.129393,-0.464408,-0.080195,-0.230383,-0.275737,0.250229,-0.056364,0.034209,-0.034037,0.298223,-0.053975,0.060195,0.049675,0.112147,-0.457315,-0.533815,-0.266536,-0.302215,0.174075,-0.315855,0.06956,0.082196,0.112323,-0.025709,-0.052133,0.02355,0.052847,0.122643,0.048801,-0.099274,-0.018201,0.066175,-0.102569,-0.111336,-0.068859,-0.119551,-0.412085,-0.287404,0.183922,0.027099,-0.040481,-0.1689,0.005065,-0.211146,0.36125,0.037594,-0.016313,-0.074217,0.237401,-0.102303,-0.327587,-0.047378,0.059615,0.080256,0.147029,0.199258,0.246919,0.024142,0.220115,-0.378598,-0.246415,-0.32246,-0.361274,-0.261728,-0.370196,-0.38078,-0.441367,0.149451,0.397166,-0.034341,0.105106,-0.067376,0.029886,-0.331391,0.062388,-0.142499,0.018824,-0.541334,-0.2088,-0.456995,-0.233172,0.028178,0.044971,-0.011908,0.151541,-0.173121,0.404525,-0.193197,-0.160177,0.000919,0.155544,0.241154,0.039252,0.329607,0.258513,0.019394,-0.055055,0.279631,-0.117999,0.116165,-0.103746,-0.0283,0.070552,0.107356,-0.01031,0.00909,-0.317156,0.557334,-0.378414,0.091347,0.188289,0.165078,-0.118092,0.026772,-0.411633,0.089355,0.098064,-0.229711,-0.335481,-0.06489,-0.075562,-0.198896,-0.366544,0.289899,0.021859,0.014632,-0.088519,-0.10884,0.467126,0.02116,0.3202,-0.093709,-0.18047,-0.188589,-0.262858,-0.004661,0.003897,0.115011,-0.110996,0.250539,-0.071098,0.272913,-0.544843,0.242619,0.188706,-0.220573,-0.189555,0.047206,-0.004028,0.21185,0.00686,0.020337,0.004467,-0.010334,0.094103,0.034636,-0.00602,-0.332588,-0.271509,-0.093117,0.339424,-0.040118,-0.070849,0.166758,-0.180865,0.067459,0.14395,0.222623,0.314016,-0.191338,-0.044585,0.435399,-0.0042,-0.197377,-0.052787,-0.102636,-0.283173,0.559288,0.020649,-0.077251,0.183749,-0.074593,-0.092296,-0.425118,-0.104356,-0.10695,0.017383,0.293808,-0.171423,-0.406882,0.221258,0.273535,0.074319,0.138331,0.186526,-0.118509,-0.171237,-0.122644,-0.027411,-0.070936,0.08154,0.101443,0.236402,0.125922,-0.157463,0.23365,-0.444973,-0.163546,0.021682,-0.44819,0.302078,0.084125,-0.15805,0.03086,0.072274,-0.035556,0.17936,0.031987,-0.025143,-0.119936,-0.111985,-0.57041,-0.092704,0.208822,0.194412,0.177059,-0.112985,-0.015989,-0.035413,-0.129427,-0.220641,-0.003952,-0.235631,0.099811,-0.130221,-0.10128,0.024544,0.126878,-0.12836,0.186438,-0.066762,-0.080661,-0.019499,0.071941,0.184754,-0.165117,-0.029219,0.484525,-0.1193,-0.01814,-0.15842,0.13276,0.055632,0.368406,-0.341808,-0.078089,0.094514,-0.087727,0.185157,0.038153,0.351298,-0.068863,-0.117558,0.01565,0.170019,-0.126357,0.178908,0.031802,-0.014471,-0.034262,0.047357,0.110656,-0.008149,-0.024543,-0.006652,0.229077,-0.144553,-0.080498,0.229233,0.160641,-0.220768,-0.141909,-0.112869,0.028592,-0.012837,0.147648,0.058317,0.061329,-0.090164,-0.031459,0.25572,0.084287,-0.228334,0.408469,-0.103299,0.044005,-0.000137,-0.18523,-0.116754,0.699322,0.184755,-0.234611,-0.031885,0.023151,0.181951,-0.046675,0.03335,-0.171997,0.035323,0.196833,0.067753,-0.283491,0.229899,0.100258,-0.071613,-0.097926,-0.056807,-0.373812,0.234105,-0.011176,0.290227,0.179177,-0.001012,-0.130887,-0.556227,-0.030935,0.036111,-0.164639,-0.180926,0.089333,-0.180469,-0.05076,0.139469,0.385222,-0.161624,0.177226,-0.006966,0.178563,0.052501,-0.090788,0.177484,0.071656,-0.322217,-0.094381,-0.031974,0.014079,-0.262778,0.156784,-0.033875,-0.097861,-0.299129,0.023898,-0.079242,-0.110197,0.638888,0.197892,-0.009272,0.345658,0.200941,0.135732,-0.319216,0.380253,0.074938,0.652141,0.007322,-0.46969,0.068966,0.03785,-0.09709,-0.503014,-0.510572,-0.080226,-0.120919,0.266469,0.070931,-0.458116,-0.116714,0.076028,0.100751,-0.145807,-0.194366,-0.093302,0.123078,-0.465159,-0.060886,-0.201991,-0.068929,-0.282272,-0.17154,0.263483,0.075495,-0.646867,0.426903,-0.002978,0.036229,0.328312,0.115025,0.376751,-0.257824,0.07593,-0.351691,0.048445,-0.025258,-0.135242,-0.10244,-0.007541,-0.21578,0.33536,-0.272554,-0.207516,-0.035698,0.294064,0.311953,0.108421,-0.196713,-0.114756,-0.279135,0.089197,-0.259171,-0.17156,-0.229621,0.089751,-0.112584,-0.083317,-0.12937,-0.103413,-0.139388,-0.047703,-0.097375,0.455436,0.13512,-0.165933,0.256523,-0.156795,-0.256564,0.251979,-0.013815,0.18314,0.018636,0.670401,-0.060406,-0.017974,-0.074987,-0.219203,0.066657,0.252314,-0.461374,-0.466611,-0.087308,-0.196269,-0.459274,-0.099507,0.387441,0.140743,0.085041,0.298604,0.027432,-0.001345,-0.145267,-0.082804,0.19396,-0.643882,-0.064055,0.130933,-0.10472,0.101801,-0.195275,-0.084531,0.26522,-0.20337,0.353675,-0.253781,0.119656,-0.020203,-0.099585,0.275753,-0.098215,0.35932,-0.117317,0.103623,-0.186377,-0.241726,-0.149867,0.270007,-0.233968,-0.392338,-0.116581,-0.148193,-0.058112,-0.137067,-0.200336,-0.119038,0.311532,0.00518,-0.075859,0.205898,-0.014312,0.124089,-0.140711,0.085164,0.092924,-0.061735,0.101049,-0.109436,0.100391,-0.246465,0.328482,0.217408,0.285802,-0.222902,0.05093,0.155285,-0.033308,-0.326569,-0.143742,0.098313,-0.077562,0.073194,-0.478282,-0.136744,-0.360579,0.032724,-0.335176,-0.00595,-0.071357,-0.260471,-0.221901,-0.41371,-0.220586,-0.460465,0.217969,-0.092267,-0.317664,0.282277,0.625368,0.033815,0.071571,-0.326901,0.102539,-0.286814,-0.171591,-0.150156,0.234831,-0.004035,0.317885,-0.136188,0.095954,0.123032,0.09887,-0.039148,-0.013498,0.310683,0.073847,-0.005034,0.197,0.229831,0.060603,-0.267986,-0.164379,0.101285,-0.214528,0.251376,0.097607,-0.257327,0.072584,-0.072941,-0.138691,-0.740043,-0.169634,-0.190187,0.213981,0.209718,-0.0405,-0.441322,0.285264,0.158338,-0.104887,0.310388,0.378034,0.049327,-0.171278,-0.115465,-0.120169,-0.158965,-0.009805,0.213046,0.145556,-0.109733,-0.21395,0.574042,0.144015,-0.01069,-0.053349,-0.258059,0.22109,-0.024713,-0.276993,0.195784,-0.335683,0.25124,-0.049861,-0.172616,0.042663,-0.136401,-0.116719,-0.384041,0.177234,0.041956,0.118246,0.17025,-0.115755,-0.160224,-0.296368,0.221358,0.211654,-0.239443,0.016576,0.083133,0.030921,-0.206885,-0.186609,0.173516,0.089759,-0.090801,0.347185,-0.539454,-0.12341,0.215999,-0.033948,0.177356,0.212265,0.676498,0.22452,0.145962,-0.062015,-0.301849,-0.014699,0.5839,-0.330518,-0.470463,0.049895,-0.291807,-0.262078,0.02064,0.296035,0.156356,0.009772,0.093161,-0.065728,-0.597081,0.052346,0.007107,0.249461,-0.383113,0.062056,-0.077751,0.035538,0.072043,-0.317048,-0.147871,0.21036,-0.328353,0.232006,-0.037104,-0.116404,0.12618,-0.150076,0.078035,0.509637,0.667421,0.046715,0.009034,-0.171771,-0.217677,0.491664,0.076947,-0.190422,0.422747,-0.036807,-0.006883,0.306744,-0.260452,-0.210021,0.192996,0.296181,0.012334,-0.411486,0.076774,0.320793,-0.147599,0.197747,-0.358599,-0.095136,0.361127,0.631029,-0.228503,0.17969,-0.152942,-0.204449,-0.165821,-0.774593,-0.167477,0.203434,0.141331,-0.00088,-0.226262,-0.208532,-0.089881,-0.166054,-0.292293,-0.061305,-0.152414,0.018235,-0.060571,0.205182,0.225678,0.396269,-0.020796,0.234674,-0.162243,-0.021137,0.348224,0.371627,0.142427,0.149795,-0.251869,-0.141432,-0.223644,-0.388227,-0.130266,-0.035946,0.231916,-0.13344,0.187409,-0.198017,-0.174977,-0.500363,0.162264,-0.349798,-0.053635,-0.206485,0.023949,0.00645,-0.575895,-0.202772,-0.340671,-0.212528,-0.259265,0.134555,0.519413,0.038902,0.135679,0.188861,-0.011777,0.520693,-0.018166,0.065379,0.082708,-0.133893,0.605488,0.340705,-0.138579,-0.350475,0.325753,0.116734,0.026326,-0.447043,0.603967,0.160894,0.257098,0.007644,0.612592,0.251287,-0.80896,-0.107728,0.129929,-0.652116,-0.019169,-0.200933,0.190367,-0.24937,-0.119738,0.628455,0.216012,0.590736,0.308015,-0.017406,0.267426,-0.017511,0.314149,0.11521,-0.649944,-0.115882,-0.115295,-0.340434,-0.050211,-0.312932,-0.12516,0.06962,-0.073596,0.135306,-0.030356,0.513319,-0.202236,0.31868,0.289996,-0.226847,0.124874,0.234248,0.152481,0.27532,0.09452,0.474367,-0.283932,-0.20547,-0.283951,0.131972,-0.272858,-0.125112,-0.387342,-0.183019,0.383477,0.426383,-0.094051,-0.033843,0.132885,0.185981,-0.367493,-0.749552,-0.021529,-0.168043,-0.170961,-0.078438,-0.646497,-0.304433,-0.404058,-0.344707,0.279066,0.233641,-0.121915,0.284919,0.063237,0.22592,-0.097692,0.454865,0.094464,-0.073004,-0.035652,-0.02432,0.170981,-0.018382,-0.423673,0.066116,-0.303144,-0.020882,-0.066384,-0.261879,0.190377,0.4702,0.64582,0.128874,0.173972,-0.056532,-0.098656,-0.723051,0.158115,-0.056634,0.25707,0.106647,0.141532,-0.011294,0.045328,0.144205,-0.155203,-0.371787,0.113849,0.125828,-0.054563,-0.519151,0.084675,-0.125548,0.183534,0.24474,-0.098245,0.253939,0.133591,-0.201757,-0.01614,-0.100623,-0.082048,-0.181571,0.320723,0.039031,-0.200478,-0.189896,-0.093583,-0.005377,-0.259508,-0.011983,0.024106,0.153948,0.119263,-0.423082,0.055502,0.030846,0.321989,0.008102,0.050249,-0.036798,0.048222,-0.077855,-0.124788,-0.113543,-0.216572,0.096641,-0.041986,0.009855,0.164494,-0.090951,0.089353,0.019035,-0.098545,0.082743,0.051451,-0.417676,-0.224256,-0.190721,-0.081122,-0.002741,0.070471,-0.016123,0.251071,0.289222,-0.038958,-0.268553,-0.3496,0.372207,-0.086542,-0.148157,-0.278548,0.169414,-0.17849,-0.232587,0.05627,-0.048992,0.245153,0.611605,-0.207281,0.268216,0.042183,-0.266595,-0.329141,-0.167135,-0.169523,0.191852,0.450719,0.660494,0.036728,0.39831,0.394032,0.11424,0.445787,0.332301,-0.038078,-0.394727,-0.032109,-0.368169,0.038996,-0.004366,0.384773,-0.252531,0.045795,-0.121657,0.24861,0.53265,0.036539,0.246468,0.148979,0.233578,-0.392345,-0.127225,0.649705,-0.419299,-0.040149,0.292156,-0.176657,-0.096846,0.058943,-0.353008,-0.509134,-0.191438,0.024587,0.227082,0.057881,0.006081,-0.052433,0.433501,-0.050164,0.329484,0.401974,0.10554,0.222566,-0.031635,0.241708,-0.106313,-0.368398,0.006114,-0.111157,-0.228204,0.351985,-0.152316,0.087821,-0.084116,0.036755,-0.074596,-0.649602,-0.216509,-0.030959,-0.007156,0.02972,0.022752,-0.075489,0.172991,-0.179383,-0.105235,0.018623,0.22842,-0.395599,-0.321558,0.035272,-0.07441,-0.104707,0.172877,0.342189,0.091015,0.157568,0.03511,0.231891,-0.144733,-0.066204,-0.047501,-0.035272,0.043838,-0.349772,-0.084817,0.265305,-0.19179,0.204602,0.243143,0.07238,0.395101,0.104247,-0.060442,-0.333588,-0.354819,-0.100716,0.114133,0.019097,-0.064412,0.148173,0.005234,0.121627,-0.116028,-0.248033,0.22765,-0.184069,0.007153,0.006963,0.096859,0.199038,-0.404314,0.065062,-0.006738,-0.122323,0.130763,-0.099076,0.134,0.015889,0.075359,0.219849,-0.092666,-0.052343,-0.05954,-0.084984,-0.137332,0.073522,-0.217642,0.13607,-0.178514,-0.346797,-0.01859,0.008616,0.056253,-0.022472,-0.119101,0.229304,0.163101,0.160343,0.198281,-0.082763,-0.182325,-0.306306,-0.017557,-0.176138,0.171295,0.088118,0.197973,0.132947,-0.093453,-0.125163,0.114656,0.132509,0.134244,-0.006729,-0.041101,-0.081024,-0.210917,0.140982,0.021647,0.013724,0.040859,-0.085329,0.169248,-0.22364,-0.085873,0.063502,0.191442,-0.003355,-0.094177,-0.03703,0.191647,0.17636,-0.114178,-0.105135,0.281439,-0.081751,0.083153,0.202061,-0.19111,-0.006789,-0.145634,-0.010025,-0.118417,-0.262561,0.079134,0.166939,-0.038985,-0.077285,0.032547,0.000292,0.244757,0.082551,-0.030833,0.090066,-0.028662,-0.157768,-0.229333,-0.013032,0.089564,-0.188252,0.032238,-0.023833,-0.181948,0.033208,-0.028327,0.227567,-0.015119,0.035059,0.02127,0.028288,-0.007594,-0.166641,0.185372,0.272791,-0.262289,-0.19997,-0.016315,0.102668,0.0251,0.180127,0.192504,-0.10397,-0.191138,-0.052194,-0.014514,0.129315,0.252575,-0.081283,0.646967,0.148809,0.068045,0.473872,0.200638,0.273507,-0.006941,0.114437,-0.057135,-0.384463,-0.561844,-0.114246,-0.242587,0.414426,-0.233256,-0.120101,-0.059465,0.187462,-0.074337,-0.431386,-0.302986,0.106251,-0.0955,0.144493,-0.227117,0.418438,-0.057893,-0.179536,-0.047971,-0.16365,0.091689,-0.538893,0.054734,0.263433,0.01226,0.122179,0.585817,0.187255,0.651567,0.050612,0.17887,0.046948,-0.285675,-0.000964,0.082672,-0.085321,-0.094914,-0.554695,0.162476,0.08516,-0.049249,0.34392,0.119106,0.062807,0.360361,0.205174,0.379346,-0.134012,-0.565259,0.074529,0.004063,0.212584,0.093213,-0.211294,-0.164095,0.098349,0.126592,-0.021325,-0.110333,0.248184,0.150039,-0.342457,-0.368023,0.251206,0.071498,-0.070855,0.288696,-0.259435,-0.156658,0.364917,-0.189617,0.105306,0.088731,0.381752,-0.036942,0.091887,0.018726,-0.299785,-0.09981,0.502238,-0.216227,-0.09342,-0.142465,-0.301814,-0.240215,0.143531,0.27292,0.249889,0.264348,0.039226,-0.00489,-0.577929,-0.001693,-0.11508,0.161154,-0.271471,0.056769,-0.016553,0.035033,0.324176,-0.257639,0.054161,0.120983,-0.230492,0.202787,-0.193431,-0.019211,-0.027847,-0.139004,0.066962,0.393124,0.40514,0.235501,-0.129088,-0.346593,-0.008267,0.09916,-0.112649,-0.28872,0.010305,0.208914,0.212757,-0.135879,0.084793,0.28473,0.264481,-0.256478,0.081552,0.371226,-0.249135,0.150765,0.218728,-0.108263,0.100689,-0.189905,-0.179802,-0.02761,-0.220031,0.091224,-0.048078,0.122699,-0.193631,-0.013411,-0.147733,0.11428,0.026157,0.117492,0.126615,-0.050855,0.056136,-0.257538,-0.059117,0.274195,0.002073,-0.166698,-0.191382,0.00689,-0.112921,0.068663,0.138957,-0.026906,0.123959,0.000192,0.040559,0.092207,-0.088115,0.060348,-0.14303,0.035286,0.07274,0.05919,0.184776,0.006879,-0.080604,0.325564,0.124301,0.068088,0.070804,-0.007184,0.05437,-0.007337,-0.052241,-0.157644,0.025059,0.08431,-0.139932,-0.095388,0.275188,0.277288,-0.131363,-0.141728,0.107064,0.186277,-0.053252,0.238093,-0.253283,-0.094774,0.094962,-0.27645,-0.029203,0.163265,0.17605,0.07872,0.104735,0.017133,-0.24867,-0.059547,0.398021,-0.123556,-0.08883,-0.109703,-0.107144,-0.278863,0.203834,0.199252,0.168659,0.264557,0.150904,-0.120526,-0.504143,-0.096704,0.023088,0.095873,-0.325465,0.383645,-0.051746,-0.097211,0.037198,-0.171704,-0.090931,0.001564,-0.280471,-0.022394,-0.033374,-0.219352,-0.032449,-0.094126,-0.035207,0.270655,0.470622,0.274239,-0.015302,-0.123048,-0.555457,0.069742,-0.005386,-0.053503,-0.194582,0.340156,0.116993,-0.290257,0.152002,-0.147985,-0.007449,-0.052483,-0.283859,-0.378845,-0.193677,0.137422,-0.186063,-0.406936,-0.08055,-0.21957,0.37336,-0.210864,-0.213767,0.101265,0.161263,0.10278,-0.314173,-0.302459,-0.073726,-0.29866,-0.194263,-0.663487,-0.815554,-0.539912,-0.103866,0.02759,0.16135,-0.203043,-0.201755,0.113076,0.157773,0.305617,-0.047799,-0.021002,-0.585929,-0.529942,-0.592264,-0.26987,-0.073069,0.202177,-0.202595,0.013367,0.031584,0.953247,-0.034409,0.007405,-0.115485,0.230883,-0.014802,0.148904,-0.085302,-0.184457,-0.128552,-0.067565,-0.083893,0.029936,-0.297855,-0.24209,-0.152312,0.037039,-0.281948,-0.166444,-0.161918,0.055796,0.192072,0.491678,0.013627,0.27347,-0.02104,0.299362,-0.258581,-0.304824,-0.109999,-0.131263,0.15955,0.106324,0.211168,0.308851,0.051832,0.164291,-0.174145,-0.084148,-0.398619,-0.29381,-0.023015,-0.185263,-0.379947,-0.291345,0.167313,0.084361,0.12652,0.127569,0.051825,-0.02412,-0.311951,-0.3582,0.080473,0.11055,-0.183053,-0.395693,-0.316934,-0.35126,-0.124214,-0.0049,-0.076949,0.204578,-0.079325,0.367423,-0.27707,-0.134736,0.185059,0.073786,0.113496,0.072924,-0.038832,0.4332,-0.031255,0.126604,0.366426,0.005763,0.113301,0.114711,0.109704,-0.150978,-0.05302,-0.210233,0.049382,0.100428,-0.059488,0.084035,0.056408,0.033687,0.059703,0.027273,-0.199759,0.101255,0.018982,0.135665,0.058679,0.00626,0.176213,0.000745,0.04369,-0.094943,-0.040265,-0.040706,0.446021,-0.257627,-0.134911,0.233289,0.032817,0.249063,0.11512,0.371666,-0.042725,0.063075,0.011778,0.0468,-0.244974,0.236049,-0.037683,-0.005051,0.063887,-0.224293,0.063095,0.094653,-0.118432,-0.292279,0.230773,-0.150324,-0.155359,0.092727,0.085282,-0.195197,0.070249,-0.125481,0.029115,0.285829,0.032672,0.126972,0.024472,-0.126182,-0.039493,-0.007343,-0.179259,-0.221419,-0.088956,0.107933,0.044207,-0.067894,0.086357,0.340088,0.025233,-0.336364,0.056073,0.291544,-0.136077,0.124559,-0.192143,-0.018926,0.246849,-0.112151,-0.029029,0.066181,0.219032,0.050683,-0.140472,0.160712,-0.3156,-0.053554,0.218751,0.017411,0.073515,-0.201574,0.078907,-0.162186,0.042656,0.075566,0.108876,0.237062,-0.136526,-0.040984,-0.479848,-0.161365,-0.090387,-0.092689,0.003999,0.345037,0.070392,0.092549,0.05854,0.033958,0.120417,0.1382,-0.349997,0.092226,-0.149116,-0.1581,0.104866,0.020521,0.081581,0.446258,0.349414,0.427983,0.025223,-0.140102,-0.153117,0.028418,-0.129636,-0.488693,0.151327,0.406104,0.009302,0.092146,-0.158004,0.08042,-0.016553,0.073899,0.305148,0.055027,-0.006474,0.024192,0.26702,0.075065,0.183499,-0.083052,-0.019452,0.215676,-0.167762,-0.010484,0.101139,0.107668,-0.123147,-0.147418,-0.195956,0.001496,0.27373,-0.264027,0.015446,-0.146856,-0.013724,-0.072608,-0.067846,0.094056,-0.051684,-0.27407,-0.162247,-0.018995,-0.052205,-0.142271,0.020303,0.156549,-0.139972,0.257617,-0.055938,0.286249,-0.006311,0.196525,-0.148085,0.035446,-0.163624,-0.132167,0.11604,-0.057196,0.003292,-0.417505,-0.033576,0.21755,0.051334,-0.252565,0.294264,0.113558,0.151375,0.320685,-0.155807,-0.084141,0.181278,-0.090759,0.025827,-0.062381,-0.205367,0.121304,-0.00367,-0.225843,0.210084,-0.124826,-0.075785,-0.091263,0.020019,0.00602,-0.020842,-0.146261,0.008978,0.130355,-0.012046,-0.128344,0.071871,0.048693,0.239127,-0.197079,-0.187023,0.270761,-0.135941,0.143543,0.106475,0.284399,-0.021441,-0.164965,-0.034449,0.14968,-0.189642,0.429716,0.093066,0.193265,-0.109178,-0.14317,-0.087953,-0.072475,0.074827,-0.191329,0.104088,-0.162089,-0.075317,0.057405,0.083323,-0.203138,-0.013346,0.137161,0.073175,0.344214,0.302472,0.011748,0.008519,0.039215,0.040577,0.06339,-0.004331,0.182571,0.161458,-0.003172,0.097941,0.093888,0.14132,-0.239206,0.168329,-0.280946,0.04819,-0.334662,0.147689,-0.307426,0.188462,0.242956,-0.02629,0.185297,-0.153114,0.077535,-0.20495,-0.293338,-0.01305,-0.157959,0.304983,0.15384,0.206988,0.165941,0.01485,0.21511,0.12005,0.341751,0.015884,-0.295953,-0.122861,-0.120992,0.054725,0.20703,0.383968,0.061376,-0.105507,-0.013275,0.315966,0.137285,0.105674,0.297231,-0.043089,-0.104633,0.168326,-0.119754,0.177016,-0.380343,0.379944,0.061362,0.091419,-0.094554,-0.148615,-0.242445,-0.020501,-0.217164,0.100725,-0.172743,0.243294,0.097496,0.128326,0.161791,0.023464,0.161354,0.446019,0.196846,0.102822,-0.085314,0.078818,-0.141547,-0.106871,-0.36717,0.053979,0.06732,0.342983,-0.042585,-0.022477,0.116158,0.228128,-0.143818,-0.321769,0.110559,-0.073965,-0.254059,0.022362,-0.023346,-0.004311,0.030661,-0.09386,0.085351,-0.099609,0.145474,-0.31972,-0.349558,0.102185,-0.047337,-0.053773,0.090358,0.360433,0.554061,0.129923,0.197982,-0.121076,-0.186066,-0.151854,0.042653,-0.121866,0.035682,-0.165109,0.008064,0.146434,0.062559,0.07053,0.126067,0.040279,0.311568,0.228336,-0.03587,-0.293943,-0.523746,0.016472,-0.044738,0.169193,0.186912,0.303639,0.268523,-0.021394,-0.082514,0.055292,0.178478,-0.029676,-0.10537,-0.208308,0.182452,-0.409274,-0.043721,0.052053,-0.257054,0.186858,0.121291,-0.163766,0.25599,-0.020094,-0.169987,-0.467983,0.124053,-0.125166,0.102027,0.247271,0.349342,0.009747,0.277115,0.356181,0.107716,0.329598,0.232373,0.055364,-0.119021,-0.006925,-0.192466,-0.237399,-0.146602,0.082457,0.104228,0.053831,-0.030239,0.523148,0.158031,0.009995,0.005516,-0.128132,0.135245,-0.208538,-0.367152,0.249645,-0.330527,0.240847,0.003315,-0.137228,0.19007,-0.082963,-0.030904,-0.210874,0.15935,-0.210985,0.169202,0.168993,0.280539,0.116595,0.088216,0.517837,0.203675,0.133139,-0.127048,0.01577,-0.000589,0.454742,0.220536,-0.33945,-0.21774,0.07389,-0.081564,-0.240983,0.203187,0.038756,0.132369,-0.139494,0.196494,-0.211183,0.015279,-0.022101,-0.208146,0.193575,-0.161641,-0.155637,-0.039845,0.032901,0.110612,0.034686,0.31743,0.0975,-0.21424,0.07604,-0.099459,-0.076966,-0.059172,-0.091341,-0.236019,0.148218,0.034273,0.501589,0.027236,0.003472,-0.002183,-0.171175,0.154867,0.190771,-0.206101,0.133332,-0.446969,0.249474,-0.241439,-0.133709,-0.050227,-0.100385,0.228181,-0.177197,0.097712,-0.226076,-0.049178,-0.005403,-0.024697,0.047223,-0.054164,0.034378,0.08748,0.258386,-0.005351,0.129983,-0.159715,0.056834,-0.335544,-0.179836,0.010258,-0.035528,0.244533,0.345194,-0.240906,0.134183,0.064822,0.057931,-0.181288,-0.507423,0.035254,-0.214929,-0.148318,0.199477,0.321486,0.036677,0.178238,0.148702,-0.076943,0.384982,0.179326,-0.008293,-0.210338,-0.040334,-0.137341,-0.442385,-0.182869,-0.055648,0.071858,0.021282,0.024672,0.140998,-0.036213,0.194944,-0.115023,0.106928,0.177994,0.022051,0.023901,0.423196,-0.278607,-0.195624,-0.043263,-0.022446,0.232436,0.127505,0.358744,-0.194102,-0.125777,-0.232451,0.158802,0.015129,0.148284,-0.246714,-0.266893,0.323059,0.426247,0.18749,-0.176039,0.216336,0.028111,0.233118,-0.29327,0.039255,0.480373,-0.14973,0.109835,-0.095263,-0.362117,-0.035421,-0.118843,0.083984,-0.014393,0.202562,0.033815,-0.002094,0.006163,-0.065061,-0.005608,0.173491,-0.082865,-0.398431,-0.080404,0.058729,-0.09432,0.067832,-0.021669,0.047089,0.166903,-0.090895,0.092859,-0.382572,-0.281429,-0.082052,0.059376,-0.014194,-0.306708,0.119429,-0.074988,0.033006,0.000538,-0.194269,0.094909,0.296723,-0.190414,-0.060769,0.010124,-0.078595,0.027219,0.059013,0.596834,0.049558,-0.134293,0.005428,0.010397,0.452416,0.157518,0.011233,0.013082,-0.102219,0.072445,0.037852,-0.167801,0.073793,0.060469,0.163643,-0.14723,-0.084549,-0.033583,0.290668,-0.061089,0.125686,0.042733,0.096998,0.221429,-0.186014,-0.026981,-0.212726,0.253661,-0.29029,-0.160676,0.211006,-0.068507,0.015128,-0.036737,-0.107933,0.19666,0.114215,0.390938,0.310938,0.24709,-0.156057,0.019858,-0.366253,-0.038001,-0.311338,0.118326,0.096828,-0.067531,0.273129,-0.211952,-0.016163,0.126283,0.09839,-0.185469,-0.017284,-0.100312,0.068293,-0.000292,-0.087866,-0.416108,-0.023327,0.160878,-0.155275,0.388277,-0.014985,0.200558,-0.217752,-0.221713,0.276608,0.478832,0.028134,-0.002511,0.513078,-0.021426,0.068433,0.247374,-0.208054,-0.1907,0.620941,0.144096,-0.113319,-0.212097,0.059568,-0.000166,-0.243854,-0.008354,-0.216771,0.308352,0.103141,0.031541,0.148138,0.144128,-0.211495,-0.433539,0.309255,-0.290349,-0.101298,-0.09594,-0.130259,0.242736,-0.005243,0.344371,-0.044712,-0.171479,-0.077369,-0.049438,-0.025506,0.105148,0.086233,0.094714,0.333532,0.024988,0.269967,-0.043709,-0.091582,0.040175,-0.029607,-0.081475,0.190405,-0.054982,-0.28099,-0.35532,0.244555,-0.25978,-0.02123,-0.15651,0.210022,-0.015722,-0.1115,0.074567,-0.21593,-0.168328,0.168764,-0.162466,-0.092265,0.154751,-0.146844,-0.405795,-0.638222,-0.101423,-0.026987,0.060089,-0.193367,-0.057471,0.056435,0.417964,0.108929,0.065479,-0.136972,0.066143,0.034217,0.139464,-0.152767,-0.081547,0.561659,0.140866,-0.066054,0.162342,-0.171679,0.480576,0.15587,-0.200418,0.149765,0.791634,0.464096,0.17451,0.481378,-0.132565,0.032188,0.219824,0.177582,-0.351255,-0.089883,-0.304276,-0.100948,-0.056083,0.275857,0.091641,0.465336,0.154972,-0.011281,0.008223,0.012024,-0.100704,0.298883,-0.143262,-0.145794,0.184494,0.011236,-0.337566,0.019523,-0.041321,-0.135739,0.3088,0.046035,0.333393,-0.124509,0.023746,-0.035132,-0.155101,0.094811,0.429793,0.222289,-0.14967,0.147956,0.270971,0.361169,-0.223901,-0.284135,0.537524,-0.103651,0.023186,0.190387,-0.131578,0.177189,0.012067,-0.10365,-0.041593,-0.153165,0.139735,0.138076,0.306001,-0.032254,0.001125,-0.119603,0.123838,-0.058989,-0.291251,0.226244,0.06746,-0.104648,-0.270005,-0.107836,0.017503,0.012216,-0.047441,-0.271795,-0.175647,0.010317,0.034752,0.273822,-0.096477,0.021545,-0.068958,-0.003148,0.256533,-0.095121,0.134836,0.236815,-0.252135,-0.188328,0.110176,-0.096042,0.198245,-0.257838,0.1262,0.053535,0.213376,0.110427,0.211476,-0.265255,-0.186329,-0.170248,-0.290745,0.121131,0.358903,0.15929,0.082351,-0.02778,0.022978,0.170784,-0.539522,0.335556,0.172448,-0.162703,-0.028827,0.172023,-0.275656,0.246422,-0.060667,-0.151987,0.012487,0.107235,0.062039,0.163527,0.055134,0.138082,0.123076,-0.096471,0.145022,-0.275339,0.054711,0.135541,-0.076305,-0.178292,-0.360326,0.192988,0.082392,0.175886,-0.148201,-0.037836,-0.237224,0.03037,-0.292579,-0.097645,-0.240916,0.070687,0.002138,-0.10966,0.176758,0.088804,0.244146,0.157086,0.08607,-0.104722,0.256384,-0.030015,-0.250075,0.123974,-0.223258,-0.055656,-0.314961,0.259451,-0.044646,0.163496,-0.081268,-0.12218,-0.157975,0.209828,0.030463,-0.340398,-0.42312,0.108025,0.099642,-0.089383,0.200093,-0.104871,0.580967,0.106652,0.393,-0.449646,0.040343,-0.033043,-0.205592,0.128685,0.095182,0.215073,0.174413,0.15336,0.172614,-0.200254,-0.07721,0.278579,-0.284903,0.027256,-0.055715,-0.112744,-0.042725,0.112739,0.092556,0.09879,0.217792,0.042702,-0.042995,-0.226228,-0.533123,0.063521,0.086927,0.022393,-0.172281,0.297128,-0.267263,0.048449,-0.201743,0.086593,0.209395,0.103327,-0.060808,-0.14127,-0.046469,0.051153,-0.028632,0.212381,0.101713,0.033935,0.208171,-0.164803,0.124589,0.027256,0.26638,0.197312,-0.00583,-0.139849,0.198772,0.450477,0.077748,0.311936,0.010594,-0.146356,-0.161859,-0.601452,-0.380493,0.235233,-0.134959,0.054525,-0.505488,0.119217,0.123582,0.286855,0.091691,-0.895393,0.106591,-0.037335,0.101074,0.02189,-0.194204,-0.00018,0.206073,-0.166739,-0.553936,-0.227265,0.092038,-0.27343,-0.109384,0.590359,-0.068485,-0.587968,-0.045314,-0.401436,0.354098,0.164054,0.076344,-0.254192,-0.269929,-0.196777,-0.385845,-0.106741,0.048102,-0.152349,-0.200259,-0.112967,0.015213,0.154128,-0.339971,-0.25647,0.218777,0.128173,0.505776,-0.035303,-0.180524,-0.31685,-0.376816,-0.036366,0.186632,0.119575,0.018089,0.033644,0.045159,0.086069,0.031379,-0.163798,-0.119206,0.280977,0.246033,-0.262645,-0.170025,-0.025402,-0.108892,0.156737,0.104163,-0.127287,-0.054921,-0.038598,-0.170207,-0.273254,-0.078491,0.043729,-0.016459,0.304056,-0.051472,-0.238491,0.339296,0.199858,-0.085004,0.177079,0.328921,-0.085427,-0.398844,-0.061697,-0.178344,-0.127958,0.027899,0.164502,-0.130189,0.136437,-0.179686,0.380465,-0.032269,-0.040379,0.043741,-0.08014,0.056343,0.020634,-0.262859,0.267715,-0.168418,0.31806,0.115023,-0.086808,-0.011088,-0.07633,-0.12405,-0.439925,-0.043625,-0.107416,0.157974,0.429424,0.028486,0.035045,-0.079048,0.190017,-0.172333,-0.225275,-0.049799,-0.047556,-0.174747,-0.126903,-0.060564,-0.053506,0.035784,0.127756,0.103946,-0.284482,-0.093464,-0.095316,0.240736,0.133985,0.055735,0.481619,0.054868,-0.146138,-0.177486,0.110366,-0.037887,0.292904,-0.374104,-0.108401,0.406621,0.187295,0.209194,0.228644,0.180209,0.017116,0.002735,-0.009896,0.063036,-0.203535,0.016107,0.218773,-0.045198,0.035235,-0.138229,0.110991,0.042433,0.166738,-0.263317,0.407191,-0.12906,-0.043069,0.06315,0.00749,-0.192902,-0.115178,-0.042479,0.078432,0.240384,-0.046299,0.243834,-0.134457,-0.048012,-0.132451,0.200751,0.199471,0.265764,-0.292856,-0.215181,0.081609,0.090285,-0.030554,0.210301,0.065693,0.37485,-0.060737,-0.229543,-0.078346,-0.150625,0.242606,0.058343,-0.22006,-0.155083,-0.118051,-0.039333,-0.362785,-0.067316,-0.154771,0.051131,0.039587,-0.025829,-0.043094,0.235337,0.201362,0.091937,0.068073,0.049603,-0.002485,-0.016469,0.040552,-0.034919,-0.191053,0.003141,0.118612,0.316215,-0.071401,-0.011879,0.166819,0.021056,-0.06668,0.082455,-0.023208,0.011261,0.095112,-0.27725,-0.24035,-0.035832,0.131063,-0.165533,0.032844,0.095988,-0.081197,0.006507,-0.109377,0.134029,-0.033006,0.225064,0.036471,0.015564,0.240288,0.307786,0.268317,-0.040225,0.152889,0.149243,0.143527,-0.214992,0.112295,-0.324332,-0.10339,-0.204954,0.100942,-0.283415,0.44048,0.382126,-0.074197,0.025709,-0.151071,-0.091992,-0.160005,-0.225737,-0.03986,-0.22368,0.263562,0.165269,0.240828,0.316864,0.115813,0.232808,0.161498,0.344155,-0.165204,-0.375069,-0.102514,-0.124504,-0.110828,0.043179,0.348759,0.130436,-0.046661,-0.15331,0.447641,0.209666,0.322496,0.328867,0.217864,0.031665,0.254347,-0.213716,0.192837,-0.519765,0.230702,0.182727,0.03306,-0.086979,-0.106573,-0.248084,-0.141605,-0.106629,0.046707,-0.079175,0.035561,0.557131,-0.355312,0.458658,0.263387,-0.447349,0.220226,-0.175858,0.043723,0.351892,0.417315,0.212498,-0.194236,-0.072175,-0.297614,-0.125859,-0.416873,-0.309345,-0.221092,-0.260154,0.077691,0.166356,0.094313,-0.304856,0.35053,-0.142513,-0.369904,-0.598234,0.209104,-0.225915,-0.458708,-0.077095,-0.278193,-0.24325,-0.428581,0.134038,0.218873,0.224539,0.110519,0.574483,0.165525,0.417033,-0.168704,0.005469,0.160469,-0.204446,-0.336749,-0.213986,-0.135149,-0.23339,-0.153631,0.330256,-0.1862,0.195301,0.227506,-0.04299,0.206747,0.177034,0.073687,0.238127,0.299522,-0.164729,-0.068449,-0.209812,0.113498,0.134338,0.196339,0.036038,-0.102469,-0.229374,-0.256743,-0.146442,-0.024745,-0.142219,-0.077035,0.025535,0.131637,-0.1253,0.055181,-0.068143,-0.389193,0.167871,0.062601,0.123738,0.075304,0.0701,0.189754,0.07719,-0.166464,-0.144403,0.177275,0.010742,0.066405,-0.036355,0.017656,0.060955,0.008405,0.045828,0.2279,0.280197,0.109695,-0.196059,0.040446,0.039755,-0.003352,0.044823,0.195543,0.096808,-0.120833,0.048431,0.064704,0.007146,0.176741,-0.317103,0.134809,-0.211295,-0.126485,-0.016519,0.052532,-0.098199,-0.172507,-0.238692,0.11817,0.198929,0.098927,-0.051387,-0.21597,-0.080084,-0.0631,-0.022917,-0.184798,-0.279881,-0.107702,0.114123,0.08647,0.02472,0.008057,0.02475,0.016074,0.020938,0.201057,0.09864,-0.185224,0.135035,-0.253956,-0.452596,0.060833,-0.236367,-0.088191,-0.085872,0.305295,0.119071,0.129991,0.056874,-0.30309,-0.132264,-0.279392,-0.296584,-0.259736,-0.123227,-0.369339,-0.395191,-0.118311,0.052719,0.024221,0.139052,0.053562,-0.008109,-0.31545,-0.220116,0.002511,-0.029823,-0.265632,-0.300215,-0.305639,-0.291683,-0.159837,-0.127441,-0.293387,0.366046,-0.297622,0.251291,-0.166967,-0.056004,0.098957,0.208654,0.15056,0.12157,0.27121,0.379619,0.123706,0.211721,0.028968,-0.094632,-0.079137,0.018232,-0.205572,0.308807,0.280072,-0.164704,0.191693,-0.074046,0.151623,-0.339634,-0.256197,0.302709,-0.045173,0.027349,0.191329,-0.243562,0.20288,0.028068,-0.098659,-0.252644,-0.409304,0.085381,-0.014263,0.017057,0.078459,0.163894,0.096268,0.194223,-0.0767,-0.030485,0.076511,-0.064959,-0.023569,-0.180616,0.028798,-0.012015,-0.293455,-0.237015,-0.241402,-0.167391,0.049878,0.104484,0.096991,-0.046678,0.045214,0.035899,0.186402,0.06538,-0.05822,-0.000105,0.07158,-0.198145,-0.132523,0.058116,-0.000889,0.220062,0.046394,0.20014,-0.231669,-0.260094,-0.124733,0.1815,-0.005223,0.286973,0.221797,0.026169,-0.111075,0.117569,0.272625,0.021172,0.122135,0.043663,0.327319,-0.309207,-0.199572,0.032748,0.104997,-0.21539,0.135408,-0.282185,-0.091759,-0.007377,-0.295116,-0.234242,-0.685948,0.016449,-0.199931,0.032045,0.246745,-0.090213,-0.353747,0.343958,0.15325,-0.088147,0.021691,0.106856,-0.150399,-0.684086,0.22613,-0.349298,-0.374447,-0.013839,0.004451,0.107204,0.088672,-0.071873,0.460085,-0.168008,-0.181746,-0.055097,-0.20247,0.040087,-0.106813,-0.073039,0.175647,-0.043042,0.273568,-0.060587,-0.096661,0.334729,-0.304794,0.328145,-0.265789,-0.388204,-0.076125,0.099337],"bias":[-0.0579,0.241564,0.093085,-0.077578,-0.331112,0.163265,0.205219,-0.079382,-0.139229,-0.210166,0.042824,0.100714,-0.117904,0.025294,-0.179047,0.027495,0.127331,-0.124803,-0.002141,-0.027026,-0.238695,-0.046047,0.112138,-0.210292,-0.151365,-0.167636,0.134015,0.110448,-0.052049,0.089964,0.053837,-0.036038,0.137833,-0.132426,0.029097,-0.162531,0.036657,-0.151369,-0.030987,-0.030302,0.086092,-0.030275,0.032816,0.085643,0.10743,-0.085123,-0.215741,-0.074048,-0.070214,-0.163071,-0.029572,0.057352,-0.116694,-0.253697,-0.279316,0.168857,-0.063028,0.117343,0.236455,0.106439,0.037334,0.138732,0.048923,0.131265]},{"inputSize":64,"outputSize":64,"activation":"tanh","weights":[-0.230992,0.123152,0.017429,0.103917,0.714405,0.385103,-0.117513,0.215533,0.118245,0.765444,-0.253061,-0.018971,-0.623638,0.0258,0.64351,0.020831,-0.149339,-0.083602,0.220887,-0.222063,0.519213,-0.33633,-0.309153,0.494897,0.082416,0.69311,0.385551,-0.192172,0.021515,0.553821,-0.281309,0.571142,0.19694,0.055174,-0.108373,-0.005008,0.000701,0.710424,0.148731,-0.062755,-0.426737,0.141967,-0.834926,0.31678,0.046226,-0.21881,0.461301,0.407782,-0.031601,-0.15548,0.624315,0.369873,-0.108266,-0.095319,-0.209809,-0.03698,-0.028008,0.111419,-0.768332,0.300305,-0.077957,0.212739,0.471063,-0.088329,-0.003893,0.243279,0.287326,0.083973,0.317787,0.488903,-0.099862,0.174863,-0.227472,-0.382184,-0.007494,0.243771,-0.236541,0.182982,-0.117467,0.110878,0.400982,-0.011615,-0.022111,-0.461681,-0.982116,-0.117075,0.283436,-0.679015,0.119531,0.180693,0.053914,0.201176,0.135912,-0.050749,0.181628,-0.061881,0.168816,-0.527785,-0.056788,-0.572962,-0.084649,0.312621,0.091304,-0.384623,-0.115815,0.030643,-0.06906,0.211528,0.330898,0.219178,-0.03171,-0.129545,0.414902,0.496291,0.231829,-0.162078,-0.103932,-0.262868,-0.115016,0.522403,0.044409,0.045597,-0.127908,0.033312,-0.090191,0.336743,-0.001745,0.537174,-0.137834,0.054334,-0.281948,-0.262956,0.22115,0.043901,-0.01809,0.07688,0.573924,0.030904,-0.296254,0.084047,-0.352365,0.165386,-0.026182,0.291198,-0.102353,-0.559113,0.298417,-0.190958,0.338452,-0.000645,-0.175794,0.549026,-0.136087,0.344227,0.036684,-0.008362,0.097262,0.253538,-0.445613,0.437431,0.009683,0.10243,0.081566,0.023139,-0.243978,0.215363,-0.192035,0.066154,0.175688,-0.101837,-0.089338,-0.085123,0.148598,-0.150873,0.135065,0.214475,0.016852,0.110471,0.001958,0.048889,0.00232,-0.129354,-0.335988,-0.134279,0.076207,0.043501,-0.113546,-0.382983,0.083179,0.147021,0.340118,0.119939,-0.102482,0.18959,-0.073107,-0.159159,0.05132,-0.411531,0.229235,-0.805734,0.578578,0.109994,0.099252,0.078064,0.228132,-0.127989,-0.036831,-0.025597,0.178633,-0.238541,-0.194671,0.47748,-0.020927,0.146838,0.430338,-0.436906,-0.27904,-0.075556,-0.495725,0.16802,0.605209,0.108483,0.07186,-0.13354,0.058579,-0.335865,-0.090809,-0.226859,0.088512,-0.936825,-0.145511,-0.286648,-0.262367,0.240337,0.328273,0.106215,0.351028,-0.326457,-0.06114,-0.120987,0.223544,-0.377016,-0.37018,-0.059788,-0.247301,-0.742265,0.50662,0.202527,-0.209245,0.193847,0.177554,-0.256899,0.000204,-0.837671,0.024475,0.23361,0.005348,-0.006568,-0.181432,-0.243013,-0.045983,0.136493,-0.15111,-0.017566,0.432791,-0.100088,-0.064418,-0.025343,-0.182719,-0.093255,-0.144881,-0.140415,-0.257279,-0.060919,0.066134,-0.174518,0.339722,0.036835,-0.243184,0.310191,0.11685,0.219636,0.196378,-0.1689,0.42388,-0.030082,0.160177,0.059463,0.193158,0.292957,-0.095488,0.070934,0.107969,-0.019887,-0.208537,0.040918,0.120708,-0.302921,0.149348,0.097299,0.103436,-0.050668,0.082983,-0.042477,-0.400923,-0.032462,0.156378,-0.199594,0.072165,0.14314,-0.400244,-0.110475,-0.101265,-0.260857,0.04711,-0.086883,0.003507,-0.19568,-0.113968,-0.220027,0.406795,-0.774579,0.158373,0.615856,-0.1454,0.1447,-0.018796,0.229058,-0.672294,0.322198,0.542548,-0.041765,0.560418,-0.113751,0.168261,-0.230037,-0.094945,-0.19272,0.092488,0.249791,0.228702,-0.455932,-0.296415,0.380496,0.379124,-0.214557,0.534867,-0.021057,-0.555761,-0.19645,-0.090772,0.422486,-0.137768,0.315699,-0.033308,0.344118,-0.119294,0.485784,0.346743,0.026843,0.438209,-0.123544,0.016262,0.032044,-0.504308,0.235305,-0.449122,0.101263,0.070277,0.10417,-0.076292,-0.220772,-0.093452,0.352768,0.15489,-0.231594,0.224045,-0.07203,-0.566099,0.144834,0.367502,0.149083,-0.537936,-0.99685,-0.227275,-0.110866,0.007379,0.440267,-0.291111,-0.295029,0.573742,0.239478,-0.647878,-0.109013,0.186793,0.250201,0.196635,0.224866,0.235942,0.205245,-0.077811,0.405398,-0.285394,0.20317,-0.394564,-0.127354,0.200511,0.064202,0.111307,-0.26677,-0.106706,-0.048643,-0.430976,-0.054874,-0.10703,-0.303753,0.235,0.111759,-0.102998,0.199411,0.367774,0.44393,0.285383,0.197955,-0.120547,0.405733,-0.179746,-0.260172,-0.257591,0.22228,-0.370928,-0.027511,0.275943,0.034931,-0.130289,-0.018803,-0.034926,0.208539,0.149949,0.123697,0.305449,-0.004928,-0.273899,0.422497,0.127985,0.262238,0.064334,0.230439,0.050955,0.174375,0.075449,0.184175,0.274114,0.294418,0.013897,0.136216,0.186782,-0.166331,-0.107339,-0.097702,-0.215701,0.277108,0.047474,0.002838,-0.050921,-0.463779,0.178428,-0.13272,-0.162912,-0.101718,-0.009331,0.150142,0.177156,0.282642,0.164894,-0.057997,-0.197854,0.352154,-0.203428,0.249822,0.308947,0.138634,0.190168,-0.095586,-0.040176,0.329201,-0.225271,0.109845,-0.001594,-0.082862,0.114259,0.170712,-0.073919,0.205031,-0.129659,0.019294,0.102428,0.116281,0.057745,0.019219,0.195757,0.178128,-0.36055,-0.005374,-0.185621,-0.148421,-0.081684,-0.035617,-0.006397,0.143639,0.254121,0.435695,0.110874,-0.421689,0.104477,0.106031,0.461133,-0.253984,-0.130453,0.048275,0.202288,0.234176,0.06202,-0.09753,0.24443,-0.242727,0.436322,-0.276128,-0.118897,0.11674,-0.203978,-0.140146,0.072289,0.091989,-0.041232,0.29084,0.082237,0.158202,-0.008418,-0.234828,-0.065426,-0.231883,-0.13893,0.156159,0.00284,0.260212,0.220135,0.153673,-0.219917,0.122033,-0.003105,0.273631,0.018759,-0.07,-0.425171,-0.25302,-0.260118,-0.159007,0.141192,-0.051803,0.065515,0.030085,0.120621,-0.019513,0.043468,-0.143126,0.060102,-0.11425,0.020242,-0.05013,-0.10158,0.129517,0.096747,0.008395,0.096612,-0.104808,0.2652,-0.0978,-0.342846,0.017494,0.179122,0.151086,-0.133089,0.249085,-0.110295,0.526911,-0.07763,-0.027509,0.204765,-0.291659,0.814038,-0.478553,-0.293181,0.036828,-0.083566,-0.205046,0.223343,-0.306628,-0.332183,0.15096,0.190942,0.375911,0.362307,-0.255327,0.34243,0.120879,0.035746,0.196758,0.205389,0.349484,0.188427,0.201254,0.171047,0.161518,0.109472,0.349464,-0.10952,-0.088263,-0.595581,0.034069,-0.092685,-0.273732,0.220572,0.17349,-0.100247,-0.100744,0.119744,0.207047,0.033113,-0.020509,0.059811,-0.289263,0.020762,0.167648,-0.365103,0.322382,-0.182476,0.13195,0.322836,-0.267607,0.147363,-0.040516,0.015228,0.070457,0.430904,0.291301,0.036454,0.093265,-0.054685,-0.128423,-0.231008,0.059077,-0.117923,0.319197,0.298962,-0.142597,-0.058308,-0.42354,0.090266,-0.244826,0.038436,-0.236212,-0.154098,0.205411,0.188838,0.23674,0.365835,-0.062057,-0.176886,0.203376,-0.047765,0.213765,0.152243,0.069884,-0.015732,0.0531,-0.035602,0.257044,-0.110615,0.164955,0.308997,0.002168,-0.234918,0.136364,-0.027095,0.094046,0.055637,-0.037413,0.107105,0.081059,0.248121,-0.016757,-0.158211,-0.1535,-0.201716,-0.065829,-0.048162,-0.066286,-0.239996,0.070447,-0.133493,0.319564,0.033329,0.256946,0.132814,0.732663,0.063468,0.014538,0.022477,0.178384,0.032898,0.402566,0.407103,0.09902,-0.032063,-0.096432,-0.285235,0.152145,-0.04459,0.123413,-0.187515,-0.038311,0.229365,-0.036431,0.415407,-0.191663,-0.408453,0.57592,0.081365,0.197361,0.247946,-0.011514,-0.435494,0.087651,-0.161604,0.226757,-0.016664,0.278655,0.179086,0.288068,0.057274,0.250569,0.103866,0.247777,-0.045765,0.040297,-0.107381,0.126016,-0.119258,0.154694,0.370432,0.279062,0.137241,0.097564,0.116009,0.044536,-0.089747,0.135469,-0.282592,-0.314675,0.398929,0.007276,-0.090252,0.07452,0.114349,0.355717,0.471293,0.500296,-0.008206,-0.015426,0.22613,0.365533,0.367139,0.187107,-0.172093,0.167621,0.026272,0.539216,-0.157892,0.237841,-0.380655,0.101787,0.394186,-0.054634,-0.103165,-0.056665,0.269328,0.013252,0.020805,-0.22883,-0.23518,0.392854,0.081268,0.540948,0.258815,-0.121293,0.12352,-0.137352,-0.454652,0.335403,0.142642,0.362711,0.358307,0.129329,-0.112005,0.311739,0.263704,0.264514,0.11677,-0.190916,-0.413181,-0.049189,0.30574,-0.095697,0.322937,0.055157,0.186246,0.119037,0.177655,0.007056,-0.112132,0.161072,-0.274969,-0.119261,0.256762,0.014507,-0.30218,0.143312,0.121525,0.053717,0.290747,0.052964,-0.127087,0.311691,0.435378,-0.161831,0.013735,0.138384,0.099665,-0.498326,0.290497,-0.231312,0.16258,-0.010769,-0.196953,-0.241049,-0.545818,-0.175732,-0.366062,-0.312768,0.286318,0.067472,-0.262048,-0.354054,0.018698,0.224057,0.279617,0.166204,0.24338,-0.129573,0.288933,0.11938,-0.189803,0.040191,0.079502,-0.186002,-0.087223,-0.034469,-0.440105,-0.752266,-0.068728,-0.066743,0.106144,0.06426,0.825528,-0.109125,0.425774,0.154861,0.022751,0.014982,0.087697,0.218396,0.060604,-0.053562,0.063273,0.263675,-0.235344,0.246399,-0.196245,-0.142356,0.757095,-0.220917,0.021686,-0.85344,0.122974,-0.095833,0.148486,0.024615,-0.122909,-0.134417,-0.563262,-0.023266,0.030709,-0.200678,-0.022741,-0.25324,0.15603,-0.211876,0.205888,0.040555,-0.049651,-0.292011,-0.387446,0.072605,0.246924,0.384613,0.368694,-0.130562,-0.099473,0.254675,0.240081,-0.077147,0.223847,-0.046323,-0.192614,0.304607,0.089721,-0.074015,0.218188,-0.017489,-0.080609,0.233731,0.056414,-0.259071,-0.048773,0.141748,0.365493,-0.234617,0.326341,0.170988,-0.108988,0.285377,-0.308055,0.049028,-0.158438,0.072228,-0.447567,-0.042429,-0.028651,0.27769,0.106908,0.084269,0.064207,0.129888,0.341997,-0.035225,-0.19558,-0.186882,-0.029526,-0.173568,-0.533648,-0.057589,0.247076,-0.729132,-0.178601,-0.130429,0.353998,0.049967,0.165149,0.051505,-0.275869,0.023232,-0.514064,-0.417747,-0.192599,0.604003,0.373924,0.081078,-0.382103,-0.098866,-0.584288,0.528101,0.263068,-0.055107,-0.423429,0.179482,-0.57715,0.131053,0.426786,-0.376796,-0.218547,-0.148572,-0.467018,-0.248308,-0.064845,-0.149439,-0.463315,-0.435546,-0.090383,-0.173525,0.10496,0.103543,0.026269,-0.370587,0.490973,-0.108354,0.226858,-0.076341,0.283056,-0.10085,0.165747,0.225996,0.014627,0.092116,0.020387,0.133898,-0.143254,0.063184,0.182549,-0.387665,0.007483,-0.259227,0.429258,0.158829,0.308246,-0.445722,-0.601115,0.080636,-0.108106,0.063502,-0.090867,0.727368,-0.132324,-0.186583,-0.003312,-0.175534,0.258036,0.248439,0.05813,-0.034709,-0.251491,0.116648,0.003263,-0.31148,0.260438,-0.587647,-0.360314,0.403114,0.325897,0.036213,0.482902,-0.116173,-0.920335,-0.16996,-0.140502,0.068326,0.177091,0.317593,0.125436,0.403616,-0.092,0.796356,0.020777,0.159127,0.292903,-0.051237,-0.213533,-0.135001,-0.728316,-0.069078,-0.194779,0.116937,-0.194283,0.181984,-0.28267,0.237712,0.146765,0.535359,-0.159516,-0.317907,-0.223985,-0.132557,-0.518919,0.194377,-0.06901,0.772945,0.100084,-0.152679,-0.285488,0.491666,0.362238,-0.074491,0.335845,0.10327,0.213645,0.14824,0.122078,-0.01237,-0.275126,0.001771,-0.437716,0.036245,-0.455723,0.570363,0.162716,0.220758,0.022583,0.082133,-0.10926,0.082645,0.043753,-0.355971,-0.087081,-0.25162,-0.228637,0.112079,0.132615,0.105662,-0.124988,0.089139,0.130107,-0.183419,-0.197883,-0.229671,0.094388,0.034795,0.090948,-0.036429,-0.299827,-0.019694,0.177819,-0.093305,0.492986,0.340101,0.060052,0.359655,0.295307,0.32626,0.440503,0.286535,0.156451,0.079902,-0.141331,0.509898,0.383409,-0.099664,0.256135,-0.136819,-0.127728,0.122339,0.217481,0.390536,-0.008721,0.166512,0.520762,-0.165364,0.423128,0.452664,-0.021278,-0.253078,0.547504,0.102847,-0.008738,-0.138301,-0.479006,0.06956,-0.291846,-0.113976,-0.042744,0.023483,0.328966,-0.137572,-0.116085,-0.335969,0.178567,0.070827,-0.017924,0.207386,-0.015404,-0.031405,0.028811,0.018488,-0.101222,-0.011111,-0.329695,-0.143492,0.179698,-0.098605,-0.251273,-0.343413,0.265388,0.09952,-0.062201,-0.022282,0.486432,-0.033271,0.31316,0.330492,0.252327,-0.027185,0.13624,0.281614,0.231286,-0.103239,-0.033554,-0.149179,-0.410245,0.139006,0.5113,-0.004701,0.728226,-0.276296,0.06185,-0.416175,0.036836,0.177241,-0.046402,0.211321,0.195094,0.057338,0.288177,0.464724,-0.28723,0.136924,0.155517,0.168964,-0.239453,-0.276903,-0.367413,0.56723,-0.173056,0.331454,0.02492,-0.454445,0.481468,-0.226988,0.001905,-0.066446,-0.171562,0.382938,0.168659,0.37696,0.200593,0.042002,0.017824,0.398587,-0.254909,0.617772,0.299017,0.227932,0.216725,-0.061576,-0.022416,0.21635,-0.13215,0.078754,-0.246241,-0.444691,0.134584,0.053212,0.035155,0.18573,0.089651,0.376513,-0.10294,0.115774,0.366293,0.399217,0.090823,0.366124,-0.40086,-0.017721,-0.552488,0.113708,0.028316,0.202527,-0.427676,0.295783,0.465358,0.516399,-0.176883,1.013106,-0.099389,-0.454027,-0.010747,0.019766,0.149308,-0.22026,0.690321,0.020476,-0.311155,0.03579,-0.533431,0.179263,-0.059562,0.321388,0.228905,0.250439,-0.165364,-0.01211,-0.194152,0.490977,0.412611,-0.225375,-0.316655,-0.011166,-0.306748,0.23009,0.323558,0.17426,0.278455,-0.084683,0.187124,-0.341303,-0.14303,-0.488566,0.270435,-0.286619,-0.143315,-0.194359,-0.661019,0.178687,0.083491,-0.241902,0.39698,-0.269658,0.347779,-0.025543,-0.100699,-0.091779,-0.095858,0.345945,0.036831,-0.347551,0.114306,0.123954,-0.129624,-0.031272,0.273614,-0.075898,-0.271448,-0.005995,0.504957,0.849849,0.05493,0.148698,-0.153527,-0.269678,0.206014,0.150882,-0.172379,-0.088686,0.081302,0.082728,-0.315938,-0.240515,-0.122202,0.264211,0.114161,0.069685,-0.004297,-0.216067,0.26293,-0.341143,0.099525,-0.176143,-0.122035,0.246107,0.043264,0.286477,0.306574,-0.068957,0.157767,0.255829,0.147187,0.140359,0.381224,0.00041,-0.02441,-0.043117,-0.005153,0.116849,-0.430108,-0.05813,-0.090363,-0.238839,-0.062709,0.157488,-0.07438,0.085035,0.219341,-0.048965,-0.235827,-0.148071,0.177316,0.141426,-0.008956,-0.259047,-0.17537,-0.097936,-0.499151,-0.157364,0.054238,0.096525,-0.306237,0.077629,0.27729,0.263147,0.357659,-1.334004,-0.48558,0.100924,-0.20176,-0.174531,-0.108451,0.20491,-0.42586,0.27138,0.577841,0.263928,0.979779,-0.007668,0.225397,-0.202493,-0.238185,0.010237,0.144515,0.180893,0.425388,-0.564855,-0.438163,0.14803,0.507382,-0.116975,0.699341,-0.083126,-0.573395,-0.534822,-0.07473,-0.034754,-0.149716,0.042251,-0.078138,0.207096,-0.12879,0.531878,0.189883,0.089689,0.351678,0.068587,0.01419,0.272788,-0.724199,0.095353,-0.16085,-0.029686,0.163266,0.371368,-0.254119,-0.586087,-0.164009,0.590849,0.192908,-0.06321,0.143165,-0.074123,-0.205675,0.091424,0.301805,0.160906,-0.395936,-1.070465,0.386852,-1.071311,-0.782555,-0.152282,-0.044303,-0.232113,-0.22646,0.238059,-0.056135,0.504799,-0.090575,-0.206043,0.687143,-0.032011,0.56084,-0.059725,-0.189994,0.023226,-0.415841,-0.02848,0.46331,-0.323103,-0.201387,0.161952,0.031883,-0.200337,0.158825,-0.404434,-0.279907,-0.149637,-0.243588,0.043429,0.132241,0.374695,0.358732,0.4176,0.170235,0.42061,0.235254,0.276621,-0.076852,0.080354,-0.303749,0.235319,-0.588148,-0.477077,-0.112852,0.12876,-0.090373,-0.09158,-0.030087,0.194435,0.009423,0.399404,0.092585,-0.311716,-0.242295,0.098778,-0.558517,0.049148,-0.228066,0.463335,-0.063707,-0.493889,-0.308024,0.329339,0.500522,-0.102048,-0.095371,-0.185927,0.005213,-0.931966,0.426785,0.210185,0.348054,0.181729,-0.19879,-0.412948,-0.378705,0.079928,0.171033,0.090362,-0.309581,0.342064,-0.245127,0.407686,0.16204,-0.439681,-0.361844,-0.144672,-0.526593,-0.044688,0.617484,0.116378,0.11854,0.095371,-0.207123,-0.149524,-0.158124,-0.118131,-0.057473,-1.046561,-0.059876,-0.203767,-0.168218,-0.043856,0.644497,-0.108515,0.546403,0.072464,0.034862,-0.214711,-0.029434,-0.172324,-0.035726,-0.094588,-0.158911,-0.492181,0.229321,0.410677,0.423241,0.12623,0.608,-0.297392,0.26929,-0.92945,-0.158089,0.193672,-0.073262,-0.385726,0.069745,0.310578,-0.071104,-0.099222,0.093698,0.002755,-0.664772,0.178309,0.539896,0.167395,0.256567,-0.133267,0.060017,0.040744,-0.055809,0.49332,-0.199559,0.17323,-0.101257,-0.031138,0.015483,-0.234282,0.090696,-0.148606,0.065515,0.321245,-0.202965,-0.420359,0.318418,-0.381665,-0.405496,-0.289449,-0.181061,-0.050554,-0.054005,0.052214,0.463352,-0.245441,-0.196364,0.396459,-0.078591,-0.375697,0.122433,-0.056545,-0.219702,-0.109655,0.164725,0.035081,0.15247,-0.235543,-0.268751,0.338509,0.25659,0.010983,0.387789,0.014261,-0.067256,0.07436,0.305736,0.083093,-0.157525,-0.170714,0.20089,-0.231887,-0.542866,0.102561,-0.051292,-0.168032,-0.048515,-0.030361,-0.050682,0.209703,0.192936,0.104324,0.151161,-0.04715,0.384415,-0.310545,-0.28949,0.020611,-0.096438,-0.031064,0.500057,-0.100601,-0.471192,0.484513,-0.09536,0.166816,0.000367,-0.275014,0.167148,0.143375,0.081702,0.039008,0.202894,0.413451,0.163418,0.33071,-0.069515,0.079635,-0.002809,0.407817,0.234414,0.095249,-0.338837,0.239233,-0.216193,-0.5841,0.009719,0.097594,-0.282969,-0.608454,-0.09226,0.168531,0.080833,0.414307,0.052515,-0.557475,-0.217234,0.081239,-0.252918,0.006575,-0.0357,0.116027,-0.148823,-0.32709,-0.352913,0.46951,0.334272,-0.438631,0.000284,-0.100408,0.211469,0.321387,0.041884,-0.005965,-0.409334,0.014074,-0.820264,0.053782,-0.449716,0.329045,0.46814,-0.236799,-0.036357,-0.355072,-0.485668,0.31856,0.314753,-0.33828,-0.352006,0.208826,-0.558518,0.088116,0.282329,0.099267,-0.350004,-0.152397,-0.450248,-0.307892,-0.114866,-0.272113,-0.13917,0.090054,-0.504771,-0.287447,0.126391,0.066421,-0.063451,-0.488487,0.144915,-0.014387,-0.022549,-0.035698,0.098857,0.087435,0.328105,0.044132,0.007533,0.177889,-0.388365,0.202379,-0.060153,-0.069486,0.363876,-0.116093,-0.342365,0.015848,0.40441,0.487032,-0.320185,-0.231182,0.381685,0.047752,0.028443,-0.189725,0.021016,0.155974,0.148972,-0.020419,-0.297976,0.194359,0.339095,-0.103413,-0.180114,-0.020759,-0.016956,0.034012,-0.165583,-0.122071,-0.226561,0.004952,0.12056,-0.169678,0.04571,-0.371885,-0.206284,-0.007994,-0.280097,-0.27619,-0.090033,-0.016857,-0.405898,0.044139,0.280268,0.271652,0.011712,-0.023866,-0.085461,-0.068873,-0.115363,0.041467,-0.122052,-0.317472,0.266516,0.215281,-0.121931,-0.141812,0.307995,0.198133,0.007039,-0.019758,-0.061717,-0.156122,0.266491,0.031749,0.191509,0.036249,0.029682,0.179844,0.109762,0.005629,0.132446,0.4075,0.239449,-0.413954,-0.401351,0.057538,0.368666,0.127866,-0.434397,0.265181,0.221625,0.717054,0.061926,-0.083369,0.026347,-0.005222,1.130046,-0.444535,-0.214217,0.159973,-0.177571,-0.682805,0.493697,-0.199167,-0.314292,0.593219,0.139906,0.544513,0.237797,-0.286945,-0.085771,0.035281,-0.117258,0.092228,0.29615,0.436079,0.136004,0.438465,0.351411,0.66676,-0.091208,0.192716,-0.105266,0.113462,-1.042804,0.117984,-0.346938,-0.698393,0.261036,0.191816,-0.370727,-0.24869,0.434671,0.362859,0.143145,-0.100437,-0.196738,-0.46085,-0.257181,-0.156635,-1.022913,0.145132,-0.09074,0.333631,0.405688,-0.382029,0.100252,-0.536071,0.334373,-0.062219,0.042255,-0.435671,-0.165008,0.084516,0.460894,0.486047,0.286286,-0.096286,0.205115,-0.536408,0.232011,-0.483637,-0.664305,0.104978,-0.167936,-0.217329,0.724619,-0.059686,-0.418848,0.496284,-0.095036,0.060665,0.033618,-0.383594,0.36845,0.065586,-0.309018,0.097212,-0.110327,0.568768,0.043015,0.217227,0.151043,-0.136313,0.154964,0.352649,-0.080749,-0.235058,-0.276619,0.125323,0.141225,-0.414654,0.353738,-0.178597,-0.067729,-0.377037,0.179213,-0.120731,0.038337,0.109005,0.012904,-0.544876,0.289382,-0.129218,-0.074807,0.061926,-0.000888,-0.366738,0.313801,-0.426721,-0.131803,-0.361761,0.238599,0.334423,0.090592,-0.005343,0.169285,0.070277,-0.477006,0.122681,0.463618,0.207518,0.137068,0.128537,0.285763,0.112382,0.046922,0.533188,-0.281854,0.086186,-0.36176,-0.062606,0.133859,-0.291649,0.149545,-0.351836,0.144132,0.210289,-0.348069,-0.288437,0.247193,-0.066192,-0.159778,-0.253432,-0.051868,-0.001098,-0.009555,0.206412,0.509144,-0.110891,-0.077422,0.500343,-0.208507,-0.215511,-0.032034,0.294977,-0.205342,-0.218879,0.575666,0.225662,-0.078441,-0.321059,-0.090569,0.137231,0.232872,0.05,0.437796,0.194591,-0.168779,0.005685,0.287015,0.028478,-0.220649,-0.23066,0.319403,-0.429789,0.181701,0.426198,0.156454,0.125728,-0.195735,0.271625,-0.362557,0.442218,0.385566,-0.061981,-0.041465,-0.339997,0.254029,-0.259499,-0.436464,-0.161818,0.166382,-0.283263,0.154236,-0.447476,-0.348495,0.326282,0.307122,0.415352,0.435254,-0.27034,-0.166195,-0.143087,0.006245,0.162073,0.061144,0.384801,0.058238,0.074959,-0.035339,0.196158,0.305751,0.196665,0.068685,-0.049444,-0.369246,0.08997,-0.161815,-0.118901,-0.016277,0.092188,-0.21412,-0.052801,0.188897,-0.201488,-0.114719,0.383872,-0.234021,-0.285812,0.169161,0.073827,-0.316976,0.326476,0.151807,0.15595,-0.256321,-0.515468,-0.006442,0.08743,0.009831,-0.172174,0.014095,0.005172,0.287531,0.005107,0.323851,-0.254757,0.00321,-0.129202,-0.402947,0.109303,-0.218644,-0.09423,-0.1638,-0.296881,0.301453,-0.129655,-0.079097,-0.051837,-0.240498,0.36568,0.029533,0.047874,0.247197,-0.265714,-0.227229,-0.01997,-0.251006,0.181329,-0.029251,0.172345,0.517371,0.129571,-0.581807,0.009969,-0.138013,0.11134,0.290697,-0.200171,0.06097,0.011205,-0.004727,0.202182,0.067056,0.013785,0.176507,0.191345,-0.02079,-0.104913,0.270793,-0.118567,0.045887,-0.20042,-0.280592,-0.094926,0.142418,0.02308,-0.112034,-0.10129,0.247261,0.195639,0.336041,-0.210869,-0.230203,0.178874,-0.112822,0.307995,-0.056985,0.623361,-0.491175,0.295098,0.256482,-0.04139,0.091297,-0.005332,0.374512,-0.145304,-0.164878,-0.167288,-0.051912,-0.531355,0.488797,-0.436624,-0.366357,0.512168,0.358724,0.176927,0.420399,-0.244859,-0.241905,-0.032846,0.013706,0.145172,0.162932,0.55409,0.280239,0.446574,-0.302453,0.699397,0.023393,0.397136,0.244347,-0.182682,-0.652694,-0.122005,-0.205791,-0.246437,-0.240398,0.221601,-0.057905,-0.244528,0.003097,0.250353,0.064705,0.34658,-0.264592,-0.457184,-0.231001,-0.140649,-0.821947,0.0592,-0.157328,0.536821,0.058342,-0.339734,-0.048341,0.405852,0.380399,-0.22755,-0.474689,-0.232038,0.306972,-0.351737,-0.275807,-0.46694,0.167693,0.079293,-0.087792,-0.07792,-0.651438,0.148227,0.050293,0.08705,-0.191021,0.720594,-0.496224,0.158481,0.302106,-0.495115,-0.14439,-0.239681,-0.337685,0.449489,0.222014,-0.055522,-0.169855,-0.120757,-0.195209,-0.271175,-0.431096,-0.091089,-0.225286,-0.336752,0.08812,-0.327099,-0.036291,-0.104583,0.585733,-0.203433,0.627127,0.479815,-0.122874,0.021701,0.122552,0.044968,-0.370188,-0.415117,-0.109673,0.196457,0.277849,0.482554,0.165282,-0.022705,0.548094,-0.33483,0.212721,-0.189532,-0.275359,0.067633,0.127489,-0.018896,0.284648,-0.220336,0.554249,0.460321,-0.359842,-0.01023,0.561653,0.112848,-0.437297,-0.122155,-0.438007,-0.07013,-0.047343,0.176457,0.010466,-0.271921,0.257793,-0.298616,0.17423,-0.19094,-0.243984,0.304771,0.195154,0.443081,0.214296,0.183061,0.291692,0.325497,0.046526,0.255576,0.071507,0.115263,-0.149151,-0.070608,0.06648,-0.156267,-0.017033,-0.147556,-0.029352,-0.159142,0.127169,0.358974,0.255289,-0.020191,0.43984,0.123029,-0.059666,0.243088,0.244292,-0.197289,-0.030147,-0.358224,-0.196001,0.124239,0.09026,-0.078209,0.286546,-0.295972,0.161404,-0.04198,0.186952,0.144576,-0.219529,-0.01851,-0.12899,-0.126086,-0.152549,-0.076662,-0.121846,0.125999,-0.400971,0.218709,0.093919,-0.010765,-0.098256,0.003519,-0.18723,0.114405,0.286986,0.324545,-0.012946,0.121188,-0.017895,0.064629,0.106426,-0.444689,-0.279589,-0.15301,-0.360416,0.284455,0.065666,0.006596,0.102688,0.04663,-0.153156,-0.226369,-0.230045,8.8e-05,0.147258,-0.017153,-0.042018,-0.041718,-0.247333,-0.075106,-0.037894,-0.091192,-0.112199,-0.104343,-0.092787,-0.02702,-0.103937,0.040522,-0.217949,-0.106131,0.006645,-0.086452,0.116187,0.080894,0.247319,0.126268,0.07209,-0.161192,0.118021,-0.035846,-0.193235,-0.317271,-0.109159,-0.355436,0.110771,0.355212,0.117414,-0.144707,0.361661,0.123509,-0.576788,-0.018014,0.537474,0.393134,0.087167,-0.015443,0.232687,0.056525,0.100825,0.740256,-0.417125,-0.108348,-0.028425,-0.194055,0.003297,-0.137606,0.313393,-0.293606,0.160009,0.281381,-0.243834,-0.30751,0.182983,-0.390092,-0.343015,-0.15495,-0.32762,-0.086434,-0.050205,0.049551,0.537507,-0.287055,-0.151207,0.268546,-0.042559,-0.344174,-0.243619,0.235095,-0.507788,-0.269423,0.241682,0.242432,0.213567,-0.463856,-0.197415,0.246075,0.16642,0.107763,0.445523,0.184666,-0.191309,0.128176,0.396482,0.313633,-0.186082,-0.28055,-0.031215,0.492296,0.265784,0.411819,0.254352,0.202201,0.153575,0.052694,-0.351074,-0.392209,-0.063776,-0.134027,-0.203404,0.618693,-0.367734,0.612533,0.248898,0.033747,0.172282,0.255381,-0.426425,-0.201709,0.307166,-0.300859,0.266454,-0.208764,-0.143898,0.115007,-0.480073,0.247578,-0.256603,0.055525,0.399217,-0.362181,0.176527,-0.122275,0.381887,0.293268,0.040304,-0.146365,-0.039991,0.128909,0.293746,0.193506,0.027831,0.472508,-0.143757,0.146701,0.254587,0.475114,-0.089147,-0.007804,-0.072814,-0.201408,0.204503,0.427034,-0.055472,-0.025275,0.073469,0.241959,-0.075158,0.387068,0.116989,0.763844,0.063479,0.204014,-0.034066,-0.164332,-0.349673,0.053266,0.288324,0.000459,0.080342,-0.451222,-0.174417,-0.009716,-0.040632,0.398422,-0.168805,0.378377,0.506518,0.069158,-0.098809,0.289003,-0.227237,0.341739,0.508284,-0.482796,-0.097389,-0.378109,-0.347558,0.273441,-0.237969,-0.019945,0.364795,-0.232695,-0.21933,-0.29087,-0.065468,-0.117254,0.058672,-0.318927,-0.153842,-0.205382,0.160852,0.046323,0.140228,0.057523,-0.063309,0.248788,-0.266735,0.029471,0.026709,0.256824,-0.188495,0.038716,-0.141363,0.042802,0.163011,0.232555,0.023594,0.07942,0.106463,0.040753,-0.211383,0.150034,-0.187765,0.350354,0.340818,-0.033795,-0.512862,-0.317818,0.024607,-0.142386,0.213092,0.314603,0.367649,0.215544,-0.785545,-0.244632,-0.161319,0.148593,-0.107769,0.047822,0.03765,-0.434559,-0.006427,-0.246929,-0.034497,-0.051228,0.01428,0.034664,-0.077967,0.162671,0.172837,-0.103296,-0.021974,0.392154,-0.275556,-0.091405,0.379738,0.145494,0.419064,-0.003233,0.259098,-0.154307,-0.311329,0.133621,-0.069205,0.068184,0.116851,0.060019,0.031982,-0.377041,0.240401,0.112459,0.043368,-0.449499,0.042111,0.363223,0.173134,-0.229931,0.037197,-0.101026,-0.406368,-0.031566,0.030965,-0.028153,-0.411858,0.180519,0.268197,0.357892,0.021018,0.156637,0.256719,-0.107321,0.389769,0.246324,-0.019009,0.258497,0.071789,0.056355,-0.262389,0.110332,-0.486867,-0.176574,-0.551066,0.469774,0.253956,0.003393,-0.224941,-0.618963,-0.255912,0.090147,-0.013032,-0.115068,-0.188031,0.041301,-0.231883,-0.057919,0.300099,-0.079318,0.214777,0.027451,0.028662,-0.102731,0.101896,-0.316242,0.020617,-0.021211,0.053845,-0.141265,-0.302039,0.219671,0.08523,0.235625,0.192628,0.0102,0.022806,0.126678,0.428852,0.136566,0.505742,-0.278779,-0.039584,-0.241126,-0.095015,0.054094,0.009965,-0.08879,0.251688,-0.038787,-0.170396,0.075995,0.108426,0.27562,-0.360985,0.176519,0.135251,-0.457601,-0.180434,-0.151077,0.596478,-0.047053,0.231889,0.004383,-0.029927,0.022274,-0.502353,-0.672693,0.008117,0.31375,0.321188,0.154766,-0.396143,-0.182943,-0.517966,0.526693,0.281405,-0.244899,-0.481603,0.170249,-0.846736,0.009772,0.622925,-0.154875,-0.32947,-0.428118,-0.104118,-0.299,0.238064,-0.03467,-0.505374,-0.264586,-0.179045,0.020477,0.089138,0.036469,-0.046175,-0.300659,0.57105,-0.410639,0.04573,0.012496,-0.011746,-0.444261,-0.06479,-0.014685,0.130667,-0.442242,-0.190261,-0.00608,-0.072378,0.066881,0.19749,-0.21156,-0.074073,-0.483265,0.119677,-0.183959,0.025442,0.149668,-0.020405,-0.340355,-0.039869,-0.391709,-0.208443,-0.318048,0.659739,-0.020505,-0.197743,-0.110999,0.09947,-0.109965,-0.297994,-0.29255,-0.091894,-0.124038,-0.016637,0.309732,0.310624,-0.00694,-0.028246,-0.109242,-0.200809,-0.031116,0.091663,-0.070665,0.41368,0.288067,-0.037943,0.14595,0.109609,0.080242,-0.147332,-0.083538,-0.001208,-0.393009,-0.473884,-0.059643,0.128035,-0.525933,0.27755,-0.045034,0.132249,-0.12563,0.200303,-0.02552,-0.455857,-0.467772,-0.261861,0.057471,0.065107,0.139452,0.032711,-0.099772,-0.275226,0.028408,0.489877,-0.04998,-0.037841,-0.199085,0.241232,-0.07895,-0.421266,0.567767,0.631372,0.08275,0.263697,-0.016499,-0.019379,-0.746427,0.271354,-0.104464,0.187671,0.11,-0.485215,-0.164608,-0.100421,-0.009384,0.370362,-0.070006,0.084369,0.076697,-0.406558,0.545954,0.43651,-0.400577,-0.475246,-0.016813,-0.26897,0.075379,0.83648,-0.072223,0.431828,-0.067047,-0.135706,-0.368753,-0.237239,-0.359455,0.118832,-0.648162,-0.069879,-0.205111,-0.327825,0.049104,0.146266,-0.257095,0.69266,-0.068109,-0.01896,0.096736,0.002418,-0.075224,0.204253,-0.149926,0.004237,-0.654902,0.157953,0.398077,0.356946,-0.05883,0.357824,-0.086081,0.218123,-0.793114,-0.18589,0.36688,-0.417668,0.208252,-0.019512,-0.764654,-0.075869,-0.304689,0.442763,-0.292712,0.163958,0.29388,0.049929,0.055841,-0.398067,-1.034396,-0.284876,0.435016,0.344559,0.21624,-0.408744,-0.246433,-0.292114,0.133772,0.111107,-0.172606,-0.41238,0.199885,-0.669924,-0.005246,0.947173,-0.203716,-0.133962,-0.188136,-0.234105,-0.318033,0.144793,-0.23388,-0.518906,-0.443171,0.012431,-0.006136,0.179473,0.186424,0.308473,-0.361068,0.611515,-0.427247,0.090716,-0.029323,0.189744,-0.568413,-0.003751,-0.247003,0.310184,-0.388212,-0.041521,-0.01711,-0.15926,0.069382,0.215433,-0.220046,-0.156473,-0.420486,0.369883,-0.000578,0.054107,-0.202356,-0.028605,-0.491877,0.353865,0.172587,-0.044857,-0.085246,0.507871,0.262854,-0.173612,0.025341,-0.261829,0.032857,0.114551,0.138718,-0.031211,-0.265009,0.142039,-0.473177,0.0605,-0.229047,-0.124273,0.121997,0.209403,0.212858,0.155672,-0.057093,0.212991,0.0062,-0.053106,0.189381,0.145885,-0.006843,0.043318,-0.085194,0.047212,-0.000149,-0.132025,0.040032,0.093168,-0.206062,-0.11491,0.069724,0.053765,-0.134389,0.266187,-0.106055,-0.016438,-0.005164,0.295635,-0.037951,0.056908,-0.145635,-0.267709,-0.075415,-0.090786,-0.004455,0.156435,-0.286008,0.041185,0.040311,0.363449,0.250279,-0.055845,-0.522082,0.040321,-0.08901,0.010478,-0.20482,-0.099216,-0.202351,-0.101992,0.328044,-0.079849,0.163516,0.298517,-0.38735,0.104596,0.163676,0.029892,0.406069,-0.3773,0.085284,-0.050757,0.205469,0.087881,-0.344481,-0.164662,-0.114465,-0.083818,0.268175,0.279253,-0.308831,-0.105362,-0.226749,-0.224742,-0.21787,-0.268117,-0.157104,0.046876,-0.040526,0.26632,-0.325397,-0.187032,0.389725,-0.12444,-0.302739,0.456678,-0.173409,-0.041451,-0.03409,0.097812,-0.148991,-0.072723,0.007199,-0.168865,0.168941,0.368508,0.134138,0.182045,0.161433,-0.132192,-0.159409,0.336199,-0.204034,0.029181,-0.348719,0.18735,0.343185,0.002345,-0.361531,0.059066,0.083929,-0.53357,-0.255286,0.669574,-0.030235,-0.301737,0.023196,-0.083753,-0.211086,-0.183263,-0.360301,-0.044211,-0.376143,0.326598,-0.24275,0.291703,-0.056587,-0.228906,-0.142179,-0.144436,0.429112,0.042989,-0.073748,0.5282,0.173045,0.0407,0.248118,-0.12361,-0.043532,-0.001555,-0.135907,-0.229974,-0.365234,-0.413931,-0.165669,0.217382,-0.331864,0.365081,0.018101,0.055294,-0.225112,0.374509,-0.138355,-0.396685,-0.115399,0.034568,-0.019371,-0.144877,-0.23019,-0.295991,-0.034809,-0.107456,-0.07016,0.333567,-0.305436,-0.08362,-0.197852,-0.076522,-0.093556,0.248442,0.490723,-0.317599,-0.053386,0.089594,-0.060499,-0.285324,-0.024445,0.468469,-0.014748,-0.578107,-0.127843,0.01958,0.060908,-0.184708,0.080852,0.056626,-0.690919,0.383723,-0.099391,0.165999,0.09513,-0.142719,0.134193,-0.08059,0.22953,-0.089779,-0.061165,0.134575,0.443619,-0.181547,0.176067,0.032531,0.073933,0.286685,-0.079142,-0.155851,-0.210452,-0.766016,0.297756,0.16661,-0.24154,0.249825,0.247253,-0.22329,-0.195986,0.093636,0.168542,-0.44285,-0.261928,-0.174483,0.249062,0.022875,-0.32269,-0.387998,-0.109982,-0.439038,-0.180329,0.019852,-0.096602,-0.463624,0.054845,0.039795,0.0814,-0.045411,-0.198068,-0.207761,0.131242,-0.040373,-0.131636,-0.035557,0.452393,-0.473476,0.353886,-0.028464,-0.100921,0.055281,0.229692,0.635034,-0.024462,0.23209,0.288134,-0.248912,0.115315,0.226668,0.482248,-0.052902,-0.061945,-0.126357,0.035295,-0.196353,-0.134304,-0.363827,-0.34807,0.039661,-0.190872,-0.040953,0.134715,0.031878,0.108089,0.164405,0.918637,0.113129,-0.06717,-0.270822,0.107486,-0.850537,-0.003443,-0.336947,-0.152586,0.218516,0.052011,-0.038376,-0.079128,-0.137712,0.259292,-0.099023,-0.066666,0.297326,-0.114037,-0.02062,-0.128012,-0.859631,0.270522,0.070994,1.006142,0.112557,0.008882,-0.027865,-0.113841,-0.418995,-0.373131,-0.188204,-0.229901,-0.153618,-0.049479,-0.020934,-0.030835,-0.496027,0.08332,-0.109448,-0.085048,-0.118167,0.065494,0.150727,-0.02717,-0.062892,0.013049,-0.349623,0.213007,0.516056,-0.557292,-0.179636,-0.213638,-0.13038,0.337875,0.55334,0.58004,-0.070989,-0.021636,0.251787,-0.297805,-0.307426,-0.176074,0.453103,-0.223496,-0.040629,-0.306263,-0.215525,-0.099963,0.072078,0.196007,0.453117,-0.062473,0.110995,-0.215318,-0.232895,-0.08037,-0.287541,0.105135,-0.06315,-0.208303,0.037933,0.292995,-0.409405,0.30796,0.302294,-0.130575,-0.238618,-0.078727,0.226525,-0.028194,-0.074679,0.796684,0.331832,-0.26565,-0.183414,-0.240263,0.462212,-0.117022,0.463661,-0.492175,-0.207266,-0.082497,-0.033428,0.154958,-0.698768,0.436904,0.221365,0.060319,-0.138524,-0.042364,-0.184462,0.273739,0.213492,-0.158286,-0.273933,-0.248817,-0.310486,0.08479,-0.089953,0.284227,0.470129,-0.513489,0.044751,0.07457,-0.094646,-0.187488,0.160945,-0.61036,-0.054738,-0.037968,-0.29493,0.207062,0.724611,0.048742,-0.004506,-0.02323,0.054572,-0.069294,0.089408,-0.091366,0.041432,-0.019136,0.053311,-0.374105,0.086347,-0.113301,0.326752,0.071223,0.496481,0.076564,0.157867,-0.246577,-0.094133,0.720915,0.07158,0.434194,-0.088455,-0.104076,-0.079081,0.333179,-0.051828,0.10328,0.318345,0.012176,-0.4216,-0.325452,-0.399561,0.273632,-0.260789,0.068469,-0.169714,-0.39751,0.526776,-0.205375,0.262757,-0.106547,-0.216758,0.419139,0.035616,0.252746,0.272096,-0.149336,-0.155755,0.415093,-0.191164,0.251619,0.157625,0.167461,0.421605,0.146543,-0.065516,-0.070367,-0.309411,0.193873,-0.00161,0.006392,0.374132,0.269261,-0.161611,0.128107,0.247845,0.294622,-0.032684,-0.061905,-0.113326,0.296695,0.215535,-0.053031,-0.214121,-0.040488,0.043023,-0.144171,0.155909,0.097681,-0.359873,0.283518,0.275374,0.584826,-0.21067,0.028128,0.321898,-0.438491,-0.248168,-0.148637,0.253194,-0.616656,0.555198,-0.284732,-0.253537,-0.057411,0.19023,-0.279785,-0.62149,0.267698,0.1592,0.145399,-0.201856,0.620578,-0.200397,0.233832,0.20668,-0.286148,-0.277983,-0.552491,-0.39208,0.132396,0.260713,0.035886,0.006782,-0.164922,-0.167365,-0.106458,-0.067228,-0.280661,0.17965,-0.910945,-0.127065,5.9e-05,-0.235568,0.127175,0.632265,0.108065,0.365514,0.028006,-0.038311,-0.034774,0.245277,-0.027655,-0.349028,-0.190485,-0.03273,-0.357442,0.300995,0.121791,0.303514,0.063925,0.761051,-0.342181,-0.018375,-0.696984,0.148349,0.326819,0.440348,-0.649957,-0.569094,0.094556,-0.294786,-0.113964,-0.092189,0.541672,-0.27691,0.315076,0.10382,0.021323,0.562102,0.084526,-0.07669,0.077449,-0.186122,-0.201619,0.050598,-0.122322,0.430555,-0.470256,-0.268509,0.45335,0.361712,-0.121022,0.40821,-0.057953,-0.648571,-0.264037,-0.267733,0.438481,0.01175,0.389788,0.235812,0.205741,0.033776,0.710037,0.074525,0.203498,0.173811,0.076382,-0.052713,-0.109354,-0.762162,-0.117341,-0.169035,0.183133,0.15506,-0.051142,-0.092186,0.095907,0.021086,0.60209,-0.122683,0.002887,-0.272235,-0.209955,-0.373598,-0.01833,0.062775,0.58365,-0.01399,-0.378438,0.186425,-0.452353,-0.17836,-0.003642,0.342747,0.253517,-0.133751,0.112168,-0.040573,0.56376,0.294071,0.123902,0.125072,-0.547727,0.883869,-0.200952,-0.158924,-0.033933,-0.246419,-0.577527,0.220505,-0.315805,-0.339918,0.217547,0.291552,0.596165,0.198021,-0.316097,0.160799,-0.121303,0.333547,0.030245,0.540275,0.270074,0.135222,0.216455,-0.302836,0.286103,0.187739,0.174735,0.084964,-0.073943,-0.573471,-0.018719,0.027216,-0.454258,-0.05295,-0.221274,-0.098856,-0.345476,0.376026,0.055241,0.063227,-0.051616,-0.353657,-0.321302,-0.200073,0.050147,-0.604797,0.066579,0.081123,-0.130102,-0.103446,-0.921447,0.005443,-0.201338,-0.252399,0.30437,0.097994,-0.120087,-0.209851,-0.105354,-0.412703,0.267026,0.126971,0.096646,0.015004,-0.110666,0.013016,0.165302,0.316637,-0.002333,-0.13053,0.083193,0.061193,0.006964,0.133398,-0.40628,0.031761,0.026116,-0.100915,0.23009,0.206055,-0.124765,0.054266,-0.033607,-0.060057,-0.19423,-0.3157,-0.346905,0.186167,0.094553,0.124562,-0.449937,-0.366873,0.163902,-0.275235,0.071829,0.068636,-0.118632,-0.219317,-0.103681,-0.113903,0.007617,0.113718,-0.155542,-0.308156,0.100802,0.107983,0.043565,0.148484,0.071514,-0.011928,-0.099841,0.241672,-0.035164,-0.255027,-0.49638,-0.164745,0.149637,-0.359843,-0.232264,0.114307,0.195944,-0.048058,-0.083709,0.052391,0.061628,-0.231626,-0.284039,-0.407719,0.294432,0.233832,0.123712,-0.024937,-0.210278,0.035335,-0.080097,0.101307,0.029139,-0.177587,0.074841,0.03705,0.15791,0.126459,-0.029566,-0.106641,-0.024255,-0.073649,-0.085184,-0.166521,-0.030788,0.046301,-0.154914,-0.21096,0.035002,-0.288416,0.125968,0.387093,-0.317036,-0.177122,-0.17018,-0.233741,-0.021494,0.088711,-0.134647,-0.252741,-0.057955,-0.022021,0.135341,0.237942,0.03711,-0.331383,0.105348,-0.290751,-0.067202,-0.306759,-0.214182,-0.174287,0.201515,0.082605,0.003831,0.033658,0.205359,0.016123,-0.040976,-0.203479,0.123257,-0.165657,-0.11657,0.303785,-0.077148,0.275947,-0.017943,-0.323529,0.1606,-0.275072,-0.044065,-0.428439,-0.034949,0.47205,0.632275,0.497047,-0.144727,-0.110466,0.368678,0.126362,-0.03743,0.296499,0.153083,0.185416,0.22131,-0.271106,0.346525,0.030768,0.139019,-0.029542,0.150952,-0.002626,0.102414,0.192423,0.0441,0.147904,-0.224426,0.106907,0.088557,0.185616,0.269071,0.053039,0.423998,-0.076667,0.074614,-0.166261,0.155134,-0.105214,0.296063,-0.015923,0.034795,0.166875,-0.126923,0.182849,-0.025077,-0.141632,-0.188258,0.276483,-0.072278,-0.083757,-0.039743,-0.035857,-0.0298,-0.292414,-0.115474,0.050593,-0.193354,-0.072337,-0.22627,-0.004878,-0.184831,-0.099254,-0.214915,-0.076413,0.068077,0.312212,0.149001,-0.218533,0.193006,-0.086453,0.305939,0.400711,-0.457999,-0.153326,-0.31348,-0.301988,0.049711,0.036138,0.041584,0.033397,0.016357,-0.156813,-0.227966,-0.260168,-0.003968,0.013678,-0.178708,-0.142159,-0.151766,-0.036121,0.087552,0.200629,0.012441,-0.038016,0.030532,-0.155107,0.035892,-0.263821,-0.09895,-0.027726,0.087244,-0.047369,0.021361,0.239485,0.024937,0.135351,-0.013095,0.331516,-0.093473,-0.037897,0.004489,-0.153479,-0.174251,0.085205,-0.116756,-0.129726,0.282631,0.278818,0.139978,-0.036492,0.205711,-0.646524,0.034006,0.041037,0.247253,-0.006283,0.175352,0.096298,-0.043338,0.354371,0.404972,-0.265761,-0.416882,0.240605,-0.143596,0.000803,-0.058779,0.216535,0.270197,0.260015,0.328555,-0.137824,-0.110853,0.294488,-0.202084,-0.246042,-0.224627,-0.563269,-0.31116,0.204747,0.144462,0.311565,-0.498938,-0.26782,0.180427,0.050982,0.028752,-0.168534,-0.113886,-0.268139,-0.080034,-0.151647,0.203181,0.286922,-0.318135,-0.297693,-0.216129,-0.107906,-0.005379,0.218168,0.232204,-0.233564,0.274145,0.506127,0.08564,-0.26053,-0.154463,0.210361,0.085445,-0.251352,-0.163068,0.343547,-0.1085,0.083912,0.056422,0.33871,0.148958,-0.460333,-0.257119,-0.144574,0.134462,-0.00115,0.00889,0.106071,-0.551169,0.022275,-0.188232,0.070963,-0.163284,-0.189168,0.036823,0.087579,0.077105,0.241376,-0.050029,0.017861,0.427464,-0.252064,0.262054,0.17936,0.207254,0.237313,-0.182714,0.110614,-0.065259,-0.298945,0.001905,0.236333,0.085665,-0.077427,0.128032,-0.184034,-0.142425,0.054345,0.149989,0.134132,0.031381,0.237883,-0.001397,0.186956,-0.287163,-0.24467,-0.105272,0.015597,-0.087863,0.103731,0.09987,-0.112562,0.27589,0.090127,0.403896],"bias":[-0.133246,-0.032901,-0.066696,-0.183164,0.05241,0.015528,0.181336,0.122301,-0.002831,0.041801,-0.005636,-0.154116,-0.071678,0.019579,-0.003953,-0.011428,0.038889,0.202964,-0.138508,0.03877,-0.046933,0.05764,-0.189204,0.265243,0.092359,0.01835,0.022222,0.005504,-0.202735,-0.067839,-0.165314,-0.05281,0.021264,0.070101,0.025488,-0.195262,-0.147799,-0.156811,0.058171,0.253264,0.089118,0.094604,0.242021,0.180493,-0.024982,-0.042443,0.0592,-0.2275,-0.012468,-0.225146,-0.024199,-0.003332,-0.075275,0.010181,0.00247,0.141889,-0.187084,0.030982,-0.189943,-0.044114,-0.150914,0.146288,0.028856,-0.073906]},{"inputSize":64,"outputSize":4,"activation":"linear","weights":[-0.032698,0.059275,-0.010492,0.014897,0.094551,-0.020302,0.039201,0.05926,-0.083421,-0.036703,0.216254,0.034358,0.06279,0.079799,-0.079951,0.009229,-0.014846,-0.022079,0.038233,0.012428,-0.002832,0.001402,-0.038199,-0.097667,0.01638,-0.024236,-0.009525,0.009848,-0.047511,-0.008209,0.017817,-0.063386,0.018696,0.014262,0.035971,-0.017865,0.007614,-0.049826,0.036325,-0.025803,0.020854,-0.11367,0.094261,0.037108,-0.078123,0.027986,-0.015219,-0.03854,-0.034704,0.029097,-0.014647,0.015067,-0.066788,-0.045179,-0.048871,-0.054472,-0.070531,0.05324,-0.030884,0.123413,-0.090462,0.131588,0.052222,-0.064704,-0.001509,0.000642,-0.028398,0.019447,0.122439,0.003056,-0.04778,-0.061191,-0.033058,-0.001175,0.050003,-0.072391,-0.082469,-0.014258,0.093866,-0.016169,0.010323,-0.043522,-0.07583,-0.023001,-0.002763,0.068059,0.007504,-0.000418,-0.014871,-0.015414,0.014961,-0.013996,-0.256339,-0.004406,0.004803,-0.00245,0.004611,-0.07575,-0.016396,0.003613,0.004947,0.195113,-0.007869,-0.001761,-0.001577,0.029026,-0.002648,-0.024859,0.048321,0.015318,-0.035851,-0.01743,-0.052215,0.006406,-0.049973,-0.015232,0.00838,-0.014488,0.005962,0.004653,-0.000747,0.028177,0.092548,0.054329,-0.090133,0.055966,0.097419,0.015078,0.001901,0.002631,0.026929,0.008524,-0.033611,0.020622,0.003124,-0.010062,-0.000644,-0.005856,-0.038365,-0.026849,-0.023584,-0.026133,0.006875,0.009331,-0.01536,0.002008,0.009468,-0.009096,-0.000174,0.014912,-0.01477,0.001559,0.026437,0.001223,-0.015402,0.005986,-0.025842,0.005717,0.002914,-0.00978,-0.012902,-0.019772,-0.012627,0.009511,0.019126,-0.00763,-0.016735,0.014306,0.001614,0.02047,0.006659,0.000361,0.013266,-0.003159,0.002026,0.034463,0.017986,-0.013435,-0.00775,-0.028112,0.01788,0.000955,-0.002373,0.013746,-0.000473,-0.0024,0.004632,0.001567,-0.026946,-0.003585,0.004841,-0.010276,-0.038595,0.044307,0.021784,0.000965,0.044473,0.022932,0.093149,0.016835,-0.064629,-0.033817,0.017685,-0.042188,0.019774,0.047589,0.02784,0.031415,-0.005073,0.017299,0.093867,0.032153,-0.006152,-0.038519,-0.026918,-0.048456,0.012482,-0.026409,-0.081168,0.019352,-0.009515,-0.017751,-0.041948,-0.067863,0.002566,0.038841,-0.001583,0.066674,0.021896,-0.04802,0.03591,-0.00883,0.005465,-0.042455,0.098372,0.041591,-0.026151,-0.025532,0.002122,0.018549,0.001124,0.066095,0.021046,-0.045887,-0.014807,0.001934,-0.032487,0.021763,-0.030711,-0.0108,0.074079,-0.004399,0.00127,-0.002769,0.074108,-0.034484],"bias":[0.616056,-0.078422,0.196893,-0.132299]}]}
