{"format":"ratass-rl-policy-v3","source":"ray-rllib-ppo","objective":"race-route-progress-v1","observationSize":25,"actionSize":2,"output":"first actionSize outputs are deterministic direct throttle and turn controls","layers":[{"inputSize":25,"outputSize":64,"activation":"tanh","weights":[0.06889,-0.527032,0.153076,-0.123146,-0.009827,-0.082322,0.044179,-0.208744,0.009601,-0.181247,0.176069,0.172442,0.881973,0.179716,0.753323,-0.655382,0.061361,0.461407,0.306759,0.233274,0.248577,-0.286886,0.018624,0.237513,0.042466,-0.03071,0.327877,-0.129316,-0.249259,-0.244247,0.422899,-0.002476,0.115589,0.010861,0.127556,-0.201695,-0.073935,-0.915224,0.131257,-1.15575,0.117138,0.168094,-0.744809,0.539886,0.209774,-0.128309,0.182546,-0.032613,-0.19823,-0.162442,-0.141619,0.151594,0.153315,-0.324576,0.132879,-0.142341,0.02244,0.035146,-0.202491,0.16905,0.361443,0.411446,-0.33451,-0.001049,-0.30186,-0.449653,-0.168018,-0.311394,0.377278,0.176203,0.098168,0.019347,-0.07722,0.048727,0.125068,0.220992,-0.003171,-0.174252,0.136379,0.164067,0.122817,-0.093675,0.142946,0.089703,-0.014814,0.404615,0.247627,-0.327011,0.104586,-0.139723,-0.267207,0.191105,0.408654,0.134022,0.096072,0.080557,0.172479,-0.172104,0.188654,-0.074561,-0.063825,0.238073,0.190122,0.107393,-0.524195,-0.54923,-0.195007,0.107204,0.131426,-0.170113,-0.800494,-0.767714,0.31505,-0.065057,-0.301632,0.469098,0.13412,-0.242145,-0.464302,-0.266633,-0.233182,-0.086525,0.083252,-0.07055,-0.01812,-0.048254,-0.24519,-0.150551,0.076643,0.176052,0.166686,0.251186,-0.153509,0.212274,0.015654,0.45097,0.633803,-0.426844,0.143921,-0.126618,-0.43191,0.060972,0.186872,0.087418,-0.142408,0.147316,0.114838,-0.123787,0.213929,0.118626,-0.00773,-0.214207,-0.074166,0.097884,0.345581,-0.094094,0.089357,0.030839,0.160046,-0.064673,-0.433919,-0.178104,0.409762,0.083122,0.129124,0.573173,-0.214579,0.445084,-0.524118,0.031715,0.183855,-0.098546,-0.125235,0.158243,-0.217006,0.090283,-0.305007,0.199622,0.138647,0.121228,-0.208096,-0.036071,-0.111773,-0.103676,-0.048631,0.260118,0.097595,1.10566,-0.1967,1.66105,-0.389672,0.236454,0.348773,-0.129829,0.002446,0.257484,-0.161199,-0.053776,0.277622,-0.16942,0.139198,0.15908,-0.185705,-0.096658,0.127492,0.111414,-0.209461,0.103607,0.178815,0.146613,-0.846902,-0.734213,-0.480545,-0.101522,-0.937632,0.163764,-0.071263,0.236537,-0.199961,0.191897,-0.017306,0.154642,-0.187312,-0.005866,-0.089382,0.130297,-0.046918,0.243514,0.05061,0.061163,0.112306,0.14674,0.102502,-0.037275,0.183883,0.080881,0.070438,-0.0276,0.070233,-0.089423,-0.346269,-0.043794,0.536657,-0.26397,-0.141494,0.031759,-0.082499,0.241843,0.051743,0.157913,0.119104,-0.240403,-0.201109,0.163355,-0.090392,0.403646,0.233366,-0.127504,-0.047043,0.193636,-0.652702,-0.196672,0.996601,-0.137073,0.532519,0.262183,-0.232302,0.472809,-0.162638,-0.212978,0.228602,-0.157087,-0.109703,-0.065767,-0.01699,-0.193319,0.150413,-0.062829,0.395693,0.006683,-0.273742,0.248529,0.004644,-0.127102,0.016201,-0.692992,-0.705275,0.412293,-0.160411,0.501909,0.289102,0.025145,-0.054854,-0.080312,0.279426,0.023342,-0.199402,0.233213,-0.073732,-0.077667,-0.088857,0.148319,-0.093072,0.061373,0.205095,-0.13668,0.023917,0.119363,0.182754,-0.033025,-0.654382,-0.376231,0.150607,-0.051832,-0.024684,0.594431,-0.211143,-0.003807,-0.368476,0.034533,-0.037913,0.00651,-0.120341,0.020183,-0.093607,0.005891,0.106352,-0.171892,0.251536,0.412596,0.135271,0.287464,0.164614,0.170701,0.127475,0.840521,0.467771,-0.433623,-0.057756,0.074317,-0.540902,-0.04439,0.957187,0.080669,-0.120121,0.326146,0.007607,0.040897,0.240869,0.058814,-0.130177,-0.063471,-0.100778,-0.15584,0.015406,-0.257744,-0.017647,0.02407,-0.183324,-0.075018,0.747548,0.633013,-0.210402,-0.146009,0.459582,-0.429652,0.13974,-0.11259,0.131169,0.114827,0.163305,0.020196,0.118457,-0.045925,0.114341,-0.197769,-0.297693,0.044314,0.314995,-0.036394,-0.126034,0.050391,-0.168373,0.074256,-0.162861,-0.74192,-0.423169,1.342492,0.139728,1.103454,0.617961,0.194865,0.323507,-0.03455,0.114541,0.175593,-0.272199,-0.030689,-0.054036,-0.177055,0.235345,-0.117601,0.154911,-0.27586,-0.391195,-0.544106,-0.03161,-0.099472,-0.003756,0.023416,0.481904,0.205616,-0.3628,0.044249,-0.318416,-0.261644,-0.23053,0.425818,-0.02804,0.110142,-0.109017,-0.186501,-0.17722,0.079683,-0.144437,0.005879,0.021405,0.122804,-0.189185,0.091875,-0.177391,-0.248367,0.009524,0.054235,-0.012354,-0.346106,-0.362764,-0.712311,-0.129412,-1.054559,0.023217,0.064576,0.248598,-0.047348,0.368598,-0.170069,-0.0834,0.027258,0.052138,0.034298,-0.088564,0.055752,0.059098,-0.110098,0.194631,0.22703,0.247259,-0.00763,-0.016876,-0.059803,0.400693,0.298438,-0.43987,0.110515,-0.085674,-0.522498,0.120735,0.659699,0.19058,0.317652,0.117163,-0.237188,0.08491,0.029172,-0.170276,-0.030164,0.244366,0.202356,0.173537,0.049002,0.146668,0.092135,0.033181,0.133178,0.179013,0.024471,0.01648,-0.491324,-0.073191,-0.285439,0.397029,-0.062614,1.30287,-0.128567,-0.312616,0.131733,-0.129585,0.021683,0.191764,-0.032938,0.053947,-0.480702,-0.128372,0.057804,0.036008,0.258947,0.097945,-0.151954,0.190233,-0.131118,-0.234852,-0.518934,1.673241,0.04201,1.145316,0.177698,0.048773,0.249728,-0.202712,-0.067739,-0.052627,-0.244098,-0.13833,-0.221249,0.011966,0.040197,0.207326,0.245215,0.304914,-0.168586,0.248099,0.183013,-0.006508,-0.066917,-0.186928,0.323245,0.510104,-0.598134,0.221623,-0.219705,-0.402274,-0.168227,1.361715,-0.190894,-0.35622,0.085631,-0.043999,0.0358,0.26746,-0.028245,-0.148098,0.212931,0.192308,0.146077,-0.010487,0.36065,-0.208836,0.041662,0.09527,0.208286,0.170996,-0.052968,-1.27617,0.006156,-0.767334,-0.514775,0.165096,-0.1003,0.278781,0.039193,0.068319,-0.064905,0.145123,-0.107937,0.174444,-0.017379,0.282561,-0.085217,-0.062156,-0.353664,-0.088287,0.07924,-0.223322,0.130692,0.183957,-0.372076,-0.359689,0.42297,-0.076109,-0.059551,0.558088,-0.169627,0.122343,-0.213139,-0.04959,0.139974,0.14936,0.112719,-0.127969,0.027259,-0.050232,-0.113703,-0.026657,0.104144,0.346707,0.430393,0.026536,0.242424,0.022432,-0.133418,0.262862,-0.2343,-0.823575,0.047694,-0.42678,-0.406876,0.169205,-0.194086,0.134342,0.071377,-0.234247,0.018783,0.063891,0.078809,-0.081727,0.126506,0.269074,-0.133012,-0.18944,0.163333,0.352727,-0.251182,0.137765,-0.107477,-0.031751,0.066782,-0.28366,-1.640603,-0.127409,-1.195894,-0.459725,-0.109557,-0.016993,0.205973,0.330565,-0.185903,0.218467,0.108153,0.232641,-0.085221,0.060172,0.278227,0.212844,0.210807,-0.11529,0.0115,0.010519,-0.044008,0.029756,-0.133411,0.73983,0.555247,-0.52163,0.141323,-0.260149,0.027039,-0.209615,1.724061,-0.056364,-0.584761,0.167016,0.080523,0.063058,0.036892,-0.191312,-0.138748,-0.0119,0.227954,0.293127,0.213098,0.030873,0.22524,-0.20189,0.25845,-0.055161,1.065213,0.938293,-0.116423,0.161929,0.701601,-0.476737,0.158037,0.707974,0.41835,-0.027826,0.157317,0.13544,-0.151165,0.157524,-0.123424,0.098208,0.180891,0.124568,0.141865,0.228519,0.311319,0.002346,-0.073922,0.104198,0.154208,0.739883,0.352302,0.10745,0.115999,0.756051,-0.353616,-0.141162,0.311792,-0.151341,0.1631,0.122388,-0.118662,-0.086707,-0.104313,-0.043476,0.029948,-0.259619,-0.14012,0.133291,-0.276022,-0.26916,-0.103448,-0.01169,0.091223,-0.16914,0.218099,0.442061,1.172662,0.052573,0.586172,-0.022534,0.231382,-0.428969,0.025812,-0.277434,0.156689,-0.134998,-0.138769,-0.07656,-0.000698,-0.143537,-0.040039,-0.11322,0.076676,0.22239,-0.255231,0.275803,0.043114,-0.043041,-0.103237,-0.642703,-0.604063,0.205787,0.081355,-0.038803,0.447751,-0.140673,-0.023511,-0.078576,0.016226,0.229803,-0.189034,-0.157454,0.17269,0.049392,-0.037846,-0.074665,0.136679,0.103981,-0.328013,0.067364,0.055592,0.2253,0.054032,-0.08116,0.793683,0.693758,-0.146619,0.037187,0.398124,-0.281686,0.164501,-0.349837,0.184835,-0.193489,-0.069809,-0.049841,-0.054334,-0.060075,0.035534,0.07101,0.13079,0.076367,0.284956,-0.107093,-0.046054,0.066387,0.051236,-0.016643,-0.013219,-0.46067,-0.61957,0.151639,0.117571,-0.253645,0.304451,0.159693,-0.097099,-0.430583,0.241389,0.011144,-0.28014,0.138786,-0.254011,-0.244269,0.114895,-0.068077,0.065992,0.264734,-0.191035,0.164684,0.185385,-0.079833,-0.013198,0.00303,0.538603,0.252022,0.064474,-0.160738,0.871397,-0.326034,0.066841,0.036902,0.562093,0.022832,-0.157734,-0.193369,0.2414,-0.098802,-0.059673,0.031605,0.389913,-0.020529,-0.006538,-0.038121,-0.25222,0.101105,0.224721,0.191183,0.212445,0.711861,0.751049,-1.080845,0.079803,-1.119271,-0.311326,-0.03349,-0.072601,0.40454,-0.230009,-0.262807,0.250653,-0.111813,-0.086406,0.019863,0.113855,0.22772,-0.08457,-0.19764,-0.367989,-0.155628,-0.324171,-0.069358,-0.032455,-0.102513,-0.797155,-0.603235,0.4918,0.086453,-0.598232,0.464081,0.119306,-1.298976,-0.35181,0.189539,-0.243192,-0.10065,0.13108,-0.075023,0.011723,0.076721,-0.154715,-0.159928,-0.124922,-0.101537,-0.058082,0.047618,-0.150229,0.078658,-0.16898,-0.506311,-0.668383,0.518476,-0.003235,-0.147206,0.559709,0.086031,0.34265,-0.422172,-0.088135,0.075871,-0.150286,0.05819,0.075378,-0.17761,0.011564,0.280029,0.07899,-0.286205,0.01215,0.337852,-0.347219,0.038618,0.04472,-0.096814,-0.623065,-0.479469,-0.387934,-0.142206,-1.173877,0.167291,0.077609,0.000776,-0.126643,0.261486,-0.212064,0.063693,0.03499,-0.125712,-0.115402,0.105878,-0.121183,-0.136987,0.353344,-0.270667,-0.458708,0.15858,-0.224097,0.066558,-0.093172,0.813955,0.487818,0.459243,0.263927,1.195183,-0.471815,0.03451,0.72445,-0.019103,-0.197238,0.353653,0.064895,-0.111618,0.180415,0.08899,0.038541,0.146407,-0.070121,-0.121427,0.118644,-0.089994,0.097061,-0.06243,0.285686,-0.010546,0.061607,0.344906,0.103113,-0.17105,0.002027,-0.216496,0.049089,1.402811,-0.104368,-0.332372,0.214549,-0.078287,-0.293562,0.329713,0.000963,-0.205583,0.011889,-0.023638,-0.114861,0.161267,-0.265963,-0.091191,0.220732,-0.135582,0.173565,-0.462688,-0.066669,-0.910586,-0.08165,-1.14987,0.001215,-0.061633,-0.121778,-0.184358,-0.030722,-0.115385,0.021782,-0.032688,-0.022075,0.114595,0.014061,0.084477,0.093419,-0.246623,-0.214673,0.21768,-0.115336,0.128467,0.054511,0.100797,0.82416,0.731492,-0.433555,0.069567,0.028137,-0.43597,-0.032689,-0.233339,0.132894,-0.040073,-0.180596,-0.061017,0.043351,-0.127509,0.232578,-0.134999,-0.063875,0.035597,-0.177115,0.118823,-0.45312,-0.163139,0.109251,0.126258,0.134205,-0.777248,-0.848482,0.963871,0.07895,-0.092641,0.311919,0.174502,-0.750139,-0.269373,0.150077,0.076199,-0.025928,-0.120909,-0.254694,-0.194086,-0.071248,0.150699,0.109929,0.054466,0.335164,-0.072467,0.175508,-0.119677,0.240215,-0.048896,-0.106607,-0.185507,-0.023075,0.184712,0.036234,0.19597,0.001401,0.784723,-0.29802,-0.240888,0.106215,-0.098502,0.076512,-0.00472,-0.069846,0.164807,-0.194195,-0.091716,-0.09685,0.095513,-0.387532,-0.244147,0.112269,-0.09028,-0.074507,-0.432818,-0.291518,0.350228,0.066029,0.697457,0.421931,0.122432,-0.696846,-0.075112,0.11994,0.049499,-0.167809,0.132074,-0.040923,-0.176763,0.117464,0.271302,-0.011766,-0.0609,0.208929,-0.47641,-0.017076,0.22436,0.057084,-0.024419,0.111079,-0.031562,-0.902702,0.022962,-0.806738,-0.296052,-0.036741,0.265511,0.377001,-0.241939,-0.15814,-0.042308,-0.152609,0.35311,-0.097969,-0.150779,0.07074,0.004584,0.097985,0.356356,0.548117,-0.206628,-0.084163,-0.101893,0.13171,0.386755,0.495562,-0.33059,-0.043043,0.309221,-0.556677,0.257413,0.238003,0.331664,0.274032,0.12557,0.11954,-0.006009,0.069913,0.022394,-0.096921,-0.322217,-0.215431,0.036954,0.225803,0.056784,0.212119,0.0439,0.223784,0.037353,-0.324007,-0.09367,1.356285,-0.075059,1.460774,0.497998,0.095384,0.611352,-0.15479,-0.23895,0.0161,-0.194329,-0.062662,0.263979,-0.110476,0.052457,-0.222587,0.170968,-0.10513,0.321509,0.004,-0.072334,-0.106857,0.068066,0.026714,-0.14555,-0.254433,0.074496,-0.30604,-0.247538,0.478733,0.078413,1.015194,-0.044277,-0.098969,-0.218012,0.02241,0.05076,-0.018804,0.24205,0.156905,0.133756,-0.021176,-0.126608,-0.500928,-0.515854,-0.152923,-0.067955,0.154328,-0.002443,-0.145721,-0.16256,0.333704,0.048754,0.06618,0.436622,-0.132178,-0.010374,-0.498558,-0.040945,0.053733,-0.072854,-0.161842,-0.160943,0.049464,-0.044876,-0.55449,-0.151742,-0.398829,0.03021,-0.118306,-0.254306,0.135227,-0.098701,-0.12662,-0.385907,-0.600404,1.571159,-0.212613,0.41477,0.400988,0.049584,-0.819441,-0.294337,0.022241,-0.079294,-0.048521,-0.203403,-0.234205,-0.074229,0.024481,0.05983,0.148792,0.004391,-0.144431,-0.318199,-0.052709,-0.12058,-0.174942,0.03001,0.554294,0.51178,-0.145592,-0.206152,0.392868,-0.392152,0.283824,-0.235863,0.301137,0.063225,-0.072903,0.108158,-0.108403,-0.059772,-0.031292,0.182123,-0.077608,-0.034093,0.156583,0.189445,-0.161535,0.083034,0.076679,0.152227,-0.120526,-0.52052,-0.621146,0.445601,-0.028356,-0.344345,0.587296,-0.126368,-0.122723,0.000828,0.154649,-0.20072,-0.020122,-0.163222,-0.157734,-0.080853,-0.002767,0.203588,0.142491,-0.086871,0.050141,0.381321,-0.251927,0.269987,-0.040516,-0.132396,0.709234,0.425061,-0.656969,-0.162536,-0.397073,-0.512533,-0.003962,0.371674,0.0747,0.289897,0.052806,-0.082335,0.148892,0.10151,0.205692,-0.165742,-0.1351,-0.177734,-0.015702,0.071423,-0.092604,0.13925,0.186082,0.137077,0.090489,0.663549,0.383109,-0.629585,-0.097056,0.269417,-0.515157,0.121751,0.050837,0.245051,0.111982,0.262353,0.068931,0.152486,0.314845,-0.150497,-0.178665,-0.272567,-0.016885,-0.092656,0.302613,-0.055431,0.121523,-0.21094,-0.017517,0.115892,0.11749,-0.056788,1.005027,0.072842,1.569028,0.280835,0.107787,-0.448249,0.003981,-0.107926,-0.022154,-0.147115,0.282022,-0.054227,-0.12183,-0.049689,0.31923,-0.134285,0.403529,-0.211684,-0.400313,0.095238,0.008575,0.171144,0.083512,-0.094227,0.303279,-0.020009,-0.094067,-0.153133,0.340528,0.037739,0.968668,0.092613,-0.618691,-0.023174,-0.100818,0.020661,0.364979,-0.078342,-0.135025,-0.039755,-0.117008,-0.074622,-0.136901,0.267766,0.027455,0.087587,-0.196694,0.077939,-0.55344,-0.507118,0.255038,0.066663,-0.211595,0.259077,0.048119,-0.542336,-0.550736,0.200918,0.124403,0.019231,0.163231,0.065655,0.078212,-0.126278,0.402844,0.03216,0.124382,-0.157842,-0.348222,-0.130011,0.234166,-0.045107,-0.04859,0.394059,0.557405,-1.035418,0.084248,-0.395203,-0.331893,0.107539,-0.182335,0.094561,-0.02831,0.226392,0.258345,-0.109636,0.109216,0.092443,-0.058906,-0.337652,-0.148114,0.341841,-0.102566,-0.1639,-0.02928,-0.222739,-0.057634,-0.088419,-0.3133,-0.136006,1.319941,0.115637,0.92499,0.618647,-0.064958,-0.51605,-0.515972,-0.015648,0.161737,0.085126,0.086236,0.095243,0.017428,0.226165,0.231891,-0.094802,0.164277,-0.342854,-0.283294,-0.073328,0.045133,-0.1419,-0.201382,0.27967,0.173878,-0.047691,-0.009235,-0.485229,-0.246125,0.261005,-0.213085,0.388486,-0.181838,-0.093337,-0.018382,-0.045561,0.029019,0.096619,0.020446,-0.258627,0.1213,0.030842,-0.00693,0.561368,0.028018,0.004626,0.037015,-0.096181,0.098544,0.161376,0.2017,0.0324,0.389614,-0.460652,0.081988,0.093244,-0.057645,0.141136,0.168988,-0.16176,0.180648,0.014055,-0.101927,0.110685,-0.094164,-0.050757,-0.074908,0.35054,-0.020117,0.081673,0.064668,0.256948,0.134491,-0.282344,-0.066066,0.194942,-0.141076,0.233464,0.123206,-0.103664,1.226383,-0.099173,-0.090966,0.228523,-0.125181,-0.207473,0.034443,-0.186819,-0.008468,-0.155528,-0.133422,-0.184867,0.087632,-0.247494,-0.078981,-0.276912,0.085999,-0.144181,0.105054,0.099607,1.504467,0.151026,1.094499,0.484457,-0.013913,-0.448318,-0.004393,-0.172377,0.296316,0.05849,0.193708,0.110414,-0.082293],"bias":[-0.037392,-0.024489,-0.198909,-0.171472,0.074602,-0.070775,0.196663,-0.150639,0.048748,0.164932,0.145926,-0.067709,0.21033,-0.228512,0.056208,-0.056016,-0.03133,0.141409,0.214088,0.047487,0.160477,0.105872,-0.117019,-0.155657,0.045469,0.059793,0.02838,-0.101041,-0.043224,0.07023,0.124595,-0.175594,0.092504,-0.03827,0.040792,0.021425,0.150697,0.082167,-0.065946,-0.076559,0.14485,-0.095801,-0.016511,0.180736,0.190737,0.04384,0.130441,0.040067,0.260384,-0.038888,0.189317,-0.033794,-0.058976,0.061116,-0.093098,-0.179769,0.062283,-0.037777,-0.013193,0.059271,-0.123907,-0.129598,0.09592,-0.19655]},{"inputSize":64,"outputSize":64,"activation":"tanh","weights":[0.080638,0.047673,-0.075387,0.09737,-0.275022,0.043947,-0.034126,-0.046998,0.009706,0.025216,0.05907,-0.194105,-0.239024,0.123606,0.118011,-0.186394,0.013188,-0.253333,-0.072015,0.003149,0.120188,0.164931,-0.043658,-0.13551,-0.080049,-0.033724,0.176612,0.210906,0.26717,0.178251,-0.171628,0.075203,-0.067502,-0.073606,0.088411,-0.106102,-0.113195,-0.006409,0.028584,0.091511,-0.226962,0.23122,-0.587747,-0.0285,-0.224313,0.053578,0.257304,0.059938,-0.018634,-0.144234,0.139103,-0.001916,-0.030323,0.078261,0.164818,-0.049589,-0.039268,-0.128915,0.033585,-0.044857,-0.01706,0.151784,-0.029997,-0.091136,-0.070117,-0.272929,0.053816,-0.283218,0.177541,-0.135235,0.108762,0.1453,-0.339031,0.055241,0.350679,-0.093354,-0.022815,-0.256559,-0.002436,0.06784,0.277057,0.125843,0.0255,-0.127505,0.425227,-0.036473,-0.445118,0.171867,-0.421302,-0.436165,-0.037259,-0.043011,-0.026588,0.356323,0.0789,0.134736,-0.051998,-0.061523,0.01801,0.206957,0.368585,-0.15715,0.334168,0.01197,-0.215357,-0.134015,0.080978,-0.106481,0.26113,-0.067042,-0.353869,0.130948,0.053095,0.289814,0.268721,0.246244,0.127921,-0.430929,-0.260068,-0.054398,0.047204,-0.129933,-0.17457,0.158681,0.311959,-0.152436,0.065824,0.217195,0.033895,-0.009855,0.065202,0.046835,-0.148476,-0.096632,0.226767,-0.056644,0.287514,0.077547,0.130781,0.12933,0.246353,0.070205,-0.300808,0.070045,0.040381,-0.090392,0.103128,0.071328,-0.011969,0.166024,-0.036556,-0.010651,0.026831,0.125462,-0.059361,-0.168396,0.046104,0.034082,0.186059,-0.152768,0.020628,-0.010461,-0.022435,-0.039764,0.073277,0.158933,-0.010045,0.091826,0.062627,-0.094377,0.101615,-0.094824,-0.182504,0.050771,-0.219582,-0.040256,-0.000533,0.106019,0.046661,-0.249447,0.017882,-0.19399,-0.073498,0.024311,-0.157181,0.091516,-0.137509,0.055107,-0.170662,0.123902,0.110751,-0.116401,0.019424,0.05125,-0.06745,-0.115554,-0.008118,-0.024885,0.058225,0.058856,-0.04612,-0.072591,-0.047108,0.227983,0.245525,-0.209143,-0.286229,0.073008,0.090836,0.122279,-0.098248,0.073152,0.140119,-0.08796,0.045487,0.090986,0.059311,-0.02168,-0.09264,0.033203,0.073774,-0.00183,0.225195,-0.192198,0.055637,-0.131725,-0.035621,0.124896,0.095469,0.024225,-0.006469,-0.1422,-0.114833,-0.018245,0.260072,-0.02683,-0.011271,-0.171328,-0.058803,0.188409,-0.036242,0.164789,-0.073498,-0.040783,0.291419,-0.235368,-0.273166,0.019127,0.02947,0.03652,-0.038727,0.14466,-0.095609,-0.102141,-0.075266,0.027918,0.113562,0.041211,-0.081237,-0.242455,0.129841,0.011118,0.186861,0.075905,-0.150764,-0.035563,0.029812,0.014032,0.035875,-0.197831,-0.115927,0.313726,-0.026152,0.175262,-0.006843,0.100724,0.277038,-0.06427,-0.145341,-0.182932,-0.03984,-0.147594,-0.125984,-0.107542,-0.086852,0.132756,0.088789,-0.092972,0.106789,0.054457,-0.178369,0.061735,0.233696,0.001843,-0.055334,-0.07682,-0.071349,-0.208976,0.229467,0.023938,0.369481,-0.181813,-0.194815,0.179607,-0.0218,-0.005504,0.092218,0.124298,0.113794,-0.340213,-0.176074,0.247697,-0.09526,-0.033731,-0.256002,0.078251,0.081484,0.131215,0.055758,0.070361,-0.054289,0.165419,-0.074769,0.076256,0.038062,0.089929,0.056938,-0.100394,0.270765,0.063867,0.146931,0.122575,0.353628,0.096964,-0.219894,-0.041844,-0.075219,-0.09257,-0.013387,0.09085,0.020069,-0.063229,-0.042306,0.071568,-0.015147,0.040768,-0.133013,-0.198445,-0.142978,-0.027914,0.177173,-0.310639,0.010548,-0.051093,-0.127294,0.086252,0.057574,-0.148207,-0.125344,0.146911,0.15652,-0.223319,0.284003,0.116634,-0.134363,0.042953,-0.027731,0.145682,0.017166,-0.006591,0.011813,-0.290453,0.211394,-0.038664,0.064633,-0.01899,0.000851,0.268454,-0.093542,0.055323,-0.00387,0.013618,0.118585,0.097327,0.07743,-0.296901,0.064954,-0.039427,-0.408634,0.361127,-0.000863,0.219108,-0.226319,0.049156,0.068228,-0.083145,-0.151861,0.416511,0.285113,0.05885,0.155856,-0.078696,0.0975,0.180144,-0.142823,0.36502,-0.038456,0.067003,-0.066807,-0.078844,0.52719,0.795736,0.188708,0.043981,-0.032861,0.296748,-0.107388,0.355797,0.179909,-0.526848,-0.260247,-0.406909,0.275295,0.446725,-0.071719,0.107658,-0.591039,0.162856,-0.388675,0.153598,-0.001747,0.196671,-0.107088,-0.051895,-0.347952,-0.104434,-0.22483,0.180369,0.247914,0.160559,0.418813,-0.174376,0.185336,0.080905,-0.020284,0.01522,0.083802,0.069967,0.230771,-0.090387,0.049916,0.073377,-0.264033,0.192161,-0.12198,0.162373,-0.396207,-0.01172,0.097827,-0.101892,-0.409692,0.168372,0.113381,0.006445,-0.152956,-0.094799,0.078009,-0.016792,0.132663,0.148591,0.064948,-0.230735,-0.05846,-0.160517,0.352334,0.321391,0.059556,0.183351,-0.125666,0.36217,0.08517,0.480621,-0.050976,-0.084913,-0.164954,-0.157827,0.332199,0.108116,-0.26087,0.171838,-0.285245,0.033601,0.207772,-0.11695,0.277607,0.055644,-0.041115,-0.190069,0.034683,0.27314,-0.260927,0.168978,0.056346,0.214009,0.246501,-0.319848,-0.04237,-0.09102,0.218964,0.096689,-0.155414,0.104729,-0.057813,-0.191889,0.169739,-0.014501,-0.100686,0.179074,0.088582,0.016007,-0.2221,-0.020956,-0.00772,0.075525,0.109569,0.169733,0.064712,-0.023865,-0.030235,0.040147,-0.179804,0.023692,-0.056331,0.123815,-0.095238,0.167779,-0.0867,-0.086956,0.456827,0.421009,0.059404,-0.050825,0.26433,0.100785,-0.152352,-0.138078,0.003398,-0.373039,0.020197,-0.272439,0.399402,0.595007,0.082717,-0.095632,-0.206167,0.208155,-0.49903,0.265231,-0.126433,0.11765,0.041747,-0.028637,-0.05988,-0.129594,-0.042212,-0.160547,0.216539,-0.051323,0.57803,-0.14335,0.097972,0.065265,-0.043609,-0.300381,0.144102,0.070832,-0.026302,-0.030141,0.05443,0.211083,-0.183052,0.179903,-0.225442,0.078054,0.160874,-0.015891,-0.091571,-0.006011,-0.248152,0.220997,0.132798,-0.276759,0.047169,0.095899,-0.010688,-0.05706,-0.255177,0.063841,-0.022489,0.037521,0.036103,0.261806,0.151697,0.164168,-0.123709,-0.046085,-0.229543,0.219902,0.018407,-0.097447,0.246359,-0.089178,-0.185238,-0.096525,0.138198,0.022653,0.157385,0.172216,-0.227923,0.106566,-0.114322,0.288411,0.022229,-0.06059,0.081854,-0.121358,-0.092548,0.113164,-0.122153,0.279213,0.303819,-0.215086,0.028351,-0.019589,0.102673,-0.059463,0.036444,-0.148062,-0.091688,-0.055473,-0.078964,-0.183909,0.012546,-0.028283,-0.036519,-0.14092,0.07341,0.021927,0.140987,0.054091,0.209124,0.056819,0.335886,0.102007,-0.013629,0.131443,0.14268,0.04757,0.008488,0.186248,-0.006602,0.156125,-0.15276,0.120936,-0.150342,0.013849,0.222957,0.066623,0.077277,-0.089053,0.234048,-0.180101,-0.048523,-0.028375,-0.030203,-0.184001,0.14841,0.103771,0.119126,0.301969,-0.025159,0.036453,0.041857,0.106174,-0.168311,0.004566,-0.123626,0.086653,0.118363,0.203067,-0.114917,-0.232933,0.146931,-0.024393,0.065419,-0.001659,0.209029,-0.221137,0.028119,0.001609,-0.009033,0.039777,0.238552,0.09454,-0.325979,-0.039755,-0.047655,0.02558,0.198537,-0.083071,0.145655,-0.045875,0.084354,-0.130291,-0.042235,0.107645,0.129969,-0.119125,-0.036748,-0.060369,0.25229,-0.091776,-0.061465,-0.005221,0.087296,-0.026875,-0.069775,0.138436,-0.046047,-0.20554,0.237571,0.033442,0.10372,0.201647,0.010291,-0.02462,-0.03182,-0.050335,0.086939,0.070758,-0.16038,0.018094,0.050022,0.015479,-0.072743,0.134723,0.078954,-0.076921,-0.061816,0.02981,-0.248994,-0.022334,0.067316,0.107907,0.136724,0.067967,0.105849,-0.153141,-0.040921,-0.013729,0.060522,-0.252572,-0.050611,0.070009,-0.011531,-0.339247,-0.012272,0.161322,0.144605,0.101371,0.09449,0.014961,-0.334672,0.195331,-0.007824,0.020491,-0.072543,-0.023607,0.002938,-0.035885,-0.274924,0.021733,0.16155,0.059475,-0.049748,-0.002879,0.057958,0.035488,0.122068,0.176603,0.091815,-0.051531,0.107987,0.279436,0.062822,0.141341,0.08309,-0.235969,-0.190957,-0.169349,-0.104611,-0.039779,-0.05279,-0.05005,-0.070596,-0.067739,-0.050837,0.102065,0.059723,0.032705,-0.45238,-0.111837,-0.154125,-0.120972,0.189669,-0.100859,0.063041,-0.232005,-0.078268,-0.128764,-0.240081,0.156039,0.099746,-0.127964,-0.159851,0.212493,-0.080887,-0.044169,-0.099693,0.312879,-0.069486,-0.136693,-0.201202,0.161773,0.091872,-0.003555,0.01794,0.102027,0.272395,-0.212838,0.506954,0.057953,0.035382,0.064639,0.404095,-0.086006,-0.283352,-0.108055,0.054106,0.124317,-0.073336,-0.067504,0.008473,-0.106769,0.00666,0.206909,0.062953,0.217873,-0.156323,-0.026628,0.094651,-0.134705,0.107833,-0.329055,0.011364,-0.259345,-0.114851,0.001971,0.112751,0.326059,-0.115675,0.21282,0.027526,-0.180135,0.208952,0.121219,-0.331081,-0.103166,0.028909,0.048164,0.081933,0.056602,-0.111052,-0.234059,0.270838,-0.023288,-0.112364,-0.132646,0.019364,0.348705,-0.082626,-0.044728,-0.259792,-0.043018,0.012473,-0.163069,-0.248242,0.521001,-0.240905,-0.017073,0.129444,-0.187971,-0.221554,-0.252212,0.039943,-0.012742,-0.206151,0.092843,-0.104918,0.034001,-0.278758,-0.217077,0.175637,-0.150141,0.092133,0.099928,-0.400598,0.380101,0.071478,0.110937,-0.016991,0.411913,0.403718,0.127787,0.126841,-0.02975,-0.278393,0.210639,0.228809,0.269155,0.321902,-0.049848,-0.013234,0.120845,-0.062058,0.024541,-0.111452,0.020944,-0.617893,0.021813,-0.282672,0.241542,0.028011,-0.32745,-0.141164,0.01586,-0.289768,0.105677,0.022641,0.065612,0.024163,-0.390025,0.377457,0.155763,0.252671,-0.157986,0.265121,-0.030696,-0.217964,-0.054109,0.13105,0.005239,0.005533,0.118548,-0.36713,0.206633,-0.134321,-0.00053,-0.12635,0.12356,-0.061329,-0.067029,-0.410119,0.116208,0.080341,-0.157827,0.0609,0.030977,0.076567,-0.069865,0.049274,0.210714,0.026882,-0.258042,0.045957,0.105328,0.013574,0.156821,0.115093,-0.03775,-0.149652,0.065103,-0.067884,-0.04871,-0.087011,-0.019748,0.032821,0.046856,-0.07882,0.006528,0.063874,0.046709,-0.308051,-0.104353,-0.172867,-0.00252,0.208062,-0.157201,0.02632,-0.261866,0.105863,-0.08936,-0.231097,0.36261,0.095789,0.022239,-0.141341,0.135894,0.062563,-0.122791,-0.06088,0.264775,0.138286,-0.160081,-0.123726,0.244069,-0.038171,-0.050635,-0.018948,-0.087269,0.121786,-0.200528,0.101469,-0.036018,-0.02359,-0.147441,0.181774,-0.0842,0.090913,-0.059007,0.160589,0.134549,0.111492,0.11759,-0.158281,0.092059,0.073469,-0.051254,0.104942,0.302486,-0.085677,-0.156923,0.026342,-0.288866,0.050833,-0.142949,-0.039285,-0.042767,0.143644,0.000735,-0.100363,0.273366,-0.312333,0.105862,0.129553,0.103478,0.0613,0.037856,-0.052239,0.157078,0.063214,0.006065,0.099869,-0.171639,0.009996,-0.088472,-0.044042,0.205612,-0.147841,-0.058983,-0.086947,-0.051085,-0.046504,-0.184087,-0.242392,0.117653,0.061113,-0.159618,-0.053295,0.138357,0.046536,0.084864,0.224793,0.105435,-0.208716,-0.090537,-0.007985,-0.024156,-0.195764,0.10076,-0.265897,-0.097967,-0.004925,0.039558,-0.021145,0.099564,-0.046229,-0.176886,-0.175014,0.036802,-0.01975,0.163313,-0.059377,0.153887,0.017299,-0.243283,-0.150187,-0.065671,-0.176038,0.158141,0.012775,-0.103953,-0.024393,0.129584,-0.042336,-0.098231,-0.067025,-0.130651,0.133343,-0.058487,0.07745,-0.193341,-0.03951,0.000373,-0.089088,-0.17402,-0.152944,0.038353,-0.0386,0.09333,-0.027983,0.073714,0.031331,0.034319,0.083766,0.092009,0.169327,0.074988,0.132635,-0.107605,-0.162464,0.12488,0.211528,0.184927,-0.070194,-0.150946,0.167886,0.051378,-0.244569,0.02876,-0.140786,-0.067497,0.004129,-0.2393,-0.294103,-0.379044,0.192039,0.025169,0.338439,0.098392,-0.019024,-0.038953,0.07859,-0.113566,-0.154178,-0.071017,-0.13513,0.000627,-0.116829,-0.444205,-0.180723,0.132562,-0.184477,0.083342,-0.011394,-0.034729,0.003921,0.365279,0.162634,0.093677,-0.052727,-0.088483,0.023861,0.085235,0.098806,-0.210009,0.168412,-0.109947,-0.23005,-0.17934,0.015099,0.293205,0.241673,0.150856,-0.005948,0.022759,-0.079393,-0.160833,-0.391796,0.071738,-0.100462,-0.153763,0.112393,0.08484,-0.215023,0.084862,0.014919,0.132456,-0.160055,-0.171418,0.204848,-0.162605,0.00312,0.064791,-0.03684,-0.106394,0.007158,0.182153,0.198616,-0.044673,-0.068171,0.095135,0.091492,0.18163,-0.057002,-0.057501,0.048106,-0.213418,0.060504,0.032922,-0.015573,-0.027974,-0.150111,0.040621,-0.038099,0.063879,0.010498,-0.048172,0.17487,0.023494,0.111247,0.072969,-0.015712,0.159471,-0.039685,-0.201414,0.008609,-0.143894,0.515734,0.125823,0.261306,-0.148766,-0.200109,0.079055,0.087791,0.03069,-0.011898,0.178068,0.05034,-0.185245,-0.095621,0.035198,0.098195,-0.099705,-0.066489,-0.059611,0.036876,-0.184778,-0.137409,-0.133809,0.150663,0.086611,-0.030615,-0.073921,0.198188,0.030811,-0.276184,0.11376,-0.31845,0.007832,-0.199359,-0.0115,-0.215751,-0.001367,0.242653,0.083938,-0.07724,-0.065857,0.057455,-0.115908,-0.024645,-0.118615,0.006766,0.084733,0.054396,-0.162258,0.025348,-0.097696,-0.044101,0.032719,-0.235126,0.198154,-0.000613,0.03671,0.080214,-0.041566,7.5e-05,-0.081392,0.18994,0.058264,-0.169998,0.110438,-0.023033,-0.156567,0.07665,-0.027498,0.036341,0.058443,-0.087603,-0.084108,-0.074704,0.294202,-0.198333,-0.036776,0.096188,0.008226,0.145504,0.060509,0.187848,-0.018645,0.317232,0.034056,0.019371,0.07273,-0.0224,0.217166,-0.201432,-0.004836,-0.147149,-0.067092,-0.225481,0.224322,0.060063,0.037681,0.086182,0.02983,-0.319909,0.022706,0.138213,-0.004817,-0.439648,0.115029,0.027557,0.127555,0.001232,0.045699,0.161516,0.086301,0.123032,0.008664,-0.159687,-0.022574,0.062248,-0.038286,-0.050108,0.141162,-0.023757,0.264699,-0.025726,-0.105469,0.070929,0.157631,-0.129577,-0.183145,-0.230239,-0.033707,-0.292806,-0.038975,-0.040937,-0.197549,0.382732,0.180428,-0.065336,-0.209722,0.032054,0.103021,-0.043234,0.223909,0.12976,-0.040084,-0.208703,0.237119,-0.031939,0.114304,-0.128863,0.217328,-0.089626,-0.087412,0.074963,0.206201,0.139286,0.222507,-0.083877,0.194512,0.013591,0.043124,0.123421,-0.040156,0.073581,0.087929,-0.118627,0.185469,0.071523,0.017981,-0.118404,-0.074715,-0.071236,0.107981,-0.27291,-0.072102,0.036858,0.17505,0.071678,0.184,-0.100362,-0.100722,-0.216829,-0.00785,0.032164,0.035346,-0.092359,-0.137417,0.156013,0.047974,-0.083829,-0.175519,0.139545,0.161613,0.236408,-0.068432,0.035338,-0.014363,-0.217486,0.358228,0.107625,-0.094496,-0.169813,0.042156,-0.042752,0.045388,-0.190696,0.087279,0.270362,-0.120805,0.082633,0.168733,0.249721,0.036045,0.052231,-0.215327,0.059103,-0.072578,-0.046897,0.282913,0.123792,0.040645,-0.030339,0.077819,-0.202283,-0.226945,0.256554,0.177746,-0.36776,-0.477651,0.25278,0.008928,0.254726,-0.685707,0.261368,0.325685,0.106587,0.023003,-0.42105,-0.108543,0.215223,-0.050227,0.097294,0.499538,-0.1345,-0.084433,-0.078072,-0.256571,-0.263794,0.059932,-0.183803,-0.049522,0.452268,0.118039,-0.414502,0.175517,-0.254174,0.074026,0.458706,0.250793,-0.083486,-0.017642,-0.14826,0.520329,-0.035355,-0.172694,0.215129,-0.014503,0.045026,0.051719,0.020484,0.39459,-0.048365,-0.536434,-0.094374,-0.214582,0.172286,-0.691435,-0.041726,-0.024849,0.095974,-0.385093,-0.144474,0.047843,-0.015436,-0.059205,0.21376,-0.16666,0.164383,-0.095359,0.091129,-0.063358,-0.032873,0.215605,0.252235,-0.041381,-0.242661,0.148785,0.118294,0.034578,0.01818,-0.057013,0.225793,-0.133476,-0.149543,0.052756,-0.210759,-0.258525,-0.168706,-0.215901,0.076742,0.067425,0.006999,-0.015384,0.00248,0.055828,0.007825,0.061498,0.161776,0.01894,-0.001322,-0.115271,-0.133164,-0.127922,0.292487,-0.073491,-0.002593,-0.232915,-0.108596,0.181905,0.064507,0.010118,0.134331,0.069091,0.227121,-0.29415,-0.215123,0.109495,0.099631,0.020792,-0.18733,0.094256,0.014152,0.027593,0.023038,0.187742,0.043785,0.062534,0.079519,-0.004018,-0.30279,0.178328,0.019377,-0.061015,-0.064177,-0.012907,-0.161702,-0.106394,-0.113886,0.267666,0.042961,-0.265434,0.124418,0.020863,0.090286,-0.013603,-0.306959,-0.027216,0.208942,0.040711,0.169742,0.369588,0.0732,0.007618,0.138614,-0.17561,-0.0099,-0.015527,-0.200385,0.035107,0.15931,-0.244306,-0.218117,0.118192,0.080896,0.058462,-0.01223,0.067671,-0.216056,-0.151134,-0.287896,0.244652,0.219625,-0.234467,-0.160509,-0.048678,-0.136941,-0.038765,-0.136039,0.256659,0.216571,0.008108,-0.081208,0.040673,0.213018,0.00982,-0.085381,-0.077709,0.002389,-0.060405,0.166374,-0.092489,0.044582,0.049196,-0.069202,0.079915,-0.093131,0.044652,0.072011,0.022418,0.050471,-0.177679,-0.272064,0.124919,0.201619,-0.144282,-0.114082,0.104886,0.117624,0.075927,-0.151415,-0.025623,0.106016,-0.129041,0.083507,0.171636,0.12933,0.07964,0.001544,-0.109996,-0.0114,0.098241,-0.010429,0.104636,0.047602,-0.23048,0.034519,0.068374,0.147096,0.143092,-0.018809,0.01036,-0.177397,0.094155,-0.136485,0.054385,0.021102,-0.077152,-0.081283,-0.16399,0.081022,5.7e-05,-0.023582,0.117165,0.204078,-0.132566,-0.105841,-0.026318,0.100584,0.018765,-0.049118,0.027544,0.125396,0.086819,-0.182805,0.349496,0.162664,-0.042568,-0.047869,-0.025653,-0.103004,-0.031816,0.103716,-0.003297,-0.219877,-0.088959,-0.139189,-0.271451,-0.052749,-0.129376,-0.049239,-0.050776,-0.105733,-0.136988,-0.103479,-0.120138,-0.066776,-0.16558,0.14155,0.224256,-0.194594,-0.326194,-0.029405,0.030001,-0.146423,-0.053015,-0.053875,-0.093616,-0.080237,0.442234,-0.101251,0.27315,-0.261649,-0.457974,0.017102,-0.014292,0.147317,-0.124457,-0.051344,-0.120391,0.158299,-0.300383,0.066044,-0.024805,0.07283,-0.099448,0.139909,0.011974,-0.214956,-0.093896,-0.336028,0.193717,-0.114792,-0.052993,0.082654,-0.055997,-0.341362,-0.074188,-0.592536,0.495202,0.068164,-0.175355,0.450001,-0.416955,-0.2572,-0.388273,0.183084,-0.019429,-0.19577,0.027412,0.171715,-0.406071,-0.318905,-0.086549,-0.171867,0.046224,-0.304034,-0.143845,7.9e-05,-0.246078,-0.0284,0.207026,-0.025168,0.361349,-0.05485,-0.966678,-0.203414,-0.10942,-0.1214,-0.158479,0.086776,-0.063644,0.053802,0.647187,0.168928,0.411681,-0.47393,-0.490708,0.259063,0.03596,0.396253,-0.091528,0.238437,0.139621,0.022712,-0.257781,-0.005734,0.100208,0.213476,-0.139805,0.188654,-0.067611,-0.329636,-0.043101,0.074511,0.033105,-0.174099,-0.150753,0.257603,-0.276154,-0.418179,0.094445,-0.065941,0.222098,-0.103153,0.168397,0.10328,-0.220109,-0.287249,0.027677,0.142979,-0.067002,-0.016821,-0.148366,-0.270121,-0.175346,-0.186803,0.036292,0.125571,0.127286,0.138639,-0.156856,0.069196,-0.253278,-0.003995,-0.084753,0.013598,0.265928,-0.263943,-0.044514,0.014576,-0.128199,-0.111868,0.023046,0.07852,0.111134,-0.005668,0.302244,-0.023676,0.280888,-0.231415,-0.157818,-0.028933,0.020862,-0.057629,-0.146835,0.102485,-0.020875,0.262224,-0.066465,0.055869,-0.121929,0.126539,0.162959,-0.008029,0.077761,-0.239196,0.006036,-0.327598,-0.126409,-0.15566,-0.024026,-0.06143,0.040526,-0.148056,0.046312,0.19417,-0.330559,-0.089157,-0.101625,-0.072935,-0.024676,0.298181,0.24835,-0.403476,-0.066585,0.388057,0.280277,-0.162414,0.145853,0.07217,0.630023,-0.267237,-0.211609,-0.029612,-0.1133,0.515208,-0.064793,-0.297739,0.119745,-0.176124,-0.525401,-0.146929,0.202463,0.062234,0.232983,0.244376,0.04485,0.137763,-0.003297,-0.565019,0.003581,0.374385,-0.239004,0.321348,-0.040461,-0.278465,-0.272581,0.11633,-0.043163,0.152508,-0.403489,0.005451,0.297098,-0.18999,0.013394,0.12868,-0.010844,0.063337,-0.210989,-0.027609,0.499175,0.068248,0.061058,-0.273791,0.465977,0.092229,0.202055,-0.093224,0.257054,0.060115,0.007014,-0.011999,0.094938,-0.221106,0.060517,-0.226562,0.047168,-0.293796,0.016349,-0.070053,-0.131853,-0.38254,0.001286,0.176268,-0.077293,0.039139,-0.102391,0.204411,-0.089608,0.194179,0.009011,0.107112,-0.164699,0.08535,0.094035,-0.002129,0.013105,0.085887,-0.061199,-0.316282,0.1422,-0.087323,0.205678,-0.035539,-0.035974,-0.03442,0.090788,-0.092904,0.111572,-0.200655,0.201822,-0.396254,-0.104709,-0.204677,-0.06903,0.176421,0.045625,0.03256,-0.112796,0.071911,-0.029185,-0.156928,-0.002602,-0.019477,-0.073224,-0.129363,0.033997,0.076267,-0.111075,0.038489,0.038799,0.101848,-0.021354,0.209529,-0.555277,-0.072046,-0.185854,-0.101295,0.088746,0.279784,0.275748,-0.305675,-0.095755,0.326011,0.136489,-0.162145,0.132041,0.111725,0.478355,-0.183614,-0.264721,0.024369,-0.156566,0.4969,-0.115872,-0.096962,0.175932,-0.016841,-0.481556,-0.256053,0.151795,0.107339,0.173268,0.052954,-0.04973,0.067839,0.070363,-0.432757,0.01094,0.123782,-0.315404,0.201814,-0.033576,-0.100627,-0.264677,0.180623,0.085776,0.194193,-0.531346,0.004952,0.226718,-0.150467,0.005423,0.162202,-0.017328,0.050168,-0.262633,0.098712,0.606363,0.053186,0.239396,-0.27071,0.267221,-0.261209,0.135825,0.080236,0.314686,-0.046286,0.16509,-0.123377,0.008011,-0.199392,0.119244,0.148172,-0.130622,0.027334,0.002767,0.189989,0.026533,0.314367,0.03098,-0.100212,0.080667,0.032766,0.025229,-0.069972,0.146901,0.238351,-0.050751,-0.095062,-0.068854,0.079016,-0.031024,0.082081,-0.048173,0.055689,0.043304,0.251622,-0.046612,0.020546,-0.09112,-0.090286,0.025476,-0.047095,0.067718,0.036537,0.033594,-0.091104,-0.047257,-0.049134,-0.071668,0.054287,-0.146544,0.020131,0.128821,0.050788,0.062193,-0.042864,-0.07751,0.063868,-0.176914,-0.030876,-0.082823,-0.126436,0.023696,-0.061125,-0.00551,-0.185936,0.113771,0.166907,0.108519,-0.265577,0.428616,-0.103408,0.057497,0.708768,-0.383996,0.001341,-0.159229,0.322855,0.051869,-0.178557,0.255041,0.09413,-0.20871,-0.111025,0.05807,-0.076467,0.133109,-0.164534,-0.081324,-0.197545,-0.225054,-0.063364,0.251157,0.076382,0.053443,-0.187465,-0.29417,-0.262497,0.006843,0.106037,-0.147872,0.356947,-0.154624,0.05227,0.621425,0.046167,0.322167,-0.020544,-0.396776,0.137633,-0.077904,0.488799,0.005935,0.148741,0.244951,-0.004061,-0.106337,-0.020699,0.062684,0.050987,-0.009423,0.082763,-0.142687,-0.093064,-0.076776,0.021635,0.094026,0.127309,-0.11738,0.40706,-0.281459,-0.30652,0.056789,-0.156903,0.636758,-0.011162,0.144022,0.151298,-0.124843,-0.367142,-0.480016,0.36535,-0.058015,-0.486598,-0.372244,-0.08873,0.037766,0.006028,-0.655527,0.120716,0.167884,0.077341,0.106465,-0.714695,0.152463,0.239819,-0.153403,0.09331,0.655612,0.040109,-0.259859,-0.083809,-0.192741,-0.256031,0.030617,-0.017452,-0.114222,0.641575,0.107592,-0.320729,0.080561,-0.228251,-0.00124,0.262164,0.326878,-0.318518,0.113998,-0.361752,0.684295,-0.026664,-0.588857,0.088384,0.181279,-0.255241,0.080928,0.085773,0.368648,-0.213589,-1.010875,0.132713,-0.259882,0.507158,-0.348284,0.134149,-0.188727,-0.05913,-0.426174,-0.094657,-0.214238,0.097871,0.011244,0.087885,0.111294,-0.059811,0.026126,-0.019674,0.029239,-0.251432,-0.064819,-0.04294,0.126879,0.336558,0.043852,0.047002,-0.067377,-0.144326,-0.080372,-0.038985,-0.052749,0.056316,0.00938,-0.118793,-0.15117,-0.108786,-0.015931,-0.089595,0.143599,-0.139199,0.09603,-0.149756,-0.227281,0.188616,0.020709,-0.087555,-0.197411,0.062758,0.10523,0.251208,0.037804,0.197049,-0.01728,0.190033,0.295548,0.004021,-0.1319,0.076297,0.030809,0.005647,0.273489,-0.15191,0.025958,0.15292,0.035801,0.09548,0.009478,0.163846,0.148317,0.193272,-0.298804,-0.133342,0.120193,-0.078327,0.082042,-0.114096,-0.205681,0.441318,-0.172908,-0.101137,0.023484,-0.11786,0.100397,-0.118588,0.10725,0.080924,0.036093,-0.107323,0.163302,-0.006031,-0.016536,-0.083184,0.101965,0.089044,-0.032968,0.129554,0.084167,-0.205007,-0.261115,-0.237667,-0.044395,-0.253782,0.057946,0.097063,-0.049897,0.026808,0.111477,-0.024748,0.214112,0.102252,-0.140844,0.128831,-0.055903,0.036083,-0.140957,0.55766,-0.027624,0.2046,-0.048655,-0.264143,0.059185,-0.081329,0.030263,-0.135891,0.155937,0.06708,-0.254791,-0.141472,0.113897,0.241525,0.010722,0.085508,-0.109741,0.06214,-0.198967,0.057485,-0.087592,0.020615,-0.331217,-0.13914,0.112554,-0.498312,0.331123,0.161439,0.398293,-0.086492,-0.073221,0.046058,0.115324,0.031454,0.446779,0.072389,0.184864,-0.420538,-0.093302,0.229581,0.192584,0.07707,0.177663,0.092393,-0.077246,0.183281,-0.008156,0.068501,0.578441,0.042429,-0.109852,0.233493,-0.043783,-0.056732,0.003932,-0.052911,-0.405283,-0.118906,-0.267523,0.224286,0.290726,0.029742,-0.135256,-0.039536,0.210873,-0.08768,-0.001139,0.213488,0.257298,0.116392,-0.196487,-0.057553,0.014631,-0.172343,-0.085661,0.39743,0.122048,0.011231,0.050972,0.171863,0.106581,-0.166911,0.072176,0.17609,0.157449,-0.151832,0.046235,-0.048265,0.153082,0.132579,0.103188,-0.261027,-0.095563,0.025201,0.044054,-0.096148,0.056634,-0.083398,0.125142,0.261981,-0.240924,-0.125653,-0.114804,-0.008403,0.05633,-0.165545,0.047179,0.045929,0.198554,0.046089,0.079467,-0.040091,-0.016156,0.02952,0.036916,-0.219439,0.215222,-0.130353,0.112738,0.234559,-0.11234,-0.208889,0.058912,0.063784,0.100807,0.150694,0.179598,-0.186381,-0.173015,-0.267524,0.216008,0.108747,-0.01703,0.018359,-0.003983,-0.106798,0.10438,-0.267031,0.008334,0.153371,-0.133274,0.177743,0.215726,0.221003,0.026326,0.083114,-0.086425,-0.172472,0.007099,0.108997,-0.321924,-0.194735,-0.102438,0.155874,0.001397,0.364644,0.313278,0.055732,0.117021,0.186423,0.216556,0.278935,0.095308,-0.104929,0.134,0.133695,-0.001227,0.108242,0.132856,0.233497,0.365471,0.001881,-0.052688,-0.044957,-0.169617,0.358615,0.191405,0.118108,-0.078968,0.204667,-0.218896,0.275716,0.243269,-0.07295,-0.019328,0.284561,-0.057355,0.163541,0.182737,-0.139898,-0.196779,-0.21995,0.188144,-0.007297,-0.013504,-0.037758,0.125595,0.151926,-0.010273,-0.007538,-0.219258,-0.013767,-0.003323,-0.143157,-0.097104,0.311965,-0.083616,-0.112792,0.014074,0.045683,0.249336,0.249202,-0.079372,-0.053217,0.096384,-0.107808,-0.159918,0.074558,-0.208566,-0.019218,-0.102106,-0.029041,-0.065398,0.10968,0.148305,0.193476,-0.235582,-0.269859,0.150405,-0.110181,-0.086399,0.112323,-0.074853,0.227761,0.036478,0.065526,0.029576,-0.044279,-0.046229,-0.079766,-0.151564,-0.030059,0.041795,0.079669,-0.082323,0.073259,0.161365,-0.247969,0.139205,0.138818,0.153138,-0.091488,-0.111542,-0.231434,0.055424,-0.03658,0.029664,0.083584,-0.308372,-0.156862,0.12086,0.108029,0.064548,0.141337,0.05597,0.191602,0.044745,-0.224812,0.15687,-0.170426,-0.079133,-0.189504,0.115186,-0.157751,0.132273,0.124887,0.085756,-0.115952,-0.00706,-0.055829,-0.056172,-0.459042,-0.153837,0.235303,0.17948,-0.083455,-0.037692,0.043214,0.344347,0.174258,0.12696,-0.126502,0.05732,-0.530286,-0.178444,0.019928,0.049885,-0.147637,0.137264,0.110626,-0.204532,0.23792,0.213356,-0.065409,0.430388,0.244013,-0.108821,-0.017771,0.043638,0.115534,0.279151,-0.128455,-0.382242,-0.126088,-0.10796,-0.085989,-0.151325,-0.109826,0.007836,-0.42194,0.064515,-0.068782,0.00673,0.314515,0.263882,-0.153005,-0.341669,-0.129514,-0.184779,0.09184,-0.018712,0.18534,0.329052,-0.014972,0.183241,-0.014211,0.047613,-0.228756,0.218123,0.033559,0.073338,0.196723,-0.017106,-0.18147,0.005841,0.59375,-0.156566,-0.217234,0.181718,-0.131678,0.012872,-0.072833,0.038502,-0.278057,-0.178467,0.217127,0.066164,0.291765,0.0287,0.097184,-0.054218,0.128201,-0.099736,-0.14995,-0.091837,-0.095615,-0.149913,0.141736,-0.150691,0.01937,0.255448,-0.257831,0.214275,0.101743,0.228818,-0.008615,0.246233,0.186527,-0.02442,0.17025,-0.051234,-0.14316,0.063114,0.375549,0.066833,0.438355,0.086114,-0.113038,-0.022321,-0.007086,0.204378,0.161625,0.332675,-0.072227,0.008068,-0.15018,-0.095492,0.066376,-0.408821,0.09649,-0.108556,0.323584,-0.098727,-0.20677,0.124663,0.250062,-0.629978,-0.067436,-0.075778,-0.226994,0.160365,0.387015,0.331396,-0.291453,-0.096941,0.38174,0.278338,0.066775,0.09628,0.2844,0.562238,-0.13431,-0.229918,-0.05238,-0.142082,0.696176,-0.318474,-0.234918,0.114825,-0.144892,-0.45112,-0.182452,0.258681,0.049473,-0.051182,0.151583,-0.206741,-0.16178,0.178666,-0.588254,-0.199974,0.073562,-0.21548,0.087479,0.070539,-0.1584,-0.169441,0.205338,-0.0269,0.263146,-0.630442,-0.006619,0.620467,-0.127798,-0.068272,0.121442,-0.0945,-0.061877,-0.459084,0.158909,0.986917,-0.215034,-0.005299,-0.364633,0.284168,-0.361457,0.097015,0.074304,0.317493,-0.056929,-0.323624,0.065981,0.10808,-0.182358,0.062787,0.129835,0.139147,-0.09821,0.073143,0.114893,0.031666,0.022641,0.235125,-0.044472,-0.104668,0.176533,0.028704,0.168507,0.028047,0.029932,0.297831,0.091007,0.068972,-0.005058,-0.271914,0.497251,0.44553,0.123772,-0.083937,-0.040056,0.131839,-0.096542,0.195758,0.192542,-0.226034,-0.066065,-0.106304,0.190643,0.256967,-0.079339,-0.016256,-0.142331,0.152879,-0.119236,-0.060429,-0.073704,0.073765,0.143886,-0.055429,-0.172553,0.006662,0.039559,0.028768,0.017329,0.127375,0.357186,-0.195977,-0.031799,-0.130083,-0.115384,-0.071242,0.193308,0.027725,-0.186131,0.081191,0.06546,-0.189455,0.052401,0.023958,0.122389,-0.313821,0.150138,-0.018395,0.071284,0.107564,0.338683,0.05393,-0.267397,0.154465,-0.076979,-0.057033,-0.065579,0.02791,0.03151,-0.132753,-0.002086,0.231617,-0.068941,0.122409,-0.143987,-0.197863,0.00567,-0.193936,0.208834,-0.145431,-0.051072,-0.138414,-0.081193,0.047502,0.025452,0.006636,-0.141767,0.012386,-0.069416,-0.001864,0.079252,0.090747,-0.226434,-0.09394,-0.233713,-0.020181,0.05601,-0.003855,-0.019297,-0.267816,0.012542,-0.091637,-0.038669,0.140549,-0.082488,0.084049,-0.132582,-0.039617,-0.292382,-0.100266,0.086618,0.101288,0.002788,-0.167808,0.123041,0.049265,-0.204839,0.183127,0.099328,0.085085,-0.191425,-0.156728,-0.074941,0.058355,-0.03105,0.175089,0.017336,0.143815,-0.230109,-0.159182,0.012988,-0.047917,-0.128127,0.150515,-0.105555,-0.038962,-0.030336,-0.076448,0.274408,0.443561,0.127574,0.181076,0.105575,0.117818,-0.260821,0.108633,0.003294,-0.307609,-0.066177,-0.271911,0.330671,0.133407,-0.100681,0.181717,-0.335875,-0.10133,-0.153383,0.118343,0.132986,0.176917,-0.164847,-0.17424,-0.125741,0.100337,-0.121728,-0.048189,0.140351,0.256942,0.210718,-0.120052,0.192497,0.059679,0.121256,0.006675,-0.175058,0.091097,0.379629,-0.284554,0.149987,0.105893,-0.501504,0.284055,0.127889,-0.020193,-0.168724,0.059733,-0.027917,-0.161711,-0.284248,0.182322,0.516707,-0.046001,0.239121,0.001254,0.042357,-0.119752,0.16734,-0.260123,-0.214214,-0.20341,-0.090773,-0.241709,-0.14988,0.026605,0.17883,0.123465,-0.080292,0.174823,-0.421051,0.046419,-0.117346,-0.305153,-0.091864,-0.204933,0.11231,0.165782,-0.088248,0.173516,-0.125685,-0.092034,-0.015119,-0.02012,-0.009909,0.291481,0.060071,-0.03131,0.095413,0.095342,-0.004693,0.016781,0.142604,0.219334,-0.229824,-0.215112,-0.145865,0.073984,-0.332372,0.127704,0.191133,0.109436,-0.057982,0.121017,0.187151,-0.202099,-0.100817,-0.034299,-0.171422,-0.099838,0.068035,-0.053016,-0.116937,0.037157,-0.121224,-0.062399,0.314014,-0.136433,-0.195362,-0.00817,-0.025919,-0.155295,0.031644,-0.332617,0.059592,-0.125423,0.071548,-0.042962,-0.440687,-0.306063,0.017736,-0.171273,-0.002331,-0.020569,-0.086977,-0.111787,-0.080881,0.252566,0.009725,0.039469,-0.164731,-0.419666,0.020599,0.194311,0.464267,-0.084964,0.128949,-0.285015,0.018723,-0.224951,0.013931,-0.066511,0.232542,0.000293,0.0178,-0.046802,-0.059435,-0.044566,-0.553091,0.215668,0.077087,-0.034356,-0.010407,0.14736,-0.223194,0.075112,0.058986,-0.114417,0.078763,0.14844,-0.181784,0.210942,-0.043931,0.068201,-0.038883,0.115676,-0.076596,-0.196669,-0.21696,0.195837,0.17718,-0.138447,-0.036936,0.015121,0.104999,-0.032327,-0.040963,-0.022959,-0.024831,-0.000985,0.063215,0.065059,0.105688,0.027769,0.031905,-0.152123,-0.121846,-0.028705,-0.042832,-0.020285,0.137209,-0.162507,-0.047944,-0.051725,-0.052879,0.170374,0.085975,0.012812,-0.253146,0.044428,-0.140848,0.028905,0.223802,0.03618,-0.060812,-0.016812,0.013468,0.008997,-0.244072,0.008816,0.080186,-0.145143,0.107339,0.022093,0.182828,-0.033886,-0.086272,0.144112,-0.065293,-0.085661,0.119429,0.039067,0.027454,0.101407,0.178844,-0.079056,-0.233582,0.121676,-0.244257,-0.055762,-0.147332,-0.102946,-0.152126,0.043306,0.168452,-0.072142,-0.025788,0.121827,-0.06687,-0.026683,0.041369,0.124528,-0.035635,-0.126383,0.01014,-0.07873,-0.023616,0.156643,-0.042864,0.177015,-0.258766,0.286178,-0.044611,0.168646,0.10641,0.076756,-0.021192,-0.023633,0.184079,-0.151426,-0.139587,0.061585,0.033104,0.000781,0.014938,-0.030949,0.267235,0.043108,-0.046811,0.016781,0.014365,0.131119,-0.143077,0.130865,0.062798,0.049025,-0.008277,-0.09983,0.12744,0.00221,0.098746,0.101461,-0.177089,-0.129431,-0.074994,0.051393,0.075033,0.139426,-0.083253,0.08282,-0.146766,-0.133639,-0.029689,0.117009,-0.239129,-0.182822,-0.239503,0.209861,-0.022736,-0.369408,-0.045849,-0.087016,-0.034755,-0.042854,-0.422332,0.109069,0.28523,0.172988,0.10885,0.467881,0.225537,0.125992,-0.006409,-0.23023,-0.215045,0.011915,-0.134646,0.142808,0.248546,-0.198454,-0.331558,0.167267,-0.07498,-0.12844,-0.001016,0.087123,-0.280699,-0.162533,-0.173136,0.147348,0.062233,-0.114202,-0.015485,-0.185096,-0.072439,-0.055473,-0.220211,0.439426,0.062782,-0.046415,-0.118732,0.199792,0.110602,-0.270745,-0.001329,0.010306,-0.110764,-0.137839,-0.108753,-0.087312,0.028378,0.018216,0.347698,0.012913,0.066009,-0.183824,0.156149,-0.025306,0.002224,0.025706,0.325739,0.003608,0.048602,-0.034149,0.034504,0.029819,-0.215546,-0.087371,-0.084019,-0.071705,-0.161233,0.303838,-0.151471,-0.108306,-0.137646,-0.189753,0.009262,0.118616,0.24319,0.010436,-0.002863,0.007687,0.13717,0.123759,-0.005438,-0.160493,0.115904,-0.003872,0.15333,-0.102063,0.417471,0.111419,-0.019702,-0.001991,-0.344049,0.098877,-0.078311,0.334159,0.075488,0.077607,0.094556,-0.319006,-0.034888,-0.007743,0.208962,0.031631,0.071134,0.120384,0.145881,-0.354727,-0.036965,0.109157,0.168877,-0.426492,0.135853,0.072808,-0.050128,0.088383,0.296416,0.176014,-0.181611,0.043457,0.268555,0.021464,-0.134254,0.08054,0.124584,0.210945,-0.13083,0.06212,-0.064307,-0.068813,0.378767,-0.134356,-0.219784,-0.058521,-0.175893,-0.179297,-0.419205,-0.07619,-0.106053,0.140524,0.076533,-0.03814,0.005015,0.01102,-0.191817,-0.126891,0.085482,-0.361098,0.182242,0.052228,0.033287,-0.108485,0.409225,-0.006949,0.192717,-0.230894,0.036542,0.396384,-0.055572,-0.077329,0.193849,0.060875,0.114611,-0.116254,0.029392,0.168538,-0.115515,0.165427,-0.122421,0.269998,-0.198986,-0.125077,-0.003719,0.216469,-0.224987,0.429451,0.137866,0.08591,0.01214,-0.026892,-0.358029,-0.317902,0.149718,0.010988,-0.18707,-0.122073,-0.016983,0.06899,-0.058153,-0.311391,0.197143,0.000712,-0.050185,0.109447,-0.325254,0.015853,0.081275,-0.031625,-0.043262,0.493914,0.078586,-0.115795,0.078654,-0.182736,-0.233648,0.007729,0.035131,-0.140806,0.483288,-0.035848,-0.316241,0.208947,-0.287093,-0.003265,0.269664,0.236906,-0.322292,0.05813,-0.20002,0.495343,0.025049,-0.182193,0.073014,0.062272,-0.221756,0.118085,-0.00086,0.282821,0.010444,-0.444292,0.022631,-0.152196,0.350752,-0.429264,0.017128,-0.15075,0.103626,-0.336724,-0.130405,0.012588,-0.119749,-0.027132,-0.023529,-0.065474,0.236277,-0.137135,0.205564,-0.135543,0.219378,0.260119,0.45164,-0.018081,-0.293477,0.146248,-0.19878,0.0031,0.060752,-0.030158,0.169246,-0.092239,-0.030523,-0.032092,0.017421,0.067429,0.077757,0.010187,0.206523,0.018325,0.285252,-0.299442,-0.053637,-0.149736,0.034753,0.005366,-0.052458,0.001406,-0.157912,-0.016022,0.002544,-0.17479,0.216785,0.082599,-0.136623,-0.030067,-0.176003,0.005208,0.067944,-0.006874,0.107368,-0.332169,0.250502,-0.207268,-0.173615,0.028984,-0.063349,-0.070023,-0.075642,0.02898,-0.107392,-0.030961,0.131107,-0.099805,-0.209946,-0.083952,0.087666,-0.06589,0.183231,-0.243571,0.223169,-0.0352,0.206737,0.001208,0.184987,0.034608,0.334793,-0.081598,-0.274212,0.087016,-0.094003,-0.042436,-0.158612,-0.127402,0.174587,-0.070621,-0.205146,0.179441,-0.098577,-0.015283,0.102214,0.0074,0.054247,0.071916,0.085152,-0.069933,-0.010179,-0.218531,0.052819,0.193309,0.070379,0.066286,-0.120172,0.033437,-0.072971,0.026451,0.125726,-0.1325,-0.017355,0.017671,-0.054002,0.022317,-0.023033,0.197713,0.199202,0.099471,0.272445,-0.133436,-0.150188,0.039174,0.139944,-0.103081,-0.119377,0.069709,-0.049016,-0.018861,-0.003571,0.140144,-0.077249,0.237518,-0.05507,0.003217,0.270195,-0.376909,-0.0712,-0.199495,0.26477,-0.123177,0.036637,-0.040428,-0.005644,-0.331568,-0.162786,0.038498,-0.053208,0.186557,-0.060501,-0.117055,0.04612,-0.543293,-0.076783,0.174069,-0.03494,0.260497,-0.425177,-0.823673,-0.198762,0.032468,-0.11709,-0.308619,0.158172,-0.358743,-0.02569,0.567632,0.235938,0.19852,-0.298389,-0.538205,0.188036,0.036446,0.5648,-0.164772,0.25277,-0.045465,-0.070649,-0.071,0.122234,0.119494,0.220472,0.013747,0.057658,-0.048261,-0.147915,0.022788,-0.248911,0.154094,-0.129908,0.064964,0.06821,-0.014341,-0.178908,0.009132,-0.232618,-0.062804,0.084071,-0.017509,-0.098999,-0.019537,0.193735,-0.187153,0.16555,0.092774,0.065507,0.026027,0.097759,0.021267,-0.237462,0.037378,0.042447,-0.005359,-0.001661,0.134801,0.067115,0.183863,-0.156541,-0.039243,0.100252,0.084419,0.239704,0.047179,0.176451,-0.149152,0.131463,-0.021813,-0.208984,0.019831,-0.024553,-0.058462,0.012304,-0.027438,-0.136185,0.073125,0.037887,0.005349,-0.218528,0.091398,-0.334144,0.094138,-0.066083,0.054085,0.10453,-0.003311,0.011492,-0.056061,0.108625,-0.041309,-0.132281,0.070127,0.186066,-0.080311,-0.014392,-0.112483,-0.014887,-0.100637,0.217109,-0.034467,-0.095686,0.305944,-0.026242,-0.162372,-0.200645,0.058479,0.116606,-0.218501,0.170392,0.049392,0.240102,0.119983,0.175922,-0.0412,-0.23146,-0.089232,-0.073363,-0.120552,-0.143327,-0.0524,0.207007,0.073962,0.130947,0.149941,0.118379,0.055534,0.02458,-0.170956,0.140714,0.015887,0.106083,-0.153575,0.010494,0.0537,-0.199761,-0.022324,-0.149212,0.167604,-0.270221,-0.039578,-0.013161,-0.034515,-0.231418,-0.124673,-0.526147,-0.518061,-0.087385,-0.026919,0.018277,-0.059844,-0.098732,-0.434106,0.18683,-0.038568,-0.230621,0.111568,-0.232991,0.155278,-0.253189,-0.033785,-0.183343,0.046051,0.053268,0.021464,-0.080685,0.172471,0.081739,-0.008254,0.194441,-0.111543,-0.219194,-0.046283,-0.050436,-0.062253,0.007263,0.027525,-0.184355,0.002029,0.160795,-0.029052,-0.148692,-0.009094,-0.039268,0.02068,-0.183032,0.075474,0.128952,0.068427,-0.08858,0.176493,-0.102651,0.072931,-0.07875,0.005685,-0.105627,0.176429,-0.047658,0.228033,0.144149,0.119887,-0.087694,-0.038495,0.106386,0.047231,-0.045195,0.192821,-0.202303,-0.123283,-0.061956,-0.024063,0.20624,-0.160628,-0.024343,-0.025517,-0.112924,0.321438,-0.234117,0.185754,0.130721,-0.208188,0.173473,0.009192,0.255579,-0.087473,0.074953,0.085173,-0.082279,-0.007814,0.235023,-0.11653,0.033732,0.10767,-0.212305,0.186302,-0.051306,0.040125,-0.15556,0.02937,0.024004,-0.08476,-0.302581,0.126406,-0.028923,-0.152451,-0.007456,0.052392,0.070045,0.0743,0.050443,0.157234,0.138412,-0.05085,0.212648,0.195248,0.060223,0.095176,0.211037,-0.093691,-0.17397,0.164929,-0.098563,0.140862,-0.030536,-0.083551,-0.031382,-0.092891,0.027525,0.150761,-0.114812,0.036305,-0.404377,-0.114985,-0.108322,0.102694,0.333955,-0.089477,-0.044873,-0.164168,-0.040692,0.048389,-0.126672,0.090048,0.161135,-0.006135,0.002635,-0.076276,-0.053367,-0.053458,-0.001465,0.092816,0.132255,-0.116309,0.068247,0.05219,-0.016755,-0.095888,-0.113377,-0.043238,0.149997,-0.242307,0.195977,0.036732,0.153745,-0.029291,0.139076,-0.115727,-0.279787,-0.032198,-0.019078,0.088215,-0.040021,0.018513,0.209159,0.152996,0.079466,0.042122,0.013816,0.071802,-0.070148,-0.187077,0.126141,-0.12224,-0.039469,-0.241873,0.095958,0.057678,-0.171256,0.123415,0.099698,0.144045,-0.236107,-0.181502,-0.146154,0.08984,-0.033855,0.074859,-0.033617,-0.330987,-0.106968,-0.060556,-0.042991,0.052594,-0.108502,-0.179057,-0.012285,-0.041383,-0.195712,-0.094113,-0.246127,0.052552,-0.186703,-0.029859,-0.277339,0.089256,0.046373,-0.038491],"bias":[0.019687,0.093663,0.077678,0.020649,0.16688,0.01985,-0.025628,-0.041047,0.021589,-0.051963,0.162019,0.113888,0.102927,0.062917,-0.080627,-0.131255,0.068856,-0.049826,0.08294,0.117472,-0.08253,-0.068744,0.036939,0.253017,0.075322,0.054652,-0.132348,-0.19881,0.033301,-0.18633,-0.087903,-0.005549,-0.210244,0.052547,-0.042947,-0.00167,-0.05886,-0.039317,0.150866,0.002663,0.08071,0.088475,-0.124453,-0.090787,-0.105089,0.195709,-0.092786,-0.085795,-0.031098,-0.092327,-0.098662,-0.018568,-0.115369,0.040892,-0.151763,0.158527,-0.016051,0.099981,-0.035674,-0.086241,0.027201,0.037184,-0.013825,0.11217]},{"inputSize":64,"outputSize":64,"activation":"tanh","weights":[0.061792,0.17458,-0.035282,-0.101674,0.120268,0.142042,0.138222,0.235703,0.266677,0.103454,-0.01252,-0.001095,-0.105983,-0.080574,-0.344809,-0.062573,-0.002247,-0.003498,0.131672,-0.117452,0.008745,-0.170033,0.103641,-0.055346,0.105213,0.07713,-0.038154,-0.200956,-0.110077,-0.069429,0.302474,-0.037371,0.266311,0.165929,-0.262465,-0.315349,0.230518,0.063828,0.116664,0.089753,-0.144017,-0.05873,-0.249514,0.222427,0.346592,0.093855,-0.075615,0.136845,0.459793,-0.04113,0.12505,0.019392,-0.12605,0.272644,0.302228,-0.126153,-0.102722,-0.045278,0.042398,-0.191497,-0.204689,0.034544,0.031296,-0.192729,0.080539,0.197942,0.044919,0.161569,0.290115,0.081005,-0.049623,0.18932,-0.094022,-0.218491,-0.063468,0.053235,0.014383,-0.005291,-0.28797,-0.132336,0.013182,-0.153133,0.051489,0.145483,-0.111108,-0.069138,-0.274943,-0.042994,0.063487,-0.219098,-0.12263,-0.045865,-0.172903,0.03655,0.097593,-0.107063,0.1524,0.04439,-0.028027,-0.141845,-0.044431,0.161363,0.056219,-0.05167,0.161567,0.026023,-0.102327,-0.044314,0.212916,-0.022942,0.106462,0.092346,-0.028841,-0.068403,-0.067217,0.08549,-0.242679,0.048831,0.136402,-0.121423,0.145547,0.067318,-0.088077,0.022228,0.037947,-0.090852,0.035861,0.039452,0.163361,-0.109618,0.105379,-0.091542,-0.105915,-0.131499,0.098457,0.283919,-0.106971,0.117832,0.043537,-0.023426,0.208008,-0.143153,0.086796,0.321022,-0.166701,-0.053314,0.153843,-0.323642,0.015889,0.100615,-0.036504,-0.185483,-0.057547,0.044479,0.150452,0.106025,-0.076717,0.301144,0.111948,0.301207,0.029448,0.036857,-0.318646,-0.120126,-0.122079,-0.26649,-0.164594,0.091398,0.082177,-0.044814,0.137734,0.065202,-0.035784,-0.008465,-0.127442,0.148079,0.260305,0.141185,0.173094,0.010349,0.230289,-0.417661,-0.044364,0.025663,-0.124605,0.027275,-0.068699,0.000983,-0.061134,-0.036288,0.131715,0.039177,-0.121935,0.118742,-0.074165,0.02491,0.119679,-0.076072,-0.392141,-0.542441,-0.329964,-0.069724,-0.247758,-0.038104,-0.019985,0.293657,-0.190511,0.181222,-0.066671,0.198801,0.28974,0.038,0.051894,0.15368,-0.012302,-0.190137,0.069812,-0.074183,0.063427,0.570796,0.601796,0.110753,0.056206,-0.042408,0.061905,-0.081843,0.553954,-0.014696,0.132532,0.0397,-0.448997,0.021367,-0.295923,0.033883,-0.220999,0.231936,0.202973,-0.472386,-0.08792,-0.065069,-0.290865,0.517596,-0.030783,0.024558,-0.100142,-0.062359,0.134155,0.030635,-0.066547,0.053857,0.483156,-0.052026,0.003112,0.111443,-0.053957,0.064226,0.229229,-0.149007,-0.099216,-0.096784,0.037309,-0.236966,-0.042388,0.203116,-0.236154,-0.012093,-0.251736,-0.171395,0.055315,-0.30587,0.021197,0.154257,-0.158007,-0.036251,0.133265,-0.203326,0.240183,0.217836,-0.048545,-0.105598,-0.160299,0.021181,-0.024316,0.022778,0.021168,0.212453,0.166442,0.273305,0.091841,0.010004,-0.054396,-0.057224,-0.038088,-0.063265,-0.259168,-0.023763,-0.123898,-0.177348,0.091776,0.164734,0.016193,0.018072,-0.116384,0.091961,0.115007,0.0584,0.082907,0.045156,0.152765,-0.217385,-0.065508,-0.053588,-0.181096,0.039088,0.1362,-0.08684,-0.236525,-0.030334,0.195291,0.098706,0.248431,-0.070992,-0.0214,0.027818,-0.16797,0.076494,0.446306,0.466808,0.323659,0.063442,0.242451,-0.019225,0.013314,-0.263088,0.151644,0.102117,0.11399,-0.201586,-0.395741,-0.07584,0.035142,-0.297796,-0.048522,0.105267,0.025159,0.028284,0.100877,-0.472745,-0.570232,-0.206831,-0.066048,-0.013582,0.048395,0.098684,-0.570156,0.110094,-0.067525,0.01985,0.472965,0.080106,0.43204,-0.010047,0.133956,-0.130721,0.021794,0.524626,-0.157329,0.025533,0.281674,-0.725075,-0.09257,0.024163,0.123171,0.02021,0.010561,0.128005,-0.131866,0.019511,-0.552746,0.031229,-0.058758,-0.039458,-0.046483,-0.021179,0.14751,-0.174775,-0.050672,-0.211285,-0.391847,-0.150388,0.072921,-0.074433,-0.042739,0.234886,-0.231433,0.033975,0.067989,0.194912,0.442217,0.037265,0.059829,0.095617,0.201511,-0.195454,0.130522,0.117199,0.12303,0.160662,-0.238263,0.38158,0.109104,0.233048,-0.047296,0.102318,-0.1783,0.132968,-0.014128,-0.145147,0.0392,0.200638,0.03403,-0.158987,-0.29255,0.098228,-0.262093,-0.072977,0.195497,-0.09737,-0.066791,-0.080894,0.056665,0.046197,-0.04049,0.086456,0.048852,0.261762,0.253682,-0.209789,-0.30447,0.277826,-0.25351,-0.146393,0.008515,-0.044149,-0.016082,0.347674,0.057306,0.092905,0.141304,-0.064306,0.122284,0.010098,-0.103654,0.077069,-0.028511,0.174282,-0.074695,0.228274,0.088295,-0.4352,0.301845,0.210855,0.010045,0.328854,0.00528,0.005981,0.090017,-0.441152,-0.233846,0.09692,0.050245,-0.068611,-0.288995,0.182466,0.361926,0.04676,-0.075378,0.205905,0.100785,0.38849,0.145015,0.118192,-0.364775,0.003812,0.012833,-0.397642,-0.032348,-0.094803,0.078956,-0.136156,0.120151,-0.284669,-0.20118,0.118534,0.095924,0.065117,0.097026,-0.064981,0.204704,-0.125798,0.143448,-0.282483,-0.045903,0.044836,-0.190873,-0.12486,-0.119916,0.103467,-0.154973,-0.090131,0.290043,0.038217,0.149674,-0.131603,-0.246389,-0.097074,-0.441065,-0.126477,0.06481,-0.078133,0.06389,0.229017,-0.143614,0.07777,0.067418,0.096192,0.32464,0.116989,0.028893,0.07018,0.17288,-0.208577,0.091468,-0.033582,0.066263,-0.124349,-0.187769,0.343837,0.081467,0.243401,-0.072306,0.101455,-0.083004,0.249156,-0.147246,-0.23822,0.097863,0.224255,0.051518,-0.279542,-0.101916,0.188502,-0.29496,-0.094391,-0.058176,-0.104326,-0.197841,-0.133681,-0.005615,0.072285,0.01469,0.12204,0.099679,0.17121,0.259955,-0.051239,-0.269993,0.116034,0.009696,-0.092619,0.103644,0.152544,0.022633,0.088057,0.125388,-0.127034,-0.209924,-0.067785,0.195553,0.098026,0.033918,-0.006601,0.107762,-0.168727,0.062373,-0.085749,0.127873,-0.076605,0.070046,0.313632,-0.082446,-0.110992,0.102693,-0.03575,-0.098777,0.010149,-0.15965,0.009282,-0.098227,0.201075,-0.036045,-0.042131,0.076678,-0.16292,-0.142225,0.090774,-0.014512,-0.181506,-0.070932,0.071893,-0.101122,0.083771,-0.186432,-0.028737,0.076312,-0.158765,0.269297,0.064089,-0.094436,-0.186511,-0.251,-0.070188,0.203723,-0.173389,0.125231,-0.035637,-0.004647,-0.100685,0.014968,0.13223,-0.180534,0.0747,0.211776,0.137758,0.004348,0.04512,0.293597,-0.118917,-0.15199,0.051748,-0.27846,0.221294,0.175466,0.224559,0.452155,0.069033,-0.047225,0.013179,-0.058076,-0.241734,0.107174,0.092699,0.004586,-0.10357,-0.354391,-0.045256,0.036174,-0.293772,-0.168634,0.174152,-0.212638,0.018948,-0.074298,-0.011133,0.283063,-0.448562,-0.074876,-0.279022,0.041924,-0.270581,0.118901,-0.395525,0.238167,0.38518,0.001992,-0.096744,-0.171702,0.331295,0.371043,-0.215673,0.25922,0.03149,-0.094603,-0.010288,0.134045,0.042274,0.106878,0.163358,0.124447,-0.124177,-0.159439,-0.177144,-0.406511,0.131523,0.165701,-0.202562,0.074878,0.04821,-0.137417,-0.116152,-0.05741,-0.2278,-0.109884,-0.023913,0.105382,0.068794,0.174772,-0.018274,-0.26304,0.120849,0.121371,-0.056853,0.008468,0.071286,-0.027778,-0.279892,0.248391,-0.005761,-0.005164,0.241233,-0.018065,-0.140699,-0.178168,-0.144078,-0.008468,0.227448,0.226613,-0.157739,-0.02708,0.212033,0.222797,-0.044701,-0.159574,0.005334,0.009025,0.010269,-0.034594,0.050561,-0.217132,0.087992,-0.096723,-0.296852,0.174746,0.161979,-0.002896,-0.238812,0.19962,-0.166913,0.06505,0.063739,-0.008905,0.300767,0.130498,0.027376,0.039618,-0.05476,-0.066433,-0.203582,0.086637,0.068781,-0.005385,-0.160142,-0.077522,0.063877,-0.053049,0.117667,0.2904,-0.074537,-0.112768,-0.003035,-0.01709,-0.004976,0.212694,0.125008,-0.010052,0.054518,-0.123004,-0.21978,0.121464,-0.015604,0.033282,-0.048216,-0.204171,0.091552,-0.088493,-0.197994,0.087183,0.07487,-0.11574,-0.091889,-0.297312,0.123105,0.199476,-0.223265,-0.120557,-0.042027,-0.106221,-0.007186,0.101236,0.036019,0.068699,-0.017776,-0.229634,0.00687,-0.184643,0.154658,0.184226,-0.224535,0.253873,0.162762,-0.10633,0.105286,-0.031502,-0.052974,0.14996,0.079352,0.073796,-0.114184,-0.160109,-0.050702,-0.241147,0.027777,0.135549,-0.181255,0.088371,0.024487,-0.130455,-0.073006,0.086415,-0.121332,0.09013,0.124992,0.104274,-0.07491,-0.188712,-0.134747,-0.097495,0.050574,-0.080684,-0.116918,0.117759,0.08326,-0.196652,0.00945,-0.016951,0.069441,-0.067193,-0.062873,-0.090907,-0.030734,-0.14703,0.038613,-0.060327,0.134278,0.162356,-0.159303,0.001951,-0.033397,0.112045,0.100883,0.247758,-0.033839,0.207089,0.12627,0.098296,-0.151894,0.149425,-0.22174,0.025665,0.016439,-0.00623,0.111492,-0.253702,0.016974,0.13475,-0.057605,0.304674,-0.051043,-0.099672,0.202455,-0.20642,0.053779,0.135094,-0.028281,0.106786,-0.066908,0.018577,-0.066739,-0.017489,-0.08956,0.064322,0.0053,-0.156,0.037125,0.139348,-0.117457,-0.092488,0.001954,0.167971,0.161925,0.186996,0.101391,-0.030378,-0.076845,-0.01228,-0.234483,0.272157,-0.086364,0.071957,0.035631,-0.355712,-0.088557,-0.021921,-0.046236,0.092676,0.115647,-0.153523,-0.011312,-0.115009,0.084063,0.170534,-0.236788,-0.062276,-0.036589,-0.11873,-0.172049,-0.131522,-0.135278,0.064116,0.087736,-0.26056,-0.034734,-0.205017,0.133833,0.225478,-0.198185,0.427265,0.19234,-0.178508,0.0488,-0.147333,0.018876,0.004114,-0.058816,0.177878,-0.183732,0.003243,-0.170671,-0.017347,0.059096,0.225824,-0.149078,0.121503,0.095962,-0.043582,0.135919,0.17565,-0.255234,0.0115,0.071314,0.217266,-0.056159,-0.102023,-0.170284,-0.181877,-0.305089,0.206452,-0.153617,0.165084,0.259267,-0.026346,-0.362689,0.456048,-0.170059,0.277689,0.361758,0.174845,0.013818,-0.025474,-0.228598,0.090097,-0.019348,0.291258,0.100043,-0.396475,0.515452,0.357747,-0.092438,-0.240854,0.144361,-0.147425,0.313269,0.040465,-0.198248,-0.171702,0.069214,0.086468,-0.326806,-0.14329,0.313228,-0.056547,-0.128343,0.189764,-0.148939,-0.204877,-0.060092,-0.068868,-0.062552,0.248568,-0.160755,0.138862,0.200841,0.231506,-0.313865,-0.192574,0.197283,-0.524123,-0.417313,-0.118752,-0.037962,-0.067496,0.178412,0.02361,-0.153178,0.037755,-0.082279,0.215384,-0.044289,0.130104,0.123687,0.003129,-0.364493,-0.583623,0.017467,-0.150748,0.020234,0.058185,0.256368,0.056738,0.126207,0.047845,0.027914,0.316232,0.159764,-0.037556,-0.121176,-0.255167,0.218311,0.073652,-0.10979,-0.130067,0.298931,0.179855,0.320578,-0.220033,0.030931,-0.091351,-0.001326,0.214834,0.363537,-0.007971,0.092695,-0.23424,-0.036186,-0.066417,0.026998,-0.186144,0.042976,-0.316724,-0.141363,0.00127,-0.486687,-0.228532,0.335947,-0.108875,-0.026413,0.139826,-0.049775,-0.193599,0.067814,0.017345,0.105879,-0.018382,-0.202858,0.033319,0.077615,-0.127566,0.34138,-0.07156,0.04255,-0.204093,-0.015549,-0.133902,0.032058,-0.195147,-0.077627,0.022484,0.213914,-0.074728,-0.053655,0.167338,-0.16597,0.021121,0.009039,-0.02,0.2603,-0.117434,0.078537,0.063093,0.137735,0.125183,-0.221191,-0.064437,-0.006974,0.114266,-0.09599,0.174281,-0.105744,0.181901,-0.012827,0.204889,-0.049128,0.176412,-0.136567,0.192392,0.058011,0.126694,-0.051414,-0.242122,-0.191061,0.002063,0.070098,0.299774,-0.007615,-0.225381,0.204042,-0.221358,0.14905,0.038523,0.076211,0.087459,-0.052312,-0.030397,0.032626,-0.149894,0.048805,0.029196,0.003188,-0.077166,0.159543,-0.001065,-0.073052,-0.002906,-0.031591,-0.070287,0.044274,0.085634,-0.02011,0.035345,0.129414,0.212004,0.024163,-0.021591,0.105814,-0.040105,-0.125716,-0.078703,-0.183231,-0.255524,0.078057,-0.29912,-0.080931,0.223776,0.000617,0.087289,-0.320019,0.093547,-0.123878,0.071718,-0.068679,-0.074384,-0.091623,0.317478,-0.122052,0.286959,0.128807,0.118698,-0.340465,-0.09356,0.216911,0.202994,0.089955,-0.115944,-0.02561,0.129439,-0.111799,0.164659,-0.113986,-0.188229,0.28066,-0.259882,-0.193187,0.003758,0.047397,-0.149816,0.168658,0.260867,-0.226943,-0.133746,0.026991,-0.091189,0.154429,0.058884,0.179495,-0.0442,-0.100279,-0.192149,0.114441,0.103186,0.06676,0.007197,0.138202,-0.379529,-0.461485,-0.4674,-0.097017,-0.233843,-0.071985,0.086589,0.32756,-0.184926,0.046572,-0.013206,0.179757,0.410317,0.090661,-0.036185,0.117642,0.014822,-0.021583,0.118766,-0.121507,0.027299,0.675398,0.589633,0.315669,0.202379,0.148864,-0.018185,-0.112871,0.464422,-0.032431,-0.028048,0.052963,-0.298098,0.050731,-0.326564,0.085367,-0.297091,0.232409,0.155252,-0.432008,-0.064836,0.035422,-0.296988,0.835575,-0.047964,0.064601,-0.071539,0.006204,0.164737,-0.088989,-0.041127,-0.089441,0.534607,-0.179473,-0.005965,-0.022438,-0.061338,0.245721,-0.046748,0.065593,-0.141191,-0.008637,0.075447,-0.012949,-0.076611,0.055802,0.028937,0.100851,-0.087684,-0.134349,-0.045434,-0.134074,-0.121078,0.001544,-0.118518,0.110091,-0.2611,-0.049136,0.183855,-0.016284,0.144904,-0.297035,-0.04871,0.013602,-0.074689,-0.192509,0.068127,-0.127262,0.237868,-0.103294,0.292295,0.047837,0.130583,-0.408805,0.099949,-0.105736,0.182669,-0.109268,-0.18218,-0.038926,-0.017298,0.001204,0.368474,-0.010091,0.031563,0.247844,-0.113622,-0.014262,0.112659,0.113051,0.008814,0.001185,0.1371,-0.060946,-0.060542,0.025582,-0.064668,-0.075854,0.055367,-0.016368,0.035073,-0.137648,-0.14339,0.320286,0.232449,-0.008572,0.51655,0.069812,-0.070604,0.230291,0.139425,-0.244109,0.307961,0.111363,-0.261049,-0.063974,-0.496056,-0.254566,0.008121,-0.133136,-0.047824,0.133067,-0.225625,-0.269317,-0.164143,-0.16222,0.269851,-0.524422,0.099074,-0.280551,-0.0986,-0.248164,0.274213,-0.369169,0.136599,0.419379,0.010761,-0.286049,-0.205276,0.216051,0.206126,-0.165825,0.267553,-0.068777,-0.038568,-0.00425,0.224331,0.171483,-0.123848,0.192435,0.07928,-0.030806,-0.107258,-0.199653,-0.519617,0.198724,0.279763,-0.354109,0.119499,0.156974,0.040138,-0.000527,0.116572,-0.309755,0.004875,0.101217,-0.174039,0.014562,0.225246,0.060608,0.037568,0.151734,-0.003346,0.000164,-0.080437,-0.148674,-0.017891,-0.020409,-0.014228,0.288163,0.034342,-0.091454,0.176811,0.023585,-0.192061,-0.043564,-0.140109,0.083656,-0.06089,0.078101,0.137488,-0.060641,-0.09659,0.064565,-0.178525,-0.133898,-0.172267,-0.128374,-0.187221,0.12566,-0.003101,0.057738,-0.171404,0.072927,0.243349,-0.108822,0.112956,0.016069,0.060935,-0.101399,-0.137792,-0.059877,0.218603,-0.069871,0.069321,-0.006731,-0.013575,-0.067268,-0.040976,0.192935,0.081067,0.122503,0.213219,0.037054,-0.092855,0.136274,0.174796,-0.065512,-0.110668,0.207875,-0.23604,0.245146,-0.077895,-0.020761,0.147207,-0.039415,0.073834,-0.147216,0.159655,-0.095723,0.134095,0.052187,-0.203042,-0.084764,0.103805,-0.344607,0.013341,0.022507,-0.095777,0.218167,0.203027,-0.284989,0.020912,0.272828,0.118659,-0.279455,-0.02192,-0.303849,-0.028964,-0.343814,-0.056093,-0.28454,-0.208873,0.063483,0.186655,-0.109226,0.098635,0.658111,0.292054,-0.019517,0.050037,0.056266,-0.16375,0.293573,0.066403,0.143506,-0.146797,0.123489,-0.130701,-0.030617,-0.094512,0.174674,-0.243928,0.386274,-0.228025,-0.019593,0.131425,0.160846,-0.048791,-0.099363,-0.136762,0.026764,-0.13567,-0.312595,0.104014,0.063871,-0.064786,-0.010818,-0.113503,0.024456,0.135026,-0.024026,0.002849,0.000194,0.15746,0.214202,-0.012038,-0.001118,0.088669,0.019446,-0.073157,-0.048261,0.142401,0.026419,0.099863,-0.339876,-0.019904,0.184155,0.057018,-0.078707,0.054604,-0.178217,-0.209009,0.07911,-0.034651,0.106927,-0.138692,-0.113025,0.04869,0.155934,-0.069575,0.06694,0.053329,0.003093,0.273707,0.158584,-0.322062,0.245095,-0.264493,0.087992,0.104724,-0.124238,0.046765,-0.33298,-0.155847,0.072354,-0.071681,0.137873,-0.077332,0.131858,0.057333,0.065275,-0.028212,0.088819,0.176663,-0.071379,-0.115087,0.017812,0.073297,-0.228029,0.05126,-0.104369,-0.151281,0.11909,-0.084168,-0.10542,-0.258786,0.136024,-0.190454,-0.212324,0.212243,0.20969,-0.236046,0.153343,0.07456,0.104881,0.04496,-0.14605,-0.326637,-0.004694,-0.104486,-0.148103,-0.192273,0.17985,-0.024372,0.426705,0.136466,0.442397,0.187572,0.177719,0.038245,0.102197,-0.218166,-0.135588,-0.152659,-0.430251,-0.368979,-0.029761,-0.213475,-0.036288,0.051655,-0.228515,-0.026351,-0.235755,0.049377,-0.074924,-0.028283,0.099896,-0.012351,-0.198477,0.206269,-0.342699,0.091191,-0.125695,0.011818,-0.101097,0.013901,0.047676,0.218454,-0.183954,0.099968,0.346116,-0.065595,0.175969,0.304654,0.059468,0.003679,0.093984,0.021985,-0.104881,0.104045,-0.134089,0.304303,0.144848,-0.158519,0.08004,-0.008757,0.007965,0.007897,0.005359,0.077441,0.048904,-0.225106,-0.299768,-0.045459,0.085341,0.174756,0.042451,0.071002,0.025199,-0.004699,-0.150054,-0.108178,-0.235825,0.000246,-0.002368,0.123083,0.191302,0.018724,0.130925,-0.081825,-0.08548,0.330513,-0.023399,-0.248915,-0.064938,-0.211036,0.12123,0.131968,-0.19162,-0.077604,-0.304434,0.026405,-0.300828,-0.012826,0.273295,-0.066541,0.024012,0.11837,0.135463,0.061366,0.105517,0.195558,-0.245485,-0.082709,-0.028451,0.144679,0.086275,-0.071133,-0.109853,-0.140412,0.028173,-0.100284,-0.148968,0.038936,0.028731,0.029645,-0.127031,-0.022149,0.176883,-0.105864,-0.005714,-0.015012,0.054484,-0.250845,-0.024556,0.011219,0.27602,0.163567,-0.121515,0.068442,-0.020068,0.063783,0.132764,0.041324,-0.059314,0.032564,0.040859,0.187725,-0.100187,0.079233,-0.105023,0.019304,-0.090204,0.009722,-0.043365,-0.118515,-0.121082,0.253993,-0.217379,0.225162,-0.158048,-0.148818,0.165783,-0.208114,0.106626,0.063831,0.090032,0.087771,-0.167062,-0.046993,-0.064551,0.086877,0.115901,0.045407,0.094266,-0.09327,0.088307,0.053389,-0.147715,-0.194646,-0.068885,0.089669,0.132648,-0.011318,0.113191,-0.016632,-0.029788,-0.013484,-0.181995,0.153824,0.131457,-0.220189,-0.03669,-0.092758,-0.376601,-0.00225,-0.050586,-0.104543,0.343035,0.098408,0.067038,-0.017243,0.197077,0.27104,-0.310257,-0.028958,-0.246682,0.120314,-0.243417,0.049626,-0.522163,0.00578,0.030735,0.249101,-0.122328,0.006878,0.465063,0.086111,0.135386,-0.027038,0.153462,-0.155513,0.040548,-0.081129,0.133212,-0.14337,-0.086404,-0.294974,-0.095043,-0.12854,0.023453,-0.156848,0.413971,0.051126,0.102781,0.137201,0.107883,0.082878,0.05445,0.069161,0.033935,-0.213844,-0.109941,0.149784,-0.159059,-0.287714,-0.131271,-0.023214,-0.087925,-0.056479,0.186215,-0.097831,0.188284,-0.182296,0.03334,0.08215,-0.34158,0.117163,0.123617,-0.158714,0.051144,0.115561,-0.012141,0.227487,0.12107,0.00399,-0.116737,-0.105655,-0.030823,0.010647,0.015,0.183944,0.24891,-0.002192,0.214436,0.168791,-0.201089,0.007033,-0.142859,0.218932,-0.014876,-0.189248,0.186394,-0.175852,-0.053673,0.097267,0.152874,-0.054154,-0.174643,-0.120626,0.03035,-0.112364,0.145417,0.072567,0.222667,-0.02871,-0.121598,0.09008,0.026805,-0.131552,0.015431,0.068089,-0.047926,-0.151121,0.152637,-0.021572,-0.046824,-0.046669,0.14502,0.189807,-0.06133,0.061431,-0.001437,0.060675,-0.309284,-0.110247,-0.164428,0.111579,-0.001064,-0.167021,0.361634,0.084443,0.0158,0.434927,0.088777,0.322211,0.092093,-0.17965,-0.37077,-0.158425,0.3969,0.081787,0.037515,0.034178,0.15976,0.185054,0.232443,-0.438486,0.050612,-0.231575,0.236432,-0.031276,0.298544,0.134911,-0.07902,-0.300805,-0.174177,0.05199,0.100368,-0.061639,-0.025341,-0.316486,-0.093018,0.058545,-0.223722,0.178862,-0.035106,-0.074691,-0.318796,-0.030545,-0.024815,-0.190104,0.42945,0.077507,0.144794,0.150329,0.231858,0.046599,-0.187337,-0.132534,0.012017,0.090216,-0.078807,0.099806,0.071235,0.004939,0.254262,-0.027135,0.096222,-0.034309,-0.100876,0.080192,0.110832,0.006177,0.161322,-0.162301,-0.149221,0.050023,-0.14918,-0.13364,0.106189,-0.159774,0.273926,-0.236076,0.251317,-0.044156,-0.071947,-0.249109,-0.115803,-0.112549,-0.112737,0.010127,-0.213083,0.058359,0.143328,0.127074,0.089178,-0.418734,-0.005531,0.098419,-0.183451,0.200909,0.25139,-0.037607,-0.220652,0.080347,0.185369,0.196376,-0.013135,0.043701,-0.114003,-0.163197,-0.058357,0.117283,-0.116808,-0.026378,0.127909,0.333281,0.186801,-0.044518,0.130342,0.426612,0.008626,0.021049,0.230827,-0.202333,0.262247,-0.085948,-0.00582,0.060526,-0.116864,0.162734,0.133109,0.243402,0.047967,0.263236,0.014215,-0.109347,-0.041954,0.010558,-0.216687,-0.122712,0.019888,-0.003976,0.213525,0.120429,-0.0543,0.017396,0.165039,0.157147,-0.05318,-0.147488,-0.282223,-0.135522,-0.204892,-0.003943,-0.126988,-0.210346,-0.021154,0.108149,0.127408,0.208864,0.257628,0.271098,-0.057588,0.068128,0.088144,-0.343901,0.224091,-0.01671,0.011864,-0.140428,0.05581,-0.057307,-0.324484,-0.004822,0.089157,-0.20355,0.225595,0.00825,0.137228,0.063481,-0.017806,-0.126906,0.043874,-0.121351,0.180548,-0.001878,-0.213951,0.087245,0.064437,0.229495,0.094153,-0.032309,0.270602,0.162798,-0.083052,-0.018916,-0.085181,0.231443,0.067936,-0.077746,0.058142,-0.137777,0.017461,0.025992,-0.194117,0.083681,-0.126149,-0.118023,-0.302354,-0.234615,0.013334,0.065875,0.017011,-0.1014,0.026079,-0.135341,-0.105666,-0.096079,0.034239,0.058392,0.22011,-0.206801,0.225479,-0.178572,0.046721,0.093092,-0.140402,0.172195,0.111395,-0.025526,-0.158409,-0.185759,-0.00508,-0.016568,-0.171787,0.182506,-0.131388,-0.123364,-0.270149,0.072403,0.02589,-0.018919,-0.090637,0.178666,0.01276,0.015708,0.154445,0.211194,-0.268214,0.024586,0.215521,0.204424,-0.115932,0.026807,-0.082289,-0.058878,-0.012888,0.33024,0.380744,0.488237,0.11049,0.302897,0.054355,0.056918,-0.411758,0.01181,-0.181234,-0.022596,-0.283571,-0.504263,-0.111937,0.070388,-0.309425,0.195141,0.010854,-0.092264,0.138609,0.079278,-0.590339,-0.741222,-0.421735,0.045065,-0.077652,-0.094012,0.058857,-0.587984,0.032231,0.05946,0.036475,0.488175,0.056883,0.365018,-0.137934,0.238941,-0.143926,-0.114725,0.599885,-0.046895,0.168527,0.190689,-1.011406,-0.035095,0.07836,0.118533,0.121326,-0.156592,0.114369,-0.000441,-0.100999,-0.417283,0.020145,-0.0479,0.026953,-0.027432,-0.172948,0.162582,0.0487,-0.119121,-0.164378,0.050237,-0.105211,-0.014683,-0.021508,0.117948,0.014316,-0.112645,0.050343,0.14361,-0.143286,-0.162688,-0.026805,0.081478,0.056446,0.182255,-0.172803,-0.055241,-0.112027,0.082615,-0.132502,-0.1107,-0.051226,-0.002425,0.184227,0.262438,-0.169977,0.035424,0.170846,0.177905,-0.105315,-0.159604,-0.031802,0.265815,-0.013467,-0.208646,0.100445,-0.327462,-0.060056,-0.203227,-0.029125,0.182327,0.038154,-0.047499,0.06711,0.204109,0.242417,0.174589,0.179377,-0.118377,0.096601,0.199896,-0.00781,0.017622,0.009775,-0.016411,-0.025425,-0.073053,-0.140903,0.047514,-0.126326,0.187812,-0.05359,-0.133401,-0.212147,0.035163,-0.175725,0.02135,0.228829,-0.290686,0.02228,-0.264946,-0.058701,0.012225,-0.36343,-0.148068,0.059086,0.00574,0.231408,0.277469,0.038628,0.251677,0.033691,0.170498,-0.082905,-0.046121,-0.024643,0.123525,0.068544,0.00028,0.085207,0.192097,0.140195,0.048452,-0.15797,-0.111897,-0.03888,0.053047,0.065349,-0.190261,-0.045478,-0.24368,-0.122764,-0.015861,0.062099,0.099467,-0.1137,-0.097481,-0.05491,0.062906,0.26009,0.108459,0.081875,0.023614,-0.133435,0.006489,-0.024621,-0.195584,-0.169121,-0.037736,-0.181475,-0.197521,-0.07246,0.134076,-0.046693,0.013349,0.114623,-0.240528,-0.084841,-0.076606,0.058171,0.099123,0.085657,-0.161611,0.118326,-0.036699,-0.075153,0.085075,-0.219993,-0.162895,0.148197,-0.0316,0.05614,0.120203,-0.050021,0.082123,0.015871,0.195141,-0.105772,0.047359,-0.073425,0.127621,0.18552,0.069609,0.066903,0.241936,-0.06771,0.043484,-0.011894,-0.03103,-0.214558,0.161593,-0.162894,0.0403,0.16432,-0.377565,-0.117592,-0.142441,-0.126484,0.242265,-0.002514,-0.054401,0.270057,0.126788,0.368282,0.015246,0.125171,-0.109664,-0.007033,0.236216,-0.062777,-0.174862,-0.052677,0.15852,0.072167,-0.201002,0.051756,-0.033203,-0.006953,-0.110775,-0.112502,0.08182,0.202762,0.27748,0.049238,-0.037238,0.014768,-0.087425,-0.338531,-0.145196,0.164673,-0.303214,0.034436,-0.067651,-0.272824,0.072364,-0.021578,0.025247,0.224189,0.119215,0.077718,-0.016006,0.13293,0.290649,-0.197742,-0.050064,-0.085785,-0.022267,-0.034224,0.029474,-0.161062,0.079886,0.215578,0.352964,-0.214173,-0.04112,0.30204,0.226693,-0.046661,0.054376,0.251319,-0.021431,0.161985,0.14797,-0.096216,0.114151,-0.05185,-0.094718,-0.003837,-0.22372,-0.08224,-0.003357,0.238198,0.045817,-0.018586,0.350485,0.273156,0.090565,-0.046372,0.277504,-0.126835,-0.184853,-0.079684,-0.109916,0.074262,0.304639,-0.023577,-0.037359,0.194512,-0.08395,-0.238026,-0.03293,-0.059688,0.203131,0.204044,-0.175281,0.224718,0.102583,-0.006405,0.113445,0.05091,-0.062308,0.17113,-0.180281,-0.384945,-0.104084,0.116151,0.102573,-0.118106,-0.06568,-0.172833,-0.09977,-0.091418,-0.12064,-0.189347,-0.004574,0.089267,0.157924,0.116334,0.059128,-0.017749,-0.146078,0.059567,0.2596,0.101216,-0.207473,0.039223,-0.068912,-0.012145,0.011631,-0.100619,0.030376,-0.322913,-0.154425,-0.245224,0.045112,0.274751,0.047269,0.124315,0.019844,0.189939,0.003579,0.061685,-0.021704,-0.12479,-0.188321,-0.016121,0.136139,-0.218585,-0.116565,-0.135049,-0.307178,-0.052049,0.029854,-0.024039,-0.034141,0.226172,-0.044428,-0.042585,-0.061969,0.186267,0.346858,0.138425,0.095135,0.251637,0.056919,-0.066199,0.004022,0.134436,0.178371,-0.167099,-0.104311,0.162497,0.022735,0.105284,0.162356,0.008079,-0.133781,0.094598,-0.134126,-0.254354,0.179604,0.088667,0.130314,-0.058073,-0.098301,0.199223,-0.231685,-0.097631,0.272274,-0.080525,-0.014482,-0.19775,-0.166106,-0.016926,-0.124467,0.068718,0.080987,0.002769,0.270488,0.023856,-0.089386,0.260675,-0.122999,-0.106553,-0.023503,-0.066984,-0.017209,0.161643,0.051939,-0.234139,-0.048195,-0.105999,-0.032064,-0.058388,0.076418,0.172542,0.003999,-0.024299,0.067445,-0.016629,-0.138662,0.017842,0.00296,0.078117,-0.130267,0.068891,-0.127389,0.157076,-0.064547,-0.081766,0.15292,0.198706,0.243957,-0.239734,-0.108874,0.089177,0.015826,-0.050985,0.223464,-0.088124,0.235201,-0.075794,0.148887,0.00508,0.075779,-0.329903,0.051538,0.091964,-0.022821,0.015265,-0.060775,0.041099,0.128947,-0.154919,0.11034,-0.038389,-0.043029,0.074529,-0.238606,0.015174,0.116466,0.132831,-0.102344,-0.101154,0.198227,-0.104956,0.017466,-0.079263,0.080284,-0.021512,-0.033688,-0.025485,0.165459,-0.012344,-0.106215,0.096778,-0.061573,-0.026882,0.131499,0.037604,-0.556099,-0.296195,-0.520702,-0.154808,-0.132567,-0.101238,-0.039982,0.198097,-0.1914,0.029995,-0.005294,0.06102,0.566515,-0.034554,0.00884,0.101999,-0.092969,0.008335,0.032008,-0.080932,-0.163626,0.391011,0.621675,0.140357,0.202912,0.202558,0.018645,-0.029124,0.493532,-0.091806,0.070146,-0.013934,-0.499325,-0.206695,-0.200674,-0.047436,-0.398677,0.160906,0.038831,-0.56756,0.193307,-0.13855,-0.074199,0.868475,0.088298,-0.109635,0.026263,-0.025485,0.19139,0.034291,0.022446,-0.08553,0.511138,-0.148966,0.018485,-0.099266,-0.14266,0.24611,-0.041431,0.032115,-0.146933,0.13722,0.173155,0.073742,-0.099888,0.101293,-0.086143,-0.224629,-0.061765,0.264072,-0.160571,0.022312,-0.105598,-0.210042,0.149768,0.110702,0.165388,0.277057,-0.01087,-0.176474,-0.061656,0.109591,0.160824,-0.185633,-0.219896,0.012403,0.136811,-0.061676,-0.037042,-0.020035,-0.087317,0.027594,0.225246,-0.13244,-0.101533,0.327145,-0.108682,0.035886,0.055273,0.116877,-0.190654,0.21042,0.102745,0.04792,0.056053,-0.198853,-0.036722,-0.00965,-0.209641,0.065563,0.020199,0.081078,-0.035756,-0.099192,-0.007889,0.101979,0.055522,0.016136,0.131781,-0.033039,-0.266713,-0.091596,0.088966,0.031387,-0.060542,-0.221039,-0.107854,-0.189879,0.090996,0.011177,-0.018556,0.33674,-0.028753,-0.229712,0.192981,-0.139006,0.19994,0.2494,0.113472,0.036144,-0.141946,-0.232174,-0.049528,0.063838,0.19641,0.093513,-0.284253,0.148768,0.024625,0.007698,-0.126311,0.027853,-0.012394,0.213372,0.003167,-0.213078,0.007364,0.22578,0.163081,-0.253244,-0.03384,0.215366,0.002621,-0.184083,0.302235,-0.12096,0.019019,0.094987,-0.057134,0.051128,0.127738,-0.063888,0.15958,-0.068347,0.003377,-0.009746,-0.069034,0.106685,-0.172187,-0.324928,8.8e-05,0.048041,-0.114305,0.20006,0.059074,-0.091588,-0.029395,-0.195107,0.038589,-0.088247,0.030165,-0.106264,-0.1466,0.163413,-0.098771,-0.030155,-0.24704,-0.179463,0.073513,0.03693,-0.057264,0.058513,0.054024,0.037189,-0.190339,0.059133,-0.038634,0.359814,-0.03924,-0.101268,-0.106901,0.117999,0.039096,0.085653,0.184041,0.079905,0.164957,0.134264,0.133646,-0.054086,-0.01105,-0.269344,-0.018034,-0.066313,0.096637,0.109412,-0.350587,0.038807,0.28237,-0.311345,0.235724,-0.113254,0.083365,-0.057339,-0.146713,0.297098,0.05112,-0.005271,0.063868,-0.186961,0.1827,-0.084839,-0.065191,-0.075345,0.088636,-0.056098,0.035043,-0.004841,0.029448,-0.030511,0.047794,-0.173632,-0.024389,-0.290598,-0.152463,-0.064034,0.085471,0.034239,0.010578,0.311197,-0.035076,-0.203528,0.301453,-0.206918,0.109954,0.313547,-0.0146,0.144224,-0.118488,-0.27691,0.237019,0.087157,0.388938,-0.000124,-0.27085,0.382219,0.294385,-0.018375,-0.155184,-0.026478,0.020463,0.230741,-0.166182,-0.234175,-0.066125,0.063393,0.098127,-0.055273,0.08952,0.341729,-0.003321,-0.262821,0.277667,-0.089826,-0.222269,-0.061417,-0.288214,0.00309,0.03425,-0.035926,0.317472,0.18489,0.211043,-0.307608,-0.145017,-0.070625,-0.402529,-0.424834,-0.218565,-0.057458,-0.292738,0.128094,0.305553,-0.11523,-0.124443,0.003037,0.134351,0.04873,-0.018086,0.02274,0.133709,0.035449,-0.040367,-0.001956,-0.015569,0.046222,-0.031808,0.038731,0.236339,0.039077,0.028797,-0.031219,-0.101077,0.015585,-0.132396,-0.038545,-0.149176,0.120245,0.174699,0.006721,-0.094167,0.128088,-0.023964,0.203808,-0.166136,0.026424,-0.193039,0.075062,0.061672,0.294797,-0.113517,-0.039769,0.051196,0.034865,0.257275,0.164185,0.143487,0.080541,-0.066412,0.18408,0.198531,-0.033728,0.022779,-0.195055,-0.054544,-0.007614,0.012721,-0.01509,-0.119161,0.015384,-0.039163,0.083571,-0.031793,0.184479,0.276758,0.017012,-0.125217,0.208248,0.100919,0.073005,0.057991,-0.056253,0.049779,0.107278,0.000491,-0.141303,-0.096974,-0.12096,-0.139841,-0.157205,0.191088,0.074048,-0.036951,0.114201,0.396011,0.026867,0.266535,-0.168442,-0.082433,-0.061851,-0.01812,0.378696,0.024602,0.096582,0.212629,0.065845,0.077846,0.018986,-0.427141,0.174277,-0.410897,-0.12471,-0.167472,0.414414,0.126161,-0.168247,-0.039316,-0.133685,0.015733,0.069949,-0.08884,-0.051652,-0.16943,0.069083,-0.000919,-0.286244,0.440099,-0.129485,0.051826,-0.134331,-0.017558,-0.092566,-0.321081,0.365619,0.003301,-0.017551,0.08147,0.056229,0.090938,-0.139988,-0.000277,0.031783,-0.125627,-0.058171,0.206378,-0.007436,0.005097,0.230547,0.063611,0.041029,-0.150389,-0.168368,0.10154,0.000664,0.107876,0.047956,-0.073676,-0.05511,0.025775,0.024279,-0.049272,-0.070999,-0.219293,-0.261214,-0.041529,0.128251,0.098153,-0.080054,-0.002886,0.047795,-0.232267,-0.103877,0.009661,-0.08867,-0.031881,-0.041491,-0.185459,0.192566,-0.016943,0.01019,-0.112037,-0.054063,0.294984,0.009373,-0.13971,-0.149837,-0.1462,0.120594,0.057239,-0.329627,0.139791,0.012321,-0.054461,-0.230381,-0.068787,-0.081542,-0.0763,-0.082106,0.066499,0.000142,-0.023515,-0.025561,0.234716,-0.241786,-0.111383,0.256851,0.026537,0.011678,-0.062047,0.110034,0.002043,-0.146116,0.366324,0.262569,0.312715,-0.083727,0.134869,0.025377,-0.076148,-0.364914,0.317898,-0.196189,0.090632,-0.083782,-0.508989,-0.113025,0.038083,-0.082969,-0.0472,0.131701,-0.119857,0.09145,-0.035717,-0.385486,-0.367636,-0.302231,-0.18259,-0.078354,-0.061521,0.102664,-0.27597,0.149227,-0.065382,0.07165,0.283235,0.088077,0.218546,-0.143044,0.374706,-0.076692,-0.156526,0.275075,-0.02326,0.18802,-0.086203,-0.623384,0.049108,0.144707,-0.016495,-0.032936,-0.165054,0.150448,-0.053328,0.116318,-0.427804,0.094284,-0.006908,0.169041,0.119793,-0.247579,0.248557,-0.183739,-0.033365,-0.155369,-0.276383,0.05197,0.00985,-0.10049,-0.09535,0.012741,-0.084794,-0.472833,0.530133,0.175427,0.135778,0.481651,0.107475,0.052378,0.050907,-0.133813,0.012224,0.301168,0.067256,-0.130368,-0.110729,0.223261,0.159168,0.080638,-0.137166,0.233609,0.094321,0.225218,0.04553,0.004242,-0.24967,0.108794,-0.105341,-0.366137,-0.175552,0.015828,0.059173,-0.147706,0.32752,-0.106146,-0.114549,-0.076057,0.058796,0.069868,0.00523,0.031358,-0.014043,0.061716,0.036879,-0.415173,-0.00223,0.075902,-0.158816,-0.143045,-0.045832,-0.070807,-0.015598,0.19185,0.302902,0.147713,0.166103,-0.118791,-0.134404,-0.003848,-0.055812,-0.124638,0.030179,0.150416,-0.014671,0.214588,-0.043498,-0.009222,-0.000921,-0.167627,0.114178,0.083716,-0.002581,0.140674,0.222142,-0.044868,0.164291,0.0144,0.007368,-0.118859,-0.127035,0.169672,-0.041654,0.179515,0.032162,0.228442,0.071331,0.008621,0.027869,-0.168164,0.0435,-0.214776,0.265055,-0.074528,-0.254581,0.071595,-0.360232,-0.086659,-0.13502,0.183231,-3e-06,0.060898,-0.069581,0.092696,-0.019232,0.155428,0.082588,0.049186,0.141644,-0.148202,-0.042524,0.008131,-0.089837,0.02478,0.090082,-0.18272,-0.105139,-0.006934,0.085368,-0.092409,0.110169,0.085564,-0.286211,0.068959,0.082677,-0.198653,-0.089296,0.019056,0.073281,0.162207,-0.19538,-0.018768,0.067905,-0.166324,0.203612,0.067451,-0.109203,0.172742,-0.044836,0.155107,0.163754,-0.007577,0.113144,-0.113946,-0.134379,-0.007057,-0.098338,0.140478,0.051521,0.208673,0.021499,0.188281,-0.053277,-0.197253,0.068724,-0.232363,0.245263,-0.047602,-0.027074,0.061954,-0.050434,-0.195983,0.135207,0.090926,0.148775,-0.058841,-0.056226,-0.03046,0.03679,0.154875,0.112184,0.167,0.084007,-0.191516,-0.097784,-0.044044,-0.254053,-0.09601,0.076594,-0.074636,-0.338874,0.221324,-0.117466,-0.265092,-0.095486,0.132387,-0.106808,0.05848,0.114152,-0.033165,0.117819,-0.163454,0.109091,-0.155822,0.149347,0.01288,-0.072679,0.012536,0.099912,-0.247413,-0.011166,0.158353,0.027608,0.189128,0.114938,-0.089177,-0.113594,0.111346,0.107655,-0.048994,-0.063269,-0.144138,-0.166093,-0.129384,-0.210716,-0.157401,-0.036688,0.034419,0.136163,0.188002,0.157196,0.264482,0.08554,0.030102,-0.02792,0.024388,-0.188729,0.162767,-0.122331,0.070563,-0.018377,0.06074,-0.04186,-0.226779,-0.109404,-0.074484,-0.099635,0.203649,-0.181199,0.13581,0.036662,-0.058192,-0.037929,-0.070682,0.169701,0.012379,-0.168321,-0.100032,-0.040762,-0.121139,-0.042934,-0.032692,-0.05969,0.000695,-0.1667,-0.16491,0.073533,-0.047723,0.025396,-0.014877,-0.020703,0.04173,-0.059965,0.125369,-0.07604,0.124411,-0.076412,0.019031,0.077671,0.240902,0.201985,-0.016519,0.016275,0.11028,0.074225,-0.009174,0.205199,-0.063806,0.195109,0.141166,0.16127,0.064277,0.108174,-0.317697,0.151114,-0.154108,-0.092462,0.024489,-0.15756,-0.197827,0.08763,-0.128708,0.320606,-0.099656,0.016931,0.103679,-0.172087,0.072387,0.094696,0.014558,0.080959,0.016921,0.176803,-0.091979,-0.085091,0.058068,0.044019,0.026052,-0.174637,0.03637,0.019682,-0.090722,0.151423,0.082335,-0.018288,-0.045619,-0.0899,0.04455,-0.199468,-0.048995,0.027888,0.007829,-0.173465,0.029919,0.107563,-0.059596,-0.22645,0.16033,-0.00638,0.089279,0.10167,-0.202147,0.1367,0.042237,0.184658,-0.073303,0.032333,0.129969,0.060498,0.077857,0.177288,0.026555,0.166893,0.117913,0.172125,-0.016116,0.0997,-0.259848,0.023806,-0.247908,0.003304,-0.116485,-0.324265,-0.173711,-0.242652,-0.078168,0.112793,-0.154469,-0.039001,0.214743,0.057258,0.300712,0.092381,0.050085,-0.082572,0.064893,0.118748,-0.110021,-0.152213,0.068203,0.154046,0.144033,-0.203975,-0.085411,-0.062933,-0.132416,-0.113805,0.116819,0.193207,0.099446,0.060082,0.307773,0.031298,0.082272,-0.064543,-0.018609,0.262457,-0.084234,-0.141145,0.119068,-0.127734,-0.118777,0.043659,-0.08506,-0.088225,-0.10093,-0.22022,-0.173503,-0.161994,0.219354,0.085445,-0.084847,0.046643,0.018258,-0.000624,-0.213131,-0.179713,-0.087611,0.068602,0.261999,-0.215524,-0.01147,-0.197285,-0.067873,0.193051,-0.123361,0.284449,0.120004,-0.150399,-0.02696,0.043521,0.125443,0.103916,-0.126898,-0.02413,-0.084534,-0.052651,-0.053576,0.050612,0.156458,0.112981,0.023634,0.240004,-0.070496,-0.094222,0.117776,0.223117,-0.189237,-0.131434,0.112586,0.138162,-0.029337,-0.192441,-0.091189,-0.216168,-0.07936,-0.096793,-0.056464,-0.027569,0.116574,0.049335,-0.069437,0.089564,-0.072955,0.157965,-0.065536,-0.019757,0.067887,-0.023408,-0.031216,0.139616,-0.025215,0.082544,-0.003718,0.010058,0.197238,-0.036013,-0.004136,0.175605,0.074003,0.077849,0.080792,0.112631,-0.235959,0.234466,-0.004407,0.023033,-0.051212,-0.153284,0.15062,-0.067135,-0.22985,0.115879,-0.037773,0.110936,0.000285,-0.192512,-0.050181,-0.041822,-0.000953,0.048565,0.206368,0.098181,-0.111551,-0.172638,0.00296,-0.049937,-0.123572,0.131033,-0.16427,-0.257864,0.094097,0.044173,-0.085816,-0.212706,0.05265,-0.062384,0.101749,0.129892,0.046942,-0.384552,-0.47126,-0.270233,-0.128541,-0.244753,-0.164144,0.074019,0.303106,-0.185928,0.045256,-0.020086,0.281368,0.28118,0.103933,-0.030875,0.277376,0.011766,-0.143296,0.082193,0.052372,0.076321,0.652731,0.661522,0.3396,0.164255,0.100176,0.005202,0.003974,0.616908,0.016758,0.12983,-0.064058,-0.419721,-0.169997,-0.27862,0.112303,-0.226023,0.177404,0.088895,-0.354634,0.172659,-0.159672,-0.320754,0.564774,-0.049435,0.158311,-0.153961,-0.104426,-0.030186,-0.157931,-0.042839,-0.061873,0.395571,-0.008478,0.084553,0.128921,-0.083051,0.205084,0.156129,-0.089752,-0.095502,0.026121,-0.059934,0.011219,-0.021272,-0.030652,-0.012271,0.142205,-0.20328,-0.014807,0.132842,-0.087808,-0.215784,-0.006236,0.012292,0.084126,0.157858,-0.095523,0.111924,0.306169,0.072412,-0.210917,-0.098227,-0.065053,0.159417,0.235843,0.070228,-0.057055,0.169634,0.070223,0.15224,0.060589,-0.001837,-0.271378,0.075164,-0.015465,0.016968,0.063004,-0.377829,-0.152561,-0.006587,-0.083132,0.23906,-0.023035,-0.090775,0.197538,0.023236,0.344992,0.069733,0.148508,-0.099412,-0.096213,-0.008105,-0.182184,-0.001622,-0.168006,0.139408,-0.102923,-0.120827,-0.040855,0.040263,-0.115392,-0.010631,0.043345,0.016572,0.245738,0.04485,0.202625,-0.038477,0.163522,-0.008524,-0.254006,-0.06636,0.10339,-0.130867,-0.012305,-0.250352,-0.104061,-0.067192,-0.01594,0.080214,0.167307,0.013295,0.187044,-0.238534,-0.074653,0.190411,-0.305388,-0.136032,-0.159865,-0.228688,0.064646,-0.057241,-0.176441,0.049929,0.157103,-0.027361,0.043838,-0.17083,0.245287,0.185231,-0.198026,0.101629,0.233635,-0.070697,-0.005579,-0.012091,0.063417,0.154874,0.156138,0.130221,0.001707,-0.271574,0.090889,-0.181289,-0.053627,0.202871,-0.001496,0.041973,0.169569,0.0405,-0.099812,0.205099,-0.141926,-0.099767,0.073914,0.110501,-0.03686,-0.131864,-0.055563,0.014157,0.018879,-0.147413,0.113273,0.0835,-0.011214,-0.227379,-0.199632,0.021754,-0.109229,-0.319271,0.019594,-0.124898,-0.111021,-0.20243,-0.087581,0.099354,0.202458,0.027129,-0.239993,-0.073237,0.142062,0.022925,-0.031499,0.003991,0.065638,0.374413,-0.085692,0.339729,-0.192528,-0.093632,-0.551142,0.005299,0.07472,0.15857,0.110744,-0.236882,0.066937,0.170824,-0.077415,0.436004,-0.123009,-0.017068,0.168794,-0.084328,0.152261,0.006624,0.073824,0.145472,-0.171749,0.313837,-0.351114,0.016364,0.11442,-0.098478,-0.221866,0.069587,0.070553,0.133659,-0.087702,0.057995,-0.152586,0.031797,-0.090433,-0.096585,0.056813,0.062462,-0.087396,-0.148501,0.020534,-0.020302,0.065087,0.081008,0.195417,0.183876,0.03704,0.343585,0.038484,0.049298,0.001999,-0.100746,-0.038896,-0.172807,0.40509,0.0945,0.079526,-0.098153,0.051646,0.017951,0.228976,-0.463395,0.251079,-0.271705,-0.066435,-0.242502,0.343331,-0.099475,-0.098667,-0.044714,-0.067441,-0.008721,0.189489,0.091497,-0.135841,-0.360737,-0.032771,0.246064,-0.274118,0.207361,0.08507,0.031813,-0.180101,0.159493,-0.19285,-0.384106,0.378044,0.024607,-0.064605,-0.042682,0.323218,0.091167,0.059133,-0.053647,0.193684],"bias":[-0.065267,0.145397,-0.043055,-0.006222,-0.109448,0.168576,-0.17579,-0.087281,-0.037913,-0.044358,0.063439,0.019315,0.063293,-0.130562,-0.03596,0.144489,0.227402,0.007394,-0.133348,-0.212607,-0.127913,0.036778,0.000291,0.084093,-0.008205,-0.256585,0.081862,-0.15724,0.103527,-0.096337,0.077987,0.024223,0.168051,0.133479,0.23537,-0.077427,0.033126,0.018631,-0.022473,0.031467,0.065715,-0.103207,-0.192792,0.033456,0.15276,-0.133069,0.174552,-0.031597,0.005419,-0.050719,-0.004925,-0.175654,0.067921,-0.107238,0.054806,-0.105311,0.048456,0.09022,-0.058008,-0.19435,-0.018112,0.073826,-0.159721,0.099333]},{"inputSize":64,"outputSize":4,"activation":"linear","weights":[-0.038457,-0.093857,-0.0906,-0.009952,-0.061642,0.050138,-0.047813,-0.004164,-0.102571,0.059497,0.075406,-0.021019,0.012747,-0.015102,0.047395,0.07705,0.121861,0.157832,-0.005819,0.012454,-0.099016,-0.022677,0.086615,-0.001286,-0.09088,-0.043444,-0.091803,-0.16574,0.096831,0.026563,0.001207,0.082534,-0.046335,0.009911,-0.038529,-0.089171,0.09032,-0.054313,-0.026187,-0.029319,0.090402,-0.03236,-0.092322,-0.128114,0.142913,0.167783,0.073739,-0.184616,-0.093572,0.148814,-0.103514,0.086266,-0.044375,0.046382,0.165043,0.039623,-0.103011,0.053169,-0.001449,0.018007,0.03946,-0.050511,0.139039,0.084544,-0.188166,-0.023888,-0.121533,-0.024772,-0.169771,-0.111034,0.075765,-0.107047,0.010808,-0.021557,0.107823,0.09654,0.008609,0.166382,-0.171807,-0.009825,-0.014738,0.22921,0.141453,0.051924,-0.02369,0.02502,0.189454,-0.010628,-0.021232,-0.086817,-0.192527,0.336613,0.043514,-0.052167,-0.108707,0.217288,0.043294,-0.146157,-0.028359,-0.337586,-0.277901,-0.155224,0.123897,-0.258632,0.100048,0.0625,-0.122868,-0.074245,0.0235,0.173365,0.067868,0.070247,-0.101992,-0.36316,0.1223,0.066955,-0.238775,0.109113,0.198886,0.001349,-0.078606,-0.107581,0.059722,0.092825,-0.137171,0.018458,-0.022133,0.098556,0.127568,0.017188,-0.035212,-0.025608,0.010866,-0.059089,-0.092908,0.019429,-0.114609,0.05523,0.016675,0.038239,-0.114259,-0.014965,-0.044315,0.020036,-0.044809,-0.079272,0.088691,-0.057142,0.0365,0.016616,0.077812,0.010711,-0.064937,0.008037,0.067455,-0.067746,-0.033945,0.019306,0.05155,0.038726,0.063309,-0.021879,0.037682,-0.080616,-0.098715,0.106639,0.059568,0.005443,-0.067474,-0.054347,0.069019,0.044681,0.107608,-0.038355,-0.079769,-0.090027,0.056382,0.102383,0.016436,-0.085846,0.032552,0.027926,-0.077975,0.056919,-0.051606,-0.038362,-0.00013,0.044387,-0.066852,-0.1155,-0.029734,-0.128702,0.17445,-0.03379,-0.066223,0.092658,-0.07337,-0.078233,0.052774,-0.045114,-0.113107,0.029112,0.146585,-0.011909,-0.073849,-0.112361,0.001739,0.013746,0.007053,-0.0597,0.086666,-0.053433,0.11139,-0.036239,0.056958,-0.02514,-0.066499,-0.063969,-0.028509,0.016558,0.043946,-0.038682,0.075484,-0.026155,0.028882,-0.114293,0.052103,-0.084385,-0.049827,0.019189,-0.01207,0.049418,0.030561,0.037703,-0.021558,-0.129898,0.051178,-0.092044,0.043717,-0.053701,-0.101926,0.006406,0.028224,0.019828,-0.15175,-0.038209,-0.018632,0.048596,-0.01053,0.085772,-0.043472,0.007946,-0.079447,-0.09382,0.022413,0.000905],"bias":[0.28078,-0.194991,0.360662,0.270118]}]}
