{"format":"ratass-rl-policy-v3","source":"ray-rllib-ppo","objective":"race-checkpoints-v1","observationSize":46,"actionSize":2,"output":"first actionSize outputs are deterministic direct throttle and turn controls","layers":[{"inputSize":46,"outputSize":256,"activation":"tanh","weights":[0.044992,0.721613,-0.131723,-0.259211,0.087263,0.1951,-0.198424,0.142069,-0.102689,0.02748,0.065676,0.087085,0.137551,0.109131,0.602049,0.221956,0.231033,0.011893,0.2646,1.071791,0.366383,0.197971,-0.348038,0.278573,-0.318347,-0.119154,0.097941,0.107576,-0.134963,0.132082,0.12574,0.098828,0.008301,0.004754,0.292762,-0.075711,0.037569,0.042726,-0.131293,0.128018,0.179527,-0.130684,0.005442,-0.06414,-0.004306,0.225409,-0.111917,0.288655,0.202085,-0.219426,0.073198,0.339695,0.035422,0.030026,0.344741,0.112451,-0.322143,-0.002225,-0.094269,0.055094,0.229801,0.226808,-0.034236,-0.073017,-0.036915,0.622275,-0.241244,0.161526,0.265005,0.01476,0.07783,0.089529,-0.025147,0.01269,-0.068407,-0.116827,0.086813,0.056605,-0.112942,-0.086882,0.114773,0.328879,0.032279,-0.116011,0.059993,-0.136236,-0.275559,-0.057645,-0.136413,0.016936,-0.122617,0.315029,0.282547,-0.022941,-0.266657,0.042551,-0.242749,-0.043063,-0.005015,-0.303681,-0.097868,-0.186284,-0.015583,0.15922,-0.268252,0.251232,-0.079441,-0.039748,-0.291994,-0.166412,0.008838,-1.006369,-0.048131,-1.015736,0.217758,0.227868,-0.5006,0.07906,-0.162464,0.04908,0.091856,0.112124,0.144159,-0.111,0.080755,-0.104846,0.108767,-0.251486,0.148999,0.149234,0.02396,-0.014282,0.183573,-0.029984,0.044859,0.047774,0.315727,-0.363945,0.09274,0.051111,0.218576,0.104007,-0.11278,-0.115613,0.153077,0.108309,0.002935,-0.033239,-0.054269,-0.04416,-0.158997,0.15123,-0.056793,0.148902,-0.157645,-0.030221,0.160877,1.331087,-0.111721,0.634368,0.526506,-0.201324,0.286791,-0.067284,0.020873,-0.052136,-0.07233,0.168313,0.180765,0.057896,0.14271,-0.017156,-0.010851,0.13858,-0.063966,-0.107347,0.082493,-0.130158,-0.080697,-0.107988,-0.08453,0.341991,-0.066182,0.215094,-0.143379,-0.353017,-0.151408,-0.109328,0.097726,0.158632,0.342793,0.208438,-0.112554,0.253767,0.017633,-0.219675,-0.050789,0.169669,0.171515,-0.198582,-0.099371,-0.131062,-0.240673,-0.978857,0.016413,0.273905,-0.145522,-0.146202,-0.130629,0.15404,-0.057719,-0.038971,-0.105837,-0.032073,-0.186272,-0.073311,0.107827,-0.113508,-0.151683,0.164107,-0.029953,-0.090927,-0.164998,0.123333,0.107162,-0.101927,0.161216,0.170838,0.060038,-0.094182,-0.395569,0.40375,-0.181895,-0.492322,0.171306,0.024641,0.099416,0.260623,-0.045989,0.128272,-0.319921,-0.215747,-0.189577,-0.457584,0.412634,0.13991,0.009186,0.053568,0.103907,1.120086,0.071132,-0.487769,0.045901,0.039097,-0.205163,0.088097,-0.098298,-0.048332,0.087258,-0.086117,0.182804,0.102233,-0.174946,-0.012518,0.288996,-0.076598,-0.025991,-0.029704,0.157405,0.054591,-0.231479,-0.07918,0.144752,-0.203009,-0.215149,0.081229,0.119248,-0.360249,0.126013,0.255902,-0.439595,0.155623,0.168151,-0.002866,0.266894,0.101108,0.001019,0.067164,0.047679,-0.082891,-0.30245,-0.071054,-0.277113,-0.443687,-0.186153,-0.334149,-0.45148,0.822931,-0.620209,0.046569,0.106163,0.073059,0.102761,-0.002076,-0.157487,0.018672,0.00603,-0.057904,-0.023338,-0.005941,0.028475,0.091771,-0.086572,-0.179581,-0.151592,-0.244984,0.242238,-0.148475,-0.171979,0.120889,-0.013822,-0.224947,-0.138338,0.331348,0.30246,0.031327,-0.16746,0.231116,-0.031865,-0.068329,0.166244,0.037707,0.053195,-0.091389,-0.109265,-0.068468,0.507683,0.261749,-0.096583,0.237973,-0.024478,1.136934,-0.489477,0.696041,-0.011922,-0.12186,-0.00667,0.126968,-0.094956,0.08928,-0.095441,-0.06373,-0.097258,-0.125417,0.189323,0.123977,0.054305,0.016892,-0.132287,-0.175307,0.136068,-0.300078,0.079391,0.076414,0.171597,0.227113,-0.147816,0.090852,-0.006953,-0.111167,0.244091,0.171761,-0.048639,0.146989,-0.118848,-0.110983,0.208955,-0.150007,-0.140588,-0.160811,0.011225,-0.046247,0.161379,0.013335,-0.211307,-0.302417,0.189691,0.861696,-0.648813,0.145295,0.481855,-0.07724,0.187601,0.18176,0.11633,0.127095,0.054456,0.033586,-0.00392,0.086289,0.013097,0.0539,0.116066,0.11993,0.072907,-0.255374,0.10678,0.020634,-0.335897,-0.021021,-0.110925,-0.038769,-0.132873,-0.363231,-0.165181,-0.515126,-0.053636,-0.016249,0.005951,-0.23031,0.198362,0.165664,-0.007581,-0.070675,0.329314,-0.146662,0.198466,-0.126349,-0.272301,-0.099134,0.203571,-0.281353,0.215481,0.585118,0.300362,0.184493,-0.279692,0.310078,-0.26511,0.037671,-0.063585,-0.023532,0.080983,-0.107604,-0.003699,0.041578,-0.259743,0.070451,0.355773,-0.09791,0.142188,0.010443,-0.001114,0.194407,0.388043,-0.165171,0.006237,-0.150503,0.02531,0.090979,-0.365526,0.071191,0.070931,-0.240051,0.329422,-0.250801,0.140407,0.177843,-0.074547,0.340245,0.094973,-0.228878,-0.124824,0.176477,0.042543,-0.003972,0.245666,0.119001,0.431104,0.81393,0.451507,-0.004801,-0.109505,-0.391328,0.442154,-0.130179,-0.210575,-0.105494,-0.138355,-0.047277,-0.035103,-0.225812,0.094367,-0.139052,0.171385,0.301681,-0.165196,0.248183,-0.075698,0.13891,-0.004186,-0.148872,0.082195,0.056076,-0.026465,0.239449,0.107366,-0.053149,-0.163561,0.022622,-0.093822,-0.198434,-0.156123,-0.173261,-0.251025,0.059541,-0.138137,-0.12205,0.011346,0.18869,0.012791,-0.089176,0.388051,0.208727,-0.169047,-0.638105,0.701915,-0.055552,-0.47934,0.202267,0.078908,0.125541,0.136383,0.028675,0.138286,-0.074968,0.115115,-0.058172,-0.15079,0.027021,0.058472,0.024562,-0.110046,-0.061421,-0.126013,-0.228885,0.039329,0.041698,0.036936,-0.089669,0.092763,-0.28478,-0.030572,0.389604,0.258936,-0.22069,0.048046,0.097852,0.021686,-0.003186,0.23384,0.183326,-0.131333,0.064808,-0.480673,-0.089034,0.656313,0.056776,-0.02121,-0.07616,-0.019933,0.703907,-0.517326,0.134625,-0.435346,0.003446,-0.15532,0.123537,-0.068799,0.009125,0.133921,0.093306,0.046337,0.029003,0.086608,-0.034811,-0.021447,0.103846,-0.060659,-0.110659,0.144939,-0.15821,-0.10965,0.141423,-0.080442,0.129318,0.194888,-0.071702,0.132664,-0.247974,-0.046211,0.195465,-0.105862,0.237667,-0.112198,-0.197347,0.189201,-0.073525,0.176095,-0.128995,-0.305758,0.142721,-0.083134,-0.077244,-0.158949,-0.005639,-0.479222,-1.076874,-0.3609,0.701036,-0.339097,-0.180526,0.224753,0.129876,-0.033507,0.114828,0.072132,0.080683,-0.062299,0.13839,-0.042172,-0.065838,-0.138095,-0.077973,-0.050585,0.027936,-0.089681,-0.230704,0.031749,0.02958,0.027344,0.29505,0.049099,-0.155981,0.401359,-0.033041,-0.202449,0.064404,-0.40586,-0.171771,-0.140005,0.116069,-0.114714,-0.116405,0.241542,-0.284619,-0.147176,-0.009343,0.233599,-0.000122,-0.221918,0.096922,0.000985,-0.202174,-0.077294,-0.751738,0.565561,0.430455,-0.480953,0.106705,-0.066418,0.118471,0.089786,0.159422,-0.021954,0.10654,-0.03492,0.00047,-0.042446,-0.080146,0.058164,-0.001367,0.065596,-0.318428,0.165844,0.255712,-0.043287,0.003665,-0.000455,-0.16687,-0.054755,-0.432928,0.055046,-0.042397,-0.444673,0.11768,-0.115088,0.54087,-0.11364,0.04556,0.216854,0.235739,0.461084,-0.036861,0.012198,-0.091352,-0.374546,-0.085179,0.094586,0.365524,-0.1145,0.201318,0.006958,0.237468,0.23629,-0.03914,-0.0041,0.091664,-0.162905,0.058679,-0.052447,-0.070664,0.056318,0.088161,0.151272,0.112541,-0.149299,-0.139842,0.094057,-0.127442,-0.15,0.028818,-0.10874,0.130292,0.200272,-0.033204,-0.44499,0.194437,0.001666,-0.166148,-0.021696,0.152465,0.079313,0.154206,0.167028,-0.118998,0.111072,0.166426,-0.011735,-0.442417,0.384958,0.093745,0.181769,-0.291237,-0.083856,1.359399,-0.286508,0.478809,0.104568,-0.033922,-0.133053,-0.097474,0.123491,-0.098171,-0.035233,0.101557,0.078572,-0.135473,-0.037067,0.003103,0.057073,-0.399393,0.068146,-0.200262,0.0133,0.139255,0.11635,-0.124629,0.107811,-0.05312,0.086355,-0.225845,0.221371,-0.422415,0.211529,0.219253,-0.065984,-0.121867,0.157035,-0.032939,0.010644,0.015986,-0.095582,0.034332,0.403571,0.0755,-0.329539,-0.015982,-0.166698,-0.371122,0.21088,-0.223694,-0.465719,0.063592,-0.111067,-0.065955,0.362619,0.127591,-0.092468,0.075894,0.040583,-0.048047,-0.051119,-0.15106,-0.031782,0.128551,0.180818,-0.108645,-0.086943,-0.145515,-0.075934,0.264343,0.075083,-0.147048,-0.110114,0.048293,-0.072089,-0.248472,-0.139885,-0.383841,0.071602,0.062901,0.16433,-0.315785,-0.033082,-0.04146,-0.170085,-0.01646,-0.180025,0.119837,-0.066871,-0.349596,0.015984,-0.095025,-0.160076,-0.06515,0.000301,0.362036,-0.49006,-0.216351,0.540231,0.028176,0.310325,-0.055097,0.010704,0.156712,0.133297,0.143324,0.153111,0.082764,-0.120614,0.027593,-0.108838,0.019565,-0.106784,-0.257326,-0.065548,0.235118,-0.135531,0.011881,0.159301,-0.081238,-0.267538,-0.035606,0.11426,-0.51531,0.149205,0.003779,-0.306722,0.063009,-0.256244,0.229804,0.233154,-0.34272,-0.025057,0.107575,0.220586,-0.222861,-0.25992,-0.036418,-0.183329,-0.309524,-0.490364,-0.701137,-0.244343,-0.294608,0.315436,-0.470223,-0.30841,0.05691,0.009685,-0.053051,-0.190163,-0.094355,-0.161437,-0.182844,-0.003564,-0.143616,-0.139681,0.136614,0.08653,-0.000277,-0.019276,-0.496627,0.212692,0.084341,0.011809,-0.242543,-0.054253,-0.247121,0.045148,-0.119999,-0.221207,0.020856,0.197724,0.162832,0.381255,0.110336,-0.217305,-0.019503,0.011257,-0.322417,-0.117985,0.02677,-0.037034,-0.062759,0.178322,-0.068677,-0.116946,-0.843975,0.32675,0.460049,0.142342,0.312456,-0.01132,-0.143996,-0.099481,0.006379,-0.17166,0.080841,-0.080371,0.022262,-0.161751,-0.03281,-0.340276,0.167056,-0.101859,0.028213,-0.090953,0.218991,0.320129,-0.229187,-0.010194,0.278891,0.174894,-0.213948,0.210626,-0.112071,0.304956,0.091888,-0.053755,0.168831,-0.053716,0.223203,0.329145,-0.064047,0.048148,0.261409,-0.207901,-0.058981,-0.103485,0.168824,0.299224,-0.408605,-0.050233,0.598552,0.291171,0.519767,-0.457275,0.163766,-0.256835,0.070299,0.068382,-0.000897,0.026464,0.03263,-0.023082,0.05684,0.063363,0.094254,-0.050764,-0.024294,0.071783,0.126863,0.038503,-0.215429,0.017854,-0.189945,-0.086716,-0.222423,0.02858,-0.313376,0.204999,-0.276264,-0.073174,0.113178,0.043728,0.178919,0.027007,0.080555,0.137425,0.000854,-0.015813,0.103595,0.473358,-0.22886,-0.551616,-0.125576,-0.34857,-0.036416,-0.175088,-0.968187,-0.243261,-0.158783,0.333762,0.115219,-0.002284,0.117325,0.007685,-0.009909,-0.083376,-0.072166,-0.12391,-0.018569,-0.140587,-0.010049,0.195694,0.122744,-0.083032,0.033299,-0.078387,0.267019,-0.12775,-0.100598,-0.010987,0.05749,-0.182465,-0.204646,-0.114912,-0.097694,-0.093345,0.207163,0.27795,-0.211179,0.122307,0.04849,0.009246,0.278466,-0.031806,0.20447,0.298288,-0.054564,0.065124,-0.153308,-0.261418,0.395601,0.624926,0.859088,-0.095067,0.157425,-0.456493,-0.492179,-0.597893,-0.079796,0.091335,0.027828,-0.041407,-0.075414,-0.10485,-0.148381,0.040884,-0.069329,-0.093108,0.232495,-0.100862,-0.121881,-0.021261,0.077913,-0.227746,-0.098615,-0.01331,0.322782,0.110334,0.284384,-0.00227,0.13979,-0.01939,0.08002,0.310654,0.108563,0.064656,-0.196459,-0.214044,0.060915,-0.029969,0.09767,-0.426392,-0.120792,0.304464,-0.185523,-0.252815,-0.214531,-0.888171,-1.490716,-0.195,0.118589,-0.003305,-0.1287,0.058904,-0.10352,-0.115044,-0.130456,-0.19076,-0.228201,-0.196335,-0.139553,-0.139797,-0.039695,-0.188989,-0.180859,-0.010063,-0.035665,-0.268778,-0.128107,-0.209075,-0.092686,-0.147601,0.046262,0.014175,-0.232298,-0.046361,0.190811,-0.058749,0.099004,0.089096,-0.054938,-0.001346,0.219438,0.10275,-0.217258,0.320003,-0.046197,-0.115268,-0.202046,0.055473,0.169562,0.390237,-0.137178,0.199854,1.13692,0.601979,0.475894,-0.479535,0.161968,-0.083478,0.131742,0.127474,0.120367,0.069702,-0.083949,0.1334,0.093874,-0.083121,-0.016537,0.206838,-0.126563,-0.131462,-0.014198,-0.054656,0.053131,0.160758,-0.068302,-0.109769,-0.164128,0.095197,-0.224602,0.442307,0.134446,-0.082685,-0.141301,-0.302147,-0.185071,-0.059548,0.075441,-0.171997,0.067809,0.045328,-0.49651,-0.257678,0.42084,-0.086355,-0.228902,-0.591563,0.196137,-0.075133,-0.999661,-0.241974,-0.86238,-0.356127,0.121749,0.187971,-0.003404,-0.025675,-0.089931,0.094113,0.055024,0.088799,-0.001402,0.099491,-0.01515,0.365617,-0.190237,0.060488,0.158777,0.056923,0.27062,-0.06701,0.186333,-0.059208,0.028878,-0.183372,-0.031777,-0.060925,-3.1e-05,0.197177,-0.102649,0.001332,0.173437,-0.08015,-0.165014,-0.042331,0.136383,0.00526,0.111535,-0.221776,-0.233671,0.166155,-0.056923,-0.229038,-0.154307,-0.077764,0.160456,-0.687185,-0.016419,0.322338,-0.114058,0.250743,-0.10605,0.017417,0.119634,0.051671,-0.01802,0.076975,-0.132698,0.081317,0.157704,0.047061,-0.013884,0.054394,-0.113617,-0.081503,0.147612,-0.167738,0.07275,0.061037,-0.030913,-0.243089,-0.236339,-0.344654,0.209505,-0.002401,-0.35819,-0.031807,-0.021966,0.047069,0.270631,0.160922,0.189668,0.014984,-0.035335,-0.09231,-0.344133,-0.006061,0.012006,0.006004,0.402077,-0.154028,0.419853,-0.1743,-0.42303,0.129889,-0.0153,0.310044,0.026771,-0.015516,0.019629,0.010205,-0.019278,0.045492,0.026133,0.05745,-0.059348,-0.027917,0.011742,0.025423,0.032261,0.02319,0.031195,-0.264695,0.362477,0.145157,0.204615,0.252117,0.074381,-0.052823,0.253387,0.04419,-0.15078,-0.274817,0.122417,-0.130372,-0.361117,0.132374,-0.048226,-0.272087,0.100433,-0.438229,0.178307,0.336777,0.092106,0.067978,-0.121034,0.093208,0.143197,0.218659,-0.369625,-0.118262,0.192853,0.095092,0.02226,0.034093,0.022202,0.050106,0.098442,0.135143,0.167086,0.005814,0.130236,0.20579,-0.10827,0.081262,0.199353,0.22169,-0.082654,0.164249,-0.138072,-0.06467,-0.220857,-0.066836,-0.00129,-0.00494,-0.408599,0.029453,0.14107,-0.043516,-0.373501,-0.086255,0.078229,-0.006573,-0.016228,-0.173985,-0.059859,0.298881,-0.314826,-0.174279,0.114513,-0.219046,-0.284319,0.002694,1.201741,-0.333047,-0.477671,0.021839,-0.094075,-0.103497,-0.100854,-0.103435,0.045447,0.106692,0.174478,0.180089,-0.107236,-0.090504,-0.045115,-0.118999,-0.227913,-0.161532,-0.317331,0.174436,0.200458,-0.285633,-0.004204,-0.110595,-0.296854,-0.005221,0.118148,0.113146,0.079599,0.012996,-0.136501,0.058304,0.146546,-0.101021,-0.203899,0.12773,0.073623,0.186174,-0.074952,0.182445,-0.102198,0.20783,0.044309,-0.19239,0.263984,0.346881,0.682216,-0.240409,-0.112734,0.104577,0.016696,-0.18662,-0.043709,0.147803,0.025144,0.07441,0.172854,0.232438,0.210311,-0.013455,0.010918,-0.067192,-0.091031,-0.010941,0.196198,0.157113,-0.055755,-0.016758,0.200317,0.003533,0.19951,0.176804,0.31263,0.272261,-0.425775,0.339725,0.576808,-0.197519,0.132042,-0.079784,-0.093468,0.208684,-0.054079,-0.022079,-0.054924,0.212137,0.45212,-0.664251,0.115207,0.204808,-0.132804,0.494169,0.204443,0.051743,0.150993,0.133739,-0.468983,0.183435,0.084234,-0.071838,-0.110254,0.00484,-0.090547,0.059354,0.094135,-0.048237,-0.09353,0.044753,0.35935,0.104408,-0.112543,0.062297,0.091767,-0.248736,-0.017423,-0.161987,0.025098,-0.304095,0.045487,-0.00285,0.173545,-0.300379,-0.126494,-0.073621,0.105564,-0.056551,-0.069084,-0.241051,0.144172,-0.043907,0.076214,0.150618,0.158865,0.010324,-0.234618,-0.146936,0.139358,-0.131063,-1.439751,-0.326945,-0.611119,0.124687,-0.111583,0.065885,-0.117961,-0.123224,-0.096569,-0.034653,-0.060354,0.104955,-0.008866,0.073688,-0.120561,0.051012,-0.084772,0.161411,0.311168,-0.024423,0.181896,0.266564,0.256918,-0.136604,0.295249,0.306454,0.001923,0.329379,0.294255,-0.047673,-0.061227,-0.32481,-0.12063,-0.298326,-0.136656,0.079114,-0.205674,-0.051992,-0.000111,-0.065143,-0.008774,-0.133199,-0.028689,-0.171189,0.112208,-0.270847,-0.672736,-0.332833,-0.767131,0.311942,-0.60929,-0.212803,0.053359,-0.104128,0.069219,-0.012154,0.120859,0.003989,0.12229,-0.007813,0.064373,0.270533,-0.286742,0.084958,0.065423,0.117541,-0.075426,0.098703,0.334664,-0.050466,-0.146314,0.067035,0.117724,-0.207083,-0.092928,0.257312,0.029019,0.07208,0.193311,-0.023823,0.004593,0.259969,-0.14363,0.27752,-0.17012,-0.194311,-0.197219,0.052674,-0.125083,-0.309227,0.201282,-0.644775,-0.810455,-0.800803,0.647282,0.133668,-0.233673,0.002946,-0.067564,0.117829,-0.08967,0.072699,-0.027759,-0.094884,-0.142177,0.019,0.077221,0.113399,-0.07135,-0.099261,0.119979,-0.043231,-0.151947,-0.026424,0.097249,0.052379,0.318519,0.222927,-0.041331,0.204162,-0.286654,0.099351,-0.068774,0.047913,0.107637,-0.349239,0.106375,0.09152,-0.34493,-0.203976,0.106474,0.006378,-0.331727,-0.188793,0.045703,-0.482789,-0.218997,-0.542071,-0.643838,-0.643827,-0.526421,-0.008287,0.310423,-0.368539,0.08601,0.171571,0.150718,-0.100194,0.092302,-0.039042,0.08211,-0.048111,0.117429,-0.17758,0.097606,0.08368,-0.002262,0.010684,-0.067648,0.047047,-0.121123,-0.030357,-0.053984,-0.038725,-0.152476,-0.095285,0.468981,-0.166153,-0.014377,0.413761,-0.147218,0.066451,-0.189487,-0.009988,0.11563,-0.249304,0.237066,0.311382,0.11925,0.255042,0.077067,-0.405134,-0.102525,0.243405,-0.54484,-0.250397,-0.052862,-0.145549,0.03282,0.047115,-0.138734,-0.021865,0.041402,0.03282,0.05357,-0.026427,-0.07976,-0.140513,-0.02001,0.09807,-0.123774,0.096501,-0.174078,-0.03336,0.107802,0.094131,-0.242002,-0.001393,0.091892,0.129864,0.086933,-0.240713,0.139087,-0.241017,-0.232099,-0.231575,-0.164812,0.267943,0.166413,-0.021491,0.252611,0.352073,-0.019564,-0.001949,-0.154837,0.216669,-0.037327,-0.15402,-0.282286,0.527353,1.231991,0.013527,0.438285,-0.130397,0.079733,-0.072286,0.110673,0.039328,0.074951,0.135642,-0.040567,0.132865,-0.168046,0.030783,-0.142745,0.207731,0.008051,-0.074738,0.037495,-0.030353,-0.029114,0.339818,-0.018702,-0.18464,-0.195204,-0.164101,-0.262088,0.112141,-0.051709,-0.065225,0.267712,0.230949,0.091784,0.187088,-0.441517,0.06043,0.149118,-0.09691,-0.19619,-0.191885,0.009386,-0.283821,0.102127,-0.188131,-0.249818,0.262773,0.222406,-0.43917,0.227618,0.07157,-0.092232,0.33589,-0.095941,0.089138,-0.044662,0.037241,0.00792,0.051693,-0.007483,-0.046344,-0.125188,0.109025,0.001119,-0.049881,-0.121738,0.06697,0.244412,-0.175157,-0.210744,0.209961,0.166005,-0.125706,-0.096034,0.141587,-0.04058,-0.258997,-0.005719,0.009621,-0.433638,-0.112274,-0.233625,-0.087521,-0.176794,0.119639,-0.007364,0.433816,0.119848,-0.347894,-0.000902,0.151659,0.302215,1.071817,1.030491,0.336986,0.223388,-0.205713,-0.114161,-0.066945,0.110987,-0.139816,-0.010242,0.054717,0.021429,-0.101777,0.07884,0.069989,0.010486,0.284004,-0.145089,-0.200508,0.035462,0.010573,0.184662,-0.015379,-0.093181,0.094919,-0.158984,0.010857,0.283577,0.204014,-0.077637,-0.097397,0.200455,-0.016153,0.009785,0.131149,-0.222129,0.073398,0.052318,0.015517,0.069734,0.402326,0.188498,-0.26024,0.033344,0.385796,0.259796,0.161634,-0.669492,0.40042,0.190748,-0.166064,0.157264,0.046467,-0.061595,0.044619,-0.152082,-0.144509,-0.165533,-0.146324,0.007458,0.09371,-0.016921,0.048748,0.152399,-0.17489,-0.019292,-0.135596,0.114296,-0.079922,-0.125715,0.009243,0.017162,0.091871,0.124799,0.158636,-0.028519,-0.082501,0.030317,-0.388773,-0.194389,0.211246,-0.031591,0.10067,-0.225306,-0.136126,0.271502,0.46939,0.223141,-0.220942,0.196857,0.293338,0.069563,0.916167,1.525216,0.477677,0.058366,0.200283,-0.069103,-0.013443,-0.007607,-0.118159,-0.088741,-0.082338,0.112094,-0.013989,0.051055,0.169311,0.039498,0.306379,-0.070978,-0.112801,0.00629,0.079338,-0.061879,0.000811,-0.052787,-0.058873,-0.094958,0.055977,-0.222365,0.00996,-0.437196,-0.290508,0.266324,-0.453488,-0.1626,0.093439,-0.231615,-0.273215,-0.025304,0.042079,0.168918,-0.166633,0.166528,-0.226973,-0.105117,-0.192492,-0.505278,0.432617,-0.763103,-0.164852,0.126095,0.266451,-0.183534,0.472607,0.104118,-0.045373,0.134161,0.01612,0.182396,0.10811,-0.134525,0.037319,0.035511,-0.094134,-0.025516,-0.072807,0.109527,0.170745,-0.109214,0.227265,0.058712,-0.064778,-0.180972,0.091818,-0.252127,-0.163595,-0.040509,0.140159,-0.124177,-0.310057,0.222391,-0.210196,-0.22725,0.196718,0.010109,-0.144369,0.108158,-0.035833,-0.016281,0.073473,-0.017565,-0.462981,-0.104499,-0.025037,0.05014,-0.453899,-0.087868,-0.048346,-0.290556,-0.187691,-0.041254,0.12987,-0.102694,-0.031297,0.034861,-0.057137,-0.087666,0.057994,0.170205,-0.004229,0.090248,0.065015,0.08592,0.09207,-0.051798,-0.10081,0.236258,-0.114908,0.139435,0.163912,-0.211734,-0.205281,-0.008361,-0.161971,0.048399,0.161067,0.063673,-0.099653,0.346396,0.017116,-0.050642,0.211492,0.048196,-0.139421,-0.390075,-0.098083,-0.167955,-0.10647,-0.073698,-0.510916,-1.161735,-0.080642,-0.510964,-0.029426,0.117993,-0.271339,-0.007389,-0.069104,0.123468,-0.035863,0.058745,-0.114343,-0.040737,-0.125097,0.059282,0.072653,0.077597,0.1118,0.152741,0.122555,0.107263,0.012715,0.146991,-0.026361,-0.213093,0.168659,-0.241269,0.156335,0.164281,-0.032824,0.23835,-0.116649,-0.104525,0.154465,0.069661,0.27512,0.191665,0.074481,0.037821,0.216447,0.002502,0.027655,0.087305,-0.327096,-0.530396,0.591429,1.382724,-0.134696,0.189971,0.033097,-0.203003,-0.039529,-0.086531,-0.098681,0.123384,0.142315,0.048897,-0.118533,0.141772,0.065769,-0.057979,0.183925,-0.119625,-0.078718,-0.243226,0.119703,0.245136,0.089525,-0.129742,-0.175591,0.040321,0.013787,-0.258488,0.05213,0.102465,0.22658,-0.171308,0.048393,0.289752,-0.00947,-0.224096,0.095855,0.323131,-0.174818,-0.327456,-0.238585,0.252301,0.03482,0.007568,-0.013224,-0.04526,0.050574,0.85698,-0.102499,0.347868,0.805216,-0.209899,0.13766,0.099029,-0.15844,0.081978,0.036459,-0.10982,0.100481,-0.131222,-0.062922,-0.07928,-0.243763,-0.024698,0.098223,-0.117065,-0.118271,-0.112219,-0.268453,-0.042936,-0.002317,-0.258511,-0.113708,0.224718,-0.47014,0.37003,0.030095,-0.354374,0.16201,0.085897,-0.102743,0.119662,0.005465,0.17517,-0.274612,-0.186305,-0.262289,-0.477099,0.466709,0.159876,-0.315684,0.04462,-0.11916,0.091983,-0.34321,-0.218203,-0.044231,-0.173798,-0.161919,0.166792,0.127408,0.065346,-0.020033,-0.103276,0.156495,0.018676,0.058613,0.061265,-0.233242,-0.016754,0.094449,-0.189045,0.098054,-0.057033,0.022645,-0.040828,0.086057,-0.02096,-0.05457,-0.000291,-0.10654,-0.072077,-0.189926,0.035044,-0.198981,0.19814,-0.328676,-0.209631,-0.16437,-0.143509,-0.452613,0.068367,0.156659,0.042628,-0.044059,-0.063006,-0.325885,0.252551,-0.466751,-0.709294,-0.072925,-0.234281,-0.310264,-0.011572,0.487366,-0.037999,-0.001424,0.09008,-0.068013,0.080754,0.124949,0.020718,0.031934,0.11229,-0.047107,-0.017672,0.079515,-0.090517,-0.15609,0.020311,-0.316559,0.304768,0.160847,-0.077786,0.090193,-0.123516,0.092851,-0.124857,-0.077941,0.180841,0.025151,-0.376787,-0.16486,-0.116188,-0.180341,-0.105121,0.017044,-0.166844,0.042596,0.088275,-0.074479,-0.22957,0.340439,0.076316,0.103173,-0.488632,0.198585,-0.417363,0.676415,-0.096726,-0.136799,0.099619,-0.000816,0.027671,0.104709,0.040265,-0.088798,0.119785,0.094941,-0.063429,-0.09016,-0.125799,0.156801,-0.097169,0.073962,-0.041227,-0.046553,-0.089554,0.165392,-0.048096,-0.122209,0.359859,-0.003695,0.28285,-0.153555,-0.104737,0.154758,-0.13476,0.108531,0.233734,-0.281931,0.182545,0.108357,-0.12039,0.370981,-0.071531,0.026953,-0.051846,-0.41259,0.35773,0.239957,-1.073172,-0.056303,-0.065818,0.401175,-0.085215,0.165911,0.03146,-0.128174,-0.149667,-0.123544,0.051983,0.101984,0.023524,-0.007586,-0.089378,0.112148,0.076421,-0.058736,0.131414,-0.164041,0.038753,0.01492,-0.068398,0.024306,0.3557,0.22473,0.354996,0.020381,-0.271341,-0.187297,0.045694,0.140987,0.052348,0.360273,0.177315,-0.260081,-0.023738,-0.238403,0.032359,0.125032,0.04879,0.003586,-0.305658,0.061697,0.309368,-0.023241,-1.118993,0.397776,-0.550814,0.237276,0.047305,-0.081299,-0.030739,-0.094148,-0.033097,-0.078275,-0.082654,-0.147972,-0.101264,0.00384,0.044668,0.09126,0.131264,0.040314,0.128928,-0.094484,0.240861,-0.074353,0.006537,-0.076699,0.162247,0.313263,0.022299,-0.178,0.186499,0.059671,0.017646,0.002295,0.213525,0.059741,-0.143492,-0.162811,0.236578,-0.044898,-0.085838,-0.366462,0.167737,0.222582,-0.175686,-0.237675,-0.213661,-0.085074,-0.651182,-0.153518,-0.033804,0.245329,0.169721,0.279602,0.027757,-0.018405,0.018485,-0.027097,0.033978,0.053851,-0.113782,-0.096265,0.059861,0.105496,0.0299,0.152792,0.072148,-0.006548,0.181952,-0.259135,-0.26237,0.163637,0.063616,-0.330863,0.156692,-0.324444,0.115753,-0.140688,-0.407201,0.188074,-0.36072,0.182018,0.301417,-0.073512,0.045305,-0.084391,0.15184,0.512795,-0.436191,0.157689,0.030671,-0.093748,-0.09734,0.253292,1.479875,-0.074507,-0.175038,0.437427,-0.10095,-0.180318,-0.083441,-0.037434,-0.035358,0.085042,0.05203,-0.078725,0.081275,0.046227,-0.042823,0.104553,-0.009318,-0.194359,-0.128528,0.007183,0.13238,-0.165652,-0.148706,-0.05265,-0.020446,-0.022717,0.290656,-0.159557,0.15878,-0.143523,-0.047037,-0.175344,-0.101549,-0.195026,-0.172713,0.09033,-0.193798,0.070445,-0.194013,-0.610004,-0.434479,0.577935,0.053085,-0.314344,-0.030222,0.037063,0.02633,-0.63215,0.789127,0.08221,0.225467,-0.109111,0.026532,0.065674,0.098228,-0.026991,0.144468,0.037521,0.226258,-0.22123,0.199659,-0.218406,0.141847,0.10495,-0.114639,0.178116,-0.440316,0.264615,-0.14414,0.23645,-0.06032,-0.140384,0.289193,0.208764,-0.067548,0.181176,0.097061,-0.031851,0.167844,0.039978,-0.218584,0.257939,-0.324286,-0.308065,-0.120022,-0.155202,-0.029928,-0.197092,0.152009,-0.274931,0.131517,-0.225435,-0.07492,-0.545891,-0.006219,0.699568,0.232599,-0.115812,0.109039,-0.094033,0.145379,0.022859,0.090137,0.050804,0.017847,0.127799,-0.099771,-0.15912,0.035773,-0.049437,-0.055638,0.056254,-0.174585,-0.273537,0.053488,-0.0116,0.124635,-0.141375,-0.227468,0.180242,-0.592471,-0.129343,0.132344,-0.345419,-0.085792,0.136079,0.124795,-0.107011,-0.106958,-0.044882,-0.001561,-0.158957,0.00315,-0.305095,-0.046974,-0.338188,-0.118393,0.219486,-0.997068,-0.520679,-0.114476,0.38388,-0.23725,0.04427,-0.003503,0.16025,-0.0943,0.147424,0.098536,-0.096644,-0.10493,-0.143737,-0.071664,-0.099074,0.200021,-0.146971,0.079416,-0.066754,0.107665,-0.236285,0.101446,0.014633,0.05061,-0.173631,0.137804,-0.015201,0.003078,0.290738,0.149079,-0.115866,0.225184,0.044623,-0.318628,0.303813,-0.009163,-0.382291,0.04332,-0.211525,0.162223,0.044423,0.271262,0.047002,-0.241773,0.176813,0.889341,-0.069585,0.729695,0.237053,-0.031383,0.178303,0.145503,-0.090203,0.027459,0.050941,0.135784,-0.015234,0.159613,0.089968,-0.081692,0.051113,0.137853,-0.033633,-0.232573,-0.013311,0.08975,-0.173778,-0.157582,0.007554,0.102272,-0.342234,0.196183,0.156197,-0.44843,0.156481,0.117604,-0.14147,-0.237502,0.170352,0.011444,-0.049801,-0.207519,-0.135062,0.188919,0.051634,0.002087,-0.506857,-0.245871,-0.390941,-0.168093,-0.121369,-1.51964,-0.477732,-0.119572,0.376108,0.034164,-0.119757,0.075419,0.066494,-0.103741,0.107093,-0.114875,0.035998,-0.068572,0.021514,0.019934,-0.029484,-0.015011,-0.068768,0.010973,-0.002637,-0.063318,-0.034223,0.020708,-0.155657,0.174068,0.02181,-0.005996,-0.118412,0.328629,0.078725,-0.060278,-0.080702,0.275238,-0.14483,0.163646,-0.018447,0.031135,0.350251,0.045991,-0.094007,-0.083401,0.495467,0.048941,-0.140283,-0.171776,0.329864,0.906244,-0.571804,0.925865,-0.094299,-0.22996,-0.055068,0.013276,0.120002,0.079673,0.137219,-0.04962,0.121656,0.12644,0.025514,-0.052609,0.130919,0.062819,-0.064335,0.088603,-0.058752,0.140886,0.2654,-0.161533,-0.031383,0.289493,-0.09651,-0.100696,0.046307,0.063475,0.417649,0.089558,-0.28233,0.530663,-0.043965,-0.067733,0.413869,-0.185157,-0.041914,0.096153,-0.001017,-0.055443,0.195925,0.269138,-0.066876,-0.018536,-0.092625,0.950049,-0.46457,0.886912,-0.282382,-0.038518,0.110439,0.080259,-0.163278,0.043666,-0.004155,0.100331,0.100799,0.001608,-0.015568,-0.084665,-0.035404,0.128463,0.106004,-0.165663,0.087634,-0.247773,-0.055891,0.022504,-0.032486,0.029979,0.047308,0.063085,0.297773,0.48801,-0.009668,0.03482,-0.116452,0.133126,0.096232,-0.013222,0.110554,-0.049476,-0.236597,-0.040341,-0.201428,-0.002093,0.069641,0.00676,0.20428,-0.036242,-0.274347,-0.960575,0.395811,-0.028729,0.290458,0.625281,-0.185775,-0.098078,0.046705,0.073701,0.078486,0.011295,0.100493,-0.008699,-0.186717,-0.024015,-0.144276,0.160357,0.230972,0.11334,-0.091444,-0.30669,-0.106962,-0.039243,-0.112905,-0.00018,0.000429,0.028541,0.085321,-0.227329,0.041827,0.238104,-0.457604,-0.030438,-0.013899,-0.195885,-0.029479,-0.189087,0.191108,-0.208573,-0.423374,0.053241,-0.206055,0.061326,0.098044,-0.202056,0.499942,1.210942,-0.399393,0.744369,-0.022078,-0.090667,0.094482,0.161434,0.021155,-0.022046,0.091228,0.013876,0.038607,-0.109528,-0.141021,0.034312,-0.209829,0.017867,-0.035393,-0.039159,0.162392,-0.068564,0.251385,0.022874,-0.043807,0.006917,0.079472,-0.203184,0.189093,-0.186025,-0.323392,0.248731,-0.20783,-0.427078,0.347301,-0.200005,-0.198662,0.281825,-0.084625,-0.197157,0.061323,0.175078,0.054553,-0.04659,0.048306,0.186484,0.565389,0.206649,0.337825,0.280099,-0.748819,-0.182806,-0.185855,0.039282,-0.068046,-0.129694,-0.057293,-0.021011,-0.016685,-0.084677,-0.301526,-0.038507,0.053551,-0.192286,-0.100779,-0.229304,0.04511,-0.169001,0.143591,0.019611,0.21585,-0.076144,0.031201,-0.151598,-0.114495,-0.07188,-0.143306,-0.134539,-0.021499,0.033811,-0.004228,0.295665,-0.112098,-0.139136,0.31358,0.032336,0.435487,0.131036,-0.058974,0.009927,0.141521,0.353906,-0.289119,-0.557496,0.418494,-0.249145,-0.308847,0.270833,-0.207689,-0.084407,0.037472,-0.094429,-0.026802,-0.088433,0.062405,-0.099315,-0.0768,0.10965,0.097467,-0.085921,0.143758,0.016339,-0.161158,-0.150163,0.275904,0.227307,-0.030862,0.124875,0.218117,0.03977,-0.043413,-0.334093,-0.008151,0.105608,-0.089293,-0.164398,0.104465,0.253308,-0.09805,0.016722,-0.111823,0.251058,0.332523,-0.246586,-0.454377,0.046681,0.089687,-0.179826,0.526214,0.977658,0.330694,-0.343426,-0.278914,0.290455,0.114371,-0.051139,-0.06915,0.106796,0.135902,-0.125191,-0.132721,0.095881,-0.089738,0.059819,0.279194,-0.132089,-0.041268,0.022484,0.054314,0.138761,-0.024987,-0.045692,-0.113768,-0.338454,-0.130864,-0.154772,0.093285,-0.250726,-0.095966,-0.177078,-0.254488,-0.079312,-0.067091,0.202922,-0.010856,0.165183,-0.006542,0.066743,0.397126,-0.018607,-0.332183,0.099888,0.291619,-0.088949,0.451142,1.342281,0.489517,-0.355183,0.15081,0.177609,0.179295,0.028178,0.025033,-0.033265,0.145208,0.148741,0.057728,0.116635,-0.139057,-0.038529,0.2971,-0.019359,-0.163482,-0.151154,0.016827,0.072544,-0.153303,0.050688,-0.097055,-0.293422,-0.046196,-0.026925,-0.255295,0.754032,-0.018354,-0.098955,0.321699,-0.084284,0.191835,0.004913,0.022052,0.106005,-0.169726,0.026512,-0.017333,-0.023301,0.819917,0.026775,-0.241538,0.143351,0.314089,1.122128,-0.032782,0.339042,0.155944,-0.069177,-0.066338,0.112541,0.095928,-0.016363,-0.010176,0.135098,0.0225,0.156742,0.050916,-0.012769,0.456381,-0.274037,-0.135595,0.018547,0.119145,-0.006409,0.024082,-0.172121,-0.076755,0.06384,0.106603,0.084559,-0.045006,-0.62004,-0.273421,0.046002,-0.178771,-0.254101,0.044275,-0.084304,-0.091981,0.093708,-0.062713,-0.02639,0.352827,-0.091556,-0.562013,-0.179828,-0.338834,-0.05814,0.17835,-0.931274,-0.202598,-0.185454,0.10334,-0.265078,-0.180323,-0.043538,-0.005704,-0.134629,-0.01796,-0.151,-0.018219,-0.089452,-0.132768,0.080642,0.221057,-0.073359,-0.169837,0.117615,0.069118,0.021736,-0.156107,-0.013188,0.109455,0.061113,-0.013221,-0.087489,0.255665,-0.135624,0.07775,0.037115,0.133773,-0.239493,0.28203,-0.047282,0.169717,-0.040314,-0.086112,-0.001432,0.608905,0.102715,-0.215244,-0.102053,0.036721,0.066044,0.352801,-0.006615,0.033867,0.427898,-0.177887,0.16446,-0.308822,-0.067529,-0.107658,-0.088885,-0.035297,-0.052375,-0.0367,0.196736,0.093723,-0.096845,0.288578,0.131863,-0.158594,-0.182625,-0.013162,0.172934,0.076842,0.012157,-0.136569,0.239644,0.007275,0.015889,0.141829,0.245364,-0.234558,0.220286,0.091075,0.106557,0.02719,-0.044215,-0.225358,0.110977,-0.362025,0.048129,0.122901,0.167728,0.368116,-0.01623,-0.383781,0.203888,0.161199,-0.743564,-0.295583,-0.934888,0.29056,-0.127612,-0.40096,-0.112455,-0.061078,0.001158,-0.017112,-0.111383,0.125874,-0.061764,0.047723,-0.051651,0.144831,0.161128,0.007188,0.014349,-0.032138,0.08384,-0.078313,0.117557,0.177556,0.146674,0.140438,-0.16584,-0.068535,0.232825,0.122306,-0.082542,-0.020077,0.356883,0.088114,-0.062121,0.117968,0.103217,-0.023379,-0.045722,-0.336555,-0.021461,0.371276,0.195667,-0.293462,-0.186499,0.246935,0.579674,-0.412833,0.184114,0.175408,-0.243557,0.124835,0.108979,-0.124075,-0.0651,0.06866,0.005943,0.093119,-0.049198,0.111794,-0.011842,0.199435,0.107458,0.112812,0.120247,0.056257,-0.114579,-0.219253,-0.154013,0.045342,0.206163,-0.012265,-0.062356,0.060099,0.054113,-0.145413,-0.105979,-0.303399,-0.200332,-0.096487,0.074834,0.052459,-0.174876,-0.148738,-0.122665,0.188577,0.098134,-0.095254,0.185119,-3e-06,0.044066,-0.033865,0.080341,-0.179361,-0.047949,-0.030293,0.012623,0.623747,-0.093035,0.092361,-0.050579,0.053005,-0.01564,0.039642,-0.091278,0.220994,-0.013284,-0.076885,-0.079215,0.096761,-0.219131,0.141141,-0.188307,0.00578,0.064202,0.014404,-0.175713,0.188785,-0.011086,-0.067774,0.386285,0.095801,-0.087247,0.346415,-0.077151,0.094557,-0.287669,-0.078792,-0.053487,0.053481,-0.139577,-0.311576,0.254027,0.379505,0.090355,0.28984,0.199776,0.255374,1.046033,0.51875,0.201122,0.262839,-0.007168,0.054884,-0.037075,0.121239,-0.120699,-0.059685,0.082126,-0.024147,0.150028,-0.128829,0.0485,-0.054841,0.159601,0.157163,0.002216,-0.093046,-0.002228,-0.211264,-0.017334,0.049712,-0.076159,-0.194828,0.243153,0.314055,0.249393,0.022706,-0.19352,-0.13816,0.093488,-0.133622,0.187925,-0.160113,0.076133,0.140307,-0.011788,0.117672,0.287556,-0.107537,-0.054656,0.253743,0.012467,-0.129278,-0.999133,0.619446,-0.09694,-0.132267,0.194785,-0.046182,0.094152,0.000498,0.074026,-0.016795,0.023682,-0.05065,0.088484,0.087061,-0.114332,-0.127844,0.08494,0.022305,0.220196,-0.094068,-0.292466,0.102051,0.013345,0.017958,-0.100623,0.1745,0.202064,-0.1489,0.109914,-0.055775,-0.409078,0.284088,0.046582,-0.220272,-0.130108,0.054381,0.03317,-0.188793,-0.123839,-0.017362,-0.279859,0.35309,0.029675,0.122317,0.527451,-0.753483,-0.18178,0.318914,-0.631989,0.098067,-0.058055,0.201208,-0.124568,0.021732,-0.082761,-0.102049,-0.149105,0.048283,-0.005197,-0.00901,0.001673,-0.011663,-0.180493,-0.053576,0.14533,-0.110551,0.180918,0.03891,0.221865,0.251216,-0.029719,-0.191949,0.345308,-0.088538,0.103972,0.155685,-0.004835,-0.02051,-0.099027,-0.052248,-0.037302,0.065911,-0.162978,-0.160707,-0.188148,0.326782,-0.143517,-0.064818,0.200879,-0.141304,0.368743,0.184837,1.367009,-0.218292,0.0407,0.450402,-0.061361,0.174084,-0.007505,-0.016023,-0.12104,-0.044357,-0.050572,-0.014806,-0.065382,0.051286,0.121081,0.029616,0.123383,-0.196998,-0.055047,0.026754,0.185833,-0.161574,-0.008786,0.082723,-0.019554,-0.144556,0.383282,-0.070177,0.160451,-0.266583,0.074608,0.381359,0.082099,-0.010349,-0.279111,-0.152706,-0.091034,0.122512,0.211039,-0.15839,0.045303,0.135868,-0.353952,-0.019552,0.15227,-0.019448,-1.141274,0.111784,-0.538797,-0.431808,-0.250891,-0.201053,0.00761,0.135223,0.098173,-0.070399,-0.06631,-0.019969,0.007223,-0.125943,0.002931,0.162872,0.022591,0.144293,0.318618,-0.141918,0.180026,0.088251,0.015308,0.125699,-0.046813,0.299455,-0.182819,-0.263803,0.156923,0.060327,-0.049135,0.175408,-0.175716,-0.052526,0.217576,-0.163427,0.027903,0.295724,0.104505,0.035785,0.031478,0.037465,-0.195089,-0.333791,0.152649,-0.089312,-0.618218,-0.400011,-0.017831,0.03007,-0.259103,-0.177437,-0.130296,-0.080148,0.104884,0.014324,-0.150851,0.030403,0.029525,-0.057461,-0.002227,-0.143371,0.103929,0.104765,0.082345,-0.045753,0.125048,-0.1199,0.178786,0.047095,0.228358,0.152211,0.178463,-0.003067,-0.037446,-0.015788,0.242314,0.025271,0.22132,-0.290047,-0.164223,0.063604,-0.077192,-0.399585,0.211614,-0.296724,0.318886,0.247725,0.007705,-0.438354,-0.232481,-0.134623,-0.916641,-0.33438,-0.026537,-0.066725,0.071854,0.061031,-0.037096,-0.164294,0.051412,-0.172029,-0.18516,-0.092212,0.053058,0.164376,0.0184,-0.0474,0.055643,-0.047307,-0.00288,-0.151478,0.044762,-0.047164,0.104706,-0.181378,-0.061799,0.094453,-0.150135,-0.060672,0.178194,-0.035882,-0.145987,0.289644,-0.061869,0.139961,0.028806,-0.116281,-0.166046,-0.103284,-0.218082,0.271774,0.124496,0.173517,-0.247373,-0.553813,0.306792,-0.082466,-1.334727,-0.523352,-0.185452,-0.148735,-0.105612,0.159035,0.117029,-0.131872,-0.098061,-0.170686,-0.081484,0.041646,0.038303,0.035837,-0.052975,0.014509,0.124402,-0.136429,0.192346,-0.146225,0.066498,-0.064021,0.153866,0.110261,0.33124,0.13724,0.11933,-0.064956,-0.293439,-0.199366,0.166707,0.041206,-0.114441,0.153299,-0.217986,-0.198325,0.079702,-0.141265,0.076426,0.227826,-0.133105,-0.148319,-0.229737,-0.537994,-0.130021,-0.090557,-1.138788,-0.800387,0.155279,-0.192379,0.028461,-0.036614,0.029107,0.057578,0.033737,-0.072537,0.00105,-0.053076,0.004544,0.106088,-0.07829,0.036066,0.134219,0.028831,-0.219579,0.014084,0.158671,0.02946,0.072959,-0.162941,-0.006877,-0.018052,-0.021079,0.028391,-0.031,-0.410132,0.203768,0.268214,-0.320887,0.103685,-0.362173,-0.31022,-0.152703,0.102168,0.022877,0.187266,-0.194784,-0.080478,-0.050127,0.008357,-0.32709,0.344439,0.636848,0.051488,0.732566,-1.055119,0.315185,0.127308,0.112617,0.1117,-0.1005,0.009331,0.107404,0.079915,0.037419,-0.01627,0.13769,0.004276,-0.179911,-0.11265,-0.079561,0.113595,0.192419,0.289785,-0.197483,0.128646,-0.074717,0.055606,-0.335444,-0.025002,0.064529,-0.192358,0.020654,0.180105,-0.060601,0.004427,-0.146976,-0.057934,-0.003217,0.049665,0.02431,-0.35451,-0.066753,0.128592,-0.215929,-0.260145,-0.126165,-0.331796,-1.361956,-0.509903,0.775173,-0.049602,-0.21424,0.030026,0.07779,0.063405,-0.116848,-0.155086,-0.035339,0.007944,-0.096286,0.028128,0.028162,-0.241164,0.036454,-0.058355,0.101923,0.008787,-0.218935,0.216729,-0.155585,0.123971,0.090727,-0.101043,0.062411,-0.18948,-0.030817,0.090915,0.038317,0.059462,0.104742,0.141395,0.127848,0.068325,0.216801,0.251447,-0.078154,0.029716,0.091806,0.087869,-0.161327,0.015306,0.010179,0.192017,-0.332262,-0.373867,0.213727,0.500839,0.157466,-0.018492,0.086019,-0.024028,-0.038382,-0.07515,-0.128212,0.038863,0.0434,-0.184643,-0.105384,0.134254,-0.090531,-0.069786,0.021639,-0.108192,0.330292,0.044314,-0.219982,0.075273,0.184129,-0.213013,0.10271,-0.007738,0.526198,0.065377,-0.06682,0.087511,0.114132,-0.025482,0.005216,0.131499,-0.081256,-0.144219,-0.083202,-0.472388,-0.023014,0.566127,0.222968,0.287246,0.046291,-0.06507,1.143766,0.447482,0.136229,-0.402513,0.049088,-0.068255,-0.045506,-0.029687,0.141055,0.145299,0.013793,0.054144,-0.000698,0.014054,0.053962,-0.141727,0.040257,-0.016084,-0.104022,-0.035123,-0.243757,0.171451,0.042374,0.14757,-0.223596,0.091352,-0.077474,0.042549,0.196873,-0.028202,-0.052914,0.283996,-0.177908,-0.174769,-0.218715,-0.035319,-0.01996,0.125945,-0.204545,-0.584889,-0.179205,0.289747,-0.174933,0.189371,-0.088825,-0.146005,-0.587723,0.151756,0.033246,0.08498,0.251395,0.247358,0.065263,0.168976,-0.040961,0.078393,0.065009,-0.011762,0.111991,0.022234,-0.089877,-0.093917,-0.041028,0.122241,-0.024237,0.029027,-0.125276,0.197403,-0.133277,0.183874,-0.223058,0.11176,0.042433,0.528967,0.097985,-0.097246,0.238376,0.026911,-0.338653,0.103368,-0.073671,-0.007898,-0.05705,-0.2316,-0.047554,0.269391,0.438054,-0.154141,0.079463,-0.062386,0.071514,0.035895,-0.509158,-0.139657,0.919771,0.187377,-0.081968,0.295482,-0.154429,0.088442,0.085833,-0.048041,0.059441,-0.14471,-0.131077,0.032563,-0.119193,-0.122345,-0.063533,-0.037157,-0.32995,0.056547,-0.121983,-0.123571,-0.057897,0.115678,0.165062,-0.03517,0.173194,0.068091,0.026624,-0.140968,0.08744,-0.254451,0.038042,-0.05656,0.282405,-0.018767,-0.095442,0.231142,0.009721,-0.248446,0.049687,0.060009,-0.23252,0.161929,0.057652,-0.311613,-1.337464,0.15285,-0.7052,-0.43429,0.06589,-0.235198,0.089274,-0.135487,0.079221,0.125368,0.038406,0.016153,0.014576,-0.093121,-0.087569,-0.119317,0.099772,0.209356,0.021219,0.122254,-0.246643,0.076899,0.068914,0.048888,0.149919,0.071316,-0.330136,-0.017079,-0.515836,-0.038987,0.01692,-0.343614,-0.076252,-0.001057,0.128676,-0.03827,-0.037538,0.236859,-0.043971,0.335841,-0.046897,-0.384655,0.026869,-0.212228,-0.112042,0.155543,0.331629,-0.739135,0.280725,0.101967,-0.068948,0.19328,-0.060151,0.132446,0.088123,-0.008949,0.063469,-0.079185,-0.116175,-0.027752,-0.064935,-0.031353,0.026251,-0.014384,-0.176453,-0.053149,0.087947,0.234476,0.129496,-0.125002,0.02974,0.176608,-0.03537,0.276509,-0.324573,-0.029069,-0.111046,-0.172851,-0.053825,-0.18394,0.125684,-0.026101,-0.009081,0.284374,0.151522,0.471138,-0.127371,-0.402422,0.077153,0.219908,-0.115127,0.565171,0.818171,0.016112,-0.083076,-0.266699,-0.101813,0.050407,0.129563,-0.002423,-0.105214,-0.135355,-0.106873,0.115765,-0.143761,-0.019669,0.099286,0.38138,-0.143847,-0.056201,0.096693,0.030046,0.038,-0.023067,0.118528,-0.136414,-0.071003,-0.112428,-0.301985,0.221506,-0.367941,0.15028,0.22744,-0.248309,-0.152135,0.158813,0.165107,0.118894,0.140058,-0.47747,0.050442,0.417617,-0.055474,-0.44699,-0.068715,0.081078,-0.159178,-0.016463,0.54158,0.210877,-0.304549,-0.062579,-0.212872,0.04404,0.096624,-0.076304,0.125798,-0.004138,0.063329,-0.19332,0.02145,-0.201658,0.092448,0.150386,0.158464,0.020933,-0.174902,0.044734,-0.009369,-0.411116,-0.152866,-0.232126,-0.159109,0.042112,-0.141387,0.358434,-0.144086,0.086548,-0.010006,0.238898,0.079665,-0.056198,-0.3025,0.06738,-0.058719,0.007099,-0.044258,-0.172929,0.352842,0.186041,-0.07546,-0.135547,-0.207976,-0.064113,-1.312413,-0.20824,-0.220285,0.190764,0.210256,-0.152722,-0.011716,0.103184,-0.112743,0.122913,-0.067343,-0.032718,-0.014942,-0.029435,0.03273,-0.038154,0.006304,0.126267,0.202027,0.008782,0.207929,0.164772,-0.155687,-0.024897,0.126511,-0.055058,0.168306,0.100465,0.088232,-0.212931,0.091074,0.071672,-0.125476,0.291242,0.179993,-0.32474,0.023465,0.322885,-0.196442,0.078339,-0.073887,-0.060577,-0.205669,-0.066382,0.308325,-0.189639,-1.075031,0.113062,-0.529017,0.050803,0.095371,0.012261,0.110109,0.062641,-0.010726,0.092982,-0.139888,-0.016976,-0.003649,-0.032678,-0.144088,-0.043343,0.379862,0.127464,0.310904,0.082583,0.025902,-0.067839,0.094321,0.081029,0.234895,0.044169,-0.167274,0.032637,0.116227,0.256585,0.030315,0.064967,0.33131,0.082592,0.206161,0.261467,0.135483,-0.115468,-0.263387,-0.410502,0.039481,0.187183,0.023053,0.237455,-0.254827,-0.178005,0.238278,-0.036931,-0.568849,0.95467,-0.035982,-0.237382,0.056186,0.065236,-0.048514,-0.061746,0.096637,0.087361,0.026444,0.084882,-0.186496,-0.104732,0.015087,0.04174,0.004658,-0.130547,-0.03667,-0.208304,0.099721,-0.010338,-0.028455,-0.258906,0.227917,0.079847,-0.136121,0.107635,0.109875,-0.085237,-0.125351,0.225263,0.195152,-0.016505,0.118738,0.231816,-0.033868,-0.131555,0.238063,-0.089762,-0.081611,-0.252464,-0.297289,0.14083,-1.084297,-0.367333,0.448202,-0.570664,0.009644,-0.119854,-0.013652,0.080102,0.004487,0.013455,-0.064574,2.8e-05,-0.039632,0.002684,-0.009672,-0.019914,-0.024239,0.1624,-0.12569,-0.034578,0.014226,0.311257,-0.210456,0.037626,-0.061197,-0.087027,-0.197913,0.038922,-0.446874,-0.030026,0.171117,-0.194115,-0.223614,0.317612,-0.203109,-0.034325,-0.021549,-0.136653,-0.188305,0.421155,-0.060014,-0.582274,-0.001056,-0.183414,0.088988,0.343017,-0.231894,-0.335155,0.439793,0.252499,0.03339,-0.209026,-0.159957,-0.045121,0.030834,-0.11542,-0.07682,0.027404,0.12468,-0.118947,0.044043,-0.156087,0.100369,0.027302,-0.292536,0.084822,-0.026382,0.070654,-0.013826,-0.046976,0.099182,-0.213102,0.053743,-0.010864,-0.083965,-0.084943,-0.274091,-0.188371,0.059336,-0.138641,0.389348,0.045922,-0.204634,0.177026,0.040817,0.266002,-0.123008,-0.259453,-0.097681,0.232047,-0.13721,-0.356286,-0.571334,0.467031,-0.645168,0.013154,0.053664,-0.232658,0.069116,-0.01945,0.062413,-0.048603,-0.107907,0.049705,0.125193,-0.126964,-0.151434,-0.005277,-0.041969,0.022778,0.147931,-0.122136,0.148025,0.046659,0.07269,-0.08945,-0.238911,0.170181,0.087917,-0.073652,0.035249,0.103669,0.034759,-0.320677,0.155043,-0.316011,0.090374,0.086409,-0.024219,-0.074331,0.200779,0.122451,-0.202001,-0.065057,0.270286,0.262351,-0.191504,0.030563,1.309984,0.307157,-0.295655,-0.003469,0.076502,0.149685,0.140661,0.114847,-0.017035,0.086257,-0.122936,0.164397,-0.054557,-0.068996,0.050268,0.050061,0.085367,-0.012058,-0.06195,-0.016794,-0.16698,-0.163029,0.149857,-0.162623,-0.249833,0.078197,-0.152927,0.056164,0.137019,0.245896,-0.307939,-0.229024,0.428424,-0.287028,0.126567,0.098366,-0.083588,-0.103598,0.058841,-0.304302,0.150364,-0.066215,0.231102,-0.006652,0.205121,-0.380827,-0.442972,-0.274376,0.124294,0.743959,0.310144,0.428564,0.083498,-0.143512,0.067866,0.056075,-0.058614,-0.121472,0.056898,0.056153,0.056496,-0.214358,0.144583,0.067563,0.114671,-0.083245,-0.076887,0.00567,0.057311,-0.059039,-0.051253,-0.071428,0.467759,0.119249,-0.030363,-0.205772,0.227086,-0.199151,0.112315,-0.226532,-0.173456,-0.17593,-0.044885,0.04264,-0.330517,-0.178153,0.229026,-0.162176,-0.112516,-0.327743,0.053728,0.219624,-1.29786,-0.077535,-0.379374,0.145617,-0.073326,-0.185917,0.125434,0.132336,0.007289,0.008787,0.040648,-0.136986,-0.130038,-0.173192,-0.081004,0.175024,0.142082,-0.048631,-0.02579,-0.134818,0.336167,-0.173085,0.142215,-0.002454,0.286843,0.157478,0.169696,0.250945,-0.163371,-0.00633,-0.064422,-0.495485,-0.022304,-0.027334,-0.115083,0.118095,-0.158959,0.315028,-0.160001,0.258329,-0.022509,-0.161426,0.253088,-0.238534,0.125956,0.459552,1.393977,-0.278746,0.724487,0.180706,-0.202644,0.188624,0.001336,0.005375,-0.003623,0.155399,-0.064702,-0.019941,0.018395,0.091666,0.122061,0.059489,0.173419,-0.082051,-0.147374,-0.072047,-0.033379,0.186531,-0.03752,-0.080396,0.236651,-0.028109,-0.077405,0.351254,-0.011294,-0.138931,0.117668,-0.183919,-0.23511,-0.106444,-0.033,-0.039054,0.136023,0.120024,-0.211099,-0.133029,0.396853,-0.266173,0.074486,0.154649,0.042144,-0.254163,-0.87275,0.636478,-0.577872,0.231535,-0.164615,-0.147209,-0.031876,-0.070209,0.031766,0.035326,0.140447,-0.127927,0.139342,-0.137237,0.125381,-0.020066,0.211186,0.188037,0.090909,-0.059676,0.016876,-0.158849,0.178396,0.124626,0.064665,-0.051663,0.158752,0.035703,-0.40855,0.302099,-0.159396,-0.331995,-0.000899,-0.116286,0.278389,0.337151,-0.154026,0.022672,-0.033229,0.178273,0.032046,-0.376877,0.244461,0.487876,0.114151,-0.334503,0.732609,0.221944,-0.095929,0.070118,-0.053201,-0.347145,-0.1169,0.13305,-0.113529,-0.040313,-0.028183,-0.060689,0.082656,0.038098,-0.133369,-0.175727,-0.076896,0.165737,-0.134754,-0.126666,0.076934,0.149599,-0.060951,0.124142,-0.17935,-0.149596,0.020827,-0.131269,-0.069362,0.21488,-0.162268,-0.391915,0.33796,-0.286905,-0.013306,0.143565,-0.249489,0.168963,-0.017577,-0.133566,-0.035377,-0.005397,0.0116,-0.14535,0.269784,0.047812,0.835041,-0.796474,0.582642,0.515322,-0.354608,0.196734,0.130265,0.162373,-0.046238,0.007954,0.025202,0.063458,0.024062,-0.050301,-0.097979,-0.207728,-0.024301,-0.05307,-0.095266,-0.066484,-0.072103,-0.167329,0.164651,0.08485,0.219673,0.111648,-0.076848,0.188686,0.204086,-0.08992,0.193383,0.036194,-0.704313,0.412523,0.108241,-0.077089,-0.08637,-0.019553,-0.238619,0.304826,0.459619,0.085144,-0.140542,-0.271217,0.425417,-0.398464,-1.20469,-0.004805,-0.812019,0.060464,0.477733,0.39715,-0.027471,0.051844,0.155934,-0.068267,0.169551,0.058472,-0.187901,-0.154815,0.038053,0.104168,0.106876,0.558344,0.282925,-0.067202,-0.064883,0.06755,0.426029,0.218491,0.308928,0.367473,0.230712,0.05321,0.090939,-0.04528,0.046503,-0.228811,-0.024114,0.115444,0.226848,-0.094263,-0.186396,0.103458,-0.312285,0.098375,0.227651,-0.065984,0.032663,-0.170509,0.375551,-0.367834,-1.210243,-0.330637,-0.227108,-0.064999,-0.130512,0.118328,0.02458,-0.024111,0.115483,-0.047308,-0.008147,0.038641,-0.150783,0.054089,-0.02003,-0.221942,-0.141148,0.219719,-0.147193,0.073334,-0.153426,0.144622,0.24603,0.117986,0.255106,0.366825,0.086182,0.345803,0.013638,-0.259011,0.138957,-0.1379,-0.025662,0.026867,-0.139419,-0.338781,0.087253,0.141647,-0.111591,0.082982,0.463391,0.053371,0.070487,-0.39726,0.278572,0.405247,-0.808421,0.047605,0.244113,-0.292054,0.100736,0.036743,-0.077497,0.065021,-0.040127,-0.040093,-0.131133,-0.055958,-0.01414,-0.002794,0.110122,0.631729,0.176805,-0.04412,-0.039838,-0.042814,0.056826,0.046943,-0.099073,-0.021939,0.237599,-0.097349,0.194374,0.131748,-0.584231,-0.154981,0.296769,-0.183725,-0.322225,-0.09619,-0.367009,-0.127592,-0.198734,-0.270014,-0.205127,0.268114,0.156406,-0.675395,-0.19902,-0.142573,0.01195,0.158026,-0.901006,-0.117681,-0.859116,0.952637,0.023486,0.230846,0.032821,0.188516,0.094442,-0.105452,0.014756,-0.097654,0.029516,-0.197814,0.07004,-0.419591,0.045813,0.05713,-0.052782,-0.1404,-0.146091,-0.365133,0.147466,0.114587,-0.045826,-0.16136,-0.087667,0.003892,-0.009392,0.052274,0.16345,0.293451,-0.257022,0.18878,-0.254053,-0.081444,-0.009183,-0.048795,-0.186877,-0.079725,0.175121,0.075874,-0.288074,-0.034482,-0.335607,-0.220614,-1.47713,-0.220377,-0.101321,0.204539,0.087161,-0.031127,0.194994,0.026159,0.124966,0.073427,0.072404,-0.104091,0.207537,-0.083152,0.018875,-0.47252,-0.063438,0.171938,0.092365,0.006794,-0.126877,0.084687,-0.075585,0.012768,-0.129589,-0.137599,0.134815,-0.073749,-0.433031,-0.088945,0.043396,-0.076273,-0.152577,0.249333,-0.270106,-0.056563,0.039316,-0.059316,-0.041471,0.249185,-0.120289,-0.217921,0.041754,-0.503105,-0.054407,0.638327,0.570475,-0.884627,0.324576,0.005338,-0.133987,0.183191,0.003769,-0.04515,-0.072469,-0.01973,-0.058482,0.08405,0.116812,0.120491,0.014851,-0.013654,-0.020181,-0.157737,-0.079576,0.128979,0.152222,0.160108,-0.090353,-0.082334,-0.001769,0.017851,-0.197664,-0.187722,-0.482157,0.198953,0.19793,-0.408996,0.100957,-0.046829,-0.084104,0.112098,-0.150459,0.154363,-0.04861,-0.153371,-0.135661,-0.144898,0.068168,-0.076539,-0.567751,0.168072,0.583966,-0.371096,0.528763,-0.202976,-0.042876,-0.131362,0.017607,0.124767,0.037908,0.176104,0.150964,0.075603,0.121191,0.023037,0.096809,-0.17025,-0.127466,0.062226,0.109406,-0.086331,-0.04018,0.410203,-0.016262,-0.103244,-0.187654,-0.088314,-0.258708,-0.299807,0.596885,-0.031394,-0.351454,-0.189624,0.328049,-0.243878,-0.294663,0.037359,0.056079,0.107502,-0.439732,-0.087609,0.247155,0.493903,-0.014519,0.128066,0.659433,-0.097653,-0.484389,0.274919,0.121674,-0.026234,0.160386,0.112339,0.05722,-0.041948,-0.13935,-0.014464,-0.090944,-0.038418,-0.118427,0.115315,0.07719,-0.060388,-0.111879,0.192987,0.082143,-0.072572,0.30936,-0.018876,0.00777,0.145254,0.096426,0.125583,0.047961,-0.028478,-0.244894,0.075938,0.007778,-0.18685,0.123617,0.029309,-0.380088,0.161403,0.045173,-0.666212,0.080985,0.106307,0.105762,-0.132364,0.103759,0.138787,0.1598,-0.325469,-0.2222,0.35742,-0.607046,0.0422,0.017986,-0.000899,0.135103,-0.000802,-0.126737,-0.13925,-0.128591,-0.065997,-0.105443,-0.090987,-0.066618,-0.025804,0.228446,-0.029116,-0.008342,0.039636,-0.134323,-0.651639,0.042519,-0.004067,0.101469,-0.100117,0.280376,-0.028687,-0.08095,-0.254299,-0.182159,0.199162,-0.231625,0.165176,-0.067636,-0.316492,0.275678,0.064515,-0.214003,0.040951,-0.084808,-0.099742,-0.123448,0.36645,-0.182307,0.864697,1.403516,0.580397,-0.345693,0.011395,0.209412,-0.15038,-0.140493,0.120039,0.057183,-0.009537,-0.083198,0.086917,-0.040956,-0.143557,0.078779,0.198134,-0.037299,-0.216764,-0.018882,0.116194,0.158977,-0.2779,0.007382,-0.117428,-0.270858,0.144592,-0.150071,-0.031381,-0.090009,-0.09053,-0.001493,0.138069,-0.243529,0.140956,-0.311936,0.134034,0.139671,-0.036852,0.180856,0.160025,0.00782,0.067285,-0.166644,0.511345,-0.03698,0.332513,0.779816,0.691871,0.153313,-0.126419,0.202261,0.027067,-0.132891,0.112838,-0.140087,-0.054618,-0.11493,0.114194,-0.073007,0.033555,-0.102068,0.00151,0.013663,-0.138303,0.10858,-0.123707,0.174129,-0.014361,-0.180272,-0.093126,-0.020578,0.010099,-0.06137,0.230363,0.256333,-0.096258,-0.277964,0.145326,0.069812,0.072143,0.113932,-0.20514,0.119718,-0.02818,0.08533,0.237318,0.080273,-0.026436,-0.188338,-0.453309,0.43137,-0.05892,-1.032364,-0.161007,-0.206485,-0.251351,0.08781,0.361692,-0.169789,0.01147,0.045487,0.006474,-0.207364,0.039761,-0.057915,-0.040656,-0.182475,0.026674,-0.14532,-0.088797,0.185102,-0.09492,0.164209,0.144313,0.101057,0.083028,0.032562,-0.213593,0.305473,-0.167995,0.282818,-0.17547,-0.047833,-0.22484,-0.097143,-0.093978,0.139222,-0.095318,0.058275,0.141167,0.066754,0.210858,-0.245245,0.154367,0.107816,0.317654,0.215303,0.253967,1.485808,0.411844,-0.395492,0.37038,0.008438,0.033281,0.050345,-0.063255,0.144599,0.046818,-0.104898,-0.087666,-0.084377,-0.056477,0.003965,0.238243,-0.014457,-0.071695,0.032744,0.06896,-0.18318,-0.140286,-0.021428,0.040747,-0.17388,0.222697,-0.008497,0.245206,0.127603,-0.131172,0.226069,0.106155,-0.183393,0.176751,-0.388879,-0.232288,0.071663,0.000899,-0.17048,0.060775,0.084269,-0.036582,-0.172346,-0.442926,-0.019626,0.156124,-1.063748,-0.162559,0.470845,-0.220688,0.041569,0.336685,0.142947,0.091704,-0.019768,-0.071418,-0.026129,-0.095935,0.081091,-0.115063,0.1644,0.063619,-0.071733,0.128303,-0.122465,-0.036562,-0.010251,0.026725,-0.084059,0.122015,0.213757,-0.030376,-0.30242,0.055299,0.262104,0.388688,-0.043498,-0.060522,0.170163,-0.117379,0.192673,0.388398,-0.298584,0.084399,0.030613,0.037931,-0.104105,0.083046,0.167937,0.468635,0.438557,-0.189064,0.840838,0.392454,0.421862,0.120749,0.186133,0.157322,-0.036023,0.057319,-0.026243,-0.007302,0.125538,0.026046,-0.020288,0.176996,0.095682,0.01426,0.084451,-0.003876,-0.160574,0.067253,-0.192763,0.117396,0.136632,-0.08818,0.079786,0.157967,-0.091102,0.060031,-0.135343,-0.327218,0.076978,0.175081,-0.180879,0.045544,0.195947,-0.311517,-0.247607,0.227108,-0.115013,0.282728,0.132666,-0.195506,-0.289454,-0.116387,0.171302,0.020213,-1.024783,-0.271266,0.128409,0.219482,-0.105496,0.132022,-0.075963,0.037471,0.062904,0.092101,0.074299,-0.143685,-0.1211,-0.184186,-0.144254,0.053241,-0.033747,0.008852,0.129751,0.094203,0.112234,0.330254,0.013568,0.047919,0.063256,0.05366,-0.190868,-0.21432,0.444124,0.242357,-0.052971,0.15913,0.319667,-0.028881,0.088124,0.257686,0.087962,0.130833,-0.305307,-0.24269,-0.189685,0.237561,0.274949,-0.084785,-0.207652,-0.225019,0.738178,-0.120726,-0.015018,0.322558,0.345817,-0.333381,-0.045581,-0.14221,0.098957,-0.148845,-0.003607,-0.073115,0.048788,-0.159037,0.015417,-0.151146,0.04411,0.136049,-0.157304,0.050505,0.114143,-0.166151,0.035748,0.042657,-0.07651,-0.044521,0.082609,0.069781,-0.272374,-0.392581,-0.235972,-0.174241,-0.151739,-0.063713,0.185884,-0.403765,0.058884,-0.073344,0.192757,0.231753,0.07693,-0.061322,-0.316201,-0.079929,0.19879,0.140374,-1.180163,0.267764,-0.74932,-0.016679,0.155351,0.010324,0.044346,0.094422,-0.066985,-0.087428,-0.091022,-0.001451,-0.026085,-0.023105,-0.08156,0.097116,-0.163386,0.015777,0.19978,-0.048977,0.205601,0.03136,-0.020267,0.043929,-0.240352,0.021508,0.112743,0.047843,-0.529907,-0.060349,-0.001441,-0.560009,-0.092736,0.065864,-0.127914,0.031583,-0.194069,0.139767,0.038655,0.05854,-0.074962,-0.411794,0.093823,-0.030611,-0.268091,0.811871,1.23637,-0.629671,0.391853,0.193045,-0.084987,0.027919,-0.022196,0.135027,0.040819,-0.003517,0.160448,0.097972,-0.088541,-0.023638,-0.005331,0.166001,-0.128893,-0.145499,-0.128104,-0.049966,0.185844,-0.010869,0.093748,-0.021454,-0.047391,0.016306,-0.287183,0.442314,0.220986,-0.010091,0.436038,0.027048,-0.004139,0.027955,-0.490591,0.082375,0.092541,-0.397708,0.243141,-0.053099,0.477051,0.171749,-0.038565,0.063594,0.056964,-0.008975,-0.76525,0.417425,-0.609894,0.12168,-0.089018,0.038918,0.013354,-0.074088,0.079355,-0.032176,-0.099128,0.031474,0.136262,0.186715,-0.028282,-0.121943,-0.035899,-0.123616,0.037829,0.040492,-0.278187,-0.161583,0.013412,0.004137,-0.104833,-0.04936,-0.009972,-0.06595,-0.169868,-0.281822,0.311342,0.179509,0.035213,0.186932,-0.251587,-0.084881,-0.103626,-0.332664,0.050693,-0.134562,-0.383855,-0.293207,-0.268508,-0.106221,0.315534,-0.048327,-1.129319,-0.054502,-0.163758,-0.04124,0.026228,-0.241606,-0.028377,-0.009638,0.116078,0.038938,-0.065145,-0.071593,0.136916,0.024298,-0.078108,-0.144805,0.098958,0.111998,0.225672,-0.151419,-0.131204,-0.321393,-0.016427,0.058957,0.083267,0.230734,-0.186343,-0.027908,0.004257,-0.014728,0.006319,-0.040282,-0.009098,-0.275623,0.093867,0.201327,0.327286,-0.100927,-0.460058,-0.453774,0.044718,0.331179,0.01429,-0.05073,-0.328769,-0.12636,0.612199,-0.094177,-0.458974,-0.226307,-0.228811,-0.132164,0.003574,0.11552,0.171827,0.016008,0.03779,0.140866,0.037412,-0.126761,0.128202,-0.10426,0.037399,0.027413,-0.182508,0.18551,0.016688,-0.294918,-0.014651,0.01869,-0.256975,-0.207369,-0.299628,0.22802,0.114986,0.035556,0.056205,0.070215,0.141884,0.214573,-0.202222,-0.145182,-0.029435,-0.165955,0.1731,-0.216813,0.328186,0.327484,0.069506,-0.464427,-0.090415,0.322912,-0.608473,-0.357287,0.213109,0.333913,-0.183467,-0.101107,0.026466,0.008623,-0.130977,-0.088249,-0.103766,0.063275,0.17155,0.014126,0.12004,-0.081327,0.020518,0.131775,0.200544,0.054697,0.042475,-0.257794,-0.219766,0.209178,0.219276,-0.137264,0.024299,0.008604,0.385771,-0.064917,-0.079474,0.448904,-0.314861,0.357677,-0.079537,-0.076514,0.194993,-0.284674,-0.086704,-0.295354,0.206315,0.564678,0.003791,0.025734,-0.115405,-0.141524,-0.642794,0.501723,-0.190386,0.075391,0.178118,-0.21964,0.088931,-0.024566,0.076905,-0.011534,-0.0835,-0.124101,-0.060355,-0.01229,-0.011819,-0.118708,-0.001665,0.030024,0.135468,-0.074705,-0.110608,0.007426,-0.223857,0.121977,-0.14883,-0.009033,0.353976,-0.074363,-0.053106,-0.198542,0.006218,0.132916,-0.03939,0.204943,0.293282,-0.325125,0.205825,0.054871,-0.136052,-0.069362,0.193886,0.039097,0.012773,0.291613,0.016273,0.431331,-0.27871,0.433277,-0.27838,0.470679,0.387555,0.149796,-0.073364,0.055055,-0.026885,-0.114985,0.025186,-0.13743,-0.108082,0.19761,-0.08977,0.005246,-0.141334,0.075436,0.313369,-0.02925,0.210247,0.151135,-0.245461,-0.146449,0.007536,-0.16867,-0.10739,0.16882,-0.072833,-0.1978,-0.053244,-0.249241,-0.13559,-0.104728,0.253549,-0.252898,-0.062928,-0.043245,-0.024287,0.279329,0.01771,-0.360012,0.004685,0.152551,0.127183,-0.247761,-0.69682,0.182673,-0.264751,0.19018,0.131821,0.179584,-0.028042,-0.09398,-0.121394,-0.14633,0.01112,0.092992,0.024705,-0.085751,-0.061181,-0.155962,-0.049876,-0.060405,0.047344,-0.16238,0.008329,-0.191853,0.006059,0.058366,-0.220459,-0.002872,0.419629,0.119061,-0.278427,0.013695,0.020609,-0.044667,0.023847,0.34832,0.23524,-0.222463,0.088132,0.191568,0.071779,-0.038952,0.18212,-0.083246,-0.079319,0.223163,-0.391282,0.073113,-1.062847,0.132,0.113701,0.516655,0.467937,0.113687,-0.079416,-0.112145,0.063181,0.035491,0.06263,-0.014857,0.074878,0.014751,0.108748,0.068344,-0.100284,-0.074008,0.149065,-0.14004,0.23349,0.396942,-0.280316,-0.149797,0.059875,-0.093739,-0.10672,0.281862,0.005402,0.091923,0.010836,0.012317,-0.166978,-0.192788,0.31286,-0.109495,-0.173651,0.004568,0.193299,0.262656,0.181538,-0.192858,0.016,-0.020307,-0.156911,-0.325106,-0.956053,0.335618,-0.667125,-0.534306,-0.067153,-0.299815,-0.0408,0.099572,-0.003076,0.060891,0.024917,0.069564,0.105436,-0.033233,0.035979,0.232382,0.031199,0.101674,-0.085589,-0.045129,0.021149,0.289484,-0.094178,-0.180104,0.059639,0.251806,-0.242086,-0.357192,0.442963,-0.140711,-0.520612,0.146489,0.167776,0.242841,0.387853,0.032105,0.149723,0.099341,-0.034756,-0.275164,-0.226949,0.602328,-0.071602,-0.280922,-0.100864,-0.469535,-0.328714,-0.292493,-0.127801,-0.180729,-0.031172,0.368522,0.144904,0.033523,0.071933,-0.019728,-0.032876,0.032269,-0.110887,0.021267,0.026175,-0.050524,0.018057,0.070411,-0.089763,0.020335,-0.080072,-0.091804,0.019627,0.042231,-0.032975,0.087992,-0.016876,-0.297265,0.11589,0.374409,-0.323993,0.015029,0.070136,-0.018826,0.282485,0.366195,-0.097367,0.325923,0.051862,0.293095,7.7e-05,0.136541,0.179116,-0.098005,0.035087,0.172123,1.432383,-0.168678,0.562051,0.545015,0.065287,-0.037049,-0.00059,-0.119172,-0.072869,-0.141167,0.061547,-0.028787,-0.174547,0.084508,-0.119688,0.170171,0.07879,-0.098404,-0.145968,-0.090434,0.288282,-0.048818,-0.047609,0.174514,0.002793,0.054524,-0.061744,0.270396,-0.01829,-0.004245,0.663581,-0.122073,-0.055705,0.112475,-0.26952,-0.124241,0.013591,-0.111303,0.043386,-0.020036,0.371978,-0.478289,-0.126758,-0.191179,0.020873,0.176293,-1.202428,0.229477,-0.405166,-0.077313,-0.083226,-0.197003,-0.12914,0.04148,0.140187,-0.046336,-0.097138,-0.134728,-0.076257,-0.010164,-0.026647,0.033017,0.038619,0.135573,0.289001,0.003535,-0.224854,-0.400295,0.149537,0.10473,-0.007142,-0.072746,-0.18902,-0.030068,-0.08962,0.297692,0.091696,0.203345,0.170565,0.141993,0.09495,0.096693,0.124478,0.113198,0.365487,-0.116423,0.161576,-0.277904,-0.092473,0.381097,-0.056671,0.062765,-0.405658,0.448643,0.719107,-0.41312,0.227795,0.377933,-0.018783,-0.021977,-0.062266,0.004355,-0.181121,-0.036795,0.027101,-0.088108,-0.060406,-0.177937,0.178418,-0.075979,0.125704,-0.04274,0.047315,-0.199794,-0.202953,0.087522,0.185166,-0.217299,0.017448,-0.078736,-0.115764,-0.036368,0.243723,-0.483236,0.010175,0.128072,0.151852,0.087924,-0.115586,0.038424,0.020621,-0.158588,-0.241818,-0.280584,0.258615,0.141819,-0.094746,0.386353,1.460174,0.25428,0.03507,-0.148485,-0.134902,-0.030402,0.076026,0.119709,0.026677,-0.116138,-0.078819,-0.006662,0.039297,-0.131529,0.006366,0.16293,-0.065017,-0.123773,-0.141292,-0.061587,0.095985,-0.156522,0.227981,-0.110611,0.00623,0.247162,-0.432894,0.173194,0.044785,-0.169369,-0.340285,-0.291343,-0.187489,-0.114652,0.563746,-0.092409,-0.035079,0.479327,0.054865,-0.039443,-0.157676,0.030033,0.044446,-0.100097,-0.154177,0.281937,0.329217,-0.136127,-0.19439,-0.272616,-0.259389,0.073005,0.102385,0.133599,0.170228,-0.053452,0.15796,0.113473,-0.114124,-0.121652,0.108418,0.066684,-0.0213,0.002317,-0.008979,-0.031044,-0.062812,0.123469,0.171995,-0.238622,-0.201809,0.185346,-0.171909,0.062885,-0.221945,0.072258,0.001154,-0.214744,0.077042,-0.048775,0.026959,-0.105014,-0.16519,0.231355,0.064358,0.167651,-0.22702,-0.244785,0.27148,-0.036112,0.016808,-0.24621,0.059981,0.253325,-0.49135,-0.059543,-0.073428,0.262758,0.025235,-0.027543,0.047619,0.168327,0.066922,0.099297,-0.012586,0.147311,-0.031786,0.299529,-0.056412,0.213581,0.099681,0.181697,-0.130771,0.323033,0.166839,-0.157039,-0.124555,0.153848,0.087225,0.231556,0.099911,0.051724,0.114026,-0.208879,0.009225,-0.03917,0.247379,0.004771,-0.037011,-0.238952,-0.208832,-0.001406,0.208467,-0.06678,0.197774,-0.262971,0.14051,0.088604,0.219396,0.106433,-0.715285,-0.158443,-0.474376,-0.072653,-0.072275,-0.057075,0.10823,0.141025,-0.031681,0.161325,-0.125842,-0.085248,0.001755,0.168719,0.182376,0.014638,0.169505,0.147183,-0.248785,-0.249121,0.106799,0.07773,0.087073,0.199845,-0.066606,0.374099,-0.135052,-0.136052,0.290449,0.268062,-0.323868,0.000781,-0.216614,-0.283167,-0.222147,-0.259312,0.110281,0.453035,0.309938,-0.338291,-0.02932,-0.105844,0.214566,0.056468,-0.840025,0.070945,-0.668231,0.251895,0.02658,0.027001,-0.041565,-0.074613,0.044637,-0.079852,0.111952,0.074982,0.084867,0.021507,0.038762,0.063842,0.271497,-0.105501,0.149526,0.017035,0.017501,-0.275045,-0.117107,0.041323,0.098726,0.041889,0.088148,-0.224734,0.041254,-0.032018,-0.003775,0.022813,0.12635,0.027672,0.216027,0.170624,-0.201582,-0.0159,-0.076979,-0.244147,-0.266444,0.353054,0.036006,0.275333,-0.017104,-0.350585,0.85155,0.099411,-0.030069,-0.208877,-0.021478,0.03546,0.020904,0.097337,-0.108229,0.073887,-0.039876,0.018719,0.058545,0.2142,0.063531,-0.323276,0.051702,-0.018131,-0.075306,0.15167,-0.334974,-0.343994,0.238477,0.003501,-0.020145,0.197947,0.025019,-0.053614,-0.247615,0.006614,-0.226117,-0.269983,0.106282,-0.367243,-0.274069,-0.096576,-0.014786,-0.021545,-0.181104,0.068043,-0.050821,-0.253157,-0.026636,0.028915,-0.034567,-0.469896,-0.269137,0.380718,-0.380551,0.017856,0.235085,0.127153,0.090098,-0.105487,-0.09801,0.099091,0.089381,0.074294,0.071266,-0.099224,0.061924,0.004602,0.088906,-0.001258,0.06896,-0.013401,-0.090379,-0.3555,0.111136,0.052773,-0.248958,0.160516,0.225863,0.267156,-0.531574,0.21099,0.318421,-0.22675,0.041934,0.070179,-0.261375,0.034986,-0.039204,-0.128687,0.134005,0.263273,0.190545,-0.655789,-0.047508,-0.129105,-0.056676,0.14189,-0.884988,-0.375318,0.224301,0.095963,-0.122141,-0.199795,0.033748,0.075079,-0.078517,-0.186648,0.105039,-0.042447,-0.0185,-0.002264,0.051062,0.060587,0.102544,0.00749,0.077016,0.090599,-0.001692,-0.259065,-0.025439,-0.223783,0.165111,-0.049918,0.076924,0.249083,-0.234013,0.115834,0.159897,-0.074622,0.303606,-0.110803,-0.25659,-0.037106,0.173862,-0.285598,0.211339,-0.12161,0.110615,-0.206008,-0.08632,0.356682,-0.387375,-0.015531,-0.728612,0.388837,-0.042112,-0.053874,0.376839,-0.309818,0.065132,0.006283,0.022618,0.087215,0.118369,-0.091908,-0.078269,-0.00461,0.069912,-0.211423,-0.024711,-0.084397,0.062263,-0.078432,-0.096755,-0.455697,-0.152977,0.016937,-0.178731,-0.098192,0.019457,-0.041948,-0.001006,0.595017,-0.109546,-0.342507,0.553432,-0.138504,0.172682,0.465116,-0.053712,0.088753,-0.438925,-0.339932,0.283506,0.362375,0.187792,0.25301,-0.195652,-0.246481,0.554096,0.022896,-0.159978,0.071909,-0.12885,-0.142585,0.093527,0.041122,-0.085818,0.082274,0.115708,-0.010929,0.081227,-0.005353,-0.021437,0.136816,0.362115,-0.005978,-0.152659,0.167549,-0.115827,-0.200304,0.215024,-0.185974,0.223302,0.031139,0.018917,0.349647,-0.112511,-0.107724,0.281457,0.090142,-0.144247,0.034781,-0.148893,-0.17044,0.077214,0.230067,-0.137334,-0.00491,0.288652,-0.226907,0.018242,0.018895,-0.432159,0.374151,-0.279743,-0.35541,0.159603,-0.406013,-0.212106,0.29068,0.091146,-0.04257,0.057641,0.114236,0.156181,0.1643,-0.135757,0.026282,-0.024128,0.059774,-0.109133,-0.077309,0.079022,-0.068702,0.075959,0.013044,-0.158796,-0.121468,0.135847,-0.026466,-0.443006,0.169593,0.059761,0.047262,0.036125,-0.395594,0.372897,-0.348067,0.177315,0.296556,-0.203643,0.116949,0.011615,-0.140542,-0.21832,-0.086123,0.322188,0.096231,0.089425,-0.049807,0.262317,0.2572,-0.050933,-0.210403,-0.169852,-0.123749,0.104902,-0.066887,0.075088,-0.057463,-0.091166,-0.07649,-0.032939,-0.077882,-0.08418,0.12547,-0.013992,-0.020151,0.166545,0.010918,-0.147743,0.04979,-0.005253,-0.05424,0.008028,-0.077019,-0.044139,-0.203376,0.319166,-0.159817,0.04239,0.25865,-0.053909,0.166333,-0.048069,-0.391606,0.082255,-0.008048,-0.091983,-0.130611,-0.097315,0.260782,-0.139766,-0.082006,0.276467,-0.207772,-1.391783,-0.297387,-0.277248,0.12972,0.172498,0.117188,0.067151,-0.086726,0.049347,-0.146048,0.024413,0.110295,0.059616,-0.175448,0.015686,-0.355786,-0.095125,-0.059858,0.242887,-0.185209,-0.15455,0.14583,0.068513,0.140029,0.095527,0.182836,0.043857,-0.208056,-0.12744,0.178051,-0.293714,-0.308214,0.124127,-0.103502,0.51245,0.09386,-0.173428,0.30319,0.249686,0.065865,-0.146111,0.008104,0.220572,0.311184,0.239612,-0.401599,0.694074,0.459377,0.146392,0.177631,0.155392,0.032376,-0.046465,-0.110698,0.002493,-0.093303,0.086919,-0.137997,0.147707,0.161395,0.088364,0.018585,0.063,0.047548,0.151764,-0.049341,-0.129773,0.198477,0.139779,-0.102004,-0.10161,-0.10158,0.240442,-0.345322,0.395195,0.031115,0.062857,0.516646,-0.08475,0.14086,-0.197065,-0.187092,-0.005206,-0.170584,-0.014269,-0.366434,0.108794,0.328348,-0.258893,0.214455,0.121814,-0.321725,-0.618276,0.350891,-0.344801,0.466271,-0.075629,-0.02841,-0.018381,0.032437,0.037961,0.105481,-0.037196,0.034135,0.006987,0.000995,0.034012,-0.276319,-0.191498,0.002484,0.172011,-0.083398,-0.081157,0.077831,-0.062156,-0.063701,-0.16178,0.073643,0.269286,-0.197104,0.506342,-0.049545,-0.179923,0.117806,0.101256,0.206871,-0.21471,-0.222681,0.232597,0.153283,-0.008265,-0.105597,0.157518,0.460362,0.062032,-0.499873,-0.281493,0.836277,0.412117,-0.35464,0.207189,0.181045,-0.001307,0.063928,0.1534,-0.052603,-0.130385,0.083839,-0.042305,-0.044228,0.015069,-0.114848,0.077915,0.062888,-0.221115,0.011588,0.173103,-0.057837,0.056995,-0.243451,-0.147043,0.077725,-0.102562,-0.189436,0.098434,-0.110147,-0.031835,0.093925,0.264308,0.202709,0.371034,-0.133615,-0.298482,0.227083,0.197732,-0.528476,-0.083979,-0.151864,0.209557,0.123456,0.041655,0.380614,0.083574,0.280539,1.173097,0.514152,0.208345,0.358754,0.041052,-0.016348,-0.064344,-0.094095,0.082456,-0.126174,-0.061601,0.126745,0.0874,-0.00461,-0.111379,-0.113969,0.033624,-0.073279,-0.11772,0.060446,-0.075089,-0.441017,0.017771,0.122205,-0.289991,-0.274819,-0.075917,0.141167,0.106838,0.082853,-0.086698,-0.210423,0.072437,-0.258382,-0.387713,-0.009875,0.101102,-0.496648,-0.134756,-0.269053,-0.17975,-0.213849,0.132367,0.0279,0.092484,-0.256712,-0.100736,0.097262,-0.499382,-0.268924,-0.127514,-0.08858,0.021431,-0.109301,0.111786,0.057924,0.023293,0.082411,0.176504,0.003541,0.081946,-0.384895,-0.2664,0.163524,-0.146644,0.050207,-0.06355,-0.312246,0.098461,0.077064,-0.033416,-0.248813,-0.096419,0.239193,-0.195025,0.027211,-0.085207,-0.104526,-0.068944,0.244734,0.200813,-0.221721,-0.144858,0.119416,0.083552,0.433929,0.254187,-0.161851,0.050668,-0.196758,0.229114,0.001374,-0.969256,-0.334739,0.164868,-0.397761,0.159476,-0.117014,-0.071274,-0.081446,0.050223,0.065144,0.075985,-0.09021,0.093102,0.067139,-0.13177,-0.038497,-0.186885,-0.151128,0.120144,0.1105,-0.128476,0.139412,0.166131,0.087972,0.207676,0.111177,-0.05199,-0.263522,0.032119,-0.055502,-0.09076,0.019701,-0.022035,0.222897,0.091346,-0.199042,0.03431,-0.056551,0.162142,-0.261831,0.016899,0.290798,-0.117164,-0.214898,-0.15145,-0.300726,-1.510461,-0.387079,0.133006,-0.480829,0.078895,0.005836,-0.126641,0.131334,0.122413,0.110631,-0.109169,-0.016882,-0.049496,0.119802,0.055569,-0.18234,-0.055372,0.142442,-0.092174,-0.131749,0.021821,0.214868,-0.129018,0.126248,0.1309,-0.015764,-0.232373,-0.07868,-0.224276,-0.309054,0.050068,0.167036,0.092145,0.239984,-0.156555,-0.204214,0.284101,-0.254392,-0.022932,0.212913,0.041506,-0.227303,-0.199069,-0.226728,0.294862,-0.3022,-1.36224,-0.056649,-0.464871,0.137237,0.224898,-0.056904,0.024113,-0.075474,-0.074539,0.024936,-0.083049,-0.094177,0.145614,0.081612,-0.02769,0.068779,0.187913,-0.115643,0.070875,-0.009108,-0.10911,-0.085076,0.006714,0.214681,0.325831,-0.010029,0.451649,-0.25099,0.378893,0.158643,-0.186323,0.103387,-0.019711,0.166059,0.417168,-0.029423,0.033437,0.106623,-0.38035,-0.10403,-0.070281,0.676967,0.267516,-0.468542,-0.034238,0.402634,1.435496,-0.210698,0.320059,0.172773,-0.152201,0.073133,-0.085927,-0.116738,-0.023778,0.062476,0.071773,0.051435,0.087238,-0.065999,0.098045,0.362742,0.054264,0.006263,-0.001172,-0.061656,0.145559,-0.024108,-0.160943,0.019867,-0.071912,0.00244,0.08037,-0.130145,0.038345,0.094396,0.07242,-0.09812,0.164783,-0.178751,-0.070144,0.236752,0.111812,-0.016789,-0.069513,-0.545885,-0.091629,0.103289,0.045559,0.202427,-0.309659,-0.227603,0.926997,0.396703,-0.005579,-0.235748,0.092745,-0.203723,-0.008988,0.106884,0.117305,-0.09031,0.061143,-0.037776,0.002079,0.05512,0.092171,-0.156877,-0.076542,0.172642,-0.114649,0.167038,-0.002356,-0.018229,0.118697,-0.092782,-0.325976,-0.139071,0.185105,0.261428,0.228317,0.126544,-0.043424,-0.096982,0.127983,-0.105615,-0.140439,-0.043895,0.001918,-0.34398,-0.048993,-0.479849,0.39011,0.413287,-0.069048,-0.274527,0.146277,-0.474968,-1.292261,-0.417403,-0.298836,-0.056096,-0.075093,0.171665,-0.072218,0.142705,0.049467,0.042647,0.11602,0.036952,0.004235,-0.021926,0.026232,-0.034092,0.068198,0.020471,0.020796,-0.052662,-0.21182,0.046178,0.226845,-0.146184,0.003093,0.176922,-0.264033,-0.02329,-0.649548,-0.222724,-0.109314,-0.113138,-0.332736,0.101321,-0.304935,-0.266807,-0.093772,-0.176389,-0.043078,0.052502,0.076906,-0.266204,0.011415,-0.261622,-0.093508,0.367704,-0.761156,-0.409283,-0.221159,-0.364686,-0.151646,-0.052239,-0.084568,-0.059876,0.133032,-0.086056,-0.047664,0.002435,-0.149387,0.149925,-0.094279,-0.009154,0.097805,0.062105,0.006504,-0.125979,0.362107,0.069723,0.009275,-0.189319,0.042472,0.140295,-0.268655,0.133069,-0.109531,-0.024072,0.092408,-0.12178,-0.285739,0.180222,-0.085194,-0.076656,0.031951,-0.069249,0.000463,0.373796,0.026098,-0.411947,0.102737,0.446889,-0.315794,0.254266,1.092485,0.761872,-0.091211,-0.154868,0.263107,0.020704,-0.039506,0.065742,-0.018214,-0.044734,0.045262,0.074189,-0.000959,-0.002948,-0.114858,0.053205,0.163591,-0.057129,-0.106656,0.112662,-0.047972,-0.004112,-0.096593,-0.132838,-0.162412,-0.128242,0.034336,-0.017072,-0.169668,-0.295087,0.140818,-0.001016,-0.12818,0.102754,-0.125432,-0.169053,-0.010354,-0.08399,0.094788,0.452941,0.030479,-0.252957,-0.27975,-0.346415,0.204534,0.114821,-1.137265,-0.467055,-0.148878,0.376541,-0.026543,0.062545,0.09538,-0.0523,0.016348,-0.200414,-0.026215,-0.103857,-0.143096,0.07915,-0.106222,0.081278,-0.051058,0.050443,0.077126,-0.127547,0.227018,0.248995,-0.198239,-0.033407,0.244674,0.139397,0.035189,-0.220301,-0.187914,0.151484,-0.076091,0.159989,0.083495,0.04022,0.065834,0.272689,-0.276468,-0.146207,0.065362,-0.03271,-0.283072,0.056205,0.025904,-0.112943,-0.223987,-0.050189,0.876287,-0.650969,0.318727,0.289246,0.077994,0.023278,0.139772,0.021978,-0.131393,-0.091415,0.083254,0.076268,0.090857,-0.171312,0.002924,-0.103312,0.095007,-0.146884,-0.258181,0.142841,-0.015994,-0.218434,0.052656,-0.07679,0.098159,-0.287887,0.111992,0.308195,0.210806,-0.113743,-0.218554,-0.104754,0.019036,-0.309284,0.193041,-0.238089,0.01002,-0.001595,-0.085383,-0.109552,0.112269,0.100332,0.079991,0.094271,-0.133228,0.023707,-1.156947,0.281666,-0.763938,0.3058,-0.258967,-0.069083,-0.00452,0.045957,-0.05605,0.106331,0.007315,-0.019555,-0.018795,-0.069185,-0.076983,0.312875,-0.193233,0.107779,0.212449,-0.071565,0.049512,-0.044749,-0.043376,-0.036609,-0.109848,0.285987,-0.003169,0.067847,0.377506,0.191868,-0.002028,0.120529,0.139053,-0.127502,-0.257748,0.137171,0.128495,-0.108427,-0.181875,-0.278358,0.023563,0.582649,0.189516,0.185504,-0.035677,0.021099,1.086655,0.372449,0.248601,0.239182,0.161215,-0.127059,-0.028309,-0.130413,0.035951,0.000185,0.135822,0.134384,-0.092475,0.128966,0.021922,0.028496,0.077177,-0.040744,-0.01239,0.004816,-0.253292,0.037698,-0.154892,0.079548,0.042046,-0.246143,0.290152,-0.058327,-0.016278,0.036347,-0.130021,0.008033,0.168177,-0.037962,-0.343711,0.07924,0.141298,-0.109453,-0.163883,-0.176112,-0.1998,0.167727,0.230483,-0.193003,-0.257341,0.374075,0.988575,-0.414311,0.474493,0.308632,-0.116144,0.039204,0.140362,-0.034306,-0.124852,0.085078,-0.009094,-0.041397,-0.108619,-0.014848,0.150681,0.135372,0.150191,0.054859,-0.138859,-0.11455,0.231479,-0.183532,-0.130525,0.129299,0.144342,-0.232741,0.178066,-0.274774,0.085458,0.256245,-0.035215,0.28254,0.002631,0.297396,-0.034362,0.255648,-0.034578,-0.136662,0.137552,0.149371,-0.181121,0.044804,0.222355,-0.070666,-0.147987,0.031073,1.180714,-0.123192,0.473836,0.012305,-0.15344,-0.020778,0.045361,0.079013,-0.092695,0.038321,-0.076128,0.116662,0.13145,-0.097477,0.033062,-0.061612,-0.072523,-0.200765,0.027957,-0.10667,0.048461,-0.081285,-0.225427,-0.095659,-0.086557,-0.127446,0.260584,0.166924,-0.122544,-0.010134,-0.004598,-0.452767,-0.032622,-0.115502,0.126119,0.250431,-0.097593,0.264769,0.001439,-0.056018,0.0277,-0.067982,0.121547,0.33297,-0.109743,0.183393,1.356959,0.50491,0.448004,0.59523,0.0093,-0.148356,-0.046344,-0.114754,-0.114477,0.079767,0.076559,-0.054412,0.053263,0.173513,-0.056486,0.052959,0.086359,0.010558,-0.006064,0.055352,-0.055891,0.330076,-0.125117,-0.089286,-0.227588,0.025772,-0.003543,-0.036251,0.216827,-0.089654,0.177438,0.283987,0.046018,0.19119,-0.140623,-0.305798,-0.076626,-0.168216,0.23095,-0.056425,0.200814,0.292873,-0.090423,-0.470113,0.302043,-0.047973,-1.120571,-0.610444,0.207595,-0.439748,-0.028664,0.250298,-0.106609,-0.066533,0.053682,-0.027888,-0.007727,0.079347,0.101356,-0.074632,-0.022557,-0.028832,0.157078,0.101311,0.134483,0.114699,-0.085611,-0.121478,-0.120704,0.064772,0.235003,0.14588,-0.207423,-0.127066,-0.093326,0.207476,0.282289,-0.219133,0.007711,-0.005189,0.019727,0.043265,-0.25015,0.116033,-0.191671,-0.247986,-0.225337,0.227864,0.138495,-0.186424,0.061782,0.211489,0.89227,-0.732282,0.190285,0.435531,0.060225,-0.116703,0.042196,-0.094152,-0.101331,0.038049,0.053767,0.158513,0.088579,-0.059233,0.027467,0.04066,-0.007978,-0.02488,-0.047448,-0.016258,0.099922,-0.049983,0.171049,0.125533,0.236287,0.061713,-0.241808,-0.014165,0.151907,0.210438,0.05343,-0.102277,0.105871,-0.049975,-0.149357,0.063316,-0.173636,-0.093924,0.21806,-0.195226,-0.08494,0.276055,0.025463,-0.0192,-0.359656,0.19493,1.020035,-0.492742,0.52256,-0.078966,0.08798,0.075764,-0.04131,-0.065304,0.088153,0.137193,-0.033836,0.260724,0.252159,-0.239318,0.018845,-0.305207,-0.254738,0.034296,-0.086222,0.228796,-0.201919,0.223562,0.006447,0.087302,-0.269454,-0.381345,-0.003448,-0.167557,-0.123671,-0.171757,-0.270434,0.390074,0.076524,0.25,0.370566,-0.169272,0.011786,0.317178,-0.305397,-0.029516,0.046859,0.212667,-0.198511,-0.128756,0.203747,-0.193028,-0.682812,-0.252313,0.259062,-0.229622,-0.116832,-0.297019,-0.170601,0.059025,-0.096107,-0.053408,-0.024011,0.076031,0.05551,0.033047,-0.163595,0.053164,0.058481,-0.117842,0.076599,-0.027886,0.171093,0.228921,0.08506,0.018739,0.011439,0.153326,0.071655,-0.098046,0.267824,0.186718,-0.149007,0.075417,0.053161,-0.288884,-0.174007,0.218038,0.204079,-0.102233,-0.181358,-0.811158,0.139385,0.426409,0.155685,-0.147128,0.062036,-0.060533,0.589768,0.079721,0.145791,0.186399,0.042631,0.16194,0.032569,0.209457,0.106472,0.013271,-0.000878,-0.020488,0.047626,0.081795,-0.022913,-0.136675,0.021433,0.120368,-0.122006,-0.018065,-0.008604,0.088906,0.073674,0.112307,-0.171379,-0.355212,0.139847,-0.101028,-0.776285,-0.066316,-0.197348,-0.179101,-0.196266,-0.008682,0.193062,-0.065739,-0.062391,0.061633,-0.16736,0.415609,-0.220658,-0.445751,0.001966,-0.035713,-0.101503,0.066474,0.235872,-0.497073,0.038712,0.506428,0.374248,0.167664,-0.050713,0.132354,-0.150558,0.021851,-0.021341,0.010555,0.068135,0.146736,-0.085059,0.125271,-0.078152,0.089089,-0.109849,-0.084918,0.181964,-0.03254,-0.065606,-0.079007,-0.243667,-0.194103,0.313879,-0.004179,0.274933,0.058241,-0.019891,0.036074,0.179715,0.066074,-0.039445,0.183617,-0.173058,0.224913,-0.229088,-0.039811,0.103321,0.251986,0.084512,-0.166992,0.398799,0.141494,-0.018967,-0.522015,0.509899,0.478376,0.006239,0.380705,0.026799,0.001318,-0.105015,-0.141738,-0.103593,0.046594,0.028626,0.066954,0.094405,-0.063549,0.184626,-0.011433,0.053451,0.128037,-0.172079,-0.206272,0.090043,0.183958,0.24739,-0.085301,0.153252,0.096582,-0.142751,0.286341,0.224427,-0.180585,0.300915,-0.199585,-0.387899,0.19415,-0.005611,-0.179201,-0.080509,-0.206835,0.107105,-0.0986,0.143251,-0.363776,-0.088791,-0.465889,-1.178855,-0.551288,0.009157,-0.365363,0.170145,-0.355436,-0.072343,0.119141,-0.010756,-0.042379,-0.024611,0.102632,0.154603,-0.049858,0.094549,9.7e-05,-0.135773,-0.11393,-0.021816,0.026612,-0.061455,-7.1e-05,0.042166,0.007485,0.156415,0.092297,0.113422,0.328401,-0.260565,0.08082,0.279764,-0.453075,-0.213808,-0.194392,0.111766,-0.047368,-0.132421,0.418926,0.297561,0.078839,0.426498,-0.273367,-0.092226,0.331486,-0.006475,0.10942,-0.490554,0.172265,0.561093,0.194749,0.294208,0.048905,-0.10551,-0.11276,0.125958,0.112714,0.096466,-0.01849,0.096469,0.00218,-0.027779,0.057887,0.013102,-0.153642,0.120589,-0.006126,-0.124237,0.035058,-0.102127,-0.155347,-0.120195,0.148254,0.136095,-0.173159,-0.190995,0.218454,0.081645,-0.180272,-0.097972,0.163254,0.100639,-0.019751,-0.040997,0.07735,0.024065,-0.241115,-0.130839,-0.194238,-0.068879,-0.01158,-0.154117,-0.324078,0.083528,-0.729369,0.406385,-0.153267,-0.198472,0.034589,-0.084059,-0.077811,-0.093358,-0.126362,0.095561,0.13554,0.037976,-0.060586,0.004416,-0.064074,0.002978,0.045393,-0.034623,-0.102744,-0.016126,0.125838,0.092069,-0.135594,0.220591,0.160132,-0.025233,-0.163366,0.06711,0.010275,-0.043689,-0.235395,0.259526,-0.051505,-0.171778,0.029207,0.151843,0.0189,0.077396,0.19865,0.132958,-0.008599,-0.049716,-0.499169,0.029075,0.217367,0.003733,-0.200305,0.015563,0.30743,0.121669,-0.158882,-0.084137,0.122654,0.0011,-0.165542,-0.007589,-0.069044,-0.049512,-0.045596,-0.011572,0.12581,0.215189,-0.121721,-0.073113,0.112119,-0.030866,-0.437339,0.182286,0.085014,0.290856,0.212391,-0.083971,-0.416511,0.144992,0.093886,-0.377484,0.206333,0.171023,0.035961,0.069912,0.004889,0.113319,-0.017793,0.107245,-0.308078,-0.398664,-0.087348,-0.14663,-0.014462,-0.231814,-0.071983,0.677683,-0.103427,0.324638,0.936238,-0.356754,0.835872,0.002105,0.186822,0.201688,-0.002645,0.134297,-0.112764,-0.153282,0.063652,-0.023692,-0.567765,0.006713,-0.130978,0.178982,-0.120375,0.249576,-0.170241,0.080947,-0.061727,-0.136104,-0.132805,0.003931,0.242549,0.216702,-0.128093,0.000227,0.020003,-0.357474,0.303452,-0.300415,-0.407186,0.121872,-0.111974,-0.156285,0.19755,0.228579,0.130472,-0.270134,-0.352865,0.122938,0.159147,-0.808734,-0.338754,0.00595,0.311896,-0.086303,0.122872,-0.05163,-0.046894,0.040024,-0.134475,-0.020548,0.069097,-0.038407,0.062899,-0.060662,-0.071081,0.09793,-0.066233,0.102763,0.007566,0.261561,0.121154,0.083763,0.04647,0.229962,0.06679,-0.096411,-0.080421,-0.534962,-0.238978,0.137044,-0.126531,-0.27069,-0.066191,-0.178154,-0.087805,0.150777,-0.168536,0.037758,0.104162,0.026921,-0.194495,-0.231003,-0.337143,0.067095,0.55632,-0.351024,-0.705038,-0.103621,0.600672,-0.125394,-0.133144,-0.054834,0.111438,0.019087,-0.075321,0.050916,-0.120696,-0.019962,-0.001414,-0.019674,-0.037921,0.013362,-0.043978,-0.044452,0.086647,0.262612,-0.202687,-0.027157,0.077991,-0.140888,0.03306,0.144931,-0.101292,0.143913,0.199251,-0.289117,-0.209056,0.319707,-0.117752,0.120422,0.062467,0.012074,0.037487,0.030485,-0.01191,0.070128,0.222795,0.236876,-0.368787,-0.332424,0.148986,0.896954,-0.537429,0.027273,0.071121,0.182041,0.085165,-0.036635,-0.056652,-0.054988,0.096015,-0.106677,0.072214,0.143043,0.086094,-0.0677,-0.138519,-0.230556,-0.003001,-0.153732,-0.141687,0.072784,0.207473,-0.054803,-0.11865,-0.046112,-0.003641,0.100818,-0.55949,-0.053993,0.223146,0.086514,0.16689,0.044675,0.011202,-0.20961,0.386353,-0.061109,0.290486,0.198933,-0.11838,-0.490773,0.281292,-0.070632,0.057488,-0.230784,0.221984,1.300974,-0.054498,0.885676,0.273857,0.049201,-0.170462,-0.016068,-0.100578,-0.04414,-0.052442,0.013709,-0.104372,-0.130179,-0.130536,0.024024,-0.068865,-0.180329,-0.278349,-0.218558,-0.012226,0.059623,0.204739,-0.111483,-0.076258,-0.051067,0.051796,-0.369436,0.240426,0.047037,0.088854,0.2385,0.191762,-0.130214,0.022921,0.072678,-0.048564,-0.108901,-0.04887,-0.065114,0.487217,0.294902,-0.311829,-0.082274,0.211458,0.447611,0.034507,-0.349915,0.386462,-0.027325,0.030103,0.088866,0.064414,-0.151657,0.056997,-0.104534,0.006454,-0.170201,-0.16246,0.084308,0.104811,0.020924,0.021381,0.177343,0.008648,-0.131274,0.006071,0.172033,-0.068472,-0.192687,0.112218,0.079103,0.060807,0.01623,0.261202,0.364539,0.068288,-0.07757,0.324142,-0.074495,-0.336617,-0.196549,0.093472,-0.049249,-0.217811,0.214079,0.127324,-0.21427,0.086331,0.168616,-0.126781,0.176054,-0.177044,0.753255,-0.158704,-1.010503,0.289137,-0.341003,-0.12922,-0.037352,-0.206614,-0.11467,0.103659,0.105801,0.178421,0.093788,0.093231,-0.057158,0.250918,0.080526,0.014686,-0.066866,0.11172,-0.06373,0.022493,0.088084,-0.113423,-0.01847,0.048866,0.170261,-0.093469,-0.000909,-0.268474,-0.214417,-0.02536,-0.153052,0.19389,-0.038586,-0.087882,-0.070716,-0.105092,-0.060423,-0.084418,-0.025233,-0.047523,-0.246922,-0.18169,-0.025449,1.052323,0.711819,-0.202581,-0.273992,-0.044612,-0.138887,0.009292,-0.01693,-0.032747,0.0366,0.147371,0.018796,-0.004367,0.065984,-0.087469,-0.084762,-0.02917,0.019423,-0.080705,0.010942,0.135897,0.256775,0.330819,-0.017972,0.008118,0.118304,0.117088,-0.39718,0.25598,-0.327458,-0.097625,0.179806,-0.358355,0.120937,-0.020357,-0.086561,-0.05133,0.184231,0.036163,-0.205994,-0.520106,0.071305,-0.329073,0.09128,0.464139,-0.453195,0.145963,-0.215529,0.534306,0.034069,0.114315,0.32151,0.276353,0.092587,0.135888,-0.092196,0.007827,0.066529,-0.036662,-0.117862,0.036483,0.032773,0.08544,-0.086861,-0.059349,0.104466,0.121792,-0.128906,0.081026,0.061114,-0.025214,-0.188616,-0.011304,-0.092866,-0.028416,0.359318,0.100964,0.010948,0.031343,-0.069112,-0.004243,-0.09314,0.295277,0.036079,0.01545,-0.043854,0.236352,0.090374,0.212772,0.175918,0.139969,-0.016796,0.253321,1.276234,0.295024,0.600301,-0.041109,0.074061,0.244737,-0.072492,0.028965,0.10179,-0.103441,-0.11473,0.076699,-0.046726,-0.115848,-0.12717,0.148776,0.134798,0.082496,-0.128675,0.103196,-0.182762,-0.140583,-0.247409,-0.050918,0.075759,-0.214694,0.426332,0.035222,0.001546,-0.132781,0.146613,0.182293,0.021533,0.292889,-0.060351,-0.224867,0.030073,0.020958,-0.205154,0.223676,0.013432,-0.231854,-0.281284,-0.188099,0.09889,0.591673,-0.258931,0.069244,0.43095,0.446646,-0.031339,0.220689,0.00468,-0.055542,0.080566,-0.111373,0.064361,-0.129542,-0.193991,0.029584,-0.105121,0.009033,0.093959,-0.040675,-0.146888,-0.011539,0.373444,0.306072,-0.038697,-0.023271,0.040777,0.039111,0.127886,-0.011779,-0.655221,0.080568,0.091026,-0.180917,-0.060799,0.419965,0.250324,-0.032587,0.169373,-0.027487,0.000303,0.244605,-0.275719,-0.658571,-0.031036,0.306258,-0.0046,0.388755,-0.073999,0.305891,-0.051422,-0.102926,-0.272284,-0.033694,-0.152676,-0.008725,-0.11978,-0.187255,-0.064852,-0.066231,-0.068816,-0.222766,-0.126705,0.198203,0.234534,-0.161538,0.063718,-0.05211,0.321051,-0.194692,0.054766,-0.212879,0.108132,-0.118392,0.112777,-0.075743,0.054117,-0.00943,-0.138121,-0.137443,-0.256575,0.052731,-0.302859,0.042725,0.089383,0.073562,-0.089306,-0.123928,0.16641,0.097239,0.174341,0.478646,-0.005395,0.230228,1.459361,0.643184,0.282383,0.369123,-0.037632,-0.061572,0.060554,0.003565,0.032478,0.093002,-0.119091,0.059311,0.155955,-0.115067,-0.061893,-0.009402,-0.136748,-0.051876,-0.112018,-0.00724,-0.069857,0.052016,0.006023,-0.052128,-0.209088,0.092377,0.230834,0.178015,-0.253578,0.073411,0.252112,0.125049,0.148127,-0.081695,-0.163301,0.050329,0.100261,-0.122068,0.017677,-0.036514,0.387615,0.128366,0.032591,-0.40404,-0.372333,0.046071,-1.008043,-0.308511,0.392776,-0.518542,-0.0383,-0.00621,0.129758,-0.052112,0.025735,0.021613,-0.041864,0.045798,0.087232,0.097153,-0.043533,-0.002084,-0.129237,-0.01622,-0.08168,0.033326,0.224744,0.048344,-0.020759,-0.131612,0.131656,-0.138337,0.070646,-0.062571,0.338428,-0.002882,-0.415194,0.354888,-0.019976,0.131542,0.314949,0.051063,0.160802,-0.12137,0.007805,0.414256,-0.034689,0.09115,0.213781,0.302474,0.156904,0.590607,1.612607,0.455546,-0.691233,0.375192,0.13864,-0.10222,0.018991,0.081418,0.132178,0.045279,0.038905,0.133289,0.015775,0.299493,-0.092472,0.917739,0.179823,0.132761,0.08162,-0.012786,0.312073,0.007941,-0.007701,-0.152639,-0.138537,-0.002691,-0.062898,-0.127435,-0.048345,-0.108946,0.129083,-0.060885,-0.000168,0.24636,-0.08434,-0.190738,0.173588,-0.119506,0.158357,-0.060972,-0.002262,-0.221128,0.029768,0.385221,0.079888,0.236079,-0.384122,0.894644,-0.338632,-0.410628,0.12639,-0.171524,-0.021009,-0.012738,-0.123711,-0.062494,0.008767,0.00287,-0.07379,-0.157573,-0.136736,0.069492,0.020119,-0.03399,0.246379,-0.114264,-0.157465,-0.351682,-0.047777,0.076717,0.046789,0.18325,-0.10231,0.016616,0.096988,-0.209776,0.11824,-0.115428,-0.361539,0.177243,0.03306,-0.318726,0.015106,0.132417,0.093953,0.591936,-0.032179,0.07457,-0.134574,0.103859,0.28215,0.356801,-0.568636,0.256354,0.0059,-0.63989,0.182512,-0.063758,0.014652,0.052346,-0.07974,-0.181382,-0.031823,-0.083258,-0.107573,0.118016,0.012561,0.314712,0.036223,-0.065232,0.146884,-0.102639,-0.213368,0.159268,-0.044826,-0.181517,0.093923,0.384827,-0.261808,-0.11028,-0.269931,0.127082,-0.103543,-0.00779,0.097964,0.130263,-0.11693,-0.080374,0.089379,0.112612,0.014472,0.188818,0.120647,-0.387067,-0.041857,0.074768,0.102596,0.24901,-0.705156,0.134201,0.173992,0.332495,-0.355036,0.7717,0.015582,0.025677,0.028193,-0.18247,-0.062724,-0.187874,0.089499,-0.03375,-0.04333,0.168215,0.145678,-0.019784,-0.005748,0.071208,0.008356,-0.248021,-0.074521,0.050586,0.072082,-0.046686,-0.105576,-0.051224,0.036682,-0.07859,0.173946,0.142305,-0.16669,0.258872,0.076317,-0.046231,-0.038624,0.30888,-0.19979,0.385166,-0.000562,0.013978,0.014416,0.124298,0.261352,0.437496,0.948488,0.140647,0.565923,0.52762,-0.086085,0.052066,0.066368,-0.131227,-0.115687,-0.156903,-0.076004,-0.133244,-0.104283,-0.197392,-0.038583,0.059326,0.165932,-0.09286,-0.180823,-0.017045,0.106765,0.279202,-0.19335,0.04279,0.108139,0.126954,0.202655,-0.127142,0.169585,0.066444,-0.176306,0.20611,0.059107,-0.140014,0.001739,0.011431,-0.080316,0.235881,0.06095,-0.373173,-0.026224,0.496797,-0.157408,-0.197532,0.102063,-0.562391,-1.238119,-0.724476,0.219652,-0.027515,-0.189316,0.110147,-0.132189,0.09762,-0.058566,0.016776,0.099111,0.053825,-0.046844,0.122762,0.063896,0.051897,-0.013191,0.094167,0.065451,0.019917,-0.10996,0.221984,0.211671,0.085215,0.224378,0.155518,0.074322,0.010073,-0.059529,0.035438,0.031666,-0.041825,0.117064,0.074314,-0.001767,-0.153447,0.047585,-0.389267,0.397326,0.422497,-0.083644,-0.240012,-0.124655,0.011252,0.332527,-0.017896,0.01093,0.254679,-0.196059,-0.665883,0.150267,0.41987,-0.054592,0.018383,0.025691,0.070295,0.029644,0.030411,-0.144885,0.049869,-0.129408,0.139713,0.00518,-0.087826,0.085595,-0.01235,-0.050286,-0.330025,-0.041302,0.008724,-0.302423,-0.141757,0.16454,-0.162055,0.001656,-0.148134,-0.020455,-0.14862,-0.088102,-0.09585,0.198725,-0.010739,-0.041771,-0.168273,0.160783,-0.006761,0.066912,-0.083022,0.068397,0.451621,-0.103119,-0.025766,0.310829,0.630735,-0.399771,0.144684,0.382406,0.152302,-0.094766,-0.106111,0.164038,-0.026098,-0.062113,0.036481,0.082481,0.085724,0.067716,-0.021714,-0.003827,0.103995,-0.05309,-0.014488,0.209223,0.272976,-0.075594,0.083687,-0.286207,0.124767,-0.257948,-0.008003,0.671814,0.088821,-0.020867,0.127121,0.165121,-0.017259,0.022698,0.132836,-0.000325,-0.079257,-0.0746,-0.206747,0.03086,0.558129,0.158695,0.243094,0.310939,0.066261,1.30184,0.376541,0.079768,0.425641,-0.08958,-0.073692,0.020048,0.017768,0.033398,0.106451,0.079813,-0.116521,-0.130005,-0.071233,-0.135001,-0.08206,-0.0749,-0.035734,-0.151719,0.124501,0.084583,0.100912,-0.063847,0.185206,-0.094304,-0.137159,0.443864,0.024979,0.625224,0.273326,-0.020544,0.074964,0.159731,-0.176409,-0.219408,0.051689,-0.114791,0.048908,-0.065031,-0.165703,0.137779,0.566159,0.24435,0.253422,0.379374,-0.204102,1.408567,0.278094,0.568171,0.131082,0.10027,-0.112204,0.137025,0.131172,-0.114256,-0.015662,-0.092498,0.023419,-0.092937,-0.032253,-0.053341,-0.076126,0.113923,-0.083139,-0.093567,0.171597,-0.037987,0.014683,0.103339,-0.025306,0.08989,-0.122746,0.363147,0.147685,-0.131021,-0.152258,0.086001,-0.05977,-0.512039,0.072681,0.374851,-0.164431,-0.301868,0.348223,0.182616,0.36851,-0.046155,0.001,-0.221677,-0.008723,-0.151461,0.062018,0.027196,0.135292,0.22365,0.683172,0.216062,0.145447,0.094193,-0.022879,0.111464,0.087659,-0.067973,-0.012372,0.12724,0.009734,-0.112113,-0.055184,-0.025223,-0.147907,-0.214245,-0.091372,-0.087131,0.384076,-0.007994,0.093907,-0.145515,-0.063065,0.238345,0.082539,0.110805,-0.131666,-0.199174,0.041018,0.068521,-0.340705,0.328327,-0.161613,-0.101564,0.052687,0.065192,-0.045824,0.051116,0.332279,-0.11498,-0.09333,0.00376,-0.384353,-1.543228,0.164661,-0.568435,-0.151015,0.277633,-0.078427,0.013149,0.007205,0.041185,0.088598,0.074008,-0.078893,0.107822,-0.00726,0.107408,0.076171,-0.221564,0.156629,0.035645,-0.051865,-0.260357,-0.065506,0.124318,0.079061,-0.108094,0.144972,0.015313,0.14476,-0.195229,-0.030212,0.160456,-0.185537,-0.010948,-0.130792,-0.308105,0.136265,0.188952,-0.458554,0.079233,0.150915,0.112305,-0.087622,0.157297,0.202866,-0.359574,0.440383,1.058096,0.351188,-0.142689,-0.248705,0.018861,0.003454,-0.10213,0.089922,0.015964,0.083871,0.016714,0.03724,0.026463,-0.021745,-0.012122,-0.088869,-0.076336,0.012296,-0.247813,-0.008429,0.056494,-0.171285,-0.005337,-0.171248,-0.193702,-0.25685,0.119122,-0.052116,-0.223602,0.289311,0.023594,-0.360195,0.299511,-0.072131,0.148744,0.288494,-0.332666,-0.020809,0.315251,0.140843,-0.283727,-0.535222,0.106326,0.406645,0.169837,-0.729438,0.502842,0.070757,0.272175,-0.110812,-0.019777,0.107532,-0.177727,0.089084,-0.090057,-0.078193,-0.140713,0.02468,-0.15766,-0.006546,-0.137721,-0.439956,0.211386,0.005605,-0.201002,0.068943,-0.196972,0.043482,0.277001,0.065395,0.178717,0.150966,-0.159382,0.223881,-0.398028,-0.141964,0.171293,-0.354511,0.087944,-0.131786,-0.137021,-0.159459,-0.006866,0.197986,0.063568,-0.38547,0.115185,-0.296467,-0.080925,0.112202,-0.238134,-0.60434,-0.893275,0.381595,0.49866,-0.015838,-0.075392,0.017421,0.054311,-0.108029,0.129913,0.09264,-0.069686,0.093971,0.027799,-0.029554,-0.134366,-0.304197,-0.111362,0.091981,-0.010294,-0.1238,-0.125456,0.246052,-0.057785,-0.105833,-0.037175,0.265853,-0.26676,0.001189,-0.016851,-0.107495,0.089538,0.340694,-0.302335,0.199087,0.174637,0.0189,0.247648,0.346276,-0.062225,-0.048446,0.338145,0.072673,-0.065823,-0.043376,-0.190848,0.195114,-0.518981,-0.160014,0.133799,-0.641831,-0.153193,0.019446,0.034973,0.012693,0.157619,0.015155,-0.092103,-0.097987,0.12338,-0.078632,-0.046091,0.017369,-0.055976,-0.075629,-0.020705,0.12451,0.098501,-0.020542,-0.118163,-0.198611,0.223495,0.174311,-0.352021,0.003296,-0.378231,0.005984,0.112443,-0.007883,0.027204,0.227302,-0.061228,0.133824,-0.088203,0.32163,-0.081849,0.039211,0.118352,-0.10076,-0.16241,-0.038942,-0.064663,0.389125,0.963781,-0.251356,0.801604,-0.006836,-0.260701,0.137868,-0.003602,-0.108453,-0.121886,0.070489,0.090688,-0.127521,-0.046575,-0.161472,0.035319,-0.192548,0.101686,-0.158248,-0.034518,0.124473,-0.020988,0.104257,-0.096553,0.05088,0.143333,-0.244061,-0.065471,0.014465,0.14145,0.055908,0.07029,-0.062863,0.154557,-0.172459,0.049585,0.273823,0.049527,-0.344947,0.138137,0.166116,-0.03538,-0.125346,0.06277,-0.067158,0.027745,-0.272924,0.582531,0.166608,0.013381,-0.620555,-0.224932,-0.073137,0.056854,0.09429,0.091746,-0.078381,0.093302,-0.102325,-0.039899,0.09862,0.042724,-0.189629,0.039201,-0.12823,-0.139201,0.081688,-0.434089,-0.422779,0.101611,-0.011392,-0.240838,-0.167334,0.096751,0.41991,-0.655138,0.071954,0.313424,-0.506104,-0.073757,-0.123023,-0.123485,0.055141,-0.174748,0.202225,0.026308,0.632089,-0.004556,-0.627269,0.157349,-0.1393,-0.318667,0.68679,0.600749,-0.412371,0.067954,0.24263,0.184613,0.122244,0.107609,0.021462,-0.134072,0.032246,0.055322,-0.022674,0.001154,-0.025594,0.092254,0.436722,-0.080053,-0.124579,-0.115992,-0.003446,0.310266,-0.212032,-0.122715,0.086954,-0.005575,-0.132962,-0.104841,-0.001274,0.208371,-0.153312,-0.235808,-0.024371,-0.103616,-0.239264,-0.144107,-0.235233,0.01694,-0.210518,0.032188,0.246847,0.132672,-0.257723,0.207317,0.140614,0.234305,0.266396,0.846651,0.13081,-0.427112,-0.035418,-0.099846,0.429787,-0.02963,0.003642,0.01645,0.144123,-0.101162,-0.071911,0.09859,0.134974,0.100175,0.026654,0.085578,-0.132776,-0.029219,-0.018458,-0.240504,-0.039132,0.157167,-0.102167,-0.053049,0.174203,0.217448,-0.231151,-0.219738,0.153653,0.076512,-0.028261,0.244927,-0.291576,-0.106552,0.248591,-0.156401,-0.337695,0.130869,0.138348,-0.000217,-0.013106,0.202301,0.040927,0.076362,0.122091,1.19202,0.138933,0.220005,-0.200737,-0.086097,-0.225361,-0.028316,-0.055905,0.017849,-0.056857,-0.160834,-0.063689,-0.020508,-0.041345,-0.126575,-0.19181,-0.137408,-0.067842,-0.039309,0.003417,-0.020702,-0.236599,0.069244,0.013143,-0.386425,-0.211847,0.153342,-0.286504,0.148848,-0.083641,0.043407,0.308287,0.119275,0.097826,0.006627,0.041921,-0.06337,0.004503,0.150502,-0.196042,-0.139247,0.163905,-0.237437,-0.037036,0.11298,-0.673819,-0.764418,-0.213081,0.064006,-0.218783,-0.13753,-0.090355,0.040776,0.110241,-0.118775,0.052122,0.087152,-0.147025,-0.133695,-0.158959,-0.099882,0.005031,0.009005,0.02107,-0.072693,-0.083564,0.093027,0.066599,-0.051561,0.039734,0.207465,0.008597,-0.137805,-0.149766,-0.188065,0.058979,-0.102691,-0.173341,-0.065814,-0.182927,-0.098361,-0.153498,-0.044161,-0.319946,0.082671,-0.105745,-0.159028,0.019335,-0.176539,-0.209598,0.224268,-0.710395,-1.248029,-0.55966,0.155296,-0.017013,0.022613,-0.0202,0.023642,-0.003374,-0.021586,-0.113716,0.031802,0.004134,-0.089765,-0.132261,0.123722,-0.244217,-0.027676,-0.067263,0.035965,-0.034557,-0.303915,-0.322354,0.192478,0.190249,-0.030005,-0.192602,0.351714,0.237779,0.017937,-0.189089,0.084867,-0.022398,-0.027753,0.00042,-0.022533,-0.328181,0.132357,0.122127,0.119546,-0.133242,0.227414,0.068677,-0.136152,-0.510486,-0.268606,0.317633,-0.696377,-0.37406,-0.329289,-0.586353,-0.305861,0.285805,0.071617,0.133576,0.009261,0.04067,0.090539,-0.108666,0.031065,-0.021824,0.170963,0.132805,-0.200445,-0.095879,0.03534,0.037083,0.278013,-0.072781,-0.081974,0.014469,0.056439,0.310698,-0.119857,-0.238029,0.247816,-0.213871,-0.238031,0.083638,0.113808,0.166693,0.267015,-0.118128,0.052103,0.46186,-0.085731,-0.002516,-0.169719,0.323532,-0.028089,-0.256521,0.188465,0.002079,-0.528404,-0.234349,0.453461,-0.106909,-0.164166,-0.174023,-0.127212,-0.125487,0.11071,-0.079794,-0.141079,0.098372,-0.137697,0.117173,-0.097257,0.165151,0.122341,-0.042576,0.209304,-0.036029,-0.123472,0.362176,0.064,0.047371,0.307104,0.20626,0.057149,0.158526,0.227373,0.120336,0.213607,0.056059,0.306961,0.002924,-0.321208,0.181426,0.08193,-0.051558,-0.243056,-0.410834,0.210133,0.335975,-0.074648,-0.373117,0.258439,0.254214,0.248725,-0.503508,0.41609,0.164145,-0.217925,-0.030496,-0.009378,0.094351,-0.070707,0.135244,-0.122371,0.095684,0.052468,0.075183,-0.079538,0.128724,0.106092,-0.139056,-0.034065,0.065349,-0.090514,-0.328987,0.180095,0.126252,0.12224,-0.026126,-0.038649,0.187272,0.09852,-0.219026,0.316562,0.046244,0.215192,-0.186799,-0.11265,-0.060002,-0.219542,-0.232864,0.188779,-0.088773,-0.163348,-0.058998,-0.098659,-0.064504,0.19054,-0.43924,-1.250648,-0.355818,-0.178075,-0.622498,-0.458698,-0.129605,0.130294,-0.082076,-0.130984,-0.094099,-0.017351,-0.034488,0.188513,0.046197,0.138615,-0.182346,-0.07159,0.220468,0.250308,-0.001959,-0.310073,-0.292418,0.075363,0.122051,0.144719,-0.120494,0.285204,-0.321552,0.266533,-0.081564,-0.290735,0.175687,-0.099414,0.089771,-0.208368,0.044707,-0.020529,0.304513,0.052502,-0.505471,-0.04462,0.525651,0.129065,0.120869,-0.148226,0.164267,1.152976,-0.32373,0.679752,-0.159449,-0.061016,0.061918,-0.070408,0.04912,0.039615,0.077703,0.132685,0.061744,0.055936,0.028358,0.04379,-0.069654,0.003889,0.001313,-0.034996,0.173046,-0.248501,0.409724,-0.053848,-0.048392,-0.062521,-0.053275,0.165852,0.264387,-0.281365,-0.131577,0.125665,0.0044,-0.257433,-0.045372,0.085241,-0.301609,0.10795,-0.036804,-0.052436,0.011286,0.20258,-0.101944,-0.141262,0.353673,-0.23748,0.175696,-0.512273,0.744135,-0.800956,-0.261304,-0.015777,0.166177,-0.062438,-0.10245,-0.111796,-0.037023,0.098075,-0.101728,0.035544,-0.088186,0.135905,0.161811,0.101284,-0.002083,0.121724,0.142393,0.176018,0.030234,-0.061366,-0.064501,-0.213347,-0.068084,-0.101621,-0.054304,0.180489,0.242681,-0.065938,0.0454,0.213886,-0.284468,-0.237726,0.092081,-0.181824,-0.044179,0.06179,-0.204744,-0.394585,-0.044693,0.104633,-0.071737,0.296158,-0.537907,0.289096,-0.522524,-0.243551,-0.043739,-0.229392,-0.063105,-0.0028,-0.023175,-0.017618,0.111561,-0.104721,-0.062545,0.052938,-0.001317,0.110692,-0.323923,0.133958,-0.063113,0.081491,-0.018353,-0.340425,-0.218767,0.192751,0.030381,0.095464,0.260337,0.000191,-0.305666,0.17945,0.076886,-0.322908,0.059119,0.195207,0.055439,0.002285,-0.147675,-0.17538,-0.161001,0.110664,-0.266496,-0.144747,0.219248,0.072856,0.174182,0.082526,-0.532227,0.033261,0.515445,-0.067621,-0.478404,0.026612,-0.221898,-0.062276,-0.084354,-0.077488,-0.048705,0.081321,0.054187,-0.038766,0.086577,0.008571,-0.207117,0.092681,0.133915,0.133907,-0.004486,0.002346,0.222021,0.001765,-0.005617,-0.244284,-0.19696,-0.133632,-0.087518,-0.162548,-0.090736,-0.084513,-0.113031,-0.413036,-0.043014,0.235119,-0.180409,-0.000434,0.274447,-0.011052,0.208549,-0.107784,-0.442928,0.082889,0.42692,-0.241653,0.075068,0.870707,0.304438,0.094841,-0.122236,-0.057231,-0.078489,0.031425,-0.098616,0.110188,0.106197,0.07145,0.052349,0.157984,0.070684,0.058931,0.063345,0.025601,0.160678,-0.158612,0.005411,-0.175679,0.212083,-0.021169,0.086032,-0.206571,-0.153682,0.108788,0.079637,-0.034976,-0.124757,0.115809,0.004697,0.009251,0.040883,0.031002,-0.216574,-0.012643,0.018322,-0.09634,-0.061309,0.016972,-0.296047,-0.020954,0.035483,0.483681,-0.365363,-1.343254,0.199258,-0.257851,-0.077449,-0.158166,-0.169716,0.147174,-0.03157,0.050301,0.05748,-0.083782,0.017369,-0.061966,0.082638,0.057261,-0.241119,-0.057109,0.074859,0.272158,-0.034328,-0.29733,-0.249423,0.168296,0.0924,0.414156,0.044379,-0.015159,-0.234201,-0.293462,0.081496,-0.180307,-0.072904,0.029137,-0.003683,0.087836,0.270421,-0.236754,0.092873,0.058987,0.150251,-0.248461,-0.157753,0.069738,0.009049,-0.012438,-0.33884,0.381053,-0.725419,0.329781,0.110651,-0.333634,0.189066,0.083827,0.117395,-0.120003,-0.117764,0.015789,0.048678,-0.095599,0.017662,0.002953,-0.062877,0.163821,0.117696,-0.286294,-0.116305,-0.194938,0.08814,0.03908,-0.015288,0.106732,-0.333072,0.082433,0.127543,0.032279,-0.030163,0.156549,0.293575,-0.078216,0.083176,-0.135926,-0.135915,0.125927,-0.375203,-0.059672,-0.192199,0.202541,0.184033,-0.154872,0.170241,-0.520577,0.244346,-0.845905,0.281848,-0.084487,0.582944,0.30695,-0.090892,0.120067,0.145323,-0.085437,-0.015759,0.011622,-0.072021,-0.066891,0.011538,0.150515,0.039348,