{"format":"ratass-rl-policy-v3","source":"ray-rllib-ppo","objective":"race-route-progress-v1","observationSize":25,"actionSize":2,"output":"first actionSize outputs are deterministic direct throttle and turn controls","layers":[{"inputSize":25,"outputSize":64,"activation":"tanh","weights":[-0.218624,-0.091224,-0.042767,-0.110032,0.13914,-0.537223,0.007336,-0.144379,0.182316,0.152684,-0.141218,-0.133562,-0.026567,-0.015673,-0.212325,0.436504,-0.301164,0.183454,-0.158673,0.049703,0.020447,-0.160938,-0.028337,-0.077975,-0.18576,0.099922,-0.145852,0.076563,-0.201592,-0.058189,-0.239701,0.045628,-0.360684,-0.095737,-0.12662,-0.456498,-0.674638,1.509566,-0.011607,0.969734,0.259505,-0.005678,-0.303442,-0.299739,-0.26046,-0.092894,-0.20219,0.114046,-0.252227,0.015885,0.166156,-0.095627,-0.053577,-0.178693,0.230841,0.530208,-0.271524,-0.172982,-0.291294,-0.254752,0.422493,0.451084,-0.606623,0.272329,-0.700094,-0.054525,-0.076849,-0.026751,-0.446572,0.27828,0.086493,-0.193031,0.172087,-0.318406,0.021971,0.103367,-0.227632,0.080444,0.115536,-0.593563,-0.039719,-0.056384,-0.098959,-0.00295,0.013917,-0.138206,0.043977,0.46088,-0.197838,-0.137022,0.378465,-0.09478,0.692378,0.082666,0.162511,0.216952,-0.248204,-0.053809,0.230504,-0.002751,0.071201,0.186998,0.053509,0.193645,0.069389,-0.649455,-0.017242,-0.186818,-0.075021,-0.206899,-0.736219,-0.845493,0.264576,-0.256973,0.817766,0.251056,0.016105,0.344266,0.36063,0.103644,-0.222576,-0.212884,-0.169268,-0.06467,-0.293794,-0.142209,0.084232,0.081498,-0.044182,0.215375,-0.181637,-0.087701,-0.0107,0.117791,-0.163915,0.491472,0.61885,0.538844,0.036352,0.093457,-0.647325,0.104457,0.26116,-0.14693,-0.068443,-0.101056,0.223879,-0.016649,0.15083,0.176984,0.091379,-0.036249,0.124698,-0.064429,0.575535,0.243425,0.118504,-0.102857,-0.101578,-0.193777,0.57653,0.873557,0.435382,-0.03217,0.07727,-0.147364,-0.155146,0.253938,0.322652,0.072464,-0.034278,0.124885,-0.007683,-0.212038,-0.14858,0.145752,-0.215933,0.066189,0.137029,0.963815,0.3571,-0.121846,-0.378465,-0.036234,-0.074792,-0.439635,-0.648776,-0.096436,0.042672,-0.414049,-0.012285,0.11331,0.026983,0.100195,0.218234,-0.265258,-0.105015,-0.237786,-0.250145,0.079288,0.057144,-0.360188,0.082553,-0.255038,-0.380976,-0.309691,0.38879,0.262811,0.05192,0.199581,0.558075,0.958596,0.67113,0.12855,0.506614,-0.552427,0.177158,0.748469,-0.028023,-0.019054,0.195042,-0.111721,0.151733,0.133622,-0.082446,0.125222,-0.8101,-0.017957,-0.726438,-0.363242,0.056935,0.220464,-0.032881,0.097687,0.121845,0.244363,0.152305,0.483419,-0.125353,0.04522,-0.290144,0.345145,-0.029711,0.036672,-0.246681,0.144486,-0.159518,0.17108,-0.148034,0.297738,0.343488,0.39899,0.109753,0.288168,0.025908,-0.610257,-0.126846,-0.012917,-0.197028,-0.227695,-0.290084,-0.103307,1.225666,0.124586,1.66675,0.200682,0.0467,-0.213781,0.048369,-0.029859,0.053615,-0.058114,0.127726,-0.0904,0.07257,-0.16616,-0.210257,-0.251091,0.27851,-0.041051,-0.039335,-0.257484,-0.338176,-0.124942,0.084852,-0.711688,-0.592059,-0.032705,-0.168077,0.085252,0.125215,-0.062576,-1.477,-0.15008,-0.110053,-0.02969,-0.155604,0.008778,0.032071,-0.221772,0.009077,0.173646,0.064381,0.053189,0.193855,0.320689,0.086647,0.274706,0.339451,0.201076,-0.282424,-0.038359,-1.064178,0.200249,-0.413202,0.878051,-0.176654,0.213843,0.505365,0.215198,-0.00403,-0.043654,0.117891,-0.192438,-0.011968,-0.055739,0.090718,0.012417,-0.111714,-0.733366,-0.298497,0.139125,0.312667,0.0288,0.264496,0.750601,0.471704,0.193597,0.124401,-0.082063,-0.118866,0.17993,-0.152636,0.393745,-0.005775,-0.099327,0.097031,0.229419,-0.199572,-0.060313,-0.015266,-0.503968,-0.072746,-0.242542,0.206444,0.055712,-0.100356,-0.274235,-0.293795,0.046797,-0.404851,-0.300207,-0.669968,-0.114553,-0.352037,0.653899,-0.190011,0.12492,-0.178372,0.111457,0.172513,0.030327,-0.07711,-0.154629,-0.099636,-0.186895,0.039934,-0.306465,0.08566,-0.247079,-0.201883,-0.216709,0.153222,-0.012769,0.151922,-0.645186,-0.383309,-0.003196,0.022366,-0.172855,-0.330711,0.178401,-0.373439,-0.085811,0.072859,0.08637,0.057247,-0.115641,-0.254157,0.066273,0.061153,0.031714,0.222631,-0.035849,0.515785,0.197424,-0.227038,-0.042854,-0.151404,-0.39689,0.671222,0.479329,-0.91877,0.02384,-0.735653,-0.167923,-0.119925,0.003479,0.33552,0.236834,-0.101148,-0.046908,-0.102479,-0.011597,-0.125447,-0.062645,-0.065345,0.005794,-0.080682,0.064848,0.123275,-0.429557,-0.378723,-0.427895,-0.046323,-0.807989,-0.987439,-0.576144,0.036229,-0.628922,0.019707,0.019722,0.334151,0.077677,0.035202,-0.187894,-0.094706,-0.070631,0.044094,0.028384,0.039376,0.16376,-0.097007,-0.102875,-0.029751,-0.161367,0.259708,0.319987,0.035889,0.262283,0.62896,0.786112,-0.48631,-0.293939,-0.292452,-0.557966,0.048647,0.52872,0.050333,-0.07159,0.023025,0.099812,0.056969,0.277304,-0.049811,-0.110542,-0.041397,-0.005696,0.339421,0.495969,-0.322369,-0.061948,-0.029249,-0.2431,-0.288882,-0.189669,-0.311876,-0.794529,0.131063,-0.563576,0.516968,-0.074853,-0.031417,0.057447,-0.069965,-0.125503,0.082515,-0.235622,-0.121728,-0.135007,-0.188818,-0.327549,-0.281032,0.407724,-0.134179,0.116558,-0.062844,-0.412426,0.025777,-0.013612,-0.568808,-0.458932,0.847431,0.012849,0.351783,0.442608,-0.099119,-0.092147,0.269256,-0.097178,0.033956,-0.677988,-0.235343,-0.079746,-0.650599,-0.110712,0.004592,-0.270387,-0.228874,0.582721,0.178433,-0.028483,-0.077198,-0.025749,0.030948,-0.899849,-0.911559,0.191497,0.179511,0.710205,0.279615,-0.021801,-0.376473,0.313865,0.113758,-0.223194,-0.099758,-0.226454,-0.352055,-0.25849,-0.113178,0.129131,0.014877,0.305146,-0.117225,-0.081038,0.232768,0.156932,0.440613,0.370707,-0.498363,-0.51089,-0.766582,-0.024466,-0.179234,0.777572,-0.1404,0.183837,0.097225,0.116206,0.00062,0.031012,0.202091,-0.04216,0.121143,-0.170986,-0.045445,-0.3016,-0.162907,-0.314759,-0.359646,-0.103268,0.204835,-0.16595,-0.136995,-0.127874,-0.061499,-0.448128,-0.0863,-0.220862,-0.006107,-0.057314,-2.060255,0.159476,0.146749,-0.284124,0.016454,-0.203059,-0.133407,-0.142582,-0.150374,0.56412,-0.016502,0.207943,-0.15736,-0.244781,-0.002162,0.206165,0.232515,0.080181,0.257327,-0.058621,0.414621,-0.085393,0.389419,-0.480398,0.131458,-0.033011,0.19228,0.119223,0.205425,0.205839,0.180468,0.313099,-0.155189,-0.058755,-0.353592,0.202037,-0.313845,-0.465324,0.109171,-0.005482,-0.002336,0.124774,-0.005215,0.303896,0.434591,0.196916,-0.168575,-0.195431,-0.684781,0.246328,-1.07813,-0.004564,0.18866,0.249611,-0.070478,0.042451,-0.00512,-0.012255,0.153225,0.446035,0.09396,0.565555,-0.238181,-0.284561,-0.338849,-0.03128,-0.302817,-0.38715,0.214499,0.060001,-0.200138,0.017569,0.314885,0.114215,-0.266765,0.1003,-0.301084,0.074371,-0.276171,-0.005587,-0.018294,-0.1694,-0.26025,0.139802,0.114926,0.221975,-0.236739,-0.620297,-0.024236,0.235579,0.267286,0.074438,-0.092863,0.495586,0.376243,-0.636694,-0.120106,-0.567679,-0.078683,0.006187,0.16928,0.131632,0.298608,0.191828,0.171035,-0.020249,0.296036,0.265757,-0.289062,-0.184991,0.026376,-0.158541,-0.178722,-0.25922,0.166495,0.10288,0.26875,0.350284,-0.21842,-0.160976,-0.015888,-0.284357,0.175976,0.64771,-0.17696,1.917301,0.305305,0.034653,-0.097814,0.060411,-0.188757,-0.074632,0.042837,-0.021344,-0.276582,0.044532,-0.214402,-0.075105,0.392969,-0.052028,-0.288974,-0.348041,-0.333945,0.185073,0.383706,0.592135,0.224452,-0.122661,-0.606365,0.127091,-0.132456,0.080584,0.239599,-0.306521,0.041237,-0.003991,-0.302481,-0.100299,-0.009362,-0.264863,0.120494,-0.311477,0.064217,0.296452,-0.38692,-0.195115,-0.280333,-0.240044,-0.349739,-0.213197,-0.311125,0.230313,-0.242719,-0.145505,0.097519,-0.535443,0.236196,-0.045744,-0.127407,-0.198113,-0.10557,-0.149577,0.122088,0.020366,-0.266527,0.214876,0.151912,-0.097637,-0.308341,0.05692,-0.03378,0.117909,-0.08484,-0.354887,-0.221696,-0.309118,0.276236,-0.230909,0.477574,-0.259699,-0.013311,0.233759,0.240809,-0.243577,0.017141,-0.033781,-0.147473,-0.130253,0.099839,-0.193087,0.177636,-0.094416,-0.285831,-0.368285,-0.235571,-0.008169,-0.375515,-0.299636,-0.090983,-0.106823,-0.342714,0.173712,-0.578393,0.393105,-0.134456,0.197723,0.089937,-0.159175,-0.27791,-0.025246,0.042767,0.077568,-0.219051,0.011389,0.008272,0.05656,-0.048718,-0.148389,-0.353192,-0.140003,-0.246374,-0.3295,-0.190547,-0.348686,-0.098701,-0.239298,-0.10471,0.296497,0.448395,-0.080739,0.141651,0.047162,-0.061966,-0.021236,-0.019677,-0.090062,-0.109988,0.068793,-0.172774,-0.161203,-0.141829,-0.343529,-0.231251,-0.154562,-0.320866,0.031371,0.055828,0.176806,-0.620845,-0.579209,-0.620775,0.275011,-0.613031,0.168836,-0.041236,-0.120254,-0.232686,-0.23835,-0.049485,0.073815,-0.13825,-0.06169,0.063736,-0.256244,-0.034088,-0.107948,0.069728,0.051433,-0.140855,-0.010483,0.247699,0.299275,0.401724,0.229342,0.102896,-1.045678,-0.170224,-0.356448,-0.140328,-0.301635,0.586524,-0.398876,-0.060238,0.348387,-0.01419,0.209008,0.154908,0.090121,-0.114682,-0.125875,0.208598,-0.080363,-0.410957,0.085516,0.30993,0.056309,0.265798,0.02177,0.462108,0.493495,0.506409,-0.244411,0.374797,-0.363792,0.01618,-0.232855,-0.110225,0.362675,0.183695,0.173419,-0.067144,0.119452,0.045449,0.068587,0.044616,0.00483,-0.134261,0.270973,-0.705794,0.137766,0.087619,0.30424,0.248186,-0.353601,-0.355474,0.682212,-0.077322,0.408091,-0.255878,0.182728,0.1127,0.13147,0.187066,-0.077083,-0.053711,-0.147401,-0.079031,0.169243,-0.026619,0.567814,0.068197,0.509401,-0.049617,-0.068359,0.043923,0.14032,0.218024,0.324826,-0.397735,-0.427408,-1.513619,-0.036147,-0.755848,0.452682,0.137321,0.093138,0.357616,0.089334,-0.070494,0.20661,0.079466,0.470188,-0.173099,0.007008,0.18634,0.002603,-0.054015,0.172093,-0.186461,0.324136,-0.164716,0.022384,0.249816,0.087173,-0.058981,0.751646,0.152995,0.582316,0.174548,-0.112115,0.457601,-0.064662,0.210777,0.124601,0.056059,0.34637,0.289463,-0.124377,0.231176,0.326563,0.233642,0.479152,-0.298601,0.551368,-0.404109,-0.02647,-0.173102,-0.344225,-0.154384,-0.427388,-0.68873,-0.218186,0.095493,0.845501,-0.135883,-0.083324,0.305464,-0.052728,-0.118997,-0.286567,0.034503,0.19708,-0.212825,0.208958,-0.224861,-0.016389,0.054423,0.656033,0.384402,-0.035815,-0.076684,0.106866,0.099878,-0.145344,-0.12539,0.124185,0.150017,0.337252,0.336373,-0.194865,0.873828,-0.220177,-0.171149,0.035909,-0.180551,-0.125632,-0.250099,-0.174115,0.165866,0.140845,-0.241823,0.052198,0.245357,-0.31481,-0.203851,-0.102717,-0.079195,-0.060193,0.109545,-0.199126,1.119192,-0.120767,0.607392,0.133109,-0.06977,0.057176,-0.257153,-0.003348,-0.094699,-0.256303,0.100899,0.044721,-0.093218,-0.041396,-0.250682,-0.27396,0.200788,-0.172934,-0.093422,-0.046202,-0.322957,0.081867,0.001026,-0.275884,-0.459837,0.873397,0.075065,0.27295,0.373425,-0.001098,0.046757,0.247468,0.154126,-0.052957,-0.296494,-0.225087,-0.06238,-0.149985,0.22909,-0.098771,0.203539,-0.199952,-0.289542,-0.648179,-0.148874,-0.237287,-0.335063,-0.420585,-0.387272,-0.563439,0.989758,0.069431,0.923381,0.022939,0.15264,-0.057819,-0.064084,0.077535,-0.123318,-0.042186,0.011186,-0.038063,0.205622,-0.11952,-0.373059,0.093125,-0.472493,0.187605,0.082405,-0.200449,0.018121,-0.302428,-0.02969,-0.707478,-0.50847,-0.483349,-0.080849,-0.156462,0.679131,0.167233,0.502622,0.240286,-0.086456,-0.265074,-0.149731,0.032519,-0.160081,-0.206673,-0.040452,-0.089593,0.070322,0.119771,-0.627735,-0.489115,0.038531,0.042801,-0.206128,0.013317,-0.398594,-0.160374,-0.260718,-0.121498,-0.080369,0.555905,-0.007419,1.015744,0.661811,0.233907,-0.21446,-0.003031,-0.064974,-0.273679,0.072083,0.057059,-0.044065,0.208992,-0.002349,0.260823,-0.027574,-0.344532,0.004024,-0.180438,-0.0515,-0.353949,-0.262728,-0.504892,-0.019517,-0.158241,0.434442,-0.202267,0.418804,0.282347,0.040157,-0.2956,-0.115646,-0.02886,-0.168056,-0.210508,-0.206282,-0.079044,-0.192397,-0.171754,0.007984,0.172637,-0.033985,0.149585,0.134311,-0.072473,-0.238258,-0.454519,-0.147532,0.082534,0.37584,0.408768,-0.015748,0.767443,0.128529,-0.115631,-0.350488,-0.18822,-0.014697,-0.202755,-0.190502,0.16485,-0.186689,-0.034638,-0.04867,0.335708,0.331808,-0.033951,-0.022512,-0.318055,-0.328661,0.006112,0.037751,-0.331065,-0.118121,-0.307676,-0.638674,0.056785,-0.538198,0.348009,-0.264147,-0.09446,0.124575,0.060811,-0.013768,0.043016,0.134459,0.604779,-0.044287,-0.409692,-0.043764,0.063138,-0.156573,0.210633,0.057667,-0.134801,-0.451843,-0.384185,-0.858892,0.060571,-0.495061,0.200994,-0.282205,0.370899,-0.43514,0.154999,-0.445994,0.142073,-0.24922,-0.45673,0.14216,-0.085193,0.706744,0.069528,0.301676,0.228947,-0.643139,0.217187,0.228533,0.164529,0.261727,0.381363,0.332647,-0.275297,-0.004358,0.065021,-0.252718,0.159414,-0.126355,0.005256,0.148237,0.08917,-0.038609,-0.081027,0.301905,0.108129,0.071339,0.104529,0.238251,0.230475,-0.377977,-0.023976,-0.077338,-0.1934,-0.29426,-0.411513,0.330878,0.564676,-0.59356,0.017814,-0.723364,-0.412737,0.058711,-0.107863,0.177813,-0.206431,-0.030285,-0.116013,-0.099872,0.041493,-0.212128,-0.133581,0.095635,-0.16376,0.328162,0.092188,0.467912,0.000986,0.300624,0.384745,0.240281,0.445047,0.696451,-0.368733,0.046677,-0.135467,-0.018963,-0.097182,-0.607012,-0.080117,-0.289009,0.232997,0.040929,0.062541,0.118597,0.15389,0.013311,-0.507359,0.240236,0.280234,-0.001421,-0.047806,0.453398,-0.31755,-0.08659,0.096081,0.089233,0.109785,1.491132,0.170979,0.42015,0.365997,-0.071024,0.871382,-0.076992,-0.052582,0.416469,-0.093728,0.083592,0.412815,-0.084664,0.291468,0.05163,0.174751,0.475677,0.007058,0.401675,0.267037,0.065883,0.036187,-0.061366,0.509256,0.310518,-1.286294,0.04409,-0.933673,-0.212476,0.313531,-0.08439,0.208577,0.159959,-0.038921,0.137512,0.187321,0.208691,-0.129604,-0.094836,0.356083,0.039462,0.236422,0.066496,-0.37019,0.085633,0.176177,0.298818,0.119436,-0.230157,-0.579385,0.162066,-0.043186,0.483539,-0.000293,0.031282,0.17161,0.377346,-0.005273,0.166257,0.134634,-0.281976,0.29307,-0.005356,0.256363,-0.117521,0.15632,-0.180658,0.25163,0.00694,0.256428,0.03266,0.02789,-0.034814,0.760269,0.396866,0.484479,-0.292902,0.014531,-0.204875,0.131551,-0.496495,-0.004561,-0.096018,0.266075,0.048871,0.071034,-0.001236,0.040981,0.142533,-0.064441,-0.199095,0.280879,-0.291681,-0.15112,0.230088,-0.312287,0.12563,0.171781,-0.456392,-0.489164,0.504486,0.005399,0.456555,0.357337,0.133432,0.295956,0.140102,0.229517,0.099636,-0.261314,-0.26957,-0.065346,-0.266237,0.133145,-0.551573,-0.14824,-0.274155,-0.108228,-0.429887,0.191619,0.038074,0.319341,0.252989,0.367513,0.28092,1.614182,0.215428,0.400435,-0.506149,0.062884,-0.006704,-0.197277,-0.352565,-0.069288,-0.107523,-0.248725,0.194622,0.217333,-0.210971,-0.352715,-0.16657,-0.258084,0.250528,-0.100689,0.30001,0.20002,0.327601,0.194322,-0.440705,-0.600879,0.977606,-0.01727,0.781317,0.443908,-0.051683,0.341316,0.383572,-0.004943,0.164669,-0.058311,0.168263,0.132332,0.081465,0.007088,-0.311697,-0.103069,-0.547577,-0.024312,-0.342483,0.196912,-0.007373,0.346282,0.124296,-0.607596,-0.534949,-0.166421,-0.186709,-0.078827,0.138501,-0.033211,-1.138415,-0.344442,-3.4e-05,0.077115,0.295882,0.031314,-0.072561,0.230062,0.140818,0.175642,0.310042,0.360084,0.18804,-0.053247,0.094707,0.123239,0.024304,0.322542,0.238471,0.175349,-0.989134,0.157795,-0.670567,-0.203565,0.129169,-0.019723,0.146689,0.376447,0.066693,0.20608,0.450498,0.361515,-0.121642,0.13611,-0.029716,0.144011,0.221874,-0.321568,0.165684,-0.07989,0.230277,0.039764,-0.093525,0.475641,0.287103,-0.652301,0.029979,-0.858677,-0.480333,0.025213,-0.264414,-0.24574,-0.268016,0.21506,-0.008601,0.041589,0.276112,0.038249],"bias":[0.191926,0.02641,0.219053,0.404405,0.096182,-0.1782,0.215554,0.1088,-0.07465,0.07474,0.168842,0.069667,-0.297966,-0.180036,0.043951,-0.249738,0.294056,0.114579,-0.274577,0.197905,-0.174785,-0.098649,-0.293243,-0.132543,0.033944,-0.206756,0.303687,-0.004441,0.032366,0.214239,-0.084618,0.313205,0.159656,0.237058,-0.222945,-0.105345,-0.147554,-0.228819,0.135657,0.284957,0.14585,0.119676,-0.038312,-0.031561,0.319551,-0.213129,0.234665,-0.038841,0.069742,0.090769,0.081566,-0.184236,-0.011362,-0.230619,0.23406,0.102913,0.017225,0.126077,-0.089093,-0.164105,-0.134832,-0.131986,0.069259,0.193439]},{"inputSize":64,"outputSize":64,"activation":"tanh","weights":[0.213271,0.044569,0.06546,0.319213,0.188676,-0.060252,0.260003,0.114089,0.095937,-0.103555,-0.453258,-0.063885,0.120495,-0.34921,0.063605,0.100766,0.059963,-0.093958,-0.172114,0.065349,0.430729,0.27967,0.068028,0.129945,-0.104669,-0.263656,-0.210843,-0.231736,0.371942,-0.246871,-0.068421,-0.309675,-0.704316,-0.179972,-0.33718,0.171006,0.091622,0.207319,0.047558,0.281233,0.169718,0.823263,-0.015368,0.301771,-0.767483,0.162253,-0.152872,-0.01211,-0.009454,-0.083361,-0.018311,0.012944,-0.128959,0.232309,-0.141836,0.10583,0.147972,0.117752,0.189598,0.093972,0.352406,-0.228388,-0.131395,-0.168668,-0.057479,0.538944,-0.028467,0.635574,0.230239,-0.310741,0.597323,0.005718,0.403032,-0.077185,0.71008,-0.532558,-0.923262,-0.223881,0.00356,-0.27245,0.149607,-0.257421,-0.142369,0.04571,-0.109615,-0.159319,-0.558952,-0.13131,0.027429,-0.126637,0.167655,0.29249,-0.02379,0.197217,0.035657,0.536348,0.36827,0.251374,-0.472892,-0.906894,0.117487,-0.31359,-0.15698,0.396517,0.595955,-0.150568,-0.100764,-0.13765,0.818672,-0.36291,0.212043,0.086633,-0.149908,0.131884,-0.516379,0.092234,0.426362,-0.799069,0.472177,0.099112,-0.043835,0.27973,-0.053033,0.354359,-0.277904,-0.401707,-0.025122,0.11848,0.005554,0.310393,0.169076,0.288782,0.237467,-0.03715,0.063203,0.164202,0.009053,0.112269,0.099255,-0.04733,-0.256185,-0.16575,0.138874,-0.162236,0.148527,0.22392,0.073907,0.116206,-0.112162,0.040929,-0.543975,0.005324,-0.261369,0.075959,0.164271,0.178318,0.166256,0.208458,0.167575,0.162968,0.1856,0.256357,0.205739,-0.079386,-0.049928,-0.218426,-0.256954,-0.012319,0.015381,-0.003476,-0.052961,-0.049867,0.311164,-0.091923,-0.042091,-0.067062,-0.148667,0.011563,-0.021055,-0.213865,0.12807,-0.140359,0.175033,-0.154498,-0.167821,-0.001513,-0.207543,0.201913,-0.079671,0.055012,-0.22327,0.04942,-0.096371,0.699223,-0.245571,-0.208509,0.403739,-0.252369,-0.379802,0.04119,0.059484,0.192445,0.232102,0.407458,-0.122418,-0.048683,-0.044045,0.102597,-0.979503,-0.294791,-0.140216,-0.241281,0.159645,0.29276,0.324426,0.00225,0.214072,0.107333,-0.317642,-0.670461,0.293658,-0.425944,-0.326258,-0.209304,-0.484642,-0.125539,-0.034004,0.274019,-0.059811,0.338102,0.11041,0.223374,-0.016045,0.098806,-0.110454,0.227791,0.312409,-0.141764,0.096758,-0.246214,-0.119847,-0.087176,0.061166,0.185667,-0.319219,-0.01072,-0.118889,-0.298936,0.138839,0.027407,0.059375,0.483754,0.617945,0.132945,0.019438,-0.581726,0.138649,-0.145891,-0.188663,0.080357,-0.14162,-0.246194,-0.557074,0.109408,-0.023355,-0.099376,-0.054863,0.236836,-0.150543,0.382707,0.112354,0.152069,-0.112842,0.082626,-0.061085,0.011383,0.031027,-0.293998,0.32105,0.39623,-0.01538,0.187921,0.134047,0.412749,-0.081357,0.019016,0.154775,0.459219,0.638253,0.237381,0.589587,0.136477,-0.185181,0.033612,0.156476,-0.423584,0.103149,-0.429228,-0.002502,-0.05529,0.40582,0.160892,0.317513,0.096173,-0.035372,-0.102099,-0.107576,0.077385,0.723038,-0.033293,-0.296201,-0.08433,-0.144018,-0.47797,0.1012,0.126619,-0.230649,0.1983,-0.145992,0.268306,0.397505,0.324861,-0.252794,0.530192,0.245678,-0.537461,-0.338121,0.106677,0.023645,-0.028653,0.721929,0.164532,0.012079,0.205405,0.144744,-0.095987,-0.204805,-0.145677,-0.334683,0.214973,-0.110448,-0.233598,0.38568,0.209211,-0.136814,0.089024,0.110221,0.333755,-0.085343,-0.292114,-0.127301,1.029195,0.160083,0.163659,0.055422,-0.567849,0.006574,0.278641,0.023839,-0.012154,0.601701,-0.445855,-0.152798,-0.042597,0.832653,-0.148132,0.462842,0.022399,-0.386408,-0.152515,0.021055,0.108217,-0.008477,-0.446002,0.109316,-0.02452,0.135928,0.207448,0.192573,0.17575,-0.111072,0.1183,0.089842,0.14461,0.208163,0.011766,0.111195,0.112564,0.098676,-0.078795,0.196354,-0.08805,0.021023,-0.025797,0.016146,-0.123705,-0.02796,-0.037535,0.1565,-0.319874,-0.139103,0.120638,0.199687,0.178927,-0.243496,-0.083019,-0.098394,0.060994,-0.161047,0.080851,0.179698,-0.116244,0.07454,-0.178384,-0.188324,0.141965,-0.097989,0.05743,0.10606,0.42839,0.101291,-0.169438,-0.102951,0.031356,-0.166423,0.127307,0.039915,-0.166918,-0.059261,-0.039614,-0.075123,-0.060234,-0.143309,0.047521,0.107746,-0.166971,-0.246395,-0.048907,0.263398,-0.075673,-0.095427,0.1421,-0.073895,0.075722,0.139608,0.223289,-0.030104,-0.033715,0.000988,-0.22008,-0.170255,-0.154198,-0.480388,0.244501,-0.065133,-0.084297,-0.162767,0.174748,-0.159035,0.343128,0.253422,0.286204,-0.071183,0.352903,-0.120558,-0.285836,0.153407,-0.223931,0.054088,-0.02728,0.546021,0.24832,0.120984,0.251215,-0.283224,0.045177,-0.13214,-0.430095,-0.249395,-0.132916,-0.260105,-0.193939,0.143637,0.267154,-0.169834,0.243563,0.41404,-0.227658,-0.431297,-0.237546,-0.077659,-0.004726,-0.377176,-0.304095,-0.210069,-0.278913,-0.271379,-0.007715,-0.263146,0.366663,-0.299395,0.242091,-0.308879,0.184471,0.171703,0.097996,-0.020928,0.046487,0.046451,0.148561,0.172406,0.292922,0.315408,0.062102,0.410473,-0.012089,-0.093939,-0.082263,0.234713,0.338523,0.135976,-0.084542,-0.277308,-0.289645,-0.234771,-0.138069,0.249634,-0.025796,0.38537,-0.004507,-0.108071,0.216587,-0.199171,-0.185279,-0.494776,-0.087517,-0.208815,-0.147871,0.401541,0.29468,0.048629,0.591745,0.372594,0.096116,0.586257,0.407465,-0.141701,-0.36537,-0.179975,-0.356568,-0.291395,-0.082015,0.17587,0.162985,0.152001,-0.017002,0.018687,0.353172,-0.010619,0.21798,0.219611,0.121018,-0.051653,-0.386303,0.5408,-0.429803,0.081151,0.156665,-0.188414,-0.086207,-0.182432,-0.006542,-0.285676,-0.490312,-0.214038,0.058237,0.112631,-0.281985,-0.37362,0.003178,-0.028239,0.260464,-0.411997,-0.515473,0.127438,0.076361,0.010371,-0.119614,-0.214545,0.775699,0.002799,0.234134,-0.405326,-0.123709,0.136785,-0.123278,0.217749,-0.321068,0.238408,0.286531,0.001747,-0.008265,0.176936,0.033802,0.356966,-0.007158,-0.222531,0.107624,0.319416,0.135711,0.11006,0.060258,-0.086316,0.063128,0.050263,-0.290171,-0.225652,-0.263487,0.134419,0.159566,0.131472,-0.067866,0.660049,0.12283,0.19958,-0.421506,0.01948,0.0272,0.470583,-0.196926,-0.375306,0.080133,-0.096284,-0.170337,0.149572,0.092313,-0.158936,-0.104833,0.129138,0.110239,0.265727,-0.034881,0.064386,0.152863,0.243605,-0.259004,-0.324868,-0.110748,-0.098598,-0.090007,-0.079272,0.093319,0.257409,0.002628,0.096366,-0.172726,-0.543242,0.022269,-0.057693,0.039503,0.102158,0.174276,0.539456,-0.138591,0.117413,-0.084927,0.008495,0.013737,0.167116,-0.403588,-0.126258,-0.014245,-0.325495,-0.060031,0.024799,0.390026,0.100111,0.052158,0.177421,0.186623,-0.020272,0.068829,0.137666,0.03021,-0.222069,0.115692,0.130186,0.01345,0.105792,-0.158904,0.065028,-0.039507,-0.350854,0.253231,0.076308,-0.049866,-0.053741,-0.254674,0.061357,-0.107909,0.243201,0.033901,-0.075168,-0.230674,0.398664,0.100873,0.068941,0.329812,-0.18444,-0.430258,-0.141933,-0.213113,-0.071429,0.024207,-0.421377,0.272026,-0.059603,-0.115751,0.225943,0.056675,-0.183062,0.107111,-0.096744,-0.075708,-0.039368,-0.212889,0.06575,-0.12986,-0.130517,0.043333,-0.103912,-0.061906,0.365646,-0.137019,-0.09397,0.098874,0.124982,0.022862,0.09896,0.453411,0.044084,-0.045054,-0.167645,0.178938,0.057808,0.2049,0.002332,0.20203,-0.005268,-0.03809,0.014299,0.176472,0.116693,-0.329889,-0.042927,-0.178609,-0.087742,-0.125683,0.039467,-0.357007,-0.075091,0.034807,0.114859,0.242723,0.062237,0.239666,-0.244745,-0.052744,-0.003805,-0.15474,0.097108,-0.243337,0.020945,0.190909,0.018457,-0.014697,-0.041926,-0.025918,-0.40713,-0.050763,0.255607,-0.267546,0.129409,0.284448,0.00328,0.242348,0.208376,-0.036609,0.146925,0.270712,-0.021125,-0.07247,-0.019887,-0.03322,-0.169588,-0.455237,0.557338,-0.156724,-0.174306,-0.848807,-0.498907,-0.2486,-0.004756,0.487041,-0.171699,-0.141807,0.001167,0.088636,-0.247286,0.631103,0.134311,0.122513,-0.942936,0.073217,-0.032563,-0.048193,0.13382,-0.121449,0.053006,0.06683,-0.246266,0.482956,-0.07196,-0.102084,-0.031378,-0.074618,0.106184,-0.079629,0.347656,-0.428851,-0.102527,-0.259752,-0.22892,0.48547,-0.171158,-0.149682,0.246026,-0.024945,0.099693,0.011739,-0.091057,0.024034,0.527357,0.199863,-0.144484,-0.054301,-0.10703,0.065834,-0.113336,-0.423123,-0.188994,-0.145498,0.044034,0.090038,-0.142781,0.14793,0.022941,0.120344,-0.12647,-0.246699,-0.54702,0.111082,0.042064,-0.125083,-0.427994,-0.052768,-0.223888,-0.27567,0.220416,-0.032509,0.03913,-0.040135,0.306338,-0.108739,0.072792,0.054848,0.152748,-0.446338,-0.510657,-0.252358,-0.288981,0.195868,-0.303545,0.070361,0.084594,0.088296,-0.035728,-0.061589,0.034186,0.0399,0.120814,0.028203,-0.109845,0.005425,0.057175,-0.11143,-0.141399,-0.076319,-0.186888,-0.385213,-0.315544,0.188348,0.030732,-0.077803,-0.13875,0.043311,-0.128955,0.334849,-0.049774,0.013382,-0.10972,0.211325,-0.150132,-0.360905,-0.024969,0.024559,0.048865,0.115383,0.208696,0.220627,0.067456,0.307345,-0.411207,-0.215613,-0.361335,-0.409673,-0.28892,-0.395107,-0.418173,-0.457554,0.123273,0.376132,0.008365,0.140648,-0.028071,0.05757,-0.339976,-0.015818,-0.167833,-0.009676,-0.476133,-0.247407,-0.495416,-0.280581,-0.020246,0.046867,-0.063758,0.198856,-0.167127,0.432421,-0.166863,-0.129647,0.054456,0.193148,0.235971,0.074524,0.344688,0.307147,0.050735,-0.020058,0.269022,-0.128259,0.094121,-0.083306,-0.039723,0.075466,0.117195,-0.065911,0.021192,-0.309898,0.554142,-0.385455,0.080008,0.22517,0.149402,-0.126465,0.001629,-0.424692,0.106463,0.080186,-0.238822,-0.345739,-0.062399,-0.081745,-0.178551,-0.338099,0.277104,0.032792,-0.005765,-0.099096,-0.127403,0.440649,0.008811,0.306365,-0.104972,-0.157005,-0.162498,-0.272445,-0.001411,0.01704,0.1027,-0.168657,0.23849,-0.078688,0.246934,-0.558017,0.228422,0.173462,-0.231931,-0.218247,0.022566,0.006725,0.212641,0.030482,0.033072,0.009672,-0.009843,0.104357,0.026223,0.008572,-0.33089,-0.259498,-0.088586,0.350328,-0.03496,-0.081125,0.181556,-0.192123,0.070382,0.150198,0.254862,0.292946,-0.196363,-0.060924,0.433857,0.00504,-0.186628,-0.037752,-0.104569,-0.284659,0.600148,0.021721,-0.072295,0.186379,-0.064964,-0.085509,-0.434039,-0.098269,-0.101704,0.040378,0.299086,-0.178778,-0.482239,0.226216,0.269901,0.048618,0.131219,0.171739,-0.127238,-0.158302,-0.116301,-0.067517,-0.073966,0.083665,0.103046,0.181568,0.132612,-0.149845,0.155932,-0.445025,-0.250447,0.023163,-0.449194,0.30725,0.05553,-0.151767,0.05615,0.107658,-0.034577,0.178356,0.014027,-0.03047,-0.124127,-0.120489,-0.602257,-0.091977,0.204099,0.19083,0.158058,-0.135884,-0.058114,0.005363,-0.148045,-0.180752,0.012076,-0.267274,0.129765,-0.102462,-0.053213,-0.008015,0.098625,-0.101532,0.158276,-0.091488,-0.120626,-0.045061,0.107681,0.158935,-0.192467,-0.057974,0.50569,-0.147959,0.007514,-0.152348,0.122611,0.083205,0.462742,-0.369662,-0.106762,0.087909,-0.09728,0.177252,0.017503,0.380985,-0.045537,-0.049764,0.040525,0.195984,-0.152796,0.176682,0.013589,-0.040548,0.019268,0.022626,0.145756,-0.032894,-0.044532,-0.058931,0.225445,-0.116053,-0.097504,0.223797,0.184505,-0.195512,-0.103774,-0.090336,0.021786,0.025438,0.176878,0.062056,0.088896,-0.064458,-0.02588,0.290147,0.086297,-0.24195,0.418124,-0.127966,0.03515,0.013288,-0.196403,-0.119946,0.701332,0.190627,-0.205241,-0.037928,0.029938,0.187834,-0.034941,0.038829,-0.202229,0.042858,0.199793,0.077053,-0.291803,0.236293,0.08509,-0.089633,-0.085487,-0.064263,-0.376015,0.237862,0.00371,0.297313,0.204774,0.031313,-0.117309,-0.603134,-0.060195,0.033061,-0.17575,-0.193645,0.121793,-0.155426,-0.038525,0.143466,0.39684,-0.148304,0.17792,0.016691,0.198925,0.068919,-0.063187,0.159196,0.034985,-0.32064,-0.108425,-0.053599,0.00947,-0.268266,0.137995,-0.041411,-0.094091,-0.266133,0.008448,-0.091508,-0.164826,0.578763,0.152054,0.042814,0.289955,0.269804,0.20094,-0.397989,0.440638,0.126532,0.702257,-0.050813,-0.425699,0.142764,-0.027378,-0.15715,-0.4643,-0.565561,-0.008228,-0.179362,0.210672,0.012766,-0.416694,-0.173131,0.136942,0.10446,-0.185263,-0.138797,-0.081593,0.069396,-0.529112,-0.111143,-0.233726,-0.1176,-0.339598,-0.107507,0.288272,0.084489,-0.588673,0.484141,-0.039735,0.003916,0.279462,0.056448,0.362314,-0.311759,0.045523,-0.395917,0.003757,-0.036526,-0.165764,-0.042949,-0.041957,-0.162592,0.388177,-0.218794,-0.163375,0.01526,0.23376,0.343537,0.123617,-0.211157,-0.060463,-0.221435,0.056879,-0.291247,-0.215416,-0.222742,0.054683,-0.076092,-0.045481,-0.160378,-0.071285,-0.107489,0.019276,-0.130667,0.427251,0.167466,-0.206001,0.219408,-0.129757,-0.293327,0.287963,-0.041866,0.147322,-0.017432,0.658809,-0.093708,0.018642,-0.0435,-0.240016,0.09949,0.182913,-0.51832,-0.502224,-0.097691,-0.21409,-0.486431,-0.136011,0.374989,0.168556,0.111811,0.349378,0.056335,-0.028508,-0.187574,-0.113992,0.156443,-0.613843,-0.10434,0.077046,-0.139437,0.0614,-0.148679,-0.112268,0.319366,-0.222442,0.393916,-0.227324,0.159582,0.024531,-0.063392,0.237097,-0.066591,0.340395,-0.07138,0.141892,-0.147423,-0.216887,-0.135451,0.330456,-0.252163,-0.379939,-0.15333,-0.127293,-0.054294,-0.160397,-0.232276,-0.209242,0.344452,-0.034201,-0.085113,0.240591,0.003285,0.190545,-0.119764,0.064323,0.113227,-0.034156,0.126835,-0.180273,0.128622,-0.27558,0.374748,0.216946,0.260107,-0.401398,0.094131,0.177621,-0.036458,-0.323136,-0.148166,0.115878,-0.082802,0.068511,-0.588201,-0.189516,-0.377299,0.03533,-0.406494,0.012774,-0.043311,-0.341025,-0.201831,-0.565731,-0.206537,-0.448638,0.279853,-0.118531,-0.359996,0.315766,0.643365,0.029463,0.043084,-0.3965,0.081764,-0.28407,-0.181161,-0.176915,0.269317,-0.035021,0.295544,-0.156094,0.061693,0.170119,0.090176,-0.056218,0.021622,0.372,0.039706,0.001391,0.195389,0.171828,0.05836,-0.227323,-0.132816,0.087805,-0.228706,0.323434,0.086415,-0.23492,0.06002,-0.072969,-0.142353,-0.767953,-0.173547,-0.177281,0.25021,0.190062,-0.037214,-0.525342,0.298074,0.141171,-0.183027,0.278219,0.331284,0.027547,-0.12808,-0.09324,-0.197204,-0.169465,0.001591,0.192257,0.097886,-0.121143,-0.219571,0.421361,0.131778,-0.138049,-0.0641,-0.270869,0.241193,-0.067042,-0.266499,0.202407,-0.260961,0.262777,-0.041925,-0.224855,0.049293,-0.16822,-0.107794,-0.41418,0.16463,0.044501,0.127084,0.202504,-0.071142,-0.157289,-0.311917,0.254067,0.167952,-0.3096,0.057731,0.052328,0.008447,-0.205312,-0.158226,0.136134,0.044434,-0.057202,0.384397,-0.579506,-0.088821,0.174983,-0.00194,0.203506,0.240941,0.656999,0.254777,0.11149,-0.108993,-0.27063,-0.042899,0.623983,-0.308853,-0.432616,0.101191,-0.249539,-0.209069,0.064316,0.246629,0.116344,0.025227,0.06529,-0.102028,-0.562627,0.097262,0.036974,0.277865,-0.303164,0.095844,0.012872,0.067209,0.104893,-0.311783,-0.093178,0.176086,-0.313576,0.161622,-0.071618,-0.151576,0.120972,-0.180852,0.117246,0.483174,0.661579,0.03082,-0.021903,-0.203128,-0.231867,0.454416,0.07127,-0.179551,0.391956,-0.038889,0.033073,0.32649,-0.225404,-0.180189,0.19557,0.255841,0.047076,-0.410116,0.055508,0.282284,-0.122168,0.152784,-0.349627,-0.120337,0.325299,0.590372,-0.194673,0.141001,-0.134657,-0.185541,-0.195169,-0.731069,-0.157322,0.172217,0.098323,0.001774,-0.266626,-0.242714,-0.128208,-0.152164,-0.254369,-0.042654,-0.11385,0.052194,-0.065647,0.238949,0.188435,0.376941,-0.051755,0.185945,-0.184417,-0.045654,0.306512,0.379204,0.112239,0.170262,-0.287049,-0.112348,-0.192651,-0.350224,-0.100211,0.003316,0.223323,-0.118208,0.217522,-0.167963,-0.138681,-0.478141,0.166741,-0.356503,-0.060386,-0.186554,0.011839,-0.02424,-0.572485,-0.209497,-0.330347,-0.198731,-0.257708,0.121733,0.529964,0.046832,0.128233,0.17522,-0.004231,0.508978,-0.008911,0.055685,0.070042,-0.143892,0.608246,0.328348,-0.138839,-0.34757,0.314433,0.126716,0.040673,-0.458281,0.59743,0.177445,0.286971,0.002482,0.623138,0.261394,-0.819227,-0.120389,0.139333,-0.645051,0.00022,-0.189996,0.179043,-0.261583,-0.13207,0.62814,0.214101,0.609326,0.318355,-0.036589,0.282559,-0.026978,0.298631,0.127463,-0.633073,-0.104026,-0.107681,-0.326595,-0.061242,-0.296474,-0.110959,0.080844,-0.064014,0.148303,-0.053511,0.493198,-0.219404,0.310226,0.294284,-0.208819,0.131217,0.264615,0.15186,0.273981,0.138266,0.465967,-0.236106,-0.237459,-0.302882,0.123394,-0.274397,-0.122592,-0.384052,-0.172829,0.379588,0.424045,-0.062544,-0.044431,0.140409,0.1403,-0.345873,-0.748879,0.026157,-0.193495,-0.173529,-0.102286,-0.641146,-0.307199,-0.41721,-0.348706,0.251324,0.233809,-0.070475,0.287088,0.112681,0.301377,-0.092651,0.439376,0.090213,-0.072778,-0.02017,-0.017215,0.172365,-0.012384,-0.423154,0.094133,-0.276069,-0.016349,-0.065132,-0.242362,0.225806,0.472673,0.642815,0.097085,0.152789,-0.12594,-0.084379,-0.714456,0.173459,-0.055835,0.285334,0.10127,0.150423,-0.006303,0.047471,0.151396,-0.168263,-0.401178,0.078307,0.133477,-0.037898,-0.525313,0.094727,-0.116785,0.214385,0.255348,-0.104651,0.273279,0.145729,-0.190659,-0.028351,-0.090657,-0.0982,-0.212238,0.344375,0.029337,-0.151514,-0.173619,-0.087007,0.006155,-0.241309,-0.001814,0.033838,0.165574,0.107195,-0.458456,0.042706,0.018154,0.348519,0.041755,0.057837,-0.024958,0.028005,-0.066614,-0.100953,-0.095557,-0.203115,0.073678,-0.02222,-0.00195,0.200263,-0.097403,0.078399,0.009433,-0.113475,0.071242,0.058207,-0.45061,-0.275804,-0.238646,-0.09161,-0.013673,0.106785,-0.002766,0.297661,0.283189,-0.019378,-0.312987,-0.357738,0.414295,-0.107476,-0.174602,-0.330409,0.190171,-0.170277,-0.268846,0.099555,-0.032616,0.253846,0.62926,-0.238768,0.305834,0.065016,-0.245452,-0.32411,-0.151116,-0.212964,0.179381,0.459443,0.641168,0.040962,0.431066,0.402575,0.135169,0.4582,0.341804,-0.023378,-0.396581,-0.046976,-0.399618,0.016751,-0.014398,0.402351,-0.226426,0.061396,-0.091277,0.208994,0.5476,0.044163,0.271321,0.161311,0.230907,-0.390351,-0.145291,0.668793,-0.438317,-0.045814,0.275203,-0.216972,-0.114341,0.092491,-0.409497,-0.50821,-0.198496,0.00682,0.204348,0.091208,0.027911,-0.034552,0.399657,-0.024177,0.314653,0.388611,0.077358,0.191699,-0.072247,0.24522,-0.076994,-0.38489,0.012216,-0.096723,-0.203965,0.384057,-0.125858,0.071267,-0.059026,0.063629,-0.049251,-0.679754,-0.187268,-0.044545,-0.043472,0.070761,-0.003917,-0.113803,0.190285,-0.157417,-0.089238,0.062908,0.260751,-0.364404,-0.328639,-0.00064,-0.14213,-0.137134,0.138321,0.375972,0.047015,0.185346,0.060847,0.211646,-0.118598,-0.045071,-0.016849,-0.004615,0.03917,-0.3301,-0.10892,0.313701,-0.202697,0.176005,0.208921,0.029661,0.365198,0.124062,-0.098625,-0.401131,-0.397832,-0.134386,0.090269,0.007613,-0.07902,0.136549,0.007634,0.112614,-0.100821,-0.237903,0.199955,-0.175725,0.005146,0.032578,0.084191,0.198313,-0.38536,0.04807,-0.018561,-0.1151,0.11735,-0.082129,0.125079,0.006047,0.064408,0.224698,-0.104943,-0.036746,-0.04982,-0.078676,-0.126163,0.07486,-0.228149,0.121136,-0.201919,-0.356312,-0.028313,-0.005076,0.059036,-0.012266,-0.134106,0.244976,0.17095,0.173649,0.186271,-0.091031,-0.192196,-0.30412,-0.030257,-0.182546,0.160172,0.076813,0.18986,0.122328,-0.078096,-0.112618,0.132407,0.140364,0.148767,0.00376,-0.029768,-0.08431,-0.219027,0.117232,0.009838,0.026428,0.052529,-0.062165,0.20357,-0.23126,-0.105976,0.085117,0.163075,-0.054332,-0.065771,-0.0586,0.1788,0.188098,-0.094281,-0.132753,0.25683,-0.059132,0.111504,0.176644,-0.16774,-0.035985,-0.124851,0.006542,-0.099393,-0.280321,0.10285,0.142139,-0.059934,-0.05857,0.014174,-0.002239,0.258247,0.111857,0.022832,0.123912,0.014878,-0.123047,-0.268819,-0.040056,0.120723,-0.214604,0.003418,-0.012384,-0.184014,0.052494,-0.010967,0.31051,0.007892,0.089754,0.042306,0.051162,0.013181,-0.114921,0.162306,0.261045,-0.319488,-0.227948,-0.045458,0.100041,0.003279,0.195562,0.179678,-0.108551,-0.160369,-0.075255,-0.037297,0.109801,0.240659,-0.10924,0.649515,0.127609,0.07348,0.485768,0.179845,0.291715,0.012109,0.128299,-0.077633,-0.379344,-0.539697,-0.134334,-0.264371,0.410486,-0.254029,-0.09803,-0.078143,0.165559,-0.096597,-0.400638,-0.325059,0.129199,-0.083327,0.128895,-0.205857,0.416157,-0.086385,-0.203614,-0.056422,-0.168948,0.077849,-0.550523,0.071442,0.262375,0.013994,0.146775,0.607977,0.179249,0.633226,0.0294,0.157574,0.053899,-0.305809,-0.009945,0.065131,-0.104942,-0.074624,-0.583057,0.170237,0.072002,-0.025515,0.369351,0.13676,0.084406,0.381655,0.185359,0.386444,-0.119594,-0.548619,0.093097,0.027682,0.169883,0.071316,-0.259628,-0.165294,0.060447,0.156069,0.005206,-0.148435,0.280282,0.197478,-0.284973,-0.399023,0.235241,0.112362,-0.108241,0.25885,-0.256638,-0.192471,0.394978,-0.228805,0.069241,0.05596,0.382152,-0.065029,0.127047,0.073609,-0.336513,-0.068919,0.406386,-0.255904,-0.117513,-0.18155,-0.335876,-0.271772,0.115932,0.251875,0.281869,0.300601,0.06971,0.019624,-0.617569,-0.070286,-0.146942,0.122076,-0.237118,0.023561,-0.081291,-0.003281,0.289317,-0.19646,0.025527,0.153769,-0.282583,0.250539,-0.175144,0.011223,0.000224,-0.102704,0.018592,0.446672,0.424531,0.341186,-0.097739,-0.311397,-0.002289,0.118466,-0.103853,-0.303411,0.02425,0.199417,0.191416,-0.12916,0.07405,0.29534,0.270038,-0.239757,0.063765,0.356256,-0.234664,0.167562,0.188775,-0.090994,0.084237,-0.182778,-0.167302,-0.013972,-0.235161,0.10677,-0.057478,0.119748,-0.197181,-0.028522,-0.171433,0.127027,0.045585,0.118155,0.14016,-0.036166,0.072038,-0.277453,-0.074229,0.298215,-0.012823,-0.179725,-0.212272,-0.003771,-0.096511,0.078748,0.165714,-0.011891,0.131175,0.010368,0.053727,0.112865,-0.080566,0.047883,-0.148384,0.014226,0.058836,0.042631,0.172329,-0.007781,-0.074007,0.342596,0.144848,0.090979,0.055424,-0.02019,0.047606,0.000784,-0.069346,-0.161925,0.023408,0.08738,-0.143729,-0.100326,0.276062,0.29573,-0.103485,-0.144782,0.075735,0.190235,-0.056339,0.238391,-0.265869,-0.095506,0.092722,-0.282809,-0.034037,0.160454,0.156187,0.077978,0.106581,0.021647,-0.254479,-0.057967,0.378736,-0.125156,-0.082797,-0.119854,-0.105089,-0.272675,0.205497,0.16,0.1669,0.303941,0.149808,-0.124314,-0.514521,-0.099467,0.024547,0.090608,-0.269212,0.38206,-0.048983,-0.101337,0.036328,-0.141003,-0.088233,0.003528,-0.295101,-0.031471,-0.03739,-0.219455,-0.026905,-0.0914,-0.03554,0.291942,0.486219,0.314765,-0.01427,-0.12046,-0.567312,0.062059,-0.003899,-0.05675,-0.200853,0.354406,0.127527,-0.303798,0.156073,-0.15242,0.011439,-0.056155,-0.288355,-0.372397,-0.205833,0.135871,-0.182803,-0.408042,-0.065715,-0.224542,0.36863,-0.218889,-0.218856,0.099157,0.181035,0.099319,-0.285336,-0.299,-0.08233,-0.303627,-0.198742,-0.683459,-0.803483,-0.53935,-0.110368,0.036849,0.159441,-0.209409,-0.193095,0.113559,0.166328,0.298824,-0.045316,-0.028819,-0.586599,-0.538658,-0.598634,-0.277851,-0.083585,0.203352,-0.211942,0.033186,0.061078,0.948847,-0.035117,0.016919,-0.113514,0.230032,-0.022344,0.132505,-0.106419,-0.200177,-0.122263,-0.055778,-0.085571,0.031807,-0.353489,-0.24181,-0.154674,0.021276,-0.293029,-0.154358,-0.157255,0.069237,0.207468,0.485204,0.000239,0.259452,-0.028269,0.294543,-0.297434,-0.309851,-0.106483,-0.139518,0.152207,0.099611,0.227148,0.304682,0.06057,0.171295,-0.184532,-0.078468,-0.411083,-0.32574,-0.023525,-0.18822,-0.390655,-0.291673,0.166117,0.071094,0.124523,0.139879,0.072702,-0.023845,-0.297413,-0.357325,0.074998,0.10456,-0.167489,-0.404031,-0.343406,-0.362202,-0.133296,0.002336,-0.078439,0.216992,-0.083978,0.369926,-0.278623,-0.128613,0.22793,0.081363,0.133848,0.08295,-0.018777,0.472533,-0.024763,0.136124,0.352847,0.007887,0.069624,0.155312,0.103585,-0.140656,-0.070722,-0.192745,0.071928,0.140115,-0.021655,0.054918,0.037972,0.022446,0.044547,0.01176,-0.287551,0.084986,0.029909,0.115483,0.035999,-0.014922,0.205654,-0.024486,0.053996,-0.131156,-0.052978,-0.019043,0.605208,-0.278418,-0.149637,0.24095,0.026775,0.253807,0.102935,0.370145,-0.034528,0.15283,0.038721,0.064949,-0.249548,0.363056,-0.051236,-0.021744,0.16558,-0.237534,0.221666,0.0807,-0.125331,-0.345457,0.242678,-0.137484,-0.183535,0.051993,0.101498,-0.17491,0.1189,-0.106012,0.055738,0.318578,0.103136,0.088873,0.047425,-0.110061,-0.055888,-0.005402,-0.199617,-0.225104,-0.095685,0.107637,0.040347,-0.069607,0.092882,0.364356,0.049279,-0.339886,0.043565,0.292524,-0.142881,0.120652,-0.223891,-0.023921,0.249023,-0.12306,-0.036848,0.060071,0.223652,0.04558,-0.129903,0.177732,-0.339116,-0.049071,0.172755,0.006692,0.073021,-0.225355,0.066762,-0.169825,0.03864,0.057738,0.11031,0.271068,-0.127803,-0.03522,-0.505908,-0.183443,-0.094356,-0.102491,0.024753,0.338894,0.048123,0.08087,0.050711,0.062318,0.107885,0.146175,-0.388279,0.097463,-0.144267,-0.15302,0.114579,0.02735,0.07174,0.470189,0.393037,0.47532,0.030783,-0.132879,-0.108082,0.075162,-0.109704,-0.494379,0.189249,0.357023,-0.035636,0.121644,-0.197664,0.045803,-0.050606,0.112455,0.283903,0.007795,0.041067,0.063473,0.239484,0.115079,0.134664,-0.043721,0.016931,0.25331,-0.190076,0.027097,0.049769,0.068226,-0.087028,-0.183992,-0.149888,0.029756,0.318025,-0.211201,0.05885,-0.104638,0.032092,-0.106639,-0.115361,0.07001,-0.095392,-0.315791,-0.121748,0.020393,-0.015349,-0.103681,0.041205,0.199798,-0.091135,0.299491,-0.014413,0.26382,0.034049,0.141483,-0.115414,-0.008632,-0.199061,-0.173512,0.085785,-0.09375,0.043066,-0.449164,-0.052619,0.19387,0.011358,-0.291207,0.315752,0.120813,0.19762,0.310328,-0.131207,-0.095839,0.171436,-0.051613,0.002554,-0.085305,-0.272789,0.140925,0.047004,-0.265183,0.234715,-0.104137,-0.045266,-0.065156,0.000542,0.032719,0.005451,-0.120636,-0.000615,0.152528,-0.040233,-0.178209,0.094519,0.023667,0.306303,-0.174237,-0.167788,0.274828,-0.12326,0.156304,0.126542,0.28791,-0.042187,-0.196442,-0.048987,0.127595,-0.164717,0.550757,0.113837,0.217142,-0.163096,-0.118602,-0.058212,-0.04585,0.102586,-0.221047,0.128977,-0.177965,-0.04486,0.038118,0.061926,-0.223908,-0.029813,0.111416,0.102966,0.328201,0.280524,-0.0572,-0.013513,0.01472,0.042448,0.06081,0.08428,0.157205,0.169572,0.008809,0.101909,0.11295,0.125915,-0.267167,0.11532,-0.269559,0.093863,-0.342316,0.16179,-0.29485,0.245728,0.25858,-0.036682,0.208238,-0.13899,0.092313,-0.234174,-0.281282,-0.038841,-0.209977,0.333561,0.139596,0.233815,0.215118,0.031729,0.215214,0.145881,0.346355,0.030069,-0.287494,-0.154666,-0.173159,0.032298,0.189401,0.391482,0.093887,-0.094143,-0.004077,0.274098,0.159206,0.129831,0.328758,-0.015338,-0.094281,0.209933,-0.149283,0.178029,-0.374616,0.364275,0.047997,0.033858,-0.112699,-0.174678,-0.287347,-0.072194,-0.258053,0.086406,-0.18898,0.298202,0.156236,0.1119,0.102736,0.083121,0.102886,0.378273,0.229366,0.042478,-0.154033,0.087336,-0.083149,-0.140071,-0.422625,0.105121,0.124619,0.306598,0.014038,-0.08108,0.177544,0.283415,-0.08753,-0.351594,0.166787,-0.122598,-0.290843,0.087932,-0.07988,-0.033164,0.062189,-0.040724,0.126716,-0.042604,0.206481,-0.261395,-0.406206,0.04084,-0.063939,-0.100571,0.030598,0.440517,0.537373,0.186748,0.252817,-0.069325,-0.129589,-0.129043,0.100602,-0.064978,0.069502,-0.105317,-0.03905,0.194513,0.011366,0.013583,0.069126,0.017888,0.254505,0.281237,-0.106093,-0.350012,-0.504759,-0.04067,-0.100046,0.182859,0.19204,0.356108,0.270582,-0.011024,-0.100296,0.052833,0.210631,-0.039809,-0.115435,-0.262656,0.192519,-0.373952,-0.060227,0.074176,-0.246947,0.204524,0.133702,-0.183063,0.267367,-0.006476,-0.156821,-0.471295,0.133113,-0.153043,0.088993,0.244811,0.339313,0.048909,0.321329,0.368806,0.120011,0.329634,0.231729,0.064352,-0.104634,-0.014292,-0.219081,-0.263382,-0.151091,0.089129,0.145197,0.059196,-0.014511,0.484406,0.173336,0.029164,0.021773,-0.11293,0.127516,-0.199612,-0.398318,0.246872,-0.342108,0.23638,-0.009286,-0.178933,0.178567,-0.070081,-0.047779,-0.192611,0.130033,-0.222906,0.152865,0.179586,0.304055,0.118892,0.079697,0.528424,0.192582,0.147054,-0.126805,0.005586,-0.003924,0.461154,0.227077,-0.310106,-0.222161,0.079377,-0.079654,-0.231977,0.208524,0.023543,0.138693,-0.132027,0.208467,-0.228448,0.022784,-0.038794,-0.22625,0.211869,-0.171578,-0.13387,-0.040985,0.044437,0.114512,0.063365,0.342453,0.106623,-0.23413,0.045699,-0.103747,-0.096794,-0.074527,-0.066094,-0.203431,0.171237,0.039324,0.504498,0.046077,0.0217,0.021525,-0.145181,0.157572,0.232485,-0.221169,0.124826,-0.427859,0.233416,-0.265621,-0.139282,-0.056686,-0.110965,0.227443,-0.173727,0.097074,-0.244147,-0.062725,0.049788,0.039242,0.079919,-0.11067,0.090053,0.021986,0.196218,0.079682,0.06965,-0.216458,-0.012897,-0.274476,-0.167089,-0.064986,0.033236,0.304849,0.29786,-0.179519,0.064222,0.127355,0.114836,-0.122578,-0.49749,0.093039,-0.281287,-0.183528,0.222847,0.262782,-0.028163,0.221233,0.208878,-0.025451,0.42598,0.226626,0.054656,-0.251717,-0.103931,-0.15761,-0.495035,-0.23319,-0.023037,0.085127,0.070531,0.083367,0.132457,0.024829,0.175661,-0.056597,0.16447,0.220081,0.061255,-0.044227,0.416688,-0.320603,-0.245895,-0.104734,-0.059219,0.17309,0.17221,0.307473,-0.16699,-0.1005,-0.291367,0.09841,-0.021511,0.131251,-0.264532,-0.274452,0.302107,0.47116,0.199086,-0.188614,0.235023,0.049009,0.256936,-0.31027,0.029948,0.502163,-0.186994,0.096257,-0.089791,-0.379026,-0.000427,-0.149168,0.063177,-0.033503,0.188628,0.019148,0.038008,0.022407,-0.082136,0.009063,0.117389,-0.102868,-0.410291,-0.129765,0.038975,-0.113163,0.052474,-0.008894,0.048736,0.165959,-0.073089,0.104488,-0.404676,-0.296562,-0.09326,0.030561,-0.017112,-0.325463,0.083429,-0.100789,0.014697,0.033597,-0.208486,0.126408,0.282174,-0.163502,-0.050885,0.025401,-0.063529,0.043697,0.02274,0.614366,0.05226,-0.126608,0.020804,0.033891,0.453052,0.149951,0.003238,0.033084,-0.1059,0.083194,0.037906,-0.1784,0.082455,0.070131,0.174828,-0.155495,-0.083123,-0.025097,0.284465,-0.065306,0.120878,0.036337,0.105077,0.212758,-0.191311,-0.031684,-0.21181,0.248998,-0.285101,-0.156672,0.207867,-0.061755,0.048337,-0.04334,-0.118272,0.210337,0.111065,0.397649,0.305832,0.258151,-0.140528,0.048648,-0.371011,-0.029843,-0.323874,0.117656,0.092542,-0.072656,0.302604,-0.215957,0.027941,0.122244,0.098671,-0.220108,0.015676,-0.086645,0.055275,-0.011119,-0.084359,-0.419096,-0.006319,0.164175,-0.16139,0.404474,-0.00471,0.205554,-0.214218,-0.221167,0.244137,0.539943,0.039453,-0.021196,0.492145,-0.080673,0.099324,0.283054,-0.225406,-0.16184,0.608205,0.155242,-0.080796,-0.221022,0.071479,-0.000495,-0.195434,-0.002912,-0.2816,0.309934,0.111704,0.051057,0.115424,0.157922,-0.251911,-0.382664,0.268689,-0.302414,-0.117241,-0.076577,-0.104951,0.229776,0.004831,0.328537,-0.024983,-0.271475,-0.121798,-0.077927,-0.052263,0.081863,0.177053,0.14547,0.350341,0.033844,0.255575,-0.012289,-0.117986,0.095383,0.01476,-0.04737,0.224682,-0.10093,-0.300243,-0.316978,0.22002,-0.298778,-0.040168,-0.145084,0.17764,-0.028598,-0.105015,0.139267,-0.251397,-0.188779,0.175233,-0.141586,-0.134713,0.186865,-0.140978,-0.431136,-0.670799,-0.085476,-0.020649,0.07266,-0.158503,-0.058764,-0.009006,0.405297,0.113361,0.068286,-0.231036,0.065148,0.023146,0.135097,-0.155083,-0.083416,0.571782,0.139658,-0.069317,0.176324,-0.1821,0.484559,0.177214,-0.209723,0.151261,0.822085,0.460072,0.190426,0.483693,-0.148187,0.049718,0.265782,0.178482,-0.344473,-0.089334,-0.319502,-0.103541,-0.052017,0.362081,0.088965,0.510078,0.146812,-0.01694,-0.015935,0.010078,-0.100722,0.298169,-0.184919,-0.13722,0.184662,0.043889,-0.334185,0.047119,-0.020124,-0.098478,0.333056,0.048424,0.332682,-0.110169,0.033982,-0.044569,-0.172088,0.114681,0.435412,0.196572,-0.161223,0.137849,0.248945,0.401826,-0.20959,-0.295972,0.528392,-0.09683,0.041645,0.181369,-0.114419,0.176597,0.021559,-0.09174,-0.029558,-0.160204,0.156509,0.143612,0.261255,-0.011079,-0.012504,-0.141032,0.128988,-0.047322,-0.254013,0.250168,0.091089,-0.08931,-0.274921,-0.127829,0.062479,0.001017,-0.061469,-0.281036,-0.213279,0.029777,0.042491,0.308876,-0.082266,0.058493,-0.054215,0.013044,0.265234,-0.074723,0.137734,0.243089,-0.289364,-0.204668,0.093591,-0.094914,0.177436,-0.253536,0.096242,0.039624,0.214966,0.096006,0.196748,-0.325663,-0.206116,-0.265842,-0.210609,0.054762,0.380812,0.101873,-0.014601,0.041316,0.086178,0.16027,-0.596994,0.221169,0.261299,-0.221633,-0.058939,0.060349,-0.337521,0.323667,-0.134861,-0.216473,-0.054898,0.169466,0.015164,0.258663,0.140073,0.066419,0.189754,-0.038965,0.079402,-0.349001,0.018464,0.076858,-0.115085,-0.195337,-0.289502,0.274601,0.168426,0.177706,-0.084531,-0.123749,-0.371495,-0.037991,-0.34973,0.007144,-0.309862,0.128865,-0.079063,-0.18178,0.085354,0.027799,0.254751,0.094736,0.107965,-0.040007,0.28967,0.041506,-0.191504,0.086343,-0.150522,0.014719,-0.231624,0.307291,0.018545,0.179985,-0.043587,-0.174694,-0.151845,0.233922,-0.00844,-0.427139,-0.409421,0.096394,0.097448,-0.021175,0.207269,-0.167639,0.562833,0.116934,0.416574,-0.588638,0.057857,-0.054957,-0.192287,0.135884,0.104357,0.237224,0.186117,0.140496,0.127296,-0.170876,-0.085761,0.34417,-0.291344,0.047597,0.001353,-0.07054,0.015307,0.142002,0.054804,0.068966,0.285851,0.040538,-0.064905,-0.193854,-0.531136,0.080444,0.098593,0.220123,-0.156493,0.437108,-0.252244,0.066832,-0.217727,0.139572,0.194807,0.105482,-0.145064,-0.161934,-0.064385,0.084195,-0.044224,0.257406,0.087812,0.044843,0.230186,-0.177462,0.111119,0.04955,0.257298,0.266449,-0.012232,-0.121738,0.21226,0.461749,0.080277,0.296001,-0.010806,-0.17883,-0.151971,-0.533641,-0.389228,0.24672,-0.125188,0.122297,-0.486971,0.112025,0.142463,0.303633,0.107291,-0.920105,0.119129,-0.055258,0.049201,0.057594,-0.209871,0.081552,0.23898,-0.152815,-0.529642,-0.200272,0.107995,-0.26463,-0.099487,0.567947,-0.105615,-0.599227,-0.063829,-0.380983,0.426717,0.183264,0.09013,-0.286078,-0.250853,-0.129024,-0.358597,-0.08011,-0.005033,-0.118851,-0.208357,-0.081698,-0.008796,0.136768,-0.35204,-0.288802,0.198593,0.140044,0.48356,-0.084587,-0.262235,-0.330034,-0.393567,-0.009463,0.196284,0.192352,0.025912,0.065372,0.039422,0.076714,0.071409,-0.192072,-0.154062,0.210143,0.272483,-0.223372,-0.202391,0.00971,-0.083781,0.164284,0.139595,-0.147957,-0.024513,-0.00421,-0.137419,-0.288779,-0.056648,0.009712,-0.077192,0.330209,-0.082048,-0.131087,0.40729,0.223402,-0.115226,0.203291,0.349135,-0.061871,-0.359094,-0.100537,-0.21806,-0.162726,0.009196,0.187347,-0.03235,0.169355,-0.146586,0.316726,0.006422,0.030272,0.083561,-0.038795,-0.004196,0.034798,-0.298745,0.316971,-0.213989,0.311997,0.085909,-0.137414,-0.04643,-0.047107,-0.17569,-0.423364,-0.165059,-0.13836,0.122768,0.361645,-0.033929,-0.023005,-0.00824,0.126133,-0.114898,-0.162708,-0.078077,0.023076,-0.098486,-0.084554,-0.13588,-0.062207,0.080635,0.063238,0.034461,-0.310147,-0.162575,-0.034841,0.175126,0.062919,-0.015571,0.521587,-0.018195,-0.088689,-0.137323,0.047471,0.033199,0.402343,-0.426746,-0.164804,0.385658,0.12201,0.142218,0.15807,0.214825,0.072768,0.083892,0.059441,0.128318,-0.254053,0.072396,0.154166,-0.113354,0.099636,-0.209563,0.179162,-0.025867,0.097001,-0.314956,0.367701,-0.067223,-0.096829,0.091448,0.072558,-0.116442,-0.038563,0.029697,0.0344,0.302839,0.024727,0.253478,-0.059917,0.02299,-0.076626,0.244651,0.27413,0.228109,-0.2347,-0.260126,0.039687,0.153918,-0.08635,0.152498,0.010178,0.429901,-0.047037,-0.294984,-0.019883,-0.100396,0.260605,0.115878,-0.277772,-0.098791,-0.059404,0.018158,-0.392272,-0.016788,-0.219068,-0.015192,0.094842,-0.082567,0.004409,0.301835,0.251297,0.131618,0.112486,0.094475,0.042916,-0.042855,-0.012705,-0.101282,-0.243342,-0.04677,0.176567,0.389679,-0.016971,0.046726,0.145554,0.079888,-0.016694,0.143515,0.038177,-0.016775,0.142434,-0.338634,-0.186641,-0.088176,0.083016,-0.214949,-0.029802,0.03908,-0.019217,-0.052353,-0.149975,0.054713,-0.085047,0.16739,0.043938,0.005097,0.304531,0.298465,0.277426,-0.024944,0.155125,0.169067,0.135381,-0.238865,0.063364,-0.318508,-0.044595,-0.209177,0.111898,-0.274942,0.487112,0.39277,-0.077008,0.042333,-0.141326,-0.082557,-0.159812,-0.219918,-0.056359,-0.287282,0.285918,0.157073,0.276473,0.352505,0.12197,0.253135,0.182941,0.34686,-0.156799,-0.352679,-0.124778,-0.14647,-0.125775,0.036461,0.342279,0.168515,-0.039983,-0.146304,0.412115,0.225625,0.362304,0.354986,0.241604,0.027829,0.291006,-0.233142,0.174793,-0.532897,0.224641,0.173335,-0.007358,-0.103401,-0.127662,-0.283171,-0.161795,-0.156787,0.038037,-0.093017,-0.015321,0.513608,-0.367316,0.463896,0.219976,-0.397494,0.260084,-0.203344,0.087991,0.394685,0.452846,0.170651,-0.176377,-0.022478,-0.349673,-0.167024,-0.384744,-0.355129,-0.169401,-0.308403,0.03465,0.123348,0.077049,-0.344709,0.403658,-0.085365,-0.399835,-0.5566,0.176793,-0.24264,-0.498131,-0.115885,-0.323892,-0.283895,-0.476318,0.150872,0.264996,0.251458,0.151799,0.614699,0.121791,0.383733,-0.206906,-0.04028,0.159657,-0.251731,-0.378691,-0.26349,-0.182788,-0.19053,-0.182907,0.379542,-0.222397,0.245301,0.256788,0.001933,0.215568,0.220367,0.025171,0.28134,0.292304,-0.118518,-0.023901,-0.165913,0.051766,0.075767,0.133809,0.110331,-0.165925,-0.165137,-0.194154,-0.179365,0.04728,-0.06579,-0.018032,-0.051769,0.107475,-0.077088,-0.010546,-0.138742,-0.419842,0.097959,0.127113,0.05718,0.003605,-0.001907,0.221749,0.002694,-0.108549,-0.107649,0.126871,0.082529,0.197034,-0.089321,-0.042761,0.042964,-0.042398,-0.00422,0.159579,0.3156,0.165669,-0.097549,0.102067,0.106468,-0.051371,0.08539,0.135117,0.028032,-0.057722,-0.01979,0.105934,-0.058872,0.111184,-0.369757,0.09357,-0.152343,-0.176487,0.005732,0.120406,-0.026083,-0.103201,-0.16756,0.080839,0.268917,0.165565,-0.044361,-0.142431,-0.011152,-0.071196,-0.044982,-0.215315,-0.261552,-0.106464,0.130537,0.089273,0.005091,0.025157,0.026529,0.045049,0.001477,0.229872,0.108289,-0.21238,0.120022,-0.269073,-0.46193,0.095919,-0.255301,-0.1092,-0.107363,0.363292,0.102264,0.171958,0.000226,-0.28763,-0.113508,-0.262362,-0.342541,-0.279049,-0.085127,-0.360243,-0.385097,-0.133992,0.091464,0.035591,0.173524,0.091947,0.008388,-0.323777,-0.214651,-0.017031,-0.050285,-0.238665,-0.314609,-0.272208,-0.301985,-0.162846,-0.154522,-0.275897,0.402949,-0.314486,0.215298,-0.152747,-0.034731,0.150904,0.211598,0.150194,0.119936,0.294456,0.34534,0.146696,0.228406,0.054282,-0.072024,-0.047194,0.002175,-0.183545,0.285318,0.261871,-0.12997,0.168767,-0.094197,0.114147,-0.312923,-0.25967,0.270107,-0.017042,0.050597,0.199964,-0.2178,0.17306,0.050939,-0.075148,-0.228719,-0.427456,0.110046,-0.040318,-0.004451,0.086036,0.140127,0.085792,0.219013,-0.052154,0.000101,0.092392,-0.048181,-0.001065,-0.192974,0.010157,-0.039145,-0.320081,-0.255994,-0.233711,-0.153745,0.068686,0.128492,0.083386,-0.022633,0.055642,0.060518,0.209203,0.078649,-0.042742,-0.025797,0.078475,-0.217256,-0.150655,0.032443,-0.026804,0.196449,0.060445,0.184658,-0.232026,-0.269045,-0.149545,0.156979,0.000279,0.263456,0.186775,0.058232,-0.119861,0.138398,0.285114,-0.028193,0.146172,0.054608,0.368991,-0.330214,-0.185467,0.074763,0.083145,-0.235545,0.120197,-0.302942,-0.06535,-0.027672,-0.315222,-0.25593,-0.651933,-0.002618,-0.172418,0.010544,0.248301,-0.06725,-0.329708,0.316881,0.126049,-0.057604,0.024035,0.108531,-0.171376,-0.652726,0.2476,-0.308981,-0.353623,0.010552,-0.022705,0.063501,0.071753,-0.087553,0.476723,-0.188809,-0.132103,-0.069325,-0.216362,-0.005264,-0.116213,-0.048355,0.161624,-0.05753,0.295283,-0.045184,-0.06788,0.347174,-0.309431,0.344556,-0.251226,-0.396284,-0.057637,0.115563],"bias":[-0.087654,0.253901,0.124256,-0.053776,-0.29157,0.200193,0.196449,-0.087933,-0.158642,-0.223828,0.059014,0.130558,-0.120122,0.016727,-0.147295,0.036676,0.118025,-0.098668,-0.003551,0.026106,-0.203679,-0.073883,0.111631,-0.236812,-0.113375,-0.154346,0.137662,0.099948,-0.071376,0.061741,0.065191,-0.053881,0.159701,-0.098575,0.013045,-0.159532,0.035404,-0.143693,-0.006177,-0.025013,0.051093,-0.055532,0.018365,0.031205,0.09663,-0.088895,-0.272582,-0.061032,-0.064118,-0.163116,-0.0246,0.04015,-0.059861,-0.260672,-0.296655,0.134701,0.008679,0.06055,0.226437,0.147474,0.109683,0.15744,0.024827,0.152111]},{"inputSize":64,"outputSize":64,"activation":"tanh","weights":[-0.358732,0.089214,0.031093,0.165962,0.754546,0.472233,-0.166667,0.177557,0.129182,0.771828,-0.160832,-0.003024,-0.753221,0.118718,0.640845,0.002111,-0.16132,-0.145425,0.260306,-0.269947,0.487359,-0.243736,-0.27362,0.493435,0.121944,0.732716,0.428893,-0.160706,0.057758,0.508893,-0.222178,0.593122,0.158043,0.025064,-0.134225,-0.005741,-0.040425,0.887582,0.050624,-0.067985,-0.390713,0.000872,-0.826069,0.32223,0.074332,-0.180047,0.488599,0.37247,0.001774,-0.11659,0.709994,0.337907,-0.14438,-0.015307,-0.372777,-0.007499,0.009076,0.145911,-0.770322,0.261576,-0.177175,0.173336,0.378678,-0.139453,0.057078,0.184664,0.370952,0.14647,0.383535,0.548887,-0.157461,0.099951,-0.161024,-0.337568,0.070228,0.330195,-0.182748,0.121152,-0.215298,0.047451,0.313488,-0.041222,0.039644,-0.508482,-1.053604,-0.199383,0.239066,-0.612556,0.17966,0.245304,0.131838,0.260211,0.206527,-0.117037,0.211145,-0.053268,0.104656,-0.605384,-0.126259,-0.591586,-0.163012,0.229386,0.171905,-0.446054,-0.052805,0.121087,0.017274,0.282836,0.425794,0.282688,0.033902,-0.201407,0.486007,0.562532,0.303881,-0.236381,-0.175345,-0.203822,-0.067245,0.586975,0.125251,0.141738,-0.036582,-0.02999,-0.013518,0.269142,-0.076911,0.475892,-0.077834,-0.024465,-0.202747,-0.194831,0.296939,0.104284,-0.095241,-8e-05,0.650793,0.046087,-0.271178,0.119721,-0.271368,0.100115,-0.087588,0.214661,-0.178774,-0.627143,0.376683,-0.266336,0.259445,-0.082845,-0.184995,0.576979,-0.057633,0.422911,0.086819,0.067692,0.173349,0.162221,-0.398975,0.45717,-0.076783,0.025194,0.011178,-0.045749,-0.304884,0.135681,-0.107602,-0.007087,0.25701,-0.037517,-0.019142,-0.007016,0.225858,-0.071716,0.214866,0.135921,0.099643,0.188107,0.063008,-0.026196,-0.076752,-0.071668,-0.262711,-0.061942,0.154284,0.128972,-0.038573,-0.459893,0.14495,0.071161,0.281819,0.050726,-0.21998,0.300551,-0.176365,-0.309873,-0.050352,-0.540348,0.335387,-0.703803,0.474278,0.047656,-0.038938,-0.028187,0.110173,-0.036842,0.07371,0.090084,0.289817,-0.142295,-0.296509,0.585372,0.093125,0.261943,0.461544,-0.557138,-0.380576,-0.1771,-0.607583,0.058995,0.502424,0.239806,-0.022383,-0.193063,0.163014,-0.222388,0.02277,-0.117954,0.191142,-0.82974,-0.259793,-0.179188,-0.371936,0.129096,0.213337,-0.003773,0.243569,-0.428708,-0.168932,-0.010948,0.119512,-0.478926,-0.507063,0.050985,-0.143261,-0.859731,0.435633,0.095287,-0.344258,0.083457,0.066679,-0.154383,-0.088869,-0.735893,0.148075,0.3472,-0.056765,0.066743,-0.255444,-0.307672,-0.117495,0.066439,-0.080584,0.055124,0.357302,-0.141248,-0.141624,-0.100597,-0.269776,0.003561,-0.063729,-0.069904,-0.174139,0.004099,-0.00574,-0.104521,0.412438,0.12555,-0.207121,0.262947,0.045179,0.147939,0.128364,-0.241024,0.351575,0.043594,0.121153,0.032445,0.267971,0.3655,-0.020988,0.137999,0.182219,0.075124,-0.300021,0.113756,0.044877,-0.399059,0.068166,0.021691,0.02978,-0.122802,0.005716,0.030274,-0.480823,-0.104321,0.079855,-0.124386,0.144559,0.075025,-0.471674,-0.175099,-0.183258,-0.34611,-0.035729,-0.014642,-0.071999,-0.123175,-0.058055,-0.141944,0.508134,-0.767489,0.15034,0.719983,-0.165076,0.215101,-0.004186,0.249015,-0.689262,0.479609,0.494996,-0.042229,0.67675,-0.19842,0.178307,-0.220633,-0.213816,-0.165591,0.072858,0.26604,0.247137,-0.681806,-0.304944,0.426614,0.358598,-0.235193,0.530275,-0.034034,-0.575736,-0.212217,-0.105639,0.4774,-0.119262,0.33314,-0.03061,0.347543,-0.097151,0.403187,0.51999,0.027964,0.421625,-0.01865,0.01556,0.035341,-0.522159,0.216286,-0.468017,0.118815,0.057804,0.084395,0.01783,-0.216463,-0.073782,0.435011,0.206809,-0.249393,0.408936,-0.082929,-0.579872,0.165303,0.464857,0.16963,-0.511876,-0.977909,-0.249062,-0.120912,0.030007,0.453666,-0.280745,-0.279145,0.562217,0.225667,-0.647446,-0.120742,0.192737,0.26608,0.183273,0.244437,0.253657,0.182574,-0.090285,0.382509,-0.275616,0.217812,-0.419141,-0.115694,0.24,0.066289,0.12098,-0.251572,-0.0908,-0.07624,-0.413775,-0.072056,-0.112505,-0.3054,0.221359,0.102631,-0.077868,0.218661,0.349573,0.462588,0.283543,0.23505,-0.108471,0.388465,-0.19981,-0.289075,-0.23012,0.232457,-0.36338,-0.045816,0.288593,0.044226,-0.108433,-0.02111,-0.052552,0.213003,0.164372,0.13812,0.305235,0.030246,-0.285448,0.410035,0.105216,0.252082,0.049681,0.22005,0.006796,0.228866,0.042866,0.171666,0.239946,0.273753,0.049785,0.170733,0.14284,-0.159117,-0.129041,-0.124061,-0.27691,0.300066,0.077855,0.02694,-0.044867,-0.435479,0.143739,-0.063293,-0.141108,-0.09596,0.024378,0.150387,0.142457,0.249071,0.136379,-0.123024,-0.233323,0.386644,-0.234504,0.240383,0.340972,0.177808,0.246785,-0.037811,-0.01076,0.351944,-0.234092,0.17397,-0.035929,-0.109253,0.069721,0.106938,-0.105953,0.170273,-0.160722,0.056149,0.070424,0.081679,0.058887,0.059948,0.230164,0.166679,-0.381902,-0.034317,-0.188008,-0.171717,-0.12252,-0.001027,-0.032602,0.17866,0.288744,0.475306,0.081058,-0.379806,0.053824,0.0488,0.420372,-0.323041,-0.085378,0.092758,0.14966,0.182864,0.014681,-0.141382,0.20466,-0.184434,0.506474,-0.229921,-0.053739,0.147208,-0.246463,-0.087417,0.118373,0.172328,-0.007698,0.269149,0.040024,0.116608,-0.065208,-0.283786,-0.111481,-0.195201,-0.152748,0.127081,0.045013,0.310698,0.265904,0.215599,-0.187146,0.217776,-0.073985,0.330151,-0.027738,-0.121605,-0.498314,-0.314929,-0.310972,-0.202386,0.093258,-0.003906,0.024485,-0.013213,0.066818,0.025296,0.090359,-0.19449,0.014681,-0.15322,-0.041341,-0.110187,-0.178271,0.172392,0.033696,0.051046,0.126853,-0.068005,0.197518,-0.007066,-0.449756,-0.048654,0.090402,0.111992,-0.039994,0.32714,-0.176383,0.487348,-0.126018,-0.091386,0.12408,-0.277077,0.852107,-0.387868,-0.245885,0.113587,-0.174196,-0.116978,0.321779,-0.300141,-0.314249,0.103026,0.100022,0.284424,0.264567,-0.343005,0.253094,0.205675,0.003567,0.15706,0.297051,0.448363,0.260514,0.241793,0.227635,0.212261,0.085359,0.431406,-0.204691,-0.13505,-0.633447,-0.039204,-0.195944,-0.364123,0.117536,0.264697,-0.184618,-0.186458,0.079442,0.281356,0.127849,-0.076318,-0.044568,-0.38299,-0.004965,0.0552,-0.413156,0.413109,-0.185613,0.219502,0.395995,-0.196029,0.237131,-0.097054,0.062413,0.108665,0.484365,0.363656,-0.024339,0.021098,0.005689,-0.142715,-0.179852,0.071058,-0.052963,0.258592,0.203725,-0.190574,-0.110415,-0.467882,0.148382,-0.314747,-0.018381,-0.315081,-0.160667,0.197018,0.244179,0.292265,0.445076,0.006456,-0.115329,0.201371,0.025671,0.180507,0.098123,0.007507,-0.088997,-0.020541,-0.119701,0.157517,-0.057532,0.093388,0.367667,0.079773,-0.133238,0.227586,0.038047,0.150859,0.11014,-0.106782,0.122841,0.15033,0.28806,-0.106806,-0.22233,-0.155255,-0.18677,-0.010615,0.003662,0.012748,-0.144138,0.015539,-0.098933,0.258181,-0.062674,0.176104,0.07498,0.787138,0.044313,-0.001797,-0.000698,0.154677,0.057008,0.427334,0.380694,0.083786,-0.085877,-0.123704,-0.339408,0.196961,-0.018002,0.134962,-0.157034,-0.028093,0.206109,0.043004,0.421216,-0.164597,-0.333739,0.523037,0.057986,0.174072,0.227382,-0.070951,-0.461859,0.133295,-0.186502,0.228119,0.006955,0.307096,0.235065,0.331723,0.081684,0.283441,0.069427,0.303909,-0.066582,-0.0069,-0.143906,0.080869,-0.140602,0.131444,0.348815,0.305799,0.114519,0.074068,0.090781,0.093582,-0.063875,0.117133,-0.278605,-0.325858,0.359778,-0.008781,-0.119952,0.097818,0.072405,0.380592,0.528083,0.544126,-0.069506,0.060747,0.164053,0.30385,0.301819,0.121604,-0.105485,0.233139,-0.0419,0.489425,-0.235132,0.172977,-0.456866,0.174939,0.457925,0.005397,-0.02808,-0.006367,0.203944,0.093116,0.078302,-0.15492,-0.17377,0.350647,0.015704,0.475695,0.192663,-0.19871,0.058541,-0.070983,-0.486927,0.321055,0.208134,0.422094,0.432129,0.198591,-0.047427,0.382125,0.188852,0.341356,0.04836,-0.265055,-0.482944,-0.125104,0.241553,-0.161064,0.259501,0.119892,0.120403,0.053465,0.119639,0.07606,-0.045474,0.096321,-0.327663,-0.17017,0.182685,-0.05767,-0.372771,0.208626,0.042346,0.119193,0.34241,0.126249,-0.08131,0.271253,0.481022,-0.177698,0.051925,0.141845,0.057382,-0.534539,0.292868,-0.282383,0.142324,-0.019928,-0.178159,-0.173904,-0.50441,-0.226459,-0.341751,-0.356132,0.326127,0.030714,-0.301699,-0.324234,0.050889,0.207122,0.320226,0.209785,0.322075,-0.113494,0.321036,0.081316,-0.150297,0.024766,0.037086,-0.212741,-0.081977,-0.051347,-0.449997,-0.71674,-0.109838,-0.068516,0.146682,0.02644,0.786427,-0.067595,0.471063,0.194109,0.059744,-0.017007,0.116639,0.256319,0.054019,-0.09175,0.017522,0.232551,-0.19343,0.281136,-0.236257,-0.096128,0.722882,-0.254049,-0.055213,-0.882544,0.061414,-0.113959,0.145884,-0.030225,-0.073118,-0.095746,-0.516977,0.026779,-0.017675,-0.24967,0.035961,-0.226955,0.187511,-0.16569,0.239733,-0.004595,-0.106178,-0.340542,-0.421774,0.035774,0.2937,0.311255,0.322453,-0.165966,-0.088938,0.220947,0.286601,-0.030595,0.276823,0.015416,-0.142615,0.257241,0.098123,-0.054922,0.171574,-0.071046,-0.136087,0.169314,0.010123,-0.295412,-0.009456,0.077453,0.416199,-0.196224,0.385818,0.231935,-0.059495,0.332257,-0.259551,-0.003334,-0.111312,0.119782,-0.408097,-0.094238,-0.077781,0.313076,0.145621,0.129843,0.097201,0.187082,0.403441,-0.082446,-0.152531,-0.236056,-0.061082,-0.22169,-0.468882,-0.111752,0.292259,-0.681309,-0.124287,-0.09134,0.296766,-0.005157,0.241859,0.066389,-0.222286,0.076037,-0.449014,-0.497827,-0.275091,0.546601,0.320726,0.049841,-0.327008,-0.152269,-0.633634,0.46083,0.211634,-0.013055,-0.368086,0.235203,-0.521261,0.195012,0.485637,-0.428148,-0.162514,-0.175088,-0.521678,-0.312949,-0.12568,-0.212907,-0.515453,-0.552086,-0.033112,-0.244577,0.163767,0.171205,0.117476,-0.295464,0.546942,-0.054033,0.278541,-0.134728,0.32705,-0.045772,0.185105,0.169013,-0.040333,0.125812,0.09412,0.18405,-0.100388,0.12567,0.288327,-0.44389,0.071968,-0.31445,0.377891,0.103253,0.31409,-0.462354,-0.570292,0.098448,-0.092282,0.086675,-0.104366,0.711029,-0.114923,-0.231302,0.013224,-0.16228,0.269473,0.270688,0.073261,-0.050116,-0.264002,0.087048,0.018979,-0.323613,0.21796,-0.57853,-0.357511,0.418907,0.340014,0.051879,0.488508,-0.100958,-0.906768,-0.190318,-0.111122,0.052746,0.160462,0.284427,0.109183,0.372415,-0.103882,0.862583,0.018075,0.157879,0.309331,-0.052661,-0.222402,-0.132441,-0.70273,-0.052758,-0.167458,0.098687,-0.166899,0.197352,-0.253001,0.222224,0.132272,0.55375,-0.20954,-0.286511,-0.2026,-0.109326,-0.535677,0.178407,-0.08165,0.754986,0.086997,-0.170264,-0.296929,0.560446,0.302881,-0.148714,0.27651,0.03951,0.27395,0.209064,0.062307,-0.054474,-0.343499,-0.063239,-0.480267,0.077884,-0.396853,0.638138,0.230553,0.269384,-0.037268,0.140478,-0.049492,0.138731,0.030152,-0.360688,-0.14684,-0.31117,-0.297518,0.050902,0.071975,0.175038,-0.124218,0.060701,0.190729,-0.119275,-0.137763,-0.169052,0.155995,0.069079,0.026994,0.02526,-0.361575,-0.07974,0.122269,-0.148221,0.431964,0.280455,0.001907,0.421804,0.235821,0.26576,0.378447,0.34757,0.218705,0.0266,-0.190879,0.450697,0.321196,-0.165455,0.201283,-0.076993,-0.18482,0.182457,0.274305,0.454096,0.012682,0.162202,0.537787,-0.161643,0.428984,0.437266,-0.025406,-0.268491,0.563801,0.070216,-0.002119,-0.115913,-0.470954,0.080968,-0.284123,-0.123278,-0.027708,0.018059,0.335096,-0.15549,-0.13275,-0.322931,0.201981,0.067859,-0.013152,0.211093,0.009391,-0.025226,0.038019,0.010612,-0.077786,-0.039709,-0.335109,-0.156603,0.176704,-0.106912,-0.264846,-0.336068,0.251777,0.098656,-0.056422,-0.009357,0.479506,-0.017569,0.327771,0.339987,0.265232,-0.037085,0.152672,0.291175,0.224317,-0.12057,-0.047391,-0.165982,-0.398726,0.151359,0.493887,0.017877,0.722933,-0.280883,0.037937,-0.424747,0.008276,0.161505,-0.119582,0.225621,0.190645,0.077898,0.279738,0.466419,-0.275881,0.145857,0.141637,0.166174,-0.243448,-0.279867,-0.421829,0.588731,-0.161724,0.313965,0.027666,-0.451454,0.472069,-0.187015,0.002942,-0.038111,-0.128336,0.366597,0.159201,0.368338,0.195158,0.006763,0.008725,0.393626,-0.273777,0.617063,0.305039,0.238326,0.247216,-0.027235,-0.015852,0.244594,-0.153931,0.116556,-0.251733,-0.486753,0.114362,0.006245,0.030183,0.176682,0.080758,0.380484,-0.108062,0.105934,0.381603,0.411548,0.09743,0.372253,-0.410687,-0.023874,-0.557389,0.10889,0.014284,0.211249,-0.447515,0.305004,0.464974,0.525464,-0.247938,0.975255,-0.06676,-0.685848,0.034884,-0.148014,0.110338,-0.26679,0.736119,-0.11875,-0.299428,0.064031,-0.537821,0.134895,-0.099534,0.286754,0.345089,0.201607,-0.119074,-0.051139,-0.239822,0.665072,0.435093,-0.285955,-0.269247,0.036116,-0.304286,0.274706,0.370532,0.1771,0.303388,-0.163058,0.144737,-0.386754,-0.176273,-0.523526,0.222247,-0.304376,-0.264831,-0.230107,-0.61271,0.135769,0.125975,-0.208362,0.441556,-0.22425,0.393805,-0.070749,-0.061956,-0.044989,-0.241227,0.312015,-0.009763,-0.500016,0.145641,0.167475,-0.323551,0.016794,0.330877,-0.123261,-0.336041,-0.05338,0.50217,0.800707,0.146658,0.062059,-0.07017,-0.16618,0.290334,0.27933,-0.258713,-0.178841,0.175222,0.139299,-0.198776,-0.139754,-0.026441,0.157223,0.006246,-0.004124,-0.11095,-0.276918,0.348918,-0.453317,0.021975,-0.315976,-0.209286,0.301269,0.128692,0.371533,0.415256,0.052929,0.246742,0.179904,0.194665,0.167353,0.297438,-0.092247,-0.144886,-0.153691,-0.095973,-0.007676,-0.302918,-0.186126,-0.005171,-0.135384,0.060657,0.280338,0.012027,0.171327,0.307181,-0.143978,-0.145914,-0.06021,0.265986,0.038429,-0.098282,-0.181117,-0.125429,-0.023392,-0.373323,-0.071453,0.169573,0.01303,-0.184751,-0.010087,0.184006,0.166211,0.471796,-1.354607,-0.495609,0.012319,-0.195134,-0.27993,-0.123481,0.19489,-0.413211,0.179775,0.526598,0.173123,1.094169,0.039747,0.253322,-0.190496,-0.18946,-0.003107,0.156301,0.158942,0.415155,-0.540505,-0.438595,0.124165,0.519803,-0.105064,0.679692,-0.065688,-0.561359,-0.470295,0.027566,-0.09478,-0.142285,0.029417,-0.109048,0.189669,-0.118792,0.532319,0.117807,0.072053,0.365958,0.073657,0.004361,0.28997,-0.716188,0.105093,-0.149035,-0.040629,0.135208,0.380809,-0.40317,-0.597341,-0.170365,0.47479,0.195267,-0.051082,0.03614,-0.069489,-0.214654,0.078667,0.261608,0.149279,-0.423546,-1.068315,0.366056,-1.070889,-0.779687,-0.15538,-0.043152,-0.263216,-0.229415,0.239698,-0.043375,0.501361,-0.110308,-0.236639,0.702135,-0.02362,0.594095,-0.05433,-0.167095,0.006373,-0.416002,-0.010626,0.465872,-0.323671,-0.181232,0.146122,0.031782,-0.200332,0.136739,-0.410635,-0.291765,-0.146574,-0.241204,0.04736,0.132419,0.381905,0.369101,0.404993,0.194732,0.453793,0.226592,0.284678,-0.075374,0.053756,-0.32486,0.226807,-0.599,-0.476847,-0.110864,0.137626,-0.089987,-0.094599,-0.063326,0.21521,0.016198,0.400338,0.101598,-0.312084,-0.257415,0.091666,-0.589981,0.049633,-0.225508,0.462216,-0.032709,-0.481275,-0.320003,0.329394,0.497062,-0.115933,-0.092173,-0.211592,0.000835,-0.929151,0.435287,0.241619,0.326439,0.166656,-0.195811,-0.416055,-0.37489,0.080322,0.176617,0.093378,-0.3074,0.354061,-0.225514,0.410722,0.170058,-0.45792,-0.358445,-0.140976,-0.531908,-0.049811,0.62149,0.11834,0.091806,0.094263,-0.208994,-0.13873,-0.148741,-0.108063,-0.051185,-1.04842,-0.066758,-0.199904,-0.165554,-0.044325,0.634503,-0.11853,0.539636,0.073968,0.036352,-0.20769,-0.032918,-0.173247,-0.062363,-0.082352,-0.155119,-0.501741,0.245033,0.399405,0.409992,0.103026,0.603608,-0.301421,0.262564,-0.931671,-0.141723,0.198886,-0.027227,-0.356497,0.039252,0.444332,-0.108224,-0.061319,0.129765,0.038776,-0.699109,0.279498,0.554328,0.146897,0.296818,-0.152301,0.091558,0.057329,-0.188803,0.539209,-0.236348,0.212325,-0.065613,-0.200022,-0.028317,-0.124681,0.052852,-0.186782,0.047625,0.281663,-0.239392,-0.433303,0.307865,-0.378408,-0.372393,-0.250992,-0.152324,-0.007327,-0.018823,0.039962,0.611407,-0.208986,-0.234688,0.420182,-0.106287,-0.402582,0.086805,-0.091647,-0.254908,-0.075507,0.138477,-0.000407,0.216292,-0.210915,-0.234178,0.398333,0.239028,-0.027537,0.548803,-0.016452,-0.09542,0.111977,0.413407,0.120335,-0.14729,-0.136743,0.156241,-0.197005,-0.578775,0.071467,-0.086215,-0.200893,-0.014712,0.005386,-0.104194,0.177129,0.150813,0.063913,0.109144,0.011668,0.456289,-0.277066,-0.249378,0.030334,-0.131833,0.009309,0.530482,-0.051065,-0.427978,0.447953,-0.130323,0.130959,-0.037449,-0.320948,0.129837,0.177921,0.046984,0.048816,0.238123,0.458724,0.20851,0.366751,-0.031118,0.170069,-0.048914,0.463143,0.198159,0.041014,-0.412677,0.187667,-0.253037,-0.620067,-0.030359,0.136394,-0.313773,-0.647799,-0.118591,0.208962,0.118001,0.386639,0.004147,-0.588906,-0.252091,0.041135,-0.337676,0.040312,-0.094887,0.149766,-0.110398,-0.288114,-0.361748,0.48621,0.315958,-0.505516,-0.017553,-0.205793,0.236688,0.341254,0.018644,-0.125828,-0.376875,0.016399,-0.854539,0.09361,-0.420209,0.323381,0.526787,-0.220758,-0.056028,-0.334993,-0.466927,0.508243,0.311308,-0.317748,-0.37118,0.189771,-0.59583,0.064325,0.262421,0.076342,-0.302841,-0.225145,-0.43565,-0.285263,-0.09017,-0.239413,-0.125858,0.1487,-0.61144,-0.255177,0.1035,0.040925,-0.09777,-0.518822,0.125407,-0.033912,-0.041681,-0.015295,0.088816,0.06796,0.264028,0.063892,0.025926,0.112865,-0.406169,0.182046,-0.134576,-0.091593,0.334921,-0.096783,-0.396068,0.03526,0.385276,0.498766,-0.305769,-0.253328,0.416294,0.079351,0.051619,-0.156652,0.003308,0.131872,0.177791,0.011942,-0.274304,0.226415,0.360522,-0.137489,-0.214909,-0.051522,-0.048654,0.022194,-0.142559,-0.134733,-0.261877,-0.023169,0.118838,-0.141546,0.068676,-0.348534,-0.183822,0.011631,-0.255756,-0.3153,-0.104971,0.00659,-0.435529,0.021457,0.259194,0.253366,-0.014039,-0.060287,-0.045998,-0.08923,-0.092317,0.079532,-0.094254,-0.296582,0.297605,0.239298,-0.08195,-0.165736,0.343569,0.221363,0.055331,-0.043331,-0.086764,-0.111526,0.306258,0.052961,0.236482,0.070684,0.064127,0.155437,0.138712,-0.018346,0.13019,0.382621,0.264241,-0.468666,-0.349458,0.11775,0.425439,0.203196,-0.491348,0.210168,0.243863,0.719743,0.1248,-0.023484,0.052603,0.011651,1.13825,-0.498175,-0.263872,0.099273,-0.121341,-0.724861,0.438042,-0.190941,-0.320014,0.649934,0.195101,0.599879,0.291562,-0.2374,-0.031414,-0.022782,-0.080722,0.115312,0.241502,0.381425,0.086713,0.418775,0.288566,0.763079,-0.074885,0.154703,-0.051131,0.141382,-1.028566,0.143717,-0.292,-0.642456,0.310013,0.142311,-0.309868,-0.193058,0.519083,0.31245,0.091406,-0.030718,-0.217817,-0.402947,-0.198526,-0.109335,-1.046315,0.090395,-0.097427,0.278552,0.349551,-0.439981,-0.034621,-0.367938,0.168818,-0.154147,-0.119526,-0.545698,0.001812,0.249556,0.278215,0.390196,0.144829,-0.243242,0.0721,-0.371081,0.399377,-0.328665,-0.633919,0.25456,-0.330508,-0.026974,0.890901,0.031191,-0.387804,0.387586,-0.257335,-0.101728,-0.117328,-0.561238,0.205222,0.214448,-0.447521,0.029048,0.046304,0.757489,0.205857,0.29774,0.314414,0.049966,0.115232,0.533379,-0.245722,-0.353956,-0.458699,-0.053948,-0.028985,-0.576273,0.190083,-0.001842,-0.222564,-0.539318,0.0739,0.047462,0.19875,-0.018925,-0.119607,-0.71265,0.258641,-0.295858,-0.273406,0.224692,0.04095,-0.204321,0.484747,-0.266356,0.056552,-0.357297,0.160036,0.398506,0.051574,-0.075733,0.192738,0.100947,-0.503141,0.188803,0.504125,-0.037516,0.313384,0.061555,0.335996,0.181101,-0.078338,0.579415,-0.310118,0.115556,-0.326522,-0.280774,0.042372,-0.162524,0.121446,-0.383369,0.105988,0.174548,-0.377682,-0.144864,0.305203,-0.149188,-0.117351,-0.222013,-0.05168,0.039369,0.054695,0.11313,0.63919,-0.081967,-0.10734,0.603015,-0.243783,-0.226178,-0.070173,0.264637,-0.231927,-0.185848,0.464454,0.194284,-0.180746,-0.310878,-0.052787,0.091773,0.220184,0.022034,0.505999,0.154809,-0.201545,0.034828,0.363907,0.058942,-0.236663,-0.184414,0.246015,-0.346758,0.079828,0.396384,0.069378,0.089755,-0.126028,0.360141,-0.53888,0.303378,0.30031,-0.155523,-0.128638,-0.160829,0.422496,-0.189763,-0.42761,-0.147713,0.080013,-0.198649,0.230239,-0.324185,-0.375834,0.29257,0.219311,0.327113,0.351819,-0.357149,-0.252921,-0.080332,-0.044362,0.089066,0.145099,0.444722,0.150268,0.145942,0.053532,0.538881,0.229067,0.320461,-0.011165,-0.156805,-0.513167,-0.05992,-0.248051,-0.205651,-0.106942,0.176911,-0.293373,-0.139879,0.165473,-0.115581,-0.028768,0.319026,-0.583252,-0.365121,0.16364,-0.003047,-0.490216,0.412484,0.142484,0.244122,-0.18998,-0.429181,0.051668,0.023897,0.085365,-0.116127,0.077153,0.077979,0.222632,-0.070306,0.397759,-0.243515,0.078474,-0.045301,-0.338227,0.024058,-0.305599,-0.162375,-0.235494,-0.349802,0.366351,-0.200095,-0.148198,-0.126597,-0.243063,0.391001,0.092149,0.112227,0.322451,-0.199556,-0.157767,-0.088787,-0.202861,0.189176,-0.093597,0.10197,0.452024,0.059953,-0.663346,-0.0798,-0.058339,0.044432,0.357183,-0.107394,0.153135,0.091033,0.071188,0.270049,0.136639,-0.057751,0.253619,0.259922,0.051885,-0.186397,0.195845,-0.074718,0.105519,-0.137569,-0.207231,-0.004327,0.237526,-0.040052,-0.059244,-0.169046,0.177913,0.114592,0.355197,-0.261196,-0.180663,0.231998,-0.060636,0.375326,-0.112285,0.57331,-0.468327,0.295162,0.302527,0.004579,0.117954,0.014264,0.395977,-0.19529,-0.202684,-0.233829,2.8e-05,-0.56663,0.435036,-0.425272,-0.372461,0.556281,0.41002,0.228249,0.467931,-0.204862,-0.193281,-0.085809,0.047383,0.165507,0.112033,0.501515,0.243123,0.421861,-0.352821,0.820911,0.038372,0.368397,0.293754,-0.166507,-0.656766,-0.104743,-0.156159,-0.194499,-0.19302,0.178043,-0.001423,-0.193609,0.064978,0.20885,0.016068,0.402631,-0.310123,-0.397159,-0.181567,-0.092837,-0.860387,0.008128,-0.171224,0.485622,0.010354,-0.387991,-0.056838,0.412065,0.384398,-0.249516,-0.4823,-0.285148,0.312317,-0.338715,-0.26653,-0.460551,0.123082,0.054028,-0.078995,-0.08075,-0.655676,0.156287,0.095861,0.101257,-0.197685,0.712521,-0.48867,0.175751,0.321971,-0.53803,-0.150975,-0.245083,-0.341865,0.44089,0.221017,-0.044786,-0.186581,-0.117073,-0.189224,-0.279865,-0.412964,-0.106721,-0.203095,-0.392113,0.073171,-0.32179,-0.043738,-0.111752,0.565111,-0.214184,0.625083,0.473267,-0.119074,0.025701,0.110073,0.036121,-0.413236,-0.398016,-0.107307,0.166227,0.334923,0.479919,0.117455,-0.027691,0.566112,-0.32875,0.193467,-0.181606,-0.262779,0.085222,0.087447,0.016245,0.2519,-0.197685,0.51491,0.501232,-0.325412,0.028262,0.517111,0.154986,-0.462935,-0.180327,-0.47189,-0.055468,-0.021403,0.214099,-0.002153,-0.235904,0.222312,-0.264728,0.207884,-0.231718,-0.270292,0.291319,0.161954,0.410738,0.202837,0.141669,0.251443,0.375221,0.011853,0.2745,0.105129,0.145542,-0.095377,-0.035154,0.121845,-0.168933,0.006628,-0.102123,-0.063715,-0.19578,0.087665,0.319326,0.215406,-0.055522,0.408234,0.159972,-0.104252,0.207055,0.245291,-0.149389,0.000827,-0.346318,-0.220469,0.090733,0.10277,-0.111291,0.251735,-0.257858,0.169893,-0.005115,0.215133,0.192722,-0.240032,0.013929,-0.155719,-0.159723,-0.180868,-0.115825,-0.094606,0.157446,-0.431081,0.199973,0.048238,-0.053206,-0.1368,0.064381,-0.142485,0.151489,0.353269,0.340484,-0.040685,0.148835,0.009308,0.117389,0.116303,-0.465573,-0.306519,-0.180332,-0.381439,0.256349,0.034541,0.060666,0.085168,0.053118,-0.122484,-0.197276,-0.198096,0.02614,0.187461,0.028997,-0.106001,-0.013285,-0.277447,-0.127533,-0.07986,-0.123564,-0.144038,-0.131678,-0.119949,0.004419,-0.135119,0.011805,-0.274324,-0.068722,0.035903,-0.117252,0.10151,0.056869,0.183308,0.088159,0.029605,-0.133479,0.070932,-0.006005,-0.157263,-0.27286,-0.007943,-0.331284,0.08852,0.50918,0.079371,-0.084575,0.397226,0.161882,-0.610574,0.183171,0.513141,0.388273,0.176952,-0.141197,0.233202,0.070176,-0.088659,0.787847,-0.455661,-0.078195,0.008422,-0.483045,-0.019102,0.045423,0.274266,-0.332228,0.149172,0.233105,-0.282917,-0.326233,0.135285,-0.3261,-0.315032,-0.117683,-0.285105,-0.039813,-0.011991,-0.038193,0.813267,-0.248676,-0.187638,0.364423,-0.052438,-0.363001,-0.280012,0.196311,-0.545708,-0.229377,0.212891,0.203294,0.35494,-0.433059,-0.157131,0.365461,0.202581,0.075078,0.70352,0.146894,-0.204362,0.167404,0.490707,0.352827,-0.143176,-0.24749,-0.195435,0.563261,0.259317,0.392556,0.237552,0.27019,0.17099,0.07421,-0.375128,-0.277758,-0.0826,-0.087986,-0.4131,0.564731,-0.385819,0.705375,0.260808,0.052881,0.151151,0.253654,-0.405285,-0.222081,0.296703,-0.323112,0.245073,-0.228899,-0.181832,0.096157,-0.501278,0.272862,-0.404196,0.119089,0.415048,-0.342529,0.210692,-0.107898,0.392967,0.282149,0.0744,-0.128472,-0.066853,0.074622,0.299116,0.16667,0.007755,0.45254,-0.161991,0.172834,0.26506,0.453581,0.022742,0.0313,-0.04944,-0.111266,0.12579,0.409272,0.020047,-0.059045,0.072659,0.26271,-0.088498,0.407687,0.228816,0.777706,-0.094577,0.204226,-0.023292,-0.361598,-0.322792,0.003878,0.258522,-0.02614,0.102093,-0.582865,-0.229037,-0.017792,-0.217879,0.537841,-0.193282,0.39684,0.813735,0.022006,-0.072545,0.260879,-0.252014,0.686929,0.535338,-0.680589,-0.070425,-0.350159,-0.352063,0.299722,-0.210857,0.020322,0.325659,-0.253215,-0.241192,-0.317361,-0.069639,-0.144206,0.025068,-0.228199,-0.518859,-0.222677,0.185042,-0.087964,0.155721,0.063081,-0.039366,0.274047,-0.240542,0.005564,0.038656,0.283906,-0.267626,0.035747,-0.166207,-0.029088,0.101593,0.258927,-0.294053,0.096079,0.123691,0.013707,-0.408375,0.122276,-0.188177,0.328729,0.299232,-0.039237,-0.506981,-0.292665,0.021254,-0.146126,0.218472,0.330122,0.362612,0.264589,-0.767564,-0.231868,-0.161144,0.125817,-0.081174,0.047005,0.011091,-0.43076,-0.007643,-0.226585,-0.032512,-0.054968,0.005536,0.063946,-0.080137,0.158514,0.150914,-0.114833,-0.030135,0.373563,-0.321798,-0.054656,0.384567,0.154342,0.42894,0.014302,0.293223,-0.115884,-0.288136,0.148132,-0.070453,0.056776,0.084487,0.030196,0.024065,-0.37448,0.240443,0.129054,0.066082,-0.459319,0.054645,0.392915,0.179152,-0.175123,0.050988,-0.100025,-0.380772,-0.050002,-0.003616,-0.028475,-0.376256,0.18808,0.326209,0.382254,0.063255,0.120206,0.308766,-0.077093,0.427563,0.30382,-0.060468,0.217996,0.110836,0.05887,-0.238669,0.147359,-0.455887,-0.201805,-0.590567,0.426185,0.201643,-0.025971,-0.185211,-0.64314,-0.30222,0.047674,-0.027028,-0.106907,-0.148203,0.081897,-0.178133,-0.021995,0.344112,-0.110565,0.241002,0.013794,-0.010261,-0.152906,0.071104,-0.355411,0.002298,-0.094999,0.097959,-0.176877,-0.259529,0.27874,0.145592,0.282238,0.242783,0.05061,0.066543,0.08289,0.468615,0.176654,0.512509,-0.318576,-0.086699,-0.236695,-0.045373,0.096068,0.05393,-0.027374,0.324197,-0.079022,-0.132998,0.037023,0.068919,0.251786,-0.356518,0.19447,0.129414,-0.512757,-0.187463,-0.185877,0.605894,-0.038221,0.22331,-0.055291,-0.026078,0.038853,-0.522196,-0.661619,0.023943,0.320031,0.371477,0.157299,-0.404477,-0.171984,-0.510403,0.610234,0.285694,-0.245303,-0.489439,0.162444,-0.855366,-0.001049,0.614374,-0.146732,-0.324757,-0.444305,-0.097433,-0.288585,0.250009,-0.021921,-0.502155,-0.242503,-0.238106,0.033609,0.077473,0.023171,-0.062565,-0.312322,0.563252,-0.418766,0.038574,0.022653,-0.013231,-0.453142,-0.097206,-0.004862,0.137408,-0.473078,-0.183651,-0.014129,-0.14508,0.052445,0.18487,-0.203686,-0.11941,-0.475016,0.122888,-0.179823,-0.014202,0.185098,-0.047731,-0.448019,-0.069247,-0.45771,-0.177568,-0.28812,0.630344,-0.055357,-0.269142,-0.143395,0.052343,-0.082608,-0.267504,-0.244077,-0.002042,-0.104712,-0.04575,0.338969,0.339104,0.064146,-0.012351,-0.157831,-0.229518,-0.060151,0.049976,-0.099119,0.384002,0.359386,-0.079355,0.138673,0.146638,0.109076,-0.112318,-0.059207,0.030823,-0.36232,-0.540413,-0.031233,0.096025,-0.566885,0.246161,-0.079134,0.102207,-0.155024,0.173133,0.006651,-0.48386,-0.497683,-0.343088,0.094133,0.095808,0.072428,0.018999,-0.123964,-0.365912,-0.010315,0.458688,-0.021065,-0.111589,-0.169688,0.299516,-0.039802,-0.383829,0.551666,0.64883,0.101055,0.277671,0.006773,-0.032528,-0.764257,0.271071,-0.086682,0.21299,0.140724,-0.474333,-0.19906,-0.119298,-0.028926,0.347769,-0.074087,0.100084,0.045042,-0.398383,0.524264,0.410134,-0.377476,-0.459604,-0.002472,-0.238414,0.102393,0.856913,-0.086833,0.442823,-0.064978,-0.148985,-0.374735,-0.264884,-0.349257,0.091595,-0.707739,-0.043065,-0.235959,-0.316706,0.087642,0.170963,-0.226159,0.713597,-0.053386,-0.016326,0.074334,0.017477,-0.055572,0.223752,-0.179722,-0.016701,-0.642353,0.20714,0.388699,0.379643,-0.037573,0.389058,-0.099323,0.24455,-0.808313,-0.222638,0.34532,-0.342282,0.152956,0.039956,-0.722848,-0.021854,-0.277844,0.386502,-0.349096,0.235804,0.269414,0.090515,0.110736,-0.31215,-1.083334,-0.315269,0.374726,0.312891,0.175193,-0.353864,-0.300317,-0.35097,0.108916,0.090836,-0.153721,-0.357517,0.254521,-0.613162,0.059174,1.005575,-0.254092,-0.070349,-0.213065,-0.287195,-0.385757,0.082474,-0.304046,-0.568177,-0.521146,0.043011,-0.072286,0.239104,0.266302,0.364495,-0.288138,0.672823,-0.372682,0.148683,-0.0906,0.241436,-0.513032,0.005667,-0.307981,0.253715,-0.362476,0.034797,0.036048,-0.146078,0.140305,0.292784,-0.275765,-0.121318,-0.476463,0.316486,-0.051368,0.093141,-0.261025,0.025336,-0.423505,0.402933,0.233126,-0.106282,-0.134916,0.564099,0.292133,-0.152831,0.00605,-0.196058,0.009163,0.096567,0.092588,-0.063109,-0.306389,0.199465,-0.500364,0.002433,-0.298726,-0.116466,0.135192,0.268662,0.271106,0.199829,0.005174,0.265496,-0.016598,-0.024459,0.197791,0.091474,-0.0763,-0.013332,-0.132519,0.0303,-0.045444,-0.078843,-0.017581,0.156726,-0.164633,-0.083533,0.132451,0.119707,-0.077063,0.330383,-0.167444,0.022899,0.048937,0.30968,-0.083515,-0.005026,-0.091712,-0.213854,-0.019199,-0.053505,0.072573,0.186001,-0.348106,0.040655,-0.012115,0.318377,0.20481,-0.004282,-0.519536,0.03925,-0.103692,0.000468,-0.22271,-0.086829,-0.197492,-0.092496,0.311901,-0.079116,0.168733,0.350364,-0.425063,0.096432,0.164636,0.012647,0.422529,-0.386421,0.090464,-0.049905,0.196067,0.060924,-0.3237,-0.173855,-0.12322,-0.096265,0.26882,0.276128,-0.308359,-0.078565,-0.261415,-0.218692,-0.2165,-0.282214,-0.159349,0.051566,-0.095288,0.303038,-0.328338,-0.199338,0.464324,-0.11359,-0.294246,0.460113,-0.180598,-0.039908,-0.034287,0.094116,-0.156871,-0.082438,-0.000905,-0.166888,0.14964,0.376254,0.128463,0.203719,0.162773,-0.116835,-0.15349,0.38505,-0.198683,0.020603,-0.345792,0.203315,0.311248,0.03849,-0.323006,0.092592,0.124022,-0.559705,-0.279374,0.650365,0.037747,-0.26564,0.068433,-0.071821,-0.204259,-0.192926,-0.388204,-0.095321,-0.391598,0.358371,-0.263968,0.269485,-0.069638,-0.248675,-0.098653,-0.111662,0.463809,0.084125,-0.067352,0.550117,0.143869,0.011446,0.30003,-0.157057,-0.059774,-0.011904,-0.117484,-0.270091,-0.363271,-0.377565,-0.172463,0.245144,-0.301075,0.357883,0.019086,0.08586,-0.193337,0.405534,-0.152001,-0.361084,-0.085063,0.081249,-0.039262,-0.177047,-0.18695,-0.249752,-0.010879,-0.064842,-0.05284,0.324442,-0.334434,-0.081783,-0.224751,-0.10271,-0.117986,0.262675,0.474131,-0.302772,-0.124178,0.108972,-0.075613,-0.306606,-0.042152,0.486919,-0.062946,-0.557142,-0.123966,0.040191,0.039008,-0.193226,0.068955,0.102113,-0.71389,0.402826,-0.120093,0.146534,0.116973,-0.127787,0.102591,-0.060375,0.248931,-0.075856,-0.042911,0.153454,0.459901,-0.137889,0.157945,0.021656,0.055806,0.268007,-0.096827,-0.170014,-0.222462,-0.812125,0.282136,0.187731,-0.233243,0.259427,0.259834,-0.205635,-0.178249,0.113352,0.151573,-0.435249,-0.244944,-0.219193,0.232979,0.006655,-0.365286,-0.364692,-0.09043,-0.527634,-0.163292,0.03162,-0.116674,-0.520061,0.035699,0.016361,0.059568,-0.035051,-0.197183,-0.219956,0.127219,-0.040693,-0.131655,-0.033831,0.455644,-0.492558,0.366221,-0.015027,-0.095668,0.060046,0.217488,0.631089,-0.021022,0.211521,0.288286,-0.250306,0.1324,0.235948,0.463321,-0.077966,-0.04151,-0.127269,0.033846,-0.200709,-0.138173,-0.367654,-0.345447,0.023959,-0.204427,-0.037699,0.144901,0.032839,0.125347,0.15491,0.917025,0.138466,-0.060239,-0.272625,0.128987,-0.845094,-0.021389,-0.341908,-0.156308,0.206462,0.060361,-0.041998,-0.081853,-0.129966,0.263617,-0.094287,-0.063054,0.294899,-0.124599,0.001199,-0.134707,-0.857149,0.273293,0.09427,1.010228,0.125221,0.009878,0.041154,-0.155984,-0.374083,-0.335445,-0.148603,-0.209083,-0.183085,-0.091782,0.065098,0.037228,-0.439583,0.134283,-0.029889,-0.22597,-0.232102,0.026291,0.078428,-0.011008,-0.023552,-0.051542,-0.372619,0.083217,0.440607,-0.521528,-0.139329,-0.173336,-0.087161,0.397057,0.594758,0.54354,-0.029774,-0.039803,0.212116,-0.317941,-0.373965,-0.2217,0.411614,-0.478684,0.066587,-0.383819,-0.174714,0.004131,0.19329,0.293003,0.49224,-0.022942,0.152604,-0.257221,-0.192285,-0.040301,-0.261221,0.053004,-0.10431,-0.174541,0.193076,0.302601,-0.346606,0.356536,0.443149,-0.170188,-0.107895,-0.121119,0.192629,-0.076115,-0.076879,0.797906,0.328117,-0.434474,-0.179121,-0.311258,0.455124,-0.121438,0.468444,-0.54591,-0.233871,-0.093584,-0.036262,0.159528,-0.697904,0.453636,0.344764,0.045774,-0.134076,-0.046426,-0.188167,0.367768,0.223381,-0.21225,-0.269171,-0.244162,-0.325033,0.089709,-0.085344,0.330482,0.485279,-0.531669,0.046536,0.071113,-0.097857,-0.194775,0.152921,-0.610608,-0.161261,-0.042055,-0.291694,0.184541,0.726288,0.047684,-0.001829,-0.019088,0.059747,-0.072424,0.087464,-0.086615,-0.054244,-0.021131,0.050756,-0.467896,0.095507,-0.107425,0.177752,0.066635,0.499107,0.071909,0.06457,-0.251244,-0.085412,0.71478,-0.254736,0.464617,-0.035081,-0.103612,-0.042424,0.446572,-0.089928,0.072717,0.342887,0.11726,-0.512232,-0.252201,-0.73086,0.308273,-0.29206,0.147245,-0.079832,-0.447673,0.560079,-0.245224,0.225328,0.007588,-0.132721,0.284146,0.068588,0.284108,0.27796,-0.114658,-0.124459,0.382329,-0.380891,0.359542,0.115314,0.130975,0.430293,0.110167,-0.098303,0.005012,-0.361099,0.16922,0.032293,-0.166621,0.393361,0.273708,-0.128901,0.162381,0.283122,0.273532,0.037763,-0.03004,0.040941,0.306969,0.189859,0.092419,-0.266362,-0.000653,0.09108,-0.118194,0.17262,0.065063,-0.460699,0.251623,0.404826,0.56284,-0.099525,0.059705,0.290729,-0.466727,-0.274062,-0.229812,0.294772,-0.589618,0.549233,-0.302982,-0.272964,-0.069082,0.288354,-0.331448,-0.559259,0.300559,0.141758,0.209667,-0.227555,0.632367,-0.149778,0.169637,0.08329,-0.262997,-0.302491,-0.577303,-0.411103,0.124282,0.235181,0.082409,0.010486,-0.236567,-0.140778,-0.058159,-0.072475,-0.243225,0.219057,-1.054564,-0.051743,-0.012395,-0.266823,0.252358,0.595973,0.14002,0.33014,0.002625,-0.065074,-0.005647,0.214019,-0.053487,-0.453557,-0.163765,-0.006402,-0.399993,0.501069,0.065286,0.279206,0.035893,0.702664,-0.316259,0.103145,-0.671261,0.196178,0.367296,0.659703,-0.714426,-0.496963,0.265547,-0.236627,0.032218,-0.153752,0.483783,-0.211265,0.492771,0.1891,0.106442,0.788615,-0.118623,-0.148535,0.002622,-0.445664,-0.242205,0.109046,-0.191323,0.361,-0.816069,-0.315175,0.64735,0.419529,-0.063805,0.489214,0.013349,-0.590048,-0.34758,-0.208948,0.515908,-0.047812,0.31927,0.1556,0.125217,-0.019645,0.511281,0.367937,0.123263,0.238708,0.287075,0.029619,-0.021653,-0.698644,-0.057993,-0.105149,0.117292,0.223114,0.006117,0.067903,0.017305,-0.037576,0.74351,0.021228,0.07107,-0.005878,-0.141716,-0.296676,-0.076635,0.255039,0.526079,-0.06461,-0.440176,0.209547,-0.487106,-0.144762,0.12854,0.370606,0.344421,-0.162352,0.083679,-0.012171,0.600461,0.305346,0.151815,0.148939,-0.54255,0.861374,-0.249004,-0.229666,-0.057765,-0.218371,-0.601238,0.190402,-0.395873,-0.308242,0.217059,0.319141,0.623433,0.24778,-0.288767,0.189598,-0.166903,0.330426,0.067913,0.507525,0.23928,0.110453,0.188791,-0.328398,0.272832,0.246772,0.146707,0.115304,-0.045049,-0.551829,0.01366,0.057537,-0.426111,-0.025943,-0.25229,-0.069738,-0.317646,0.449966,0.025802,0.033395,0.020804,-0.31697,-0.293531,-0.120814,0.088337,-0.583488,0.038637,0.134827,-0.15816,-0.135574,-0.94263,0.048187,-0.218373,-0.246531,0.285295,0.103244,-0.106621,-0.217488,-0.113869,-0.398686,0.246184,0.150094,0.100509,0.033243,-0.116148,-0.008309,0.165275,0.323923,0.005975,-0.124419,0.039031,0.057927,-0.006758,0.106702,-0.421382,0.037426,0.031713,-0.090743,0.29071,0.219501,-0.125705,0.091563,-0.058282,-0.065837,-0.208667,-0.387243,-0.40167,0.176332,0.057405,0.13681,-0.51775,-0.361175,0.193042,-0.231137,0.114935,0.077485,-0.113254,-0.214587,-0.131702,-0.111971,0.016226,0.111586,-0.206844,-0.318408,0.080665,0.107014,0.046737,0.167587,0.085425,0.020982,-0.10637,0.266885,-0.041941,-0.295526,-0.519372,-0.178293,0.132272,-0.346135,-0.216159,0.130694,0.226677,-0.067025,-0.101482,0.068118,0.036436,-0.20122,-0.254096,-0.420185,0.29165,0.23004,0.110936,-0.04211,-0.224306,0.051458,-0.096884,0.091834,0.021167,-0.194933,0.035892,0.052376,0.174122,0.157877,-0.008523,-0.08964,-0.035196,-0.049373,-0.101359,-0.182077,-0.052239,0.030132,-0.179473,-0.233337,0.042651,-0.276284,0.105768,0.405235,-0.33526,-0.157749,-0.150083,-0.214397,-0.005997,0.094016,-0.157312,-0.239715,-0.040207,-0.021858,0.115954,0.216726,0.015984,-0.35751,0.119476,-0.276981,-0.049013,-0.290735,-0.230137,-0.149901,0.18522,0.032885,-0.017272,0.040546,0.177594,0.042636,0.0097,-0.177139,0.158202,-0.190372,-0.143587,0.331172,-0.062178,0.300195,0.011607,-0.292877,0.117927,-0.305409,-0.067669,-0.483508,-0.05257,0.498414,0.603545,0.471072,-0.197277,-0.112948,0.381162,0.152534,-0.011174,0.313676,0.17716,0.211801,0.173359,-0.258457,0.364775,0.00107,0.113484,-0.053318,0.131107,-0.029172,0.072616,0.265601,0.021247,0.175189,-0.190128,0.132594,0.114669,0.212023,0.296316,0.080564,0.39715,-0.03724,0.101222,-0.119012,0.127796,-0.131412,0.335009,0.001378,0.056955,0.228066,-0.093781,0.210511,-0.051281,-0.100703,-0.214865,0.259118,-0.104182,-0.10856,-0.034838,-0.037916,-0.072103,-0.294716,-0.126593,0.048967,-0.192271,-0.07408,-0.275064,-0.0391,-0.191042,-0.133167,-0.182356,-0.068258,0.070822,0.400192,0.156836,-0.220611,0.193313,-0.081258,0.368398,0.42757,-0.536353,-0.15572,-0.31523,-0.29996,0.051801,0.03471,0.070963,0.051851,-0.012868,-0.149071,-0.229779,-0.254419,-0.012033,0.011558,-0.164767,-0.220211,-0.153781,-0.03733,0.045749,0.200821,0.01616,-0.039134,0.026997,-0.165016,0.036597,-0.276407,-0.10008,-0.065363,0.089528,-0.045483,-0.026853,0.231285,0.026482,0.054197,-0.019481,0.330283,-0.091186,-0.112943,0.006149,-0.173703,-0.168758,0.097865,-0.137092,-0.120276,0.274107,0.289672,0.137947,-0.049569,0.193133,-0.634068,0.049306,0.0318,0.245054,0.001999,0.184747,0.092562,-0.045834,0.366814,0.399097,-0.254265,-0.436789,0.230739,-0.139476,-0.01084,-0.07645,0.227989,0.282366,0.271415,0.355061,-0.125906,-0.10686,0.291103,-0.191931,-0.259587,-0.234855,-0.584931,-0.337166,0.196031,0.149956,0.302687,-0.526806,-0.254868,0.178097,0.05771,0.047081,-0.157356,-0.102424,-0.257691,-0.094356,-0.144577,0.215197,0.271159,-0.329196,-0.310915,-0.214642,-0.101263,0.003487,0.207038,0.245233,-0.228739,0.261568,0.502841,0.073574,-0.251619,-0.162248,0.084452,0.131285,-0.256272,-0.174742,0.333599,-0.081945,0.092703,0.076814,0.318759,0.229076,-0.481314,-0.243736,-0.256806,0.128071,0.008321,0.064236,0.141275,-0.555464,0.011026,-0.161733,0.082753,-0.157915,-0.157796,0.006263,0.077793,0.064391,0.220399,-0.063005,0.001527,0.467438,-0.374929,0.34025,0.20199,0.21853,0.271112,-0.171089,0.134709,-0.024091,-0.307992,0.015761,0.225066,0.025614,-0.098039,0.100329,-0.203603,-0.154153,0.043003,0.177229,0.141226,0.01485,0.283937,0.03974,0.212513,-0.21249,-0.252393,-0.110182,0.017358,-0.11845,0.077764,0.111807,-0.157073,0.291672,0.207757,0.431037],"bias":[-0.1728,-0.093642,-0.145213,-0.081651,0.124142,0.036101,0.172752,0.157164,0.039301,0.133495,-0.060154,-0.130732,-0.006135,-0.021287,-0.050412,-0.066915,0.024529,0.262517,-0.14311,0.048267,-0.094462,-0.027518,-0.202125,0.26532,0.088913,0.056221,0.057169,0.024651,-0.225703,-0.123052,-0.003244,-0.02499,0.109144,0.007221,-0.025902,-0.18905,-0.113349,-0.129733,0.097326,0.274639,0.062149,0.095493,0.202018,0.188279,0.003667,-0.057559,0.004371,-0.287221,-0.003166,-0.256724,-0.044524,-0.002322,-0.115646,0.005419,-0.030881,0.166143,-0.244972,0.003403,-0.195596,-0.059213,-0.177107,0.148728,0.017469,-0.064755]},{"inputSize":64,"outputSize":4,"activation":"linear","weights":[-0.020645,0.061923,-0.011424,-0.006734,0.085964,-0.018968,0.039068,0.073985,-0.096363,-0.037868,0.224545,0.031919,0.076842,0.089599,-0.075911,0.01377,-0.013233,-0.02333,0.04596,0.035348,-0.003444,0.013539,-0.054299,-0.100673,0.015634,-0.023445,-0.010047,0.023887,-0.045517,-0.012884,-0.005227,-0.063513,0.027115,0.02835,0.041555,-0.017393,0.009255,-0.052558,0.039325,-0.020854,0.034147,-0.115673,0.105756,0.037049,-0.088706,0.03052,-0.021153,-0.03933,-0.038989,0.029068,-0.01461,0.003782,-0.056737,-0.041505,-0.042127,-0.067644,-0.091887,0.04532,-0.034527,0.177671,-0.09757,0.153289,0.042139,-0.066236,-0.002523,0.004848,-0.028901,0.019864,0.140394,-0.002727,-0.054499,-0.064456,-0.040987,-0.004207,0.054263,-0.079198,-0.101323,-0.008226,0.098201,-0.020782,0.00709,-0.048886,-0.070075,-0.025093,-7e-05,0.077666,0.011724,-0.003268,-0.011085,-0.014677,0.012492,-0.008885,-0.268229,-0.007,-0.002964,0.000915,0.001261,-0.080264,-0.01821,0.007083,0.011716,0.193312,-0.003718,-0.005326,-0.003718,0.022766,0.000591,-0.02669,0.046626,0.017047,-0.038763,-0.011116,-0.046629,0.013191,-0.056848,-0.020971,0.008464,-0.018786,0.005697,0.003519,-0.002738,0.02726,0.100383,0.066112,-0.08275,0.054963,0.112538,0.010817,-0.033795,0.059851,0.087332,0.019735,-0.094478,0.023317,-0.053546,-0.059763,-0.052839,-0.063786,0.022319,-0.086981,-0.064864,0.028603,0.055581,0.070333,-0.074608,-0.054313,0.06488,-0.0375,-0.014142,0.069717,0.03045,-0.055414,0.081001,0.006699,-0.074958,0.010943,0.03673,-0.04663,0.002221,0.026336,-0.016852,0.036998,-0.069951,0.066498,0.07603,-0.064816,-0.033409,-0.037545,-0.00429,-0.037104,0.059187,-0.024873,-0.014533,0.05577,0.053147,0.094089,0.077816,0.043005,-0.015415,-0.08057,0.073726,-0.035595,-0.056952,0.058341,-0.006348,0.021077,0.063547,-0.007726,0.017935,-0.021954,0.05559,-0.05967,-0.063748,0.163253,0.143621,0.104099,-0.076688,-0.054293,-0.02705,-0.064797,-0.182081,-0.151522,0.139393,-0.164203,-0.045266,0.169092,0.119035,0.150192,-0.125207,-0.044116,0.216629,0.046602,0.082402,0.066526,-0.063462,-0.168987,0.13098,-0.071607,-0.201066,0.098519,0.142483,-0.132114,-0.045403,-0.022885,0.005179,0.159436,-0.118931,0.186255,0.143188,-0.167136,-0.050083,-0.048781,0.024497,-0.161198,0.214714,0.062001,-0.034429,0.09407,0.112235,0.142145,0.113425,0.186626,0.026906,-0.165945,0.092217,-0.004955,-0.028735,0.132411,-0.119119,-0.042218,0.195812,-0.07607,0.136212,0.00374,0.162849,-0.082297],"bias":[0.618883,-0.085298,0.134123,-0.253077]}]}
