{"format":"ratass-rl-policy-v3","source":"ray-rllib-ppo","objective":"race-route-progress-v1","observationSize":25,"actionSize":2,"output":"first actionSize outputs are deterministic direct throttle and turn controls","layers":[{"inputSize":25,"outputSize":96,"activation":"tanh","weights":[-0.150942,0.054328,-0.259067,0.217685,-0.132909,0.071816,0.206284,-0.046235,0.100141,-0.118072,-0.103307,-0.202125,0.022824,0.117405,0.027478,1.844785,-0.370166,0.174227,0.250303,-0.191415,0.010921,-0.172652,-0.178459,-0.121738,-0.125901,0.028155,-0.00307,0.206031,0.103967,0.050089,-0.124323,-0.061194,0.101868,-0.19653,-0.050479,0.523163,0.430966,-0.490326,-0.097514,-0.001778,-1.904971,0.287798,-0.015684,-0.241484,0.178385,0.211516,0.079893,-0.04116,0.129666,-0.055089,-0.137457,-0.546514,-0.119234,0.046808,-0.16352,-1.436417,-0.362717,-0.037391,-0.126263,0.39307,0.298923,0.028504,-1.038192,-0.473017,-0.399212,-0.579944,0.40768,-0.082648,0.407603,0.093378,-0.190382,0.079623,-0.122911,0.14168,0.244968,-0.159342,0.224724,-0.085702,-0.236181,-0.143286,0.244264,0.152323,-0.077903,0.037474,-0.206951,0.070191,0.056805,0.006258,-0.245591,0.211815,0.639513,-0.302188,0.511598,0.006053,-0.59133,0.09825,0.259396,-0.018306,0.02135,-0.13479,0.20579,0.280477,0.164202,0.261318,0.000147,0.379285,-0.060502,0.238911,0.069444,-0.085778,0.234986,0.252735,-0.053729,-0.035779,-0.021225,0.89735,-0.061334,-0.161712,-0.341653,0.210936,-0.122625,0.169299,-0.189763,-0.077349,-0.201664,0.099204,0.279445,-0.031653,0.496995,0.250357,-0.076136,0.056923,0.022118,-0.157237,0.128671,-0.165608,-0.348502,-0.166974,0.049782,-0.259176,1.619062,-0.288938,-0.085028,0.27412,-0.256259,-0.068105,-0.021439,-0.032498,0.153344,-0.071862,0.233793,-0.037671,0.252945,0.318919,-0.03241,0.14092,-0.153334,-0.059859,-0.135415,-0.0719,0.354695,0.166952,-0.168865,-0.077195,-0.175273,-2.018916,0.03278,-0.212625,-0.277727,0.175009,0.159414,-0.193034,0.270342,0.19626,-0.11472,-0.019804,0.034636,-0.060654,-0.148011,0.389926,1.051357,0.086637,0.105396,0.335699,-0.109433,0.160527,0.109046,1.050911,-0.162175,0.003152,1.151685,-0.438994,0.212193,0.13118,-0.263959,0.131813,-0.368743,0.126953,-0.200578,-0.295708,-0.115735,0.213599,0.167855,0.079755,0.075124,-0.174914,-0.134272,-0.158624,0.211443,-0.062353,-0.543104,-0.383649,-0.33478,-0.146033,0.123454,1.547921,0.005028,-0.356456,0.168479,0.01239,0.124434,-0.013095,-0.002266,0.127841,0.088136,-0.007138,0.027953,0.204078,0.346166,0.472998,0.24022,0.252803,-0.169179,-0.177728,-0.140735,0.349908,0.283412,-0.181628,0.165759,-0.243312,-0.207995,0.005148,0.080463,0.101961,-0.044851,0.09888,-0.035302,-0.082355,0.08335,0.133033,0.08547,0.287191,0.15404,0.527186,0.425446,0.337561,0.102971,-0.2264,0.009574,0.11382,-0.208024,-0.377929,-0.148814,-0.092381,-0.134073,0.70202,-0.192775,0.189385,0.01691,-0.37223,-0.017388,-0.060407,-0.020267,0.126987,-0.076499,-0.066102,-0.298412,0.066733,-0.297619,0.229011,0.227923,0.102501,-0.111067,0.209823,-0.04166,0.221347,0.301396,0.259659,-0.092452,-0.201486,-1.87935,0.15468,0.060604,-0.315798,-0.166299,0.190585,0.184342,0.178556,0.112502,-0.0245,-0.116862,-0.151508,-0.11183,-0.062155,-0.104973,-0.020253,-0.173421,0.221323,-0.15891,-0.083382,0.410094,0.211491,0.300453,-0.043747,0.174125,1.096685,-0.113832,0.44875,0.289046,-0.360276,-0.181741,-0.079105,-0.163621,0.011135,0.053847,-0.035835,0.297549,-0.070943,0.243575,-0.161404,-0.745618,-0.229174,0.0156,-0.209191,0.276905,0.018976,-0.022111,-0.932375,0.083714,-0.311571,2.154856,0.04344,-0.288803,0.513781,0.302004,-0.072454,0.122562,-0.119751,-0.02617,0.188752,-0.1302,0.128165,0.263625,-0.320785,-0.159033,-0.369952,-0.082111,0.088007,-0.126685,-0.103931,0.156804,0.037735,-0.059292,-0.110701,-0.054191,-1.054541,0.192507,-0.220978,0.16344,0.216054,-0.113901,-0.088319,0.24622,-0.180114,-0.085772,-0.130976,0.039512,0.051788,-0.21796,-0.110473,-0.028329,-0.018867,0.093778,-0.104396,-0.116769,0.499711,0.499399,0.449508,0.040795,0.137932,1.22263,-0.232894,0.439355,-0.036016,-0.19787,-0.076934,0.138629,-0.275025,0.034265,-0.029302,0.204468,0.164203,0.094865,-0.178026,0.425396,2.008691,0.08027,0.156534,0.107121,-0.198271,0.087579,0.262627,1.203933,-0.172697,0.390214,0.593461,-0.370309,0.045251,-0.503823,-0.216862,-0.090468,0.106559,-0.00322,-0.081322,-0.139304,-0.049698,-0.257244,-0.091671,-0.454896,-0.288628,-0.32344,-0.235713,0.270867,0.193473,0.106703,-0.191877,-0.298549,0.453153,0.049227,-0.026169,-0.432693,-0.053134,-0.024791,-0.005783,-0.032052,-0.176499,-0.110513,0.244534,-0.091089,-0.004328,0.074887,-0.139583,0.323352,0.224059,0.034839,0.064114,0.028034,0.108987,-0.028458,-0.11039,0.448867,0.306802,0.058647,0.064114,-0.059262,-1.58577,0.018238,0.1557,-0.261715,0.295844,0.090666,0.207609,0.001058,0.213926,0.024882,-0.155713,0.036393,0.003856,-0.282138,-0.250862,-0.734579,0.045403,-0.017068,-0.13879,0.181242,-0.260685,-0.033944,-0.326108,0.297418,-0.272268,1.297756,-0.075921,0.115917,-0.104221,-0.222149,0.140174,0.020473,-0.184348,0.244107,0.155891,0.110643,0.377494,0.134728,0.604297,0.220057,0.212493,-0.046457,-0.193817,0.020462,-0.169677,0.117959,0.156683,-0.488944,-0.100248,0.151065,-0.787974,-0.105135,-0.120651,-0.046355,-0.095849,0.221532,-0.12036,0.182544,0.007301,0.1002,-0.163991,0.321576,0.009216,0.323767,0.373466,-0.071566,0.192812,-0.11523,-0.060025,0.009429,-0.321478,-0.441725,-0.154498,0.055027,-0.318687,1.402814,-0.047285,0.135908,0.232421,0.122414,0.14927,-0.167742,0.083808,-0.03788,-0.125031,-0.057296,0.010807,-0.023789,0.171539,0.234533,0.187914,0.073123,0.076573,-0.10124,0.032097,0.592424,0.310986,-0.197187,0.00427,-0.169377,-0.070066,0.118137,0.214209,0.110504,-0.121733,-0.161103,-0.162908,-0.173123,0.183683,0.157843,0.138248,0.1991,0.125675,0.113521,-0.108939,0.030739,-0.108787,-0.108794,-0.156338,0.020933,0.036546,0.105685,0.061529,-0.285495,0.101119,1.31537,-0.357055,0.364285,0.203783,0.050244,-0.160045,0.030622,-0.048325,0.159732,0.115649,-0.0397,-0.066541,0.187543,-0.300391,-0.248816,-0.265934,-0.01166,0.199596,0.121806,0.274731,-0.178453,-0.021445,0.516304,0.077778,0.179373,-0.829735,0.323495,-0.299865,-0.104122,0.010688,-0.160009,-0.128877,-0.071876,-0.00249,0.283841,-0.074451,0.111989,-0.007017,-0.143068,-0.379107,-0.571396,0.188273,-0.175282,0.20822,-0.040664,-0.172086,-0.524558,0.260685,0.072298,-0.080032,1.98742,0.099145,0.013541,0.373349,-0.143015,0.10413,-0.036841,-0.121693,-0.047757,-0.175389,0.085307,-0.058015,0.032292,-0.20059,-0.414934,-0.479029,0.149548,-0.190931,0.142664,0.170575,0.243025,-0.040206,-0.005025,0.241518,-0.233597,-1.072221,0.031451,-0.19019,-0.170884,-0.026519,0.007313,0.08993,-0.109615,-0.07706,0.098544,0.063447,-0.308097,-0.189466,0.314433,-0.127628,-0.772114,-0.147586,-0.105176,-0.101462,0.256234,0.293391,0.135896,-0.747058,0.09397,-0.125285,-1.643953,0.231658,0.05002,0.112481,0.002022,0.117314,-0.082575,-0.226152,0.310957,-0.008435,-0.053648,-0.157371,-0.000999,0.07367,0.304475,0.034721,0.210292,-0.061376,-0.182088,0.100186,0.568371,0.488436,-0.011684,-0.000493,-0.019227,-0.447252,-0.141477,0.038175,-0.012479,-0.027969,0.176596,-0.075392,-0.057861,0.152175,-0.015089,-0.147905,0.311269,0.062925,0.312226,0.053915,-0.090109,0.177029,0.039935,0.183179,0.040619,-0.416163,-0.325849,0.108932,-0.205912,0.03617,0.886697,0.000173,-0.054422,0.119055,-0.108684,-0.133578,0.028869,0.127812,-0.039081,-0.100886,-0.018502,0.088105,0.02528,0.525529,0.188601,0.410885,0.101248,0.003361,-0.007081,0.01768,-0.074548,0.215275,-0.497492,-0.256494,-0.204372,-0.071947,0.120002,0.042724,-0.044849,0.150738,-0.140203,0.041677,-0.112123,0.122579,-0.034696,0.057197,0.366899,-0.139113,0.510608,0.393502,0.174324,0.001406,0.100681,-0.138323,-0.132901,0.117736,0.150768,-0.024024,-0.154492,0.129702,1.84503,-0.274085,0.213255,0.148135,-0.065396,-0.105361,0.070857,-0.146945,-0.101342,-0.055064,0.124174,-0.263651,0.046332,-0.562394,-0.160913,0.264624,0.163536,0.161211,0.206132,-0.104643,-0.418246,-0.306683,0.650675,-0.21051,-0.030597,-1.277763,-0.048313,0.048871,-0.254562,0.293934,-0.10253,0.060857,0.220691,-0.267814,-0.050652,0.005296,-0.363925,-2.4e-05,-0.422212,0.014325,-0.422826,-0.018283,0.031437,-0.016614,0.008991,0.462979,0.327529,-0.044537,0.080258,-0.142047,0.605839,0.071269,0.21,0.310352,-0.144006,-0.040391,-0.123413,-0.245944,0.078481,-0.053549,-0.036355,-0.211931,0.21094,-0.026946,-0.117369,0.293934,0.104924,0.050691,-0.063868,-0.048384,0.410685,0.387501,-0.018363,-0.660931,-0.002102,-0.608432,-0.208944,0.246167,-0.124581,0.092736,0.113745,-0.053763,-0.040868,-0.076248,0.220286,-0.062922,0.337341,-0.191239,0.062956,0.175625,-0.241099,-0.045285,0.146723,-0.030026,-0.17399,-0.431425,-0.354883,-0.266832,-0.119793,-0.288064,1.892641,-0.025156,-0.117724,0.363067,-0.162583,0.224046,0.13977,-0.183345,0.027366,-0.210203,-0.051723,-0.130883,0.201159,-0.127577,-0.252917,0.01975,0.107909,0.1653,-0.121694,-0.071324,0.214392,0.227083,0.440006,0.06748,0.101775,1.599796,-0.297712,0.097329,-0.158472,-0.176076,-0.076907,-0.038622,-0.205679,-0.020809,0.08145,-0.006104,-0.054103,-0.123081,-0.265154,-0.123813,-0.356411,-0.046504,0.035842,-0.125094,0.215352,0.186099,0.389059,-0.379022,-0.396148,0.010559,-0.183952,0.065136,-0.101465,-0.095958,0.283383,-0.083661,0.189233,-0.137762,0.156744,0.075471,-0.059964,-0.224127,-0.165825,-0.575743,-0.4047,-0.298644,-0.022424,0.234686,-0.11776,-0.071116,0.248129,0.167429,0.532455,0.071782,0.148985,1.31501,-0.158528,0.278867,0.451981,-0.060831,0.073299,-0.029389,-0.169706,-0.029355,0.166309,-0.070671,0.123742,-0.189581,0.35593,0.347771,0.321219,-0.015015,-0.04448,-0.161157,-0.024281,-0.061068,-0.049031,-0.132097,0.130082,-0.113811,-1.955099,0.163221,-0.129755,-0.195485,0.090016,0.158628,-0.139829,0.267465,-0.078524,0.077576,0.070909,0.03321,-0.105547,-0.257233,-0.080799,-0.174685,0.123316,-0.096744,0.08261,0.037434,-0.434897,-0.637521,0.066448,-0.045294,0.072512,1.352147,-0.064926,-0.315036,0.023367,-0.083604,-0.103359,0.032037,-0.184329,-0.040234,0.109673,0.026328,-0.04305,0.088592,-0.185306,-0.582011,-0.357614,0.070683,-0.153388,-0.022574,-0.04764,0.18258,0.188027,0.304506,-0.030225,-0.081422,0.939004,-0.106822,0.023508,-0.388098,0.504988,-0.16564,0.039489,0.074349,-0.081018,0.268739,0.144942,0.358912,-0.154693,-0.128287,-0.499077,-0.343979,-0.051837,-0.173671,-0.019568,0.017686,-0.554353,-0.361519,0.142103,-0.115692,-0.039368,1.552208,-0.162541,-0.171092,0.156487,0.068214,-0.159313,0.111979,-0.101518,-0.219615,0.121186,-0.135307,-0.233957,-0.002252,0.374449,-0.101099,-1.519158,-0.274885,-0.113876,-0.270498,0.253878,0.089946,0.166218,-1.541009,-0.243637,-0.4832,-1.030823,0.408271,-0.358834,0.252181,0.010731,-0.233284,0.100726,0.055831,0.189164,0.109107,0.086002,0.080592,-0.080735,0.391971,0.135874,-0.656795,-0.085174,-0.019726,-0.086019,-0.063183,-0.053007,0.160039,-0.301718,-0.054951,-0.335308,0.607973,-0.026671,0.222695,0.064511,-0.108269,0.089626,0.233203,-0.213287,0.325818,-0.132954,-0.025553,-0.241354,0.134008,-0.388943,-0.032889,0.155443,-0.22174,0.064458,0.019391,0.130286,0.340006,0.505065,0.110241,0.232832,-0.068242,1.272195,0.014271,-0.100858,0.270667,0.098794,-0.116705,-0.194467,-0.15763,0.015844,-0.087501,0.071699,0.367582,0.158847,0.250013,-0.122874,0.046536,0.103694,-0.173515,0.069586,-0.013119,0.185628,0.174158,-0.147868,-0.229207,-0.1228,1.896358,-0.360789,0.300402,0.240639,-0.256255,-0.039633,-0.012263,-0.24119,-0.094968,0.137497,-0.069114,0.181349,-0.088657,0.002546,0.312365,-0.138852,0.117258,-0.218899,0.06577,-0.06165,-0.152991,-0.21278,0.028202,0.342871,0.044041,0.795061,-0.16752,-0.15719,0.014347,0.01577,-0.011373,-0.194839,-0.131557,0.005194,-0.03343,0.071929,-0.134108,0.0731,0.434635,0.140621,-0.018304,0.172986,-0.212274,-0.262817,0.21682,0.366503,0.245465,-0.293789,-0.15855,-0.258124,1.029416,-0.05232,-0.276852,0.050111,-0.192949,0.022175,-0.036132,-0.223618,-0.005246,-0.048722,0.013102,0.038174,0.195704,-0.30662,-0.080295,-0.238937,-0.023146,0.054951,0.109508,0.105316,-0.317689,-0.219041,-0.05516,-0.00304,0.161925,-0.620818,0.211557,-0.425617,-0.018636,-0.030618,-0.032999,-0.131155,0.184856,-0.021008,-0.152402,-0.203516,-0.314539,-0.210336,-0.324343,-0.263453,0.032607,0.143838,0.210644,-0.010048,-0.074311,-0.111242,-0.167229,0.568183,-0.107852,0.142754,-1.535966,-0.078587,0.006252,-0.390436,0.030424,0.186913,0.094329,0.143473,0.064629,0.191108,-0.261787,0.274586,-0.058094,0.310257,0.201133,0.203747,-0.000495,-0.152686,-0.231255,0.072893,-0.501158,-0.253174,0.044597,-0.081255,0.081633,1.733826,-0.069189,0.204275,0.093979,0.239952,0.165058,0.04987,-0.091928,-0.21556,-0.088667,-0.110731,0.071793,0.145262,-0.451586,-0.440934,-0.363191,0.015886,-0.154112,0.040073,-0.117103,0.153939,0.307185,0.324892,-0.066244,0.298965,1.715171,-0.06311,0.218905,0.249976,-0.162303,-0.100573,0.050582,-0.042148,0.091478,-0.074405,-0.168129,0.102516,0.261961,0.048579,-0.572493,-0.93471,-0.132404,-0.232077,0.110615,0.093485,0.398471,0.137472,-0.099585,-0.04924,0.138598,1.598285,0.009697,-0.325829,0.555456,-0.198042,-0.100266,-0.179656,-0.059907,-0.080631,0.024905,0.057638,-0.283695,0.212049,0.360397,0.476546,0.365127,0.126069,-0.08874,-0.225694,0.016605,0.46884,0.580627,-0.248541,-0.143217,-0.098377,-1.113085,-0.087942,0.012214,-0.172761,0.026801,-0.160498,0.180372,0.116857,0.101909,0.18313,0.176496,-0.064614,0.052906,0.059583,0.253298,0.290418,0.067398,0.053379,-0.074186,0.022665,0.506485,0.49438,0.056657,0.072702,-0.127487,-0.865006,0.041835,0.18136,-0.343727,0.023589,0.093945,0.18602,-0.023024,-0.053718,-0.105482,-0.105449,0.248923,0.106602,0.393498,0.253771,-0.594723,0.105362,-0.328016,-0.205482,0.154136,-0.195683,-0.196199,-0.471965,-0.103536,0.049212,-1.380594,0.173904,-0.001713,-0.309582,0.066816,0.11914,-0.013324,0.078173,0.107118,-0.073838,-0.092387,0.147574,0.186694,-0.359685,0.044093,0.951621,0.145246,0.325933,0.153713,-0.226595,-0.00533,-0.194242,1.08146,-0.215875,0.214546,1.311442,-0.280532,0.34181,-0.23726,0.140604,0.056783,0.065812,0.045505,-0.254362,-0.201366,0.01968,-0.227739,0.028747,-0.453864,-0.117015,-0.230338,0.119604,-0.080809,-0.010552,0.166817,0.49748,0.400922,0.192613,0.008096,0.049975,-1.307881,-0.01439,0.096878,-0.062114,0.01633,-0.214947,-0.143965,0.030098,0.108705,0.247318,-0.133789,0.171006,-0.164634,-0.275683,-0.27989,0.015034,0.132906,0.1849,0.334154,0.093643,-0.190982,0.082875,0.55436,-0.260274,-0.019539,1.805367,-0.085392,-0.12826,0.257952,-0.053318,0.198553,-0.267105,-0.117699,-0.067431,0.042987,-0.074502,0.118295,0.164273,0.311029,0.242645,0.194718,-0.198505,-0.00778,0.117198,-0.077757,-0.010667,-0.245105,-0.462198,-0.07864,-0.024765,1.288357,-0.050055,-0.089094,-0.120651,0.071779,0.039864,0.178189,-0.088031,0.198505,-0.090321,-0.07249,0.137692,0.124711,-0.36729,-0.269305,0.025717,0.008544,0.13839,0.205812,0.179364,-0.618199,-0.676122,0.484573,-0.185439,0.278333,-0.884564,0.109056,-0.137895,-0.145117,0.329209,-0.015696,-0.044402,0.273737,-0.080945,-0.121712,-0.153619,0.309164,0.11401,0.413069,0.000207,0.3497,-0.10244,-0.025968,0.157313,0.157892,-0.38711,-0.509092,-0.485275,-0.156961,-0.166384,1.742908,-0.104968,-0.111191,0.178856,-0.103418,0.100009,-0.050148,-0.113718,0.040324,-0.082579,-0.135491,-0.171556,-0.15977,-0.428508,0.023943,-0.167878,-0.07583,0.018173,0.13531,0.179816,0.42784,0.313845,0.28914,0.055803,-0.030975,0.296473,-0.060148,0.345648,0.173819,-0.367302,-0.121625,-0.027532,-0.273286,-0.189119,0.280747,-0.024558,-0.369666,-0.046391,-0.236325,-0.433863,-0.366621,0.092462,-0.096441,-0.047643,0.140669,0.460318,0.258397,0.287485,0.273196,0.191334,-0.37981,0.201083,-0.133249,0.112426,-0.02416,-0.213719,-0.109471,-0.154133,-0.006158,0.278519,0.139923,-0.158131,0.058259,-0.55687,-0.191863,0.037546,0.074659,0.035652,-0.01535,-0.139656,0.200528,0.053839,0.642239,-0.212984,0.17184,-1.464341,0.16198,0.170022,-0.272806,-0.011427,0.125324,0.159819,0.202224,-0.11692,0.251846,-0.058823,-0.216978,-0.06447,-0.266115,-0.308694,-0.142955,-0.020515,0.214138,-0.094308,0.087683,0.051905,0.389002,0.104773,0.030346,-0.004759,-2.18357,0.311439,-0.063248,-0.350391,0.171215,-0.131069,0.24139,0.352046,-0.027083,0.020934,0.147434,-0.189794,-0.227503,0.34416,0.109155,-0.427198,0.019254,0.065995,-0.070818,0.27736,-0.340947,-0.253041,-0.808545,-0.162884,-0.429195,-1.622534,-0.080162,-0.094393,-0.16977,0.181601,0.121149,0.053002,0.002863,0.014671,0.222499,0.063578,-0.23375,0.02701,-0.226303,-0.365502,-1.533547,-0.287985,-0.163264,-0.00066,0.056935,-0.046364,0.268541,-0.774566,0.024765,-0.201878,0.716284,0.203417,0.098672,0.402673,0.319025,-0.156049,-0.080543,0.022415,0.283977,-0.009424,0.048549,-0.163165,0.101658,0.20553,-0.222033,-0.587547,-0.130999,-0.102151,-0.274136,-0.191496,0.041286,0.076275,-0.549465,0.039414,-0.191844,-1.838878,0.22567,-0.048035,-0.22121,-0.184327,0.038283,-0.146631,0.176749,0.06629,0.072115,-0.162622,0.268924,-0.15268,-0.017954,-0.111004,-0.429564,-0.043574,-0.174542,-0.024121,0.070619,-0.126315,-0.186673,-0.507776,0.597734,-0.134393,-1.283941,0.08866,0.042041,0.262531,0.249528,-0.089951,-0.080648,0.368602,-0.002758,-0.084549,0.101663,0.197234,-0.032299,0.184571,-0.144325,0.835628,0.158039,0.077524,0.199376,-0.360773,0.248066,0.036105,0.711015,-0.346871,0.275451,0.602997,-0.159262,0.04217,0.093266,-0.117706,0.174236,-0.181268,0.127741,-0.16096,-0.161603,-0.024277,-0.234711,0.202448,0.320174,0.286356,-0.092387,0.152928,-0.259604,-0.056312,-0.100347,0.371141,0.342056,-0.226027,0.386764,-0.122492,0.728513,0.129032,-0.035604,0.059646,-0.289001,-0.083461,-0.179675,-0.334198,0.2613,0.116748,-0.050512,-0.252072,-0.069585,0.075356,-0.195609,-0.257046,-0.045207,-0.086285,-0.059521,0.075481,0.600852,0.451117,-0.061389,-0.14344,-0.036083,-1.893902,-0.076396,0.103867,-0.087151,0.133056,-0.080334,0.131639,0.166151,-0.17527,0.137983,0.067538,-0.164964,-0.035274,-0.010731,0.157249,-0.125658,-0.133083,0.044738,-0.15205,0.027167,0.524469,0.133989,-0.279599,-0.195274,-0.152458,-1.512947,-0.048437,0.236726,-0.390948,0.242831,0.127728,0.105933,-0.096725,0.069951,0.155949,-0.148296,-0.272679,-0.054768,-0.446855,-0.207276,-0.181454,-0.19999,-0.066776,-0.116608,0.038289,0.033018,-0.059862,0.362774,-0.232943,0.177458,1.254774,-0.17657,0.303721,0.145166,-0.159013,-0.207219,0.019806,0.013863,-0.150823,0.283,0.150082,0.006511,0.090088,0.36152,0.311078,0.103853,-0.223776,0.066008,-0.194088,0.1641,0.127455,0.441956,-0.411164,0.105276,-0.262651,-1.856818,0.036708,0.013684,0.083175,0.228549,0.054392,-0.045875,0.126722,-0.036609,-0.079768,0.16962,0.153171,-0.068417,0.457571,-0.005241,0.225475,0.166048,-0.08229,-0.13176,-0.075323,-0.328321,-0.040383,-0.299897,-0.157123,0.059736,1.41848,-0.290984,-0.03114,0.113121,-0.24707,-0.069267,0.004603,0.009646,0.213486,-0.16063,-0.031748,0.277701,0.055837,-0.171233,0.011007,0.491702,0.198306,0.211572,0.190335,-0.02022,-0.493986,-0.575445,0.149908,-0.053224,-0.185844,1.790617,-0.161519,0.413309,-0.005792,0.119802,-0.1273,0.113351,-0.07107,-0.305197,0.05256,0.147621,0.207863,0.13239,0.02336,0.004106,0.259389,0.211719,-0.234844,-0.005147,-0.083338,0.321578,0.326172,0.180711,-0.268585,0.007406,1.186688,-0.241059,0.058575,-0.061102,-0.061424,0.148836,0.048116,-0.2081,0.164031,-0.156141,0.009345,0.020472,0.209648,0.079996,0.008575,0.436564,0.040403,0.138155,0.089939,-0.10453,-0.144004,-0.037865,-0.186647,-0.231312,0.022225,-0.69679,-0.051677,-0.421756,0.221999,-0.20046,-0.070397,-0.283805,0.137564,0.007026,-0.036159,-0.010441,0.084168,-0.097137,0.358331,0.041524,-0.411626,-0.203448,0.004362,-0.168029,0.063692,0.356189,0.490142,-0.383324,-0.225587,0.024631,0.955396,-0.153194,0.000655,0.494948,0.05191,0.004153,0.209782,-0.045302,0.057661,0.174624,-0.063289,-0.194719,0.022729,0.103396,0.297824,0.170424,-0.040437,0.231649,-0.115282,-0.014147,0.216856,0.261465,0.111696,-0.179998,-0.243441,1.814048,-0.301831,0.032231,0.284183,-0.165699,-0.061168,0.147792,-0.393676,-0.010326,-0.043844,0.145776,0.046859,0.167746,-0.021765,0.309093,0.690776,0.250218,-0.218261,-0.075914,-0.009091,0.235953,-0.032505,0.264231,-0.16593,-0.212749,-1.925705,-0.210393,0.138765,-0.468861,0.164274,0.049174,-0.032166,0.162899,0.017537,-0.170502,-0.007868,0.029909,-0.240928,0.067579,-0.205347,-0.348801,-0.012561,-0.032726,-0.099235,-0.117928,0.068174,0.10316,-0.074926,-0.101361,0.0396,1.826947,-0.326187,0.295485,0.183946,0.06265,0.114045,0.031858,-0.242938,0.207149,0.106173,-0.11066,-0.280098,-0.051491,-0.433217,-0.226695,0.027738,0.092933,-0.1876,0.182916,0.144737,-0.142106,-0.129573,0.08657,-0.012617,-0.151865,1.151846,0.060139,0.127877,0.234207,-0.158007,0.186602,-0.136638,-0.129765,-0.054941,0.015543,-0.112706,0.09645,-0.053563,-0.044416,-0.562642,-1.315499,-0.243151,-0.13962,-0.161446,0.104004,0.003091,0.117197,-0.885633,0.554956,-0.051846,-1.105239,0.100933,-0.095551,0.029254,0.349386,-0.109372,0.075188,0.227477,0.063927,0.28504,-0.058369,-0.403846,-0.038958,-0.510398,-0.604539,0.770691,0.107158,0.31717,-0.074483,-0.173119,-0.025954,0.064769,1.230889,-0.339529,0.412797,-1.811991,-0.121378,0.289525,-0.405359,0.19718,0.17515,0.28692,0.231691,-0.014752,-0.02275,-0.105704,-0.265899,-0.217902,-0.386002,0.083702,0.13249,0.093141,-0.03056,0.17825,0.103621,-0.504764,-0.404394,0.335672,0.268436,-0.000639,0.669116,-0.080847,-0.204047,0.342858,-0.12298,-0.203814,-0.217569,0.12296,-0.111053,0.013653,-0.194864,0.162433,0.09094,0.323292,0.062002,0.339957,0.156058,0.063676,0.089445,-0.049776,-0.509265,-0.502128,-0.080077,-0.207153,0.032536,-1.4079,0.177718,-0.03046,-0.290881,0.211169,0.19834,0.034571,0.049416,-0.172804,0.005941,0.013168,0.385945,-0.082975,0.158266,-0.008579,-0.222275,-0.206812,0.197916,-0.02927,0.231103,-0.043371,-0.175166,-0.025217,-0.144385,-0.158708,2.164618,-0.15747,0.182607,0.377944,0.124253,-0.066349,-0.068049,-0.164687,-0.083133,0.03624,0.152037,0.138786,0.106314,0.192529,0.401931,0.055404,-0.086145,-0.014186,0.189051,0.105665,-0.154306,0.052423,-0.304513,-0.021616,0.088318,1.000915,0.037486,-0.188697,0.12864,-0.083307,-0.055027,-0.107925,-0.142534,0.231166,-0.219587,0.144979,0.16515,-0.1709,-0.373317,-0.185727,-0.16435,0.12233,-0.129246,-0.081677,-0.207157,-0.244448,0.032653,0.460499,0.111596,0.041278,1.401005,-0.155038,0.180874,0.301511,-0.11504,-0.233976,0.096513,0.032523,-0.245342,-0.154051,-0.12252,-0.156136,-0.247486,-0.211621,-0.198886,-0.259398,0.219848,-0.030963,0.112448,-0.161797,0.194207,0.156194,-0.0995,-0.139015,-0.132808,1.004388,0.010475,0.16765,-0.12379,-0.074849,-0.009475,0.167349,-0.189949,-0.159597,0.103104,-0.041967,-0.365949,0.182513,-0.249094,-0.279526,-0.6024,-0.259403,-0.03377,-0.077504,0.001693,0.348387,0.322587,0.056398,0.237907,-0.105133,1.021885,-0.022684,-0.044951,0.848881,-0.053621,-0.06901,0.078411,-0.141664,-0.117535,0.161282,0.138582,-0.269728,0.083345,-0.297217,-0.112272,-0.050616,0.197974,-0.281982,0.119756,-0.110228,-0.441338,-0.361298,-0.114419,0.17157,-0.094858,1.458818,0.101338,-0.237005,0.030247,-0.34469,0.092035,-0.03068,-0.071051,0.171883,-0.150104],"bias":[0.177367,-0.108849,-0.145674,-0.092328,-0.107016,-0.086478,-0.15329,0.21918,0.153113,0.106299,0.017593,-0.115776,-0.059353,-0.007252,0.166707,-0.014692,0.011507,-0.050776,-0.1761,0.138076,-0.054375,0.00059,-0.00451,-0.080754,-0.161497,0.144808,-0.177223,-0.237184,-0.001186,0.182342,-0.104987,0.212538,0.108216,-0.199033,-0.027637,0.236038,0.130653,-0.128877,-0.153653,0.120202,-0.062262,-0.158817,0.169274,-0.248106,-0.057996,-0.059577,0.01024,-0.111441,0.06519,0.02049,-0.114811,-0.145959,-0.03387,0.123238,-0.146417,-0.165742,0.070077,0.274044,-0.217663,0.104377,-0.140871,-0.086097,0.182544,0.073413,-0.059525,-0.117798,-0.074416,-0.089436,-0.118422,-0.095411,0.167731,-0.056721,-0.114311,0.020332,-0.143206,0.027855,-0.279374,-0.012268,0.19996,-0.08832,0.042411,-0.068655,0.047727,0.011229,0.067472,-0.179788,-0.070639,-0.106061,0.017475,-0.020281,0.153903,0.049955,0.213523,0.079878,0.014426,0.058262]},{"inputSize":96,"outputSize":96,"activation":"tanh","weights":[-0.004297,0.008901,-0.147925,-0.181246,0.004988,-0.03594,0.079621,0.007517,0.086931,-0.012049,-0.171595,0.059623,-0.188989,-0.090675,0.06558,-0.221436,-0.030665,0.083647,-0.106871,0.022397,0.021892,0.101864,-0.211356,-0.135046,0.147223,0.132988,0.125813,-0.05217,-0.082027,0.101016,-0.160401,-0.074168,0.118241,-0.143263,-0.115813,0.077441,-0.1355,-0.073309,-0.154458,0.012476,0.170131,0.034984,0.030286,-0.142005,0.015398,0.068912,-0.147648,0.092671,0.021019,0.069191,-0.073437,0.00443,-0.135745,-0.081331,-0.053232,-0.06198,0.001504,-0.016812,-0.037652,0.117975,0.026853,0.153658,0.022807,-0.250985,-0.010499,0.057193,0.106542,0.096,0.00664,0.097511,0.115545,0.092022,-0.035626,-0.094448,-0.104512,-0.089375,-0.045405,-0.093617,-0.063348,-0.102795,0.108526,-0.235003,0.00424,-0.007989,-0.05687,0.097297,0.063551,0.010612,0.075958,0.064793,-0.02612,0.13211,0.036362,-0.059535,-0.00334,0.106588,-0.071007,-0.018823,0.131265,0.034111,-0.103908,0.007039,0.046461,-0.009602,-0.11886,-0.027298,0.152041,0.011582,-0.008255,-0.06808,-0.062548,0.148888,-0.062398,0.001559,0.000987,-0.097376,-0.129052,0.033751,0.06918,0.111239,0.071546,-0.114216,-0.138426,0.071162,0.040012,-0.09833,0.051186,-0.039493,0.053467,0.074926,0.124293,-0.17,0.069727,0.087754,0.112508,-0.040746,-0.112148,-0.022146,-0.130802,0.07073,-0.076208,0.171856,-0.022169,-0.010136,-0.102239,-0.041199,-0.087577,0.042461,-0.031008,0.039378,0.164294,0.045947,0.05596,-0.057648,0.246793,-0.164157,0.066615,-0.140427,0.054528,0.26781,0.086355,0.082815,-0.063798,0.163835,-0.071707,-0.101549,0.015836,-0.051159,0.103231,-0.028323,0.002433,0.129727,0.147506,-0.030309,0.100621,0.015511,-0.025847,-0.014944,0.024933,-0.021317,-0.087818,0.008154,-0.002999,-0.119213,0.063854,0.014221,-0.000211,-0.020037,0.039047,-0.087701,0.040382,-0.130327,0.050998,-0.016453,0.165275,-0.033151,-0.130807,0.094725,0.089437,-0.082943,0.269199,-0.242949,-0.151946,-0.063922,-0.108266,0.101317,0.06104,-0.249082,-0.250677,0.34507,-0.241243,-0.255912,-0.00217,0.032882,-0.496042,-0.142759,0.034359,0.005981,0.025007,-0.040432,-0.256343,-0.05518,-0.264888,-0.051134,0.121796,-0.133048,-0.25238,0.030454,-0.144684,-0.037037,-0.030514,0.196662,0.268902,0.205598,0.187172,0.54229,-0.086533,-0.179061,-0.145005,0.149668,-0.0633,0.254137,0.317925,0.05657,-0.190568,0.152789,-0.129433,-0.270795,-0.042338,-0.333292,-0.245252,-0.141928,0.00673,0.283827,0.091622,-0.423574,0.072815,-0.113,0.119764,0.100351,0.146828,0.355243,0.233446,0.028466,-0.108443,0.021861,-0.281969,0.015378,0.118794,0.012582,-0.506197,-0.54335,0.184668,-0.040588,-0.044419,-0.085004,-0.042589,0.077932,0.303335,0.148307,0.098962,0.05353,-0.139292,-0.233446,0.160025,-0.069825,0.023571,0.035131,-0.17965,0.196696,-0.401791,0.049434,-0.009989,-0.287355,0.27197,0.028307,-0.626276,0.005316,0.117261,-0.055669,0.082061,-0.291918,-0.018194,0.136443,0.226917,-0.11462,0.074229,-0.508631,0.33611,-0.089886,0.301825,0.095275,0.046386,-0.233623,-0.003404,0.136398,0.045244,-0.309538,0.251674,-0.098667,-0.15689,0.050502,0.035758,-0.3451,0.017204,-0.070908,0.03983,-0.005169,-0.20586,0.036713,-0.06458,-0.289345,-0.090913,0.270338,-0.056277,-0.017855,0.083593,-0.167356,0.057402,-0.038304,0.131161,0.064579,0.296499,0.295992,-0.138083,-0.137321,0.190291,-0.361333,0.0114,-0.158866,-0.100321,-0.163624,0.078555,0.062864,0.110026,-0.360487,-0.094027,0.110911,-0.056149,0.232995,0.128603,0.227288,-0.115139,-0.016602,0.122995,0.139169,-0.448596,0.496782,-0.073851,-0.007459,-0.199447,0.276196,-0.013364,-0.077444,-0.115436,0.156861,-0.041601,-0.086852,-0.081271,-0.109239,0.081676,-0.157183,-0.162864,-0.088598,0.22002,-0.158091,-0.028862,0.030388,0.035048,0.169708,-0.041069,0.082969,0.081492,-0.004544,-0.074061,-0.207267,-0.066098,0.123505,-0.066544,0.110878,-0.041865,0.072553,-0.147134,-0.009997,0.127985,0.043183,-0.158415,-0.020185,-0.158825,0.267793,-0.13223,-0.144985,-0.045088,0.038133,-0.139229,0.124008,-0.125133,-0.079245,-0.055323,0.091508,-0.012708,-0.116706,-0.055547,-0.115595,0.078857,-0.001717,0.250407,0.211294,0.005221,0.081608,0.181663,0.152422,-0.068555,0.037351,0.011461,0.061632,0.128268,0.111185,-0.165164,-0.220974,0.051839,-0.082431,-0.319682,0.201269,0.153705,-0.066001,0.22479,-0.182331,-0.159043,-0.046625,-0.213651,-0.016657,0.131268,-0.116214,0.039256,0.016732,-0.151525,-0.056548,-0.214203,0.057193,-0.160658,0.193896,-0.07323,0.108509,-0.062729,0.132248,0.155954,-0.208645,0.081954,0.018123,0.117591,0.045575,0.014186,-0.101239,0.134832,-0.100101,0.082034,0.027349,-0.041708,-0.036451,-0.079877,0.053225,0.205169,0.066388,0.171549,-0.133433,-0.069098,-0.075441,0.012699,0.162,-0.039672,0.071876,0.012218,0.069551,0.106629,0.119271,-0.080948,0.010932,0.077363,0.118952,0.040664,-0.100887,0.090368,0.103004,0.014594,-0.022469,0.02953,0.073811,0.113829,0.007578,-0.033578,-0.027571,-0.07586,0.020972,0.047672,-0.080596,0.122574,0.182114,0.074418,-0.021951,-0.092455,0.038742,-0.105678,-0.084461,-0.096992,0.13384,0.033541,-0.031796,0.007573,-0.069984,0.074633,-0.125441,0.053588,0.160166,0.139039,0.04259,0.000829,0.012552,0.145278,0.049122,0.064375,-0.088941,-0.165432,0.118035,0.208548,0.136774,0.01815,-0.087244,-0.031505,0.017728,-0.106318,-0.041304,0.001489,0.142439,0.08114,-0.072629,-0.058666,-0.113639,0.146801,-0.00754,0.075158,0.055821,0.067298,0.049567,-0.043221,0.018863,0.05867,-0.060313,-0.172025,-0.020028,-0.108801,-0.07515,-0.020393,0.099142,0.126004,-0.126472,0.18852,-0.316775,-0.091391,0.23856,-0.131294,0.004572,-0.305692,0.071936,-0.029046,-0.143661,-0.134087,-0.144704,0.211634,0.103877,-0.080186,0.118049,-0.016834,0.091989,-0.221481,0.038305,-0.077054,0.009309,-0.161321,0.12285,-0.026563,0.059837,0.103869,0.010313,-0.13163,-0.113464,-0.000135,0.014989,-0.042891,0.173288,-0.059418,0.201759,0.158995,-0.13422,0.110112,-0.102205,0.128123,0.083673,0.148992,-0.115713,0.189897,0.048511,0.10347,0.156778,-0.156636,-0.101448,0.159176,0.096693,0.177927,-0.053433,-0.3459,-0.140569,-0.139092,0.000575,0.025752,0.137279,0.096192,-0.102906,0.075404,0.138482,-0.111668,-0.124756,-0.133535,0.037708,0.163216,0.025009,0.253436,0.090064,-0.16414,-0.005974,-0.120321,0.100516,-0.151396,0.068612,0.015959,0.07386,-0.174364,0.081773,0.080669,-0.024674,0.143337,0.119382,-0.017602,0.058606,0.04286,-0.22107,0.077,-0.20003,0.111664,0.153862,-0.100204,-0.003776,0.020513,-0.120729,0.051548,0.06244,-0.060835,-0.116138,-0.129229,-0.010887,0.063032,-0.232011,-0.173961,-0.071427,0.017555,0.129722,0.097315,0.112963,-0.126749,0.255732,-0.109421,0.063054,-0.17735,-0.083157,-0.312209,0.025529,-0.070696,0.143014,0.105585,-0.177296,-0.208398,0.081734,-0.103274,0.039445,0.024551,0.007097,-0.071177,0.063,0.020199,0.124018,0.203108,-0.123423,0.230309,0.220402,0.20734,-0.017008,-0.064858,-0.101635,0.06453,-0.05177,-0.009118,-0.016125,0.27091,-0.022122,0.046687,0.046994,-0.237225,-0.128071,0.026869,0.093274,-0.048346,0.143138,0.03751,0.203624,0.08546,0.071727,0.209719,0.071053,0.081591,-0.019933,0.073734,0.033656,0.037153,0.091171,-0.20622,-0.056232,-0.001996,0.161962,-0.246254,0.028393,0.181065,-0.039259,-0.104323,0.030819,-0.086737,-0.118807,0.009425,-0.008092,0.184424,0.13716,0.005648,-0.006501,0.078552,-0.139143,0.011664,0.127279,0.199213,-0.065589,0.167648,-0.191809,-0.012907,0.182631,0.027365,0.04522,-0.089957,0.062871,-0.028238,-0.281584,-0.118312,-0.118106,0.170137,0.137597,-0.04499,0.379429,-0.034766,0.107842,-0.113654,0.086073,-0.208452,-0.094686,-0.157843,0.273411,-0.083832,0.101776,-0.060444,-0.157655,-0.064436,-0.167254,-0.193612,0.099488,0.066593,0.14411,0.008104,-0.03657,0.242395,0.03168,0.367863,-0.233252,0.149698,0.120088,0.197792,-0.223815,-0.002721,0.26102,0.190324,0.076132,-0.16087,-0.045597,0.164025,0.144086,0.286389,0.065903,-0.216612,-0.112419,-0.096864,0.241801,0.122874,0.165838,0.042336,0.068005,-0.019931,0.288514,0.004885,0.032807,-0.037069,-0.115509,0.145521,-0.156014,0.006548,-0.025609,-0.058372,-0.058306,-0.052333,0.211119,-0.016148,0.130525,0.119626,-0.006055,-0.146417,0.112298,0.110734,-0.023271,0.249699,0.144498,0.099525,0.057682,0.000461,-0.216558,0.194929,-0.205492,0.166742,0.044694,0.188489,-0.049219,0.07389,-0.191551,0.017975,0.018924,-0.193755,0.307243,-0.16163,0.124659,0.375194,-0.02775,0.061566,0.014045,-0.055704,0.149757,-0.251409,-0.11498,0.037999,0.091989,-0.097926,-0.0115,-0.084204,0.25269,-0.094579,0.017322,-0.050269,0.072792,-0.244986,0.058395,-0.049163,0.168249,0.065756,0.128069,-0.045487,-0.057998,-0.062673,0.256335,-0.142606,-0.104973,-0.062707,-0.04065,0.196506,-0.216268,0.201969,-0.0068,0.12397,-0.158281,-0.064502,0.174088,-0.094359,-0.101966,0.165745,0.212052,-0.169017,-0.160933,-0.171871,-0.265157,-0.114696,-0.059818,-0.296598,0.284857,0.262733,-0.075789,0.34394,0.011594,-0.161152,-0.123638,-0.271211,0.267615,0.013169,-0.212101,-0.041854,0.034904,0.018193,-0.31542,-0.07446,-0.058553,-0.182091,0.057416,0.097731,-0.194743,-0.105074,-0.051494,0.152228,-0.026044,0.039276,0.163142,-0.045085,-0.036154,0.255032,0.202709,0.108984,0.154293,-0.009013,0.032561,-0.072351,0.13459,-0.108902,0.304479,0.065695,-0.00626,0.256097,-0.150882,0.117572,-0.081224,-0.167536,0.005404,-0.000401,-0.07003,0.084786,0.02123,0.100542,0.119478,0.100998,0.004001,0.098282,-0.193308,0.080821,-0.127985,0.272793,0.018929,0.107142,-0.128017,0.066512,0.053967,-0.053307,-0.048359,0.103393,0.068274,0.036153,-0.093389,0.016952,-0.110125,-0.038622,0.190551,-0.103495,-0.111762,-0.200516,0.000531,-0.098549,-0.111896,0.054473,0.176886,0.035416,-0.122588,-0.062512,0.080387,-0.173723,-0.071872,0.05716,0.065664,0.189946,0.255749,-0.079942,0.045187,0.101922,-0.34017,0.124404,0.090018,0.007817,-0.028477,0.003256,0.058015,0.137318,-0.092537,-0.072978,0.061967,-0.082616,-0.034397,0.09398,0.01833,-0.042032,-0.080832,0.194314,-0.016828,0.102955,-0.066263,0.043527,-0.000194,-0.03666,-0.044065,-0.163575,-0.203428,-0.096825,0.012758,-0.057048,-0.033044,-0.055695,0.119835,0.041674,-0.079715,-0.029864,-0.089096,0.145003,-0.270351,1.006966,-0.355763,0.026553,0.488406,-0.397517,-0.444809,-0.045164,0.006554,0.32255,-0.25913,0.13914,0.462237,-0.621095,-0.141902,-0.510183,-0.108978,-0.264929,0.204251,-0.363864,0.494146,0.424533,-0.187767,-0.140568,-0.275077,-0.178565,0.333565,-0.079557,-0.707785,0.623455,0.451432,-0.55092,0.26779,-0.506615,0.496408,-0.277846,-0.290147,-0.026458,0.252121,0.12263,-0.527548,-0.05087,0.70042,0.200057,0.574003,-0.261796,0.247099,0.27948,-0.493682,-0.390645,0.280091,-0.552365,-0.523668,0.084409,-0.054003,-0.268803,-0.584682,-0.381891,-0.412511,0.676935,-0.370219,0.579355,0.669476,0.101252,-0.454784,-0.398227,0.341507,-0.001975,-0.486549,0.089202,-0.805718,0.275356,-0.394148,-0.084227,0.103746,0.205127,0.178407,0.349731,-0.334199,-0.214164,-0.122309,0.478048,-0.094369,-0.095785,0.075248,-0.03392,-0.803071,0.249076,0.024151,0.189059,0.176115,-0.004133,0.020218,0.517079,-0.033396,0.012132,-0.138224,0.17117,-0.108435,0.005194,0.034136,-0.190667,0.036088,0.360213,-0.070543,-0.14709,0.100132,-0.078815,-0.000493,-0.100294,-0.16682,-0.188443,-0.039449,-0.18771,0.216012,-0.181993,-0.00983,-0.178136,-0.189007,-0.033312,0.24997,0.003118,0.003971,-0.077843,0.215057,-0.150709,0.068069,0.010031,-0.166018,-0.022275,0.163823,-0.089149,0.04792,-0.041429,0.004292,0.074555,0.036784,0.100007,0.06589,-0.049439,-0.067816,0.025949,-0.050898,-0.104746,0.132713,0.031314,0.058612,-0.086021,0.037579,-0.180731,-0.229535,-0.061753,0.086339,-0.149846,0.233784,-0.079796,0.148186,0.230457,-0.007507,0.068989,-0.060015,-0.05338,0.144911,0.080569,-0.077072,0.018291,-0.151631,-0.292241,-0.214385,0.013436,0.044975,-0.209677,-0.007618,0.289667,-0.207044,-0.001866,0.029927,0.017238,-0.146649,0.074453,0.056569,0.026824,-0.107427,-0.019555,0.222909,0.130889,0.074076,0.015891,0.107151,-0.000687,0.081595,-0.157598,0.100543,0.128368,-0.023524,0.072387,-0.182915,-0.029416,-0.132428,-0.04409,0.025511,-0.043697,0.068469,-0.024825,0.009862,0.055151,0.108058,-0.006692,-0.074028,0.072434,-0.0063,0.027917,0.001685,0.157996,-0.05426,-0.01358,-0.079336,0.071321,0.133676,0.097681,0.009009,-0.035306,-0.079159,0.065362,-0.035963,0.201299,-0.147315,0.044751,0.102693,-0.05443,-0.003389,-0.041836,-0.071862,-0.19879,-0.109724,-0.084045,0.053128,0.027569,-0.115191,0.033888,-0.139441,0.029727,-0.188083,-0.039044,0.06763,0.231172,0.175623,-0.025241,-0.075909,0.263386,-0.038756,-0.054746,0.022264,-0.166206,0.181004,0.133894,0.142491,0.063252,0.122737,0.057845,-0.086449,-0.237856,-0.019929,0.125744,0.178945,0.12485,-0.085613,0.134832,-0.003873,0.115785,0.009061,-0.016784,0.095585,-0.067437,0.013285,0.063714,-0.026989,-0.059569,-0.02944,-0.211111,0.088113,0.027173,0.080546,-0.000558,-0.00325,-0.003801,-0.093416,-0.188372,0.219372,0.378936,-0.079079,-0.137815,-0.278492,0.231517,-0.212833,0.054068,-0.134924,-0.200979,0.088046,-0.04574,0.022005,0.230183,-0.28375,0.085556,0.207735,-0.047513,-0.435785,-0.052117,-0.064255,-0.047576,-0.245312,0.35424,-0.05473,-0.021892,-0.187667,-0.178515,-0.062502,0.030051,-0.264012,0.12135,-0.119086,-0.094804,-0.24749,-0.322282,0.066851,0.032452,0.098429,0.017671,0.090308,-0.092709,0.343206,-0.321673,-0.050307,-0.467675,-0.120357,-0.140984,0.321391,0.228166,-0.124342,0.049963,-0.039711,0.00094,0.066931,0.009637,-0.17608,-0.011071,-0.218671,0.004569,0.433261,-0.120177,-0.313034,0.318926,0.120646,0.228185,-0.19448,0.103841,0.033792,0.15313,0.064973,-0.251749,-0.039302,0.022578,-0.037583,0.083011,-0.099342,-0.161989,-0.34025,0.129205,-0.095147,-0.17204,-0.088863,-0.273567,-0.072143,0.072295,0.263662,-0.027691,0.351172,-0.168707,-0.121761,-0.083254,-0.14309,-0.131781,0.061037,0.05427,-0.098945,0.026275,-0.224138,0.069563,-0.023457,0.115451,0.010268,-0.003045,-0.189409,-0.624508,-0.033179,-0.04328,0.175688,0.286817,-0.212281,-0.146255,0.323735,-0.160093,-0.290899,-0.106053,-0.016154,-0.449295,-0.178112,0.101625,0.037055,0.250025,-0.230196,-0.267676,-0.013183,-0.504863,0.016458,0.182198,0.014537,-0.017458,0.011886,0.129988,-0.042999,0.062352,0.206285,0.030741,0.334427,0.167998,0.36969,-0.40732,-0.007305,-0.31811,0.026096,-0.159211,0.209574,0.336198,-0.052629,-0.058561,0.283211,-0.137028,-0.239272,-0.149558,-0.080135,-0.003633,0.188101,-0.207614,0.261596,-0.274069,-0.192255,0.555513,-0.00971,0.192425,-0.134316,-0.064383,0.200077,0.072573,0.1915,-0.330145,0.015896,-0.178093,-0.026637,-0.062808,-0.161833,-0.326175,-0.594367,0.33668,-0.057588,-0.083328,-0.222545,-0.017443,-0.012867,0.262963,0.325295,0.017838,0.03299,-0.132325,-0.058563,-0.077185,0.091634,0.534338,0.014811,-0.107876,0.071033,-0.139998,0.262099,0.1365,-0.043692,-0.105044,0.140057,-0.196338,0.225124,0.298548,0.175512,0.02159,-0.205638,-0.120308,0.359581,0.347925,-0.311518,0.224123,0.147686,0.076394,-0.030981,0.70319,0.226069,-0.116169,-0.113878,-0.06695,-0.222431,0.202474,0.128318,0.387417,0.039389,-0.154575,0.221141,0.227763,-0.107328,0.160845,0.191266,-0.053086,-0.204675,-0.202876,-0.061071,-0.257724,-0.648293,0.222907,0.159436,0.309539,-0.030855,-0.055211,-0.229262,-0.418655,-0.153841,0.218914,-0.019794,0.14332,0.352802,0.046497,0.587546,0.113269,0.118428,0.005934,-0.352258,0.02644,0.387775,-0.106575,0.0206,0.055151,-0.288408,-0.044439,-0.411306,-0.127955,0.011748,0.086881,0.054845,0.335608,0.004139,-0.021973,-0.046192,0.546628,0.448605,-0.249679,0.19393,0.055107,0.244402,-0.018348,0.020552,-0.251682,-0.248394,-0.152021,-0.259329,0.108652,0.081746,-0.113735,0.01399,-0.090326,-0.162087,-0.020525,-0.127346,-0.314043,-0.087237,0.140912,-0.012577,0.039681,0.159269,0.184099,-0.22038,-0.257566,-0.024338,-0.113267,-0.005473,0.221645,-0.141572,0.014042,0.205636,-0.011564,-0.130344,-0.017607,-0.005984,-0.169993,-0.127353,0.047024,0.18668,0.042947,-0.136501,-0.198942,0.147095,-0.236609,0.034514,0.083596,-0.052466,-0.108088,-0.045509,0.227496,-0.030613,-0.132235,-0.06813,0.067733,0.27185,0.125534,0.018386,-0.169676,0.087876,-0.122735,-0.066608,-0.096005,0.287708,-0.007683,0.126797,0.146359,0.323117,-0.153415,-0.144998,-0.101342,0.025778,-0.184465,0.190756,-0.070299,0.220522,-0.10421,-0.292094,0.179981,0.004081,0.067871,-0.349599,-0.025123,0.052894,0.164964,0.300001,-0.04472,0.005603,-0.258123,-0.096107,-0.08649,0.011685,-0.181483,0.024837,0.227605,-0.002038,-0.046255,-0.053226,0.011725,0.000819,0.18429,-0.089559,0.010459,-0.210272,0.049751,0.075351,0.109944,-0.050557,0.147911,0.035924,0.101372,-0.13679,0.04823,0.002467,-0.074665,0.232284,-0.03505,0.217861,0.163492,-0.052658,0.062344,-0.04087,0.008836,-0.043834,-0.195491,-0.020965,0.021762,0.048864,-0.127314,0.171777,0.035458,0.270187,-0.015835,0.023421,-0.048479,0.133283,-0.090233,-0.022084,0.027648,0.203798,-0.036521,0.032576,-0.045911,0.023143,-0.141321,0.381121,-0.090638,-0.144522,0.090089,0.009523,0.147917,-0.084927,0.182752,0.036336,0.257443,-0.149303,-0.007382,0.161227,0.009786,-0.034173,-0.082566,0.044476,-0.086046,-0.044516,-0.11211,-0.156907,0.118044,0.012375,-0.226352,0.168055,0.150909,-0.131976,0.032534,-0.031641,-0.109444,-0.113967,-0.219047,0.067352,-0.090103,-0.061341,-0.000339,-0.002944,0.060461,-0.295052,0.042127,-0.088681,-0.079181,0.15144,-0.080138,-0.058555,0.009086,-0.11052,0.11421,-0.071304,0.026219,0.057195,-0.081214,-0.192203,0.185855,0.119874,0.041158,0.060655,-0.073393,0.064496,-0.216122,0.00058,0.040593,-0.237659,0.265386,-0.055513,-0.103585,0.174181,-0.155852,0.035379,0.240122,-0.217061,-0.023596,-0.104587,-0.01977,0.260619,-0.032996,-0.108505,-0.190011,0.102664,-0.186813,0.183084,-0.185869,0.074994,-0.316777,-0.070562,-0.006374,0.381912,-0.031202,-0.096321,-0.268959,0.115447,-0.091332,-0.020139,0.007687,-0.112161,0.002701,0.120144,0.062506,-0.064312,0.119312,-0.038078,0.206381,0.20635,0.172445,0.261249,-0.044867,-0.093689,0.046567,0.059558,-0.154918,0.005769,0.099379,0.019246,0.021397,0.113246,-0.232828,-0.284448,-0.017155,-0.115732,-0.092081,0.409108,-0.066901,0.03512,0.204797,-0.053801,0.106655,-0.125283,-0.167514,0.287911,0.09506,0.034834,0.067608,-0.131991,-0.14003,-0.180701,-0.067966,0.101647,-0.310664,0.048142,0.106264,-0.076435,-0.027075,0.132576,0.00368,-0.298512,0.160061,0.151489,0.136452,0.079216,0.208916,0.033409,0.210487,-0.158436,-0.00158,0.171913,0.069831,0.227788,-0.003064,0.137156,-0.048141,0.01006,0.169966,-0.053407,0.12744,-0.071576,-0.06659,0.156161,0.050836,0.018161,-0.061055,-0.048557,0.004019,-0.009176,0.152722,-0.032947,0.069891,-0.087512,-0.107817,-0.149206,0.318927,0.016819,0.118546,-0.127407,-0.014375,0.010563,0.081369,-0.08382,0.202264,-0.04287,-0.040552,0.043212,0.079031,-0.211741,-0.104572,0.118726,0.057826,0.085351,-0.020137,-0.042557,-0.196109,-0.156988,-0.147628,0.081647,0.010173,0.003504,0.17659,-0.081909,-0.143981,-0.086223,-0.103497,-0.033923,0.317776,0.177527,-0.11342,-0.059569,0.173973,-0.130943,-0.045146,0.036916,-0.107597,0.183498,0.005349,0.155461,0.071105,-0.058815,-0.17484,-0.07297,-0.001427,-0.097187,0.204315,-0.044819,0.059652,0.013695,0.135935,0.021466,0.025515,0.007683,-0.015312,-0.13801,0.070403,0.199746,-0.151242,0.021484,-0.195159,0.034557,-0.056643,0.046168,-0.116177,0.033239,-0.083216,-0.149116,0.109328,-0.124495,0.132264,-0.292565,-4.092747,0.475569,0.541165,-0.060787,-0.138457,1.95782,-0.198705,0.070002,0.404383,0.019055,-0.226408,-0.759916,-0.175699,0.21112,4.285968,-0.149064,-0.088383,-1.418155,0.541743,0.062591,-0.224688,-0.140461,-0.546664,-0.2848,-0.860483,-1.777052,-0.00989,0.426378,0.114714,0.40875,0.941688,-0.960648,0.030337,0.155735,0.688862,-0.718994,-0.243905,0.328913,0.057733,-0.566917,0.037634,-2.834086,-1.083823,-0.069234,0.348487,-0.041386,-0.122671,-0.177379,0.144693,-0.02776,-0.311426,-0.814681,-0.167944,-0.011973,-0.56811,2.378658,-0.460273,0.59877,0.038417,0.077945,0.218136,-0.639473,-1.441592,0.086905,-0.160643,-0.649012,-2.490744,-0.588847,-0.594493,1.627861,-0.260117,-0.255809,-0.423654,-0.167644,-0.12332,0.321082,0.605585,0.410799,0.667425,-0.95738,0.147574,0.316916,-0.143522,-0.186821,-1.752934,0.816501,0.134925,0.449844,-0.170142,0.092193,0.104752,-0.029047,-1.780012,-0.075978,-0.190094,0.309044,0.080871,-0.091065,0.013285,-0.248546,0.142267,-0.103912,-0.199088,0.021233,-0.113929,0.175932,0.047644,-0.113581,-0.062343,0.054258,-0.098653,-0.051566,0.122022,0.110876,-0.02021,-0.085244,0.094408,-0.028396,0.174092,0.034908,0.050827,0.284651,0.044031,0.112009,0.04641,-0.074879,-0.058798,0.003027,0.071063,-0.119724,-0.138267,0.168031,0.060384,0.032501,-0.18801,0.116273,-0.205743,0.010399,-0.009913,-0.259054,-0.157518,-0.027683,-0.006945,0.031307,0.12342,-0.207908,0.037165,-0.058378,0.064169,0.223159,0.175884,-0.146214,0.271986,-0.180894,-0.036203,-0.016505,-0.252086,0.091994,0.18818,0.106519,0.108867,0.026792,-0.040847,0.112953,0.03071,-0.030993,0.055589,0.287188,0.221958,-0.092974,0.153377,-0.074767,-0.096693,0.059508,-0.009371,0.098904,-0.211112,0.072353,0.042495,-0.028975,0.072885,-0.034707,-0.239506,0.096907,-0.13468,0.043069,-0.154417,-0.079282,-0.012199,-0.163722,-0.061072,-0.092502,-1.043419,0.246002,-0.021046,-0.000784,0.059374,0.697443,-0.327484,0.117253,0.454156,0.045404,0.19121,-0.481189,-0.228486,0.085047,1.576413,-0.027198,0.107783,-0.479405,-0.016878,-0.088898,0.064405,0.242204,0.008025,-0.213455,-0.467549,-0.606538,-0.146281,-0.229712,0.190725,0.116816,0.40247,-0.291916,-0.025739,-0.104255,0.298917,-0.431701,0.004174,-0.079343,-0.114043,-0.30688,-0.031326,-1.395094,-0.365111,-0.144932,0.135364,-0.087615,-0.275321,-0.368638,0.261926,-0.087734,-0.165043,-1.080225,0.267174,0.078476,-0.234961,1.181247,-0.044729,-0.08971,0.04476,0.212162,0.175082,0.20891,-0.644205,0.075777,-0.04664,-0.188846,-1.022818,-0.526512,-0.431372,0.528786,-0.264003,-0.04516,-0.07072,0.007861,0.061268,0.080126,0.507513,-0.123338,-0.016335,-0.634505,0.177969,0.274486,-0.047776,-0.074168,-0.995931,0.828612,0.027009,0.306609,-0.056056,-0.096868,0.04167,-0.261422,-0.668186,-0.144066,0.007097,-0.10728,0.056512,-0.113412,0.033195,-0.050144,0.057838,-0.012139,0.205624,0.008975,-0.044215,0.05098,-0.154067,0.069299,-0.010965,-0.205078,-0.067043,0.011529,-0.134367,-0.033523,0.121284,-0.079505,-0.126139,-0.015082,0.059413,-0.075808,-0.074883,-0.12199,-0.127056,0.052937,-0.005032,-0.008625,0.036267,-0.167117,0.015752,-0.002477,-0.129129,0.066325,-0.158461,0.155132,0.143383,-0.108461,0.143306,-0.015344,-0.092021,-0.055289,-0.009447,0.08093,-0.10659,0.190667,-0.058118,0.006122,-0.150219,-0.020861,-0.010582,-0.092755,0.067323,0.021657,-0.283194,-0.079095,-0.008354,0.188956,0.155705,-0.323693,-0.280536,-0.081335,0.043626,-0.0132,-0.045493,-0.043717,-0.008802,-0.08714,-0.054599,-0.101726,-0.138323,-0.081377,-0.107913,0.004249,0.149412,-0.105629,0.038272,-0.024674,-0.0368,0.02602,-0.111726,-0.06571,0.004566,0.069197,-0.088506,0.176129,0.072062,0.117545,0.062132,-0.119231,-0.155027,-0.066302,0.190615,-0.228867,-0.191503,0.033163,-0.020738,0.370305,-0.15415,0.140152,0.178086,0.046713,0.1328,-0.144054,-0.004172,0.22016,-0.124983,-0.11746,-0.007999,0.067055,-0.085187,-0.024868,0.138248,0.251757,0.050957,-0.041464,-0.378733,0.051002,-0.037974,-0.244034,-0.007497,0.096336,0.102781,0.326972,-0.123502,0.002869,-0.222475,0.365828,0.091722,-0.108996,-0.084331,0.08081,0.073856,-0.106289,0.164173,-0.027474,0.224785,0.056452,0.115657,0.066447,0.208488,-0.038346,-0.455087,0.183741,-0.119587,-0.140035,-0.067665,-0.168313,0.048009,0.188392,-0.388361,0.040126,0.275156,-0.261558,0.25447,-0.08454,-0.26709,-0.285498,-0.208806,0.13114,0.022321,-0.225081,0.048855,-0.104589,0.2118,-0.164285,-0.150345,-0.033158,0.013953,0.100627,-0.005914,-0.104639,0.048775,0.042346,0.365459,-0.136326,0.18177,0.02476,-0.038155,-0.480782,-0.011008,-0.183625,0.170344,0.195522,-0.007967,0.085239,-0.034794,0.026999,0.194162,-0.210511,0.054333,0.198827,0.066691,0.078426,-0.356982,0.042976,0.011273,-0.293247,-0.148568,-0.173789,0.318338,0.184645,-0.001608,0.391957,0.221,0.214072,-0.180452,0.05949,-0.166439,-0.026435,-0.080155,0.308069,-0.074479,-0.034272,0.008797,-0.170362,-0.201831,-0.1186,-0.203457,0.215667,-0.122325,0.052079,-0.077011,-0.051988,0.115505,0.081168,0.366557,-0.226032,0.175156,0.075722,0.138956,-0.007405,0.007982,0.022855,0.249918,0.136773,-0.207601,-0.135427,0.135396,0.086004,0.353503,0.212329,-0.154657,-0.062699,-0.307878,0.217678,0.002567,-0.043923,0.081948,-0.025016,-0.015681,0.341297,0.10043,0.017591,0.040277,-0.149666,0.040348,-0.100504,-0.066365,-0.012515,-0.185283,0.000241,-0.049502,0.207583,-0.092926,-0.043066,0.144853,0.02764,-0.008182,0.116051,0.142338,-0.179089,0.21926,0.098353,0.16793,0.026166,0.083895,-0.198111,0.223772,-0.149164,0.201352,0.009473,0.023941,-0.174392,0.120527,-0.156921,0.063435,-0.089418,-0.148756,-0.053544,0.005652,0.059247,0.050188,-0.119597,-0.279567,0.008717,-0.13362,-0.03405,0.142795,-0.084919,-0.061692,0.193255,-0.026811,-0.16191,0.015276,-0.13622,-0.328988,-0.186468,0.057496,0.007087,0.093024,0.021365,-0.121796,0.079547,-0.195951,-0.070126,0.070753,0.004848,0.047628,-0.031193,-0.065833,0.017987,-0.00122,0.042277,0.209006,0.132116,0.049025,0.054531,-0.090717,-0.043689,-0.237146,0.036557,-0.084165,0.20638,0.157984,-0.013077,-0.126414,-0.045527,-0.126794,-0.194799,-0.089113,0.051765,-0.063413,-0.004063,0.017962,0.029746,-0.140839,0.021386,0.15483,-0.075664,0.055697,0.093958,0.053596,0.104752,0.088196,0.051772,-0.082019,-0.019841,0.010634,-0.038045,-0.111913,0.031597,-0.232023,-0.1495,0.022324,-0.106199,-0.012613,-0.074894,-0.079836,0.016766,0.197144,0.049843,0.15963,0.048948,-0.079928,-0.141483,0.004428,0.109125,0.056871,0.061236,-0.142195,0.164477,-0.177113,-0.025627,0.033302,-0.145091,0.238165,-0.081156,-0.25566,0.169742,0.165174,0.132625,-0.098107,-0.15488,0.091371,-0.001198,0.232069,0.029385,0.145952,-0.17673,0.120205,0.076929,0.283927,-0.09277,-0.090293,-0.134263,-0.159316,0.060057,0.220487,0.02698,0.129729,-0.067249,-0.102469,0.052898,0.082931,-0.140564,-0.122029,-0.013402,-0.054044,0.206031,-0.229254,-0.14728,-0.253563,-0.038111,-0.008617,-0.00298,-0.063961,-0.057388,0.073572,0.020042,-0.111576,-0.118358,-0.109915,-0.025295,0.284891,0.143102,0.06157,-0.019683,0.267314,-0.256898,-0.021038,-0.169603,-0.148334,-0.040713,-0.075187,0.06974,0.13728,-0.243193,-0.176526,0.03629,0.100438,0.116801,0.258423,0.139151,0.163785,-0.028294,0.348561,-0.041843,-0.213864,-0.091955,-0.049139,-0.034967,0.024887,0.137615,-0.097775,0.061771,0.048544,-0.107847,0.022373,-0.094375,-0.091578,0.113591,-0.034806,0.005978,-0.040149,-0.22541,-0.059394,0.26479,-0.085098,-0.12325,0.020698,-0.104562,0.146733,1.5e-05,-0.129706,0.12997,0.085028,0.177075,-0.122539,-0.188351,0.137795,-0.033391,0.025904,-0.109953,0.244644,-0.062686,0.173716,-0.170625,0.182523,0.002108,0.05119,-0.232417,0.06708,0.01875,0.240841,0.03669,-0.041573,-0.045293,0.086286,0.060489,0.139798,-0.296166,-0.040142,0.014227,-0.130725,0.098468,-0.292037,0.038658,-0.144393,-0.02148,-0.069007,0.027421,-0.129174,-0.103264,0.074972,0.07498,0.027518,-0.239298,-0.104045,-0.01189,0.322356,0.2719,0.022169,0.076648,0.120342,-0.126263,0.008407,-0.044076,-0.142684,0.080282,-0.038387,0.102577,0.129864,-0.043196,0.021474,0.040406,-0.126913,0.046829,0.028902,0.118604,0.160865,-0.113348,0.101518,-0.105119,-0.072316,0.151429,-0.012693,0.109959,-0.056066,0.097397,-0.178684,-0.123158,-0.059574,-0.010927,-0.20832,-0.187395,-0.171525,-0.002108,-0.192509,-0.076822,0.050698,-0.026576,-0.183942,0.182762,0.09808,-0.24468,0.073129,-0.138463,0.147124,-0.10103,-0.076594,0.205233,0.117159,0.144394,-0.162672,-0.089927,0.057056,-0.143718,-0.047787,-0.16496,0.025596,-0.063806,0.128562,0.029853,0.122866,-0.287128,-0.004091,-0.013486,0.130275,0.179123,0.19856,0.052137,-0.007329,-0.157185,0.081939,-0.027795,0.062739,-0.183687,-0.01329,-0.028051,-0.264447,0.102595,-0.064583,-0.09135,-0.311889,0.150569,-0.019236,-0.024459,-0.109439,-0.023132,0.090119,0.051776,-0.120818,-0.150594,-0.140663,-0.110245,0.082809,0.225818,0.181837,-0.049851,0.159214,-0.029719,-0.016922,-0.05939,-0.147218,-0.300095,0.122257,0.142542,0.042766,-0.001767,-0.067465,0.108044,0.011383,0.052795,0.183343,0.022018,0.113351,-0.097765,0.120001,-0.121975,-0.233791,-0.069082,0.154867,-0.162861,-0.121783,0.154677,-0.094309,0.036312,0.002631,-0.016322,-0.054681,0.01716,-0.30693,0.138726,-0.16492,-0.186563,0.131953,0.214809,-0.162011,0.070909,-0.086263,0.240732,0.120157,0.047112,-0.1281,-0.108919,-0.094934,0.174436,0.219681,0.134312,-0.01844,-0.129526,-0.131776,0.251598,0.172041,-0.269551,0.198274,0.283592,-0.085802,0.054915,0.55349,0.087435,-0.127629,0.049176,-0.14957,-0.176246,0.210853,0.069354,0.219299,0.116741,-0.140091,0.077088,0.139048,-0.052118,0.080449,0.189471,0.048764,-0.116673,-0.143392,-0.083379,-0.204798,-0.33391,0.206822,0.002531,0.282876,-0.188693,-0.031163,-0.19497,-0.359412,-0.140535,0.208928,-0.117159,0.216015,0.147241,0.082766,0.488819,0.116713,-0.007728,0.087956,-0.225922,-0.018291,0.33508,-0.187973,0.013815,0.021008,-0.359754,-0.021913,-0.383976,-0.058024,-0.056074,0.106178,-0.047,0.230773,-0.084194,-0.118002,-0.095637,0.402043,0.267522,-0.314588,0.109794,0.016189,0.125884,0.118922,-0.123043,-0.25598,-0.148878,-0.07843,-0.108702,0.063103,0.229419,-0.067992,0.158594,-0.187301,-0.151692,0.018018,0.123589,0.016874,-0.015736,0.039789,0.032561,0.025414,0.022079,-0.212837,0.08998,0.010945,0.079221,0.058873,-0.101964,-0.053656,0.015206,-0.03882,-0.086824,0.084993,-0.005672,0.122648,-0.10737,0.130608,0.049642,-0.103245,-0.125675,-0.068277,0.048535,0.161487,-0.058866,0.06168,-0.003676,-0.005363,0.112256,0.080132,-0.082397,-0.040503,0.114786,0.036081,-0.079542,-0.065617,-0.022977,-0.16442,0.028564,0.090358,0.093476,0.135639,-0.075615,-0.021478,-0.145734,-0.036151,-0.077341,0.080175,0.021753,0.15658,0.164043,0.051896,-0.127439,0.160086,0.070944,-0.097736,-0.018304,-0.113377,0.021981,-0.02414,0.136811,0.072434,-0.000288,-0.035546,0.103908,-0.107189,-0.102929,0.0869,0.132427,0.165412,-0.037073,0.002778,0.041444,-0.126737,0.204183,-0.004342,0.1033,0.008031,0.083702,0.096062,-0.034131,-0.07778,0.068632,-0.062262,-0.037271,-0.05903,-0.024566,-0.116981,-0.095735,0.031197,-0.090283,-0.059602,-0.13052,0.232935,-0.056804,-0.125335,-0.119851,-0.100928,-0.064719,0.287884,-0.203295,-0.392237,-0.077751,0.031148,0.184832,0.178666,-0.199294,-0.382293,0.226683,-0.139357,-0.012513,-0.193905,0.004885,-0.512229,-0.216183,-0.003812,0.016442,0.170119,0.013669,-0.309206,0.09272,-0.363185,-0.101969,0.172858,-0.137387,-0.236948,0.162136,-0.180719,-0.062132,-0.052988,0.036621,0.247503,0.146409,0.127641,0.572882,-0.15431,-0.136983,-0.254734,0.119397,-0.269011,0.160091,0.20617,0.079766,-0.051683,0.027817,-0.236848,-0.228405,0.070247,-0.283025,-0.132986,-0.041252,-0.024418,0.360475,0.03198,-0.249032,0.295714,0.041807,0.093699,-9e-05,0.021147,0.186604,0.151539,-0.074257,-0.183662,-0.098898,-0.194851,0.101999,-0.17366,-0.01134,-0.072746,-0.577207,0.076428,-0.13507,-0.171853,-0.234439,-0.047102,0.105469,0.443494,0.233252,0.070352,0.113873,0.02936,-0.120732,0.104714,0.015573,0.26333,0.162917,-0.157457,0.161747,-0.003735,-0.107673,0.083688,-0.227481,0.098678,-0.159706,-0.278381,0.079243,-0.142376,0.098976,-0.126382,-0.069216,0.190088,-0.06171,0.006134,-0.145682,0.168944,-0.075969,0.031823,-0.190127,0.152528,0.018098,0.119881,-0.251937,0.013519,0.011891,0.230915,-0.085074,-0.089864,-0.076319,-0.002158,0.017782,0.113522,-0.289969,0.034626,0.128473,-0.087242,-0.0476,-0.236846,0.064151,-0.072701,-0.031599,-0.169093,0.176618,-0.076402,-0.073754,0.13093,0.05827,-0.195957,-0.172221,-0.052413,0.14338,0.218434,0.252005,0.105443,-0.02894,0.173398,-0.115136,-0.03906,-0.111767,-0.297417,0.109144,-0.037595,0.103465,0.21251,-0.164208,-0.030426,0.13517,-0.11358,0.034231,0.108082,0.16789,0.053361,-0.068879,0.131186,-0.127315,-0.053406,0.003485,0.145839,0.103527,0.002226,0.113531,-0.078389,-0.214565,0.015899,0.063465,-0.214807,-0.217603,-0.096722,0.0227,-0.144542,-0.09225,0.106705,-0.098791,0.057039,-0.150012,0.266017,0.007289,-0.052067,0.088675,-0.01713,0.121995,0.228126,-0.240673,-0.07187,-0.060322,0.029212,0.226987,-0.024432,0.048609,-0.177952,0.147947,-0.224277,0.092383,0.080799,0.080818,-0.199126,-0.021413,-0.008336,0.306029,-0.080047,-0.078127,-0.111299,-0.045331,-0.157984,-0.005849,-0.151942,-0.024896,-0.015888,0.047132,0.01179,0.020617,0.073424,-0.12866,0.253709,0.274435,0.241333,0.282462,-0.034299,-0.03599,0.053817,0.123617,-0.008082,0.0547,0.127257,0.095304,0.15789,0.170299,-0.343509,-0.296893,-0.059858,-0.117163,-0.271231,0.327956,0.100727,0.01954,0.042571,-0.103443,0.03131,-0.185925,-0.200496,0.037454,0.183811,0.082681,0.157894,0.079381,-0.03362,-0.133115,-0.146674,-0.021763,-0.267737,0.079957,-0.064569,-0.154851,-0.044613,0.08509,0.019619,-0.186954,0.142551,0.088113,0.156963,0.098294,0.054241,0.044118,0.144652,-0.117275,0.133314,-0.038686,0.125451,0.168094,0.135984,-0.200992,1.239087,-0.164565,-0.234012,0.353356,-0.278027,-0.584731,0.349202,0.130737,0.599806,-0.2055,0.140468,0.43357,-0.323634,-0.122305,-0.945402,-0.199855,-0.227905,0.532515,-0.375009,0.304763,0.270707,0.010304,-0.008202,0.203507,-0.037947,0.424955,0.027803,-0.137653,0.435332,0.180009,-0.585825,0.419322,-0.42123,0.364748,-0.347347,-0.172223,0.121242,-0.112019,0.23956,-0.314364,-0.001567,1.016354,0.512262,0.131972,-0.096335,0.103251,0.102894,-0.286543,-0.404597,0.320534,-0.372809,-0.041865,0.03562,0.00362,0.146706,-0.898768,-0.287613,-0.249546,0.387233,-0.394867,0.415785,0.506009,0.210024,-0.335826,-0.243058,0.391135,0.330479,-0.226607,0.061302,-0.799059,0.545718,-0.334115,-0.103052,0.263988,-0.083577,0.063959,0.615208,-0.09667,-0.32779,-0.021173,0.332337,-0.119015,0.159637,0.196519,0.0772,-1.316063,0.157385,0.225426,0.333888,0.239202,-0.008043,0.206053,0.385717,0.569876,-0.013247,0.193831,0.023927,0.052185,0.105346,-0.183708,0.169866,-0.095203,-0.144488,0.102235,-0.041068,0.034844,0.058294,-0.004845,0.076061,0.016022,0.01167,-0.171926,0.223286,-0.165166,0.039981,-0.124154,0.194709,0.052497,0.099795,-0.201409,0.107508,0.142079,0.18678,-0.164006,-0.049247,0.017293,0.01851,0.131717,0.207341,-0.303949,0.048574,0.138364,-0.027168,-0.063186,-0.187906,0.003384,-0.072773,-0.130891,-0.033978,0.019573,0.094807,-0.01136,0.086963,0.031548,-0.004184,-0.125873,0.04217,0.106812,0.22537,0.17503,-0.004007,0.037523,0.275846,-0.214,-0.053522,0.075831,-0.203011,0.119416,0.010769,0.103004,0.190283,-0.004436,0.001157,0.015165,-0.085927,0.013558,0.163158,0.116073,0.027634,-0.020525,0.002921,0.032146,0.060314,0.150619,0.002775,-0.080209,-0.085352,0.157289,-0.075723,-0.080847,0.01275,-0.03749,-0.180457,-0.109311,-0.09604,-0.014838,0.056247,-0.057362,0.004516,-0.010682,-0.156324,0.173198,-0.055924,-0.007536,0.091888,-0.142637,0.016013,-0.145412,-0.152035,0.13604,-0.011583,0.005634,-0.120145,-0.131393,0.029293,-0.119176,0.087035,-0.244694,0.078203,-0.063554,0.15564,-0.17906,0.332597,-0.066485,0.133664,-0.215047,-0.104259,0.102917,0.16793,-0.164549,0.135758,-0.112258,0.084552,-0.051976,-0.02756,-0.215418,-0.093195,0.105285,-0.048442,0.142374,-0.172501,-0.212121,-0.266124,-0.035801,-0.079753,0.017637,-0.095622,-0.098449,0.201831,-0.034778,-0.108871,-0.210684,-0.210787,-0.072049,0.317553,0.222686,-0.02137,0.056879,0.036057,-0.324239,-0.016613,-0.041948,0.007148,-0.103872,0.04774,0.068861,0.212414,-0.123035,-0.214362,0.031844,-0.098193,0.000198,0.158921,0.097994,-0.009392,-0.067374,0.261096,-0.056445,-0.059509,0.015846,0.090765,0.018981,0.005963,0.095225,-0.118739,-0.030333,-0.209402,-0.033077,-0.118434,0.200427,-0.031777,0.203829,-0.173638,-0.169717,-0.12243,-0.098037,-0.083563,0.263814,-0.12127,0.075053,0.124147,-0.139249,0.253876,-0.199029,-0.179076,0.065372,0.000944,-0.003584,0.059808,-0.185713,0.024633,-0.007371,0.076203,-0.061631,0.145221,-0.231112,0.187056,-0.141297,0.06529,0.112057,0.018281,-0.061756,0.061929,0.154297,0.069102,-0.191172,-0.097288,-0.021578,-0.041107,0.031904,0.109555,-0.455302,0.098321,0.14204,-0.043894,-0.044615,-0.146813,0.234603,-0.043393,0.027714,-0.19931,0.113078,-0.013124,-0.052638,-0.060216,0.153702,0.260161,-0.068754,0.052423,0.159044,0.187766,0.119735,-0.1165,-0.155118,0.259518,-0.098544,-0.075293,0.125016,-0.165848,-0.13396,0.251741,0.13655,0.094121,-0.181678,-0.138213,0.041916,-0.030199,0.118581,0.091149,0.184666,-0.083636,-0.042142,0.050918,-0.137198,-0.124477,0.058398,0.151345,0.030616,-0.204072,0.118076,-0.1235,-0.026406,0.063863,0.219685,-0.13768,0.027549,-0.143762,-0.061221,0.053637,-0.153499,0.098717,-0.082654,0.10061,-0.142937,-0.052378,0.082119,0.014946,0.231157,-0.174871,0.033424,0.037214,-0.011967,0.087299,-0.163357,0.123649,0.161426,-0.151163,0.052062,0.021994,0.040494,-0.211232,0.073892,0.139483,0.22811,-0.126072,0.046246,-0.258963,0.041622,-0.162247,-0.016176,-0.080177,0.03712,0.141919,0.125762,-0.108677,-0.020617,-0.177695,0.223373,0.072343,-0.121502,0.012989,0.044873,0.11369,-0.118898,0.143285,0.041191,0.072137,-0.055125,0.036554,0.167641,-0.028131,-0.116729,-0.239035,0.161916,-0.035019,0.054897,-0.144615,-0.169388,0.020304,0.001909,-0.306688,0.056886,0.165002,-0.27665,0.110188,-0.085294,-0.367236,-0.148927,-0.205846,0.116827,0.041407,-0.202859,0.133668,-0.0147,-0.081207,-0.101466,-0.124826,-0.038939,-0.086695,0.109117,-0.035709,0.11359,-0.020414,0.198672,0.207643,-0.064229,0.031289,0.105252,0.049666,-0.294979,-0.015951,-0.126144,0.100311,-0.079154,0.013258,0.002723,0.015267,-0.000727,0.022255,-0.224624,-0.006574,0.019216,-0.055722,0.071137,-0.148356,0.008144,0.152226,-0.229609,0.021033,-0.019088,0.004041,0.051505,0.02923,-0.071775,0.004002,0.146919,-0.083446,-0.008233,-0.204522,0.038513,-0.199891,-0.139208,-0.081691,0.023327,-0.125543,-0.19153,-0.154451,0.009358,-0.101866,-0.038376,-0.018259,0.067927,-0.082891,0.198997,0.042989,-0.162009,-0.040794,0.081378,0.093149,0.07953,0.115951,-0.051955,0.029799,-0.112717,-0.077382,0.080018,-0.147333,0.015942,-0.072047,0.086457,-0.02773,-0.060882,-0.135908,-0.108584,-0.049372,-0.024566,-0.235759,0.099332,0.102598,0.082652,0.012731,0.037338,-0.02328,-0.122308,-0.013172,-0.055406,0.08145,-0.104919,0.053258,-0.000237,-0.054637,-0.146057,-0.052671,0.145999,-0.129831,-0.042203,-0.019259,-0.118847,-0.006469,-0.007849,-0.041306,0.024043,0.085677,0.009727,0.075306,-0.011598,0.201281,-0.038026,0.040366,0.045796,0.092215,-0.0372,-0.007524,-0.024186,0.020404,-0.079734,-0.218015,-0.089026,0.065023,0.100322,0.000292,0.019391,0.139908,-0.039209,-0.004249,0.015792,-0.123778,-0.040664,0.071055,-0.001884,0.035118,0.061351,0.034314,-0.028859,0.293001,0.0244,-0.160923,-0.064458,-0.038962,0.16238,0.012315,0.006857,-0.003832,0.094971,0.06931,-0.007182,0.051314,-0.19848,-0.040529,0.074148,0.047032,0.000833,0.011451,0.040901,0.029849,0.064239,0.07787,-0.133025,-0.019218,-0.12313,-0.082254,-0.035228,0.08907,0.009436,-0.108708,-0.042486,-0.021755,0.092926,-0.071214,-0.032628,0.180171,0.088545,-0.195929,0.219255,0.093532,0.004065,0.106362,-0.405685,-0.182115,-0.063162,-0.028711,-0.209804,0.043946,0.130432,0.126736,0.11892,-0.033724,-0.082591,-0.00338,-0.095528,0.014628,0.11382,-0.100506,0.038811,0.050973,-0.075911,0.002096,0.068453,-0.041914,0.034065,0.023541,-0.071092,-0.074645,-0.019272,-0.101369,0.018137,-0.076943,-0.06571,-0.14361,0.106138,0.238376,-0.24222,0.00525,0.045766,-0.067514,0.14183,-0.232753,0.160405,0.003046,-0.088629,0.108549,-0.234778,0.229692,0.192851,-0.057123,0.082912,0.140435,0.114061,-0.208288,-0.164795,-0.137,-0.065834,-0.165224,0.075654,-0.007974,0.040209,-0.136034,-0.323049,-0.122768,-0.112749,0.03817,0.127015,-0.094897,0.069276,-0.149704,0.004361,0.065368,-0.182707,0.096981,-0.175692,0.147576,0.029221,0.181851,-0.139999,0.010699,0.037075,0.136726,0.188602,0.081174,0.040397,-0.115594,0.044368,0.070807,0.125459,-0.047613,-0.148069,-0.108906,0.0746,-0.259121,-0.019008,0.099586,0.071327,0.368465,-0.038298,0.002667,-0.178046,-0.096016,-0.013037,0.12465,-0.024617,-0.034663,-0.002256,-0.150746,-0.108905,-0.147605,0.231577,-0.200594,0.217232,0.203967,0.064896,-0.006876,-0.029974,0.066972,-0.131747,0.04385,0.006358,-0.067026,-0.032612,0.106408,0.097723,0.105305,-0.034444,0.24948,0.197974,-0.011374,0.074206,-0.065199,0.050858,-0.171772,-0.013085,-0.08007,0.021117,0.153674,0.123854,0.025396,0.172421,0.250527,0.002968,-0.022849,-0.151494,-0.142902,-0.062967,0.048313,-0.236311,0.059487,-0.032234,0.272043,0.050898,0.260272,0.007049,-0.141386,-0.098476,-0.066278,0.215079,0.131618,0.007105,0.147049,0.05124,0.034699,0.074767,0.074115,-0.106108,-0.026802,-0.107895,-0.132762,0.013256,-0.066768,-0.155845,-0.129485,-0.072693,0.062659,0.000707,0.117039,-0.037416,0.039535,-0.002291,-0.110136,0.076329,-0.195357,-0.173192,0.148104,0.049751,0.148784,-0.083349,0.054429,0.059523,0.035448,-0.141914,0.071904,0.01132,-0.11707,-0.085959,-0.077077,0.107404,-0.052481,-0.060698,-0.01227,0.02823,0.251994,-0.026937,0.137508,-0.045622,0.098413,0.014206,0.02219,0.110374,-0.059491,-0.075553,-0.031167,0.113905,-0.081443,-0.108853,-0.125369,-0.220607,-0.144909,0.005922,-0.100862,0.196469,0.015673,-0.027922,-0.295022,0.11578,0.191734,-0.18598,-0.02345,-0.065406,-0.012889,-0.059184,-0.124901,0.022379,0.120037,-0.048821,-0.143026,-0.153906,-0.049471,0.099564,0.015738,0.059654,-0.067832,0.197537,-0.181851,-0.069402,-0.294202,0.086439,-0.271835,-0.018666,-0.020429,-0.010112,-0.054695,-0.127965,-0.180054,-0.053721,-0.116968,0.036732,0.093018,0.015467,-0.154743,0.036566,0.035267,0.019945,0.131281,0.068426,0.267819,0.046629,0.195368,-0.010497,-0.081253,0.102621,0.053486,0.154914,-0.11593,0.088861,0.159674,0.046728,0.007586,0.001011,-0.148699,-0.149958,-0.153477,0.065698,-0.033358,0.107413,-0.014692,0.170102,0.019916,-0.042497,-0.02319,-0.176018,-0.05423,-0.002137,0.079999,-0.088274,0.086657,0.020567,-0.003949,-0.124564,0.006755,0.148151,-0.082609,0.058577,0.143312,-0.106722,-0.086149,-0.052977,0.108056,-0.08166,-0.038573,0.154877,-0.082535,-0.081562,0.221343,0.118865,-0.003228,-0.099834,0.08227,0.007019,0.082149,-0.032724,-0.163081,0.200751,0.005665,-0.058532,0.13476,-0.125613,0.08783,-0.096606,-0.234039,0.109795,-0.039894,-0.109779,-0.006353,-0.101384,-0.062477,0.142991,0.065441,0.027396,0.034228,-0.187705,0.046791,-0.271802,0.173235,0.041947,0.158277,-0.209364,-0.131581,-0.118534,0.020428,-0.080184,0.055402,-0.038262,-0.073778,0.015041,0.069241,-0.205453,0.006938,0.101877,0.042613,-0.074137,-0.181184,0.048397,-0.050981,-0.025833,-0.080321,0.249405,0.143664,-0.061728,-0.035481,0.045206,-0.077603,-0.129038,0.129182,0.162572,0.155236,0.198985,-0.136254,-0.057647,0.041081,-0.246341,0.005692,-0.052956,0.12039,0.119265,-0.084995,0.073559,0.151359,-0.1574,0.014481,-0.00227,-0.07136,-0.027682,-0.05923,0.051332,0.02324,0.006843,0.183739,-0.065032,0.060338,0.001956,-0.029596,0.134702,0.129774,-0.026957,-0.022412,-0.111057,-0.092109,0.073441,-0.029328,-0.028388,0.110062,-0.037301,0.021157,-0.102534,0.033989,-0.05558,-0.011334,0.088035,-0.007802,0.047244,0.172348,0.145037,-0.102574,-0.057888,0.061937,0.225329,0.262632,-0.025219,0.077521,0.010916,-0.117328,0.100132,0.024639,-0.115168,0.045276,0.0327,-0.000948,-0.026975,0.477735,0.057896,-0.033104,-0.031909,-0.127914,0.061042,0.114023,-0.137735,0.199957,0.106581,-0.213343,0.120099,-0.106916,-0.052296,0.150061,0.028688,-0.088888,-0.084138,0.009864,-0.11544,-0.087296,0.1122,0.056522,0.291116,0.137102,0.024394,0.169231,-0.169501,-0.467538,-0.020933,0.041845,0.060328,0.145257,0.15454,-0.005451,-0.038158,-0.092497,-0.189241,0.006679,-0.347173,0.134125,0.16817,0.001996,-0.072365,-0.152915,-0.308275,0.076795,-0.071464,-0.245374,-0.072979,0.509628,-0.148623,0.038386,-0.00649,-0.039789,-0.047521,-0.06411,0.265861,-0.030601,-0.005415,0.177683,-0.087502,0.074134,-0.145196,-0.218565,-0.44904,-0.111864,-0.224254,0.048709,0.154675,0.069406,-0.113111,0.115998,0.170875,0.183468,-0.176741,0.076281,0.038954,-0.19969,0.215993,-0.039141,0.134249,0.090668,-0.049269,0.078908,-0.132585,-0.03232,0.021474,-0.108195,0.025424,-0.084897,0.016281,-0.238788,0.089638,-0.079906,0.279303,-0.180539,0.064286,-0.02781,0.20183,0.040365,0.02696,-0.112273,0.186434,0.064982,-0.023966,-0.120078,-0.015362,-0.138793,0.281856,0.009731,-0.11232,0.002007,0.026736,0.15235,0.089539,0.24245,0.045294,0.198904,-0.299905,0.06274,0.169068,0.037233,0.015719,0.111287,0.150698,0.013883,0.000886,-0.305605,-0.291047,0.061459,0.013461,-0.234091,0.307735,0.10584,0.059706,0.123512,-0.011348,-0.087376,-0.141424,-0.10583,0.040814,0.002653,-0.109876,0.052751,0.000724,0.008776,-0.146091,-0.031137,0.141588,-0.118592,0.117462,0.109902,-0.052472,-0.12511,-0.098377,0.025681,-0.042827,0.04605,0.108034,0.025853,0.00348,0.032308,0.197834,0.062372,-0.030732,0.00031,0.156622,-0.319834,0.116728,-0.007187,0.095303,0.061808,0.024856,0.151079,0.016772,0.044925,-0.118915,-0.076821,0.135623,0.273526,0.035943,-0.021925,-0.08697,-0.044448,0.110883,0.153549,-0.268214,0.100187,0.146584,0.10423,-0.080626,0.358071,0.160412,0.043688,-0.079576,-0.080555,0.133494,0.018116,-0.041442,0.363835,0.123791,-0.05284,0.112794,0.143714,0.00966,-0.008375,0.158779,0.032062,-0.212211,-0.057361,-0.022203,-0.032856,-0.023074,0.171934,0.078095,0.235743,0.034976,0.00405,-0.064127,-0.361202,-0.039379,0.013361,0.089085,0.147784,0.217477,-0.028129,0.110845,0.055481,-0.189619,0.082646,-0.082884,0.132404,0.170857,-0.22732,0.07621,-0.137589,-0.207197,0.049931,-0.182197,-0.18219,-0.092492,0.234618,-0.004544,0.043943,0.029879,-0.033333,0.074735,0.304149,0.310668,-0.12114,0.173268,0.006993,-0.046976,0.036601,-0.030283,-0.22247,-0.176722,-0.118691,-0.080131,0.087745,0.070887,0.014754,0.029175,-0.035321,-0.068203,0.160339,-0.428505,0.035757,-0.062848,-0.122207,0.349349,-0.128306,0.260885,0.351061,-0.084301,-0.046142,-0.076422,0.002452,0.262206,-0.093573,0.018265,0.193555,0.099208,-0.259015,-0.032019,-0.169446,0.223288,-0.067244,-0.05406,-0.210349,0.224856,-0.218588,-0.169402,-0.235292,-0.018884,0.01169,0.129383,-0.023145,-0.013777,-0.244987,0.448546,-0.006967,-0.122336,-0.008725,-0.010257,0.339398,-0.121028,0.285917,0.024457,0.011541,0.039989,0.116567,0.062356,0.021873,-0.188467,-0.082373,0.148237,-0.141526,-0.013489,-0.265436,-0.192185,-0.137772,0.113152,-0.253619,0.183369,0.168839,-0.076415,0.249277,0.038509,-0.2552,-0.118463,-0.26158,0.23494,-0.089706,-0.125423,0.052743,0.103954,-0.008751,-0.406844,-0.136816,-0.034285,-0.099079,0.171233,0.041028,-0.204968,-0.051585,0.124272,0.146027,-0.198823,0.134192,0.062643,-0.067194,-0.122849,0.257683,0.101501,0.195944,-0.063136,0.175643,0.170666,-0.085517,0.100871,0.129511,-0.204775,-0.020517,0.084972,-0.02132,0.270753,-0.088081,0.202487,0.087266,-0.014045,0.157193,-0.21588,0.060941,0.255459,0.007431,-0.014858,0.115978,0.066692,-0.175898,-0.171233,-0.021768,0.232205,-0.190005,0.018446,-0.202851,0.111388,-0.075658,-0.13571,-0.188203,0.095155,-0.041567,0.236663,-0.123619,0.033324,-0.176698,0.184707,0.014127,-0.029566,0.063428,0.024654,0.216906,-0.056083,0.09823,0.205354,-0.030698,0.087101,0.157226,0.070689,0.026781,0.041618,-0.055895,0.17371,-0.127028,0.067856,-0.264377,-0.086555,-0.121016,-0.018297,-0.252428,0.145931,0.187977,-0.120212,0.270215,-0.123296,-0.152459,-0.278317,-0.304657,-0.118549,-0.012207,-0.07225,0.105472,0.153385,-0.05525,-0.187109,-0.265606,-0.031866,-0.140156,0.19259,-0.012839,-0.014354,0.024921,0.079685,0.077872,-0.009685,0.130244,0.028088,0.086533,-0.156846,0.066543,-0.164645,0.226479,0.040146,0.103096,-0.058465,-0.015603,-0.025522,0.107216,-0.245879,0.045593,-0.021669,0.077633,0.327739,-0.154883,0.100796,0.106036,0.008361,0.210167,-0.071249,-0.047594,0.198293,-0.116037,0.090933,-0.081903,-0.054846,-0.211574,0.342256,-0.155542,0.317648,-0.168987,0.041721,-0.2697,0.072947,-0.177696,-0.054536,-0.025691,0.212099,0.056238,0.263893,-0.041951,0.024405,-0.248734,0.50616,-0.038853,-0.25528,-0.106393,-0.0462,0.045503,-0.286002,0.05319,0.036762,0.450674,-0.231422,0.11398,0.135526,-0.082748,-0.169216,-0.273039,0.067616,-0.09464,-0.145963,-0.165417,-0.186182,0.069281,0.149163,-0.145092,0.13684,0.151883,-0.28641,0.035001,0.114571,-0.457897,-0.172244,-0.258838,0.259025,0.071953,-0.230575,0.066899,-0.347398,-0.075297,-0.135457,0.020765,0.02566,0.063787,0.022623,0.264847,-0.2799,-0.182963,0.095341,0.291144,-0.078391,0.174112,-0.093059,0.006986,-0.342697,0.172895,-0.005656,0.187499,0.150807,-0.036881,-0.040529,-0.194137,-0.111931,0.016533,0.060182,-0.197796,0.011632,-0.012835,0.124184,-0.001465,-0.082328,0.207679,-0.165347,0.033087,-0.119575,-0.172708,-0.04675,0.144868,-0.112518,0.005905,0.074622,0.017014,-0.027017,0.01871,-0.019669,-0.332957,-0.110124,0.060989,-0.02092,-0.03403,0.02748,-0.215632,0.105167,-0.133326,-0.016754,-0.017367,-0.19882,-0.145313,0.116167,-0.171453,0.032466,-0.055677,0.165063,0.105244,-0.104455,0.157814,-0.037411,-0.077035,-0.148896,-0.183271,0.013447,-0.00126,0.055098,-0.085645,-0.071552,-0.175602,-0.020392,-0.054304,-0.11538,0.037933,0.017695,-0.254262,-0.015866,0.048715,0.182751,0.0006,-0.297339,-0.235234,-0.066683,0.122611,0.136864,0.013444,-0.013268,0.095714,-0.057071,-0.253799,-0.057886,0.043978,-0.061988,-0.080373,0.103088,-0.030905,-0.267791,0.035358,-0.08774,-0.03255,-0.103651,0.033793,-0.043415,-0.001159,-0.033648,0.103767,0.160419,-0.08925,-0.099064,0.034353,-0.05918,-0.127262,0.025011,0.0364,0.016694,0.042552,0.151229,0.101976,0.223791,0.085104,-0.04555,0.020996,-0.028317,0.328783,-0.108002,0.162529,0.068132,-0.089755,0.140048,-0.032795,-0.167599,-0.038156,-0.087878,0.085897,-0.032958,0.103801,0.171872,-0.043798,-0.096854,-0.286961,0.04726,0.029153,-0.05382,0.06804,0.185439,-0.170097,-0.004557,0.026991,0.041456,-0.054051,-0.049483,-0.134804,-0.030749,-0.119336,-0.07828,-0.061855,0.064964,0.042478,0.090752,0.095177,0.103751,0.06502,-0.241023,-0.159238,0.126916,-0.021087,0.090866,0.063262,-0.046874,-0.031087,-0.05619,-0.189504,-0.095146,0.184126,-0.192653,0.262229,0.01611,-0.326888,-0.069265,-0.191725,-0.046351,-0.037917,0.042111,-0.052149,0.085535,0.158237,-0.119886,0.071071,0.024154,0.111608,0.140914,0.039331,0.095671,-0.026308,0.108902,0.011475,-0.01771,0.084469,-0.106489,-0.154823,-0.008864,0.035788,0.034566,0.058519,-0.009371,-0.045758,-0.098492,-0.023581,-0.117654,-0.085727,0.183043,-0.049869,0.012025,-0.04391,0.003436,0.07116,-0.003739,-0.161103,0.080202,0.120611,0.117534,0.023947,-0.167314,-0.049682,0.018479,0.026566,-0.048447,0.12548,-0.023178,0.041461,0.061078,0.246272,0.127334,0.002071,-0.092948,0.002238,0.110684,0.106657,-0.04334,0.135961,-0.047129,-0.083598,0.055636,0.004548,-0.161775,-0.083165,-0.012496,0.08916,0.102603,-0.031161,-0.006368,-0.226687,-0.026055,0.098684,0.097631,0.099165,0.051063,0.062736,-0.203012,0.019625,-0.034536,-0.032747,-0.11568,0.213338,0.102856,0.011396,0.024188,0.188927,0.013646,-0.073214,-0.235037,-0.142323,0.28377,0.003341,0.005046,-0.029555,0.07458,-0.119362,0.039948,-0.13979,0.024608,0.09316,-0.016478,0.037467,-0.076941,0.106185,-0.083241,-0.15612,0.147174,0.073802,0.12861,0.06165,0.175084,-0.024594,0.099922,-0.226946,0.043819,-0.119402,0.029482,0.042516,0.053657,-0.089515,0.024382,0.073244,-0.118585,0.102968,0.090646,-0.305931,-0.003886,0.060298,0.048625,0.152524,0.218169,-0.050307,-0.078401,-0.214022,0.003007,-0.065941,0.027043,0.271901,-0.040008,0.064982,0.254987,-0.049942,-0.006111,0.113667,0.07122,-0.262492,-0.177454,-0.031122,0.027628,0.156776,0.09813,-0.173015,0.039969,-0.303263,-0.10965,0.048485,-0.091393,-0.098588,-0.056902,0.031357,-0.245651,0.061282,-0.003023,0.096508,0.061146,0.147214,-0.10944,-0.122188,-0.052829,-0.187536,0.145131,0.020867,0.241976,0.140503,0.07569,-0.019843,0.096351,-0.209763,-0.144142,0.111352,-0.075655,0.043007,0.001502,-0.06533,0.119987,-0.236165,-0.262542,0.219719,-0.115539,0.08682,-0.041355,0.060501,0.254683,0.200635,0.290798,0.034808,-0.036411,-0.175362,0.013085,0.106077,0.084527,-0.260757,-0.237624,0.188005,-0.070767,-0.117995,-0.101642,-0.077377,-0.137164,0.274546,0.183984,0.007052,-0.049684,-0.05005,-0.120396,-0.029944,0.038553,0.241339,-0.034541,-0.043567,0.303166,-0.010759,0.013349,0.155744,-0.026965,0.239749,-0.078001,-0.17846,0.225205,0.026867,0.081723,-0.063158,-0.219513,0.134187,-0.094432,0.125061,-0.159655,0.257515,-0.108115,0.106755,-0.061111,0.248513,0.079511,-0.005378,-0.302542,0.143515,0.05049,0.097081,-0.062149,0.054458,-0.167936,0.104364,-0.017309,0.185193,-0.362956,0.019333,0.127401,-0.084136,0.071526,-0.206639,-0.087021,-0.095311,-0.065318,-0.218236,0.262175,-0.103739,-0.001098,0.055805,0.054237,-0.018791,-0.223875,-0.113951,-0.081221,0.241189,0.221865,-0.033706,0.016775,0.157983,-0.214221,0.033499,-0.120179,-0.141489,0.020686,0.055321,0.018129,0.153434,-0.22621,-0.136338,0.13446,-0.113688,0.042202,0.141567,0.127625,0.200252,-0.016619,0.155523,-0.147408,-0.073334,0.075154,0.06914,0.089877,-0.043303,0.105127,-0.129049,-0.084555,0.036839,0.090297,-0.171695,-0.171147,-0.215731,-0.006784,0.03483,-0.072901,0.250355,-0.061938,0.270564,-0.278045,0.051794,0.412173,-0.224215,0.417505,-0.124554,0.239635,0.162073,-0.067455,0.095682,-0.27374,0.116752,0.192379,0.067079,0.165773,-0.13758,0.08227,-0.119292,-0.0989,0.197424,0.289945,-0.138114,0.440697,-0.215541,0.211963,-0.19392,-0.159419,-0.097869,0.151681,0.070929,0.379359,-0.264004,-0.090963,-0.187984,0.310179,0.151339,0.035591,0.036993,-0.253811,0.098798,0.022595,0.269411,0.151432,0.142438,-0.108738,0.268357,0.026467,-0.252485,-0.149656,-0.172603,0.222115,0.126721,0.127892,-0.17126,-0.23635,0.04702,0.017019,-0.268946,0.208612,0.10762,-0.040035,0.155583,-0.108931,-0.35886,-0.157002,-0.319646,-0.012722,0.186596,-0.088862,0.086111,0.224455,-0.360898,-0.290347,-0.063953,0.180104,-0.190568,0.331004,0.042956,0.040912,-0.202323,0.238247,0.227676,-0.173552,0.376396,0.056112,0.022619,-0.179958,0.054442,0.007755,0.300361,-0.075629,0.27941,0.046883,-0.069479,-0.183449,0.206502,-0.235913,-0.09365,0.135656,-0.084171,0.102056,-0.063369,0.078401,0.123499,-0.155558,-0.04263,-0.059907,-0.054858,0.127964,-0.097959,-0.025703,-0.023626,-0.007899,-0.262013,-0.066537,-0.171843,0.161369,-0.136878,-0.025064,-0.122914,0.039016,-0.049514,0.029562,-0.147077,0.176775,0.170493,0.081972,0.014734,0.075755,-0.10574,0.296022,-0.033037,-0.191419,-0.038509,0.033159,0.183661,0.026737,0.067594,0.041762,0.179336,-0.089046,-0.059519,0.074922,-0.098982,-0.046521,0.009239,0.162381,-0.120624,-0.091552,-0.28904,-0.230408,0.049266,0.026123,-0.138756,0.11213,0.077321,0.117903,0.126699,0.038694,-0.15415,-0.128615,-0.150291,0.119485,-0.100687,-0.105643,0.03346,0.01794,-0.135782,-0.255613,-0.095371,0.146743,-0.10277,0.169595,0.155987,-0.063784,0.01997,-0.037428,-0.006364,-0.159261,0.156021,0.163189,-0.002982,-0.102008,0.169074,0.101029,0.019195,-0.006908,0.076951,0.125163,-0.275645,0.123684,-0.101696,0.311339,-0.039601,-0.076978,0.018251,-0.090999,0.183913,-0.085853,-0.22386,0.217759,0.0493,0.216808,0.021239,-0.179954,0.146051,0.03177,0.194808,0.036802,0.158518,0.031279,-0.0411,-0.133607,0.106491,0.012854,0.165652,-0.289943,0.096157,-0.011704,0.234071,-0.1658,0.116692,0.012599,0.186593,0.139589,0.216224,-0.149687,-0.074878,0.166776,-0.000505,0.002046,-0.249156,-0.145524,-0.103556,-0.225707,-0.170585,0.076649,-0.040653,-0.068873,0.142484,-0.052685,-0.065913,-0.210341,-0.135105,-0.078687,0.342665,0.20199,-0.110344,0.269859,0.250057,-0.224048,-0.102913,-0.034848,-0.195414,0.048812,-0.011034,0.229652,0.295712,-0.120929,-0.179231,0.074224,-0.192807,-0.086603,0.087834,0.290486,0.221025,0.069189,0.249252,-0.213014,-0.020464,0.150047,0.147359,-0.107434,-0.059099,0.235286,-0.084127,-0.104253,0.026088,0.07572,-0.131054,-0.071525,-0.289193,-0.087258,-0.095336,-0.053141,0.151258,-0.056669,0.092432,0.049066,0.058657,-0.131367,-0.055056,-0.039444,0.01041,-0.06738,0.30245,0.060347,-0.351224,-0.218237,0.033856,0.151301,-0.000153,0.056567,-0.413082,-0.234988,-0.077022,-0.356177,0.138479,-0.008156,0.137454,0.011629,0.148489,0.342763,0.30576,0.276705,0.081432,-0.043819,-0.116321,-0.055764,-0.416815,0.209072,0.111977,-0.086755,0.217491,0.228677,0.087044,-0.318927,-0.082337,0.526296,-0.026801,0.175682,-0.19494,0.478398,0.151246,0.025697,0.634627,0.027435,-0.345259,-0.1288,0.521999,1.451398,-0.078819,0.016632,0.068642,-0.478148,0.219114,0.78242,-0.16633,-0.081507,0.142307,-0.249274,1.136636,-0.062877,-0.178716,-0.528775,0.187082,0.178034,-0.521513,0.440871,0.656697,-0.011172,-0.298362,-0.031087,-0.286683,0.071276,-0.605207,0.605283,0.239996,-0.178538,0.066037,0.002877,0.091385,0.16901,-0.13668,-0.482969,-0.020957,-0.227432,-0.190924,0.024254,0.175456,0.080222,0.31207,0.7041,-0.045399,0.135326,-0.111745,0.135445,-0.028102,0.007817,0.117123,0.04598,-0.025409,0.199784,0.418319,-0.025824,0.07935,-0.039248,-0.174952,0.205761,0.21848,-0.304179,0.098102,0.2691,0.057772,0.152615,0.313996,0.162032,-0.021454,0.021915,-0.168933,-0.011152,0.121839,-0.034885,0.184457,0.13098,-0.16005,-0.021183,0.010988,0.023644,0.117081,0.073564,0.011607,-0.08816,-0.129616,-0.096808,-0.102755,-0.386496,0.189655,-0.084518,0.218485,-0.126868,-0.151458,-0.235106,-0.256094,-0.110014,0.015855,-0.122245,0.104415,0.085917,0.099183,0.282795,0.111664,-0.01449,0.133766,-0.203759,0.111371,0.036066,-0.367239,-0.032027,0.058545,-0.095749,0.09576,-0.247198,-0.103038,-0.035301,0.211323,-0.06874,0.080606,-0.033806,-0.033569,-0.054044,0.236481,0.389816,-0.159889,-0.011488,0.052211,0.106294,0.117308,-0.064325,-0.297304,-0.120271,-0.206727,-0.07134,0.092602,0.116445,-0.075944,0.056527,-0.347412,0.04907,-0.022931,0.27612,0.029056,0.048555,0.148394,-0.013094,0.180907,-0.034797,-0.195691,0.096793,-0.030439,0.155721,-0.063354,-0.093034,-0.022262,0.062687,-0.140006,-0.14205,0.181141,0.075511,0.185651,0.053544,0.207477,0.009121,-0.027851,-0.093423,0.081154,0.076717,0.246064,-0.04121,0.074658,-0.124578,-0.069289,0.029392,0.143399,-0.08781,0.025577,0.151281,0.072858,0.021887,-0.295893,0.019135,-0.064061,-0.0469,0.097912,0.033188,0.026287,-0.12239,-0.007611,0.053132,0.098827,-0.036649,0.049246,0.088519,0.143597,0.261076,0.134539,-0.146975,0.156692,-0.002915,0.03382,0.011517,-0.09163,-0.042077,0.01185,0.050941,0.030714,-0.087743,-0.062132,0.137395,-0.075641,0.049909,-0.002481,0.21887,0.142632,-0.026246,0.116394,-0.079929,-0.09251,0.193483,0.071002,0.07662,-0.043859,-0.039718,-0.053178,-0.103393,0.113476,-0.02696,-0.097549,-0.112167,0.000618,-0.040524,-0.045726,-0.008111,-0.007455,0.010878,-0.048135,0.320795,0.081211,-0.119846,-0.00961,-0.007528,0.160148,-0.21624,-0.189529,0.234935,-0.07736,0.013582,-0.056292,0.064508,-0.015774,0.087975,-0.184294,-0.064821,0.196059,0.166847,0.281236,0.059661,0.220131,-0.080991,0.023907,0.029027,0.163698,0.30009,0.253292,-0.10924,-0.012839,-0.103148,-0.10016,-0.03465,0.033455,-0.107412,-0.083058,0.112799,-0.060408,0.077145,-0.273898,0.009952,-0.177186,0.121891,0.167529,-0.137537,-0.082329,0.055689,0.03548,-0.0125,-0.146675,-0.097209,0.052511,0.062101,0.172805,0.168716,0.309675,-0.082622,0.215456,-0.206573,-0.008186,-0.13477,-0.380342,-0.038591,0.133034,0.007098,0.138995,0.018806,0.060186,0.058494,0.172023,-0.111391,0.140181,0.219155,0.010813,-0.00565,0.148981,-0.083771,-0.248401,0.145525,-0.010609,0.042799,-0.025512,-0.020778,-0.103902,-0.114187,0.078708,0.096901,-0.210838,-0.09642,-0.181761,0.019305,-0.184006,-0.114139,-0.076886,-0.08207,-0.084397,0.303333,-0.03026,0.06198,-0.009492,-0.53048,0.168251,-0.195399,-0.233398,-0.073616,-0.30035,0.080414,0.050278,-0.231774,-0.041795,0.025203,0.057958,-0.003663,0.135514,-0.283442,-0.022156,-0.392312,-0.01368,0.049229,0.362985,-0.130234,-0.00094,0.257508,-0.122368,-0.223521,-0.00289,-0.114185,0.090958,-0.188878,0.152458,-0.655246,-0.032403,0.188947,0.082627,-0.046076,-0.236097,0.114139,-0.119824,-0.155403,-0.25937,0.122293,-0.043179,-0.125101,-0.156894,0.070687,0.384464,-0.15101,0.185167,0.207471,0.19999,0.126349,0.039083,-0.149435,0.413031,-0.049797,-0.301724,0.443023,-0.227371,-0.021737,0.314695,0.296154,0.252523,-0.428512,-0.066613,0.077009,0.027502,0.475854,-0.290452,0.237407,-0.123421,-0.062319,-0.090656,-0.075293,-0.210416,0.416363,0.091523,-0.069915,-0.36434,0.028828,0.018625,-0.06687,0.125826,0.573053,-0.218184,0.184671,-0.149819,-0.11415,0.031354,-0.140646,0.074306,-0.179304,0.18463,-0.317194,-0.096353,0.247421,-0.172841,0.08716,-0.173538,0.069766,-0.067362,-0.185881,0.047084,-0.146779,0.131222,0.010843,-0.06766,0.084417,0.045741,0.179758,-0.214333,-0.002534,-0.239778,0.156363,-0.043468,0.030948,-0.063259,0.063015,-0.089721,-0.016565,-0.173416,-0.015798,-0.007069,0.213656,-0.00212,0.134517,-0.132314,0.113471,0.069103,0.057293,0.278758,-0.22591,0.252981,0.151517,0.329541,-0.159245,0.105144,0.072215,0.209903,0.190197,-0.082645,-0.106017,0.195645,0.192208,0.106674,0.042409,-0.293984,-0.226961,-0.030042,0.070142,-0.040878,0.174777,0.092514,-0.067549,0.052678,0.119399,0.047934,-0.070885,-0.117499,0.001537,-0.057047,-0.071229,0.153401,0.03731,-0.154146,-0.026697,-0.007569,0.076977,-0.071318,0.129952,0.004468,-0.070104,-0.143833,0.066431,0.010323,-0.028178,0.200082,0.208999,0.020358,-0.094638,0.180944,-0.156481,0.232422,-0.146655,0.069043,0.160091,-0.146426,0.062162,0.092816,-0.15255,0.056966,0.114088,-0.115304,0.264656,-0.211456,0.149486,0.315829,-0.027591,0.119441,-0.23241,0.04457,0.287241,-0.060787,0.041312,-0.019339,0.052584,-0.099553,0.008621,0.126768,0.188762,-0.132617,0.167363,-0.191614,0.168607,-0.106117,-0.262069,-0.005831,0.229195,-0.094062,0.323279,-0.017625,-0.136066,-0.082135,0.391839,0.011426,-0.015832,-0.04517,-0.145668,0.244682,-0.053299,0.113562,0.192254,0.09514,-0.114129,0.08966,0.077829,-0.123032,-0.057783,-0.109022,0.085382,-0.029386,-0.005522,-0.220793,-0.143293,0.023647,0.045904,-0.275261,0.153385,0.022812,-0.106406,0.23621,-0.020937,-0.224232,-0.213718,-0.16424,0.040975,0.11168,-0.260302,0.261076,-0.037834,-0.068862,-0.163269,-0.050647,-0.048531,-0.227456,0.065125,0.16189,-0.081496,-0.045961,0.0752,0.213812,-0.156008,0.042066,-0.05536,-0.014203,-0.286406,0.035835,-0.03177,0.325943,-0.079229,0.04056,0.121384,-0.070455,-0.092872,-0.047857,0.289772,0.069436,8.3e-05,-0.005048,-0.236986,0.128737,-0.282123,-0.151714,-0.01232,0.030875,0.078754,-0.00505,-0.11529,-0.083268,-0.048097,-0.16837,-0.100579,0.208617,0.176804,0.05371,-0.026492,0.179351,-0.064741,0.184527,-0.122937,0.159119,0.266253,0.064303,0.057563,-0.028706,-0.196427,-0.05909,0.12615,0.06301,-0.199817,-0.146338,0.108874,-0.021665,-0.048922,-0.181361,-0.019734,-0.202781,0.085482,0.095116,-0.201591,-0.142587,-0.11819,-0.089566,-0.0483,0.073544,-0.131286,0.004745,-0.061718,0.057365,0.083406,0.110825,-0.065322,0.328387,-0.117127,-0.143782,-0.02867,-0.25784,0.135995,0.19452,0.13884,0.156658,0.017763,0.062711,0.092924,-0.088434,-0.082599,0.025643,0.207102,0.065115,-0.054592,-0.023263,-0.151449,-0.191423,-0.027868,-0.13196,0.078786,-0.16568,0.045813,0.0635,0.043175,0.083366,0.010018,-0.178449,0.050041,-0.058454,0.095916,-0.174835,0.064939,-0.049231,-0.138201,-0.219959,0.107172,0.293282,-0.05419,0.066917,-0.256068,0.094591,-0.233405,0.035197,0.080657,-0.054109,0.103024,-0.084965,-0.00143,0.191332,-0.011678,-0.019569,0.135784,0.068077,-0.083187,-0.130432,-0.263631,-0.015648,0.070543,0.245236,-0.060015,-0.098785,-0.174932,-0.121238,0.018452,0.059914,-0.177154,0.224131,0.000862,0.164001,-0.215157,-0.091128,0.072393,-0.040777,0.001904,-0.074073,0.086504,-0.030198,0.102038,-0.217032,0.051936,-0.056296,-0.146601,-0.121455,0.179788,0.187668,-0.065238,-0.010151,-0.038948,0.140408,0.017652,-0.054553,-0.012685,0.039732,-0.206553,-0.119249,0.363566,-0.053025,0.031913,0.219381,0.144957,0.228975,-0.055557,-0.050086,0.069472,0.059359,-0.17912,-0.248907,0.030245,0.098698,0.019311,0.037126,-0.188513,0.273006,-0.200282,0.07358,-0.030058,-0.096364,0.004837,-0.102885,-0.091634,0.059732,0.050972,-0.05245,0.131993,-0.113283,-0.13025,-0.058043,-0.125369,0.089151,0.029015,-0.283721,0.208639,2.565978,-0.227535,-0.233321,-0.114105,0.068344,-2.042033,0.524814,-0.175845,-0.371762,-0.138398,-0.084884,0.788756,0.384905,-0.191975,-3.331485,0.130935,0.042674,1.592475,-0.314118,-0.221045,0.132638,0.139202,0.467106,0.415429,0.690956,1.109814,-0.044901,0.470132,-0.467899,-0.312182,-0.559784,0.204356,-0.029892,-0.033848,-0.381563,0.558669,0.063865,-0.592156,-0.067614,0.525014,0.138161,1.945994,0.569437,-0.35474,0.029462,-0.154287,-0.078713,0.421521,-0.380437,-0.101368,0.731507,1.243222,-0.049872,-0.040762,0.369196,-1.54531,0.297784,-0.370705,-0.172465,0.1827,0.082672,0.322912,1.346983,0.138449,0.198987,0.267556,1.582073,0.369925,0.788151,-1.502526,0.159233,0.163742,0.051323,0.187221,-0.085217,-0.171841,-0.131022,-0.25381,-0.268847,0.526722,-0.289317,-0.377693,0.08446,-0.093402,2.036663,-0.850423,-0.210088,-0.197392,0.230055,0.003363,0.077472,0.048074,1.38428,0.233501,-0.135229,-0.056128,0.201138,-0.164551,0.045428,0.047964,0.026354,-0.067641,0.240238,-0.120121,0.025989,0.107193,-0.071952,0.097838,0.192473,-0.253483,0.014128,0.024804,-0.00203,-0.069817,0.078335,0.034009,-0.229462,-0.063133,0.076762,-0.027251,-0.076606,-0.078225,-0.149022,0.155648,0.139677,0.0086,0.122079,-0.273633,0.074078,0.009162,-0.139873,0.137327,-0.211071,0.04897,-0.078256,-0.167267,-0.058601,0.195026,-0.061442,-0.148752,-0.222034,-0.095067,-0.067757,0.228838,-0.137026,-0.056609,-0.136885,-0.173557,-0.063175,-0.080962,-0.005434,-0.00313,-0.125126,0.027245,0.087512,0.193017,0.155842,-0.248563,-0.266948,-0.045594,0.124417,0.114975,-0.078086,0.017338,-0.06942,-0.04232,-0.348256,-0.047552,0.09073,-0.028427,0.127371,0.042487,-0.01468,-0.169167,0.112038,-0.002487,-0.148924,-0.048655,-0.030308,-0.060862,0.115282,0.043715,0.043638,0.147756,0.056752,0.112492,-0.173099,-0.185163,-0.078088,-0.047554,-0.02166,0.028484,-0.003167,-0.034362,-0.071945,-0.013732,-0.070185,-0.024126,0.104268,-0.161963,-0.049099,0.032749,-0.015317,0.064027,0.122724,-0.080123,-0.111246,0.07504,-0.035413,-0.061966,0.026812,0.061762,-0.161072,-0.16832,-0.015385,0.020793,0.016455,-0.110798,-0.047953,0.157776,0.018775,0.044655,0.012956,-0.189362,-0.01757,-0.008214,-0.124714,-0.107284,-0.071583,0.173782,0.028089,0.014982,0.087739,-0.032698,-0.023522,-0.036105,-0.130358,0.032479,-0.101611,0.117467,-0.004997,-0.040223,-0.12564,-0.075926,-0.214041,-0.115673,-0.001284,0.056133,-0.25288,0.078439,0.01591,0.094095,0.10831,-0.277195,-0.257442,-0.106377,0.112639,0.073918,0.014957,0.099105,0.100622,-0.042105,-0.218983,-0.014766,-0.040338,-0.112415,-0.100403,-0.041222,-0.051394,-0.153346,-0.036335,-0.007056,0.036366,0.090602,-0.038695,-0.067499,0.139614,-0.039405,0.096432,0.209873,-0.042764,-0.108077,0.038634,0.024655,-0.046163,0.025653,-0.006762,0.098385,-0.028408,0.003215,-0.122668,0.074222,0.309013,0.103335,-0.473715,0.162128,0.182185,0.069346,0.152954,-0.189489,-0.082441,0.23153,0.231163,-0.04119,0.136063,-0.354699,0.444569,-0.104185,0.276687,0.13371,-0.156177,-0.379829,0.001198,0.334866,0.339188,-0.501765,0.296317,0.011379,-0.304512,0.106145,0.255151,-0.399188,-0.010421,0.02212,9.8e-05,0.1154,-0.178996,0.069234,-0.225732,0.108242,0.045357,0.24663,0.15386,0.047477,0.395257,-0.302047,0.152757,0.039907,0.023981,0.127874,0.469359,0.088888,-0.14975,-0.185096,0.288582,-0.238969,0.038963,-0.46452,-0.251984,0.083784,0.037516,0.06002,-0.070765,-0.031071,-0.151483,-0.008784,-0.016981,0.431159,0.249828,0.391056,0.29774,-0.00633,0.422591,0.133628,-0.816393,0.478889,0.068082,0.486017,0.125741,0.187297,0.066447,0.08567,-0.053676,0.362699,0.046477,-0.494301,-0.03819,-0.049415,-0.150236,-0.062925,-0.058898,-0.396109,0.153994,-0.119855,0.136203,0.134873,-0.026126,0.016178,-0.102892,0.000522,-0.08217,-0.065599,-0.204153,-0.127299,0.19324,0.056285,0.041517,0.162572,-0.039015,0.181122,-0.192655,0.023425,-0.152439,-0.091555,-0.051672,-0.011561,0.042834,0.047983,0.00857,-0.052269,-0.147077,-0.08516,-0.223288,-0.015712,0.086491,0.019286,0.02928,0.066635,0.182744,-0.030626,0.253107,-0.07011,0.089623,0.088099,0.15181,0.036788,-0.055229,0.084132,0.018253,0.094575,-0.05391,-0.080434,0.280221,0.095728,0.170863,0.027138,-0.080694,-0.057575,-0.171233,0.123018,-0.007723,0.049456,-0.091572,0.035059,-0.083529,0.15168,0.021213,-0.074454,-0.087473,-0.132944,0.031756,-0.014889,0.161191,0.107646,-0.144148,0.031321,0.03095,0.124743,-0.132575,0.088508,-0.022729,0.062849,0.027042,0.136014,0.095629,-0.087467,0.209302,0.144676,0.036411,0.191714,0.101175,-0.031634,0.025596,-0.132789,0.079973,0.055349,0.195276,0.014131,-0.159532,0.244861,-0.048928,-0.088948,0.125794,0.039452,0.218945,-0.023526,-0.057803,0.09566,0.004691,0.031952,-0.074447,-0.084144,-0.068805,-0.009455,0.075553,-0.251692,0.162477,-0.134919,0.118837,-0.068688,0.274631,-0.051916,-0.071777,-0.19354,0.009127,0.139789,0.180722,-0.090848,0.167116,-0.115512,0.073491,0.034233,-0.031874,-0.159154,-0.006467,-0.035086,-0.155261,0.034781,-0.178129,-0.053761,-0.214183,-0.071471,0.066235,0.005612,-0.067776,-0.066656,0.084045,-0.048569,-0.210023,-0.018366,-0.14759,0.037307,0.290831,0.226661,0.058533,-0.115715,-0.005603,-0.033315,-0.06236,0.014263,-0.049587,-0.102141,-0.061287,0.011298,0.080429,-0.161961,-0.152718,-0.083336,-0.158708,0.086437,0.089737,0.088973,0.018665,-0.176849,0.246611,-0.117341,-0.016726,0.141975,0.079078,-0.019039,0.001809,0.126855,-0.18405,-0.119287,-0.130978,-0.03968,-0.128879,-0.04335,-0.020384,0.14758,-0.140312,-0.039793,-0.06397,0.062652,-0.26056,0.207291,-0.000226,-0.150792,-0.037074,-0.296681,0.060985,-0.018823,0.123252,0.088245,-0.08275,0.10521,-0.167913,0.024167,0.300482,-0.172696,-0.054796,0.036839,0.078918,0.047266,-0.07003,-0.113215,-0.072182,-0.23138,0.284531,-0.015561,0.246216,-0.015972,0.042095,0.126912,-0.273423,-0.286451,0.179803,-0.052786,0.01586,-0.162549,-0.094283,0.033154,-0.102882,0.007539,-0.030039,-0.011496,-0.146782,0.10699,-0.031435,-0.10539,-0.220461,-0.118362,-0.212843,0.215313,-0.038632,-0.287231,-0.020488,0.086966,0.059675,0.043905,-0.000556,0.059781,0.158645,-0.220019,-0.199481,0.24517,-0.17762,-0.063675,0.150985,0.187934,0.165193,-0.037057,0.043667,-0.045888,0.16954,-0.012621,0.021611,0.065799,0.127689,-0.165684,0.001851,-0.243252,0.056243,-0.202105,0.005636,-0.065528,-0.306077,0.047655,-0.10024,0.012606,0.095315,0.02698,-0.087278,-0.011666,-0.040342,0.047752,-0.058378,-0.06784,-0.02898,-0.020333,0.033976,-0.042006,-0.002513,0.12034,-0.052349,0.22386,-0.048093,-0.0074,-0.035988,-0.05059,0.124841,0.012567,-0.060369,0.021852,0.032844,-0.094654,-0.081633,-0.077244,-0.104065,0.015354,0.007041,0.049588,-0.223422,-0.045771,-0.235622,0.034116,0.022747,0.041449,0.064846,0.116441,-0.020804,0.031993,-0.071929,-0.034162,-0.09367,0.222701,-0.026064,-0.045285,0.091369,0.074939,0.187957,-0.030396,0.021608,0.062222,0.108815,-0.012622,0.047208,0.067772,0.066476,-0.107592,-0.055108,0.130778,0.019474,-0.1183,-0.092117,-0.073052,-0.052045,-0.02148,-0.124454,0.073893,0.107229,0.032178,0.166661,-0.177067,-0.237417,-0.026553,-0.054797,0.071838,-0.020558,0.097839,0.153408,0.097122,-0.110082,-0.126277,0.051828,0.013274,0.015388,0.169319,0.064486,0.022028,0.044873,-0.04157,0.10589,-0.089551,0.180802,-0.022137,0.091883,0.061825,0.064678,-0.012601,0.132377,0.063546,0.097743,0.105848,-0.176502,-0.020726,-0.153939,0.161911,-0.168111,0.027791,0.047433,0.081411,0.088637,-0.095947,0.021271,0.262511,-0.000942,0.108971,-0.008708,0.059215,-0.090908,-0.021631,-0.132398,-0.234043,0.158465,0.063155,0.391116,-0.06116,0.193901,0.001755,-0.09174,-0.142737,-0.001472,0.051079,0.217091,0.165599,0.194087,0.012858,0.028703,0.01636,0.059801,-0.068359,-0.014954,-0.010455,-0.064189,0.071546,-0.165668,-0.01333,-0.120706,-0.05619,-0.020896,-0.185545,-0.076811,-0.02691,0.117449,-0.005532,-0.21139,-0.01913,-0.042618,0.080475,0.273445,0.207969,0.091116,-0.1034,0.134653,0.086249,-0.013052,-0.083759,-0.080164,-0.148635,-0.120125,0.167186,-0.043644,-0.09113,-0.13657,0.069524,0.065666,-0.061511,0.195408,0.026363,0.042704,-0.1814,0.175135,-0.045296,-0.111789,0.248953,0.102586,0.046809,-0.140344,0.033651,-0.053985,-0.156487,-0.039904,-0.066258,-0.235978,0.021656,-0.035423,0.091347,-0.112716,-0.076531,-0.185186,-0.029167,0.028952,-0.046314,0.821918,0.004041,-0.037455,0.198791,-0.166866,-0.276455,0.024532,-0.556933,-0.232462,-0.328296,0.204756,0.33586,-0.147886,-0.030633,-0.365154,0.46759,-0.144631,-0.139536,-0.072346,-0.085546,-0.387484,0.150049,0.063053,-0.157417,0.07734,0.33812,-0.522465,-0.740564,-0.070168,-0.004403,-0.109192,0.018046,-0.160826,-0.019084,0.031316,0.05279,0.317626,0.00324,0.182694,0.292031,0.444407,0.903199,-0.122249,0.31988,-0.284713,0.141381,-0.353694,-0.086053,0.216875,0.164888,-0.059085,-0.01602,-0.341975,-0.286343,-0.098436,-0.499353,-0.023351,-0.422232,0.312796,0.208793,0.21579,0.084722,0.232456,-0.184427,-0.129705,-0.036894,0.079149,-0.082566,0.419605,-0.301221,-0.191024,-0.021032,-0.187306,0.422215,0.06628,0.10613,-0.144837,-0.44108,-0.120459,0.049229,0.14191,-0.334931,0.008873,0.09399,0.335818,0.153251,0.098391,0.175199,0.040056,-0.658575,0.153188,-0.022932,0.441674,-0.083055,0.077867,-0.145736,0.102476,0.052465,-0.098365,0.065624,0.044084,-0.077786,0.184269,-0.214262,-0.036035,0.047529,0.015042,0.060634,-0.03975,-0.083703,-0.15894,0.122616,-0.167921,0.03226,-0.14504,0.038057,-0.274521,0.005598,-0.083689,0.077862,-0.018828,0.055636,-0.011877,0.130161,-0.041274,0.025212,-0.040903,-0.049737,-0.095769,0.132722,0.01645,0.011679,0.082887,0.128735,0.090264,0.156728,0.180865,0.239382,0.051934,-0.223065,-0.04361,0.137502,-0.087103,0.104992,0.264681,-0.018273,0.00481,0.096495,-0.294557,-0.092439,0.052653,-0.142974,0.024788,0.208263,-0.143703,0.135403,-0.011835,-0.134247,-0.0438,0.025507,0.119452,0.170584,0.098515,0.163347,0.160078,0.0211,-0.231622,-0.114524,-0.095438,0.115112,-0.219378,0.046476,-0.135867,-0.043219,-0.015178,-0.14977,-0.010067,-0.17819,0.042805,-0.008747,0.045186,0.097246,0.118606,0.096262,-0.043608,-0.148008,0.120856,0.081226,0.072887,0.028602,-0.019766,-0.037646,-2.027475,0.429161,0.231215,-0.196064,0.089212,1.035362,-0.264434,-0.113503,-0.133984,0.041558,0.010565,-0.571537,-0.003114,0.340538,1.633125,0.173268,0.087081,-0.471211,0.116747,-0.289967,-0.358792,0.134443,-0.065895,0.001506,-0.362788,-1.169538,-0.21357,0.612646,-0.390318,0.235237,1.243706,-0.60261,0.155775,-0.115051,0.819182,-0.231688,0.038858,-0.241678,-0.017307,0.345258,0.028223,-2.304729,-0.410127,-0.707818,0.36615,-0.262858,-0.603327,-0.117543,0.65198,-0.066599,0.335332,-0.282264,-0.121563,0.096711,-0.395416,2.977709,-0.174059,0.527755,-0.223006,0.703269,-0.295559,-0.196895,-0.592086,0.358543,0.238629,-0.502572,-0.574315,-0.274024,-0.533081,1.028841,-0.6247,0.048364,-0.007199,-0.015783,-0.421633,-0.042355,0.599933,0.161351,0.027192,-0.479748,-0.102951,0.089387,-0.08152,-0.186058,-0.604935,1.693633,-0.138849,0.432833,0.030562,-0.111643,0.095254,0.088036,-0.837064,-0.700895,-0.238264,0.204671,0.167471,-0.309716,0.067565,-0.285525,0.164693,-0.290994,0.169681,-0.002362,-0.220084,-0.007801,-0.092229,-0.079343,0.485612,-0.292,-0.187227,0.078133,0.159688,-0.119348,0.065651,-0.199422,-0.080024,-0.165819,0.41025,-0.093172,0.241507,0.145912,0.076314,0.151179,-0.167994,-0.26846,0.001658,-0.075806,0.036039,-0.140122,-0.208814,0.10261,-0.084237,0.086254,-0.106498,-0.007944,-0.023325,0.096731,-0.023017,-0.119837,-0.316503,0.008422,0.040536,0.461263,-0.003092,-0.257037,0.092288,0.160824,0.056627,0.020754,0.306668,-0.270116,0.104913,-0.14042,-0.118736,0.375321,-0.203112,-0.134707,0.317495,0.065426,0.228031,-0.034761,-0.067242,0.249743,0.122902,-0.054954,-0.079504,0.103029,-0.053126,-0.082414,0.164769,-0.1673,-0.293992,-0.11697,0.119074,0.024868,-0.295273,0.064249,-0.127882,-0.130752,0.060291,-0.028715,-0.122647,0.186421,-0.193964,0.189777,-0.031089,-0.142024,-0.080259,0.031269,-0.056415,0.159385,-1.894031,0.312095,0.411753,-0.213469,0.28696,1.293517,-1.074102,0.358519,0.271037,0.28802,-0.175131,-0.851626,0.083744,0.221277,2.7582,-0.426912,0.023569,-1.015307,0.757757,-0.030615,0.33666,-0.163861,-0.487276,-0.844427,-0.592954,-0.759637,0.443084,-0.114372,0.431126,0.230824,0.590833,-0.259572,0.447494,-0.146366,0.135367,-0.105892,-0.317769,0.563089,-0.20564,-0.389438,-0.3887,-1.67937,-0.423496,0.006237,0.25476,-0.1401,0.141011,-0.231252,-0.139039,-0.043626,-0.341862,-0.916196,0.381451,0.371688,-0.284294,1.531484,0.210869,-0.200154,-0.202386,-0.376332,-0.515603,-0.209774,-0.918686,0.232175,0.149943,-0.524424,-0.875391,0.201196,-0.240644,1.175949,-0.160659,0.363659,0.455776,-0.335787,0.595379,0.050488,-0.380389,0.417425,0.304345,-0.213229,0.046793,0.748915,-0.145832,-0.217735,-1.15757,1.004421,-0.189096,-0.295902,-0.446347,-0.065022,-0.042053,-0.087751,-1.177134,-0.564916,-0.144279,0.033301,-0.046056,-0.045211,-0.007529,-0.054553,-0.03338,-0.028004,-0.07698,0.131783,0.080518,0.063731,-0.011464,-0.099168,-0.03672,-0.032803,0.146267,-0.070634,0.149995,-0.111394,-0.121301,-0.157658,0.251983,0.035778,0.139822,-0.232961,-0.002641,0.067433,0.14182,-0.101291,0.016291,0.007157,0.036923,0.059069,0.075584,-0.106396,0.027078,-0.035516,-0.006286,-0.038497,-0.16728,-0.103007,-0.065487,-0.05169,-0.143872,0.090982,-0.101655,-0.005207,0.004723,