{"format":"ratass-rl-policy-v3","source":"ray-rllib-ppo","objective":"race-route-progress-v1","observationSize":33,"actionSize":2,"output":"first actionSize outputs are deterministic direct throttle and turn controls","layers":[{"inputSize":33,"outputSize":96,"activation":"tanh","weights":[0.001913,0.011194,0.018684,0.207328,0.332011,-0.160198,0.128486,-0.025429,0.064026,-0.148014,0.236111,0.280255,-0.457532,0.136988,-0.131347,-0.134928,0.070118,0.106723,0.048112,-0.080255,0.135505,0.019518,-0.002024,0.131685,-0.086851,0.057423,0.215172,0.064972,-0.163907,0.074089,0.131032,0.043823,-0.007677,-0.067236,-0.229725,-0.032773,0.014098,0.200843,-0.165027,-0.009105,0.159518,-0.163985,0.17988,-0.438203,-0.280364,-0.031734,0.139095,-0.278328,-0.046593,0.036211,-0.159922,-0.380938,0.051559,0.05052,0.008945,-0.09416,0.009741,0.11262,0.087213,-0.267194,0.146682,0.113936,0.01471,-0.173903,-0.020555,0.045489,0.131375,-0.040706,-0.057991,0.088908,0.207625,-0.003651,0.058786,-0.132976,0.00779,0.113481,-0.353361,-0.200178,-0.157063,0.033897,-0.168992,0.217715,-0.21111,0.090279,-0.138791,0.114393,0.07725,0.097652,-0.198039,0.064622,0.126968,0.070641,0.141498,-0.163019,-0.146417,-0.203497,-0.008898,0.03502,0.008392,0.101803,0.146191,0.109397,0.124593,0.24603,0.182685,-0.042575,-0.020826,0.117319,0.110195,-0.516351,-0.271424,-0.281634,0.232612,-0.295263,0.429308,-0.127088,0.237981,-0.12436,0.010736,-0.123653,0.050944,-0.134542,-0.153384,-0.148087,-0.15277,0.158709,-0.018088,0.094873,0.034402,-0.016284,-0.071683,-0.075034,-0.003711,-0.227772,-0.122535,0.05939,0.314787,0.343108,0.042414,-0.14777,-0.017464,-0.106817,-0.316366,-0.080131,-0.543332,0.04306,-0.305288,0.305312,-0.160623,0.265057,0.161572,-0.085614,-0.0402,-0.069747,-0.042171,-0.161593,-0.066428,-0.075266,0.162619,0.116342,-0.044281,0.076665,0.089415,-0.174055,0.044875,0.00881,-0.241781,0.061386,-0.228231,-0.621664,-0.200687,-0.035094,-0.085753,0.152019,-0.081878,-0.423777,-0.391994,0.403757,-0.074715,0.233268,-0.410586,0.275084,0.0381,-0.35126,0.316595,0.094081,-0.065524,0.040228,-0.036097,0.102247,-0.000236,-0.033858,-0.166234,0.178745,-0.061016,-0.035243,0.052955,-0.052562,0.027025,-0.402362,0.01358,-0.28244,0.019612,0.341465,-0.15842,-0.012482,-0.042398,0.037396,-0.231989,-0.219923,0.150937,-0.098945,-0.194462,0.120151,-0.062363,0.135744,0.161259,-0.230815,0.089401,-0.031832,0.051268,-0.116197,-0.102866,-0.192858,-0.255509,0.012423,0.061292,-0.265757,-0.006621,-0.097649,-0.014756,-0.11033,0.196608,0.113694,0.145506,0.160586,0.226567,-0.18114,0.0164,0.051479,-0.097995,-0.317179,-0.484336,-0.544121,-0.092367,-0.055061,0.420239,0.119218,-0.288467,0.201543,-0.187305,-0.218998,0.075797,0.135681,-0.19454,-0.106433,0.039211,0.200843,0.043237,-0.124907,0.130429,0.134492,0.054706,0.005293,-0.148062,0.237984,0.075399,-0.010401,-0.873209,-0.302023,0.031388,0.013843,0.061545,0.124604,-0.295159,-0.124871,0.7918,-0.091571,0.707131,-0.05115,0.003851,-0.034244,-0.203779,0.556089,-0.181565,0.094406,-0.228452,-0.183464,-0.065864,0.100364,0.315588,0.10018,0.106912,-0.077865,0.136587,-0.100435,0.067867,-0.129598,-0.050959,0.00895,0.034899,-0.458022,0.111773,-0.093443,0.198114,-0.013357,0.153256,-0.272532,-0.356746,0.539348,-0.208907,0.240559,-0.029531,0.026154,-0.22173,-0.317613,-0.086145,-0.101343,0.160741,0.102728,-0.087936,0.188285,0.026533,-0.280315,0.08046,0.20499,0.298612,-0.008657,0.07913,0.217824,0.075718,0.246769,0.039235,0.046722,-0.388603,-0.203083,0.02787,-0.051226,0.04912,-0.077295,-0.563811,-0.245848,0.312831,-0.298182,0.528427,0.064457,-0.092187,-0.212177,0.012504,0.446995,-0.018939,-0.079774,0.156216,-0.016002,0.055339,-0.149216,0.207752,0.113228,0.086251,0.010338,0.019136,0.029134,0.164771,-0.135649,-0.237462,-0.030817,-0.14694,-0.314789,-0.00833,0.092303,0.063289,-0.131721,-0.085068,-0.282325,-0.244787,0.351484,-0.222945,0.182408,-0.108853,-0.128148,-0.214034,-0.008925,0.269732,0.124834,-0.101237,-0.137598,-0.019534,0.087504,0.10015,0.028966,0.0817,0.147418,-0.036849,-0.247162,0.154894,0.034608,-0.065695,-0.035114,0.187418,0.204553,-0.0828,-0.133226,0.011767,0.088711,-0.091151,-0.175396,0.172402,0.264734,-0.314876,0.238377,-0.049939,-0.351302,0.133175,0.12196,-0.028911,-0.0659,0.159638,0.012263,0.036294,0.141195,-0.032774,0.138982,0.060658,-0.002113,0.14091,-0.03261,0.188152,-0.126267,-0.160526,0.057996,-0.133597,0.10074,-0.272647,0.153292,0.106854,-0.124576,0.125507,0.025295,-0.030046,-0.395205,-0.364384,-0.291902,0.132482,-0.21944,-0.067634,-0.042142,-0.348562,-0.145496,-0.094079,-0.044114,0.037263,0.027469,0.050694,-0.030305,-0.029495,-0.041344,0.029345,0.123671,-0.124398,-0.0019,0.013321,0.097108,-0.041005,0.060183,-0.027987,-0.206733,-0.16994,0.003494,0.193363,-0.179558,-0.112001,-0.147003,0.451122,0.270678,0.396205,-0.195984,0.096809,-0.124891,0.196237,0.322441,0.188469,0.144333,-0.066193,-0.022507,-0.095846,0.059434,-0.028623,-0.140193,-0.202613,0.144511,-0.006876,0.18985,-0.188201,-0.058065,-0.002922,0.010513,0.118829,-0.067519,0.233174,0.085751,0.090278,-0.128865,-0.01383,-0.091083,-0.13649,-0.268344,-0.453697,-0.169509,-0.17049,0.148109,0.266671,-0.049335,-0.060318,-0.0325,-0.113553,0.05319,-0.028401,0.094063,0.140422,0.007567,-0.155922,0.010133,0.157626,0.171808,-0.091655,0.156988,-0.153678,0.085082,-0.084407,0.125032,0.109846,0.005932,0.082551,-0.03411,0.035735,0.168419,0.078398,0.092367,0.042048,-0.016261,-0.608441,0.198024,-0.320239,0.224867,0.190107,-0.023671,0.147806,0.209818,0.16298,-0.064917,-0.072854,-0.01775,-0.204923,0.102649,0.129764,-0.059447,0.207971,0.112845,0.222702,0.001485,0.062169,-0.184032,0.002428,0.047832,0.266941,-0.29078,-0.300563,0.164852,0.061392,0.152085,0.025981,-0.315915,-0.299745,-0.205739,0.007835,0.213658,0.058344,0.245964,-0.284296,0.11615,0.093995,0.065779,0.052579,0.010402,0.089415,-0.014032,0.125932,0.265006,0.110616,0.03962,0.271894,-0.121196,-0.055105,-0.144765,-0.063501,-0.004176,0.173779,0.135283,-0.190965,0.217187,-0.122871,0.04063,-0.052185,-0.067092,-0.216066,-0.467011,-0.180862,-0.035278,-0.002417,-0.428673,-0.155543,-0.174537,-0.430449,-0.052611,-0.010318,0.056493,0.134945,0.005474,0.147984,0.022401,0.02788,0.176342,0.181235,0.129629,0.14773,0.107576,0.126722,-0.181589,-0.017675,0.080027,-0.186272,-0.392318,0.087028,0.182748,0.17841,0.115034,0.030233,-0.382764,-0.083746,-0.076257,-0.177969,0.085535,0.191239,-0.247233,0.116115,-0.092065,0.431084,-0.015765,-0.041551,-0.330579,0.123799,-0.014358,0.098299,-0.117603,0.174039,0.239839,-0.068897,-0.252978,0.124569,-0.111487,-0.035742,0.338531,0.025033,0.144,-0.497082,-0.366924,-0.067503,0.147981,0.060276,0.070986,0.211111,0.190711,0.524513,0.007466,0.591938,-0.372407,-0.097823,0.201795,0.002928,0.126828,-0.113563,0.008966,-0.187419,-0.211637,0.114576,0.053818,0.02687,-0.026831,-0.00106,0.059809,0.046566,0.07948,0.09086,-0.14641,0.142174,0.029621,0.008892,0.029579,-0.172142,0.130661,0.057262,0.04479,0.079709,0.467303,0.432409,-0.266695,0.03573,-0.28204,-0.339097,0.141141,-0.024038,0.130327,-0.034138,0.054425,0.067342,-0.026132,0.175863,-0.071813,-0.06473,0.032613,0.083483,0.058462,0.061726,-0.138782,0.100482,-0.166009,-0.150229,-0.096548,-0.138095,0.20933,-0.187841,0.221205,0.033854,-0.181942,-0.03432,-0.130239,0.173641,0.406558,-0.130226,-0.092892,0.090974,0.248569,0.130087,0.162607,0.332198,0.333943,-0.041876,-0.122718,0.003006,-0.185783,-0.07948,0.056114,0.108702,-0.168686,0.135025,0.078991,0.024654,0.077911,-0.009025,0.174689,0.077692,-0.177817,0.195784,0.260802,0.327041,-0.144992,0.200947,-0.011942,0.144782,0.312722,0.343261,-0.571252,-0.045632,-0.201806,0.071462,0.133914,0.142044,0.176309,-0.402563,0.129838,0.046943,-0.163587,-0.148995,0.056645,0.099879,0.163803,-0.066413,-0.076671,-0.182542,0.310558,0.086653,-0.053975,0.103337,-0.074482,0.088634,0.139282,-0.036938,-0.217326,0.089579,0.014326,0.075417,-0.140453,0.086808,-0.034025,0.207102,-0.18962,0.391117,-0.391584,0.170521,-0.18958,0.121824,-0.213815,0.118879,-0.101006,0.201027,-0.05758,-0.020922,0.043704,-0.047307,0.031095,-0.140843,0.110511,-0.058355,-0.154035,-0.029412,-0.156235,0.080011,0.105843,0.171236,0.183471,-0.058611,0.127145,-0.140505,0.095493,-0.042689,0.167651,0.248726,-0.183934,0.046456,-0.04402,0.065557,0.121686,0.056567,0.310598,0.09985,-0.033758,0.122254,-0.040076,0.106895,-0.024105,0.008482,0.176607,-0.04496,0.0513,0.148998,0.037977,0.167887,-0.079597,0.046058,-0.12725,-0.065134,-0.131544,0.262512,0.269696,-0.071106,-0.05335,0.205679,-0.105732,0.374009,0.349956,-0.47863,0.079438,-0.460347,-0.179506,0.155165,-0.076015,0.016518,-0.281961,0.123965,-0.068285,-0.025225,0.048154,-0.081903,-0.045655,0.055044,0.035366,0.191257,-0.109697,0.198852,0.172819,-0.084905,-0.096202,-0.062307,-0.172726,0.160562,0.014667,-0.209708,-0.185323,0.084844,0.075692,-0.025093,-0.415839,-0.209924,-0.339545,0.075817,-0.028941,0.359331,-0.114512,0.073526,0.082326,-0.055773,-0.030054,0.072002,0.017701,0.035723,-0.088372,-0.117311,0.109897,0.056063,0.10979,-0.074033,-0.091068,-0.028637,0.134964,0.085837,0.060645,-0.164644,-0.110147,-0.286939,-0.020386,0.109984,-0.18602,0.100199,-0.000366,-0.389769,-0.428706,0.302286,-0.227926,0.162012,0.195748,-0.09728,0.110563,-0.15112,-0.108114,0.098137,-0.077486,-0.094946,0.02563,-0.178495,0.062391,-0.137664,0.174811,-0.071471,-0.012786,-0.183776,-0.049108,-0.046774,0.063791,-0.255484,-0.013318,-0.237231,0.064324,-0.257022,-0.114517,-0.02682,-0.01403,0.15885,-0.447994,-0.232128,0.246778,0.095218,-0.047813,-0.012387,-0.210455,-0.202537,-0.195145,0.141236,-0.102395,-0.067713,-0.026055,0.177761,0.102264,0.123495,-0.08427,0.077265,-0.019822,-0.011895,-0.24937,0.050143,0.059134,0.018067,-0.078094,0.039444,0.152408,0.041087,0.230386,0.012233,0.052093,-0.166031,0.163108,-0.430079,-0.265892,0.110689,-0.054925,-0.126283,0.445687,-0.253973,0.293636,-0.003949,0.091814,0.025035,0.071634,-0.106372,-0.091889,-0.114212,-0.135031,0.184012,0.04137,-0.108466,0.012785,-0.012616,-0.045981,-0.147657,0.085598,-0.017601,-0.188594,-0.179708,-0.277598,-0.234369,-0.094904,-0.090348,-0.105366,0.125023,0.330523,0.363822,0.420346,-0.296097,0.336691,-0.149053,0.162506,-0.09336,0.14181,-0.032743,0.10044,-0.122858,0.249962,0.128808,0.14331,0.00703,-0.046802,-0.144519,-0.02419,-0.050663,0.014927,-0.086035,0.073036,0.027707,-0.062367,-0.077527,-0.208232,-0.316685,-0.045098,-0.065247,0.092075,0.137142,0.103373,-0.466226,-0.270402,0.028051,0.125857,0.193146,-0.484176,0.291459,-0.20343,-0.294391,-0.04091,0.08589,0.121483,0.246578,0.179571,0.106021,-0.071566,-0.205633,-0.061907,0.127315,0.123314,0.087775,-0.076237,0.199692,-0.039396,-0.113901,-0.236679,-0.067863,0.022434,-0.464505,0.028671,-0.032916,-0.139151,0.107547,-0.45324,-0.133422,0.169223,0.158038,0.203566,-0.064578,-0.044953,0.051379,-0.140581,-0.301255,0.132951,-0.039061,-0.039239,0.242289,-0.145263,-0.054804,-0.146836,-0.069791,-0.174353,-0.261667,-0.038894,0.03238,-0.120981,0.026789,0.051475,0.122271,-0.080792,-0.058082,-0.274093,0.11964,0.068545,0.176742,-0.150913,0.174525,0.158831,0.148544,0.161953,0.051909,-0.210942,0.125977,0.008448,0.193678,-0.179518,-0.068654,-0.165021,0.073829,-0.05699,0.130873,0.032476,-0.180255,-0.111424,-0.025064,0.02669,-0.177736,0.137091,-0.047106,0.105444,-0.072864,0.001495,-0.071222,0.0843,0.396178,-0.018332,0.252724,-0.002975,-0.027182,-0.463507,-0.468607,-0.551071,0.20508,-0.2723,-0.196722,0.141638,-0.303781,-0.285865,-0.021889,-0.044911,0.189803,0.041785,-0.018017,-0.12464,0.063574,-0.141073,-0.070878,0.092817,0.138936,0.053181,0.05305,-0.045846,-0.107205,0.284331,-0.109902,-0.060919,-0.506455,-0.036126,-0.049678,0.016148,0.13229,0.098761,-0.287653,-0.157461,0.569567,-0.174689,0.521896,-0.226033,0.177973,-0.374061,-0.324471,0.14396,0.007034,0.204799,0.228418,-0.05673,0.229149,0.094563,0.292914,-0.223384,0.126726,-0.08411,0.209881,0.097145,-0.131907,-0.196582,-0.07734,0.062522,-0.036761,0.031109,-0.295089,-0.088154,-0.210078,-0.185926,-0.021587,0.26595,0.50839,0.299281,-0.134771,0.168395,0.357271,0.011532,0.302696,0.497202,-0.042247,0.007161,-0.127214,0.08148,-0.068874,-0.083583,-0.041825,-0.03765,-0.186991,-0.178732,0.050205,-0.00443,0.042926,-0.133684,0.108719,-0.108467,0.140228,0.134837,-0.180985,-0.256986,0.106429,0.026175,0.051848,-0.101478,-0.398705,-0.373551,0.311338,-0.219675,0.332571,0.649388,-0.176721,0.016227,-0.01239,0.168041,-0.204948,-0.112816,0.055888,-0.043125,-0.164779,-0.096775,0.052516,-0.076358,-0.09953,0.065949,0.151719,0.096627,0.055761,0.014001,-0.21016,0.070179,-0.360994,0.327803,0.16444,-0.009872,0.181494,0.140086,0.09365,-0.293323,-0.110287,-0.573071,0.093631,-0.344671,-0.480485,0.067533,-0.161566,-0.13144,-0.385502,0.197427,-0.039488,0.038716,0.066596,0.188967,-0.181375,-0.226077,0.073324,0.11374,0.14753,0.036011,-0.105386,-0.130479,-0.15199,0.068757,-0.120478,0.164301,0.104706,0.246992,-0.058995,-0.128834,0.168941,0.041711,0.003709,0.016519,-0.485641,0.132631,-0.19719,0.332962,0.19367,-0.26695,0.212053,-0.181553,0.025409,-0.145284,0.173952,0.047097,-0.057523,0.17594,-0.100984,-0.110678,0.094624,0.05207,0.250681,0.007972,0.094728,0.101749,0.133156,-0.11066,0.2273,0.074752,0.035893,-0.005352,-0.16767,0.05202,-0.081212,-0.401947,-0.293231,-0.211027,0.158249,-0.118274,-0.129244,0.068325,-0.004181,-0.234066,-0.008317,-0.128782,0.139323,-0.076593,0.215137,0.019946,-0.060972,-0.008796,-0.156063,-0.07953,-0.097352,-0.040269,0.144226,0.149805,-0.085568,0.177949,-0.026729,0.244267,-0.18227,-0.20572,-0.036371,0.156545,0.111279,0.071449,-0.174899,0.035473,-0.218289,-0.08946,-0.021099,-0.092228,0.290971,-0.167035,-0.041128,0.153638,-0.020724,-0.106732,0.157165,-0.163228,0.020633,-0.005913,0.290357,0.10733,0.00902,-0.102835,0.15386,-0.096367,-0.046686,-0.018025,-0.098541,-0.212327,0.138085,0.536418,0.346703,-0.092429,0.004829,0.063423,0.128836,0.389142,0.312355,-0.53615,0.098744,-0.516154,-0.234359,0.040828,-0.109588,0.243663,-0.579101,0.11273,0.10528,0.095238,-0.059739,0.11565,-0.134471,-0.041059,0.141439,-0.015261,-0.063735,-0.064403,-0.072479,-0.077869,-0.095135,0.179284,0.11702,0.17046,0.111297,0.017216,-0.13988,0.076387,0.021923,0.000952,-0.502527,-0.278281,-0.335694,0.247223,-0.240304,0.007852,-0.195571,0.204999,-0.215734,0.1519,0.133995,0.053617,0.00311,0.158373,-0.239821,0.100403,0.247593,0.013859,-0.15628,-0.160889,-0.068052,-0.196488,-0.018971,-0.13495,0.195142,-0.131344,0.18841,0.039247,-0.099745,0.167469,-0.019901,-0.153662,0.142864,0.336012,0.480108,0.130929,-0.209006,0.151588,-0.125767,0.160643,0.187472,0.002268,0.085328,-0.151594,-9e-06,0.108741,-0.132485,0.200347,-0.000938,-0.017508,0.045546,-0.036057,0.001929,-0.04822,-0.054234,-0.086548,0.134663,0.143259,-0.076349,-0.024705,0.09429,-0.097586,0.067019,-0.179713,-0.051435,0.007258,0.554069,0.244831,0.062046,-0.255679,-0.027609,0.362161,0.009048,0.357476,0.236224,0.353052,-0.132369,-0.209164,-0.071851,0.052372,-0.005048,-0.045146,0.117128,-0.121465,-0.143716,-0.190679,0.043293,-0.159588,-0.155411,0.030578,0.075949,-0.035833,-0.157361,-0.450611,0.015426,0.095905,-0.01354,0.174814,0.149361,-0.212176,-0.306809,0.338339,-0.234671,0.256462,-0.10076,0.332296,-0.432256,0.053328,0.058018,0.067261,0.171025,0.019364,-0.091926,0.171678,0.007795,-0.252345,0.096075,-0.086577,0.22449,-0.07601,-0.007473,0.130002,0.03832,0.090989,-0.130482,-0.020527,0.124234,0.078819,0.07445,0.026068,0.154338,0.027322,-0.508301,-0.276306,-0.4243,0.052884,-0.055305,0.072261,-0.072872,0.174005,0.071908,-0.037094,0.044999,-0.007493,-0.071884,0.178497,-0.122852,-0.097878,0.053082,-0.066545,-0.036866,-0.039403,0.10018,-0.103765,-0.163378,-0.056589,-0.108353,0.169688,0.042516,0.253698,-0.011082,0.040679,-0.088506,-0.069653,-0.058241,-0.416588,-0.314862,-0.130518,-0.034159,0.119393,0.259167,-0.089788,-0.1153,-0.166176,0.189998,-0.14353,0.096599,-0.122576,0.011839,-0.161807,0.100713,0.205471,0.031936,0.049431,0.138714,-0.048428,0.015276,-0.179298,0.013292,0.090569,0.015713,-0.089484,-0.048767,0.005791,0.114071,-0.082055,-0.027272,-0.110797,-0.312744,-0.127915,0.13634,-0.002739,0.152009,0.350257,-0.197509,0.367715,-0.071086,0.021012,-0.035253,0.082229,-0.198976,-0.068336,-0.082685,-0.188918,0.177608,0.065978,0.113675,0.055248,0.221044,-0.052065,0.10098,0.031271,0.237802,-0.114573,0.075491,0.340845,0.376529,-0.204033,0.195131,0.048299,0.007825,-0.207551,-0.096561,-0.42012,-0.019157,-0.127881,0.057874,-0.061167,-0.036681,-0.257035,-0.015189,0.006857,0.123349,-0.132942,0.07482,0.083363,0.016269,0.258899,-0.073542,-0.066293,0.0481,0.184794,0.048483,-0.041683,-0.191706,-0.06766,-0.219719,-0.206231,-0.093556,-0.077077,-0.122603,-0.191828,-0.101902,-0.185503,0.055515,-0.034862,0.612778,-0.19141,0.358932,-0.447492,-0.01391,-0.098985,0.145614,-0.129837,0.020542,0.057752,-0.080623,0.022986,0.09844,0.01673,-0.107394,-0.069697,-0.209776,-0.082171,-0.125187,0.066703,-0.020595,-0.19666,0.121911,-0.122193,-0.131148,-0.241631,-0.024706,0.052799,-0.085083,0.142673,-0.09763,-0.357677,-0.469639,0.436943,-0.216518,0.595021,0.021912,0.052823,-0.303669,0.157135,0.431149,-0.070807,0.141312,0.095913,-0.254816,-0.037806,0.136387,-0.224523,0.175699,0.181525,0.094442,-0.078293,0.10382,0.095187,-0.134239,-0.143425,-0.120434,-0.146223,-0.25298,-0.302129,-0.220843,-0.087273,0.038651,-0.099306,-0.227395,-0.141208,0.351593,-0.060135,0.049362,-0.072719,0.004624,-0.101227,0.058305,-0.052701,-0.065393,-0.089434,0.000601,-0.085467,0.062855,0.080516,-0.104761,-0.145721,-0.076309,-0.175705,-0.047509,-0.124704,0.106431,0.059067,0.108393,-0.141418,-0.088268,0.29936,0.194509,-0.173743,0.069019,-0.139881,-0.11848,0.07677,0.027698,-0.367834,0.29863,-0.139678,-0.384741,0.217453,-0.453889,-0.139446,-0.167507,0.137316,0.078619,0.099289,-0.032797,0.07269,0.205753,0.012516,0.039848,-0.112176,0.13629,-0.130188,0.146278,0.082012,0.060796,-0.090154,-0.148923,-0.279949,-0.128013,-0.265386,0.133958,-0.145717,0.024606,0.036201,-0.321991,-0.320363,0.318386,-0.203335,-0.001715,0.089355,0.049329,-0.029194,-0.042474,-0.040182,-0.058107,-0.010473,0.031226,-0.142887,-0.111674,-0.109243,-0.094419,-0.125834,-0.108109,-0.096073,-0.248363,0.132729,0.045217,0.064573,0.205785,0.095071,0.167018,0.06697,-0.153565,0.166462,-0.005053,0.102258,0.125998,0.219128,0.229815,-0.259395,0.073209,0.008507,0.064699,0.159333,0.036293,0.280687,-0.059496,0.052785,-0.10789,-0.112183,0.096406,-0.102236,-0.12324,0.299169,-0.139153,-0.123476,0.148981,0.216509,0.104375,-0.083121,0.057805,-0.014868,0.023891,0.028827,0.137073,0.326153,-0.205612,0.043967,0.093155,0.051197,-0.356179,-0.466297,-0.442348,-0.159962,0.062877,0.028703,-0.145581,-0.215603,-0.009988,-0.134871,-0.046074,-0.035191,-0.151656,0.043529,0.143545,0.124646,0.112159,0.052734,0.135881,0.130176,0.123049,0.126945,0.046619,-0.133835,0.040061,-0.033105,0.185144,-0.161451,-0.186518,0.141977,0.061442,0.045647,0.158805,-0.475681,-0.171608,-0.273769,-0.031013,-0.049676,-0.032488,-0.219567,-0.157783,-0.033008,0.153934,-0.140497,-0.039299,-0.18479,0.164712,-0.077414,-0.072498,0.270034,0.077585,0.029687,0.080949,-0.06069,0.157019,0.174173,0.118422,0.111225,-0.100256,0.046561,0.256814,-0.255776,-0.13918,-0.231601,-0.162994,-0.097486,0.640421,0.512624,0.169294,0.047261,0.051194,0.122119,-0.245245,0.434112,0.151174,-0.009317,0.031065,-0.126619,-0.112177,0.009022,-0.025906,0.181064,0.095324,-0.152846,0.035255,-0.073958,-0.060795,-0.045365,-0.086792,-0.01478,0.235648,0.026307,0.01556,-0.29065,-0.2476,-0.089952,-0.199851,0.104683,-0.147076,0.23428,0.263899,0.328164,-0.03911,0.434074,-0.324129,0.060158,0.289542,-0.152378,0.297518,-0.011147,0.096696,-0.117295,0.181071,0.066436,0.050983,0.019749,0.146017,0.097413,0.06514,-0.105251,-0.115221,-0.076272,0.128546,-0.144666,-0.068701,0.001496,0.026417,-0.277733,0.202702,-0.01033,0.163696,0.095884,-0.523467,-0.638732,-0.223163,0.379267,-0.140276,0.214217,0.200523,-0.339252,0.014125,0.176816,0.160192,0.167171,0.020725,0.082261,0.042319,0.141355,-0.254407,-0.009145,0.150784,-0.052818,-0.218586,-0.047929,0.010351,0.02567,-0.019329,0.078591,0.012155,0.32727,-0.024935,0.104045,-0.036626,-0.091885,0.051878,-0.307382,-0.20276,-0.194591,-0.017634,-0.020401,0.343195,-0.217269,0.235887,0.216024,0.16362,-0.18677,-0.007916,-0.050795,0.070895,-0.262111,-0.071076,0.24453,0.08614,0.103196,-0.075971,0.283427,-0.155642,-0.037603,-0.068438,0.145311,0.08895,0.170513,-0.306414,-0.087276,-0.113459,-0.183391,0.105517,0.107897,0.226696,0.169544,0.398338,-0.092968,0.112322,-0.098714,0.090072,0.084778,0.081117,0.073774,0.021865,0.112465,-0.04289,-0.130297,-0.042948,0.135022,0.001066,0.103153,-0.102897,0.012025,0.085428,0.094823,-0.153785,0.095733,0.128173,-0.059656,-0.135175,0.394093,0.089413,-0.105925,-0.021558,-0.138864,0.095037,0.641443,0.415765,-0.123972,0.04615,-0.100415,0.057021,0.04744,0.330328,0.176447,-0.301418,-0.053183,-0.161462,-0.038279,0.006864,0.164094,-0.139825,-0.047696,0.017681,-0.146794,-0.090073,0.150804,0.021259,-0.112768,0.016518,0.067362,0.135993,0.114589,0.298308,0.122554,-0.144469,-0.079605,-0.022873,-0.088007,-0.510019,-0.616809,-0.552918,0.238747,-0.194105,0.287039,0.203785,-0.447967,-0.009007,-0.236786,0.021182,-0.162208,0.01803,0.038608,-0.214121,0.155196,-0.00585,-0.079453,0.023551,0.049936,0.00799,-0.043573,0.152166,-0.091088,0.274013,-0.034787,0.118147,0.139449,0.078702,-0.036018,-0.137512,0.071474,-0.126919,0.479669,0.35106,0.024666,0.01926,0.084866,0.107093,0.063356,-0.057117,0.079326,-0.105538,-0.139934,0.067389,0.197673,0.00628,-0.180107,0.160605,0.050584,0.130449,-0.045301,0.171355,-0.173816,0.022569,0.006816,0.0143,0.126089,-0.185136,0.172018,0.188054,0.119925,0.128742,0.182543,0.05541,0.054269,-0.15833,-0.170676,-0.473197,0.034843,-0.094176,0.198732,0.075151,0.088694,-0.055414,0.046715,0.100123,-0.153176,0.068315,0.079561,-0.092673,-0.073849,0.140583,0.112073,0.185061,-0.021398,0.166158,-0.051671,-0.025604,0.03905,0.243276,-0.057488,0.204679,0.274823,0.070451,-0.032259,-0.147951,0.102504,-0.120572,0.603248,0.429302,-0.087787,0.118229,-0.036923,-0.168167,0.157399,0.106612,-0.029418,-0.251729,-0.170207,-0.034037,-0.188594,0.069701,0.149787,0.046107,-0.120518,0.091341,0.02337,-0.068143,-0.150171,0.104853,-0.032125,0.013412,0.158428,0.133235,0.15599,-0.140925,-0.254543,0.07715,0.037681,-0.092411,-0.15839,-0.594041,-0.410639,-0.443474,-0.080271,-0.067699,-0.355061,0.151754,-0.045046,-0.190064,0.014564,0.188262,0.113952,0.070031,0.175072,-0.168218,-0.014251,0.079054,0.108335,-0.045585,-0.048878,0.208197,0.094671,-0.137428,-0.092559,0.316365,-0.033612,0.165384,0.285144,0.224377,-0.178363,0.155897,0.057259,-0.054573,0.400169,0.239072,-0.332489,0.143705,-0.192645,0.537772,-0.198894,0.636818,0.370258,-0.051016,-0.175547,-0.027651,-0.164464,-0.071543,-0.026908,-0.142421,0.156923,0.123519,0.166692,-0.019924,-0.013258,-0.06337,0.126432,0.260472,-0.150596,0.243135,-0.126301,-0.081621,-0.141254,-0.052244,-0.044065,0.183593,0.263028,0.390269,0.411042,0.252942,-0.058398,-0.006839,-0.364995,-0.1206,0.242486,-0.207806,0.283151,0.013409,0.027556,-0.002057,0.103565,0.104282,-0.02013,0.130193,0.189894,-0.046982,-0.033208,0.086733,0.005626,0.099217,-0.011687,0.051502,0.199094,-0.129871,0.235912,0.188827,0.082243,0.079834,0.096924,-0.102865,0.160976,0.282918,-0.604406,0.274269,-0.478532,-0.056023,0.131539,-0.383351,0.116301,0.086241,0.169842,0.131325,-0.050721,0.043084,0.010764,0.015328,0.002181,0.025854,-0.004548,0.106187,0.054871,-0.092045,0.101866,-0.000681,0.053493,0.024344,-0.210834,0.229343,0.413626,0.028919,0.040039,0.014224,-0.127735,0.33963,0.325046,-0.055419,0.225781,-0.000352,0.527313,0.019252,0.190701,0.388697,-0.553336,-0.187804,-0.028827,0.030964,-0.141568,0.048781,-0.150062,-0.071469,-0.073893,0.014343,-0.113543,0.2183,0.063909,-0.031825,-0.060585,-0.285852,0.032742,-0.170425,-0.016606,-0.121614,-0.047599,-0.048843,0.015407,0.030472,0.176121,0.247041,-0.152221,0.263422,-0.359109,-0.996835,0.123696,-0.303196,-0.486468,-0.181566,0.181315,0.111233,-0.054648,-0.068807,-0.05296,0.060845,-0.036376,0.028288,0.033599,-0.094963,-0.072163,-0.067116,-0.140853,0.172487,0.196438,0.018198,-0.052536,-0.27383,-0.093853,0.241959,-0.169978,-0.020017,-0.136471,0.142194,0.371287,0.261725,-0.143736,0.280115,-0.408592,-0.030744,-0.241303,-0.113126,0.058456,0.176788,-0.084046,0.212661,0.117816,0.142743,0.173356,-0.047524,-0.145872,0.115066,0.205662,-0.117668,0.044964,-0.135155,0.087253,0.134471,0.030478,0.101075,-0.137556,-0.234938,-0.065595,-0.016174,0.052197,-0.08495,-0.544129,-0.37025,-0.030717,0.039122,0.351759,0.03093,-0.006605,0.060718,-0.41926,0.071644,0.112369,0.086851,-0.063424,-0.148622,0.138371,-0.087681,0.186839,0.04086,-0.130166,-0.003108,0.28724,-0.09264,0.126812,0.17095,0.049586,0.173268,0.150582,-0.25231,-0.126679,0.072907,0.154988,0.121,-0.022538,-0.245466,-0.427127,-0.208941,0.121175,0.128542,-0.472855,-0.097542,-0.261774,-0.594961,-0.082922,0.238801,0.009122,0.084665,0.124553,-0.10785,0.02705,-0.178283,0.030948,0.025451,0.213943,-0.23131,0.112707,-0.10899,0.009794,-0.03692,0.019836,0.293077,0.355449,0.122713,0.044064,0.110457,0.146123,-0.065237,0.239792,0.284693,-0.498206,0.246769,-0.470574,-0.468075,-0.138754,0.081986,-0.077096,-0.04459,0.192147,-0.091139,-0.016617,-0.043772,0.101031,0.078965,-0.117055,-0.055347,-0.104034,0.02808,0.194683,-0.115968,0.028513,-0.099928,-0.092176,-0.026852,-0.098518,0.010947,0.171641,-0.087653,0.128719,0.166205,0.021724,-0.313999,-0.436437,-0.014969,0.002504,0.068804,0.163833,0.042923,-0.08468,-0.291694,-0.06559,0.069255,-0.089273,0.026639,-0.04769,0.109859,-0.087303,-0.230684,-0.044825,0.002469,-0.047087,-0.114282,-0.172352,0.091344,-0.014032,-0.171835,0.100433,-0.157162,0.07376,-0.25891,-0.034055,-0.189915,0.016377,0.036838,0.265362,0.488055,0.252615,-0.020623,0.168586,-0.169677,0.13119,0.204047,0.187984,0.273675,0.019626,-0.21434,0.120392,0.003327,-0.134159,-0.118986,0.008196,-0.024439,-0.180736,-0.111991,-0.166275,-0.143228,0.095322,-0.231957,-0.079107,-0.110543,-0.176829,-0.094346,0.207618,-0.136495,0.073079,0.029908,0.014156,-0.569854,-0.316083,0.534478,-0.361289,0.441042,0.358847,0.089522,0.201488,0.088466,-0.116618,-0.154093,0.127552,-0.133496,-0.061039,-0.086093,0.025598,0.121052,0.185407,0.101344,-0.125038,-0.013535,-0.141402,0.039471,0.147313,-0.143446,0.039426,0.000687,0.020838,0.141145,0.113573,0.197803,-0.132112,0.122386,-0.453228,-0.167886,0.088173,0.146604,0.144323,-0.110289,-0.121354,0.084538,-0.007818,-0.262903,-0.016046,0.131779,-0.081037,-0.061625,-0.07478,-0.027074,-0.084918,0.190101,-0.007701,-0.023118,-0.114407,0.077235,-0.016647,-0.304287,-0.138189,-0.213,-0.26541,-0.277661,0.023835,-0.095151,0.137902,-0.015834,0.052863,-0.135567,-0.307509,0.465884,-0.187264,0.392068,0.075443,0.065614,0.218254,0.08334,-0.309702,-0.155446,0.048041,-0.042274,0.03491,-0.150219,-0.204617,-0.164423,-0.146954,0.012052,-0.162893,0.027364,0.049212,-0.06565,0.153304,-0.014553,-0.025373,-0.09646,-0.156554,0.155282,-0.014781,-0.178634,-0.152532,-0.070154,-0.200006,-0.228914,-0.063771,-0.188053,-0.072676,0.921691,0.126178,0.090673,0.320037,0.153739,-0.073704,-0.270544,0.022267,-0.066601,-0.26391,0.068187,0.037958,-0.180539,0.023046,-0.08747,0.277919,0.092987,0.11276,-0.141678,-0.27073,0.144129,-0.174213,0.224387,0.236276,0.083652,-0.057178,0.067324,0.122574,-0.307177,-0.017675,-0.010261,0.027515,-0.178952,0.245151,-0.167584,-0.11996,-0.097447,-0.117382,0.143752,-0.087768,0.045141,-0.113489,0.181129,-0.155352,-0.222877,0.07652,-0.1672,0.067363,-0.180801,0.058382,-0.123619,0.08555,0.07014,-0.170201,-0.019727,-0.054352,-0.292809,-0.0931,-0.253659,-0.031855,-0.03171,0.017426,-0.047706,0.462726,-0.339677,0.118207,0.29016,-0.047865,0.262305,0.146933,-0.010507,-0.167412,-0.145674,-0.045493,0.068458,0.0576,0.139814,0.020156,-0.194794,-0.180148,-0.06956,0.032637,0.046501,-0.003041,-0.15579,-0.221386,0.107234,-0.107708,-0.380173,0.041237,0.091432,-0.144985,0.104131,0.18251,-0.579532,-0.493853,0.276452,0.009057,0.240351,-0.083949,0.128994,-0.106274,-0.342811,0.022241,-0.059164,-0.106893,-0.049074,0.121207,-0.123108,-0.024886,0.128345,-0.082742,0.172228,-0.009538,-0.06453,0.11322,0.173879,0.088031,-0.154878,0.108932,0.112266,-0.078878,-0.018988,0.066641,-0.154683,-0.116551,0.022093,0.30355,0.239192,0.127868,-0.095996,0.071168,0.052454,0.105911,0.183726,0.224695,0.167647,-0.066857,0.130769,0.100429,-0.094635,0.180573,-0.039872,-0.197321,-0.13093,-0.172158,-0.133995,0.145063,-0.018716,-0.004055,0.067139,-0.099492,-0.16045,-0.093914,-0.037249,0.041218,0.197807,0.287593,0.018566,-0.084206,-0.189142,-0.437437,-0.41856,0.16438,-0.221919,-0.403089,0.318628,-0.386624,-0.225865,-0.00761,0.250969,0.230597,-0.086072,0.044828,0.009519,-0.178866,-0.255056,0.082578,0.220098,0.067914,-0.337263,0.112573,0.149003,0.001073,-0.213202,-0.032945,-0.090767,-0.245858,-0.072457,-0.036481,-0.117956,0.10712,-0.022084,-0.042483,0.070006,0.498245,-0.204744,0.063125,-0.586806,-0.132438,0.162081,-0.373997,0.176906,0.147121,0.011219,-0.13672,-0.121538,0.240546,0.145629,-0.079959,0.09422,0.161227,-0.15389,-0.229989,-0.110065,0.181676,-0.077909,-0.040097,-0.101921,-0.030931,0.10828,-0.250462,-0.048258,-0.089369,-0.111668,0.074584,-0.312333,-0.197052,0.337593,-0.094562,0.403474,0.015038,0.06181,0.290654,-0.092589,-0.192661,0.039412,0.146299,-0.100233,-0.17638,-0.127347,-0.029527,0.049056,0.142636,-0.003226,0.057115,-0.071932,-0.188056,-0.064921,-0.050513,0.073039,-0.067583,0.073152,0.37225,0.197053,0.052673,-0.168711,0.068217,-0.177751,0.452266,0.418391,-0.414227,-0.016881,-0.266213,0.156686,-0.298884,0.397234,0.107649,-0.236486,-0.094613,-0.127049,0.032602,0.204104,0.111036,0.001577,0.074567,-0.011079,-0.002446,-0.121969,0.235067,-0.05168,0.007821,0.04224,0.12455,0.122569,0.229315,-0.281899,-0.270478,-0.150436,0.084886,0.03429,-0.211251,-0.22142,-0.278876,0.4625,-0.121163,0.443185,0.036051,-0.149419,0.090897,-0.161359,-0.163596,-0.189504,-0.066414,0.111772,-0.012083,-0.143581,0.140442,-0.042164,0.06976,-0.026894,-0.034617,-0.047976,-0.167566,-0.08287,-0.108998,0.067971,0.01877,0.002698,-0.229622,-0.16677,0.079128,-0.012449,-0.048275,0.111395,0.280685,0.50572,0.591301,-0.155601,0.196035,-0.452933,-0.105872,0.595179,-0.041599,-0.033873,0.081145,-0.025283,-0.189447,0.076562,-0.051367,-0.02696,-0.090307,0.128192,0.014884,-0.214607,0.009249,-0.19598,0.044083],"bias":[-0.173293,-0.059794,0.181873,-0.008408,-0.012348,0.110664,0.058834,0.033964,0.144442,-0.04304,0.083426,0.252024,0.026852,0.186091,-0.14144,0.021399,-0.089477,-0.082125,0.067705,-0.000947,-0.015384,-0.280362,-0.144108,-0.209797,-0.030487,-0.214332,0.155073,-0.05711,0.032418,0.186365,0.161645,0.09281,-0.161923,-0.066217,-0.134864,0.024338,0.03486,-0.001402,0.185751,-0.188853,-0.037754,0.05932,0.057415,-0.010807,0.128148,-0.053907,0.0716,-0.202891,0.183181,0.224981,0.060312,0.152236,-0.163426,0.122416,-0.085136,-0.169987,0.176434,-0.074998,-0.014713,0.225542,0.129743,-0.233963,-0.078896,-0.117908,-0.261209,-0.044696,0.129843,-0.220481,0.165798,-0.244256,-0.145383,0.068796,0.121371,-0.121318,-0.181461,0.046037,-0.221704,0.166326,0.002294,-0.169248,0.169842,0.0546,0.111415,-0.034458,-0.14114,-0.022258,0.029285,0.158684,0.16229,-0.136769,-0.202233,-0.031929,0.1471,0.144229,0.00228,-0.140984]},{"inputSize":96,"outputSize":96,"activation":"tanh","weights":[-0.039532,0.011827,-0.073033,-0.122049,-0.059076,-0.104145,-0.181394,-0.124091,0.1385,0.093728,0.19988,-0.098859,0.196413,-0.122232,-0.118424,-0.091146,0.138993,0.118162,0.042451,-0.169735,0.216093,0.105512,-0.077894,0.12527,0.223288,0.098829,-0.115059,-0.08405,0.001734,-0.029269,-0.091665,0.039104,0.045788,-0.031811,0.040514,0.014609,0.210593,-0.152319,-0.050266,-0.085067,-0.205586,-0.024742,-0.004562,-0.223908,-0.049767,0.119554,0.094016,0.073971,-0.091936,0.023117,-0.102798,0.126066,-0.137438,0.05856,-0.1512,0.14853,-0.132912,0.158038,0.03898,0.116546,0.085543,0.235984,-0.042551,0.013906,0.144056,0.028295,-0.083532,0.194279,-0.137416,0.188782,0.108171,-0.109843,0.1241,0.040283,-0.215142,0.134581,0.293755,0.225991,0.232705,0.01772,-0.195423,-0.111096,-0.128976,-0.226636,-0.166248,-0.193182,-0.17328,0.061003,-0.075096,-0.076853,0.141566,-0.028357,-0.168043,-0.002426,-0.00307,-0.024921,-0.130632,0.101444,0.091183,0.077348,-0.006302,-0.17003,0.049884,-0.029376,-0.129439,0.010566,-0.169684,-0.023838,-0.07327,0.287272,-0.229173,0.008507,0.015792,-0.035582,0.115907,0.014198,-0.146129,-0.394811,-0.175582,0.022494,-0.083557,-0.191256,-0.000807,-0.039056,-0.059862,0.15601,0.096658,-0.224785,-0.004979,-0.034945,-0.119984,0.189039,-0.15388,-0.176311,0.056434,0.062022,0.090875,-0.029788,-0.124681,0.009274,0.12245,-0.327213,-0.178569,-0.081575,0.025859,0.217906,0.057406,0.23185,-0.117018,0.023196,-0.11435,0.071727,-0.066795,-0.132771,0.4355,0.030217,-0.019248,-0.401071,-0.040748,0.102325,-0.287656,-0.165692,0.382086,-0.143413,-0.062184,-0.09319,-0.099433,0.03316,-0.087986,0.079767,0.082831,-0.094425,-0.046065,-0.071879,0.083941,0.045391,0.206248,-0.275281,0.10128,0.22253,0.0453,-0.109539,0.159224,-0.018604,0.052819,-0.169703,-0.072164,0.003425,-0.047755,0.109703,-0.069395,-0.22736,-0.046372,0.018248,-0.078247,-0.073912,-0.044996,0.018964,0.088492,-0.057588,-0.119104,0.189605,-0.174054,0.087484,0.071702,0.249603,0.03098,0.01854,0.073113,-0.0664,0.030228,0.126177,-0.108119,0.267696,0.072538,0.156472,0.004519,0.146108,0.045543,-0.015098,-0.077137,0.014249,-0.152625,0.00739,0.198724,-0.093985,0.04969,0.237368,0.048174,-0.189205,-0.434086,0.290114,0.140657,-0.095532,-0.029588,0.301498,-0.174547,0.046589,-0.109349,0.105202,-2.9e-05,-0.057111,-0.14165,-0.004173,0.068716,0.128781,-0.115516,0.136385,-0.141118,0.030438,0.078665,-0.054468,-0.303328,-0.1073,0.174928,-0.054334,-0.064281,-0.034519,-0.159017,-0.07312,-0.034157,0.038982,-0.057724,-0.00807,0.098854,0.189127,-0.114666,0.095902,-0.062812,-0.395008,0.035977,0.130908,0.083025,0.103228,-0.058054,0.056381,-0.091998,0.038342,0.018952,-0.145541,-0.002777,0.016974,0.453118,0.070906,-0.16774,-0.073854,-0.250951,-0.0887,0.166796,-0.239941,-0.312488,-0.105014,0.031468,-0.180489,0.120224,0.125886,-0.113737,-0.127358,-0.235052,-0.184141,0.091605,-0.198807,0.235069,-0.04641,0.011749,-0.040003,-0.155238,0.033526,-0.161238,0.269799,0.260261,0.476581,-0.019304,0.184053,-0.009078,0.035041,-0.150653,-0.458774,-0.030308,0.106471,-0.07479,0.027433,0.062864,-0.061507,-0.05667,0.082716,-0.193585,-0.015888,0.116733,-0.112131,-0.087285,0.169284,-0.14753,0.396475,0.274966,-0.0561,-0.123759,-0.231708,-0.10024,0.095004,0.137207,-0.214237,-0.05774,0.06652,-0.047589,-0.004775,-0.198124,-0.167108,-0.024892,0.058286,-0.042958,0.025462,0.006818,0.313106,-0.23444,0.336888,-0.026979,0.325701,-0.132073,0.183777,-0.05576,0.003233,0.232757,0.0202,-0.029256,-0.351164,-0.049967,0.002299,-0.143873,0.055622,-0.079266,0.030849,0.010646,0.012775,-0.038979,-0.068459,-0.397172,0.216813,-0.015988,-0.057784,-0.189332,0.110655,-0.016191,-0.016399,-0.030654,0.202351,0.154613,-0.01912,-0.086659,0.102487,0.00265,-0.108104,0.104083,0.049296,0.100967,0.26106,-0.013964,0.263555,-0.207694,-0.034326,-0.010439,0.050737,0.088407,-0.00537,0.105624,-0.110548,-0.150716,-0.339695,0.008907,-0.079543,-0.026134,0.036075,0.207158,0.359662,0.022972,-0.107029,0.066026,-0.06393,-0.090306,0.074419,0.055152,-0.117254,0.210338,0.066135,-0.015217,0.154018,0.0902,-0.186197,0.138491,-0.262631,-0.280244,-0.069318,0.071528,0.235178,0.030501,-0.096215,-0.021561,0.131269,-0.073028,0.11558,0.123903,-0.107023,0.110047,0.272351,-0.135062,0.019554,0.059793,-0.008705,-0.170887,-0.335935,0.031343,-0.336345,0.081075,-0.36729,0.084046,-0.233594,0.0955,-0.048646,-0.266892,0.003337,-0.005807,0.288303,0.119586,-0.079928,0.237815,-0.230613,0.046542,0.108319,-0.04145,0.002323,-0.014188,0.042868,0.355715,-0.226438,0.069357,0.170271,0.138908,-0.229053,0.010684,-0.11251,0.16123,0.193786,0.064773,-0.113707,-0.128269,0.115816,-0.267276,-0.09565,0.004447,-0.064673,0.174623,-0.090916,0.072323,-0.04616,0.031169,-0.087742,0.155068,0.196295,-0.002147,-0.092011,-0.003222,0.11477,-0.107588,0.167632,0.175128,0.289455,0.043973,-0.190051,-0.167832,0.231035,-0.077896,0.025146,0.073606,-0.065728,0.159616,0.008622,-0.024848,0.002414,0.008431,0.044127,0.003554,-0.08428,0.082344,-0.066699,0.038313,0.098722,-0.059674,0.143201,-0.117584,0.020958,-0.03774,0.001917,-0.129914,0.013583,-0.206564,0.138334,-0.047331,0.21437,-0.050409,0.276296,0.050471,0.048014,0.180705,0.013496,-0.025544,-0.137058,0.12249,0.148662,0.034027,0.011538,0.108751,-0.146603,0.218806,0.139811,-0.231499,-0.051651,0.282023,0.07043,0.230553,0.116655,-0.165711,0.138815,-0.267536,-0.135467,-0.252,0.007972,-0.105009,-0.015046,-0.101261,-0.059165,0.25065,-0.076631,0.019089,-0.015107,-0.179169,-0.213876,-0.108554,-0.032306,0.151112,0.065829,-0.066843,0.005915,0.075476,-0.012335,0.175072,-0.092676,0.278345,0.215183,-0.028151,-0.011284,-0.037003,0.092779,-0.143335,0.065672,0.125903,0.137308,0.127036,-0.240575,-0.128738,-0.087662,-0.026583,-0.208084,-0.090974,0.108468,0.187402,0.12637,0.11201,-0.033931,-0.213012,-0.064906,-0.115142,-0.079872,0.061904,0.032895,0.280777,-0.071208,-0.00108,0.051897,0.09367,-0.225124,0.137393,0.012083,0.048,0.028972,0.066825,0.062755,0.223595,0.002682,-0.079551,0.119961,-0.138817,-0.325806,0.075635,-0.076516,0.083985,0.098026,0.094869,0.08157,-0.170531,0.068821,0.012099,-0.094497,-0.036716,-0.152065,0.144279,-0.215572,0.009656,0.173195,0.029104,-0.176307,-0.005684,-0.110854,-0.221576,0.294441,-0.001716,-0.233289,0.207312,-0.165054,0.122508,0.220185,0.094113,0.08783,-0.027174,0.057216,0.151086,-0.145999,-0.360272,0.123412,0.170571,0.195113,0.002311,0.249355,-0.096835,0.085345,0.173801,0.180674,0.155249,-0.030463,-0.046405,0.058859,0.062524,-0.079726,0.196639,0.101269,-0.160366,0.024327,-0.119445,0.125756,0.009426,-0.120432,-0.17554,0.028444,-0.073136,-0.155851,0.041009,-0.335972,0.044024,0.010436,0.00022,0.108874,0.042626,0.187636,0.17565,-0.026278,-0.183129,-0.052739,0.039396,-0.127578,-0.206838,0.275465,0.305009,-0.151938,0.10032,-0.122275,-0.041877,-0.192856,0.031458,-0.150959,0.025539,-0.214871,0.076718,0.232215,0.059453,-0.227289,0.027106,0.086895,0.086935,-0.191805,0.174954,0.0088,0.161367,0.036375,0.190112,-0.0675,-0.101231,0.065103,0.061096,-0.046974,0.187988,-0.038982,-0.034321,-0.215176,-0.168936,0.107771,0.073799,0.025851,0.006902,-0.154779,0.006421,-0.094507,-0.037569,0.013355,-0.062654,-0.004697,0.016959,-0.069852,-0.005257,0.01055,0.10445,0.147687,-0.071144,-0.171934,-0.325896,-0.210995,0.063139,0.133476,0.251744,-0.122652,0.065651,-0.188323,-0.168258,-0.105954,0.029302,0.132723,-0.054992,-0.210412,0.189483,-0.08239,0.072342,-0.029204,0.107607,-0.408335,0.320477,-0.176979,-0.001982,-0.049619,-0.18971,0.121308,0.169639,0.263434,0.189268,-0.089257,0.047919,0.099099,-0.114628,-0.021807,-0.064066,-0.206074,-0.06784,0.312427,-0.051356,0.083251,0.198716,-0.160269,0.000178,0.138607,-0.011248,-0.183194,-0.133103,-0.007955,0.06443,-0.282727,-0.138871,0.361484,0.2838,0.157226,-0.054278,-0.27376,0.051722,-0.230154,0.109503,0.026968,0.160151,-0.126716,0.063955,0.084281,-0.354189,-0.114401,0.032828,0.411474,0.02853,-0.046981,0.287414,0.198822,-0.450403,0.081188,-0.156494,0.120011,-0.020679,-0.092152,-0.030281,-0.056291,0.021045,-0.040804,0.234095,0.114864,-0.035434,-0.121128,-0.21868,0.343109,-0.07565,-0.203594,-0.069543,0.093282,-0.169689,0.002775,-0.015454,0.363329,0.040009,0.152125,-0.022528,-0.018479,0.094127,0.220121,0.033259,-0.088893,-0.049387,0.002579,0.090866,-0.074605,-0.045098,-0.106975,-0.066318,-0.109584,-0.17749,-0.117636,0.017872,0.029691,-0.010702,-0.127614,0.036997,-0.126504,-0.057237,0.128136,0.038124,0.098581,0.021494,0.383454,-0.115874,0.103996,0.086979,-0.032748,-0.179756,-0.121397,-0.000604,0.003542,-0.100554,-0.106928,0.060094,-0.002009,-0.080274,0.087707,-0.136675,0.04161,-0.05894,-0.061119,-0.114477,0.182725,-0.088778,0.183017,0.06115,-0.128778,0.039427,-0.167797,0.034348,0.216712,-0.064705,-0.200744,-0.001069,0.107759,-0.140824,0.076703,-0.121068,-0.214651,0.121503,-0.022561,0.006226,-0.062191,-0.008106,0.458492,-0.086444,0.164915,0.007778,0.437233,-0.180588,0.306712,0.080208,-0.066357,0.201121,-0.004175,-0.076455,-0.257783,0.002794,0.133661,0.001234,-0.001577,-0.103133,-0.000521,0.064147,-0.055718,-0.053539,-0.112292,-0.21764,0.014033,0.042805,-0.086196,0.041757,0.279722,-0.091749,-0.020778,-0.020405,0.417161,0.217982,0.103332,0.028148,-0.096886,0.016375,0.198711,-0.234043,-0.026088,-0.120916,0.069977,-0.031995,0.473205,-0.468101,0.126846,-0.06076,-0.005124,0.176052,-0.088347,-0.184165,-0.213835,-0.219614,0.165002,-0.113591,-0.073221,0.061606,0.103105,-0.08457,0.102391,0.138038,-0.145388,-0.024227,-0.001496,-0.00354,0.18507,0.028861,-0.212587,-0.150432,0.21851,0.157133,0.138269,0.068213,0.279759,0.08635,-0.227222,-0.204987,0.001127,0.130157,0.053132,-0.154707,0.267911,-0.013453,0.024226,0.05948,0.542425,0.048002,-0.173389,0.34172,0.04322,-0.108277,-0.309692,0.03193,0.001886,-0.223048,-0.124819,0.670497,-0.162204,0.129583,-0.0633,0.058601,-0.261492,-0.11113,0.240721,-0.119009,0.273349,-0.130613,-0.135744,-0.073447,0.138833,0.326573,-0.378891,-0.0585,-0.001117,0.061639,-0.177042,0.216878,-0.182902,0.087392,-0.220955,0.102773,-0.130798,-0.160077,-0.168885,-0.099101,-0.314475,-0.063006,-0.216473,-0.607499,-0.306294,-0.153465,0.095218,-0.112316,0.118881,0.058184,0.350876,0.118525,0.019636,0.041468,-0.118711,-0.013817,0.005049,0.137819,0.318718,0.166923,-0.174716,0.182663,0.103087,0.230931,-0.020876,0.261121,0.07353,-0.029561,-0.219481,-0.150577,-0.214356,-0.08931,0.329149,0.204806,-0.202505,0.075828,0.263642,0.382408,-0.091419,0.039996,-0.054566,0.446427,-0.191393,0.234428,-0.000164,-0.38012,0.018794,-0.172642,0.503099,-0.369568,-0.025625,-0.241962,-0.037466,-0.142071,0.402414,0.060258,0.303563,-0.07355,0.123444,-0.017127,-0.061052,-0.237786,-0.021834,0.148081,-0.024127,0.105946,-0.21616,0.161078,0.494115,-0.092144,-0.031474,0.139676,-0.237892,-0.031165,-0.020729,0.015279,-0.181311,0.205788,-0.158331,0.019496,-0.235778,-0.039848,0.061841,-0.12547,-0.17749,0.0113,0.182697,-0.080197,-0.033193,0.152418,-0.09365,0.087176,-0.283925,-0.063681,-0.553634,0.068915,-0.438166,-0.0813,-0.08358,0.075274,0.073863,-0.089687,0.057552,-0.06398,-0.039342,0.218757,0.013473,0.263973,-0.037347,-0.122872,-0.031915,0.025004,0.126559,-0.196765,0.119714,-0.019487,-0.242617,0.06233,-0.234276,-0.132519,-0.250307,0.099769,-0.129635,-0.094301,-0.071984,0.120001,-0.068013,0.048322,0.063788,-0.009022,0.118615,-0.004074,-0.170316,0.09209,0.146435,0.200572,-0.157863,-0.04502,-0.030836,0.046393,-0.202476,0.033471,0.05037,-0.028971,0.015549,-0.102898,0.085107,0.023757,0.03136,-0.026389,-0.059263,0.10409,-0.044556,0.095081,-0.028899,0.058011,0.034276,0.17582,0.116203,-0.001297,0.004797,0.043776,-0.136008,-0.004383,-0.108881,-0.139019,-0.078261,0.0054,-0.184702,-0.029623,-0.056873,-0.040774,0.01732,0.040204,0.30116,-0.039725,-0.14249,0.061842,-0.105906,0.048472,0.030009,-0.059281,0.052023,-0.122807,0.019186,0.032576,0.043698,-0.21786,0.056952,0.088337,-0.085883,0.182397,0.161032,0.09511,-0.289888,-0.123723,0.011481,0.063167,-0.184166,0.007629,0.055105,0.041422,-0.122968,-0.027404,-0.05214,-0.044081,-0.068554,0.155706,-0.007684,0.057039,0.033568,-0.115608,-0.107923,0.118506,0.118294,0.005617,0.311296,-0.025661,0.046222,-0.072731,0.052747,-0.122587,-0.223083,-0.099217,0.05357,-0.154477,-0.024509,0.01225,-0.160763,-0.077603,0.021479,-0.054139,-0.025548,-0.032232,0.003493,0.058932,-0.038524,0.037195,0.134165,0.301955,-0.139141,-0.02003,-0.125138,0.022802,0.070231,-0.114067,-0.128324,-0.162383,-0.17895,-0.181687,0.206159,-0.011707,-0.032779,0.226404,0.054134,-0.03352,0.104283,0.154628,0.341377,-0.199761,0.186166,-0.054724,0.186193,-0.055607,0.201321,-0.02165,-0.044982,0.09023,-0.204833,-0.018683,-0.075756,-0.120767,0.013453,-0.180117,0.221586,0.047867,-0.165365,-0.105689,0.047309,-0.104826,0.09308,-0.313188,0.170845,-0.213279,-0.011628,-0.04806,0.268174,-0.038203,0.073404,-0.094614,0.174857,0.148505,0.210835,0.046614,0.012365,-0.01248,0.16154,0.176625,0.024179,0.249181,-0.023832,-0.167272,0.286661,-0.165049,0.17916,-0.059543,0.117724,0.081539,0.024458,0.142481,-0.273373,-0.210545,-0.089541,0.028248,-0.037323,0.04683,0.025021,0.199204,0.163566,0.06189,-0.145089,-0.056821,0.067472,-0.056958,0.117319,-0.098713,-0.188329,0.195067,-0.022138,-0.06383,0.134189,0.059664,-0.139122,0.139582,-0.471633,-0.214503,-0.048191,0.066627,0.170244,0.034337,0.127849,0.016713,0.220017,0.086168,0.054264,0.140694,-0.068515,0.19105,0.243489,-0.1395,-0.079734,-0.007701,0.020098,-0.075416,-0.423836,0.192288,-0.114651,-0.02528,-0.273351,0.173129,-0.049462,0.063033,-0.051132,-0.150301,-0.073647,-0.084266,0.28338,0.018053,-0.136395,0.251909,-0.301757,0.070525,0.193731,0.020431,-0.009335,-0.021003,0.072515,0.291612,-0.245365,0.0944,0.056294,0.1856,-0.121771,0.049469,-0.140617,0.076907,-0.225278,-0.199441,-0.235394,-0.114302,-0.069706,0.023172,-0.073012,0.064135,0.051274,0.080263,-0.054597,-0.014783,-0.269092,0.233066,-0.048425,0.001801,0.022452,-0.121879,-0.129202,0.165895,0.247092,0.094658,0.04928,0.09782,-0.024276,-0.186724,-0.147837,-0.004648,0.001261,-0.115509,0.30571,0.083609,-0.013824,0.088824,-0.18884,0.106835,0.121153,-0.059191,-0.121191,-0.127537,-0.153624,-0.026055,-0.063881,-0.271434,0.295115,0.146776,0.069447,-0.144106,-0.102432,-0.069049,-0.179906,0.093349,-0.079326,0.040795,-0.039813,0.017805,0.104062,-0.223439,-0.074362,0.182713,0.274093,-0.023271,0.029194,0.232947,0.042631,-0.386365,0.130423,-0.103473,0.057492,-0.100489,0.025972,-0.007796,-0.189341,-0.005395,0.01349,0.011078,0.115363,0.022343,-0.018607,-0.256462,0.110166,0.064593,-0.086449,0.089415,-0.121135,-0.050532,0.149863,-0.026424,0.235653,-0.10716,0.121702,0.020731,-0.02785,0.098049,0.187111,0.169911,-0.120463,-0.132901,-0.050835,0.074928,-0.123134,-0.025461,0.068864,-0.259904,-0.051398,-0.313334,-0.075237,0.060396,-0.070608,0.173623,0.050432,-0.013931,-0.106466,-0.145619,-0.044028,-0.072331,0.205347,0.05292,0.134318,0.062428,0.161035,0.087523,0.02611,-0.200823,-0.16341,-0.005625,-0.000686,0.081726,-0.109287,0.01347,0.12661,-0.068,0.001887,-0.175115,0.072799,0.183521,-0.145167,-0.153195,0.300641,-0.107278,0.132242,0.12903,-0.111423,-0.080421,-0.07658,-0.038153,-0.067729,-0.100026,-0.195592,0.024352,0.035572,-0.08161,0.118999,-0.0866,-0.286782,0.064456,-0.023296,-0.036959,-0.04717,-0.061558,0.388757,0.003953,0.235709,-0.039254,0.241732,-0.226222,0.201782,-0.103473,0.115122,0.078253,0.019106,-0.059113,-0.269998,0.011844,0.221793,0.00109,0.117954,-0.021659,0.079808,-0.065083,-0.027406,-0.032092,-0.042867,-0.171544,-0.019061,0.057104,-0.052103,-0.020318,0.009267,-0.129635,-0.065465,0.128739,0.341443,-0.031423,0.057154,-0.001175,0.094283,-0.030819,0.039623,-0.271636,-0.050748,-0.144013,0.02729,0.030089,0.21737,-0.048338,-0.069937,0.112437,0.059968,0.042851,-0.306322,-0.096463,0.040962,-0.044114,0.046929,0.135413,0.036705,0.313884,0.013249,-0.158544,0.127283,-0.193647,-0.190365,0.131207,-0.225332,0.014926,0.227186,-0.009459,-0.16324,-0.29679,0.342357,0.413351,-0.048736,0.266567,0.180534,-0.006618,-0.113982,-0.179486,0.104136,-0.210658,-0.009732,-0.569815,-0.186956,-0.130024,0.064907,-0.026938,0.178743,0.007928,0.077566,0.10909,0.01524,-0.315738,-0.209727,0.261983,-0.156073,-0.116426,-0.199885,0.430051,0.1349,0.041747,0.241289,0.088573,-0.260631,-0.038901,0.319081,-0.011666,0.386152,-0.041567,-0.447884,0.173874,0.014467,0.055332,-0.075099,-0.284599,-0.096556,-0.100005,0.003684,-0.02345,-0.339259,0.069904,-0.0163,0.681232,-0.047099,-0.360558,-0.205141,-0.169775,-0.331602,0.149574,-0.193243,-0.171723,-0.21165,0.034836,-0.028003,-0.024715,0.033097,0.143223,0.223176,0.086047,-0.093853,0.089248,-0.251857,-0.047128,0.072561,0.051632,-0.034166,0.036872,-0.040546,0.244685,0.157544,-0.042217,0.123112,0.092579,0.101652,-0.076596,-0.210085,0.002457,-0.255899,-0.162228,0.207423,0.211612,-0.129862,-0.033692,-0.059489,0.1399,0.064258,-0.154903,-0.111767,-0.142077,-0.055137,0.12562,-0.02596,-0.18536,0.072805,-0.062147,0.243572,-0.182175,-0.148459,0.078693,0.037312,0.051556,0.087463,-0.043124,0.120754,-0.190542,0.141469,-0.095306,0.0069,-0.08435,0.214631,0.05905,0.022629,0.279588,0.012393,-0.059169,0.109933,-0.177183,0.206265,0.140145,-0.11158,-0.069439,-0.096727,-0.055558,0.047096,0.206763,0.204893,-0.013577,-0.106476,-0.133404,0.127012,-0.113684,-0.189187,-0.07627,-0.005328,-0.232428,0.12831,-0.019337,0.036069,0.109659,0.070463,-0.099625,-0.072992,0.087757,-0.057477,0.099764,0.350057,0.407351,0.333956,0.149193,0.039515,-0.016966,-0.035206,-0.268191,-0.103561,-0.182987,-0.057833,0.030059,0.267467,-0.238998,0.004696,0.083138,-0.068153,0.123201,-0.096852,-0.170023,-0.273896,-0.106688,-0.054715,-0.05978,-0.14623,0.17349,0.136394,0.071741,0.239602,0.232054,-0.35739,-0.068619,0.120212,-0.232379,0.087196,-0.193086,-0.073242,0.10659,0.066401,-0.095203,0.181944,-0.067271,0.172479,0.241722,-0.432205,-0.278809,-0.078623,0.312043,0.318185,0.135463,0.149313,-0.117739,-0.230442,-0.096378,0.022194,0.112145,-0.024364,0.145379,0.121842,-0.183536,-0.280241,0.111498,-0.001689,-0.40798,-0.112741,0.385641,-0.198556,0.072503,-0.13219,0.102256,0.13774,0.08105,0.06245,-0.135641,0.204482,-0.244121,-0.009404,-0.089064,0.131599,0.128265,-0.136557,0.013417,0.228631,0.068394,-0.150984,0.157146,-0.13695,0.205508,-0.261883,0.019161,-0.053965,0.059247,0.168151,-0.000879,-0.059138,-0.039518,-0.036712,0.183019,0.06796,0.025871,0.02436,0.147623,-0.049473,-0.007865,-0.113475,-0.09928,-0.136375,0.041334,-0.13581,0.039381,-0.003263,0.025623,0.071343,-0.174642,0.022593,0.098367,-0.113178,-0.133455,-0.142973,0.04499,-0.060356,-0.017724,0.274834,0.344547,0.020498,0.086315,0.080646,-0.149813,0.251956,-0.022231,-0.278323,-0.114764,0.323559,0.100148,-0.045485,-0.144734,0.146877,0.076871,-0.178276,0.256106,0.065765,0.0836,-0.152218,0.155341,-0.071539,0.095046,-0.017431,0.086298,-0.249335,0.074738,-0.369796,0.190208,-0.120041,-0.196929,0.036504,0.288792,0.031077,-0.151628,0.003029,0.063079,0.050084,0.073355,-0.203883,0.034214,-0.048619,0.20712,0.10857,-0.062272,-0.23426,-0.067026,-0.0454,-0.190766,0.218374,0.076883,0.057956,0.078343,0.156666,0.162162,0.15669,0.215804,-0.054709,0.009096,0.068842,-0.008236,-0.121737,-0.25529,-0.073853,0.423625,0.118524,0.107073,0.397856,-0.082105,-0.089019,-0.119052,-0.065684,-0.091559,0.079206,-0.081839,-0.115203,0.118864,0.156094,-0.057175,-0.101157,0.007634,-0.101621,0.090025,-0.093301,0.065139,0.027395,-0.012667,0.014536,0.163784,0.188432,0.002114,0.113017,0.175789,-0.034547,0.052612,-0.083781,-0.032174,-0.014636,-0.193062,0.085791,-0.002166,-0.015761,0.07129,-0.027312,0.053181,0.032488,-0.09969,0.083176,-0.09118,-0.221184,-0.045796,-0.060263,-0.29154,0.082521,0.08897,0.006666,-0.226895,-0.241481,0.045117,-0.135003,0.026546,0.086428,0.03908,0.065131,-0.01942,0.075642,0.063768,-0.166242,0.113697,0.114917,0.023383,-0.044059,0.135092,0.156817,-0.271913,0.001064,-0.1638,0.113633,-0.170416,-0.054196,0.13356,-0.112537,0.055579,0.087713,0.147366,-0.115386,0.074986,0.002806,-0.208547,0.102463,-0.09965,0.030769,-0.057727,-0.05234,0.012797,0.085463,-0.042105,0.20776,0.088155,0.150682,0.023635,-0.021525,-0.044455,0.109889,-0.162778,-0.153331,0.09605,0.147819,-0.023928,-0.040824,0.011911,0.000679,0.002926,0.031225,0.143574,-0.007332,-0.090779,-0.023165,-0.138842,0.02242,-0.18646,0.003068,0.080283,0.071625,-0.01516,-0.283914,0.045843,-0.016004,0.045137,-0.100637,0.053702,0.064678,0.121702,0.037838,0.178843,-0.049687,-0.165608,0.069083,-0.024586,-0.0419,0.082745,0.08436,0.30728,-0.104643,-0.005154,-0.127465,0.111281,-0.118266,0.011997,0.043742,0.10874,-0.161436,0.033566,0.113392,0.151752,0.048784,0.065647,0.122105,0.028311,-0.239009,0.028877,-0.0144,0.146474,-0.047517,0.22329,-0.040523,-0.072155,0.125096,0.033677,-0.084295,-0.100484,0.018668,0.012646,-0.037293,-0.19894,0.033876,0.145359,-0.236076,-0.010128,-0.09702,-0.030789,0.372791,0.060734,-0.093936,0.145115,0.012672,0.169403,0.05172,0.080092,-0.01643,0.007761,0.190634,0.004098,0.010077,-0.378695,0.06622,0.248463,0.140198,0.156997,0.241975,0.000485,0.065592,0.064947,-0.13772,0.022545,0.001418,-0.019782,-0.015955,-0.008953,0.043477,-0.189336,0.229967,0.009853,0.177234,0.018806,-0.067067,0.020738,0.066132,0.118555,0.269468,0.01093,0.142961,0.02496,0.058734,-0.01124,0.085242,-0.019971,-0.018287,-0.131208,0.037202,0.007089,0.059042,0.150164,-0.077748,0.026056,0.108941,0.115908,-0.239366,-0.137698,0.258243,-0.123722,0.033207,-0.113777,0.213446,-0.239892,-0.019376,-0.178992,0.014934,-0.076626,0.006155,0.040093,-0.031116,-0.050272,0.09976,-0.098076,-0.013293,0.029137,-0.122281,0.041347,0.023704,-0.288883,-0.011446,0.032163,-0.148775,-0.0481,0.140905,-0.215649,-0.097468,0.033801,0.084499,-0.1524,0.141459,0.091058,0.053565,-0.023419,0.007736,-0.113662,-0.166065,0.064637,-0.103644,0.126993,0.043546,-0.136428,0.055843,0.045106,-0.033205,0.021926,-0.180896,0.005381,0.05092,0.348552,0.248829,-0.145042,-0.134085,-0.188831,-0.062147,0.50789,0.512151,0.22113,0.082921,-0.09307,-0.271548,-0.217917,0.101415,-0.604735,-0.089606,-0.00613,-0.452235,0.022836,0.224272,-0.330786,-0.199805,0.184848,0.333702,0.038623,-0.69068,-0.263508,0.170442,-0.187655,-0.07636,0.211002,0.286998,0.051363,-0.173694,-0.221973,0.376828,-0.08558,-0.218544,0.064323,-0.15231,0.238613,0.067132,-0.011869,-0.112205,0.065317,0.071864,0.709945,0.04459,0.071733,0.149511,0.162178,-0.311642,-0.364747,-0.144892,-0.120349,0.331768,-0.343015,0.018278,-0.203858,-0.408813,-0.083391,0.569685,-0.037407,0.435298,-0.064072,0.129544,0.073344,-0.207538,0.2504,0.027761,-0.069702,-0.341816,0.237597,0.135271,0.057586,-0.098643,0.242101,-0.269783,0.062314,0.247851,-0.270041,0.260357,0.161052,-0.129676,0.29977,0.475614,-0.195453,0.14397,-0.339741,-0.094673,-0.183144,-0.096038,0.118572,-0.194543,-0.091781,-0.21001,0.326451,-0.688111,-0.41241,-0.037603,-0.123513,-0.616882,-0.016329,0.078805,-0.116404,-0.135366,0.111778,-0.090342,0.024669,0.016684,-0.085827,0.224608,-0.098623,0.129945,0.019286,0.131011,-0.006566,-0.13502,0.002751,-0.041025,0.27211,0.162119,-0.108019,0.014582,-0.031022,0.230416,0.074736,0.094097,0.107556,-0.042071,-0.347403,0.042494,-0.012288,0.032182,0.180093,-0.058092,-0.006771,0.249059,0.121319,-0.335319,-0.226198,0.216406,0.029495,-0.151544,-0.075986,0.324152,-0.264381,-0.113147,-0.12824,0.141326,-0.251867,0.017224,-0.144736,0.083424,0.011847,0.155185,-0.016171,0.24566,-0.1368,0.06392,0.138824,-0.132291,-0.227323,-0.069298,0.064447,0.022217,-0.051465,0.135205,-0.03671,0.041938,0.007337,0.316428,-0.172487,-0.008358,0.05388,0.186894,0.025101,0.201307,0.095777,-0.376337,-0.028069,0.029163,-0.019953,0.106579,-0.184743,0.032447,-0.069394,0.063625,0.05869,-0.127497,0.031414,-0.058279,0.433915,0.05463,-0.287379,-0.151905,-0.152709,-0.256234,-0.113655,0.083031,0.124001,-0.127506,-0.0291,0.191452,-0.14971,-0.093373,0.269789,0.109999,0.230436,0.047557,0.01599,-0.009639,-0.007897,-0.016137,-0.14865,-0.002751,0.236457,-0.199311,0.187081,-0.187388,-0.117367,-0.247153,0.111093,0.015049,-0.054769,0.128471,0.035238,0.073024,-0.091929,0.148138,0.156509,0.089149,0.064433,-0.11819,0.168943,-0.059021,0.251116,-0.162915,-0.02295,0.02932,0.25932,-0.275288,0.101048,-0.106849,-0.185474,0.047948,-0.119308,0.078642,0.087349,0.029931,0.119254,0.102646,-0.075171,-0.07425,0.022782,0.028044,-0.015981,0.154099,-0.126439,0.15572,0.078444,0.000269,0.037751,-0.254788,-0.103478,-0.048083,-0.044425,-0.196447,0.310629,-0.286689,-0.019399,-0.014169,-0.084102,-0.0232,0.063884,0.333785,0.077544,-0.220228,0.073101,0.010862,0.065045,-0.049133,0.012607,-0.076647,-0.175432,-0.016143,0.061196,0.058103,-0.02429,0.14544,0.084412,-0.115432,0.068066,-0.031547,0.078272,-0.407561,-0.220189,-0.193984,-0.047918,-0.173628,-0.075167,-0.145367,0.352553,0.053652,0.134224,-0.029418,-0.06951,-0.372622,0.225391,-0.144927,0.015848,0.093655,-0.080405,0.049969,0.15201,0.199151,0.055186,0.096031,0.012503,0.164732,-0.073609,-0.018426,-0.058531,-0.193074,-0.033472,0.087211,-0.148569,-0.081665,0.030162,-0.200022,0.105823,0.187733,0.062311,-0.099677,-0.107393,-0.211556,0.073271,-0.145081,-0.278116,0.362441,0.230863,-0.037942,-0.118135,-0.190849,-0.039539,-0.164773,0.102135,-0.041702,-0.061044,-0.169349,-0.061699,0.093015,-0.078426,0.162036,0.245787,0.264032,0.003448,0.043584,0.40114,0.234866,-0.281798,0.291216,-0.063795,0.128053,-0.113089,0.180731,0.10139,0.001302,0.041917,-0.304609,0.144252,0.007519,-0.087887,-0.131916,-0.232573,0.305071,0.058825,-0.254968,0.043143,0.058548,-0.243795,0.042182,-0.220837,0.060181,-0.186256,-0.022269,0.053618,0.15017,-0.069881,0.198164,0.124329,-0.139132,0.084948,0.096769,0.022757,-0.006627,0.02847,0.066711,-0.139569,-0.153307,-0.245971,-0.125607,0.082586,-0.087345,0.054638,0.004073,0.143499,-0.050011,-0.033683,0.100533,0.017695,0.179926,0.053317,0.435472,-0.050775,3.3e-05,0.12418,0.014405,-0.135334,-0.184887,0.055884,-0.043724,-0.095366,-0.072634,-0.051773,0.014003,-0.028967,0.084923,-0.221348,0.023411,-0.027981,0.062006,-0.045405,0.086795,-0.035957,0.116524,0.227181,-0.026795,0.027727,-0.095197,0.06251,0.107536,-0.044208,-0.240698,-0.15915,-0.086182,-0.072591,0.079469,0.010095,-0.041525,0.159705,-0.100903,-0.025605,-0.032691,-0.008449,0.316953,-0.040794,-0.00119,-0.011441,0.32339,-0.140924,0.119585,-0.010037,-0.021076,0.03578,0.041855,-0.030148,-0.165897,-0.097222,0.191351,-0.059268,0.145896,-0.007369,0.107029,0.008508,0.098805,-0.06102,0.029822,-0.208928,0.025412,-0.001285,-0.068035,-0.1226,0.272564,-0.051944,-0.001006,-0.127698,0.178479,-0.052773,0.046495,0.019574,0.13214,0.005041,0.004432,0.161804,0.170419,0.231806,-0.044231,-0.140788,0.150416,0.065025,0.096769,-0.110865,-0.06844,0.021789,-0.07456,0.060432,-0.108615,-0.118638,-0.254751,0.021074,-0.09343,-0.175522,0.011207,-0.005776,0.146494,-0.047597,0.121431,0.023031,0.123744,-0.020662,-0.022707,0.075508,-0.030472,0.184979,0.005947,-0.067864,0.071846,0.174937,-0.24779,-0.032137,-0.018223,-0.225535,0.080865,-0.02457,0.042296,-0.029562,-0.034907,0.206694,0.018736,0.159133,0.09796,0.130796,-0.26141,0.087417,-0.067321,0.060929,0.20887,-0.072249,-0.175395,0.135955,-0.211252,0.031069,-0.112431,-0.029781,-0.157891,0.259538,-0.215495,0.011886,-0.130501,-0.072045,0.00875,-0.055511,0.216089,0.092547,-0.260303,0.06677,-0.155224,0.108113,0.095568,0.08968,-0.072381,-0.10692,0.145607,0.19532,-0.114909,0.003403,0.014895,0.092099,-0.16167,0.127747,-0.008198,-0.158239,-0.341126,-0.50724,-0.502162,-0.17584,0.366738,-0.119118,0.027766,0.392984,0.76817,0.249392,0.052718,0.00958,0.018694,0.021816,0.054843,-0.063369,0.21168,0.360341,0.022609,0.154991,0.234549,0.021668,0.187106,0.265314,0.057199,-0.200994,-0.037134,0.045004,-0.342741,-0.212589,0.543973,0.716553,0.052629,0.034475,-0.032328,0.579754,-0.227698,-0.119079,-0.082061,-0.007541,0.03247,0.405902,-0.020651,-0.441915,0.107807,-0.277261,0.861018,-0.228828,-0.409391,-0.06216,-0.049179,-0.007593,0.539269,-0.062868,0.077493,0.052738,0.103515,-0.041414,-0.069469,-0.340293,0.101249,-0.037067,-0.346149,0.273367,-0.037259,-0.162028,0.239757,-0.015553,0.016425,0.298415,-0.321144,0.027351,-0.164874,-0.0459,-0.023317,0.258923,0.079334,0.118441,-0.309054,0.030512,0.069174,-0.06784,-0.178462,0.15872,-0.110132,-0.074193,-0.115768,0.358703,0.087554,0.395227,0.111824,-0.15511,-0.56354,-0.037471,-0.037786,-0.017476,0.172363,0.124045,-0.021577,0.088572,0.03729,-0.072362,0.06072,-0.026901,-0.062981,0.021641,0.019601,-0.131251,0.026373,-0.111347,0.125148,-0.003694,-0.001642,0.075582,-0.146257,-0.086511,-0.125542,-0.016614,-0.076104,0.061504,-0.042593,-0.057024,0.123198,0.04522,0.065981,0.011261,-0.064271,-0.01946,0.130059,-0.079547,-0.093453,-0.068014,0.037974,0.035441,-9.5e-05,-0.003478,0.080986,0.060442,0.05786,0.296391,-0.185302,-0.052317,-0.042391,-0.001333,0.103073,-0.0058,0.056074,0.060907,-0.024538,-0.013741,-0.057212,-0.001355,-0.082064,0.054551,0.085676,0.138789,-0.030556,-0.00476,0.133996,-0.075304,-0.205008,0.191098,0.024697,-0.028416,-0.168934,0.179631,-0.125543,-0.010801,-0.081727,-0.106835,-0.021076,0.017318,0.219403,0.064409,0.071456,0.067956,-0.129494,0.104232,0.089973,-0.050562,0.1006,-0.068993,0.070443,0.060868,-0.081541,-0.143471,-0.164821,-0.02727,0.101039,0.074458,-0.026511,-0.056945,-0.203803,-0.249962,-0.279308,-0.071832,0.101131,0.018865,-0.168231,0.150377,-0.024478,0.197292,-0.049624,0.137721,-0.275044,0.299336,-0.062466,0.079614,0.15007,-0.035079,-0.128753,0.041704,0.303169,0.031774,-0.059307,0.080375,0.064655,-0.037505,-0.099517,0.118125,-0.107818,-0.066021,0.352592,-0.053057,0.024594,0.239112,-0.061685,0.031789,0.198827,0.037527,-0.046884,-0.145985,-0.180384,0.025984,-0.124349,-0.265293,0.119714,0.044741,0.15443,-0.219431,-0.277407,-0.106802,-0.235347,0.023635,0.157389,0.057219,-0.108758,-0.092686,0.047734,-0.198656,-0.266513,0.142051,0.257132,-0.016251,-0.095354,0.166441,0.023489,-0.200123,0.220631,-0.070491,0.061774,0.032793,-0.19209,0.067397,-0.112115,-0.015111,-0.036539,0.210154,-0.083842,0.109859,-0.043148,-0.184763,0.302489,-0.066514,-0.144633,0.00852,-0.011427,-0.093419,0.033756,0.050315,0.171518,-0.06275,0.115394,0.080727,-0.063789,0.069469,0.134569,0.018301,0.004021,-0.565359,-0.13942,-0.107164,0.242205,-0.047495,0.173091,0.052857,0.269816,0.086899,0.049052,0.090572,-0.001606,0.068793,-0.206557,0.150192,0.343036,0.206525,-0.106435,0.142139,0.140889,-0.083876,-0.184645,0.240837,0.158035,-0.22039,-0.091874,-0.056202,0.028861,-0.284533,0.167056,0.221913,-0.100707,0.158412,0.01173,0.19192,0.001993,0.048067,0.179674,0.206586,-0.240514,0.230257,-0.018467,-0.350604,-0.072251,-0.13972,0.415186,-0.255919,-0.14575,-0.059463,-0.100703,0.06617,0.368196,0.155431,0.040396,-0.058496,0.087118,-0.048252,-0.064291,-0.242089,-0.069444,0.193479,-0.159662,0.127472,-0.263254,0.058304,0.19808,-0.064946,-0.154559,0.121662,-0.317865,-0.024691,-0.027864,-0.191306,-0.036545,0.209344,-0.116613,0.126901,-0.089707,0.002193,0.014328,-0.133208,-0.246357,-0.134599,0.058102,-0.167941,0.100772,0.022745,0.021726,0.148962,-0.181947,-0.163598,-0.32031,-0.088649,-0.320672,0.13764,0.066371,0.100922,-0.128588,-0.005534,-0.155965,-0.164951,-0.06651,0.080621,-0.015916,0.302093,-0.129778,-0.040831,-0.093583,-0.032223,0.001135,-0.019358,0.142598,0.120604,-0.308193,0.097421,0.217428,-0.073284,0.106554,0.151335,0.264991,-0.122714,-0.081245,0.067858,0.052582,-0.089443,0.098418,-0.080888,0.036002,0.143483,-0.108333,0.009854,-0.103103,-0.050812,-0.205075,0.004528,0.136725,0.088667,-0.061737,0.151055,0.146273,0.094832,0.039648,0.039701,-0.052312,0.091894,-0.123041,-0.137886,-0.098134,-0.148989,0.008103,-0.060464,0.29871,-0.108776,0.193616,0.089145,0.166678,0.025674,-0.077052,0.032592,-0.015052,-0.028511,0.271448,-0.018573,0.084399,0.204151,-0.224063,0.0136,0.094084,-0.241172,0.114719,0.237083,0.069984,0.220516,0.159215,-0.356562,0.142399,-0.251379,-0.192464,-0.174909,-0.021401,-0.045183,0.097061,-0.181078,-0.155663,0.058525,-0.274595,0.06136,0.060757,0.046663,-0.111673,0.130561,-0.165937,-0.221116,-0.002884,0.133111,-0.141858,0.027197,-0.078798,-0.259872,-0.038699,-0.407659,-0.06626,0.18909,-0.037757,0.031082,-0.042758,0.101703,-0.043323,-0.096607,0.00622,-0.143348,0.256965,0.019734,0.413708,0.032154,0.211095,0.032578,-0.114746,-0.171102,-0.272681,-0.020221,-0.077834,0.055941,-0.040889,0.06114,-0.033012,0.016311,0.127724,-0.184528,0.092288,0.201977,-0.110619,0.021735,0.274671,-0.050278,0.26495,0.173986,-0.021539,-0.1176,-0.279508,-0.140228,0.021768,0.071104,-0.266768,-0.057428,0.199715,-0.061012,0.025192,-0.019788,-0.141344,0.092577,-0.117852,-0.034356,0.043617,-0.017809,0.401272,0.033322,0.125789,-0.044301,0.499107,-0.116675,0.131206,-0.065842,0.026426,0.120888,0.039384,-0.082478,-0.370431,-0.092736,0.30605,-0.130117,0.123704,-0.168686,-0.142322,0.0774,-0.035237,0.110246,-0.141288,-0.356081,0.241667,0.066963,-0.026229,-0.148863,0.236106,-0.143113,0.021096,0.150242,0.03992,-0.250669,0.028119,-0.098519,0.041994,-0.039693,0.31437,-0.066807,0.080636,-0.167775,-0.112379,0.036858,0.004983,-0.045824,0.057164,0.261923,0.138687,0.160878,-0.108725,0.116678,0.119613,0.069436,0.108661,0.032599,0.059434,0.080542,0.068433,-0.274324,-0.114462,-0.024928,0.030739,0.226543,-0.082527,0.130654,0.396792,-0.017664,-0.246709,-0.188485,-0.021078,0.355505,-0.014529,0.298841,0.022039,-0.012871,0.100105,-0.193868,0.065349,-0.008227,0.033519,-0.164907,0.017493,-0.193487,0.07902,-0.093397,0.225647,-0.110078,0.211306,0.014186,-0.089417,-0.236137,-0.110598,0.056245,0.081165,0.004155,-0.081743,0.132432,0.176457,0.203223,0.166727,0.119105,0.067547,-0.046284,0.075415,0.004212,-0.010554,-0.046859,-0.112727,0.012623,-0.051024,-0.177312,-0.009122,-0.117711,-0.053536,0.088848,0.081986,-0.042008,-0.184346,-0.053718,-0.009891,0.182115,-0.267085,0.042904,-0.175323,-0.099133,-0.325831,-0.296838,0.289811,0.211347,0.097109,0.06329,0.225562,0.252896,0.268109,-0.123036,0.100968,-0.047108,0.243931,-0.460633,0.347525,-0.160588,0.140804,-0.207997,0.064895,0.022045,0.01977,-0.103831,-0.304747,0.007937,-0.232157,-0.078268,-0.399276,-0.053236,0.211898,0.05417,0.103464,-0.052419,-0.065653,0.111267,0.105065,-0.153807,0.113627,-0.068785,-0.032801,0.092058,0.158131,0.003637,0.20334,-0.204619,-0.125705,0.006119,-0.520964,-0.286909,-0.015947,-0.015154,0.144433,-0.130861,-0.065837,0.221785,0.045376,0.113472,0.285694,0.413946,-0.416275,0.168689,-0.096698,-0.303775,-0.201387,0.042519,-0.127934,-0.271697,-0.291049,0.221376,-0.274009,-0.225115,-0.112485,-0.207098,-0.203642,-0.056059,-0.152445,0.090913,0.268075,-0.066301,-0.068183,-0.211748,-0.191365,0.595258,-0.078962,0.210537,0.247822,0.119929,0.123905,0.212662,0.130918,0.193955,-0.055258,0.079199,0.087655,0.134597,-0.323381,0.121964,-0.145695,0.034681,-0.295127,-0.326462,-0.184917,-0.116341,-0.017401,-0.060758,0.073198,0.029076,0.064101,0.002834,-0.101877,0.068827,-0.319713,0.189841,0.003949,0.012983,0.059401,-0.161803,-0.05716,0.083234,0.23776,0.197206,0.170347,0.016036,0.166053,-0.004496,-0.039487,-0.016307,-0.296916,-0.190143,0.167654,0.099656,0.03444,0.168977,-0.12813,0.093906,0.173759,-0.186576,0.01953,0.064024,-0.023995,0.025182,-0.096467,-0.210185,0.263077,0.182309,0.15586,-0.071303,-0.316784,-0.159043,-0.046504,-0.080794,0.102643,0.075292,-0.024527,-0.016939,0.162485,-0.12395,-0.096509,-0.026376,0.104777,0.115197,0.043517,0.30943,0.023071,-0.077079,0.291057,0.092072,0.062262,0.199006,0.041401,-0.083122,-0.025187,0.017715,-0.160655,0.038897,-0.07812,0.037873,-0.009562,-0.180301,0.125566,-0.138568,-0.111536,-0.033535,0.159055,-0.182189,-0.06155,-0.075868,-0.058951,0.013107,-0.042826,-0.143355,0.003587,-0.011969,-0.023317,0.033529,0.30859,0.726769,0.085275,0.081635,0.015234,0.167426,-0.168964,-0.162333,-1.303009,-0.192684,-0.073694,-0.03933,-0.050822,0.063018,0.040513,0.036819,-0.042768,-0.656909,-0.048072,-0.0927,0.05973,-0.059799,-0.272968,0.013763,0.029737,0.127888,0.12243,0.189576,0.47318,0.138269,-0.219371,-0.908647,0.491123,-0.019733,-0.449136,-0.418914,0.258155,0.244733,-0.04793,-0.233121,0.229904,-0.263484,0.017973,0.722964,-0.113474,0.41265,-1.037319,0.453748,0.191929,0.160109,-0.257541,0.019071,-0.612744,-0.029243,-0.229443,0.299022,0.010691,-0.247234,0.27072,0.60611,0.024225,-0.113029,0.115122,-0.213995,0.101048,0.154075,-0.267758,0.126619,-0.062923,0.088089,0.164408,0.006782,0.115274,-0.011482,0.312589,-0.231285,0.138428,-0.211403,0.333719,-0.031561,0.173844,0.178274,-0.005837,0.101833,-0.000342,0.062437,0.194896,-0.162013,-0.163724,-0.400056,0.033393,0.510277,0.53513,0.049129,0.149598,0.105501,-0.082622,-0.156367,0.022215,0.027918,-0.179453,0.048086,-0.095433,-0.221196,-0.099385,-0.285243,-0.060488,0.081384,-0.039663,0.011038,-0.050776,-0.041614,-0.096078,0.055341,0.087814,-0.02293,0.14258,-0.007216,0.287139,-0.094994,0.006757,-0.020063,0.040348,-0.110335,0.002463,0.034656,-0.0507,-0.028371,-0.046975,-0.033225,0.034097,-0.169903,-0.125389,-0.183336,0.207761,-0.062038,-0.096266,-0.137113,0.162043,-0.041916,0.078562,0.105853,-0.063406,-0.046109,-0.14295,-0.139484,-0.06925,0.030984,-0.214827,-0.002186,0.044828,-0.08876,0.018165,0.044295,-0.036626,-0.009271,-0.09124,-0.012564,0.03099,-0.079739,0.201767,-0.175483,0.138161,-0.091696,0.196122,-0.251646,0.188405,0.068324,0.11695,0.136437,-0.032793,-0.050541,-0.135027,-0.065953,0.210179,-0.143895,0.134616,-0.156597,0.107193,-0.079486,-0.022391,0.05821,-0.041096,-0.211854,0.010079,-0.027112,0.046616,-0.059846,0.136873,-0.141052,0.075174,-0.047618,0.08851,0.370976,0.19213,0.073787,-0.203002,0.121382,-0.157704,0.042734,-0.127957,-0.078513,0.013675,0.008808,0.132803,-0.029545,0.116764,-0.136327,-0.173924,-0.010337,0.178942,-0.04714,-0.317679,-0.042891,0.061486,-0.099913,-0.1022,0.13017,0.036285,0.017325,0.13046,0.175259,-0.151739,-0.373789,-0.068744,-0.202216,-0.138902,-0.135549,-0.019964,0.214156,-0.11075,-0.185682,0.045336,-0.323407,-0.028004,0.178334,-0.057986,0.14126,-0.234551,0.129007,0.218914,0.139381,0.029995,-0.119733,-0.173122,0.017795,-0.17499,0.116601,-0.090334,0.116141,0.166727,0.210485,0.006086,-0.212171,0.210101,-0.072469,0.182951,-0.196861,-0.275671,-0.110317,0.081779,-0.317332,0.21977,0.17301,-0.068803,0.080445,-0.053312,-0.096367,0.091185,-0.230214,-0.023692,-0.00139,-0.198575,-0.010654,0.210439,-0.083462,0.094872,0.097914,0.094516,-0.082301,0.067144,-0.151359,0.214535,-0.058645,0.427526,-0.059473,0.254258,-0.186378,0.070638,-0.039966,-0.088057,0.03681,0.002397,0.265508,0.005618,-0.054393,-0.095714,0.025688,0.0931,-0.087817,-0.123165,0.021155,0.189548,-0.169993,-0.095112,-0.103567,-0.101449,-0.17992,-0.011766,-0.074938,-0.072067,0.035087,-0.213891,-0.017523,0.212451,0.21769,-0.097616,0.011958,0.049359,-0.115667,0.118857,-0.117497,-0.145149,-0.131932,0.273926,0.150871,-0.010825,-0.174263,0.040293,0.061298,-0.075539,0.052614,-0.04714,0.089082,-0.211503,0.086245,-0.096852,0.038164,-0.149961,0.281555,-0.080871,0.25237,-0.067263,0.117783,-0.262227,-0.089686,-0.224085,0.03893,-0.018958,-0.176966,-0.116338,-0.072228,-0.041168,-0.051449,-0.061093,-0.042229,-0.145208,-0.087911,-0.060049,-0.038812,-0.154184,0.148547,-0.032006,-0.045154,0.062756,-0.158459,-0.088566,0.200228,0.078172,0.317354,0.079446,0.253508,0.035696,0.085118,0.169798,0.010724,-0.000238,-0.115192,0.090876,0.274129,0.054193,0.174558,0.269991,0.044816,-0.103374,-0.122349,-0.105534,-0.107059,0.060489,-0.075684,-0.152324,-0.101325,-0.078937,-0.106995,-0.111672,0.052317,-0.028471,0.099354,-0.152019,-0.029052,0.073053,0.108204,-0.132974,0.014519,0.068506,-0.094224,-0.001664,0.137669,-0.044552,0.0666,-0.25091,-0.134832,-0.062391,-0.047138,0.140194,0.119676,-0.126153,0.163761,0.082472,0.004309,-0.097257,-0.193907,-0.016287,-0.159856,-0.11753,-0.125632,0.082929,-0.106357,0.000367,-0.015911,0.02973,-0.286468,-0.092449,-0.017789,0.012302,0.05459,-0.065233,-0.085307,0.04197,-0.005497,0.008858,-0.153169,-0.207915,0.058633,0.020337,0.119577,-0.215475,-0.002671,0.049071,-0.210497,0.019513,-0.130647,0.102277,-0.135652,-0.117643,0.118507,0.052962,-0.009046,0.240662,0.208994,-0.098382,0.080074,0.063042,-0.005561,0.085299,-0.147265,0.026335,-0.032669,-0.213186,-0.086263,0.01058,-0.131415,0.173975,0.081205,0.145998,-0.023975,-0.082849,-0.073319,0.094549,0.196205,0.030419,0.044717,-0.092492,-0.12873,-0.017731,-0.013173,-0.110495,-0.042834,0.051786,-0.111208,-0.005331,0.103241,0.034879,-0.024135,-0.08943,0.160665,0.114807,-0.107629,-0.112122,0.138577,0.211484,0.05077,0.087118,0.147143,0.144242,0.023207,-0.081804,-0.023258,0.235633,-0.113417,-0.069367,-0.025257,-0.070626,0.091897,0.089005,0.075532,-0.026622,-0.093075,-0.053525,0.012779,-0.036927,-0.140615,-0.087945,0.02601,0.071943,-0.058011,-0.00303,-0.018974,0.005328,-0.133344,-0.051673,-0.082108,-0.167248,0.022861,0.267082,-0.039378,0.127116,-0.057925,0.237625,0.114163,0.129981,0.137268,-0.043463,0.182898,-0.036773,-0.055221,0.141425,0.020061,0.092385,0.106847,-0.222396,0.026682,0.237123,-0.124705,0.022964,0.153122,-0.087304,0.012171,0.227121,-0.183307,0.035291,-0.321068,-0.008751,-0.083583,-0.033603,0.011209,-0.158202,-0.165447,-0.140603,0.142764,-0.07646,-0.188429,-0.030169,-0.142704,-0.02145,0.090661,-0.035048,-0.312262,-0.221913,-0.179316,-0.025666,-0.12692,-0.142231,0.0392,0.063076,0.03138,-0.118355,0.003937,-0.116552,0.039563,-0.193939,0.061084,-0.022289,0.102892,-0.158956,0.194766,0.077887,-0.010517,0.004077,0.205786,0.060524,-0.117338,-0.197367,0.049215,-0.011502,-0.17931,0.198414,0.185359,-0.105184,0.179796,0.031402,0.056559,0.090369,0.033954,0.075018,-0.037344,-0.130957,-0.115018,0.076382,-0.332385,0.027068,-0.134861,0.132428,-0.257389,-0.230024,-0.076604,0.04206,-0.075882,0.066311,-0.049048,0.05242,-0.035877,-0.12108,0.01619,-0.200554,-0.015903,0.080521,0.016194,-0.215552,0.104272,-0.040264,-0.048929,0.072944,-0.145908,0.039948,-0.108116,-0.296303,0.163227,-0.06912,-0.0129,-0.002393,0.293094,0.02809,0.212906,-0.007744,0.115921,0.037141,-0.107954,0.011982,-0.038729,-0.161228,-0.059993,0.055075,-0.095686,0.061123,0.061744,0.099612,0.056826,0.004441,0.019021,-0.142114,-0.062953,0.062487,0.151268,0.038329,-0.03765,0.045152,0.183519,0.025331,0.015894,-0.13908,0.048896,0.037008,-0.138566,0.032552,-0.114869,0.078106,-0.063303,-0.099902,-0.008694,-0.049018,-0.172736,-0.191605,-0.031799,-0.226503,0.032149,-0.205899,0.03421,0.094898,0.144169,0.109607,0.054157,-0.02064,-0.089978,0.189406,-0.074829,-0.105214,-0.06804,0.076834,0.203417,-0.092283,-0.042873,0.097877,-0.050898,0.007131,0.093604,-0.134365,-0.040827,-0.116955,0.120336,0.197764,0.065442,-0.035891,0.160469,-0.073632,-0.01192,-0.038978,0.130504,-0.138003,0.072824,-0.015486,0.102302,-0.168242,-0.042467,0.009502,-0.200501,-0.109711,0.199499,-0.039466,0.066315,-0.135318,-0.176576,-0.042535,-0.004042,-0.141816,0.08504,-0.062104,-0.213458,0.183801,-0.08767,-0.075179,0.183283,-0.037779,0.063498,0.123661,0.129246,0.150948,0.12071,-0.0055,-0.032059,0.065444,-0.264751,-0.073385,0.15753,0.028291,0.05074,0.042781,-0.111659,0.084543,0.122101,0.26315,0.192995,-0.063497,0.245538,0.079704,-0.150855,0.034554,-0.085709,0.149523,-0.170477,0.11529,0.092495,0.057442,-0.034101,-0.168921,-0.011836,0.327386,-0.229009,-0.101944,0.047447,-0.118158,-0.238093,-0.124496,0.194001,0.203406,0.080362,-0.035762,0.233219,-0.194668,-0.080111,-0.039996,-0.156677,0.072841,-0.213693,0.028664,0.144869,0.066944,0.128905,0.041221,-0.058504,0.178748,0.04475,-0.079522,-0.007216,-0.111596,0.175111,-0.034625,0.105859,-0.069801,0.102507,0.094233,-0.005056,-0.140716,0.148303,-0.221898,0.061244,-0.019467,-0.030886,-0.383085,-0.071632,0.084829,-0.201773,0.029235,0.034066,-0.15318,0.194065,-0.164355,-0.275079,0.353992,-0.012835,-0.02571,0.185159,-0.092181,-0.295347,-0.24956,-0.250482,-0.093953,0.144224,0.046517,0.257551,0.078381,0.24671,0.184185,0.420403,-0.154956,0.082536,-0.174981,-0.059359,0.039808,0.036322,0.249252,-0.100261,0.027683,-0.123977,0.27311,0.079049,0.195661,-0.001837,-0.106422,0.051461,0.236269,-0.183458,0.046674,-0.090961,-0.004707,-0.02455,0.573072,-0.319654,0.160593,0.039929,0.02735,0.196158,-0.058116,-0.17865,-0.208997,-0.156686,0.066037,-0.004696,-0.124146,0.083917,-0.003023,-0.048287,0.175844,0.110552,-0.274945,-0.057274,-0.029791,-0.082985,0.204708,-0.05402,-0.127366,0.010077,0.161786,0.16878,0.052434,-0.001868,0.258052,0.273497,-0.265081,-0.240014,-0.070512,0.069398,0.181449,-0.063335,0.220839,-0.116947,-0.028098,-0.110923,0.18446,-0.023545,-0.061436,0.337783,0.075098,-0.204584,-0.354892,0.053975,-0.050724,-0.338398,-0.197902,0.67819,-0.069088,0.010216,-0.107294,0.102973,-0.121438,0.049405,0.157831,-0.090731,0.086474,-0.183962,0.012177,0.049845,0.08366,0.298768,-0.222719,0.029456,0.085984,-0.018891,0.049388,0.091413,-0.012032,0.111458,-0.169158,0.054635,-0.273751,-0.116896,-0.000405,0.012482,-0.244943,0.193051,-0.452411,-0.29559,-0.23558,-0.170118,-0.095306,-0.126049,-0.284307,0.20207,0.026772,-0.000772,-0.054331,0.516839,-0.545907,0.338386,-0.136247,0.042611,0.053503,0.047124,-0.064607,0.309686,0.351128,0.034225,0.266661,0.206105,0.154675,-0.101045,-0.250907,-0.056865,-0.442791,-0.039524,0.193512,0.09327,0.018692,0.188682,-0.176996,0.259306,0.085682,-0.266431,0.003454,-0.15971,-0.168847,-0.110131,-0.031701,-0.055933,0.524099,0.124007,-0.025983,0.102648,-0.557532,0.022265,-0.018603,-0.098432,-0.201196,0.000749,-0.179419,-0.083482,0.281848,-0.223842,0.034227,0.18403,0.447951,-0.111504,-0.075606,0.463622,0.28752,-0.617742,0.120672,0.050414,0.277479,0.286675,-0.002615,0.029782,0.08967,-0.063475,0.100975,0.294929,0.131009,0.192324,0.255952,-0.439951,-0.016313,-0.384294,-0.244479,-0.002587,-0.213644,-0.348172,-0.081626,-0.311681,0.190809,0.062132,0.021739,-0.336781,0.181759,0.033823,0.21867,-0.099651,0.477279,0.161026,-0.143445,-0.143768,0.168262,0.015532,-0.178637,0.001346,0.09461,-0.08329,-0.008069,0.062607,0.16045,0.186637,-0.157901,0.091923,-0.053448,0.184082,-0.064911,-0.019674,0.002484,-0.212843,0.035446,-0.001305,-0.025427,0.026367,-0.058064,0.143413,0.190379,0.035558,0.066,0.231302,0.012066,0.094901,0.142667,0.05326,-0.195232,-0.103276,0.265481,-0.058756,-0.026023,0.003988,0.265416,0.128029,-0.388058,-0.351567,0.19366,0.028495,-0.108488,-0.223977,-0.077944,-0.067596,-0.122211,-0.065967,0.044609,0.042855,-0.015795,0.015668,-0.161817,-0.119902,0.088431,0.152167,-0.239264,-0.03689,-0.10017,0.024057,-0.233042,-0.09825,0.083477,0.125348,-0.249159,-0.046278,0.139071,-0.081066,0.337288,0.031841,-0.130775,0.217312,0.153411,0.317121,-0.031026,0.023255,0.236714,-0.052444,-0.098844,0.038156,-0.125746,0.208389,-0.189985,0.259803,0.219909,-0.008927,-0.307006,-0.093053,0.170079,0.014569,0.097948,-0.01963,-0.167614,-0.129826,0.128405,-0.096782,-0.214529,-0.052451,0.02531,-0.172389,-0.109151,0.198757,0.039849,-0.050649,-0.174599,0.075427,0.013805,0.022564,-0.01688,0.142502,0.219674,-0.021327,-0.021867,0.009187,0.058852,0.094356,-0.195676,-0.122439,-1.5e-05,-0.017931,-0.023286,-0.007545,-0.1557,-0.025905,-0.012091,0.081488,-0.079866,-0.178569,0.01697,-0.14236,-0.141711,-0.074373,0.140674,-0.137888,0.003439,0.065823,0.035056,-0.165787,0.055246,-0.195669,-0.009613,-0.014798,-0.125197,-0.056728,0.251038,-0.056921,0.073252,0.019323,-0.090084,-0.071821,0.075345,0.076704,-0.091692,0.06121,0.070244,-0.003029,-0.056577,-0.028828,0.162566,0.147876,-0.084985,0.027198,0.046519,-0.135245,0.132259,0.030736,-0.058504,0.048079,0.113729,-0.172407,0.097922,-0.245283,-0.046716,-0.110335,-0.125927,-0.034023,-0.106634,-0.129146,0.055923,0.081525,0.030803,-0.009651,-0.064429,-0.01501,-0.077252,0.21979,0.233591,-0.003025,-0.093617,-0.064039,0.023506,0.002044,-0.270376,-0.083048,-0.046975,-0.134943,0.022924,0.146308,-0.013235,0.082915,-0.109972,0.105784,-0.019476,-0.004068,0.097792,-0.015116,0.353245,0.074392,0.240829,0.089587,0.247667,0.010248,-0.17546,-0.130198,0.114746,-0.060208,0.016106,0.101551,-0.026514,-0.018458,0.126429,0.130888,-0.174248,-0.247382,0.205668,-0.023294,-0.012563,-0.044123,0.03151,0.020684,0.140964,-0.037732,0.135966,0.000723,-0.240371,-0.16649,0.012892,-0.120897,0.043792,-0.145377,0.085453,-0.079834,0.174873,-0.051397,0.197228,-0.042884,0.226556,0.25453,-0.038969,0.135077,-0.031382,-0.059052,-0.11687,-0.017574,0.174639,0.074512,-0.13683,-0.005581,0.229402,-0.028842,0.196708,0.02125,-0.015799,-0.003735,0.160386,-0.11859,0.142331,-0.27639,-0.075603,-0.069179,-0.113877,-0.016297,-0.119792,0.007841,-0.07385,0.409751,0.060517,-0.177767,-0.084104,-0.235423,0.097086,-0.031297,0.382486,0.040501,-0.066629,0.089292,0.31146,-0.010605,0.042033,-0.000481,0.127262,0.115919,0.355173,0.030763,0.101436,-0.050767,0.07004,-0.030071,0.186908,0.091611,-0.038493,-0.116068,-0.14766,-0.087451,-0.688711,0.0586,-0.066304,-0.10968,-0.016046,0.053891,0.399079,-0.024672,0.100245,0.04141,0.127608,-0.02232,0.113683,-0.007048,-0.124163,0.233948,-0.069312,-0.051033,-0.00531,0.186244,-0.17031,0.152238,-0.177646,-0.247336,0.005592,0.044513,0.296837,-0.122001,-0.215694,-0.073134,0.16613,0.134499,0.047541,0.040592,-0.170453,-0.015284,0.114581,-0.192503,0.068735,0.141584,0.026395,0.06968,-0.583777,0.190963,-0.214113,-0.098183,-0.566226,0.271794,-0.419132,-0.018155,-0.054336,-0.291546,0.162128,0.017409,0.084003,0.17774,-0.057575,0.104444,-0.112729,0.039312,-0.075732,0.046038,0.038105,0.035365,-0.07199,0.422383,-0.19996,0.154408,0.029019,0.056322,-0.435234,-0.016923,-0.13083,0.081456,-0.130018,0.431637,0.196318,0.051726,-0.459616,0.016215,0.046329,-0.191132,-0.753908,-0.044516,0.144028,-0.074037,-0.144396,0.126786,0.004368,-0.11656,-0.085982,-0.760661,0.434407,-0.187632,0.152475,0.221817,-0.102999,-0.181753,0.098327,-0.210039,0.175354,0.126293,0.312064,0.237371,-0.151077,-0.759668,0.219463,-0.056339,-0.506961,-0.589516,0.464121,0.153214,-0.444152,-0.422442,0.316924,-0.422747,-0.34443,0.263673,0.199012,0.67158,-0.649667,0.232442,0.106067,0.350721,-0.018297,0.088906,-0.395,0.140243,-0.293895,0.29931,0.125361,-0.136027,0.20697,0.45283,0.016189,0.019028,0.378958,-0.020802,0.327631,-0.061927,0.029263,-0.165985,0.209663,-0.057117,0.351058,-0.170196,-0.09282,0.177572,-0.171632,-0.139169,-0.095592,-0.145794,0.037536,-0.259965,0.269813,-0.004111,-0.124303,0.010857,0.178957,-0.043483,0.472244,-0.213972,-0.105974,-0.46769,-0.135775,0.004162,0.336477,0.067136,0.104787,0.248817,0.153888,-0.319504,-0.039967,0.051995,-0.049869,-0.13388,0.164757,-0.222481,0.092407,-0.159605,-0.05643,-0.012662,-0.040855,-0.087317,-0.009414,0.192726,0.138284,-0.039467,-0.208485,-0.042186,0.309029,0.105763,0.047326,0.09084,0.141356,-0.097336,0.03429,-0.279986,-0.143563,-0.220396,0.106542,0.164292,0.02329,0.017494,0.185031,0.014531,-0.078273,-0.217902,0.05909,0.188439,0.044845,0.214832,0.200171,-0.183888,0.157749,-0.173551,0.200808,-0.193549,-0.035685,-0.332911,-0.15591,-0.00299,-0.053097,0.166615,0.382659,-0.053444,0.187514,-0.0839,0.003953,-0.329434,-0.05301,0.146326,-0.079941,0.009067,0.071365,0.127102,0.42899,-0.008811,0.152419,0.172991,-0.331953,-0.050383,0.242971,0.078294,0.226845,0.195634,-0.373052,0.01126,0.009317,-0.114379,0.051072,-0.332517,-0.229966,0.017637,0.053955,-0.140781,-0.056617,-0.057256,-0.120921,0.454569,-0.210172,-0.262215,-0.312744,-0.057436,-0.400198,-0.060833,0.154378,-0.343447,-0.195269,-0.075688,0.16922,0.075629,0.061344,0.040985,0.138346,0.016247,0.135374,-0.053732,0.067462,0.081836,-0.043401,-0.01763,0.144513,0.019425,0.111618,0.074951,0.260866,-0.042815,-0.111828,0.026805,-0.136141,-0.148283,-0.094753,0.114859,0.075064,-0.195251,0.214362,0.185685,0.107646,0.207249,-0.029689,-0.064183,-0.063313,-0.138058,0.115753,0.092177,0.066802,-0.032547,-0.017248,-0.336525,-0.010797,0.005389,0.340024,-0.14812,-0.073416,-0.149781,-0.201321,0.072963,0.207874,0.029402,0.032854,0.049608,-0.084531,-0.054275,-0.042485,-0.236154,0.032911,0.081865,-0.222112,-0.066594,-0.150817,0.097839,0.079903,-0.103449,-0.037478,0.051752,-0.305603,-0.000525,-0.05409,-0.0814,0.115871,0.118516,-0.052665,0.024164,-0.152798,0.174935,-0.000925,-0.085555,-0.019555,-0.063256,-0.051927,0.042488,-0.008148,0.111399,-0.083898,0.25202,0.052446,0.018133,-0.175444,0.03646,-0.169894,0.148111,0.210854,0.205743,-0.01574,-0.016852,0.084924,-0.1334,-0.198346,-0.039139,0.048633,0.07643,-0.129016,0.232,-0.02354,-0.056979,-0.198221,0.315702,0.202243,0.114509,0.015483,0.169708,0.300913,-0.011104,0.106759,0.118872,0.393792,0.171968,-0.280776,-0.237565,0.058712,-0.134311,-0.034615,0.154669,-0.282589,0.04316,0.090364,0.075034,-0.265573,-0.149305,0.165097,-0.101743,-0.040468,-0.083605,-0.005112,0.071902,0.021444,0.161369,-0.019525,-0.096738,0.086055,-0.000738,0.065254,-0.197114,-0.057216,-0.315302,0.190428,-0.237884,0.267253,0.089964,0.273739,-0.095814,0.084482,0.124292,0.074201,0.05113,0.012817,0.017763,0.046472,0.082182,0.069739,0.101486,0.009911,0.104973,0.297389,-0.121007,-0.008403,0.076884,0.127771,0.086987,0.175834,-0.199065,0.188243,-0.304034,-0.033513,-0.322667,-0.015299,-0.094393,-0.199213,-0.049314,0.084223,0.300595,-0.032109,-0.20818,0.011531,-0.276998,-0.24944,-0.026732,0.260309,0.208033,0.147523,0.07201,0.061259,-0.052949,-0.058616,0.027778,0.02673,0.071423,0.180797,-0.013766,0.322544,-0.3273,0.018335,0.011438,0.109534,0.131952,0.035769,-0.000141,-0.279266,-0.199049,-0.274141,-0.074622,-0.01121,-0.040186,0.09449,0.140288,0.269181,0.188375,-0.079313,0.131408,0.063544,-0.118104,0.063946,0.045352,-0.130932,0.033618,0.090555,-0.064959,0.063603,-0.013976,-0.101833,0.196896,-0.26369,-0.286329,-0.028667,0.037551,0.211953,0.100507,0.057732,-0.069001,0.0496,-0.092159,0.036597,0.118239,-0.160425,0.323391,0.258933,-0.025411,-0.017919,0.079736,-0.150605,-0.199457,-0.320767,0.263434,-0.28823,0.143746,-0.320031,0.174016,-0.130435,0.141181,-0.035333,-0.224297,0.199357,0.047117,0.184379,0.1313,0.082611,0.183471,-0.247567,0.085882,0.161623,-0.087723,-0.050186,0.138147,-0.099152,0.275644,-0.227463,0.134712,0.054533,-0.013885,-0.073494,-0.0092,-0.129861,0.15868,-0.041852,0.203999,0.065877,-0.095826,-0.115966,0.012084,-0.031426,0.123186,0.029612,0.051578,-0.016752,0.052027,-0.104087,0.009575,-0.106075,0.033496,0.002361,0.075499,0.086168,0.165136,0.173213,-0.042062,0.314487,-0.031111,0.091471,0.094381,-0.055738,-0.038083,-0.06154,-0.016495,0.09511,-0.113449,0.048488,0.026494,-0.126764,0.016541,0.026438,-0.046093,-0.005602,-0.100515,-0.005243,-0.036233,-0.005252,0.095573,-0.005596,0.213714,-0.003282,0.152882,-0.155499,0.044436,0.162114,-0.001951,-0.204383,-0.225852,-0.028283,-0.142492,0.212541,0.056988,0.100238,0.192417,0.11303,0.108219,-0.023037,-0.006768,0.16645,-0.320141,-0.025808,0.150142,0.212526,0.027027,0.214128,0.108117,0.101322,0.031386,0.056671,-0.021417,-0.001428,0.093707,0.033277,-0.235784,0.07651,-0.159536,0.120852,-0.03627,-0.03058,-0.076907,0.086123,-0.049121,0.016434,-0.079427,0.061901,-0.083083,0.298076,-0.037991,0.104771,-0.096733,-0.083719,0.074996,0.163954,-0.008806,0.048129,0.133687,-0.00727,0.111475,-0.096103,0.088098,-0.020929,-0.231568,0.078172,0.101137,0.2502,-0.178384,-0.214594,-0.003156,0.096795,-0.037146,-0.247035,0.025977,-0.051128,-0.130551,-0.264003,-0.026978,0.288964,0.214218,-0.15067,0.091816,0.049218,-0.029833,0.114829,-0.084889,-0.080142,0.023028,0.121865,-0.023417,-0.106006,-0.006987,0.082744,0.041899,-0.015575,0.030687,0.023627,0.065247,-0.142532,0.114733,-0.127698,0.073515,0.002828,0.26563,-0.027116,0.218414,-0.007682,0.248924,-0.271714,-0.067057,-0.234087,0.110332,-0.149638,-0.169484,-0.04473,-0.002293,0.043477,0.058866,0.01324,-0.17211,-0.084474,-0.187888,0.05678,-0.068395,-0.219438,0.247189,-0.112909,-0.227107,-0.083037,-0.118668,-0.198659,0.257649,0.009978,0.175887,0.01526,0.294247,0.123547,0.057811,0.037266,-0.054701,-0.001367,-0.087704,0.130716,0.046452,-0.008419,0.218412,0.211767,-0.147324,0.064845,0.154456,0.154168,-0.049949,0.009185,0.028305,-0.106362,0.170595,0.009848,0.027667,0.179804,-0.132073,0.079492,-0.05958,0.015214,-0.139025,-0.046983,-0.054356,0.124045,0.085816,-0.186365,0.047159,-0.279588,-0.106102,-0.129489,-0.013989,-0.009778,0.189723,0.093726,0.153686,0.011635,-0.229289,0.030363,-0.101965,-0.042305,-0.000388,0.071346,0.177595,-0.030998,-0.197669,-0.06023,-0.153636,-0.092923,0.196014,-0.063647,0.009895,-0.063621,0.009531,0.274581,0.195443,0.008598,-0.052758,-0.008321,0.123836,-0.321692,0.045066,-0.095845,0.042661,0.254131,0.23047,0.011481,-0.053007,-0.002902,-0.051235,0.002647,0.035548,-0.259241,0.026547,-0.255413,-0.169248,0.085975,0.156042,0.000937,-0.036737,0.027796,-0.073504,0.09582,-0.025606,-0.122177,0.076397,-0.00557,0.135905,0.060075,0.044713,-0.008218,0.152178,-0.01795,0.184186,0.028967,-0.145431,0.03737,0.189504,0.001387,0.13654,0.091185,0.018122,0.22695,0.237287,0.090543,-0.069156,0.175388,-0.02646,-0.024328,0.081219,0.074764,0.114365,0.10101,-0.094958,0.534191,-0.340167,-0.049536,-0.007047,0.026862,0.350033,-0.025338,-0.010654,-0.312178,-0.263575,-0.173431,-0.063196,-0.172741,0.07888,0.057042,0.037353,0.4869,0.151986,-0.12243,-0.003386,-0.037951,0.023346,0.100549,0.133131,-0.156371,0.046286,0.116616,-0.012073,0.13186,-0.037989,-0.030359,0.098737,-0.494985,-0.415387,0.063505,0.12429,0.320712,0.037726,0.093653,-0.04201,0.060848,-0.03106,0.039599,-0.058666,0.000717,0.262331,0.269698,-0.128389,0.001027,0.153769,0.057627,-0.292239,-0.29788,0.218365,-0.163721,0.056003,-0.354131,0.090816,-0.203784,0.149346,0.166101,-0.147828,0.011405,-0.109679,0.171945,0.083824,-0.089604,0.217645,-0.21695,0.118414,0.249519,-0.179946,-0.049667,0.143015,0.015859,0.243278,-0.303524,0.176749,0.094007,0.030584,-0.109143,0.041924,-0.296113,0.207826,0.096771,-0.401427,-0.17731,-0.04883,-0.089794,-0.096033,0.035756,-0.176027,0.060375,0.017377,-0.264356,0.052808,-0.059364,-0.186793,-0.041893,-0.068111,0.099326,-0.145096,-0.61066,-0.145524,0.445742,-0.054728,0.182615,0.27087,0.089239,-0.087714,-0.084564,-0.134624,-0.188104,-0.208672,0.081087,0.237353,0.074731,0.266718,0.006122,0.05482,-0.013715,-0.146873,0.048673,0.081531,0.045272,0.119779,0.097867,-0.213867,0.107516,-0.233501,0.249441,-0.168645,-0.193654,-0.220701,-0.045589,0.083122,-0.076684,0.214105,0.474566,-0.152255,0.193201,-0.086455,-0.293079,-0.053429,0.015254,0.171101,-0.075305,0.042319,0.082852,0.09275,0.362761,-0.132851,0.247049,0.348206,-0.341776,-0.206979,0.072621,-0.053565,0.128848,0.294104,0.054295,0.146656,0.006906,-0.167798,-0.076834,-0.205732,-0.247549,-0.0538,-0.131258,-0.105697,0.100307,-0.215204,-0.041839,0.337661,-0.308538,-0.048327,-0.202472,-0.004977,-0.220206,-0.100775,0.048433,-0.016887,-0.060515,-0.12359,-0.00613,0.026764,-0.206604,0.007828,-0.028792,-0.066874,0.018743,-0.072541,-0.174424,0.294971,-0.115238,-0.112733,-0.17402,-0.188502,-0.02246,-0.028398,-0.086825,-0.077944,-0.30938,-0.007265,-0.13414,-0.09572,0.056453,0.078889,0.174301,-0.066376,0.1649,-0.064166,0.09951,0.176113,-0.209949,0.020885,0.273168,0.048009,0.001311,-0.318697,-0.031182,-0.26473,-0.20886,-0.190791,0.044232,0.038885,0.002463,-0.194539,-0.02425,0.003484,-0.253974,0.100874,-0.051544,0.204115,-0.000616,0.206913,-0.118119,-0.218787,-0.152682,0.309041,0.104453,-0.060488,-0.160241,0.058136,0.125262,-0.209385,-0.079495,-0.353638,0.036606,-0.207777,0.06994,0.017764,-0.154137,0.019577,0.049683,-0.045098,0.077201,-0.038992,-0.021795,0.053465,0.117164,-0.072173,0.064066,0.10464,-0.020974,0.107316,0.177712,-0.014673,0.196186,-0.090952,0.443587,0.019451,0.172556,0.043446,0.268432,-0.146035,-0.324883,-0.766547,-0.210617,-0.106713,0.120736,-0.10488,0.001485,0.083205,1.41131,0.084219,0.010354,-0.02409,0.144162,-0.000563,0.004515,-0.071257,0.060641,0.636488,-0.042052,0.211075,-0.053707,0.089642,0.334848,0.018343,-0.086755,-0.084277,-0.259528,-0.147358,-0.67293,-0.135565,0.196003,1.043702,-0.478239,-0.155297,0.294411,0.4643,-0.345701,-0.4505,0.040883,0.179295,-0.367572,0.09827,0.101452,-0.530521,0.09154,-0.288247,0.898754,-0.475969,-0.377428,-0.078099,0.204046,0.00199,0.491628,-0.133247,0.36622,-0.21251,-0.107041,0.145664,-0.418638,-0.61954,0.072808,-0.060975,-0.302638,0.238228,0.048477,-0.179603,0.226677,0.006138,-0.080273,-0.01589,-0.060539,0.046437,-0.064845,0.09189,-0.105185,0.152514,0.098922,0.221039,-0.244404,0.095851,-0.144503,-0.057139,0.137437,-0.09989,-0.113667,-0.144262,-0.293894,0.15128,0.275751,0.550961,-0.013907,-0.461167,-0.428468,0.011231,-0.043232,0.663965,0.450992,0.307442,0.230733,0.083918,-0.635277,-0.233989,-0.088275,-0.827424,-0.205159,-0.196152,-0.491953,0.031954,-0.046134,-0.336976,-0.034851,0.050499,0.206061,-0.124853,-0.702235,-0.317986,0.305625,-0.188846,0.067425,0.077781,0.291302,0.248772,0.011949,-0.160716,0.193588,-0.039094,-0.207961,-0.121783,0.031424,0.068984,-0.04345,-0.227467,0.170777,0.127251,0.069051,0.622884,0.086705,-0.054897,0.480269,0.320044,-0.122485,-0.227292,-0.227905,0.120136,0.277465,-0.198296,-0.018449,-0.036123,-0.708351,-0.13404,0.71409,-0.070281,0.489889,-0.240501,-0.04172,0.403416,-0.309398,0.17067,0.121971,-0.084352,0.111391,0.267289,0.265131,0.165612,0.015394,-0.008155,-0.019016,0.040949,0.318756,-0.213721,0.138091,0.120353,-0.391849,0.190694,0.791043,-0.397626,0.285999,-0.289188,-0.215315,-0.142679,-0.185853,0.115288,0.004903,-0.388084,-0.100971,0.043637,-0.510436,-0.23889,0.419834,-0.093521,-0.365675,0.130172,0.069875,-0.390149,-0.287889,-0.214589,0.147371,-0.037514,0.023752,0.139502,0.240549,0.051523,-0.222751,0.070437,-0.098665,0.108068,-0.016274,0.072661,0.232707,0.161453,-0.217763,0.078962,0.230807,-0.006504,-0.056407,0.090173,0.163019,-0.129145,-0.107663,-0.053871,-0.178423,-0.159807,0.301357,0.11297,0.03275,0.169305,-0.009692,0.209675,0.094713,0.033159,-0.024629,0.039375,0.015781,0.099002,0.026584,-0.361602,0.191619,-0.01912,0.193395,-0.041387,-0.203152,-0.078226,-0.069132,-0.034661,0.1809,0.098818,0.123824,-0.008124,0.099717,-0.157116,-0.237941,-0.196337,-0.025512,0.186613,-0.104808,0.175375,-0.058526,0.011087,0.190618,0.052956,0.005673,0.140278,-0.08162,0.039897,0.007983,-0.106517,-0.04326,0.165796,-0.098073,0.106037,-0.017197,-0.161044,0.046632,-0.073556,-0.111175,-0.062065,0.040796,-0.149957,0.007775,0.037094,-0.03694,0.154109,-0.122512,0.057155,-0.278171,0.038402,-0.002142,0.003465,-0.04414,0.312662,0.013111,-0.052571,-0.045134,0.059237,-0.314633,0.153966,-0.221079,-0.09204,-0.061903,-0.073194,-0.219189,0.111171,0.034286,-0.170797,-0.260985,-0.192938,0.065105,0.00316,-0.197236,0.006016,0.175164,-0.050365,-0.125985,0.124736,0.080785,-0.000379,-0.120909,0.173386,-0.051996,-0.1905,0.029219,0.007827,-0.17201,-0.055195,-0.045701,-0.056773,-0.081167,-0.290913,0.049383,-0.076187,0.000855,0.154901,0.001253,0.405637,-0.242121,0.043224,-0.15224,0.093772,-0.004334,-0.042325,-0.199919,-0.094719,-0.28594,-0.099022,-0.066619,-0.192144,-0.070382,0.316413,0.235571,-0.075681,0.007565,0.024442,0.240457,-0.326485,-0.320304,-0.050481,0.264186,-0.194422,0.240988,0.073731,-0.100168,-0.020165,0.063281,-0.051324,0.0063,-0.163688,0.308119,-0.116934,0.136804,-0.097616,-0.09197,-0.068787,-0.164065,-0.029642,0.066947,-0.059929,0.301657,-0.09533,0.361892,-0.01402,0.549432,-0.01082,0.57132,0.021853,-0.369012,-0.23348,-0.062822,-0.112255,-0.071837,-0.061288,-0.001748,-0.123665,-0.161996,-0.133267,-0.217841,-0.024185,-0.322637,0.139028,-0.068398,0.010042,-0.034344,-0.133593,-0.037436,-0.049167,0.179113,0.184748,0.088346,-0.065334,0.021357,0.039263,-0.134792,0.01755,-0.255218,-0.095353,0.11912,-0.14525,0.076879,-0.001956,-0.136883,0.007341,0.250629,0.033595,-0.116206,-0.055165,-0.150949,0.095123,-0.024603,-0.23812,0.434118,0.50686,-0.124373,-0.001865,-0.196866,-0.044107,-0.063262,0.093682,-0.17377,0.033357,-0.12854,0.036852,0.160793,-0.395013,-0.218804,0.291107,0.139478,-0.091246,0.112994,0.252172,0.400778,-0.222107,0.313433,0.014341,0.335721,-0.140325,0.226381,-0.019269,-0.18482,0.174541,-0.158833,0.089256,-0.021679,-0.010113,-0.082533,-0.284426,0.341653,0.000202,-0.256867,-0.058959,0.021376,-0.123184,0.073784,-0.331738,0.239255,-0.23026,-0.045216,-0.010047,0.163853,0.018577,0.242319,-0.026861,0.045148,0.036644,-0.0049,0.052168,0.001926,-0.065953,-0.025759,0.139473,-0.104797,0.158701,0.003849,-0.050371,0.067888,-0.073158,0.067608,-0.127191,0.137037,-0.089042,-0.140014,-0.036767,-0.184238,-0.086134,-0.272997,-0.029937,0.020875,0.001129,-0.039975,0.223292,0.132135,0.130216,-0.027053,-0.073711,0.108338,0.052696,-0.098816,-0.042857,0.021816,0.193248,-0.030544,0.026721,0.060519,0.178296,-0.253629,0.126213,-0.142928,-0.029277,0.027858,-0.034078,0.067971,0.060386,-0.128511,0.016384,0.042654,0.059786,-0.109283,-0.036859,0.048858,0.084884,0.15921,0.119001,-0.013234,-0.011311,0.084898,0.075419,-0.224601,0.138232,0.088354,-0.079572,-0.235241,0.018889,-0.171842,-0.07261,-0.155203,-0.088287,-0.155851,0.005933,0.248847,0.109006,-0.157316,-0.016437,-0.128781,0.151821,-0.022279,0.106239,0.095796,-0.080785,0.054429,0.051101,0.101788,-0.209417,-0.059634,0.047665,-0.103221,0.084643,0.040288,-0.069219,-0.190749,0.080632,-0.033836,-0.102835,-0.114961,0.106655,0.049107,-0.027796,-0.184006,0.158652,-0.115784,0.066904,-0.152833,-0.078637,0.096272,-0.020828,-0.099537,-0.043476,-0.161818,-0.109486,-0.235867,0.106466,-0.041893,0.066766,0.015782,0.087067,-0.039919,0.069132,-0.090048,0.204199,0.064112,-0.167102,0.084271,0.034635,-0.110852,0.028807,0.155478,0.254294,-0.16498,0.061065,0.093506,0.021566,-0.098785,0.189562,-0.103957,0.094569,-0.178104,0.140759,0.12324,0.182222,0.02098,0.055373,-0.080666,-0.067008,-0.012426,0.08047,0.055647,0.086596,0.010006,0.303057,-0.047719,-0.241129,0.155976,-0.037499,-0.087274,0.071576,0.05654,0.05514,-0.195731,0.053555,0.028202,0.020028,-0.148338,-0.060349,0.007463,-0.04726,0.282152,0.058951,0.144335,0.012732,-0.113173,0.184843,-0.071812,-0.062288,-0.044526,-0.059342,0.179667,0.067317,-0.023911,-0.258213,-0.196771,0.196011,0.224139,0.162122,0.191212,0.051376,-0.059136,-0.154478,-0.074832,0.026211,0.072464,-0.185892,0.146571,0.123178,0.394924,-0.018143,0.050967,-0.071662,0.219075,-0.055462,-0.149964,0.180389,-0.038514,0.39704,-0.017402,0.014558,0.034318,0.037503,0.33715,0.011315,0.184626,-0.014457,-0.109444,-0.284761,-0.071075,-0.009251,-0.036498,0.052464,-0.345645,-0.132594,0.426923,0.363769,-0.419471,-0.081338,0.100651,0.229866,-0.245025,-0.026521,0.256891,-0.271006,0.105736,-0.127857,0.169265,-0.217297,-0.023036,-0.16312,0.165492,-0.174376,0.374544,-0.159514,0.149905,-0.25603,-0.010077,0.07019,-0.00437,-0.224902,-0.036016,0.081074,0.030028,-0.011436,-0.115381,0.119775,0.208222,0.029168,-0.079339,-0.245154,-0.159266,-0.041821,0.171933,-0.042771,-0.171662,0.156533,-0.314254,0.061331,-0.013711,-0.026625,-0.100619,-0.186263,0.057025,-0.200384,0.076592,0.048684,-0.214825,0.020587,0.125908,0.272958,-0.112641,-0.292838,-0.164223,-0.216211,-0.278223,0.013818,-0.243018,-0.111908,-0.118652,-0.058728,0.051569,-0.108579,-0.199361,0.022805,-0.119457,-0.066548,-0.065548,0.061004,-0.368287,0.257977,-0.095951,-0.031396,-0.002686,-0.245298,0.134265,0.158986,0.161125,0.023043,0.080175,0.036392,0.062623,-0.15413,-0.04123,-0.008498,-0.007334,-0.189393,0.063149,-0.097169,-0.008548,0.017305,-0.232171,0.013575,0.262268,-0.058627,-0.100611,-0.110249,-0.094215,0.028306,-0.10617,-0.087676,0.250985,0.425505,-0.063719,-0.109783,-0.236855,0.106635,-0.222028,-0.01122,-0.02895,-0.010351,-0.245303,0.089637,0.050232,-0.310164,-0.046275,0.236708,0.206684,-0.13623,-0.025803,0.276558,0.248095,-0.35791,0.22513,0.052777,0.177674,-0.198676,0.02187,-0.004772,-0.140003,0.161835,-0.116315,0.090285,-0.068887,-0.020435,-0.063547,-0.274709,0.377472,-0.022753,-0.182596,0.012131,-0.004285,-0.051073,0.062292,-0.04315,0.119619,-0.231554,0.178956,-0.089769,0.061988,-0.024395,0.31586,0.03478,-0.138396,-0.541303,-0.255448,-0.160954,0.098754,-0.195814,0.099587,0.202496,0.133133,0.270212,-0.043494,-0.009621,-0.207681,0.152203,-0.074998,-0.003752,0.102733,0.159264,-0.249526,0.060969,0.148235,-0.061949,0.058923,0.315889,0.163752,-0.057472,-0.1488,-0.008952,-0.189263,-0.340599,0.326496,0.087917,-0.040838,0.199003,0.0383,0.210293,0.127008,0.056314,0.016161,0.063127,-0.140769,0.245816,-0.139939,-0.400087,0.182986,-0.092014,0.197686,-0.179973,-0.255184,-0.155391,-0.096933,0.128684,0.198758,0.001346,0.221268,-0.092668,0.174018,0.012593,-0.235037,-0.013737,0.089453,-0.052651,-0.198458,0.242888,-0.12108,-0.095069,0.218489,-0.052605,0.155777,0.112242,-0.141932,-0.125035,-0.172832,0.015093,-0.085676,0.33492,0.11891,0.079804,-0.015596,-0.127343,0.1051,0.037398,-0.068968,-0.06624,-0.089834,-0.167714,0.026432,0.025464,0.055104,-0.099793,0.005337,-0.070875,-0.241166,-0.039539,-0.073836,0.047137,0.410802,0.253657,0.055069,0.055676,0.016476,-0.117715,-0.027685,0.226705,0.139325,0.219946,0.279489,0.04673,0.390632,-0.392722,0.039939,0.122297,0.0156,0.298122,0.013798,0.020198,-0.279694,-0.241748,-0.267175,-0.071531,-0.114091,0.075059,0.013384,-0.025563,0.466943,0.174288,-0.193783,0.1499,0.06425,-0.085019,0.17517,0.104289,-0.351526,0.094641,0.144415,-0.036855,0.17099,-0.059779,-0.044132,0.20192,-0.402041,-0.432214,0.105398,0.12477,0.239717,0.109049,0.091021,-0.144093,0.16991,-0.0101,0.134808,0.04912,-0.12757,0.314117,0.430867,-0.255546,-0.110968,0.210151,-0.007112,-0.209066,-0.473146,0.23762,-0.295091,0.098554,-0.411325,0.218355,-0.385326,0.044562,0.161504,-0.20156,0.039019,0.068547,0.324181,0.07849,0.06592,0.15126,-0.462692,0.044175,0.125499,-0.098359,-0.227655,0.050898,-0.097229,0.328971,-0.39774,0.064716,0.003312,-0.015098,-0.298241,-0.019758,-0.324436,0.005827,0.214491,0.292619,0.01516,-0.077578,0.101962,-0.032846,-0.040565,0.160382,0.001903,0.272177,0.199297,0.007164,0.264314,-0.259339,0.123771,0.032117,0.051108,0.217415,-0.033803,0.16602,-0.37827,-0.185687,-0.368969,-0.082064,-0.178788,-0.129703,0.080552,0.16202,0.248266,0.216876,-0.065261,0.004335,-0.00937,-0.180534,0.008894,0.002041,-0.178087,0.150398,-0.039434,-0.084374,0.128316,-0.024928,-0.244576,0.30024,-0.358488,-0.207143,0.032635,0.197791,0.286848,0.025132,0.109487,0.030583,0.127916,