{"format":"ratass-rl-policy-v3","source":"ray-rllib-ppo","objective":"race-checkpoints-v1","observationSize":46,"actionSize":2,"output":"first actionSize outputs are deterministic direct throttle and turn controls","layers":[{"inputSize":46,"outputSize":256,"activation":"tanh","weights":[-0.161532,0.081675,0.142215,-0.091387,-0.031958,-0.143354,0.168095,0.184675,-0.064415,0.209981,0.062354,-0.063976,-0.130957,-0.08149,-0.190183,-0.051943,-0.048475,0.032761,0.044969,0.233105,-0.098823,0.078579,-0.075405,-0.17155,-0.091188,0.09057,0.184106,0.234794,0.097729,0.19575,0.046955,-0.092503,-0.081502,0.136171,-0.1108,-0.047185,0.195221,0.153713,0.158965,-0.088682,-0.030551,0.002299,-0.013205,0.017692,0.176707,-0.018985,0.052227,0.037084,-0.330162,0.066466,-0.084247,-0.151236,0.317846,0.091421,-0.2326,0.050305,0.347058,0.275414,0.063561,0.053694,0.211414,0.053666,-0.247692,0.086909,0.01823,-1.116702,-0.130792,-0.184368,-0.129559,0.10152,-0.104006,-0.136293,-0.092867,-0.113527,-0.075492,0.043924,0.053686,-0.055856,0.117613,-0.100005,0.072496,-0.000273,0.082631,-0.034049,0.019188,-0.105837,-0.236455,-0.109623,-0.088295,0.144877,0.054247,0.298891,-0.083948,-0.349724,0.306382,-0.028457,-0.089505,0.141968,0.201579,-0.15475,0.077054,0.079864,0.154429,-0.040009,-0.143464,-0.371439,-0.040079,0.060713,-0.148378,0.04789,0.131589,0.195559,-0.256392,0.096402,0.278738,-0.104432,0.039631,-0.100824,0.134157,0.146773,0.100273,-0.018242,-0.019135,0.120512,0.141118,0.068761,0.006046,-0.093436,0.099499,0.220927,0.185806,0.100387,0.242647,-0.050573,-0.122826,-0.230805,0.06332,0.054414,0.097189,0.291822,0.267358,0.007505,0.170686,-0.114137,0.232841,-0.025476,0.155226,0.100751,0.119344,-0.06912,-0.095839,-0.186993,-0.103444,0.010321,0.032813,0.007703,0.016369,-1.284863,0.174814,-0.490599,0.289431,-0.006008,0.399405,-0.18469,-0.057953,-0.179198,0.008745,0.019602,-0.157167,-0.024299,-0.034474,-0.10266,0.091543,0.059323,-0.080779,0.088452,-0.108775,0.103355,-0.116219,0.004837,0.083093,0.153792,0.189511,-0.207524,0.02948,0.258989,-0.011598,0.039457,0.332832,0.01676,-0.113104,0.223781,0.226319,0.01442,-0.289207,-0.289009,-0.155715,-0.186378,0.198193,-0.068589,0.183083,0.066408,-0.118023,-0.33599,0.260515,-0.023162,-0.449898,-0.129561,0.140791,0.151264,0.145383,0.090878,-0.014439,0.113247,-0.142481,-0.024849,0.002021,-0.079334,0.041819,0.033241,-0.054335,-0.109061,-0.023027,0.171605,-0.098224,0.076975,-0.143986,-0.035801,-0.127087,-0.154585,-0.077927,-0.22537,0.00553,0.092408,0.009906,0.170231,-0.16759,0.099226,0.191349,0.056344,-0.089322,0.07952,0.005505,0.216579,-0.108032,-0.128776,0.276507,-0.002531,-0.165875,0.827819,0.410487,0.316902,-0.079007,0.078113,-0.182496,-0.0549,-0.071704,0.036884,-0.015249,-0.001632,0.019995,0.134181,0.110383,-0.093773,-0.129847,-0.080859,-0.02503,-0.065287,-0.011808,-0.039243,0.246983,0.070967,0.180478,-0.143686,-0.083808,0.167208,0.151726,0.403151,-0.244447,0.014494,0.146343,-0.281012,0.09974,-0.120499,-0.153941,-0.008391,0.14808,-0.056523,-0.110616,-0.006449,0.414666,-0.043202,-0.212934,0.090347,0.024434,-1.041852,-0.314553,-0.443094,-0.410527,0.085585,-0.18011,-0.133852,-0.012958,-0.053614,-0.014109,0.122061,-0.108766,0.14433,0.07335,-0.021344,-0.076756,-0.036481,-0.046888,-0.006289,0.096636,0.029643,0.090757,-0.086748,0.02057,0.215888,0.169343,0.03217,0.056245,0.182913,-0.010671,0.08812,0.092709,-0.236779,0.120285,0.159563,0.024261,0.18144,0.018311,-0.096742,0.091462,-0.094501,-0.152798,-0.049565,-0.134712,-0.285609,0.165276,1.198865,0.000909,0.218934,-0.807947,-0.113242,-0.020654,0.074264,0.010299,-0.074672,0.077247,-0.005066,-0.045808,0.107553,0.02113,-0.074822,0.141242,-0.05663,0.104395,-0.218889,0.000103,0.084335,0.228911,0.058137,-0.06648,-0.2239,0.176226,-0.129607,-0.052134,-0.041119,-0.127483,0.009323,-0.086512,-0.044338,0.331288,-0.253335,-0.147846,0.166806,-0.174812,-0.376411,-0.001051,-0.295066,0.030496,0.16122,-0.230235,-0.00906,-0.074095,0.989548,-0.398702,-0.241848,0.269889,0.050839,0.000365,0.11605,0.012405,-0.045881,-0.004264,-0.026734,-0.002574,0.034213,-0.126448,-0.040812,-0.06693,0.088336,-0.065468,-0.179872,0.042093,0.225126,0.343169,-0.169372,0.020229,-0.058185,-0.109812,0.157271,0.238463,-0.08875,0.242782,0.105847,0.016592,0.100137,-0.040431,-0.060039,0.191625,-0.118094,0.178059,0.527791,-0.024729,0.030438,-0.075962,0.079021,0.087266,0.377335,-0.111728,-1.337932,0.25806,0.479568,0.064768,0.149041,-0.146033,-0.070322,-0.163337,-0.074732,0.031046,-0.098211,0.004287,-0.003843,0.039516,-0.074538,-0.140482,-0.050253,0.129482,0.210334,0.017836,-0.060929,0.192608,-0.147607,0.132093,-0.049016,-0.152165,0.064594,-0.165781,0.146065,-0.248327,0.229182,-0.197441,0.021773,0.016042,-0.180662,-0.177822,0.088969,0.064484,-0.189271,0.213488,0.020745,0.294913,0.141978,-0.156539,0.145431,0.091519,1.984582,-0.268749,0.046844,0.057211,0.09363,0.028226,-0.12025,-0.107388,-0.127505,0.049168,0.130206,0.129505,0.003935,0.061832,0.027644,0.098465,0.111036,0.067332,-0.096728,-0.127062,0.09775,0.012242,-0.095658,-0.012468,-0.000255,-0.00423,0.094438,0.109041,0.058048,0.305529,-0.010394,0.053772,0.292639,-0.246566,-0.098093,0.457129,0.010321,-0.423667,0.281964,-0.015638,-0.128124,-0.016135,-0.22197,-0.080307,0.146842,0.159993,0.122074,0.059361,0.666414,-0.288695,0.137601,0.114817,-0.091452,0.110492,0.080517,-0.03403,0.010262,-0.075289,0.060843,0.089524,-0.107928,0.064574,-0.090079,-0.052306,-0.205538,0.091268,-0.10631,0.377745,0.100679,0.096465,0.147101,0.154185,0.316054,-0.046476,-0.220823,-0.744644,-0.043506,-0.387257,-0.268803,0.050958,-0.01776,-0.636959,0.090921,-0.129488,-0.213552,-0.100091,0.01527,-0.085737,-0.106375,-0.11767,-0.215407,0.063706,0.710693,-0.136233,0.028925,-0.236982,-0.097519,-0.059026,-0.015376,-0.089728,0.139198,0.056031,0.056471,0.118131,-0.096471,0.038592,0.142105,0.07404,-0.126285,-0.07318,0.052662,0.053743,0.125712,0.139804,0.092487,0.063842,-0.086599,-0.032067,-0.083204,-0.251755,-0.083005,-0.504312,0.16079,0.039433,-0.048013,0.226163,-0.256637,-0.522269,0.146471,-0.154259,0.174204,0.16817,-0.090464,0.154212,-0.139271,-0.017518,-0.1754,0.058678,0.851605,0.122853,0.619487,-0.633557,0.236829,-0.210795,-0.108749,0.102651,0.070474,0.013288,0.100458,0.051235,0.06943,0.00427,-0.115725,0.134033,-0.02101,-0.002812,0.070421,0.062369,0.173475,0.0883,-0.165409,0.152226,0.092715,-0.116787,0.092509,0.085585,0.244615,0.142417,-0.074254,0.008702,0.028973,-0.333074,-0.018874,0.163713,-0.474702,-0.066971,-0.033546,-0.039617,0.037184,0.041438,0.004594,-0.201033,-0.102379,-0.054261,0.599763,-0.384277,-0.073798,-0.55004,0.064359,0.164356,0.003514,-0.06987,-0.079073,0.047699,0.017992,-0.121087,-0.11812,0.120337,-0.079684,0.043834,0.133918,-0.063726,-0.308534,0.142131,-0.304821,-0.021327,0.132648,0.018439,-0.16073,-0.110679,-0.156587,-0.196674,0.133548,-0.211275,-0.034487,0.062306,-0.010102,0.224019,0.19104,-0.154539,0.187842,0.031336,0.213662,0.010816,-0.244807,0.099184,0.010593,0.168965,-0.026395,0.128803,0.743011,-0.090909,0.429484,-0.129527,0.167232,-0.124869,-0.033643,0.134706,-0.064753,0.155832,0.153131,0.111388,-0.144338,0.107089,-0.085091,0.140777,0.094864,0.095355,0.087992,-0.031751,0.265576,0.106034,0.157749,-0.009453,-0.168633,-0.172874,-0.309653,0.08612,0.072656,0.076352,-0.066585,-0.091722,0.052346,0.19834,0.017431,-0.22779,-0.101807,0.063857,-0.020244,0.093554,-0.300015,-0.027501,0.187125,-0.107266,0.223565,0.060209,-1.454522,-0.410727,0.065787,-0.027612,-0.061688,-0.152003,0.053823,-0.153696,-0.085579,0.058575,-0.19285,-0.084335,-0.070181,-0.000694,0.002019,-0.046461,0.072796,0.0713,0.059392,-0.047764,0.037872,0.270127,-0.079155,0.093109,0.18507,0.001937,-0.074342,0.143728,-0.193541,-0.191363,-0.120224,-0.082535,-0.077085,0.110518,0.213991,0.016864,-0.19898,0.284759,-0.119487,-0.113297,-0.198164,0.009376,0.172357,-0.119745,0.052128,-0.113855,-0.681507,-0.485312,-0.136715,-0.189071,-0.148572,-0.090557,0.020813,-0.075412,0.023813,0.095541,-0.074677,0.056603,-0.027754,0.115357,-0.068698,0.030141,0.135228,0.067374,-0.07418,0.112635,-0.206858,-0.19381,0.085887,-0.144606,0.058808,0.128908,0.030711,0.099748,-0.100704,0.105423,-0.343353,0.206541,-0.02634,0.052186,-0.136927,0.028551,-0.176233,0.133785,0.430737,-0.094032,0.119023,0.31653,0.147715,0.183938,0.325757,0.018284,-1.353004,0.006183,-0.215443,0.154236,0.119299,-0.102175,-0.174084,-0.031298,-0.17528,-0.121721,0.01106,0.004576,0.15541,-0.018259,-0.119907,-0.078403,0.000642,-0.005327,0.087707,-0.004179,-0.071061,-0.060606,-0.082414,0.029803,0.155414,0.198894,0.204838,-0.022573,0.475038,-0.291765,0.143545,0.344208,-0.070762,-0.080007,0.291434,-0.07134,-0.072845,0.003941,0.206575,0.086604,0.320205,0.178803,-0.175093,0.132723,0.139789,0.139362,1.038833,0.423463,0.138448,-0.353156,0.080451,0.015913,0.121017,-0.110745,0.132935,-0.046836,-0.096963,-0.149948,-0.078268,-0.111505,0.020765,-0.118242,-0.153596,0.11881,0.019329,-0.103202,-0.103038,-0.087202,0.084322,-0.128178,0.086243,0.122579,-0.138902,0.031022,-0.029427,0.127572,-0.213441,0.027919,-0.109589,-0.133853,-0.086408,-0.020104,0.080659,-0.012507,-0.08986,-0.183969,-0.27811,-0.112898,-0.124066,0.160613,0.230225,0.069896,-0.865748,0.118964,0.259281,-0.278016,-0.123962,0.138106,-0.047701,0.125666,0.094949,-0.028326,-0.0128,-0.053261,-0.106425,0.081502,0.163267,0.069167,-0.094407,0.088014,0.044024,0.163513,-0.01326,0.085764,0.158487,-0.119475,0.05507,0.062783,-0.11871,0.098663,-0.098682,0.055024,0.216575,-0.241095,0.192031,0.052343,0.017745,-0.190401,0.063412,0.384386,-0.015547,0.154357,-0.034741,-0.026995,-0.08852,-0.113411,0.107663,-0.008145,1.410429,-0.129221,0.115034,0.724917,0.035495,-0.269846,0.102337,-0.059032,0.018553,0.080424,-0.045678,-0.099194,-0.04542,-0.072224,0.003668,0.033467,0.017056,-0.14742,0.036717,0.060372,-0.241576,0.093979,0.088788,0.102974,-0.001866,-0.061599,0.250792,-0.092082,0.024251,-0.06571,-0.168102,-0.139081,0.219935,-0.141079,-0.154896,0.273967,0.148848,0.018828,-0.18879,0.102903,-0.027529,0.292957,-0.050593,0.003752,-0.226086,-0.044647,1.13409,0.142402,-0.308512,0.232874,-0.312762,-0.305389,0.076497,-0.109662,-0.179496,0.033899,-0.130695,-0.17403,-0.133002,0.040928,-0.078511,-0.182966,-0.084797,-0.183179,-0.357021,-0.027816,-0.203903,-0.076895,-0.190374,-0.132364,-0.027647,-0.020721,-0.116195,-0.171261,0.103708,-0.212472,0.050126,-0.150182,-0.030614,-0.1983,-0.138797,0.037344,-0.119925,0.040099,0.24653,0.139961,0.116332,0.141915,-0.16463,0.358546,0.323383,-0.164601,1.003688,0.386026,0.20379,0.027221,-0.049336,-0.003228,0.060363,0.006807,-0.129882,-0.107959,0.1473,0.030899,-0.059653,0.00072,-0.07914,-0.082291,0.128928,0.00696,0.14485,0.125498,-0.034167,-0.382063,0.2115,0.019855,0.084343,-0.045461,0.009171,-0.010365,0.049365,0.281502,-0.051485,-0.007216,-0.089286,0.093193,0.074148,0.248582,0.124296,-0.099681,-0.385654,-0.004916,-0.105879,-0.244815,0.05357,-0.079379,-0.251329,0.001441,1.363864,-0.124538,-0.318672,0.18833,0.046718,0.055276,0.146751,0.139205,0.139806,0.049282,-0.082547,0.150065,-0.110307,0.035024,0.098921,0.093562,0.161922,-0.211258,-0.267983,-0.095296,0.325403,-0.007357,0.185998,-0.108702,-0.263847,-0.221594,-0.021259,0.2415,-0.172507,-0.056898,0.406008,0.191516,0.179505,0.163667,0.027835,-0.076993,0.298452,-0.04014,0.043575,-0.082193,-0.121362,-0.265055,0.092781,0.196811,0.085453,-0.039457,-0.931005,0.353663,0.60367,0.040124,0.089636,-0.122673,0.039938,0.118104,0.079377,-0.04307,-0.077015,-0.153442,0.010465,0.084083,-0.057344,0.13977,-0.008328,0.106134,0.153812,0.028797,0.237058,0.132803,0.045651,0.026852,0.008213,0.130555,0.090796,0.093372,-0.041815,0.175504,0.006033,0.086799,0.098157,0.011303,0.350361,0.239377,0.083957,-0.029317,0.12029,0.166971,-0.065169,-0.299172,0.103893,-0.0858,-0.191731,-0.052547,-0.873326,-0.041971,0.375141,-0.564764,-0.099205,-0.373229,0.087967,-0.112711,-0.130136,-0.067108,-0.180766,0.065533,-0.068784,-0.078645,-0.077294,0.1118,-0.104767,0.056749,-0.1786,0.077189,0.164,-0.102621,-0.172308,-0.149793,-0.10457,0.139261,-0.006486,-0.22019,0.141774,0.444651,-0.205613,0.317906,0.393237,0.002599,-0.197787,0.467553,-0.021557,-0.220834,-0.12646,0.10268,-0.052836,0.197175,0.053066,-0.263548,-0.35979,0.074809,1.052887,-0.001892,-0.061014,-0.31994,-0.022005,-0.154778,-0.045082,0.121351,0.147526,0.040999,0.127894,0.115211,0.028997,-0.117313,0.119567,-0.060066,0.026376,-0.163497,-0.168069,0.054963,0.027246,0.159959,-0.060034,0.015635,-0.074989,-0.113262,-0.366448,-0.201343,0.257594,0.084962,-0.229675,0.280509,-0.0032,-0.184198,-0.049226,0.076978,-0.136542,-0.360113,-0.074051,-0.154331,0.051892,0.440136,-0.094664,0.264472,0.217494,-0.267116,0.00754,0.018262,0.114652,0.319026,0.046677,0.267754,-0.053396,-0.004531,0.097697,0.178162,0.015714,-0.03032,-0.01198,0.166216,0.10717,-0.066226,0.104548,0.035761,-0.072912,-0.068684,0.229367,0.234669,0.121833,0.144955,0.142582,-0.238539,-0.029251,-0.078517,0.261296,-0.491593,-0.23607,-0.084665,-0.292432,-0.145099,-0.04442,-0.430323,-0.167577,-0.228781,-0.125777,0.059545,-0.104273,0.292136,-0.065473,0.222512,0.242524,-0.078458,1.310702,0.137564,-0.335012,0.189086,0.184233,0.173937,0.147167,-0.080356,-0.083184,0.165352,-0.070014,0.089521,-0.016286,-0.08643,-0.049512,0.08506,-0.091736,0.056054,0.024349,0.012977,-0.115398,-0.265467,0.117852,-0.112182,0.205754,0.100349,0.064677,0.108973,0.128447,0.090043,-0.09207,0.077602,0.28452,-0.059225,-0.103258,0.138608,0.086048,0.028464,-0.052559,-0.052374,-0.186482,-0.076703,0.026516,-0.341588,-0.100665,0.048648,-0.90977,-0.096797,-0.157627,0.253039,-0.256843,-0.072572,-0.029009,0.097541,0.032903,0.104574,-0.076713,-0.098525,-0.06943,-0.035048,0.153955,-0.16801,0.01174,-0.057589,-0.009561,-0.053011,0.182649,-0.342377,-0.180605,-0.094858,0.093831,-0.037677,0.019869,-0.057872,-0.032067,-0.092788,-0.141508,-0.182889,0.026007,-0.008895,-0.277166,-0.17754,0.024268,0.070498,-0.160928,-0.183731,0.035398,0.218371,0.038375,0.126127,0.229772,0.083972,-1.202302,-0.16754,-0.017434,0.816421,0.175735,-0.145759,0.116945,0.033379,-0.098746,-0.066668,0.014963,0.061029,-0.065723,0.010009,0.004633,-0.025465,-0.001387,0.068135,-0.051921,-0.097952,0.023173,0.160749,0.162405,0.040924,0.061322,0.036231,0.229189,-0.003637,-0.470483,-0.447087,0.056988,-0.525076,-0.028965,0.015595,-0.117088,-0.488992,-0.24877,0.175942,0.190118,-0.081461,-0.240498,0.370791,-0.148985,-0.107266,0.192546,-0.081143,0.664539,-0.045273,0.644453,-0.021083,0.072303,0.050731,0.111681,0.001378,0.171424,0.064942,0.0809,0.108773,-0.09815,0.133087,-0.068273,-0.148722,0.110612,-0.027123,0.201312,-0.084383,-0.211464,0.069246,-0.02503,0.167063,0.067604,-0.002493,0.204297,0.019329,0.10955,-0.051607,-0.047259,-0.183275,-0.038196,0.154334,-0.264866,-0.071118,0.096856,0.138069,-0.193844,0.102983,0.06345,0.123564,-0.120205,-0.125516,0.14826,0.010038,-0.758889,-0.41692,0.062987,0.061952,-0.135178,0.003481,-0.061884,-0.100928,-0.012532,-0.052805,-0.050215,-0.096315,0.042493,-0.048823,-0.045424,-0.080443,-0.098612,0.005636,-0.097659,-0.129217,-0.165166,-0.039752,0.097079,0.054253,0.23548,0.307163,0.233536,0.055979,0.062106,-0.200974,0.133531,0.163776,0.187284,-0.240403,0.145455,0.019881,0.049171,0.032358,0.075441,0.042302,0.213969,0.149475,-0.13542,0.144509,-0.188171,0.115151,0.968575,0.153061,0.168237,-0.301469,0.214024,-0.055812,0.030181,-0.087115,-0.169857,-0.036539,-0.007494,0.030835,-0.016262,0.008923,-0.110411,0.071945,0.02125,-0.147976,-0.229206,-0.075518,0.10393,0.134696,-0.065614,-0.092186,-0.1227,-0.029525,-0.174274,-0.188516,-0.018591,0.251229,-0.004453,0.06963,0.31169,0.023735,-0.11333,0.393286,-0.147218,-0.036965,-0.274314,0.111468,-0.089113,-0.004602,0.104526,-0.123035,-0.199837,-0.082659,1.127844,-0.210232,-0.045228,-0.296025,-0.206246,-0.141375,-0.021207,-0.009667,0.141595,0.140785,0.034027,-0.12934,0.067288,0.084639,0.037638,-0.083498,-0.114335,0.072843,-0.293192,-0.097963,-0.076084,0.051348,-0.010011,-0.199001,0.14729,-0.039326,-0.077619,0.141809,-0.101834,-0.024797,-0.084524,-0.315609,0.093915,-0.092763,0.010367,-0.077247,-0.158085,0.176235,-0.329857,-0.129637,0.066316,0.076529,0.158658,-0.16409,0.226176,0.021662,-0.680424,-0.471585,-0.527963,0.401726,-0.156231,0.084941,-0.111601,0.018788,-0.128397,0.081898,0.089103,-0.073877,0.00278,-0.143333,0.071922,-0.029918,0.088106,-0.116295,-0.13133,-0.021392,-0.039917,-0.348691,0.094024,0.092897,0.072312,-0.084807,0.196606,-0.024927,-0.242529,-0.625891,-0.091571,-0.339064,-0.41002,0.254898,0.030974,-0.588007,0.208709,0.126856,0.094614,-0.272575,0.110783,-0.133501,-0.11621,0.136145,-0.015938,-0.139057,0.80238,0.06006,0.313893,0.461567,-0.230906,-0.122965,0.033974,0.10859,-0.127183,-0.067839,-0.011499,0.14795,-0.09087,0.136364,0.075813,0.130733,-0.068111,0.12577,0.07328,0.101817,0.113082,0.046424,-0.002698,0.159888,-0.116538,-0.004357,0.051163,-0.114838,-0.036123,-0.297985,-0.030762,0.290231,-0.35432,-0.012605,0.057233,-0.121467,-0.024244,0.039194,0.29492,-0.077996,0.088301,0.003143,-0.126249,0.218865,-0.023102,-0.059215,-0.740484,-0.003246,0.343807,0.473646,-0.23177,0.020137,0.089275,0.11707,-0.110559,0.037343,-0.097655,0.091722,0.054506,0.060516,-0.100694,0.083181,-0.051611,-0.0583,0.133293,0.052361,0.060196,0.47455,0.135115,-0.006284,0.014319,0.005124,0.267287,0.205553,-0.175452,0.386184,0.18117,0.155778,0.131074,-0.00369,0.427058,0.558467,-0.065164,0.04958,-0.033883,-0.052314,-0.021836,-0.467497,0.014155,0.147107,-0.090363,0.041882,-1.437449,0.118215,0.00071,0.257654,0.135456,-0.3418,-0.103813,-0.136758,-0.068633,-0.135085,0.066991,0.037971,0.130916,-0.02379,0.03749,0.104945,-0.075329,0.102045,0.025994,-0.08734,0.027482,0.127409,0.075075,0.089995,-0.315265,-0.040154,-0.101173,0.177248,-0.034117,-0.542599,0.036305,-0.226617,-0.431515,-0.206207,0.20217,-0.767244,-0.054712,-0.051304,0.079067,0.164465,0.112797,0.128674,-0.135162,-0.001611,0.171601,-0.029834,0.545121,-0.083624,-0.04491,0.205941,0.00124,-0.13972,-0.030904,-0.113496,0.150829,-0.145919,-0.135872,-0.072051,0.079169,-0.125775,0.054936,-0.087926,0.114012,0.030716,-0.086713,0.012515,0.245172,-0.04503,0.057878,0.029749,0.180473,0.214758,-0.07127,-0.040652,-0.152179,0.027583,3.7e-05,0.017006,0.266425,-0.190984,0.082585,0.241413,-0.061342,0.360826,0.143878,-0.007357,0.170679,0.155068,-0.196003,0.112858,0.186396,0.113897,0.993161,0.351484,0.185437,0.025873,0.167188,0.138177,0.042352,-0.078281,-0.009722,0.028021,0.046384,-0.038113,-0.161386,-0.092068,0.078023,0.001697,-0.13073,0.046864,-0.127315,-0.106743,-0.003096,-0.1506,0.139561,0.039433,-0.032758,-0.039149,0.054818,0.111991,0.153588,-0.413513,-0.013397,0.094203,-0.305327,0.169552,0.115344,-0.488085,0.066676,0.006586,0.123841,-0.140953,-0.245459,-0.144768,0.041573,0.305214,0.006576,0.250009,-1.478497,0.317841,-0.241764,-0.045626,-0.111217,-0.05278,0.021963,-0.103018,-0.073144,-0.049081,-0.049821,0.081,-0.012361,0.008086,-0.077238,-0.053557,-0.008593,-0.123418,-0.061441,-0.041216,0.267853,0.091988,-0.096393,0.044051,0.14466,0.008038,0.141718,0.202197,-0.187475,0.051128,0.191746,0.081895,0.065439,0.155834,-0.107989,0.001248,0.087018,0.187055,-0.059569,-0.131001,0.018536,-0.223789,0.122168,-0.309328,-0.054797,-0.081148,-1.607582,-0.528283,0.09274,-0.22954,-0.123556,-0.040892,-0.067297,-0.019762,0.042775,0.038281,0.123373,-0.032079,-0.007229,-0.01741,-0.026517,-0.12786,-0.129492,0.001456,-0.029322,-0.162601,0.199297,0.019672,0.120642,-0.009097,0.103815,0.11164,0.045982,0.147493,0.172761,-0.046596,0.187601,0.324655,0.053877,0.206227,-0.045986,-0.278092,0.015859,0.156675,-0.652393,-0.10889,0.076496,0.167748,-0.040722,0.260865,-0.029696,-0.132515,-0.214984,0.169985,-0.293572,0.284549,0.068314,0.123278,-0.104937,-0.012056,-0.158891,-0.015684,0.025818,-0.12514,-0.048012,0.02259,0.096873,-0.002517,-0.117771,-0.156704,0.050438,-0.046362,0.109125,0.046578,0.057927,-0.012214,0.185511,0.146619,-0.150489,0.033329,-0.315902,-0.057562,0.227175,-0.00686,0.08035,0.002776,-0.134641,-0.125014,-0.137004,-0.220503,-0.373633,0.115991,0.095819,-0.059888,0.014534,0.039852,-0.099088,-0.211783,0.405861,0.050128,8.5e-05,0.239317,-0.012087,0.011494,-0.151042,-0.158605,-0.009907,0.042786,-0.191095,0.039094,-0.016892,-0.072349,-0.074779,-0.135548,0.01705,-0.15484,0.052549,0.008964,-0.195221,0.148043,-0.092936,-0.128462,-0.043021,-0.06662,0.195602,0.150099,-0.04555,-0.082989,0.128788,-0.123987,-0.117508,0.254042,-0.062006,-0.167571,0.111407,0.257473,0.125579,0.046581,-0.009851,-0.194876,-0.155325,0.018276,-0.039146,0.243723,-0.907362,0.011661,0.0958,-0.535428,-0.222678,0.040848,-0.039981,0.058843,0.104977,0.091116,0.006411,0.01012,-0.016885,-0.02507,-0.121126,0.046356,0.135718,-0.14015,0.161072,-0.110527,-0.207873,-0.138442,-0.10467,0.076971,0.231842,0.281208,0.034829,0.054158,-0.209004,-0.001155,-0.051434,-0.051984,-0.073863,0.05817,0.023134,-0.032535,0.099419,-0.090504,-0.213252,0.210275,-0.017419,0.053951,0.022703,-0.017216,0.030914,0.006392,1.588727,0.090393,0.1185,0.435667,0.092938,-0.043013,0.043062,0.042434,-0.154603,-0.125023,-0.024649,0.106291,-0.072493,0.092081,0.052183,0.097684,0.127187,0.123548,-0.152091,0.027667,-0.220935,-0.333418,-0.017508,0.173204,-0.115058,-0.284624,0.168283,-0.00355,-0.238152,0.142098,0.339468,0.03762,0.179005,0.129232,0.194798,0.030985,0.175335,-0.072335,-0.135326,0.140699,-0.242943,-0.289527,-0.014554,-0.208092,-0.150382,-0.036279,1.75377,0.059404,0.305868,0.120793,-0.033369,-0.18726,-0.042302,-0.015854,0.078727,0.10239,0.073511,-0.08415,-0.094008,-0.098923,0.092552,0.088806,0.042133,0.099052,-0.155424,-0.067738,-0.200322,0.077024,-0.137636,-0.146299,-0.004857,0.266336,-0.217289,0.080188,-0.121965,0.570407,-0.14619,0.33098,0.203026,-0.141654,0.058787,0.891029,-0.178353,-0.005846,-0.165423,-0.06502,0.161284,0.008162,0.076288,-0.150296,0.02117,0.30723,-1.043041,-0.240414,-0.277194,-0.099507,0.01268,-0.078066,-0.021229,0.097977,0.0896,0.126027,0.140854,0.032347,0.025137,-0.134053,0.141339,-0.079645,0.008547,-0.183382,-0.14311,-0.047969,-0.022291,-0.1439,0.074011,-0.13639,0.069985,-0.009429,0.132528,0.00405,0.092123,-0.192009,0.093419,0.004551,-0.123192,-0.058022,-0.138885,-0.296937,0.134612,0.01404,0.23056,-0.010605,0.020348,-0.004506,-0.075746,0.155591,0.16291,-0.373423,0.431559,0.31259,0.198068,-0.13765,-0.102442,-0.144847,-0.064844,0.087339,-0.03281,0.040487,0.131937,-0.084367,0.061114,-0.135146,0.043662,0.077202,-0.172631,-0.024586,0.198798,-0.133546,0.057998,0.28402,0.159131,-0.047369,-0.161036,0.05902,-0.278714,0.119971,-0.309293,-0.058135,-0.074841,0.219767,-0.274695,0.137075,0.063567,-0.134835,0.212687,0.114824,0.080337,0.081523,0.143972,-0.34676,-0.050436,0.096584,-0.09596,0.126476,-1.335203,0.246794,-0.077491,-0.557282,-0.066371,-0.137457,-0.088713,0.084213,-0.158339,0.109136,0.008835,-0.123351,0.059509,0.02574,0.002351,-0.022928,0.165578,-0.17307,0.122059,0.006126,0.006216,-0.074808,-0.085523,0.018419,0.138758,0.266841,-0.125467,-0.158693,0.140847,-0.029262,-0.127923,0.210006,-0.16621,-0.139411,-0.015686,-0.031968,-0.134796,-0.07194,-0.199479,-0.002515,-0.275662,0.094732,-0.065675,-0.047281,0.201567,0.132717,0.53888,-0.475682,-0.554883,0.386759,-0.234932,-0.164204,0.027313,0.137858,-0.041609,0.001186,-0.032547,0.075197,0.062559,0.11586,0.218222,0.010434,0.069651,-0.066012,-0.076759,-0.064096,0.07892,-0.041046,0.056373,-0.152871,0.073866,0.113845,0.232962,-0.176907,0.14999,0.130885,0.128352,0.04162,0.133431,-0.258633,0.193801,0.050787,0.040318,-0.199173,0.042869,-0.000987,0.0879,-0.102037,-0.157342,-0.021634,0.008713,-0.093269,1.25807,0.343913,0.405185,-0.109498,-0.118024,-0.092884,-0.128501,0.097322,-0.008372,-0.021341,0.0733,-0.098023,-0.13443,-0.074481,0.140583,0.064082,-0.048456,0.163597,-0.031687,0.115019,0.033711,-0.173006,0.083821,-0.002243,-0.194381,-0.177623,-0.05423,0.106387,0.13696,0.26911,-0.076503,-0.10624,0.037854,0.112927,-0.185866,0.037013,0.26172,-0.039077,0.308468,-0.131354,-0.19711,0.05325,0.011054,0.208345,0.203994,-0.140205,-0.977875,0.068907,-0.101354,0.26406,0.010513,0.036148,-0.054624,-0.004738,-0.11017,0.03921,-0.006862,-0.085279,-0.023241,0.086748,-0.1493,0.071262,-0.028189,0.130073,0.210183,0.107971,0.181753,0.01704,-0.092202,0.048542,0.014996,-0.135511,-0.044135,0.008349,0.201717,-0.082872,-0.05724,-0.126911,-0.234197,-0.127893,-0.088264,-0.150809,0.002031,-0.499067,-0.081356,-0.004095,0.096854,0.115823,-0.009472,0.171802,0.091004,-0.145152,-1.187165,0.21335,0.263919,-0.221489,0.032884,0.127623,-0.075057,-0.112345,-0.155549,0.109975,-0.078409,-0.064747,0.082471,0.026104,0.103847,-0.085423,0.015725,-0.006304,0.176627,0.041654,0.23065,0.276868,0.034102,0.154584,-0.002182,0.001412,-0.015523,-0.130014,-0.277376,0.050702,0.086498,-0.093216,0.247535,-0.205312,0.332349,0.084309,-0.206129,0.531267,0.094565,0.076262,0.355119,-0.067342,0.050583,0.013905,-0.018777,0.178707,0.467616,0.016838,-0.65477,0.620648,0.033622,-0.125383,-0.044109,0.053418,0.055941,0.076591,0.046527,0.004965,0.033732,0.107929,-0.086383,0.168748,0.144088,-0.142668,0.045362,0.01142,0.086917,0.090796,-0.077284,0.039448,0.124983,-0.184513,0.060097,0.047369,0.142394,0.015906,-0.061031,0.237321,-0.176218,0.095751,-0.160132,0.134421,0.099269,0.077384,0.498902,-0.135286,-0.031771,0.116067,0.237473,0.232699,0.085141,0.068451,-1.156669,0.013171,-0.305234,0.012573,0.069555,0.132385,-0.02468,-0.098551,-0.142849,-0.120001,0.119046,-0.067151,0.097494,0.115961,-0.159696,0.00518,-0.040128,0.145396,0.158564,-0.051352,-0.174987,-0.067141,-0.105548,0.025707,0.232469,-0.00099,0.2521,0.016712,-0.13885,-0.545898,0.135195,-0.365385,-0.245514,-0.248782,-0.072693,-0.48584,0.016355,0.062332,0.080832,0.170552,-0.26421,0.132902,-0.123803,0.111071,0.055704,-0.120521,1.062169,0.256113,0.604345,-0.120609,0.02759,-0.037546,-0.043239,-0.035279,-0.09478,0.098892,0.091828,0.047112,-0.078872,-0.103219,0.091511,0.128436,0.030056,-0.03183,-0.011943,-0.125755,-0.054335,0.12132,0.016626,0.131588,0.098786,-0.017366,-0.05199,-0.036213,-0.20443,0.09079,0.252861,-0.076284,0.227493,-0.290188,-0.039306,0.322204,-0.067518,0.118661,-0.098819,-0.097382,0.180767,0.166375,-0.18175,-0.159464,0.008252,-0.134019,1.465127,-0.130699,0.106919,0.361003,-0.114035,0.049785,0.059238,0.089487,0.109043,-0.02,0.064109,0.094215,0.137285,0.079749,-0.014544,-0.011322,-0.101482,-0.010271,-0.073063,0.151487,0.098627,0.043143,-0.160409,-0.009658,-0.184592,-0.027423,0.177305,0.104509,-0.146562,0.065627,-0.145916,-0.309637,0.063247,-0.343833,0.140173,0.279441,-0.30749,-0.150622,0.036512,0.122548,-0.083796,0.112773,0.026803,-0.243865,-0.090397,-0.094053,0.86974,-0.162764,0.175864,-0.298823,0.029221,-0.161366,0.092439,-0.047062,0.094062,0.049488,0.080539,0.156341,-0.087991,-0.155061,0.118503,-0.075456,-0.05204,0.115327,-0.319128,-0.024159,0.011959,0.087873,-0.082359,-0.135787,-0.221139,-0.14302,-0.182343,-0.048194,-0.015588,-0.017807,0.206149,-0.138893,0.29955,-0.150682,0.163454,0.30178,-0.280763,0.147933,0.10968,0.054027,-0.16383,0.490998,-0.063975,-0.05324,0.126251,-0.269075,1.171463,0.05496,1.036024,0.006128,-0.050918,0.031493,0.161516,0.147109,-0.086961,-0.05514,0.144643,0.05374,-0.026925,0.052483,-0.055499,-0.142071,0.058979,0.188506,0.109317,0.032398,-0.291959,-0.165126,-0.057438,0.204248,-0.146987,-0.138465,-0.012334,0.012826,0.118911,-0.001253,-0.001923,-0.059382,0.206393,0.004072,-0.146588,0.002441,0.131102,0.007596,-0.056438,-0.11688,0.202609,0.242869,-0.012841,0.146227,0.072393,-0.273481,0.341037,0.047727,0.073832,0.316589,-0.025997,-0.115947,0.012187,-0.059531,0.190305,0.057048,0.101701,0.042305,-0.001008,0.068414,0.026092,-0.025562,0.069626,0.119757,0.183258,-0.084556,0.086986,0.280148,0.087246,-0.058122,-0.176082,-0.374904,0.103063,-0.014999,-0.100492,-0.379024,0.385248,-0.303979,-0.130813,0.085998,0.077944,-0.354921,0.142313,-0.038724,0.001533,0.130347,-0.248629,0.100987,0.046573,-0.006936,0.118539,-0.109061,1.727707,0.207405,0.394279,-0.034277,0.129869,0.046738,0.036404,0.127554,0.114165,0.022076,-0.036999,-0.127247,0.123261,0.060415,-0.042669,-0.085807,-0.064329,0.094961,0.049233,-0.001592,-0.039582,0.300067,-0.164705,-0.051674,-0.24017,0.024969,-0.130511,0.059675,-0.03292,-0.125348,-0.007255,0.164683,0.073668,0.105005,0.063822,-0.207277,0.230904,0.163406,0.32922,0.104667,0.001702,-0.057483,-0.071947,-0.308378,-0.126301,0.359688,-0.415483,-0.069474,0.203837,-0.586453,0.044979,-0.127833,-0.016476,-0.102492,-0.126576,-0.141665,-0.043258,0.047157,0.035071,-0.092182,-0.099387,0.108534,-0.021723,0.083006,-0.127617,0.047006,0.220334,0.259565,-0.142248,0.080605,0.05871,0.233596,-0.177358,-0.027764,0.068363,-0.010606,0.057898,-0.213989,0.0662,-0.256652,0.179809,0.164665,0.015947,-0.091786,0.166299,0.171921,0.007752,0.216011,-0.055133,-0.036495,0.240281,-0.03772,1.028928,0.196024,0.143205,-0.311567,0.059665,0.076212,-0.099876,-0.071846,-0.125875,0.090362,0.037435,-0.14916,0.098246,-0.109701,-0.136722,0.105275,0.07494,0.085258,-0.02379,-0.128659,0.159276,0.27405,-0.114375,-0.023449,-0.199231,0.118607,-0.10661,0.118579,0.022683,0.030148,0.048912,0.057254,-0.162491,0.220908,0.151953,-0.017713,-0.126827,0.106512,-0.20198,0.020707,-0.113553,0.012345,0.122536,-0.086257,0.075053,0.024664,-1.652657,-0.202427,-0.506305,0.029284,-0.15901,-0.114435,0.057233,-0.089497,0.130317,-0.092031,-0.166014,0.119851,-0.103063,-0.030459,-0.151723,-0.007003,0.1198,0.056585,0.027639,0.004831,-0.105105,-0.235777,0.076461,-0.166303,0.13531,-0.102545,0.270566,0.173642,0.046674,0.138322,-0.114881,-0.119,0.084909,-0.282383,0.053739,0.15534,-0.162281,0.167343,0.129065,-0.050007,0.176578,-0.144644,0.148644,-0.050038,0.113843,-0.048056,-1.824189,0.02131,0.424893,-0.394203,-0.121679,0.046806,0.09346,0.007718,-0.191204,-0.114256,0.073058,0.052804,0.017356,0.115074,-0.175802,-0.166288,0.033681,-0.001798,0.059879,0.080913,0.208144,0.120125,0.245849,0.11667,-0.113512,0.138654,-0.03088,0.123241,0.268906,-0.220076,-0.223768,-0.005071,0.039756,0.118807,0.08997,-0.339322,0.063066,-0.100708,0.050055,-0.227288,-0.013174,0.22624,0.029608,0.028804,-0.042432,0.014294,-1.439048,-0.087108,-0.242509,-0.2557,0.122578,-0.153965,-0.142934,-0.099083,0.058711,-0.139868,0.053789,-0.143549,0.072261,0.049813,-0.031002,0.056535,0.118027,0.068699,0.101026,-0.143575,0.036151,-0.016303,0.134072,-0.175738,0.219489,0.199331,-0.051343,-0.01339,-0.027158,0.63479,0.31082,0.106713,0.11791,0.169121,-0.239366,0.787985,-0.095633,-0.10572,-0.001883,-0.088778,0.166304,-0.453141,-0.122096,-0.127334,-0.221174,0.045157,-0.977559,-0.042958,-0.175007,0.334705,0.101126,0.0304,0.066475,0.003488,0.074104,-0.088699,-0.060601,0.033137,-0.128395,-0.009508,0.077075,0.059188,0.159977,0.083799,-0.020729,0.168993,-0.093682,0.122802,-0.002677,-0.092009,-0.078399,-0.052068,0.076657,-0.104562,0.251998,-0.144591,-0.145534,0.064501,-0.094649,0.044868,-0.127218,-0.229026,-0.053973,0.021372,-0.132753,0.028504,-0.083655,0.179912,0.200726,0.18478,-0.072071,-0.026937,1.242781,-0.013738,-0.378693,0.390602,0.162641,0.085914,0.057977,-0.028038,0.111314,-0.027854,0.032278,-0.1122,0.100221,0.094192,0.068492,-0.101559,-0.113462,0.110578,0.178287,0.02654,-0.156959,0.012811,0.090008,-0.171571,-0.123096,-0.224839,0.012164,-0.033515,0.084765,0.115448,0.046103,-1e-06,0.200487,0.051733,-0.121928,0.007862,0.036729,-0.05937,-0.449538,0.095179,0.106941,-0.019243,-0.105936,-0.347405,0.136205,-0.114092,1.8396,-0.291094,0.069837,0.336116,-0.179271,0.246243,0.049273,0.132415,-0.100701,-0.106258,0.1278,0.004994,0.137779,-0.045313,-0.017763,-0.032951,-0.130746,0.102683,-0.260803,0.0805,0.164085,0.047003,0.064802,-0.109113,0.022226,-0.097564,-0.095942,0.02174,0.164165,-0.228424,-0.078598,-0.103575,-0.118636,0.005541,-0.128458,-0.063352,0.054792,0.159971,-0.152,-0.072671,0.05233,0.05877,-0.070442,-0.250247,0.077861,0.172296,-0.930552,-0.324736,-0.430731,0.752722,-0.068503,0.044241,-0.034337,-0.078229,-0.11206,-0.087803,0.050576,0.00897,0.13255,0.146624,0.021149,-0.003158,0.020065,0.031384,-0.081788,0.021999,0.275802,0.05685,0.058649,0.070708,0.21047,-0.204227,0.191428,0.235725,-0.258459,0.107556,-0.013403,-0.19824,0.153165,-0.152756,0.210665,-0.035109,-0.196382,0.131121,0.155306,0.126053,-0.163089,-0.00507,0.138343,-0.127569,0.232916,-0.051253,-0.90607,-0.297244,-0.075581,-0.602449,-0.015965,-0.327306,0.066941,-0.115251,-0.024465,-0.08979,0.094881,0.08911,0.066183,-0.125224,0.091552,-0.077073,0.12397,-0.037251,0.144377,-0.113069,-0.347039,0.005476,-0.182977,0.020398,0.098721,0.30307,-0.156084,0.067854,-0.088009,-0.113925,-0.05631,-0.188022,0.166706,-0.252698,-0.226804,0.00712,0.093252,-0.294755,-0.065424,-0.143777,0.044727,0.054687,0.093467,-0.048387,-0.039446,-0.081999,-0.586879,0.311545,-0.289752,0.190637,0.02121,0.073445,-0.137164,-0.08467,-0.216022,-0.146771,-0.051614,-0.165584,-0.083396,0.117195,-0.120694,0.072429,0.073382,-0.14094,0.041812,0.057912,-0.074731,-0.092718,-0.055429,-0.065207,0.061693,-0.056981,0.184787,0.093388,-0.0038,0.181568,0.00387,-0.015335,-0.335225,-0.173394,0.379484,0.084143,0.041831,0.519733,0.473499,-0.08969,0.150043,0.161946,0.183953,0.137906,0.091997,0.114381,-0.930353,-0.118897,-0.857184,0.031651,0.205333,0.101839,0.134283,-0.071673,0.08494,-0.114376,-0.048904,-0.104809,0.104298,0.061491,-0.076732,0.032771,0.141929,0.066316,0.045493,0.167055,-0.136788,0.098014,-0.041826,0.023695,-0.048772,0.126587,0.073641,0.141332,-0.042897,0.180198,-0.002909,-0.024184,0.222033,-0.151954,0.292121,0.203761,-0.127289,-0.15529,0.04351,0.152466,-0.036247,-0.238168,-0.115055,-0.287946,-0.137581,-0.002036,0.004982,-0.192523,0.581584,-0.679328,0.010306,-0.018246,-0.101541,0.12369,0.108877,0.0954,-0.096903,-0.117428,0.0688,0.107499,0.123893,-0.063011,0.182335,-0.168112,-0.105307,-0.090278,-0.164399,0.14521,0.164502,0.133348,0.023464,0.213835,-0.022972,-0.00386,0.165361,0.252424,-0.162875,-0.181855,-0.137287,-0.077883,-0.034511,-0.032987,-0.127561,0.192556,0.368871,0.125864,-0.022434,0.017015,-0.062559,0.010821,0.449274,-0.143759,-0.333929,-0.173172,0.495277,0.53632,0.098015,-0.104972,-0.08526,-0.058102,0.065691,0.030618,-0.071265,-0.026922,-0.108006,-0.044668,-0.058006,0.059832,0.077101,0.179012,-0.077562,0.128977,0.09705,0.327353,0.047512,0.180051,0.0344,0.054736,0.094914,0.012097,0.216339,-0.305364,-0.187283,0.261081,-0.213446,0.016979,0.061439,-0.405295,-0.140387,0.22267,0.090841,0.113518,0.07213,0.564456,0.219834,0.20719,0.103431,-0.141898,0.184905,0.095342,-0.218022,0.309238,-0.00814,-0.146737,0.009737,-0.006326,-0.050055,-0.07021,-0.065287,-0.117886,-0.023053,0.038602,-0.119962,0.188234,0.043768,0.195738,0.241663,0.141659,-0.116343,0.122589,0.038572,-0.107307,-0.067822,-0.149764,-0.041358,-0.197186,0.023014,-0.166468,-0.24286,-0.223639,-0.044968,-0.029174,0.218371,-0.009035,0.193424,0.171293,0.331043,-0.132198,0.118856,0.165682,0.003108,0.017234,0.224982,-0.196195,0.576378,-0.1078,0.15709,-0.773311,-0.133473,0.01451,0.065521,0.024171,0.082686,-0.009039,-0.027451,0.155552,-0.061888,0.001577,0.047055,-0.089444,0.02977,0.117112,-0.064305,-0.077093,-0.147438,-0.100373,0.071107,0.115734,0.054193,0.082635,-0.252033,-0.063203,0.280937,0.272313,0.090839,0.378248,0.318803,-0.011824,-0.113541,0.399999,-0.082479,-0.3142,-0.636027,-0.123944,-0.075065,0.080163,0.119028,-0.187868,-0.031326,0.036947,-0.680769,-0.217193,-0.271496,0.274365,0.117094,-0.173045,-0.079228,0.101947,0.036228,-0.058006,0.041351,0.013626,-0.032225,0.14379,-0.021174,-0.043937,-0.009362,-0.125537,-0.254261,-0.063808,0.141387,-0.02466,0.070229,-0.127686,0.110728,0.035865,-0.076355,0.051468,0.169889,-0.368412,-0.1132,-0.06428,-0.414912,-0.085164,0.034742,-0.613936,0.16017,-0.06694,0.089375,0.057507,-0.168631,0.066,0.145317,0.00509,-0.044153,-0.261295,0.872957,0.248795,-0.182032,0.306996,-0.106611,-0.112733,-0.109346,-0.04949,0.127792,-0.145781,-0.107688,-0.056511,0.024567,-0.05269,0.05413,0.124168,-0.158327,0.19618,0.136421,0.102833,0.055727,0.131661,0.043071,-0.134815,-0.202959,-0.050667,0.018416,-0.039569,-0.078472,-0.08346,0.0553,0.089772,-0.091461,0.037735,-0.14879,0.032703,0.081477,-0.141305,0.225659,-0.133124,-0.120503,-0.234405,-0.179025,0.250985,0.101738,-0.001734,-1.238556,0.509126,0.051884,-0.080742,0.120426,0.120296,-0.132522,0.018794,0.063723,-0.139272,0.06749,-0.063594,-0.119397,-0.084848,0.062026,-0.087673,0.088241,-0.093559,0.184232,0.099064,-0.110285,-0.242028,-0.077414,0.047506,0.140712,-0.230134,0.01661,-0.23702,0.262095,-0.351806,-0.176151,-0.006601,-0.18658,0.174341,-0.167522,-0.61065,0.231654,0.143401,0.297681,0.060693,0.06279,0.459516,0.150721,0.113629,-0.06913,0.305505,1.036849,-0.022934,-0.695551,0.149317,-0.149201,-0.397809,-0.11119,-0.063534,-0.025502,0.131103,-0.08886,-0.044625,0.028446,-0.082064,-0.104003,-0.068097,-0.078962,-0.083052,0.159741,-0.095872,0.090617,0.107272,-0.193156,0.144016,0.140816,0.064742,-0.029805,0.121405,-0.085845,0.033022,0.145609,-0.097046,0.02426,0.128557,0.195718,0.263869,-0.001123,0.281082,-0.046831,0.228854,-0.050386,-0.414557,-0.173191,-0.119451,0.035507,0.221691,1.252048,0.039399,-0.154357,-0.497493,0.009089,-0.083149,0.062954,-0.128405,-0.032692,-0.123887,-0.009505,-0.048096,-0.093315,0.071337,0.028403,-0.046679,-0.038486,-0.154182,-0.243275,-0.149833,-0.078084,-0.172597,-0.159593,-0.109479,0.096114,0.235257,0.097941,0.162188,0.195377,0.072909,-0.046183,0.039189,-0.273455,-0.087643,0.059156,-0.042507,0.124593,-0.035537,0.078909,-0.198353,-0.038362,0.226611,-0.109877,0.226298,-0.023003,-0.106587,-1.48246,0.074403,-0.077412,-0.12944,0.106096,0.180755,0.082493,-0.105795,-0.102618,0.015353,-0.02203,-0.147611,0.028495,-0.105161,0.051619,-0.043955,-0.023321,0.114568,-0.022171,-0.022056,0.253069,0.144549,0.156519,0.115186,0.008857,-0.204341,0.005313,-0.020706,-0.105231,0.077016,0.193164,0.166022,0.176236,0.082812,0.135449,0.360627,0.051229,0.098574,-0.300856,0.058804,-0.011725,0.230098,-0.118058,-0.13255,-0.035231,0.02551,1.863253,-0.153309,-0.002872,-0.061351,0.102143,-0.223254,0.040255,-0.087816,0.095354,0.077019,-0.092168,0.015516,-5.4e-05,-0.159969,0.117525,0.127095,-0.124401,-0.016134,-0.240564,-0.029932,-0.032862,-0.02288,0.099027,-0.172898,-0.058199,0.217506,-0.139792,-0.06236,0.041201,-0.493563,-0.031582,-0.16592,-0.126479,0.042081,-0.016361,-0.362706,0.204727,0.20023,0.168376,-0.05911,-0.034993,-0.020385,-0.059598,0.102129,-0.064586,0.176756,1.318251,0.034422,0.281593,-0.210264,-0.051937,0.068505,-0.003329,-0.018024,0.115738,0.163785,0.011919,-0.068609,-0.017662,-0.12519,0.164309,0.090753,0.085726,0.076141,0.196647,0.028153,-0.095417,-0.017973,-0.104347,-0.067895,-0.221423,-0.075006,-0.043954,-0.010481,-0.008894,-0.289058,0.073174,-0.154429,-0.099807,-0.269095,-0.056124,-0.309599,-0.360923,0.028776,0.41368,0.010019,-0.192156,0.095908,-0.128113,0.279647,0.058055,-0.240189,1.207251,0.189971,0.292083,-0.087695,-0.227369,-0.201388,0.143664,0.152631,0.171459,0.149695,0.20414,0.19481,-0.076184,-0.025448,-0.019566,-0.041278,0.087868,-0.081456,0.079826,-0.060261,-0.079983,0.07011,0.102789,-0.048766,-0.126211,0.034297,-0.15556,-0.142912,-0.28204,0.125518,-0.027116,-0.441619,0.28302,0.059705,-0.094615,0.125683,-0.16023,0.086759,0.11087,0.067105,-0.084858,0.158909,-0.19265,-0.19353,0.28773,-0.256098,1.313544,-0.344483,0.321851,0.207538,-0.030153,-0.095709,0.091232,-0.028565,0.086517,0.005247,-0.073192,0.151873,-0.030114,0.12787,0.076043,0.084405,-0.007142,0.022693,-0.128074,-0.010797,-0.07484,0.047275,0.046756,0.108679,0.187935,-0.122208,0.165777,-0.075148,0.181235,0.191171,-0.231814,0.447912,-0.206405,0.022043,-0.105243,0.043839,0.082945,-0.012554,-0.290066,-0.122664,0.010019,-0.092223,-0.033099,0.102496,0.114274,0.193408,-0.139543,0.074479,-0.437007,0.226467,-0.020067,-0.067528,0.189683,0.214912,0.224965,0.08267,0.036759,-0.002944,-0.058725,-0.039984,0.179587,0.079783,0.045179,0.132761,0.175233,-0.011761,0.150683,-0.054691,0.151103,-0.158328,-0.001575,0.162941,-0.309048,0.140303,-0.312258,-0.137115,0.051101,-0.127092,0.00627,0.016363,0.211355,-0.026299,-0.252051,0.048174,0.504317,-0.19208,0.139445,-0.298892,0.186891,0.188157,-0.035883,0.064744,-1.863894,0.215579,0.041502,-0.01343,0.086874,-0.099563,-0.009588,-0.0603,-0.100815,-0.127198,0.124579,0.051151,0.037065,0.091166,-0.006584,0.111824,-0.05026,-0.118717,0.263282,-0.04456,-0.083121,0.041985,0.045789,0.149922,0.09393,0.069978,0.141253,0.046688,0.039506,0.521677,0.192879,-0.010934,0.237715,-0.308923,-0.200276,0.486346,-0.197596,-0.486506,-0.058424,0.121221,-0.004583,0.229897,0.184978,-0.147262,0.058442,0.068676,-1.20233,0.084213,0.118919,0.371335,0.04363,-0.136299,-0.081144,-0.09058,0.029224,0.060999,-0.065187,0.092221,-0.067161,0.019194,-0.070482,-0.093701,-0.087774,-0.066297,0.054463,-0.06128,0.034689,0.076766,0.067429,0.042525,-0.053672,0.08182,0.110986,-0.127157,0.128827,0.161945,-0.087575,0.042916,0.095891,0.004734,-0.221522,0.156174,-0.072782,-0.078526,0.050606,-0.156508,-0.157527,0.298056,-0.001248,0.22992,0.314983,-0.3071,-1.250636,0.176192,0.097555,-0.188156,-0.102027,0.06483,0.159698,-0.086607,0.078772,0.04711,-0.116037,-0.067663,-0.096768,-0.031682,0.062546,0.038022,0.067929,-0.017032,0.224941,-0.045627,-0.114625,0.087427,0.164285,-0.060681,-0.114865,-0.146871,-0.043268,0.111794,0.09501,-0.134161,0.07416,-0.07594,-0.280429,0.219567,0.020452,-0.036828,0.033803,-0.110469,-0.029981,-0.22304,-0.031336,-0.171144,0.192912,-0.081113,0.079646,-0.025398,-1.617697,-0.043768,-0.359801,0.403332,0.038168,-0.127874,-0.105186,0.048683,-0.111957,0.124566,0.10007,-0.131748,0.110805,0.002831,0.032791,-0.057702,0.026596,-0.001224,-0.017201,-0.10104,0.017897,-0.069225,0.082077,-0.098669,0.137066,-0.099171,0.216562,-0.032067,-0.12124,-0.065808,-0.251166,-0.339955,-0.163597,-0.034159,0.207761,-0.112841,0.182561,0.259952,0.029936,-0.039489,-0.204382,-0.172356,-0.123814,0.1635,0.021117,0.046013,1.018469,0.272514,0.008287,-0.293226,-0.116522,0.105646,0.053674,-0.063639,-0.052893,-0.065406,0.100536,-0.101514,0.08717,0.018816,0.063187,0.01345,-0.151651,0.020269,-0.128069,-0.012854,0.226028,-0.051694,-0.132318,0.143803,-0.104352,0.081816,-0.325545,-0.080191,-0.23199,-0.217517,0.059442,-0.351757,0.213138,-0.137202,-0.062409,-0.199074,-0.264674,-0.033895,-0.029457,0.09736,0.000119,0.108071,0.055208,-0.057615,-0.186639,-0.019019,0.831235,-0.11543,0.598238,-0.190531,-0.154057,-0.088452,0.188657,0.161806,-0.064595,0.12627,-0.033593,0.156616,0.094717,-0.034138,0.044345,0.110475,-0.129098,0.00923,0.055972,0.173199,-0.11848,0.06399,0.016148,-0.090941,-0.076617,-0.199089,0.107676,-0.027484,0.065214,0.314054,0.317016,0.201892,0.054964,-0.25664,-0.153262,0.25559,0.064056,-0.417451,-0.50057,0.080141,0.161752,0.216778,0.163671,-0.033574,-0.096903,0.017254,0.676729,-0.086291,-0.020704,0.346099,-0.051938,-0.075215,0.032634,0.037827,-0.117461,-0.051255,0.098536,0.086839,-0.05046,0.043313,0.104012,-0.151641,-0.170923,-0.080435,-0.091806,-0.149178,0.153098,0.288172,-0.038616,0.005484,0.06453,-0.221335,0.132632,0.141035,0.127124,0.28651,0.088567,0.107087,0.002907,0.183632,-0.087888,0.05015,-0.076687,0.094076,0.063158,-0.059481,0.071746,0.020991,0.05912,-0.197394,0.324857,0.050987,-1.07751,-0.362594,-0.270367,0.267876,0.132515,0.096412,-0.073057,0.05427,-0.112302,0.087238,-0.014285,0.085817,-0.016174,-0.09782,0.068322,0.055185,0.137103,-0.035165,-0.053747,-0.093519,-0.097039,-0.150888,0.145131,-0.086214,0.055298,0.014387,0.114577,0.009732,-0.106385,0.184586,-0.090913,-0.175622,0.130946,-0.227945,0.024862,0.049443,-0.134038,0.242632,0.329595,0.158428,-0.053642,0.409942,-0.09424,-0.194888,0.351477,-0.093359,1.656421,-0.189961,0.304711,-0.11662,-0.061547,-0.009457,-0.096528,0.007662,0.122942,-0.030641,-0.025953,0.04398,-0.127756,-0.117448,0.107598,0.035694,0.016797,0.148255,0.021555,0.126679,-0.224792,-0.389602,-0.092857,0.015192,-0.091122,0.255196,-0.230606,0.088482,-0.100002,0.010255,0.229261,-0.308543,0.138576,-0.070742,0.248524,-0.091131,0.073502,0.098785,0.284577,0.123117,-0.031704,0.164671,0.128122,0.163924,-0.048723,-0.209997,0.381375,0.149753,0.046474,-0.121677,0.142268,0.038143,-0.009006,-0.159483,-0.03296,-0.095225,0.002728,-0.20785,0.116285,0.157713,-0.119857,-0.178679,0.012034,0.090595,0.056702,0.053904,0.057822,0.316406,0.022315,-0.101137,-0.244283,-0.079194,0.01218,0.133397,0.302903,-0.477508,0.329263,-0.169887,-0.155326,-0.106772,0.041759,-0.210177,-0.23461,-0.135346,-0.399372,0.118402,0.232834,0.267028,-0.041559,-0.10178,-0.15024,0.091457,1.242871,-0.221129,-0.251143,0.217871,0.102063,0.044958,-0.067517,0.009334,0.069874,-0.00733,-0.129071,0.142764,0.174949,0.081516,-0.015345,0.015437,-0.056301,-0.053423,-0.15184,0.151882,0.089776,0.037916,0.083738,-0.184644,-0.133612,-0.052674,0.063369,0.044679,0.243337,0.004689,-0.195571,0.227097,-0.042905,-0.174356,-0.288506,0.076793,-0.06027,-0.403464,-0.078391,-0.178383,0.046945,-0.018136,-0.020966,0.203675,-0.255271,-0.086406,-1.134315,0.350015,0.491452,-0.368698,0.069692,0.069539,-0.108509,-0.035993,0.137603,-0.040472,0.111924,0.01554,-0.153169,0.017214,-0.002316,-0.028284,0.032355,-0.104652,-0.078331,-0.004721,-0.036356,-0.090086,0.231874,0.111762,0.011702,-0.09341,0.098318,0.08439,0.023825,-0.400468,-0.116559,-0.343187,-0.236669,-0.026497,0.244372,-0.630209,0.026539,0.278067,-0.002266,0.091926,0.00036,0.287577,-0.058728,0.012899,0.066437,-0.422502,0.719673,0.127607,0.429455,0.13515,0.102686,0.001779,0.008467,-0.027247,-0.0092,0.010282,0.090776,-0.004556,0.025766,0.156154,-0.01006,-0.034647,-0.11907,0.133687,0.116723,-0.12566,0.029325,0.21984,0.208663,0.1246,-0.133604,-0.121977,0.071259,-0.127073,-0.0267,-0.378395,-0.238673,-0.374776,-0.332851,0.390251,-0.022778,-0.833136,0.143297,0.1351,0.126975,-0.020434,0.130415,-0.097265,0.21703,-0.037313,0.097385,-0.247756,-0.985723,-0.066727,0.023734,-0.38255,0.059877,-0.008818,0.027519,-0.058124,-0.110048,-0.133942,0.104953,-0.019362,-0.069448,-0.036527,-0.016527,-0.049068,-0.01492,0.205059,0.162402,-0.014059,0.153376,-0.241706,-0.132915,-0.02848,-0.015327,-0.145444,-0.111418,0.085284,0.241289,-0.481626,-0.156621,-0.051152,-0.292549,0.046085,0.234507,-0.4374,-0.000665,0.402128,0.148789,-0.004343,0.084196,0.278155,0.023995,0.053747,0.070532,-0.059057,1.067238,0.072313,-0.005444,0.280943,0.177312,-0.079217,0.057777,0.073143,0.001712,0.105075,-0.061693,-0.029468,-0.016327,-0.01606,0.171384,0.062211,-0.095938,0.155405,0.06528,0.05185,-0.026066,0.156789,-0.077272,-0.019407,-0.039135,0.052412,-0.272297,0.19322,-0.071962,-0.005283,-0.042085,-0.261429,-0.204942,-0.009734,0.012548,-0.148627,0.050719,0.158545,0.203999,-0.080617,0.029809,-0.220822,0.00404,-0.175591,0.238261,-0.100642,-1.695123,-0.089237,-0.290326,0.394107,-0.053077,-0.031915,-0.015854,-0.077467,0.017824,0.095526,-0.079545,-0.091209,0.149934,-0.133969,0.066478,-0.155348,-0.027638,0.139946,0.238893,-0.117601,0.070489,0.35195,0.154894,-0.052178,0.098086,-0.135872,0.171147,0.088,0.264653,0.081558,0.092511,-0.18538,0.033472,-0.235308,-0.281318,0.162928,-0.033577,-0.333404,-0.073643,0.101996,-0.101619,0.338962,0.025907,-0.198356,-0.166374,-0.252308,-0.056428,-0.22431,0.353613,-0.038468,0.16905,0.22855,-0.214552,0.019797,-0.046611,-0.148001,-0.134824,-0.155815,0.029579,0.065817,-0.108964,-0.1536,-0.074753,-0.006211,-0.32678,-0.084994,-0.025952,0.296964,0.031607,-0.020435,0.154578,0.023886,0.181251,0.113898,0.029608,-0.003687,-0.099321,0.07739,-0.0305,0.363628,0.050025,-0.142955,0.458488,0.193746,0.076036,-0.113187,-0.150531,-0.180282,0.003383,0.118801,0.19804,0.042316,-0.713075,0.204426,-0.28556,0.216621,0.097232,-0.049227,-0.038332,-0.042473,0.026883,-0.088896,0.022995,0.086769,-0.145381,0.07143,0.061452,0.068622,-0.18039,0.057092,0.193912,0.07024,0.363219,-0.229892,0.136866,-0.015418,0.125274,0.103394,-0.079588,0.196551,-0.152007,0.129372,-0.064599,-0.242276,-0.112216,-0.026347,0.319973,-0.209843,-0.127569,0.340305,0.279147,-0.16203,-0.15087,-0.053762,-0.064825,-0.131892,0.260272,-0.021551,-1.262185,-0.328748,-0.224637,-0.215892,-0.177527,0.264049,-0.018201,-0.108612,0.057707,0.007621,-0.059174,-0.014713,-0.06691,-0.013975,-0.073506,0.025051,0.118174,0.092228,-0.006555,0.065287,0.09642,0.022626,-0.010914,0.145797,0.023627,0.20433,0.191501,0.08243,0.258342,0.029919,-0.097463,0.24149,0.018519,0.053363,-0.339808,-0.240841,0.03819,0.014209,-0.111276,-0.030769,-0.072391,0.167609,0.080519,-0.147354,-0.095404,0.091683,-1.357381,-0.300642,-0.170945,0.036922,-0.098888,-0.027978,-0.046103,-0.122667,0.038922,-0.064479,-0.124586,0.119275,0.020766,0.102597,-0.05613,0.104295,-0.083251,-0.028393,0.025782,0.087657,0.06975,0.128354,-0.043268,-0.079543,0.210186,0.147068,0.3002,-0.172608,0.039439,0.126177,0.163444,0.335338,0.044239,0.119618,-0.037697,0.199549,-0.002051,-0.210466,0.216672,0.013866,0.025878,0.083278,-0.108439,0.131789,0.063056,-0.001053,-0.395893,0.042637,0.058543,0.250063,0.033506,-0.02777,-0.030454,0.175968,-0.015313,0.056806,0.081392,0.05161,0.022832,-0.01114,0.031631,0.123186,0.062358,0.112618,0.111421,0.063154,-0.15027,0.103472,-0.124287,0.111233,0.18457,-0.021674,0.293425,-0.058039,0.069131,0.168751,0.005544,-0.461316,0.387759,-0.138207,0.146045,0.149527,-0.279828,0.100263,-0.157205,0.123452,0.263981,0.417367,0.008253,-0.113602,0.11495,0.080285,1.152245,-0.314338,0.274227,0.138584,-0.195309,-0.178023,0.004526,-0.075183,0.049185,0.07918,-0.079997,-0.017966,0.09137,-0.088555,-0.029254,-0.076949,0.014342,0.064117,-0.228566,0.051385,-0.286446,-0.233744,0.030505,0.151362,-0.097103,-0.12466,-0.06573,0.051906,-0.30636,-0.328197,-0.013518,-0.385842,-0.029111,-0.191751,0.190442,-0.169398,-0.232781,0.19074,0.069971,-0.105809,0.005884,0.213995,0.02803,0.216691,0.053823,-0.018467,1.202259,0.114586,-0.138825,0.493422,-0.033979,0.108966,0.092678,-0.049375,0.077682,0.026794,0.174177,0.05057,0.010048,-0.004416,0.178363,0.059324,-0.103797,-0.073386,0.180368,0.14873,-0.093968,0.072756,-0.047168,0.15432,-0.055763,-0.187386,-0.127232,0.03593,0.195833,-0.56428,0.253856,-0.152583,-0.148387,0.028904,-0.023892,-0.231513,-0.165884,-0.173231,0.034198,0.225448,0.395418,0.331527,-0.172897,-0.225302,-0.124555,-0.017857,1.101586,-0.099021,0.082989,-0.039683,-0.024625,0.156172,0.001698,-0.035225,0.01793,0.170666,0.086853,0.038186,-0.1524,-0.118644,-0.058758,0.100066,-0.11126,-0.125877,-0.291627,0.09758,0.197395,-0.098311,-0.014564,0.074132,-0.127814,-0.096341,-0.09421,-0.048332,0.091779,0.263371,-0.158024,0.091319,0.146848,-0.323291,0.316246,0.390534,-0.173179,-0.011783,-0.172295,-0.071429,0.189448,0.134973,-0.117991,0.06363,0.038491,-0.158232,0.136916,-0.097413,0.378421,-0.296486,-0.042424,0.040479,-0.011193,0.06829,-0.0372,0.184081,0.052422,-0.073641,-0.129815,0.109725,-0.016627,0.070452,0.090757,-0.007751,-0.099571,-0.009693,-0.053291,-0.165163,0.16069,0.036803,-0.175505,0.242597,0.064269,-0.034368,0.352511,0.156646,0.076944,0.329735,0.005775,-0.058328,0.087943,0.245751,-0.083643,0.069246,-0.481476,-0.094006,0.318835,0.48912,0.167655,0.127674,-0.045414,-0.004141,-0.351995,0.076988,-0.020768,-0.608261,-0.066105,-0.033293,0.088728,0.085736,-0.035838,-0.023007,-0.025193,-0.025522,-0.037678,0.00077,-0.103561,-0.089957,-0.067463,0.064746,-0.037172,-0.057773,0.052063,-0.194628,-0.072191,0.031698,-0.169715,0.232557,-0.105503,0.016729,-0.042531,0.233332,0.08305,0.245092,0.108702,0.121526,-0.028658,0.329344,0.125859,0.005154,-0.0169,0.222088,-0.173051,-0.015413,-0.038302,-0.339131,-0.154473,-0.039361,0.053476,-0.158017,0.252484,-0.06154,-0.104485,-0.223201,-0.148731,-0.03774,-0.036958,0.026266,0.058418,-0.111361,-0.053905,-0.081942,-0.060914,-0.056019,0.082507,-0.048717,-0.171216,-0.056206,0.007811,0.070244,-0.197173,0.107108,0.014822,0.183143,-0.091467,-0.023479,-0.240373,-0.127019,-0.084081,-0.02389,-0.160066,0.265619,-0.080867,0.042452,0.013104,-0.017043,-0.145142,0.003765,0.11804,0.004426,-0.146781,-0.28014,-0.294875,0.086628,-0.336513,-0.271191,-0.432577,0.301156,0.08037,-0.152649,0.1246,-0.048465,0.123923,-0.14342,-0.020239,0.095536,0.070841,-0.029448,0.095524,0.073916,0.097668,-0.038591,0.022068,0.048554,0.154065,-0.133503,-0.165657,-0.18636,0.199347,-0.087955,0.168736,0.061186,-0.036232,-0.026143,-0.014091,-0.103164,-0.062503,-0.157216,0.282918,-0.11384,-0.136819,0.272176,0.097586,-0.038037,0.083634,-0.1292,0.020514,0.094458,0.14035,-0.087138,-1.839279,-0.043899,-0.114985,-0.670121,0.033257,-0.166321,0.045051,-0.023164,-0.021407,0.091371,0.08889,0.018256,-0.122282,-0.064296,-0.068582,-0.068915,0.11377,-0.058405,0.044588,0.031478,-0.098789,0.007246,0.008354,-0.019936,0.140172,0.304631,-0.24664,0.123546,-0.109446,0.06061,0.299158,-0.048432,-0.018342,-0.212308,-0.157609,0.224193,-0.096982,0.253727,0.140662,-0.035484,0.031734,0.020159,0.025603,0.144463,0.381364,0.091143,0.554803,-0.147397,0.264833,0.426832,-0.122235,0.013744,0.096197,-0.141136,0.083854,-0.054292,-0.010266,0.012787,-0.027736,0.060764,-0.143015,0.065969,0.13531,0.072414,-0.114663,0.089418,0.102091,0.390279,0.003815,0.192741,-0.135038,-0.054751,0.349916,-0.173637,-0.010075,0.292312,-0.017212,-0.026402,0.25885,-0.093421,-0.375074,0.052259,0.015413,0.075879,0.341254,-0.12749,-0.039765,0.483102,-0.030526,0.054721,0.4094,-0.197657,0.18324,0.042036,0.185712,0.182922,0.039133,0.029589,0.00452,0.061563,-0.069708,0.139652,-0.081798,0.108356,0.05555,-0.15608,0.077558,-0.088095,-0.051979,0.196354,0.125606,-0.081395,-0.058477,0.106468,0.006603,0.095441,-0.116043,-0.014414,0.030429,0.011419,-0.097591,-0.465748,0.042982,-0.361388,-0.112899,0.074917,0.06806,-0.39068,0.00173,-0.109383,0.01128,0.11099,0.053593,0.089068,-0.188143,-0.218792,-0.192593,-0.217972,1.287892,-0.053908,0.68383,-0.396975,-0.019586,-0.064058,-0.039683,0.073029,0.074411,0.115672,0.091008,0.027547,0.120029,-0.048345,0.167206,0.068156,-0.005417,0.107426,-0.139677,-0.088037,-0.110729,0.044966,-0.048026,0.13622,-0.100444,-0.039683,0.01831,-0.108921,0.35995,0.194556,-0.041537,0.64403,-0.008732,0.151434,0.251213,0.393099,0.026959,0.275735,0.105662,0.019937,-0.151797,0.149047,-0.190862,0.111677,-0.061212,0.153198,-0.543983,0.280937,0.150018,-0.032756,0.151951,0.04297,-0.047481,-0.01093,-0.039285,0.072903,-0.143144,-0.165378,0.049881,0.105671,0.062388,0.152169,0.03327,0.083559,-0.058236,-0.134023,0.077474,-0.074597,-0.092169,-0.03421,0.000108,0.247442,-0.20327,-0.039013,-0.266723,0.317789,-0.006199,0.17109,0.018944,0.036056,0.076758,0.147247,0.119454,0.342246,0.196495,-0.1219,-0.120873,-0.170254,0.206652,-0.127006,0.12591,0.023115,-1.239205,-0.227934,-0.678289,0.232448,0.104483,-0.064999,-0.018929,0.043932,-0.150652,0.09544,-0.033849,-0.094563,0.125351,-0.106562,-0.008907,-0.097578,-0.097157,-0.063676,0.171693,-0.034276,-0.176612,-0.060277,-0.142315,-0.160577,0.214034,0.103829,0.143771,0.142566,-0.210409,-0.087343,-0.149722,-0.196192,-0.200607,-0.062382,-0.203005,-0.271355,0.025828,0.320401,-0.389916,-0.198132,-0.003676,-0.019772,0.075449,0.023528,0.133365,0.040068,-1.138225,0.102769,-0.262864,0.881227,-0.131023,-0.067038,0.047851,-0.01391,-0.06751,0.043837,-0.016056,0.07134,-0.110978,0.067732,0.018402,0.097474,-0.008468,-0.009035,0.100816,0.081823,-0.004001,-0.085906,0.154391,-0.166376,0.079699,-0.082445,0.141527,-0.384805,0.133984,0.305125,-0.241427,0.288437,0.150467,0.167242,0.12604,0.328789,0.095496,0.107642,0.317348,0.028928,-0.08085,0.126553,-0.255638,0.11997,0.072258,0.04737,0.873364,-0.087037,-0.168361,0.244919,0.178654,-0.136117,-0.079467,-0.039402,0.050914,-0.023472,-0.118033,0.123623,-0.108755,-0.148289,0.074811,-0.00507,0.045201,0.034168,-0.201506,0.092013,0.30458,-0.070428,-0.145827,-0.12648,0.016799,0.02152,-0.379294,0.177475,0.208553,-0.038149,0.108519,0.171467,0.115792,0.039298,-0.020436,-0.146382,-0.144812,-0.07685,0.28407,-0.036207,-0.063139,-0.179474,-0.018032,0.130466,-0.013739,0.164029,-1.812015,0.27258,0.625569,-0.393094,-0.106141,0.011325,-0.064209,-0.154321,-0.150099,0.080227,-0.027893,-0.091988,0.000691,0.025112,0.082019,-0.071082,-0.080699,0.096296,0.126079,0.118964,0.261865,-0.221634,-0.13201,-0.037449,0.047905,0.360326,-0.25017,-0.21742,0.077067,0.218192,0.125163,0.208659,-0.002559,0.11536,-0.186914,0.278584,0.20656,-0.151568,-0.685771,0.05117,-0.082189,0.185526,-0.152216,-0.195575,0.09242,-0.163774,1.498001,-0.28965,0.176558,0.603236,-0.053608,0.087589,-0.045114,-0.080134,-0.067008,0.138066,0.101584,-0.001715,-0.082034,0.156401,-0.0692,0.028514,0.111167,-0.018056,-0.139356,-0.059865,0.242013,0.187746,0.118172,-0.02494,-0.000217,0.000258,-0.050382,-0.151392,0.146415,-0.145993,0.101937,0.189779,0.052146,0.101849,0.142582,-0.185702,0.028106,0.038502,0.165726,0.059961,-0.258004,-0.128049,-0.157559,-0.328055,0.026649,0.441321,0.466535,-0.351342,0.156742,-0.326591,0.069615,-0.101812,-0.040999,0.09816,-0.003166,0.047753,-0.00635,-0.117998,0.002491,-0.089746,-0.093852,0.075829,-0.03592,0.103189,0.052115,0.126885,0.158471,0.134018,-0.183117,-0.149579,0.131802,0.086936,-0.158071,0.012447,0.046262,0.281626,0.016983,0.108356,0.238089,-0.099773,0.112797,0.128621,-0.06878,0.254091,0.075981,0.006706,0.034769,-0.030614,-0.213042,-0.249802,-0.137238,0.153069,0.813377,-0.242762,0.454551,-0.543634,0.022346,-0.031357,-0.112125,0.050946,0.117254,0.093593,0.141524,0.150238,-0.161476,0.100509,0.062616,0.013187,0.064975,9.2e-05,-0.079163,0.120824,-0.032936,0.077385,-0.168191,0.098577,-0.16576,0.235058,-0.057598,0.027775,-0.056727,-0.170159,0.076338,0.391075,-0.087579,0.232442,-0.039929,-0.076849,0.258802,0.174504,-0.277406,0.057394,-0.151623,0.075148,0.049755,0.338962,0.097884,-0.235348,0.628993,0.32862,0.176985,0.488761,0.293913,0.228432,-0.038118,-0.10424,0.049978,-0.073512,-0.098204,-0.148409,-0.118721,0.058322,0.004647,0.137214,0.108385,0.137953,0.244841,0.072687,-0.022477,0.203761,0.05782,-0.036669,0.011749,0.070018,-0.101172,0.082332,-0.227644,0.368189,-0.049774,-0.220558,0.14907,0.041815,0.101823,0.498835,-0.174348,0.035185,-0.07425,-0.005363,-0.066946,-0.235847,-0.144894,0.033727,0.073273,-0.291004,0.831253,-0.385678,-0.23838,0.221078,0.05343,0.070119,-0.056738,0.132346,-0.014562,0.118074,0.099873,0.100342,-0.03352,-0.004653,-0.041878,0.075375,0.016372,-0.022655,-0.035569,0.080833,-0.018847,-0.159023,0.116326,0.041913,-0.15313,-0.232005,-0.099771,-0.042676,-0.252872,-0.318348,0.034289,-0.34919,0.066806,-0.105277,0.21659,-0.52828,-0.169112,-0.100816,-0.043724,-0.116002,-0.345656,-0.205403,0.110405,-0.188037,-0.205982,-0.271363,-1.464566,-0.137065,0.860322,-0.447372,-0.022618,0.049504,-0.161882,0.086545,0.034037,-0.13344,0.080596,-0.135523,0.049305,0.006294,0.086065,-0.07916,0.053352,-0.084881,0.073138,0.063754,-0.241421,-0.11939,-0.033065,0.06569,0.151801,0.043124,0.131964,0.151773,0.171088,-0.189915,0.087527,0.120162,0.061156,0.162259,0.460551,-0.046508,0.136531,0.494412,0.384345,0.023576,-0.147463,0.228637,0.016993,-0.107173,0.060831,-0.244285,-0.617809,0.156128,0.102608,-0.281067,0.19449,-0.102639,0.037044,0.027276,0.102549,-0.163902,-0.172958,-0.11826,0.043452,0.072028,0.019128,-0.006878,0.043241,0.152246,-0.006361,-0.166767,0.040396,0.311068,-0.003924,-0.008011,-0.115841,0.042604,-0.297294,-0.014681,-0.131048,0.261215,0.282508,-0.048682,0.203644,-0.240602,0.077524,0.074876,-0.007714,0.136124,0.307482,-0.16852,0.099784,0.245816,-0.175189,0.067632,0.147153,0.194325,-0.732628,0.245863,-0.244433,0.30952,0.024345,-0.178253,0.10867,0.073674,0.016325,-0.063808,-0.042756,-0.151762,0.040524,0.019485,0.004539,0.10802,-0.089033,-0.09931,0.041303,-0.073733,0.061626,0.194486,0.05349,0.212254,0.000341,-0.087066,0.037858,0.287808,-0.305262,0.103322,0.079556,-0.130625,0.154169,-0.126893,-0.112831,0.224301,-0.053644,0.065991,0.633944,-0.089978,-0.02007,-0.336817,-0.027113,-0.099617,0.124335,-0.078728,-1.353948,0.345564,0.142732,0.180123,0.044577,0.170554,0.054256,0.003334,0.122798,-0.127235,-0.135053,0.087355,-0.053268,-0.058167,0.008685,0.041252,0.064046,0.066891,0.159027,-0.062322,-0.272054,0.211925,-0.070743,0.02286,0.050865,-0.101104,0.325888,0.05944,0.071507,-0.568422,0.056933,-0.186269,-0.299907,-0.008239,0.026723,-0.70306,-0.092273,-0.101822,0.173982,-0.126109,-0.07189,0.381878,-0.025182,0.026936,0.108089,-0.046871,0.951209,-0.054998,0.15374,-0.194191,0.147006,0.07771,-0.06246,-8.9e-05,-0.02034,0.10551,0.039318,0.159272,0.12578,0.135228,0.011455,0.06838,-0.160229,-0.095179,0.183383,-0.050733,0.254413,0.2159,0.152506,0.06099,-0.203268,0.037478,-0.002865,0.169028,0.086614,-0.223034,0.060219,0.060293,-0.092351,-0.169486,0.097406,-0.357769,-0.15811,0.250812,0.195091,-0.198116,0.062844,-0.059168,-0.106954,0.041319,-0.013762,0.087536,-0.077085,0.184702,-0.269274,0.019725,0.158976,-0.229042,0.149671,-0.011594,0.059328,0.150905,0.063643,-0.071454,-0.103066,-0.10696,-0.04872,0.156996,0.005872,0.129218,0.138156,-0.097205,0.135947,-0.183089,0.052255,0.112319,-0.10849,-0.117757,0.051982,-0.098267,-0.213906,-0.001416,0.062495,0.236244,0.22659,0.165754,-0.04757,0.085944,0.090835,0.291556,-0.213199,0.00899,0.15232,-0.18149,-0.024279,-0.07106,-0.256392,0.330408,0.825661,-0.319621,-0.284851,-0.012631,0.016947,0.103963,0.10957,-0.078941,-0.125248,-0.000356,-0.036481,0.118611,0.114332,0.032808,-0.1114,-0.121019,-0.110922,-0.078114,-0.219847,0.033611,-0.092251,-0.074002,-0.075639,-0.112772,0.193263,0.159735,0.117024,0.02092,-0.089475,-0.363604,0.060198,-0.315233,0.159932,-0.157997,-0.326559,-0.345688,-0.247511,-0.12983,0.043019,0.033104,-0.033581,0.118671,-0.070629,-0.241637,0.320911,-0.27905,-0.030977,-0.103841,0.987504,-0.568121,-0.233797,0.180624,0.110107,0.005989,0.135608,-0.015726,0.117739,-0.088158,-0.039704,0.171811,0.059597,-0.112319,0.120199,0.066594,0.178087,0.078338,0.380291,0.089348,0.069313,0.093842,-0.028702,-0.248169,0.086603,0.094654,-0.026574,-0.042934,-0.069729,0.087714,0.156526,0.152787,-0.285886,0.073017,0.051908,-0.340423,-0.153425,-0.03223,-0.000952,0.135998,0.210361,-0.265549,-0.18384,0.135031,-0.801697,-0.243951,-0.516119,-0.039318,0.063634,0.173665,-0.115185,-0.143249,0.133712,-0.093769,-0.073549,-0.042461,0.111667,-0.046135,-0.082849,-0.021646,0.018552,-0.120614,0.01121,-0.055518,0.199065,0.03815,-0.025616,-0.138183,0.124267,-0.057187,0.195926,0.074961,-0.32307,0.283032,0.052109,-0.261965,0.03597,-0.089584,-0.217814,0.392816,-0.274164,-0.171049,0.027618,-0.068507,-0.217934,-0.077294,-0.207826,-0.146862,-0.032826,0.011951,-0.076207,0.013452,0.255808,-0.024004,-0.187385,-0.169775,-0.062076,0.075548,-0.015158,-0.035536,0.154695,0.053209,0.079407,-0.168821,0.112641,0.050903,-0.025818,-0.044278,0.112909,0.164034,-0.24087,0.105661,-0.153686,-0.098798,0.238003,-0.008782,0.109638,-0.149426,-0.051997,-0.062428,0.26904,-0.098596,0.273017,-0.103208,0.055891,0.002337,0.004246,-0.228871,0.103536,0.055819,-0.104772,0.056218,-0.056125,-0.125282,-0.38299,0.135715,1.440048,-0.218585,0.468035,0.022643,0.000868,-0.006744,-0.00927,-0.063613,-0.150765,0.117058,0.0893,0.116484,0.125181,-0.09106,-0.126878,0.015759,0.039389,-0.105641,-0.261916,-0.013191,0.113946,0.018516,-0.138045,0.109922,-0.167691,-0.293941,0.165859,0.119627,-0.296168,0.449666,-0.18188,-0.118748,0.273017,0.120818,0.10807,0.223505,-0.110154,0.176981,0.373835,-0.136336,-0.085972,-0.012975,0.178784,0.055504,0.22313,-0.072914,-1.215538,-0.209176,0.068733,-0.242052,-0.081684,-0.122565,0.028284,-0.107918,-0.068668,0.047794,0.059524,0.081469,-0.08124,0.095487,-0.135484,-0.02647,0.067926,0.040012,0.168279,-0.184141,-0.202286,0.067744,-0.195724,0.144134,0.108938,0.059354,0.3522,-0.072113,-0.006676,0.006892,-0.287629,-0.247221,0.043166,0.142488,0.299989,-0.375638,0.057866,-0.085246,-0.367692,0.060984,0.02678,0.389912,-0.076338,-0.102996,0.153768,-0.029049,-0.873503,-0.275252,-0.204161,0.369222,0.046292,0.230864,-0.066722,-0.007068,-0.14647,-0.018101,-0.110972,0.046683,0.105083,0.100721,0.098037,0.124511,-0.096556,0.030703,0.230339,-0.033894,0.070344,-0.173237,0.057701,-0.028347,0.105297,0.005927,0.156947,-0.177574,0.035936,-0.239885,0.249052,-0.155271,-0.00869,0.033247,0.128497,-0.033564,-0.118932,-0.196831,-0.208754,0.238278,0.199674,0.203057,-0.134461,-0.265859,-0.262047,0.182613,1.636059,-0.2291,0.171843,0.0774,-0.048346,-0.085722,0.070771,0.117651,0.064456,-0.083039,-0.130642,-0.111484,-0.018513,0.131165,0.009412,0.076882,-0.151912,0.099186,-0.276663,-0.104418,-0.043556,0.010443,0.004163,-0.005564,0.080985,-0.087131,0.10227,-0.006699,-0.281934,-0.568038,-0.113429,-0.513668,-0.055227,0.209402,-0.04624,-0.639779,0.085865,-0.096336,-0.085995,0.093589,0.146884,0.157984,0.178081,-0.127858,-0.223577,-0.146286,1.451679,0.042937,0.101501,-0.333888,0.128339,0.180732,-0.058167,0.124122,0.083605,0.085493,-0.052563,-0.035622,-0.033205,-0.012523,0.131878,-0.089012,-0.178791,0.205386,0.105074,-0.008972,-0.140074,-0.146864,0.070567,-0.090504,-0.234645,-0.11675,-0.126948,0.021951,-0.184676,0.31,0.074806,0.01512,0.006674,0.100542,-0.306004,0.349273,0.05441,-0.39247,-0.189449,-0.136667,0.049244,-0.257866,-0.007615,0.150673,0.183342,0.123409,-1.339358,0.266162,-0.95929,0.16769,0.242797,0.048009,0.034322,-0.153043,-0.16026,-0.050725,-0.03762,-0.136349,-0.079194,-0.067275,-0.148285,-0.058168,-0.067228,-0.174541,0.017135,-0.17076,0.186659,-0.397806,-0.109128,-0.185418,0.136977,0.025588,0.140064,-0.116637,0.258651,0.350819,0.064495,0.205848,0.082287,-0.235768,-0.243135,0.675593,0.077937,-0.152615,0.075797,0.069137,-0.001035,0.313317,-0.08588,0.091859,0.204756,0.053753,1.216754,0.060452,0.294058,0.258049,0.006748,0.098878,0.088884,-0.044984,0.007761,-0.087851,-0.034758,0.014184,-0.135722,-0.03165,0.040572,0.086535,0.082127,0.140059,0.07543,0.172251,0.02388,0.329432,-0.084647,-0.065016,-0.223277,0.060461,-0.090887,-0.195966,-0.20685,-0.020023,0.008821,-0.060113,0.146454,0.316151,-0.18975,-0.055861,0.268642,-0.211809,-0.093072,-0.004951,-0.129844,-0.33896,-0.141229,-0.339488,-0.077649,0.023835,1.061947,-0.234182,0.007036,0.42254,0.104722,-0.035292,0.02078,-0.036198,0.026767,-0.0033,0.019535,0.130289,-0.032152,0.12616,0.083848,0.114672,0.028532,-0.110198,-0.171809,-0.023239,-0.001952,-0.010324,0.008682,-0.0013,0.068734,-0.17921,0.170182,-0.236378,-0.186254,0.04947,-0.331411,0.005351,-0.031808,0.115755,-0.080999,-0.144538,0.151332,0.189798,0.074805,-0.03268,-0.19704,-0.067993,0.16602,-0.041509,0.208267,-0.038127,-0.686145,0.001278,-0.128255,0.119163,0.270394,0.024674,-0.066185,-0.144306,-0.15054,-0.096265,-0.034243,-0.0289,-0.093577,-0.139488,-0.071513,-0.041575,0.135773,0.03159,0.163144,-0.024504,-0.159386,-0.110823,-0.077156,-0.020797,0.219904,0.202858,0.147624,-0.070411,0.199179,-0.015403,-0.167075,0.32257,-0.163636,0.147017,0.184156,0.127,0.076755,0.003087,0.153342,-0.14597,-0.10467,-0.18451,0.056672,0.326479,-0.259412,0.12346,-1.48338,0.35775,0.171543,-0.481352,-0.060088,0.03077,-0.091467,-0.141628,0.025838,-0.067936,-0.005667,-0.102717,-0.000398,-0.014703,-0.017328,-0.101048,0.083768,-0.098796,0.09589,0.016782,-0.091788,-0.124987,0.144948,0.000923,-0.024868,0.144859,-0.114317,-0.04624,0.337305,-0.152441,-0.004121,-0.260466,0.165257,-0.168509,-0.260868,-0.036298,0.141148,-0.111077,-0.030167,0.185575,0.024866,0.378417,-0.19065,0.004045,0.098414,0.019106,1.563375,-0.020646,-0.00085,0.148641,-0.100688,0.000978,-0.01866,0.142559,-0.078848,-0.010757,0.005909,0.040395,0.081473,0.002779,0.184535,-0.019962,-0.048601,-0.028583,-0.233313,0.056831,0.003936,-0.050276,-0.031714,-0.111599,-0.031985,-0.126898,-0.113849,0.029092,-0.007132,0.616293,0.110951,0.451572,0.088521,0.2177,-0.028252,0.622497,0.227023,0.171881,0.153539,-0.094868,0.064332,-0.232487,0.06887,0.103099,-0.07133,0.101021,-1.391526,0.073559,-0.091418,0.191311,0.020848,0.015154,-0.097319,-0.045811,-0.102088,-0.15381,0.042886,-0.22074,0.014344,0.105022,-0.006454,0.025471,-0.07082,-0.016213,0.005087,-0.148601,0.36916,0.118751,-0.015061,-0.10306,0.019974,0.107957,-0.22147,0.03648,-0.049024,-0.092002,-0.221595,-0.036924,-0.038723,0.143302,-0.326107,-0.229907,0.000331,-0.267512,0.055623,-0.107751,0.051482,0.16824,-0.12281,-0.172793,0.220772,-0.202431,-1.320439,-0.215686,0.100616,0.406104,-0.06446,-0.103415,-0.098386,-0.049919,0.022578,0.123464,0.0059,-0.041844,-0.096389,-0.010625,0.075997,0.031608,-0.082996,0.093113,0.1815,-0.089039,0.152272,-0.08257,0.014146,0.133646,0.201805,-0.183962,0.082497,-0.008138,-0.024414,0.028559,0.186698,0.046596,0.070977,-0.305133,0.135245,0.021864,-0.069006,0.101247,0.222264,0.045128,0.271412,0.151773,-0.082662,-0.070254,-0.030334,-0.129231,1.131118,0.368702,-0.103623,0.267282,0.150697,-0.047654,-0.093904,-0.079637,0.101537,0.016624,0.125911,-0.127404,-0.006814,0.087209,0.108913,0.039326,-0.08468,-0.135034,-0.22244,-0.100657,-0.052453,-0.205467,-0.005872,0.002199,-0.192863,-0.000116,-0.062372,0.053571,-0.154479,-0.202589,0.193522,-0.018009,-0.095424,0.188223,-0.061614,-0.468353,-0.058858,0.069811,-0.184891,-0.126004,0.15316,-0.143761,0.149278,-0.139933,-0.062442,0.000131,-1.670586,-0.326008,-0.105482,-0.033717,-0.107694,0.148514,-0.130831,0.0913,-0.076095,-0.037289,0.074663,0.076768,0.089359,0.142715,0.142585,0.15135,0.042798,-0.107989,0.169493,-0.004245,-0.008204,0.068505,-0.165788,0.096427,-0.078484,0.120671,0.164086,0.137089,-0.073523,-0.100377,-0.202441,0.209961,-0.282689,-0.003798,0.241743,0.022056,-0.024111,0.087578,0.290847,-0.123416,0.102674,-0.361554,0.13669,0.045086,0.017319,0.034858,-1.959766,0.313433,0.051809,-0.16661,-0.156548,-0.068069,-0.162556,0.116142,0.086204,-0.019419,-0.111425,0.061579,-0.082056,0.051449,-0.01913,-0.014774,0.05223,0.111137,0.196751,-0.062786,-0.085944,-0.111865,0.072928,0.075095,0.099774,-0.006185,-0.230197,-0.277039,0.228435,0.028606,-0.092132,-0.04139,-0.073605,-0.013255,0.240013,-0.159588,0.163171,0.219677,0.139273,0.049405,-0.115302,0.037432,-0.059856,0.200573,0.104443,0.009436,0.8036,0.012364,0.03787,-0.398733,-0.043434,-0.325723,-0.023685,0.143838,0.094898,0.029442,-0.013624,-0.000169,0.00544,0.030687,0.049936,0.050317,-0.057037,0.12109,0.184026,-0.027832,-0.096545,-0.33508,0.08499,-0.136833,-0.00299,-0.026588,-0.188642,0.093855,-0.203446,0.004904,0.05997,0.136598,-0.47569,0.061178,0.191384,-0.041108,-0.153489,-0.221794,-0.085382,-0.055,0.144808,-0.368542,-0.127389,-0.194034,-0.315145,0.197103,-1.347177,-0.070118,-0.338746,-0.094971,0.146666,0.049031,0.018503,-0.143766,-0.071899,0.053965,-0.159062,0.043092,0.100318,0.101028,-0.124248,0.067325,0.152438,-0.247998,-0.345191,-0.061798,0.056673,0.119397,-0.145287,-0.235055,0.133129,-0.063968,0.044389,-0.075109,-0.250063,0.037713,0.16904,-0.256264,0.167158,0.068185,0.044878,0.200092,0.16802,0.001474,0.068421,0.213061,0.07679,-0.171883,0.144512,-0.27974,-0.121436,-0.148451,1.333926,-0.230991,-0.243893,-0.254585,-0.134679,-0.127468,-0.083811,0.091648,0.08278,0.145172,-0.10981,0.066142,-0.006914,0.163074,0.01014,-0.078697,0.004157,-0.053478,-0.151276,0.008147,-0.177683,0.013301,-0.215706,-0.073401,-0.117112,-0.081796,-0.034461,0.199894,-0.30838,0.077079,0.017843,-0.157057,0.187259,-0.195905,-0.206538,0.041345,0.026942,0.150246,0.269525,0.063402,-0.00337,-0.377186,0.02798,0.098306,0.028887,0.123399,0.891361,0.191193,0.964345,-0.07604,-0.072412,0.133636,0.046966,0.029182,-0.169613,0.057782,-0.021778,-0.011235,0.119279,0.104228,-0.12804,-0.047578,-0.04178,0.046262,0.038231,-0.06749,0.102825,0.251426,-0.116283,0.253114,-0.22228,-0.046593,-0.070635,0.129784,-0.30659,-0.246575,-0.069844,-0.175435,-0.158025,0.130617,-0.119644,-0.465017,-0.145357,0.416736,0.23287,-0.13912,0.143602,0.039283,-0.077769,-0.055002,0.296483,0.03051,-0.146375,-0.077503,0.090259,-0.094449,-0.21789,-0.280067,0.068332,0.059257,0.036665,0.036589,-0.0514,0.052492,-0.105253,0.12299,0.156194,-0.0752,0.08203,0.014538,0.24844,0.174232,-0.177786,0.072708,0.049445,0.110653,-0.00962,0.017895,0.289386,-0.199651,-0.195742,0.358191,-0.189761,0.110911,0.3216,-0.017045,0.003638,0.437443,0.175372,-0.102152,0.069412,0.158791,-0.051117,-0.007892,-0.137041,0.197183,-0.207338,-0.196878,0.624439,0.403109,0.173024,-0.018689,0.031013,0.129442,0.080037,0.00776,0.102677,-0.04499,-0.019122,0.03532,0.029273,0.024134,0.017252,0.049172,0.101977,-0.023099,0.08372,-0.033868,-0.027676,0.214786,-0.111451,-0.108193,-0.254982,0.026947,-0.252917,0.150052,0.151547,-0.342847,-0.053454,-0.005202,-0.281461,0.005105,0.220259,-0.634031,0.192801,0.116992,0.217321,-0.132726,0.066109,0.029429,0.059936,0.308668,-0.031011,0.097682,-1.491657,0.130733,-0.15048,0.209473,0.099936,0.159045,-0.033196,0.101615,-0.13347,-0.175114,-0.059592,-0.096798,-0.092687,-0.079583,0.034297,0.070407,-0.066994,-0.078175,0.113782,-0.074562,0.214847,-0.091584,-0.142781,0.131744,0.051598,0.083078,0.07687,-0.125069,-0.120328,0.526409,0.007693,0.206857,0.345193,-0.191412,0.329171,0.7825,-0.222113,0.026663,-0.049082,0.190785,0.172846,-0.050037,-0.005574,0.062584,0.051025,-0.488228,-1.145795,0.140353,0.512199,-0.492735,-0.153808,0.037842,-0.151736,-0.141698,0.008894,-0.132242,0.065508,0.092846,-0.121379,0.091127,0.077812,0.072294,0.077114,0.126127,-0.11599,-0.096527,-0.111184,-0.030568,0.103397,0.131016,-0.000207,-0.204302,-0.036039,0.010245,0.004721,-0.166137,-0.071886,-0.097932,-0.17655,0.264569,0.235439,-0.284288,0.199323,0.076383,0.225669,0.107424,-0.211166,0.138436,-0.020261,-0.147342,0.013412,-0.046149,1.117244,-0.291003,-0.41784,-0.241819,0.180994,-0.220259,0.085635,0.074423,0.029357,0.001609,0.096423,0.019962,-0.115842,0.014405,-0.113595,0.015945,-0.037696,-0.147296,-0.161621,-0.004525,0.09604,0.37505,-0.013532,-0.039889,-0.089924,0.024086,-0.291913,-0.155775,0.188103,0.336531,0.054247,0.347805,-0.03595,-0.020408,-0.248942,0.396006,0.36817,-0.071434,-0.162698,-0.006871,-0.253908,0.090387,0.198295,-0.009125,0.034271,-0.06025,-0.196886,-0.147347,0.040778,0.303886,0.078042,-0.140528,0.019488,0.071315,-0.002065,-0.142649,-0.102563,0.006624,-0.03391,-0.029524,-0.059479,0.083098,-0.016633,-0.112783,-0.136908,0.084797,0.169395,0.338784,-0.08325,-0.097804,-0.027011,0.10118,0.088309,-0.196656,0.006121,0.232993,-0.101364,-0.199207,0.241167,-0.021539,-0.011006,0.150929,-0.186579,-0.042419,-0.114444,0.099289,-0.022086,-0.138793,0.038966,-0.125783,0.095412,0.308196,1.710678,-0.005231,0.156071,0.540502,0.194562,-0.034321,0.027889,0.124123,0.032544,-0.01649,0.094249,0.134212,-0.111536,-0.066053,0.033568,-0.094791,0.105729,-0.166299,-0.118894,-0.05639,0.112618,0.140608,-0.100972,-0.15173,-0.01875,-0.150211,0.192474,0.251136,-0.074336,-0.006578,0.080483,0.318957,0.166543,0.007107,0.032307,-0.151989,-0.203399,-0.093286,-0.330053,-0.094507,0.111033,-0.059899,0.168255,0.129268,-0.14362,0.052899,-1.026771,-0.170741,0.310338,-0.920028,-0.112792,0.288782,0.069243,-0.072464,0.101302,0.132497,0.081424,-0.132955,-0.150305,0.136701,0.067831,-0.096978,0.138992,0.086734,0.107158,-0.092021,-0.285316,0.044188,0.015951,-0.051418,-0.114191,0.258933,-0.137697,-0.009966,0.242107,-0.129865,0.063152,-0.000263,-0.200273,0.076502,0.134059,-0.384044,0.160564,-0.109277,-0.51212,0.121414,-0.101953,-0.180653,0.074049,-0.218718,-0.330069,0.175839,-0.195376,0.070376,0.347564,-0.115766,-0.04947,-0.194042,0.002605,-0.112313,0.077962,-0.007166,0.079643,0.084825,0.120391,-0.142856,-0.11437,-0.081621,0.08009,0.072735,-0.286891,-0.077518,0.222547,-0.072092,0.119378,-0.15949,-0.071927,0.320555,-0.156437,0.18431,0.08697,0.200574,-0.017183,0.126065,-0.004734,0.09101,0.110878,0.273397,-0.197606,0.069115,0.462102,-0.110043,0.095379,0.249142,0.15519,-0.112983,0.159237,-0.092352,-1.688163,0.057959,-0.472638,-0.062239,0.013477,0.069629,-0.020897,-0.138202,0.036368,0.071781,-0.129399,-0.097863,0.011381,0.042659,-0.103172,0.130406,-0.038879,-0.131519,0.073373,-0.026849,-0.20577,0.021853,-0.137778,0.066776,0.264029,0.102609,0.393926,-0.128165,-0.382265,0.224499,0.017891,-0.085158,0.129654,-0.064213,0.202936,0.34701,0.141471,0.307469,-0.153656,0.050809,0.085768,-0.247258,0.026152,-0.154494,0.067101,-0.20124,-0.883145,-0.270836,-0.388573,0.323486,-0.135878,-0.101193,0.099748,-0.167906,-0.095233,0.105572,0.019184,0.080726,0.109737,-0.057714,-0.052719,0.128604,0.117735,-0.172843,-0.113742,-0.058623,-0.020665,-0.239238,-0.054814,-0.181559,0.052179,0.233535,-0.170112,-0.063337,0.150168,-0.741233,-0.103503,-0.097193,-0.3551,-0.226555,-0.124817,-0.809369,-0.10113,-0.021403,0.325876,-0.018512,-0.082092,0.059446,-0.1605,0.080449,0.22925,0.023127,1.489586,0.130288,0.330698,-0.138413,0.130832,0.153089,-0.089552,0.110977,0.11749,-0.053469,0.106573,0.122813,-0.090538,-0.045167,-0.097303,-0.106247,0.060945,-0.085634,0.038186,0.084569,0.125796,0.030849,-0.081456,0.148613,0.021681,0.134828,0.006509,0.079599,-0.113233,0.355966,0.203104,-0.006977,0.144038,-0.029727,0.215982,0.505625,0.091472,0.151812,0.194359,0.014449,0.042408,-0.067255,-0.055658,0.2108,-0.034096,0.078553,-1.172424,0.332734,-0.073992,-0.013425,0.103498,0.057738,0.077056,-0.14777,0.097407,-0.176917,0.010568,0.03917,0.073786,-0.122561,-0.198423,-0.039659,-0.156762,0.050135,0.120239,0.099161,0.144813,0.016056,-0.153545,-0.078532,-0.237434,-0.26624,0.177857,0.001505,0.024931,-0.174934,0.162704,-0.023522,0.119763,-0.046664,-0.041496,0.100719,-0.03863,-0.028376,-0.038154,0.221417,0.252686,0.296563,-0.058377,0.018945,-0.015848,-0.082866,1.491012,0.084343,0.649717,-0.413731,-0.010167,0.010453,-0.139223,-0.023714,0.129379,-0.100494,0.040406,0.045816,0.141797,0.024059,0.083442,0.075956,0.043299,-0.036337,-0.249035,-0.048309,-0.0398,0.01885,-0.172344,0.065249,-0.113615,0.179877,-0.088628,0.370784,0.127557,0.034608,0.366734,0.41881,0.1175,-0.051423,0.245118,-0.078356,-0.103248,-0.097961,0.023946,-0.173895,0.141531,0.066838,0.187813,0.221465,0.096086,-0.04505,-1.197116,0.12222,0.251304,-0.337933,-0.091284,0.279404,-0.156298,0.006498,-0.079013,0.093171,-0.108763,-0.072503,-0.074779,0.011886,0.091642,-0.17356,-0.133131,0.090523,0.100432,0.118006,-0.03635,0.097629,-0.2156,0.007428,-0.111846,0.056942,-0.069336,-0.147951,0.1414,-0.179719,-0.164108,-0.102767,-0.134855,0.038581,-0.309485,-0.119885,-0.110233,-0.209702,-0.230703,-0.152862,-0.046876,0.055628,-0.040782,-0.182838,-0.120538,-0.113028,-0.444095,-0.189747,-0.155569,0.644848,-0.249469,0.288281,0.025313,0.003609,0.132732,-0.058967,0.144464,0.052122,0.134781,-0.046492,0.09877,-0.084981,0.107961,-0.141996,0.037816,0.127359,0.069648,-0.061506,0.112477,-0.028645,0.101492,-0.099056,0.134415,0.158594,0.097129,-0.126013,0.151528,0.084807,-0.071325,-0.087396,-0.028724,-0.025451,-0.051124,-0.189502,-0.095544,0.066558,0.304539,0.032016,-0.013758,-0.107918,-0.240307,-0.085318,-0.355725,0.169643,-0.289283,0.027165,-0.023887,-0.059869,0.007492,0.009722,-0.205255,-0.00786,-0.180346,-0.227579,-0.011115,-0.09682,-0.183206,-0.077801,0.056446,-0.115397,-0.235382,-0.081452,-0.14663,-0.150733,-0.226419,-0.129943,0.027797,-0.027359,-0.270366,-0.010034,-0.188671,0.21467,0.067167,-0.003575,-0.01062,-0.14914,-0.205418,0.025789,-0.153079,-0.131009,0.151635,-0.036087,0.016641,-0.063868,0.191123,-0.121899,0.251417,-0.051067,-1.191603,-0.272559,-0.486399,0.016817,0.187389,-0.048827,-0.063079,-0.02979,0.049074,0.067894,-0.037103,0.020634,-0.050917,-0.101575,0.042975,0.104062,0.0094,-0.140399,-0.081067,-0.108474,-0.280086,-0.031332,-0.117612,-0.123987,0.309781,0.02337,0.225744,0.029272,-0.04056,-0.199992,-0.035989,0.029049,0.071443,0.268922,-0.110891,-0.246313,0.157996,0.084478,0.021733,-0.102717,-0.226727,-0.192636,0.277205,-0.072663,0.107149,0.092363,-1.162328,-0.077194,-0.249744,0.387951,0.015939,0.068098,0.079827,0.089464,-0.121886,-0.085952,-0.069828,0.035869,-0.101277,-0.137026,-0.064633,-0.074348,0.00544,-0.025381,0.148861,-0.100147,-0.069978,0.07696,-0.17205,-0.14589,0.189835,-0.000573,0.064552,-0.154655,0.140097,0.010266,-0.090305,-0.145878,-0.083763,-0.013626,0.136323,0.113932,0.204919,0.049989,0.046615,0.153283,-0.000444,0.006145,-0.00667,-0.083199,-0.02424,0.057391,1.45568,0.313396,0.343741,-0.282604,0.174034,-0.143308,0.028804,-0.011142,0.05447,-0.062108,-0.001877,-0.014247,-0.141787,0.089727,-0.103726,-0.048786,-0.013755,0.128803,-0.135958,0.015515,-0.125156,-0.094454,-0.138808,-0.031389,0.034901,0.189127,-0.358836,-0.29631,0.009648,-0.126119,-0.214853,0.071728,0.038977,0.280765,-0.385887,0.054915,0.218548,0.116747,0.20337,0.075,-0.31206,0.073801,0.084662,-0.069791,0.059678,0.17879,0.438176,-0.219605,0.424779,0.000404,-0.0543,-0.279294,0.006609,0.090697,-0.082723,0.053891,-0.027072,0.056277,-0.119949,-0.031995,-0.079197,-0.106631,0.028823,0.098613,0.18569,-0.043805,-0.075752,0.280142,0.021574,-0.037497,0.044326,0.081273,0.15391,-0.057745,0.190377,-0.091112,0.059056,-0.052284,0.00104,0.123151,-0.068318,-0.030526,-0.123514,0.188943,-0.220524,-0.028486,-0.068558,-0.020886,0.239767,-0.127947,-0.164545,0.192887,1.204446,-0.320249,-0.485221,0.375161,-0.010049,-0.1601,0.096213,0.102007,-0.05489,-0.052753,-0.055466,-0.030755,-0.091607,0.124832,0.046915,0.055998,-0.00564,-0.032236,-0.161633,-0.003175,-0.137822,-0.153181,0.07156,-0.146396,0.096283,-0.210981,0.095255,-0.155258,0.135634,0.095078,0.123512,0.131772,0.140148,-0.222675,0.366151,0.169584,-0.126467,0.206141,-0.074648,-0.013546,-0.041624,0.431592,0.044524,0.168456,-0.055927,-0.064833,0.42604,-0.043847,0.06358,-0.352825,0.122359,-0.396171,-0.062437,-0.023457,-0.076529,-0.126825,0.151806,0.066997,-0.053705,-0.014237,-0.119935,0.053176,0.110594,0.101396,-0.062159,0.157544,-0.009835,-0.200808,0.080787,-0.139593,-0.020764,-0.026429,-0.151232,0.053966,-0.099109,-0.169377,-0.014556,-0.370844,-0.147862,-0.074834,-0.014852,-0.144205,0.058676,0.353159,-0.069759,-0.085173,0.293065,0.164231,-0.09014,0.06429,-0.036269,0.053935,0.390392,-0.076542,-0.549971,0.380295,-0.219491,0.070867,0.13071,0.179942,0.100489,0.122621,0.038995,-0.02152,-0.008454,0.058583,0.070963,-0.016129,0.121841,-0.095596,0.2837,0.16924,-0.241652,-0.242449,-0.097329,0.004155,0.135461,0.00364,0.049104,-0.16754,-0.334645,0.226841,-0.307508,0.111063,0.10237,0.151163,0.140475,0.16578,0.274984,0.083401,0.222408,-0.207271,-0.178355,-0.413406,-0.074777,0.162862,-0.055359,0.114337,-1.492617,0.285639,0.1008,-0.158155,-0.167236,0.001143,-0.130924,-0.008277,0.115163,-0.005909,0.003304,0.05716,-0.166957,-0.026081,0.075588,-0.070615,-0.004863,-0.083088,0.064459,-0.049786,0.293398,-0.101844,-0.045278,0.1214,-0.156456,-0.013311,-0.013183,-0.05878,-0.182811,-0.004469,-0.209817,0.114898,-0.050218,-0.148612,-0.152337,-0.005054,-0.022178,-0.208573,-0.097484,-0.061845,0.245273,-0.212772,0.126614,0.196084,-0.195112,0.093586,-1.905242,0.188608,-0.078281,-0.053594,-0.062021,-0.156757,-0.100615,0.000965,0.008926,0.051193,0.034413,-0.196334,0.066865,-0.088816,-0.179721,0.002424,-0.13306,-0.125555,0.124897,0.059352,0.190096,-0.102974,0.136865,-0.02307,0.050887,-0.225416,0.123265,0.121944,-0.04067,0.155543,-0.247472,-0.382895,-0.001575,-0.157981,-0.12103,-0.020669,0.102273,-0.141786,0.320276,0.041276,0.035624,-0.219904,0.03021,-0.103632,0.29894,-0.050862,-1.365176,0.317149,0.03054,0.01907,0.132051,0.004309,-0.14929,-0.073709,-0.129288,0.060701,-0.109983,-0.033311,-0.066044,-0.077698,0.006263,0.055429,0.074323,-0.047108,0.030169,0.007381,-0.048065,-0.093615,-0.16623,0.101573,0.209978,-0.026339,0.006325,0.167987,-0.024811,-0.084817,0.179003,0.016387,-0.101658,0.11903,-0.358565,-0.038333,-0.045522,-0.301116,-0.098515,0.148195,0.032977,-0.318018,-0.078959,-0.215629,-0.073691,0.126219,0.931872,-0.108259,-0.299825,-0.015613,-0.208409,-0.27924,0.007012,0.079237,-0.079859,-0.100681,0.13492,0.195934,0.143201,0.02927,0.183486,-0.050115,0.123091,1.6e-05,-0.045542,-0.035806,-0.079776,-0.093301,0.051792,-0.070868,0.030827,0.109494,0.101792,-0.029734,-0.008878,0.088962,-0.170286,0.02871,-0.01737,-0.222157,-0.000345,-0.057532,-0.282614,-0.122231,-0.006228,-0.111447,0.205319,0.079994,-0.135203,0.336896,0.316685,-0.026057,0.992894,0.145326,0.078974,0.215393,0.0498,0.057192,0.036295,0.003522,0.07495,-0.064161,0.189566,0.065284,-0.081656,0.007995,-0.104333,-0.129344,0.091526,0.079255,0.091593,0.032393,-0.223016,-0.421343,0.119243,-0.044012,0.036845,-0.002934,0.031682,-0.13389,-0.249198,-0.059537,-0.218221,-0.073598,-0.077869,0.240178,0.098773,0.080003,0.079408,0.238295,-0.081674,0.076451,-0.119095,-0.224841,-0.11553,-0.003526,-0.261108,0.118223,0.139399,-0.326933,-0.774954,0.29831,-0.026766,0.176187,0.126415,0.10498,-0.043954,0.006005,0.03227,-0.029512,-0.141846,-0.111394,0.085134,0.047766,-0.084209,-0.175845,-0.013824,-0.109453,0.127844,-0.199576,-0.173731,-0.178517,0.173949,0.156106,-0.157683,0.098089,0.116241,-0.033854,0.051867,0.112656,-0.057184,0.097944,0.26914,-0.195632,0.153528,0.258912,0.12974,-0.032424,-0.189315,-0.255309,0.06084,-0.03466,-0.271578,0.251732,0.332226,0.319408,0.052132,-0.634755,0.094342,0.04282,-0.113014,0.104933,-0.053729,0.058716,0.127061,0.015092,-0.011777,-0.065582,0.099734,-0.047158,0.017878,0.002013,0.007961,0.002549,-0.027185,-0.029995,-0.16472,-0.068975,-0.162559,0.257121,-0.403924,-0.275912,-0.069749,-0.471101,-0.276029,-0.402327,-0.381014,0.249729,0.106581,-0.649034,-0.054875,0.148152,0.073571,0.023488,-0.044016,0.0823,-0.131079,-0.120111,0.11561,-0.232916,1.17486,-0.250165,-0.467213,0.579529,-0.196512,-0.040652,0.182642,0.103,0.00809,-0.100335,-0.050213,-0.06563,0.070894,-0.043695,-0.071531,0.00847,0.073316,0.141981,0.15234,0.096231,0.115031,-0.191512,0.109802,-0.095244,-0.096793,-0.113525,0.13689,-0.146628,-0.094364,0.258498,0.211027,-0.116043,0.127195,-0.305371,0.023449,0.302212,-0.0527,-0.096767,-0.128103,0.105305,0.00671,0.12796,0.091697,-0.109009,-0.02262,-0.085854,1.069631,-0.017235,0.275654,-0.458126,-0.190729,-0.085336,0.098458,-0.132307,0.146003,0.003483,0.022373,0.04629,-0.002317,-0.120457,-0.050963,0.055971,0.024718,0.025587,-0.289322,0.134857,0.045914,0.15341,-0.122484,0.066037,-0.14122,-0.144205,0.099294,-0.004052,0.045128,0.049749,0.154647,0.123846,0.153533,0.063654,0.348085,-0.044473,-0.134339,0.048639,0.232871,-0.160525,0.181916,0.132487,-0.050961,0.019774,0.175893,-0.160845,-1.414629,0.319877,-0.068919,-0.166423,0.144537,0.136494,-0.035438,-0.057334,-0.037389,-0.002558,0.03812,-0.023938,-0.055189,-0.031085,-0.099364,0.066008,0.109011,0.11519,0.196794,-0.022996,-0.147083,0.005761,0.007217,-0.018789,0.031883,-0.0952,0.326452,0.319764,0.0751,-0.616453,-0.04004,-0.125356,-0.426872,0.014198,-0.080163,-0.804572,-0.153431,-0.090217,0.005898,-0.269945,0.055961,0.00905,0.07067,-0.085306,0.198937,-0.098327,-1.056572,-0.3216,-0.18317,-0.287729,-0.008817,-0.01882,0.027043,-0.017202,0.123813,0.073049,0.031925,0.120102,0.080032,-0.068761,-0.013851,0.093221,-0.096698,-0.082914,0.050306,-0.089849,-0.186148,0.02105,0.034696,0.028783,0.217632,0.102308,0.111643,-0.003498,-0.266328,-0.072423,0.027157,-0.214113,-0.166662,0.13777,0.252952,-0.153231,-0.166061,0.279936,-0.134257,0.138806,0.217626,-0.311345,0.001912,-0.158853,0.14804,-0.108314,0.116906,-0.167128,-0.306015,-0.036558,-0.333271,0.165915,-0.076637,-0.054281,0.04309,-0.102178,0.038894,0.008967,0.010822,0.096025,0.090698,-0.105855,-0.127579,0.061424,0.113374,0.072048,0.104112,0.052689,0.102316,-0.068256,-0.091033,0.153596,-0.102303,0.070575,0.071703,0.073058,0.056464,0.131081,-0.308236,0.292137,0.164623,-0.157133,0.339023,0.01351,0.019242,-0.07117,-0.039515,-0.132071,-0.10994,-0.036241,0.027073,-0.280268,-0.8959,0.156063,0.037222,-0.399126,0.021198,0.102908,-0.129904,-0.002418,-0.05984,0.03062,0.085157,0.122765,0.03746,0.090668,0.002702,0.028384,-0.022082,0.133884,-0.043922,-0.008209,0.273688,-0.23644,0.044899,0.044627,0.166114,0.131058,-0.216336,-0.146966,0.062873,-0.248824,-0.002718,-0.200598,0.000862,-0.227381,0.29146,-0.090307,-0.283493,0.22766,0.139907,0.099031,0.186272,-0.057935,-0.145848,0.028344,0.065434,-0.356011,1.047314,-0.044986,0.465318,-0.064836,-0.136458,-0.113932,0.087024,0.133426,0.132551,0.104841,0.051958,0.154972,-0.086493,0.046008,0.030284,-0.088738,-0.004621,-0.096544,0.136895,-0.010488,-0.226549,-0.093058,0.116119,0.138197,-0.156433,0.166326,-0.197376,0.04747,0.179463,-0.400459,0.051226,-0.224816,-0.369074,0.123254,-0.088405,-0.696282,-0.041895,-0.046492,-0.026782,-0.02277,-0.204198,0.325817,-0.000792,-0.096618,-0.041183,0.058607,-1.346904,-0.03406,0.40209,-0.319271,0.204903,-0.309025,-0.016003,-0.038495,-0.149561,-0.03526,-0.049583,0.011636,-0.08976,-0.006124,-0.124155,-0.116344,0.009734,0.088974,0.160472,-0.031879,0.26122,-0.086411,0.023433,0.142593,-0.156623,0.027987,0.220703,-0.006828,-0.44544,-0.432079,-0.051341,-0.557919,-0.219506,-0.023983,0.29314,-0.590788,0.053453,0.073865,-0.070021,0.093503,-0.05644,-0.447771,-0.138271,0.055001,-0.073497,0.047064,0.714325,0.303318,0.061794,0.035458,-0.061403,-0.16352,-0.041411,0.016574,0.085054,-0.029085,-0.015536,0.013146,0.031375,0.005072,0.073432,-0.106053,0.059315,0.104531,0.171193,-0.054002,-0.051769,0.026042,-0.034979,-0.106722,-0.230184,-0.02738,-0.012593,0.030859,0.112241,-0.011422,0.198656,0.019103,0.173188,0.0011,0.336994,0.009371,0.0414,0.195574,0.026789,0.15575,0.278923,-0.008462,-0.098306,-0.068925,-0.407328,0.150741,0.915349,0.021717,0.124531,-0.018942,-0.105331,-0.141987,-0.158035,0.068711,-0.148031,-0.108999,-0.021707,-0.185699,-0.030617,0.038209,0.051345,-0.138036,-0.041252,-0.168751,-0.142217,-0.087337,0.020616,-0.200652,-0.169507,-0.049205,-0.162222,-0.057708,0.047702,0.112128,-0.16281,0.113158,0.158094,0.095142,-0.042637,0.116776,0.034571,0.233757,0.044581,0.174777,0.25284,-0.210831,-0.227804,0.041467,0.059225,-0.057921,-0.16031,0.418202,0.515788,0.056712,-0.0484,-0.253761,0.162736,0.365207,0.130572,0.062432,0.008866,0.102955,-0.145606,0.005975,-0.111341,0.047845,-0.047511,0.095966,0.015832,-0.027415,0.096182,0.100057,-0.28536,0.295637,-0.204952,0.11548,-0.077878,-0.177054,0.060476,0.03815,-0.265796,-0.154376,0.036561,-0.211082,0.09287,0.148477,0.104128,0.008119,-0.06907,0.038773,-0.41489,0.011513,0.152252,0.083149,-0.148379,-0.309427,-0.103917,-0.050081,1.442605,-0.364335,0.077971,0.345637,-0.169396,-0.12527,-0.026311,-0.079989,0.066045,0.096622,0.083939,0.069318,0.11644,0.099001,-0.04094,-0.041866,0.021838,-0.088127,-0.126544,0.078121,0.120037,0.148936,0.135731,-0.161824,0.167477,0.149901,0.002026,-0.285633,-0.49867,0.01918,0.057265,-0.008228,0.121169,0.260503,0.034394,0.21565,0.121441,-0.01314,0.310502,0.141987,-0.062902,-0.234053,-0.158123,-0.04341,-0.002497,0.105985,1.284744,-0.058478,0.026821,-0.376219,0.209771,0.085044,0.097936,0.146573,0.159148,0.198086,0.126158,0.168483,-0.061783,0.111749,-0.065732,0.133718,-0.060105,-0.11593,0.103659,0.114664,0.123502,0.188578,0.007503,-0.088854,-0.146246,-0.102753,-0.01812,-0.103837,-0.081447,0.064795,0.091634,-0.222505,0.280068,0.051654,-0.020664,-0.045276,-0.074609,-0.03289,0.00213,0.185445,-0.032033,-0.283848,0.047681,-0.105189,-0.121429,0.107252,1.035496,-0.012084,0.462931,-0.649973,-0.170151,0.015996,-0.031867,-0.12347,0.05059,-0.155646,0.10724,-0.097003,0.155203,-0.070239,0.064162,0.102146,0.040132,0.069936,-0.073811,0.082152,0.030175,0.306401,-0.092954,0.059875,-0.18441,0.171283,-0.022158,-0.029081,0.106325,0.112994,0.26654,0.180175,0.015229,0.229921,0.059829,0.211194,0.0375,0.280561,-0.003456,-0.042997,-0.10326,-0.051632,-0.012058,-0.215674,-0.097903,0.148157,0.78857,-0.246266,-0.13947,-0.144706,0.029796,-0.018335,0.109289,-0.022231,0.092809,0.103367,0.04973,-0.126294,-0.082723,-0.099571,-0.006196,0.116925,0.116532,-0.183456,-0.150182,0.09009,0.25078,0.212187,0.019008,-0.038296,-0.149878,0.128671,-0.102476,-0.058141,-0.054857,-0.175272,0.27391,0.331627,-0.133304,-0.054641,-0.186868,0.014648,-0.165724,0.168412,-0.109746,0.179034,0.221184,0.17686,0.095088,-0.154067,0.051559,-0.001877,1.357508,-0.248976,-0.371328,0.090907,0.036639,0.082806,-0.02394,0.024857,0.097918,-0.166417,-0.113826,0.108617,0.008787,0.087457,0.033271,0.085681,0.11109,-0.034901,-0.094704,-0.155064,0.07939,-0.229222,-0.150856,-0.101786,0.228339,0.108447,0.149737,-0.071971,-0.029373,-0.089391,0.077256,0.143158,-0.02317,-0.179864,0.157454,-0.061386,0.162259,0.184856,-0.301694,0.175556,0.008296,-0.261548,-0.138288,0.011869,-0.118507,0.05106,1.074782,0.260073,0.16445,0.39855,-0.116482,0.116339,0.018227,-0.045426,0.03395,0.120055,0.148487,0.081281,0.112949,0.111232,-0.055347,-0.126134,0.041491,-0.060177,0.091314,0.096621,0.137903,0.238772,0.215209,-0.11727,-0.182765,0.026128,-0.246948,0.041488,0.061044,-0.077499,-0.251866,-0.202441,-0.047487,-0.035224,0.068551,0.10434,-0.201936,0.19401,0.342711,-0.13898,-0.00673,0.146122,-0.22945,0.015759,0.120355,-0.286323,-1.404985,-0.147519,0.286065,-0.332131,-0.187259,-0.137384,0.074185,-0.130051,0.067271,0.146083,-0.007516,-0.081441,-0.035003,-0.087753,0.064129,-0.06889,0.109886,-0.097595,0.247533,-0.084257,0.113174,0.173299,0.016357,0.110641,0.081775,0.167544,-0.023351,0.075372,0.38654,-0.295496,-0.250418,0.223501,-0.242009,-0.147924,-0.282682,-0.224821,0.102154,0.082772,0.370729,-0.118223,0.13703,0.001794,-0.008444,0.052422,0.168337,-0.005695,-1.477766,0.339014,-0.024685,-0.401127,-0.023772,-0.038142,-0.035053,0.134956,-0.072414,-0.099705,0.141565,-0.141478,0.037908,-0.043253,-0.001041,0.066957,-0.064519,0.055227,-0.046298,0.012031,0.023517,-0.378296,-0.006452,0.069645,0.152483,-0.126249,0.002958,0.099043,-0.01574,0.332134,0.059244,0.131735,-0.045234,0.005803,-0.106139,0.174665,0.13604,-0.191863,-0.450362,-0.096945,-0.148655,0.070318,0.121969,-0.025097,-0.266075,0.290038,0.402792,-0.339251,-0.296005,0.054181,0.004119,-0.036528,-0.042772,-0.031659,0.118854,0.12348,0.03903,0.061899,-0.0527,-0.08692,0.015355,-0.119195,0.001177,-0.003358,-0.024805,-0.040835,0.272475,0.235323,-0.075401,-0.120035,-0.065736,-0.205626,0.113472,0.188048,0.099981,-0.166046,0.296649,0.10417,-0.142594,0.172131,-0.124174,-0.048401,0.10411,-0.131287,0.065313,0.147283,-0.187903,-0.134281,0.164508,0.059207,-0.244747,0.190805,1.597598,-0.053027,-0.267614,0.341913,0.118585,-0.062959,-0.102144,0.12763,-0.063766,-0.080728,0.133932,0.003206,0.063816,-0.045723,0.06094,0.060696,0.00505,-0.060859,-0.138526,0.146876,-0.015888,-0.118246,-0.212839,-0.197936,-0.113767,0.207559,-0.060193,-0.129848,0.050705,0.185556,0.266037,0.119428,0.181242,0.049852,-0.002953,0.050492,-0.131566,0.23233,-0.127964,0.201302,-0.071043,0.220055,0.081006,-0.239792,0.037256,-0.055747,1.945685,-0.311163,0.155117,0.12311,-0.069564,-0.081336,-0.033102,0.023221,0.142574,0.035099,0.006953,-0.080552,-0.045762,0.054991,-0.0387,-0.091337,-0.105847,0.087174,-0.248222,-0.130728,-0.120847,-0.071645,-0.062888,-0.143225,-0.041869,0.211073,0.098194,0.056241,-0.40769,-0.050333,0.086835,-0.378851,0.175875,-0.19008,0.026037,-0.039758,-0.120747,-0.168756,-0.093294,-0.066576,0.074266,-0.309205,-0.004732,-0.193777,-0.024011,-0.177183,-1.037106,0.034396,0.137846,0.092537,0.070301,0.008583,0.072048,-0.12332,-0.134218,0.069838,-0.047045,-0.004082,-0.119631,-0.009934,-0.165791,0.054323,0.018817,-0.127762,0.121758,0.077086,-0.206657,-0.099809,-0.055244,0.146084,0.023676,-0.136068,0.172172,0.070459,0.420636,-0.094272,-0.06257,0.227455,0.068195,0.177045,0.12529,-0.043858,0.113466,-0.152708,0.001967,-0.093446,-0.200266,0.173423,-0.163083,-0.054679,-0.07981,0.107889,-0.37331,-0.25204,0.014315,-0.106277,-0.021703,-0.347282,0.003391,-0.070424,-0.028307,-0.103745,0.056294,-0.04133,0.071831,-0.10056,-0.021622,-0.00443,-0.162687,-0.034952,-0.14809,-0.000951,0.096487,0.236294,0.091812,0.042078,0.135805,0.3255,-0.157749,-0.028511,-0.061572,0.060664,0.074839,0.300783,0.249593,0.133765,-0.037464,0.102077,0.149663,0.150803,-0.087255,-0.035964,0.110879,0.053043,-0.130867,-0.254779,-0.164232,0.132014,-0.156307,-0.249538,0.332613,-0.07011,-0.199126,0.132688,-0.12164,-0.048371,-0.003647,-0.014291,-0.099639,0.096782,0.063543,0.030986,-0.024697,0.006576,-0.052351,-0.113741,-0.090908,0.093031,0.142492,0.062162,0.066124,0.154195,0.065665,0.244236,-0.055071,-0.021213,-0.036931,0.049546,-0.188924,-0.346809,0.102161,-0.241503,0.056414,-0.133438,0.063389,-0.000483,-0.107968,0.177748,-0.057365,-0.039922,-0.059,0.212584,0.193281,-0.20286,1.304118,-0.010075,0.247273,0.016456,0.198523,0.00106,0.050603,-0.108389,-0.040402,-0.050789,0.016449,0.066706,0.048179,-0.0665,-0.036029,-0.144961,0.047353,-0.09611,-0.009483,-0.118063,0.069314,-0.110699,0.210218,0.12078,-0.15702,-0.011,-0.153668,-0.055757,0.275663,0.445153,-0.10267,0.225074,0.097452,-0.271333,-0.035277,0.369854,-0.178447,-0.419367,0.196951,0.140027,-0.249221,0.3234,0.015385,-0.278437,-0.186611,-0.00381,0.751956,-0.054144,-0.006973,-0.362866,0.049346,-0.103088,0.121321,-0.052311,-0.08215,0.125618,0.168821,0.059274,-0.006878,0.046177,-0.026447,-0.172518,-0.028472,-0.184511,-0.214443,-0.128357,-0.054457,0.291568,0.008388,0.098334,0.112638,-0.071551,-0.103688,-0.100371,-0.131552,0.024413,-0.152728,0.016472,0.05995,-0.061199,0.00248,0.124074,0.214668,-0.042409,-0.085268,-0.034179,-0.07996,-0.066675,0.175838,0.076277,0.033912,-0.165734,-1.305247,0.236749,0.190583,-0.073261,-0.014209,-0.09268,0.083527,0.024874,-0.012745,-9.7e-05,-0.160971,-0.157719,-0.012338,-0.044198,0.077716,-0.05199,-0.048852,-0.089819,0.11157,0.022182,0.109808,0.054834,0.002623,0.10529,-0.262381,-0.082574,-0.178182,-0.043163,-0.018448,0.031557,0.046335,-0.038915,0.151696,0.052069,0.192068,0.264065,0.095211,0.338815,0.160136,0.177285,-0.155151,0.162849,-0.032198,-0.286357,0.023462,0.08271,1.836084,-0.370213,0.038894,0.126678,0.026215,0.011552,-0.075236,0.131395,-0.017272,0.137246,-0.130937,-0.069626,0.13081,0.107881,0.135876,0.018006,0.017096,-0.115055,-0.091784,0.037865,-0.201163,0.074359,-0.134507,0.065997,-0.001996,0.121699,0.174704,-0.157776,0.037891,-0.168384,0.068391,0.078004,-0.094282,-0.084479,0.177415,-0.089724,-0.130646,0.272675,0.293603,0.084107,0.106312,-0.132946,-0.05512,-0.253028,0.033172,0.300177,-1.118777,-0.189413,-0.454279,-0.183781,-0.093819,0.205434,0.044163,-0.090043,-0.017433,0.078017,-0.039104,-0.059932,0.140572,0.008185,-0.114138,-0.078984,-0.105701,-0.116631,-0.059179,0.056427,0.154204,-0.267608,-0.087965,0.009677,0.166185,0.179469,0.05308,-0.005131,-0.094917,0.271617,-0.092861,0.212869,0.031639,0.139816,-0.160843,0.065815,-0.007578,0.090728,0.27267,0.134864,-0.094918,0.214399,0.221099,0.415332,0.449043,0.156901,-0.510427,-0.003673,0.162829,-0.253846,0.042036,0.008448,0.172183,0.147137,0.164667,0.173502,0.222843,-0.002226,-0.079376,-0.061765,0.244015,0.024341,-0.128943,0.203948,0.411833,0.070332,0.17724,0.082695,0.073952,0.234742,-0.085785,0.355288,0.135841,0.077533,0.11105,-0.115238,-0.11632,0.200098,-0.051716,0.214844,0.024681,-0.103778,-0.069563,-0.127084,-0.064627,-0.039649,-0.213509,-0.103341,0.096852,-0.084007,0.011576,0.26897,-1.305293,-0.277984,-0.037327,-0.249854,-0.04698,-0.034923,-0.05496,0.038826,-0.026294,0.062908,0.025915,0.043599,0.070825,-0.025486,-0.024783,0.090227,0.000831,-0.162104,0.137357,0.007798,-0.053486,0.055162,-0.17868,0.069127,0.271121,0.096444,0.12981,0.123085,-0.083342,0.347277,0.122382,-0.018204,0.040686,0.149826,-0.257242,0.353508,-0.137665,-0.291399,-0.287284,-0.0231,-0.028893,-0.088816,-0.038265,-0.007535,0.185667,0.06053,-0.901915,-0.088656,-0.130226,0.050648,-0.17717,0.211391,-0.119046,-0.079964,-0.109618,0.054454,-0.042869,-0.108168,0.093703,0.130527,0.108317,-0.139439,0.08082,-0.010554,-0.110824,-0.149143,-0.077002,-0.183763,-0.16194,-0.045653,0.207929,0.048,0.333258,0.041113,-0.270526,-0.134283,0.174927,-0.126234,0.117271,-0.298693,0.27925,-0.141451,-0.253532,0.066391,0.299768,-0.128183,-0.107801,-0.080342,-0.194004,0.158231,0.253479,0.102804,-0.207367,0.259075,0.513924,0.426491,0.118868,-0.092874,0.061363,0.069709,-0.007449,-0.003054,0.067605,0.056408,-0.022318,0.054163,0.074833,-0.124902,0.21021,0.079707,0.09707,-0.077483,0.128328,0.310796,-0.072458,0.009194,0.198294,0.145442,0.033321,-0.10913,0.105948,-0.104978,0.105691,0.1683,-0.075652,0.134758,0.134702,-0.061533,-0.034902,0.210529,0.052221,-0.084893,0.093491,-0.031199,-0.000376,0.065445,-0.191259,0.242055,-0.675799,0.076715,0.095587,-0.59788,0.023661,0.089847,0.009005,-0.109812,-0.03919,0.121019,0.070645,0.147848,-0.153989,-0.033024,-0.116418,-0.103362,-0.136592,0.040741,0.185036,0.0802,-0.000917,0.288928,-0.158493,-0.054538,-0.001091,0.1707,-0.234418,0.013067,-0.106158,-0.062751,-0.17003,-0.131292,-0.221318,0.18859,0.094027,-0.259622,-0.131246,0.264996,-0.004267,0.049304,-0.156121,0.006171,0.029174,0.08055,0.153093,-0.081963,1.030004,-0.33864,-0.037395,-0.491379,-0.12588,0.170339,-0.00188,-0.120489,-0.007186,0.106393,0.140301,-0.118302,0.155427,0.103414,-0.109195,0.04899,0.050242,-0.081445,-0.125985,0.159557,-0.246127,-0.124392,-0.036291,0.175975,-0.028862,0.220348,-0.102046,0.06196,-0.0296,0.213311,0.14271,0.010854,0.124329,-0.130936,-0.064714,0.298829,-0.160782,-0.066183,0.155736,0.00771,0.261268,-0.209354,-0.119003,-0.068379,-0.08876,0.325214,-0.181413,-0.238438,-0.316928,0.246476,0.139556,-0.220129,-0.017679,-0.05953,0.155473,0.082033,0.13195,0.15159,-0.075732,-0.047929,-0.137734,-0.137484,-0.024482,-0.088972,-0.136927,-0.033649,-0.013154,0.08709,-0.072985,-0.149983,0.06739,-0.235548,0.306283,0.100252,0.153103,-0.063178,-0.047163,0.071,-0.106022,-0.21806,0.021576,0.207087,0.060028,0.322566,0.107318,-0.079161,0.208643,0.313619,-0.222034,