{"format":"ratass-rl-policy-v3","source":"ray-rllib-ppo","objective":"race-route-progress-v1","observationSize":31,"actionSize":2,"output":"first actionSize outputs are deterministic direct throttle and turn controls","layers":[{"inputSize":31,"outputSize":64,"activation":"tanh","weights":[0.221949,0.193984,0.269434,0.12151,-0.179298,-0.179318,-0.175065,0.486471,-0.113394,-0.123258,-0.102587,-1.337483,-0.374577,0.19422,-0.801144,-1.342476,0.136815,0.047148,-0.19215,-0.073175,-0.219752,-0.407036,-0.149857,-0.210492,-0.083009,-0.150808,-0.291719,-0.084481,-0.004882,0.453117,0.117004,0.194073,-0.119146,0.22381,0.077713,-0.586554,0.00503,-0.13442,0.255783,-0.274459,-0.350162,-0.104157,-0.824919,1.029938,-0.054415,-0.873296,-1.226235,0.387505,-0.276898,0.107116,-0.052598,-0.049334,-0.160344,0.078151,0.035916,0.075431,-0.187245,-0.024588,-0.196368,0.148372,0.039392,1.384401,-0.351023,0.140633,0.483213,-0.197021,0.183439,-0.004764,-0.251434,0.083074,-0.25956,0.249998,0.092255,0.441871,0.655376,0.155455,0.11853,1.2619,-0.129621,-0.074782,0.165847,-0.179379,-0.368321,-0.131321,0.205647,0.059423,0.238946,-0.018704,0.261398,0.093626,-0.035114,-0.127272,0.287842,0.126848,0.066677,-0.367759,0.02713,0.49247,-0.000875,0.269788,0.228752,-0.238766,-0.017136,0.163749,-1.664961,-0.97215,-0.045794,0.06665,-0.426762,-0.231401,-0.003451,0.146535,-0.286147,-0.268815,-0.186458,0.12079,-0.061424,0.020327,0.048806,0.109248,0.098335,-0.191895,0.380974,-0.747621,0.015971,-0.088726,0.100242,-0.08548,-0.196745,-0.127739,0.087362,-0.023373,-0.239981,0.296399,0.169681,-1.036675,0.064228,-0.055858,0.286297,1.469136,0.141799,-0.046268,0.23776,-0.328301,-0.000364,0.231908,-0.0694,0.087819,-0.168026,0.089151,0.084459,0.029091,-0.17943,-0.119749,-0.450386,0.022547,-0.007373,-0.080891,-0.011046,-0.407604,0.034942,-0.306198,-0.290945,0.093074,-0.094717,-0.330678,0.713875,-0.384465,0.35112,0.017587,-0.440582,-0.389208,-0.321915,0.029885,-0.169572,-0.763324,-0.024013,0.113692,-0.022324,0.164845,-0.090012,-0.115369,0.20224,0.738177,-0.166759,-0.903431,0.433995,0.165484,0.234991,-0.189997,0.076507,-0.135196,0.058119,0.047553,-0.82004,0.097249,-0.034918,1.831913,-1.465719,0.046356,-0.519713,-0.247155,-0.234999,0.014878,0.265324,0.03768,-0.055223,0.065841,0.120544,0.040174,-0.126461,0.20107,-0.069215,-0.142109,0.224557,-0.99914,-2.344903,-0.293969,0.054914,0.124076,-0.009758,0.34881,0.125367,-0.01582,-0.029647,-0.503206,-0.014308,0.084496,0.609261,-0.702349,0.538357,0.566877,-0.233139,-0.451138,0.067129,0.053904,-0.017688,-0.106622,0.225921,0.254498,0.021348,0.155032,0.041865,0.010881,0.324128,0.394817,-0.375704,-0.782181,0.956012,-0.076948,-1.011069,0.343983,0.189346,0.13821,0.21689,0.12036,-0.393989,-0.061069,0.114182,-0.336777,-1.452671,0.050634,0.04131,-0.488821,0.277511,0.162857,-0.081429,-0.00578,0.19437,0.10661,-0.077284,-0.107755,0.034275,0.05629,0.119673,-0.147523,0.088993,0.063857,-1.641954,-0.078704,0.163841,0.10851,0.299974,0.242453,0.166637,-0.159225,-0.531576,-0.186124,-0.137413,-0.075487,-0.744521,-0.068881,0.007703,-0.427379,-1.606885,-0.036688,-0.007471,0.12111,0.081533,0.278007,0.265911,0.039655,-0.088937,0.09594,-0.073645,-0.063848,0.111762,0.229471,0.019,0.451937,-0.367841,-0.22273,-0.477015,-0.062314,-0.306732,-0.150581,-0.298553,-0.242835,0.606515,0.178659,0.070263,0.079428,-0.098143,-0.569088,-0.137465,-0.066068,0.24417,0.142812,0.384333,0.035578,0.196387,0.549449,-0.045589,-0.156176,-0.303245,-0.128474,-0.306297,-0.037452,0.532263,-0.466341,-0.791766,0.165902,0.028715,0.438586,0.065315,-0.316968,-0.152706,-0.096779,-0.072101,-0.039777,0.272744,0.381039,-0.143968,-0.358691,-0.092756,-0.995514,-1.086216,0.491091,0.187563,0.082946,0.263586,0.675368,0.437374,-0.179942,-0.119959,-0.221984,-0.120283,0.026702,-0.071761,0.127449,-0.112407,-0.616853,-0.281475,-0.056865,-0.927899,-0.051675,0.206322,0.16198,-0.232462,-0.303637,-0.331883,0.029847,0.006097,0.110991,0.004414,0.074393,0.544247,0.724717,-0.094865,0.096249,-0.31026,0.001233,-0.280306,-0.084501,-0.097468,0.130017,0.13951,-0.038187,-0.090459,0.155268,-0.085846,0.35274,0.230924,-0.07147,-0.128136,0.689209,-0.198332,-0.277536,0.17455,0.385088,-0.159681,-0.528752,0.441831,-0.042213,1.350868,1.127873,0.264997,-0.116184,1.007705,-0.150474,-0.106173,0.033341,0.015541,0.014127,0.198674,0.094628,0.181019,0.057703,0.226936,-0.048752,0.158174,0.371643,-0.168786,1.681717,-0.124545,-0.047015,-0.072339,-0.098791,-0.233122,0.05744,0.083592,-0.197253,0.274089,0.217745,0.356043,-1.160138,0.139034,-0.044741,0.860233,1.738847,0.04916,-0.020027,0.043151,0.028288,0.184049,0.062492,0.071982,-0.116055,-0.025623,-0.112327,-0.117774,0.038653,0.326705,0.118273,0.127667,0.549364,0.089798,0.535878,0.146201,0.389274,-0.017403,-0.071555,0.555993,-0.395201,-0.142897,-0.092475,-0.601411,0.559245,0.045193,-0.088003,0.274752,-0.001047,-0.091768,-0.327473,0.025078,-0.173142,-0.438695,-0.001496,-0.033356,0.261764,0.176698,-0.054177,0.092284,-0.203609,0.390229,1.072047,0.201098,0.078788,-0.11977,0.187489,0.117823,0.097189,-0.304603,-0.053968,-0.405989,-0.222807,0.03791,0.193073,-0.622996,-0.224853,-1.006526,-1.941056,-0.376239,-0.126713,-0.010691,-0.129323,-0.087676,0.076999,0.078295,-0.010192,0.088497,0.172405,-0.095956,-0.009541,-0.081558,0.148167,-0.251273,0.05936,0.02459,-0.454846,-0.055362,-0.210286,0.157457,-0.071876,-0.238504,0.134641,0.121798,-0.06716,1.80284,0.753649,-0.035447,-0.067639,0.178658,-0.010906,0.107636,-0.133264,-0.158749,0.171252,0.010925,0.069397,0.058831,-0.085888,-0.163273,0.055813,-0.131475,-0.011585,0.006493,0.847637,-0.476271,-0.337649,-0.722337,-0.040652,-0.32636,-0.162034,-0.163339,-0.490795,1.295839,0.111713,-0.166283,-0.68554,0.346817,0.016372,-0.508836,-0.097295,-0.241294,-0.290496,0.225081,0.140476,-0.072386,0.06307,-0.205048,-0.020647,9.6e-05,-0.32909,-0.064294,-0.075375,0.013991,0.254664,0.722047,0.947658,-0.055668,-0.266428,0.085435,-0.357224,-0.114375,0.099598,0.250575,-0.017202,-0.158494,0.313908,-0.790445,-0.869914,-0.084693,-0.977522,-1.01964,0.549866,0.34345,0.008962,0.111408,0.383848,0.047344,-0.069634,-0.098583,-0.059906,-0.20134,0.035655,-0.099047,0.457798,-0.221185,-0.851954,0.7548,-0.0419,0.004135,-0.188221,-0.051647,0.03715,-0.067571,0.209017,0.13935,0.09066,0.111692,-1.471909,0.187299,-0.205998,-0.315587,1.192878,0.150597,-0.011744,0.084232,-0.199129,0.175931,-0.200094,-0.094171,0.004025,-0.205728,0.050827,0.096599,0.121153,-0.427605,0.539944,-0.034145,-0.792702,0.19448,-0.016288,-0.004368,-0.033851,0.143535,0.271549,-0.457544,-0.312814,0.372275,0.38544,0.199272,1.810559,0.099368,1.206751,0.365897,0.121215,-0.007002,0.001898,-0.220238,0.301195,0.412493,0.14868,0.10414,0.002126,-0.146418,0.063039,0.08963,0.644189,-0.26601,2.110506,0.122387,0.161223,0.129544,0.073135,-0.399894,0.084322,-0.516362,0.157763,-0.081432,0.068416,-0.282316,-0.700435,-1.104505,0.152553,-0.155437,0.591202,-0.42666,-0.310169,0.077811,0.154949,-0.543019,0.06743,0.101783,-0.118967,-0.027491,0.026236,-0.03987,0.032275,-0.319283,0.004019,-1.15363,0.012263,-0.079186,0.724183,0.098187,0.122695,0.062717,0.344746,-0.234216,-0.485199,0.069724,0.015293,1.381697,0.115403,0.000403,-0.199737,-0.596232,-0.014884,-0.001562,0.318229,0.240317,0.190748,-0.059549,-0.186886,0.038287,-0.189883,-0.125332,0.097393,0.087041,-0.164254,-0.635962,0.044581,0.042191,-0.124172,0.371008,0.043302,-0.253949,-0.095807,-0.308295,-0.005417,0.494611,0.176426,0.329091,-0.123636,0.021894,0.028033,-0.618258,-1.357596,0.384926,0.312685,0.279594,0.009702,0.570261,0.26444,-0.164509,-0.208615,-0.136967,-0.221584,-0.15758,-0.214664,-0.266854,0.126047,-0.00615,-0.843473,-0.083764,0.290433,-0.085138,-0.465957,0.199184,-0.138536,-0.277934,0.152792,0.137774,-0.119964,1.253375,1.364558,0.223438,-0.028381,-0.825453,-0.305239,0.029529,-0.223477,-0.244745,-0.322012,0.11378,0.076595,-0.12028,0.154465,0.127947,-0.033046,0.138011,0.525973,0.088782,1.759676,-0.210017,-0.194068,0.624117,0.016936,-0.428101,0.108699,-0.525751,0.059314,0.016318,0.093194,0.114643,-1.420097,1.160596,0.079513,0.101168,0.885654,0.05153,-0.250562,0.036556,-0.006434,0.288799,-0.155198,0.002671,-0.16116,-0.243056,-0.039089,0.039585,0.024314,-0.22949,0.640923,1.999134,-0.068189,-0.135142,0.03585,-0.264225,-0.269011,0.16422,0.148685,-0.164888,-0.203584,0.130079,-0.150453,1.396188,0.905266,-0.080852,0.228052,1.549532,-0.290683,-0.285429,0.012912,0.186356,-0.577985,-0.269115,0.153521,0.11248,0.190039,-0.080964,-0.095732,-0.068163,0.035427,-0.321711,0.791644,-0.270315,-0.259427,0.050055,-0.107293,0.033862,-0.012056,0.228148,0.086135,0.425107,-0.009094,-0.05141,1.291697,-0.297793,0.056127,0.247723,0.105618,-0.587619,0.059255,0.100669,0.007944,-0.149426,-0.10191,-0.001989,0.024905,-0.175243,0.068614,0.1096,-0.16634,-0.239276,-0.58129,-0.827325,0.203999,0.36564,-0.129848,0.328262,-0.2344,-0.118823,-0.128542,0.348451,0.289293,-0.050454,-0.296691,1.150596,-0.795069,-0.207027,-0.602231,-1.472517,0.065024,0.033916,0.152887,0.001513,-0.034711,0.216533,0.147558,-0.128845,-0.05392,-0.013903,-0.131486,0.121954,0.013118,-0.000519,-0.336948,-0.116944,0.124885,0.247092,-0.059138,0.286607,-0.165677,0.255718,-0.285845,0.881816,0.324413,-0.026903,0.299667,0.116063,0.21658,1.279962,2.22093,-0.150553,-0.119256,0.187053,-0.201372,-0.056614,0.29436,0.086782,-0.147094,0.19287,0.065537,0.070407,0.024527,0.485458,-0.214694,-0.306552,-0.089969,-0.301269,0.258015,-0.263587,0.125091,-0.047719,-0.170872,-0.089002,-0.38134,0.04246,-0.168193,-0.475014,1.163449,0.355927,0.200992,1.208272,-0.248843,-0.187584,-0.015909,-0.224709,-0.115516,0.096385,0.010958,-0.005592,-0.163128,0.103496,0.188337,0.123194,0.10173,0.088367,1.166944,0.619991,-0.195025,-0.570289,0.163825,-0.066142,-0.18019,0.024046,-0.329883,-0.088455,-0.116525,0.189614,-1.504763,-1.214306,-0.591913,-0.57905,-1.217767,0.461634,-0.132119,0.423881,-0.071038,0.698107,0.498078,-0.017872,-0.218327,-0.204372,-0.119505,-0.260763,-0.18435,0.280295,0.137614,-1.171479,-0.255715,-0.019302,-0.072638,0.069074,0.083417,-0.064089,-0.119766,-0.13496,-0.057979,0.009773,0.150193,-1.292244,0.148163,-0.008013,0.346752,-0.175672,-0.010063,0.14395,0.066727,-0.213575,-0.072183,0.101445,-0.051562,0.144741,0.124493,0.243748,0.227615,0.101412,-0.231903,0.061177,0.426849,-0.603377,-0.193388,0.426579,-0.305456,-0.124055,0.002632,-0.27923,0.058482,-0.478852,0.219483,0.258829,0.652397,2.191338,0.175886,0.365973,1.166299,0.02006,0.201883,-0.31473,-0.296922,0.314646,-0.327397,0.000709,0.173767,0.084469,-0.053562,0.174766,0.167366,0.05153,0.512167,2.606241,-0.148616,0.085288,-0.419435,-0.092981,-0.270237,0.074483,0.011051,0.023806,0.362664,0.150676,-0.028057,0.8,-0.621864,-0.181387,-0.994176,-1.194927,0.032344,-0.106152,0.212573,0.037797,-0.049097,0.20623,-0.050673,-0.065273,-0.119141,-0.082531,0.08474,-0.102226,0.394416,-0.324825,-0.997927,0.245141,0.090287,0.550056,-0.08397,-0.158545,-0.12539,0.368982,0.236098,-0.295367,0.411376,0.292668,1.65298,-0.515258,0.195892,-0.485201,-0.768669,-0.367733,-0.050908,-0.163362,0.043912,-0.150038,0.268426,0.068394,-0.11257,-0.26263,-0.041999,-0.227493,-0.180979,-0.060543,-0.902495,-1.066999,0.596943,-0.179009,0.41105,-0.17149,-0.136895,-0.190896,-0.198607,-0.072833,0.010232,-0.203983,0.004161,0.299946,0.12119,0.033947,-0.303045,0.615201,-0.539784,0.12394,-0.13761,0.094194,-0.320478,0.077819,0.178027,-0.105148,0.047464,0.084723,-0.007807,0.094394,-0.020086,-0.031589,-0.217086,0.03837,-0.233691,0.289107,-0.151434,-0.456478,0.012508,-0.283044,0.202037,0.146859,0.030596,-0.102767,-0.431333,1.752126,0.226003,0.237118,1.668509,-0.202642,-0.262399,-0.291378,-0.059046,-0.1223,-0.325376,-0.124407,-0.006242,0.018555,0.035668,0.146066,-0.068581,-0.148988,0.381928,1.450212,0.323368,0.064379,0.083108,0.089018,-0.264739,-0.030804,-0.440433,0.282192,-0.136152,-0.153796,-0.096757,1.56482,0.189539,0.021294,-0.978244,-1.816995,0.020235,0.042999,0.224219,0.166304,-0.448926,-0.089719,-0.042692,-0.132296,-0.069005,-0.219636,-0.122516,-0.063945,-0.858375,-0.080637,-0.083913,0.016014,0.041605,0.037095,0.024886,0.045952,0.178994,0.331131,0.067764,-0.107807,-0.17109,-0.002698,1.386832,-0.008152,-0.181667,-0.387217,-0.704673,0.178249,0.024174,-0.186656,0.072038,0.064771,-0.19426,-0.022284,-0.047493,-0.149152,-0.036439,0.00031,-0.148072,-0.018828,-0.254783,-0.118351,0.624177,-0.040402,-0.063852,0.174041,-0.286266,-0.020126,-0.093363,0.473267,-0.212762,-0.2053,-0.27463,1.378569,0.475491,0.012121,-0.716117,-1.620613,-0.199486,-0.106293,0.092212,-0.286329,-0.234429,0.166925,0.009742,-0.200344,-0.041319,-0.201688,-0.139629,-0.019167,0.003817,-0.163701,0.106691,-0.629373,-0.092399,-0.265919,-0.210278,-0.186141,0.110714,-0.302545,0.357739,0.195244,0.192757,-0.116233,-0.703544,0.428057,-0.278949,0.500985,1.704848,-0.153998,-0.205658,-0.410891,-0.093264,-0.19472,-0.49266,0.083594,-0.017274,-0.126908,0.202535,0.037054,0.154441,-0.169915,0.453498,0.259843,0.268871,-0.138426,-0.234161,-0.244023,0.022896,-0.024005,-0.306492,0.15514,-0.465532,-0.357476,0.154887,-0.792556,0.242641,-0.141489,-0.019589,0.793882,-0.162557,-0.014871,-0.189543,0.165435,-0.127596,-0.207508,-0.010872,0.073587,0.116696,-0.131654,0.003709,-0.147686,-0.254207,0.426489,0.590715,-0.056668,-0.175083,0.028445,-0.158965,-0.171871,-0.18479,0.292551,0.066432,0.033567,-0.027576,-0.249978,0.360877,0.266106,-0.087055,-0.39426,-0.786602,0.469348,-0.054791,0.221552,0.009143,-0.015595,-0.175177,-0.224996,0.061336,-0.258237,-0.229296,-0.005648,-0.247282,0.083287,-0.07897,0.52855,0.370764,-0.285628,0.26578,-0.048379,-0.240801,0.025246,-0.101591,0.451143,-0.108129,-0.172396,-0.349482,-0.376764,-0.307054,0.030544,-0.3362,1.798744,-0.149537,-0.489467,-0.074466,0.290384,-0.518792,-0.221651,-0.135726,-0.071213,-0.029332,0.09485,-0.120057,0.048871,-0.4644,-0.262,-1.152295,-0.507489,0.11077,-0.138396,-0.141173,-0.16483,-0.000454,0.09442,0.080528,0.088395,0.080685,0.177268,1.280115,0.268218,0.110119,0.235658,-0.195644,0.237307,0.153977,0.063681,0.065658,0.311947,0.154691,-0.143343,-0.007348,-0.207045,-0.141433,0.004825,-0.158376,0.090995,-0.501915,0.074581,-0.427018,0.037761,0.27805,-0.287351,-0.024498,-0.055709,-0.230499,-0.018243,-0.057723,0.118578,0.077494,0.925989,-0.345017,-0.086844,0.028993,1.50572,0.157207,-0.076785,0.051355,-0.149922,-0.211389,-0.190965,0.085031,0.232485,0.106738,0.240683,-0.008847,0.091758,-0.054845,0.082543,-1.099853,0.015763,0.210526,0.538239,-0.188439,0.450042,0.072608,0.231511,0.230486,0.409671,0.372336,0.172807,0.069046,0.48374,-0.151121,0.612437,1.862998,-0.219381,-0.215576,-0.065364,-0.083076,0.055379,0.107761,-0.004825,0.049903,0.247408,0.24597,0.078951,0.233804,-0.216063,-0.180518,-0.370036,0.167377,-0.32885,-0.351956,-0.35375,-0.070192,0.088553,0.068836,-0.11142,0.399575,-0.039047,-0.442745,-0.336729,0.738284,-0.224063,0.146254,1.341305,0.080296,-0.226044,-0.233151,0.245328,-0.31855,-0.290203,0.14553,-0.038856,0.047529,0.130245,0.030627,-0.125849,-0.05665,0.087173,0.391015,-0.135878,0.015165,-0.19708,0.044583,0.54677,0.054011,0.155102,0.223693,0.503319,0.063895,0.25429,0.181845,0.249477,-0.336585,0.159051,0.166163,0.190423,0.338615,0.005245,0.221078,0.162405,0.099243,0.112613,-0.180936,-0.228068,-0.019579,-0.202619,0.007541,-0.793632,0.472836,-0.036867,0.526892,0.038218,-0.256705,0.198245,-0.046183,-0.068471,-0.184649,-0.038694,0.524847,-0.169153,-0.595037,0.68193,-0.571218,0.235874,-0.048244,-1.302387,-0.459628,-0.302023,-0.144059,-0.175828,-0.718396,-0.205482,0.154536,0.035539,-0.088581,0.172862,0.058188,0.189532,0.951162,-0.24432,-0.926534,0.259175,0.120858,0.575855,0.118536,-0.00694,-0.182353,0.126714,0.017309,0.463503,-0.031106,-0.064369,-0.904325,-0.920734,-0.313897,-0.212607,-0.944914,-0.078604,-0.403434,0.289239,-0.298113,-0.522054,0.348142,-0.183437,-0.255544,0.016591,0.003356,-0.221673,-0.072054,0.294345,-0.667787,-1.428879,-0.054039,0.063259,-0.162168,-0.011716,-0.162543,0.028027,-0.221265,-0.292679,-0.277303,0.239988,0.291067,-0.985498,0.503852,-0.023137,0.434262,1.372585,0.411485,0.03316,-0.209182,0.149645,0.336978,-0.074318,0.058517,0.050129,0.163882,0.108678,0.005189,0.133956,0.226059,0.45347,0.528326,0.119196,0.096051,0.231216,-0.141342,-0.36993,-0.155798,0.128276,-0.150069,-0.022442,0.350018,-0.075511,1.576095,1.215071,0.103747,0.554525,1.505587,-0.283962,-0.239039,-0.115418,-0.205355,-0.217917,0.224957,0.038636,-0.077242,-0.117034,0.121284,-0.135816,0.139319,0.437668,-0.528859,0.648591,-0.044846,-0.089751,0.66957,-0.063041,0.329845,0.223436,0.204673,0.16201,-0.166926,-0.244568,-0.301375,-1.264588,0.784363,0.038136,-0.072632,0.031826,-0.119505,-0.210702,-0.16005,-0.085506,-0.48863,-0.123005,0.026146,0.06862,-0.024893,0.208359,0.168686,0.094036,-0.279833,0.196797,1.218341,-0.261548,0.034214,0.205189,0.04798,0.032639,0.185917,-0.32835,0.04606,-0.255606,-0.206138,-0.091097,-0.265887,1.057879,0.280689,0.538058,0.54968,-0.481792,-0.122902,-0.161944,-0.127381,-0.361897,-0.080738,0.08638,-0.075625,0.2256,0.184303,0.027998,0.115595,-0.188896,0.053082,0.916405,0.186421,0.026013,0.182685,0.045011,-0.398906,0.16123,-0.280669,0.440983,-0.314906,-0.14158,-0.326335,0.015901,1.080006,0.454522,0.268918,0.822789,0.070474,0.006843,-0.308527,-0.017587,-0.895455,-0.393589,0.07154,0.145983,0.268222,0.002849,0.18524,0.158856,-0.442107,0.532551,1.684026,0.136138,0.173416,0.014057,0.300175,-0.312424,-0.0462,0.17732,-0.262423,0.247078,0.103552,-0.15745,0.512787,-0.104606,-0.032249,-0.212743,-0.791137,8.7e-05,-0.304983,0.225024,0.296327,0.206282,0.250007,0.063742,-0.119631,0.074245,0.133147,-0.14636,-0.033483,0.138854,-0.415056,-0.58967,-0.43129,0.141837,-0.477035,-0.065536,0.132812,-0.103441,0.450929,-0.359223,0.386841,0.219577,0.144506,0.643926,-0.145492,-0.157367,0.489634,1.209183,0.343425,0.003278,0.386493,-0.019217,-0.034001,0.175571,-0.069443,0.081257,-0.06493,-0.202383,-0.114599,2.7e-05,-0.174989,-0.458278,-0.834785,0.038906,-0.317862,-1.257461,0.029847,-0.027309,-0.0607,0.188291,-0.792019,0.303557,0.104918,-0.044523,-2.985082,-0.673055,-0.816853,0.466955,1.690586,0.292874,-0.199864,-0.160212,-0.015359,0.507877,0.129159,0.05477,0.062174,-0.243293,-0.192899,0.014815,-0.008927,0.337578,0.004104,-0.471943,0.348311,0.181279,-0.074998,0.098058,-0.476684,-0.00347,-0.490391,0.291776,-0.023501,-0.233746,-0.297097,-0.772705,-0.12743,-0.118672,-0.255737,0.347777,-0.326705,-0.297998,-0.219282,-0.228639,-0.666565,-0.232262,0.00707,0.026797,0.209739,0.084894,0.022832,0.093896,0.592346,-0.026926,-0.096855,-0.354281,-0.018362,-0.343392,0.20503,0.052876,0.115393,0.137701,-0.286423,-0.336453,0.285395,0.345627,1.230203,0.532576,0.080988,0.393595,-1.363761,-0.006942,0.128258,0.220659,-0.031393,0.487504,0.263193,0.172607,0.041656,-0.114741,-0.123972,-0.054164,-0.081205,0.636592,-0.302772,0.697378,0.011991,-0.018864,-0.309868,0.115331,0.391796,0.106179,0.429398,0.218427,-0.040111,-0.157587,-0.022823,1.393954,-0.482129,-0.108106,-0.380465,-1.211767,-0.100499,-0.120683,0.133729,0.008698,-0.18506,-0.031971,0.092035,-0.074388,0.116295,-0.120952,-0.171572,-0.013751,0.01227,-0.342056,-0.513535],"bias":[-0.330538,0.074721,0.122182,0.174466,0.113764,0.016495,-0.137295,0.199222,-0.137879,0.131665,-0.05171,-0.02137,0.20826,-0.066764,0.155723,0.136882,0.077887,0.101284,-0.030141,-0.136812,-0.022424,-0.002071,-0.018447,-0.02133,0.034862,-0.100815,0.093509,-0.056978,0.111284,-0.034915,0.062781,0.178197,-0.068977,0.132446,-0.158647,0.054758,-0.011511,0.183137,0.044311,0.017195,0.080197,-0.177284,-0.004518,0.050307,-0.066866,-0.027164,-0.17845,0.121398,-0.017918,-0.014568,-0.139635,-0.094071,0.048322,0.149222,0.151177,0.222913,0.228164,-0.02484,-0.139599,-0.125035,0.051275,0.105377,-0.053936,-0.030502]},{"inputSize":64,"outputSize":64,"activation":"tanh","weights":[-0.443332,-0.546658,-0.042151,-0.496273,0.034892,-0.264511,-0.076232,-0.06287,0.000308,-0.13307,-0.159284,-0.24027,-0.172814,-0.01852,-0.134336,0.218085,-0.231123,0.769382,0.119172,0.10147,0.409287,0.116449,-0.326104,0.285501,-0.109003,-0.207645,-0.260433,0.048427,0.258226,-0.18963,0.394513,-0.134336,-0.147793,-0.26543,0.224908,-0.325702,0.254764,0.372616,-0.012933,-0.131304,0.289292,-0.068006,0.091552,-0.139222,-0.14798,-0.093249,0.065542,-0.157697,0.293531,0.342785,0.305726,0.015525,-0.114554,0.003882,0.409465,-0.193671,0.026835,0.061082,0.124761,-0.094619,0.239737,-0.426494,-0.123719,-0.037873,-0.094073,0.708601,-0.529053,0.004543,0.644718,-0.380047,-0.601757,-0.527341,-0.208951,-0.145943,0.173967,-0.02412,0.178127,-0.011855,0.56209,0.345741,-0.225045,0.005097,0.080317,-0.063977,0.512257,0.784259,-0.577495,0.071286,-0.136196,-0.384126,1.124554,0.066679,-0.958001,-0.461398,0.106051,0.627405,0.657854,0.124176,0.602906,-0.719325,-0.464757,-0.099623,0.359905,-0.374105,-0.412833,0.041479,0.37302,0.289027,0.15384,0.04115,-0.27717,-0.813447,0.087598,0.24973,-0.189027,-0.278652,-0.422102,0.952042,0.009096,0.479589,-0.086207,0.20274,0.100475,-0.219406,0.877632,-0.000771,0.217235,-0.86959,0.188635,0.261279,0.052218,-0.010475,-0.100891,0.15875,-0.314133,-0.059104,-0.229688,0.218167,0.140993,-0.084199,0.090853,0.056113,-0.049819,0.012527,-0.005574,0.083787,0.043589,-0.320398,-0.406463,0.145679,0.209769,-0.036096,0.022836,0.462317,0.152093,0.12533,-0.187703,0.192381,-0.201376,-0.110099,-0.097675,0.184814,-0.163515,0.085183,-0.054029,-0.202542,-0.013329,0.116352,-0.165163,0.194064,0.058775,-0.031565,0.108461,0.001952,0.017933,-0.081116,-0.084098,-0.084342,-0.173125,0.114612,0.192984,-0.220774,0.104613,0.44305,0.267011,0.340328,0.186793,-0.066698,-0.180397,0.284238,0.339246,0.070038,0.046136,0.146241,-0.010802,0.004892,0.079051,0.382301,0.142463,-0.191425,-0.040394,-0.273757,-0.224895,-0.180717,0.059643,0.149982,0.084107,0.412328,-0.022685,0.369857,-0.118183,0.151254,0.343606,-0.209922,-0.013842,0.023037,-0.050576,0.032448,0.084398,0.250095,-0.106245,-0.208141,0.025161,0.255787,-0.216311,-0.29994,0.08762,-0.02545,0.342069,0.639475,0.250699,-0.200432,0.071842,-0.026782,0.081927,0.310813,0.070483,-0.071503,-0.200532,-0.141847,-0.022223,0.255628,-0.099107,0.217851,-0.080705,-0.150618,0.13102,0.34568,0.063924,0.42617,-0.263824,-0.21142,0.175306,0.188778,-0.030658,-0.194254,-0.063749,0.019088,-0.071095,-0.195658,-0.28027,-0.142007,-0.056412,-0.010405,-0.006902,0.089306,-0.037246,0.164337,-0.109471,-0.201107,-0.112782,0.033966,-0.146074,-0.047713,-0.035123,-0.001281,-0.152681,-0.018746,-0.061445,0.101804,0.030545,-0.150952,-0.141548,0.019946,0.120106,0.010829,0.026816,-0.156631,0.14184,-0.085018,-0.168519,-0.002371,-0.112719,-0.017399,-0.170072,0.002972,0.219114,-0.063946,-0.034192,-0.133249,0.110769,0.001477,0.071149,-0.143638,0.079556,-0.073026,0.047013,0.104553,-0.021995,-0.016388,-0.211188,-0.131937,-0.096592,-0.070296,0.208378,0.099449,-0.126919,-0.302937,0.177252,0.302879,0.335993,0.114461,0.009457,0.027988,-0.340264,-0.202298,-0.04576,0.197501,0.204372,-0.035079,0.034738,-0.02458,-0.003256,0.207325,-0.2403,0.150803,0.067381,-0.072501,-0.179502,-0.134192,-0.230161,0.195027,-0.148894,0.129416,-0.112071,0.179151,-0.081261,-0.1419,0.216819,0.010376,-0.410765,0.053426,-0.279549,-0.220577,0.397007,-0.080483,0.310675,-0.458567,0.090823,-0.084133,0.512279,0.182047,0.078901,0.029684,0.07937,-0.078748,0.38962,0.04962,-0.141289,-0.206872,0.116689,-0.26346,-0.04452,0.057816,0.0034,0.04296,0.10279,-0.215846,-0.101565,0.060541,0.041495,-0.002068,0.104335,0.294084,-0.134972,-0.288882,0.053402,0.276232,0.158386,0.01608,-0.03358,0.007882,0.112806,0.019128,0.133901,-0.033719,0.042213,0.073802,0.120013,0.14545,0.000839,-0.185921,-0.144968,0.126013,0.265416,0.059879,0.014091,-0.041515,-0.031285,-0.284331,-0.077291,0.009905,0.07537,-0.11309,0.165728,0.085949,0.001234,0.038985,-0.003465,-0.059535,0.225078,0.138765,-0.02486,-0.098711,-0.196636,-0.183616,0.048957,-0.089573,-0.119913,0.0559,-0.11301,-0.013944,0.047488,0.061867,0.093852,0.041118,0.022435,0.112233,0.045417,0.000284,-0.204487,-0.040323,-0.032574,0.038274,0.016038,-0.103053,-0.196181,0.051157,0.288077,0.278494,-0.299991,0.482226,0.012229,-0.531105,1.242499,0.768034,0.473226,0.137958,0.324871,1.296749,-0.053121,0.312432,-0.596006,-0.056598,0.475787,-0.611447,-0.497535,1.182834,0.144121,-0.379766,0.229006,0.983693,-0.333658,-1.443044,-0.933837,-0.070204,-0.331684,0.227763,-0.089206,-0.121122,1.145706,-0.264604,-0.473531,0.565441,0.651303,0.399603,-0.408675,0.16854,0.668106,-0.155336,-0.456686,0.105113,-0.124194,0.643389,-0.001557,-0.328877,0.073135,-0.72508,-0.158792,-0.045197,0.006104,-0.082904,-0.567203,-0.374825,-0.205248,-0.875966,0.31751,0.126607,0.199433,-0.294018,0.605585,0.83856,0.210605,-0.506439,-0.483673,0.373354,0.918334,-0.394726,-0.506892,0.032569,0.537274,-0.276794,-0.332886,0.6928,0.545927,-0.236894,0.854262,0.03682,-0.131782,-0.577829,-0.771187,-0.254158,-0.155119,0.579407,0.038501,-0.065398,0.046745,-0.316787,0.357742,-0.719078,-1.504713,-0.47311,-0.181228,-0.180224,0.560381,0.051711,0.580771,-0.593964,-0.134573,-0.801344,-0.009691,-0.859101,0.014156,-0.83408,0.21188,0.082965,-0.168535,-0.350384,0.605618,0.088014,-0.007632,-0.360334,-0.00441,-1.092024,-0.207196,1.522686,-0.477278,-0.424331,3e-05,-0.093508,-0.121618,-0.111414,0.237361,-0.381136,0.399973,-1.21798,-0.533414,-0.384109,0.269131,0.938368,0.567426,-0.379859,-0.255654,0.1753,0.005563,0.262841,0.245746,0.067912,0.175503,-0.130402,0.05275,-0.239387,0.057718,-0.533377,0.145334,-0.399318,-0.405846,0.262158,-0.134849,-0.2524,-0.47727,-0.141841,-0.128592,-0.129959,-0.026284,-0.096536,0.350816,-0.110407,0.037777,0.938372,-0.110447,-0.062508,-0.400999,-0.493032,-0.162029,0.083852,-0.71385,0.041117,0.092908,-0.262195,-0.313069,0.009035,-0.417583,0.245263,0.192897,0.012327,0.230244,-0.176039,-0.084773,0.210704,-0.554865,0.123721,0.287917,-0.172955,0.131263,0.391852,-0.023518,-0.450102,0.237643,-0.013818,-0.207936,-0.248534,-0.149371,-0.390647,-0.385644,0.068215,0.063868,0.141433,0.011754,0.081773,0.115802,0.276752,-0.043113,-0.085643,0.038821,-0.106931,-0.037729,-0.04861,0.013708,0.019711,-0.244327,-0.020913,0.046953,0.154134,0.05723,-0.158044,-0.274359,0.074778,0.161807,-0.044503,0.055326,-0.191374,0.26822,-0.361676,-0.125164,0.266558,-0.004916,0.161189,-0.055728,0.181181,0.213255,-0.042228,-0.168828,-0.059949,0.11617,0.163115,0.025418,0.033868,0.014692,0.15249,0.170089,0.111335,0.050533,0.004673,-0.085536,-0.356092,-0.190096,-0.069258,0.163396,0.25753,0.124054,-0.366819,0.033687,0.400719,-0.233216,0.039372,0.224488,-0.361506,0.382859,0.127897,0.037895,-0.098399,-0.039981,-0.167804,0.1123,0.008386,0.359776,0.189944,0.223607,-0.223867,0.104908,0.285363,-0.10318,-0.188651,0.158651,0.039857,-0.154253,-0.040865,-0.072294,0.303756,0.404313,0.4111,-0.214246,-0.284304,-0.006316,0.431049,0.082864,0.051212,0.15424,-0.064169,-0.133702,0.502851,0.156677,-0.073917,-0.16351,-0.019771,0.19677,0.438579,0.018012,0.04247,-0.036497,0.57538,-0.222286,0.343208,-0.111181,-0.084806,-0.328068,0.294039,0.20025,-0.027674,0.083564,0.108991,-0.163733,-0.068779,0.085806,0.130288,0.006314,-0.459112,-0.120695,0.194125,0.014184,-0.4396,0.105426,-0.176278,-0.105572,-0.173512,-0.116118,-0.103562,-0.008711,0.050558,0.159926,0.298644,0.040382,-0.04788,-0.079904,0.383677,0.113082,3.2e-05,0.391225,0.135954,-0.182743,0.061943,0.263682,0.251384,0.321996,0.122927,-0.305226,-0.263239,-0.048147,0.39456,-0.088259,-0.013026,0.231137,-0.144096,-0.075888,0.140243,0.254804,-0.227267,-0.171161,-0.032814,-0.023826,0.075598,0.051671,-0.261311,-0.114121,-0.160471,-0.171745,0.144852,-0.11207,-0.219882,-0.479048,0.37756,0.056391,-0.015498,-0.009854,0.160302,-0.09467,0.079704,0.235938,-0.219602,0.143799,-0.441081,-0.141154,0.014673,0.176303,0.02567,0.410331,-0.006589,0.025899,0.092818,0.069975,0.063298,0.071423,-0.062897,0.082381,0.095428,0.060857,-0.105014,0.239922,0.221995,-0.028696,0.160821,0.271065,-0.116038,0.152317,-0.171648,0.019577,-0.152968,0.121552,0.145558,-0.151139,-0.115144,0.178978,0.030602,0.21673,0.03237,-0.015507,0.087423,-0.032224,0.219746,0.070358,0.157252,-0.380886,0.048347,-0.006788,0.0541,-0.136205,-0.049009,0.112803,0.284408,0.107741,0.015981,-0.015936,-0.047272,-0.128535,0.046118,0.161613,-0.340986,-0.039425,-0.022632,-0.057926,0.206826,-0.008228,-0.080666,0.1139,-0.177339,0.284354,0.061518,-0.001853,-0.509813,-0.000973,-0.064306,0.273362,0.127919,0.047604,-0.127367,-0.076079,0.508897,0.120388,0.222115,-0.269022,-0.17409,0.153975,0.941233,0.006579,0.14869,-0.054865,0.287664,-0.437957,0.251606,0.42792,0.503064,-0.517574,-0.201552,-0.130832,0.233898,0.131606,-0.082598,0.131854,-0.208475,0.208924,0.126381,0.405507,-0.001711,-0.028269,-0.179981,0.472146,0.110358,-0.168915,-0.04833,-0.079521,-0.485211,0.489531,-0.075226,0.102116,-0.458011,0.064184,0.142608,-0.182584,-0.12867,0.501173,-0.425181,-0.058327,-0.276333,-0.009866,0.162024,-0.054862,-0.414482,0.80964,0.403713,-1.283391,-0.385625,0.889987,-0.358857,-0.48311,0.185804,-0.317925,0.853431,-0.146738,0.155029,0.154479,-0.5864,0.421745,0.041908,-0.213669,-0.069554,0.269794,0.888511,0.037258,-0.951932,-1.155475,0.474697,0.226541,-0.000179,-0.637473,0.951181,-0.361774,0.315244,0.498251,0.213332,-0.073968,0.009932,-1.144108,0.573222,0.245647,0.259223,-0.168835,-0.09709,-0.092715,-0.054585,-0.099432,-0.097012,0.03219,-0.346881,-0.578913,-0.3772,0.259712,0.657469,0.517306,-0.594742,-0.186444,-0.10926,-0.268343,0.266642,0.826411,-0.230161,0.864126,0.111552,0.06669,0.02795,-0.054421,-0.05561,0.840239,0.195011,-0.045614,0.050177,-0.231238,-0.161538,-0.250658,-0.155224,-0.078444,-0.15377,-0.011896,0.00249,0.002508,0.171078,-0.058041,0.01212,-0.065303,-0.034166,-0.125515,0.124547,-0.039419,0.136407,0.037853,-0.014852,-0.068482,0.036937,0.048218,0.017406,0.050198,0.004693,-0.076277,0.139573,0.087535,-0.180918,0.036447,-0.14731,-0.135339,0.246542,-0.06772,-0.072906,-0.01724,0.049489,0.131187,0.061562,0.092679,-0.028025,0.112044,-0.033398,0.15915,-0.133467,-0.011097,0.021446,0.048881,-0.099475,-0.20378,-0.038151,-0.207171,-0.239272,-0.199047,-0.106085,0.175841,0.043052,0.149826,-0.051946,-0.000301,0.067623,0.258103,0.235879,0.193765,-0.017153,-0.344048,-0.038294,-0.446916,-0.227166,-0.902061,0.482574,0.090866,-0.09194,0.068456,0.092981,-0.239948,-0.116125,-0.077437,-0.061459,0.296133,-0.461474,-0.520885,0.371777,-0.295932,-0.000869,0.406288,0.803053,0.237915,-0.138634,-0.221294,0.05634,-0.231057,-0.04281,-0.285207,0.254262,0.301889,-0.044112,-0.403205,-0.796907,-0.064175,0.094201,0.087556,0.023748,-0.20233,-0.066005,0.134133,-0.650226,0.331595,-0.232454,-0.185289,-0.039676,0.151956,-0.317089,-0.108781,-0.077174,-0.365994,0.562765,0.25381,0.015097,-0.211305,0.144009,-0.440473,-0.426896,0.406921,0.039267,-0.036703,0.172412,-0.323888,-0.361436,0.033721,0.115032,0.065487,-0.045861,0.162285,0.010142,-0.038882,0.272722,0.170144,0.184558,0.027028,-0.262611,0.201423,0.515925,0.001585,0.18027,-0.0709,0.150243,-0.094514,-0.071044,0.041276,0.184746,-0.063152,0.049897,-0.180691,0.086912,0.006155,-0.146751,0.271688,-0.067596,-0.101625,0.146603,0.07015,-0.141158,0.022144,0.048088,0.132196,0.151767,0.070335,-0.158073,0.156193,-0.187616,0.188919,-0.064062,0.064014,-0.149894,0.014508,0.113902,0.031334,0.066271,0.077401,-0.310197,-0.174991,0.05581,0.167216,-0.046596,0.026228,-0.01655,0.328193,0.166883,-0.147453,-0.24826,-0.40689,-0.794682,-0.097563,-0.569842,0.172605,0.108394,0.569113,0.303219,-0.275072,1.743979,-0.126461,0.55289,0.374316,0.105305,0.327867,0.874278,-0.247609,0.837851,0.006913,0.866148,-0.734203,0.194166,0.923749,-0.158251,0.00245,-0.868141,-0.853173,0.351671,-0.474481,-0.475204,0.233453,-0.037429,-0.067689,0.208283,0.159261,-0.19,-0.427268,-0.528551,0.03076,-0.384456,-0.196249,-0.271142,-0.286768,-1.130993,0.407272,0.193213,-0.075427,-0.77204,0.074982,-0.68621,-0.658076,1.430714,-0.071678,-0.801393,-0.119039,-0.28277,0.465405,-0.231323,0.347748,-0.001449,1.223246,-0.70496,-0.338243,-0.182981,-1.336006,-0.774945,-0.009846,0.043298,-0.2028,-0.890327,0.303204,0.245271,0.678449,0.699701,0.216303,-0.200028,0.854778,-0.278492,-0.18402,0.601779,0.375799,0.646507,0.613109,0.071838,-0.871005,0.410435,0.96139,0.030842,0.545038,0.208605,-0.2875,-0.256215,-0.224313,-0.023902,1.26571,-0.708502,0.148324,0.055041,0.397209,0.334833,-0.009869,-0.569538,0.14477,-0.170195,0.093295,-0.030823,0.472821,-0.275052,0.463532,-0.820906,-0.268966,0.67097,-0.035479,-0.333218,0.098593,0.162293,0.359043,-0.507727,-0.862722,-0.765664,0.065796,-0.10078,1.16663,-0.499387,0.462162,-0.584135,-0.230574,-0.065925,-0.550565,0.403479,0.110464,-0.381794,-0.603209,0.165431,0.407441,0.293519,0.906099,0.517218,0.371925,-1.191709,0.154571,-0.417237,0.066837,-0.221092,-0.006314,0.331515,0.296503,0.016036,-0.109797,-0.536063,0.817153,0.164483,-0.080451,-1.335594,0.171224,0.15365,0.083006,-0.450628,0.749484,0.389756,-0.061161,0.281265,-0.331015,-0.711049,-0.253313,-0.157142,-0.990335,-0.119016,-0.1527,-0.288925,-0.031896,-0.370999,0.166941,-0.124478,-0.094568,-0.490234,0.341824,0.137847,-0.10211,-0.130879,-0.936881,-0.937031,-0.461175,-0.650368,-0.058631,0.129563,-0.101703,0.070392,0.142054,-0.247345,0.029032,0.056495,0.179229,0.217016,0.312675,0.015019,0.111332,0.036485,-0.064387,0.11564,0.086483,0.131769,0.135894,-0.014713,-0.037016,0.111318,0.154219,-0.094027,-0.019131,-0.077045,0.075368,0.029343,0.253321,-0.135391,-0.095494,-0.031399,0.112532,0.01767,-0.136016,0.047166,-0.047112,0.143229,0.075392,0.258542,0.024601,0.060962,-0.028428,0.205051,0.060047,0.130352,-0.202841,-0.029955,0.105196,0.125075,-0.132279,0.132616,-0.037631,0.182592,-0.105839,-0.085531,-0.016016,-0.021923,0.000304,0.087051,0.154568,0.080143,0.102278,0.026402,-0.037988,0.044531,-0.034961,0.206999,-0.153802,-0.257152,-0.708324,0.130128,0.021416,-0.073838,0.294741,0.662072,-0.234909,-0.26713,-0.346667,-0.517112,0.505207,-0.638714,0.962442,-0.232857,0.62069,-0.674927,-0.191914,0.379324,0.834785,-0.683896,-0.034458,0.297966,0.454534,-1.019094,-0.372304,0.642425,0.309526,0.390246,0.320889,-0.33804,0.206558,0.044192,-0.322094,0.167769,0.126718,0.092629,0.001347,-0.244824,0.520599,-0.488008,-0.455376,-0.103409,1.14724,0.080268,0.093926,0.64128,-0.013617,-0.116863,-0.095439,0.629146,-0.376224,0.524469,0.55165,-0.084447,0.637274,0.169768,0.205949,-0.021101,0.081606,0.083332,0.324429,0.474775,-0.135108,-0.418591,0.373557,0.997099,-0.570889,0.204422,0.521016,-0.666448,-0.657876,-0.470439,0.147298,0.542306,0.262161,1.015119,0.096522,-0.360704,0.384583,-0.234753,0.365958,-0.695098,0.290203,0.142528,0.645902,0.501607,0.007667,-0.323769,0.128716,-0.343215,0.772413,-1.311596,-0.93609,0.19332,-0.462545,-0.154165,0.688309,0.614284,-0.097478,-0.278064,-1.11321,-0.52202,-0.334362,0.03443,-1.002047,-0.134406,-0.139357,0.312629,-0.027991,0.272362,-0.404121,-1.008965,-0.228945,-0.113077,0.105484,-0.613326,0.174623,0.615501,-0.947895,0.024485,-0.006116,-0.098735,0.037893,-0.152085,0.055063,-0.205591,0.063788,-0.922533,0.361875,0.287334,0.252368,-0.929907,-0.306684,-0.326549,-0.56604,-0.477365,-0.466196,-0.212884,-0.052486,-0.056505,-0.202919,0.320859,0.016328,0.298158,-0.175986,0.851441,-0.051439,0.068771,0.504346,0.139611,0.054203,-0.056709,0.33434,0.306564,0.721852,0.194885,0.019655,0.104545,0.027549,0.247649,-0.52077,0.031122,0.669006,-0.114136,-0.194007,0.544819,0.352839,0.05701,0.093297,0.200575,0.225703,0.032355,0.052866,0.055091,0.021123,0.177824,0.173065,0.015725,-0.075832,0.193897,-0.454283,0.051173,0.239347,0.240126,0.282762,0.309817,-0.197011,-0.362016,-0.069013,0.199063,-0.586388,-0.530251,-0.566484,-0.221568,0.035235,0.105941,0.214092,-0.120355,0.022193,0.048888,-0.080886,0.534357,0.225536,0.348572,-0.440158,0.059785,-0.362259,-0.284106,0.062643,-0.269579,0.051553,-0.112413,-0.389762,0.62396,-0.323506,0.410191,-0.074232,0.034102,-0.179591,-0.159625,-0.106267,0.088926,0.310989,0.01452,0.383741,0.21787,-0.214114,-0.047903,-0.404327,0.023222,-0.564493,0.163125,-0.424633,-0.028848,-0.702465,-0.358088,0.024313,-0.521364,0.19792,-0.225776,-0.018639,-0.17026,0.547962,-0.28131,0.206948,-0.226186,-0.150732,-0.269218,-0.138734,-0.209694,0.481956,0.742714,-0.237671,-1.024061,0.620128,0.131876,-0.615841,-0.804686,-0.400655,0.726475,-0.010556,0.107053,0.692848,0.228663,0.760274,0.104439,0.353404,-0.053346,0.013806,-0.395061,0.313598,-0.168333,0.011427,-0.362605,-0.131929,0.600441,0.426171,-0.47476,0.072141,-0.508583,-0.071731,-1.19995,-1.177165,-0.820918,-0.029012,0.244745,0.38388,-0.512327,0.824204,-0.043751,-1.084077,0.231301,-0.095412,-0.000281,-0.259862,-0.241394,-0.176108,-0.069757,-0.26028,-0.351946,-0.117347,0.013749,-0.482602,-0.417007,0.012413,-0.095723,0.444562,0.323885,0.441003,-0.484846,-0.183641,-0.490819,-0.370392,-0.747247,0.333774,0.339351,0.261886,-0.135614,-0.2407,0.224597,0.537599,-0.671338,0.656547,-0.829589,-0.960844,0.188318,0.692468,0.186173,-0.381955,-0.001097,-0.131589,0.279578,-0.837294,-0.13636,-1.41499,-0.07256,0.527169,0.395396,-0.303607,0.058664,-0.718668,-0.718017,0.589163,-0.167819,0.142634,0.352562,-0.910208,0.032266,1.036326,0.836609,0.072587,-0.66094,-1.43523,-0.463834,-0.360114,0.57285,1.005234,-0.098715,-0.2788,0.892718,1.009578,0.326793,-0.272039,-0.469006,-0.253945,0.19367,0.76071,0.876592,0.550503,-0.743532,0.517515,0.169674,0.218516,-0.726055,0.098609,-0.788259,0.136599,-0.192379,0.413746,0.071981,-1.21126,-0.210097,-0.553616,0.984703,-0.022152,0.138758,-0.059389,0.189455,0.460011,0.080746,0.176725,0.132279,0.177269,-0.078086,-0.18596,0.118268,0.039872,-0.00986,0.130488,-0.096874,0.284623,-0.194446,-0.175973,0.283976,0.295098,0.031487,0.220611,-0.162398,0.048192,-0.136853,-0.078957,-0.211199,-0.211204,0.028573,0.053409,0.049832,0.026427,0.248249,-0.099349,-0.144512,0.164083,0.127003,-0.118831,0.100975,-0.506849,0.015957,-0.034575,0.120358,-0.121671,-0.097326,-0.208343,0.085763,0.116911,-0.075022,-0.063181,0.018806,0.027518,0.116329,-0.020935,-0.011072,0.120727,0.088324,0.076271,-0.090202,0.040886,0.12544,0.117436,-0.213737,-0.172755,0.001494,0.013668,0.031272,0.414988,0.239255,-0.098374,0.022505,0.125196,0.043944,-0.025348,-0.126831,0.145211,-0.035627,0.205951,-0.023973,0.114649,0.003661,-0.04782,0.019304,0.140084,-0.034788,0.149569,-0.262463,-0.105849,0.14649,0.03549,0.039888,-0.083667,0.034308,0.02027,0.147085,0.130592,0.287578,0.113765,-0.09416,0.033334,0.124567,-0.063876,0.012919,-0.190423,0.023135,-0.00724,0.052039,-0.101294,-0.106107,-0.058096,-0.024014,0.072207,-0.147415,-0.245959,-0.025589,0.150431,0.012538,0.247089,0.05572,0.124749,0.089679,-0.032601,-0.089273,-0.01436,0.219704,0.135255,-0.310643,-0.065092,-0.163671,0.106085,-0.365364,-0.108519,-0.068579,-0.082057,-0.085044,-0.146338,-0.04522,0.117919,-0.14386,0.070038,-0.008837,-0.135432,-0.042002,-0.28968,0.052989,-0.049813,-0.245726,-0.086199,-0.169893,-0.053973,-0.087503,-0.100552,-0.050926,-0.028365,0.087175,0.202379,-0.148558,-0.057223,-0.082317,-0.249259,-0.069572,0.061635,-0.09778,0.025013,0.105281,-0.033618,0.163283,0.035618,-0.157701,-0.003627,-0.013117,0.184535,0.186637,0.142176,0.314603,0.033471,0.207461,0.186845,-0.108125,-0.021287,0.042954,0.049996,0.003692,0.008463,0.123434,-0.060487,0.264054,0.021751,-0.118807,-0.255901,0.049005,-0.166876,0.214494,0.36168,-0.178398,0.013858,0.088107,-0.091744,0.0367,-0.320277,0.048901,0.053811,-0.232433,0.091677,0.03064,0.097303,-0.15095,0.075505,0.17045,-0.058275,-0.257542,-0.029373,0.059811,0.236459,-0.092723,-0.017961,0.245902,0.211417,0.236066,0.017805,0.156775,-0.004342,0.077476,-0.294664,0.326022,0.041136,-0.077252,-0.213726,-0.124019,-0.048921,0.152118,-0.293784,0.174461,-0.123026,0.095256,-0.021083,0.23315,0.02441,0.087388,0.123627,-0.116909,0.012751,-0.185537,-0.159168,0.138306,-0.01263,0.14267,0.209064,0.110673,0.026718,-0.005777,-0.252585,0.082291,-0.155897,-0.21393,0.471006,-0.03054,0.501216,0.33208,0.785892,-0.256905,0.184454,0.40169,-0.037338,0.234157,-0.25227,0.820867,-0.319811,0.076922,0.322088,0.117041,-0.024801,-0.961806,-0.422467,0.148073,0.399076,0.069593,0.016056,0.935857,0.235564,-0.524298,0.256808,-0.434164,-0.158669,-0.184418,0.281288,0.041249,0.341352,0.212271,-0.295125,-0.412867,0.202574,0.192289,0.005115,-0.365228,-0.294733,-0.453579,0.003008,0.072664,-0.087528,0.183562,-0.066878,-0.006812,0.202986,-0.205737,-0.15675,-0.34076,0.187303,0.340388,-0.436747,0.142767,-0.029119,-0.483417,-0.030464,-0.009301,0.250151,-0.437839,-0.024397,-0.298636,-0.067306,0.045211,0.015739,-0.099341,-0.064014,0.066158,-0.289758,-0.162374,-0.047193,0.127521,0.149602,-0.064476,-0.040621,-0.270961,0.003181,-0.149264,0.034012,0.05129,-0.023982,-0.128832,-0.179305,-0.023748,0.070258,-0.147436,0.184835,0.014775,0.265325,-0.081821,0.10286,0.065273,0.003524,-0.225147,0.109539,0.277448,-0.079598,0.113875,-0.221275,-0.257382,0.044657,0.110864,-0.219605,0.101037,-0.058348,-0.008871,-0.031128,-0.051948,-0.022741,-0.219362,-0.071007,-0.016004,-0.144943,0.239543,0.008223,0.036537,-0.181158,-0.034654,-0.020656,-0.079147,0.149899,0.065399,-0.104326,0.117871,0.01496,-0.025766,0.154432,-0.046606,-0.090883,0.385248,0.012216,-0.310724,0.122156,0.061199,0.198579,0.191975,-0.24694,0.060316,-0.098049,0.137354,-0.130616,0.085039,0.098017,0.103797,-0.153818,0.054001,0.142489,0.283766,-0.268198,0.118392,0.155467,0.12608,-0.236136,-0.261684,-0.103917,0.244729,0.056247,-0.187443,-0.026175,-0.050264,0.138928,-0.249597,0.333844,-0.174658,-0.260338,-0.167083,0.303329,-0.006152,-0.188767,-0.219284,-0.004833,-0.328652,0.013096,-0.409414,-0.031715,-0.310005,-0.025783,-0.08542,0.183953,-0.129205,0.001184,-0.024713,-0.023377,-0.11886,-0.001139,-0.168125,0.064954,0.11153,0.195652,0.26979,0.173004,0.113105,-0.247963,-0.05866,-0.553798,-0.147921,-0.147372,-0.011594,0.236089,-0.102105,-0.058211,-0.375684,0.212738,0.198772,-0.196996,0.109588,0.080729,0.376645,-0.135333,-0.171667,-0.467008,-0.025844,-0.226518,-0.070199,-0.105105,0.471614,-0.072454,0.210354,0.116089,-0.175014,-0.375881,-0.030185,-0.278428,-0.284095,0.371533,0.149767,0.257182,-0.34563,-0.014767,-0.089016,0.656448,0.189817,0.23188,0.082593,0.251044,-0.078274,0.437998,0.033108,-0.149488,0.17766,0.028189,-0.133638,-0.296381,0.083497,-0.19164,-0.078619,-0.094953,-0.112329,-0.104191,0.063335,-0.069256,0.011422,0.29584,0.266896,0.262097,0.151033,-0.206932,0.417269,0.181675,-0.366409,-0.149881,0.109801,-0.100599,0.297397,0.188988,0.379582,-0.052898,0.099745,0.049731,-0.326122,0.230839,-0.515212,0.205049,-0.012394,-0.427251,0.163062,0.016716,-0.219202,0.254851,0.184904,0.382864,-0.623708,-0.100497,0.238743,-0.211295,-0.061133,0.129436,0.621242,-0.073857,0.295962,-0.1873,-0.512489,-0.190155,-0.001943,-0.361786,0.232794,-0.183342,-0.143154,-0.079021,0.23229,0.135691,-0.185519,-0.001401,-0.424673,-0.139152,-0.125503,-0.030038,0.029094,-0.589096,-0.189296,-0.000774,-0.073726,0.001038,0.255095,-0.190753,-0.073848,0.331433,-0.342729,0.896829,0.217094,-0.06237,1.115424,0.708181,0.243771,-0.81044,-0.286145,-0.506875,-0.423492,-0.135814,-0.297478,0.060742,-0.754711,0.696976,0.182116,-0.333437,-1.38552,0.441378,0.418187,1.036895,-0.518867,0.44658,-0.921729,0.222973,-0.589993,0.575688,-0.785959,0.262516,-0.104069,0.772149,0.012833,0.052614,0.242374,-0.228069,-0.034115,-0.227468,-0.175326,0.412341,-0.494945,-1.454374,-0.147846,0.297924,0.003951,-0.034758,0.25623,-0.598341,0.012336,0.277599,0.250006,0.487277,0.534526,0.709585,-0.152268,-0.353508,0.539319,0.175193,-0.088616,-0.226892,0.062632,0.14602,0.829687,-1.461311,-0.795527,-0.506715,0.185917,-0.025013,0.626146,0.661759,-0.418959,0.047331,0.214208,0.038232,0.448462,0.534062,0.434052,-0.220317,-0.093547,0.054275,-0.421544,0.087688,-0.356111,0.255449,-0.183249,-0.072416,0.777788,-0.587363,0.375739,0.064762,-0.061653,-0.326221,-0.364107,-0.233722,0.088731,0.184851,-0.01585,0.684147,0.240406,-0.197431,-0.05609,-0.229562,-0.659096,-0.261178,-0.136769,-0.550427,0.13771,-0.477279,-0.418782,0.091417,-0.183971,0.131946,-0.835696,-0.028215,-0.253914,0.227548,-0.55733,0.209703,0.005847,-0.166633,-0.07056,-0.107461,-0.49459,0.359614,0.647113,-0.079198,-0.90693,0.849393,-0.001069,0.170586,-0.010755,0.150994,-0.30254,-0.512903,0.03067,0.099397,-0.013333,-0.219207,0.137055,0.01287,0.041234,0.03082,-0.184438,-0.592395,0.034469,0.201895,0.229081,-0.072367,-0.068848,-0.120941,-0.228981,0.31999,-0.20579,0.083707,0.196472,-0.075229,0.203476,0.223647,0.320184,-0.032816,-0.194874,-0.467718,-0.11084,-0.212091,0.1602,0.221877,-0.136519,-0.049083,0.387046,0.351852,0.196583,-0.005209,-0.100306,-0.040767,0.058911,0.177795,0.077959,-0.050826,-0.155468,0.199518,-0.072469,-0.03353,-0.426809,0.131028,-0.200078,-0.00314,0.108317,0.005781,-0.18127,-0.415148,0.123166,-0.050763,0.264073,0.621415,0.304291,-0.360175,0.907346,-0.579203,0.04772,0.663703,-0.438003,1.047598,-0.28172,-0.374095,-0.298499,-0.45572,-0.137485,-0.835482,0.730785,-0.030365,-0.637769,0.220903,1.091691,1.280139,-1.410582,0.415416,-0.370159,-0.259467,-0.752985,-0.708155,-0.224984,0.400838,0.372952,-0.885577,-0.186497,-0.376371,-0.546886,-0.149068,-0.024681,0.50581,0.469342,-0.003822,0.531527,0.259492,0.441948,0.016593,0.265697,0.262439,0.229683,-0.335545,-0.698044,0.006009,0.438118,0.603647,-0.110593,0.116587,-0.623335,-0.106722,0.293192,-0.263681,0.633116,-0.470489,-0.117723,-0.532237,0.988125,-1.477091,0.709622,-0.359228,0.042772,-0.444691,-0.244229,0.379763,-0.179467,0.042204,-0.287686,0.367801,-0.266948,0.099161,0.129365,0.028923,0.234502,0.475125,-0.173797,-0.386665,0.227213,0.143975,0.193738,0.321406,-0.063037,-0.240741,-0.070769,-0.039629,-0.452716,0.108227,0.308615,-0.072716,-0.264576,0.053115,0.240173,0.515981,-0.001012,0.084488,0.010257,-0.216207,0.105749,0.244177,-0.322473,-0.296865,-0.169683,0.313551,0.097862,-0.021661,0.138941,0.113761,0.106172,-0.080676,0.453831,-0.211884,-0.159097,-0.131686,0.560018,0.129418,-0.338572,-0.25659,-0.261064,-0.058606,0.173816,0.704855,-0.042312,-0.051098,-0.52493,-0.164146,0.056454,0.000306,0.268905,0.134403,-0.20088,-0.366683,-0.202228,-0.107049,0.050068,0.036901,-0.021549,0.333917,0.334004,0.301154,-0.23318,0.100773,-0.191015,0.387168,-0.083172,0.499187,0.38937,-0.419694,0.092556,0.301156,-0.064142,0.45979,0.236785,-0.408798,-0.649653,0.301049,0.568053,0.22356,0.525741,0.076506,0.106529,-0.483641,0.086509,0.302353,-0.51566,-0.400509,-0.483056,0.082562,0.258557,-0.059566,-0.167041,-0.397707,-0.142546,-0.119997,0.113903,-0.351876,-0.232061,-0.756327,0.550167,-0.238764,0.367022,-0.061457,-0.175935,-0.379815,0.326638,0.601514,-0.474078,0.188232,-0.351549,-0.429339,-0.249838,0.232386,-0.287211,0.184844,-0.134104,0.060732,0.176949,-0.153572,-0.197823,0.153896,-0.043424,0.02704,0.148431,0.135909,-0.095071,-0.074967,0.375984,0.033859,-0.276002,-0.074066,0.105413,-0.069939,-0.173313,-0.007944,0.109144,-0.071169,0.395242,0.140844,-0.161019,-0.061505,0.046759,-0.086906,-0.25522,0.208471,-0.018522,-0.01598,0.020024,0.15992,0.094738,0.005844,-0.004792,0.237284,-0.034485,-0.015879,-0.074563,0.508281,0.516815,0.079974,0.0945,0.172117,-0.182302,-0.139318,-0.045587,0.435516,-0.038168,-0.076703,-0.00146,-0.196719,0.234333,-0.088562,-0.038547,0.080669,0.091409,-0.693444,-0.267812,-0.868657,-1.727269,0.074248,-0.281173,0.904023,-0.241758,0.52385,-0.183475,0.265052,0.896043,0.03505,0.494419,-0.124074,-0.3971,0.191823,1.671741,-0.240777,0.760998,-0.124776,-0.164286,-0.429644,0.39481,0.929766,0.014724,-0.639827,0.789613,-0.38144,0.120435,-0.110535,-0.019383,0.687313,-1.09674,-0.034153,0.269905,1.263488,0.579887,-0.127096,0.026638,0.815121,0.468986,-0.024388,-0.388414,0.288768,-0.763986,0.932436,-0.068349,-0.13138,-0.422758,-0.374465,-0.041561,-0.464899,0.194102,1.204009,-1.236711,-0.687071,-0.461464,0.381061,0.001808,0.627477,-0.425464,0.881185,0.12232,0.090401,-0.283976,-0.288232,0.129067,-0.033491,-0.197453,-0.16448,-0.137089,0.465223,-0.222177,-0.126451,-0.031613,-0.013068,-0.072424,0.246486,0.104238,-0.045727,0.346552,0.072469,0.192168,0.571995,-0.246111,-0.132081,-0.391257,-0.039815,0.004682,-0.025486,-0.24015,0.101961,0.098997,0.213274,0.010407,0.194039,0.064399,-0.004962,0.163356,-0.130243,-0.005291,0.216243,-0.121452,-0.075343,-0.06965,0.29768,0.019686,-0.037844,-0.068752,-0.176296,0.180505,0.116498,0.062689,0.050191,0.187449,-0.155996,0.090859,-0.077448,-0.370463,-0.318899,-0.078111,-0.182299,-0.074158,0.251683,0.257316,-0.134636,-0.257022,-0.327316,0.164881,0.502718,-0.677757,0.250099,0.589091,0.372221,0.182697,-0.401456,-0.596293,-0.219413,-0.597318,-0.235694,0.827065,-0.113596,-0.089056,-0.076745,0.19911,0.114346,-0.283522,-0.409248,-0.003809,-0.017207,0.385726,-0.166582,0.592938,0.200492,1.865619,0.590666,-0.265074,0.136599,0.396882,-0.594625,-0.435799,0.540896,-0.003328,1.279391,0.708662,0.427109,0.028856,0.634904,0.347466,0.474355,0.134351,0.176759,0.237541,0.386919,0.396362,0.094423,0.081959,-0.61259,0.165269,0.004286,-0.517866,1.416832,0.493113,-0.021256,0.318198,-0.303904,-0.267867,-0.070826,0.300019,-0.013973,0.436543,-0.103761,-0.310454,-0.330449,0.141348,0.010263,0.029004,-0.031168,0.144557,0.298795,0.013365,-0.114585,-0.185213,-0.074807,-0.094116,-0.002393,-0.073145,0.077032,0.337975,0.020973,0.100909,-0.295314,0.094977,-0.163417,0.001554,-0.012477,0.231062,-0.373326,0.2063,0.115979,0.162543,0.122259,-0.088107,0.220822,-0.04945,-0.154426,0.202613,0.260962,-0.09561,-0.19012,-0.106102,0.320796,0.080146,-0.055855,-0.312134,0.127965,-0.098523,0.035485,-0.166562,-0.083941,0.078423,-0.218178,0.2312,-0.003162,-0.221711,0.348551,-0.104632,0.006322,0.099199,0.259509,0.147617,0.20556,0.076868,0.173764,0.336382,0.115004,-0.592068,0.039023,1.414161,-0.282115,0.314304,0.525896,0.31521,0.698299,-0.341681,-0.853765,-1.876737,1.051976,-0.336499,-0.587639,0.613568,0.203551,-0.228142,-0.314911,0.100591,-0.043398,-0.806556,0.715988,-0.333658,-1.992398,-0.716099,-1.521011,0.662222,0.233058,0.139099,-0.288003,-0.026178,-0.593248,-0.106284,-0.505949,-0.11919,-0.4441,0.015196,-0.245753,-0.176101,0.547113,-0.091794,0.50299,0.429178,-0.024385,0.1026,-0.995832,0.551098,-0.341093,0.483692,-0.253203,0.741881,0.133203,-0.353593,-0.210087,0.405028,0.031215,0.512071,-0.343314,-0.261552,0.038949,1.019051,-1.343092,1.086048,-0.243492,-0.059274,0.386653,-0.627442,-0.800244,0.255947,0.11805,0.560869,-0.488976,-0.073264,-0.815888,-0.505434,0.275183,0.952119,-0.076099,0.364202,-0.016503,0.862962,-0.326609,-0.619223,-1.320874,0.762547,0.007172,0.139182,-0.755546,0.872286,-0.083981,0.914666,0.273897,0.000982,-0.133266,-0.108463,-1.261042,-0.003457,0.540903,-0.029051,-0.061166,-0.594538,-0.046122,-0.171214,1.020533,-0.232733,0.375003,-0.200996,-0.165694,-0.662691,0.413454,1.535385,0.140433,0.094072,-0.12592,0.28233,-1.066215,0.197776,0.21507,-0.0027,0.672524,0.747403,-0.031686,-0.269562,-0.054386,0.254442,0.678405,0.336871,-0.211192,-0.438917,-0.508711,1.448701,0.729612,0.007649,-0.398387,-0.17548,0.439902,0.041766,-0.137267,-0.158258,0.111816,-0.699593,0.511716,-0.208841,-0.122841,-1.080721,0.329571,-0.039649,0.562746,-0.4161,0.1641,-0.669284,-0.008165,-0.597506,-0.118846,-1.148326,-0.308761,0.066113,0.425281,-0.246904,1.085084,0.449641,-0.552522,-0.102242,-0.348407,0.200408,-0.157181,-0.383355,-0.912968,-0.179217,-0.025459,-0.258204,-0.182769,0.10172,-0.894921,-0.117801,0.093954,0.098831,0.210343,0.319508,0.660425,0.303222,-0.99827,0.145184,-0.096911,-0.641878,0.012478,0.18982,0.118075,-0.126257,-0.399948,-0.283681,0.394012,0.563777,-0.505782,0.47984,0.199403,-0.053415,0.710448,-0.419395,0.48346,-0.137245,-0.244779,0.275978,0.491919,0.302649,-0.173554,0.199876,0.383943,-0.301333,-0.036916,0.561224,0.50692,-0.611536,0.252359,-0.220716,-0.168999,-0.303859,-0.131948,0.100099,-0.717063,-0.05865,-0.921776,-0.078187,0.376665,-0.44391,-0.323827,0.077214,-0.097828,0.17252,0.034987,0.212773,0.487223,0.276514,-0.050254,0.723551,0.355345,0.622284,-0.317988,-0.293784,-0.469691,0.166754,-0.309923,-0.447424,-0.12414,-0.004778,-0.662835,-0.217794,-0.20112,0.303245,-0.034306,-0.387442,-0.226798,0.376234,-0.051546,-0.042793,-0.257928,-0.246052,-0.002933,0.302731,0.122498,-0.246758,0.156801,0.03901,0.159246,0.017151,-0.029079,-0.111364,-0.022792,-0.013204,0.165342,-0.026907,-0.132446,-0.242049,0.190734,0.117125,0.207909,0.077004,0.013314,0.017106,-0.19886,-0.172371,-0.158867,-0.04775,0.01783,-0.194909,0.118941,0.064771,0.115276,0.114784,0.04642,-0.102936,-0.034023,0.004952,-0.00089,-0.255151,-0.120308,-0.105743,0.091371,-0.067261,-0.014978,-0.047061,-0.081,0.16727,-0.00866,0.21111,-0.061359,-0.026348,-0.037756,-0.023557,-0.14551,0.060927,-0.096017,-0.247985,-0.144859,0.222022,0.055807,0.00551,-0.076801,-0.094832,0.907307,0.840976,0.202949,0.336638,-0.581794,-0.59577,-0.553703,-0.000522,-0.277462,-0.181502,-0.809502,-0.985627,0.282607,0.269044,-0.393849,1.493642,-0.065779,-0.66719,-0.450307,-0.18787,-0.372185,0.977517,-0.313213,0.346234,-0.939079,0.323641,0.227262,0.248973,-0.068495,-0.186019,-0.392644,0.346179,-0.297164,-0.208979,0.931993,-0.986729,-0.592236,-0.987836,0.211523,-0.066698,0.557866,0.018459,0.19602,0.399618,0.238112,-0.247464,-0.19147,-0.261816,-0.197475,0.167792,0.055728,-0.475444,-0.924966,0.090015,-0.539745,1.799498,0.448004,1.627459,-0.594549,-0.983213,-0.185082,0.278335,0.392698,0.075264,1.444963,1.552563,-0.07885,0.032627,-0.73669,-0.34974,-0.857426,0.043212,-0.165618,0.128465,-0.168459,-0.228059,-0.248107,-0.118637,-0.265325,1.311686,0.569887,0.604072,0.67282,0.194393,0.828539,-0.110757,0.236887,-0.194534,0.050889,-0.310149,0.316109,-0.313485,-0.694222,-0.109935,-0.561308,-0.199787,-0.088998,-0.397237,0.097965,0.066122,-0.154428,0.286888,0.215837,0.221296,0.492059,0.460459,-0.173431,0.831916,-0.059453,0.672731,-0.351907,-0.414871,0.062162,-0.06315,0.158479,0.026775,-0.296087,-0.117753,-0.782776,0.168821,0.228224,1.169788,-0.045641,-0.799403,-0.042553,0.607631,-0.6193,-0.220052,-0.089124,-0.074197,0.448862,0.335472,-0.310994,0.207597,-0.385536,0.150452,-0.38761,0.036329,0.010423,-0.57826,-0.05594,-0.006106,-0.190033,0.062308,-0.066925,-0.208101,0.072384,-0.375536,-0.042343,0.025572,0.140858,-0.272611,-0.492178,0.08943,0.158075,0.016021,0.323378,-0.068031,-0.078521,0.01909,-0.558098,0.552713,-0.021571,-0.167851,-0.339208,0.120676,-0.025585,0.180725,-0.252401,0.179256,-0.2014,-0.082184,-0.228947,-0.060337,-0.365713,0.140494,0.098696,0.080914,0.087219,0.158857,-0.04301,0.00815,0.032059,0.685191,0.421483,0.515079,-0.037089,-0.121423,-0.401861,0.159971,-0.277874,-0.035903,-0.58316,-0.761933,0.104845,-0.388326,0.381279,0.024629,0.289717,0.101765,0.182299,-0.290234,0.038154,-0.056255,-0.054384,-0.188731,0.138082,-0.45151,-0.212166,0.640682,-0.068536,0.096659,0.02347,0.001314,-0.257813,0.071663,-0.01789,-0.09636,-0.602521,0.225541,0.442118,-0.194503,0.482137,-0.052026,-0.106372,-0.349429,-0.050801,0.010748,0.264411,0.513949,0.065061,-0.280498,0.184958,-0.268521,0.069399,-0.286644,-0.138266,0.032424,0.161508,0.433274,0.31793,-0.07119,0.089272,0.276873,0.014978,0.080159,0.566974,-0.634411,-0.165627,-0.277157,0.066585,0.38331,0.151072,-0.454163,0.050669,0.157989,-1.608378,-0.642777,0.652708,-0.161145,0.404771,0.128387,0.461429,0.746886,-0.027076,-0.031537,0.162961,-0.452754,0.370365,0.598636,0.162748,-0.857693,-0.098364,0.133806,0.298762,-0.948531,-1.761019,1.300044,-0.179453,0.526461,-0.680895,0.607426,-0.42164,0.620913,0.499026,0.017423,0.453012,-0.079143,-0.280653,0.425932,0.293448,0.201687,0.116533,-1.266103,-0.398718,-0.187469,-0.142877,-0.255505,0.123792,-0.462578,-0.147867,0.069656,1.05577,0.900014,0.427979,-0.35266,-0.161043,-0.028837,-0.798316,0.092213,0.711726,-0.677352,0.285635,-0.274904,0.016392,0.88849,0.047818,-0.780761,1.552501,0.53207,-0.00996,0.0285,-0.643259,-0.061583,-0.170487,0.130552,0.218126,-0.053863,0.792999,-0.085901,-0.200876,0.266962,-0.31331,0.029667,-0.00317,0.179107,0.258596,-0.074374,-0.136334,0.539263,0.103516,-0.51785,0.212359,0.162407,-0.092108,-0.46362,-0.215183,0.12675,-0.082759,0.248758,-0.088804,-0.376169,0.37146,-0.27969,-0.373198,0.214803,0.318296,0.440488,-0.14566,-0.056198,0.16294,0.220223,-0.06159,-0.182596,-0.060065,0.151269,-0.219516,-0.44639,0.168185,0.063227,-0.187786,0.277306,0.203777,0.03582,0.244163,-0.014357,-0.137994,0.066377,0.255618,-0.464861,0.406588,0.273657,-0.049765,0.210046,-0.24947,-0.153225,0.277398,-0.070826,0.102279,-0.100735,0.040895,-0.075152,-0.051838,-0.150132,0.010023,0.028939,0.109247,0.087385,0.006158,-0.080453,-0.106916,0.16759,0.033511,-0.003629,0.187858,-0.011104,-0.121536,-0.000973,-0.003748,0.041573,0.062738,0.246495,0.018989,-0.149619,0.086895,0.135389,-0.048972,-0.10724,0.145687,-0.078709,0.060481,-0.042988,0.017152,-0.036914,0.21809,-0.024735,0.024893,0.161634,-0.082163,0.033093,0.130901,0.257265,0.002354,-0.005549,0.075048,-0.251585,-0.104326,-0.015421,0.045798,-0.303354,0.019958,-0.012701,-0.125744,0.140234,-0.151368,-0.12556,0.081671,-0.120913,-0.487205,-0.843094,-0.542518,-0.1688,-0.627842,-0.528994,-0.406859,0.154733,0.388834,-0.029723,0.662421,-0.047408,0.955345,-0.207942,0.31767,-0.9036,-0.287559,1.235655,0.62244,0.312806,-0.482976,0.433656,-0.947054,-0.074666,0.319813,0.139355,-0.406357,0.09461,0.351395,-0.349709,-0.165404,-0.141999,0.514376,-0.110444,0.483397,-0.198889,-0.017931,-0.006405,-0.222868,-0.420692,-0.052018,-0.531726,0.049144,0.278643,-0.078015,-1.301621,0.702425,-1.008019,-0.005738,0.416359,0.352155,-0.502533,-0.369874,0.170348,-0.184129,-0.796032,-0.280576,-0.501438,-0.296727,0.417497,0.292954,-1.256001,1.099132,0.033213,-0.262041,-0.042673,0.056045,-0.193929,-0.169523,-0.251593,0.018043,-0.058593,0.228732,-0.372628,0.028549,-0.224313,0.18064,0.308391,-0.007767,0.107236,-0.133157,0.409583,-0.131394,0.022714,-0.089751,0.047968,-0.006261,-0.161056,-0.290556,0.099656,-0.296416,0.4832,-0.292976,-0.232365,-0.078566,0.165838,-0.290918,-0.196323,0.367539,0.079808,-0.047545,-0.22403,0.019069,0.028322,0.306688,-0.074997,0.316936,0.443824,0.098581,-0.148843,0.286348,0.433126,-0.048722,0.216142,0.204566,-0.399938,-0.598613,0.087562,0.008802,-0.012682,0.053061,0.288558,-0.43589,0.018536,-0.034919,0.162226,-0.056879,0.206455,0.275237,-0.182382,0.047658,-0.359444,0.613284,-0.624296,-0.061801,0.21191,-0.123809,0.10532,0.241285,0.90769,-0.157009,0.578032,0.06954,-0.576157,-0.199996,-0.390914,-0.127866,-0.35996,-0.244275,1.155944,-0.335386,0.638108,0.31236,0.042536,-0.009361,-0.29349,-0.198226,-0.345708,-0.532106,0.19007,-0.080557,-0.027569,0.448144,-0.071685,0.289518,-0.932692,-0.284219,-0.150213,0.094943,-0.335372,-0.044698,0.351314,0.258684,-0.399277,1.020029,0.227162,-0.163046,-0.228051,0.16727,-1.636624,-0.109063,0.212628,-0.454165,0.004276,-0.219869,-0.455967,-0.318235,0.590476,0.165235,-0.95348,0.587173,-0.327122],"bias":[0.282025,-0.058638,-0.114305,-0.079623,-0.054753,-0.24631,0.037789,0.094224,-0.018374,0.046051,-0.130811,-0.114737,0.048161,0.073702,-0.035517,0.522707,-0.110879,-0.236856,0.009174,0.216414,-0.353028,0.025423,0.137056,-0.100533,-0.009696,0.022119,-0.160914,-0.092122,0.181497,0.210505,-0.042995,0.060881,-0.03538,0.055438,-0.078876,0.108936,-0.19906,-0.093293,0.130887,-0.034074,0.123553,-0.365073,-0.041061,-0.089312,-0.119366,-0.100762,0.117634,-0.069936,0.030543,-0.059087,0.101127,-0.016691,-0.410101,0.112045,-0.347864,0.069016,-0.031576,0.221309,0.266935,-0.052238,0.053811,-0.234251,-0.054485,-0.254143]},{"inputSize":64,"outputSize":4,"activation":"linear","weights":[-0.022253,0.005497,0.022547,0.096971,-0.135982,-0.091031,0.094222,0.000875,0.003638,0.168354,-0.213883,-0.044136,0.08971,-0.03254,-0.034491,0.005904,-0.21727,0.005047,-0.175571,0.008781,0.00176,-0.012256,0.137718,-0.008469,0.002202,-0.109976,-0.029759,0.011845,0.011308,0.089852,0.120508,-0.083641,0.037857,0.005999,-0.07735,0.049274,-0.137276,0.074334,-0.006427,0.006841,-0.117827,-0.001203,-0.05771,0.024974,-0.122374,-0.004717,0.061344,0.00064,-0.053137,0.00473,0.006466,-0.003759,0.000696,0.100581,-0.004281,0.000268,0.115813,-0.008627,0.002397,0.001596,-0.070406,0.003044,0.013986,0.009251,0.093503,0.010798,-0.137216,0.033427,0.190569,0.012252,0.11284,-0.002028,-0.002954,0.013399,0.133448,-0.120329,-0.065997,-0.184739,0.022066,-0.007637,0.059446,0.023096,-0.208919,0.002237,0.011074,-0.012233,-0.270845,0.013077,-0.007421,-0.225674,0.029954,-0.00887,0.0081,-0.170048,-0.422186,0.200906,-0.250646,0.00491,-0.121893,0.215109,0.000698,-0.069534,0.00623,-0.065186,0.139393,0.006778,-0.110612,0.185063,0.019721,-0.004318,-0.190139,-0.006883,-0.091478,0.001271,-0.002265,-0.016324,0.001086,0.069374,0.003156,0.000655,0.024329,-0.008382,-0.002853,0.040012,0.05935,-0.002879,0.011527,0.00254,0.343091,0.060528,-0.536976,0.253857,-0.454629,-0.211912,0.392715,-0.111729,-0.065198,0.225719,-0.232028,0.780469,0.591982,0.433724,-0.289822,0.054594,-0.348512,-0.242758,-0.273265,-0.28067,-0.228912,-0.002619,0.410589,0.011363,-0.078281,0.512648,-0.141655,-0.059405,0.023024,0.144805,0.275477,0.317544,0.305573,-0.007243,-0.429671,-0.530741,-0.213835,-0.370803,0.137088,-0.112919,-0.098457,0.001452,0.354671,0.35373,0.538623,-0.04524,0.461344,0.003986,-0.558467,0.089399,0.057957,0.074137,0.002423,0.407605,-0.065677,-0.103824,0.026668,0.370897,0.033701,-0.476164,0.608572,-0.093671,0.497416,0.057008,0.589306,-0.032615,-0.51204,0.27411,-0.386987,-0.450913,0.521513,-0.128073,-0.017784,0.372533,-0.168927,0.527754,0.253444,0.355224,-0.520717,0.011912,-0.339939,-0.253495,-0.61168,-0.203689,-0.221968,0.04445,0.435476,0.152226,0.011584,0.205054,-0.359018,-0.12837,0.126662,0.25841,0.283635,0.660272,0.339551,0.278244,-0.404847,-0.697825,-0.424409,-0.569583,-0.082883,-0.419045,-0.315036,0.006049,0.543571,0.491814,0.455769,-0.087276,0.109712,-0.049568,-0.494706,0.133389,-0.016408,-0.010826,-0.111565,0.588004,0.05081,-0.103012,0.334872,0.460856,0.057218,-0.32498,0.453215,-0.178833,0.590866,0.013267],"bias":[-0.052822,-0.059704,0.165339,0.244465]}]}
