{"format":"ratass-rl-policy-v3","source":"ray-rllib-ppo","objective":"race-route-progress-v1","observationSize":29,"actionSize":2,"output":"first actionSize outputs are deterministic direct throttle and turn controls","layers":[{"inputSize":29,"outputSize":128,"activation":"tanh","weights":[0.070885,0.066098,0.057963,-0.343478,0.143576,-0.102777,-0.048274,0.052793,0.0486,-0.00621,0.147311,-0.04265,-0.881299,0.263092,-0.080021,0.213142,-0.225194,0.135823,-0.001956,-0.197629,0.066012,-0.14218,0.046924,0.02275,0.06655,-0.157189,0.144316,-0.074363,0.019438,-0.055954,0.089743,0.106624,0.253683,-0.036077,0.266528,0.118597,-0.115261,-0.146158,0.086427,0.16536,0.240537,2.495175,0.413849,0.297359,-0.409482,0.224215,0.032917,-0.062665,0.105816,-0.108045,0.053157,0.012711,0.137974,0.124107,-0.026035,-0.234301,-0.116587,-0.028041,-0.013687,0.010821,-0.141448,0.093905,-0.045572,0.201217,0.081227,0.175023,0.00795,-0.175926,-0.285863,0.46597,1.394199,-0.553859,-0.339529,-0.031039,-0.369328,-0.385136,0.130523,0.168261,-0.16194,-0.022204,-0.093589,0.088807,0.246294,-0.016475,0.003327,0.186898,0.190295,-0.154295,-0.107067,-0.060133,0.505135,-0.844649,-0.307506,0.015973,0.105322,0.089301,-0.117772,-0.00626,-0.7662,-1.895463,-0.317038,-0.043316,-0.449055,-0.178497,0.113131,0.047683,0.055185,-0.084742,-0.110773,0.084492,-0.058239,-0.012654,0.003723,-0.130173,0.014484,-0.051382,-0.03219,0.038977,-0.205143,0.293128,-0.444603,0.083161,0.148509,0.108381,-0.153072,-0.039102,-0.176692,-0.228284,-1.700913,-0.25994,0.147845,0.313477,0.008241,0.034997,-0.037371,-0.129296,0.081765,-0.107079,-0.005359,-0.1695,-0.049719,0.241141,0.120719,0.113854,-0.113886,-0.07939,-0.172814,0.103766,-0.357085,0.164978,0.028563,-0.059288,-0.118882,0.179028,0.439482,0.013898,0.160663,0.233257,0.253287,0.555436,-0.262628,-0.039137,0.032813,-0.061502,0.005728,-0.118829,-0.018089,0.21132,-0.120095,0.035815,0.153061,-0.178522,0.04711,0.093854,0.085482,-0.241591,0.325461,0.106957,0.311507,0.041672,0.289308,0.174244,0.005804,-0.137012,-0.185173,-0.607979,-2.081375,-0.001569,0.323654,0.178897,-0.054599,0.157051,-0.033326,-0.153483,0.047677,-0.007722,-0.034335,0.097404,0.039484,0.144731,-0.077455,-0.05693,-0.141415,0.003789,-0.007185,0.103326,-0.249455,-0.213174,0.105039,0.008497,-0.080223,0.009531,0.16116,0.132361,-0.167671,-1.638862,0.10528,0.427322,-0.076883,0.212576,-0.053484,-0.156936,-0.189112,0.066006,0.071867,0.165886,0.026262,-0.109443,-0.060113,0.295862,0.057062,0.086686,-0.001254,-0.058179,-0.194615,0.145119,-0.07085,-0.033598,-0.1557,0.112347,-0.15273,-0.119901,0.012294,-0.124929,1.559299,-0.234734,0.009702,-0.0442,0.024629,0.195194,0.10282,0.211562,0.065075,-0.09763,0.060644,0.094581,0.146948,0.181828,-0.170593,-0.231057,-0.154832,0.054102,0.070062,0.096685,0.317344,0.297131,-0.036519,-0.026139,-0.10388,-0.008921,0.088816,-0.211259,-0.420378,-2.189859,0.297061,0.203715,-0.126307,0.183682,-0.021617,0.067385,-0.108193,-0.015672,0.064294,0.0295,-0.015514,-0.036942,0.129579,-0.191606,0.069994,-0.068032,-0.088838,0.026533,0.043665,0.112464,-0.26213,-0.06483,-0.116038,-0.070079,-0.065399,-0.192085,-0.166057,-0.432332,-2.341149,-0.195412,-0.295177,0.335433,-0.002969,0.150307,-0.113303,0.033868,-0.135507,-0.081255,-0.099874,0.110786,-0.038034,0.243187,0.346063,-0.002722,0.314361,-0.207778,0.279893,0.169386,-0.437901,-0.420892,-0.334066,0.346677,-0.110318,0.345411,-0.111938,0.29952,-0.421709,-2.496288,-0.182692,-0.118418,0.57645,0.0227,0.361055,0.098879,-0.215887,0.040356,0.070936,-0.212624,0.010653,0.311589,0.286628,0.198884,0.235618,0.494398,0.105353,0.051161,0.112646,-0.262143,0.634612,-0.207766,-0.015091,0.049409,0.170624,0.279091,0.025936,-0.036046,-3.006559,0.055584,0.194911,0.257385,0.028962,-0.122709,0.1875,-0.134351,0.13846,0.165039,-0.122837,-0.106704,-0.066143,-0.013117,-0.194603,0.138445,-0.089591,-0.139626,-0.148482,0.076298,0.299239,-0.127233,0.174825,-0.064708,-0.113126,-0.00273,0.139131,0.0382,0.360251,3.486225,-0.225156,-0.21983,0.176755,0.230711,-0.001764,0.19507,-0.09091,0.178559,0.041838,0.100448,-0.055705,0.142024,-0.030514,-0.181894,-0.232364,-0.017306,0.02211,0.143913,-0.030142,-0.12838,-0.557885,-0.015977,-0.202419,0.007653,-0.089629,-0.016926,0.166963,-0.172021,1.380155,-0.300846,-0.269102,-0.003588,-0.080539,-0.000976,0.224601,-0.076278,-0.072387,0.087448,-0.038337,0.20339,0.054835,-0.021216,-0.001311,-0.068772,0.075232,-0.102804,0.215096,0.046553,0.401714,-0.069075,-0.213176,0.168776,0.260932,0.300258,0.062057,-0.076723,-0.415873,-2.763176,0.099837,0.029356,-0.217245,-0.212182,-0.014308,0.112467,-0.115171,-0.171391,-0.026727,0.065882,0.040867,0.088784,0.24715,0.204432,-0.112839,-0.073313,0.021893,-0.175291,0.048178,-0.05066,-0.458698,-0.106565,0.186087,-0.120921,-0.077407,-0.225186,-0.137096,-0.389318,-2.565925,-0.522267,-0.228525,-0.231931,-0.295863,0.147797,-0.183141,0.116509,0.016533,-0.090022,0.129343,0.012478,0.008893,-0.008605,0.188616,0.223617,-0.068329,0.110769,0.086537,-0.233518,0.360455,-0.272339,0.221717,-0.182054,0.022612,-0.051634,0.056401,0.239331,0.229979,3.116826,-0.235593,-0.204899,0.319917,-0.103371,0.261823,-0.01125,-0.037969,0.07628,-0.121159,0.204803,-0.124224,-0.118711,0.084386,-0.147963,-0.187691,0.215654,0.056783,-0.060296,0.088967,0.150805,0.389442,0.264061,0.140646,0.093148,-0.033306,-0.136196,-0.201913,0.122456,-0.256191,0.170589,-0.009751,0.122794,0.180646,-0.004038,-0.114069,-0.210797,0.016066,0.056641,0.071177,0.157539,0.114384,-0.001197,-0.019759,-0.148923,-0.079267,0.030629,-0.066121,0.008699,-0.07409,0.012241,0.304246,-0.071895,-0.046729,-0.215453,-0.020764,0.116254,1.03961,2.19459,-0.294827,-0.346365,-0.140413,0.200546,-0.099515,0.091421,0.049166,-0.08202,-0.152005,-0.002332,0.185526,0.096555,0.034813,0.078096,0.275547,0.152535,0.039146,-0.146281,-0.00975,-0.235403,0.358571,-0.079396,0.149661,-0.084161,-0.062757,-0.0965,-0.037971,-0.096257,0.758288,-0.164907,-0.182783,-0.074535,0.048879,-0.280253,0.07418,-0.01716,0.115652,-0.099562,0.148099,-0.000862,-0.090448,0.105058,-0.048691,-0.027585,-0.291748,-0.058474,0.190919,-0.015407,0.349033,0.076575,0.00367,0.203202,0.154922,0.01163,-0.013867,-0.140317,0.218162,1.167406,-0.198153,-0.074062,0.203514,-0.186263,-0.144812,-0.004462,0.028539,-0.06451,0.111272,0.017744,0.036373,-0.137363,-0.211543,-0.149362,0.028499,-0.208308,-0.094353,-0.038426,0.00592,-0.287565,0.260657,0.328816,0.077593,-0.104902,-0.157357,0.218955,-0.153399,0.507582,1.801143,0.038318,-0.019039,0.413254,-0.017082,0.088216,0.041486,0.014525,-0.208425,-0.184644,0.065548,0.065343,-0.03337,0.148269,0.029949,-0.273443,0.069814,-0.118402,0.15547,-0.156592,0.041677,-0.548646,-0.075867,0.142677,-0.296818,-0.082371,-0.243288,0.031992,0.057095,-1.635298,-0.068774,0.056587,0.087734,-0.05145,-0.14672,0.116891,-0.175125,-0.121446,-0.098055,-0.192249,0.041533,0.159378,0.065653,0.306799,0.154575,0.076713,0.069429,0.159058,0.098586,-0.098901,0.00647,0.304097,0.14059,-0.050469,-0.00238,0.061782,-0.132072,0.647973,0.99914,0.140724,-0.083397,-0.006315,0.05077,0.214493,0.026489,0.016366,-0.233135,-0.090218,0.090367,0.016313,-0.16482,-0.120486,0.070336,0.161132,-0.001721,0.011662,0.138177,-0.004348,0.067174,-0.306516,0.031144,0.148282,0.045802,-0.177342,-0.169055,0.041947,0.672727,1.123492,-0.387617,-0.030216,0.386543,-0.159578,-0.090377,0.033197,-0.010145,0.110377,-0.176257,-0.046126,0.083736,0.188464,-0.107477,0.008193,0.143609,0.228697,0.125723,0.106165,0.053152,0.065215,-0.295119,0.156804,0.127448,0.002129,-0.226239,-0.351449,-0.138277,0.788601,3.117204,-0.400137,-0.116296,0.121856,-0.065014,-0.004898,0.032901,0.001365,0.025801,-0.097376,-0.103517,0.102493,0.089045,-0.089871,0.13155,0.225517,-0.005688,0.009152,-0.130649,-0.007243,-0.270286,0.332413,-0.122184,0.234359,-0.140352,-0.066086,0.026132,0.188465,-0.254872,-0.538053,0.255828,0.273104,-0.367137,-0.109429,-0.14651,0.18476,-0.009739,-0.100818,0.030959,-0.136905,-0.049406,0.126669,-0.068603,0.088836,-0.051639,0.059369,-0.028123,-0.064914,-0.037869,-0.143517,0.176266,0.176272,0.177368,-0.078489,-0.094352,0.220135,0.126697,0.12252,2.249025,-0.108985,0.040274,0.23369,0.142397,-0.041194,0.152785,0.138029,0.097808,-0.119609,0.132768,-0.036904,0.100418,-0.143769,-0.117553,-0.184748,-0.230468,0.081587,0.266923,0.113514,-0.297844,0.432569,-0.221585,-0.065533,-0.158041,-0.150317,0.061078,-0.074448,0.070465,-1.274871,0.046183,0.067337,-0.09585,0.014364,0.197702,-0.041787,0.039882,0.204683,-0.014808,0.088708,-0.093955,0.215906,0.040011,-0.02204,0.088279,0.006572,-0.175769,-0.231852,-0.246495,0.397089,-0.807836,-0.207822,0.059889,-0.125031,0.114866,-0.409008,-0.123578,-0.448077,-2.86603,-0.38335,-0.585198,0.082327,-0.053005,-0.000243,-0.18162,0.097393,0.115717,-0.000176,-0.054602,-0.021438,0.062564,0.116492,0.199542,-0.150313,0.087322,0.12769,0.272944,0.275707,-0.541585,0.353513,0.245004,0.020153,0.108501,-0.128347,0.104949,0.243018,0.464759,2.518941,0.301592,0.132654,0.072687,0.042745,0.063973,0.140906,0.09717,-0.10587,-0.14056,-0.150227,0.086356,0.088222,-0.125095,-0.151866,-0.086284,-0.086647,-0.111917,0.081754,-0.031997,0.369746,-0.204386,-0.198487,-0.120117,0.219396,0.20823,-0.122223,-0.09865,-1.162966,-1.813389,0.279319,-0.283122,-0.031754,-0.14369,0.244743,-0.034338,0.039078,-0.028104,0.042465,-0.035216,-0.100663,-0.122718,-0.108165,0.081612,-0.055183,-0.160539,0.167529,0.083543,0.300009,-0.355406,0.407254,-0.158783,0.141588,0.318504,0.225701,0.03117,-0.006393,-0.225563,-3.133766,0.152553,0.235918,-0.07316,-0.183536,-0.119759,-0.156474,-0.015625,0.054555,-0.202483,-0.135111,-0.163917,0.138824,0.135266,-0.192106,0.078703,-0.115026,0.13829,-0.243888,0.190768,-0.0542,0.448058,0.099404,-0.16753,0.127631,0.02439,0.105258,-0.089119,-0.166067,-0.289072,0.180696,-0.012652,-0.1337,0.109911,-0.159809,0.021927,-0.124175,0.181617,0.102033,-0.041342,-0.16475,0.133412,0.079443,-0.080969,0.269886,-0.233591,0.161436,-0.249674,0.026107,-0.123249,0.223426,-0.05885,-0.111372,0.160448,0.173395,-0.003504,0.213687,-0.742777,-2.467827,0.352118,0.181463,0.119848,0.082196,0.071952,0.006485,-0.076636,-0.117161,-0.035015,-0.037861,0.121093,-0.167242,0.141701,-0.084833,-0.145793,0.118368,0.100174,0.233955,0.011991,0.387915,-0.266043,-0.090534,-0.233886,-0.155778,-0.091328,-0.259667,-0.006793,0.640805,2.473471,-0.30391,-0.34646,0.179964,-0.092239,-0.220575,-0.055048,-0.143515,0.164371,0.180874,0.128832,-0.003962,0.144958,-0.038408,0.173248,-0.067779,-0.076324,-0.159582,0.082504,-0.069191,0.20175,-0.087459,-0.14146,-0.243505,-0.004686,-0.030817,0.142216,0.012621,0.449766,2.93417,-0.079089,-0.252995,0.074943,0.004244,-0.050814,0.02213,0.146719,0.125946,0.153175,0.157947,0.144393,-0.035065,0.024913,-0.307833,-0.311142,0.049732,-0.020416,-0.149879,0.149928,0.249038,-0.27721,0.085974,0.285444,0.18542,-0.065103,-0.098067,0.100265,0.835288,3.007039,-0.131152,-0.065334,0.069675,-0.179773,0.136178,-0.202704,-0.137022,0.101532,-0.083228,0.102571,0.122455,0.115049,-0.09825,0.137728,0.213088,-0.200516,0.023537,0.166448,0.107385,-0.486385,0.186661,0.159251,-0.018338,0.125995,-0.052309,-0.116315,0.098443,-0.14251,-2.043792,0.215145,0.224758,0.173806,0.031415,-0.020158,0.126845,-0.043061,0.04482,-0.13775,0.009744,-0.140955,-0.145611,-0.087075,0.13093,0.309903,0.180776,0.204074,0.065993,-0.026498,0.69229,-0.34539,0.244415,-0.012707,0.064013,0.180329,0.0851,-0.164396,-0.434843,-1.083855,0.046957,-0.235762,-0.128204,-0.052151,0.047877,-0.03451,-0.152523,-0.030579,0.056813,-0.146473,-0.023011,0.204536,-0.085306,0.034865,-0.261016,-0.10901,0.154677,-0.113043,-0.081473,0.090536,0.328446,0.44083,0.020668,-0.038135,-0.165781,-0.0368,0.352427,0.395603,3.01265,0.214786,0.590942,-0.396989,0.252867,-0.01741,-0.077962,-0.102461,0.048314,0.025926,0.000266,-0.053815,0.103997,-0.005926,-0.044089,0.006426,0.206019,0.065127,-0.23406,-0.056507,-0.094528,-0.230648,0.202926,-0.061073,-0.044666,0.049514,0.022371,0.154394,0.425737,2.064822,0.321296,-0.369952,-0.124169,0.04246,0.146616,0.063305,0.124511,0.061543,-0.103375,0.081489,0.104192,-0.034489,-0.030049,-0.171915,-0.053368,0.080616,0.072754,-0.181672,0.1484,-0.428353,0.236002,-0.044925,0.044639,0.285347,-0.0768,-0.149766,-0.180369,0.189663,2.011547,-0.137716,0.10578,0.008033,0.170188,0.138007,0.117097,0.182838,0.038452,0.107067,-0.089235,0.141429,-0.041377,-0.122858,-0.147324,0.225481,-0.285715,-0.09821,0.178204,-0.165049,0.504501,-0.455187,0.186624,-0.112353,0.021964,-0.068733,-0.011698,0.174963,0.232783,3.394506,0.117605,-0.143245,0.092434,-0.052862,-0.004318,-0.100086,0.032513,0.060057,-0.010037,-0.094075,0.193071,-0.108321,0.025772,0.090409,-0.325771,-0.025339,0.203715,-0.245863,0.210327,-0.11742,0.274933,-0.026738,0.1381,0.044469,-0.104978,-0.119303,-0.128246,0.128855,2.159943,-0.16793,0.122339,-0.163184,-0.002833,0.006253,-0.137669,0.133142,-0.044789,0.077816,0.143481,-0.099294,0.08888,-0.242629,-0.240965,0.072576,-0.143569,-0.032769,0.013584,-0.053073,0.530143,0.168703,0.044322,0.137283,-0.094079,0.10738,-0.039218,-0.295785,-0.568657,-2.755643,-0.091138,-0.322946,0.237258,0.049004,-0.189718,-0.110277,0.006261,-0.001554,-0.232748,-0.055168,-0.047074,-0.043604,-0.041951,0.196316,-0.264688,0.107245,-0.18154,-0.128017,-0.016826,0.16916,-0.138436,-0.098127,-0.241127,-0.213973,0.102671,-0.144864,-0.256453,-0.691368,-2.987459,-0.141273,-0.291971,0.269381,0.106135,0.048085,0.07434,0.085875,0.118414,-0.026504,0.038511,-0.152368,0.173659,0.029641,0.103353,-0.165591,0.113032,-0.004579,-0.115635,-0.034271,0.229288,-0.16708,-0.028855,-0.307306,-0.077594,0.219437,0.175043,0.028924,-0.372284,-2.249378,-0.01965,0.006114,0.039457,-0.037918,-0.001295,0.158098,-0.076674,0.026293,-0.152167,0.003045,0.129963,0.060609,0.085658,0.057905,0.143307,-0.081627,0.006065,-0.109763,0.050385,-0.224494,0.274537,0.144531,-0.136741,-0.158279,-0.187277,0.301358,-0.161857,0.373853,2.671054,-0.032088,0.239362,-0.14529,0.174505,-0.035676,0.02816,0.035232,0.098318,0.050175,0.150451,-0.156816,-0.154998,-0.205732,-0.180948,0.038932,-0.113345,-0.075666,0.065241,0.191615,-0.017235,0.38587,-0.033401,-0.159152,-0.155233,-0.059036,-0.004682,-0.149336,0.152769,1.370019,-0.267592,-0.19246,0.248865,0.124534,0.023962,0.102275,0.0566,-0.103546,0.205791,0.165448,0.206646,0.026839,-0.041322,-0.249174,-0.196743,-0.212566,-0.091624,-0.114692,-0.030667,-0.291287,0.216161,-0.025747,0.023293,0.094504,0.142417,0.14164,-0.093442,0.354129,1.091676,-0.249744,-0.538168,-0.113417,-0.189978,-0.051008,0.050197,-0.072526,-0.048616,-0.092671,0.23707,0.144799,-0.016304,0.072511,-0.133385,-0.129902,-0.055097,0.016072,-0.088547,0.184203,-0.235218,0.239851,0.001524,0.221832,-0.04171,0.058094,-0.176814,0.097004,-0.302958,-2.993714,0.250983,0.321473,-0.024181,0.185443,-0.136881,0.066493,-0.095824,0.109888,-0.094749,-0.077734,0.104465,-0.201612,0.079998,-0.118452,0.075646,-0.010598,-0.028341,0.179117,-0.123962,-0.139172,0.007579,0.461245,-0.062447,0.23509,-0.102023,0.072308,-0.026327,0.657806,2.296367,0.026483,0.303796,-0.067986,-0.28459,0.073926,-0.057189,0.043823,-0.118147,-0.128878,0.006566,-0.110044,0.084833,-0.01283,0.026433,-0.0311,0.202137,-0.053275,0.195074,0.100663,0.210486,0.169115,-0.228103,-0.114165,-0.118819,0.057023,-0.051953,0.06668,0.072449,-1.06879,0.366399,-0.109642,0.085565,-0.168718,0.386067,-0.18183,-0.070971,-0.002922,0.063994,0.030179,0.03045,0.109863,-0.243854,-0.051425,-0.087551,0.064735,-0.091066,0.014894,-0.009809,-0.754767,0.167488,0.214698,-0.125192,-0.061217,0.009628,-0.008993,-0.087416,0.068579,2.046377,0.033443,-0.326994,0.02374,-0.080304,-0.015192,0.09485,0.03006,0.108518,0.116169,0.119693,-0.033642,-0.134017,-0.22354,-0.013535,0.17098,-0.010048,0.152802,-0.057865,0.076655,-0.332824,0.244536,0.280695,0.199154,0.141014,0.006121,-0.043344,-0.005905,-0.512298,-2.973407,-0.000538,0.415978,-0.069379,0.094279,0.017427,-0.147751,-0.105838,-0.175746,-0.116205,-0.072539,-0.038025,0.083686,-0.087091,0.22938,0.320534,0.041196,-0.095661,0.165631,0.05268,-0.477121,0.355448,0.142404,0.082682,0.111213,-0.237402,0.07091,0.269226,0.628511,3.175067,0.295132,0.446461,-0.254704,0.04535,-0.139491,0.037354,-0.012143,0.02672,-0.022025,0.034498,0.061391,0.005837,-0.132571,-0.037917,0.124654,-0.123501,-0.138022,-0.053085,-0.05374,-0.054158,0.250369,0.083281,-0.223003,0.006093,0.097114,0.265495,0.0423,0.247588,2.398782,0.137346,-0.074522,0.27203,0.175687,0.012541,-0.135457,0.083626,0.037381,0.125408,0.152297,-0.071966,0.203971,0.052722,-0.24068,-0.223469,-0.112301,-0.142037,0.058569,0.250462,0.017212,0.172129,-0.064316,0.175377,0.084604,0.146056,0.017065,-0.12962,-0.386045,-2.72465,0.20121,0.325427,-0.111514,-0.087923,-0.079107,-0.108584,-0.009737,-0.119361,0.123231,-0.118691,0.026281,-0.04505,-0.086029,0.083551,0.196981,0.003526,0.070695,0.178047,0.00746,0.252085,0.296088,-0.197603,0.01642,0.252726,0.008324,-0.062586,0.158761,-0.512971,-2.720752,0.315747,0.3548,-0.329773,0.050271,-0.047976,-0.04631,0.136238,0.060728,0.043526,-0.103212,-0.104089,-0.110557,0.059041,-0.031846,-0.021168,-0.194557,-0.08967,-0.027149,-0.157057,0.607409,-0.703967,0.071507,0.121221,0.058655,-0.049767,-0.062471,-0.094696,0.15373,-0.540747,-0.038398,0.241421,0.047629,-0.200171,-0.126866,0.111585,-0.132431,-0.186861,-0.115959,-0.078187,-0.032798,0.160608,0.214963,0.236134,-0.158126,0.140338,-0.14437,-0.015081,-0.226912,0.317286,-0.555556,0.144595,0.134886,-0.141236,-0.138419,-0.112962,0.039484,0.480436,2.911037,-0.176064,-0.357325,0.208064,-0.156552,-0.154836,0.089782,0.105459,-0.030122,-0.116067,0.200829,-0.121985,0.128874,-0.184452,0.186137,-0.161977,-0.07395,-0.113153,-0.127,0.189308,-0.462051,0.097316,0.04578,0.2937,-0.100347,0.003902,-0.358308,0.023029,-0.013976,-2.713397,-0.341034,0.231527,0.39364,-0.237405,0.042011,-0.182351,-0.009973,-0.015199,-0.043775,0.089791,0.029422,0.104292,0.180655,-0.00914,0.141308,0.149774,-0.072686,0.171471,-0.231727,0.347679,-0.611649,0.172357,-0.285079,0.103414,0.15726,0.117911,0.042763,-1.024732,-2.125186,-0.222881,0.217275,-0.027442,0.174505,0.05205,-0.163974,-0.103884,0.049192,-0.046146,0.021382,-0.065005,0.161755,0.076133,0.159886,-0.114887,0.057284,-0.073449,-0.175099,-0.144424,0.008008,0.186518,-0.1071,-0.054336,-0.033347,0.109825,-0.105534,0.198966,-0.469898,-1.355054,0.367193,0.45742,-0.462031,0.057708,-0.000722,0.016657,0.00984,-0.04354,-0.117786,0.087083,-0.025224,0.058038,0.12707,-0.202342,0.251881,0.0206,0.053477,0.077977,-0.214443,0.668726,-0.575245,0.192718,0.039027,0.204687,-0.006125,0.036015,0.046744,-0.51629,-1.170641,-0.058125,0.384971,-0.185914,-0.002227,-0.080592,0.003951,-0.069971,-0.169297,-0.206575,-0.128695,0.003502,-0.166523,0.271284,0.182693,-0.08846,0.19656,-0.140084,0.076421,-0.094591,0.11937,0.267876,0.006354,-0.291425,-0.238719,0.12346,0.107379,-0.081622,-0.478338,-0.416958,0.368827,-0.183573,-0.105466,0.146318,-0.000258,-0.028906,-0.14519,0.158616,0.160451,-0.07416,0.128353,-0.043231,-0.112566,0.035392,-0.253335,-0.185323,0.002459,-0.240991,0.360507,0.024927,0.226338,0.067085,0.021227,0.101182,0.042806,0.021889,-0.0054,-0.352865,-2.71691,-0.085015,0.032779,-0.348931,-0.175574,0.092106,0.060457,0.069211,0.083556,0.037197,-0.105754,-0.129065,0.168628,0.173316,-0.068653,0.213286,0.102911,0.00842,0.01911,0.060418,0.006936,-0.33671,0.11025,-0.116899,0.154745,0.167861,0.089171,-0.160294,0.609116,0.760344,-0.225588,-0.316787,-0.31718,0.098038,0.047785,-0.031486,0.129225,-0.100295,0.017512,-0.074452,0.146842,-0.029555,-0.054506,-0.13474,0.295416,0.117717,-0.040697,-0.176966,0.084467,-0.428886,0.286664,-0.320868,0.29436,0.342324,0.11315,-0.222992,0.181363,-0.42532,-0.879475,0.053433,-0.049974,-0.042275,-0.027796,0.044079,-0.071268,-0.058503,0.098227,0.001059,-0.129428,0.177834,-0.045129,-0.083487,-0.286409,0.030608,0.034629,0.035567,-0.098644,0.039424,0.783843,-0.107751,0.026465,0.143261,-0.15418,0.229748,-0.113311,-0.058654,-0.420483,-2.60708,-0.017223,-0.048168,1.8e-05,0.105633,0.136236,0.045951,-0.117774,-0.111158,0.043414,0.055098,-0.194089,0.158195,0.153571,-0.177855,-0.105475,-0.105538,0.00568,0.028125,-0.056416,0.161762,-0.145666,0.139522,-0.200517,-0.200098,0.028669,-0.04165,-0.212533,-0.429937,-2.910929,-0.445502,0.251289,-0.111742,-0.055339,-0.136489,-0.093469,-0.03979,-0.153588,0.102267,0.0738,-0.158356,0.18133,0.199535,0.099076,-0.008738,0.049107,-0.019726,-0.144097,-0.009381,-0.252131,0.267977,0.122957,-0.033685,0.161801,-0.168962,-0.030864,-0.047341,0.084943,2.47047,0.133358,-0.235438,0.169808,-0.025168,0.006983,-0.024102,0.161625,0.192227,-0.073017,0.064884,0.084366,-0.170331,-0.166372,0.076458,0.080777,0.117002,0.05159,0.065293,-0.318264,0.443574,-0.236904,-0.012286,-0.315588,-0.062441,0.147433,0.291796,-0.026421,-0.776859,-3.07662,0.038444,-0.482078,0.073799,0.05165,0.028523,0.087267,0.058387,0.090118,-0.042647,-0.030428,-0.087861,0.113077,0.136274,-0.094328,-0.126423,-0.045325,-0.06158,-0.022855,-0.028295,-0.022695,0.000271,-0.166278,0.255915,0.280716,0.118302,-0.245731,-0.021727,-0.022796,-2.30935,0.192886,-0.252663,0.185221,-0.039297,-0.184682,-0.210523,-0.004283,0.042597,-0.142818,0.068458,-0.048193,-0.054502,0.023556,0.079106,-0.00086,0.029413,0.017748,0.018597,0.086302,0.200991,-0.225857,-0.387923,0.136195,0.090763,0.134083,0.074816,0.059912,-0.588256,-2.198297,-0.101703,-0.292073,0.110313,-0.28183,0.103332,0.103182,0.149464,-0.058448,0.142369,-0.142764,0.150422,0.080493,-0.124968,-0.13028,-0.084078,-0.299469,-0.027454,0.131855,0.110716,-0.103944,0.120871,-0.238078,-0.070223,0.048379,0.123245,-0.160735,-0.261573,0.073635,-2.628647,0.30867,0.022871,0.468063,-0.131508,-0.174204,-0.17394,0.163082,0.053454,-0.113146,-0.16166,-0.096902,-0.132041,-0.111878,0.255695,0.118421,0.180659,0.057173,0.169795,0.031862,-0.16773,0.015241,-0.099561,0.277164,0.055042,-0.283273,0.017533,0.115303,0.610112,2.868713,-0.10033,-0.170805,-0.059795,0.008114,0.098523,0.13659,0.005619,0.052528,0.029934,-0.010194,0.117139,-0.202643,-0.163543,0.075838,0.194732,-0.009387,0.01782,-0.084397,0.095945,-0.150805,-0.040723,0.192876,-0.011084,-0.218296,0.12091,-0.019867,-0.022123,-0.012359,0.005833,0.457751,-0.145605,0.231137,0.228308,0.105963,0.015372,-0.143425,-0.157453,0.121716,-0.042843,-0.096147,0.108596,-0.028217,0.055881,-0.127049,0.271016,0.018279,-0.038286,-0.10979,-0.428129,0.025755,0.222246,0.192082,0.234579,0.185041,0.058006,0.123442,-0.287402,-2.843721,0.17552,0.270945,0.10044,-0.081399,-0.105547,-0.12075,-0.152652,-0.025898,-0.18937,-0.025623,-0.065424,-0.075458,-0.15681,0.179774,0.32454,0.184531,0.150734,0.092014,0.192362,-0.035485,0.364619,0.116442,-0.140902,-0.061366,-0.241513,0.208844,0.029974,0.852739,2.629551,0.277857,-0.116511,0.136157,0.175342,0.041401,-0.030099,-0.153091,0.083531,0.043718,0.024292,-0.098443,0.020533,-0.03524,0.222444,-0.219073,0.053301,-0.002478,0.095086,-0.312702,0.191016,-0.491191,0.017384,-0.08764,-0.073144,0.227681,0.170015,0.219918,-0.154646,-1.691289,0.088059,0.280357,-0.263212,-0.020509,0.044949,0.050509,-0.242859,-0.169754,-0.107496,0.09471,-0.207205,0.186566,-0.183364,0.263776,0.000479,0.284047,-0.181028,-0.15828,-0.10251,-0.415529,-0.345344,0.084965,-0.052227,-0.260927,-0.150085,-0.108191,-0.00238,0.249551,2.145174,0.097731,-0.185926,0.133178,-0.133026,-0.041658,-0.025729,0.194459,0.06231,0.005523,0.034989,0.232645,-0.178996,-0.164453,0.210564,0.203395,0.182909,0.222889,-0.12037,0.416238,-0.062227,0.445179,0.150405,0.025961,0.15873,0.020238,0.110243,-0.216855,1.024329,1.391457,-0.085761,-0.133025,0.209445,0.089137,0.067456,0.139832,-0.132249,0.156632,0.123141,0.171356,0.076161,-0.173685,-0.17975,0.091841,0.175611,-0.230192,-0.138208,-0.142326,-0.114999,-0.1534,0.162862,0.029423,0.027083,-0.082645,-0.093211,-0.061766,0.019255,0.033837,2.631487,-0.002151,-0.608386,-0.031808,-0.068884,0.046549,-0.091965,0.14953,0.193305,0.167871,0.193063,-0.143031,0.13499,-0.050415,-0.125213,-0.015679,-0.003902,-0.147373,-0.016674,-0.357189,0.188216,-0.339267,-0.221443,-0.253733,-0.270509,-0.054948,0.120323,0.10127,0.08764,1.723641,-0.162401,-0.353864,0.123992,0.163011,-0.057961,0.00427,0.209871,0.078898,-0.105077,-0.030869,0.107166,-0.068714,-0.159001,-0.016004,-0.252315,0.189112,-0.126597,-0.030883,0.239037,-0.323146,0.21683,-0.008263,0.282248,-0.120889,-0.153498,-0.177371,0.108916,0.460894,1.233758,-0.151112,0.083507,0.313019,-0.136198,-0.020772,0.054615,0.171066,0.145269,0.04444,-0.119796,0.197593,0.069657,0.0419,-0.220721,0.013908,-0.165721,0.106986,-0.08399,0.257537,-0.225304,0.529108,0.072863,0.231788,0.173941,-0.008052,0.017404,0.161278,-0.791042,-2.093566,0.103707,0.170402,-0.297613,-0.116658,0.127094,-0.146153,-0.063816,0.106126,-0.054708,-0.043724,0.111351,-0.10868,-0.143125,-0.084404,0.256371,-0.051571,0.09016,0.271362,-0.073105,0.1296,-0.433782,-0.164438,0.026611,-0.255233,-0.123548,0.036995,-0.264609,-0.325137,-2.160205,-0.270357,-0.174181,0.295812,-0.229072,0.092819,0.075767,-0.03269,0.138779,0.179799,-0.177161,0.150789,0.053907,0.228801,0.211685,-0.297873,0.160815,0.014494,0.013551,-0.141069,0.108119,0.24554,-0.23077,-0.031545,0.024833,0.079041,-0.025798,0.176226,-0.499323,-1.562815,-0.137331,-0.200481,0.096574,-0.059186,0.025235,0.231327,-0.010917,0.171523,-0.110649,0.21208,-0.034788,-0.206485,0.163017,-0.1918,-0.097823,0.057085,-0.029389,0.141008,-0.198171,-0.306589,-0.155201,-0.06352,0.006002,-0.196812,-0.00805,0.333331,-0.12197,-0.973247,-2.62893,0.474819,-0.057151,-0.057108,0.13167,-0.108421,-0.224586,0.111541,-0.129861,0.021813,-0.085569,-0.094892,-0.143018,-0.196058,0.100304,-0.22118,0.237909,0.00245,-0.021531,0.005768,-0.12307,0.248933,-0.07896,-0.021988,-0.119801,0.208447,0.135298,0.010567,-0.381622,-2.210241,0.115126,0.748631,-0.427069,-0.19503,-0.105293,-0.058663,-0.082907,0.167559,0.006922,0.012732,0.031556,0.109413,-0.167602,0.026679,0.275914,-0.094881,0.004561,-0.168675,-0.078563,0.080065,-0.367824,0.035893,0.140439,-0.06552,0.16532,-0.069395,0.032079,0.088826,-1.796509,-0.191185,0.039251,0.21437,0.0835,0.214571,-0.076852,-0.108067,0.116292,0.097997,0.003445,0.015676,-0.078037,0.156697,-0.054159,-0.16722,0.202901,-0.166771,-0.022794,0.161712,-0.566136,0.001959,0.030392,0.305176,-0.047648,-0.109073,-0.327358,0.016518,0.938741,1.785544,-0.114644,0.173054,0.1877,-0.171003,-0.062275,-0.089398,0.033837,0.117412,-0.103955,0.10493,0.150164,-0.05478,-0.031562,-0.152259,0.189222,0.132858,-0.13069,0.089383,-0.046363,0.780678,-0.299492,-0.318634,0.080973,0.150416,0.048492,-0.055579,0.218042,-0.521252,-1.810986,0.102014,-0.359209,-0.324428,0.144451,-0.147171,0.132721,-0.043948,0.140527,0.093965,0.126727,-0.052624,-0.166927,0.098766,-0.152155,0.169504,-0.023074,0.136825,0.126495,-0.104574,-0.156652,-0.447983,0.364481,-0.089477,-0.203451,-0.140738,-0.077654,-0.05289,0.961672,2.786596,-0.507233,-0.135087,-0.225542,-0.108764,-0.199578,-0.085051,-0.034294,0.214855,0.059534,-0.031956,-0.073936,0.129143,0.035809,0.031458,0.217972,0.300769,-0.049783,-0.117838,-0.047877,0.474561,-0.381863,-0.140126,-0.10248,-0.092581,-0.195883,0.14965,-0.087443,0.300595,3.121062,-0.408615,-0.443207,0.326969,0.207969,0.025251,0.073315,0.125145,-0.001906,0.207532,-0.064299,0.156899,-0.022867,-0.012968,-0.037572,-0.20009,0.165476,-0.004462,-0.132323,0.037834,0.130449,-0.441024,0.507422,-0.035929,-0.234797,0.094315,0.163904,0.139242,0.481089,1.981979,0.035262,0.223881,0.049733,0.049905,0.118184,0.109901,-0.16213,0.119757,-0.201324,-0.001451,-0.049012,0.097258,-0.054673,0.267283,-0.033225,0.115423,0.061517,0.053159,0.123493,-0.12379,0.422112,0.203171,-0.028214,0.335784,-0.128327,0.091073,-0.127879,0.270845,2.997925,0.313374,-0.06258,-0.389906,0.184396,-0.081257,0.202831,0.13128,0.017534,0.010162,-0.060249,-0.091308,-0.201149,-0.159534,-0.152456,0.199491,-0.264265,0.104741,0.186243,-0.133493,0.161712,-0.45035,0.112844,0.027326,-0.123754,-0.047073,-0.08972,-0.160225,0.78466,2.537925,-0.179342,-0.367022,0.258885,-0.205379,0.087273,-0.070448,0.166769,0.182131,-0.016524,-0.006483,-0.062002,0.036119,-0.104653,0.169625,-0.274352,0.191099,0.122728,0.026748,-0.085683,-0.253325,0.21411,0.244592,-0.205901,0.06339,-0.114573,0.287209,0.248542,0.145521,2.134034,0.219605,0.225633,-0.426908,0.060681,-0.0445,0.161459,-0.085298,-0.030645,0.042363,-0.006919,0.04649,-0.131422,-0.063313,-0.037239,0.32436,-0.018546,0.054872,0.081022,-0.042715,0.291215,0.70347,-0.010202,0.08076,0.146184,-0.113752,-0.013061,0.092304,-0.006899,1.275746,0.133215,0.542876,-0.028565,-0.251141,-0.044051,0.120125,0.0783,0.065235,-0.24288,0.121643,-0.107716,-0.135379,0.173006,0.030198,-0.062478,-0.249806,0.205225,0.020981,0.125423,0.60464,-0.154386,0.013784,-0.13785,-0.112014,0.203007,-0.004317,-0.003419,-0.241231,-1.529505,0.134645,0.348967,-0.193518,0.093564,0.013527,-0.02076,-0.152733,-0.172756,0.078466,-0.085846,-0.105964,0.08905,-0.052898,0.067389,0.083647,-0.061773,0.206005,-0.137618,0.122528,-0.010647,0.276375,0.240126,-0.131794,-0.262749,-0.041158,0.387025,0.222592,1.059824,2.638026,0.413157,0.456651,-0.122032,0.282884,-0.136384,0.002593,0.032039,-0.007349,-0.124649,-0.110504,-0.090977,0.100279,0.162006,0.130898,-0.051902,0.017055,0.067684,0.088746,0.036849,0.235458,0.214879,0.043316,-0.077947,-0.001525,0.093171,0.321708,-0.164598,-0.300418,-2.344244,0.508392,-0.088099,0.000392,0.08745,-0.033461,-0.016203,-0.132254,-0.1124,-0.079954,-0.09407,0.021397,0.061913,-0.084833,-0.050655,-0.035713,0.0926,0.008637,-0.12779,0.151493,-0.362351,-0.118422,0.062635,0.240612,0.16261,-0.168599,-0.31582,-0.192352,-0.618324,-2.944064,-0.185709,0.166197,0.277707,-0.092636,0.146389,0.081826,-0.091328,0.068316,-0.194096,-0.021766,-0.044449,-0.062713,0.086015,0.090882,0.145919,0.130516,0.012088,-0.020734,-0.123395,-0.288525,0.094225,-0.030987,0.252218,0.097836,-0.018245,-0.380503,0.091962,0.821785,2.63102,-0.101086,0.314512,-0.088216,0.018028,0.149817,-0.15659,0.096099,-0.037355,-0.147232,0.051249,0.076644,-0.005677,-0.012993,0.106191,0.262639,0.026287,0.009931,-0.008875,0.018397,0.132108,-0.056833,-0.034599,-0.065716,-0.095826,0.021738,0.097036,-0.05107,-0.485986,-1.887385,0.103489,-0.170881,-0.21318,0.016344,-0.10095,-0.057025,-0.025462,0.142585,-0.071133,0.184981,0.124159,-0.076648,0.171512,-0.311719,-0.138854,-0.146407,-0.154995,0.210656,-0.158355,0.209113,0.199627,-0.153049,-0.173262,-0.089631,0.056607,0.394887,0.228506,0.281694,2.439557,0.385024,0.139193,-0.237774,0.078729,-0.038436,-0.002487,0.044389,-0.112078,-0.069962,0.160087,-0.168791,-0.059121,-0.148663,0.089623,-0.257786,-0.134935,0.190334,0.158952,0.318959,-0.225867,0.621218,-0.115985,0.122591,0.340672,-0.087174,0.195241,0.270049,0.46438,1.195635,-0.014509,0.646949,-0.411401,-0.073404,0.026866,-0.1742,-0.115138,0.121646,-0.143369,0.08555,-0.151525,-0.112114,0.049031,-0.115105,0.158536,0.031615,0.118279,-0.17253,-0.293386,-0.14385,-0.30657,0.055865,0.046885,-0.029297,-0.124262,-0.257821,0.093731,-0.372728,-2.635707,-0.091225,0.191941,0.211623,-0.136469,0.111654,0.130781,-0.118189,-0.191017,-0.18396,-0.14496,0.095001,0.200501,0.184382,0.2975,0.224623,0.161046,0.024592,0.219585,0.254998,0.35654,0.16784,-0.167599,0.035371,0.180762,0.278628,0.176839,0.045625,-0.25445,-2.935785,0.322973,0.425738,-0.204071,0.129966,-0.170033,-0.07375,0.113461,0.10122,-0.149299,-0.072897,0.025525,0.214397,0.181653,0.148796,0.088718,0.034352,0.079434,-0.199868,-0.024174,0.238474,0.123097,0.055818,-0.202356,-0.066637,0.179011,0.10768,-0.087178,-0.106252,0.726479,-0.116592,-0.342251,-0.214508,0.165772,-0.213467,0.119736,-0.059549,0.139883,-0.070749,0.069844,0.100065,0.072795,-0.012732,-0.020746,-0.115582,-0.028637,-0.055072,0.077945,-0.176852,-0.077816,-0.093781,-0.373067,-0.003241,-0.034363,0.197787,-0.269256,0.076277,-0.367943,-2.021402,-0.225436,-0.199578,0.100381,0.02507,-0.052451,0.089168,0.034869,-0.018103,0.033355,0.012895,-0.238321,0.070383,-0.003536,-0.096551,0.138891,-0.007504,0.044113,-0.24176,-0.095129,0.050782,0.385646,0.342399,-0.186275,0.256041,-0.327445,-0.013867,0.083161,0.300073,2.878891,0.093843,0.141253,-0.287034,-0.303152,-0.075471,-0.005972,-0.175671,0.09669,0.08232,-0.192231,0.052985,-0.328958,-0.231961,-0.163968,-0.111652,-0.252364,0.148805,-0.224112,0.118689,0.142423,-0.080303,0.158959,0.289594,0.23969,-0.060982,-0.304383,-0.046301,0.529528,2.824072,-0.022216,0.107189,-0.096608,-0.192993,-0.093146,0.075167,-0.085358,0.045596,-0.143139,0.093132,0.041171,-0.210806,-0.154035,0.07327,-0.065154,0.106592,-0.018127,-0.285976,-0.088065,0.191149,0.257592,0.09199,0.021631,-0.120404,0.122831,0.033611,-0.088412,0.307319,1.498462,0.265871,0.558565,0.077001,-0.017011,-0.2068,-0.009141,-0.046063,0.014527,-0.060428,-0.168685,0.137037,-0.0515,-0.02783,0.050622,-0.140607,-0.272407,0.12457,-0.041826,-0.123741,0.156061,-0.177837,-0.188986,-0.06099,0.236699,0.132101,-0.064618,0.014096,-0.547377,-2.508202,-0.449175,0.140982,-0.213241,-0.207425,0.017728,0.164596,-0.191247,-0.164935,-0.122963,-0.106578,0.133831,-0.06551,0.112468,0.193059,0.16141,0.001017,-0.057182,0.111659,-0.001051,0.078949,-0.026103,-0.165696,-0.291391,-0.124549,-0.042705,-0.099659,-0.289777,-0.848442,-3.183792,-0.246958,-0.286557,0.293656,0.237849,-0.053895,0.131312,0.169596,-0.133716,-0.092864,0.134526,-0.132165,0.210028,0.051679,0.086137,-0.332984,0.033033,0.006936,0.028949,0.134425,-0.109572,0.228957,0.221189,-0.090747,0.095577,-0.128892,0.261079,0.184795,0.501365,2.60192,0.042777,-0.361672,0.091411,-0.071391,0.042583,-0.037002,-0.069741,0.097116,0.053576,0.257268,-0.007707,0.061113,0.006988,-0.188462,-0.185496,-0.007263,-0.125436,-0.018374,-0.294328,0.344692,-0.452388,-0.030746,0.134514,0.196445,0.070382,-0.036724,-0.146044,-0.380236,-1.496377,0.025877,-0.063231,0.144395,-0.0122,-0.199225,0.016085,-0.168959,0.088281,0.064867,-0.1751,-0.071354,-0.12907,-0.150983,0.21166,-0.189488,0.143421,0.120206,-0.151999,0.272471,0.366662,0.207793,-0.012759,-0.034293,-0.175489,0.042391,0.128329,-0.027907,0.158228,1.713638,0.454839,0.323103,-0.259376,0.172389,0.111633,0.126659,-0.121454,0.15563,0.026287,-0.069178,0.044542,0.076539,0.088408,-0.210109,-0.177681,-0.306314,-0.020699,0.145123,0.001215,-0.13491,0.121827,-0.048407,-0.023274,-0.007142,0.098861,-0.344804,-0.061957,-0.400093,-2.538511,-0.285139,-0.509372,0.561315,-0.14212,0.003868,0.093088,-0.016195,-0.04349,0.056042,0.131292,-0.135489,-0.169214,-0.105147,0.144063,0.119836,-0.045952,-0.051477,-0.08367,0.122305,-0.206866,0.141344,0.043359,0.130576,0.165815,-0.128535,-0.309128,0.126349,-0.90246,-2.8846,0.006088,0.132752,-0.104616,-0.188942,0.179928,-0.018157,0.030976,0.11186,-0.154512,0.033942,-0.059552,-0.03057,-0.047808,0.114594,0.253721,-0.095919,0.035515,0.067768,0.044037,-0.204169,0.612327,0.020006,0.140616,0.154396,-0.202994,0.052311,-0.030887,-0.396468,-0.680247,0.025106,-0.378878,0.758709,0.077512,-0.29652,0.106944,0.108317,-0.15807,-0.169394,-0.10419,-0.059308,-0.196722,0.165711,-0.097502,-0.269742,0.241512,-0.001771,0.0475,-0.277411,0.212853,-0.034958,-0.002407,-0.212886,-0.26136,0.022918,0.247148,-0.039847,0.709868,0.931715,-0.059109,-0.145527,-0.388941,0.219076,0.011378,0.137402,-0.041639,0.082002,0.034755,-0.050009,0.092518,0.082329,-0.046719,-0.004899,-0.077449,0.031635,-0.073834,0.05485,-0.009556,-0.084627,0.068749,0.14449,-0.195394,-0.087544,-0.148427,0.429029,0.069706,0.391842,2.858471,0.450501,-0.145896,0.325938,-0.036111,0.165152,-0.157556,0.110005,-0.040353,-0.001897,-0.142185,0.142692,0.067577,-0.058804,0.056678,-0.256305,0.167158],"bias":[0.115805,-0.113967,-0.032155,0.120964,0.086164,0.07283,-0.100969,-0.122371,0.015341,-0.066066,-0.090571,0.034405,-0.089589,0.162361,-0.1157,0.04343,0.104714,0.152757,-0.054085,0.016215,-0.017047,0.011955,-0.009661,-0.15055,-0.141393,0.130876,0.061696,0.154227,0.072763,-0.1179,0.089328,-0.025475,-0.116093,0.052661,-0.125856,0.012318,-0.124949,-0.025165,0.065598,-0.105889,-0.090251,0.100531,0.060844,0.150652,0.003348,0.087312,0.009932,-0.010702,-0.163297,-0.142806,0.188601,0.133013,-0.19205,-0.103511,0.140346,0.092259,-0.020194,0.057656,0.141299,0.041926,-0.131424,-0.097215,0.100741,-0.100178,-0.185194,0.097322,-0.151814,0.171197,-0.110254,-0.048808,0.136698,0.029651,0.111526,-0.021347,-0.176817,-0.163745,-0.180296,-0.131453,0.029031,0.003628,-0.142018,0.090955,-0.118882,0.009131,-0.109338,0.144189,0.233899,0.210136,-0.020363,-0.181535,-0.034866,0.036411,-0.051117,-0.186495,-0.046884,0.09617,0.056045,0.056494,-0.097843,-0.091212,0.001889,0.108434,-0.009274,0.002883,0.032167,-0.025905,0.025026,-0.145414,-0.106367,0.168624,0.128403,0.110926,-0.066881,0.049116,-0.005912,0.040194,-0.011265,-0.122024,0.06716,0.081143,0.083642,0.033106,0.119366,-0.085135,0.059858,0.121519,0.128719,0.088229]},{"inputSize":128,"outputSize":128,"activation":"tanh","weights":[0.068961,0.080412,0.059683,-0.064125,-0.029268,0.095045,-0.074968,0.163572,0.007033,-0.143623,0.226578,0.060327,-0.254833,0.058512,-0.036963,0.102067,-0.085737,0.00925,-0.096457,0.166204,-0.051737,-0.184377,0.188957,0.155479,-0.010809,-0.066462,-0.079412,-0.08017,-0.041152,0.021608,0.056805,-0.049376,0.05027,-0.046387,0.070102,-0.01608,0.123591,-0.122709,0.072529,0.051091,-0.07306,0.108913,0.178323,0.040879,-0.086334,-0.133001,-0.17369,-0.045175,0.022283,-0.077924,-0.202093,0.051401,0.060784,0.031757,-0.271646,0.076453,0.06649,-0.059933,0.102937,0.030306,-0.172018,-0.051093,-0.095356,-0.051101,0.085541,0.048521,-0.014387,-0.074774,0.073081,0.0273,-0.159933,-0.133808,0.021629,0.09066,0.050123,-0.083857,-0.191649,0.026652,-0.036341,0.176286,0.171663,0.068087,0.162576,0.11738,-0.142922,-0.103623,0.046954,-0.211697,0.004691,-0.118481,-0.104839,-0.056277,-0.043429,0.115951,0.032976,-0.152712,0.096599,0.017652,0.339333,-0.035464,-0.042392,0.130509,-0.218664,0.116029,0.224921,0.028451,-0.167853,0.22992,-0.193433,0.081914,0.049713,0.080249,-0.024711,0.179183,-0.07777,-0.061904,-0.069536,0.050958,-0.04243,-0.237386,-0.07713,-0.003039,0.01885,-0.133825,-0.081106,-0.258363,-0.04965,0.317148,-0.051421,0.209955,-0.362468,-0.211393,0.248933,-0.018069,0.185194,-0.046606,0.056099,0.233021,-0.114017,-0.086844,0.08764,-0.118979,-0.281161,0.017681,-0.048697,0.041476,0.209411,-0.244851,0.03731,0.095153,0.210524,-0.122488,0.202366,-0.104587,-0.100303,-0.016119,0.220387,0.335448,-0.067347,0.115339,-0.064326,0.033479,-0.088047,-0.023201,-0.132833,0.009912,-0.110612,-0.09512,0.142735,0.071175,-0.163161,-0.01685,0.159675,0.019584,0.317325,-0.094279,-0.237941,0.04702,0.244101,0.006777,0.110083,0.026287,0.207954,-0.304635,-0.069007,0.137973,-0.113326,-0.024875,0.072531,0.075851,0.019435,-0.00168,0.015962,-0.079256,-0.057364,0.06222,-0.185243,-0.263924,-0.139646,0.263305,-0.192508,-0.147952,0.035712,-0.010988,0.098322,-0.031924,0.142461,0.066703,-0.227887,0.177844,-0.123541,-0.342057,-0.103084,0.149637,0.036134,0.112078,0.094287,-0.089039,0.110356,0.139222,-0.228013,0.159476,-0.114203,-0.005591,-0.151371,0.030856,-0.209745,0.029319,0.002808,-0.327148,0.193519,0.004359,-0.000764,0.165568,0.145082,-0.006461,0.096251,0.119559,0.054216,-0.23255,-0.125744,-0.233047,0.034981,0.005929,0.024304,-0.250665,-0.242521,0.257442,0.144459,0.027896,0.141526,0.196574,-0.042726,0.27591,0.005382,0.210771,-0.056165,-0.028944,-0.045646,0.063804,0.053296,0.008938,-0.079621,0.027204,-0.040039,0.14993,-0.014335,0.061758,0.064226,-0.10046,0.067066,0.118922,-0.10514,-0.031063,-0.054338,-0.014817,0.016101,-0.041695,-0.078964,0.131416,0.036166,-0.080012,0.002032,-0.068013,-0.058598,0.063634,0.067703,0.065421,-0.076653,0.012536,-0.04071,-0.011122,0.000341,0.075458,-0.144439,-0.007338,0.081469,0.056425,-0.018191,-0.040801,-0.066536,-0.048921,0.073184,0.121685,0.001087,0.054683,-0.01614,-0.141071,-0.004123,-0.031639,0.03793,0.061094,-0.087557,-0.101001,0.105218,0.022076,0.031084,-0.041927,-0.103223,-0.17214,0.045824,0.010775,0.075094,0.025464,0.069954,0.080664,-0.165203,0.004938,0.032476,-0.065274,0.277061,-0.004727,0.082423,0.055198,-0.005616,-0.025173,0.032675,0.065031,0.001597,-0.100991,-0.06101,-0.104556,0.150127,-0.054065,0.018413,0.106624,-0.085109,0.046832,-0.020445,0.057128,-0.030901,0.0143,-0.03026,-0.055633,0.005016,-0.057338,0.08983,0.028684,0.045699,0.136083,0.055057,0.005992,-0.102266,-0.142192,-0.004533,0.196593,-0.069451,0.066373,0.071565,-0.07184,-0.06013,-0.063286,-0.076066,-0.031781,-0.076984,0.292343,-0.05094,-0.08341,0.157737,-0.073366,-0.212565,-0.051918,0.030927,0.061984,-0.183587,0.104508,-0.037989,0.057167,0.032876,-0.201796,0.09287,-0.047763,-0.087672,-0.156865,-0.120063,0.056819,-0.167609,0.07406,-0.080794,0.114986,-0.000873,-0.025955,0.054884,0.130553,0.094613,-0.132521,0.06274,0.037498,0.145618,0.15469,0.081175,0.028384,-0.003339,0.101562,0.093176,0.076961,-0.108276,-0.105547,-0.085202,-0.159883,-0.033967,0.000292,0.20284,-0.195459,0.15303,0.138178,0.056639,-0.045451,0.124324,-0.103252,-0.039972,0.099441,-0.002625,-0.11905,0.030234,0.042478,-0.072074,-0.101685,0.034493,0.009312,-0.003056,0.167292,0.115658,0.112366,-0.007339,-0.037199,0.091352,-0.021673,0.048209,-0.237984,-0.004333,0.085027,-0.019271,-0.067929,-0.142358,0.075292,-0.088786,-0.027497,-0.099045,0.108942,0.005285,-0.219634,0.146772,0.02327,-0.166423,0.20658,0.117475,-0.08437,0.033871,0.171818,0.162326,-0.020154,-0.194495,0.175249,-0.027019,0.035243,-0.059525,0.074227,-0.025397,0.22119,0.141687,0.013272,0.042959,-0.004186,0.204429,0.039739,-0.087146,0.017334,0.087616,-0.083221,-0.08651,0.141213,0.016278,-0.087578,-0.143799,0.094011,0.180906,0.019664,0.136019,-0.069976,0.026966,0.122438,-0.229552,0.246726,-0.095454,0.190045,0.101686,-0.107224,-0.230191,0.036789,0.201049,-0.014012,-0.061464,0.04344,-0.036284,-0.041914,0.132705,-0.134524,0.073817,0.033519,-0.073227,0.205676,-0.063621,0.043975,-0.045639,-0.013866,0.057493,0.1107,0.007276,0.018782,0.09619,-0.170526,-0.152278,0.110707,0.094762,0.113974,0.067571,0.054196,0.09794,-0.001017,-0.114547,0.033227,-0.043783,0.212629,-0.010347,0.148906,0.003528,-0.125598,0.078388,0.110215,-0.109861,-0.043672,0.198786,0.039584,-0.018702,-0.026894,0.111913,-0.16008,0.051707,0.039531,-0.002399,-0.116427,0.083661,-0.1199,0.077518,0.005236,0.085381,-0.038468,-0.10922,0.093557,0.046588,0.075827,0.141798,0.195442,-0.072728,0.123432,0.033162,-0.206702,-0.043415,-0.020264,-0.015578,-0.026212,-0.035266,0.03314,-0.069393,-0.170635,0.007171,0.048304,0.024211,0.037344,-0.046102,-0.035591,-0.218774,0.091545,0.031585,-0.236827,0.151689,-0.17057,-0.046211,-0.015401,-0.160669,0.183268,-0.003656,0.03226,-0.002296,0.17039,-0.138469,0.03737,-0.064547,-0.002606,0.075814,-0.14792,0.200098,-0.126815,0.013013,0.087999,0.046957,0.089174,-0.066576,-0.175056,-0.030681,0.05483,0.046615,-0.047744,0.168168,-0.006973,-0.003466,-0.193522,-0.162177,-0.048633,-0.046854,0.476756,0.036553,0.028384,0.140869,-0.005479,-0.177197,-0.122547,0.095273,0.032044,0.039335,-0.081834,0.1479,-0.098538,0.005954,0.010178,-0.100367,-0.228345,-0.126377,-0.010438,-0.188852,-0.004779,0.041173,0.093234,0.138711,-0.022178,0.081519,-0.01632,0.102839,-0.158411,0.141975,0.348693,-0.066408,-0.167523,-0.04952,0.071774,0.13902,0.000591,0.162865,-0.092196,-0.336975,0.213583,-0.100809,0.088077,-0.089579,-0.209125,0.203845,0.253485,0.263178,-0.042878,0.031463,-0.221548,-0.019017,0.085519,0.296212,0.04659,0.13555,-0.237578,-0.259969,0.104533,0.276174,0.002602,-0.146007,0.046422,0.076499,-0.018041,-0.446468,0.161056,-0.054016,0.049427,-0.114025,-0.024198,0.337892,0.025521,-0.236558,-0.185726,-0.315743,0.017117,-0.103483,0.00341,0.12899,-0.237171,-0.152762,0.159108,-0.325333,0.036453,0.103937,-0.018881,0.156483,-0.387774,-0.209832,0.092244,-0.109698,0.078182,0.199077,-0.00089,0.070554,0.365275,-0.022521,0.057695,0.082454,-0.011296,-0.035235,-0.127698,0.27591,0.110619,0.065568,-0.029961,-0.152237,-0.003557,0.092333,-0.081892,0.244647,-0.116327,-0.139441,-0.107052,0.034153,-0.2006,0.028921,0.068799,-0.096849,-0.111307,-0.054833,-0.064022,-0.085771,0.04983,0.131582,-0.009072,-0.087006,0.013004,0.148011,0.069281,0.032729,0.24718,-0.133457,0.078835,-0.159602,0.082072,0.082094,0.0869,-0.546792,-0.005236,-0.04656,0.231926,0.009282,0.142316,0.124425,0.26959,0.07938,-0.177774,-0.02132,-0.140031,0.092975,-0.258896,-0.070731,-0.043109,-0.056584,-0.247835,-0.15439,0.08008,0.175273,0.018251,-0.11529,-0.340943,-0.163313,0.134202,-0.110674,0.014684,-0.119586,-0.05564,0.188078,-0.156458,0.21755,0.155769,-0.027492,-0.232676,-0.0958,0.07202,-0.066023,-0.201948,-0.112631,0.050205,0.051891,0.152662,0.053019,-0.029684,0.007225,0.240874,-0.160883,-0.187513,0.027301,0.137192,0.047688,0.054782,0.149111,-0.10544,-0.111795,-0.155327,0.086968,0.108791,0.030122,0.016041,0.087235,0.335967,0.177824,-0.073496,-0.178907,-0.207013,0.001333,-0.080731,0.238853,0.093111,0.049313,-0.049291,-0.065415,0.063556,-0.250803,0.151967,0.254333,-0.095157,0.067792,0.031279,-0.142553,-0.156328,0.01792,-0.077112,0.282236,-0.260488,0.062417,0.108361,0.096134,-0.066673,0.267309,-0.134344,-0.220405,-0.042469,0.192723,0.144586,-0.297334,-0.045641,-0.052682,0.029846,-0.105368,0.10747,0.134302,-0.104801,-0.086441,0.21749,-0.042628,-0.092121,-0.216793,-0.256539,-0.270693,0.179334,0.154859,0.047424,0.020628,-0.227191,-0.032543,-0.192115,-0.06183,-0.041327,0.285189,-0.079657,-0.124029,0.224257,0.013797,0.128229,0.141118,0.192246,0.163992,-0.171284,0.07252,-0.287199,-0.083574,0.22858,-0.124508,0.026322,0.106334,-0.122837,0.054527,-0.025172,-0.107963,0.100147,0.078538,-0.191764,-0.125866,0.242722,0.013249,0.044143,-0.09393,0.083659,0.086955,-0.013716,0.054644,0.090343,-0.193826,0.05291,0.027681,0.139759,-0.026145,-0.095295,-0.061649,0.185152,-0.010539,-0.074749,0.163427,-0.101522,-0.075341,-0.016774,-0.046688,-0.056977,0.139536,-0.225764,-0.08582,-0.007924,0.101381,0.071115,0.003383,0.115381,0.026696,-0.008603,0.032657,0.14746,-0.046104,0.073841,0.111159,0.200859,0.014374,0.081791,-0.129765,-0.087626,-0.005305,-0.069545,-0.04914,-0.145445,0.124369,0.043622,0.054365,-0.100527,-0.193027,0.114316,0.306458,-0.012323,0.015804,-0.151345,0.02439,-0.198558,-0.112163,-0.284757,-0.054188,0.054562,-0.151389,0.019133,0.006334,0.045637,-0.012847,0.180897,0.128106,-0.157095,-0.04007,0.081638,-0.059984,-0.150781,-0.187018,-0.015406,0.16725,-0.056827,0.226857,0.018104,-0.132832,0.053284,0.146919,-0.022929,0.210739,-0.068423,0.268465,-0.047461,-0.05958,-0.13,-0.067429,0.012336,0.024501,0.014821,-0.096572,0.003362,-0.016829,0.197955,-0.005199,0.128778,-0.061332,0.203854,-0.113047,0.137904,0.039418,0.023739,-0.027234,0.077296,0.064351,-0.092464,0.038293,-0.089116,0.133188,0.071717,-0.081862,-0.029969,0.030464,-0.002671,-0.04843,-0.074994,-0.165919,0.085277,0.095299,-0.085883,-0.053357,-0.000727,0.079664,-0.077401,-0.030021,-0.08605,-0.097558,-0.125488,0.075355,-0.005161,-0.175416,0.000819,0.024545,0.008301,-0.053296,0.16115,-0.140317,0.063966,-0.107988,-0.056711,-0.050052,-0.021615,-0.053314,-0.013454,0.12362,0.112857,-0.052573,0.080405,-0.024241,0.128444,0.055985,0.053905,-0.080704,0.106248,-0.021707,-0.017129,-0.176134,-0.046024,0.056274,-0.047512,-0.058926,-0.121082,0.007074,-0.075003,0.017028,0.012267,-0.042218,-0.016906,-0.090579,0.023042,0.130392,0.033278,-0.008777,0.093626,0.016551,0.031768,-0.059695,-0.031977,-0.053751,-0.077895,-0.056171,0.080618,-0.050367,0.014018,0.056445,-0.046104,0.190285,-0.034479,-0.064909,-0.049575,-0.063587,0.04215,-0.052244,-0.014886,0.051725,0.013976,-0.026323,0.071006,-0.057509,0.066557,0.056717,0.045236,-0.010514,-0.025025,0.022035,-0.072748,-0.06329,-0.02278,0.088893,0.095296,-0.010682,-0.193382,-0.034403,0.007093,-0.027104,0.048004,-0.000539,0.108326,0.052824,0.220504,0.146019,-0.076867,0.055566,-0.023622,-0.003776,0.114174,-0.09057,0.115785,0.168109,0.146827,0.117945,-0.070797,-0.014173,0.118792,-0.006356,-0.043145,-0.065804,0.032448,-0.142207,-0.108273,0.030264,-0.153925,-0.019078,-0.327239,-0.28897,0.020915,-0.058732,0.030084,0.056944,-0.072973,-0.171252,-0.162907,0.001604,-0.158484,0.023926,0.078888,0.195378,-0.212603,-0.434411,0.040392,-0.091316,-0.083669,0.127315,0.037696,-0.30149,-0.11387,-0.011582,0.013561,-0.293711,0.274536,-0.033961,0.119806,-0.078752,0.312197,0.060154,-0.233949,-0.083601,0.311798,-0.169086,0.032691,0.011053,-0.007747,-0.053558,-0.008682,0.150011,0.240682,-0.023077,-0.197793,-0.069886,0.038147,-0.1049,-0.278852,-0.205861,0.199535,0.081269,-0.178089,-0.067581,-0.173723,0.130739,-0.217295,-0.087009,0.202575,-0.065061,0.040148,0.06062,0.036043,0.022033,-0.031545,0.355556,-0.096894,0.097201,0.08171,-0.106483,0.040137,0.020224,-0.159641,0.213496,-0.304419,-0.01764,0.107892,0.046777,-0.332893,0.017617,-0.02773,-0.092538,-0.187227,0.027927,0.312793,-0.245858,0.22736,0.032149,-0.001383,0.056508,0.131704,0.066151,0.163982,-0.074527,0.186885,0.329435,-0.1329,-0.256885,-0.098252,-0.133916,0.292328,0.164549,0.145366,-0.097571,-0.786076,0.059081,0.017857,-0.229644,-0.112931,0.163817,-0.009326,-0.088478,0.00233,-0.045037,0.128496,0.131115,0.091962,0.017362,-0.064065,-0.02147,-0.079752,-0.074893,0.00668,0.096994,-0.001157,-0.070316,-0.060901,-0.066863,-0.092056,0.127309,0.104102,0.046466,0.006377,-0.120248,-0.00891,0.062971,0.151217,-0.04208,0.093422,0.163176,0.050633,0.013367,-0.055493,0.053096,0.039646,-0.038041,-0.164314,0.031163,-0.015806,0.095892,0.007382,0.182026,0.061771,-0.033822,-0.025595,-0.172457,-0.052129,0.066957,-0.066604,0.066025,-0.047491,-0.026317,-0.015185,-0.052933,-0.008502,-0.029628,0.01409,0.056633,-0.007383,0.045581,0.037735,0.023336,0.00728,-0.055668,0.106377,0.120246,0.103673,0.013169,-0.097739,0.012847,-0.144984,-0.00437,0.03893,-0.184217,-0.03199,0.004265,0.044877,-0.167984,0.100418,-0.108878,0.065735,0.113059,-0.142526,-0.040734,0.137951,0.077678,-0.145525,0.014317,-0.061326,0.016776,-0.119297,-0.025405,0.035691,-0.097679,0.031064,-0.090233,0.002435,0.140757,-0.160163,0.130535,0.120017,-0.00949,0.025927,0.059979,-0.070017,0.095031,0.034291,-0.015869,0.00137,0.108452,0.2768,-0.007205,-0.038249,0.069773,0.115143,-0.118877,-0.08619,-0.072656,-0.046191,0.044761,0.069582,-0.079067,-0.266087,-0.036845,0.032434,-0.104914,0.048921,0.045299,0.075533,0.086366,0.003184,-0.013269,0.215398,0.02993,-0.22661,-0.147754,-0.010349,-0.065746,-0.22114,0.030834,0.023254,-0.272749,-0.163919,0.024716,0.252223,-0.153924,-0.079792,-0.231477,0.081186,0.20701,-0.078027,0.111874,0.051624,0.249355,-0.086469,-0.100338,-0.016524,0.086598,0.084414,0.061514,-0.001548,-0.341723,0.14308,-0.063304,-0.054819,-0.004337,-0.286304,0.268722,0.266434,-0.068075,-0.057358,0.089997,-0.026317,0.101106,-0.087662,0.336727,0.100271,0.123721,-0.262161,-0.145352,0.18022,0.367239,0.083312,-0.102656,0.178077,0.041897,-0.168113,-0.305379,0.26907,0.118504,0.020741,-0.04359,0.191417,0.268594,-0.161231,-0.124891,-0.187241,-0.015245,0.22331,-0.213306,-0.192057,-0.246259,0.076338,-0.113748,0.02007,-0.090442,-0.067113,0.184829,-0.091589,0.151004,-0.057472,-0.46751,0.27341,-0.09533,-0.20694,0.114302,0.155599,0.109875,0.149454,0.111551,-0.000193,0.149591,0.157659,-0.103437,-0.097205,0.029688,0.048234,-0.035133,0.071676,-0.161513,0.2291,0.119713,-0.038447,0.260587,-0.008763,0.006794,0.191537,-0.276073,-0.387044,0.268967,0.142835,0.011851,-0.363442,-0.03369,-0.044599,0.027616,0.159166,0.080341,-0.048806,-0.410357,0.195917,0.20488,0.000372,0.299611,-0.117621,-0.219184,0.297138,-0.018575,0.258682,0.045523,-0.01355,-0.103706,-0.104979,-0.149993,0.094079,0.00776,-0.076986,-0.071032,0.039925,-0.013256,-0.07007,-0.004301,0.050725,-0.01793,0.108902,-0.239062,-0.104175,-0.066973,-0.051517,0.084687,-0.039532,0.059284,-0.070692,-0.026335,0.003444,-0.155412,-0.092518,-0.03195,-0.060629,0.041724,0.043881,-0.030103,0.020234,0.01241,-0.02548,-0.003433,0.099979,-0.19147,0.003719,0.04897,0.023332,-0.021322,-0.136612,0.155784,-0.133452,0.035211,0.140817,-0.025755,-0.055092,-0.002651,-0.028968,0.019998,0.032345,-0.043755,0.119986,-0.19799,-0.127292,0.146139,-0.065455,0.008879,-0.064489,0.099697,-0.14832,-0.010836,-0.049699,-0.042538,0.14736,-0.044003,-0.089854,-0.126344,-0.012565,-0.080393,0.056335,0.135115,-0.035174,-0.073361,0.061756,-0.000623,-0.03959,-0.112767,0.089781,-0.011399,0.067263,0.083093,0.020875,0.160086,-0.039347,-0.090329,0.021993,0.020331,0.135385,0.054762,-0.03734,-0.083588,-0.071438,-0.004116,-0.039108,0.085389,-0.034337,0.124548,0.035542,-0.029093,-0.052008,0.229225,0.009399,-0.128748,-0.075186,0.022011,0.18415,-0.170985,-0.025463,-0.035412,-0.017659,-0.028705,-0.051862,-0.10713,0.092912,-0.010415,0.260043,0.090821,-0.001579,0.081232,0.006327,-0.166547,-0.035083,0.068194,0.357009,-0.014188,-0.225706,-0.420232,-0.273302,-0.096295,0.214018,0.134164,-0.030554,0.037644,-0.09045,0.141308,0.101557,0.26117,-0.030338,-0.339746,-0.101491,-0.045762,-0.07116,0.126969,0.018923,-0.016573,-0.11896,0.208979,-0.287912,0.1378,-0.167426,-0.161064,-0.134549,0.115726,0.110747,0.028999,-0.023748,0.225332,-0.155474,-0.089819,0.178337,-0.126989,0.056658,0.156152,-0.054385,-0.149965,-0.186056,0.148924,0.150407,-0.252953,0.005662,-0.083903,0.259916,0.207635,-0.066485,0.368089,0.167094,0.07345,-0.040423,0.14683,0.253309,-0.131646,-0.237637,0.298886,0.09588,-0.088921,-0.430709,-0.285216,0.213975,-0.210367,0.068158,-0.49231,0.231687,0.108819,-0.020343,0.178408,0.007043,-0.082834,0.110327,-0.156475,0.025435,-0.051207,0.142939,-0.017613,0.099999,-0.201099,0.154496,-0.372909,0.069732,0.211441,-0.070814,0.135929,0.291814,-0.133839,0.070978,0.019224,-0.137806,-0.125354,0.069644,0.099228,-0.208578,-0.207561,-0.05478,-0.138566,-0.109103,0.055263,-0.03025,-0.053118,-0.121119,0.011199,-0.119798,0.233596,0.036863,-0.085704,-0.172739,-0.256957,-0.049266,-0.078499,0.113367,0.008126,-0.090704,-0.094762,0.130028,-0.143534,0.292312,0.004455,-0.113175,0.231356,0.218782,0.051655,0.054501,-0.005371,0.319204,0.113205,0.078407,-0.021162,0.087425,0.004653,-0.08616,-0.139251,-0.034718,-0.092641,-0.034228,-0.159551,-0.051561,0.04639,-0.017143,-0.009787,-0.095376,0.001098,-0.07853,-0.112772,0.021787,-0.035937,-0.022832,0.008182,0.090774,0.070477,-0.038217,-0.108173,0.083278,0.034434,0.086798,-0.085672,0.030641,0.04943,-0.021192,-0.125995,-0.061476,-0.034649,0.140702,0.001283,-0.046656,0.073371,-0.02361,-0.064969,-0.058846,-0.01554,0.020056,0.030404,-0.086929,-0.027331,0.061287,0.035272,0.057118,0.01629,0.047513,0.117184,-0.03523,-0.055192,0.125863,0.004522,0.051997,0.028754,-0.031106,0.07051,-0.086281,-0.0993,-0.054983,-0.182407,0.106547,-0.038776,-0.076545,-0.027984,-0.030142,-0.108302,-0.052423,0.00096,0.080825,0.195885,-0.083218,0.044058,0.069172,-0.039848,0.00205,0.146071,-0.003943,-0.065651,0.02002,0.097596,-0.003566,-0.091447,-0.039109,-0.039263,0.113511,0.096671,0.115887,-0.104649,0.007563,-0.032766,0.010248,0.036376,-0.057474,-0.079663,-0.009801,0.018002,-0.052873,0.101165,-0.040523,-0.249601,0.078926,0.134459,0.21249,-0.019396,0.0169,-0.040019,-0.078142,0.018694,-0.045363,-0.174994,0.015516,-0.13316,-0.012809,-0.097393,0.01311,0.169069,0.062668,-0.216223,-0.182134,0.164212,0.258634,0.033792,0.209248,-0.13759,-0.056671,0.046059,-0.005486,0.228495,-0.077588,0.120052,0.032426,0.113559,0.034071,-0.121582,0.127274,-0.004734,0.050753,-0.193014,0.060795,0.006773,-0.000835,-0.149133,0.01851,0.017631,-0.129685,-0.073149,-0.126073,-0.06229,-0.072267,0.070131,0.042673,-0.122826,0.037553,0.068388,-0.010152,0.093196,0.031393,-0.033379,0.023488,-0.201945,0.151423,0.028228,0.055796,0.026275,0.004385,-0.158112,0.015208,-0.136768,0.067234,0.006367,0.043158,0.051513,0.022918,-0.086472,0.008112,0.023443,0.150753,-0.081021,-0.155918,0.19611,-0.015058,0.049446,-0.062929,-0.063475,-0.141963,0.066029,0.09276,0.084199,0.114809,-0.037216,-0.013798,-0.041924,-0.02899,0.03822,-0.055344,0.395953,0.010851,-0.052854,-0.109383,-0.105449,0.157192,-0.165312,-0.012813,-0.08402,-0.082725,-0.056639,0.043923,0.040285,-0.004814,0.15659,-0.002877,0.058835,0.022822,-0.022107,0.008149,0.020229,0.045144,-0.099813,0.07374,0.022602,0.138679,-0.122917,-0.088391,-0.011887,-0.038751,-0.068359,0.052122,0.061724,-0.1647,-0.022983,-0.059411,-0.000141,-0.032968,0.107377,0.078586,-0.040286,-0.052485,-0.015031,-0.087474,-0.028,0.376282,0.036794,0.067724,0.086668,-0.165643,0.079954,0.089699,-0.032003,0.032096,0.122109,-0.07426,-0.040337,-0.251904,-0.277012,0.030574,-0.119631,-0.116139,0.124183,-0.168237,-0.251653,0.017796,0.123951,0.18416,-0.151996,-0.093062,-0.143127,0.081044,0.012214,0.095206,0.070457,-0.015451,0.098846,-0.237302,-0.054581,-0.010926,0.096673,0.114027,-0.08149,0.186381,-0.323971,-0.065672,-0.075603,-0.295655,0.020522,-0.078905,-0.006131,0.432611,-0.117767,-0.186184,-0.194905,0.080546,0.214764,0.151947,-0.001728,0.023425,-0.212954,-0.006846,-0.075465,-0.002811,0.302698,0.191828,-0.027637,0.047303,0.118146,0.127757,-0.262437,0.170219,0.25865,-0.151355,-0.006886,-0.210538,0.031274,-0.049866,-0.300077,-0.035615,-0.349087,0.210199,-0.060491,-0.00678,-0.041732,-0.240345,-0.176128,0.18419,-0.046319,-0.06065,0.018654,-0.004892,-0.011146,-0.035194,-0.331383,0.123409,-0.122544,0.152203,0.005172,0.18122,0.332839,0.265773,-0.094126,-0.093402,0.05127,-0.158852,0.10998,-0.150178,0.101719,-0.029158,0.042146,0.161975,-0.105787,-0.00787,0.002727,0.275497,0.100813,-0.170027,0.025257,-0.066682,-0.141817,-0.043312,-0.010898,-0.020753,-0.175475,-0.078781,-0.153898,0.101012,-0.074452,0.059059,-0.027326,0.01746,-0.096577,0.055801,0.250913,-0.230133,0.091186,-0.048144,-0.057834,-0.000272,0.206279,0.151514,-0.153007,0.131882,-0.222504,-0.1081,0.039002,-0.105879,-0.055327,0.151754,0.001074,0.18388,0.0055,-0.018859,-0.122802,0.034128,0.002705,0.096192,-0.008901,-0.039931,0.055199,0.068621,-0.022763,-0.105719,0.147723,0.228647,0.063087,0.078093,0.116226,0.164923,0.165325,0.283275,0.039534,0.105369,-0.161281,-0.213741,-0.092867,-0.22451,0.123146,-0.221602,-0.16939,0.050111,0.075469,0.291592,-0.151924,-0.059516,0.010456,-0.042327,0.260197,0.057826,-0.106945,0.011475,-0.12901,-0.249878,0.167718,0.01759,0.097154,-0.136724,0.219168,0.141374,-0.081342,0.064374,0.121711,0.060264,0.130842,-0.121374,0.212007,-0.107162,0.19705,0.001417,-0.175571,-0.233796,-0.276408,-0.045407,-0.018151,-0.069961,0.096141,-0.061464,-0.070746,-0.07812,0.01498,0.025011,0.093744,0.209827,0.318436,-0.026476,-0.239066,-0.048738,0.207382,-0.041157,0.004476,0.003571,-0.263768,0.279591,-0.017349,-0.018271,-0.028728,0.086379,-8.4e-05,0.059581,0.221786,0.056554,0.058322,0.00147,-0.066705,0.161398,0.123028,0.30957,-0.12717,0.166338,-0.008303,0.178542,-0.266626,0.036245,0.067736,-0.160663,-0.030546,-0.038021,-0.058891,-0.075629,-0.195137,0.180738,-0.192447,0.170812,-0.152353,-0.0077,-0.128311,-0.043387,0.008337,0.102388,0.05994,0.294163,-0.163226,-0.086214,-0.181334,0.049404,-0.089323,-0.08085,0.027228,0.094904,-0.169547,-0.108972,-0.011598,0.205534,-0.044298,-0.01021,-0.315131,0.036948,0.035572,-0.189154,-0.077836,0.166572,0.207636,-0.022251,0.0807,-0.02789,0.090729,0.04776,0.014093,0.231132,-0.322845,0.238788,-0.06687,-0.113671,0.034584,-0.372623,0.127902,0.3018,-0.02852,-0.073562,0.202537,0.044514,0.015854,-0.141494,0.378556,0.172086,0.190845,-0.162094,-0.313277,0.152372,0.454309,-0.004095,-0.198757,0.285541,0.074516,-0.106085,-0.476622,0.360809,0.277012,-0.055108,-0.037318,0.077886,0.383104,-0.187097,-0.266619,-0.145936,-0.104949,0.421718,-0.156676,-0.138558,-0.246472,0.005663,-0.355049,0.021517,-0.061353,-0.066943,0.237039,-0.023204,0.026502,0.087616,-0.403665,0.271156,-0.131934,-0.026247,0.168469,0.193176,0.282007,0.373072,0.023366,0.029488,-0.161143,0.096618,0.04363,-0.106622,0.078146,0.070977,-0.122844,0.064339,0.045989,0.0421,0.084859,-0.052442,0.133605,0.080455,-0.025615,0.101976,-0.352286,-0.192051,0.118132,0.26684,-0.341508,-0.420458,-0.147552,-0.034859,-0.123069,0.067057,0.108666,-0.355354,-0.524799,0.330269,0.300068,0.119902,0.381399,-0.046131,-0.180426,0.087596,0.129812,0.400936,-0.073844,0.054911,-0.116973,0.042914,-0.061243,0.062464,0.011542,0.059532,-0.105054,0.17996,0.045082,0.028993,0.110604,0.04598,0.064181,0.107979,-0.193136,0.015927,0.073462,-0.104322,-0.045862,0.019562,0.088116,0.032487,-0.080767,-0.078474,-0.073396,-0.07212,-0.083281,-0.005344,-0.15471,0.14967,0.070329,0.084058,0.002523,-0.062694,0.052923,0.126275,-0.241864,-0.058638,0.12771,0.032886,0.082552,-0.119197,-0.04691,-0.008634,-0.026842,0.12295,-0.023647,-0.097214,0.079499,-0.083359,-0.012779,0.089479,-0.037753,0.003064,-0.124353,-0.072304,0.137537,0.057406,0.110092,-0.039628,-0.251074,-0.077156,0.094097,-0.00528,0.110918,0.089219,0.043979,-0.020366,-0.163182,0.069975,0.04685,-0.172962,0.279018,-0.088273,0.069158,0.047391,-0.092423,0.055387,-0.150454,0.113448,0.141594,-0.190045,0.028238,-0.019273,0.013579,-0.003714,0.017304,0.096003,0.014437,0.147991,0.131226,0.03135,-0.164637,-0.061059,0.018458,-0.04859,0.103372,-0.044798,-0.044602,-0.056643,-0.078715,0.197324,0.223647,0.059621,-0.107504,-0.188135,0.121193,0.042037,0.066199,-0.097582,0.081325,0.04028,0.047537,-0.041674,-0.033402,0.05057,-0.065455,0.360033,-0.065206,-0.101103,0.231537,-0.117901,-0.185288,-0.194504,-0.014442,0.193906,-0.04355,0.120111,0.081596,-0.002062,0.071084,-0.093073,-0.124981,0.00578,-0.158391,-0.06496,-0.126828,0.038562,-0.002508,-0.094579,-0.060232,0.035757,0.050469,-0.050143,0.042341,0.09838,0.082337,-0.028198,-0.032842,0.178505,0.10028,0.125033,0.183898,0.031267,0.028301,0.047478,0.090157,0.112644,-0.061833,-0.176387,-0.045308,-0.24836,-0.046673,-0.044072,0.040283,-0.087497,-0.030791,0.121817,0.003114,-0.173002,0.128568,-0.049211,0.093228,-0.066369,-0.033047,-0.093103,-0.082269,-0.092033,0.062788,-0.003044,-0.028954,-0.068262,0.084067,0.17483,-0.066191,-0.087044,0.0278,0.155378,0.294249,-0.048613,-0.009536,0.026503,0.028758,-0.038987,-0.076698,-0.095333,-0.063538,-0.059477,0.049639,-0.107769,-0.134618,0.050886,-0.031065,-0.040434,0.10049,-0.000334,-0.002449,0.055685,0.158455,0.059014,-0.199395,0.142251,0.233118,-0.01084,-0.137853,-0.035718,-0.153729,0.073927,0.028327,-0.059047,0.038142,0.073218,0.224827,0.073975,0.07652,0.048768,0.102809,0.020373,-0.007538,-0.16337,0.157471,0.020324,-0.082154,0.107489,0.073963,0.219904,-0.2859,0.105708,-0.062957,-0.031861,0.009088,-0.018738,0.04142,0.066882,-0.05608,-0.085537,-0.131087,0.021266,-0.164982,0.022142,-0.2331,-0.029336,-0.013951,-0.028208,-0.036843,0.120436,-0.055039,-0.029373,0.105865,-0.010839,-0.012945,0.010696,0.022715,0.145551,-0.019817,0.070525,0.054793,0.025407,-0.103818,-0.072152,0.064745,-0.091414,-0.00375,-0.11649,-0.062701,-0.047753,0.025966,0.052863,-0.025004,-0.04051,0.124284,-0.029112,0.06747,0.043987,0.122473,0.028024,0.157658,-0.071903,0.006867,-0.054106,0.033683,-0.079785,0.079584,0.01997,0.075047,-0.087095,-0.039262,0.046842,-0.056788,-0.002226,-0.038658,0.000461,-0.025701,0.054869,-0.009357,0.06173,0.06462,-0.062315,-0.077545,0.009243,0.010261,-0.003255,-0.136158,-0.004388,0.054787,0.010314,0.087904,0.066469,-0.042084,0.086264,-0.089942,-0.066972,-0.116139,-0.001622,0.046129,0.000585,0.033073,0.088266,-0.07028,-0.04508,0.061847,-0.03817,0.034847,-0.061446,0.046932,-0.077857,-0.00014,0.025526,0.074374,-0.075316,-0.124035,0.071287,0.211435,-0.101614,0.064202,-0.054056,-0.006107,0.031587,0.052674,0.010217,-0.069286,0.064407,0.032451,0.049793,-0.104321,-0.036116,-0.013948,-0.123154,-0.207424,-0.024852,0.11293,0.042519,0.095363,-0.112181,-0.057764,0.053071,-0.015083,-0.072158,-0.032935,0.06769,0.087943,-0.048741,0.058913,0.099191,0.02486,-0.031576,-0.091426,0.088044,0.109979,-0.064844,-0.010971,-0.220066,0.003915,0.107676,0.161182,-0.07325,-0.005391,-0.041389,-0.015406,-0.060507,-0.003095,0.064232,-0.085701,0.002667,-0.093288,0.028614,-0.011509,0.031122,0.155971,-0.060125,-0.027685,0.053162,0.086717,-0.034555,-0.052817,0.039776,-0.033126,0.012756,0.046851,0.053314,-0.036905,0.023162,0.204987,0.045483,-0.036106,-0.068708,-0.097165,-0.036596,0.086184,-0.122661,-0.018587,-0.07165,-0.075854,0.076219,-0.037864,0.02484,0.118349,0.015382,0.110206,0.124365,-0.0455,0.042175,0.070564,0.127642,-0.082683,0.042423,0.025032,0.091808,0.044991,-0.000955,-0.144205,0.044394,-0.045984,0.022858,0.044284,0.019972,0.044961,-0.056922,0.01377,-0.018635,-0.065888,0.044128,-0.077215,0.07054,0.129938,-0.022916,0.105296,0.018823,-0.097123,-0.147772,-0.079814,0.093107,0.073088,-0.016512,0.119768,0.111066,-0.067216,0.036925,0.027735,-0.114579,0.122613,-0.022019,-0.025051,0.05787,0.061695,-0.031894,0.081354,0.053063,-0.031505,-0.017432,0.056021,0.035916,-0.001053,-0.028813,0.018505,0.065373,-0.14054,0.02058,0.030246,-0.109024,0.114457,-0.109765,-0.176865,0.031778,-0.017878,0.04984,-0.01582,-0.001158,0.070674,0.041332,0.003255,0.233561,-0.087416,-0.13372,-0.070602,0.003174,0.129904,-0.081216,-0.042266,-0.273336,-0.045773,0.18326,-0.123061,0.072464,-0.05243,0.045024,0.183987,-0.031165,0.068178,-0.012258,-0.116893,-0.183711,-0.171942,0.116381,0.019375,-0.06702,-0.242991,0.189043,-0.075184,-0.106838,0.099786,0.076357,0.084732,-0.107343,0.023572,-0.188717,-0.105576,0.07928,0.085534,-0.14495,-0.288752,-0.004315,0.188757,-0.054515,0.134191,-0.075886,-0.124909,0.080241,0.129272,-0.173756,-0.023963,-0.022937,0.070417,-0.084758,0.200297,0.213695,0.05515,0.004236,0.067167,0.099768,-0.02591,-0.049461,-0.022729,0.020855,-0.014632,0.061688,-0.187999,-0.077601,0.099543,-0.149228,-0.044023,0.019746,0.002749,-0.15845,-0.118251,0.14133,0.062975,0.21063,-0.09821,-0.067061,-0.010496,0.060875,-0.065647,0.0339,-0.094451,-0.174313,-0.009571,0.054612,-0.006286,-0.011026,-0.196305,-0.027859,-0.124557,0.089319,-0.035006,0.09556,0.161751,0.032246,0.112987,-0.268942,-0.09075,0.034751,0.104379,-0.113268,-0.041259,-0.050303,-0.23786,0.170232,0.116907,0.228508,-0.059828,-0.075052,0.235304,-0.006459,0.008128,0.08906,-0.117344,-0.082746,-0.036018,0.251741,0.100155,-0.234854,-0.133764,-0.014901,-0.124384,0.262878,0.157183,0.163667,-0.085079,-0.119849,-0.028921,0.018884,0.390711,-0.181817,0.006453,0.011952,-0.059141,0.270423,-0.01227,0.090263,-0.203337,-0.265449,0.167417,-0.140911,0.104632,0.102043,-0.040419,0.007125,-0.199,-0.090171,-0.006205,-0.100939,-0.104626,-0.202624,-0.05027,0.048977,0.069485,0.034382,0.151498,0.022901,0.080797,-0.077301,0.164083,0.059411,0.046594,-0.040337,-0.009694,-0.016206,-0.220691,-0.002711,-0.104302,-0.152602,-0.020831,-0.018051,-0.154878,-0.105857,-0.132767,-0.041046,-0.025918,-0.036306,-0.007067,-0.067667,-0.042065,0.096427,0.132858,-0.174772,0.015922,0.070345,0.127779,0.019073,0.198241,0.060058,-0.050518,0.038418,0.11346,0.177654,0.032452,-0.102261,0.014259,-0.185944,0.022972,0.027034,-0.213542,0.014237,0.037552,0.089566,-0.156743,-0.16511,-0.076648,-0.069818,-0.123185,0.104469,-0.127339,-0.003763,-0.010306,-0.012509,0.11498,-0.002619,-0.10063,0.067212,-0.079616,-0.026722,-0.020817,-0.012207,0.134159,-0.014219,0.052794,-0.021632,0.024765,0.122133,0.058852,-0.029774,0.056113,-0.10817,0.019453,-0.019768,-0.079469,-0.027475,-0.077294,-0.001457,-0.038964,0.032471,0.04483,0.029873,0.166639,0.040333,0.06067,0.022282,0.055791,-0.065632,-0.20378,-0.08169,-0.054625,0.084409,0.00507,0.101416,-0.11,0.005979,-0.124486,0.026691,0.051232,0.173174,-0.053757,0.119119,-0.009209,0.027573,0.139122,0.017601,0.100621,-0.281422,-0.033297,0.230219,-0.24082,0.068019,-0.076776,-0.24993,0.183681,-0.004052,-0.083031,-0.079239,-0.112,-0.040451,-0.117352,0.202667,-0.17192,0.219235,-0.1567,-0.24891,0.251204,0.141235,0.035041,-0.063065,-0.095957,-0.008092,-0.185098,0.001609,-0.102953,-0.03963,0.084082,-0.082457,0.037422,0.188655,-0.011561,-0.184929,0.098996,0.231729,-0.099245,0.439313,0.16525,-0.190345,-0.033186,-0.1846,-0.244637,-0.219936,0.041696,0.036342,-0.34173,0.135474,-0.110288,0.329102,0.047812,-0.01305,0.035797,-0.097127,0.008981,-0.028648,-0.248915,0.128086,-0.139059,-0.01893,0.117943,0.043592,0.15838,-0.168793,0.107174,0.087562,-0.171881,-0.128486,0.182548,-0.014774,-0.012474,-0.053101,-0.379856,0.15479,-0.041459,0.384468,0.369991,0.198558,0.262101,0.206229,-0.283709,-0.240587,-0.077159,-0.415304,-0.016894,-0.027938,-0.138197,-0.002014,0.046267,0.022232,0.086614,-0.22053,0.271519,0.05906,0.380646,-0.022269,0.055228,0.235382,-0.196277,0.03064,0.316723,0.169639,-0.045293,0.296287,-0.182124,0.218689,0.267185,0.2119,0.089879,-0.039868,0.021604,0.002739,-0.005101,0.090472,0.001517,-0.570245,-0.112208,-0.039945,-0.140813,-0.25678,-0.206164,-0.137409,0.045797,0.500558,-0.012631,0.139255,0.040146,-0.09181,0.024896,0.122587,0.048901,0.069912,-0.039406,-0.035032,-0.090146,-0.068323,-0.2019,-0.163659,-0.030157,0.014951,-0.051183,-0.002425,0.053713,-0.045478,-0.096313,0.059331,0.120755,0.086532,0.079776,-0.110386,0.026685,0.035582,0.110429,-0.110535,0.101604,0.001339,0.119338,0.181343,-0.100953,-0.09645,-0.151834,-0.162124,0.024738,-0.080504,0.173528,0.129455,-0.00353,-0.012731,0.282695,0.046936,0.24108,0.093301,-0.149419,-0.078725,0.035589,-0.082745,-0.068387,0.073867,-0.115018,0.073889,0.037191,-0.028677,-0.094865,0.028904,-0.044807,0.035646,0.209016,-0.028116,-0.047085,-0.049865,0.099315,0.181646,-0.225913,-0.034887,0.030481,-0.162493,-0.018468,0.05108,0.125306,0.100368,0.003654,-0.100335,-0.019478,0.098473,0.185571,0.072505,0.012781,-0.149559,0.013992,-0.060121,-0.222038,-0.046731,0.139259,0.043105,-0.157739,0.230602,-0.109401,0.076588,-0.030637,-0.061755,-0.116738,-0.229925,0.190156,-0.047882,0.024644,-0.150987,0.1143,-0.071906,-0.036431,0.13159,0.067869,-0.093083,-0.09759,0.179308,-0.137343,-0.166339,-0.051177,0.014664,-0.134671,0.011404,0.046952,0.173148,-0.067627,0.244149,0.167226,0.199085,0.108017,-0.161349,0.021529,-0.058118,-0.134463,-0.075759,-0.09515,-0.004074,0.038447,-0.036938,-0.021835,0.053407,0.026913,0.316565,-0.078328,-0.120679,0.143015,0.017126,-0.053005,0.116829,-0.065063,-0.05349,0.186718,-0.047178,-0.035194,0.076343,-0.079206,-0.228005,-0.060124,0.094064,-0.015603,0.054896,0.09753,0.0085,-0.018742,0.035319,0.331828,-0.05391,0.039853,-0.237081,-0.006124,0.065964,-0.043738,-0.270094,-0.026134,-0.081123,-0.159667,0.22048,0.088335,-0.039483,0.02586,0.053087,-0.100301,0.28726,0.0816,-0.022005,0.036718,-0.044072,0.064815,-0.189546,-0.114085,-0.016533,0.089651,-0.019619,-0.166216,-0.000873,-0.197171,-0.075222,0.115968,-0.052233,0.143364,0.026792,-0.043105,-0.055311,-0.019668,0.108435,-0.176359,0.054943,-0.014833,-0.023476,0.157669,-0.129114,-0.120331,-0.064197,-0.068721,0.229055,0.084589,-0.008584,0.020125,0.164389,-0.078071,-0.030451,-0.11271,0.025174,-0.058126,-0.041735,-0.099585,-0.084888,-0.039468,0.198208,-0.158664,0.07061,-0.072524,0.100683,0.144631,-0.01051,0.007706,0.062264,-0.149579,0.107443,0.068276,0.000942,0.061106,0.079014,-0.007809,-0.093532,-0.248287,0.149402,0.069675,0.192451,-0.008552,-0.102908,-0.122203,0.080029,0.135708,0.22331,-0.019145,-0.089467,-0.082543,-0.138504,0.143669,-0.122942,0.103279,-0.231575,-0.076622,-0.082504,0.054792,0.056612,0.039046,-0.023528,-0.052283,-0.067656,0.00428,-0.073829,0.051241,0.011621,-0.065635,0.098788,-0.025363,-0.079781,-0.086503,-0.012925,0.112361,0.155217,-0.098056,-0.000921,-0.043394,0.034693,-0.053679,0.098994,-0.070568,-0.107212,-0.068152,-0.083253,-0.044899,-0.138968,-0.033492,-0.100105,0.098215,0.111409,0.093539,0.134552,-0.004777,0.034382,-0.054819,-0.011881,-0.094043,0.006254,-0.141734,0.038646,0.000836,0.098488,0.130921,0.063104,-0.015941,0.125283,0.092567,0.046658,0.066049,-0.071814,-0.035197,0.045385,0.184986,0.021477,0.084915,0.023608,-0.180319,0.020577,0.182527,-0.008048,0.048523,-0.005501,-0.021642,0.162758,-0.097282,-0.044796,0.047108,0.055526,0.017608,-0.055842,0.000911,-0.061209,0.106693,-0.090045,-0.046163,0.029053,0.023625,0.03436,-0.043739,-0.067695,0.129823,-0.052848,-0.10659,0.037313,-0.040014,-0.103123,0.110842,-0.060297,0.039619,-0.036481,0.049964,0.111728,-0.055964,0.039438,-0.068142,0.003238,-0.056335,0.049395,-0.020987,-0.082868,-0.082259,0.171424,0.009562,0.102016,-0.01352,0.029455,0.022007,-0.077449,-0.076987,-0.096489,-0.084766,-0.02947,0.006418,-0.065918,-0.101678,-0.011239,-0.039359,-0.044123,-0.210613,-0.12186,0.171927,0.122283,-0.02258,-0.087264,-0.009062,0.085889,-0.081292,-0.1006,-0.23806,0.117939,-0.052695,0.049142,-0.013627,-0.085521,-0.0197,-0.095203,-0.023576,-0.0402,0.170754,-0.058472,-0.083091,0.052134,0.041198,0.004957,-0.277486,0.168541,-0.068611,-0.015355,0.039353,0.282898,0.087862,0.01894,0.26094,-0.143514,-0.18131,-0.076054,0.020707,-0.214623,-0.003423,-0.135652,-0.173765,0.053254,-0.039277,0.060629,-0.096888,-0.054249,-0.123683,-0.040757,0.016875,0.018975,-0.05423,0.00885,-0.229723,-0.060331,-0.025234,-0.116586,0.031319,-0.018406,-0.048863,0.071625,-0.28219,0.08812,0.065135,-0.023051,0.148891,0.053194,0.083591,-0.030503,-0.005355,0.081852,0.053316,-0.120198,-0.026176,-0.091791,0.102532,-0.047798,-0.039909,-0.105963,0.037896,-0.144834,-0.056626,-0.127868,0.109418,-0.041065,0.172767,0.035142,-0.158906,0.136058,0.207682,-0.085046,0.01131,0.099432,-0.03725,0.125297,0.08818,-0.087552,0.019134,0.05535,0.18626,-0.017092,0.056495,-0.063387,-0.096368,0.169809,-0.094925,-0.077465,0.07502,0.076611,-0.109159,0.051218,0.026096,0.151562,-0.23188,0.029038,-0.046611,-0.009898,-0.094882,-0.098768,0.067438,-0.208791,0.022927,0.187145,-0.081844,-0.175247,-0.171933,0.120914,-0.04138,-0.17027,0.115359,-0.28648,-0.037363,0.064838,0.106277,-0.118514,0.039162,-0.021166,-0.204802,0.086323,-0.14567,-0.122192,-0.072523,0.106867,0.037962,-0.032694,-0.14217,0.09101,0.005951,-0.086763,0.034905,0.141818,0.016389,0.027655,0.096824,0.193365,0.028341,0.162619,0.100438,0.094046,0.055072,0.058023,0.05162,0.114116,-0.244654,0.010813,-0.041863,-0.150119,0.069436,-0.141874,-0.004121,-0.081446,0.077835,0.230086,0.019055,-0.118832,-0.058321,0.02288,0.00953,-0.056254,-0.106536,-0.08372,-0.002769,0.11808,0.076148,-0.147023,0.092727,-0.021137,0.057242,0.088837,-0.05743,0.13858,-0.09066,0.083407,0.223642,0.035241,-0.085936,-0.121247,-0.06789,0.124458,0.016773,0.014485,-0.123736,0.115604,-0.005743,-0.02575,-0.05979,-0.025263,-0.001779,-0.109467,0.012119,0.090829,-0.124236,0.072432,0.159841,0.04165,0.130101,0.061146,-0.065393,0.066143,-0.10791,0.082509,-0.108096,-0.030866,0.056456,0.091322,-0.109408,0.03301,0.189652,0.004643,0.114124,-0.032277,0.062578,-0.040902,-0.126913,0.033494,0.204763,-0.10911,-0.179615,0.082914,0.014921,0.049958,0.001843,0.065852,0.108152,0.086269,0.017114,-0.155045,-0.027496,0.032177,-0.16862,-0.206431,-0.05865,0.048628,0.14628,0.002804,-0.074665,-0.137001,0.217891,-0.023362,-0.100102,-0.057667,-0.085386,-0.159295,0.043061,0.012903,0.010647,0.062783,-0.150651,0.051905,0.163244,-0.001105,0.063143,0.088499,0.00131,-0.032192,-0.011911,0.081824,-0.029283,0.20083,-0.112212,-0.063939,0.238667,0.084866,0.116121,0.128238,0.258352,-0.090727,-0.005476,-0.027063,0.115711,0.036687,-0.150942,-0.049791,0.003426,-0.163578,-0.023824,-0.092508,0.00387,0.085684,0.021713,0.011991,0.080338,-0.042832,-0.140985,0.019205,-0.033448,0.190573,-0.076648,0.030805,-0.12876,-0.044385,-0.028418,-0.028179,-0.062315,-0.044128,0.066154,-0.142453,0.043339,-0.093352,-0.158582,0.075279,0.104969,0.105382,0.034059,0.057723,0.083921,-0.042892,-0.02302,-0.011044,-0.273606,0.020059,-0.047954,0.058626,0.056,0.048885,-0.198294,0.003852,-0.066198,0.1436,0.070325,0.143104,0.042785,0.066681,0.033623,0.019903,0.190148,-0.125188,-0.189204,0.014375,-0.21324,0.00341,-0.137052,0.176038,0.141814,-0.088571,0.115398,0.07803,0.136339,-0.050938,0.15911,-0.003049,-0.099124,0.185782,0.253449,0.026291,0.049164,0.121656,-0.111427,-0.110787,-0.29105,0.075661,0.038961,-0.033794,-0.039159,-0.079665,0.07581,0.02839,-0.204376,0.05593,0.036615,-0.054979,-0.080726,-0.061148,-0.110226,0.010086,0.065012,0.189476,0.080866,0.015363,0.084442,0.026153,-0.101796,0.069223,0.065502,-0.050058,-0.00916,0.106057,-0.005286,0.080328,0.126393,0.07199,0.019661,0.031987,-0.094733,-0.024738,0.034996,-0.022827,-0.055452,-0.098012,0.066686,-0.065264,-0.089892,0.085814,-0.126674,0.01614,0.035353,-0.049849,-0.144358,0.03888,0.072699,0.303296,0.092662,0.070681,0.078061,0.145427,-0.165509,-0.118733,0.084063,-0.066969,0.149695,-0.014042,0.104207,-0.068768,0.084077,0.114303,0.06622,-0.033892,-0.079629,-0.101605,-0.032841,0.084569,-0.069071,-0.078826,-0.067552,-0.090351,0.24059,0.053657,-0.008694,0.082297,-0.283845,-0.171268,0.077251,-0.098756,0.042653,0.129249,0.07568,0.029805,-0.077383,0.122931,0.12661,-0.07858,0.306322,-0.043654,-0.137752,0.131496,-0.090538,0.032924,-0.09868,0.120901,0.009825,-0.1333,0.069397,-0.076014,-0.00799,-0.1049,0.037505,0.088679,-0.005944,-0.004066,0.077273,-0.072453,-0.18144,0.075671,-0.020918,-0.035679,0.111087,0.024966,-0.092574,-0.097614,0.120081,0.089565,0.159367,0.166054,-0.105408,-0.368596,0.107588,0.130669,0.049628,-0.042606,0.10097,0.162189,-0.031234,-0.116031,-0.054281,0.237452,-0.087183,0.369955,-0.045667,0.074512,0.321982,-0.255984,-0.030351,0.07868,-0.044275,0.176063,0.075198,0.008981,-0.007034,0.071203,-0.090648,-0.010991,-0.023339,0.106965,0.114253,0.143516,-0.074512,-0.141996,-0.098675,0.042252,-0.030213,-0.106968,0.006199,-0.13868,0.044994,0.07704,0.062974,0.032123,-0.048794,-0.110131,-0.076795,-0.060167,0.112579,0.071875,0.063611,-0.017731,-0.031314,-0.046467,0.032693,-0.072669,0.197347,0.067748,0.085771,-0.145318,0.090977,-0.104397,0.007863,0.040439,-0.02365,0.109357,0.004551,0.098661,0.001623,-0.003606,0.034736,0.127064,0.060098,-0.062064,0.023487,0.062835,-0.116225,0.07342,0.130563,0.097989,-0.084061,-0.070368,-0.030431,0.023577,0.0805,-0.120228,-0.011148,0.122863,-0.028442,-0.088668,0.01858,-0.017116,0.042152,-0.075539,0.062532,0.125739,-0.122868,-0.08508,-0.047955,-0.048453,0.032416,-0.151288,0.016556,0.098606,-0.017555,0.066015,0.129274,-0.000755,-0.163818,-0.156099,0.203204,-0.254146,-0.011587,-0.039997,0.109462,-0.159039,-0.037481,-0.025505,0.010199,-0.040248,0.045624,0.161904,-0.142176,0.056954,0.035864,-0.022552,0.111527,-0.031098,-0.051948,0.059172,-0.087006,0.091074,0.141495,-0.1222,0.029246,0.046034,-0.061769,0.196098,0.10521,0.028564,0.014726,-0.39383,-0.006499,-0.112448,0.130064,-0.223755,0.130469,-0.120677,-0.008931,-0.192996,0.061945,-0.318972,-0.234358,-0.078595,0.056969,0.306731,0.010847,0.075204,0.283403,-0.103374,0.22147,-0.029893,0.039611,0.065575,0.156158,-0.190275,-0.02149,0.070468,0.045806,0.181652,0.145958,-0.227175,-0.081917,-0.191212,-0.3751,-0.132056,-0.204824,0.314844,-0.157657,-0.195711,0.018893,-0.183903,0.084339,-0.20308,0.188255,0.463076,-0.157414,0.164339,-0.290455,0.056663,0.068813,-0.114495,-0.09623,0.0098,-0.140381,0.067851,0.329457,0.278371,0.335264,0.149201,-0.009867,-0.018057,0.013152,-0.209101,-0.063649,-0.082987,-0.040505,-0.296649,0.178042,-0.139206,0.048949,-0.137987,0.219666,-0.146667,0.091646,0.142786,0.215531,0.23893,0.180573,-0.226818,0.073355,-0.368473,0.41476,0.338733,0.731281,-0.156397,-0.370412,0.308684,-0.270037,0.096025,-0.009353,-0.135676,0.135566,0.368946,-0.004983,0.204793,0.363671,-0.225976,0.152623,-0.232461,0.155693,0.021447,0.132316,-0.342231,-0.503802,-0.121795,-0.015687,0.163104,0.116694,0.055612,-0.252819,0.241575,-0.140433,-0.142484,0.1623,0.098596,0.129916,-0.420088,0.018096,-0.287481,-0.301218,0.126674,-0.192017,0.252269,-0.12276,0.144331,0.071523,-0.152653,0.296881,0.206401,-0.00687,-0.161178,-0.294735,0.288253,0.387868,0.457574,-0.204975,0.164166,0.112904,0.067698,-0.087782,-0.027388,0.040081,0.024544,-0.094761,-0.086394,0.080619,0.02457,-0.026215,-0.08481,0.181381,-0.231869,-0.087517,0.014496,-0.167313,0.061255,-0.065753,-0.130348,0.017301,0.033154,-0.032743,-0.099182,0.066919,-0.026295,-0.061214,-0.073936,0.03906,0.055162,-0.205595,0.133713,0.040211,0.166961,0.006693,0.186427,-0.220835,-0.019522,-0.195137,0.023906,0.190392,-0.020222,-0.120814,-0.027218,0.0412,0.008553,0.079065,-0.154688,0.074427,0.062858,0.014643,-0.073405,-0.102912,0.02757,0.07871,0.058135,-0.041495,0.191082,-0.061374,0.002486,0.182025,-0.064819,-0.095994,-0.111113,0.106755,-0.086465,0.058428,0.059993,-0.15608,-0.095129,0.032028,-0.010493,-0.26391,0.038208,0.091232,0.117545,0.132526,0.074108,0.106907,0.053066,0.009476,0.036922,0.042062,-0.104749,0.003389,0.069699,0.000147,-0.163414,0.171478,-0.051408,-0.095926,0.158141,0.000452,-0.008732,-0.00422,0.020457,-0.150816,-0.082878,0.01355,0.14222,-0.11909,-0.012294,-0.037723,-0.030745,-0.082839,0.184844,-0.046846,-0.06655,-0.046637,0.124648,0.086368,-0.184512,-0.062106,-0.175936,0.113645,0.05242,0.013666,-0.269816,-0.017994,-0.045105,0.130945,0.035569,0.037561,0.032447,-0.03269,0.142199,-0.001656,0.295949,0.088464,0.018415,-0.041765,-0.15138,0.047373,-0.005458,0.00767,-0.017537,-0.007383,-0.009513,-0.075654,0.013865,0.055117,0.020186,-0.039186,-0.141723,0.000793,0.041027,0.008825,0.042035,0.08231,-0.001498,0.014587,0.006961,0.028754,0.077419,0.013471,-0.108448,-0.054643,-0.015884,0.017655,0.032918,-0.044436,-0.098059,-0.086607,-0.011271,-0.113725,0.108887,-0.024033,0.037106,0.023681,-0.014618,0.004314,-0.064997,-0.133133,-0.074557,-0.156637,-0.00741,0.079976,0.04915,0.096123,0.038389,0.11728,0.05191,0.020649,0.035709,0.065098,0.090879,0.010025,-0.095935,-0.063353,-0.000258,0.053849,0.038538,-0.002565,0.029975,-0.053135,-0.051322,0.056327,-0.070094,0.056291,-0.07007,0.017783,0.139778,0.032218,0.066967,-0.024925,0.175771,0.105519,-0.037696,-0.112143,0.050537,0.016027,0.065879,0.126454,-0.08834,0.064311,-0.044701,-0.152401,0.013186,0.035623,-0.097648,-0.085666,-0.03551,0.043753,-0.041713,-0.015059,-0.076332,-0.001728,-0.000879,0.078814,0.062826,-0.028052,-0.07263,0.036332,0.099896,0.033549,-0.036471,-0.069736,-0.123315,0.009067,-0.008109,-0.124056,0.072808,-0.028957,-0.020217,-0.003849,0.030286,0.036933,0.132025,-0.064772,-0.084725,-0.061699,0.108914,-0.008637,0.100538,0.039357,0.058168,0.221701,-0.214418,-0.246968,-0.188843,0.031182,0.129912,-0.082282,-0.033451,-0.101137,0.029924,-0.057358,-0.077053,0.24973,-0.265273,-0.11641,-0.062283,-0.072526,-0.11662,-0.109589,-0.048962,0.10224,0.092952,0.089296,-0.035696,-0.063491,-0.081346,-0.258836,0.146618,0.018673,0.129215,-0.104626,-0.001328,0.017399,-0.011027,-0.028037,-0.031455,-0.198894,0.000505,-0.230401,-0.046714,0.004966,-0.180832,-0.004177,-0.192105,0.102659,-0.136739,0.112697,0.03837,0.156922,0.105931,-0.137886,-0.046817,0.091914,0.005958,-0.016671,0.08395,0.021146,0.174849,0.118251,0.081672,0.149625,0.043135,-0.058984,-0.065229,-0.055112,-0.029812,0.045354,0.355991,-0.032935,-0.316382,-0.064111,-0.059456,-0.005746,0.049407,0.133533,0.120318,0.068054,0.053307,-0.025741,-0.046091,0.183609,0.053559,0.084128,0.092621,-0.083801,0.166122,0.185964,0.060434,-0.086286,0.057044,0.038212,0.34128,0.091295,-0.0998,-0.031646,-0.034225,-0.047342,-0.290996,0.041711,0.064032,-0.086099,0.057139,0.175278,-0.084689,0.093912,0.220894,-0.131835,-0.142668,0.12016,0.260121,-0.22832,-0.067985,0.031039,-0.195849,0.009545,0.042854,-0.040765,-0.022603,0.023985,0.150784,0.019139,0.133646,-0.106835,0.104263,-0.123633,0.264406,-0.047064,0.384343,0.051358,0.003927,-0.058735,-0.012736,-0.053361,0.004844,-0.038638,0.024626,0.125877,-0.015756,-0.132992,0.045019,-0.014765,0.096192,0.042595,0.038743,0.068073,0.032371,0.039955,-0.072458,0.14527,-0.000227,-0.0774,0.009426,-0.010226,-0.057051,0.029359,0.120205,0.113633,-0.046581,0.119655,-0.06381,-0.061188,-0.197369,-0.046308,-0.113732,0.012859,-0.039628,-0.071809,-0.06845,0.084799,0.023341,-0.051509,-0.028522,0.112299,-0.060627,0.083719,-0.032364,-0.053632,-0.039746,-0.101343,0.05666,-0.009724,-0.058742,0.036734,-0.029913,-0.155486,0.168159,0.049552,-0.026134,-0.011144,0.031578,0.175026,0.051219,0.06531,0.005812,0.042675,0.128988,0.048324,-0.056685,-0.051509,-0.009981,-0.066405,-0.00928,-0.032702,-0.029892,-0.03187,-0.091838,-0.023836,-0.075497,-0.07742,-0.07693,0.015043,0.092279,0.018663,0.057247,0.127174,0.059543,-0.123553,0.092351,0.081931,0.15338,0.084129,0.020904,0.063048,-0.024748,0.083673,-0.01221,0.020438,-0.007921,0.088333,0.093464,0.074398,-0.101642,0.072583,0.083289,-0.182447,0.008879,0.127418,0.214861,-0.147402,0.011364,-0.008107,0.006618,-0.026235,0.056838,0.024168,0.06526,-0.072948,0.132916,-0.082244,0.025406,-0.003743,-0.080007,-0.129988,-0.148139,0.129803,0.07008,-0.066486,-0.117067,-0.091567,0.049547,0.077596,-0.01512,-0.069725,-0.050507,-0.06711,-0.039404,0.153047,0.040285,0.077938,-0.047077,-0.134729,0.088119,0.211242,-0.006045,-0.055904,0.135404,0.043336,-0.268329,-0.067105,-0.018742,0.075008,-0.021384,-0.081209,0.098443,-0.018593,0.063963,0.30741,-0.134734,0.044213,-0.030347,0.013589,0.081443,-0.062196,0.034474,0.025075,0.017521,-0.119943,-0.040655,0.005788,-0.087147,-0.225253,-0.164402,-0.058512,0.305952,0.049657,-0.154439,-0.012843,0.054308,0.053416,-0.16002,0.031928,-0.047375,0.065461,-0.169027,-0.200444,0.019425,0.009648,0.058794,-0.127551,0.092177,-0.121613,0.085779,-0.102762,0.090791,0.074613,0.053083,-0.031016,0.100052,-0.02412,-0.07118,0.022082,0.118204,-0.009195,0.039356,0.045997,-0.038503,0.014995,0.017663,-0.007985,0.052833,0.063868,-0.039741,0.175968,0.142659,-0.207182,0.041176,0.125845,-0.084741,0.002536,0.143992,-0.117364,0.036033,0.062784,-0.004848,-0.060113,-0.179361,0.049618,0.049966,0.107331,0.00419,0.093594,-0.052104,0.098966,0.135572,-0.067155,-0.131417,-0.253578,0.142297,0.150842,0.11385,0.096695,-0.069372,-0.189914,0.052874,0.092259,0.222031,-0.166635,-0.090349,-0.009374,0.053496,0.080329,-0.051697,0.154932,-0.168726,-0.046583,0.16342,0.004497,0.033498,-0.042764,0.045962,0.017433,0.042643,-0.032924,0.031676,0.061576,0.061126,-0.211835,0.13317,0.046115,0.035584,0.045303,0.144799,-0.032074,-0.009786,0.000629,0.091044,0.027238,0.076894,0.030342,0.007863,0.099943,0.009754,-0.097549,0.026251,-0.12919,0.217574,0.020575,0.083797,-0.128437,-0.089715,0.073612,0.205504,0.007915,-0.034134,0.043824,0.113169,-0.014695,-0.080681,0.033822,-0.113951,-0.026643,-0.076882,-0.178267,-0.001477,0.082,-0.0223,0.062854,0.079707,-0.060207,-0.1237,-0.041562,0.066552,-0.115433,0.060178,0.00825,0.103002,0.078692,-0.001072,-0.02576,-0.12552,0.013771,-0.040719,-0.079397,-0.010921,-0.000542,0.009175,-0.018725,-0.105225,0.018499,-0.103622,0.04414,-0.075965,0.038179,0.011224,-0.122608,0.102598,0.131685,-0.098974,-0.052744,-0.080869,0.113283,0.008878,-0.106371,0.131845,-0.094956,-0.028836,0.002446,0.013114,-0.056677,0.145101,0.136105,0.159322,0.106855,-0.022005,0.128092,0.020856,0.09323,0.164785,0.113282,0.022474,-0.007362,-0.021343,0.071588,0.082145,0.121065,0.06258,0.096991,-0.127633,0.076134,-0.006647,-0.062908,0.058565,-0.033816,0.254268,-0.083303,0.070519,0.145477,-0.167042,-0.127955,-0.150793,-0.000288,0.069513,0.025364,0.039111,0.093679,-0.163726,-0.03724,0.011845,-0.053517,0.178463,-0.147687,-0.143546,0.203269,0.10136,0.078798,-0.11489,0.03614,0.102028,0.163576,-0.056058,0.034079,0.144761,-0.050143,-0.123984,0.016826,0.130469,0.089051,0.089513,0.106374,-0.108372,0.003319,-0.050494,0.283286,0.011242,-0.163933,-0.086082,-0.019386,0.111992,0.01727,-0.229887,-0.101001,-0.000347,-0.057485,0.119677,0.110738,-0.070958,-0.151876,-0.11148,-0.098935,0.078186,-0.062105,-0.064328,-0.116317,0.102058,0.156754,0.079002,-0.010575,0.073884,0.134129,-0.003153,-0.185996,0.135176,0.0295,-0.016547,-0.07323,0.261013,0.103906,-0.040824,0.08233,-0.115832,0.1522,0.13118,0.076241,-0.144533,-0.003983,0.083313,0.097624,0.032254,-0.122306,0.069699,0.086658,0.082893,0.111498,-0.058013,0.139412,0.057186,-0.023645,-0.110741,0.014265,0.020515,-0.038041,0.176578,-0.010646,-0.008724,-0.04229,0.070586,0.091042,0.058513,0.030361,-0.140158,0.026071,-0.147566,0.043335,0.006275,-0.081536,-0.023201,-0.11377,-0.138733,0.1436,0.167665,-0.117498,-0.253774,-0.196489,0.238176,0.170677,-0.017471,0.098089,-0.212783,-0.047278,0.00046,0.059002,0.159843,-0.08693,-0.132561,-0.313956,0.111071,0.17456,-0.024176,0.08824,-0.227743,0.079631,-0.034338,-0.066868,-0.076453,-0.064783,0.023321,0.03651,0.017239,-0.036639,0.048769,0.033,-0.023816,0.252151,-0.09227,-0.002611,0.063325,-0.168333,-0.045578,0.075089,-0.068521,-0.001882,-0.050784,-0.040807,-0.138983,-0.04336,-0.068885,-0.171729,0.134326,-0.000399,-0.056609,-0.120774,0.056732,0.044719,0.237865,0.143633,0.028859,-0.039704,-0.008158,-0.266367,0.038623,0.069228,-0.158277,0.002787,0.110372,-0.091979,-0.025322,0.042156,0.139643,0.047032,-0.05841,0.089429,0.041683,-0.083268,-0.022386,-0.051074,-0.020606,-0.017725,-0.07526,0.215161,-0.068815,-0.091462,-0.078873,-0.045968,-0.060875,-0.082222,-0.020766,-0.115881,0.206157,0.087855,-0.053754,0.209829,-0.076592,0.01182,0.064631,0.157542,0.091126,-0.018145,0.057317,-0.1713,0.052193,0.042681,0.056288,-0.089948,-0.059355,0.070878,0.134904,0.055206,0.121217,0.046281,-0.000418,0.003837,0.084084,0.015394,0.008735,-0.107034,-0.030678,-0.032909,-0.139607,-0.044048,0.026013,-0.145823,-0.040758,-0.013925,-0.07414,0.174046,0.034253,-0.099578,-0.290452,-0.104127,-0.020827,-0.109655,-0.06341,0.034678,-0.028662,-0.002783,-0.064849,-0.062298,0.041365,-0.015298,0.318755,0.059497,0.073446,0.023173,0.042256,-0.111759,0.066671,-0.10072,0.222807,0.153327,-0.179653,0.029339,-0.116007,-0.046237,0.096432,-0.146528,0.198765,-0.033832,-0.015263,0.117631,0.225369,0.222071,0.021866,0.011545,0.222008,0.239319,-0.139259,-0.009595,0.096619,-0.072917,-0.087565,0.042123,0.127123,-0.045969,0.094161,0.033061,0.066735,-0.152813,0.244632,0.051041,-0.014113,-0.093602,0.136412,-0.138511,-0.10997,0.117064,-0.149214,-0.009668,0.067275,-0.113011,-0.067368,0.017858,-0.1083,-0.298908,-0.196043,-0.120208,0.065675,-0.01188,-0.164576,0.01064,-0.023355,-0.031742,-0.028855,0.087096,0.010065,0.101577,-0.030675,-0.204984,0.100431,-0.025443,-0.040371,-0.122858,0.180004,0.037984,0.001262,-0.033233,-0.109607,0.022667,-0.027246,-0.12789,0.065016,0.054141,-0.115544,0.107716,-0.076021,0.073212,0.156771,-0.001082,0.07037,0.114384,-0.054961,-0.018662,0.015765,-0.030846,-0.098169,-0.20841,0.047931,-0.01002,0.224323,-0.045309,-0.030298,0.202341,0.126537,-0.020926,-0.031633,0.229796,-0.186416,-0.092524,-0.077226,0.141999,0.006889,-0.005198,0.04594,0.066536,-0.070134,-0.063596,0.157493,-0.058564,-0.086046,-0.061811,0.196961,0.083327,-0.099808,0.205391,-0.270897,-0.135076,-0.098262,-0.028792,0.112037,-0.105425,-0.127308,-0.282918,0.146107,0.14145,-0.102696,0.098147,-0.121778,0.049374,-0.060352,-0.047066,0.021464,0.001306,-0.00062,0.106952,-0.060548,0.085937,-0.049516,0.107371,0.100058,-0.121909,0.122804,0.06791,-0.013247,-0.038682,0.095585,0.027164,-0.000623,-0.0386,0.01237,0.07252,-0.088996,-0.061561,0.027442,0.006089,-0.108691,0.130811,-0.162884,0.03344,-0.0203,0.045314,-0.032889,0.122261,0.091889,-0.024685,0.063608,-0.057651,0.072623,-0.108607,0.000131,-0.098498,0.123124,-0.026894,0.053106,0.02539,0.279966,0.106288,0.038239,0.070507,-0.044735,-0.024756,0.059685,-0.172421,0.022488,0.015069,-0.214137,0.079441,-0.105664,-0.058951,-0.139172,-0.036033,-0.022759,0.098811,-0.023655,0.082503,-0.142789,0.025761,-0.031929,0.057722,-0.009272,0.084797,0.131656,0.090047,0.03479,-0.125204,-0.089242,-0.149299,-0.01641,0.029658,-0.092934,-0.133512,-0.044948,0.005095,-0.139171,0.151065,-0.016136,0.027728,0.068871,0.026555,0.048447,-0.157459,-0.058867,0.007124,-0.061045,-0.07418,0.172673,0.039712,0.032336,0.017591,0.083911,-0.064313,0.106238,-0.169928,-0.04674,0.264591,-0.023016,-0.172187,-0.174654,-0.196929,0.07393,-0.04457,0.059075,0.004384,0.063733,0.000894,-0.063974,0.102591,0.401865,-0.061071,0.020114,-0.108886,0.157229,0.033233,0.146236,-0.071684,-0.057998,-0.00933,0.109453,0.008152,-0.03896,0.175189,0.131915,0.037208,-0.012026,0.109015,0.059939,-0.106968,-0.122427,0.021068,-0.176243,-0.112793,-0.062009,-0.044846,-0.029994,0.157798,-0.158668,0.020023,0.066056,-0.034065,0.020087,0.018256,-0.00383,-0.13551,0.029578,0.100599,-0.010295,-0.150514,-0.026273,0.160859,0.023813,-0.039213,0.030834,-0.098332,-0.12633,0.082526,-0.058422,0.058902,0.039728,-0.078095,-0.033014,0.158341,0.063942,0.228131,-0.006648,-0.049882,-0.023953,0.024769,0.049921,-0.114034,0.066929,0.116208,-0.037945,0.124198,0.151536,-0.177264,0.062476,0.040551,0.197486,0.119551,-0.101675,-0.069907,0.004915,0.059986,0.123861,-0.068971,-0.080604,0.061849,-0.001429,-0.089772,0.120963,-0.02733,0.226897,-0.033983,0.015936,0.096955,0.074598,0.150009,0.044126,0.095865,-0.141521,-0.020529,-0.114769,-0.067017,-0.015787,0.012591,-0.131932,-0.03711,0.112318,0.040806,-0.149903,-0.012004,0.045866,-0.113724,-0.049797,-0.111633,0.112657,0.032123,-0.101762,0.208384,-0.090886,-0.088929,0.202229,0.095737,-0.131898,-0.092136,0.061157,-0.074442,-0.037851,-0.119999,-0.136338,-0.065873,0.094848,0.144515,-0.172041,-0.001838,0.076054,0.126467,0.236132,-0.012547,-0.060521,0.084196,0.150247,-0.112782,-0.012871,-0.0324,0.196506,0.014492,-0.111672,0.25581,-0.146476,-0.003101,-0.059991,-0.093735,-0.066558,-0.09475,0.10041,-0.182088,0.058864,-0.066347,0.114851,0.10368,0.026255,0.079696,0.116365,0.062702,0.152562,0.045288,0.096021,0.155434,0.099369,0.176,-0.063782,0.044338,-0.155805,-0.016343,0.043906,-0.063504,-0.097417,-0.100405,-0.179789,-0.036349,-0.177461,0.326647,-0.012886,0.022904,0.198657,0.052335,-0.02861,0.195649,-0.070649,0.067065,-0.166473,-0.165206,-0.113919,0.004255,-0.097939,-0.001454,-0.071109,-0.078294,-0.114739,0.172427,0.091916,-0.061968,-0.008356,0.02026,-0.051798,0.180164,-0.050792,-0.077492,-0.149725,0.006676,-0.03532,-0.090514,0.091927,-0.110516,-0.032797,-0.144825,-0.08142,-0.131685,0.07084,-0.03435,-0.156421,0.199742,0.022968,0.087585,0.042316,-0.055782,-0.20217,0.053087,0.063106,-0.164517,-0.004479,0.074578,0.007989,-0.156764,-0.06644,-0.269765,0.113069,-0.053168,0.127025,0.106825,0.025583,0.038904,-0.067823,0.048241,-0.029401,-0.038973,-0.057295,-0.05985,-0.036165,-0.006297,0.337182,-0.16305,0.085267,0.115301,0.098619,0.120981,-0.025365,-0.02416,-0.144454,0.075291,0.078356,-0.287318,-0.288679,-0.025434,0.12566,-0.069174,-0.014757,0.020316,-0.015333,-0.016133,-0.15212,0.034412,-0.067861,-0.045097,-0.029432,-0.042584,5e-05,0.031656,-0.044785,-0.002997,0.073631,-0.056636,-0.01656,0.033053,-0.052692,-0.060152,-0.083485,0.050166,-0.097658,0.089598,-0.163628,0.002673,0.06472,0.159861,-0.042182,0.061754,-0.00686,0.098962,-0.098428,-0.138196,-0.038179,0.002192,0.132277,-0.050335,0.157147,-0.098283,-0.09579,-0.004203,-0.054633,0.255677,-0.034034,0.076645,0.00397,0.094793,0.081811,0.1037,-0.051794,0.016544,-0.220197,0.032696,0.044812,-0.071768,-0.139071,-0.041946,-0.024698,-0.049374,-0.009602,-0.034753,0.116099,0.04303,-0.035641,0.046899,0.058361,0.05389,0.182805,-0.163565,-0.118579,0.001031,-0.182504,0.071285,-0.076851,-0.094035,-0.005245,-0.044767,-0.014319,-0.224517,0.099356,0.089351,0.088812,0.182575,-0.127131,-0.030797,0.093846,-0.022414,-0.04837,0.070739,-0.035648,-0.199144,0.123755,0.046996,-0.111329,0.029728,-0.092451,0.04782,0.057505,0.157244,-0.053492,0.032688,-0.012395,-0.035328,0.026109,0.032137,-0.087431,-0.0578,-0.062157,0.007344,0.036026,0.001734,0.036996,0.022775,-0.127057,0.262439,-0.091677,0.01785,-0.124709,-0.031874,0.024086,0.131778,0.128547,0.039341,-0.549161,0.00715,0.092114,0.028081,-0.083313,0.105718,0.032244,-0.000897,0.118298,-0.05734,0.128474,-0.123676,-0.000954,-0.008572,0.131466,-0.039654,0.035404,-0.018822,0.09958,-0.005891,-0.069485,0.036363,-0.033807,-0.114029,-0.078917,-0.046616,0.022624,-0.069881,-0.017105,0.074164,-0.068203,-0.012277,-0.086367,-0.087094,-0.014668,-0.12544,0.004991,-0.052477,-0.061772,0.084944,-0.095455,0.039234,-0.1683,0.030037,0.185342,-0.106132,0.03259,-0.27195,0.037359,0.008015,0.052028,-0.081664,-0.021846,0.021055,0.073146,0.160577,0.033291,0.051071,0.148105,0.045216,-0.065375,0.153932,-0.106421,-0.060407,0.022169,0.001998,-0.017986,0.117244,-0.076115,0.015681,-0.096222,-0.063014,0.007553,-0.106979,0.156827,0.066552,0.131011,0.051694,-0.118484,-0.035466,0.085215,0.001036,-0.04107,0.150134,-0.031351,-0.122629,0.071903,-0.028598,0.052156,-0.105871,0.008782,-0.019972,-0.012213,-0.150056,-0.082054,0.203058,-0.075575,0.00926,0.034631,-0.022129,0.157203,-0.026215,-0.097975,0.026487,0.0595,-0.19587,0.017902,-0.065649,-0.008275,-0.077931,0.040894,0.005639,0.055391,-0.043685,0.137891,-0.054463,-0.122897,0.10581,0.071157,-0.184104,-0.157104,-0.122939,0.027351,-0.031249,0.085102,-0.023183,-0.105418,-0.018727,0.332601,-0.063471,-0.095333,-0.019283,-0.065687,-0.096997,0.099705,-0.012746,0.012616,0.17152,-0.124279,0.023024,0.09262,-0.030584,0.074868,-0.069091,-0.067809,0.205462,0.03234,0.02243,-0.008372,-0.057759,0.002164,0.121829,-0.171789,-0.0299,0.138144,-0.119067,-0.019136,0.038605,-0.031226,-0.061977,-0.044842,-0.10085,-0.149944,0.093492,-0.046519,0.006841,-0.080304,0.122315,-0.12518,0.048282,-0.130659,0.076739,0.076704,0.014571,0.156981,0.037467,-0.027736,-0.013656,0.004779,0.091901,0.094377,0.092352,0.075576,-0.049999,0.157813,-0.006363,0.106401,0.010387,-0.03718,-0.038669,0.066037,-0.023412,0.131144,-0.131118,0.018157,-0.001603,-0.177798,-0.074129,-0.072276,0.070792,-0.028577,0.019758,0.050441,0.096797,-0.023233,-0.055724,0.078182,0.065132,-0.185756,0.084418,0.159522,0.107531,-0.031562,-0.06419,0.084014,-0.021636,-0.011592,-0.001165,-0.107151,-0.043858,0.05214,-0.073978,0.041212,0.318743,-0.120445,-0.12354,0.051922,-0.058911,-0.089271,0.042404,-0.13516,0.002154,-0.110598,-0.026663,0.12979,-0.099253,0.048097,0.047371,-0.011735,0.013173,-0.119181,-0.073863,0.02169,0.017781,0.06786,0.018105,-0.004997,-0.152385,-0.047723,-0.140712,0.09738,-0.076654,0.132847,0.138255,-0.029148,0.057476,0.110786,-0.007976,0.005633,-0.040709,-0.077148,-0.001248,-0.077263,-0.092025,0.002068,0.07009,-0.014539,0.076877,0.002467,0.015915,0.041259,0.164617,-0.109831,0.002231,-0.034432,0.01728,-0.043487,0.050676,0.102882,0.063466,-0.047954,0.131944,-0.031371,-0.040967,-0.012592,-0.085668,-0.018363,0.17619,-0.039663,0.010323,0.128033,0.228269,-0.091731,-0.014877,-0.094268,-0.04928,0.042884,-0.089905,0.101474,0.032992,-0.098873,-0.013787,-0.003046,0.216721,-0.060164,0.004901,-0.07014,0.08798,0.014751,0.05282,0.113487,-0.124225,-0.068521,-0.135777,-0.031504,0.027279,0.105931,-0.019308,0.050911,-0.069237,-0.020185,0.018399,-0.043225,-0.009845,0.052111,-0.056402,0.050288,-0.043756,0.248601,-0.141803,-0.083197,-0.009128,-0.144084,0.005479,0.016652,0.014981,-0.067727,-0.038109,-0.051733,-0.264809,-0.011772,-0.022995,0.06912,0.008696,-0.148219,-0.021815,0.054272,-0.103449,-0.055857,0.12061,-0.131624,-0.176286,-0.01828,0.110834,0.083631,0.046194,-0.160083,-0.006573,-0.028354,0.107629,-0.039545,0.017244,-0.038174,0.062475,0.047688,0.064333,-0.095315,0.179565,0.108578,-0.009762,-0.065965,0.179281,0.085626,0.04584,-0.224082,0.331138,-0.02893,-0.018547,-0.022854,-0.117288,0.020384,0.059919,-0.041527,0.004405,-0.35496,0.1275,-0.026205,0.007758,-0.02479,0.146116,-0.028724,-0.051705,-0.057519,0.109775,-0.070363,-0.120337,0.028682,-0.099843,0.058286,0.030675,-0.064384,-0.085106,0.024535,-0.210941,0.049191,0.083132,-0.024231,0.000314,0.002788,-0.109366,-0.100738,-0.110941,-0.234371,-0.002817,-0.013564,0.029621,-0.027448,0.092896,-0.071411,-0.21407,0.116026,-0.023997,0.089117,-0.21362,-0.002088,-0.04107,0.066912,-0.051449,0.140504,-0.229574,0.199975,-0.101021,-0.078808,0.009959,-0.081869,-0.004718,0.033257,0.049489,-0.076664,-0.05348,-0.236608,-0.1043,0.086836,0.015737,0.090059,0.196518,0.062222,0.148933,-0.136826,-0.159396,0.073713,0.112693,0.046239,0.219412,0.116564,-0.173054,-0.133,-0.141152,-0.00923,-0.1127,0.146504,0.007583,-0.069595,0.007749,0.07553,-0.042306,0.038239,-0.234686,0.010255,0.191596,-0.016396,0.103519,-0.055006,-0.153395,0.140337,0.001901,-0.084811,0.024647,-0.00682,-0.012111,0.037241,-0.048561,-0.079334,0.12,0.022367,0.057276,0.138657,-0.048612,-0.07161,-0.061471,-0.175843,-0.031587,-0.038378,-0.017677,-0.073426,0.166034,-0.016465,0.179125,0.006154,-0.144024,-0.15734,0.195079,0.124889,0.197342,-0.168122,-0.054041,-0.196761,0.039115,-0.010041,-0.072471,0.096774,-0.081481,-0.213478,-0.010301,0.033474,0.299365,-0.118351,-0.192969,-0.063507,0.049979,0.284912,-0.049587,-0.061011,0.08248,-0.024101,0.086833,-0.088437,-0.100997,0.13038,-0.034156,-0.060365,-0.032422,0.189114,0.056722,-0.035614,-0.02165,-0.017855,0.149576,-0.132004,0.04782,-0.063249,0.087716,0.122417,-0.07778,0.14027,0.119072,0.14982,-0.135609,0.003592,0.045251,-0.054774,0.074425,0.121542,-0.075649,0.050138,-0.189533,0.070966,-0.084496,-0.096048,0.121541,0.054086,-0.020582,-0.090551,-0.048314,-0.040092,-0.090437,-0.080404,0.024659,-0.181172,-0.072406,-0.143818,0.039288,-0.035091,0.167533,-0.037413,0.038586,0.036106,0.111658,0.198436,-0.216949,0.185181,0.142451,0.047584,0.067344,0.140032,0.030869,-0.066123,0.083904,-0.042065,-0.013946,-0.113087,-0.030123,-0.013774,-0.168919,-0.096135,-0.15139,0.127095,0.070174,0.003822,0.036282,-0.025947,0.161406,-0.031258,-0.046822,-0.02851,0.06411,-0.068929,-0.168738,0.152961,0.042197,0.029879,-0.012641,-0.059103,-0.013713,0.092321,0.033372,0.163795,-0.034587,-0.10071,-0.036711,-0.119234,0.091872,-0.027384,-0.051259,-0.197097,-0.077881,0.009651,0.06893,0.203665,0.015039,0.031202,0.03067,0.074199,0.108176,-0.115925,0.064606,-0.137436,-0.151568,-0.172684,-0.038021,