{"format":"ratass-rl-policy-v3","source":"ray-rllib-ppo","objective":"race-route-progress-v1","observationSize":41,"actionSize":2,"output":"first actionSize outputs are deterministic direct throttle and turn controls","layers":[{"inputSize":41,"outputSize":384,"activation":"tanh","weights":[0.609252,0.035455,-0.228208,0.096493,-0.196652,0.074347,0.189248,-0.736641,0.054473,-0.727734,-0.809309,-0.127064,-0.078477,-0.2599,-0.326157,-0.219788,-0.482133,-0.076699,-1.017694,-0.802752,-6.675599,-0.238064,0.082559,0.191594,0.263182,-0.231511,-0.01899,0.137714,-0.062,-0.043568,0.057549,-0.097167,0.138863,0.311629,0.892087,-1.049846,-0.122185,-0.150198,-0.020845,-0.104249,0.047378,0.254823,0.16281,0.170112,-0.043027,0.192541,0.154269,0.30902,-0.158236,-0.057874,0.298266,-0.228679,-0.65431,-0.7914,-0.186161,-0.340188,-0.728092,0.10079,-0.189294,0.06667,-0.302092,4.285923,-0.039894,-0.090683,0.029581,-0.299871,-0.022697,-0.490234,0.149954,0.187388,-0.03126,-0.116849,0.038977,0.184589,-0.555462,-0.37241,0.674746,0.367091,0.282113,-0.1297,-0.488275,-0.747728,-0.037025,-0.067019,0.18922,0.162844,-0.067321,0.123113,0.04499,-0.101491,0.061927,0.22909,-0.345856,0.721149,0.541243,0.200865,0.220408,0.589253,-0.065039,-0.442833,0.039905,-0.06944,-4.840989,-0.329771,-0.068667,0.044009,-0.092726,-0.099468,0.232249,0.153633,-0.015793,-0.076387,0.13334,0.00784,-0.063992,0.390391,0.047403,-0.833994,-0.245399,-0.179136,-0.050122,0.379269,0.626677,0.099533,0.17741,0.417129,0.045953,0.852521,-0.032627,0.037761,0.686433,-0.178368,0.364305,0.615903,0.285003,0.078001,-0.022485,0.381151,-1.398299,-0.000693,-0.112416,-0.551646,-0.677993,-5.283063,-0.126718,0.103219,0.052408,-0.196539,0.368258,-0.060015,-0.154373,0.032244,0.003298,-0.167448,-0.107389,-0.101169,-0.34456,0.13346,-0.7711,-0.214787,0.07276,0.27501,-0.24671,-0.01595,-0.256924,-0.151206,0.541693,0.190371,0.11356,0.038369,0.087684,-0.340629,0.403716,-0.285624,-0.438594,0.038463,0.164894,-0.190058,-0.213958,-0.056909,-0.850364,-0.436037,0.098128,0.842265,-2.421376,-0.085646,-0.05183,-0.05431,0.325229,0.19933,0.033148,-0.035117,0.000877,-0.301872,0.001118,-0.185104,-0.35222,-1.210286,0.272101,-0.48198,-0.143711,0.005714,0.449287,0.066329,0.068986,-0.374741,-0.236052,0.27524,-0.007589,0.748431,0.120863,0.006765,-0.238743,-0.043073,0.559071,-0.182472,0.215015,0.155812,-0.011648,-0.232286,-0.484109,-0.60017,-0.490916,-0.36176,0.5207,4.054826,0.326458,0.236068,-0.043568,0.152181,0.257793,-0.203532,0.158528,-0.211192,0.080476,-0.037396,-0.171367,-0.074115,0.851022,0.555886,0.546173,0.14747,-0.222075,0.338798,-0.004852,0.17869,0.241788,0.088312,0.305741,0.141204,0.690544,0.134452,0.07471,0.051649,0.168288,0.685967,0.042846,0.008164,0.166684,-0.092489,-0.463388,-1.074471,0.464135,-0.507789,-0.999065,0.206444,-0.223452,0.274907,0.106007,0.06643,0.085935,-0.014407,-0.105792,-0.033315,0.02743,-0.148942,0.027228,-0.041284,0.025483,-0.443427,0.363424,0.196094,-0.094164,-0.128685,0.004057,-0.182764,0.26957,0.168529,-0.17158,0.293636,0.205201,-0.038365,-0.003383,0.010882,-0.073259,-0.010635,-0.263779,0.750323,0.512963,0.562977,-0.347783,-0.20414,-0.413686,0.30485,0.046593,-0.12799,0.239377,-4.408577,0.013238,0.130242,0.163783,0.26374,0.213002,0.089927,0.080158,-0.184759,0.046459,-0.138985,-0.075644,-0.049114,-0.297642,0.255432,-1.13449,-0.248592,0.046645,0.183089,0.028813,0.560524,-0.722367,0.351416,0.62787,0.582238,0.026372,-0.192536,0.675168,0.368905,-0.331553,-0.444301,0.104551,-1.043314,-1.065778,-0.008141,-2.092398,0.576954,1.25126,-0.810615,-0.796979,0.062088,-0.193432,-1.263375,-0.513829,0.091901,-0.811436,-0.483431,-0.284096,-0.222113,-0.233063,0.104102,-0.245447,-0.118962,-0.070562,1.359646,-1.314176,-0.40395,0.001645,0.090431,-0.476308,-0.212842,-1.300329,-0.053507,0.200689,0.271648,0.324099,-0.290308,-0.15744,-0.097867,-0.301423,0.174988,0.038216,-0.593794,0.046145,0.168153,-0.242668,-0.172561,-0.033818,0.030707,0.142454,0.809837,-0.061968,-5.099239,-0.046398,-0.193019,0.000744,0.173068,0.056914,0.029467,-0.177195,0.117094,0.087437,0.038143,-0.006297,-0.017776,-0.475405,0.289393,-1.24686,-0.285713,-0.284579,0.042599,0.440454,0.085634,-0.275772,-0.064727,-0.447155,-0.139595,0.707854,-0.133775,-0.214477,0.804712,-0.088862,0.091676,0.815569,-0.020331,-0.048425,0.248487,0.124965,-0.660853,-0.892444,0.477576,0.28734,1.029623,-0.330742,0.177956,0.062242,-0.090368,0.074801,0.039969,0.14797,-0.183405,-0.119978,0.062643,-0.08711,0.142997,0.197293,-0.269051,1.262254,-0.34683,-0.277496,0.200705,-0.034052,-0.069493,-0.192898,-0.528963,-0.214789,0.110306,0.020643,-0.071904,-0.189764,0.055034,-0.289798,0.328213,0.640447,-0.239516,-0.167422,-0.191116,-0.269715,-0.153671,0.69638,-1.29907,-0.146876,0.694476,-0.497164,-0.198941,-0.015109,0.213758,-0.179282,-0.176581,0.308601,-0.230598,0.115327,0.123686,0.103209,0.152547,-0.086667,-0.14422,-0.323218,0.8362,-0.107097,0.158123,0.471809,0.228384,0.048966,-0.243218,-0.296049,-0.101987,-0.064261,0.01565,0.484526,0.083693,0.063492,0.230966,0.40077,0.668763,0.761406,-0.15923,-0.178529,-0.262164,-0.157776,-0.28428,0.457344,0.251718,0.541676,0.198488,2.454039,0.086864,-0.050477,-0.214392,-0.082726,0.385797,-0.292178,0.032037,0.018963,0.054941,-0.010318,0.080411,-0.224431,-0.17197,-0.494157,0.405388,-0.016291,-0.488424,0.038854,0.139233,-0.037111,0.082267,0.065341,0.269364,-0.10627,1.068086,-0.194145,0.051664,0.779426,0.067335,1.065438,0.419632,0.03405,-0.255249,-0.065998,-0.100857,-0.995426,-0.862328,-0.164265,-1.026628,1.043985,6.185218,0.317277,0.048968,0.096186,-0.104122,0.242801,-0.26621,-0.005137,0.057061,-0.077558,0.011483,0.069846,-0.033062,-0.629472,-0.057874,0.212491,0.114485,-0.015249,0.203816,-0.312515,-0.12619,-0.091056,0.104784,-0.462871,-0.096102,0.29452,0.009932,-0.005193,-0.287353,-0.238627,0.306209,0.17584,0.225211,-0.140337,-0.099015,-0.226415,0.322094,-1.624261,-0.251891,0.167471,0.035138,-2.832815,-0.457422,-0.115372,-0.300656,0.20045,0.043777,-0.317837,0.117434,0.005102,0.09893,-0.009555,0.055479,0.10448,0.494474,0.888797,-0.095098,-0.14913,0.260225,0.021418,0.227292,0.030953,-0.476143,0.13518,0.101187,-0.287622,-0.610684,0.151323,-0.042883,-0.417237,0.490775,0.509197,-0.160709,-0.289334,-0.573549,0.112023,0.029508,0.599656,1.536103,0.377455,-0.110097,-0.321705,3.505924,0.074452,-0.014845,-0.041814,-0.115442,-0.460377,0.027746,-0.27908,-0.081286,-0.160045,-0.216183,-0.048856,-0.139558,-1.617423,-1.289309,0.614441,0.061716,0.044747,-0.110162,0.164212,-0.448735,0.530862,0.083555,-0.153305,-0.151975,-0.654941,0.276573,-0.065093,-0.349459,0.040539,0.689223,0.270413,0.043116,0.063255,-0.074796,0.100293,-0.370855,0.713232,-0.218049,0.364361,0.137675,-2.307304,0.22619,0.015279,0.212119,0.216237,-0.020515,0.136844,0.151584,-0.098459,-0.053665,-0.056972,0.102609,0.051324,-0.812631,-0.736842,-0.830597,0.027643,0.165412,0.183113,-0.266514,0.05966,0.208865,0.076089,-0.430598,-0.087654,-0.935054,0.006889,-0.107323,-0.364174,-0.09375,-0.879613,-0.279638,-0.01707,-0.215008,-0.068893,0.141818,0.580934,0.575801,-0.121332,0.9356,-0.107939,4.282693,0.002674,-0.193775,0.008669,-0.164428,-0.265437,0.054528,0.06443,0.1972,0.049663,0.178104,0.175867,0.206892,0.500462,-0.16108,0.801939,0.093316,0.1978,-0.234176,0.052707,-0.253105,0.186708,-0.150379,0.527894,-0.150523,-0.042331,-0.024684,-0.179573,0.099576,0.296757,0.696442,-0.2671,0.075983,-0.185226,0.206717,0.050748,-0.314755,0.073163,-0.099863,-1.908276,-0.687074,1.465985,0.260933,0.079944,0.050274,0.245186,0.220814,-0.192049,-0.059968,-0.131266,-0.109687,-0.092937,0.131489,-0.036535,-0.755597,0.090783,0.081569,-0.033019,-0.408141,0.305525,0.179784,-0.165845,0.368186,0.10258,-0.043411,0.075371,0.460955,0.078119,0.083152,0.237644,-0.410683,-0.398688,0.490506,0.471012,0.418236,-0.11566,-0.352638,-1.035571,0.066591,-0.273469,-0.236493,0.026495,-4.945357,0.12004,0.005085,0.04436,0.175139,0.458756,0.322502,0.005431,0.202987,-0.100389,-0.113432,-0.14716,-0.150466,0.076151,0.044966,-0.47274,-0.089829,-0.156699,0.139672,0.013827,0.275568,0.106886,-0.325748,-0.361528,-0.308369,-0.605477,0.002574,-0.215453,-0.01534,-0.168923,-0.25645,-0.205865,0.200332,0.021812,-0.078397,-0.40741,0.000357,0.1932,-0.075678,-0.270285,-0.346286,4.72895,-0.152692,0.070793,0.068109,0.060329,-0.34437,0.566652,0.002708,0.015924,0.266478,-0.014389,0.251474,0.005452,0.643248,-0.113344,1.258933,0.073647,0.465746,-0.459937,0.193473,0.073853,0.263964,-0.046553,0.233582,0.139347,0.403129,-0.123489,0.025186,-0.012757,-0.099058,0.231369,-0.425037,-0.050801,-0.089391,-0.562712,-0.49555,0.160692,0.164459,0.09555,0.852388,1.239582,3.598994,0.092504,-0.115416,-0.068603,-0.262488,0.060103,-0.250281,-0.111368,0.104957,0.056458,0.065736,0.340473,0.032962,0.156337,0.34346,0.371916,0.173912,-0.310369,0.047787,0.33472,-0.250067,0.127805,-0.11087,-0.609741,0.069633,-1.066041,-0.07207,0.227465,-0.495223,0.143618,0.452079,-0.245962,0.053596,0.30492,0.380178,0.302726,1.149947,0.400993,0.325851,0.244317,-0.447048,-5.997382,-0.228098,-0.053417,0.084792,-0.066301,0.009731,0.240875,-0.110863,0.058075,0.0531,-0.034211,-0.122883,0.020876,0.028997,0.429685,-0.488385,-0.142064,0.001163,-0.476236,-0.177216,0.162346,0.417343,-0.120192,0.666193,0.092277,-0.254682,-0.15507,0.21774,0.999441,0.2361,-0.273318,-0.135091,-0.098327,-0.153932,0.439299,0.584383,-0.062157,0.081372,0.451494,-0.863037,0.234779,2.757343,0.199128,-0.228746,0.217764,-0.060274,0.112731,0.16027,0.077785,0.126151,0.137994,-0.030309,-0.129903,-0.219285,0.261362,-1.867789,0.064191,0.153621,-0.02935,0.173922,-0.254116,-0.085334,0.222556,-0.031036,-0.090353,-0.101294,-0.26332,0.096833,-0.080313,-0.382789,-0.008804,-1.048971,-0.042629,0.117756,0.097643,0.425857,0.732378,0.842672,0.113797,0.156434,0.002233,-0.47138,-6.497902,-0.320877,0.028952,-0.138093,0.001587,-0.106183,-0.08235,-0.14273,-0.113289,0.085041,-0.183261,0.064337,-0.13507,0.810647,0.732337,-0.672272,-0.192641,-0.059155,-0.268326,0.133596,0.117328,-0.458772,0.298857,0.26619,0.278901,0.299484,0.020804,0.344896,0.156298,0.297358,0.008785,0.089394,0.056152,-0.155641,-0.353339,-0.444441,-0.447308,-1.160953,-0.395938,0.482685,0.490115,-2.651173,-0.101942,0.115396,0.112451,-0.037064,-0.004285,-0.103082,-0.121726,-0.246559,-0.285713,-0.108417,-0.052915,0.028971,-0.940001,-0.041372,-0.708659,0.039203,-0.216202,0.441612,-0.248372,-0.126112,-0.180884,-0.01149,0.353368,0.020018,0.471297,-0.025958,-0.14385,0.021631,0.184544,0.432416,0.614071,0.070783,0.223898,-0.050781,-0.060773,-0.273942,-1.078688,0.250073,-1.331612,0.878259,-0.063227,0.240192,0.147481,-0.121418,-0.288661,0.358102,-0.188484,0.072432,0.048355,-0.116296,0.130456,0.016922,0.197389,-1.564839,0.738585,-0.003032,0.034084,-0.243038,0.433757,0.380887,0.16429,-0.127644,-0.166647,-0.38342,-0.203502,-0.594141,0.145056,-0.19066,-0.238265,0.143442,-1.137785,0.135198,-0.115258,-0.170921,-0.300048,-0.11523,0.361943,0.097088,-0.099564,-0.026236,1.040539,5.020381,0.178366,-0.052274,-0.006642,0.106832,-0.089854,-0.004891,0.221485,0.09945,0.141361,0.280086,0.019612,0.068691,-0.145866,0.340938,0.584939,0.09762,-0.147435,-0.157315,0.382779,0.047836,0.04403,0.221363,-0.019019,-0.039977,0.74923,0.03585,0.185708,-0.130175,-0.2887,0.441204,0.142811,-0.063505,-0.252035,-0.230055,-0.052733,-0.107395,-1.029338,0.103862,-0.373882,0.593039,-0.632357,0.148315,0.040898,0.124002,0.023953,0.232564,0.02267,-0.222143,0.000384,-0.010711,-0.081289,-0.206955,-0.183149,-0.322658,1.512096,-0.869474,-0.027596,-0.261961,0.107414,0.135097,-0.216542,-0.379022,-0.281799,-0.04894,-0.387771,-0.289117,-0.092086,-0.0836,0.170137,-0.314818,0.039525,-0.174675,-0.253,-0.539283,0.410324,0.098753,0.269977,0.344415,0.136829,-0.088537,-0.15316,5.361163,0.186853,0.162994,0.21103,0.085736,-0.040088,-0.100599,-0.070924,0.063903,0.164475,0.025993,-0.09839,-0.030077,0.455338,-0.069385,1.523506,0.399416,0.034446,-0.091883,-0.134459,-0.309335,-0.691598,-0.023451,-0.20511,-0.361253,0.115006,-0.085444,-0.073246,0.159745,-0.035213,0.023622,-0.341298,-0.601777,-0.67067,0.44417,0.241473,-0.502253,0.589534,0.1674,-0.119405,-0.11436,5.033044,0.155502,0.10685,-0.274284,0.178096,-0.018879,-0.317204,0.212455,0.192685,-0.01698,0.016705,-0.019038,-0.120956,-0.024116,-0.348733,1.278814,0.054559,-0.070319,0.056832,-0.198599,-0.598025,-0.529587,-0.118148,-0.224967,0.197794,-0.419431,0.105242,0.11938,-1.077822,0.166047,0.140983,-0.629751,0.240994,0.153499,0.105374,0.314897,0.552788,0.684482,-0.171222,0.293237,-0.339472,-6.036757,0.007003,0.33026,-0.176975,-0.263851,0.201862,-0.169333,-0.144588,0.06573,-0.001426,0.192305,-0.158785,-0.188418,-0.13253,1.274707,-1.105631,-0.20613,-0.452393,0.104814,-0.002581,0.100156,0.092893,-0.087279,-0.518201,-0.008985,-0.241996,-0.094651,0.066811,-0.978896,0.107171,-0.35402,-0.274085,0.075377,0.103743,-0.388236,-0.755333,-0.610164,0.765446,-0.118621,-0.55048,0.626134,4.770762,0.317454,0.311695,-0.037279,-0.170007,0.11822,0.105207,0.35011,0.149449,0.095811,0.080366,0.136024,0.066948,-0.490586,1.44071,0.574268,0.11084,-0.403404,-0.051597,0.191514,0.085362,-0.642085,0.041383,-0.133326,0.117138,0.2011,0.236968,0.062234,-0.183793,0.206689,-0.138973,0.307894,-0.272348,-0.535453,-0.052536,-0.362366,0.563571,-0.151698,-0.115537,0.260055,-0.420273,4.101364,-0.122885,-0.030732,-0.051448,-0.165669,-0.195886,-0.236066,0.21886,0.225592,-0.07615,0.061506,-0.126746,-0.07789,-0.529014,0.122411,1.274892,0.1049,-0.572378,-0.013091,-0.190951,-0.184597,-0.247739,-0.022233,0.059466,0.065091,0.085365,-0.095265,0.374698,0.116258,-0.041234,0.40402,-0.301964,-0.658744,-0.885261,0.313682,0.293792,-0.619976,0.036296,-0.032928,0.088975,-0.242595,3.919884,-0.255926,-0.015696,-0.007757,-0.511539,-0.411679,-0.364439,0.172901,-0.038833,0.162212,0.076372,0.223558,0.004181,-0.531994,-0.185543,0.875206,0.311857,0.418534,-0.239628,-0.208002,-0.801794,0.000609,-0.151916,0.009361,0.182332,-0.00133,0.20135,0.113922,-1.03334,0.432444,0.602452,-0.572537,0.075025,-0.040616,-0.082978,0.004674,-0.155183,-0.164549,-0.027593,0.501847,-0.187355,-5.080325,-0.180193,0.227498,-0.086149,0.083674,0.108136,-0.175298,0.026295,-0.073947,-0.140781,0.116807,0.04677,-0.11361,0.947362,0.843277,-0.581047,0.007242,0.070948,-0.09127,-0.42018,0.214913,-0.224274,-0.191797,-0.149064,-0.056761,-0.714779,-0.157419,-0.174714,-0.682227,-0.025736,-1.328994,0.087583,-0.047935,0.117218,0.162329,0.044607,0.159552,0.445045,-0.185079,0.459382,0.558355,4.659188,0.149534,-0.042383,0.122908,0.083329,-0.109924,-0.155338,-0.167705,-0.00819,0.029167,0.128138,0.072483,0.169248,0.39407,0.724541,0.967215,0.069878,0.130342,-0.053747,-0.120423,0.053788,0.179085,0.045572,-0.063907,-0.008339,0.004602,-0.090913,0.035612,-0.063542,0.445582,-0.141119,-0.329995,-0.922812,-0.789284,-0.182641,-0.475466,0.040686,-0.275982,-0.026713,0.06382,-0.377534,4.119767,-0.053691,-0.038507,0.040613,-0.379741,-0.278222,-0.292953,0.15798,0.066522,0.160353,0.093959,0.022646,0.31139,-0.367914,0.049894,1.056822,0.37398,-0.231349,-0.070737,0.199709,-1.043285,-0.399931,0.004745,0.038908,0.156229,0.144712,0.049788,0.077489,0.92262,0.137464,0.280703,0.787867,0.024406,0.171761,-0.237797,-0.252898,0.107685,-1.586114,0.411524,-0.59592,1.143702,-1.639514,0.001706,-0.007676,0.096135,0.065223,0.310087,-0.145326,-0.006209,-0.124349,-0.195749,0.075009,-0.087369,-0.127067,-0.165926,0.100425,-0.524934,-0.000978,0.01144,0.28171,-0.187829,0.127677,0.126391,0.186967,-0.209684,0.283012,-0.270036,0.146211,-0.0216,-0.090994,0.400115,0.55219,-0.179359,0.156248,0.117628,-0.621362,-0.502436,-0.426232,-0.109817,0.034749,-0.084451,0.069362,-3.82047,-0.080631,0.01872,0.154988,-0.031493,-0.091694,-0.248282,-0.11775,0.055258,-0.155831,-0.031392,0.05827,0.10921,-0.203185,-0.415767,-1.459981,-0.207599,-0.313105,0.020355,0.052305,0.202763,-0.066021,-0.100533,-0.480076,0.151196,0.095436,-0.23288,0.038264,0.110069,-0.126052,-0.533007,0.17089,0.059161,0.301749,0.332656,0.328526,-2.185975,1.09898,0.235028,-0.45662,-0.159313,-6.337921,0.160988,0.043331,0.101944,0.168824,-0.106513,0.454177,-0.128557,-0.012666,-0.166794,-0.073986,0.080509,-0.14219,1.101369,0.176846,-0.874134,-0.23293,0.043405,-0.12143,0.137996,0.182558,-0.022583,0.106169,-0.416171,0.088752,-1.022498,-0.065436,0.108602,-0.596142,0.011306,-0.590291,-0.451149,0.048604,0.08618,0.219447,0.301177,1.33815,-0.442668,0.246757,1.290278,-0.109877,-3.523457,-0.00669,-0.25754,0.044158,-0.149619,-0.113884,0.179844,-0.026197,-0.039013,-0.120791,-0.119776,0.08001,0.09173,-0.890025,-0.762487,-0.158113,-0.092875,0.241811,-0.171774,0.104567,-0.105704,-0.142981,-0.118075,-0.318198,0.096485,-0.131581,0.089359,0.069626,0.222588,0.210589,0.017107,0.636668,0.036481,0.358867,0.586522,0.749714,-0.219519,-0.25537,0.216492,-0.810782,0.297601,-2.617723,0.129941,0.024575,0.079069,0.322834,-0.072356,0.016456,0.031394,0.025404,-0.3227,-0.120776,-0.01376,0.058181,0.066221,-0.238776,-0.466322,-0.183858,-0.094443,0.176927,-0.456563,0.154429,0.143959,0.074672,-0.188728,0.207417,0.150848,-0.000443,-0.133688,-0.020609,0.184505,-0.036368,0.144726,0.479798,0.702724,-0.533098,-0.429144,0.003145,0.014211,-0.029941,-0.004455,0.207295,-4.013515,-0.08414,0.10446,0.079673,0.142958,0.272051,0.016157,-0.003435,0.096041,-0.079433,-0.031591,-0.209838,0.08586,-0.116187,0.353124,-1.140937,-0.405011,0.049792,0.149256,0.340652,0.632796,0.167709,-0.084445,-0.626901,0.087271,-1.433595,0.203826,-0.129757,-1.199012,-0.139082,-0.464181,-0.53135,0.105351,0.211739,0.223691,0.124955,0.585801,1.078939,-0.019767,-0.074051,-1.216516,-5.662951,-0.272284,0.034962,0.211276,-0.161037,-0.223481,0.29609,-0.115481,-0.004863,0.042579,0.101483,0.03257,0.035481,1.178081,0.031446,-0.129089,0.185344,-0.107594,-0.391172,0.459735,0.240281,-0.010345,-0.127557,-0.24264,0.029975,-0.124498,0.022673,-0.085922,0.758069,-0.180959,0.376937,0.507614,-0.246546,-0.456871,-0.169999,-0.487129,0.006285,-0.377868,-0.066816,0.308797,0.221365,4.01626,-0.14727,-0.218135,0.11985,0.029221,-0.313796,0.105156,0.249808,0.161118,0.295454,0.238085,0.230775,0.02193,-0.304798,-0.948892,0.826086,0.117036,-0.105888,-0.108211,0.075223,-0.471494,-0.020668,0.142019,-0.038568,-0.152303,0.134986,-0.197284,0.210061,-0.001012,0.17236,0.038652,0.180142,-0.151256,-0.368813,0.104301,0.190879,-0.85818,-0.796584,-0.210131,0.257231,-0.393853,4.231533,0.00122,0.146249,0.092535,-0.295244,-0.208183,-0.325641,-0.071711,0.107361,-0.053628,0.13806,0.172469,-0.076919,-0.105085,0.04432,1.206937,0.205223,-0.080175,-0.054611,-0.506189,-0.373484,0.155636,0.215242,-0.323204,0.158094,-0.069143,0.018609,0.047606,0.276684,-0.012445,-0.526164,0.631335,0.431893,0.339265,0.321844,0.789386,0.550058,0.182405,0.116381,0.222481,0.04667,-5.582674,-0.424807,-0.213453,-0.262911,0.036942,0.045022,0.10044,-0.236154,-0.111515,-0.146715,0.024955,-0.018448,-0.002164,0.518298,0.173296,-0.771048,-0.319196,-0.299197,-0.186309,0.14635,0.251145,0.201866,2e-05,-0.168867,0.227671,-0.092701,-0.271968,0.164439,0.437061,0.286598,-0.246211,0.587853,0.508011,0.047809,0.026693,0.308501,0.552859,-0.85723,0.095443,0.15649,0.348748,-5.002049,-0.27098,-0.144883,-0.202158,0.229083,0.047427,-0.201641,0.083164,-0.017402,0.045347,0.105584,-0.08324,-0.030151,-0.173404,-0.638002,-1.340742,-0.15465,-0.074311,0.172496,0.33506,0.366115,-0.263413,-0.034112,-0.01941,0.284973,0.029901,0.131694,0.280386,-0.170299,0.026839,-0.184179,-0.09192,-0.643603,-0.632477,-0.376027,-0.359934,-0.895688,1.736454,-0.371519,0.885372,-0.448281,0.27905,-0.1878,0.114345,0.051292,-0.15663,-0.31861,-0.031112,0.082125,-0.058757,-0.159211,-0.005921,-0.076253,-0.010468,0.92034,0.622645,-0.371668,0.009534,-0.143499,-0.236401,-0.261055,-0.545677,0.143017,-0.324412,0.1715,-0.083861,0.675518,0.159335,0.047601,1.071766,0.248473,0.059182,0.22257,-0.296565,-0.427206,-0.035841,-0.17659,-0.640328,-0.615595,0.212948,0.819753,-0.438852,4.529387,0.398556,0.172026,0.137212,-0.051335,-0.0378,-0.346676,-0.154656,0.098451,0.041853,-0.093155,0.210324,0.161822,-0.169457,0.06858,0.697271,-0.004173,0.300982,0.299506,-0.43752,-0.318568,0.187096,-0.147051,-0.004891,-0.152904,-0.252356,0.116726,-0.248688,-0.076127,0.182733,0.084788,0.606765,-0.231275,0.138109,-0.309925,-0.399931,-0.296803,0.289583,-0.470617,-0.738547,-0.067106,6.533012,0.308469,0.054078,0.059452,0.165699,-0.077103,0.09458,-0.001673,0.087751,-0.009109,-0.003606,-0.063539,0.127896,-0.104323,-0.060143,0.777188,0.226534,-0.212941,-0.246379,0.093331,0.007657,-0.003044,-0.013773,-0.530105,-0.013252,-1.166592,0.139929,0.135795,-0.801054,-0.083457,0.327999,-0.792895,-0.117141,-0.09055,-0.156268,-0.099544,1.661392,0.440703,0.106121,1.053175,2.720398,7.476604,-0.01124,-0.18577,0.105775,-0.016936,-0.207664,0.041898,0.05763,-0.032726,-0.001542,-0.021341,0.004442,0.161383,0.21564,-0.734684,0.439441,0.186626,0.033557,-0.284946,0.225126,0.091742,0.274377,-0.075376,-0.001077,-0.012356,0.742855,-0.192355,0.085575,0.803784,-0.156703,0.253128,0.380038,0.027097,0.020141,0.2454,0.363122,-0.60495,-0.639863,0.314627,-0.990877,1.21763,4.840132,0.284234,-0.038021,-0.105737,0.217311,0.077784,-0.014531,0.061877,0.12094,0.010136,-0.124872,0.070533,-0.044658,0.460318,-0.355154,0.129668,0.14373,-0.619834,-0.092066,0.011013,-0.163161,0.328764,0.011594,0.30255,0.139498,0.72827,-0.073655,0.077687,-0.507519,-0.291961,0.463241,-0.289354,0.150347,0.355059,-0.114318,0.201014,-1.014609,-0.810727,-0.367768,-0.547168,0.100904,-5.045603,0.126094,0.105041,0.12426,0.047043,0.234961,-0.130295,0.030541,-0.021918,-0.076443,-0.115697,-0.045061,-0.080826,-0.931942,0.754969,-0.860888,-0.011304,-0.306958,0.055552,-0.041152,0.259114,0.361098,-0.079487,0.056718,0.140525,0.147024,-0.12637,0.047695,-0.166857,-0.018209,-0.057118,0.212056,0.850692,0.639193,0.30156,0.531118,-0.870683,0.058589,-0.062744,0.019516,0.062693,-4.485627,-0.080556,0.050698,-0.252415,0.150411,0.334518,-0.157012,0.050105,-0.134171,-0.038326,-0.026249,0.014931,0.004702,0.048637,0.029649,-0.824422,-0.470118,-0.091738,0.181352,-0.098304,0.824771,-0.106424,0.06236,0.237241,0.332855,-0.368643,-0.305224,0.254104,0.58305,0.176156,0.495369,0.215068,0.19522,-0.01703,-0.015804,0.131689,-0.758887,-0.948488,0.501367,-0.306495,-1.206326,-2.389819,-0.093481,0.008643,0.106673,-0.387842,0.140467,0.263678,-0.083078,-0.138951,0.132668,-0.193644,0.090062,-0.229335,1.096251,-1.267199,0.002038,-0.11014,-0.295628,3.9e-05,-0.25738,0.211319,-0.041566,0.006527,0.272541,-0.108223,0.927297,0.100719,0.149111,0.904428,-0.252202,-0.348104,0.660251,-0.21935,0.017243,0.241007,0.32909,-0.464362,-0.547001,0.35087,-0.420394,-1.947706,-6.245023,-0.126659,0.026607,0.022257,-0.09903,0.141648,-0.025772,-0.217769,-0.2688,-0.214491,-0.30536,-0.100776,-0.040733,-0.244225,-0.299622,-0.417926,-0.006641,-0.011344,0.458706,0.144504,0.072048,-0.035247,-0.272229,0.309101,-0.339434,0.222477,0.090347,-0.220319,0.007515,-0.140386,-0.285348,0.083694,-0.012939,0.037313,0.317165,0.390532,-0.411271,-0.00933,-0.340222,0.01527,-0.143427,5.239938,0.524169,0.19219,0.173657,-0.348693,-0.015424,0.013829,0.085694,0.209133,0.003784,0.172257,-0.068126,-0.027451,0.259052,-0.660882,0.683478,-0.010579,-0.591115,0.047203,-0.010946,0.117322,-0.208726,0.06497,0.197328,0.272889,0.091654,0.117779,-0.086651,-0.336234,-0.217488,0.054261,-0.109101,0.608359,0.75298,-0.207978,-0.119244,-0.439923,-0.009089,0.005017,-0.067268,0.587743,-4.452842,-0.028271,0.125185,-0.158469,0.121654,0.187488,0.469964,0.049878,-0.208967,-0.252937,-0.184374,-0.062138,-0.049796,-0.027379,0.167267,-1.19627,-0.259555,-0.222355,0.150529,0.470959,0.707667,0.260096,0.18252,0.163333,0.262716,0.037467,-0.18707,-0.018647,0.038326,0.429578,-0.033087,-0.073956,0.166419,0.111584,-0.485353,-0.324577,0.763134,0.045322,-0.305976,0.283355,-0.191461,-4.390655,0.135758,0.018232,-0.004601,0.151607,-0.041214,-0.091298,0.093658,0.024628,-0.104842,0.056241,0.089218,0.077328,-0.625089,0.082432,-1.475834,-0.350698,0.263043,0.049908,0.05021,0.303483,0.259574,-0.107254,-0.025297,-0.119733,-0.423619,0.115827,-0.151288,-0.15611,-0.078174,-1.137593,-0.308609,0.24845,0.179574,0.620656,0.791979,-0.021885,0.197631,0.316224,0.123985,-0.891457,-4.855967,0.139234,0.085771,-0.056623,0.115411,-0.097402,-0.073611,-0.012663,-0.046082,-0.014632,-0.077854,-0.185318,-0.118653,0.020098,0.1837,-0.389338,-0.046341,0.152705,0.057903,0.012135,0.183747,0.236825,-0.093693,0.435429,-0.012743,-0.732276,0.117234,-0.069118,-0.524196,0.234496,-0.184092,-0.754615,0.165615,0.197755,0.016012,0.223317,1.665488,-1.161691,-0.196632,0.813246,-0.138938,-0.101052,-0.037647,-0.198594,0.0817,-0.146348,-0.235914,0.127334,0.170499,0.054683,0.054248,-0.098541,0.093757,0.080382,1.29151,-0.78437,-0.101797,0.227381,0.258445,-0.105869,0.323898,-0.01535,-0.209569,-0.328662,-0.031476,-0.111172,-0.399141,-0.105123,-0.254186,0.623922,0.012232,-0.05179,-0.661189,-0.431736,-0.28452,0.595529,0.551141,-0.295734,0.956404,0.29534,-0.636628,-0.211679,2.624612,0.14162,0.071772,-0.114147,0.07403,-0.40313,0.248823,-0.174315,0.006415,-0.079992,0.043887,-0.070772,0.095195,0.267215,-0.751763,0.538339,0.115635,0.392588,-0.001254,-0.001571,-0.276194,0.16189,0.063657,0.351876,0.146705,0.111673,-0.034702,0.121506,0.320042,0.138509,-0.662506,-0.019324,0.101731,0.265004,-0.467954,-0.31363,-1.578209,0.632859,-0.426161,0.269532,-0.048748,-4.977623,-0.064263,0.025734,-0.140535,0.14488,0.105182,-0.040523,-0.133648,0.069314,-0.081237,0.060265,-0.247815,-0.007437,-0.278721,-0.290103,-1.232356,-0.218787,0.053985,0.157399,-0.09879,0.312628,0.090754,-0.082122,0.020654,-0.205959,-0.67982,0.244022,-0.009866,-0.464688,0.124412,0.09926,-0.546489,-0.378122,-0.277974,0.284492,0.2264,1.460199,0.952531,0.222786,0.449509,0.109657,4.835169,-0.048894,0.014852,0.002608,0.187386,-0.354798,0.119621,-0.084079,-0.241714,-0.076423,-0.165553,0.1559,0.137396,0.585459,-0.675237,0.107261,0.183326,-0.257086,-0.189349,0.059314,-0.300333,-0.663042,0.612787,-0.483155,-0.053023,-0.668241,-0.262969,0.964025,-0.27396,-0.855496,-0.430092,-0.202919,-0.951641,-0.783453,0.312311,0.138187,2.636786,1.043546,0.448205,-0.412087,-0.493453,-1.61627,-0.785623,-0.695132,-0.012754,-0.610334,-0.51838,0.224252,0.015969,-0.138238,-0.378161,-0.217107,-0.456273,-0.362324,-1.116288,-2.535266,-0.917134,-0.046188,-0.076099,-0.29715,-0.058164,-0.85392,0.376189,0.166334,0.085813,0.189561,0.502359,0.072053,0.200847,-0.472852,-0.186252,0.057121,0.235534,0.325456,0.209594,-0.303012,-0.376344,-0.866377,-1.342513,-0.587221,0.114133,-0.070415,-2.765035,0.00736,0.203267,-0.001364,-0.103196,0.159165,-0.375256,-0.296293,-0.047368,0.05508,-0.011151,-0.118251,-0.065656,-0.464146,1.188565,-0.514656,0.0239,0.383847,0.118136,0.056571,0.209309,0.21666,0.129278,0.208347,0.285612,-0.292186,0.102347,-0.090396,-0.20275,-0.166042,-0.202544,0.096179,0.112246,0.104548,-0.237885,-0.346972,0.274835,1.241466,-0.179187,0.669978,0.095064,-1.517573,-0.387134,-0.182723,0.172535,0.017125,-0.16691,-0.059671,0.085021,-0.036305,-0.088731,0.085699,0.004499,0.242653,2.575746,-0.656261,0.300462,0.190176,-0.192021,-0.510942,0.370315,0.197235,-0.144911,0.167966,-0.049813,0.175135,0.204193,-0.142225,-0.328888,-0.278855,-0.220293,-0.10445,-0.022598,0.619614,0.339984,-0.267859,-0.025451,-0.397482,-0.069778,-0.17224,-0.161384,0.299856,-4.713082,-0.180171,-0.035224,-0.33651,0.112014,0.256086,0.148923,-0.063451,-0.006,-0.085799,-0.105685,0.022862,-0.061779,0.175363,0.284644,-1.161476,-0.437079,-0.592887,0.171215,0.566312,0.563156,0.132201,-0.231926,-0.020757,-0.091578,-0.336593,-0.021993,-0.17823,-0.78144,0.373752,-0.712956,-0.192257,-0.060539,-0.02785,-0.499986,-0.573253,-0.462984,-0.371088,-0.118642,-0.014761,-0.011584,4.383103,0.264651,0.141345,0.01616,-0.086039,-0.014332,0.098574,0.149586,0.097537,-0.039752,0.098578,0.17627,0.031885,0.148094,0.549119,0.586708,0.210232,-0.131214,-0.131323,0.129805,-0.264004,0.022441,-0.006278,-0.256333,-0.217908,-0.964466,0.071423,-0.020496,-0.251232,-0.230437,-0.178757,-0.121716,-0.123291,-0.016589,0.389136,0.470726,1.706236,0.727542,0.235595,0.675489,0.665469,6.382973,0.033858,-0.117333,0.096987,0.141072,-0.073265,0.164398,0.075497,0.030184,0.066708,-0.059662,0.113941,0.145595,0.318509,-0.137458,0.574169,-0.027134,0.129231,-0.310586,0.081076,-0.111964,0.245723,0.118699,0.101031,-0.163508,0.335108,-0.139613,0.240445,-0.442763,-0.058374,-0.174492,-0.170749,-0.432085,-0.373603,0.272743,0.326268,0.383354,-1.345254,0.17917,-1.109321,-0.792603,-1.853012,-0.102162,-0.065143,-0.300496,0.072253,0.094426,-0.142388,-0.0522,0.119681,-0.158522,-0.168169,-0.245822,0.054622,-1.280586,1.116763,-0.154261,-0.096392,-0.51126,0.115747,-0.497017,-0.301175,-0.120012,-0.026177,0.003724,-0.186801,-0.358886,0.122494,0.02917,0.162073,0.017112,0.382081,-0.444549,-0.311106,-0.435276,-0.022587,-0.376421,1.044896,0.161267,0.038203,-0.283533,-0.269683,5.573745,-0.248191,-0.272576,0.107398,0.044795,-0.22313,0.166069,0.095299,0.110111,-0.169904,-0.0542,-0.084248,0.178025,-0.084221,-0.482067,1.175466,0.236788,-0.159401,-0.199226,0.207734,-0.270559,-0.660397,0.145171,0.571152,0.244064,0.492647,-0.134997,0.019585,-0.433144,0.106603,1.040733,0.02555,0.243178,-0.065688,0.043769,0.116572,-0.55484,-0.029123,0.013953,0.368966,0.085348,-3.926516,0.162249,0.095762,-0.177863,0.267802,0.256878,-0.065091,0.081066,-0.25552,-0.234353,0.054843,-0.095525,0.053733,-0.260547,-0.207916,-0.607962,-0.187829,-0.169,0.047418,-0.065927,0.056181,0.269131,0.147862,-0.205371,0.132053,0.361623,0.05328,0.356292,-0.5489,-0.122877,0.578287,-0.208328,0.246164,0.093103,0.027518,0.226757,0.695891,-1.885229,0.399329,-1.443414,-1.531597,-4.098357,-0.044505,0.101059,-0.059982,-0.160051,0.125341,0.08069,0.17317,0.072925,-0.051127,0.171272,-0.05178,0.089657,-0.930156,1.002807,-0.295743,-0.081944,-0.356767,0.161964,0.015172,0.032042,0.089688,0.105145,0.372273,-0.137158,-0.183061,-0.104702,-0.032864,0.143717,0.124974,-0.717425,0.516337,0.012984,0.392343,-0.342108,-0.244982,-0.483521,1.157742,-0.31965,0.230922,0.02129,-0.544744,0.009316,0.015365,0.016059,-0.185882,0.125814,0.070403,0.054832,0.045554,0.112109,0.016747,-0.095178,0.204175,-0.136366,-1.356455,-0.243769,-0.160751,-0.211753,-0.176464,-0.262942,0.21418,-0.219317,-0.133954,-0.331087,-0.103276,0.27021,-0.150191,-0.074112,0.2733,0.322763,0.268486,0.801112,-0.255043,-0.28754,-0.464181,-0.556462,-1.437786,-0.589025,-0.299122,-0.362112,-0.130739,4.547569,0.055456,0.245258,-0.067573,0.042073,-0.124479,-0.330108,-0.02629,-0.089501,0.147126,0.155516,0.230771,-0.008282,-0.507898,0.003142,0.486273,0.245103,0.109529,-0.007617,0.146872,-0.475553,0.177024,0.080374,-0.534766,-0.083984,-0.985621,0.124428,-0.126519,-0.494106,-0.075841,-1.204563,-0.331208,-0.029589,0.102772,-0.193709,-0.068384,0.598644,1.012346,0.19622,0.951569,3.906246,4.399762,-0.152789,-0.079906,0.239832,-0.005269,-0.290346,0.39003,-0.106539,-0.054,0.074323,0.054922,0.124121,0.001466,0.79967,-0.711364,0.273917,0.199462,-0.218393,-0.352629,-0.152383,-0.074987,-0.149622,0.276778,0.402387,0.059666,-0.095564,-0.138516,0.205049,-0.286461,0.553354,-0.321953,-0.530607,0.172395,-0.106496,-0.484452,-0.302647,-0.296088,0.551736,-0.204714,0.87763,-0.092332,-2.727713,0.023478,-0.064907,-0.064241,0.36369,-0.158743,-0.100258,-0.072437,-0.163074,0.13658,-0.011972,-0.145403,0.16911,-1.137117,-0.184654,-0.817811,-0.078767,0.057764,0.14125,0.016979,-0.072237,0.054529,0.131128,0.063394,0.080155,-0.20755,-0.033892,-0.322049,0.126964,-0.001003,0.049977,0.000929,0.801053,0.978645,0.380657,0.648896,-0.256185,-0.017611,-0.043631,-0.146888,0.51456,-3.393685,0.243312,-0.086264,-0.047377,-0.008672,0.310847,0.506679,-0.009905,-0.147762,-0.145822,-0.119448,-0.313059,-0.018726,0.491615,0.370503,-0.905212,-0.361551,0.160183,-0.043642,0.019914,0.981545,-0.124304,0.019335,0.157498,0.113137,1.110839,-0.177689,0.150779,0.942588,0.019226,0.235558,1.320975,-0.182751,-0.128221,-0.197563,-0.460735,-1.427936,0.841602,0.012355,0.860934,1.132868,6.160315,-0.024216,0.124456,-0.094262,-0.018439,-0.162853,-0.411279,0.114212,0.017913,0.027275,-0.061847,0.065675,-0.088517,-0.517687,-0.150291,0.622001,0.043488,0.055174,0.153776,-0.017527,-0.039041,-0.07951,-0.099563,-0.609348,-0.123835,0.37445,-0.159477,-0.0173,0.105465,0.214902,0.081343,0.588369,-0.19143,-0.261202,-0.250338,-0.343466,-1.910306,0.143537,0.298563,-0.204912,-0.306618,4.344149,0.112912,0.316415,-0.176527,0.160234,0.221727,-0.373929,-0.001447,-0.085963,-0.009363,0.180456,0.153349,-0.101632,0.516844,0.332745,0.928567,0.176636,-0.738936,-0.249202,-0.288452,-0.244723,0.244895,-0.17047,-0.154424,-0.194244,0.310715,0.057948,0.203676,0.189562,0.426503,-0.065067,0.066314,-0.631354,-0.734154,-0.14793,-0.558245,-0.297414,-0.101249,-0.317028,-0.181758,-0.09862,4.514242,0.017903,0.05238,0.038468,0.194284,-0.230147,-0.235626,0.15588,0.142509,0.076873,0.133601,-0.071696,-0.089074,-0.53547,-0.416847,0.977834,0.127132,0.192409,0.089284,-0.197033,-0.579987,0.122159,-0.054472,0.36194,-0.004192,0.702248,0.081871,0.028062,1.236748,-0.260175,-1.014594,0.738349,0.015614,0.093559,0.296544,0.208999,-1.51616,-0.232204,0.432963,-0.217958,-1.522353,-6.399336,0.069239,-0.191233,-0.002827,0.110889,0.126538,-0.14329,0.021818,0.009067,-0.070171,-0.212244,-0.058938,0.04455,0.179825,-0.046766,-0.603125,-0.054646,-0.311168,0.486679,-0.151454,0.132426,0.285467,-0.356155,-0.216796,-0.376069,-0.322083,0.069189,-0.238367,-0.231417,-0.519986,-0.089475,0.155304,-0.113533,0.124001,0.160476,-0.092534,0.4716,0.488712,0.018644,-0.294397,0.126426,5.272027,0.111376,0.144692,0.118744,-0.142226,-0.245161,0.478839,0.170572,0.299245,-0.046601,0.250481,-0.055694,-0.004105,0.289859,-0.035544,1.160105,0.124313,-0.251635,-0.391289,0.010153,0.046682,-0.144714,0.27304,-0.157445,0.211016,-0.3743,0.105407,0.189087,0.134492,0.411393,0.846497,-0.824464,-0.210224,-0.070747,0.391803,0.450215,0.541945,0.856822,0.284481,0.867257,-0.590667,-3.006656,-0.383871,-0.080494,-0.097636,0.214609,-0.15129,-0.115572,-0.308426,-0.055946,-0.160286,-0.149391,0.166344,-0.015672,-0.248713,-0.711348,-0.215898,0.170449,-0.533206,-0.043906,-0.081699,-0.155102,-0.322639,-0.079175,-0.343684,0.134291,-0.879549,-0.025493,0.096502,0.008365,-0.134407,0.269612,-0.443596,-0.060623,-0.256804,0.274629,0.38705,1.028433,1.004652,0.397888,1.329731,-0.922761,-0.817416,-0.131314,0.065703,-0.127969,0.041601,-0.274703,0.010649,-0.170025,-0.190134,0.043762,0.018194,-0.142417,0.137239,0.414959,-0.790916,-0.034397,0.089655,0.479811,-0.378233,-0.155913,-0.094987,-0.062719,0.208775,-0.1167,0.133564,0.372331,-0.046216,0.07714,0.498532,0.131041,-0.213632,1.087211,0.079449,0.108039,-0.314399,-0.275814,-0.987889,-0.278631,-0.555605,-0.341734,0.424604,-0.144601,-0.046626,0.152146,-0.20369,-0.112677,0.171415,-0.143965,-0.134255,0.094766,0.093987,0.126055,0.014904,0.039808,0.679602,0.079341,0.21314,0.141494,-0.380222,0.012316,0.013463,-0.012102,0.515642,-0.244234,0.050429,-0.220262,0.322195,-0.025111,-0.214419,0.469272,-0.189844,0.050938,0.035253,-0.467503,-0.383578,0.130682,0.099574,-0.927245,0.447518,0.613912,-0.962716,-0.552187,3.132039,0.252581,0.192468,0.047752,-0.073614,0.050235,-0.165588,-0.110916,0.009408,-0.18749,0.112761,-0.08589,0.18386,-0.242621,0.926984,0.352092,0.230159,0.64843,0.152726,-0.237612,-0.453104,0.168708,0.1867,0.009158,0.265256,0.627501,-0.07053,0.302345,-0.146766,-0.116466,0.292283,-0.452228,0.283746,0.033905,0.304291,0.575535,0.1792,0.913814,0.339974,-0.04784,0.27006,-4.78322,-0.192214,0.13426,-0.077179,-0.198033,-0.031411,-0.373542,-0.0634,0.052117,-0.219529,-0.153406,-0.088409,-0.130112,0.196383,0.684496,-0.770016,-0.257296,0.422977,0.222853,0.232869,0.23281,-0.135888,-0.331124,-0.404341,-0.119438,0.088505,0.205602,-0.312578,-0.554727,0.01197,-0.201874,0.841029,-0.0255,0.188821,-0.173145,-0.163344,-1.155424,0.386057,-0.068319,1.197211,1.089937,3.097855,0.162714,0.155894,0.050683,-0.033448,0.117976,-0.349091,-0.346249,-0.139312,-0.100971,-0.189003,0.147187,0.103693,-0.344023,0.251831,0.267667,-0.008722,0.614328,0.179118,-0.103519,0.087208,-0.186924,-0.156457,-0.312383,0.140131,-0.227295,0.190997,-0.130896,-0.778946,-0.055753,-0.607885,0.204332,-0.055345,0.002477,-0.228503,-0.415097,-0.297441,0.718792,-0.278495,-1.209099,-1.365886,-2.059559,0.137845,0.268192,0.141046,0.054681,0.423428,0.157231,0.073967,-0.038978,-0.015832,-0.092174,-0.206982,-0.313431,0.602831,1.027717,-0.311138,-0.041431,0.288368,0.356825,0.078667,-0.110222,-0.096895,0.162408,0.428126,-0.089501,1.208113,-0.111659,0.134293,0.905304,-0.034615,0.972334,0.503064,0.115102,0.07663,0.113409,0.118,-0.656893,-0.308045,0.250324,-0.704567,-0.223081,-4.202803,0.02606,0.138372,-0.012093,0.006778,0.249355,-0.340813,-0.210205,-0.220278,0.071817,-0.080774,0.036296,-0.139426,-0.425654,0.195842,-0.420129,-0.23313,0.13559,0.401967,-0.181981,-0.032368,-0.249454,0.050691,-0.399442,-0.26736,-0.676361,-0.045823,0.037705,-0.638368,-0.326304,-0.678362,0.012494,0.015066,-0.108634,-0.01969,-0.111394,0.697831,0.673357,-0.237721,0.680004,-0.7781,3.026579,0.011961,-0.104595,0.095714,-0.077221,-0.245065,0.394861,0.00712,-0.001648,0.150631,-0.031227,0.01371,0.101418,-2.122215,-0.505047,0.651659,-0.136104,0.146272,-0.14716,0.304012,-0.136629,-0.458904,0.159538,-0.058639,0.228387,0.3813,0.062319,0.025239,-0.385712,-0.283868,0.376552,0.193912,-0.556616,-0.527807,-0.043211,-0.211501,-1.134627,-0.165488,0.219791,-0.184978,-0.463844,4.166387,0.141987,0.07059,-0.257144,-0.392493,-0.239077,-0.388486,0.016836,-0.091348,0.181524,-0.083732,0.061277,0.043106,-0.309944,0.201267,0.861395,0.320329,0.454681,-0.163341,-0.148828,-0.66578,-0.326071,-0.282663,-0.43573,-0.244301,-0.374597,-0.050883,-0.245159,0.040176,-0.169203,-0.443852,0.454525,-0.445692,-0.250883,0.264565,0.291098,-0.740353,-0.053954,-0.010139,-0.21761,0.667564,4.39256,-0.037282,0.081603,-0.308673,-0.054056,0.102011,-0.331498,-0.078359,0.218007,-0.086077,0.084359,0.119699,0.214162,0.327216,-0.045768,0.781008,0.209463,-0.025857,0.272876,0.087193,-0.242753,0.104657,0.023446,0.013739,-0.040143,0.18522,-0.096046,0.091015,-0.098234,0.015086,0.140151,-0.061976,-0.566558,-0.719821,-0.031287,-0.431991,-1.050219,-0.175604,-0.185459,0.022307,-0.565629,3.705948,-0.012692,0.024683,0.096196,0.013761,-0.478405,-0.455871,0.098302,0.083448,-0.08009,0.1962,0.037323,0.089654,-0.377493,-0.335005,0.967811,0.4272,-0.22414,-0.38034,0.014078,-0.861449,0.004668,-0.066228,0.021492,-0.228421,-0.004513,-0.072444,-0.160227,0.209381,-0.388631,0.010155,0.182116,-0.078675,-0.159746,0.343271,0.577426,0.667894,-0.502652,0.325984,-0.195924,1.133871,6.708016,-0.065337,-0.17094,-0.019675,-0.324613,0.000117,-0.123381,0.164423,-0.09212,0.080115,0.132048,0.092088,0.038149,0.366618,-0.324894,0.158171,0.258095,0.002106,0.095718,0.344141,-0.213128,-0.747374,-0.065024,0.548142,0.051296,0.166847,0.09525,-0.081946,0.491033,-0.216446,-0.259684,-0.216415,-0.0573,-0.107942,0.268984,0.122831,-0.274881,-0.940849,-0.469965,0.493533,1.621282,3.797438,0.092869,0.037311,-0.008428,0.134073,0.324922,0.05256,-0.333343,-0.243492,0.178872,-0.082909,-0.09104,-0.097124,0.157499,0.04778,0.524139,-0.115862,0.272832,0.263925,-0.293654,-0.230539,-0.198015,0.058231,0.110548,0.095669,0.200095,-0.011601,0.133333,0.293074,0.566256,-0.286205,0.005099,-0.529233,-0.600709,-0.083404,-0.172122,-1.216441,0.715465,0.146355,0.165178,0.165809,4.077036,0.042051,-0.080253,0.205624,0.033048,-0.323638,-0.397091,0.027237,0.222688,-0.107977,0.136481,0.033908,0.002123,-0.255826,0.570123,1.065289,0.284145,0.449511,-0.088533,0.166034,-0.641742,-0.200329,0.119482,-0.062891,0.314291,-0.178534,0.035986,-0.242361,-0.69875,0.168719,-0.534095,-0.744167,0.469991,0.414153,-0.057452,0.465472,-0.507462,0.13544,0.20014,-0.259248,0.157797,-4.451941,0.10347,0.076542,-0.014336,0.000461,0.486577,0.078866,-0.137969,-0.30488,-0.284706,-0.367901,-0.177307,-0.172329,0.766004,1.070998,-1.193616,-0.344088,0.209364,-0.184037,-0.126288,0.415678,-0.196018,0.108845,-0.586937,-0.102672,-0.627998,0.236249,0.180618,-0.873558,-0.040815,0.06884,-0.319383,0.266216,-0.06667,0.149827,0.30518,1.10631,0.523951,-0.035062,-0.182451,-0.500597,-6.078275,-0.393674,-0.087486,-0.010735,0.032024,-0.241624,0.019686,-0.01796,-0.028902,-0.104466,-0.12129,-0.152876,-0.099067,0.066955,0.24338,-0.517035,-0.0475,-0.240611,-0.344507,0.291978,0.137769,0.082981,0.0913,0.010238,-0.207604,0.112427,0.003019,-0.19379,0.152807,0.09929,-0.11623,-0.003973,-0.450402,-0.337958,-0.464707,-0.925161,-0.625805,0.257118,-0.216915,-0.208949,-0.289686,4.935035,0.391857,0.180795,0.017427,0.162295,0.191965,-0.094911,-0.072964,0.026883,0.118334,0.080541,0.141803,0.280834,0.015736,0.232541,0.745908,0.128751,0.200232,-0.017049,0.109911,-0.420095,-0.453983,-0.15477,0.473217,-0.242748,0.333938,-0.033061,-0.157272,-0.596003,0.180021,-0.142795,-0.429449,-0.323211,-0.332998,-0.008837,-0.263755,-0.128912,0.786161,-0.023468,0.313402,0.186578,5.450345,0.348471,0.247253,-0.131716,-0.244828,0.336216,-0.339399,0.016082,0.039057,0.058403,-0.023681,-0.049369,0.036534,-0.413066,0.402308,0.844435,0.296728,-0.347185,0.31121,-0.083893,-0.335655,-0.195505,0.037335,0.159138,0.12107,0.727245,-0.113684,0.056703,-0.00368,0.035673,0.207454,-0.482996,-0.155201,-0.06751,-0.259649,-0.186113,-1.002672,-0.255722,-0.568579,0.288502,1.105133,3.987842,-0.015522,0.221346,0.001358,0.039356,-0.095962,-0.239439,0.044571,-0.078938,0.082585,0.074348,0.215924,0.06652,-0.087104,0.620833,0.574404,-0.115677,0.606641,-0.010759,-0.629328,0.003061,0.1654,0.022171,0.021482,-0.313073,-0.539871,0.158029,-0.054216,-0.00033,0.120933,-0.495178,-0.286393,-0.073587,0.002526,-0.097696,-0.122324,1.070001,-0.346876,-0.222287,0.467715,0.028956,5.677109,0.198027,0.103838,0.248949,-0.074611,0.067522,-0.111802,-0.087858,0.089263,0.034292,0.001643,-0.032341,0.091161,0.0062,-0.337899,0.922443,0.171928,0.0892,0.342054,-0.088144,-0.180036,-0.023203,-0.03578,-0.12907,0.191066,0.085281,0.061493,-0.071067,-0.250245,0.348111,-0.069949,0.563158,0.613046,0.768609,-0.328356,-0.352915,0.322264,-0.086189,-0.038749,-0.246657,0.459935,-3.824677,0.148672,-0.215344,0.096204,0.119097,0.339283,0.161144,0.029806,-0.263321,-0.072096,-0.257047,0.082164,-0.16852,-0.270586,0.369176,-0.507929,-0.267323,0.468151,0.093945,0.194664,0.612952,0.68062,-0.1476,0.037015,-0.350728,0.178771,0.132334,-0.238062,0.213194,-0.410054,-0.515495,0.242062,0.143306,-0.000812,0.403287,0.051366,-0.196232,0.684533,0.176261,-4.4e-05,0.515654,3.947498,0.09103,-0.215637,0.100748,0.077305,0.03102,-0.073636,0.09025,-0.085,0.118853,0.207719,0.097255,0.127553,0.709713,0.960949,0.650129,-0.04517,0.588541,-0.078016,0.347804,0.117413,-0.124085,-0.02677,-0.400692,0.01383,-0.659524,0.087002,0.080662,-0.184073,0.083962,-0.853103,-0.068175,-0.17064,0.161353,-0.067852,-0.027516,-0.192894,1.365393,0.15019,0.347829,-0.891108,-6.180581,-0.277148,-0.104835,-0.065647,-0.07206,-0.255095,0.228756,-0.052183,-0.014278,0.025498,0.090081,0.012877,0.017044,0.786553,0.377781,-0.682645,-0.047245,-0.238457,-0.316873,-0.15622,0.13872,0.020668,0.050685,-0.184909,0.092498,-0.255226,-0.038554,-0.180112,-0.650403,0.362941,-0.367628,0.093564,0.098972,0.005952,-0.150914,-0.334672,0.755404,0.161817,-0.289644,0.626065,-0.488138,3.302492,0.147837,0.263024,-0.184148,-0.143586,-0.054354,-0.011816,-0.163655,0.180181,-0.024566,0.09486,-0.068015,0.077562,-0.221055,0.82341,0.523778,0.077808,-0.398068,0.019185,0.483607,-0.054473,-0.233906,0.035518,0.209525,0.133015,1.340942,0.118193,-0.005286,1.033143,-0.077178,1.262908,0.171943,-0.081292,-0.056171,-0.085268,-0.131805,-1.082749,0.016981,-0.238833,-0.871893,-1.871639,-3.646219,0.124781,0.023332,-0.091041,0.024578,0.350712,-0.313107,-0.054047,-0.182967,-0.160776,-0.063382,-0.019528,-0.154701,0.071227,0.989711,-0.412867,0.07386,0.006188,0.381922,-0.097603,0.038813,-0.186341,-0.265894,-0.177229,-0.370613,-0.006696,0.223663,-0.17431,0.282611,-0.638511,-0.547863,0.732848,-0.240626,-0.171371,0.31036,0.218964,-0.915433,0.547858,0.084681,0.036019,0.526966,4.709479,0.085896,-0.01232,0.033852,0.055826,0.046924,-0.160596,-0.071443,-0.132752,-0.042096,0.06067,-0.158391,0.160625,0.50578,-0.346006,0.883649,0.324223,-0.274303,0.014153,-0.00302,-0.18938,0.083337,-0.249594,-0.349087,-0.244113,0.096442,-0.039102,0.091214,0.526669,0.146636,-0.626135,1.256675,-0.430101,-0.711233,-0.249372,-0.320861,-1.500965,0.118404,-0.209829,-0.109596,-0.151328,3.996096,0.301688,-0.006655,0.017457,0.096675,0.016616,-0.369179,0.036572,-0.005234,0.170681,0.014918,0.188754,0.231957,-0.291754,-0.1813,1.08644,0.138199,-0.318204,-0.009812,0.015698,-0.601819,0.325976,-0.120208,-0.258672,-0.112479,-0.08864,-0.076357,-0.058929,-0.59144,-0.054766,-0.533648,0.756405,0.157768,-0.016893,-0.41507,-0.665351,-1.047527,0.318189,-0.455599,-0.268605,0.928181,5.003536,0.125511,0.272414,0.200541,0.359992,0.095392,0.230312,-0.070852,0.208511,-0.095975,-0.104748,0.037648,0.086766,-0.339502,0.337552,0.527836,0.060296,-0.111359,-0.138761,-0.145077,0.200279,0.35475,-0.159876,-0.305479,0.010245,-1.092902,0.031008,-0.101645,-1.082749,0.282947,-0.758069,-0.814595,0.129028,0.086832,-0.323064,-0.412038,1.119244,0.151511,-0.225263,-0.599093,1.18625,5.593719,0.187105,-0.13288,0.282093,0.007564,-0.184797,0.341798,0.070962,0.077507,-0.03047,0.24375,0.018733,0.154121,0.079181,-0.261968,0.581464,0.076755,-0.071155,-0.290137,0.120385,-0.058175,0.673738,-0.003723,-0.023214,-0.100023,-0.02617,0.125779,-0.147365,-0.067676,0.127137,0.326497,-0.399111,1.750887,1.690931,0.515459,1.173311,1.342126,-0.421788,0.471776,-0.632198,0.104192,-1.757316,0.55031,0.112028,0.131178,0.834723,0.315683,0.547131,0.012147,-0.009425,-0.278581,0.032407,-0.02816,-0.24254,-1.213018,0.623041,-0.550369,-0.401902,0.144097,0.455719,0.314947,1.839547,0.066456,0.311795,-0.162712,0.258236,-0.544124,0.102976,0.138781,-0.501964,-0.063506,-0.336602,-0.727909,0.01088,0.127638,-0.067817,0.006023,1.077707,1.155007,0.288118,0.745222,-0.654964,-6.16906,-0.46771,-0.211546,-0.167068,-0.083779,-0.255547,0.132904,-0.133865,0.100554,-0.139575,-0.006594,-0.020446,-0.104666,0.301478,-0.046954,-0.013271,0.026236,-0.053118,-0.154465,0.297583,-0.150544,0.250972,0.088956,-0.15924,0.183658,0.368314,0.085739,0.143423,-0.102237,-0.239149,0.045789,0.265691,0.441244,0.59195,-0.125262,0.249892,-1.347126,0.01842,-0.290051,-0.094883,0.269941,-4.304291,-0.238587,0.204807,-0.138955,-0.21876,0.420454,-0.171979,-0.147083,0.145844,0.004216,0.056257,-0.184654,-0.161347,-0.215708,0.072403,-1.078767,-0.296614,-0.300243,0.017854,0.008125,0.644172,-0.301421,-0.113941,-0.216897,0.041805,-0.104302,-0.096907,-0.273871,0.175214,0.08885,0.127253,1.073299,-0.070121,0.132374,-0.15925,-0.347603,-1.102191,0.563464,-0.15274,-0.447218,0.687529,1.540449,0.36031,0.206747,-0.079905,-0.092892,0.208734,0.028054,0.013553,-0.111848,-0.031237,-0.01519,-0.128204,0.003033,-0.1159,-0.445271,-0.147099,-0.208203,-0.364496,0.047838,0.176338,-0.06851,-0.135555,0.064111,-0.286271,-0.108018,-0.704319,0.1023,0.138111,-0.806956,0.354957,-0.739923,-0.211565,-0.006482,-0.00981,-0.381006,-0.582891,1.278858,0.239047,-0.36547,1.081539,0.831548,3.55651,0.159057,-0.105811,0.024539,0.144637,-0.187346,0.225913,-0.049888,0.181278,0.000864,0.124512,0.149835,0.219471,-0.264478,-0.097875,0.274898,-0.036266,-0.245507,-0.222332,-0.01445,-0.162031,-0.072903,0.276933,0.522582,0.135455,0.236463,-0.224964,0.123609,-0.276783,-0.377292,0.426137,-0.632278,0.132489,0.218252,0.52531,0.796119,-0.110307,0.579436,-0.061216,-0.129119,-0.038892,-3.369246,0.067671,-0.063021,0.016558,-0.145234,0.235694,-0.050134,0.149009,0.066523,-0.193813,-0.020494,-0.054548,-0.088638,-0.31592,0.379294,-0.960323,0.002555,-0.468033,0.318978,0.107092,0.378055,0.15297,0.108743,0.125451,0.194905,0.416842,0.103407,0.105668,0.269176,-0.208627,0.714011,-0.072076,0.210456,0.097459,0.216658,0.132264,-0.367065,-0.151469,0.195288,0.178266,-0.544642,-4.428264,-0.024881,-0.129161,0.132285,0.319939,0.356372,-0.031224,-0.094367,-0.162719,0.05832,0.030394,-0.178699,-0.20044,0.314681,-0.566107,-0.787675,-0.242768,-0.141092,0.178897,-0.404675,0.122184,0.204294,0.214159,0.103659,-0.082633,-0.040906,0.02397,0.183825,-0.325008,-0.116904,-0.806386,-0.16766,-0.162666,-0.261043,0.263811,0.428483,0.898141,-0.394163,-0.005388,0.872545,-1.985566,-6.515339,-0.255369,0.034928,-0.159987,0.100515,-0.104656,-0.09172,0.107301,0.088356,-0.060234,-0.161865,-0.11591,0.05426,0.943859,0.122963,-0.401937,-0.171676,0.057355,-0.121635,-0.27525,0.032367,0.297095,-0.037895,0.0443,-0.195141,-0.57045,0.010049,-0.087563,0.208606,-0.139313,-1.03983,0.360513,0.078881,-0.150715,0.123391,0.422271,0.833679,0.825262,0.369941,0.561754,0.031658,0.790307,-0.264442,-0.120435,0.200366,0.103562,-0.205748,0.128592,-0.112102,0.180992,-0.045944,-0.166472,0.143616,0.056607,1.40717,-1.03414,0.091302,0.012789,-0.273598,-0.270987,-0.081552,-0.090752,0.25101,-0.152392,0.215209,-0.30091,-0.275894,0.253707,-0.057152,-0.329808,-0.242306,0.379204,-0.206699,0.058721,-0.017925,0.174333,0.030947,0.343518,-0.197059,-0.042187,-0.043466,-0.492289,5.106846,0.039666,-0.164205,-0.142144,-0.17612,0.099544,0.032832,-0.122053,-0.119066,0.030717,0.012174,-0.07187,0.172399,0.304385,-0.173164,1.44892,0.318743,-0.040384,-0.003027,0.043142,-0.101286,0.29944,0.07987,0.85641,0.354983,-0.136794,0.233355,0.363876,0.211305,0.312768,0.044437,-0.374594,-0.082478,0.057227,-0.315017,-0.28968,-0.221223,0.329755,-0.409321,0.664894,-2.402052,-5.297976,-0.048883,0.03874,0.122011,-0.191605,-0.375988,0.10782,-0.095909,-0.06861,-0.045363,-0.070963,-0.038052,-0.172752,-0.369311,-0.353974,-0.070893,0.080663,-0.095804,0.034126,-0.116309,-0.173689,0.104124,0.036815,-0.089368,-0.044136,-0.482669,0.182773,-0.070681,-0.056078,-0.234376,-0.770641,-0.273421,0.084539,0.10418,-0.287822,-0.326477,-0.923869,1.558107,0.064137,1.427968,-0.126011,-3.213154,0.07008,0.011433,0.099649,-0.07255,-0.196699,0.415142,-0.002182,-0.066062,0.183497,-0.115469,0.083115,-0.001114,-0.474857,-0.559141,-0.032626,0.064129,-0.027826,-0.484725,0.080584,0.155923,-0.123703,-0.079574,-0.286683,-0.03581,0.050382,0.170336,0.147046,0.343581,0.307846,-0.032809,0.335466,-0.907902,-0.84393,-0.393057,-0.843897,-0.283004,0.027746,-0.075327,-0.000786,-0.136601,4.691611,0.011633,0.201934,-0.064252,0.055548,-0.294677,-0.160714,-0.051752,0.089681,-0.047107,0.101023,0.043321,0.068981,-0.450412,-0.216507,1.197405,0.359831,0.094096,-0.128199,0.151667,-0.913684,-0.334664,-0.190529,0.367005,-0.08845,-0.041733,-0.093335,0.084558,-0.201294,-0.072793,0.432115,-0.352341,-0.455822,-0.359381,0.164851,0.045086,0.337427,-0.47971,-0.390338,-0.365869,0.286814,6.525219,0.260453,0.195075,-0.029965,-0.129315,0.116118,-0.046239,-0.069989,0.049777,-0.211948,0.013422,-0.104665,0.026191,-0.50386,-0.077126,0.625727,0.296973,0.110423,0.161139,-0.272993,-0.421083,-0.087079,-0.012598,-0.026152,0.117088,0.215342,-0.048742,-0.133264,0.386622,-0.146342,-0.624723,-0.013776,-0.236521,-0.488719,-0.337027,-0.236822,-1.11726,0.31805,-0.30585,0.201516,-0.014017,4.890549,0.209213,0.269165,-0.04176,-0.286931,-0.156727,-0.35633,0.175541,0.222094,0.041078,0.048239,0.099256,-0.142087,-0.617802,-0.6123,0.063841,0.193769,-0.223104,0.131516,-0.276461,-0.314456,0.226549,-0.066892,0.041167,0.07007,-0.409546,-0.0266,-0.062528,0.515764,0.337299,-0.012215,0.227745,-0.58413,-0.645777,-0.183976,-0.418253,-1.675862,-0.178449,-0.004195,-0.143546,-0.3944,3.862216,-0.042084,-0.133641,0.086374,0.055118,-0.443291,-0.007021,0.051311,0.254142,0.112086,0.006686,0.105601,-0.068001,-0.211286,-0.215754,0.806115,0.404736,0.167158,-0.296043,-0.227989,-0.424249,0.244868,-0.01101,0.469781,-0.139128,0.916847,-0.033986,0.108518,0.084169,-0.021702,0.045509,0.261602,-0.206233,0.047836,-0.458198,-0.487082,-1.145863,-0.612562,-0.326259,-0.21746,1.625356,5.19391,0.068545,0.098716,-0.208241,0.1678,0.336975,-0.428209,-0.112466,0.135378,-0.123092,-0.003585,0.125889,-0.098775,-0.414976,0.812452,0.23075,0.180627,0.129846,0.320468,-0.084186,0.012681,0.148377,-0.01389,0.549933,-0.288923,-0.490075,0.209332,-0.168986,-0.024117,-0.311692,0.01302,-0.551661,0.160474,0.002089,-0.17481,-0.257508,0.429957,0.680205,-0.130807,-0.378326,-0.528201,5.862875,0.064601,-0.005598,0.254299,-0.152912,-0.450099,0.497341,-0.170222,0.108344,0.151895,-0.029077,-0.09364,0.131317,0.04229,-0.643362,0.919565,0.300976,0.069223,-0.094738,0.329326,0.051652,-0.223944,0.022307,-0.225952,-0.165441,-0.537159,0.05426,-0.000753,-0.267276,-0.007266,0.288129,-0.463985,-0.500863,-0.60261,0.068844,-0.345703,2.35018,-0.550337,-0.227146,0.244504,-0.122152,4.14027,-0.239992,-0.137663,-0.121501,0.208993,-0.071765,0.038402,0.252612,0.000347,0.220845,0.096662,0.261982,0.374725,-0.305218,-0.105545,0.932184,0.1267,-0.605958,-0.278847,-0.087763,-0.399585,0.201146,0.089457,0.33183,0.002266,0.681963,-0.068137,-0.094309,-0.201708,-0.12773,0.439248,0.12028,-0.220288,-0.07917,-0.566363,-0.678262,-0.587449,0.210985,-0.433728,-0.242211,0.186868,5.878056,0.098652,-0.00817,0.027479,0.178212,0.139976,-0.319794,-0.092309,0.190493,0.161759,0.035628,-0.069609,0.208655,-0.257793,0.037123,0.583171,0.257734,-0.258367,0.146639,0.131484,-0.042299,-0.265301,-0.039811,-0.690515,-0.276068,-0.193247,-0.186564,-0.179106,-0.124461,-0.303553,-0.888718,0.670687,0.416097,0.453502,0.327837,0.142288,0.895735,0.246603,-0.104883,-0.405622,1.246443,0.4477,0.172985,0.14637,0.103053,0.150586,0.332027,0.142895,-0.045883,-0.083785,0.227626,-0.163854,-0.012016,-0.015137,-0.321306,0.005734,0.19028,-0.228224,-0.387731,0.067811,-0.097333,0.373034,-0.527378,-0.176151,-0.399785,-0.105903,0.121026,0.008416,0.187421,0.360601,-0.239249,0.059971,-0.251304,0.11328,-0.146927,-0.095106,-0.060629,-0.087775,-0.815437,-0.052717,0.010783,-0.345169,4.123548,0.239596,0.134873,0.085251,-0.14605,0.1174,0.091425,0.24759,-0.019338,0.22214,0.08389,-0.012835,0.041021,0.461731,-0.448285,0.927855,0.096334,-0.013096,0.044319,-0.665097,0.125819,0.136177,-0.00122,-0.217764,0.211171,0.207265,0.015949,-0.091581,-0.374575,0.429087,0.537936,0.668548,0.129933,-0.135179,-0.24529,-0.511796,-1.22759,-0.204486,0.38484,-0.31128,0.243669,-2.025893,0.172651,0.062227,0.107837,-0.050422,0.110642,0.103687,-0.193383,-0.255685,-0.196802,-0.23656,-0.014047,0.050092,1.793998,1.313075,0.019672,-0.173937,-0.572446,-0.118638,0.630892,0.081027,-0.327457,0.321857,0.732217,0.190987,0.475187,0.025747,0.196607,0.837382,0.255936,1.05761,0.318839,-0.283585,-0.187678,-0.238288,-0.007358,-0.13755,-1.109962,-0.074543,-0.079147,-0.399843,-3.565603,0.033382,0.08823,-0.146905,-0.095562,-0.115012,-0.344964,-0.127464,-0.18543,-0.161018,-0.08737,-0.041131,-0.17873,-0.365344,-0.39151,-0.861955,0.009159,0.406389,0.16033,-0.436224,-0.130154,-0.165564,0.038744,-0.108509,0.380496,-0.165992,-0.047954,0.176832,-0.160749,0.369188,-0.224559,-0.826594,0.337282,0.185024,-0.142558,0.064946,-0.453765,0.724608,-0.063839,-0.225752,0.119334,-5.602822,-0.152682,0.230069,-0.181015,0.294395,0.167988,0.3847,-0.114497,-0.015419,-0.047218,-0.119473,-0.071832,-0.182853,-0.027636,0.996441,-0.843711,-0.082322,-0.206236,0.175876,-0.169074,0.427019,0.013282,-0.031248,-0.564933,-0.007504,-1.45392,0.186441,0.05636,-1.256168,-0.1039,-0.746611,-0.650043,0.134995,0.030176,0.187692,-0.006006,1.359698,0.514785,0.066404,0.912921,-0.844564,-1.493674,-0.117866,0.010862,0.14258,-0.092005,-0.200532,0.119791,0.086805,-0.0202,0.141339,-0.049887,0.10519,-0.042857,-0.436894,-0.215091,0.059944,-0.098156,0.244757,-0.078697,0.125367,-0.011476,-0.038214,-0.103242,-0.357789,0.109132,-1.28901,0.190021,-0.10243,-1.396699,-0.180661,-0.566396,-0.830339,-0.210341,-0.145397,0.172047,0.0602,0.438201,0.088977,0.066708,0.504226,0.803948,3.046546,-0.155218,-0.148823,-0.078198,0.016745,-0.294421,0.209753,-0.092196,0.211158,0.111491,0.019537,-0.075467,-0.009847,1.619324,0.085283,0.138434,0.175689,0.126916,-0.388711,0.12393,0.115321,0.443342,0.065212,-0.003268,0.077605,0.45876,-0.099688,-0.135677,0.190058,0.208091,-0.01346,0.408126,0.284772,0.281552,-0.43332,-0.363067,-0.965463,-0.12612,-0.236481,-0.652966,0.871937,2.217747,-0.001193,0.040286,0.035556,-0.143613,0.024638,0.097402,-0.001086,0.118266,0.17846,-0.099823,0.279701,0.08312,0.244249,0.787261,0.767273,-0.066995,0.062553,0.143032,0.050943,0.361185,0.420884,0.039572,-0.291557,0.095233,0.123424,0.058621,-0.230293,0.066096,-0.227687,0.088605,0.160149,0.519957,0.568112,0.505098,0.749403,0.082409,0.704663,0.195874,-0.298044,0.065118,-3.262954,-0.064465,-0.197945,0.144777,-0.157029,0.091899,0.051302,-0.115275,-0.177756,-0.128231,0.098653,-0.045611,-0.038171,0.86284,0.676574,-0.586559,-0.127146,0.095283,-0.141174,0.343908,0.375274,-0.054212,0.161694,-0.213503,0.151373,-0.421184,0.163672,0.060816,-0.548223,-0.177816,0.113894,-0.742133,0.213851,0.414945,0.446435,0.586827,0.619292,-0.10062,0.147583,-0.2272,-0.255443,-5.935603,-0.314553,-0.31661,-0.098766,-0.019027,-0.017606,0.349873,0.083207,-0.203767,0.046074,-0.118116,-0.111698,0.098743,0.295636,0.692606,-0.830929,-0.357445,0.248518,-0.239032,0.0023,0.385088,0.162246,-0.027153,0.184044,0.192075,-0.658192,0.186552,0.028711,-0.381572,-0.003658,-0.469546,-0.521719,0.129194,0.08309,-0.186597,-0.418883,0.607257,0.85126,-0.476706,0.322479,-2.095962,-7.145763,-0.043722,-0.164977,0.205152,0.173723,-0.218031,0.291659,0.243614,0.100902,0.063063,-0.015774,-0.08236,-0.153943,0.373855,-0.121595,-0.063378,0.054624,-0.076665,-0.239011,-0.20502,0.308621,0.099994,0.21855,-0.310906,-0.12262,-0.014309,0.041992,0.364512,0.014357,-0.018557,0.687811,-0.077228,-0.129095,-0.250145,0.103255,0.197459,1.010499,-1.323211,0.603387,-0.501612,-0.621481,0.286565,-0.301261,0.10929,-0.094298,-0.292128,-0.242804,0.061458,-0.066096,0.013379,0.013788,-0.111843,-0.108805,-0.115352,-1.519762,0.12055,0.405291,0.268717,-0.464043,-0.130919,-0.2763,-0.228112,0.290186,0.068452,-0.214214,0.194288,-0.392105,0.072485,-0.068101,0.198568,-0.33909,-0.153639,0.562818,0.486317,0.597202,0.244576,0.832579,0.124956,0.138326,0.070667,-0.135781,0.14492,-4.763729,-0.126442,-0.296095,0.074265,-0.179331,0.082251,0.283425,-0.232805,0.139061,-0.013212,0.042793,-0.137853,-0.005054,0.475494,0.532459,-0.841707,-0.386466,0.13719,-0.13595,-0.070274,0.343581,-0.018187,-0.131882,0.085875,0.074143,0.554805,0.011315,-0.001563,0.620575,0.207499,-0.161051,0.361841,0.207871,0.160612,-0.685118,-0.650399,-1.00488,-0.171628,-0.435161,-0.860761,1.245999,2.886181,0.252328,0.13761,0.126129,0.053123,0.065955,-0.165428,0.214692,-0.000332,0.131771,0.125968,-0.063804,0.090109,0.465621,0.125226,0.087668,0.04008,-0.06416,0.192709,0.045434,0.140192,0.42738,-0.112953,-0.321819,-0.117721,-0.728722,0.230492,0.106965,-1.315108,-0.059343,-1.42405,-0.47337,-0.074012,-0.082993,-0.097501,0.095572,1.193495,-0.096204,-0.237107,0.051194,2.624228,5.753738,-0.203087,-0.096477,0.05103,-0.004925,-0.13167,0.232878,0.094283,0.091246,0.167627,0.020113,0.056598,0.197607,-0.118852,-0.109715,0.493913,0.08073,-0.265143,-0.261351,0.181602,0.041476,0.257283,-0.137123,-0.188531,-0.088091,0.445112,-0.137384,-0.121272,-0.22393,0.057338,-0.6682,0.492656,0.272509,0.4788,0.214064,0.461838,-0.631136,0.21917,-0.044345,-0.357569,0.024681,-5.543702,0.244605,0.022421,-0.060841,0.451817,0.28384,-0.18208,-0.008237,-0.187704,0.110494,0.077706,-0.109951,-0.02093,0.077461,0.84796,-0.875461,-0.086449,-0.593683,0.093645,-0.252073,0.343033,0.008681,0.045463,0.265777,0.000911,0.742177,-0.168041,-0.114847,1.083476,0.216549,0.423722,0.556038,0.09111,0.032289,-0.006257,0.425594,-1.740296,0.073869,0.090989,-1.427419,1.216806,-4.174057,0.221327,0.160983,-0.248266,0.046463,0.169157,-0.355325,0.010727,-0.093814,-0.11466,-0.071197,-0.13508,-0.143279,-0.396225,0.254237,-0.808489,-0.214739,0.141146,0.26959,-0.062536,-0.095344,-0.265295,-0.234228,0.061016,-0.289383,-0.284758,-0.13113,-0.233808,0.521151,-0.249362,-0.374846,0.021956,-0.162859,-0.178666,0.481321,0.57056,0.621914,0.198263,0.174947,0.414413,0.177781,5.507725,-0.233743,-0.22777,0.166772,-0.195186,-0.153805,0.162536,-0.013406,0.036427,0.197261,0.127754,0.282098,0.216028,0.787337,-0.543967,0.627557,0.211748,0.081715,0.086137,0.021127,-0.035526,-0.050333,-0.024854,0.152035,-0.309927,0.283937,-0.020006,-0.079599,-0.472018,0.067214,0.054868,0.42482,-0.230603,-0.432581,-0.016496,-0.291697,0.373118,-0.038122,-0.024497,0.179379,-0.393834,5.265857,0.317674,-0.013752,-0.081343,-0.161841,-0.241142,-0.24294,0.290611,0.125873,0.18606,0.090717,0.03662,-0.033765,-0.021204,-0.06518,0.666359,0.348006,0.221478,0.081516,0.344227,-0.183229,0.348775,0.079208,0.293659,-0.24922,0.251843,0.083506,0.019699,0.602855,-0.014722,-1.130581,0.564771,0.057092,-0.076971,-0.070435,-0.128005,0.299193,-0.620533,-0.51284,0.540415,-0.833497,1.65369,0.075838,0.008502,0.237792,0.113227,-0.066042,0.135741,0.202731,-0.16954,0.204329,0.073386,0.112098,-0.07293,-0.137884,-1.195476,0.222861,-0.20284,-0.123484,0.145567,0.110284,-0.032109,-0.172231,0.235361,-0.595277,0.246913,-0.548997,-0.017959,0.231713,0.629799,-0.126637,-0.676714,0.453101,-0.075685,-0.003806,0.24529,0.087253,0.719379,0.592994,0.43503,0.089005,0.279037,-0.766893,-0.163147,-0.064945,-0.10055,0.056952,-0.344457,0.165423,-0.02164,-0.050737,-0.059246,-0.058569,-0.001825,-0.059006,0.587119,-0.298424,0.520041,0.242786,-0.296386,0.037839,0.087479,-0.131372,0.416265,0.205127,-0.367584,0.159143,-1.350064,0.073314,-0.060954,-0.92595,-0.074629,-1.00516,-0.380737,0.196086,0.146204,-0.339243,-0.281282,0.790292,0.588472,-0.322304,-0.621157,0.893074,-1.198516,0.129607,-0.189687,0.17585,-0.032664,-0.077575,0.177733,0.005646,0.045019,-0.013061,0.127197,0.144705,0.078953,-0.446113,-1.20656,-0.084624,0.130763,-0.260846,-0.259611,0.259924,0.104142,-0.158659,0.001329,-0.379542,0.322612,-0.347126,0.008294,0.082463,0.22387,0.238217,-0.117621,0.580342,-0.025541,0.208911,-0.49748,-0.266832,-0.625234,1.572709,-0.078468,0.933826,1.795766,1.34536,0.185492,-0.1363,-0.083357,0.401065,-0.199313,0.205354,0.210798,0.116574,0.197845,0.256929,0.036758,-0.057005,1.490331,-0.218136,0.147855,0.134235,0.160824,-0.368389,0.202351,-0.10558,-0.149074,-0.161165,0.524625,-0.242622,0.179905,-0.048654,0.102924,-0.023636,-0.320965,-0.209678,-0.076532,0.077947,0.243797,0.208601,0.160443,1.251534,-0.380321,0.094282,-0.039549,0.863144,3.38591,0.137998,0.159542,0.147115,0.31574,-0.016743,0.207929,-0.189859,0.050904,-0.187993,-0.064944,-0.245063,0.237052,-0.687596,-0.707919,0.724953,0.11382,-0.246656,0.192253,-0.121001,0.226834,0.324384,-0.000218,-0.15838,0.181911,-0.117673,-0.004457,-0.147582,0.413257,-0.075817,-0.679914,0.443224,0.101431,0.241909,-0.134236,0.328862,0.525507,-0.053219,0.321897,-0.059544,-0.278074,-5.930825,-0.101849,0.036374,0.192357,0.190892,-0.26864,-0.06211,-0.005976,0.015374,0.13625,0.121471,-0.135573,-0.157127,0.809337,0.383135,-1.182074,-0.058261,-0.008335,-0.003526,-0.163873,0.055507,-0.103755,-0.177511,0.18751,-0.009785,0.801637,-0.121891,-0.08424,1.130136,-0.129391,1.228209,0.604788,0.016428,0.048487,-0.214317,0.028519,-1.072605,0.143436,-0.107546,-0.425942,2.355129,7.099963,0.049576,-0.172142,-0.016041,-0.097579,0.060942,-0.363251,0.051167,0.091649,0.004426,0.079375,0.095196,0.036463,-0.251761,-0.496822,0.396581,-0.065687,-0.00798,0.201864,-0.14463,0.059549,-0.572873,-0.127345,-0.386669,-0.25657,0.131068,-0.199719,-0.14762,0.019254,0.008439,0.276824,0.491341,-0.257897,-0.321208,0.296391,0.385902,-0.93867,-0.581771,0.340736,0.082675,0.397696,5.191643,0.119919,-0.091186,-0.153626,0.155756,0.147172,-0.383382,0.158937,0.12477,0.053157,0.000425,-0.163307,0.146986,0.332277,0.028015,0.809548,0.205597,0.403983,-0.107353,-0.436563,-0.304739,-0.249845,-0.222962,0.340915,-0.347926,0.052483,0.061154,-0.276842,0.174624,-0.457578,-0.64078,0.293384,-0.414563,-0.49521,0.142201,-0.11167,-0.602856,0.155772,-0.155139,0.111529,0.45583,4.034057,0.430273,0.27365,0.091654,-0.082092,0.187308,-0.418796,0.15402,0.305171,0.106062,0.022961,-0.007962,0.147696,0.25825,-0.177533,0.049883,0.171913,0.430241,0.158102,0.234296,-0.305427,-0.162811,-0.049772,-0.111519,0.143159,-0.238689,0.206271,-0.300821,0.097156,0.334664,-0.229785,0.657259,0.65195,0.844628,-0.197047,0.050359,0.79109,-0.048963,0.032402,-0.006397,0.199971,-4.508886,-0.1528,-0.108597,-0.002711,0.274724,0.047594,0.301442,0.096659,-0.118273,-0.180604,-0.204798,0.033984,0.047999,0.269728,0.450946,-0.622262,-0.26765,-0.250661,0.13971,0.259409,0.836394,-0.77956,-0.237634,0.145689,-0.374538,-0.630798,0.12104,0.047798,0.166458,-0.102352,0.244395,-0.714409,-0.451047,-0.355762,0.398706,0.039818,0.956992,-0.633197,-0.003214,0.07705,0.138121,4.976334,0.288722,-0.017879,-0.052281,0.185185,-0.019939,0.004176,0.150785,0.08813,0.078385,0.003827,-0.04052,-0.107007,-0.078893,-0.598031,0.793277,0.118695,0.046804,0.046646,-0.275047,-0.528324,-0.016378,-0.135358,0.0227,-0.090225,0.084302,0.003383,0.176276,-0.315827,0.015006,0.118862,-0.430478,-0.560906,-0.410293,0.497249,0.51351,0.375129,-0.288171,-0.02703,0.05512,-0.390857,4.867249,0.164168,0.051536,-0.23296,-0.175932,-0.346141,-0.080046,-0.103932,0.000746,0.167505,0.071935,0.175802,-0.170531,-0.188473,-0.251555,0.953542,0.230404,-0.391418,0.103048,0.125374,-0.317946,0.158028,-0.015118,0.007004,-0.03095,0.119891,-0.134732,-0.164147,0.424631,-0.162719,-0.435586,-0.06007,0.190355,0.090923,-0.221768,-0.446674,-0.486726,-0.511508,-0.439327,-0.726601,1.212646,1.30763,0.309859,0.193432,-0.094454,0.233781,0.095233,0.08479,0.217311,-0.17012,0.181667,0.109623,0.0908,0.162437,0.610013,0.430705,0.276589,-0.087918,-0.424964,0.292054,0.335073,0.336648,0.39639,0.154105,-0.377375,0.052927,0.417918,-0.022442,-0.142204,-0.486123,-0.180507,0.334848,0.328875,-0.069169,0.001684,-0.421041,-0.555465,-0.712177,0.123994,-0.293585,-0.834469,2.981081,6.879022,0.218444,0.31456,-0.156595,0.157723,0.194566,-0.239188,-0.1197,0.202465,0.069847,0.026705,0.214885,0.00551,-0.254665,0.68843,-0.283937,0.126185,-0.096759,0.33272,-0.010887,-0.040204,-0.154257,-0.032889,-0.050794,-0.170187,0.160009,0.170849,-0.235375,-0.16526,-0.275145,0.023138,-0.027404,-0.340708,-0.258714,-0.661559,-0.809371,0.421944,-0.124528,-0.335197,-0.681972,-0.436247,3.903977,0.041327,-0.142901,-0.073987,0.304487,-0.113155,-0.070072,0.109545,0.227989,0.29198,0.260848,0.092308,0.041047,-0.026568,-0.061334,0.738251,0.021692,0.423525,-0.103446,0.384597,-0.349957,0.379984,-0.001898,-0.568269,0.070915,0.437243,-0.015139,-0.056673,-0.156079,-0.164984,0.146809,0.396752,0.221133,0.130442,0.54689,0.725242,-0.011434,-0.401304,0.349971,-0.107233,0.115168,-2.65413,-0.154307,-0.144758,-0.059318,-0.171864,0.135817,-0.276992,-0.218451,0.02622,-0.149675,-0.181126,0.07817,0.1141,0.749454,1.020935,-0.455226,-0.006476,0.36024,0.105634,0.077648,0.235559,0.091492,-0.128358,0.077253,-0.068123,1.317566,-0.233224,-0.066609,0.480154,0.158371,0.598977,0.74153,0.134457,0.045929,-0.080693,-0.063209,-1.774376,-0.580158,0.095532,-0.437036,1.057491,-1.96294,0.123722,0.148179,-0.134635,-0.075587,0.160419,-0.037833,0.109762,-0.019148,-0.058355,-0.019192,0.089781,0.129869,-0.768747,1.294274,-0.440983,-0.111942,0.012877,0.165442,-0.010949,0.193516,-0.284794,-0.036756,-0.095252,-0.019915,-0.145684,0.070476,0.089168,0.33689,0.363269,-0.103535,0.18848,-0.662021,-0.647694,-0.537321,-0.85504,0.121608,-0.145228,0.036151,0.100508,-0.442382,4.338192,-0.034377,-0.145539,0.128809,-0.093961,-0.194199,-0.128992,0.141884,0.201115,0.134705,0.033978,0.191636,0.024161,-0.242804,-0.113538,0.938889,0.218332,0.166812,-0.030538,-0.149876,-0.622241,-0.042624,-0.275484,-0.264702,0.080865,0.604874,-0.051498,-0.170844,0.490902,-0.055844,0.223895,0.525477,0.065181,-0.041465,-0.194355,-0.370622,-1.402518,-0.595434,-0.464533,0.239218,0.636676,2.394355,0.095432,0.172429,0.008519,-0.068413,0.126717,-0.351665,-0.05232,0.061882,0.026052,0.091243,-0.023212,0.16048,0.524438,0.237592,-0.012601,0.057968,-0.354925,-0.004338,-0.219794,-0.098737,-0.269938,0.300259,-0.171713,0.347755,0.177785,0.026081,0.304958,-0.646974,0.157857,-0.015121,0.54276,0.271356,0.053813,-0.178378,-0.230586,-0.320463,0.094638,-0.488543,-0.441989,-0.346883,-5.456405,-0.221445,0.07,-0.162102,-0.158905,0.173603,-0.346798,-0.039717,-0.221299,-0.030571,-0.047027,-0.124779,-0.307143,-0.655534,0.42228,-1.055441,0.041961,-0.059884,-0.05124,0.153165,0.151111,0.022495,-0.021708,-0.268154,-0.296141,0.536459,0.047688,-0.030854,-0.234549,-0.61262,-0.126483,-0.03167,-0.117136,0.216664,0.533541,0.561435,-0.453432,0.66332,-0.171114,-0.958365,0.852446,6.174681,0.198957,0.022951,-0.035047,0.120558,0.304375,-0.117852,0.208699,-0.085486,0.119623,-0.133207,-0.212916,0.159688,-0.300885,0.351722,0.581217,-0.077673,0.181866,0.16521,-0.287685,0.168314,-0.300833,-0.044151,0.092659,-0.234792,0.225648,0.05114,-0.090044,-0.501463,-0.00209,0.404892,-0.457373,0.103846,-0.033046,0.479099,0.362184,0.270167,-0.696033,0.181294,0.021834,0.192763,3.721289,0.030669,0.046598,0.052211,-0.213192,0.318456,0.205216,-0.046706,0.034962,-0.084599,-0.063701,-0.038668,-0.128103,0.145135,0.428603,1.17978,-0.187501,-0.146133,0.185151,-0.069773,0.152864,-0.229109,0.015566,0.945792,0.088893,0.557832,-0.054404,0.056473,1.551342,0.136956,-0.765959,0.381866,-0.290021,-0.147173,0.006382,-0.184777,-0.329829,0.115492,0.000454,-0.07156,-1.641431,-2.681605,-0.091244,0.10719,0.156604,0.113789,-0.225081,0.096794,0.016451,-0.22992,0.051741,-0.135218,-0.06494,-0.124603,1.402904,-0.70248,-0.107632,-0.096816,-0.146965,0.28287,-0.240938,-0.263487,-0.130592,-0.122603,-0.260339,-0.288566,-0.007525,-0.03672,0.038137,0.133197,-0.05995,-0.223673,0.230921,-0.061077,-0.277734,0.432183,0.286122,0.866873,0.030067,0.136085,0.212999,-0.297445,4.62852,-0.151448,-0.133307,-0.207094,-0.156454,-0.081003,0.263299,-0.063132,-0.188848,-0.050367,0.185269,-0.061502,0.314932,0.442492,-0.194449,1.304324,0.26564,0.272206,-0.157593,0.382431,-0.073165,0.347698,0.141495,0.067314,0.046083,0.051218,-0.023106,-0.050263,-0.168554,-0.126093,0.123469,0.211795,0.752808,0.984329,0.205974,0.34471,-0.042208,-0.034561,-0.066298,-0.018705,0.442573,-4.149431,-0.089119,0.104075,-0.268274,-0.026973,0.449272,0.035818,-0.176357,-0.046908,-0.20796,-0.017591,-0.05294,0.029743,0.193357,0.262145,-1.346698,-0.345071,0.081398,0.089337,0.032757,0.858227,-0.360999,0.290982,0.052024,0.087061,-0.146434,0.032709,0.157146,-0.119994,-0.464792,0.273595,-0.497591,-0.576549,-0.600608,0.093052,0.143183,-0.449248,0.112485,0.088814,-0.11813,-0.511868,4.05778,-0.135617,-0.121547,-0.170337,-0.096907,-0.360438,-0.161175,-0.0226,0.084222,-0.084798,0.203794,0.123519,0.266344,-0.618131,-0.236028,0.660219,0.389442,0.330824,-0.057195,-0.427934,-0.612371,-0.06756,0.025526,0.455609,-0.149039,0.628411,-0.165308,0.022643,1.319047,-0.196321,0.527378,0.160915,-0.145977,-0.08817,0.524015,0.431212,-0.589563,0.688427,0.480776,0.93881,-2.348598,-3.470881,-0.033727,0.033509,-0.241392,0.054882,0.091818,0.035268,0.095758,-0.035775,-0.208191,-0.115007,-0.167645,-0.094044,-0.544545,-0.094086,-0.248326,-0.195557,0.274725,-0.144446,-0.3144,0.116468,0.04483,0.064001,-0.17742,-0.036612,-0.310924,0.100458,-0.181713,0.456067,0.410795,0.058787,0.494869,-0.173418,-0.229113,-0.216768,0.037404,-1.040845,0.572396,-0.437635,-0.501278,-0.075121,-4.033008,0.125317,-0.071744,-0.031128,0.208265,-0.207733,0.081325,0.084172,-0.127608,-0.007026,0.058961,-0.020182,-0.033956,0.959504,0.329929,-0.699371,0.066016,0.133685,-0.255185,-0.247033,-0.212697,-0.769504,-0.120386,-0.291586,-0.271511,0.028791,-0.089415,0.079952,0.151472,0.21396,0.019589,0.124388,-1.049269,-1.066965,0.340211,0.076859,0.294118,-0.179909,0.064257,-0.057923,-0.261539,4.320119,0.21229,-0.010945,0.154012,0.145159,-0.556227,-0.341872,0.027422,-0.014288,0.020164,0.184534,0.219303,-0.075779,-0.004096,-0.100314,1.524035,0.240892,-0.061082,-0.06521,-0.151352,-0.904723,0.293666,0.2163,0.283979,0.392895,-0.070081,-0.016514,0.104522,-0.047951,0.283832,0.133349,-0.720695,0.175592,0.446382,-0.308247,-0.088503,1.059317,0.130662,0.175571,0.252609,0.326465,-4.735401,-0.171877,-0.081637,-0.014526,0.366514,0.115796,0.007968,-0.08283,-0.048494,-0.14783,-0.181479,-0.153106,-0.005929,-0.57485,0.248017,-1.023019,-0.152545,-0.2111,0.249616,0.155539,0.487278,0.141524,-0.080602,0.157333,0.166262,-0.47333,0.158656,0.038422,0.054397,0.160377,-0.549566,-0.523388,0.210061,0.145464,-0.088844,0.217832,0.851688,0.361868,0.150615,1.238744,-0.604466,-5.364962,-0.300265,-0.228138,-0.064716,0.054662,-0.119037,0.382429,-0.126737,0.136674,-0.030649,-0.08265,0.118545,-0.081164,0.06078,-0.121906,-0.467173,-0.145134,-0.056938,0.093953,-0.084617,0.136917,0.334834,0.062974,-0.135807,-0.097816,-0.082451,0.065846,0.080489,0.20681,0.159832,-0.044114,0.168507,-0.166847,-0.263066,0.213827,0.348749,0.533153,0.204135,0.115125,0.162516,-0.95832,4.075274,-0.220332,-0.199567,-0.21405,-0.273716,-0.324459,-0.138262,0.236603,-0.152019,-0.047847,-0.031734,0.192732,0.119656,-0.102869,0.010755,1.081182,0.189163,0.057699,-0.197085,-0.232583,-0.296691,-0.66151,0.131499,0.454113,-0.052358,0.276844,-0.115386,-0.073564,-0.067395,-0.20803,-0.535313,-0.710357,-0.336557,-0.372033,0.036477,-0.017128,-0.708181,0.595489,-0.194094,-0.09512,0.234322,5.63792,0.058679,0.230355,0.074085,-0.060159,-0.334012,-0.29782,-0.065012,0.070927,-0.002186,0.145307,-0.015913,-0.082891,-1.025545,0.374319,0.034859,0.29965,0.233299,0.06083,-0.4507,-0.442214,9.1e-05,-0.013771,-0.296815,0.011571,-0.506653,0.174206,-0.024905,-0.432165,0.015495,-1.214471,-0.044825,-0.063029,0.22739,-0.066789,-0.156224,0.610179,1.063627,-0.153349,-0.273186,-1.637862,-6.439035,-0.15395,-0.041395,-0.027923,0.271545,0.089893,0.320375,-0.072476,0.073836,-0.106438,-0.098923,-0.078903,0.0618,0.829973,0.01032,-0.62632,0.14349,-0.415252,0.159286,0.247962,-0.015663,-0.071386,-0.107818,-0.343014,0.174559,-0.302752,-0.056473,-0.125082,0.425887,-0.054067,0.078813,-0.146708,0.167363,0.128096,0.012037,-0.175717,0.876432,-0.735638,0.664939,0.25376,0.251438,-4.973893,0.017715,-0.227159,-0.113191,-0.129327,0.061943,0.580347,-0.001908,-0.192382,0.255118,-0.189579,-0.081573,-0.262576,0.543646,-0.045146,-0.975128,-0.231994,0.028871,-0.052311,0.266046,0.069322,0.108657,-0.100411,-0.254519,-0.211446,-0.262506,0.290553,-0.147948,0.176227,-0.352683,0.342891,-0.218435,0.188529,0.171789,0.204853,0.484112,1.013566,0.536673,0.489195,0.025974,0.542929,5.549174,0.276339,-0.036572,0.143025,-0.25803,0.075792,0.125034,0.072339,-0.092384,0.147063,0.134754,-0.103029,0.034487,-0.19409,-0.117164,0.688383,0.160367,0.253779,-0.188095,0.344153,0.276563,-0.54083,0.064432,0.41498,-0.137121,0.335335,-0.002628,0.059043,-0.252453,-0.168874,0.644295,-0.364208,0.372158,0.168033,0.441487,0.547797,0.102209,-0.955942,-0.090422,0.150355,0.622975,-3.455254,0.007683,0.168633,-0.169292,0.010967,0.296558,-0.37798,0.003412,0.085447,0.018553,-0.137669,-0.008079,-0.107613,-0.420235,0.416071,-0.70406,-0.165785,0.313111,0.263266,-0.081033,0.039327,-0.371984,0.21425,-0.219888,0.143594,0.32181,-0.071528,0.022257,0.298709,-0.014577,0.346153,0.338474,-0.45876,-0.77621,0.170653,0.123394,0.072029,-0.238631,0.229219,0.088162,-0.395582,4.377713,-0.229982,-0.18744,-0.230854,-0.010934,-0.353833,-0.261502,0.220151,0.141968,0.11783,0.119738,0.158319,-0.154298,-0.386023,-0.421412,0.883387,0.285794,-0.661349,-0.208743,0.23708,-0.696156,0.103016,0.020529,-0.067265,0.305431,0.055159,-0.156413,0.28924,0.072436,-0.297319,0.02302,-0.111589,-0.099997,-0.067162,0.142556,0.503723,-0.936388,1.193802,-0.169658,-0.306706,-0.178526,-4.632774,-0.464207,0.038167,-0.205376,-0.117305,0.129094,-0.259811,0.009132,0.027987,-0.074404,-0.006964,0.104273,0.163621,0.422449,0.019809,-0.642331,0.054061,-0.172765,-0.098892,-0.455864,0.030671,-0.036009,0.067303,-0.571918,-0.009779,-1.115686,-0.076612,0.229687,-1.067675,-0.016156,-1.154361,-0.218122,-0.00593,-0.291856,0.044571,-0.037724,0.839494,0.50742,-0.189513,1.537954,-0.571077,0.599045,-0.111541,-0.071424,0.027843,0.160211,-0.222429,-0.029995,0.13677,0.002473,-0.059458,0.174082,-0.088308,-0.042055,0.025465,-0.35858,-0.211922,0.049231,0.039606,-0.124935,0.270171,-0.178661,0.542556,0.049311,0.376175,0.173014,-0.088158,-0.026106,-0.035389,-0.562043,0.659826,0.454092,-0.354182,0.31971,0.311937,-0.18115,-0.186689,0.855323,-0.077251,0.100647,-0.372837,0.121391,-3.431972,0.044893,0.098137,0.013478,0.395418,0.072259,-0.112767,0.041703,0.082901,-0.112026,-0.011793,-0.112119,-0.197078,-0.575762,1.032563,-0.769726,-0.146422,-0.005595,0.297666,0.195624,0.30225,0.020426,0.083721,-0.777681,0.1181,-0.335084,0.098442,-0.164165,-0.243369,-0.358955,0.665404,-0.294648,-0.064717,-0.378831,0.456965,0.389692,0.220343,0.044907,0.292611,0.306109,0.225695,0.365731,-0.056165,0.004754,-0.04486,-0.020885,-0.028338,-0.358214,-0.182225,-0.044727,0.083374,-0.011734,-0.122277,0.002573,-2.815367,0.122787,-0.24845,0.044495,-0.002393,-0.084117,0.173007,-0.11127,0.056549,-0.027035,-0.460931,0.039103,-0.547637,-0.186064,0.04185,-0.486975,-0.212094,-0.692985,-0.177761,-0.230554,-0.088202,-0.184307,-0.089485,0.014706,1.37718,0.245547,1.299064,2.910316,3.552758,-0.037996,-0.168857,-0.156144,-0.074442,-0.154022,0.039664,0.150566,0.237669,0.240717,0.076465,0.194506,0.051221,0.547038,-0.251412,0.236627,0.119519,0.416749,-0.324106,-0.07025,-0.003486,-0.015173,0.028344,-0.040035,0.126223,-0.136773,0.197508,-0.186424,-0.638613,0.062705,-0.37285,-0.517771,-0.042287,-0.148588,-0.370757,-0.699253,0.007621,-0.224459,-0.331157,-0.115584,-0.558507,3.239963,0.050889,0.049007,0.189186,0.180899,0.14903,0.116469,-0.008497,-0.066461,0.049448,-0.135948,0.071144,0.126946,0.268985,0.224872,0.71072,0.113779,-0.410151,-0.084692,0.103154,0.06828,-0.049768,0.315474,-0.364422,0.164547,0.085086,-0.136546,0.251752,-0.428996,-0.00769,0.222732,-0.671659,0.174268,0.237432,0.127816,0.286848,1.080972,0.115393,0.421163,0.70447,0.388308,-3.579927,-0.350713,-0.116325,-0.27239,-0.009766,0.297002,-0.436908,-0.094453,-0.098527,-0.107987,0.075808,-0.076594,-0.049699,-1.216284,0.640064,-0.756797,0.123836,0.053157,0.192657,0.245552,0.131608,0.372863,-0.226977,-0.471403,-0.052787,-0.856176,0.176947,-0.043517,-1.149141,0.291805,-0.732492,0.113606,-0.053418,-0.107237,-0.223719,-0.442797,0.880682,-0.822156,-0.28027,-0.796217,0.396558,4.924217,0.066383,-0.076095,0.014783,0.291906,-0.061457,0.195892,0.083366,0.069433,-0.030358,0.19585,-0.069431,0.187186,0.635958,0.346747,0.474877,0.005094,-0.101956,-0.101296,0.237757,-0.141654,-0.336278,0.147166,-0.011344,0.02343,0.802785,-0.177179,0.217577,0.973105,-0.262344,1.371082,0.561419,0.075246,0.12167,0.311177,0.286994,-0.731859,0.090038,-0.198299,-0.24512,-0.634695,-4.773762,-0.20264,0.005699,-0.086566,-0.089229,0.201477,-0.063646,-0.031329,-0.205702,-0.07866,0.022589,-0.028509,-0.067926,-0.340057,-0.258597,-0.671564,-0.254568,0.309159,0.254447,-0.222667,0.196855,0.028948,-0.135952,-0.310255,-0.085674,0.36467,-0.040444,-0.055247,0.362499,0.092077,-0.491178,1.10754,-0.423717,-0.272152,0.382531,0.2746,-0.136678,-0.071621,-0.247016,0.288958,-0.348003,2.966073,0.082223,0.086089,-0.151797,0.195179,-0.108376,-0.435994,7.3e-05,0.265001,0.083608,-0.022228,0.048239,0.265818,-0.539708,0.547984,0.902152,0.026067,0.258678,0.433342,-0.383226,-0.221292,0.436178,0.347267,-0.323903,0.366177,-0.021573,0.06366,0.259145,-0.026627,0.055149,0.157245,0.438133,0.697473,0.609104,-0.02326,0.038015,-0.678341,-0.6819,0.311685,0.526174,-0.039531,-4.602534,-0.207845,-0.075684,0.086639,-0.241798,-0.101636,-0.043884,0.0424,-0.144221,0.020148,-0.00261,0.023262,-0.109973,0.397285,0.160512,-0.988212,-0.333754,0.115115,-0.207592,0.232854,0.605043,-0.424151,0.170446,0.019229,-0.117571,-0.162907,0.175643,0.190647,0.234007,-0.064584,-0.613745,-0.250733,-0.391311,-0.323982,0.192968,0.278551,0.298287,0.188331,0.135104,0.676726,-0.609114,3.470806,-0.380911,-0.110811,-0.133939,0.044686,-0.385439,0.019817,-0.22844,0.169611,-0.023441,0.260253,-0.046633,-0.095829,-0.727315,-0.441722,0.737898,0.127941,0.061068,0.082573,-0.066283,-0.235538,0.078114,-0.184922,0.420686,-0.202698,-0.198445,0.160288,-0.247796,0.454879,-0.338141,-0.289456,-0.34354,0.049914,0.16336,0.317808,0.509854,0.492665,0.826301,0.518111,-0.044726,0.017232,-1.228819,0.059385,0.194965,0.246194,-0.111567,-0.197474,0.152383,-0.206464,-0.053058,-0.015945,-0.024073,-0.024643,0.210542,0.195756,-1.590107,-0.4086,-0.137008,0.182618,-0.083336,0.069711,0.079229,0.377292,-0.06381,0.328671,0.386754,0.024882,-0.001854,-0.454679,-0.060678,0.417867,-0.082985,-0.588051,1.185786,1.375221,0.475998,0.640372,-0.707978,1.458503,-0.040864,0.543813,0.641689,1.046324,0.49292,0.022756,-0.400198,1.013711,0.437916,0.162939,-0.1474,0.034995,0.175884,0.019424,0.25842,0.304551,1.05877,-0.686404,0.82604,-0.030356,-0.343653,0.242321,0.441852,1.187751,0.484032,-0.214755,-0.224725,-0.111656,0.027411,-0.25153,0.126368,0.047326,0.009993,0.152284,-0.304471,-0.117516,-0.035726,-0.160777,-0.060251,0.352104,0.617015,0.453327,-0.242656,-0.389779,-0.704421,-0.098638,-0.158799,-0.025679,0.061349,0.167805,-0.116302,0.170876,0.036542,0.253577,0.020536,0.136489,0.087954,0.570066,0.699139,-0.155095,-0.133842,0.585143,0.093427,-0.489517,-0.088025,0.297301,-0.227953,0.452455,0.035978,-0.023153,0.158287,-0.056707,0.373794,-0.153691,-0.033963,-0.501087,-0.358488,-0.372994,-0.351889,-0.113947,-0.969676,0.789512,0.573942,-0.416239,-1.090348,-1.606434,-0.275562,-0.305762,0.135272,0.125603,-0.227217,0.203688,0.140422,0.146154,0.168657,-0.098828,0.0712,0.109352,1.009905,0.034299,-0.105309,0.043603,-0.282933,-0.041195,-0.304322,-0.135274,0.200278,0.155497,-0.12704,-0.119967,-0.981138,0.061373,0.101007,-1.111302,-0.196835,-0.406892,-0.974671,0.130618,0.120655,-0.040473,-0.260518,1.471914,0.754503,-0.219173,-0.316773,-1.075021,-6.131898,-0.12027,0.046005,0.224321,0.130505,-0.111957,0.474696,0.012586,-0.090053,0.030342,0.092798,0.11915,-0.109121,0.673281,0.517672,-0.292807,-0.153617,-0.140019,-0.482276,-0.078764,0.310733,-0.258547,0.109878,0.353678,-0.290494,0.765786,-0.188868,0.040085,0.374123,0.030728,0.41811,-0.320031,-0.43288,-0.44254,0.044432,0.094409,-0.907827,-0.459892,0.17541,0.291599,0.61784,4.498138,0.244445,-0.10215,-0.202244,-0.086475,0.175475,-0.314074,0.034208,-0.154579,0.164025,0.153051,0.016976,-0.084605,-1.364359,-0.611184,0.739688,-0.0162,0.325529,0.059802,-0.03443,-0.547601,0.05789,-7.5e-05,-0.006746,-0.157384,0.339971,-0.00738,0.092206,-0.002743,0.176838,0.255538,-0.387975,-0.755661,-0.50068,0.071346,-0.256739,-1.641219,0.147209,-0.097738,-0.34526,-0.125049,4.926704,0.264667,0.280312,-0.025602,-0.262882,0.035017,-0.105407,0.223932,0.161,0.162142,-0.071854,-0.068519,-0.182375,-0.347444,-0.270397,0.927314,0.259677,0.24302,-0.088651,-0.369951,-0.676252,-0.130573,0.022227,-0.017073,0.095428,0.123794,-0.057324,-0.043197,-0.491613,0.289241,-0.099112,0.00037,-0.085787,-0.150467,-0.69572,-0.906209,-0.097547,0.129589,-0.407258,0.17363,-0.019344,5.570243,0.098295,-0.048107,0.022177,0.267972,0.104339,-0.094802,0.21718,-0.002497,-0.029947,0.010284,0.017085,0.192987,-0.010401,0.330862,0.257092,0.096179,0.110182,0.034876,0.088955,-0.09597,-0.320304,-0.352333,0.332186,-0.344327,-0.182406,-0.147606,-0.324012,-0.484784,0.11972,0.240531,-0.607555,-0.143811,0.055825,-0.053455,-0.448803,0.037611,-0.1227,0.199304,0.23164,0.18067,5.451165,0.467989,0.069201,0.042531,0.069303,-0.040584,0.186086,-0.088662,0.0597,0.02479,-0.109932,0.025682,0.24423,0.168405,-0.004468,1.049014,0.115977,0.210311,-0.043082,0.32065,0.007689,0.054668,0.194437,-0.392667,-0.084387,0.387724,-0.019239,0.230679,-0.514391,-0.232878,0.421322,0.090144,-0.112223,-0.130546,0.294358,0.241566,0.278478,-1.133068,0.029627,-0.304242,-0.926212,1.408999,0.064682,-0.106994,-0.162283,-0.28188,0.010763,0.071532,0.190688,0.025584,0.060149,-0.110266,-0.046274,0.056921,-2.610009,0.912261,-0.050649,-0.044875,-0.552068,0.134756,-0.285977,-0.189536,0.289973,-0.187629,-0.056735,-0.206161,-0.028543,0.008749,-0.047767,0.333843,-0.47088,0.13137,0.136337,-0.156423,-0.077983,0.356882,0.058955,0.939699,-1.597694,0.444518,-0.900459,0.453601,5.086202,0.051717,-0.127338,0.239811,0.085707,-0.05242,0.319636,0.009925,-0.101464,0.154766,-0.043567,0.14853,-0.141838,1.536978,-0.353419,0.754787,0.164791,-0.335826,0.182927,-0.256657,-0.146536,0.090397,0.03721,-0.539648,-0.129643,0.370142,0.105817,0.119293,-0.631389,-0.363846,0.162797,0.348469,-0.018511,-0.303627,0.127206,0.294588,0.469218,-0.732736,-0.383013,-0.453591,0.780898,1.019458,-0.183497,-0.084117,-0.198847,0.130119,-0.075895,-0.318271,0.11387,-0.235524,0.015453,-0.087626,0.136366,-0.03235,-1.738672,0.561393,0.142381,0.086141,-0.292665,0.143049,0.093381,-0.089875,-0.270207,-0.01607,-0.050846,0.027744,1.041706,-0.034961,-0.088714,0.586079,0.096641,1.186466,0.318591,0.182005,-0.087024,-0.071603,0.026659,-0.916357,-0.911406,-0.007892,-1.563488,1.791063,0.294841,0.261472,-0.038574,0.050573,0.132679,0.06622,-0.073913,0.028267,-0.125346,0.058647,-0.089882,0.085445,0.07409,-0.394608,0.688705,0.150554,-0.178968,-0.23467,0.050711,0.081778,0.169714,0.439937,-0.075,-0.146868,0.020892,0.068012,-0.016342,-0.213309,0.75465,0.247752,-0.634045,0.176646,-0.280059,-0.186089,-0.16637,-0.470987,-0.9594,0.699074,0.240744,0.352953,0.174531,4.385665,0.271341,-0.1708,0.147789,0.065934,0.055542,-0.018222,0.094812,-0.018006,0.155802,0.101918,-0.143469,-0.038354,0.182341,0.151026,0.918438,-0.136401,0.184106,-0.180139,-0.282812,-0.276645,0.189481,0.211126,0.085049,-0.121892,-0.558989,-0.127201,-0.154068,-0.250133,-0.237297,-0.123115,-0.125837,0.480125,0.541836,0.343131,0.725514,1.150173,0.974014,0.232041,-0.263903,0.21049,-0.356972,-0.043439,-0.210486,0.195623,-0.027271,-0.151198,0.44649,0.033821,0.169501,-0.148819,-0.111864,-0.116698,-0.106966,-0.193391,-0.734465,-0.099745,-0.066229,0.359411,-0.192349,0.173285,0.388424,-0.049227,0.214837,0.146134,0.05075,-0.138335,0.022299,0.035746,-0.231224,-0.283581,-0.483615,0.027712,0.547614,0.431435,0.063081,-0.074729,0.253116,0.756722,-0.473906,-0.250784,0.671071,-3.360035,0.131451,-0.204678,0.342149,-0.070911,-0.159528,0.338207,0.147591,-0.068089,-0.146733,-0.176862,0.005048,-0.215745,0.058356,-0.908125,-1.039886,0.008832,0.251133,-0.150789,0.343576,0.661179,0.439686,-0.19969,0.260177,-0.246442,0.662961,0.032909,0.004668,0.689454,-0.352202,-0.780344,-0.148871,-0.257666,-0.29217,0.436645,0.389408,0.08172,-0.153641,0.116106,-0.255082,0.065849,3.762502,0.073734,0.129336,-0.00583,0.197187,-0.088172,-0.110898,0.206354,-0.003429,0.142448,0.232209,0.163363,0.034627,0.518497,0.156848,0.028929,0.089676,-0.130309,0.328066,0.065773,-0.017267,-0.010757,0.266248,0.338417,0.268059,0.100259,-0.041471,0.103692,0.374492,0.487975,-0.036391,-0.160717,-0.176172,-0.083117,-0.557968,-0.470593,0.206147,1.047965,0.030563,0.741808,-0.186828,-5.47022,-0.013787,0.01593,-0.014335,0.155427,0.168023,-0.162172,0.029132,0.036399,-0.092774,-0.022801,-0.049518,0.084345,-1.432008,0.432444,-0.863878,-0.148364,0.104257,0.278437,-0.15409,0.10446,-0.151778,-0.009935,0.017031,-0.064141,0.678991,-0.261792,-0.144649,0.194255,0.117933,1.388683,0.686409,-0.047615,-0.142248,-0.273827,-0.214967,-1.24674,-0.392152,0.161719,-1.269854,1.553416,3.662259,0.171749,0.131197,-0.080948,0.001054,0.212166,-0.199983,0.160362,0.159003,0.108519,0.03895,0.081147,0.140317,-0.401525,0.152563,0.111425,-0.040792,-0.283529,0.05995,0.112279,-0.037314,-0.680177,0.193994,-0.3007,-0.075341,0.036973,-0.001817,-0.081467,0.125125,0.038143,0.10472,0.550732,-0.623007,-0.632564,0.112793,0.151358,-0.949946,-0.23024,0.266124,-0.254305,-0.062757,3.449694,-0.138384,-0.010632,-0.075587,-0.076552,-0.288806,-0.388382,-0.118593,0.163989,0.173979,0.055502,-0.017389,0.059839,0.16485,-0.227372,0.996934,0.307894,-0.384203,-0.262981,-0.213626,-0.532033,0.333575,-0.146308,0.252552,-0.020525,-0.172226,-0.17176,-0.088389,0.398712,-0.151898,0.140797,0.212886,0.057415,0.173103,0.130134,0.324579,0.46462,-0.280737,0.100169,-0.214691,0.108728,-5.026589,0.247019,-0.053846,0.335624,0.053377,-0.150638,0.228689,0.072587,0.057255,-0.039746,-0.033278,0.058987,-0.000666,-0.043776,-0.897674,-1.563322,-0.193313,-0.050872,0.029818,-0.008567,0.160006,0.060749,0.211074,0.032121,0.104644,-0.516159,-0.154243,-0.021843,-0.290219,0.344179,-0.389944,-0.668912,0.450759,0.395497,0.371257,0.599386,1.557016,-0.683583,0.104179,0.265571,0.14179,-4.656447,0.062665,-0.22508,-0.139982,0.419528,0.02506,-0.025511,-0.112424,-0.231694,-0.122648,-0.032645,-0.02563,0.050704,0.358367,0.22582,-0.985066,-0.355577,0.083908,-0.11448,0.056227,0.285194,-0.370932,-0.225662,-0.233779,-0.184606,0.058725,0.315147,0.01966,-0.712425,0.091251,-0.504317,0.344434,-0.379911,-0.340491,-0.224875,-0.32616,-0.743378,2.108562,0.152064,-0.473269,-0.25508,2.93241,-0.141965,0.268107,0.024656,-0.00596,-0.256261,-0.16919,-0.202964,-0.032913,-0.178593,0.101909,-0.003093,0.141113,-0.124627,0.759826,0.245073,0.143295,-0.220337,-0.092887,0.098443,-0.335905,-0.191872,0.11173,0.245414,0.048366,-0.343458,0.019127,-0.143315,-0.691279,-0.281648,-0.414689,-0.90575,-0.244906,-0.25484,0.415189,0.19255,0.904855,1.270921,-0.285012,1.242336,-0.583947,-0.23829,-0.065782,0.16548,0.027046,0.292152,0.095885,-0.198094,-0.144727,0.098885,-0.187832,-0.15941,-0.180676,0.003462,-0.280623,-0.320091,-0.191818,-0.095824,0.060126,0.011488,-0.108288,-0.222363,0.236956,0.016002,0.390672,-0.194415,-0.211531,0.260291,-0.023738,-0.018748,-0.214408,-0.230624,-0.216487,-0.129084,-0.322387,0.175406,0.037694,0.612288,-0.413268,0.099254,-0.53067,-0.547003,3.22655,0.150924,-0.126394,0.173056,0.184846,0.15639,0.229196,-0.020815,0.114389,0.000942,-0.020564,0.114235,0.161513,-0.3059,-0.783031,0.170887,0.311126,0.344581,0.12181,-0.540576,-0.233631,0.036114,-0.013006,0.155537,0.239671,-0.050121,-0.167857,-0.184887,-0.513048,0.041305,-0.106048,-0.4693,1.001936,1.145674,-0.00721,0.381187,0.815264,0.166183,0.089196,-0.107111,0.1116,-3.343234,0.208744,-0.112896,-0.192443,0.520535,0.561159,0.258783,-0.041465,-0.018189,-0.225667,-0.25442,-0.220588,-0.043054,0.478053,0.835854,-0.595648,-0.566683,-0.081095,-0.205969,-0.058728,1.11507,0.03229,-0.008555,-0.237249,-0.234352,0.087561,0.228165,0.275181,-0.066487,-0.354778,-0.00149,-0.276548,-0.15565,0.005904,0.096241,-0.21347,-0.034797,-0.455778,0.027045,0.193087,-0.599977,5.331888,-0.003859,0.098922,-0.080783,-0.223634,-0.188456,-0.048544,0.198126,-0.044157,-0.019072,0.013748,0.169488,-0.20605,-0.04656,-0.311137,1.35721,0.337843,-0.28991,0.044948,-0.229339,0.023633,-0.131537,0.058483,-0.241421,0.127859,-0.27127,-0.144795,0.081034,0.138453,-0.012143,-0.852386,0.140621,-0.26517,-0.173396,-0.204568,0.176631,0.57177,0.493552,-0.091286,1.309318,-0.153435,-5.552654,-0.320886,-0.099268,-0.042424,-0.056144,-0.404068,0.06727,0.017123,0.152364,0.216689,-0.111454,0.220282,0.087691,-0.499226,-0.299642,-0.898139,-0.171845,0.105283,-0.319546,0.118575,-0.15422,-0.280827,-0.166504,0.434377,-0.224612,-0.145642,0.022919,-0.092468,-0.490579,0.24932,0.245472,-0.589588,-0.578817,-0.746535,-0.006086,-0.391342,0.490626,0.295173,0.219884,-0.133678,-0.057653,4.799729,0.20701,0.153662,0.026752,0.055308,-0.268337,-0.05576,-0.107355,0.163,-0.130187,0.139178,0.122299,-0.126538,-0.284802,0.000568,0.701064,0.354334,0.358127,0.113386,0.217936,-0.529887,0.040053,-0.075388,-0.311631,0.205851,-1.241499,0.110789,0.194152,-1.557265,-0.01376,-0.65988,-0.934825,0.052936,0.135608,-0.458152,-0.34787,0.976232,-0.32399,-0.078948,0.424158,2.785189,1.776315,-0.155389,-0.008222,-0.062093,-0.190349,-0.30125,0.183619,-0.038576,-0.019364,0.097619,0.126038,0.092169,-0.03633,0.395855,-0.683181,0.18705,0.20998,0.066063,-0.411551,0.124974,-0.160407,0.504862,-0.015607,-0.305897,-0.153066,-0.119012,-0.086467,0.05415,-0.025589,-0.249972,0.489911,-0.143051,0.271858,0.299784,0.170509,0.352893,1.229697,-1.139773,0.193385,-0.38737,-0.231931,-3.289034,-0.266119,-0.242608,0.098714,-0.137863,-0.13937,0.24008,0.077887,0.225112,-0.073536,0.06625,0.16223,0.166323,-1.504207,0.357748,-0.323747,-0.072417,0.013728,-0.137813,-0.13547,0.338431,0.189458,-0.222855,-0.071715,0.053438,-0.139253,-0.03401,-0.103847,-0.044437,0.084709,0.203321,-0.298805,0.800933,0.789643,-0.031998,-0.024422,0.600046,-0.250192,-0.051943,-0.016701,0.501107,-4.036899,0.022104,0.173525,-0.226985,0.16961,0.412187,0.177402,-0.210168,-0.139969,0.134849,-0.049419,-0.079903,0.005532,0.289325,0.47195,-1.029315,-0.415646,0.375429,0.146379,0.105582,0.817115,0.307621,0.127105,0.164364,0.042431,0.037868,0.030568,0.02132,-0.273985,-0.228885,0.041918,-0.405971,-0.270646,-0.428868,0.672413,0.550183,-0.78275,0.210086,0.199684,-0.227049,-0.239574,4.410702,-0.022082,0.072261,0.035952,-0.229958,-0.180739,-0.21587,-0.034675,-0.058772,0.036202,-0.17474,0.094419,-0.021465,0.16832,-0.151651,0.642981,0.034949,-0.16252,-0.01608,-0.252586,-0.253704,-0.076349,0.047211,0.205126,-0.084655,-0.480306,0.100254,-0.182744,-0.528534,0.074392,-0.81767,-0.471988,-0.189651,-0.097152,-0.195507,-0.419105,0.724891,0.995575,-0.074554,1.517902,0.5565,3.858635,0.019389,0.073458,0.012481,-0.025454,-0.111887,0.25078,-0.128104,-0.003581,0.007916,0.00318,-0.00831,0.157404,0.160312,0.108227,0.413494,0.016368,0.186572,-0.235926,0.201449,0.024439,0.063528,-0.160193,-0.51884,-0.093,0.595536,-0.036746,-0.036253,0.074694,0.242508,0.761574,1.014332,-0.168287,-0.281217,-0.093398,-0.151999,-1.397439,-0.089948,0.004012,-1.532456,-0.374099,0.203287,0.16862,0.081844,-0.006184,-0.247991,0.222051,-0.074557,-0.029734,0.216787,-0.101996,0.136224,0.04078,-0.086873,-0.976476,0.461217,-0.14795,0.013437,0.351606,0.069674,0.023371,-0.08434,0.163951,0.035267,-0.206506,-0.070927,-0.198271,0.05361,-0.288792,0.56997,-0.075686,0.471991,0.345429,0.330727,0.602991,-0.148907,-0.248086,0.119309,-0.094563,0.344485,-1.834159,0.66323,-1.025602,0.163611,-0.313773,0.294995,0.080145,-0.266086,0.614323,-0.053819,0.139509,0.178257,-0.022557,-0.063717,0.083793,1.070253,-0.563653,0.399446,-0.054185,0.41514,-0.434729,0.134703,0.454921,0.170757,0.108158,0.131534,-0.001981,0.749085,-0.239944,0.003253,0.079377,-0.30419,0.759122,-0.461247,-0.203787,-0.344207,-0.276135,-0.13654,-0.354983,-0.682689,-0.268321,0.125603,0.987816,5.370513,-0.102063,-0.032158,-0.262952,0.128438,0.147299,-0.618649,0.273404,0.19089,-0.006409,0.079689,0.068493,0.139053,-0.004729,0.106263,0.549376,0.251942,-0.309917,0.114555,0.043124,-0.295909,-0.290633,-0.146328,0.189682,-0.032876,0.964426,0.057336,-0.107319,0.196324,-0.071266,0.615196,-0.058964,-0.13299,-0.24288,0.243344,0.135684,-0.59495,-0.466136,0.327355,-0.737419,0.207117,-3.227395,0.014392,-0.121805,-0.273014,0.057042,0.146675,-0.245931,-0.156661,0.09524,-0.059523,0.091898,-0.180298,-0.127606,-0.18705,0.485073,-0.674555,-0.152983,0.271327,0.170206,0.114059,-0.036838,-0.544092,-0.084625,-0.027122,-0.233978,0.376649,0.140121,0.050433,0.076558,-0.247263,-0.724969,0.21144,-0.320951,-0.341945,0.20603,0.172147,-0.890289,0.665917,-0.138182,0.125901,-0.221904,5.187918,0.204538,0.139755,-0.114255,-0.272371,-0.11781,-0.022507,-0.029047,-0.038357,0.047261,0.014641,0.089491,-0.209958,-0.388222,0.120424,1.317878,0.099964,0.341067,0.024945,-0.430924,-0.178292,-0.172267,0.18578,0.097229,0.256962,-0.181141,0.103169,-0.142707,-0.24215,-0.481289,-0.278519,0.027262,0.463629,0.576871,-0.171122,-0.148347,0.656262,-0.265865,-0.278966,0.319421,0.055519,-3.73337,-0.067202,-0.228786,-0.051631,0.118286,-0.285443,0.346145,0.020253,0.112554,0.009448,0.110393,0.074467,0.070779,0.684785,-0.41794,-1.1402,-0.178004,-0.516262,-0.15834,0.178121,0.332927,0.379547,-0.232693,-0.088536,-0.247989,-0.182708,-0.163934,-0.271507,0.214726,-0.37692,-0.152796,0.101169,0.001173,-0.054175,0.647376,0.601235,-0.216547,0.422182,0.28224,-0.046741,0.625316,6.814882,0.310359,0.102425,0.158773,-0.097577,-0.002609,-0.030798,-0.042401,0.05694,-0.125634,0.075803,0.043468,-0.055023,0.792637,-0.008948,0.517494,-0.046345,0.200536,-0.080844,-0.018025,0.232887,-0.210264,-0.315997,-0.201725,-0.230039,-0.278344,0.089578,-0.063178,0.077612,0.099158,0.091808,0.156712,-0.26864,-0.251643,0.540195,0.685272,0.846566,-0.495555,0.325094,0.02243,0.452016,5.648251,-0.016809,-0.06423,-0.059783,-0.247494,-0.170827,0.201736,-0.206235,-0.201213,-0.086197,-0.171453,0.058513,0.053815,0.359986,-0.349525,1.021286,0.263507,0.233892,-0.033871,0.121976,-0.178249,-0.623097,-0.140204,0.046988,0.217676,0.029157,-0.061891,0.033501,-0.198789,0.452026,-0.083562,-0.352881,-0.328138,-0.231583,-0.120927,-0.141235,-1.378896,1.202136,-0.432762,0.746297,-0.019226,-0.014971,0.308596,0.256489,-0.174113,0.363293,0.309902,-0.158616,-0.051515,-0.013284,-0.037545,-0.034378,0.066666,0.066462,2.11023,0.401813,-0.202461,-0.108401,-0.37085,0.048362,-0.243914,-0.384292,0.462294,0.13435,0.608579,0.15188,-0.112929,-0.074164,-0.019829,-0.028083,0.020358,-0.211622,-0.578903,0.01017,-0.231674,-0.427518,-0.565368,-0.084301,0.745296,0.034384,-0.209172,-0.367816,0.945375,-0.471637,-0.390324,0.12597,-0.225767,-0.138132,0.354764,-0.092543,-0.173346,0.080418,0.084583,-0.032672,0.132057,-0.049209,-0.71698,0.937226,0.054645,0.556908,0.138048,0.057761,-0.102978,-0.3911,0.577402,-0.000616,0.28493,-0.541912,-0.25569,0.651836,0.250707,-0.47402,0.153499,0.091904,-1.344404,-1.387927,-0.234966,-1.525139,1.688319,0.11203,-0.492018,-0.450889,-0.355169,0.213885,-1.173378,-0.486147,-0.083798,-0.709973,-0.158196,-0.376373,-0.013445,0.135747,-0.091303,0.114048,-0.201602,0.034965,-0.19402,-1.82143,-0.204617,0.150727,-0.021505,-0.591336,0.009401,-1.258589,0.285285,-0.191765,-0.41499,-0.17276,0.222702,-0.241744,0.156686,0.275777,-0.172463,-0.199631,-0.288057,0.182786,0.043449,0.596782,0.672308,-0.876309,-0.288916,-0.16025,-0.200483,0.08764,-4.12327,-0.113783,0.141319,0.005156,-0.106866,-0.164236,0.022104,-0.10308,-0.145498,0.013678,0.051297,0.132952,0.005713,0.075925,-0.041218,-1.003911,-0.093207,0.173742,0.136472,0.007662,-0.059823,-0.02836,0.305043,0.87503,0.426919,0.036589,-0.025438,0.147769,1.05518,0.07766,0.488105,-0.529542,0.1836,0.253615,0.026719,0.189405,0.195553,-1.296641,0.304852,-1.287634,0.355589,-3.489405,-0.141345,-0.308675,0.217211,0.033686,-0.158368,0.286235,0.037262,-0.08629,-0.018336,-0.143301,-0.050952,0.019819,0.699297,-1.463557,-0.439916,-0.104201,-0.031081,-0.079701,0.360487,0.057621,-0.000742,-0.046382,-0.020258,0.228135,-0.129604,0.16374,-0.02681,-0.533203,0.066351,-0.10807,-0.915544,0.400082,0.584279,-0.025503,-0.001414,0.74892,0.132367,-0.032737,-0.106138,0.082432,-5.654493,-0.265279,-0.059309,-0.096773,0.183846,0.100006,0.351661,-0.152041,-0.197752,-0.240226,-0.275601,-0.065261,-0.30173,0.203166,0.726704,-0.630583,-0.171266,0.360966,-0.282441,0.002471,0.469995,-0.093706,0.028667,0.013357,0.062675,-0.27511,-0.077682,-0.043926,0.198736,-0.465693,0.109106,0.259372,0.554219,0.742082,0.181337,0.284644,0.647575,-0.350564,0.120677,0.130101,0.233124,-3.779995,-0.187088,-0.32225,0.135724,0.073305,0.218481,0.391813,-0.014811,-0.062048,-0.037909,-0.024919,0.031172,-0.174944,0.424227,0.050733,-0.963524,-0.303911,0.271733,0.033455,-0.23626,0.84854,-0.114445,-0.11832,0.360823,-0.086232,-0.11964,0.078291,-0.133042,0.058299,-0.306282,-0.371118,0.314656,0.239306,0.537751,0.120798,0.355281,-0.770567,0.717117,0.301427,-0.464721,0.240634,-4.20469,0.223353,-0.039099,0.197006,0.141294,0.0986,0.092526,-0.288883,-0.004202,-0.103775,-0.117526,-0.340714,-0.058239,0.527383,-0.222945,-0.965122,-0.017019,0.300992,0.327555,-0.067375,0.481151,-0.520423,0.098765,0.421092,-0.243615,-0.093323,0.165229,0.060004,-0.329206,-0.227901,-0.221083,-0.452591,-0.63294,-0.532314,0.04274,-0.24729,1.25753,-0.10234,-0.010753,-0.040699,-0.267454,5.443029,-0.017313,0.05924,-0.141955,-0.13653,0.131338,-0.397151,-0.004813,-0.120401,0.104454,0.123344,0.091883,0.039787,-0.561285,0.04633,1.001235,0.388514,0.467874,0.457897,0.15148,-0.638837,0.028055,0.159025,-0.863749,0.185858,-0.716453,0.132996,-0.148782,-0.450283,0.225484,0.327687,0.190335,0.045639,-0.136252,5.4e-05,0.16123,-0.353378,0.226448,0.029555,0.260082,0.237853,-5.048532,-0.475983,-0.13365,0.18399,-0.155069,-0.172228,0.031931,-0.252629,-0.071685,-0.260296,0.008214,-0.270522,-0.104012,-0.174796,0.116993,-0.664007,-0.098242,-0.41103,-0.350219,-0.103875,0.022982,-0.843903,0.392538,-0.497221,-0.009434,-0.645755,-0.008783,0.752233,-0.609249,-0.403592,0.378876,0.618293,-0.726669,-0.961105,-0.009752,-0.692471,0.901134,1.933142,-0.192211,-0.412585,-0.444177,-0.704548,-0.828583,-0.085198,-0.14997,-0.347985,-0.429865,0.01879,-0.115736,-0.027717,0.010981,-0.205933,-0.232463,-0.139455,0.086712,-1.374368,-0.84167,0.072496,0.08493,-0.503855,-0.260951,-0.855361,-0.650883,-0.133746,0.343036,-0.802606,0.587503,-0.099132,-0.174491,0.259188,-0.200573,-0.57215,0.426766,-1.244979,-0.941857,0.049106,-0.139623,-0.161957,-2.52794,0.418741,-0.785241,-0.617138,0.932851,-0.989875,-0.236233,-0.216729,-0.920767,0.046234,-0.424944,-0.117049,-0.248748,0.080083,-0.168355,0.058865,0.070836,-1.623433,0.059932,0.255835,0.150544,-0.403609,0.136114,-0.062968,-0.953052,-0.484419,-0.166396,