{"format":"ratass-rl-policy-v3","source":"ray-rllib-ppo","objective":"race-route-progress-v1","observationSize":33,"actionSize":2,"output":"first actionSize outputs are deterministic direct throttle and turn controls","layers":[{"inputSize":33,"outputSize":128,"activation":"tanh","weights":[0.10019,-0.17986,0.183768,0.020613,0.185625,0.211735,-0.111887,0.094862,-0.094144,0.072752,0.359311,0.177172,-0.132939,0.113079,-0.435696,-0.273472,0.05684,-0.419219,0.191844,-0.303478,-0.153431,-0.094999,0.348528,-0.067273,-0.16695,0.179176,0.052951,-0.073841,-0.090014,0.244289,0.101251,-0.037358,-0.186206,-0.02063,-0.232413,-0.253117,0.404921,0.41503,0.329125,0.100606,0.0324,0.045925,0.132845,-0.338272,-0.27639,-0.352209,0.143547,-0.213995,0.388986,-0.125971,-0.24439,0.090925,-0.1403,0.204441,0.007917,-0.239595,0.272766,0.042385,-0.104926,0.299515,-0.019676,-0.112043,0.019456,0.336424,0.043889,-0.087446,0.075553,-0.733336,-0.042176,0.202875,0.075983,0.188817,0.297432,-0.281756,0.171682,0.094468,-0.126124,0.006824,0.686242,0.016154,0.472411,0.242283,0.144265,0.719329,-0.055007,0.084297,0.146343,-0.215039,-0.082837,0.224819,-0.100212,-0.25686,0.657185,0.030219,0.154569,-0.043873,0.198717,-0.042854,0.002897,-0.030416,0.115943,0.168138,-0.035968,-0.059139,-0.371667,-0.210058,-0.116785,-0.199788,-0.187993,0.30702,0.519985,0.015334,0.010436,-0.112158,-0.011547,-0.029209,-0.131206,0.172835,0.012743,-0.018084,-0.17694,0.245422,0.053881,-0.142592,0.05878,0.058843,0.088045,0.102668,0.126012,-0.352899,-0.164983,-0.156018,0.077922,-0.519674,0.024191,-0.242584,0.118417,0.204271,0.193728,0.010102,0.051139,0.145697,0.003533,-0.136517,0.285357,-0.031,-0.210394,0.573219,-0.008591,-0.210294,0.200692,0.081172,-0.076192,-0.170893,0.04678,-0.214999,-0.246239,-0.073788,-0.120061,0.119687,-0.147969,0.14087,-0.124104,0.133177,-0.153075,-0.029044,-0.105516,-0.038014,-0.007751,0.085487,0.439414,-0.166906,0.181599,0.15331,0.01015,0.493551,0.662541,0.205821,0.041607,0.071453,-0.078947,-0.112771,0.370103,-0.306528,-0.342433,-0.095791,-0.107385,-0.120716,0.15526,-0.037786,-0.143165,0.095305,-0.029454,-0.160964,0.080399,0.00766,0.161617,-0.133979,0.150286,0.097215,0.009879,-0.112013,0.039203,0.208111,0.141121,-0.041613,0.08894,0.144726,-0.671167,-0.474406,-0.143593,0.056333,-0.104106,0.243285,0.020599,-0.123752,-0.085929,0.155531,0.042504,0.17524,-0.235438,-0.034086,0.005672,-0.198635,-0.122439,0.022123,0.147377,-0.043927,0.205268,-0.029958,-0.000517,-0.081286,-0.079821,-0.051955,-0.097961,-0.156971,-0.112114,0.175062,0.05919,-0.113017,-0.031764,-0.683278,-0.569804,0.075133,0.163206,0.190466,0.153661,0.090373,-0.478003,-0.021414,0.058225,0.207506,0.057442,0.205607,-0.157966,0.123832,-0.023292,0.027111,-0.087396,-0.012433,-0.013901,0.061822,0.088452,-0.01158,0.11777,-0.176424,-0.08056,0.05352,-0.238678,-0.210953,-0.023302,0.057951,-0.093705,0.150904,0.433686,0.31677,0.126417,0.049911,-0.380754,-0.167132,0.067912,-0.468097,0.160426,-0.163984,-0.028478,-0.043416,0.19805,-0.185612,-0.249686,0.09922,-0.164518,-0.098855,-0.064231,-0.016842,-0.32235,0.004261,0.077239,0.348446,-0.134161,0.138647,-0.051356,-0.111039,0.04665,0.334505,0.478999,0.262132,0.423353,0.19943,-0.083085,-0.151799,0.181953,0.112561,0.149562,0.348505,-0.082131,0.196658,0.117693,0.336217,0.37091,0.218496,0.44929,0.281449,0.209828,-0.026661,0.510899,0.470699,0.033363,0.046262,0.281759,0.271117,0.154248,-0.01618,-0.115449,0.111476,-0.502056,-0.35033,-0.13413,-0.073374,0.125492,0.106099,-0.278135,-0.03727,-0.170229,-0.043597,0.142615,0.596831,-0.046964,-0.812419,0.164924,-0.064785,0.053123,0.025561,-0.111832,-0.216133,-0.274547,-0.054608,0.155351,-0.003008,0.133185,0.207475,0.026069,-0.146073,0.0609,0.003358,0.085896,0.053977,-0.042209,0.063553,-0.084889,0.14798,0.01941,0.019235,0.02106,-0.475393,-0.388701,0.07797,-0.159889,0.279738,0.436056,-0.302702,0.532668,0.010105,-0.094024,0.041623,-0.093813,-0.301072,-0.068054,-0.135694,0.011591,-0.107603,-0.138123,-0.125095,-0.172503,0.008289,0.010075,-0.035234,-0.057719,0.031107,0.100703,-0.051518,0.185655,0.256851,-0.096918,0.165796,0.024058,0.082859,0.362161,0.050051,-0.180875,-0.02439,-0.361158,-0.347137,0.287783,0.158364,0.027298,0.083153,0.082224,-0.070101,-0.070722,0.092217,0.074832,0.108123,-0.026548,0.097759,-0.079798,-0.046212,0.182638,0.022621,0.165499,0.09197,-0.107715,0.083732,0.026187,0.017569,0.295182,0.098176,0.087675,0.084817,0.049174,0.186011,0.215303,0.348886,-0.259815,0.30159,-0.02154,-0.155624,0.716948,0.047839,-0.167606,0.041532,0.156759,-0.258433,0.007758,-0.083761,-0.227211,0.176536,0.179219,0.019797,-0.172112,0.375835,-0.106476,-0.00819,-0.191265,0.032157,-0.064214,-0.138962,-0.26197,0.179204,-0.040783,-0.038447,-0.015917,0.13497,-0.358831,-0.091112,0.410055,-0.210857,0.400872,0.352628,0.013506,0.185329,0.160719,0.089862,-0.062094,0.14562,0.049819,-0.073628,-0.052923,-0.227977,0.024811,-0.122382,-0.103705,-0.288855,-0.093042,-0.118567,0.081807,0.112172,0.07963,-0.002191,0.337021,-0.052781,0.006012,0.114829,-0.069814,-0.102808,0.137068,-0.038683,-0.120317,0.08667,-0.122684,0.40085,0.310971,0.0569,0.596044,-0.177567,-0.065725,0.026465,-0.098919,-0.039438,0.1624,-0.071468,-0.178138,0.130374,0.153983,-0.008234,-0.145492,0.213533,0.174313,0.048029,-0.080819,0.175275,0.012067,0.102226,-0.191858,-0.022965,0.092757,0.056768,0.183952,0.129096,-0.719361,-0.431175,-0.334287,-0.158221,0.141244,0.059701,-0.104162,-0.531894,0.283335,0.083857,0.025761,-0.18579,0.059846,0.065369,0.110508,-0.03143,-0.137183,-0.123507,0.193233,0.27377,-0.06689,-0.127811,-0.07081,-0.162291,-0.111478,0.166433,0.096746,0.198523,0.092975,-0.119352,-0.062253,0.027321,-0.031957,0.516553,0.833658,0.281383,0.012102,-0.152372,-0.190618,-0.121019,0.32239,0.141812,0.032019,0.072114,-0.032674,0.048339,-0.071082,-0.058936,0.113547,0.090554,-0.121571,-0.022317,0.035056,0.056219,-0.163975,-0.147502,0.061333,0.34147,-0.15341,-0.18665,-0.090678,-0.112885,0.065905,0.049441,0.087258,-0.1103,-0.154805,-0.196603,-0.462499,0.233536,-0.287422,0.035642,0.093099,-1.007384,0.306486,0.066359,-0.112837,0.071599,-0.022284,-0.056112,0.112574,-0.110608,-0.272146,0.098572,0.146414,0.152117,-0.242863,-0.011218,-0.054689,0.116301,0.579193,0.216308,0.088291,-0.264152,-0.325591,-0.15799,-0.131504,-0.093568,-0.154345,-0.041088,0.129339,0.06499,-0.24547,0.207296,-0.383265,0.149423,0.398253,0.109542,-0.029254,-0.196258,-0.013972,0.146564,-0.14645,-0.106722,0.230842,-0.058602,-0.135745,-0.129266,-0.074495,-0.02953,0.127738,-0.176793,-0.22006,0.280177,-0.231833,0.001461,-0.061755,-0.287383,0.020537,-0.209094,-0.276175,-0.313869,-0.088015,0.254023,-0.024583,0.025445,-0.017094,-0.153894,-0.290385,0.248712,0.085648,-0.224757,0.001981,-0.067846,-0.266008,-0.137223,-0.060917,-0.270457,-0.012551,-0.261075,-0.312665,-0.206058,0.155333,-0.157142,-0.242692,-0.049827,-0.21951,0.120926,0.04542,0.350406,0.189734,-0.168249,0.098304,-0.096437,0.083181,0.361624,0.41513,-0.004605,0.020375,-0.183896,-0.254537,0.263962,-0.32743,0.137763,-0.213455,-0.205886,-0.036882,0.252962,-0.126773,-0.175646,0.175426,0.056316,-0.136366,-0.076885,0.117764,0.147846,0.081837,-0.15285,0.164197,-0.082553,-0.113242,-0.399405,-0.493694,0.075118,-0.003921,-0.025375,-0.016413,-0.123744,0.123541,0.143675,0.036901,-0.077706,0.14788,-0.051904,0.193276,-0.193288,-0.114839,0.009836,0.031479,0.09375,0.280019,-0.075518,0.041609,0.15918,-0.30036,-0.104159,0.090299,0.086637,-0.350035,-0.103139,0.141305,0.063698,0.294023,0.154053,0.093536,0.278241,0.228753,-0.097,0.120025,-0.107637,-0.109559,-0.575318,-0.490075,-0.222146,0.061732,0.003908,-0.014692,-0.007949,0.429842,-0.036945,-0.004668,0.194577,0.25827,0.047155,0.094094,-0.012467,-0.072003,0.157607,-0.090994,-0.106021,-0.151909,0.316255,-0.035175,-0.044807,0.059407,-0.131462,-0.102774,-0.042349,-0.14468,0.336902,0.078888,-0.12865,0.056117,-0.055693,-0.465371,-0.298439,0.314607,-0.016182,0.152512,0.472791,0.053551,-0.033136,-0.058991,0.099081,-0.078103,0.1088,-0.220297,-0.035983,0.238325,-0.129539,-0.094988,0.034739,0.126358,-0.166369,0.090361,0.112265,0.070875,-0.241463,-0.000819,-0.059075,0.004838,-0.227211,-0.005259,-0.146775,-0.089982,-0.248487,-0.253108,0.192914,0.262374,0.143634,0.129266,0.096141,-0.363004,-0.073267,0.325348,-0.139894,0.088387,-0.004807,-0.041752,-0.060219,-0.170061,-0.04166,-0.036767,-0.228889,-0.270956,-0.1961,-0.039003,-0.14488,-0.147114,-0.11709,-0.02746,-0.074053,-0.073267,0.216174,0.281193,0.121128,0.119284,0.154928,0.026287,-0.001327,0.682716,0.600239,-0.048143,0.024503,0.135435,-0.348137,-0.120473,0.492767,-0.148006,-0.112464,-0.002267,0.063606,-0.057737,-0.094319,0.087368,-0.206817,0.142168,-0.138895,0.146812,0.076336,0.258124,-0.143738,0.018929,0.159271,-0.350981,-0.122864,0.181527,0.027181,0.05361,0.1331,-0.182644,0.174117,0.143513,0.040052,-0.026548,0.365678,-0.012625,0.131249,0.697962,0.088013,0.70932,-0.267841,-0.003948,-0.119851,-0.221027,0.003655,0.105787,-0.116881,-0.079022,0.106283,-0.0303,0.054485,-0.121871,0.061067,-0.057144,0.094794,0.013095,0.028797,-0.191361,-0.029249,-0.279894,0.040588,-0.063733,-0.118189,0.020275,-0.112615,-0.207103,-0.240929,-0.032963,0.055134,0.078849,0.156782,-0.220422,0.322487,0.024338,0.095809,0.003114,-0.026026,-0.220898,0.205811,0.024166,-0.201622,0.043178,0.182415,0.19079,-0.192907,-0.118791,0.209271,0.155701,0.184376,-0.134103,0.143635,0.163773,0.548762,0.253612,-0.027536,-0.028435,-0.141863,0.054783,0.346869,0.401367,-0.016777,0.234014,-0.247557,-0.15122,-0.01057,0.290363,-0.010045,0.04315,0.060935,-0.180737,0.114289,-0.087376,-0.15732,0.040412,0.198379,0.07069,0.137026,-0.00958,0.315082,0.1016,-0.14548,-0.283796,0.340407,-0.021853,-0.031123,0.231276,0.034071,-0.204524,-0.304302,-0.453477,-0.388463,-0.05821,0.294854,0.010777,-0.08541,0.028994,-0.407931,-0.234172,0.037869,-0.054697,-0.083108,-0.270775,-0.152999,-0.122027,-0.440303,-0.261167,-0.227093,-0.020966,-0.343963,-0.307031,-0.240786,0.088454,-0.160578,-0.443761,0.100003,-0.075659,0.021198,-0.114686,0.082685,0.082042,0.021215,-0.070351,-0.112201,-0.125012,-0.398464,-0.276118,-0.153983,-0.132217,-0.263499,-0.403942,0.262281,-0.53749,-0.01186,0.010414,0.076973,0.167581,0.268211,0.032972,0.16487,0.124022,-0.049034,-0.024656,0.129921,-0.06657,0.082474,-0.039295,0.048876,-0.041964,0.068079,-0.074085,0.249929,0.187276,-0.028964,0.029734,-0.036666,0.047744,0.092311,-0.371831,-0.463586,-0.195537,0.162522,0.010138,0.517175,-0.247199,0.038057,-0.192149,-0.045285,0.191319,0.213345,-0.078255,0.124612,0.00326,-0.061864,-0.060237,-0.059711,0.039651,-0.161908,-0.015362,0.226979,0.157176,0.166031,0.180709,-0.043683,-0.178464,-0.345722,-0.139114,-0.04027,-0.08227,-0.021815,0.181941,-0.722199,-0.6658,0.052995,0.109007,0.056985,0.235092,0.00626,-0.777401,0.09567,0.328245,0.135536,0.051785,0.177963,0.039784,-0.031186,-0.005038,0.044382,0.029614,-0.066647,-0.009442,-0.221767,-0.017618,-0.021165,0.135719,0.237132,-0.105152,-0.0768,-0.312454,-0.251007,0.082288,-0.084144,-0.175232,0.126399,-0.371633,-0.522092,0.191992,0.040883,0.32762,0.382229,0.193831,-0.866029,0.054527,0.272973,0.048851,-0.11518,0.002502,-0.195379,-0.188775,0.030073,-0.076376,-0.025089,0.074028,0.229691,-0.191261,0.028859,-0.108007,0.14809,0.096414,0.019794,-0.169903,-0.358113,-0.047872,-0.15545,0.089592,0.028386,-0.117187,-0.512941,-0.75549,-0.09993,-0.01615,-0.042506,0.192539,0.138827,-0.451347,0.234943,0.193091,0.106251,0.109019,-0.02836,-0.211962,-0.178582,0.136076,0.10986,0.135773,0.134152,-0.022582,0.038132,0.074272,-0.069614,0.155344,-0.105999,-0.080845,-0.089543,0.196014,0.306553,0.036471,-0.099934,-0.122092,0.107306,0.672213,0.659428,0.311075,-0.047546,-0.207975,-0.197507,-0.076698,0.685208,-0.287677,-0.147898,0.040685,-0.013968,-0.029621,-0.03323,0.137493,0.019569,0.14795,0.140879,-0.076324,-0.166969,-0.034661,-0.149701,-0.129244,0.003615,-0.354675,-0.063659,-0.065788,-0.122214,0.247679,0.230097,-0.138196,0.106339,0.149142,-0.510244,-0.546268,-0.24445,-0.115736,-0.021393,0.392075,-0.149116,-0.309017,0.227321,-0.039644,0.054721,-0.133876,-0.087671,0.049087,0.010557,-0.046146,0.061631,-0.054229,-0.018921,0.106218,0.009373,0.178345,0.199606,0.102469,-0.400243,0.097893,-0.300859,0.073102,0.05078,-0.061281,0.156425,-0.033793,0.245607,0.049983,0.242716,0.149264,0.133956,-0.180369,0.071129,0.301232,-0.475229,-0.009393,-0.079054,-0.172151,0.121895,0.212535,-0.008999,0.064378,0.14173,0.024489,0.017303,0.169798,0.208961,0.068528,0.094431,0.003953,0.04697,-0.125286,0.010104,-0.194802,-0.11616,-0.182448,0.111818,-0.127774,0.085179,-0.118111,0.098594,0.078469,-0.215984,-0.105709,0.088727,-0.390199,0.047268,-0.493097,0.190773,-0.068065,-0.065642,-0.305069,0.281852,0.053637,-0.120007,0.191918,-0.028585,-0.059306,-0.153523,0.273588,-0.298773,-0.223112,0.070051,-0.065723,0.110812,-0.107434,0.01226,-0.321936,-0.073226,-0.18755,-0.081777,-0.01668,-0.058234,-0.056748,-0.121532,0.392998,-0.272422,0.317473,-0.014817,-0.220827,0.281289,0.074784,-0.092032,0.089335,-0.060452,0.042221,-0.151522,0.099392,-0.235965,0.133815,-0.16944,-0.195907,-0.146975,-0.111105,0.016,-0.001206,-0.106911,0.153988,-0.033688,-0.166753,-0.429172,-0.208587,0.079923,-0.058631,0.101702,0.067374,-0.64427,-0.399423,-0.202752,-0.036158,0.18456,0.103391,0.074797,-0.484477,0.193225,0.22577,0.079154,-0.081287,0.008915,-0.094441,0.075741,-0.065487,0.031819,0.056533,-0.104013,0.098008,-0.12072,0.011934,0.1008,-0.074158,-0.206477,0.116581,0.02095,0.177376,0.061016,-0.061783,0.138977,0.094507,0.176635,-0.017542,-0.082698,-0.074692,-0.019107,-0.159533,-0.160968,0.102665,-0.346881,-0.027084,-0.125637,0.048017,0.065653,-0.039314,-0.113685,-0.108721,0.114858,-0.116778,-0.138878,-0.029347,0.238866,0.151849,0.126663,0.036368,0.072303,-0.146052,0.039254,-0.142723,0.043983,-0.136021,-0.142548,-0.034491,0.071346,-0.086972,0.355326,0.364206,0.136181,-0.098026,-0.077389,-0.387463,0.17754,-0.111001,0.208908,-0.09243,-0.016219,-0.167333,0.268099,-0.18489,0.042465,-0.071041,-0.041758,-0.133649,0.08944,0.137618,-0.063513,-0.114056,0.107348,-0.093644,-0.24749,0.131476,0.108845,0.439435,0.129661,0.169602,-0.029204,-0.113311,-0.125256,0.45395,0.711857,0.335634,0.170818,-0.05956,-0.126137,-0.0451,0.53912,-0.268002,-0.060245,-0.057671,0.07755,0.187787,-0.139998,0.11565,-0.181405,-0.119854,-0.086791,-0.169434,-0.157932,-0.042361,-0.060749,0.1103,0.001138,0.270541,0.074313,-0.069344,-0.343687,-0.018482,-0.108797,-0.143673,-0.02403,0.126747,-0.642417,-0.409123,0.02807,-0.126087,0.472026,0.102134,0.059557,-0.554284,0.200474,0.041418,-0.056137,0.039959,0.115767,-0.156855,0.076522,0.029216,0.071757,-0.020273,-0.101911,0.224085,-0.241971,-0.148241,-0.045879,0.056652,0.57323,0.072543,0.143322,-0.362649,0.023461,-0.116208,-0.122098,0.02962,-0.178748,-0.101106,-0.162731,-0.27065,-0.155763,0.349314,-0.117809,0.012451,-0.590353,0.126928,0.176082,-0.105071,-0.107918,0.193852,0.06289,-0.164631,-0.123682,-0.053086,-0.129564,-0.031594,0.150962,0.01859,-0.064378,-0.233963,-0.1815,0.102912,-0.175766,-0.099048,-0.24991,-0.221364,-0.168198,0.026219,0.009643,-0.1619,-0.260185,0.029826,0.214261,-0.088382,0.45632,0.126011,-0.126971,-0.050226,0.066335,0.038051,-0.112841,-0.120711,-0.030273,0.053826,-0.147608,-0.017079,-0.174757,-0.233389,-0.13082,0.080355,0.183644,-0.221542,-0.097212,-0.066707,0.124617,0.225169,0.021956,0.268238,0.013396,-0.086907,-0.177483,-0.097278,-0.086424,0.423779,0.501573,0.304888,-0.232454,-0.039449,-0.200524,0.055421,0.197199,-0.174162,0.028884,0.028367,-0.151962,-0.04939,0.006032,0.113995,-0.076567,-0.024882,-0.203899,-0.021404,-0.002445,-0.106508,-0.2019,-0.163994,-0.072485,0.127929,-0.099373,0.183009,0.379816,-0.185671,-0.021584,-0.158431,-0.210865,0.020205,0.331815,0.276505,0.009372,-0.069052,0.126755,-0.046115,-0.228713,0.55807,-0.238568,-0.291467,0.171426,-0.027626,-0.288834,0.113271,-0.158608,-0.04998,-0.055467,-0.161314,-0.188529,-0.057017,-0.046525,-0.141525,-0.16855,-0.015091,-0.169249,-0.002797,0.174994,0.483728,0.133511,0.140455,-0.063513,-0.091626,-0.038461,0.486178,0.626425,0.230642,0.024505,-0.247384,-0.200999,0.003474,0.507062,-0.054038,-0.056741,-0.018803,-0.068152,0.081912,0.067915,0.174718,-0.013692,-0.15308,-0.022785,0.001469,-0.076869,0.198719,-0.047515,-0.133827,0.09123,-0.115315,-0.021509,-0.202873,0.048821,-0.02995,0.172909,-0.121361,0.226157,0.02511,-0.596885,-0.42233,0.186474,-0.064571,0.234977,-0.017432,0.051325,0.150924,-0.09714,0.165395,-0.094957,0.128401,-0.205229,0.047251,0.247314,0.026603,-0.034463,-0.067784,0.008805,-0.199237,0.079622,-0.105767,0.219781,-0.167935,-0.154041,-0.236783,-0.05087,0.158816,0.07308,0.1928,0.075231,-0.084946,0.11054,-0.455048,-0.300351,-0.062922,-0.059365,-0.068892,0.42495,-0.065149,0.012411,-0.042498,0.19959,0.04922,-0.020333,-0.305448,-0.076861,0.251341,-0.243648,-0.081899,0.190635,0.138117,-0.066092,0.273646,0.156558,-0.022768,0.034178,-0.03411,0.080142,-0.061861,-0.346488,-0.402596,0.136829,-0.169492,-0.013319,0.059582,0.096488,-0.026102,0.284658,-0.120818,0.236098,-0.454432,0.099945,-0.319477,0.250063,0.219012,0.141638,0.053371,0.319077,0.073586,-0.030236,0.200068,-0.080902,-0.064484,-0.191805,0.103734,-0.264587,-0.149439,-0.119917,0.117308,0.012642,-0.236253,-0.094836,-0.207571,0.124462,0.150198,-0.055061,-0.039542,-0.196293,-0.000568,-0.070704,0.477846,-0.14997,0.164012,0.08786,-0.0984,0.495814,0.12907,-0.061024,-0.144084,0.08568,-0.185402,-0.105966,-0.079787,-0.235021,-0.062991,-0.209422,-0.198091,0.007531,0.104169,0.011181,0.105714,-0.009404,-0.450617,0.093988,-0.231883,0.113123,0.267891,-0.126312,0.10816,0.122765,0.087344,0.345906,0.061883,-0.302481,0.047931,-0.086197,-0.272849,0.02047,-0.399508,-0.092518,-0.138743,0.07178,0.061284,0.147387,0.03205,-0.134261,0.060679,-0.00164,0.205505,0.07393,0.225992,0.103405,0.154342,0.111834,-0.153256,-0.020583,0.136604,-0.080046,0.353635,0.117601,0.02573,0.067508,0.038677,-0.192714,0.200213,0.471935,0.559648,-0.016038,0.23123,0.221363,-0.101009,0.379088,-0.03367,-0.12217,-0.088898,-0.003972,-0.025118,-0.222682,0.039908,-0.088638,0.001881,0.152856,-0.171654,0.030792,0.202,-0.097163,0.127978,0.048226,0.064013,0.067517,0.007981,0.000101,0.095806,-0.112104,-0.165095,-0.168777,0.042257,-0.629395,-0.527749,-0.063397,-0.233299,0.193706,0.166489,-0.219818,-0.200787,-0.137334,-0.081076,0.093463,0.16426,-0.021603,-0.068241,-0.118911,-0.139164,0.034007,0.004372,-0.108597,0.142434,0.179287,0.037183,0.003797,0.099294,0.084388,-0.160778,0.026941,0.091511,0.009895,0.081542,-0.008919,0.016966,-0.140545,-0.467023,-0.214146,-0.029081,-0.063099,0.254803,0.288623,-0.157977,0.070962,-0.065558,0.019091,0.068946,0.211775,-0.0919,0.107884,0.232137,-0.178753,-0.033957,-0.095553,0.183281,-0.012107,0.248904,0.001359,-0.094053,0.009262,0.373815,-0.095334,-0.113999,0.009923,-0.137505,-0.094359,0.187659,0.08376,-0.009217,-0.193406,-0.167136,-0.566727,0.102974,-0.312617,0.090855,-0.18813,-0.45131,-0.103323,-0.05085,-0.114262,0.107841,0.076924,-0.138691,0.121425,0.058612,-0.402718,-0.002827,-0.165789,0.072465,-0.212028,0.076647,-0.072796,-0.127175,-0.071828,0.038581,-0.165783,-0.184887,0.409615,0.050781,0.16006,0.049167,0.060488,-0.631679,-0.560666,0.273973,-0.204634,0.472719,0.40932,-0.103501,-0.333335,-0.081315,-0.156946,0.064637,0.185533,0.124534,-0.127103,-0.032642,-0.203166,-0.202011,-0.042036,0.089812,0.060554,0.13388,0.003581,0.004094,0.022487,0.108771,0.196087,-0.058018,-0.025732,-0.216886,-0.056903,0.071954,-0.226186,-0.190884,0.345796,0.475357,0.084788,0.078119,0.022172,-0.336625,0.187911,-0.269419,0.282253,0.068868,0.048672,-0.137289,0.177985,-0.052766,-0.199226,0.189845,-0.061922,0.008965,0.050909,0.032151,-0.189765,-0.215829,-0.005514,0.074261,0.130249,0.049684,-0.049926,0.09298,-0.075932,-0.11469,0.000401,0.008644,-0.036624,0.052537,0.048416,0.290405,0.006647,0.494974,0.322157,-0.237282,0.179116,0.079281,0.069558,-0.040273,0.12591,-0.221948,-0.074468,0.009236,-0.007256,0.032134,0.009457,0.071925,-0.238595,0.004268,0.011677,0.172548,0.009745,-0.053517,-0.002879,0.151988,0.212,0.182833,-0.022126,-0.074224,0.081851,-0.049206,-0.183724,-0.270338,0.218335,0.053031,0.359657,-0.238244,-0.223178,0.883654,-0.13499,0.256676,-0.118159,-0.09052,-0.101247,0.124931,-0.143533,-0.06408,0.123623,-0.048455,0.054298,-0.157915,0.188819,0.066007,-0.140833,0.070153,0.330652,0.128387,0.065807,-0.174115,-0.415025,-0.194579,0.069814,-0.08845,-0.155858,-0.474157,-0.345111,-0.395244,-0.235542,0.35969,-0.491582,0.183464,-0.659283,0.220631,0.020779,0.129031,0.09093,-0.053829,-0.182302,-0.127345,0.115806,0.206979,-0.034748,-0.088937,0.086066,-0.178501,-0.19506,-0.018241,-0.049027,0.139544,-0.058079,-0.041792,0.133779,0.311228,-0.112178,-0.000399,0.128292,-0.031063,-0.27066,0.012873,0.144853,-0.091323,0.344388,-0.069252,-0.170133,0.516526,-0.181124,-0.06146,-0.075217,0.197833,-0.242469,0.266242,0.164937,0.022203,0.118766,0.150926,0.035153,-0.113295,0.043261,-0.046926,0.045958,0.003328,0.092993,0.075073,-0.199677,-0.225223,0.185769,-0.041888,0.144582,-0.173327,0.074201,-0.648563,-0.404328,-0.116842,0.014566,0.079248,0.025961,0.100807,-0.194522,-0.01144,0.03991,0.019622,-0.011111,-0.00908,0.031492,-0.115127,0.205911,-0.0898,-0.130705,0.099572,0.234642,0.112308,0.041003,0.123534,-0.005925,0.092265,-0.002116,-0.166319,-0.19004,-0.062142,-0.002917,-0.044109,-0.189712,-0.131417,0.112986,-0.070875,0.202769,0.104934,0.267843,0.016755,-0.050521,0.644644,-0.085346,-0.251365,-0.095756,0.159625,-0.169733,-0.219101,-0.120291,0.003764,-0.135577,-0.188482,0.051643,-0.117565,0.093977,-0.031979,-0.090089,-0.061454,-0.059887,0.013832,0.319159,0.550617,0.057719,0.169197,-0.119485,-0.163179,0.080673,0.360485,0.380289,0.286551,-0.110153,-0.177887,0.117142,0.094279,0.779712,0.022448,-0.281051,-0.134206,-0.137345,0.074054,-0.129473,-0.024321,-0.064472,0.253941,0.187201,-0.085868,-0.02072,0.119737,0.040458,0.132547,-0.099835,0.054734,0.009537,0.128935,0.233353,0.363008,-0.072809,0.009253,-0.040241,-0.146204,-0.39126,-0.236143,0.013858,0.107413,-0.042891,0.047648,-0.164307,0.399659,0.042549,-0.313355,-0.166692,-0.126878,-0.303345,-0.162721,-0.167485,-0.036911,0.038594,-0.193135,-0.164863,-0.096871,0.292682,-0.202424,-0.097913,-0.100177,-0.362142,0.16929,-0.090654,0.12727,-0.092888,0.144911,-0.091098,-0.068805,-0.007959,0.500054,0.275854,0.058312,-0.141734,-0.219546,-0.141363,0.227829,-0.008845,0.210392,0.046863,0.056514,-0.103502,0.018984,-0.178353,0.170347,0.045578,-0.192268,0.046166,-0.146573,-0.154405,-0.154567,-0.036631,0.098803,-0.015858,0.235813,0.144546,0.296009,0.314642,0.076822,-0.012945,-0.07159,-0.130918,-0.090939,-0.187103,0.138875,-0.371703,0.021334,-0.233185,-0.40879,0.359399,0.394013,-0.193182,0.203264,-0.089512,0.005222,0.091501,-0.042141,0.083428,-0.127737,0.14433,0.058213,-0.084962,0.106205,0.220671,0.164587,-0.05259,-0.122292,0.204085,-0.241839,0.031413,-0.112635,-0.043842,0.204134,-0.03159,-0.064105,0.14087,-0.217141,0.054605,0.126303,-0.191455,0.054032,0.253999,-0.033092,0.482301,0.023659,-0.154194,-0.035845,-0.071439,-0.142482,0.146462,-0.177335,-0.244879,-0.142033,0.056711,0.112161,-0.274659,-0.035503,-0.050934,-0.169801,0.092938,0.044677,0.018297,0.03841,0.293039,-0.10244,0.04496,0.131067,-0.052182,-0.02729,0.171226,0.155393,0.263325,-0.006381,0.024613,0.452284,-0.035978,0.531176,-0.281132,-0.224557,-0.110084,0.009973,-0.112814,-0.077766,-0.012614,0.036989,-0.002858,0.112338,-0.094587,-0.136526,-0.116658,0.149411,-0.015654,0.186425,-0.197499,0.045233,-0.193652,-0.253149,-0.250901,0.200583,-0.155725,-0.004738,0.183939,0.098551,0.234594,0.147347,-0.090793,-0.086882,-0.454027,0.211612,-0.397255,0.20603,0.012629,0.08788,-0.10832,-0.009719,0.155162,-0.161342,0.0255,-0.136884,-0.141186,0.019231,0.104397,-0.366332,-0.051521,0.014388,0.088271,-0.081043,0.051528,0.127246,0.246302,0.265693,-0.000769,0.225431,-0.07573,-0.136563,0.352997,0.674796,0.366443,-0.115733,0.147724,0.06044,-0.059701,0.783533,-0.063731,-0.314371,-0.139861,0.039609,-0.167495,0.099025,-0.075418,-0.209953,0.102765,0.143738,-0.020244,0.041734,0.067831,0.165478,-0.08484,0.002997,0.135779,-0.268968,-0.16602,-0.047676,-0.172461,0.002334,-0.339275,-0.099426,-0.252188,-0.449644,-0.142504,-0.089131,0.13353,-0.155851,0.235315,-0.383171,-0.1375,-0.103336,-0.045686,-0.016335,-0.125348,-0.126807,-0.27806,0.027614,-0.153376,0.072916,-0.295953,-0.0794,-0.320743,0.172979,-0.104494,-0.357559,0.037677,0.349013,0.032557,-0.07817,-0.027172,-0.211564,0.120656,-0.156092,0.031298,-0.167423,-0.352495,-0.205689,0.494814,-0.178849,0.455258,0.210785,-0.05244,0.401062,-0.03707,-0.119214,-0.105526,-0.143809,0.087158,-0.127657,-0.098523,-0.144467,-0.174357,-0.079022,0.045887,-0.235392,-0.20887,-0.129807,-0.196507,0.044994,0.244889,0.22782,0.012438,-0.206056,-0.432847,0.105078,-0.095722,-0.005978,-0.115689,0.093049,0.178667,-0.209682,0.190726,0.084391,-0.425399,0.181162,-0.072639,0.001018,0.070366,-0.104112,-0.125445,0.133837,-0.026397,-0.225916,-0.04001,-0.036896,0.063193,-0.038439,0.249923,-0.112882,-0.068461,-0.095033,-0.130102,0.373716,0.062904,-0.043187,-0.320126,-0.313031,-0.084049,0.026659,-0.00196,-0.192953,0.019426,0.225001,-0.252208,-0.222127,-0.049461,-0.450356,0.250108,-0.410533,0.012422,-0.032399,-0.072925,-0.031158,0.066034,-0.123392,-0.157429,0.270318,-0.059128,0.065644,-0.200456,0.04991,-0.223693,-0.092803,-0.167985,-0.069617,0.209573,0.088118,0.096764,-0.367553,-0.301449,-0.16144,-0.189349,0.046756,0.036558,-0.147752,-0.370361,-0.151227,0.090368,-0.009437,-0.074426,-0.028838,-0.566914,0.393143,0.108453,-0.007613,-0.220843,0.087182,-0.186057,0.056026,0.15631,-0.078589,0.097846,-0.083007,-0.063106,-0.025639,0.10209,-0.087511,0.113922,0.130193,-0.147704,0.124143,0.056455,-0.017877,0.158762,0.152204,-0.0333,0.08444,-0.257549,-0.319399,-0.133982,-0.200824,0.195264,0.290472,-0.24497,0.273188,-0.166215,-0.010635,0.163591,0.128415,-0.352331,-0.037053,0.014363,-0.000508,0.190288,-0.002446,-0.075114,-0.033669,-0.030342,-0.124285,0.110012,-0.117068,-0.01456,-0.015181,0.291461,0.554715,0.059295,0.142179,0.010848,0.117438,0.12653,0.34476,0.259383,0.308889,-0.089219,-0.050129,0.188747,-0.072056,0.78723,-0.099126,-0.274943,0.086078,0.043516,0.108183,-0.084653,0.058616,-0.008267,0.173895,0.071484,-0.068122,-0.154535,0.309915,-0.020601,-0.119073,0.001608,-0.072759,-0.068163,0.047336,0.388072,0.198173,0.024832,-0.092466,-0.025827,-0.176639,0.431777,0.54902,0.258237,-0.008065,-0.113635,-0.41833,-0.013541,0.298952,-0.09741,0.049448,-0.021833,0.080282,0.033817,-0.029503,0.223781,-0.071599,-0.137997,-0.052551,0.003255,0.057989,0.161083,-0.146672,0.027602,0.092361,0.198744,-0.027029,0.070682,-0.055905,-0.104396,-0.151013,-0.00129,-0.004708,-0.056648,0.530009,0.256803,0.467756,-0.289468,0.357153,0.013142,0.151613,0.197483,0.346134,0.00549,-0.087913,-0.067195,-0.036467,-0.156784,0.224741,0.018013,0.033768,-0.188477,0.044604,-0.003187,-0.069835,-0.06369,-0.123339,0.03066,0.02748,0.0357,-0.034918,-0.064079,0.109877,0.138994,-0.023116,0.021815,0.10398,-0.623236,-0.654157,-0.35594,-0.109768,0.167725,0.313359,0.101283,-0.568914,0.334755,-0.008949,0.000528,0.025372,-0.073833,-0.00829,0.006913,0.016213,0.155384,-0.149524,-0.078884,0.151938,0.125486,0.115378,0.018814,-0.106613,0.000778,-0.074783,-0.133472,-0.331928,0.067498,0.203931,0.03732,0.071648,0.077822,-0.413349,-0.336484,0.464874,-0.082052,0.525626,0.157421,-0.29881,0.036183,-0.1076,-0.1284,0.024251,0.151534,-0.104784,0.099721,0.040114,-0.061606,-0.087819,0.148596,-0.046765,-0.017551,-0.081252,0.013646,0.071736,-0.056413,-0.027258,0.12238,-0.22804,-0.345571,-0.014959,-0.191062,-0.09576,-0.004555,-0.116859,0.236504,0.433787,-0.009429,0.055823,0.132172,-0.238923,0.216129,0.108452,0.022825,0.167059,-0.110359,-0.035024,0.081646,0.073287,0.064292,0.209721,0.002842,-0.02634,0.150524,-0.0444,-0.244833,-0.124124,0.137,0.035729,0.200587,0.090995,0.229639,0.156472,0.088496,0.054484,0.262882,0.241762,-0.031309,0.490942,0.51687,-0.219553,-0.160214,0.059814,-0.198086,0.184707,-0.010704,-0.004196,-0.07028,0.051974,0.172896,0.251983,0.026557,0.206217,0.002159,0.183422,-0.057616,-0.022893,0.195158,0.206476,0.227449,0.150011,0.016102,-0.235081,0.059932,-0.068602,-0.078719,0.184025,0.022191,0.038639,0.116602,0.026138,0.410583,0.410811,-0.017442,0.17468,-0.137436,-0.096249,-0.0236,0.036535,0.080878,-0.02396,0.123503,0.182356,-0.032439,-0.11259,0.072471,0.044844,-0.101315,0.000798,0.201303,0.04168,-0.277693,-0.00062,-0.036451,0.070314,-0.080925,0.031572,-0.139809,-0.333582,-0.294105,-0.094535,-0.099982,-0.125687,0.075541,-0.451718,-0.506321,-0.22507,0.065601,-0.077612,0.055105,0.026085,-0.834785,-0.031561,0.157602,0.129408,0.107336,0.182681,-0.071497,-0.164655,-0.11136,0.070252,-0.174653,0.131084,-0.033126,-0.236892,0.048343,0.130874,-0.026757,-0.058283,-0.134499,0.198565,0.07093,0.391415,-0.089584,0.098132,0.003095,0.190738,-0.337333,-0.104897,-0.170133,0.113848,0.023821,0.069106,0.001851,0.409447,-0.024102,0.048939,0.007042,0.191577,-0.25303,0.034578,0.204528,-0.039421,0.056501,0.109014,-0.096625,-0.208595,0.35988,0.175427,0.224342,0.152765,0.161177,0.069754,-0.040484,0.014516,-0.215626,-0.026913,-0.105782,0.175577,0.185538,-0.61712,-0.698444,-0.175569,-0.067057,-0.009305,0.497659,-0.023938,-0.262103,0.066211,-0.133458,-0.053538,0.080956,0.153987,-0.109037,0.094084,-0.109875,-0.013698,0.075117,0.159457,0.018764,-0.076301,-0.061587,-0.124549,-0.140284,-0.234341,-0.005349,0.081252,0.266058,0.071352,0.03946,0.125733,-0.062942,0.187578,0.170413,0.216607,-0.459413,-0.095771,-0.248353,-0.156347,0.160497,-0.282028,0.067302,-0.035758,0.030956,-0.057589,0.228375,0.133685,-0.102076,0.185176,0.020877,0.131645,-0.007468,0.22188,-0.213946,-0.146045,-0.143238,-0.096097,-0.090141,-0.006235,0.031838,0.356952,-0.040399,0.087917,0.012264,0.097522,-0.031726,0.346155,0.131411,-0.192959,0.104429,-0.549159,-0.250294,0.268553,-0.268311,0.236402,-0.152583,0.062699,0.021336,0.185625,-0.070796,-0.108863,0.12367,-0.095883,0.137329,0.173082,0.18458,0.148819,-0.110399,-0.015339,-0.044691,0.065751,-0.157015,-0.122478,-0.065465,-0.147261,-0.040537,-0.178921,-0.193605,0.066168,-0.438393,-0.318639,0.433393,0.056343,0.392676,0.146422,0.046628,0.271308,0.088692,-0.016033,-0.024156,0.136979,-0.217414,-0.113303,0.147127,-0.085823,-0.08075,0.005775,-0.122615,-0.10369,0.096138,-0.009756,-0.105209,0.157815,0.194448,0.037351,0.340287,0.260219,-0.033883,0.184077,0.018194,-0.024934,-0.112534,0.213802,0.278122,0.136462,-0.115556,0.141895,0.160548,-0.118533,0.426934,-0.065039,0.235863,0.139263,-0.135359,-0.116098,0.196197,-0.12151,-0.049586,0.233123,-0.049717,-0.036351,0.021342,0.123647,-0.125838,0.062567,0.004675,0.094317,-0.090604,0.113253,-0.105561,0.176183,-0.013725,-0.036187,-0.131006,0.131218,-0.377265,-0.40801,-0.002382,-0.155152,0.062859,0.2288,-0.086111,-0.83019,0.065706,0.018583,0.093012,0.100394,0.040963,0.078259,-0.042433,-0.058697,-0.210432,-0.025159,0.112612,0.154772,-0.008122,0.090449,0.078308,0.147878,0.09247,0.051866,0.024653,-0.334156,-0.237131,0.156782,-0.058501,0.067656,0.162518,-0.668936,-0.717922,-0.159097,0.050632,-0.095534,0.087852,0.110695,-0.873347,0.208835,0.286696,0.074265,-0.044042,0.13373,-0.173331,-0.13561,0.06483,-0.106,-0.05852,-0.10649,0.165749,-0.176087,-0.088489,-0.150342,-0.014615,0.280074,0.148366,0.06175,-0.372258,-0.179219,-0.126639,0.054102,0.065094,0.064299,-0.388916,-0.306964,-0.31031,-0.090872,0.228557,0.11188,0.06619,-0.6946,0.04521,-0.038159,-0.02946,-0.020882,-0.001485,-0.13965,-0.260094,0.17146,0.110107,-0.049005,-0.064351,0.09061,0.124207,0.007653,-0.106491,0.075223,-0.121302,-0.03699,0.058978,-0.196891,-0.271705,0.050228,0.061716,0.047855,0.236889,0.160589,0.049683,-0.264482,-0.07999,0.157122,-0.045615,0.142497,-0.497218,-0.161267,-0.009238,0.086371,0.17898,0.244608,-0.078108,-0.159998,-0.046176,-0.11921,0.184578,0.130099,0.189508,-0.228155,-0.008236,0.016242,0.193914,0.050109,0.00049,-0.140968,-0.021828,0.240217,0.117105,-0.035762,0.024458,0.195313,-0.491769,-0.355326,0.152343,0.044326,0.049891,0.416062,-0.010731,0.054172,-0.065055,0.08679,0.047927,0.158166,-0.222137,0.013893,-0.050626,-0.152962,-0.129091,0.084311,0.216602,-0.16653,0.10559,0.044741,-0.000321,-0.071843,0.064661,-0.069649,-0.016082,0.097974,-0.203688,0.012074,0.043668,-0.024199,-0.139803,0.104007,0.091413,-0.155708,-0.046792,-0.400222,-0.227094,0.051907,-0.596183,0.132674,-0.085452,0.067883,-0.223771,0.196405,-0.011905,-0.191358,0.250977,-0.115468,0.078423,-0.079423,0.244238,-0.050344,0.045629,-0.083254,-0.068422,0.122656,-0.227118,-0.20023,-0.494,-0.238883,-0.069664,-0.172777,-0.0433,-0.231193,-0.374925,-0.194157,0.453438,-0.152596,0.696481,0.296397,-0.075753,0.392699,-0.218624,-0.14037,0.16009,0.081926,-0.002318,0.082342,-0.023066,-0.172821,-0.073169,-0.224626,-0.155076,-0.071838,-0.28987,0.052555,-0.15809,0.045897,-0.121161,0.075855,-0.020115,-0.513811,-0.420967,0.170967,-0.216247,-0.049117,0.002111,-0.105247,-0.071064,-0.004577,-0.087255,0.009149,-0.023377,-0.062728,-0.555306,0.29714,0.116928,0.169581,-0.052495,0.112253,-0.142643,-0.184562,0.311249,-0.111636,-0.092938,-0.117893,0.30964,-0.373648,0.037537,-0.119831,0.15547,-0.107679,0.088399,-0.209983,-0.419228,-0.318281,-0.143313,0.090953,-0.026843,-0.053202,-0.526485,-0.562478,-0.072482,0.024573,-0.042101,0.398064,0.011521,-0.746852,0.168515,0.343883,0.003167,-0.095207,0.042216,-0.158566,-0.253779,0.079225,0.102724,0.041923,-0.086614,0.110126,-0.112268,-0.107035,0.139856,-0.087692,-0.338784,-0.020374,-0.000695,-0.068865,-0.175634,0.014436,-0.041627,0.121664,-0.069436,0.421215,0.310927,0.190371,0.100705,-0.225111,0.244937,0.178996,-0.247658,0.255319,-0.051673,0.113156,0.016324,0.191213,-0.104647,-0.125448,-0.055747,-0.151945,-0.165201,-0.035259,-0.127031,-0.302801,0.005766,-0.008114,-0.117768,0.202501,0.020045,0.010608,0.313774,0.225003,0.056009,-0.005461,0.01972,0.095472,0.461448,0.723385,-0.137823,-0.102905,-0.097351,-0.167894,-0.139538,0.736274,-0.046544,-0.233898,0.071481,0.044936,-0.195494,0.026522,-0.134014,0.062545,-0.084675,-0.117673,-0.151345,0.059532,0.328203,0.110973,0.080891,-0.087399,-0.003522,-0.241674,0.112882,-0.112021,0.271954,-0.031647,0.134256,0.147887,0.025925,-0.40754,-0.41853,0.285769,-0.145216,0.349283,0.229113,0.064502,-0.30513,-0.052123,-0.141021,0.230043,-0.035424,-0.074019,-0.114025,-0.11611,-0.074443,-0.17414,-0.1267,-0.138245,-0.233544,0.016482,0.103197,0.064613,-0.030314,-0.158,-0.092919,0.114723,-0.240906,-0.287808,-0.122632,0.090699,0.0483,-0.10157,0.144349,0.327696,0.132883,0.061125,-0.115875,-0.230073,0.020659,-0.39568,0.344531,0.11048,-0.098979,-0.241599,0.147099,-0.197914,-0.053595,0.216248,0.103704,-0.115771,0.07026,0.197645,-0.270555,0.036308,-0.00311,0.039548,-0.174166,0.023936,-0.116087,-0.344117,0.033774,-0.127787,-0.131057,-0.02968,-0.143763,0.320793,0.166208,0.24852,0.07234,0.013452,-0.267757,0.062389,-0.284805,0.198334,-0.226057,-0.055506,-0.166165,0.094885,-0.235295,-0.213313,0.170957,-0.174743,0.086311,0.13124,0.152918,-0.268254,0.137098,-0.002694,0.017054,-0.054635,0.136539,0.078725,0.056795,0.129312,-0.09669,0.060839,-0.154487,-0.04484,0.588692,0.424716,0.202073,-0.26095,0.174126,-0.091552,0.209614,0.456297,-0.291312,-0.135133,0.04571,0.111713,-0.115837,-0.060771,0.097593,-0.112166,-0.059327,0.078833,0.01739,-0.232217,0.239433,0.084615,-0.12349,0.035268,-0.227444,0.005026,0.141284,0.42527,0.144044,-0.201068,0.048336,-0.208116,-0.119376,0.316951,0.36211,0.030504,-0.118438,-0.300933,-0.400315,0.096441,0.524477,0.202362,-0.086403,-0.104318,-0.05208,0.197214,-0.063318,0.129613,-0.020036,0.027815,-0.077988,-0.224886,-0.029656,0.021198,0.043942,-0.207619,0.021709,-0.264807,0.005515,0.110649,0.463751,0.240028,-0.152872,-0.07497,0.168166,-0.137881,0.483963,0.681286,0.119934,-0.198832,-0.176974,0.477577,0.05198,0.571151,-0.274211,-0.281544,-0.084264,-0.139747,0.126843,0.110832,0.057439,-0.183049,0.117948,0.040559,-0.009761,-0.158017,0.167808,0.096751,0.108858,-0.032948,-0.022059,0.050795,-0.051113,0.198096,0.07838,0.056993,-0.081727,0.049273,0.054951,0.397058,0.450012,-0.160577,0.232929,-0.588414,-0.113486,-0.051867,-0.15804,0.173928,0.079157,-0.068086,-0.148279,0.196787,0.039927,-0.098076,0.256101,-0.097692,-0.122636,0.138258,0.177875,0.051925,0.123933,-0.028179,0.045728,0.015935,-0.072649,0.00355,-0.090974,0.01188,-0.074636,0.159011,-0.044178,0.177161,-0.200044,-0.391092,0.155123,0.098523,-0.082255,0.474345,0.005109,0.242724,-0.033684,-0.112952,0.268136,-0.000455,-0.302103,0.040124,0.044201,-0.240878,0.0928,0.02434,0.206819,-0.134231,0.098597,0.201024,-0.114208,0.012857,0.28343,-0.027989,-0.29003,-0.303331,0.044765,-0.034334,0.194631,0.147077,-0.019762,0.337579,0.174755,0.336655,-0.074959,0.062391,-0.280943,-0.002457,0.217849,-0.194734,-0.022103,0.000704,0.008447,-0.161602,-0.021994,0.301805,-0.031377,-0.414748,-0.123867,-0.133703,-0.02408,-0.209145,0.174965,-0.11205,-0.1078,0.23435,0.130348,-0.060448,-0.224629,-0.209998,-0.157519,-0.009838,-0.091839,0.020779,-0.389531,-0.480075,-0.444311,-0.043488,0.0486,-0.030982,0.121517,-0.62557,0.25466,0.326603,0.001684,-0.24429,0.207462,-0.107543,-0.247513,0.138574,-0.066679,0.08479,0.060978,0.065123,-0.152917,-0.032287,0.015731,-0.043515,-0.05804,0.061793,-0.1921,0.262829,0.394202,-0.030424,0.219535,-0.112033,0.197582,0.413298,0.388405,0.02796,0.179221,-0.166414,-0.208756,0.10868,-0.408576,-0.118465,-0.041357,0.074438,-0.066881,0.079294,0.060237,0.12693,0.090969,0.08109,-0.094751,0.057019,0.031693,0.020537,0.108086,0.092567,0.063243,-0.012518,0.149097,-0.051536,-0.076665,-0.026676,-0.052212,0.02191,-0.10199,0.070505,0.276862,0.330054,0.091385,-0.063342,0.047276,-0.591472,0.162363,0.600989,0.137305,0.161649,0.09266,-0.066976,-0.137959,0.178358,-0.150819,-0.073161,-0.101213,-0.034012,0.05573,-0.185794,-0.103093,-0.095853,0.017085,-0.049092,-0.248406,0.090458,0.113794,0.159557,0.210964,0.164111,-0.174928,-0.055689,-0.128819,0.48181,0.692079,0.355864,0.031014,0.084092,0.17216,-0.091609,0.465988,-0.069807,-0.261205,0.06192,-0.106819,-0.013227,-0.047501,-0.15885,-0.19135,0.008467,-0.130572,0.095766,-0.035076,0.221578,0.048696,0.145123,0.081548,-0.036297,-0.015485,-0.065348,-0.161713,-0.241744,-0.085739,-0.108077,0.144689,0.035091,-0.3399,-0.457723,-0.267992,0.108531,-0.172327,0.283258,-0.016973,-0.49125,0.086765,-0.061649,0.038181,-0.263766,0.057479,-0.255077,-0.219883,0.131875,-0.029449,0.124854,0.02212,0.161675,-0.200734,0.067723,-0.003625,0.026386,0.039307,0.116228,0.247337,0.43551,0.067253,0.206362,0.000128,-0.089278,0.091681,0.167413,0.21528,-0.06665,0.142098,-0.341689,-0.43272,-0.157761,0.704076,-0.251812,0.185126,0.123458,0.088642,0.149524,-0.052973,-0.086344,-0.151983,0.129513,-0.04908,0.108952,-0.082313,0.238246,0.090502,-0.046128,-0.071991,0.075359,0.072918,0.092778,0.074869,0.180967,0.073598,0.158885,-0.186094,0.017545,-0.190713,-0.296948,-0.173291,-0.044352,0.01076,-0.393191,0.272547,-0.447677,-0.032293,-0.049229,0.050861,-0.11666,0.240423,-0.057348,-0.056972,0.015578,-0.093189,0.024035,0.004822,0.12193,-0.038816,0.148045,-0.107409,-0.126776,0.18263,0.053715,0.129477,0.146607,-0.242296,0.122271,0.026494,0.069518,-0.013823,-0.460437,-0.496157,-0.10092,0.038271,0.312361,0.261637,-0.072535,0.134152,-0.102272,0.056217,-0.034046,0.012238,-0.082604,0.002326,-0.174649,-0.162407,-0.066303,0.116798,-0.198849,0.039919,0.069419,-0.096045,-0.208756,0.127011,0.107311,-0.153978,0.105341,-0.285333,-0.387393,0.062093,0.013559,0.133678,-0.027921,-0.386451,-0.274161,-0.185166,-0.127269,0.184695,0.210624,-0.253617,-0.256227,0.425499,0.04234,-0.047954,-0.051698,-0.082489,0.125707,-0.07083,0.067437,-0.023876,-0.136411,0.031616,0.275637,-0.11184,0.025285,0.145941,-0.057486,0.334222,0.097673,-0.130111,0.133544,-0.044327,-0.262662,0.152533,-0.167445,-0.171269,0.437562,0.247802,0.204013,-0.111607,-0.083254,-0.176305,0.04711,0.378898,-0.131837,-0.148767,-0.276439,0.305919,-0.123133,0.035452,0.201478,0.073819,-0.17093,-0.091691,-0.021988,0.06189,0.186186,0.157819,-0.05648,-0.040365,0.138138,0.036655,0.172351,0.21032,-0.068034,-0.038693,-0.258845,-0.254006,-0.100595,-0.348998,-0.512099,-0.111517,-0.130791,-0.069327,0.279273,-0.115411,0.120353,-0.218887,-0.029006,-0.282689,-0.250087,-0.154451,0.006155,0.073641,-0.150489,0.156333,-0.196741,-0.098128,0.035794,-0.069119,-0.039784,-0.23598],"bias":[-0.171009,0.088948,0.102744,0.034824,-0.135847,-0.004486,0.021833,0.215135,-0.170762,0.179653,0.262044,0.06328,-0.032495,0.044225,0.124854,0.18357,0.097614,-0.20077,-0.145086,0.09698,-0.064229,-0.050908,-0.031265,0.030764,0.170283,-0.32203,-0.202832,0.185733,0.143436,-0.007236,-0.270638,0.051527,0.061241,0.141196,0.207752,0.064775,-0.21368,0.215338,-0.063994,-0.171115,-0.035259,0.049406,0.046227,0.011646,-0.112224,0.153481,0.152741,0.066536,0.101062,-0.011328,-0.173359,0.175428,0.146323,-0.093904,-0.035678,-0.051903,0.145124,-0.07892,0.051121,-0.033316,0.18845,-0.203102,0.12361,0.014736,-0.045916,-0.131986,-0.063658,0.033833,-0.016613,-0.049236,0.022904,-0.069695,0.156262,0.019261,-0.162139,-0.090242,-0.241103,0.126056,-0.220463,0.059348,-0.009028,0.039391,0.012481,-0.17593,0.171776,0.09482,-0.111044,0.05599,-0.163656,-0.179793,0.172358,-0.011638,0.094987,-0.082406,0.008548,0.0999,0.115391,0.123902,-0.120427,-0.072821,0.095206,0.10483,0.04061,0.170335,0.139339,0.200195,-0.044409,-0.169168,0.097382,-0.156753,-0.047797,-0.134166,-0.18338,-0.042721,-0.228087,0.060504,-0.12552,-0.013197,-0.233588,-0.246812,0.18849,0.014169,-0.148997,0.107405,0.027112,0.021921,0.095675,0.113299]},{"inputSize":128,"outputSize":128,"activation":"tanh","weights":[-0.150781,0.067627,0.064844,0.082622,-0.14911,0.283666,0.041055,-0.181191,-0.191507,0.006988,-0.31108,0.162066,-0.054179,0.396881,-0.061222,0.029675,-0.357316,0.11727,-0.144902,0.039609,-0.017753,-0.039438,-0.034151,0.011822,-0.008497,0.036283,0.223032,-0.027403,0.087529,0.149638,0.008202,0.032253,-0.076947,-0.264543,-0.290655,-0.232331,0.409139,-0.081668,-0.144332,-0.223624,0.089904,-0.31324,-0.025282,0.025335,0.342841,-0.309209,-0.238375,-0.045553,0.057396,0.154914,0.371663,0.064958,0.107844,-0.180855,0.131412,-0.148231,0.42863,-0.009251,0.128135,-0.1868,-0.072064,0.017969,0.016273,0.053319,-0.154766,0.133147,-0.055713,0.137832,0.126637,0.128938,0.048356,0.122134,0.050476,0.428467,-0.220784,0.506062,0.11882,0.152176,-0.201608,-0.085046,-0.360923,0.118981,0.305608,0.333036,0.063923,-0.262338,-0.048286,0.032868,-0.069704,-0.016645,-0.370274,0.127851,-0.235897,-0.162224,0.021628,-0.017974,0.117037,-0.0616,-0.546445,-0.216351,-0.254376,0.044484,-0.221857,-0.004862,-0.240005,-0.41436,-0.017235,0.199998,-0.111735,-0.123656,-0.092119,0.443334,0.121609,0.224199,-0.165569,-0.070895,0.062496,-0.577607,-0.051178,0.148452,0.173596,-0.412924,0.122169,-0.15434,0.051745,-0.270206,0.159089,0.192188,0.560568,0.117676,0.044342,0.082265,-0.252383,-0.022188,-0.038491,0.138209,0.061539,0.080073,0.109882,-0.322437,0.244081,0.067629,0.003993,0.064965,0.03904,-0.186851,-0.189403,0.191035,-0.196049,0.435311,0.158349,0.174762,0.060126,-0.144791,-0.12438,0.043165,-0.421699,0.229387,-0.11252,0.464069,0.0213,0.109583,0.034007,0.230022,-0.229803,-0.03894,0.198289,-0.163652,-0.106453,-0.097365,0.21632,-0.004236,0.049466,-0.05016,0.09382,-0.000554,0.107583,-0.150313,0.123962,-0.105976,0.077956,-0.20733,-0.165377,0.213211,0.354345,-0.022652,0.033465,-0.102319,0.072575,0.137511,-0.005397,-0.094167,0.167593,-0.406376,-0.022314,-0.229038,0.082706,-0.031735,0.202426,0.153046,-0.217078,0.100899,-0.271052,-0.059139,-0.061653,-0.262174,-0.225884,-0.060514,-0.032884,-0.380393,0.1101,0.195166,0.212041,0.16634,-0.161482,0.006882,0.025064,-0.035,0.14327,0.067347,0.274193,0.262785,0.193319,-0.107096,-0.102597,0.209898,0.046243,-0.093174,-0.05922,-0.074975,0.289436,-0.415352,-0.363987,0.019546,0.210531,-0.290445,-0.018238,-0.131533,-0.094702,0.106257,0.190938,0.180381,0.028375,-0.032267,-0.167972,-0.031326,0.214099,-0.215743,-0.004928,-0.087388,0.015234,0.215777,-0.122413,-0.34259,0.312296,0.021237,-0.194708,0.114282,-0.035612,-0.185404,-0.147522,0.047876,0.388877,0.287459,0.004218,-0.133029,0.197797,0.067315,-0.224141,0.102427,0.338206,0.056731,0.06672,-0.170034,0.028265,-0.246222,0.149442,-0.230096,-0.116257,0.14414,0.485155,0.102694,-0.040817,0.186263,0.206779,-0.17582,0.085016,0.013873,0.269283,0.205848,0.25591,0.230174,-0.166736,0.163419,-0.089087,-0.242361,0.243878,0.132962,-0.142689,-0.255446,-0.131939,0.229478,0.067105,0.212644,-0.165475,-0.126177,-0.301045,0.266969,0.282301,-0.216781,0.196384,-0.392672,0.031216,0.234536,0.32495,-0.035666,0.230454,-0.365679,0.156791,-0.004151,-0.014702,-0.033714,-0.142702,0.035265,-0.225992,0.163229,-0.272549,0.054731,0.241,0.199281,-0.162943,-0.034813,0.14289,0.234334,-0.417315,-0.113341,-0.014035,0.263023,-0.198081,-0.112425,0.006049,0.155905,0.189263,-0.149761,-0.274957,-0.433695,0.192024,0.23415,0.177538,-0.266562,-0.193337,0.298212,-0.164526,0.255843,0.119463,0.030863,-0.091036,0.488082,-0.097836,0.170863,-0.142409,0.142426,-0.185189,-0.177134,0.355126,-0.359497,-0.116186,0.007218,-0.044099,-0.14822,-0.474327,0.341359,-0.107623,0.031905,-0.240411,-0.141079,-0.251902,-0.002576,-0.108447,0.003437,0.319232,-0.141294,0.009092,0.424769,0.027756,0.082536,-0.081057,-0.065381,-0.018153,-0.447642,0.035556,0.190926,-0.014506,0.236593,0.61776,0.049604,-0.097927,-0.439489,-0.149028,-0.025516,0.55605,-0.386378,0.095114,0.101587,-0.152364,-0.057895,0.057837,-0.02032,0.034991,-0.140484,-0.445202,-0.046682,-0.078369,-0.050212,-0.175936,0.189562,0.123997,0.562301,0.467775,0.403918,-0.635478,0.132534,0.134048,0.339339,-0.055136,0.332236,0.075557,0.051473,-0.391312,0.32785,0.311821,-0.037161,-0.118723,-0.331877,-0.430892,0.053205,0.029112,0.200686,-0.072482,-0.002505,-0.310998,0.060507,-0.018106,0.124013,0.047918,0.032473,-0.089167,-0.089071,0.367014,-0.147293,0.223987,-0.130625,-0.1854,-0.018726,-0.052956,-0.078488,-0.18289,-0.154033,0.10167,-0.67351,-0.116793,0.052591,0.084773,-0.016734,0.305599,-0.062369,-0.273714,-0.296227,-0.161493,0.281204,0.041558,0.068455,0.062476,0.068271,0.54691,-0.129928,0.269781,-0.014207,0.070254,-0.055753,0.03461,0.209003,0.830644,0.22129,0.150511,0.11868,0.15566,-0.071859,0.311188,0.900672,-0.136537,-0.391267,-0.069806,0.156413,0.093416,-0.687584,-0.093728,-0.42397,0.05465,0.006888,0.001003,0.794117,0.126272,-0.350219,-0.183527,0.601142,-0.150216,0.197804,0.01147,0.349814,-0.163497,-0.09195,0.152424,-0.199024,-0.096716,0.267984,-0.031656,0.156723,-0.382619,-0.222619,0.0161,0.16318,-0.002697,-0.045087,0.068751,0.096729,-0.274034,-0.00504,-0.097782,0.257794,0.022025,0.272366,-0.063608,0.244992,0.164755,-0.102212,-0.581723,-0.000162,0.121259,-0.135854,-0.308346,0.187775,-0.153276,-0.058723,-0.465192,-0.352246,-0.169572,-0.174865,0.405711,-0.163638,0.131571,0.187429,-0.181286,-0.193174,0.020917,0.259295,0.15727,-0.243661,0.066621,-0.082869,0.366437,0.18387,0.290579,-0.246789,-0.478671,0.094819,-0.09034,0.223627,-0.157874,-0.1199,-0.390685,-0.005437,-0.28593,0.399406,-0.031467,-0.027434,-0.025725,0.166478,0.126409,0.066687,0.062191,-0.095772,0.192904,-0.020891,-0.102689,-0.050807,0.23088,0.213548,-0.067737,-0.046286,0.263262,0.091425,-0.164737,-0.176405,0.139022,0.139247,0.076,-0.249913,-0.128364,0.207869,0.266427,0.425377,-0.186723,-0.201956,-0.334909,0.087403,-0.000204,-0.252825,0.154876,-0.324864,-0.149433,0.071898,0.107941,-0.449469,0.061925,-0.167538,0.040548,-0.069842,0.105208,0.158796,-0.132016,0.140163,0.183961,0.064279,0.182408,0.14833,0.346067,-0.280901,0.086187,-0.033128,0.226852,0.098611,0.345623,-0.052763,0.025257,-0.024931,-0.153598,0.051196,0.193314,-0.370322,0.067992,-0.114946,0.044082,0.251048,-0.154,0.173372,-0.300292,-0.367579,0.07588,0.190758,-0.089902,-0.051822,0.131785,0.05922,-0.163968,0.016338,-0.249378,0.206566,-0.000332,0.142975,0.035173,0.089237,-0.108899,-0.19075,-0.19544,0.044856,0.293987,-0.185344,-0.068096,-0.005116,-0.166522,-0.028127,-0.195813,-0.371124,-0.211093,-0.313693,0.300114,-0.227267,0.036005,0.261419,0.002259,0.075892,0.027768,0.207659,0.168132,-0.102267,-0.061233,-0.117847,0.078455,0.021848,0.122213,-0.053867,-0.175288,0.13779,0.109354,0.116347,-0.025707,-0.158409,-0.143582,-0.041226,-0.283376,0.24719,-0.001801,0.036514,-0.020261,0.13038,-0.017969,0.106111,-0.051213,0.046354,0.006952,-0.126295,-0.143762,-0.032075,0.175795,0.090947,-0.165108,-0.178878,0.200375,0.163807,0.322326,-0.053684,-0.090888,0.065038,0.199434,-0.286905,0.019471,0.116102,0.194114,0.407976,-0.307032,-0.183145,-0.344373,-0.003443,0.039918,-0.119272,-0.038507,-0.364986,-0.102037,-0.139656,-0.10695,-0.218038,0.093032,-0.148611,0.177794,-0.191983,-0.048498,0.391018,-0.317516,0.367484,0.175576,0.122226,-0.051507,-0.083829,0.331935,-0.10821,0.194885,-0.066495,0.141598,0.169649,0.129755,-0.12775,-0.021327,-0.136307,-0.093858,0.163309,0.136532,-0.463706,0.143686,0.117401,-0.10216,-0.110154,0.027429,-0.483591,0.05751,0.286649,0.125737,0.143319,0.579629,-0.181233,0.025142,-0.388826,-0.004277,0.03564,0.440116,-0.382892,0.188211,0.049002,-0.036966,-0.057016,0.041642,0.048634,-0.076556,-0.023121,-0.397675,-0.072875,-0.08011,-0.019546,-0.17777,0.040681,0.072259,0.395511,0.419475,0.387048,-0.424388,0.254877,0.142691,0.301477,0.054441,0.43912,-0.016877,0.095416,-0.389176,0.238621,0.390814,-0.055581,-0.035959,-0.31524,-0.425477,0.114727,-0.028525,0.088754,-0.088724,0.064407,-0.352845,-0.06233,-0.07106,0.200233,-0.027252,-0.092801,-0.059596,-0.081673,0.235789,-0.060263,0.204146,-0.224787,-0.222125,-0.062356,-0.071721,-0.05549,-0.029117,-0.354405,0.033314,-0.654233,-0.013373,-0.115263,0.137822,0.036794,0.39018,-0.030274,-0.234616,-0.453474,-0.145284,0.210019,0.062136,-0.018773,0.141239,0.003503,0.71034,-0.031602,0.263461,0.105313,0.073959,-0.102876,0.072531,0.244006,0.737155,0.223452,0.213913,0.087511,0.163774,0.023685,0.250423,0.709477,-0.030062,-0.27422,0.074233,0.161969,-0.013173,-0.540802,-0.222588,-0.391511,0.119281,-0.078309,-0.188447,0.670128,-0.050877,-0.172382,-0.194308,0.456819,-0.190563,0.018043,0.001705,0.308072,-0.094924,-0.214077,-0.276321,0.064536,0.147389,-0.217007,-0.096059,-0.08346,0.070646,0.065905,-0.622419,-0.045686,-0.404753,0.194146,0.00241,0.375012,-0.001137,0.205806,-0.256723,-0.084699,-0.295392,-0.000201,-0.044816,-0.101911,-0.127857,0.3769,0.187119,0.060779,0.100135,0.069387,0.184009,0.066485,0.020759,0.014846,0.06118,-0.201041,-0.32955,-0.061228,0.15072,-0.047052,-0.188946,-0.555318,0.08296,-0.219315,-0.081911,-0.14924,0.175277,-0.196614,-0.279205,-0.014468,-0.068904,0.269433,0.156929,0.428703,0.027628,-0.231101,0.134087,-0.166057,0.085217,-0.013408,0.1065,-0.061283,-0.034169,-0.127657,0.119973,0.309745,-0.007962,0.408487,-0.077684,0.174402,0.212541,0.183092,-0.085252,0.038377,0.150887,0.399723,-0.240532,0.492077,-0.033377,0.165893,-0.093216,-0.188517,-0.219972,0.220687,0.281503,-0.023855,-0.162672,-0.103461,0.024456,-0.07805,-0.141923,-0.100566,-0.41094,0.381298,0.106484,-0.129395,-0.079686,0.065533,0.083805,-0.172383,-0.481577,-0.057042,-0.152629,0.286955,-0.465616,0.065068,-0.345363,-0.278029,-0.229867,0.045144,0.082475,-0.681251,-0.322875,0.302148,-0.12237,0.245343,-0.125358,0.036006,-0.042421,-0.559451,-0.136035,0.074966,-0.052194,-0.255225,0.211313,-0.127876,0.088791,0.062953,0.067876,0.152639,-0.555513,0.163657,0.097227,-0.355673,0.047116,0.068411,0.176612,0.078755,-0.775028,0.133935,-0.158437,0.347732,0.085305,0.357827,0.110054,0.138418,0.196586,-0.369048,-0.225146,0.000593,-0.155728,-0.310362,0.061417,0.377479,0.205127,-0.228309,-0.061334,0.025792,0.214663,-0.161043,-0.193106,-0.034512,0.204617,-0.068441,-0.213991,0.203856,-0.229781,0.120849,0.01129,-0.883919,-0.065409,-0.08326,0.025904,-0.13918,-0.116593,-0.01657,-0.062452,0.024246,-0.043747,-0.126295,-0.046527,0.417029,0.162789,-0.442063,-0.004152,-0.021513,-0.036324,0.038377,0.200567,-0.097853,0.154702,-0.231206,0.041108,0.275964,0.062355,0.435947,0.391246,0.122696,0.029709,0.142962,-0.054491,0.047883,-0.05474,0.185736,-0.380936,0.282834,-0.027995,0.184377,-0.176061,-0.28818,-0.214984,0.387949,0.007508,-0.140711,-0.188527,0.157054,0.106327,-0.064817,0.017615,-0.107313,-0.23726,0.524105,0.311113,-0.250113,-0.149053,0.105064,-0.136477,-0.184516,-0.370548,-0.129961,-0.111159,0.458078,-0.370564,0.189413,-0.562487,-0.233518,-0.37076,0.106788,0.075998,-1.007217,-0.181539,0.063107,-0.176798,0.025774,-0.285925,0.182544,-0.008303,-0.146168,-0.080325,0.115239,-0.112931,-0.220573,0.019766,-0.015895,0.08052,0.114409,0.024305,0.066316,0.094569,0.081973,-0.110505,-0.120482,0.069168,-0.475449,-0.005944,0.253932,0.069116,0.055562,0.643996,-0.052618,0.004731,-0.228566,-0.041003,0.118911,0.387016,-0.317897,0.143589,-0.087232,-0.015632,-0.020856,-0.048946,-0.093159,0.022389,-0.079025,-0.280723,0.034348,0.030233,-0.036415,-0.200077,0.030189,0.129883,0.493892,0.388593,0.321393,-0.417875,0.325702,0.128256,0.288114,-0.0151,0.38093,0.175302,0.019287,-0.467516,0.21997,0.345655,-0.02147,-0.128983,-0.181773,-0.45124,0.045139,-0.05345,0.022438,-0.150734,0.141383,-0.372976,-0.029983,0.03306,0.153424,0.133416,-0.078871,0.060839,-0.157408,0.259476,-0.21194,0.154691,-0.163942,-0.350118,-0.1291,-0.075661,-0.036907,-0.002977,-0.42346,0.196366,-0.650364,-0.035348,-0.089853,-0.063785,-0.048534,0.434028,-0.071592,-0.330018,-0.459164,-0.058645,0.251107,0.053103,-0.002491,0.120921,0.041507,0.746937,-0.143022,0.291446,0.083648,0.13674,-0.037637,0.022455,0.172548,0.730542,0.285047,0.26114,0.011437,0.194497,0.050418,0.349198,0.79615,-0.09097,-0.314008,0.104502,0.200773,0.028954,-0.565561,-0.354485,-0.283519,0.101356,0.05296,-0.193051,0.728437,-0.012219,-0.287928,-0.001343,0.677849,-0.250578,0.134222,-0.072153,0.375,-0.260722,-0.147941,-0.272326,0.27569,0.08598,-0.227407,-0.078686,0.011813,0.40991,0.312718,-0.002932,-0.100136,0.269981,0.028497,-0.268896,0.189641,0.279447,0.08301,0.07053,-0.205725,-0.041258,-0.232665,0.033834,-0.276767,-0.171442,0.107433,0.405921,-0.005889,-0.153214,0.131467,0.252135,-0.203208,0.128383,-0.004618,0.412502,0.31119,0.325406,0.162695,-0.299662,0.214423,-0.141824,-0.28794,0.102863,0.246968,-0.029092,-0.390498,-0.257452,0.165895,-0.071207,0.164466,-0.166036,-0.009842,-0.174682,0.156262,0.304716,-0.095125,0.178769,-0.269215,0.027314,0.248906,0.399454,-0.031626,0.20859,-0.339583,0.08315,0.02167,0.074354,-0.085845,-0.150182,-0.047942,-0.154725,0.020156,-0.304312,0.086901,0.11179,0.254071,-0.229542,-0.091381,0.264027,0.209596,-0.224137,-0.18109,-0.000718,0.255467,-0.118931,-0.04931,0.047814,0.132696,0.080978,-0.204702,-0.293691,-0.421903,0.118395,0.071226,0.314352,-0.122198,-0.061537,0.275093,-0.131065,0.200006,0.069945,0.07151,-0.028074,0.297053,-0.051044,0.105994,-0.078788,0.171216,0.001576,-0.136038,0.167651,-0.192371,-0.249028,0.048888,-0.021721,-0.142048,-0.417017,0.347829,-0.221588,-0.002362,-0.238236,-0.111395,-0.246009,0.037609,-0.052435,-0.026591,0.204313,-0.044802,-0.175646,0.292176,-0.056448,-0.026116,0.158166,0.091409,0.089614,0.560689,-0.082328,-0.225409,0.010718,-0.132864,-0.473296,0.093866,0.089218,0.325693,-0.030184,0.051572,-0.624131,0.341933,-0.231304,-0.161615,0.111282,-0.118887,-0.034509,-0.113088,0.040501,0.063261,0.333487,0.172961,0.045159,0.001784,0.096023,-0.093462,0.056071,-0.51416,-0.345916,-0.438076,0.555724,-0.23931,-0.074052,-0.34228,0.04207,-0.293415,-0.143041,0.046753,0.439274,-0.359819,-0.37826,0.004689,0.108585,0.281891,0.254537,-0.054432,0.059367,-0.061637,0.090133,-0.04605,0.480497,0.030442,-0.003307,-0.204415,-0.006214,-0.030745,0.092667,0.119025,-0.465324,0.005179,-0.319658,0.222028,0.181502,0.031641,-0.001365,0.013342,0.189072,0.358904,-0.214445,0.713508,0.124328,0.058546,-0.131659,-0.024761,-0.445475,0.095117,0.202198,0.274789,0.104344,-0.397969,0.013635,-0.006448,-0.029709,0.016778,-0.562637,0.111325,-0.344687,-0.04173,-0.09438,0.084838,0.021656,-0.242222,-0.886734,-0.193331,-0.038369,0.029677,-0.201363,0.10176,-0.189154,-0.655167,0.157242,0.185346,0.015777,-0.212683,-0.065171,0.670274,0.181178,0.427464,-0.102678,0.014127,0.053882,-0.794091,0.019175,0.233309,0.17493,-0.467321,0.113577,-0.229811,-0.050202,-0.35148,0.075978,0.184607,-0.415757,0.221507,0.030017,-0.319116,0.021261,-0.063057,0.216964,0.263263,-0.098326,-0.089518,-0.014529,0.033688,-0.047793,0.212241,0.178167,-0.091347,0.091592,-0.24399,0.171812,-0.230318,0.056803,-0.169109,0.034284,0.086329,0.344265,-0.051206,-0.094517,-0.075289,0.119197,-0.014268,0.007812,0.110172,0.389987,0.174687,0.118266,0.037877,0.048379,0.222192,-0.071982,-0.236855,0.160553,0.127148,-0.056154,-0.168165,0.014022,0.043353,-0.079224,0.041194,-0.216679,-0.115334,0.004686,0.083882,0.235372,0.010391,-0.015878,-0.021587,-0.038536,0.147118,0.333416,0.070815,0.465053,-0.201074,0.229215,-0.053237,-0.180864,0.114311,-0.013982,-0.084348,-0.191368,-0.149355,-0.01592,-0.278072,0.025928,-0.149565,-0.106553,-0.039079,0.127443,0.159686,-0.386293,-0.186006,-0.077552,0.287294,-0.054147,0.098279,-0.094284,0.158193,0.320849,-0.115387,-0.04049,-0.002379,0.244899,0.241502,0.058529,-0.154916,-0.013879,0.087577,-0.107841,0.584583,-0.02276,-0.050071,0.084599,0.359597,-0.432726,0.168988,-0.05581,-0.025973,0.140035,-0.111225,0.108682,-0.339139,-0.091241,-0.009424,-0.209403,-0.069317,-0.276943,0.073653,0.053207,-0.216398,-0.041065,-0.182573,0.068897,-0.161863,-0.013985,0.008164,-0.074896,-0.168681,-0.084347,0.046047,0.069652,0.014813,-0.168393,0.01837,-0.050279,-0.350565,-0.006996,0.224379,0.217321,0.005305,0.337303,-0.159853,-0.086864,-0.524006,-0.014873,-0.155271,0.423878,-0.124269,0.254695,0.10685,-0.06983,0.034055,0.05563,-0.10392,-0.140258,-0.001913,-0.203249,-0.174008,0.040422,-0.112978,-0.091752,0.030317,0.024759,0.321319,0.220529,0.143325,-0.325738,0.105533,0.133274,0.364393,-0.083357,0.248744,0.011416,0.039222,-0.293321,0.232288,0.329814,0.056718,-0.000317,-0.25208,-0.194023,-0.228058,-0.037514,0.261684,-0.081966,0.03484,-0.45164,-0.036585,-0.107196,0.140227,0.113158,-0.024518,-0.142002,-0.187227,0.287163,-0.150303,0.080868,-0.182998,-0.225865,0.00557,-0.068708,-0.086994,-0.137676,-0.377657,0.288546,-0.555023,0.036489,-0.155808,0.155702,0.106962,0.359035,-0.070826,-0.351534,-0.250642,-0.040869,0.267625,0.005809,-0.002729,0.093857,-0.067748,0.389935,-0.231227,0.204144,0.061568,0.098095,0.032048,-0.083649,0.095411,0.689797,0.148974,0.117827,-0.091187,0.114785,-0.033171,0.290577,0.448685,-0.049226,-0.090515,0.092162,0.327082,-0.009342,-0.553005,-0.012477,-0.350609,0.203288,-0.028779,-0.113568,0.585986,0.02242,-0.06197,-0.120525,0.365638,-0.059882,0.132128,-0.05498,0.201616,-0.254788,-0.197077,0.468579,-0.190299,-0.232627,0.230852,0.106879,0.07934,-0.134383,-0.116076,0.805107,0.014268,0.220425,-0.408721,0.046489,-0.326613,-0.15274,-0.226023,-0.007056,0.143162,0.222439,0.014788,0.03906,0.356283,0.190369,-0.52943,-0.298184,0.041466,0.110125,-0.142341,-0.191407,0.193461,-0.025804,-0.014352,-0.262459,0.107163,0.239275,-0.17348,0.016697,0.087928,0.047799,0.741777,0.013675,0.047201,-0.00616,0.092806,-0.006919,0.004757,0.207074,-0.097924,0.119625,-0.240108,0.05387,-0.472849,-0.180736,0.253506,-0.163712,0.152888,-0.033605,-0.041062,-0.142121,0.188053,-0.137901,0.256167,-0.070271,-0.37082,-0.127503,-0.387535,-0.240029,-0.272878,-0.04284,-0.079535,0.04241,-0.183385,-0.121396,-0.477976,0.52125,-0.435975,0.058222,-0.198622,0.229923,0.345672,0.215444,-0.509081,-0.196247,0.223637,0.234895,-0.021557,-0.147637,0.142586,-0.021868,0.131757,0.288598,-0.415838,-0.267837,0.293728,0.162539,-0.189552,-0.029828,-0.001231,0.413021,-0.021878,0.067029,-0.452338,0.242664,-0.118288,0.322494,0.273462,0.373641,-0.107169,-0.063789,0.802218,0.403569,-0.074708,0.200467,-0.099196,0.260246,-0.304531,0.044088,0.464827,0.178586,-0.0436,0.101857,0.187916,-0.053543,0.067162,-0.064004,-0.225747,-0.063805,-0.222604,0.17248,-0.011702,0.032667,0.265989,-0.21373,0.063427,-0.377345,-0.267484,0.046644,0.179538,-0.202895,-0.124919,0.22406,0.084076,-0.115621,-0.089342,-0.245812,0.046538,-0.106341,0.198337,0.086219,0.307816,0.020586,0.009307,-0.336573,0.01698,0.278754,-0.09406,-0.480284,0.031238,-0.05514,0.005637,-0.435782,-0.411311,-0.19084,-0.196654,0.322271,-0.475991,0.118884,0.252497,0.007007,-0.134004,-0.094872,0.276334,0.151704,-0.103823,0.15351,-0.009435,0.33327,0.044398,0.074285,-0.197038,-0.449862,0.124226,-0.192432,0.00755,-0.010759,-0.03917,-0.16133,-0.007013,-0.285499,0.390771,-0.148094,0.139052,0.216741,0.150437,0.057862,-0.033083,0.06117,-0.008693,0.184078,0.05138,-0.158955,-0.198711,-0.010352,0.2767,-0.141151,-0.118221,0.38005,0.064363,0.116108,-0.226077,0.103064,0.251375,0.093018,-0.215282,-0.146263,0.227401,0.296063,0.253387,-0.383896,-0.102622,-0.210681,-0.041678,0.037263,0.02465,-0.101554,-0.379228,-0.222268,-0.085352,0.112643,-0.298729,0.057087,-0.218439,-0.038584,-0.282528,0.004971,0.213154,-0.161535,0.317965,0.095755,0.261992,0.026865,-0.024337,0.348965,-0.37608,0.045488,-0.118753,0.277023,0.248717,-0.03133,-0.197852,0.041119,0.036019,-0.241846,0.026077,0.245115,-0.391816,-0.039753,-0.207483,-0.052559,0.209544,-0.160549,0.074879,-0.279842,-0.228494,0.155298,0.179628,-0.071549,-0.090696,0.189812,-0.044383,-0.133133,0.085319,-0.189402,0.18038,0.131606,0.244216,0.066722,0.027106,-0.059507,-0.274088,-0.270726,-0.06993,0.142183,-0.031314,0.063271,-0.048548,-0.227641,-0.142369,-0.108816,-0.362606,-0.2585,-0.239683,0.358481,-0.312014,0.125651,0.137193,0.054428,0.108279,-0.046915,0.017216,0.07126,-0.149213,-0.078115,-0.065862,0.127268,-0.009614,0.071707,-0.25243,-0.282494,0.10973,-0.008328,-0.105831,-0.090363,-0.155748,-0.079483,0.130903,-0.378441,0.128176,0.066154,0.097125,-0.037988,0.031391,-0.057721,0.058843,0.022734,-0.050366,0.023958,0.072514,0.084827,0.009699,0.130159,0.081856,-0.108242,-0.105826,0.267001,0.18647,0.180862,-0.109898,-0.09764,0.026819,0.070745,-0.473106,-0.165656,0.008583,0.125532,0.237192,-0.096474,-0.124257,-0.147649,-0.075118,-0.041979,-0.049429,-0.065682,-0.47942,-0.235632,-0.060581,0.026945,-0.234156,-0.009402,-0.105214,0.044393,-0.233895,0.201173,0.180285,-0.223138,0.376852,0.074359,0.191984,-0.05552,0.162075,0.270753,0.008835,0.043966,-0.095047,-0.000595,0.205824,0.090789,0.014761,-0.038598,-0.154967,-0.089739,0.201431,0.050918,-0.318827,-0.059118,-0.181408,0.088781,0.073264,0.165574,-0.06798,-0.155011,-0.116114,0.000596,0.294947,0.051559,-0.026514,0.07594,0.044197,-0.185078,0.088335,-0.17444,-0.083861,-0.002328,-0.001686,-0.324484,0.02609,0.083732,-0.352482,-0.207618,-0.223591,0.012465,0.136511,-0.033472,0.222523,-0.339679,-0.000198,-0.189039,-0.089622,0.036825,-0.073576,0.044122,0.009191,0.166255,0.180242,-0.269006,0.036286,-0.006849,0.15264,0.138509,-0.232965,-0.17755,-0.392367,0.005756,-0.225223,0.09145,-0.00501,-0.113058,0.034879,-0.25913,0.382562,-0.069924,-0.457252,-0.384218,0.033861,-0.175569,0.082315,0.171013,-0.036698,-0.30689,0.017017,-0.040784,-0.054607,0.142393,-0.355373,0.280929,-0.191895,0.010699,-0.099162,0.129504,0.034497,-0.32683,-0.20072,0.139446,-0.066271,0.030468,-0.174183,0.122957,-0.038605,-0.280089,-0.258887,0.038649,0.294036,0.229057,0.350917,0.04082,-0.027722,0.050751,-0.00286,0.082747,-0.215397,0.225303,-0.125522,-0.205418,-0.288357,0.137565,-0.127374,-0.09929,-0.094042,0.15926,-0.03141,0.223962,-0.002418,-0.234817,0.166811,0.227152,-0.126264,-0.136178,0.188605,0.290445,-0.064921,0.077189,-0.077423,0.302445,0.064458,0.406673,0.109704,0.066441,-0.045782,-0.371301,0.079725,-0.180777,-0.449682,0.13413,-0.139691,0.116179,0.273816,-0.071904,-0.08002,-0.254475,-0.130889,-0.074377,0.04317,-0.107509,0.038759,0.133859,-0.113486,-0.009643,0.179144,-0.093027,0.165876,-0.064687,0.194779,-0.175193,0.201575,0.095621,0.055736,-0.276128,-0.118382,-0.082672,0.025651,-0.317913,0.049251,0.025204,-0.021463,-0.087768,-0.036834,-0.000796,0.097065,0.003018,-0.161182,0.058148,-0.043092,-0.139607,-0.027895,-0.052126,0.107197,-0.067279,-0.011915,0.179513,0.002149,0.117374,-0.03111,0.099332,-0.088998,-0.29985,0.053401,-0.117547,-0.107766,-0.1575,-0.066479,-0.069388,-0.07293,-0.27723,0.224175,-0.012711,0.175268,0.262724,-0.105325,0.151209,0.13328,0.175853,0.066559,0.053512,0.358591,-0.185704,0.12056,-0.095199,-0.008587,-0.106872,0.061632,0.307565,0.216906,-0.032087,-0.027351,0.115966,-0.089781,0.151818,-0.136124,-0.227894,0.097019,0.226616,-0.055745,-0.081191,0.01171,0.111506,0.139384,0.028623,-0.095884,0.155443,-0.235068,-0.003428,0.10789,0.074846,-0.26844,0.058449,-0.034662,-0.044433,-0.046676,0.030147,0.117855,-0.130252,0.094693,-0.007159,0.079899,0.202543,0.039145,-0.088289,-0.206882,-0.035129,0.235832,0.029117,0.179108,-0.130612,-0.052547,0.090695,0.084464,0.026175,-0.053956,0.073743,-0.148662,-0.063456,-0.086203,0.147674,0.18136,0.03954,0.524264,-0.058194,-0.297088,0.022962,-0.213106,-0.447782,0.064279,-0.006577,0.366313,0.020813,0.066151,-0.61786,0.302143,-0.280996,-0.064957,-0.001598,-0.000672,-0.001776,0.003712,0.098314,0.056201,0.342193,0.006124,0.088414,0.024717,0.214625,-0.134924,0.007425,-0.437121,-0.354753,-0.388882,0.479933,-0.194156,-0.099148,-0.06319,0.121165,-0.472721,-0.059561,0.007678,0.503455,-0.363888,-0.376561,0.04107,0.078961,0.348127,0.516151,-0.100715,0.034774,-0.071304,0.112312,-0.1047,0.501942,0.012392,0.06586,-0.136323,-0.052474,0.009833,-0.005744,0.088144,-0.404193,0.1034,-0.222045,0.121944,0.336299,0.037244,0.085816,-0.016813,0.17357,0.481083,-0.151249,0.812786,0.099648,0.012,-0.094031,0.011497,-0.353464,0.137416,0.215501,0.20173,0.063134,-0.32928,-0.05535,0.05441,-0.139276,0.065551,-0.637054,0.029485,-0.270051,-0.123006,0.026806,0.040429,0.00883,-0.073185,-0.848093,-0.215405,-0.265238,-0.038174,-0.178372,-0.039347,-0.273454,-0.791135,0.078432,0.386344,-0.007519,-0.061427,-0.063844,0.757426,0.22658,0.404692,-0.076848,0.034251,0.094408,-0.724542,-0.018927,0.210474,0.229527,-0.518243,0.16654,-0.157818,0.027236,-0.265717,0.258235,0.165342,0.329287,-0.169387,-0.106766,0.294201,0.192063,0.083213,-0.063998,0.080618,0.496224,-0.036083,0.250414,-0.257617,0.043935,-0.267218,0.008131,-0.039034,0.031626,0.218008,0.176223,0.00065,-0.011253,0.258416,-0.009898,-0.218341,-0.222442,0.020905,0.040906,0.004453,-0.099652,0.11104,-0.047552,-0.007466,-0.024878,0.050116,0.297339,0.008062,-0.233349,0.053252,0.064386,0.522133,-0.12394,0.158793,0.054006,0.102249,-0.073112,0.190611,0.162991,0.003143,-0.040498,-0.179563,-0.121165,-0.389531,-0.065068,0.211513,-0.146112,0.241681,0.019754,-0.10152,-0.208761,0.038132,0.025219,0.113276,-0.041801,-0.191033,0.063191,-0.389096,-0.011833,-0.179549,-0.124043,0.009523,-0.043898,-0.157535,-0.013109,-0.188976,0.24395,-0.248019,-0.038072,-0.157615,0.192729,0.119985,0.245239,-0.311395,-0.135624,-0.058175,0.021857,-0.060286,0.005984,0.064472,0.016033,0.100703,0.156487,-0.310603,-0.110551,0.18976,0.127669,-0.144618,0.059116,0.054479,0.563253,0.061471,0.064915,-0.233958,0.223583,-0.186191,0.402841,0.330905,0.136367,0.088075,0.0131,0.459113,0.306456,-0.161708,0.174638,-0.135516,0.137313,-0.078146,-0.148453,0.514419,0.139874,-0.035168,-0.072338,0.439832,-0.127467,0.090503,-0.000783,0.03247,-0.157002,-0.112734,0.121135,-0.420646,0.043436,0.488399,-0.162423,-0.078181,-0.337836,-0.245775,0.560151,0.041543,-0.029499,-0.020682,-0.120826,-0.251444,-0.095695,-0.034833,-0.195505,0.363914,0.163857,0.16951,0.102246,0.268124,-0.131052,-0.32186,-0.386241,0.139962,0.13753,0.07014,-0.224225,0.112021,0.097685,-0.156758,-0.266394,-0.095973,0.123919,-0.191179,0.037553,-0.288838,0.013576,0.362654,-2e-06,0.026786,-0.169489,0.202634,0.174573,-0.020314,0.044926,0.092569,0.198539,0.233789,0.084988,-0.409224,-0.301932,0.332232,-0.057052,-0.149827,0.021584,-0.085939,-0.219666,-0.076339,-0.218404,0.440895,0.043319,-0.00185,0.029882,-0.349193,-0.376903,0.108415,0.117311,-0.018549,0.095771,0.092976,3.5e-05,0.010147,0.33832,-0.052854,-0.08069,0.223992,0.506111,0.490481,0.147043,-0.236545,0.072131,0.087983,0.162257,-0.191624,-0.265237,0.097993,-0.003631,0.064081,0.002414,-0.621457,-0.187497,0.182457,0.009747,-0.052587,0.111811,-0.238954,0.153211,0.025846,-0.022373,-0.586642,0.135295,-0.114171,0.308242,0.150067,0.236509,0.174622,-0.014474,0.682856,0.036658,0.040887,0.204594,0.107196,0.181553,-0.142102,-0.069863,0.336134,0.051361,0.233467,0.091171,0.157589,0.09302,-0.115001,0.106342,0.010334,-0.026965,0.008864,0.188295,-0.12755,-0.073604,0.165934,-0.000599,0.118006,-0.394904,-0.198414,-0.046445,0.130368,-0.132428,-0.171901,0.364736,0.033493,-0.16094,-0.114697,-0.127305,0.103246,0.033122,0.329828,0.006602,0.358966,0.15907,-0.096975,-0.482702,-0.028013,0.18003,-0.144791,-0.471534,0.044682,-0.030382,0.043806,-0.501341,-0.237458,-0.38407,-0.259375,0.319634,-0.390823,0.005205,0.177019,-0.036909,-0.180585,0.125386,0.267333,0.177528,-0.206831,0.129584,-0.126493,0.360032,0.149721,0.282644,-0.173503,-0.438708,0.084384,-0.131314,0.286397,-0.07268,-0.160013,-0.370067,0.083632,-0.188612,0.308194,-0.045023,0.001481,0.09972,0.188776,0.068734,0.027704,0.000598,-0.097969,0.275187,-0.052637,-0.164185,-0.242917,0.190916,0.230731,-0.182817,-0.198201,0.281131,0.217731,-0.060028,-0.348584,0.089502,0.158649,-0.121888,-0.210811,-0.011433,0.206412,0.217878,0.347531,-0.198968,-0.187548,-0.416976,0.158943,0.114952,-0.296396,0.034441,-0.249425,-0.252232,0.085365,-0.072301,-0.499579,0.17013,-0.175739,0.062066,-0.191181,0.045808,0.121048,-0.151556,0.240369,0.267847,0.200114,0.176281,0.15773,0.353426,-0.439771,0.129564,-0.123873,0.345862,0.120679,0.280466,-0.09286,0.052463,0.067146,-0.157057,0.003249,0.260229,-0.229215,0.135862,-0.178978,-0.126889,0.139727,-0.041736,0.044794,-0.374346,-0.223093,-0.006094,0.005416,-0.03231,-0.220634,0.16403,0.053066,-0.172898,-0.051588,-0.105488,0.237597,0.053003,0.298802,0.053772,0.132671,0.128518,-0.155446,-0.316539,-0.00575,0.065713,-0.113088,-0.155794,0.123034,-0.101754,0.120051,-0.403865,-0.212071,-0.163181,-0.172389,0.332804,-0.326947,0.027774,0.284838,-0.05872,-0.132982,-0.065773,0.148623,0.156343,-0.124688,-0.007937,-0.077004,0.337827,0.086684,0.212417,-0.190569,-0.391797,0.162673,0.043845,0.183132,-0.086339,-0.183366,-0.220286,0.011679,-0.319695,0.255902,-0.142738,0.057742,0.063627,0.170112,0.101799,0.020898,0.006205,-0.037665,0.223112,0.103098,-0.11877,-0.286345,0.180596,0.102113,-0.1572,-0.16455,0.1219,0.090623,0.099707,-0.289827,-0.066686,0.13941,0.209223,-0.159167,-0.190763,0.172983,0.126103,0.415426,-0.119289,-0.054354,-0.439221,0.125964,-0.056381,-0.255308,-0.010696,-0.258745,-0.231318,-0.047027,0.025514,-0.464518,0.05777,-0.221565,0.059552,-0.065232,0.007593,0.104771,-0.1297,0.215462,0.299067,0.207469,0.115277,0.230617,0.291618,-0.331115,0.218353,-0.07444,0.352235,0.290453,0.22494,-0.160654,0.063473,0.005116,-0.204659,0.080831,0.124426,-0.250166,0.222118,-0.078554,-0.047812,0.318275,0.01364,0.104567,-0.156674,-0.155115,0.141175,0.071926,0.034177,0.027874,0.135185,-0.073797,-0.209084,-0.025231,-0.092632,0.35008,-0.015684,0.239961,-0.058628,0.192682,-0.01834,-0.234715,-0.454824,-0.044992,0.133408,0.036052,-0.198122,0.167926,-0.081453,-0.122219,-0.36451,-0.386441,-0.103591,-0.219804,0.123497,-0.112276,-0.016451,0.272937,-0.082868,-0.083331,0.024221,0.031688,-0.014789,-0.193162,0.066469,-0.070334,0.130287,0.153297,0.187089,-0.331125,-0.310777,0.191947,-0.146542,0.090328,-0.005463,-0.111789,-0.193889,-0.000707,-0.240781,0.238191,-0.113171,-0.025519,0.137406,-0.207546,-0.015543,-0.037305,0.24326,0.080095,0.107167,-0.083892,-0.089204,-0.031623,0.27117,0.186292,-0.083756,-0.083956,0.249345,0.031518,0.019134,-0.239744,0.067044,0.131311,0.149961,-0.168524,-0.157831,0.083904,0.183728,0.167827,-0.175841,-0.334876,-0.199421,0.080846,0.013864,-0.163388,0.234191,-0.282901,-0.102686,0.217765,-0.020794,-0.496907,0.326176,-0.149068,0.207136,-0.161425,0.117738,0.285594,-0.09525,0.271257,0.160769,0.005102,0.163472,0.068459,0.348394,-0.153583,-0.084733,-0.036319,0.09457,0.082397,0.134816,0.193678,0.088884,-0.175464,-0.087607,0.158545,-0.067536,-0.272532,0.41009,-0.221357,-0.121427,0.214181,0.094431,-0.028833,-0.024918,0.210387,0.650744,-0.080375,0.053142,-0.382365,0.081225,-0.353761,0.065797,-0.231797,0.161176,0.113639,0.194374,0.020888,0.070029,0.310787,0.091851,-0.412451,-0.261162,-0.006473,0.0112,-0.176192,-0.19377,0.065831,0.0283,0.162912,-0.207489,-0.038277,0.041905,-0.076988,0.010983,0.08493,0.202887,0.588066,-0.124818,-0.09279,0.122928,0.059353,-0.066245,0.020059,0.2855,0.077174,-0.048881,-0.085506,0.115397,-0.455746,-0.195195,0.407609,-0.116898,0.138235,-0.267642,0.013818,-0.168811,0.154013,0.065562,0.327557,-0.255762,-0.484247,0.194068,-0.457253,0.134348,-0.142681,-0.157535,0.003903,0.085493,0.009437,0.042058,-0.302021,0.391364,-0.245253,-0.120155,-0.163277,0.364034,0.28537,0.205374,-0.594505,-0.13797,0.063203,0.133523,0.076733,-0.01644,0.048408,0.167779,0.004376,0.01269,-0.565017,-0.046918,0.337776,0.073132,-0.077859,-0.233767,0.035567,0.107415,0.200096,0.233186,-0.272201,0.273685,-0.12216,0.181931,-0.081157,0.372988,-0.050647,0.000204,0.773206,0.240825,-0.174134,0.208012,0.013446,0.248464,-0.103612,0.036923,0.355121,0.064438,-0.002683,-0.115958,0.130561,-0.179722,0.165107,-0.077981,-0.202796,-0.0559,-0.144595,-0.527557,-0.307783,-0.036912,0.009644,-0.056467,0.029531,-0.017074,-0.170223,-0.366795,-0.049739,-0.220632,0.722197,-0.25554,0.058501,0.109648,-0.063895,-0.107547,0.187469,0.02075,-0.013289,0.078277,-0.468053,0.024324,-0.015488,0.151207,0.307818,-0.150815,-0.098512,0.316141,-0.193948,0.118289,-0.438824,-0.015193,0.023099,-0.051369,0.134546,0.230117,0.071946,-0.145295,0.171577,0.345663,0.432296,-0.210306,0.017235,0.049767,0.179384,-0.145634,0.118967,-0.148268,-0.015782,-0.118443,0.209815,0.051913,0.292525,0.506633,-0.242714,-0.104532,-0.007957,0.102297,0.094003,0.057312,-0.156136,0.277372,0.296056,-0.131465,0.535002,0.239128,0.610156,0.075578,0.08889,-0.114232,-0.127075,0.161888,0.20653,0.017381,0.182183,0.026968,0.552679,0.073243,-0.065389,0.058644,0.27739,-0.107979,-0.113613,0.095455,-0.284555,0.229804,0.074264,-0.081496,-0.068318,-0.044776,-0.041118,-0.028436,-0.417092,-0.349829,0.189457,-0.075902,-0.23462,0.087557,0.012358,-0.049104,0.14608,-0.541943,0.772384,0.374898,0.028239,-0.369872,0.060784,0.0197,-0.016297,0.105983,0.159082,0.06479,-0.271165,-0.223058,0.139592,0.237414,0.028308,-0.181184,0.491263,-0.156523,0.014151,0.102715,-0.277398,0.103018,0.149248,-0.036187,-0.056864,-0.17953,0.005098,-0.073169,-0.377479,-0.086359,-0.187284,0.312708,0.269287,0.07131,0.030895,0.162751,0.049417,-0.142219,0.038532,0.117887,-0.011088,0.252271,-0.255061,0.164668,-0.183991,-0.074791,-0.36328,0.013137,0.075559,0.55164,-0.086888,-0.217023,-0.061348,0.17238,-0.172888,-0.031619,0.056887,0.229699,0.328412,0.337433,0.193611,-0.176764,0.31887,-0.024048,-0.034636,0.066051,0.338142,0.009905,-0.136465,-0.059909,0.148251,-0.093656,0.044116,-0.354504,-0.076259,-0.189666,0.289,0.229328,-0.012789,0.126247,-0.129785,0.029976,0.163743,0.259095,0.03706,0.337835,-0.252163,0.024934,-0.071937,-0.107837,0.043051,0.054569,-0.046206,-0.167608,-0.06952,-0.192215,-0.012749,0.116855,-0.085778,-0.008524,-0.280016,0.117055,-0.009852,-0.196698,-0.041646,-0.057972,0.051365,-0.224564,-0.090651,0.00512,0.258481,0.245122,-0.004378,-0.254745,-0.221398,0.251744,0.133191,0.286853,-0.08757,-0.017048,0.26835,-0.289227,0.312667,0.201932,0.025615,0.07848,0.445569,-0.122976,0.091471,-0.05524,0.194983,0.049473,-0.293845,0.080791,-0.21398,-0.077033,-0.126477,-0.111977,-0.233513,-0.114874,0.168567,-0.101912,0.032498,-0.080215,-0.170084,-0.274971,0.036694,-0.186057,0.020041,0.032571,0.073837,-0.012746,0.172289,-0.13283,-0.081693,0.178637,0.040786,0.065818,0.476103,-0.018462,-0.213416,0.065445,-0.051021,-0.417737,0.097351,-0.056448,0.370941,0.130723,0.123165,-0.512329,0.30317,-0.194563,-0.047101,0.146366,-0.021887,-0.067808,-0.048179,0.0882,0.111346,0.450638,0.115652,0.026615,-0.032968,0.065997,-0.133446,-0.008488,-0.492434,-0.341248,-0.494834,0.602628,-0.260986,-0.108633,-0.331413,0.024422,-0.382329,-0.171534,0.022423,0.359616,-0.327751,-0.304434,-0.042094,0.120227,0.186149,0.453774,-0.07046,0.135612,-0.088162,0.218684,-0.087924,0.424209,-0.015539,0.0444,-0.191855,-0.084183,0.022749,0.018803,0.11531,-0.40541,-0.049687,-0.333859,0.198475,0.167635,0.089738,0.093801,-0.006786,0.167922,0.395702,-0.09011,0.800863,0.077983,0.081195,-0.165961,-0.13405,-0.454827,-0.00348,0.258677,0.137315,0.100826,-0.3929,-0.04013,0.009408,-0.06673,0.114987,-0.515262,0.100481,-0.329934,-0.081411,-0.013867,-0.030004,0.065328,-0.151102,-0.926231,-0.136316,-0.121572,0.036663,-0.240745,0.070398,-0.278765,-0.710575,0.238558,0.210302,0.086921,-0.101509,-0.005782,0.746316,0.1438,0.454154,-0.073657,0.134036,0.087711,-0.778654,-0.053728,0.201901,0.209462,-0.591498,0.124883,-0.230577,-0.053958,-0.292168,0.173681,0.001809,0.247732,0.070367,-0.051365,0.32481,0.184041,0.181786,-0.270712,-0.430617,0.070653,-0.09641,-0.116647,0.149368,0.040735,-0.079481,-0.066439,-0.041421,-0.305475,0.45776,-0.141825,0.117993,0.090275,0.255223,-0.187522,-0.156858,-0.479753,0.036218,0.212376,0.086521,-0.267809,0.368475,0.141599,-0.215691,-0.225034,-0.494463,-0.248183,-0.284497,0.330407,-0.071055,-0.0773,0.111007,-0.037394,-0.376447,0.020743,0.046618,0.304103,-0.30264,0.053181,-0.038214,0.31306,0.178066,0.370578,-0.331696,-0.197823,0.05254,-0.090956,0.053536,0.172177,-0.111025,-0.173465,-0.037979,-0.429633,0.197626,-0.001868,0.222232,0.029376,-0.123017,-0.192537,0.046532,0.3703,0.013747,-0.003048,-0.01634,0.02629,-0.011327,0.08845,0.20498,0.056509,-0.115812,0.109893,-0.149533,-0.067125,-0.076017,0.28333,0.270496,-0.184153,-0.22935,-0.266227,-0.109872,0.085257,0.080771,-0.33927,-0.160308,-0.382868,-0.004314,0.0783,-0.162228,0.148695,-0.31063,-0.140617,0.049678,-0.181585,-0.507942,0.169717,-0.145927,0.085727,-0.101615,0.255411,0.352612,0.00806,0.306802,0.161816,-0.11875,0.293112,0.217818,0.309745,-0.151456,-0.124486,-0.014789,0.086787,0.143903,0.495965,0.063885,0.254549,-0.159063,0.008147,-0.007893,-0.059066,-0.070257,-0.433896,0.265461,0.137617,-0.263238,-0.102945,-0.113243,0.059939,-0.04603,-0.834488,-0.012264,-0.221234,0.340854,-0.092598,0.292892,0.079562,0.299203,-0.202407,-0.14242,-0.236809,-0.163559,0.036461,-0.188128,-0.232045,0.443659,0.192748,-0.076799,0.041672,0.142845,0.254916,-0.10492,0.066492,0.013944,0.31519,-0.185095,-0.214356,0.032621,0.073678,-0.042083,-0.139183,-0.780043,0.039155,-0.045815,-0.078112,-0.156207,0.183439,-0.076468,-0.157225,-0.06003,0.082142,0.213014,0.087394,0.567533,0.189275,-0.332289,0.134131,-0.245814,0.119525,0.092032,0.259344,-0.097345,0.012794,-0.343178,0.221417,0.362294,0.03312,0.334604,0.018087,0.175105,0.125588,0.06705,-0.061812,0.13623,0.028606,0.556627,-0.473839,0.366816,0.002782,0.274672,-0.329873,-0.267485,-0.078908,0.467859,0.18745,-0.206432,-0.121956,-0.075413,0.131161,-0.095888,-0.01072,-0.141154,-0.121897,0.489058,0.197071,-0.195608,-0.188338,0.204076,0.006755,-0.110005,-0.624994,-0.05824,-0.168887,0.289568,-0.226416,0.186862,-0.339836,-0.248328,-0.362179,-0.050661,0.018633,-0.749332,-0.367025,0.208257,-0.269695,0.237472,-0.350851,0.193282,-0.0288,-0.507651,-0.137822,-0.024388,0.076393,-0.214464,0.076928,-0.113461,0.087223,0.242465,0.041386,0.094476,-0.205562,-0.073597,0.169384,-0.098382,-0.000771,0.145903,-0.001702,-0.077392,-0.215455,0.008635,-0.160392,0.096826,-0.090854,0.248736,-0.085469,0.115901,-0.238439,0.025104,-0.171279,0.054247,0.008533,-0.029176,0.008776,0.05603,0.187297,0.026531,0.131491,0.036131,0.017648,0.003982,-0.001845,-0.024433,0.024617,-0.17427,-0.163661,-0.194411,0.223776,-0.099665,-0.058971,-0.24743,0.04552,-0.167124,0.062806,-0.062115,0.294405,-0.12488,-0.216499,-0.10724,0.013174,0.127346,0.160767,0.166371,0.088219,-0.211135,0.062207,-0.035611,0.248997,-0.049004,0.087545,-0.207858,0.01139,0.026319,0.172742,0.170712,-0.269654,0.201326,-0.105833,0.077901,0.027529,0.086588,0.010832,-0.042372,0.082206,0.351145,-0.112815,0.335146,-0.023488,0.110552,-0.149699,-0.210966,-0.282855,0.237192,0.190224,0.117512,0.058535,-0.125643,0.074486,0.011425,-0.05779,-0.022076,-0.113227,0.202561,-0.050866,-0.110323,-0.106962,0.08769,-0.058826,0.030286,-0.363175,-0.206302,-0.164096,0.165325,-0.200973,0.120635,-0.177972,-0.210175,-0.008112,0.061375,-0.054449,-0.257523,-0.115284,0.226298,-0.049459,0.303775,-0.018904,0.030408,0.119139,-0.548977,0.050517,-0.020915,0.117094,-0.215666,0.031577,-0.222599,-0.016115,-0.058877,0.14856,0.067623,-0.612381,-0.177257,-0.047827,-0.050955,-0.210945,0.097821,-0.030056,-0.005653,-0.089905,-0.07581,-0.020012,0.539458,-0.143931,0.323294,0.012656,0.0606,-0.0285,-0.174146,-0.109081,0.004868,0.034641,-0.727764,0.006731,-0.123351,0.124689,0.078556,-0.027241,0.020322,0.459795,-0.273191,-0.015176,-0.261842,0.103267,0.023225,0.079045,-0.013734,-0.030343,-0.081366,-0.107485,-0.018723,0.169785,0.191488,-0.137655,-0.110257,-0.033498,0.098315,0.027318,0.092504,0.036881,0.023298,-0.034114,0.149354,0.132748,0.248452,0.209452,-0.253309,-0.018809,0.045603,0.053976,0.052288,0.084211,-0.153161,0.448568,0.229113,-0.083992,0.269384,-0.056353,0.271084,-0.020574,-0.163817,0.043787,-0.2141,0.040053,0.156759,0.140186,0.136331,0.096006,0.296032,-0.011961,-0.012539,0.038648,0.457951,-0.127531,0.016828,0.198613,-0.074451,0.321068,-0.071003,-0.086734,0.078559,-0.050744,-0.058257,-0.087671,-0.477336,-0.344149,0.148473,-0.082554,-0.003294,-0.202164,-0.113368,-0.006039,0.069452,-0.349146,0.510883,0.26922,-0.103502,-0.025797,-0.021627,-0.096181,-0.032009,0.013952,0.049373,-0.263164,-0.248036,-0.272576,-0.00577,0.166987,-0.266029,-0.043573,0.248309,-0.116767,-0.178309,-0.002875,-0.376791,0.074016,0.249748,0.160685,-0.066768,0.058691,-0.158839,-0.073771,0.253241,0.021899,0.141738,-0.325929,-0.245707,0.089147,0.193112,-0.131666,-0.050683,0.261846,-0.096352,-0.162445,-0.13056,-0.127163,0.189268,0.074746,0.098384,-0.091977,0.164391,0.202329,-0.199787,-0.480643,-0.131872,0.15481,-0.168131,-0.09444,0.007377,-0.079857,0.092481,-0.292665,-0.282093,-0.239242,-0.175835,0.263295,-0.211524,0.142381,0.217056,-0.07416,-0.229283,0.016578,0.365527,0.150438,-0.236916,-0.019566,-0.213811,0.247198,0.057548,0.172627,-0.202459,-0.397459,0.13067,-0.02476,0.306899,-0.084991,-0.185382,-0.3846,0.068131,-0.205261,0.327066,-0.1109,-0.022337,0.037039,0.098972,0.062911,0.010429,0.110177,-0.022699,0.261532,-0.014391,-0.155703,-0.224652,0.144665,0.127725,-0.099911,-0.226686,0.234997,0.074297,-0.023091,-0.355312,0.100092,0.170308,-0.140677,-0.254021,0.044674,0.175665,0.17915,0.396197,-0.227337,-0.171883,-0.314991,0.069535,0.054949,-0.192762,-0.01389,-0.193975,-0.283941,-0.129596,0.078511,-0.439854,0.062161,-0.15824,0.073993,-0.293162,0.113888,0.179173,-0.142765,0.070148,0.320048,0.179722,0.091954,0.12379,0.193032,-0.244033,0.234057,-0.18068,0.401748,0.146905,0.226479,-0.110147,-0.037993,0.031913,-0.18129,0.116985,0.216077,-0.442308,0.045188,-0.15822,-0.017826,0.208143,0.205274,0.004762,-0.138779,-0.204287,0.143171,0.235077,0.071805,0.008256,0.148804,0.019557,-0.241667,-0.000552,-0.113742,-0.001314,0.152447,-0.03603,-0.316098,0.125809,0.317412,-0.260617,-0.36284,-0.269384,-0.076074,0.192848,-0.11776,0.176849,-0.254181,-0.099495,-0.222013,-0.005984,-0.11516,-0.094164,0.135863,0.059355,0.396132,0.035127,-0.194266,0.035935,0.051816,0.27419,0.125651,-0.367623,-0.144791,-0.309008,0.088041,-0.093484,0.001045,-0.007648,-0.222205,0.003844,-0.139894,0.465062,-0.142499,-0.440575,-0.356429,0.074789,-0.243215,0.11293,0.14012,-0.183012,-0.260971,-0.075356,0.081932,-0.029528,0.046173,-0.312363,0.308852,-0.203443,-0.087258,-0.048143,0.305075,0.092988,-0.227665,-0.30233,0.109804,-0.000286,-0.080083,-0.160533,0.008366,-0.05765,-0.248766,-0.12345,0.053083,0.384039,0.349698,0.591938,0.109135,-0.147759,0.078349,0.096451,0.059478,-0.237362,0.0108,0.022436,-0.148614,-0.089271,0.260052,-0.16498,-0.080662,-0.192195,0.092994,0.062508,0.251204,0.014996,-0.153652,0.135988,0.248,-0.045632,-0.149752,0.193279,0.406308,-0.164619,0.137018,-0.231384,0.247002,0.099304,0.468714,0.121089,-0.005031,-0.057231,-0.374204,0.116635,-6.8e-05,-0.378951,0.37816,-0.23406,-0.063122,0.286896,0.152523,0.176416,-0.187815,0.028316,0.78115,0.086183,0.262669,-0.250452,-0.019371,-0.383032,-0.106618,-0.320009,0.089016,0.214552,0.20196,-0.006545,-0.133018,0.304588,0.141731,-0.394664,-0.130883,0.062461,-0.054513,-0.153679,-0.117183,0.027166,-0.041071,-0.005154,-0.233834,0.097374,0.205906,0.074715,-0.004802,-0.012462,0.224322,0.594498,-0.001618,0.237115,0.05447,0.17492,-0.015877,0.173908,0.127697,0.066027,-0.063676,-0.152818,-0.137331,-0.448551,-0.158137,0.241257,-0.113767,0.249279,0.068454,-0.070208,-0.168718,0.084402,0.050011,0.262921,-0.210533,-0.343403,0.061602,-0.301162,-0.00654,-0.110079,-0.108287,-0.069829,0.105025,-0.144597,-0.110479,-0.272138,0.4146,-0.348884,-0.013427,-0.243921,0.167999,0.231232,0.225592,-0.353486,-0.150553,0.118444,0.114181,0.095808,-0.000343,0.116538,0.124339,-0.009616,0.210194,-0.503847,-0.178438,0.30904,0.03641,-0.061263,-0.058958,0.083198,0.531208,0.115851,0.137751,-0.309176,0.369403,-0.164466,0.417689,0.240578,0.19967,-0.053701,-0.06347,0.727954,0.293029,-0.26507,0.195482,-0.173758,0.193663,-0.29154,-0.086718,0.512084,0.116057,-0.087089,0.004819,0.231531,-0.057446,0.1156,-0.027956,-0.190808,-0.055037,-0.148558,0.016712,-0.370087,-0.105072,0.119535,-0.165559,-0.009721,-0.297889,-0.080858,0.019015,0.101017,0.017929,-0.126504,0.133745,0.109717,0.057113,-0.035037,0.009019,-0.051964,0.023812,0.234657,-0.054089,0.094229,0.38189,-0.185767,-0.110233,-0.066816,0.062159,-0.086076,-0.171132,-0.151655,0.007125,0.119802,-0.348331,-0.084398,-0.018024,-0.030806,0.10356,-0.122383,0.118518,0.241444,-0.004431,0.185749,-0.002967,0.164021,-0.080348,0.086773,0.038357,-0.004646,-0.086252,-0.03878,-0.149703,0.052238,-0.29895,0.302684,0.006529,0.061544,-0.001245,-0.179912,-0.048981,-0.018326,-0.036125,0.338031,0.1645,0.052189,0.243689,0.156536,0.092971,0.263362,-0.12581,-0.018,0.100263,-0.142523,-0.086971,-0.143295,0.148146,0.042127,-0.07007,0.071948,0.150293,0.126003,0.136716,-0.273106,-0.066587,0.020937,0.10478,-0.129922,0.075482,0.068096,0.096639,0.25842,0.022978,-0.14787,-0.06209,-0.210792,-0.102027,-0.040574,-0.080342,-0.245976,0.005638,-0.017995,-0.029619,-0.169634,-0.172961,0.000922,0.134644,-0.055689,-0.0137,0.059498,-0.165901,0.30961,0.338979,-0.008472,-0.009938,-0.08453,-0.04101,-0.120476,0.505982,0.149324,0.141855,0.264311,-0.193428,0.025233,-0.089819,-0.043791,-0.07677,0.147767,0.228727,-0.368505,0.342068,-0.153364,-0.057234,0.207646,-0.018981,0.164848,-0.410996,-0.242939,-0.179742,0.016708,-0.057913,-0.110961,0.104165,-0.014458,-0.22324,-0.067042,-0.105156,0.12146,-0.105358,0.375834,-0.072632,0.319147,0.118209,-0.100207,-0.503348,0.014652,0.095882,-0.145824,-0.390012,0.114678,0.057343,0.089721,-0.383284,-0.242159,-0.279225,-0.056787,0.210752,-0.303593,-0.008429,0.224211,-0.069274,-0.260901,0.190903,0.326923,0.019001,-0.025897,0.197959,-0.122978,0.283995,0.128384,0.094914,-0.22646,-0.347982,0.08676,-0.051602,0.253662,0.009055,-0.138506,-0.251108,0.058439,-0.223515,0.296928,-0.027549,0.063106,0.080807,-0.011426,0.051497,0.099659,0.108165,-0.059505,0.084896,0.056374,-0.208786,-0.185348,0.020235,0.209368,-0.172873,-0.163153,0.260837,0.160139,-0.021232,-0.208898,0.008104,0.078454,0.012491,-0.092778,-0.059849,0.118433,0.27797,0.251365,-0.088291,-0.073909,-0.297655,0.060454,0.051825,-0.145677,0.054305,-0.197795,-0.206077,0.193405,-0.014659,-0.380539,0.047751,-0.146298,0.113784,-0.156489,-0.0535,0.197458,-0.20982,0.198009,0.327939,0.026272,0.174608,0.000492,0.257966,-0.312394,0.240227,-0.091954,0.17941,0.238764,0.231149,-0.062584,0.035372,0.123603,-0.177213,0.108407,0.14712,-0.210306,-0.161825,0.204432,0.126166,-0.276683,-0.118255,-0.059212,0.454817,0.274856,0.013273,-0.089883,0.126541,0.111579,-0.219768,0.093097,0.299479,0.029971,0.094285,-0.179412,-0.021659,-0.180613,-0.015235,-0.244168,-0.102504,0.212908,0.430768,0.078731,-0.155242,0.132986,0.140173,-0.145602,0.117811,-0.059747,0.434096,0.334153,0.297763,0.214317,-0.241824,0.12116,-0.045589,-0.364578,0.058598,0.0955,-0.141518,-0.26076,-0.108216,0.086078,0.085705,0.161362,-0.252336,-0.062994,-0.196819,0.205972,0.363833,-0.171109,0.029987,-0.3062,0.049008,0.127078,0.339144,-0.107611,0.275026,-0.401511,0.158655,-0.057569,-0.093713,-0.115677,-0.075418,-0.172374,-0.156723,0.131889,-0.228122,0.055726,0.104717,0.139073,-0.230191,-0.086804,0.190878,0.158083,-0.322225,-0.111632,-0.122192,0.267205,-0.110441,-0.162963,0.100973,0.119638,0.066712,-0.180308,-0.168218,-0.464149,0.135063,0.195841,0.234954,-0.107975,-0.038883,0.178665,-0.129416,0.255642,0.121597,-0.026488,0.049574,0.220103,0.054508,0.085189,-0.078618,0.136546,-0.149186,-0.136842,0.151271,-0.299207,-0.254958,-0.088236,-0.147659,-0.11201,-0.435636,0.268181,-0.256202,0.106702,-0.283014,-0.122847,-0.234529,-0.022939,0.007928,-0.048461,0.266702,-0.081086,-0.139063,0.261011,0.041664,-0.032112,0.138073,0.075,0.210093,0.041037,-0.091676,-0.089341,-0.016187,0.280581,-0.026045,-0.13107,0.262561,-0.003753,-0.230169,0.099793,-0.042149,0.003896,0.055665,-0.032572,-0.397614,-0.072312,0.205372,-0.383582,-0.219227,-0.220755,0.048962,0.171609,-0.046239,0.114792,-0.387975,-0.023869,-0.179466,-0.036096,-0.066679,0.00556,0.02603,0.123825,0.315188,0.053346,-0.254477,0.04194,0.033904,0.283296,0.100734,-0.33891,-0.263703,-0.43595,0.071805,-0.088757,0.125739,-0.078764,-0.082112,0.062056,-0.305482,0.389497,-0.165109,-0.376093,-0.381773,-0.056654,-0.17158,0.122397,0.119037,0.068297,-0.314686,0.034461,0.068474,-0.103952,0.142681,-0.36828,0.203892,-0.047184,-0.0606,-0.043684,0.107678,0.071103,-0.41184,-0.183778,0.189372,-0.15499,-0.064252,-0.048921,0.185888,-0.079152,-0.283021,-0.181742,-0.029588,0.209466,0.29444,0.460041,0.069302,-0.067138,-0.007564,0.023966,0.130477,-0.31181,0.020945,-0.085146,-0.193412,-0.162625,0.237365,-0.05249,-0.144758,-0.178041,0.059568,0.020552,0.214828,-0.010904,-0.122385,0.101108,0.092111,-0.021197,-0.08662,0.255451,0.371144,-0.077956,0.181748,-0.276619,0.309935,0.058505,0.431261,0.059509,0.033428,0.029267,-0.391768,0.116779,-0.139874,-0.572638,-0.060025,-0.232514,-0.128025,-0.027423,0.11812,0.051538,0.024396,-0.08547,0.369819,-0.024436,-0.09588,-0.034656,-0.186846,-0.159393,0.075304,-0.099108,-0.185269,0.066518,0.131613,-0.124108,0.087019,-0.076289,0.025309,-0.279403,0.124827,0.241942,-0.114687,0.029226,0.026545,-0.223915,-0.032855,-0.04959,-0.097926,-0.018848,-0.024888,-0.120321,0.185647,0.023591,0.030045,0.154084,0.028001,0.248024,-0.083081,0.055575,0.063661,0.045623,-0.253631,0.051392,-0.024715,-0.002369,-0.114357,0.069115,-0.022099,0.064261,0.050236,-0.011762,-0.159076,-0.056339,-0.104836,0.179794,-0.079518,0.036343,0.094692,-0.098083,-0.16998,-0.04526,-0.139407,0.232579,-0.20052,0.065835,0.136539,-0.380467,-0.016676,-0.022519,0.22535,-0.2289,-0.008009,0.050275,-0.048415,-0.068198,0.09143,-0.067432,-0.3055,0.027682,-0.245368,-0.214925,0.113617,0.028,-0.112082,0.137499,0.265212,-0.107215,0.002568,-0.059582,-0.009618,0.081367,-0.165863,-0.301202,0.209858,-0.013453,0.00676,-0.142353,-0.132909,0.213456,0.148686,0.20755,0.169962,-0.067303,-0.007147,0.302826,0.125565,-0.054218,0.122982,-0.199775,0.04489,0.023914,0.135549,0.118964,-0.098568,0.216454,-0.056264,0.178146,-0.134723,-0.152712,0.01952,-0.120928,-0.130914,0.00038,0.048219,0.03455,-0.231856,-0.168959,-0.056447,-0.093514,0.141076,-0.026837,-0.003096,-0.303201,-0.035403,0.122132,-0.278824,-0.013664,0.312294,-0.104255,0.142746,0.11922,0.094992,0.098353,0.286207,0.005709,-0.217401,0.319033,0.425283,0.290723,0.032002,-0.279243,-0.004482,-0.185534,0.37962,0.084332,0.118115,0.102469,0.096462,0.023208,-0.042227,-0.145356,-0.371945,0.013055,0.329865,0.033921,-0.107434,-0.282426,0.014392,0.371374,0.142277,0.301563,-0.102374,0.206143,-0.082608,-0.072674,0.10231,0.020023,0.240324,-0.373435,0.168909,0.455663,0.333912,0.027642,0.211176,-0.122984,-0.030742,0.077694,0.204027,-0.101619,-0.056683,0.125501,-0.068228,0.301608,-0.26482,0.169009,0.078122,0.165055,-0.167371,0.004625,0.481575,0.246853,-0.228307,0.21291,0.190731,0.150145,-0.182479,0.139167,0.159219,0.157847,0.087375,-0.156399,-0.393625,-0.474161,-0.091037,0.059635,0.020874,-0.046299,-0.185075,0.411258,-0.124997,0.044574,0.246624,0.259135,-0.323032,0.145431,0.0898,0.034276,-0.118181,0.056014,-0.184507,-0.014436,0.055635,-0.166633,-0.081588,0.037702,0.182117,-0.331573,-0.378674,0.069342,-0.082493,0.211016,-0.268543,0.040415,-0.573364,0.025194,-0.027121,0.024366,0.423701,-0.144618,0.052417,0.492391,-0.195321,-0.079799,0.149971,0.068764,0.04337,0.419946,-0.102536,-0.224123,0.048416,-0.202296,-0.396468,0.095194,0.078788,0.291977,0.025074,0.016785,-0.539327,0.278709,-0.222907,-0.173645,0.1531,-0.005007,-0.085421,-0.105177,0.116958,0.120471,0.366974,0.137478,0.123965,-0.059534,0.22125,-0.124673,0.049339,-0.472221,-0.386113,-0.397575,0.463104,-0.119114,-0.07944,-0.203436,0.047138,-0.388119,-0.014974,-0.030945,0.50105,-0.19773,-0.441998,0.003061,0.040128,0.349076,0.415587,-0.013155,0.042679,-0.203196,0.147832,0.000986,0.295876,0.108997,0.040763,-0.156791,-0.018269,-0.021155,0.067786,0.184894,-0.303894,0.030281,-0.274843,0.091243,0.261782,0.11433,-0.007927,-0.05175,0.074536,0.214752,-0.055818,0.562625,0.02358,0.07967,-0.022671,-0.088834,-0.388539,0.119461,0.319414,0.238622,0.029704,-0.315016,0.078761,0.004899,-0.108842,0.057421,-0.472107,0.146372,-0.302,-0.034442,-0.108954,0.036999,-0.051063,-0.084812,-0.727007,-0.130719,-0.128958,-0.061953,-0.126256,0.111948,-0.31311,-0.827179,0.195681,0.127021,0.07441,-0.070603,-0.072938,0.710357,0.127148,0.463879,-0.078293,0.01147,0.074139,-0.762164,-0.10498,0.19289,0.134871,-0.587816,0.045774,-0.073687,-0.023569,-0.308199,0.002871,0.100691,-0.134366,0.069308,0.109098,-0.219539,0.121885,0.152915,-0.048293,-0.132645,-0.084535,-0.151923,-0.499701,0.090117,0.066645,0.143446,0.096376,-0.087867,-0.36368,0.353009,0.205963,-0.327645,0.102003,-0.000847,-0.055064,0.147942,-0.043023,0.143868,0.450489,-0.025733,0.051696,0.025055,0.132027,-0.177758,0.02049,-0.435426,-0.621296,-0.311586,0.303415,0.130481,0.026576,-0.165778,0.13086,-0.163258,0.051406,0.042905,0.24615,-0.360197,-0.32882,0.063045,0.009537,0.028594,0.329083,0.069878,0.057068,-0.195525,0.23085,-0.038838,-0.068225,-0.015698,0.095188,0.02391,-0.042905,-0.039653,-0.089937,0.139461,-0.37448,0.323095,-0.12972,0.116008,0.141911,0.132618,0.092119,0.038821,0.146651,-0.079443,0.005649,0.233296,0.123461,-0.036531,-0.069712,-0.164082,-0.272215,-0.041561,0.200101,0.416001,-0.154209,-0.049487,-0.027017,0.084894,-0.059457,0.104127,-0.305727,0.389371,-0.406338,0.050495,-0.054229,0.144784,0.046612,-0.198382,-0.184758,-0.105755,-0.262585,-0.053537,-0.383941,-0.01007,-0.269738,-0.780579,-0.064935,0.264137,-0.01048,-0.138702,-0.084554,0.330212,0.37754,0.183054,0.072391,-0.022818,0.049642,-0.411237,0.004762,0.354728,-0.051848,-0.259739,0.10354,-0.111439,0.029853,-0.225849,-0.198307,-0.082551,0.17549,-0.111995,-0.099526,0.224503,-0.071801,0.196106,-0.412543,-0.239383,0.06164,0.121726,-0.152194,-0.049562,0.232218,0.028256,-0.267145,-0.026844,-0.047862,0.094368,0.105703,0.204713,-0.027444,0.283772,0.074441,-0.098342,-0.452723,-0.011591,0.30616,-0.14797,-0.219933,0.028979,-0.161738,0.021375,-0.471531,-0.398107,-0.23942,-0.258254,0.336576,-0.283191,0.038825,0.234368,-0.138487,-0.179565,0.046325,0.21466,0.233229,-0.184698,0.070298,-0.02433,0.388706,0.118338,0.126866,-0.272462,-0.357138,0.141512,-0.02795,0.251918,-0.158905,-0.172818,-0.31761,0.020156,-0.255627,0.237671,-0.303457,0.005368,0.112268,0.129613,0.122028,0.005798,-0.074246,0.000437,0.106221,-0.136588,-0.07609,-0.376597,0.327576,0.222848,-0.13573,-0.177699,0.184439,0.183747,0.047978,-0.339605,-0.004404,0.20938,-0.022989,-0.235205,0.017101,0.202387,0.242414,0.394524,-0.098448,-0.237814,-0.412374,0.13349,-0.028967,-0.193145,0.107248,-0.118777,-0.240295,0.036947,0.087763,-0.502606,0.060037,-0.13923,0.088438,-0.16266,0.094432,0.302,-0.247348,0.135569,0.131351,0.155734,0.102033,0.136981,0.325491,-0.273035,0.078918,-0.096216,0.366337,0.14856,0.369853,-0.185517,0.062223,0.123229,-0.231582,0.126926,0.045885,-0.324676,-0.402569,0.017904,0.023006,-0.339953,-0.244938,-0.337937,0.179673,0.410229,-0.061446,0.063802,0.078269,-0.017591,-0.12895,0.143339,0.21269,0.126757,0.252756,-0.283957,0.066539,-0.038982,-0.06848,-0.428936,0.056842,0.04926,0.417627,-0.173548,-0.236017,0.023034,0.169808,-0.270328,-0.131129,0.096569,0.244388,0.481825,0.341334,0.386446,-0.317368,0.061449,0.149636,-0.119031,0.062876,0.268307,0.014127,-0.045401,-0.287608,0.39476,0.097088,0.064606,-0.380113,-0.209954,-0.424118,0.438259,0.173262,0.115919,-0.057252,-0.170651,0.003494,-0.014378,0.142486,0.014435,0.338782,-0.122841,0.050161,-0.151285,0.161734,0.134147,0.079691,-0.181184,-0.253168,-0.15435,-0.051233,0.073132,-0.051398,0.066659,-0.096942,-0.25974,0.046571,0.1339,-0.182697,0.115576,0.012576,0.194371,-0.161612,-0.327764,0.252416,0.17563,0.238399,0.036516,0.031888,-0.185375,0.375754,0.182797,0.480954,0.000631,-0.068234,0.080747,-0.099285,0.316587,0.320606,0.077964,0.099085,0.557245,-0.196669,0.064485,-0.000179,0.29534,-0.254052,-0.21512,-0.102243,-0.28821,-0.151225,0.024384,-0.309587,-0.285243,-0.248254,0.174519,0.154261,0.0769,-0.214895,-0.155493,-0.523924,-0.07247,-0.128596,0.138997,0.003861,0.17227,0.107663,0.172935,-0.101427,0.063193,0.024306,-0.25022,-0.153065,-0.03408,0.360684,0.199274,0.003668,-0.26518,0.115411,0.076527,-0.325649,0.135304,0.36261,0.10145,0.164118,-0.14296,-0.046787,-0.146507,0.15226,-0.177909,-0.188875,0.209568,0.479295,0.063067,-0.029971,0.022411,0.230455,-0.234871,0.118187,0.011763,0.336444,0.242509,0.298329,0.240028,-0.182754,0.16403,-0.182874,-0.161113,0.285294,0.044763,-0.11647,-0.38912,-0.224466,0.195082,0.137379,0.293448,-0.098487,-0.007447,-0.279322,0.164034,0.380249,-0.206651,0.225492,-0.340236,0.172009,0.360062,0.44943,-0.066346,0.240705,-0.314534,0.035857,0.08656,0.063598,0.017192,-0.139346,0.142854,-0.202503,0.174983,-0.246417,0.090259,0.289977,0.119397,-0.368062,-0.14304,0.147358,0.319139,-0.237348,-0.044315,-0.027642,0.247392,-0.198559,-0.115891,0.025095,0.149502,0.080018,-0.20572,-0.297932,-0.522747,0.10295,0.134488,0.184203,-0.25775,-0.248977,0.282807,-0.187013,0.234514,0.182444,0.059089,-0.117098,0.288268,-0.09093,0.2709,-0.20341,0.223454,-0.228027,-0.231764,0.254399,-0.184011,-0.260715,0.003978,0.045463,-0.237937,-0.427654,0.285873,-0.163485,0.106073,-0.293005,-0.086734,-0.284476,0.054481,-0.12326,0.023007,0.365356,-0.126706,-0.044324,0.358621,-0.042063,-0.132134,0.168423,0.071741,0.0983,0.592618,-0.060936,-0.327282,-0.038554,-0.138077,-0.773737,0.029183,0.037031,0.335553,0.064236,0.000461,-0.524486,0.355959,-0.138125,-0.034583,0.054941,-0.040394,-0.071755,0.103902,0.036779,0.027564,0.44135,-0.02036,0.033714,0.119554,0.197535,-0.141253,-0.008636,-0.537588,-0.543707,-0.434413,0.535525,-0.251858,-0.086351,-0.22501,0.107856,-0.345206,-0.07054,0.063026,0.439802,-0.235784,-0.336454,-0.017547,0.086805,0.230537,0.492484,-0.227047,-0.07859,-0.071267,0.199875,-0.129328,0.468988,-0.024285,-0.054299,-0.171894,-0.123106,0.043772,-0.078236,0.025702,-0.259419,0.097443,-0.160693,0.19856,0.341599,0.031144,-0.058244,0.01511,0.15324,0.292981,-0.078522,0.776232,0.030595,0.175967,-0.053029,-0.023272,-0.515828,0.111111,0.29305,0.529134,0.070649,-0.320119,-0.020929,-0.054976,-0.019694,-0.008514,-0.785492,0.040707,-0.331625,-0.070131,-0.005185,0.057404,-0.015789,-0.219811,-0.758118,-0.186753,-0.256835,0.036616,-0.201732,0.037245,-0.332129,-0.864611,0.106678,0.475574,0.033001,-0.107255,0.024544,0.632373,0.29063,0.394703,0.087763,-0.026436,0.096638,-0.772615,0.011212,0.37364,0.189508,-0.614933,0.252338,-0.054432,0.075213,-0.452832,0.181199,0.122165,-0.168873,0.240622,0.010046,-0.069979,-0.121957,-0.044104,0.174654,0.151483,-0.032645,-0.252214,0.160166,0.032427,-0.30601,-0.041758,0.23227,-0.100943,0.183207,-0.045359,-0.107714,-0.00738,0.217126,-0.090148,-0.23735,0.337604,0.393422,0.134921,0.13499,-0.006431,0.073932,-0.117796,0.195432,-0.04841,0.178954,0.046774,0.250745,0.099149,-0.229098,0.030416,-0.264005,-0.077247,0.251838,0.102044,-0.106766,-0.298605,-0.128521,0.306384,0.224885,0.367166,-0.035262,0.127655,-0.14229,0.013528,0.32642,-0.069871,0.082505,-0.469408,0.240841,0.453167,0.376069,-0.087328,0.232679,-0.0802,-0.078052,0.130548,0.27599,0.055899,-0.119539,-0.031888,-0.097624,0.16059,-0.434705,0.105934,0.119382,0.012598,-0.317385,-0.163898,0.327561,0.280727,-0.077299,0.022514,0.180298,0.169399,0.027327,0.11642,0.232562,0.191767,0.104319,-0.299309,-0.348343,-0.621138,0.029302,0.152915,0.071039,-0.203409,-0.184343,0.249095,0.049162,0.09561,0.240281,0.103683,-0.228281,0.127846,0.017703,0.156853,-0.085723,-0.000948,-0.376947,0.049902,0.22381,-0.002494,-0.223552,-0.00889,-0.013593,-0.204388,-0.32641,0.193814,-0.171999,0.134208,-0.28062,