{"format":"ratass-rl-policy-v3","source":"ray-rllib-ppo","objective":"race-route-progress-v1","observationSize":33,"actionSize":2,"output":"first actionSize outputs are deterministic direct throttle and turn controls","layers":[{"inputSize":33,"outputSize":96,"activation":"tanh","weights":[-0.078355,0.459975,0.061765,-0.225531,-0.670568,-0.228402,-0.068029,0.092073,0.052201,-0.066623,0.179626,0.058473,-0.962496,0.272507,-0.39152,-0.153061,0.104726,0.014233,-0.102388,-0.035816,-0.104396,0.231717,0.260114,-0.100647,0.019669,0.195049,-0.08555,-0.134696,0.178544,0.003742,-0.059186,-0.138633,-0.052384,0.103345,0.997702,0.105721,0.034905,-0.249685,-0.326733,-0.272928,0.324365,-0.115616,-0.096319,0.028253,0.383787,-0.933728,0.187513,-0.761307,-0.240186,0.119924,-0.531154,-0.26842,0.124908,-0.084246,0.273581,-0.02921,-0.148287,0.204854,0.112227,-0.483392,0.151292,0.055893,0.036232,0.10415,-0.08202,-0.038179,0.014169,-0.08352,0.034051,0.013264,-0.081926,0.176029,0.115138,0.157241,0.100223,0.166754,-0.366319,-0.436323,-0.424958,0.050479,-0.132592,0.361407,-0.1407,-0.014285,0.184376,-0.111615,0.210754,0.144191,0.167647,0.140287,-0.012502,0.056848,0.115701,-0.028738,0.036162,0.240134,0.073473,0.217752,-0.113904,0.089476,-0.098064,-0.167299,0.018371,0.359285,-0.366793,0.035176,-0.007876,0.154961,0.065267,0.070953,-0.133022,-0.382651,0.00492,-0.340625,-0.469018,0.170932,-0.069243,-0.107845,0.108353,0.319691,0.1006,0.09146,0.098916,-0.059644,-0.035488,0.024,0.251693,0.15421,0.027205,-0.031303,0.235353,-0.049713,-0.141682,-0.234769,0.130184,0.169438,0.074916,0.184461,-0.027378,0.156458,0.212769,-0.057796,0.166135,-0.008299,-0.411096,0.042447,-0.41488,-0.654681,0.231376,0.111594,-0.169189,0.075565,0.147934,0.176351,0.15086,0.081058,0.055482,0.047597,-0.100815,0.175989,-0.007187,0.034876,0.193697,0.044882,0.082631,0.120627,-0.135424,0.003494,-0.178291,-0.472558,0.148955,0.113221,0.227992,-0.079152,0.034203,-0.204183,-0.398966,0.098021,0.223423,0.723104,0.395064,-0.153003,0.07207,0.232061,-0.094671,-0.033076,0.214146,0.031481,-0.020903,0.196776,-0.06574,-0.079965,0.179652,0.109249,-0.056636,-0.222102,-0.030227,0.159501,-0.107064,0.321192,0.046853,0.30571,-0.300296,-0.070857,-0.058397,-0.232813,-0.208271,0.047182,0.412584,0.373988,0.396999,-0.076257,-0.028758,0.291311,0.087327,0.365455,0.224907,-0.107811,-0.075991,-0.079439,-0.111251,0.063766,-0.066228,0.128603,0.043948,-0.233766,-0.143012,0.055576,-0.160906,-0.017628,-0.128091,-0.021526,0.177456,0.048362,0.180819,0.347247,0.148198,0.075614,-0.073855,0.026259,-0.081403,0.456985,0.520966,0.191727,0.084732,-0.38538,-0.126128,-0.064021,1.028124,0.042092,0.093529,0.022391,0.145292,-0.146154,0.064992,0.194878,0.059321,-0.310756,0.098612,0.027279,-0.08624,0.116951,0.008759,0.176611,0.081946,0.10994,0.03838,-0.041858,0.227194,0.007129,-0.203218,0.025745,-0.120593,-0.212134,-0.137195,0.112807,-0.079537,-0.072807,-0.404239,0.331002,-0.126719,-0.039223,-0.151441,0.246545,-0.148479,-0.284372,-0.208644,-0.015641,0.058397,0.008356,0.055993,-0.040759,-0.143189,-0.120084,0.098419,0.035586,-0.1267,0.12599,0.298729,-0.155823,0.080361,-0.101539,-0.096487,-0.026646,-0.213779,-0.02824,0.069391,0.424492,0.507299,0.212906,-0.064729,-0.117296,-0.027617,-0.03583,0.243518,0.012123,0.088203,-0.027683,-0.027905,-0.010991,0.077931,-0.103701,-0.072651,-0.055338,-0.210502,-0.205293,-0.2892,0.059677,0.087079,-0.044669,0.04995,0.039319,0.092872,-0.221097,0.483049,0.16799,-0.207095,0.131879,-0.08983,-0.057629,0.133307,0.121412,-1.079512,-0.103867,-0.725158,-0.80457,0.167465,-0.08796,-0.248838,0.252361,0.122847,0.058148,0.014498,0.117518,-0.154437,-0.039655,-0.099698,-0.119001,-0.205852,0.175707,0.201414,-0.155544,-0.125947,-0.089673,-0.041138,-0.124078,-0.141824,0.068748,0.32437,0.177399,0.303063,0.113023,-0.059824,0.391469,0.085089,-0.300889,0.006345,-0.144867,-0.631941,-0.010598,0.185911,-0.063955,0.195201,0.136471,0.235004,0.07073,0.03268,0.202417,-0.051271,-0.178352,-0.036339,0.144974,0.029066,0.011024,0.00778,0.081609,0.17218,-0.265599,-0.153531,-0.164047,0.415744,0.218685,0.126526,0.009748,-0.010825,-0.043011,-0.363412,0.031851,0.823654,-0.067098,0.053299,0.398432,0.013085,-0.535646,0.135072,-0.008736,-0.138656,0.018669,0.152453,-0.021013,0.035261,-0.102118,0.072988,0.049008,0.131967,0.038754,-0.145348,0.108989,0.178965,-0.069437,0.530946,-0.051438,-0.203904,-0.275229,-0.069096,-0.06434,0.195201,0.068367,0.128268,0.143459,0.330236,-0.86643,0.049953,-0.515711,-0.348901,0.033841,-0.017281,0.077414,0.129213,0.03162,0.316052,0.041185,-0.108009,0.026475,-0.040411,-0.192383,-0.138851,0.081139,0.096431,-0.044644,0.041055,-0.068128,-0.063478,0.077775,-0.010413,0.258341,-0.001018,0.09263,0.191459,0.097227,0.167468,0.050938,-0.006248,-0.222617,-0.207415,-0.1396,0.246844,-0.163976,0.068907,0.040441,-0.013606,0.195928,0.109506,0.085049,0.038071,0.257259,-0.102128,-0.171079,-0.011547,0.157379,0.138508,-0.136213,0.260652,0.216673,0.111538,0.071828,0.780097,0.175135,0.09875,-0.447092,-0.188215,0.048081,-0.016396,0.087115,0.091155,0.094076,0.180563,-0.613741,-0.259985,-0.406314,0.321288,0.137606,-0.110445,0.149931,-0.074488,-0.249773,0.192234,-0.099634,-0.087543,0.077488,-0.163485,-0.496841,0.128358,0.108952,-0.026937,-0.353129,-0.08183,-0.12097,-0.053942,-0.303793,0.072487,-0.048738,0.093494,0.159518,0.142403,-0.061062,-0.144241,0.128779,-0.1462,-0.026635,0.865174,0.249318,0.266438,0.617623,0.025745,-0.069058,-0.1521,0.139754,0.088949,-0.158363,-0.161527,0.084876,0.085131,0.089382,-0.028183,0.015438,-0.013748,0.03532,0.018774,-0.067134,0.065033,-0.135431,-0.631201,-0.097795,0.108384,0.282857,0.222702,0.069751,-0.11518,0.05258,-0.095051,0.279928,0.234244,0.405434,-0.064928,0.343102,-0.649174,0.111753,0.191913,-0.002622,0.029476,0.184388,-0.042116,-0.077686,0.151028,-0.061766,0.029584,0.143509,-0.113974,-0.050874,0.069989,0.277369,-0.092217,0.014543,0.118359,0.205385,0.112819,-0.29765,-0.036285,0.154949,-0.188101,-0.100532,-0.003894,0.072729,-0.358888,-0.103668,0.159045,0.122225,0.282283,0.334636,-0.187876,-0.197662,0.18158,-0.172831,-0.095891,-0.202008,-0.020236,0.015546,-0.115876,-0.183457,-0.035898,-0.051507,-0.235658,-0.049361,-0.119735,-0.191538,-0.052057,0.150503,-0.043208,-0.074225,-0.177217,-0.238677,0.101404,-0.006723,-0.180093,-0.19645,-0.09095,-0.367874,-0.255133,0.116142,0.154322,-0.070038,0.595816,0.074265,-0.110239,-0.154975,-0.021325,-0.19237,0.038711,-0.038494,-0.154964,-0.152396,-0.079324,-0.064557,0.019083,-0.135555,-0.051408,-0.131899,-0.163081,-0.211272,-0.097096,-0.253519,-0.046856,0.071747,-0.175389,-0.050775,0.212123,-0.15938,-0.035354,-0.165562,0.357681,0.022921,0.715798,0.016739,0.520013,-0.484492,0.131067,0.199813,-0.051278,-0.157145,0.237728,-0.095692,-0.12302,0.055208,-0.072796,-0.061268,0.164911,0.0684,-0.09592,0.096848,0.026075,0.054329,-0.057187,-0.002006,-0.590032,0.031165,0.314225,1.106341,0.387518,0.059119,-0.250449,-0.206713,-0.035739,0.303355,0.308054,0.442948,-0.080481,-0.283478,-0.577439,0.021521,1.005623,-0.125209,0.248561,-0.119186,-0.330858,-0.23422,0.083668,0.032647,0.002252,0.286453,-0.097607,-0.089384,-0.028722,0.373452,0.134101,-0.05325,0.11982,0.075324,0.120896,-0.044765,0.034177,-0.089063,-0.144029,-0.052967,-0.001499,-0.201466,0.276887,0.075363,-0.80433,0.192255,-0.195786,-0.130463,-0.079358,-0.621797,-0.186001,0.244122,-0.019312,-0.090236,-0.034992,0.037786,0.117424,0.111309,0.252455,0.029288,-0.199954,-0.038939,0.245396,-0.034841,-0.117409,-0.045581,-0.052679,-0.157167,-0.198497,0.153784,0.36989,0.04932,0.169611,-0.018958,0.276204,-0.293356,-0.38636,-0.318463,-0.221924,0.241839,0.281488,-0.097685,0.077735,0.027463,0.058579,-0.02456,0.116774,0.153921,0.127395,0.03792,0.043938,0.088089,0.262268,0.26898,0.123464,0.111254,0.112111,0.165497,0.01695,0.113516,0.084621,0.254559,0.341713,-0.101614,-0.086184,-0.055185,0.097385,-0.114552,0.386692,0.661339,-0.057058,0.03801,-0.550832,-0.064012,0.003754,0.371123,-0.046201,-0.03189,-0.137242,0.026207,0.067539,0.061824,0.120286,0.006464,-0.05143,-0.16511,-0.07152,-0.135907,-0.084923,-0.165132,-0.126151,-0.046438,-0.171539,0.017062,-0.080377,-0.006922,-0.470515,-0.099437,-0.12614,-0.024092,-0.107816,-0.230812,-0.135098,0.039622,-0.045768,-0.370124,0.417576,-0.072022,-0.108325,-0.159061,-0.111586,-0.10774,-0.214393,-0.055907,-0.030876,-0.205655,-0.0528,-0.012156,-0.091842,0.006173,-0.098181,-0.339997,-0.246129,-0.000314,-0.093328,0.51508,-0.028578,0.285388,-0.547421,-0.211989,0.224266,-0.214899,0.028939,-0.055395,0.15635,0.184285,0.618187,0.084857,0.583932,-0.240549,0.156348,-0.007809,0.20094,-0.345651,0.001298,-0.182389,0.037953,0.046839,-0.180685,-0.120099,0.147069,-0.116477,-0.133878,0.01409,-0.165203,-0.075163,0.193214,0.189926,-0.256917,-0.156045,-0.112394,0.134958,-0.513769,-0.274764,-0.10667,-0.026592,-0.173566,-0.150274,0.014909,-0.193624,-0.140578,-0.62602,0.286376,0.097169,-0.071874,0.082987,0.139575,-0.024208,-0.315187,-0.067215,-0.233734,-0.266127,0.121088,0.032333,-0.085658,-0.025063,0.103119,-0.246248,-0.205355,-0.073528,-0.024116,-0.67677,0.125616,0.108207,0.26947,0.109458,0.277422,-0.048365,-0.057362,-0.016319,-0.249209,-0.251644,1.325241,-0.117987,0.593229,-0.108316,0.057086,0.263989,-0.301727,-0.122675,0.267749,-0.353308,-0.087424,0.120604,-0.023148,-0.113646,0.417505,-0.15623,0.032693,0.008414,0.030289,0.082528,-0.062202,-0.057965,0.579701,-0.026592,-0.13752,-0.252427,-0.24716,-0.046706,0.195903,0.145016,0.148778,-0.264345,-0.05126,-0.662929,0.068415,-0.630887,0.330933,0.19713,-0.741736,-0.142406,-0.111823,-0.274102,0.198608,-0.022361,-0.032458,0.06037,0.000719,-0.295598,0.073809,-0.020547,0.143621,-0.252397,0.147999,0.187196,-0.139516,-0.31808,-0.035726,-0.001034,0.236244,0.089062,-0.173852,-0.178346,-0.003556,0.061545,-0.53082,-0.63576,-0.241949,-0.15123,0.170791,-0.004446,-0.005622,-0.687173,-0.092067,0.033282,0.207095,0.104537,0.19328,0.111229,-0.063693,-0.043338,-0.042843,0.067774,-0.166291,0.130718,-0.026414,0.039092,-0.076678,-0.029563,0.529446,0.153415,-0.217114,-0.141063,-0.163799,0.001888,0.097219,0.094157,0.082928,-0.266194,-0.305797,-0.335469,0.210773,-0.498429,0.40732,0.154357,-1.085919,0.011278,0.118948,-0.062939,0.078255,-0.039773,-0.153973,0.212271,0.157066,-0.302521,0.097979,0.157981,0.133918,-0.244503,0.145147,0.08308,0.073663,-0.150878,0.258085,0.124748,0.40496,-0.004199,-0.113143,-0.043123,-0.084357,0.140703,0.311805,0.369987,-0.738872,-0.445622,-0.835309,-0.174411,0.123635,0.11848,-0.102912,0.125919,0.119487,-0.004786,0.060534,-0.112869,0.141857,-0.060537,-0.032121,-0.091718,0.136539,0.06124,0.091759,-0.051644,-0.048962,0.073912,0.358882,-0.078773,0.06252,-0.4772,-0.164133,0.054005,-0.030228,0.136088,-0.111812,0.074054,-0.09138,-0.903041,-0.025708,-0.178279,-0.435437,0.051084,-0.914949,0.140163,0.030008,-0.108906,-0.063563,0.218709,-0.103049,0.036922,0.008658,-0.073887,0.145666,0.116418,0.112584,-0.045634,0.086082,-0.13793,-0.044159,0.192814,0.193084,-0.003031,-0.258309,0.160091,-0.01813,0.084999,0.173622,-0.007856,0.041832,0.081242,0.172973,0.100417,0.405331,-0.295414,0.195583,-0.076513,0.17088,-0.105743,0.105146,0.156868,-0.128011,-0.046101,0.208502,0.223269,-0.014753,0.018628,0.024194,-0.086233,-0.095947,0.081048,0.073033,-0.193069,-0.133137,-0.124406,-0.052236,0.298496,0.035248,0.126897,0.052272,0.156858,0.183234,0.213577,0.289032,-0.512224,-0.12195,-0.684181,-0.373321,0.120573,0.094777,0.068344,0.199485,0.157389,0.025085,0.171851,0.106724,0.17564,0.178747,0.076981,-0.006157,0.126201,0.129686,-0.008038,0.047683,0.061058,0.094737,-0.085611,-0.104137,-0.016543,0.029589,-0.115907,0.331883,-0.03125,-0.081328,-0.063641,0.402543,0.049777,-0.008895,-0.085475,-0.30893,-0.502984,0.015206,0.157916,-0.179235,-0.067167,0.210172,-0.000963,0.027196,0.167766,0.228281,0.085076,-0.105687,0.16816,0.216711,-0.132422,-0.180069,-0.073177,0.173461,0.18553,-0.159572,0.142719,0.310372,-0.072047,0.01027,0.087752,-0.048824,-0.151029,-0.124463,-0.250416,-0.25931,0.433424,0.035711,0.255257,0.315797,-0.11202,0.432813,-0.000289,-0.100666,-0.030684,-0.031223,0.047421,-0.046448,-0.132176,0.142669,0.352611,-0.059149,-0.149059,-0.064891,-0.012716,0.145037,-0.111594,-0.102412,0.203414,-0.018512,0.044202,-0.379403,-0.168834,0.041882,0.129825,-0.009736,-0.021438,0.21244,0.371512,0.533397,0.100859,0.219231,0.036327,-0.093074,-0.204872,0.292029,-0.179008,-0.047359,-0.086429,0.028611,0.098381,0.107905,0.146322,0.140029,-0.054024,-0.06699,-0.059517,0.168683,-0.168313,0.096139,0.140139,-0.485224,-0.148518,0.143001,0.014008,0.083801,0.125162,0.070339,0.09797,0.054311,-0.191287,-0.271176,0.816475,0.048538,0.330881,0.567779,0.136133,-0.120062,0.273308,-0.023023,0.022521,-0.00701,0.032085,-0.163094,0.055627,-0.049095,0.229036,0.076441,0.020736,-0.206933,0.155713,0.200181,0.039886,0.185232,-0.009076,-0.071668,-0.190564,-0.345848,0.202989,-0.157031,0.021732,-0.141925,-0.075815,-0.333194,-0.120791,0.336605,-0.042399,0.132099,0.527458,-0.166011,-0.205389,0.033791,0.049352,-0.297806,-0.251083,-0.048822,-0.164226,-0.113111,0.12117,0.158781,-0.104141,-0.115056,0.095224,-0.106498,-0.176076,-0.015843,-0.263941,-0.269126,-0.126324,0.113097,0.371757,0.185824,-0.033594,-0.107508,-0.180749,-0.183847,0.056045,0.231314,0.133952,0.111772,0.183625,-0.514808,-0.037911,0.525649,-0.182557,-0.035232,-0.054639,0.057348,0.095316,-0.020848,0.103955,-0.003528,0.259851,0.11107,-0.155212,0.118877,0.040786,-0.139568,-0.001778,-0.042881,-0.218166,0.115306,-0.060052,0.504588,-0.208614,0.122938,0.132594,0.051143,-0.16748,-0.363855,-0.507139,-0.641755,-0.391286,-0.209975,-0.416744,0.152887,-0.359271,0.007441,0.129954,0.078635,0.144789,0.130497,-0.035934,0.08582,0.089631,0.127687,0.056878,-0.065707,-0.066269,0.027534,-0.033136,-0.069749,0.099597,0.328181,-0.095,0.059421,-0.400302,0.039131,-0.123825,0.019359,0.033196,0.080137,-0.550991,-0.566714,-0.219414,0.229697,0.668855,0.39172,-0.065487,-0.769221,0.177829,-0.124302,-0.020943,0.11183,-0.097367,-0.22912,0.041293,0.167335,0.357756,-0.099738,-0.07673,0.061139,0.095297,-0.092959,0.02434,-0.042452,0.275548,0.199798,0.274628,-0.347283,0.053605,-0.042843,-0.028582,-0.119809,-0.18004,0.50479,0.510998,0.159692,0.091225,-0.050061,-0.339319,0.223505,0.185187,-0.289921,-0.077002,0.123213,-0.245971,0.010068,-0.026554,-0.287471,-0.065371,0.137077,-0.228545,-0.004105,0.029242,-0.151552,-0.114738,-0.019135,0.004426,0.106454,0.032339,-0.077594,-0.087886,-0.078485,-0.038637,0.156092,-0.025447,-0.115977,-0.374888,-0.026805,0.342939,0.056843,-0.078883,0.303347,0.081958,-0.774332,-0.087899,0.194967,-0.035101,-0.014436,-0.035052,0.012676,0.069312,0.165261,-0.099358,0.10256,0.144073,-0.010667,-0.127889,0.073415,0.141275,-0.134942,-0.323655,0.00712,-0.029134,0.134173,0.350136,-0.013142,-0.037128,0.208443,0.173719,-0.24403,-0.307351,-0.618077,0.069864,-0.30513,0.203969,-0.025279,0.161575,-0.038713,0.089094,-0.096288,0.159112,0.047071,0.009225,0.174724,0.042924,-0.160106,0.119682,0.11764,0.204301,0.134828,-0.164164,0.040531,-0.048359,-0.271085,-0.032177,-0.206675,0.055045,0.224234,-0.181846,0.006108,0.069103,-0.048324,-0.221078,-0.08333,-0.507807,-0.225976,-0.924487,0.344333,0.036255,-0.042624,-0.122468,0.079567,-0.076969,-0.101571,-0.203681,-0.265703,-0.179239,-0.159126,0.04743,-0.060734,-0.155582,-0.226913,-0.277816,-0.196722,0.058691,-0.106038,-0.12786,0.070079,0.069961,-0.306661,0.048259,0.001641,-0.196992,0.055546,-0.039372,-0.344927,-0.028435,0.479153,0.012718,-0.074225,0.602765,-0.091346,-0.048321,0.033539,-0.095886,-0.263529,-0.17227,0.040261,-0.313379,-0.16476,-0.084348,-0.185741,0.063854,-0.044534,-0.123431,-0.182937,-0.026213,-0.096339,-0.211396,-0.107862,-0.18273,-0.416558,-0.132855,-0.022975,-0.089348,-0.123334,0.009331,0.049873,-0.545364,-0.603898,-0.174175,-0.006274,0.324581,-0.042402,0.015826,-0.449079,0.006203,-0.112372,0.108963,0.001997,0.036335,0.006395,0.202716,-0.054588,-0.032327,0.166579,0.143586,-0.165789,-0.255251,0.015195,0.069061,0.014728,-0.009366,-0.003995,-0.203953,0.194539,0.079989,0.086103,0.016349,-0.013374,-0.171411,-0.146656,-0.236184,0.130077,0.026604,-0.488236,0.661975,-0.15259,-0.001813,-0.019556,0.061285,-0.182425,-0.277577,-0.257336,-0.101452,-0.08682,-0.098599,-0.122703,-0.00116,0.040799,-0.219891,-0.170819,0.064997,-0.107309,0.091178,0.239622,-0.062766,0.074467,0.147027,0.03695,0.185007,0.20945,0.102624,0.241691,0.192203,0.063409,-0.275568,-0.10918,0.027784,-0.612206,0.234484,-0.019601,0.016705,0.101843,0.257298,-0.011851,0.028703,0.218304,-0.08951,0.091007,0.117107,-0.052273,-0.047336,0.004693,0.188073,-0.026082,0.07704,0.159404,0.044659,-0.091682,-0.122062,-0.103436,0.324061,0.038699,0.05713,0.130178,0.224139,0.38114,0.204489,-0.013992,0.012695,0.060897,-0.677143,0.207712,0.028199,-0.083407,0.079598,0.292105,0.004308,-0.029629,-0.045665,0.098748,-0.027651,-0.168481,0.127371,0.003158,0.097345,0.277047,0.211949,-0.001714,0.083472,0.317777,-0.012379,0.283304,-0.172202,-0.385569,-0.21266,0.043307,-0.031273,-0.076876,-0.369199,-0.328974,0.345904,-0.083381,0.535402,0.547461,-0.080826,-0.134228,-0.065793,0.069533,-0.072848,-0.172377,-0.228932,0.029816,-0.150008,0.092908,0.144048,-0.234033,-0.115288,0.054987,0.08545,-0.152221,-0.125256,-0.013321,0.21695,-0.029744,-0.163187,-0.008969,-0.153025,-0.075757,0.076916,-0.173581,-0.109922,0.129252,-0.021421,-0.83484,0.05771,-0.133294,-0.552505,0.078993,-1.035197,-0.128418,0.222922,0.027892,-0.093605,-0.008915,0.097962,-0.157233,-0.005255,0.330711,-0.190229,0.05609,0.040559,-0.0966,0.075836,-0.077868,-0.114907,-0.023788,0.060722,0.082495,0.254592,-0.015024,0.105719,-0.188424,0.00481,-0.20659,0.165949,0.591106,0.111256,-0.043494,-0.209922,0.022563,-0.082557,-0.116416,0.083703,0.066755,-0.065957,-0.176548,-0.112209,0.035379,-0.118495,-0.055812,-0.280392,-0.110756,-0.009914,-0.17543,-0.193879,0.070728,-0.112613,0.012346,-0.18036,0.076958,0.115936,-0.130875,-0.064924,0.039985,-0.146822,-0.111159,0.039709,0.367989,0.627267,0.681166,-0.185106,0.280655,0.230206,-0.15458,0.093276,0.1273,0.120487,0.103219,-0.226187,-0.030902,-0.014367,-0.18434,0.083471,0.016243,0.09767,-0.152104,-0.102754,0.044691,-0.067808,-0.056509,-0.180904,0.536295,0.019772,-0.028549,-0.241224,-0.02703,0.011728,0.239029,0.031026,-0.046389,0.561064,0.161389,-0.794329,-0.074977,-0.39599,-0.527171,-0.043572,0.252909,-0.05607,0.064836,-0.006557,0.129659,-0.017195,-0.040889,0.070354,-0.051509,-0.358486,0.012705,0.046025,-0.010971,-0.28553,-0.138016,-0.112891,-0.126157,0.201391,0.073328,0.083629,0.075829,0.037084,-0.151257,0.06721,0.022487,-0.013051,0.164748,0.165538,-0.663519,-0.030252,0.065445,-0.623376,0.087163,0.243006,0.09177,0.035717,0.199568,0.037885,0.149049,-0.062651,0.049958,-0.083088,-0.103164,-0.0196,0.096798,0.236902,0.008005,-0.075532,0.167066,0.17723,0.196772,0.205074,0.061841,0.019776,-0.328756,0.064266,0.077411,-0.003209,-0.006619,0.175696,0.117923,0.278885,0.07271,0.622515,-0.435738,0.006878,0.040472,0.111278,0.124418,0.015705,0.015579,0.190223,0.320239,0.140544,0.247114,0.290551,-0.057946,-0.015749,0.25745,-0.130147,0.088535,0.097691,0.021478,0.106032,-0.012933,0.087903,-0.011409,-0.181433,0.092547,0.137462,0.145909,-0.13037,0.280041,0.035692,-0.177564,-0.120695,-0.049274,-0.59193,0.133006,0.131581,-0.01796,0.010651,-0.031315,-0.074675,0.227671,-0.062931,-0.099944,0.145733,0.212463,0.092411,0.0404,0.232201,-0.06699,-0.055057,-0.094178,0.149547,-0.460478,0.022175,0.107548,0.716743,0.087122,-0.140488,-0.038821,-0.075099,-0.110689,-0.339918,-0.373573,-0.223939,-0.329034,0.044507,0.013836,0.029744,-0.385874,-0.277341,0.217537,-0.164749,-0.004534,0.035472,-0.197645,-0.017422,0.047567,0.399712,0.074232,-0.263197,0.115518,0.40872,-0.041939,-0.154111,0.122453,0.190649,0.057403,0.132084,0.042151,0.155972,-0.001944,0.05226,-0.018822,-0.013661,-0.40705,-0.215932,0.349928,0.038461,0.070943,0.711077,-0.168936,-0.149321,-0.173269,-0.025918,0.027236,-0.110922,-0.262897,-0.088487,-0.192031,-0.105512,-0.189215,-0.092738,-0.236918,-0.181426,0.048905,0.109956,-0.172314,0.139176,-0.002327,0.170525,0.105509,0.333949,-0.260261,0.086049,-0.098538,0.081818,-0.016283,0.366089,0.22749,-0.546828,0.052198,-0.753391,-0.614165,0.1608,-0.019418,-0.000952,0.363819,0.031291,-0.098895,0.135541,0.275036,0.029581,0.169189,0.071449,0.007953,-0.024745,0.127866,-0.094557,0.21693,0.249916,0.09598,0.084084,-0.18181,-0.206281,-0.223061,-0.124268,0.136642,0.029427,-0.045474,0.1382,-0.614869,-0.490534,0.001044,0.028094,0.507856,0.195989,0.095087,-0.453769,0.039845,-0.247069,0.149009,-0.082925,-0.172275,-0.021063,0.0146,0.116436,0.082053,0.111207,0.194303,0.049118,-0.177194,-0.021948,-0.051358,0.05627,0.126742,0.161396,0.324909,0.177217,-0.307986,0.085787,-0.057024,-0.103673,-0.143207,0.328067,0.247683,-0.900065,-0.333306,-0.533187,-0.385789,0.094338,-0.695917,-0.0131,0.081496,-0.106712,-0.241697,0.301061,-0.029541,-0.228472,-0.11436,0.15493,-0.089333,-0.226742,0.201874,-0.042863,-0.003503,-0.146431,0.161177,-0.114293,0.145096,0.041656,-0.04299,0.024684,-0.157117,-0.020992,0.117835,0.04036,-0.156896,0.119543,0.319047,0.136611,-0.159834,0.479225,-0.135552,0.061403,0.166232,0.088431,-0.185468,0.048608,-0.132278,-0.056491,0.030803,-0.020841,-0.218073,-0.152055,0.095473,0.016755,-0.133523,0.058039,-0.003497,-0.093888,0.344284,-0.1082,-0.233616,-0.321806,-0.133921,-0.014865,0.360962,0.067418,0.15793,0.29892,0.1131,-0.818359,-0.078669,-0.51317,-0.290557,0.071302,-0.238585,0.100192,-0.035086,0.070117,0.335531,-0.028969,-0.134329,0.081312,-0.1209,-0.484727,-0.113634,0.000515,0.059925,-0.042962,0.076052,0.026778,0.211348,-0.165341,0.061765,-0.086434,-0.103372,0.095968,0.015493,-0.107809,0.025391,-0.064156,-0.346327,-0.203285,-0.148067,-0.173603,-0.194026,0.42431,-0.107803,-0.273357,-0.168616,-0.02025,-0.236999,-0.11367,-0.001766,-0.08766,-0.15571,-0.148174,0.045683,-0.056686,-0.186845,0.116816,-0.057215,-0.196636,-0.15836,-0.093068,-0.391882,-0.106248,-0.361247,0.03193,0.238625,0.019399,-0.392018,-0.312802,-0.330218,-0.755565,-0.436799,0.609387,-0.050251,-0.053955,0.161823,-0.061246,-0.847398,-0.006196,0.111396,0.007532,-0.09465,0.009069,-0.218597,-0.190297,-0.200836,-0.14029,-0.02968,-0.026388,-0.023882,-0.108063,0.004598,-0.038684,-0.221956,0.636189,-0.137989,-0.075933,-0.190371,-0.086032,-0.208389,0.185958,0.028882,0.14358,0.142136,0.135304,-1.372783,0.075744,-0.505724,-0.275043,0.171238,-0.135208,0.150643,0.152437,-0.13396,0.13764,0.180023,0.007785,-0.1005,0.091626,-0.44304,-0.056869,0.016698,-0.027669,-0.126078,-0.026369,0.008412,-0.139542,0.120129,0.12177,0.023075,-0.210671,0.412519,0.003284,0.017896,0.162434,0.182278,0.382975,0.229111,-0.131473,-0.174003,0.407926,-0.614154,0.073192,0.083894,-0.153559,0.126636,0.20613,-0.037537,0.215003,0.129307,0.200632,0.029199,-0.077879,-0.017755,-0.04219,0.036577,0.285471,0.146344,0.241594,-0.118426,0.3586,-0.03042,0.120622,-0.578727,-0.362179,0.116721,-0.074631,-0.128967,-0.139739,0.185629,0.252021,0.597836,0.285095,0.506108,0.007725,0.077811,0.253498,-0.135206,-0.152067,0.147403,-0.019676,0.073804,0.06669,0.026361,0.008051,0.018729,-0.075904,-0.06933,0.056325,-0.041719,-0.057111,0.023312,-0.165662,-0.231,0.07322,-0.173362,0.556487,0.464358,0.105609,0.16526,-0.06663,0.088218,-0.031049,-0.436242,-0.523839,-0.074185,-0.637721,0.020673,0.140598,0.046605,-0.090521,0.117136,0.102071,-0.0106,0.15114,-0.10026,0.04125,0.038148,-0.228807,0.108915,-0.07424,0.017339,-0.034493,0.060864,-0.02141,-0.13682,-0.161306,0.025259,-0.186827,-0.053159,-0.283659,0.013476,-0.013485,-0.126046,-0.093269,-0.324054,-0.314014,-0.480136,0.172533,-0.134998,-0.103505,0.072349,-0.188222,-0.106233,-0.049303,-0.05007,0.197095,0.097311,-0.098852,0.174266,0.076235,-0.069005,0.047112,0.019785,0.24452,-0.23507,-0.094759,0.02919,0.090102,-0.136408,0.070181,0.163035,0.460228,0.091138,-0.021499,-0.030915,-0.008663,-0.190805,-0.33635,-0.050389,0.396592,-0.005434,0.023728,-0.034079,0.067651,0.291033,-0.039075,0.051171,0.211869,-0.292519,-0.025903,0.067947,-0.014776,-0.118786,-0.03431,-0.191454,-0.147414,-0.29045,0.232491,0.105841,0.058201,-0.12869,0.23494,0.10938,-0.111443,-0.158799,-0.254223,-0.025173,-0.113826,0.062372,-0.193728,0.265249,0.287127,-1.034857,-0.003456,-0.164863,-0.567046,-0.022398,-0.682874,-0.323647,-0.109416,-0.102374,0.193574,0.25971,0.111461,-0.174308,0.019645,0.056197,-0.068264,-0.156072,0.052811,-0.076443,-0.114923,-0.055771,-0.180509,0.048693,-0.009471,0.063079,0.148286,0.084983,-0.048822,0.2252,0.148653,-0.069041,0.366943,0.250157,-0.478128,-0.15509,-0.343347,-0.413255,-0.028412,0.287862,-0.106356,0.065389,0.171645,0.016834,0.193799,0.072638,0.015857,-0.098224,0.036317,-0.020676,-0.081966,0.00465,-0.174363,0.153927,-0.116488,-0.069746,-0.042793,-0.158253,0.063487,-0.162893,-0.394152,0.156775,0.000572,0.221096,0.127449,-0.260816,-0.381983,0.067431,0.008643,0.195623,-0.584947,0.181176,0.017135,-0.192369,-0.02124,0.261297,0.169093,0.101467,0.178562,0.147134,-0.034573,-0.066471,0.091421,0.102611,0.031301,-0.033848,0.143453,-0.026769,0.156868,0.131162,0.122991,0.123766,0.137332,-0.01767,-0.18186,-0.11707,0.092207,-0.083858,-0.461355,-0.291013,0.129177,-0.167581,-0.244063,0.468011,-0.048984,-0.134246,-0.16413,-0.00741,-0.253717,-0.020997,0.095001,-0.218619,-0.118623,-0.141258,0.181272,-0.021991,-0.177622,-0.200293,0.097601,0.081855,-0.011752,-0.073042,-0.273723,-0.147017,-0.054104,-0.013872,0.010908,0.221287,-0.035144,0.025758,-0.131404,-0.382245,-0.567288,-0.09626,-0.018821,0.291736,-0.299073,0.096658,0.085862,-0.151329,-0.188767,0.253564,-0.023115,-0.096882,0.129563,0.008992,-0.000431,-0.096011,0.096857,-0.064574,0.085656,-0.000559,0.143856,-0.065852,-0.022783,0.901961,-0.02762,-0.04241,-0.168356,-0.214476,-0.249713,0.285745,0.203795,0.062726,-0.116296,0.209773,-1.01305,-0.021152,-0.779952,0.186897,0.095824,0.263926,0.072638,0.031777,-0.036372,0.330504,0.041312,-0.176482,0.218918,0.179331,-0.604156,-0.034389,0.125287,0.121656,-0.014399,-0.096969,0.122232,-0.128909,-0.06314,0.067565,0.200683,0.018584,0.315664,-0.093364,0.024179,0.029792,0.039071,0.51427,0.371246,0.350796,0.019198,0.048161,-0.116192,-0.029815,0.108536,0.207187,-0.002928,-0.21528,0.049047,0.027062,-0.001131,-0.058036,-0.222763,-0.206107,-0.057574,-0.127472,-0.231299,0.04904,-0.161392,-0.185704,-0.245748,-0.02535,-0.062446,0.167366,-0.550406,-0.050938,0.10181,-0.168757,-0.074602,-0.107561,-0.276733,-0.366745,1.285266,0.248944,1.169563,-0.028462,-0.129216,0.06208,0.200064,-0.498405,0.229202,-0.060389,-0.17784,0.157559,-0.104509,-0.069068,-0.060398,-0.04403,0.087594,-0.173749,-0.133964,0.177619,0.070843,0.008123,0.024276,-0.002996,-0.116065,0.356641,0.229886,0.105668,-0.063027,-0.131933,0.0029,0.272136,0.168248,-0.248356,-0.010732,-0.950956,0.11935,-0.192943,0.377942,-0.141802,0.082169,-0.194691,-0.151844,-0.053761,0.100509,-0.203128,-0.199241,-0.276944,-0.014737,-0.216662,0.021527,-0.013689,-0.030912,0.06129,0.187057,-0.114612,0.046857,-0.217769,0.263121,0.212958,0.071656,0.099951,0.046128,-0.193664,0.113908,0.214644,0.252897,0.157504,-0.189645,0.503093,-0.099672,0.095345,0.039824,0.16416,-0.116611,-0.226432,-0.207285,-0.224033,-0.156949,-0.17227,-0.285734,-0.124636,0.015506,-0.214711,0.068099,-0.178849,0.031448,0.105063,-0.231422,-0.0976,-0.024159,0.030966,0.002774,-0.041153,-0.036054,-0.045564,0.020709,-0.38356,-0.193747,0.590545,0.259272,0.551353,0.347793,-0.088784,-0.513699,0.1129,-0.16391,0.136301,-0.019339,0.050193,0.102943,0.221751,0.050126,0.100299,-0.178513,-0.013485,0.14743,-0.0588,-0.064242,0.047683,-0.002944,0.170572,0.004586,-0.006325,-0.453069,-0.36196,0.158522,0.081964,0.273095,-0.020358,-0.341103,-0.200808,0.308771,-0.069384,0.954808,-0.018024,0.100189,0.130981,0.11317,-0.195617,0.207175,0.014675,-0.105039,0.298155,0.30406,0.177192,0.186139,0.058285,-0.001688,-0.046342,-0.095394,0.16717,0.269565,-0.087159,-0.056542,-0.011617,-0.091657,0.132198,-0.272622,0.249777,-0.068202,-0.01684,0.06087,0.233816,0.320096,-0.082409,-0.00154,-0.316662,-0.400949,0.131358,0.159336,-0.143916,-0.111804,0.15858,0.219537,0.224968,0.099541,-0.028318,-0.116275,0.02917,0.108838,0.047926,0.110369,-0.042036,0.044687,0.045867,0.058344,0.09711,0.182491,-0.037431,-0.192204,-0.171095,-0.124607,-0.067695,0.041204,-0.173292,-0.168305,-0.530521,-0.464633,-0.110647,0.269796,0.25728,-0.043903,-0.331148,-0.104278,0.040797,-0.061465,-0.001252,0.208622,-0.208055,-0.199444,-0.017935,0.355789,0.144007,0.061135,0.177185,-0.111647,0.009214,-0.07148,0.030183,-0.269938,-0.096629,-0.191624,0.667618,0.238219,-0.242424,-0.095079,-0.053037,-0.08826,-0.057116,-0.135929,-0.825014,-0.047041,-0.79772,0.147371,-0.070427,-0.51504,-0.167082,0.080311,-0.14641,0.105392,0.002815,-0.023904,0.127436,0.121332,-0.223014,0.045859,-0.14602,0.012129,0.149103,-0.041818,-0.096235,0.026041,0.230002,0.151373,-0.113357,-0.326259,-0.069798,-0.030758,0.000769,-0.056321,0.036046,-0.306312,0.026062,0.555094,0.176785,0.402908,0.287669,-0.030166,-0.008909,-0.022417,0.094304,-0.236695,-0.026074,-0.115882,-0.220347,0.138147,-0.118508,0.21799,0.08813,-0.070389,-0.229085,-0.115566,-0.194126,-0.016931,0.198012,-0.456506,0.171642,0.240909,0.082401,0.095357,-0.058001,-0.166663,0.021312,0.107462,-0.378042,-0.15374,0.908583,0.242683,0.25901,0.32923,0.13907,0.086384,0.031445,-0.174488,0.17309,-0.048995,-0.159679,-0.030973,-0.196191,-0.12331,0.370053,-0.152747,-0.038574,-0.123034,-0.033583,-0.017238,-0.087235,-0.078358,-0.232624,-0.088992,-0.046876,0.348931,0.049144,0.144532,0.048088,0.079426,0.116191,-0.088035,0.048839,-0.430526,-0.036312,-0.576836,-0.122393,-0.157989,-0.022723,-0.107749,0.022527,-0.100786,0.098744,-0.01799,-0.025865,-0.057854,-0.076044,0.107276,0.102653,-0.036709,-0.205485,0.006719,0.087893,-0.203676,-0.115434,-0.318254,-0.005568,-0.179336,0.214848,-0.061907,0.065432,-0.027557,0.049367,-0.113415,-0.308639,-0.479537,-0.328776,-0.233373,0.161829,-0.29452,0.092765,-0.777969,0.032934,-0.18059,0.227125,0.086122,-0.085573,0.132654,-0.104837,-0.109066,-0.028566,0.017306,0.094512,0.083174,-0.148246,0.108993,0.126739,-0.074774,0.337068,-0.132041,0.279653,-0.487208,-0.365002,0.01153,0.014838,0.078928,-0.08397,0.278526,0.353052,0.754182,0.121219,0.493032,0.212206,-0.097156,0.052028,0.045119,-0.103334,-0.029796,-0.139649,0.097037,-0.146502,0.050099,-0.149625,0.24553,0.052107,0.078455,-0.23876,0.093315,0.05717,-0.150883],"bias":[0.084578,0.067207,-0.078336,-0.147118,-0.150765,0.097992,0.14864,-0.119536,0.153987,0.087302,-0.052988,-0.179962,-0.111678,-0.18378,0.041674,0.26851,0.172147,-0.201541,-0.099273,0.183576,-0.252483,0.015114,0.009058,-0.035466,0.003095,0.107163,0.067616,-0.086681,0.027962,0.054726,0.040588,-0.0488,-0.008451,-0.184731,-0.173067,-0.185784,-0.098723,0.114963,0.009565,0.110175,0.186839,-0.176482,-0.08031,0.1603,0.054092,0.235661,-0.067388,0.09415,0.060721,-0.145665,0.131996,-0.047724,-0.182572,0.146243,0.047707,-0.228889,-0.012178,-0.108342,-0.170808,-0.138318,-0.175837,0.205757,0.156046,-0.108168,0.173404,-0.100619,0.154589,-0.184871,0.206985,0.03779,-0.082856,-0.160046,0.091976,0.031545,0.011112,-0.038373,-0.001377,-0.131037,-0.013827,0.198443,-0.081928,0.025279,0.114361,-0.15429,0.06554,0.066021,0.164158,0.047866,-0.128304,0.11629,0.139821,0.148822,0.182712,-0.165428,-0.065249,0.130715]},{"inputSize":96,"outputSize":96,"activation":"tanh","weights":[-0.000874,0.065776,0.05352,-0.103735,0.019153,-0.316931,0.198362,-0.157589,0.204115,0.333066,0.245381,0.037667,-0.145246,-0.011066,-0.128733,0.010919,-0.161658,0.058919,0.077736,0.208945,-0.133401,0.124589,0.302362,-0.295568,0.211561,0.108525,-0.060221,0.148309,0.102344,0.02429,0.127371,-0.005538,0.144802,-0.026847,-0.209624,-0.045916,-0.058909,0.125491,-0.055195,-0.181014,0.163305,-0.022313,0.078203,-0.053799,0.206846,-0.055405,-0.049713,0.149711,0.080536,-0.039382,0.218995,-0.141712,-0.095158,0.149574,0.116532,0.128874,0.064618,0.025752,0.012569,-0.022861,-0.050011,0.160896,0.140543,-0.026047,-0.179661,0.481751,-0.06957,-0.073965,0.146965,0.005501,-0.058591,-0.172739,0.094913,-0.040228,-0.04454,-0.048201,0.20602,0.253611,-0.077478,0.319881,-0.040459,-0.050524,-0.002141,-0.229166,0.255565,0.090533,-0.058981,-0.243236,0.00716,0.093049,0.014306,-0.005658,-0.048747,0.07729,-0.153947,0.119009,0.287512,0.124309,-0.112211,-0.007922,0.205029,-0.076129,0.401185,0.251297,-0.048985,0.352483,0.343261,0.326255,-0.130125,0.34762,0.034743,-0.009438,-0.226643,0.081332,-0.158713,-0.105656,0.086454,-0.186121,0.075524,-0.083306,0.682658,-0.098526,0.324469,-0.140406,-0.388442,-0.069514,-0.249692,-0.14719,0.135731,0.054462,0.07564,0.116614,0.008403,0.067378,0.008665,-0.16755,-0.123546,0.019122,-0.120095,0.014355,0.70259,-0.123642,-0.079897,-0.101969,-0.09821,-0.713618,-0.257319,0.226735,0.230676,-0.120873,0.145033,-0.104466,-0.202413,0.067125,0.17512,0.101057,0.573556,-0.142282,-0.213196,0.18999,-0.412188,0.494466,-0.074852,0.021812,-0.143696,-0.681036,0.318451,0.204867,0.179808,0.074362,-0.032765,-0.308172,0.189272,0.188577,-0.078102,-0.136739,-0.36675,0.070055,0.26664,-0.269733,0.188618,-0.118786,-0.626934,0.014677,0.231509,0.296939,0.223955,0.007096,-0.044341,0.03925,-0.579955,0.07775,-0.038639,0.126095,-0.382148,-0.073844,-0.235261,0.111324,-0.116387,0.160848,-0.021828,0.178823,-0.042634,0.155063,0.166596,0.063041,-0.021728,0.148799,0.143511,-0.045661,0.002697,0.065788,-0.13305,0.091173,-0.006404,-0.153204,0.080751,0.18848,-0.127076,0.086168,0.038756,0.12253,-0.191205,0.15903,-0.068708,-0.011295,-0.095028,-0.232234,0.033288,-0.099763,0.109392,0.078948,0.149087,0.048244,-0.222645,-0.177228,-0.267525,0.029685,-0.121046,0.182147,0.085303,0.251748,0.192913,-0.259051,-0.024602,-0.04048,-0.00832,0.234821,0.081079,0.096834,-0.14273,-0.163716,-0.246832,-0.115391,0.228215,-0.063628,0.054622,-0.224375,0.01678,0.024803,0.07933,-0.038378,-0.053319,-0.1579,0.004465,-0.184512,-0.016155,0.05458,0.056328,-0.092413,-0.082132,-0.035112,-0.153579,0.001358,0.384285,0.019242,-0.0095,0.323934,-0.058846,-0.076102,-0.058767,-0.421939,-0.027132,0.298539,-0.127457,0.108046,-0.133119,0.086695,-0.006953,0.201631,0.001029,-0.072957,-0.049723,-0.269157,0.095459,-0.164882,0.135179,0.239277,0.218189,-0.134636,-0.190282,-0.083125,-0.079788,-0.025938,-0.071924,0.085643,0.111145,0.105341,-0.211515,0.140272,0.235583,-0.208997,0.156824,0.18396,-0.079183,0.301356,0.096354,-0.051157,0.130386,-0.004424,0.186364,-0.026519,-0.276214,-0.002595,-0.076455,0.191101,0.037623,-0.216013,0.189831,-0.048828,-0.009463,-0.070144,0.228593,0.008266,0.054559,0.065308,0.003058,-0.012167,0.101998,0.023868,-0.151528,0.219096,0.093965,-0.008906,0.135901,-0.077424,0.175505,0.059172,0.060032,0.146528,0.186156,-0.110653,-0.045613,0.421063,-0.214203,-0.110206,0.268316,0.117171,-0.048822,-0.089143,-0.044273,-0.028944,0.118379,0.05017,0.234043,0.055031,-0.233633,0.253315,-0.027396,-0.05968,-0.115258,-0.183978,0.185595,0.026091,-0.132022,-0.117083,-0.142239,0.226553,0.094665,0.030971,0.204381,0.017273,-0.073631,0.107904,0.219175,0.05503,0.203958,0.105348,0.090039,-0.02088,0.3007,0.013207,-0.162011,0.166907,0.144048,0.060622,-0.090612,0.139797,-0.044473,-0.173279,-0.190239,0.106581,0.035099,-0.098228,-0.004152,-0.184612,0.106277,0.037606,0.15145,-0.129906,0.258089,-0.100088,-0.094574,-0.044882,-0.058784,-0.225675,-0.002876,0.221941,0.126201,0.020058,-0.014073,-0.016569,-0.034101,-0.150137,-0.040278,0.138887,-0.186199,0.154692,0.481679,-0.057547,-0.140565,-0.028816,-0.018028,-0.241767,-0.276987,0.06987,0.066268,-0.14044,0.031711,-0.183036,-0.067113,0.071802,0.232129,0.050544,0.222325,-0.071838,-0.148604,-0.012035,-0.228197,0.338289,0.022736,-0.055442,-0.160815,-0.235566,0.295447,0.104272,0.116176,-0.062494,0.095797,-0.179958,0.183108,0.089276,0.088469,-0.054588,-0.211841,-0.015034,-0.105015,-0.051394,-0.012823,-0.169949,-0.366263,0.07183,0.204074,0.331079,0.01639,-0.038765,-0.042581,-0.10405,-0.174753,-0.06428,-0.08224,0.106658,-0.388804,-0.02314,-0.123806,0.109091,-0.150442,0.070784,0.072976,0.014026,-0.096164,-0.110761,0.128909,-0.083565,-0.0131,-0.020231,0.172032,0.053907,0.034526,0.185472,-0.068078,-0.044819,-0.038535,-0.115058,0.006361,0.076417,-0.120246,0.136712,0.145601,0.009617,0.001453,0.05585,-0.008299,-0.159406,-0.075745,-0.03953,0.005124,-0.154874,-0.096438,0.037206,0.142007,-0.109728,0.068388,-0.181295,-0.262989,0.122077,0.073591,0.145473,0.188061,0.319592,0.170469,-0.140658,-0.127684,0.125577,-0.067874,0.174164,0.17237,0.034903,-0.249916,-0.116143,-0.315518,-0.02538,0.136579,-0.085053,0.062919,-0.235599,-0.004327,0.041907,0.099132,0.172962,-0.232463,-0.155869,0.043041,0.084912,0.01622,0.088509,-0.001637,-0.01787,-0.093648,0.133807,0.029262,0.159516,0.26244,0.066361,-0.009298,0.204398,0.214364,0.020508,-0.065821,-0.372866,-0.08355,0.085325,0.055278,0.021218,0.04574,-0.0598,0.236398,0.289714,0.050525,-0.225827,-0.176492,0.001548,0.142598,-0.304835,0.083054,-0.145219,0.081896,-0.214053,-0.09673,-0.029826,0.02228,0.007717,0.122606,-0.114404,0.009424,0.179408,-0.045869,-0.224085,0.107108,-0.073202,-0.23993,0.089331,-0.030187,0.09755,0.042387,0.159495,-0.053094,0.179144,0.020221,0.047722,0.034293,-0.204273,-0.186695,0.130989,0.071843,-0.017732,0.097118,-0.139542,-0.246126,0.367067,0.098408,0.011564,0.0298,-0.040931,0.168024,-0.034885,0.09061,-0.148729,-0.061554,0.276435,0.108687,-0.152734,-0.091211,-0.144952,-0.167468,0.045334,-0.06416,0.116473,0.208827,-0.137625,0.03687,-0.074006,0.09105,-0.042445,0.275655,0.007724,-0.092115,-0.189491,0.121824,-0.187853,0.05317,-0.045122,-0.016572,-0.144011,-0.072438,0.152024,-0.231896,0.06338,0.029774,0.062271,-0.115867,-0.002454,0.114023,-0.101356,-0.132719,0.380013,-0.004991,0.309266,0.101099,-0.237203,-0.259257,0.166539,-0.087897,0.07946,-0.332063,-0.131546,-0.076703,-0.029878,-0.013814,0.499742,0.097534,0.341812,-0.058335,0.166539,-0.153804,-0.164487,0.089439,0.182598,0.069485,-0.146773,-0.09364,0.036618,-0.185652,0.340833,-0.173292,-0.017531,0.271169,-0.044067,-0.206589,-0.058934,0.146923,0.030582,-0.440672,-0.037734,0.121211,-0.200912,0.023191,-0.104713,0.108082,0.0446,-0.053957,0.131192,0.090471,0.032107,-0.030892,-0.207416,-0.051232,-0.095261,0.102654,0.083201,0.109198,-0.183209,0.212265,-0.05959,-0.170856,0.165954,-0.13392,0.156436,0.041461,0.048084,0.048123,0.011728,-0.237059,-0.123608,0.098667,-0.040031,-0.11638,-0.448297,0.076135,-0.08337,-0.133398,-0.273069,-0.064765,-0.10624,-0.025369,-0.056114,-0.277172,0.066915,-0.368366,-0.03291,-0.024746,-0.02806,-0.133693,0.210727,0.295385,-0.09168,0.227222,0.129137,-0.47178,0.053092,-0.044537,-0.419519,-0.195438,0.070662,0.12249,0.098568,-0.288483,0.010794,-0.00582,-0.098976,0.094453,0.127747,0.229724,0.253395,-0.391517,0.189383,-0.043443,-0.282519,-0.087936,0.389766,0.186793,0.226318,0.105783,-0.194924,-0.053385,0.137679,-0.112167,-0.086901,0.117665,-0.014489,-0.002369,0.341748,-0.260231,-0.123525,-0.165923,-0.19278,-0.026079,-0.082254,-0.061822,-0.01404,-0.209895,-0.015722,0.193422,0.039337,0.069794,-0.196275,0.005462,0.187716,-0.10263,0.101101,0.001463,-0.086057,-0.162275,0.012123,0.12368,-0.078191,-0.10625,0.217238,0.009861,0.138706,0.310594,-0.226984,-0.024536,-0.080154,-0.069368,-0.018156,0.1321,0.046505,-0.094748,-0.072092,-0.251371,0.0272,0.043427,-0.432173,-0.055071,0.227468,-0.343675,-0.00677,0.038216,0.126158,-0.048459,0.144393,-0.155388,-0.018535,0.007018,0.096665,0.168654,-0.216904,0.181506,-0.076652,-0.011418,0.241292,-0.153083,-0.037644,0.019442,0.126647,0.176449,-0.355671,-0.020707,-0.063218,-0.14059,0.18569,0.250079,-0.16199,0.242038,-0.116389,0.248473,0.022874,0.034507,0.214768,0.158752,-0.084283,-0.038014,-0.100625,-0.143168,-0.023019,-0.23127,0.235192,0.176053,-0.129248,0.053583,0.140545,0.090369,-0.063248,0.246986,-0.204019,-0.075967,-0.04358,-0.371774,-0.047139,0.077703,-0.25405,-0.08147,-0.012216,-0.116661,-0.094902,-0.330038,0.01416,0.124635,0.065788,0.042967,0.053829,0.118528,-0.186137,-0.170671,0.091177,-0.136399,0.393465,0.069841,-0.106741,-0.059403,-0.233604,-0.182056,-0.002275,-0.329143,0.248713,0.158959,0.00736,-0.042599,-0.11854,-0.022674,0.066072,0.05808,0.062075,0.076033,-0.113481,-0.144258,-0.049562,0.288683,-0.159922,0.005505,0.189279,-0.307131,-0.030531,0.097004,0.152178,0.298396,-0.110501,0.012839,-0.302163,-0.042166,0.00947,0.3086,-0.173052,0.076509,-0.130948,-0.320547,0.442714,-0.101151,-0.290057,0.073041,0.213142,0.116055,0.059962,-0.235343,-0.100001,-0.017615,-0.105338,0.059011,-0.02582,-0.126382,0.033331,-0.364407,-0.05454,-0.143391,0.184868,-0.350081,0.146397,-0.031134,0.055892,-0.104716,0.102061,-0.084576,0.005941,-0.265181,0.000947,0.019486,0.06052,-0.076999,0.066735,0.001253,-0.083179,0.046955,-0.205245,-0.105701,0.118335,0.040539,0.173672,0.08447,-0.131088,-0.198477,0.029011,-0.057337,-0.135478,0.058111,-0.165427,0.262845,-0.098835,-0.060866,0.108879,0.079763,0.044838,-0.089569,-0.18249,-0.039598,-0.072584,-0.102138,0.136561,0.194452,0.403235,0.265126,-0.229391,0.077206,-0.201245,0.009884,0.309156,-0.071914,-0.018602,-0.12673,-0.167055,-0.223053,-0.108114,0.000317,-0.166944,0.168182,-0.199672,0.046715,0.204588,-0.093773,0.009739,-0.039155,-0.065353,0.092484,-0.17078,0.332607,-0.112728,-0.075066,0.095954,0.157329,-0.214552,0.224103,-0.155097,-0.015781,0.041457,0.030193,0.289187,0.184372,-0.138583,-0.031378,-0.450834,-0.141868,0.271783,-0.029494,0.242466,0.180868,0.066187,0.138168,0.364516,-0.179118,-0.113611,-0.210023,0.162888,0.172728,-0.074796,-0.109717,-0.124777,-0.0666,-0.151841,-0.026169,-0.201507,-0.001149,0.122676,0.211085,-0.187868,0.00575,0.090139,-0.233772,-0.150078,-0.015674,0.009067,-0.179379,0.003697,0.051968,-0.034042,0.265836,0.185723,-0.113657,0.177521,-0.005733,-0.033947,0.107361,-0.149384,-0.024978,0.069668,0.156777,0.188813,0.054337,-0.214368,-0.098657,0.299513,-0.06563,0.076967,-0.017406,-0.002388,-0.00967,0.005191,-0.11887,0.046467,-0.12801,0.155481,0.031306,-0.332402,-0.052159,-0.246555,-0.018217,0.112434,-0.009926,-0.010971,0.083673,-0.025028,0.367773,-0.204568,0.134057,-0.219055,0.136662,-0.071564,-0.274208,-0.013067,0.235909,-0.235721,-0.04488,-0.155885,-0.124772,-0.239135,0.017728,0.021691,-0.15217,0.23855,-0.01893,0.105158,-0.296231,-0.067932,0.218711,0.128762,-0.193935,0.25971,-0.161099,0.164604,0.202704,-0.380867,-0.220124,0.157962,0.012914,-0.170548,0.467293,0.213093,0.161169,-0.129899,-0.293581,-0.265608,-0.055186,-0.399515,0.473282,0.222305,0.121682,0.186689,0.078486,-0.103195,-0.187184,0.122806,-0.00073,-0.043926,-0.31725,-0.015275,0.145322,0.329325,0.069785,0.005834,-0.315538,0.01703,-0.16805,-0.176441,0.409349,0.00842,0.11028,0.029839,-0.0105,0.12284,-0.050715,-0.102647,-0.009645,-0.042029,-0.041465,0.133552,0.381547,0.235862,-0.25301,-0.116936,0.256807,0.037753,-0.121761,0.101071,-0.143792,0.150353,0.127885,-0.16757,0.005632,-0.122832,-0.280787,-0.010843,0.006944,-0.030734,-0.052034,0.352884,-0.058818,0.103376,0.029121,0.155128,-0.088469,0.018148,0.049596,0.030232,0.211782,0.038658,-0.26698,0.267563,0.267217,-0.070022,0.093065,0.121013,0.020898,0.103233,0.113821,0.030646,-0.197081,-0.378763,-0.041148,-0.049902,0.052848,-0.076785,0.059739,0.288123,0.603777,-0.119068,-0.163677,0.221628,0.338978,-0.136234,0.171844,-0.118775,0.191144,0.163882,0.169803,0.152758,-0.116291,-0.094436,-0.166507,-0.081228,-0.161159,0.188241,-0.185387,0.138031,0.097069,-0.039138,-0.126347,-0.036819,-0.007964,-0.21378,0.343378,-0.377516,-0.157882,0.040377,-0.292465,-0.17828,-0.050796,-0.154433,-0.097313,-0.060957,-0.008606,-0.127071,-0.260692,0.015953,0.162276,0.078027,0.136513,-0.218781,0.256914,-0.080593,-0.187649,0.052371,-0.157164,0.171551,-0.133006,-0.207894,0.084327,-0.23294,-0.040046,0.075751,-0.181131,0.071122,0.173005,-0.215006,-0.065698,-0.137185,-0.058916,0.145015,0.017396,0.119478,-0.006864,-0.226804,-0.125942,0.040152,0.150987,-0.374855,-0.042555,0.160437,-0.348352,-0.109333,0.060557,0.199136,0.166028,0.036496,0.038588,-0.143516,0.037124,-0.057891,0.328523,-0.383358,0.143137,-0.06143,-0.110726,0.307925,-0.00837,-0.143305,0.184171,0.250475,0.274694,-0.155697,-0.251092,0.014903,-0.179874,0.062527,0.126574,0.077539,0.096305,-0.287798,0.404988,0.204937,0.10746,-0.088884,-0.204859,-0.566674,-0.131679,-0.390498,0.088746,-0.033771,-0.053109,0.081874,-0.021636,-0.125752,-0.113645,0.078196,0.016688,-0.002065,0.042465,-0.390026,0.150873,0.232499,-0.24868,-0.026845,0.176574,-0.070387,-0.087868,-0.137313,0.418575,-0.091098,-0.032848,0.283851,0.007448,-0.00766,-0.07395,0.041095,-0.02995,-0.094807,0.03713,0.109907,0.140666,0.230222,0.016621,-0.001283,0.022477,0.028752,-0.138434,0.243423,-0.037577,0.083759,-0.034302,0.046213,0.124537,-0.259562,-0.090274,0.078997,-0.032852,0.024397,0.062581,0.169681,-0.125346,0.055855,0.337425,0.335616,-0.253667,0.054159,0.146867,0.272747,0.217248,0.135165,-0.01328,0.072136,0.298469,-0.266964,0.441445,-0.156978,0.240061,0.04682,0.083035,-0.136764,-0.455567,0.021879,-0.181723,-0.231729,0.451199,-0.032187,0.05157,0.659908,0.033395,-0.147737,-0.198305,-0.129986,0.525187,-0.055315,-0.154495,-0.112763,-0.000209,-0.050849,0.020032,0.405314,-0.181106,0.203928,-0.111211,-0.267029,-0.112148,0.101951,0.196028,0.085158,0.051683,-0.105529,0.172866,0.121652,0.014547,-0.173347,0.066919,-0.018267,-0.123737,0.335015,-0.154068,-0.143621,-0.010544,-0.339838,-0.00336,-0.130839,-0.010713,-0.109733,-0.213798,-0.074099,0.297094,-0.010131,0.061929,-0.129818,0.006074,0.158161,-0.178504,-0.03731,-0.036831,0.079848,-0.141655,0.051695,0.168999,-0.235741,-0.030939,-0.002641,-0.094362,0.101699,0.263546,-0.113136,-0.17561,-0.20453,-0.051731,0.064446,0.028951,-0.024742,-0.08047,-0.04071,-0.091284,-0.037158,0.135623,-0.523962,0.072713,0.02959,-0.337143,-0.048671,0.046752,0.270675,-0.01886,0.165223,-0.117748,-0.003562,-0.278481,-0.135919,-0.014195,-0.231801,0.057033,-0.020645,-0.002873,0.25749,-0.014823,-0.035088,0.097657,0.273167,0.01113,-0.101023,-0.123668,-0.009262,-0.125576,0.005968,0.179495,-0.163734,0.07035,-0.041439,0.285356,0.164103,0.222569,-0.033418,-0.354903,-0.220525,-0.17086,-0.310548,0.149315,0.258519,-0.101492,0.112703,-0.030919,-0.087494,-0.07402,0.079451,-0.090938,-0.10622,-0.116547,-0.089156,-0.100472,0.394871,-0.101555,-0.102288,-0.260953,0.010977,-0.069535,0.109084,0.121117,-0.08208,0.062332,-0.030602,0.064019,0.119086,0.010398,0.054074,-0.227522,-0.059055,-0.105257,-0.036883,0.291897,0.055711,-0.112232,-0.087962,0.218822,0.034889,-0.084303,-0.012503,-0.161289,-0.032213,0.047577,-0.208824,0.004311,-0.240136,-0.163099,-0.037645,0.243742,-0.042048,0.027174,0.149251,-0.115796,0.157236,-0.084976,-0.0264,-0.035535,0.045242,0.057486,0.102616,0.145184,0.1201,-0.198376,0.10446,0.452311,-0.110983,-0.088095,0.09178,0.090514,-0.146135,0.095055,-0.026271,-0.294694,-0.249881,-0.06876,-0.068122,-0.044795,-0.069414,0.107971,0.355079,0.307269,-0.116784,-0.04786,0.078455,0.225173,-0.113031,-0.041393,0.150047,-0.476947,-0.010361,0.000492,-0.131258,-0.235242,0.187312,0.056616,0.114908,0.188267,0.220368,0.07352,-0.119157,-0.044244,0.055158,-0.156008,-0.053219,-0.020773,-0.071167,-0.16599,0.271079,0.055203,-0.102541,0.265972,0.104835,-0.273445,0.089958,0.181708,0.078405,-0.10827,0.231058,0.187176,-0.013721,-0.037623,0.011006,-0.048777,-0.080148,-0.12337,-0.001393,0.01163,-0.077875,0.249203,-0.40844,-0.128721,0.132275,-0.016564,0.166488,-0.063128,0.029395,0.169842,0.050594,0.01249,0.123584,0.046876,0.286069,-0.014,-0.1219,-0.149756,0.019764,-0.141711,0.119454,0.06032,0.070518,-0.263531,0.020666,0.113188,0.050712,-0.083847,-0.176734,-0.029497,-0.096236,-0.101653,0.082853,0.05221,0.113229,0.025076,0.209277,-0.123153,0.042087,-0.227325,0.166675,0.353444,-0.14869,0.082407,0.20487,-0.166828,-0.194044,0.04223,-0.208206,0.050231,-0.042251,0.044243,0.238987,-0.090176,-0.061844,-0.019337,-0.293783,0.215645,0.126419,0.08311,0.289312,-0.08956,0.283094,-0.122506,-0.197717,-0.232079,0.257391,0.012688,0.152676,0.126103,-0.127886,0.020386,0.147459,0.010361,-0.173792,0.071476,-0.121921,-0.116617,0.155214,-0.291746,-0.264769,-0.105355,-0.265035,-0.01992,0.062915,0.023564,-0.109974,-0.192221,-0.093654,0.132417,0.157021,0.009291,-0.056367,0.062968,0.005101,-0.262947,0.001034,-0.047544,0.139686,-0.204752,0.054725,0.053044,-0.237149,-0.231813,0.062569,-0.189767,0.138402,0.183357,-0.15291,-0.207093,-0.223641,-0.13853,0.133392,-0.04409,0.085409,-0.108507,-0.157341,-0.119433,0.048595,0.014242,-0.566247,0.019814,0.225592,-0.369723,-0.184359,0.036104,0.267866,-0.078964,-0.008497,-0.093227,0.024857,-0.263552,-0.051918,0.221053,-0.190342,0.255569,0.021423,-0.04165,0.369953,-0.180451,0.062341,0.095892,0.082382,0.103249,-0.393787,-0.078969,0.013746,-0.151337,-0.062017,0.092905,-0.057463,0.066199,-0.018608,0.083391,-0.195054,-0.059313,0.038373,-0.187783,-0.222221,0.046889,0.094602,0.111539,-0.085578,0.076349,0.067515,-0.257359,-0.020211,0.053848,0.070625,0.128319,0.189883,-0.235913,-0.148914,0.039383,-0.023494,0.00283,0.144479,-0.037481,0.04323,0.011013,-0.000398,0.17737,-0.061545,0.114166,-0.109277,-0.090247,-0.162567,-0.089053,-0.032448,-0.05741,0.069271,0.10672,-0.043559,-0.166188,0.039577,-0.148322,-0.010016,-0.037575,0.215747,0.180244,0.119018,0.219611,-0.247938,-0.086316,0.157562,0.07393,0.161075,-0.104316,0.080634,-0.140926,-0.178125,-0.329148,-0.085669,0.249865,-0.175699,-0.029834,0.005631,-0.035767,0.181669,0.266726,0.379245,-0.136624,-0.268775,-0.038265,0.036662,0.066871,-0.152891,-0.044669,0.170656,-0.098107,0.181312,-0.016255,0.096827,0.000939,-0.061109,0.207015,0.227084,0.112342,-0.237516,-0.118742,-0.006856,0.027533,0.047379,-0.066073,0.060738,0.074299,0.14223,0.077426,0.186011,-0.269052,-0.056397,-0.044683,0.060312,0.139408,-0.276372,0.095365,-0.068091,-0.117808,-0.282454,7e-06,-0.06839,-0.024577,0.052245,0.156508,-0.129864,-0.076253,-0.01448,-0.160847,-0.190968,0.032928,-0.051842,-0.288993,0.03228,-0.012258,-0.111923,0.171044,0.132832,-0.108039,0.22381,-0.054644,-0.09075,0.166309,-0.129443,-0.149472,-0.033621,0.132594,0.18943,0.173064,-0.11015,-0.043768,0.242861,0.049525,0.211046,-0.053933,-0.099214,0.101727,0.052394,-0.029415,0.050267,-0.149582,0.258074,-0.022901,-0.207872,0.013495,-0.250821,-0.186556,0.118566,-0.121661,0.064317,0.125118,0.037889,0.338391,-0.21119,0.174588,-0.079847,-0.019201,-0.094376,-0.115162,-0.012171,0.269062,-0.221973,0.075112,-0.139348,-0.136088,-0.25481,-0.044988,0.218875,-0.170501,0.180937,-0.108932,-0.028899,-0.229212,0.017434,0.195057,0.078553,-0.104204,0.097718,-0.213516,0.264364,0.113528,-0.363377,-0.209971,0.188152,0.114736,0.193115,0.018709,0.02076,-0.14041,-0.317289,0.210301,-0.26738,0.167298,0.149317,0.19501,-0.217886,-0.157552,-0.08509,-0.216914,0.141329,0.110708,-0.129843,0.135002,0.147229,-0.155309,0.047888,0.110065,-0.28466,0.297234,0.133847,0.075321,0.189946,0.151361,-0.029974,0.063702,0.072052,0.172363,-0.019467,-0.302808,-0.153596,0.011534,0.00942,-0.024131,-0.178927,0.283805,-0.087911,-0.008847,-0.181959,0.139349,0.082146,0.030348,0.294374,0.223309,-0.104711,0.213321,-0.162086,-0.233261,0.083493,0.10091,0.211381,0.149605,-0.097854,-0.026478,-0.107569,-0.058573,0.053819,0.076669,-0.088051,-0.044814,0.497281,0.008723,-0.042876,0.322627,0.08947,-0.1055,-0.215247,0.056384,-0.056108,0.131526,0.14367,0.254858,0.078135,-0.141118,0.322136,-0.148481,0.125211,-0.042627,-0.252494,0.196372,-0.01522,0.060323,-0.264309,-0.160195,0.189029,0.104753,0.021546,0.073339,0.087335,-0.115307,-0.087318,0.248022,-0.252138,0.451274,0.18492,0.132266,0.178289,-0.202954,-0.626311,0.00319,-0.24437,0.03252,-0.10758,0.129775,0.088785,0.010986,-0.112349,0.045189,0.0925,0.003668,-0.05859,0.088772,-0.431332,0.038532,0.199742,-0.381006,0.020239,0.216438,0.030604,-0.24019,-0.08576,0.545201,-0.070044,-0.140397,0.260776,-0.05761,-0.007906,-0.156017,-0.041106,0.032341,0.020067,-0.040954,0.091977,0.204962,0.371812,0.150875,-0.078622,0.029328,-0.051256,-0.024343,0.309428,-0.172409,0.182443,-0.032522,-0.032246,0.199945,-0.325525,0.092809,0.09029,-0.0459,0.010878,0.263954,0.110651,-0.001847,0.020251,0.233072,0.347286,-0.172919,0.054742,0.138116,0.283509,0.104936,0.039648,0.151572,0.034813,0.193125,-0.193667,0.292822,-0.006249,0.280608,-0.006288,0.265063,-0.165177,-0.373074,0.076161,-0.2823,-0.191743,0.297559,0.068329,0.048959,0.617186,0.082312,-0.127387,-0.04411,-0.321728,0.416982,0.088241,-0.112712,-0.2515,0.042408,-0.036839,0.063672,0.121516,-0.230021,0.135767,-0.123261,-0.197037,-0.123034,0.057425,0.041515,0.073026,0.036489,-0.04273,0.035545,-0.021044,-0.087901,-0.035708,0.078308,-0.047218,-0.010187,0.187758,-0.16287,-0.183931,1.6e-05,-0.258627,0.025836,0.095986,-0.130001,-0.021066,-0.082589,-0.011946,0.226163,-0.040476,0.095094,0.01555,-0.078236,0.227349,-0.081874,-0.112048,-0.008872,0.046446,-0.07967,0.073313,0.089342,-0.113924,-0.114367,-0.059822,-0.131169,0.029794,0.314636,-0.191248,-0.180169,-0.288839,-0.000146,0.004635,-0.011556,0.07347,0.017443,-0.041119,-0.221612,0.001699,-0.013622,-0.296851,0.099953,0.136524,-0.222591,-0.115618,0.080497,0.206232,-0.023477,0.136459,-0.128608,-0.005897,-0.226032,-0.138716,0.083351,-0.301298,0.088943,-0.026117,-0.069992,0.261089,-0.21625,0.003327,0.004719,0.286565,-0.000478,-0.135713,-0.123781,-0.014364,-0.008876,-0.119985,0.078902,-0.160046,0.032487,-0.314464,0.239391,0.014504,0.04871,0.141109,-0.246332,0.237235,-0.040821,-0.240979,-0.100507,0.377048,0.105258,0.190843,0.043732,-0.101885,0.063677,0.030077,0.000504,-0.208423,0.067954,-0.046861,-0.028556,0.310239,-0.132036,-0.220846,0.099691,-0.235553,-0.22587,-0.10904,0.00904,-0.040249,-0.19897,0.07884,0.118426,0.104024,0.047327,-0.043421,0.196043,0.076622,-0.109107,0.149046,-0.15993,0.191572,-0.020961,-0.054707,0.099631,-0.109866,-0.184104,0.024499,-0.144606,0.118982,0.18461,-0.133495,-0.045544,0.011143,-0.061461,0.059782,0.028747,0.043018,-0.051638,-0.156575,-0.021775,0.00868,-0.162713,-0.50418,0.095624,0.266585,-0.27006,-0.082213,0.143752,0.15101,-0.037193,-0.002643,-0.14965,-0.016175,-0.109648,0.09958,0.018928,-0.262492,0.128117,-0.074013,0.151527,0.34651,0.051201,0.013339,-0.00308,0.013078,0.068708,-0.409597,-0.060934,-0.034447,-0.099054,0.206307,0.159568,-0.093284,0.318938,-0.067665,0.483089,-0.048804,0.085134,0.224523,0.121641,-0.205218,-0.22126,-0.058324,-0.086211,-0.095403,-0.172422,0.013414,0.051492,0.015089,0.033475,-0.001765,-0.104475,-0.079999,0.079993,-0.252296,-0.031435,0.059463,-0.350639,-0.005078,0.108288,-0.197532,-0.162721,-0.02373,0.113796,-0.079879,-0.153308,0.012424,0.049791,0.014959,0.197516,-0.027095,0.065062,-0.157227,-0.080397,0.014548,-0.091015,0.319049,0.02369,-0.006709,0.074058,-0.143353,-0.031621,0.131645,-0.077417,0.140835,0.190636,-0.032342,-0.060857,-0.223756,-0.014901,0.098308,0.245642,0.196933,0.133224,-0.100588,-0.171669,0.133259,0.319728,-0.152794,0.01567,0.133018,-0.034546,0.020133,0.13014,0.140721,0.19893,0.07686,0.168512,-0.286855,0.04103,0.013464,0.197451,-0.132101,0.141756,-0.01024,-0.461637,0.037665,-0.168332,-0.249148,0.17573,0.130348,0.220479,0.264304,-0.171979,-0.037057,-0.0191,-0.24039,0.141856,-0.086447,-0.335889,0.171009,-0.218652,-0.121213,-0.118313,-0.657189,0.033764,0.320847,0.18334,0.373726,0.137905,-0.098921,0.074576,-0.261764,-0.085903,0.120474,-0.042032,-0.046732,-0.003297,0.185334,0.099683,0.504367,-0.020722,-0.046558,0.530213,0.126312,0.094333,0.19093,0.150423,-0.050539,0.011935,0.028511,0.244473,-0.028783,-0.352873,-0.033976,-0.039426,0.005682,-0.146973,0.140937,0.070652,0.029493,0.155069,-0.313588,0.023665,0.081813,-0.049287,0.235689,0.085513,-0.250652,0.292104,-0.068697,-0.142053,-0.01567,0.038478,0.325618,0.324093,-0.130933,-0.154632,-0.211861,-0.04717,0.287761,0.223016,-0.100799,-0.546842,0.281124,0.012338,-0.21907,0.184209,0.048021,-0.044922,-0.225344,-0.329868,0.001742,-0.398921,0.337137,-0.030199,-0.024902,-0.319207,0.279769,-0.204548,0.082812,0.419758,-0.28895,0.156219,0.362246,-0.258947,-0.387735,-0.115325,-0.131787,0.309964,0.001998,0.003392,0.347315,-0.113843,-0.021136,-0.106047,-0.126213,0.502674,0.211951,0.159173,0.051596,-0.135006,-0.254697,-0.120881,-0.253941,0.084069,-0.066567,-0.036573,-0.11422,0.13154,-0.148561,0.041293,0.06922,-0.098232,-0.154995,0.146889,-0.105999,-0.04734,0.182925,-0.260584,-0.099924,-0.030683,-0.15366,-0.040687,-0.154477,0.178932,-0.137497,-0.053385,0.093564,0.011422,0.233245,0.083237,-0.039806,-0.111498,0.031159,-0.079756,0.055744,0.17822,-0.012414,0.067126,0.035984,0.01284,-0.226582,-0.182879,-0.106113,-0.167962,0.099528,0.077759,-0.102645,-0.042965,-0.278668,-0.08002,-0.103863,0.082597,0.175302,0.261185,-0.058907,-0.13661,0.088744,0.204275,0.140221,-0.151411,-0.031227,-0.161146,-0.065769,0.04919,0.060891,-0.094299,0.059546,-0.052687,0.000141,-0.034588,0.077443,0.236241,-0.115364,0.279078,-0.075955,-0.439631,0.049755,-0.076566,-0.161426,0.230877,0.15424,0.163508,0.221868,0.085839,-0.115476,0.085406,-0.097383,0.153536,-0.203396,0.131684,0.159894,-0.010986,-0.221849,-0.014584,-0.052513,0.12501,0.00573,0.085953,0.01789,-0.054018,-0.123602,-0.159705,0.114387,-0.174573,0.050844,-0.055523,-0.101442,0.12304,0.194255,-0.193476,-0.236587,0.093625,0.004612,-0.017443,-0.047496,0.122309,-0.101431,-0.015588,0.076862,-0.095655,0.007547,-0.03686,0.056631,-0.02784,-0.141268,-0.251604,0.145472,0.201576,-0.183199,0.047789,-0.060185,-0.220847,0.042637,7.1e-05,-0.006889,0.003101,0.084535,0.103181,0.057974,-0.013501,-0.121082,-0.153103,0.228953,-0.015528,-0.03769,-0.136509,0.11185,0.195303,-0.08066,-0.195855,0.023671,0.178403,-0.169838,-0.090407,-0.094803,-0.027059,0.166994,0.04186,0.131494,-0.031509,-0.161292,0.1845,-0.274388,0.270112,-0.130003,0.197696,-0.054395,-0.109254,0.322333,-0.194014,0.073911,0.189689,0.103287,-0.099376,0.103768,0.149217,0.008853,-0.281445,0.19692,-0.030743,0.219702,-0.091797,-0.01836,-0.364741,0.264903,-0.052913,-0.18854,0.24598,0.287287,0.171139,-0.175785,-0.280841,0.214393,-0.09211,0.068126,0.036136,0.369254,-0.082618,0.143618,0.124412,-0.12093,-0.122453,0.099475,-0.09006,-0.208127,0.262683,0.295439,-0.168244,0.165,0.187799,0.004972,0.088798,0.000605,0.005128,-0.025933,0.213092,-0.102159,0.111925,-0.01589,-0.201173,0.250024,0.098998,-0.014321,0.011292,-0.044087,-0.219235,0.051878,0.062029,-0.32368,-0.149423,-0.051177,0.113281,0.023939,-0.148797,0.091573,-0.050254,0.138908,0.188487,-0.158616,0.07823,0.086744,-0.131622,0.199524,0.13517,-0.123212,0.120208,-0.155448,-0.137222,-0.018592,-0.151335,0.133514,-0.173587,0.175521,-0.218016,0.057704,0.134741,0.054381,-0.158267,0.186226,-0.030508,0.049159,-0.045409,0.245961,0.148548,-0.062703,0.266019,-0.067295,0.091902,0.040255,0.191466,-0.002826,-0.179699,-0.066746,0.182649,-0.194203,0.17552,-0.192694,-0.129682,0.335963,0.327035,-0.076529,0.006728,0.165358,-0.05358,-0.048323,-0.1071,-0.209909,0.123209,-0.051662,0.252862,0.337922,0.189981,-0.033037,-0.192279,-0.183508,-0.082457,-0.017442,-0.085859,0.085408,0.09032,0.133015,0.028557,0.112396,0.185246,-0.118629,0.255788,0.001786,-0.081221,0.084419,0.015994,-0.061893,-0.018313,-0.05469,0.164198,-0.078917,-0.339946,0.086192,-0.149594,0.055425,-0.054296,-0.150688,0.178586,0.042223,-0.089306,-0.12419,0.136788,0.029515,-0.111945,0.017946,0.094923,-0.072553,0.058729,-0.082337,-0.032953,0.170102,0.173796,0.163847,0.146881,-0.002618,0.140461,-0.131267,-0.106392,0.100844,0.136089,0.095901,-0.088073,0.397286,-0.099174,-0.090804,0.212637,0.13451,-0.089119,-0.126553,0.058591,-0.059781,-0.027115,0.045557,0.22441,0.211297,-0.30716,0.184366,-0.184464,-0.061117,0.046779,-0.153227,0.133001,0.162657,-0.031585,-0.230231,-0.121709,0.13934,0.104923,0.004551,0.060615,0.116196,-0.273286,-0.059767,0.358775,-0.131907,0.162517,-0.070922,0.131246,0.531906,-0.112806,-0.169031,-0.284952,-0.330347,-0.111201,0.240406,-0.086849,0.083261,0.120313,-0.161586,0.010046,0.151405,0.048884,-0.155994,0.086885,-0.359873,-0.005306,0.087461,-0.350581,-0.125095,-0.033276,-0.207899,-0.213848,-0.025582,0.079625,-0.151963,-0.263948,-0.042893,0.212603,0.122478,0.065046,-0.130249,0.129691,-0.031144,-0.141186,0.06622,-0.158908,0.26849,-0.142882,-0.003251,-0.04419,-0.1619,-0.133894,0.302344,-0.231689,-0.009913,0.087143,-0.191919,-0.055653,-0.171917,-0.200406,0.106034,0.094642,0.057243,0.069666,-0.214139,-0.192206,0.062727,0.382599,-0.391624,-0.042238,0.149169,-0.16947,-0.060662,0.227776,0.072373,0.132745,-0.000465,0.349829,-0.372405,-0.032957,-0.085387,0.310266,-0.334948,0.238328,0.081543,-0.280684,0.222346,-0.150076,-0.107754,0.255398,0.300994,0.10074,0.078034,-0.16922,0.060028,-0.113964,-0.131726,0.182471,0.017264,-0.314003,-0.220583,0.078497,0.025097,-0.202616,0.080612,-0.478559,-0.062942,0.010402,-0.379537,-0.166938,-0.186076,0.132394,-0.171608,0.132897,0.014974,0.238715,-0.027347,-0.020193,0.120009,0.066882,0.267115,-0.138184,0.127338,-0.392115,0.007914,-0.268488,0.113093,0.278154,0.09812,0.229519,0.026539,-0.077747,-0.267336,-0.01749,-0.049039,0.038926,0.010466,-0.135119,0.080536,-0.009465,-0.122837,0.018997,-0.021274,-0.706724,0.00995,0.017208,0.025836,0.030292,0.510787,0.207641,-0.06527,-0.151738,0.101422,-0.08016,0.191005,0.105013,-0.009375,-0.061748,-0.018569,-0.501977,0.274058,0.131152,-0.054986,0.39567,-0.507798,0.059833,0.02442,0.05307,0.497006,-0.228847,-0.091786,-0.193088,-0.011733,-0.034266,0.239828,-0.264651,-0.064372,0.0373,0.053064,0.354064,0.094046,-0.086843,0.182995,-0.059143,0.051106,0.384857,-0.034925,-0.096366,-0.323801,-0.156801,0.063486,0.029815,0.175027,0.409634,-0.059537,0.1999,0.000297,0.080748,-0.209361,-0.211197,-0.023999,0.042888,0.066824,0.098748,-0.069658,-0.008928,-0.160544,-0.095257,0.083646,-0.09795,0.030948,-0.201959,0.056762,-0.00713,0.20532,-0.202183,-0.250824,0.035077,-0.06471,0.036488,0.138627,-0.027774,-0.014626,-0.032298,-0.107229,0.034275,0.006086,-0.175675,-0.063648,0.032051,-0.223487,-0.186149,0.123305,0.268122,-0.221754,0.110999,0.000948,-0.17359,0.187091,-0.102946,-0.025982,-0.123101,0.07099,0.064439,0.058676,-0.094736,-0.112883,-0.095837,0.207918,0.0335,0.004234,-0.159731,0.102155,0.182968,-0.086954,-0.173302,-0.005669,0.251623,-0.274878,0.04662,-0.16084,-0.090388,0.204277,-0.001425,-0.022994,0.077125,-0.054023,0.229163,-0.294692,0.207738,-0.14041,0.166924,0.055456,-0.144582,0.20213,-0.201531,0.060788,0.134854,0.074798,-0.165102,-0.023562,0.060106,0.029251,-0.134885,0.084498,-0.221659,0.421445,-0.023151,-0.045648,-0.259645,0.292177,0.079121,0.316776,-0.256427,-0.061297,-0.190807,0.243578,0.063136,-0.117158,-0.048087,-0.096382,-0.225312,-0.444701,0.007624,-0.062525,0.069939,0.111847,0.258183,-0.018429,-0.094212,0.064268,-0.030886,-0.343678,0.005176,-0.140657,-0.420596,-0.016897,0.06012,-0.093531,0.195182,0.19481,-0.121485,0.295006,-0.02807,0.05328,0.314131,-0.039841,0.051814,0.16113,0.161323,0.250287,0.13368,-0.04827,0.005462,0.220109,-0.137089,0.147871,-0.224998,-0.203739,0.036182,-0.088651,-0.057105,-0.005116,-0.070162,0.231979,-0.092894,-0.250121,0.113187,-0.16565,-0.08339,0.15252,0.049444,-0.086993,0.094083,0.013219,0.421973,-0.206196,0.0518,-0.097646,-0.065341,-0.105854,-0.236083,-0.122684,0.421376,-0.310898,0.024528,-0.005159,-0.061308,-0.122326,-0.022037,0.130548,-0.022155,0.112719,-0.217167,0.025913,-0.360906,0.000441,0.237394,0.184017,-0.18383,0.200025,-0.241617,0.218965,0.226585,-0.377171,-0.26598,0.319865,-0.000777,0.176637,-0.468985,-0.184333,-0.191976,-0.096954,0.430147,0.004589,-0.041274,0.451839,-0.373004,-0.361937,0.045873,-0.013788,-0.051479,-0.022642,0.013453,-0.105098,-0.017854,0.198043,0.130416,-0.007468,0.099828,-0.325735,-0.039282,0.082053,0.320574,0.177452,0.153551,-0.016826,-0.292414,0.013646,-0.207361,-0.030239,-0.020649,-0.205213,0.043601,0.101825,0.358205,0.056985,0.185873,-0.044999,-0.293526,-0.004177,0.25474,0.100908,-0.490281,0.014745,0.147453,-0.065761,-0.017957,-0.094275,-0.129483,0.152403,-0.056226,0.309029,0.284364,-0.147807,-0.182305,0.070625,-0.009706,-0.289732,0.177215,-0.044696,0.006874,0.055378,0.022155,-0.199382,0.020619,-0.064709,-0.157858,-0.195267,0.216271,-0.216285,-0.167097,0.146275,-0.028044,-0.310097,-0.075754,0.025978,-0.092954,-0.05595,0.174484,0.175522,0.06509,0.120116,0.03036,-0.049147,0.008438,-0.232527,-0.393953,0.017849,0.183065,-0.222945,-0.292425,0.194231,0.120737,-0.134999,0.30326,-0.019594,0.062406,0.263566,0.002779,-0.040692,-0.156987,-0.225779,-0.153701,0.002488,-0.056779,0.118506,0.164735,-0.05435,-0.120665,0.127058,-0.007529,-0.190495,0.178502,-0.199949,-0.090581,0.102514,-0.302935,-0.203453,0.075286,-0.166374,-0.063226,0.038776,-0.054643,-0.102743,-0.160435,0.050048,0.131329,0.072813,0.054622,-0.13993,0.204496,0.025197,-0.127629,-0.043031,-0.074679,0.252827,0.111597,-0.092177,0.007316,-0.217179,-0.176927,-0.045142,-0.305757,0.109442,0.198956,-0.136158,-0.031033,-0.249385,0.010707,0.059657,0.256871,0.125688,0.118412,-0.078443,-0.156723,-0.052571,0.107632,-0.309721,-0.100595,0.069653,-0.18414,-0.112822,0.102058,0.236548,0.118431,-0.131034,0.018433,-0.067488,-0.035066,0.061937,0.222314,-0.373297,0.081946,-0.030366,-0.190869,0.268232,-0.066564,-0.225282,0.073392,0.200629,0.19286,-0.042605,-0.187462,-0.007311,-0.102955,-0.090692,0.050882,-0.002787,0.017314,-0.010246,0.182314,0.019489,0.097186,-0.172301,0.014873,0.183576,0.205316,0.230455,0.274517,-0.036316,-0.201962,0.030459,0.179798,-0.11219,-0.14661,0.126921,0.054376,-0.069983,-0.007796,0.059882,0.225972,0.080609,0.051206,0.058266,-0.009951,-0.048365,-0.110945,-0.117397,0.1451,-0.02532,0.063552,0.10342,-0.120346,0.074343,-0.246634,-0.137954,0.067887,-0.055076,-0.151794,0.131174,0.119423,0.250118,-0.00197,-0.077642,-0.110706,0.018072,-0.035918,-0.117082,-0.097607,0.215109,-0.12297,0.125048,0.162005,-0.209174,-0.107762,0.031082,0.21828,-0.063584,-0.016857,0.180218,-0.007803,-0.053514,-0.185404,-0.033511,-0.340833,0.010474,-0.128653,-0.110336,-0.018989,0.04122,-0.21561,-0.062929,-0.482325,-0.025112,0.011499,0.058584,-0.123416,0.230244,0.01356,-0.017597,0.019409,-0.115518,-0.035929,-0.038129,-0.104251,-0.011681,-0.033261,0.063488,-0.063957,-0.151385,-0.07138,0.14416,0.03369,0.021221,-0.175812,-0.103187,0.007544,0.045024,-0.018091,-0.132307,0.478673,0.059411,-0.017159,0.235152,0.168326,-0.220928,-0.00114,-0.133163,0.091402,-0.087643,-0.077197,0.001616,0.128935,-0.054857,0.20956,0.196498,0.053344,-0.077948,0.164308,-0.046381,0.19786,0.064803,0.16771,0.01587,0.171515,0.049234,0.020402,0.159098,0.005182,0.117929,-0.124464,0.138051,0.00657,-0.08823,0.00766,-0.033525,-0.036849,0.101119,0.332413,-0.078848,-0.219641,-0.109043,-0.150194,-0.370867,-0.141983,0.310492,0.015927,0.142959,0.088199,-0.095274,0.328159,-0.062921,-0.054226,0.173389,0.286327,0.168371,-0.130378,0.151764,-0.17714,0.445762,-0.023796,-0.287207,0.049883,0.000955,-0.017906,0.148883,0.040273,-0.09861,-0.252375,0.108287,0.193562,-0.143916,-0.038015,-0.052244,-0.161276,0.030243,-0.016532,-0.15729,0.042051,-0.172133,-0.145853,0.003655,0.080246,0.277649,0.027525,-0.344387,0.078157,-0.241505,-0.063975,0.00592,-0.095676,-0.196912,0.150256,0.007751,0.195039,0.375539,-0.179395,0.133246,-0.215549,-0.163421,-0.097306,0.156039,-0.013501,0.086318,-0.014646,-0.082016,0.094105,0.006977,0.062664,-0.212494,0.181212,-0.053261,-0.078675,0.151861,-0.310198,-0.109452,-0.100404,-0.316552,-0.170432,-0.009977,-0.107139,0.066815,-0.165597,-0.087521,0.278805,0.088266,0.025939,-0.039833,0.02432,0.207442,-0.070378,0.079019,-0.079421,0.132091,-0.179856,-0.032251,0.057675,-0.289255,-0.109434,0.135114,-0.239732,0.164684,0.182864,-0.038362,-0.129323,-0.177279,-0.131335,-0.056809,0.058255,0.024444,0.024012,-0.136314,-0.165729,0.080224,-0.003628,-0.667132,0.097398,0.225388,-0.289597,-0.132135,0.019623,0.124716,-0.096368,0.009309,-0.087964,0.063748,-0.16541,-0.065958,0.063987,-0.296085,0.208903,-0.047164,0.108535,0.301874,-0.080665,0.011455,0.041241,0.217043,0.107154,-0.264854,-0.063663,-0.020961,-0.07791,-0.098337,0.170948,0.015521,0.030228,-0.018701,-0.395443,-0.091715,-0.160237,0.107879,-0.140164,0.163546,0.03408,0.086675,-0.084603,-0.096548,0.025668,-0.13209,-0.052485,0.155996,0.010853,-0.11533,0.038467,0.146998,-0.123739,0.105558,0.032359,-0.110724,-0.015558,0.132787,-0.115947,0.042935,0.085841,-0.001867,-0.139082,0.195275,0.026019,-0.052125,-0.212428,-0.148849,-0.105418,-0.121997,-0.08343,0.05215,0.116815,-0.05994,0.007042,-0.208238,-0.087557,0.047596,0.022282,0.174549,0.089262,0.146192,0.263279,-0.042436,-0.045406,0.166717,0.059276,0.265591,0.185004,0.119884,-0.280176,-0.103814,-0.28835,0.021385,0.195195,-0.055751,0.041077,-0.284067,0.182151,-0.000807,0.104961,0.138397,-0.23008,-0.113205,-0.063571,-0.112047,-0.081356,0.008211,-0.072961,-0.050808,-0.14566,0.079567,-0.092091,0.043123,0.421892,0.141187,0.118468,0.225832,0.197763,-0.072868,-0.191289,-0.349194,-0.102239,0.143557,-0.099548,-0.007452,0.00736,-0.040385,-0.295464,-0.134127,-0.020233,0.055507,-0.159178,0.09089,-0.349902,-0.13391,-0.05073,-0.244778,-0.249871,-0.165002,0.182905,-0.294865,0.081053,-0.082401,0.252522,-0.046843,0.052377,-0.042181,0.082738,0.138338,-0.038397,0.160333,-0.435932,0.170111,-0.191774,0.127659,0.21169,0.121114,0.136433,-0.020654,0.004149,-0.314333,0.005423,-0.061325,0.022043,-0.021566,-0.035491,0.090754,0.070099,-0.04312,0.131669,-0.134907,-0.710455,0.067786,0.170341,0.168698,0.120831,0.497842,0.174185,-0.029201,-0.129795,0.080777,-0.210631,0.121377,0.121284,0.006642,-0.125745,-0.108934,-0.444786,0.250534,0.169941,-0.060213,0.24123,-0.516347,0.033447,-0.099872,0.057617,0.524454,-0.255167,-0.042673,-0.039163,0.072603,-0.043227,0.247687,-0.282923,-0.132322,-0.062304,-0.000762,0.292406,0.048841,-0.090211,0.192182,-0.041306,0.233352,0.545882,-0.007132,-0.195513,-0.362551,-0.094571,-0.008492,0.073803,-0.027876,0.286605,-0.015435,0.202947,-0.129999,0.371226,-0.040623,-0.007432,0.529196,-0.004294,-0.16823,-0.214047,-0.23933,-0.023048,-0.049632,0.002334,0.123777,-0.032088,-0.106352,0.031271,-0.093254,-0.080909,-0.060923,-0.063969,-0.442334,-0.240108,0.163082,-0.445156,-0.019241,0.066152,-0.038412,-0.152806,-0.080857,-0.083493,-0.049778,-0.193359,0.054093,0.175607,0.124995,0.078908,-0.10035,0.095525,-0.093511,-0.062374,-0.032251,-0.198399,0.354965,0.108674,0.008429,0.132837,-0.182967,-0.091587,0.117326,-0.171293,0.098032,0.208014,-0.078202,-0.156263,-0.330329,-0.227186,0.06493,0.162881,0.11982,0.00485,-0.250658,-0.185158,0.075952,0.34711,-0.30451,0.059377,0.163402,-0.021132,-0.007914,0.056619,0.206574,0.216676,-0.031319,0.38073,-0.357253,0.045645,-0.113837,0.237786,-0.216668,0.121702,0.068441,-0.402037,0.120512,-0.056221,-0.158139,0.252011,0.273674,0.146195,0.108287,-0.209313,0.001323,0.008564,-0.163075,0.159334,0.027645,-0.004974,-0.074268,0.094242,0.189546,0.103505,0.192241,-0.199277,0.270746,-0.018587,-0.317318,-0.050147,0.320193,0.089533,0.132907,0.192867,-0.150584,0.058265,0.15848,0.04031,-0.12016,0.069469,-0.093474,-0.082312,0.258042,-0.15318,-0.082467,0.023087,-0.33143,-0.000645,-0.04719,-0.080894,0.003256,-0.173857,-0.03655,0.116876,0.160146,0.045513,-0.061848,0.018094,0.161852,-0.166577,0.113161,0.053376,0.03566,-0.28001,0.075265,0.150979,-0.205972,-0.046822,0.015483,-0.041901,0.196992,0.152809,-0.082319,-0.128906,-0.203279,-0.166488,-0.060251,0.079338,0.113817,-0.108724,-0.145837,-0.152799,-0.022493,0.061974,-0.588849,0.025157,0.070925,-0.385586,-0.174993,0.127731,0.145822,-0.142379,0.148998,-0.099762,0.091448,-0.145687,-0.038943,0.275203,-0.227087,0.073093,-0.097857,0.025236,0.293028,-0.061234,0.01433,-0.060388,0.249946,0.001465,-0.189938,-0.025794,-0.040853,-0.112812,-0.020998,0.044234,0.01481,0.165837,0.099133,-0.080172,-0.211255,-0.177087,-0.204916,0.087175,-0.243282,0.109401,0.222831,0.162493,-0.2886,-0.063557,-0.204705,-0.111289,0.072246,-0.013967,-0.04301,-0.079202,0.220598,-0.152247,0.030215,0.319238,-0.303204,0.160513,0.121413,0.015049,0.197295,0.019448,-0.120059,0.020014,0.017959,0.274015,-0.074494,-0.126614,-0.149392,-0.068372,0.128513,-0.040257,-0.039713,0.085809,0.070685,-0.100056,-0.059902,0.311158,0.063197,0.023378,0.050842,0.105112,-0.041673,0.001413,-0.197438,-0.143003,0.03619,0.078309,0.116883,0.14462,0.004349,-0.028753,-0.027333,-0.055453,0.191595,0.190917,-0.00643,-0.146817,0.334212,0.000782,-0.173441,0.355804,0.008751,-0.143804,-0.218878,0.013622,0.011027,0.15502,0.065239,0.216799,0.121864,-0.294525,0.180909,-0.079107,0.020525,0.103194,-0.128589,0.217088,0.072122,0.010252,-0.295886,-0.102622,0.292449,0.085092,0.042466,0.134944,-0.108079,-0.292676,0.063673,-0.135151,-0.053166,-0.032135,0.139441,0.080563,0.169101,-0.034541,0.205387,-0.094917,-0.195565,-0.140598,0.075346,0.031509,-0.008165,0.138301,-0.07765,-0.017309,0.045128,-0.108027,-0.23927,0.013519,-0.089915,-0.206062,0.245222,-0.216589,-0.113469,0.058183,-0.353492,-0.017104,0.054342,0.036977,0.024889,-0.175979,-0.068217,0.272379,0.107656,0.080636,-0.126583,-0.049086,0.122275,-0.251405,-0.012111,-0.003988,0.179539,-0.018663,-0.033394,-0.055368,-0.241914,-0.141962,0.008506,-0.206726,0.172112,0.123433,-0.063594,-0.047048,-0.232278,-0.106842,0.08587,-0.033057,0.161397,0.079001,-0.031404,-0.057273,-0.026098,0.017942,-0.219326,-0.055846,0.096428,-0.190927,-0.124857,0.019495,0.25198,-0.014552,0.096455,-0.137785,-0.061152,-0.151868,-0.134347,0.234517,-0.296061,0.140042,0.011768,0.065352,0.120096,-0.114104,-0.135349,-0.010411,0.159551,0.035786,-0.072908,-0.129523,0.067901,0.018543,-0.029059,0.04146,-0.006025,-0.127977,0.187529,-0.388262,-0.134066,-0.258392,-0.165581,0.190601,0.092179,0.025947,0.35168,-0.155882,-0.31765,0.084267,-0.12919,-0.069702,0.065925,0.143144,-0.082432,0.041847,0.108182,-0.046664,0.042505,0.056988,-0.42799,-0.03161,0.118613,0.069852,-0.018536,0.037467,-0.007471,-0.074655,-0.002343,-0.017385,0.056346,-0.021905,-0.163145,-0.068941,-0.041887,0.084292,-0.129715,0.064905,0.046987,0.018548,0.040035,0.067823,0.120183,-0.298377,-0.037147,0.14438,-0.005064,0.065165,-0.092152,-0.028902,0.216176,0.023823,0.192924,0.21489,-0.132003,-0.201525,-0.030065,-0.026694,-0.157883,0.057421,-0.005434,0.088932,-0.017853,0.082569,-0.030342,-0.005751,0.060724,-0.123578,-0.124769,0.233191,-0.194438,-0.045971,-0.005488,0.125018,-0.170455,-0.070687,0.068769,-0.199479,-0.005318,0.083464,0.142329,0.035656,0.076652,0.020545,0.033316,-0.103896,0.002787,-0.124185,0.015223,0.180693,-0.025704,-0.092871,0.067565,0.161886,0.253083,-0.178641,0.039784,-0.065691,-0.348609,0.084529,-0.223384,0.127668,0.121992,0.135634,-0.202549,-0.115749,-0.166611,-0.077611,0.179809,0.037028,-0.119717,-0.002005,0.092297,-0.083075,0.14313,0.007809,-0.196029,0.110289,0.233547,-0.095663,0.313193,0.198774,0.144562,-0.071095,0.044754,0.294901,-0.020678,-0.160121,-0.014298,0.003043,0.175885,-0.006533,-0.020859,0.199007,-0.039095,0.065293,-0.166041,-0.030601,-0.028598,-0.106063,0.200554,0.130114,0.04722,0.083266,-0.011745,-0.207751,0.120091,0.050879,0.022902,0.140736,-0.123208,-0.12855,0.100303,0.112626,0.043663,0.114654,0.090804,0.117319,0.49305,-0.069657,-0.052937,0.30742,0.008097,-0.152685,-0.257174,0.147985,-0.031074,0.297263,0.092254,0.132312,0.127419,0.019322,0.191379,0.073668,0.086249,-0.288181,-0.166978,-0.066565,0.06563,0.06288,-0.164379,-0.146751,0.306975,0.123651,0.087754,0.039037,-0.112855,-0.068145,0.123674,0.140077,0.182914,-0.079266,-0.144834,-0.158061,0.299937,-0.053575,-0.080282,-0.085926,-0.108353,-0.323834,0.022022,0.084183,-0.007669,-0.005384,0.07289,0.099291,0.012099,0.006585,0.066137,-0.109066,-0.371527,-0.032189,-0.084448,-0.395734,-0.012582,-0.057196,-0.143207,0.181701,0.147749,-0.141409,0.203459,-0.23571,0.058308,0.126207,-0.068815,0.005811,0.006095,0.295076,0.224378,0.031832,-0.16082,-0.010232,0.288802,-0.151106,0.216161,0.049321,-0.124217,0.083867,0.127495,0.096954,-0.072156,-0.1296,0.11665,0.038588,-0.107688,-0.009792,-0.21666,-0.115532,0.033786,-0.088691,-0.186586,0.14874,0.043354,0.520215,-0.314329,0.032273,-0.046743,-0.122037,-0.056443,-0.282765,0.015882,0.141418,-0.12508,0.041285,-0.202228,-0.072058,-0.114585,0.180894,-0.042916,0.085769,0.189739,-0.216903,0.242119,-0.111619,-0.031715,0.194648,0.146623,-0.18664,0.059501,-0.206067,0.250267,0.14708,-0.125549,-0.159824,0.199102,-0.179325,-0.16846,0.351082,0.086931,0.237285,0.209022,-0.229507,0.33498,-0.110529,-0.18784,0.01153,0.428706,0.115263,0.211525,0.022938,-0.10402,0.022781,0.233311,-0.047354,-0.083802,0.106998,-0.062073,0.140923,0.258558,-0.10957,-0.173295,-0.138563,-0.268325,-0.063543,-0.114719,0.094,-0.100096,-0.231401,-0.070516,0.161274,0.195889,0.062255,-0.128835,0.092318,0.054623,-0.09858,0.084745,-0.074099,-0.008183,-0.120977,0.011647,0.080575,-0.087048,-0.161015,0.038352,-0.020134,0.064518,0.236001,-0.133223,0.008625,0.062256,0.001141,0.178685,0.141807,0.002345,-0.009122,-0.151796,-0.174688,0.066734,-0.09786,-0.382529,-0.084063,0.071081,-0.331926,-0.182523,0.08806,0.306598,-0.088367,0.098473,-0.259111,-0.01623,-0.078848,0.217077,0.093353,-0.348595,0.245565,-0.099939,0.098957,0.310368,0.012905,0.019859,-0.008724,-0.029974,0.070856,-0.427081,0.033709,-0.216943,-0.217733,0.282017,0.173762,-0.037783,0.074063,0.107299,-0.401868,-0.116958,-0.175395,0.054311,0.139042,0.251636,0.107457,0.506364,-0.113118,-0.060712,-0.072606,-0.15871,0.037245,0.124951,0.134533,-0.16065,0.011248,0.162337,-0.074676,0.114051,0.128369,-0.243495,0.221681,0.099137,0.106205,-0.008999,0.115059,0.082777,-0.314262,0.099927,-0.14165,0.005283,-0.061553,-0.06864,-0.106761,-0.025565,-0.002683,-0.059409,0.028959,-0.145599,-0.244659,-0.075303,0.106737,0.131749,-0.147405,0.04892,0.074583,-0.066781,0.208589,-0.047093,-0.220765,0.071399,-0.100639,0.291903,0.130143,0.018704,-0.161488,-0.093204,-0.157469,-0.09911,0.142131,-0.02514,-0.185549,-0.239875,0.169843,-0.012428,-0.005252,-0.170458,-0.213042,-0.103774,0.088731,-0.195411,-0.350879,0.003776,-0.047662,-0.054526,-0.181504,0.122205,-0.099646,0.099184,0.354936,0.055807,0.189654,0.062209,-0.250072,-0.127829,-0.242453,-0.365759,-0.174325,0.13578,0.136102,0.024879,-0.330039,0.03871,-0.000603,-0.091559,0.29245,0.071252,0.218772,-0.020104,-0.482756,-0.121359,-0.063568,-0.512176,0.407668,0.122417,0.040678,0.183447,0.071704,-0.126999,-0.09527,0.036887,-0.043797,-0.009464,-0.130967,-0.122113,0.116005,0.296657,0.028784,-0.036126,-0.219686,-0.104103,-0.066752,-0.045427,0.229332,-0.041023,0.306334,0.143377,-0.14414,0.100719,-0.004758,-0.038449,-0.064758,0.015306,-0.007466,0.041491,0.307954,0.040145,-0.191288,0.019753,0.176871,0.024196,-0.120028,0.159361,0.03808,0.082456,0.104271,-0.171579,0.089282,-0.277719,-0.258085,0.156958,0.139103,0.122233,-0.020633,0.385651,-0.052321,0.177425,-0.084711,0.251393,-0.023999,0.140583,0.03538,0.083892,0.22015,0.14132,-0.323061,0.20341,0.381336,-0.02706,0.05032,0.092407,0.081958,0.014188,-0.042158,0.046563,-0.353112,-0.314521,0.053977,-0.102242,0.145769,0.043386,0.042363,0.209716,0.545529,-0.190149,-0.206537,0.173982,0.342098,-0.354231,0.360711,-0.008461,0.177951,0.044958,0.150324,0.57288,0.071436,-0.298379,-0.317622,-0.202585,-0.178344,0.115696,-0.048268,0.278574,0.010649,-0.024938,-0.071579,0.048173,-0.024798,-0.055871,0.089488,-0.48094,-0.091165,0.121135,-0.469623,-0.202153,0.011637,-0.137754,-0.189984,-0.036598,-0.057455,-0.049278,-0.251543,0.126853,0.355818,0.099223,0.20469,0.045367,0.197966,-0.109906,-0.168915,0.00083,-0.16305,0.247611,-0.040725,-0.109438,-0.072267,-0.090603,-0.094686,0.22856,-0.317657,0.118279,0.166012,-0.08041,-0.024727,-0.363573,-0.118233,-0.000996,0.073439,0.223455,0.000547,-0.257089,-0.322727,0.052759,0.48552,-0.207611,0.047085,0.219467,-0.243038,-0.100182,0.044906,0.110809,0.168243,-0.126644,0.390264,-0.310104,0.10046,-0.080301,0.449203,-0.285932,0.140812,-0.005298,-0.376699,0.20242,-0.094054,-0.203177,0.131653,0.375604,0.118975,0.036195,-0.134721,-0.01823,-0.012385,-0.260339,0.167081,-0.066974,-0.189357,0.199795,-0.530122,-0.020562,-0.147394,-0.160751,-0.032535,0.302931,0.164497,0.24066,0.099776,0.043111,0.087644,0.008763,-0.035577,0.085186,0.108718,0.034104,0.007632,-0.003375,-0.066943,0.405317,0.004137,-0.284253,0.357604,0.004106,-0.192226,0.163789,0.068109,0.042303,-0.364297,0.104686,0.117614,-0.14611,-0.126901,-0.055058,0.066938,-0.131979,-0.089488,0.148636,0.035743,-0.093244,0.025411,-0.33102,0.037594,-0.049907,-0.017977,0.041038,0.107789,-0.024037,0.283104,-0.212623,-0.030011,0.06107,0.145997,0.429275,-0.007083,-0.014387,-0.153656,-0.033232,-0.181083,0.020754,0.111332,-0.099352,-0.197285,0.003761,0.131874,-0.139697,-0.056278,-0.016956,-0.070103,-0.065777,-0.196656,0.035699,-0.056848,0.274693,-0.042661,0.076766,-0.17697,0.071319,-0.093994,0.14228,0.491926,-0.038062,0.300138,0.211644,-0.125763,-0.266334,-0.032046,-0.528187,0.11811,0.057214,0.059861,0.28127,-0.230638,0.033175,-0.013803,0.2337,-0.095083,-0.146116,-0.077075,-0.212854,0.166185,-0.209147,0.203831,0.290974,0.189962,-0.20204,0.003992,-0.044889,0.0103,0.025605,0.027001,-0.106819,0.112291,0.201413,-0.096361,0.190827,0.159853,-0.159111,0.199691,0.176874,-0.049885,0.212576,0.081787,0.007119,0.083085,0.024524,0.219072,-0.015418,-0.068203,-0.067769,-0.143157,0.08593,-0.022201,-0.163803,0.130015,-0.080506,-0.099704,-0.047718,0.25192,-0.015345,-0.007496,0.096733,0.17659,0.020564,0.049288,-0.149453,-0.208968,0.143367,0.138756,0.152601,0.122145,-0.105575,-0.055727,-0.160935,-0.102233,0.20915,0.185273,-0.042324,-0.147356,0.37422,-0.057892,-0.167759,0.255137,0.091255,-0.153357,-0.159808,-0.020759,0.087904,0.041251,0.072136,0.12333,0.022724,-0.189962,0.290582,-0.14574,0.142539,-0.004391,-0.175907,0.222561,0.029849,-0.081355,-0.185054,-0.119962,0.321364,0.150077,0.078659,0.072587,-0.069717,-0.08244,0.061986,-0.116455,-0.083639,0.196976,0.200181,0.205834,-0.312302,0.005276,0.193453,-0.108145,0.056658,0.235741,0.16351,0.1019,0.008868,0.081502,0.017832,0.012361,-0.011256,-0.002788,-0.062655,0.116007,0.434794,-0.012787,0.161207,0.363917,-0.143373,-0.012631,0.062609,-0.039732,-0.001945,0.234247,-0.030388,0.37545,0.053119,-0.10399,0.237648,0.099619,0.05965,-0.243642,-0.085372,-0.077629,0.149919,0.159566,-0.435661,0.0776,-0.001558,0.162645,0.080016,-0.020406,-0.195937,-0.097647,0.191887,0.022714,-0.157018,0.019956,0.019473,-0.019534,0.021452,0.303544,0.09472,0.111681,0.169199,-0.117024,0.187856,-0.392192,0.105298,-0.023291,-0.079478,-0.0596,0.113116,0.125756,0.07579,-0.166809,0.454908,-0.003744,0.172977,0.141263,0.210768,-0.04222,-0.121733,-0.055595,-0.033083,0.16931,-0.321353,0.222632,-0.098129,-0.161538,-0.142346,0.095034,-0.120769,0.215083,-0.452995,-0.165094,0.125657,0.106865,-0.313913,0.040575,0.240812,0.141794,-0.302429,-0.024017,-0.00833,0.068385,-0.032173,0.15495,-0.10881,0.088458,-0.077014,-0.122715,0.055048,0.02252,0.109565,-0.186261,-0.106034,0.065152,0.17652,-0.371013,-0.263844,-0.047501,0.095504,-0.076712,-0.064819,0.080262,-0.141533,-0.096158,0.023771,-0.041388,-0.019841,-0.105257,0.013018,0.082313,-0.208558,-0.340053,0.016,0.299789,-0.000274,0.206316,-0.015235,-0.316174,0.244203,-0.000108,0.027474,0.165059,-0.021599,-0.001939,0.012272,0.074249,-0.202062,-0.076531,0.207544,0.077592,-0.007976,-0.076015,-0.070222,0.203045,-0.140768,-0.123623,-0.007147,0.169985,-0.178039,0.014665,-0.037508,0.117276,-0.036037,0.169274,0.143515,0.015199,-0.060324,0.194518,-0.03625,0.023157,-0.012697,0.055871,-0.035392,-0.142738,0.152476,-0.341643,-0.034472,0.258121,0.00579,-0.033072,0.050983,0.147568,0.020128,-0.177633,0.074693,0.035038,0.263434,-0.088914,-0.136925,-0.291596,0.197278,0.020184,0.023759,-0.145613,0.015316,-0.058685,-0.281881,-0.024577,-0.07012,0.284805,0.1358,0.196184,-0.114492,0.031835,-0.057067,-0.14101,0.038654,-0.012708,0.106938,-0.077607,0.070397,-0.194828,0.166469,0.166277,-0.06142,0.210237,0.075135,-0.039555,0.271843,0.221516,-0.145589,0.074231,0.054034,0.174221,-0.107015,-0.170016,-0.090322,-0.075231,0.161751,0.045147,-0.107367,0.034121,-0.060789,-0.056202,-0.051648,0.134214,0.018111,-0.039169,0.11473,0.055668,-0.154093,0.114113,0.036563,-0.079369,0.034687,0.152804,0.248959,0.342643,0.002849,-0.072509,-0.13627,-0.080151,0.223191,0.094792,-0.096398,-0.154967,0.244054,0.083543,-0.225159,0.139599,0.122135,-0.049523,-0.075546,-0.032966,-0.072976,-0.069208,2.8e-05,0.098116,0.144763,-0.304841,0.302017,-0.147814,-0.133565,0.025966,-0.223515,0.199871,0.093011,-0.040442,-0.150979,-0.019983,0.019367,-0.047198,0.002109,0.046883,0.044188,-0.071164,-0.052321,-0.096277,0.083691,-0.403601,-0.168952,-0.210916,-0.062792,0.294515,0.105128,0.041722,0.359054,-0.244197,-0.164091,0.040786,-0.103895,-0.057025,0.1171,0.066818,-0.082259,0.106309,0.043336,0.111951,-0.047941,-0.049085,-0.362825,0.079525,0.140563,0.212997,0.09758,-0.013468,-0.025778,-0.169307,0.040198,-0.146239,-0.081907,-0.06014,-0.19215,-0.016336,-0.055395,0.106066,0.022056,0.103842,0.061125,-0.242407,-0.115707,0.216869,0.030005,-0.441832,0.082543,0.24458,-0.071344,0.008081,-0.147197,-0.105609,0.13838,-0.020747,0.281002,0.247094,-0.008069,-0.174664,0.036903,-0.061451,-0.174076,0.132143,-0.218959,0.205277,-0.015032,0.045047,-0.054739,-0.054376,-0.030272,0.00399,-0.058786,0.258056,-0.139302,-0.310808,-0.011419,0.006161,-0.112147,0.014056,-0.010935,-0.107604,0.010401,0.193342,0.280758,-0.093778,0.142507,-0.101435,0.005412,0.028792,-0.299109,-0.37682,0.233,0.110358,-0.170844,-0.269023,0.220217,-0.068781,0.099999,-0.300992,-0.038439,-0.199367,-0.153482,-0.015976,0.102443,0.130946,0.230587,0.127276,-0.058739,0.148871,-0.16564,-0.092569,0.040153,0.113449,-0.14603,0.019302,0.186802,-0.171241,0.313463,0.159107,-0.092472,0.277283,0.162014,-0.094361,0.239348,0.112209,0.1535,0.115141,0.024079,0.305988,-0.123781,-0.07557,0.004485,-0.136016,0.177315,-0.15843,0.160928,0.120816,-0.030322,0.121852,-0.27219,0.026722,0.068952,-0.087252,0.103239,0.130792,-0.033043,0.182858,-0.211495,-0.126095,0.19294,0.009388,0.064315,-0.022297,-0.129737,-0.202991,-0.090318,-0.069208,0.226164,0.137241,-0.119637,-0.121377,0.238205,-0.012552,-0.151198,0.425056,0.090188,-0.161327,-0.26265,-0.032603,0.124908,-0.126181,0.080095,0.044428,0.085854,-0.194895,0.360932,-0.247902,0.05092,0.242594,-0.394856,0.183717,0.131554,-0.241343,-0.238117,-0.30049,0.271262,0.269686,0.012743,0.199992,-0.09148,-0.127243,-0.066572,0.073045,-0.202856,0.225092,0.112032,0.088173,-0.091579,0.057886,-0.061551,-0.088557,-0.134401,0.08734,-0.004403,0.006512,0.053086,0.038305,0.090412,0.116232,0.05973,-0.200882,-0.171806,0.293699,0.107343,-0.023621,0.095521,-0.030601,0.00883,-0.046198,-0.007534,0.018586,-0.087127,0.011679,-0.072718,0.207035,0.178709,0.048014,0.190772,0.236059,-0.045109,-0.153682,-0.003358,-0.046016,-0.066666,0.147249,-0.214607,0.190863,0.043557,0.087354,-0.004,0.007856,-0.102945,-0.103328,0.127136,0.146652,-0.121339,0.023666,-0.015859,0.036746,0.108201,0.0282,0.15175,0.23396,-0.085648,-0.16449,0.292814,0.070162,0.149646,0.061074,0.074529,0.03159,0.072249,0.139381,0.240567,0.038672,0.008724,-0.031423,-0.006537,0.018652,-0.109315,-0.019266,-0.159247,0.020391,0.066646,-0.295311,-0.123154,-0.081026,-0.155015,-0.203807,0.086212,0.212154,0.009772,0.016227,-0.286639,-0.083989,0.063837,0.182237,-0.182375,-0.149877,-0.276696,0.119684,0.317633,0.108061,0.017537,-0.21785,0.175465,-0.060148,-0.022098,-0.106267,0.131091,0.288885,0.082637,0.130802,-0.01278,0.060399,0.023155,0.008883,-0.168229,0.250746,0.006354,-0.17122,0.034649,0.037069,0.061263,-0.124159,-0.135324,0.12124,-0.072116,0.050765,0.016803,-0.045538,-0.056122,-0.055014,0.224073,0.194122,-0.153164,-0.08528,0.124988,-0.208904,0.123418,0.256696,-0.217939,-0.248662,0.021367,0.100494,0.021334,-0.066978,0.146576,-0.029155,0.197475,0.142698,-0.203623,-0.030997,0.133445,-0.042027,0.07536,-0.131579,-0.001511,-0.089295,-0.184655,-0.19363,0.085182,0.123817,-0.024038,-0.041526,0.016753,-0.286898,-0.011498,0.056152,0.143354,-0.055927,0.197496,-0.072914,0.111326,-0.062182,0.086951,0.299124,-0.28548,0.317175,-0.039876,-0.266698,0.109728,-0.005673,0.053737,-0.041276,-0.022771,0.221062,-0.290812,-0.044328,-0.139162,-0.060527,0.246914,0.370973,-0.022903,0.103114,0.199114,-0.444609,-0.099862,-0.130204,-0.147205,0.129124,0.169409,0.068572,0.247455,0.022996,-0.036841,0.055055,-0.136219,-0.145832,0.082028,0.056376,-0.078389,0.135274,0.036521,-0.230568,0.074321,0.062696,-0.287066,0.210955,0.062753,0.004563,0.086966,-0.094273,-0.005951,-0.292842,0.064559,-0.04061,-0.056055,0.014697,-0.205695,-0.175048,-0.011852,0.182043,-0.040938,0.149279,0.052373,-0.01722,-0.074568,0.014758,0.041363,-0.103807,0.182459,0.060429,0.003788,0.103184,-0.210685,-0.028949,0.008789,0.085739,0.300995,0.143487,-0.045391,-0.163742,-0.119711,-0.286544,-0.024499,0.188171,-0.073037,-0.144181,0.00489,0.021209,-0.018181,0.067186,0.042222,-0.096276,-0.247167,-0.042656,-0.083229,-0.019969,0.012022,-0.057587,-0.171853,-0.136309,0.160065,-0.24971,0.084703,0.391052,0.049224,0.058891,0.27629,-0.142269,-0.133818,-0.121095,-0.370392,-0.032688,0.088553,0.129571,-0.011685,-0.198495,0.089315,-0.091601,0.007068,0.078402,0.069188,0.022944,-0.306905,-0.059472,0.105425,0.235712,0.170052,0.06228,-0.046826,-0.168571,0.024504,0.023867,-0.132871,-0.102872,0.082849,0.073219,0.108364,-0.092284,0.090521,0.407313,-0.263043,0.323433,0.146242,-0.126619,0.087145,0.108262,-0.124532,-0.052744,-0.106941,0.123416,0.119471,-0.343832,-0.149622,-0.061319,0.00845,-0.007972,-0.110094,0.025305,0.100682,-0.089068,-0.140801,0.102477,-0.037463,-0.095015,0.124883,-0.016434,0.022076,0.150654,0.030459,-0.079104,0.144061,0.095447,0.330433,0.235116,0.02398,0.044919,-0.096983,-0.148347,0.017229,0.208787,0.012644,-0.210351,0.220893,-0.063821,-0.126238,0.161013,0.089396,-0.01634,-0.175408,0.09938,-0.00278,-0.011634,0.007669,0.204853,0.208743,-0.08153,0.212169,-0.068729,-0.078919,0.060567,-0.177761,0.294131,0.051353,-0.147599,-0.137774,-0.041236,0.068358,0.07515,-0.075152,0.078171,0.203683,-0.105057,-0.048429,0.136119,0.085711,-0.391254,0.002841,-0.25222,0.122306,0.206274,-0.170797,0.135259,0.242505,0.049894,-0.244365,0.03062,-0.079874,0.02287,0.057515,-0.030119,0.025697,-0.003672,0.050753,0.045763,-0.164475,0.00318,-0.355124,-0.105591,0.019691,0.113735,0.053877,0.059332,0.118092,0.03754,0.098538,-0.171642,0.118262,0.164144,-0.156515,-0.017509,0.044214,0.280179,-0.096167,0.078693,0.025882,0.08583,0.292182,-0.035245,0.08999,-0.343429,0.05867,0.151331,-0.044132,0.044028,-0.012274,-0.211522,0.324209,0.072434,-0.029725,0.102347,-0.106145,-0.191502,-0.056101,-0.081146,0.092265,0.164592,-0.004885,0.184847,0.059447,0.00074,0.041621,-0.015681,-0.085953,-0.098689,-0.215128,0.207733,-0.13486,-0.052969,0.019632,0.124942,-0.170996,0.01466,0.184412,-0.098183,-0.079112,0.104887,0.169583,-0.105263,0.021576,-0.013409,-0.054086,-0.188897,0.032103,-0.038389,0.272862,0.026785,-0.160772,-0.154632,0.218452,0.047886,-0.076902,-0.022298,-0.146471,-0.162923,0.155432,-0.214654,-0.040395,-0.02921,-0.18197,0.012934,0.188352,0.069716,-0.19838,-0.185662,-0.066313,0.156236,0.140996,0.085958,0.19452,-0.13701,-0.189232,0.059109,0.066324,-0.275226,0.000115,-0.177831,-0.006275,0.06203,0.010405,0.152104,0.008688,-0.029148,-0.337053,-0.094604,-0.147935,-0.062011,-0.010009,-0.090547,0.204865,0.132283,0.006644,-0.137193,0.03527,-0.131934,0.050815,0.09596,0.103652,0.069835,0.287254,0.200452,-0.131896,-0.168992,-0.090939,-0.105651,-0.144468,-0.070459,-0.201474,-0.003869,-0.09517,-0.299209,0.055502,0.070478,-0.241512,0.116518,-0.204727,0.102329,0.071952,0.117467,0.177293,-0.276401,-0.127139,0.050715,0.082056,0.187869,-0.117199,-0.218143,0.078373,0.042856,0.149506,-0.067465,0.101211,0.183689,0.122827,0.049584,0.20254,0.326712,-0.074087,-0.060852,-0.015138,-0.008642,0.161965,0.167223,-0.076461,-0.052181,0.036831,-0.159068,0.142143,-0.332261,-0.097914,-0.107381,-0.038298,0.254201,0.15513,0.160722,0.372788,-0.09572,-0.106626,0.172831,-0.190438,0.042371,0.115907,0.057594,-0.076158,-0.014262,0.211768,-0.059915,0.078871,0.026614,-0.352541,0.0679,0.088676,0.115268,0.129392,-0.014952,0.006476,-0.12223,0.075348,-0.056573,-0.07217,-0.086695,-0.204887,-0.025017,0.009564,0.112598,-0.021922,0.091052,0.005981,-0.0908,0.00497,0.036371,0.027277,-0.270206,0.064051,0.26013,-0.106302,0.057925,-0.073099,-0.217715,0.110786,0.01378,0.190231,0.12658,0.016123,-0.237641,-0.051529,-0.131035,-0.126141,0.251339,-0.133673,0.096001,-0.000772,0.028851,0.031066,0.120344,-0.064439,-0.039696,-0.084833,0.045906,-0.154409,-0.282795,0.174836,-0.05891,-0.15315,-0.053417,0.15132,-0.062773,0.096435,0.340079,0.204604,0.068921,0.121063,-0.038849,-0.101197,-0.043971,-0.208704,-0.214018,0.007836,0.106487,-0.098422,-0.238031,0.163966,0.137813,0.23518,-0.334683,-0.112125,-0.249256,-0.03344,-0.017045,-0.317963,0.112825,0.052377,0.054435,-0.176182,0.046419,-0.126073,-0.132415,-0.040171,0.168168,-0.023053,0.084907,0.122989,-0.134301,-0.260002,-0.033856,-0.24844,-0.097808,0.12724,0.061606,0.067014,0.114281,0.023629,0.007015,0.072799,-0.173649,0.103671,0.113535,-0.248143,-0.111771,-0.062424,0.10745,0.092153,0.235352,0.079992,0.009595,0.254042,-0.0379,-0.009587,-0.133677,0.084327,0.155784,0.138959,0.009242,-0.104057,-0.068045,0.150796,0.06612,-0.005564,0.098255,-0.143933,-0.252577,-0.050429,-0.071122,0.01379,0.074881,-0.018978,0.241755,-0.036896,0.066194,0.038208,0.088789,0.115953,-0.041534,-0.219744,0.245461,-0.14996,0.146975,0.001806,-0.049782,-0.30062,-0.057161,0.10962,-0.041908,0.076889,0.111954,0.18517,0.008818,-0.030883,0.161223,0.054831,-0.148703,0.082871,-0.113727,0.356388,0.040166,-0.00994,-0.075936,0.038202,0.118217,0.240588,-0.109867,-0.213325,-0.170196,0.046526,0.121992,-0.298819,-0.002787,-0.032249,-0.044449,-0.225123,-0.045016,-0.021766,0.063866,0.193902,-0.107959,-0.058088,0.058556,0.136191,-0.274749,-0.146493,-0.012675,-0.20761,-0.018102,0.063987,-0.015808,0.108305,0.124436,0.091752,-0.040578,0.104173,0.06284,0.048523,-0.019685,-0.114708,-0.194721,0.123543,0.076829,0.030787,0.204523,0.026291,-0.211642,0.262702,0.15194,0.00149,0.026425,0.048885,0.197311,-0.135692,-0.005992,-0.030106,-0.167569,0.269327,-0.037341,-0.191223,-0.099328,-0.155732,0.044006,0.015122,-0.044698,0.186705,0.20014,-0.128533,-0.029518,0.175164,0.114006,-0.117709,0.223459,-0.032778,-0.008199,-0.223377,0.139021,-0.211602,0.159501,-0.018081,-0.015668,-0.180962,-0.132617,0.368098,-0.130199,0.046777,0.007133,-0.191473,-0.143827,-0.020723,0.062738,-0.04686,-0.242496,0.378733,0.032136,0.164194,0.035106,-0.172742,-0.287801,0.087509,0.018534,0.152529,-0.241771,0.008316,-0.216905,-0.321037,0.259124,-0.290249,0.11537,0.275266,0.068291,-0.21763,-0.145732,-0.049176,-0.161115,0.149729,-0.075246,-0.152057,-0.027217,0.03765,-0.057525,-0.016156,0.078964,-0.356552,0.19659,0.125873,-0.023944,0.252755,0.085933,0.022453,-0.047688,0.070473,0.118521,0.000266,-0.12308,-0.107353,-0.128387,0.148346,-0.030032,-0.101475,0.212403,0.026405,0.143812,-0.140056,0.236411,0.067584,-0.06536,0.245592,0.092768,0.048155,0.112154,-0.004068,-0.249643,0.12304,0.186033,0.026413,0.196654,-0.074823,-0.102922,-0.053655,0.037338,0.075848,0.069148,-0.014572,0.014701,0.615623,-0.092257,-0.161509,0.274104,0.01336,-0.142528,-0.23309,0.11476,0.021666,0.244328,0.042061,0.15988,0.12272,-0.178394,0.192915,-0.129287,0.068678,-0.205144,-0.164221,0.163947,0.070731,-0.095588,-0.135988,-0.085068,0.264718,0.119127,-0.002239,0.147652,-0.079146,-0.070902,0.146197,-0.143201,-0.190534,0.504205,0.092409,0.056586,0.292289,-0.128165,0.10844,-0.082864,-0.226968,0.009275,0.116026,-0.025897,0.033758,0.189842,-0.14977,0.051012,-0.014672,-0.140322,-0.288999,0.202653,-0.139363,-0.17008,0.235071,-0.337522,-0.207709,-0.09638,-0.350251,-0.020909,-0.039791,-0.053204,-0.075423,-0.232997,-0.053517,0.159169,0.050377,0.170178,0.015849,-0.070848,0.153272,-0.117698,0.09817,-0.008807,0.283744,-0.134157,-0.045518,0.102764,-0.272565,-0.223185,0.088598,-0.256476,0.140573,0.106177,-0.105677,-0.162907,-0.198964,-0.053097,0.019493,0.004488,0.061241,-0.029256,-0.017421,-0.09295,0.02501,0.068692,-0.172556,0.02574,-0.042105,-0.32061,-0.149205,0.139229,0.153593,0.085765,0.049509,-0.018734,-0.135895,-0.191349,-0.002075,0.176685,-0.315115,0.223013,-0.166055,-0.298269,0.307074,-0.143264,-0.209761,-0.039427,0.232374,0.274943,-0.099732,-0.204448,-0.095278,-0.05344,-0.020026,0.137587,0.03547,0.100727,0.168067,-0.213607,-0.139862,-0.295414,0.211948,0.193184,-0.263204,0.103611,-0.096032,0.040934,-0.204826,0.054473,-0.095408,-0.141911,0.105212,0.10428,-0.021483,0.060966,0.223817,-0.154855,-0.401327,-0.023515,-0.059827,-0.266139,0.110445,0.057581,0.104609,-0.016457,0.087654,-0.012846,0.081348,-0.197779,-0.101751,0.167767,-0.20275,-0.180998,0.062516,0.081519,0.048372,0.07929,0.024101,-0.194619,0.239556,0.069832,-0.032486,-0.099558,-0.013855,0.184636,0.078662,0.076338,-0.138889,-0.064758,0.252311,0.121309,-0.151475,-0.016705,0.021401,-0.255846,-0.128475,-0.233867,0.097465,0.205825,-0.144118,0.221825,-0.201991,0.124116,0.035972,0.115711,0.112282,-0.127521,-0.084122,0.165202,-0.146893,0.226491,-0.12008,-0.099649,-0.218991,-0.112662,0.1672,-0.108174,0.048244,0.092419,0.144148,-0.183664,0.048531,0.084277,0.00348,-0.157094,0.20529,0.014148,0.364144,0.044686,-0.251853,-0.221305,0.217661,0.066588,0.246294,-0.262123,-0.025723,-0.12407,0.080832,0.234587,-0.133621,0.008473,-0.007545,-0.13945,-0.236597,0.04502,-0.200522,-0.023511,0.081182,0.060389,-0.11687,-0.100133,-0.049046,-0.12974,-0.24519,0.108245,-0.171466,-0.235249,0.083367,0.078771,0.037638,0.213238,0.040485,-0.215422,0.233742,-0.080914,0.106817,0.22409,-0.027167,-0.028005,0.178755,0.289551,0.145994,0.123675,-0.186573,-0.047945,0.236172,0.018275,0.209601,-0.25473,-0.048342,0.108743,-0.033388,0.029947,-0.01782,-0.173906,0.225518,0.102055,-0.097625,0.198906,-0.255818,-0.112323,0.154276,-0.051945,-0.080282,0.155725,-0.089659,0.405829,0.066975,-0.017665,-0.237535,0.085837,-0.072486,-0.256483,-0.129881,0.343801,-0.369428,-0.152859,-0.042544,-0.046685,-0.231112,0.026863,0.195905,-0.168944,0.051676,0.05528,0.010959,-0.265741,-0.059144,0.13226,0.120361,-0.223817,0.186845,-0.285591,0.112999,0.193967,-0.262037,-0.289973,0.2552,-0.0813,0.107724,-0.4629,-0.13232,-0.246107,-0.040631,0.271118,-0.069182,-0.02186,0.288202,-0.190936,-0.265112,0.144356,-0.072675,0.0222,-0.038724,0.070318,0.111415,0.107995,0.077526,-0.010079,0.11894,0.104808,-0.287145,0.046952,0.042632,0.113184,0.08315,0.052127,0.003298,-0.10339,0.101085,-0.190158,-0.010288,-0.019301,-0.095067,-0.104674,-0.075114,0.158035,-0.006729,0.18216,-0.02141,-0.117093,0.012541,0.180869,-0.011419,-0.284661,-0.017079,0.047535,-0.055947,0.010314,-0.070133,-0.108548,0.227905,0.029183,0.156418,0.086608,-0.023417,-0.270221,0.0397,-0.118087,-0.053526,0.215604,0.008157,-0.037844,0.152299,0.038687,-0.137093,0.064042,0.030789,-0.16758,-0.121767,0.061933,-0.150663,-0.201656,0.012385,0.003054,-0.090972,-0.175082,0.146891,-0.192136,0.10824,0.328437,0.060896,-0.027382,0.183836,0.046174,-0.110433,-0.148134,-0.124854,-0.106113,0.043174,0.044427,0.001502,-0.083282,0.121038,-0.163124,-0.201108,-0.16256,0.250106,0.146503,-0.042486,-0.22748,-0.028446,-0.071221,-0.004827,-0.046966,0.050584,0.273192,-0.013149,0.06724,-0.107557,0.207799,-0.001419,-0.058825,-0.004084,0.330156,0.17119,-0.107389,0.141037,0.052022,0.084154,0.022429,0.002486,0.138201,-0.060887,-0.042258,-0.0275,0.101885,0.045176,0.036505,0.223432,0.281981,-0.080071,-0.24734,0.138502,-0.119011,-0.017996,0.275481,-0.299932,-0.010814,-0.069508,-0.130637,0.013836,0.019777,0.17433,0.020988,0.136522,0.26846,-0.300081,0.051819,0.252994,0.145108,-0.167337,-0.141258,-0.020142,0.093671,-0.091837,-0.162456,0.155005,-0.019029,-0.029205,-0.035673,-0.01372,-0.104059,0.073931,0.052581,0.082006,-0.211904,0.178436,0.052498,0.175608,-0.063271,-0.101192,0.270132,-0.27881,0.307813,-0.073749,-0.126064,-0.033199,-0.089821,-0.062913,0.061899,0.167919,0.292011,-0.214821,-0.064548,-0.160131,-0.002655,0.06267,0.239738,-0.240512,0.309049,0.274352,-0.188482,0.067356,0.166805,-0.228982,0.580054,0.236207,-0.017975,0.310354,0.379944,0.252774,-0.171767,0.343329,0.084466,0.039261,-0.213021,0.03588,-0.098358,-0.121397,0.052366,-0.04807,0.125072,-0.233437,0.633067,-0.142479,0.254132,-0.219395,-0.293206,0.070064,-0.443276,-0.126076,0.253278,0.080365,0.104072,0.050366,0.024222,0.109431,0.068803,-0.155239,-0.126441,-0.072504,-0.108183,0.038752,0.665971,-0.039948,-0.027153,-0.140397,-0.227576,-0.73835,-0.209364,0.252545,0.128322,-0.112813,0.038462,-0.068874,0.010378,0.060598,0.098076,0.062802,0.544308,-0.08941,-0.334272,0.112118,-0.465843,0.364829,-0.108302,0.075719,-0.292201,-0.629297,0.34631,0.102153,0.087315,-0.081781,0.05679,-0.285097,0.130704,0.19813,0.066107,-0.144863,-0.295871,0.108781,0.367769,-0.415733,0.128439,-0.156876,-0.572924,-0.076068,0.242699,0.192407,0.076293,-0.049293,-0.021439,-0.088141,-0.654919,0.121325,0.40506,-0.074805,0.002438,0.046746,-0.045562,0.489119,0.155299,-0.300814,-0.10185,-0.081771,-0.256222,-0.08194,-0.066228,0.203775,0.105906,-0.011664,0.011679,-0.068114,0.088187,-0.050729,0.084982,-0.643585,0.096671,-0.094656,-0.513994,0.066929,0.027832,-0.081061,-0.201896,-0.141757,0.099053,0.016654,-0.359038,0.17106,0.290685,0.016498,-0.072771,0.022094,0.21749,-0.116497,0.029927,0.123818,-0.116124,0.371805,